~o
<STREAMINFO> 1 39
<VECSIZE> 39<NULLD><MFCC_D_A_0><DIAGC>
~s "silst"
<MEAN> 39
 -1.362859e+01 1.184048e+00 -1.745924e+00 5.069450e-01 1.825710e-02 1.527750e+00 1.159238e+00 1.155335e+00 1.307921e+00 5.364981e-01 3.771169e-01 -2.420778e-01 2.407958e+01 -1.973056e+00 1.505227e-01 -1.879588e-01 4.917313e-02 1.020941e-01 2.548149e-01 2.862923e-01 1.675461e-01 2.605170e-01 5.815879e-02 6.199911e-02 -5.427048e-02 4.163249e+00 2.103486e-02 5.423284e-03 9.472515e-03 -1.569523e-02 7.456018e-03 1.235540e-02 -9.236485e-04 -2.149599e-02 2.465069e-03 -2.427331e-02 -1.637501e-02 -8.782550e-03 1.503043e-01
<VARIANCE> 39
 1.153294e+02 2.893289e+00 6.786698e+00 4.378513e+00 5.102019e+00 6.493603e+00 8.696358e+00 9.779416e+00 8.969225e+00 6.424242e+00 4.698374e+00 4.610502e+00 4.328177e+02 8.273020e+00 2.420216e-01 4.978400e-01 3.826807e-01 4.764462e-01 5.978917e-01 7.609727e-01 7.330797e-01 6.952114e-01 5.759156e-01 5.301741e-01 5.012355e-01 1.377858e+01 1.833984e+00 4.370761e-02 9.343208e-02 7.542673e-02 9.280811e-02 1.270817e-01 1.629173e-01 1.359660e-01 1.404919e-01 1.144833e-01 1.110817e-01 1.012729e-01 2.935509e+00
<GCONST> 7.633248e+01
~h "a"
<BEGINHMM>
<NUMSTATES> 5
<STATE> 2
<MEAN> 39
 -1.562403e+01 2.243559e+00 -8.480044e-01 -1.857721e-01 8.629360e-01 2.261191e+00 3.013731e+00 -5.250616e-01 3.095437e+00 -3.588219e-01 9.080472e-01 -7.060556e-01 5.956918e+01 -3.633777e-01 2.449941e-02 -2.398627e-02 2.288930e-03 2.016349e-02 3.582476e-02 7.337961e-02 1.716561e-01 1.160707e-01 3.569219e-02 -6.237986e-02 -1.013480e-01 -4.521540e-01 6.434462e-02 -4.730671e-02 3.226990e-02 1.725396e-02 3.406277e-02 5.111847e-03 -2.329377e-02 -4.813983e-02 -7.037778e-02 -5.155873e-02 1.233342e-02 -1.050522e-03 1.092464e-01
<VARIANCE> 39
 4.413084e+01 1.811672e+01 1.698273e+01 2.466570e+01 2.179109e+01 1.964682e+01 1.771061e+01 3.580029e+01 3.188610e+01 2.816698e+01 2.122165e+01 1.381514e+01 8.001273e+01 4.537281e-01 7.446307e-01 7.150830e-01 8.213463e-01 9.367456e-01 1.009842e+00 1.224389e+00 1.220770e+00 1.204670e+00 1.009907e+00 9.126914e-01 9.090587e-01 6.923283e-01 6.385071e-02 1.504398e-01 1.383498e-01 1.406282e-01 1.622838e-01 1.764737e-01 2.114174e-01 2.286195e-01 2.350221e-01 1.859327e-01 1.688682e-01 1.705562e-01 8.705495e-02
<GCONST> 8.785778e+01
<STATE> 3
<MEAN> 39
 -1.462355e+01 1.490898e+00 -9.078575e-01 -1.267355e+00 2.995669e-01 1.834839e+00 2.311851e+00 -1.885801e+00 1.958372e+00 -2.370440e+00 -6.790976e-01 -7.257840e-01 5.984279e+01 -1.035270e-01 1.050458e-02 3.012414e-01 2.970470e-01 3.434724e-01 1.086376e-01 -6.231889e-02 -7.933541e-02 -1.773558e-01 -1.844124e-01 5.503715e-02 -1.615380e-01 1.473116e-02 2.879306e-01 -1.133602e-01 1.727627e-01 2.696683e-02 -3.109871e-02 -8.949715e-02 -1.044629e-01 -2.027704e-01 -2.428347e-01 -1.347661e-01 2.778844e-02 5.102739e-03 4.493708e-01
<VARIANCE> 39
 5.521023e+01 2.305621e+01 2.103786e+01 2.901098e+01 2.685223e+01 2.109053e+01 1.656326e+01 3.107489e+01 3.647696e+01 3.320409e+01 3.245579e+01 1.660973e+01 1.212533e+02 9.468289e-01 1.982636e+00 1.170354e+00 1.097105e+00 1.095136e+00 1.393035e+00 1.776529e+00 1.644586e+00 1.556699e+00 1.308569e+00 1.285923e+00 1.126168e+00 1.792647e+00 2.737835e-01 4.161275e-01 2.333861e-01 2.666337e-01 2.629228e-01 2.868761e-01 3.482291e-01 3.225906e-01 4.150018e-01 2.683156e-01 2.673042e-01 2.391157e-01 4.363870e-01
<GCONST> 1.045555e+02
<STATE> 4
<MEAN> 39
 -1.083861e+01 5.756743e-01 -1.626660e+00 -1.548619e+00 -6.863006e-01 -1.905465e-01 2.565512e+00 -1.357909e+00 -1.262372e+00 -8.309819e-01 3.296022e+00 -4.003217e-01 6.493179e+01 2.215966e-01 1.168201e-01 1.712545e-01 1.567642e-01 7.985667e-02 -4.107200e-02 -8.597584e-02 -1.371969e-01 -1.621879e-01 -8.273765e-02 7.799166e-02 -1.646115e-03 1.925375e-01 6.956892e-02 -4.044495e-02 -1.828814e-02 -1.945389e-02 -5.506502e-02 -5.790301e-02 -3.914940e-02 -3.187777e-02 -2.342233e-02 -9.657839e-03 -2.698287e-02 3.848243e-03 9.915604e-02
<VARIANCE> 39
 7.662403e+01 3.522921e+01 2.590479e+01 2.727741e+01 2.844215e+01 4.562223e+01 2.779432e+01 2.916877e+01 6.585560e+01 4.159426e+01 3.858268e+01 1.352429e+01 1.097134e+02 4.168249e+00 3.203367e+00 2.058501e+00 1.568883e+00 1.983001e+00 2.824507e+00 2.290373e+00 2.204071e+00 3.615788e+00 1.653417e+00 1.575895e+00 1.213966e+00 4.389101e+00 4.709650e-01 5.390391e-01 3.238662e-01 2.613409e-01 3.378084e-01 4.683617e-01 4.332409e-01 3.830034e-01 4.878361e-01 3.117611e-01 2.977423e-01 2.336385e-01 5.826861e-01
<GCONST> 1.173281e+02
<TRANSP> 5
 0.000000e+00 1.000000e+00 0.000000e+00 0.000000e+00 0.000000e+00
 0.000000e+00 7.674000e-01 2.326000e-01 0.000000e+00 0.000000e+00
 0.000000e+00 0.000000e+00 1.039815e-01 8.960186e-01 0.000000e+00
 0.000000e+00 0.000000e+00 0.000000e+00 7.002229e-01 2.997771e-01
 0.000000e+00 0.000000e+00 0.000000e+00 0.000000e+00 0.000000e+00
<ENDHMM>
~h "b"
<BEGINHMM>
<NUMSTATES> 5
<STATE> 2
<MEAN> 39
 -1.429602e+00 -8.635068e+00 -6.791042e-01 -6.127472e+00 -4.207553e+00 -1.398961e+00 4.212234e+00 -7.890626e+00 -1.672822e+00 -1.091000e+01 -3.807218e+00 7.122371e+00 8.203362e+01 -9.160652e-02 1.867906e-01 2.866520e-02 3.071142e-01 1.180386e-01 1.655634e-02 1.600777e-02 -8.962330e-02 -9.874130e-02 1.913241e-01 -4.762464e-02 -2.269687e-01 -2.620970e-01 -7.161153e-03 4.200971e-02 1.736668e-03 2.023814e-02 1.921316e-02 6.845626e-03 -1.748637e-02 1.942642e-02 -1.247452e-02 -2.488410e-02 -3.218245e-02 -2.472761e-02 -4.116000e-02
<VARIANCE> 39
 1.101253e+01 3.369019e+01 1.806973e+01 5.062728e+01 3.928481e+01 2.282006e+01 2.634434e+01 4.699231e+01 3.536646e+01 2.042146e+01 4.128726e+01 5.362256e+01 2.787857e+01 1.946654e-01 1.811588e+00 8.928165e-01 1.981889e+00 1.281099e+00 1.560739e+00 1.247264e+00 1.456710e+00 1.433569e+00 1.111846e+00 3.003721e+00 2.975154e+00 9.862253e-01 2.912572e-02 1.894858e-01 1.604932e-01 2.361453e-01 1.379074e-01 3.089519e-01 1.922500e-01 1.754609e-01 2.872741e-01 2.060331e-01 4.746413e-01 4.820243e-01 1.006735e-01
<GCONST> 9.779021e+01
<STATE> 3
<MEAN> 39
 -1.046260e+01 7.312744e+00 4.093670e+00 6.121653e+00 7.196954e+00 3.864130e+00 2.208877e+00 -2.763727e+00 1.093081e+00 -4.376757e+00 -6.920983e-01 -3.000761e+00 6.360184e+01 -8.555249e-01 -6.985186e-02 -3.535233e-01 -4.430333e-01 -2.764477e-01 9.539215e-02 4.825479e-01 4.826668e-01 3.072514e-01 4.989205e-01 7.688669e-02 -9.098165e-02 -9.817243e-01 -2.392921e-02 -2.298872e-01 -8.162906e-02 -1.536548e-01 -1.212061e-01 -6.675950e-02 -1.085261e-01 -1.148171e-01 -7.113748e-02 -5.168072e-02 3.368233e-02 2.536677e-02 5.747320e-02
<VARIANCE> 39
 2.232814e+01 1.172793e+01 1.361641e+01 1.547690e+01 1.448703e+01 1.118990e+01 1.864477e+01 2.623236e+01 3.584182e+01 1.472144e+01 1.503798e+01 1.461167e+01 1.980414e+01 3.468390e-01 1.751553e+00 1.084376e+00 1.050206e+00 9.520912e-01 1.052138e+00 1.149798e+00 1.028422e+00 1.253773e+00 8.062718e-01 9.940172e-01 9.489018e-01 6.386971e-01 4.795898e-02 1.196003e-01 1.142442e-01 1.148226e-01 9.953705e-02 1.708784e-01 1.823502e-01 1.668641e-01 2.255374e-01 1.430563e-01 2.069400e-01 1.743993e-01 4.602199e-02
<GCONST> 8.093281e+01
<STATE> 4
<MEAN> 39
 -1.987313e+01 1.487800e+00 -2.197921e+00 -7.190203e-01 1.131332e+00 2.183647e+00 3.212541e+00 4.729007e-01 3.619337e+00 -1.085211e+00 5.824242e-01 -1.672072e+00 5.408622e+01 -1.058829e-01 -1.328535e-01 -1.210324e-01 -1.250070e-01 -1.356513e-01 -4.380544e-02 -1.396861e-01 -6.850025e-02 -1.867612e-02 -1.882713e-02 3.518454e-03 1.050887e-01 -2.331622e-01 5.155009e-02 8.781690e-03 4.922206e-02 4.130502e-02 4.326390e-02 3.061666e-02 -3.437812e-03 -1.134490e-02 -5.828720e-03 -2.470134e-02 6.512360e-03 -2.730407e-03 7.757849e-02
<VARIANCE> 39
 6.551308e+00 3.568819e+00 6.104606e+00 6.243221e+00 9.339684e+00 8.104756e+00 7.384254e+00 2.065874e+01 1.419487e+01 1.552428e+01 8.608090e+00 9.685922e+00 3.518324e+01 2.078099e-01 3.640953e-01 4.726003e-01 5.552567e-01 7.074699e-01 7.737259e-01 9.031092e-01 1.095465e+00 1.075307e+00 8.728371e-01 7.783647e-01 7.674552e-01 3.512625e-01 3.933082e-02 9.268671e-02 1.046488e-01 1.122517e-01 1.361545e-01 1.524642e-01 1.822459e-01 2.391952e-01 2.261954e-01 1.821512e-01 1.706571e-01 1.579427e-01 3.699396e-02
<GCONST> 6.787961e+01
<TRANSP> 5
 0.000000e+00 1.000000e+00 0.000000e+00 0.000000e+00 0.000000e+00
 0.000000e+00 9.268029e-01 7.319710e-02 0.000000e+00 0.000000e+00
 0.000000e+00 0.000000e+00 8.384517e-01 1.615483e-01 0.000000e+00
 0.000000e+00 0.000000e+00 0.000000e+00 9.300673e-01 6.993270e-02
 0.000000e+00 0.000000e+00 0.000000e+00 0.000000e+00 0.000000e+00
<ENDHMM>
~h "d"
<BEGINHMM>
<NUMSTATES> 5
<STATE> 2
<MEAN> 39
 -1.302892e+01 2.128992e+00 3.271604e+00 2.619221e+00 4.304972e+00 2.414858e+00 9.652978e-02 -2.729035e+00 3.345203e-01 -4.191668e+00 3.449182e-01 -1.424048e+00 6.349188e+01 -2.755107e-01 2.780372e-01 5.319213e-01 -1.753138e-01 3.667840e-02 2.931184e-01 1.783676e-01 -3.158160e-01 -4.155371e-02 8.058766e-02 6.696858e-02 1.247441e-01 -7.516265e-03 6.365784e-02 -1.797599e-01 -1.335606e-01 -1.330652e-01 -1.965224e-01 -2.170294e-01 -1.128119e-01 -7.152878e-02 -2.545987e-02 -5.633017e-02 -2.987312e-02 4.992489e-02 1.514824e-01
<VARIANCE> 39
 5.056898e+01 5.536720e+01 4.189756e+01 5.070949e+01 2.896913e+01 2.483463e+01 3.700986e+01 4.276212e+01 9.202765e+01 3.346675e+01 4.009261e+01 1.742061e+01 8.587103e+01 2.846291e+00 4.628903e+00 4.015270e+00 3.401326e+00 1.826592e+00 2.931420e+00 3.863575e+00 3.985043e+00 5.707598e+00 2.596551e+00 2.105024e+00 9.989296e-01 5.732598e+00 2.403186e-01 5.470123e-01 4.148507e-01 3.504865e-01 2.834005e-01 4.080710e-01 4.452412e-01 5.281767e-01 4.795784e-01 3.052140e-01 3.555490e-01 2.051248e-01 3.502302e-01
<GCONST> 1.218946e+02
<STATE> 3
<MEAN> 39
 -1.250378e+01 3.115938e+00 2.820651e+00 1.749380e+00 3.018609e+00 1.592803e+00 -5.533162e-01 -4.043077e+00 -5.580180e-01 -3.506867e+00 4.537086e-01 -9.348745e-01 6.365762e+01 -3.126562e-01 3.258225e-02 -1.859550e-01 -3.284500e-01 -2.890366e-01 1.513143e-01 4.151647e-01 -1.145266e-01 2.877874e-01 1.420868e-01 -1.653966e-01 1.359015e-01 -3.084297e-01 1.329117e-01 -3.313071e-01 -1.162490e-01 2.739316e-02 -5.843000e-02 -2.162523e-01 -1.272470e-01 4.732902e-02 -9.895118e-02 -9.424103e-02 -6.005783e-04 -2.578359e-03 2.467577e-01
<VARIANCE> 39
 5.032508e+01 6.072371e+01 4.212104e+01 4.527798e+01 2.851158e+01 1.797565e+01 3.163403e+01 3.706341e+01 7.553879e+01 3.335643e+01 3.596040e+01 2.100535e+01 8.213454e+01 1.899181e+00 2.189003e+00 1.977446e+00 1.943896e+00 1.263804e+00 2.275157e+00 2.399085e+00 2.537139e+00 4.022774e+00 1.783780e+00 2.050906e+00 1.107420e+00 3.972137e+00 2.343143e-01 6.060966e-01 3.615562e-01 3.736033e-01 2.774138e-01 4.434487e-01 3.968552e-01 4.173993e-01 5.201376e-01 2.923773e-01 2.991253e-01 2.118018e-01 2.775390e-01
<GCONST> 1.154619e+02
<STATE> 4
<MEAN> 39
 -1.574477e+01 1.100866e+00 2.438134e+00 2.363905e-03 2.385528e+00 3.042702e+00 1.615341e+00 -4.151876e+00 2.313861e+00 -4.364447e+00 2.377167e-01 -1.552848e+00 6.087677e+01 1.294009e-01 -2.341651e-01 -3.089395e-02 1.296826e-01 -2.662089e-02 -1.135522e-01 -5.994864e-03 -2.630502e-01 -2.634994e-01 -9.228399e-02 -2.362374e-03 5.267863e-02 2.393508e-01 1.705376e-01 -1.815593e-01 -8.371525e-03 4.367555e-02 5.335642e-02 -9.556355e-02 -1.956584e-01 -6.340279e-02 -1.850924e-01 -6.679720e-02 6.522675e-02 -1.302814e-03 2.196449e-01
<VARIANCE> 39
 6.276876e+01 7.403558e+01 4.631918e+01 4.312538e+01 2.225779e+01 1.989299e+01 2.817249e+01 3.613608e+01 4.005184e+01 2.878359e+01 2.186810e+01 1.781660e+01 1.348491e+02 1.820120e+00 2.748692e+00 2.024945e+00 1.869664e+00 1.495834e+00 1.447543e+00 1.669015e+00 2.024597e+00 2.454622e+00 1.327791e+00 1.878737e+00 1.057297e+00 3.453400e+00 1.942185e-01 5.096782e-01 2.529263e-01 2.870771e-01 2.809600e-01 3.112877e-01 3.858874e-01 3.942990e-01 5.192761e-01 2.493373e-01 3.115860e-01 1.822092e-01 3.233489e-01
<GCONST> 1.114007e+02
<TRANSP> 5
 0.000000e+00 1.000000e+00 0.000000e+00 0.000000e+00 0.000000e+00
 0.000000e+00 3.482125e-01 6.517875e-01 0.000000e+00 0.000000e+00
 0.000000e+00 0.000000e+00 1.955265e-01 8.044735e-01 0.000000e+00
 0.000000e+00 0.000000e+00 0.000000e+00 6.198485e-01 3.801514e-01
 0.000000e+00 0.000000e+00 0.000000e+00 0.000000e+00 0.000000e+00
<ENDHMM>
~h "e"
<BEGINHMM>
<NUMSTATES> 5
<STATE> 2
<MEAN> 39
 -6.123073e+00 -3.432992e+00 3.854484e+00 -4.489618e+00 2.470104e+00 8.573097e-01 -4.379569e+00 -3.167637e+00 3.019314e+00 -9.796307e+00 -3.196024e+00 -3.284994e+00 7.685066e+01 7.333015e-01 -5.771995e-01 -2.395467e-01 3.283089e-02 1.183781e-01 -4.874057e-01 -4.828631e-01 -3.895720e-01 -6.456115e-01 -1.973181e-01 2.528280e-01 3.086446e-01 1.143725e+00 -3.721642e-02 -1.033080e-01 -2.175530e-02 -4.865822e-02 -6.345751e-02 -1.281376e-01 1.682702e-03 -2.757096e-02 -7.319479e-02 7.902133e-02 1.467500e-01 7.760179e-02 7.929392e-02
<VARIANCE> 39
 4.550346e+01 3.660400e+01 4.908278e+01 7.759521e+01 6.383597e+01 9.048608e+01 7.087910e+01 9.302522e+01 7.605790e+01 5.602328e+01 6.000350e+01 5.211200e+01 8.490967e+01 3.546126e+00 4.094654e+00 2.604058e+00 3.703412e+00 2.748283e+00 5.952063e+00 5.673324e+00 4.621230e+00 4.299444e+00 2.913629e+00 4.336837e+00 2.534320e+00 6.105202e+00 5.559877e-01 4.445239e-01 3.626809e-01 4.659647e-01 4.041198e-01 8.606435e-01 7.855329e-01 6.904358e-01 6.206478e-01 4.845614e-01 5.337077e-01 3.417059e-01 5.990223e-01
<GCONST> 1.351200e+02
<STATE> 3
<MEAN> 39
 -3.189796e+00 -1.029209e+01 1.516029e+00 -1.350634e+00 3.358465e+00 -3.004184e+00 -8.319434e+00 -1.163236e+01 -5.939310e+00 -9.143172e+00 5.445062e+00 2.695334e+00 8.245237e+01 1.081563e-01 3.912394e-02 -2.606078e-01 3.318110e-01 2.700073e-01 -3.185637e-01 -2.753781e-01 -8.977740e-02 -3.191533e-01 4.827438e-01 4.644139e-01 -1.395063e-01 1.180880e-01 -2.655128e-01 3.638535e-01 1.471579e-01 1.318965e-01 -9.258732e-03 3.489944e-01 3.224244e-01 1.937080e-01 3.093985e-01 2.800714e-02 -3.347669e-01 -2.839073e-01 -4.555442e-01
<VARIANCE> 39
 1.878854e+01 4.459250e+01 2.908865e+01 5.542746e+01 4.330041e+01 2.795515e+01 7.850459e+01 8.084855e+01 7.014057e+01 8.775153e+01 4.381393e+01 3.456519e+01 4.524305e+01 1.292207e+00 2.911174e+00 2.001956e+00 2.493177e+00 1.576844e+00 2.572444e+00 3.024916e+00 2.960150e+00 2.580097e+00 2.754557e+00 3.861854e+00 3.660264e+00 2.218187e+00 2.655632e-01 3.944674e-01 3.009213e-01 4.052938e-01 2.347561e-01 3.973632e-01 4.438803e-01 4.896560e-01 4.239301e-01 4.907477e-01 5.126241e-01 5.720071e-01 2.559279e-01
<GCONST> 1.210211e+02
<STATE> 4
<MEAN> 39
 -6.706427e+00 -1.243689e+00 4.394915e-01 4.184457e+00 5.143555e+00 -1.699281e+00 -4.293750e+00 -9.136294e+00 -8.282508e+00 -3.107202e+00 6.355100e+00 -5.672700e-01 7.199793e+01 -6.790988e-01 9.498897e-01 1.493669e-01 9.687632e-02 -3.220180e-02 5.912886e-01 5.362107e-01 4.339624e-01 1.135636e+00 2.795299e-01 -7.277439e-01 -2.913063e-01 -1.325041e+00 -9.483329e-02 -7.156208e-02 5.213134e-02 -1.508320e-01 -7.047584e-02 4.949734e-02 -6.496958e-03 7.208157e-02 2.218016e-01 7.004641e-03 -1.305445e-01 -3.572666e-02 -1.627499e-02
<VARIANCE> 39
 3.598794e+01 3.928461e+01 2.322618e+01 5.003091e+01 3.037275e+01 4.436346e+01 4.693336e+01 5.748128e+01 1.003630e+02 3.751585e+01 6.212093e+01 2.255783e+01 5.803142e+01 1.618954e+00 2.849724e+00 1.807636e+00 2.272691e+00 1.485453e+00 2.629302e+00 3.041945e+00 3.413037e+00 4.738702e+00 2.070367e+00 3.756420e+00 1.856128e+00 2.518661e+00 1.820414e-01 4.193765e-01 3.171556e-01 3.583224e-01 2.643213e-01 3.965498e-01 4.317316e-01 5.644326e-01 6.270651e-01 3.462221e-01 5.614702e-01 3.325071e-01 3.015839e-01
<GCONST> 1.196097e+02
<TRANSP> 5
 0.000000e+00 1.000000e+00 0.000000e+00 0.000000e+00 0.000000e+00
 0.000000e+00 7.512215e-01 2.487785e-01 0.000000e+00 0.000000e+00
 0.000000e+00 0.000000e+00 6.785012e-01 3.214988e-01 0.000000e+00
 0.000000e+00 0.000000e+00 0.000000e+00 7.639264e-01 2.360737e-01
 0.000000e+00 0.000000e+00 0.000000e+00 0.000000e+00 0.000000e+00
<ENDHMM>
~h "f"
<BEGINHMM>
<NUMSTATES> 5
<STATE> 2
<MEAN> 39
 -3.463642e+00 -7.007710e+00 1.123650e+01 1.983160e+00 8.246962e+00 5.052279e+00 -1.533608e+01 -9.728626e+00 1.181870e+01 -1.424179e+01 -1.154664e+01 -1.107991e+00 7.916560e+01 -9.375202e-02 -2.612042e-02 4.298058e-01 6.428802e-01 3.830698e-01 4.358986e-01 -4.120709e-01 -2.991005e-01 3.301349e-01 -2.755234e-01 -3.550116e-01 -6.514534e-01 -5.839942e-02 -6.617412e-02 7.152893e-02 3.714403e-02 -6.907893e-02 -1.102812e-01 2.194472e-03 1.491909e-01 9.686542e-02 -3.718895e-02 4.526524e-02 8.002710e-02 -6.330451e-02 -5.329451e-02
<VARIANCE> 39
 1.096423e+01 7.202850e+01 3.350059e+01 1.525802e+02 1.676011e+02 6.561354e+01 8.155703e+01 2.112667e+01 1.384686e+02 2.140475e+01 8.027348e+01 5.901189e+01 2.373048e+01 3.311239e-01 6.625782e+00 2.480250e+00 2.382858e+00 2.299317e+00 3.881913e+00 8.489675e+00 1.055147e+00 4.229651e+00 1.166711e+00 3.094484e+00 2.558690e+00 2.221077e+00 4.676566e-02 8.310522e-01 2.859302e-01 3.311626e-01 2.404622e-01 6.494656e-01 1.177773e+00 2.513176e-01 6.649805e-01 2.487877e-01 4.743174e-01 4.009767e-01 3.143257e-01
<GCONST> 1.213816e+02
<STATE> 3
<MEAN> 39
 -8.289210e+00 -5.765706e+00 1.285387e+01 1.481413e+01 1.149777e+01 -2.154829e+00 -1.241364e+01 -9.885019e+00 -2.498590e+00 -9.063165e+00 -4.422957e+00 -8.762734e+00 7.604372e+01 -1.768294e-01 4.586093e-01 -3.727230e-01 -5.491988e-01 -5.185976e-01 3.919639e-01 8.191795e-01 5.796719e-01 5.038572e-01 2.684184e-01 -6.462829e-02 2.723654e-01 -4.060946e-01 -3.184780e-02 4.378489e-02 -1.087409e-01 -1.370940e-01 -2.061095e-02 2.504435e-02 1.409889e-01 7.995831e-02 5.689409e-03 4.011955e-02 6.143659e-02 9.055094e-02 -4.140684e-02
<VARIANCE> 39
 4.483346e+00 3.266994e+01 3.188286e+01 3.853968e+01 1.312600e+01 4.180629e+01 3.883551e+01 2.839034e+01 1.015149e+02 1.289793e+01 6.106516e+01 1.764316e+01 1.251574e+01 2.357229e-01 1.010492e+00 1.346299e+00 1.269384e+00 1.605363e+00 1.102750e+00 1.512057e+00 1.308981e+00 1.676931e+00 7.021939e-01 1.795710e+00 8.626496e-01 5.776867e-01 5.341749e-02 1.705195e-01 2.848091e-01 1.877605e-01 3.303248e-01 1.768470e-01 3.087463e-01 2.651816e-01 4.117619e-01 1.567250e-01 3.906515e-01 1.555113e-01 1.177495e-01
<GCONST> 9.353431e+01
<STATE> 4
<MEAN> 39
 -1.687421e+01 -4.992712e+00 5.945740e+00 -6.044472e+00 4.910198e+00 7.402610e+00 -3.445038e+00 -4.464770e+00 5.996202e+00 -7.050552e+00 -3.273692e+00 -2.359469e+00 7.636366e+01 -1.290777e-01 1.240718e-01 -8.666129e-02 -8.857006e-01 -1.164054e+00 -9.186076e-01 3.385229e-01 1.622057e-01 -3.873722e-01 1.639661e-01 4.561690e-01 3.420607e-01 1.924881e-01 3.706548e-01 1.287209e-01 4.218174e-02 1.795772e-01 -1.415881e-01 -2.939120e-01 -1.453808e-01 -9.966000e-02 3.270342e-02 9.918442e-02 -1.412444e-01 -5.390401e-02 3.936886e-02
<VARIANCE> 39
 7.088871e+01 2.731607e+01 2.312196e+01 7.383533e+01 3.804514e+01 5.445278e+01 5.618127e+01 2.958055e+01 8.673858e+01 1.966683e+01 3.349971e+01 1.697485e+01 2.134430e+01 1.025297e+01 4.269910e+00 2.251099e+00 2.724274e+00 2.406583e+00 4.156977e+00 2.693777e+00 3.627840e+00 1.078187e+00 2.554673e+00 2.375620e+00 1.729328e+00 1.410804e+00 8.484622e-01 7.225634e-01 4.233146e-01 3.870159e-01 4.763097e-01 6.703354e-01 3.607439e-01 5.874980e-01 2.635427e-01 4.349023e-01 4.744981e-01 2.786159e-01 2.872526e-01
<GCONST> 1.211035e+02
<TRANSP> 5
 0.000000e+00 1.000000e+00 0.000000e+00 0.000000e+00 0.000000e+00
 0.000000e+00 8.270186e-01 1.729814e-01 0.000000e+00 0.000000e+00
 0.000000e+00 0.000000e+00 8.898433e-01 1.101567e-01 0.000000e+00
 0.000000e+00 0.000000e+00 0.000000e+00 8.611646e-01 1.388355e-01
 0.000000e+00 0.000000e+00 0.000000e+00 0.000000e+00 0.000000e+00
<ENDHMM>
~h "g"
<BEGINHMM>
<NUMSTATES> 5
<STATE> 2
<MEAN> 39
 -5.403466e-01 -3.809379e+00 4.684713e+00 -9.124634e+00 -8.113893e+00 -6.368061e+00 -5.809833e+00 -2.036820e+00 6.560434e+00 -1.152682e+01 -8.119971e+00 2.275736e+00 8.155045e+01 -5.101919e-03 -1.634809e-01 -3.658088e-03 -7.136248e-02 -1.047740e-01 -9.679968e-02 1.377761e-01 1.164184e-01 4.434167e-02 1.098088e-01 2.241095e-02 1.573283e-01 1.700664e-01 -3.772222e-02 1.964693e-02 9.309607e-03 7.707907e-02 5.338423e-02 8.740311e-02 2.590893e-02 -5.202185e-02 1.314046e-02 7.369661e-03 -4.500231e-02 -3.167790e-02 -5.218613e-02
<VARIANCE> 39
 6.721042e+00 5.334314e+01 5.898820e+01 2.942161e+01 2.889665e+01 5.135704e+01 1.513197e+02 4.789100e+01 1.055582e+02 3.576676e+01 3.140300e+01 3.901809e+01 2.171040e+01 2.737473e-01 1.743478e+00 1.869274e+00 1.567013e+00 1.233718e+00 2.887097e+00 3.338947e+00 1.671008e+00 2.274528e+00 1.556425e+00 1.470393e+00 1.446763e+00 5.564710e-01 5.732853e-02 1.709796e-01 1.965254e-01 2.388378e-01 1.699855e-01 3.051923e-01 3.422183e-01 2.088845e-01 3.362363e-01 2.996776e-01 2.669145e-01 2.335822e-01 6.004055e-02
<GCONST> 1.032274e+02
<STATE> 3
<MEAN> 39
 -3.452567e+00 -1.472043e+00 4.928336e+00 -1.522743e+00 -2.069461e+00 3.328915e+00 -2.238688e+00 -6.085886e+00 1.033751e+01 -8.378384e+00 -1.170230e+01 -2.842247e-01 7.739413e+01 -2.738551e-01 4.077558e-01 2.220397e-01 8.911350e-01 8.142422e-01 3.799649e-01 -2.295109e-01 -4.548357e-01 1.722445e-01 1.941054e-01 -1.561667e-01 -5.128130e-01 -5.700983e-01 -3.052418e-02 1.987052e-02 -5.538598e-02 -1.379255e-02 8.688240e-02 -8.073585e-02 7.175635e-02 1.296061e-01 -1.928549e-01 -1.017207e-02 1.667734e-01 -2.446484e-02 -5.238644e-02
<VARIANCE> 39
 9.282121e+00 1.153699e+01 1.366153e+01 3.318715e+01 2.539183e+01 3.829143e+01 1.782717e+01 2.485192e+01 6.429272e+01 2.135172e+01 6.869689e+01 2.083008e+01 1.762919e+01 1.773076e-01 9.415451e-01 5.466689e-01 1.366667e+00 6.225047e-01 1.433788e+00 1.106085e+00 1.758894e+00 1.148088e+00 1.143005e+00 1.418761e+00 7.832314e-01 4.574052e-01 3.067034e-02 1.430701e-01 8.174486e-02 2.116149e-01 1.279332e-01 2.180860e-01 1.335061e-01 2.205407e-01 2.042441e-01 2.298371e-01 3.397849e-01 1.637227e-01 6.913228e-02
<GCONST> 8.565639e+01
<STATE> 4
<MEAN> 39
 -5.254745e+00 -3.374126e+00 3.703784e+00 6.178888e+00 7.340796e+00 -2.085974e+00 -5.594310e+00 -1.144235e+01 -1.075611e+01 -4.742101e+00 2.919078e+00 -2.543791e+00 7.561326e+01 -9.867310e-02 -5.668156e-02 -1.329907e-01 1.620924e-01 2.735764e-01 -5.093017e-02 -1.076011e-02 -1.482603e-02 -4.638394e-01 8.074831e-03 3.418747e-01 -4.094552e-02 -1.114092e-01 -9.430382e-02 2.110026e-02 -4.597243e-02 -1.139119e-01 -1.051124e-01 5.549108e-02 8.983359e-02 1.186973e-01 1.612130e-01 3.536647e-02 -7.155837e-02 5.304493e-02 -1.098284e-01
<VARIANCE> 39
 1.890951e+01 5.638977e+01 2.930713e+01 4.996262e+01 2.663761e+01 4.639461e+01 6.521545e+01 4.927878e+01 1.315730e+02 2.632375e+01 6.668793e+01 2.023768e+01 5.077970e+01 1.656097e+00 3.774086e+00 2.199861e+00 2.973683e+00 1.882010e+00 2.937171e+00 5.205290e+00 2.931195e+00 6.087282e+00 2.375365e+00 2.960071e+00 1.578754e+00 3.412914e+00 1.555469e-01 6.228643e-01 4.104293e-01 4.976246e-01 2.857220e-01 5.143494e-01 8.459091e-01 4.578288e-01 8.199947e-01 3.972531e-01 3.691497e-01 2.557749e-01 3.738912e-01
<GCONST> 1.227502e+02
<TRANSP> 5
 0.000000e+00 1.000000e+00 0.000000e+00 0.000000e+00 0.000000e+00
 0.000000e+00 9.331621e-01 6.683794e-02 0.000000e+00 0.000000e+00
 0.000000e+00 0.000000e+00 8.631981e-01 1.368019e-01 0.000000e+00
 0.000000e+00 0.000000e+00 0.000000e+00 9.001871e-01 9.981281e-02
 0.000000e+00 0.000000e+00 0.000000e+00 0.000000e+00 0.000000e+00
<ENDHMM>
~h "i"
<BEGINHMM>
<NUMSTATES> 5
<STATE> 2
<MEAN> 39
 -5.744505e+00 -7.083614e+00 2.394702e+00 -5.933450e+00 -5.722917e+00 -1.784053e+00 -2.950059e+00 -1.474645e+00 5.213901e+00 -9.424867e+00 -9.742004e-01 2.046401e-01 7.659190e+01 2.160099e-01 7.915097e-02 -1.084212e-01 -1.481416e-01 -1.584202e-01 -4.065342e-02 1.210890e-01 3.403212e-02 -4.978365e-02 4.339963e-02 -2.264690e-02 -1.882622e-02 2.613577e-01 -9.110805e-02 1.168993e-01 -2.661783e-03 6.589156e-02 6.672319e-02 8.992101e-02 1.652383e-02 9.953219e-03 4.590499e-02 1.793244e-02 -2.123583e-04 -1.565760e-02 -1.908436e-01
<VARIANCE> 39
 5.317360e+01 6.818169e+01 4.062502e+01 6.420991e+01 8.509478e+01 4.176461e+01 1.024483e+02 7.832492e+01 9.861996e+01 9.293849e+01 3.071926e+01 2.503644e+01 1.199120e+02 3.256849e+00 3.772612e+00 2.013489e+00 2.433111e+00 3.186296e+00 2.746148e+00 4.412125e+00 2.562568e+00 2.812370e+00 2.636224e+00 1.819255e+00 1.401167e+00 7.120863e+00 3.788240e-01 4.469000e-01 3.001365e-01 3.107898e-01 4.654130e-01 4.965018e-01 6.146686e-01 3.811674e-01 4.252700e-01 3.764738e-01 2.880704e-01 2.101301e-01 6.172858e-01
<GCONST> 1.268714e+02
<STATE> 3
<MEAN> 39
 -6.489813e+00 -1.036417e+00 2.883020e+00 3.115887e+00 3.454110e+00 -3.668300e-01 -3.906606e+00 -6.810291e+00 -4.516680e+00 -5.330947e+00 2.628184e+00 -6.422029e-01 7.252607e+01 -6.060756e-01 5.933448e-01 -2.422418e-01 -1.341911e-01 -1.238000e-01 4.407994e-01 7.450907e-01 4.581400e-01 6.622620e-01 3.196644e-01 -8.243299e-02 8.236856e-02 -9.951373e-01 -8.571579e-02 -7.187543e-02 -3.023822e-03 -6.846999e-02 -5.832493e-03 -2.137224e-02 5.362654e-02 1.030812e-01 7.229745e-02 3.304479e-02 2.931593e-02 2.163189e-02 -4.362151e-02
<VARIANCE> 39
 4.032802e+01 5.551371e+01 3.871184e+01 7.205759e+01 4.797421e+01 6.810800e+01 5.224057e+01 5.400575e+01 1.276163e+02 6.259516e+01 8.182960e+01 3.790828e+01 6.941192e+01 1.526161e+00 2.233801e+00 2.520550e+00 2.806746e+00 2.100594e+00 1.891895e+00 2.725197e+00 2.443489e+00 3.564580e+00 1.835285e+00 2.435651e+00 1.759495e+00 1.924764e+00 1.576373e-01 3.473007e-01 3.033013e-01 2.960389e-01 2.441213e-01 3.128441e-01 3.944356e-01 3.269020e-01 4.796169e-01 2.815095e-01 3.688235e-01 2.889039e-01 1.710003e-01
<GCONST> 1.191304e+02
<STATE> 4
<MEAN> 39
 -1.586073e+01 1.904780e+00 4.058302e-01 7.041084e-01 2.078755e+00 2.483789e+00 1.840800e+00 -2.533863e+00 3.183745e+00 -2.041584e+00 5.472165e-01 -1.574866e+00 5.882371e+01 -4.245538e-01 4.138386e-02 -2.568054e-01 -2.010732e-01 -6.461883e-02 1.330637e-02 2.183238e-01 2.187853e-01 5.056979e-02 2.716570e-01 2.144166e-01 3.031472e-02 -6.699705e-01 8.382866e-02 -1.407657e-01 4.898689e-02 3.062382e-02 6.487787e-03 -7.852929e-02 -1.171242e-01 -9.442769e-02 -8.833082e-02 -7.215111e-02 2.637927e-03 -4.716047e-02 1.886102e-01
<VARIANCE> 39
 3.597516e+01 2.948868e+01 2.055096e+01 2.285789e+01 2.071153e+01 2.178315e+01 2.262660e+01 3.625524e+01 3.220780e+01 2.737137e+01 1.638070e+01 1.329032e+01 7.776884e+01 5.471557e-01 1.386600e+00 1.298908e+00 1.150440e+00 1.108829e+00 1.147439e+00 1.681211e+00 1.499239e+00 1.465220e+00 1.128402e+00 1.118023e+00 1.001423e+00 9.047319e-01 9.798898e-02 2.817448e-01 1.782927e-01 1.937750e-01 2.119181e-01 2.381177e-01 3.204606e-01 3.055079e-01 3.363641e-01 2.329376e-01 2.382334e-01 1.674951e-01 1.721014e-01
<GCONST> 9.614998e+01
<TRANSP> 5
 0.000000e+00 1.000000e+00 0.000000e+00 0.000000e+00 0.000000e+00
 0.000000e+00 7.575369e-01 2.424631e-01 0.000000e+00 0.000000e+00
 0.000000e+00 0.000000e+00 7.134604e-01 2.865396e-01 0.000000e+00
 0.000000e+00 0.000000e+00 0.000000e+00 7.125952e-01 2.874048e-01
 0.000000e+00 0.000000e+00 0.000000e+00 0.000000e+00 0.000000e+00
<ENDHMM>
~h "j"
<BEGINHMM>
<NUMSTATES> 5
<STATE> 2
<MEAN> 39
 -8.232131e+00 2.882718e+00 -3.072086e+00 -6.124966e+00 -5.087053e+00 -2.944915e+00 9.757584e-01 -2.463590e+00 2.140650e+00 -1.609607e+00 1.551672e+00 -1.876191e+00 6.544614e+01 -9.990366e-01 3.134757e-01 -5.267997e-02 4.773057e-01 6.574091e-01 5.027694e-01 2.332756e-01 -7.593769e-02 -1.194197e-01 2.322915e-01 4.591882e-01 1.813133e-01 -1.509172e+00 4.558064e-02 -1.901952e-01 1.381598e-01 4.624782e-02 9.843448e-03 -4.263299e-02 -3.626324e-02 -9.041606e-02 -5.239171e-02 -2.514460e-02 -1.470322e-01 -1.914386e-02 2.413889e-01
<VARIANCE> 39
 5.148622e+01 9.742273e+00 1.078979e+01 1.928590e+01 2.584451e+01 2.441661e+01 1.617090e+01 2.268589e+01 9.308860e+01 2.379456e+01 3.261461e+01 1.053942e+01 9.167397e+01 6.309175e-01 9.388161e-01 9.057436e-01 8.097019e-01 8.988129e-01 1.205839e+00 1.725566e+00 1.419696e+00 1.426606e+00 1.839731e+00 1.115341e+00 9.114905e-01 1.327066e+00 7.901787e-02 2.147449e-01 1.225447e-01 1.628725e-01 1.699651e-01 2.453806e-01 3.523394e-01 2.083256e-01 2.758443e-01 3.142532e-01 2.620569e-01 1.721939e-01 2.732656e-01
<GCONST> 9.443301e+01
<STATE> 3
<MEAN> 39
 -1.573652e+01 1.278896e+00 -1.318097e+00 -1.769896e+00 -2.824848e-01 1.920189e+00 1.878304e+00 -4.227443e+00 2.025615e+00 -5.215862e-01 1.218094e+00 -1.254210e+00 5.728358e+01 7.272914e-01 -1.498281e+00 8.763679e-01 -6.361677e-01 -8.047525e-01 4.732555e-02 -2.363244e-01 -9.658284e-01 -6.923220e-01 -1.040571e+00 -1.090446e+00 3.292421e-01 3.226785e+00 8.709311e-01 -4.832497e-01 2.613758e-01 -6.029181e-01 -7.055351e-01 -5.107952e-01 -1.420748e-01 8.040424e-03 -1.226181e-01 -4.789236e-01 -4.965840e-01 5.624694e-02 1.658738e+00
<VARIANCE> 39
 3.921447e+01 1.372432e+01 1.007677e+01 1.295109e+01 1.228585e+01 1.623511e+01 1.593612e+01 2.935223e+01 4.565337e+01 2.181821e+01 1.943770e+01 1.121265e+01 8.348325e+01 3.300389e+00 3.534922e+00 3.201077e+00 4.970016e+00 3.389235e+00 3.293611e+00 6.835362e+00 1.851119e+00 3.246743e+00 2.471152e+00 2.633527e+00 1.418366e+00 1.400811e+01 4.599743e-01 4.435738e-01 2.806624e-01 5.087436e-01 5.867811e-01 5.809904e-01 1.154716e+00 6.081500e-01 6.782205e-01 4.298263e-01 4.765670e-01 2.986917e-01 1.162013e+00
<GCONST> 1.192096e+02
<STATE> 4
<MEAN> 39
 -3.323402e+00 -7.678066e+00 1.806723e+00 -1.091054e+01 -8.007213e+00 -2.639050e+00 4.187953e+00 -7.675656e+00 -5.826098e-01 -2.511851e+00 -6.196103e+00 9.174719e-01 8.106091e+01 8.124830e-01 3.214972e-02 2.534311e-01 -1.046272e-01 -2.997983e-01 -4.154038e-01 -3.017825e-01 2.505874e-01 4.879875e-01 -2.434539e-01 -2.828096e-01 1.320750e-01 9.236128e-01 -3.095669e-01 2.609215e-01 -8.274730e-02 2.684513e-01 2.523402e-01 1.310737e-01 -2.772063e-03 7.394464e-02 1.028620e-01 1.076037e-01 1.412358e-01 -6.954034e-02 -6.692039e-01
<VARIANCE> 39
 2.789572e+01 4.976280e+01 1.926651e+01 3.225605e+01 3.380853e+01 4.229324e+01 9.068333e+01 7.403197e+01 8.601798e+01 8.731477e+01 3.404139e+01 1.871398e+01 3.558976e+01 4.248440e+00 4.557468e+00 1.974084e+00 3.849704e+00 3.732136e+00 3.176470e+00 4.725325e+00 3.532919e+00 2.942677e+00 5.985359e+00 3.419444e+00 1.521821e+00 1.078319e+01 3.577179e-01 5.055060e-01 4.207576e-01 4.759091e-01 4.216861e-01 5.446022e-01 8.867639e-01 5.247324e-01 4.962187e-01 1.004426e+00 4.952939e-01 2.588582e-01 6.695334e-01
<GCONST> 1.288442e+02
<TRANSP> 5
 0.000000e+00 1.000000e+00 0.000000e+00 0.000000e+00 0.000000e+00
 0.000000e+00 8.132095e-01 1.867905e-01 0.000000e+00 0.000000e+00
 0.000000e+00 0.000000e+00 5.414432e-01 4.585568e-01 0.000000e+00
 0.000000e+00 0.000000e+00 0.000000e+00 8.595507e-01 1.404493e-01
 0.000000e+00 0.000000e+00 0.000000e+00 0.000000e+00 0.000000e+00
<ENDHMM>
~h "k"
<BEGINHMM>
<NUMSTATES> 5
<STATE> 2
<MEAN> 39
 -1.521641e+01 -3.381665e+00 -5.852837e-01 -2.799190e+00 -2.349963e-01 1.974049e+00 2.441462e+00 -5.712597e+00 -3.044665e+00 -3.772846e+00 2.031159e+00 -8.815943e-01 6.623964e+01 9.778988e-01 -7.349390e-01 3.199049e-02 -8.052926e-01 -7.190327e-01 -2.599039e-01 3.696320e-01 -3.828358e-01 -1.085551e+00 -2.691441e-01 3.770792e-01 3.144664e-01 1.845332e+00 3.594329e-01 7.336534e-02 2.781559e-02 7.986005e-02 -6.159969e-02 -1.465267e-01 -9.529111e-02 -5.409678e-02 6.757005e-02 1.513419e-01 -1.033987e-01 -4.226629e-02 1.558732e-01
<VARIANCE> 39
 3.398663e+01 4.554672e+01 3.437659e+01 5.299296e+01 4.108908e+01 2.864847e+01 4.853268e+01 4.498700e+01 7.184525e+01 4.200078e+01 3.150006e+01 2.110954e+01 1.160309e+02 4.230534e+00 4.711254e+00 4.168070e+00 5.743952e+00 4.060348e+00 3.310003e+00 4.638432e+00 4.036128e+00 6.070987e+00 3.717465e+00 3.012722e+00 2.119056e+00 8.587851e+00 4.095652e-01 1.016217e+00 9.186101e-01 1.230203e+00 8.342915e-01 5.963205e-01 8.556699e-01 7.376891e-01 1.125685e+00 8.029629e-01 5.576788e-01 4.088033e-01 1.637720e+00
<GCONST> 1.363724e+02
<STATE> 3
<MEAN> 39
 -1.615344e+00 -6.183422e+00 -2.965492e+00 -7.860843e+00 -6.118619e+00 -2.166076e+00 5.062036e+00 -9.136736e+00 -5.823500e+00 1.268293e+00 3.411402e-01 5.480770e-01 7.953426e+01 2.385885e-01 6.229103e-01 -6.462137e-02 5.088954e-02 -2.085435e-01 -7.489704e-02 1.230370e-02 3.516460e-01 7.971910e-01 2.042390e-01 -4.574946e-01 -3.085363e-01 -3.193735e-01 -4.165060e-01 2.001667e-01 1.163018e-01 1.448149e-01 1.530441e-01 1.161711e-01 -1.144052e-01 1.012154e-01 1.856942e-01 -1.831931e-01 -7.120050e-03 -2.340207e-02 -3.793049e-01
<VARIANCE> 39
 2.563095e+01 2.936718e+01 1.653289e+01 2.766186e+01 2.746469e+01 2.816673e+01 5.287912e+01 5.603762e+01 7.872695e+01 4.999641e+01 7.805377e+01 2.752754e+01 5.997284e+01 2.256309e+00 2.360884e+00 1.312895e+00 2.009029e+00 1.677706e+00 1.534640e+00 1.827616e+00 1.754338e+00 2.084977e+00 2.847750e+00 1.864769e+00 1.255085e+00 1.987254e+00 2.551888e-01 2.798457e-01 2.305599e-01 3.166037e-01 2.770213e-01 2.853459e-01 3.133785e-01 2.913751e-01 4.036554e-01 3.453562e-01 3.368385e-01 2.427533e-01 1.993971e-01
<GCONST> 1.109131e+02
<STATE> 4
<MEAN> 39
 -1.079096e+01 2.021039e+00 -2.128881e-02 -1.195420e+00 6.070042e-01 3.532822e+00 2.245269e+00 -3.947224e+00 2.745997e+00 -1.249484e+00 3.822309e-02 -9.433674e-01 6.573590e+01 -1.132616e+00 4.694816e-01 2.246024e-01 4.059284e-01 3.890411e-01 1.469272e-01 -2.151733e-01 4.355986e-01 1.090274e+00 9.013973e-03 -3.788353e-01 2.503797e-02 -1.384398e+00 5.108365e-02 -3.593302e-01 -1.062848e-01 -1.513114e-01 -1.465251e-01 -1.513285e-01 2.913929e-02 -7.945735e-02 -2.754336e-01 8.297978e-02 1.812416e-01 7.859001e-02 2.361302e-01
<VARIANCE> 39
 4.658247e+01 1.947528e+01 1.697994e+01 2.405536e+01 4.285894e+01 5.394446e+01 2.264276e+01 3.074134e+01 6.622523e+01 3.227532e+01 3.617655e+01 1.678842e+01 7.014823e+01 2.671694e+00 2.128006e+00 1.528997e+00 3.322714e+00 2.470250e+00 3.054397e+00 2.763604e+00 2.583523e+00 3.615368e+00 1.961351e+00 2.117889e+00 1.901120e+00 2.899456e+00 1.892806e-01 3.529126e-01 2.220162e-01 2.998936e-01 3.011579e-01 3.763777e-01 4.216534e-01 3.762120e-01 4.258487e-01 3.219326e-01 3.303267e-01 2.767464e-01 3.112099e-01
<GCONST> 1.139039e+02
<TRANSP> 5
 0.000000e+00 1.000000e+00 0.000000e+00 0.000000e+00 0.000000e+00
 0.000000e+00 8.140826e-01 1.859175e-01 0.000000e+00 0.000000e+00
 0.000000e+00 0.000000e+00 8.180903e-01 1.819098e-01 0.000000e+00
 0.000000e+00 0.000000e+00 0.000000e+00 6.014516e-01 3.985485e-01
 0.000000e+00 0.000000e+00 0.000000e+00 0.000000e+00 0.000000e+00
<ENDHMM>
~h "l"
<BEGINHMM>
<NUMSTATES> 5
<STATE> 2
<MEAN> 39
 -9.361584e+00 -4.093778e+00 1.080074e+01 4.997009e+00 6.017263e+00 2.919304e+00 -3.862381e+00 -7.042409e+00 2.488163e+00 -8.848603e+00 -2.584046e+00 -2.553558e+00 7.390733e+01 4.091439e-01 -1.092867e+00 4.532468e-01 -8.254708e-02 2.639611e-01 -1.951364e-01 -8.774793e-01 -2.919968e-01 -1.138896e-01 -5.136631e-01 -4.332061e-01 -8.812915e-02 1.298429e+00 4.637136e-02 1.150502e-01 -8.075619e-02 -1.164984e-01 1.296015e-02 -5.691206e-02 -2.995670e-02 1.401224e-02 -8.950908e-03 1.739796e-02 2.159263e-02 5.162723e-02 -8.377299e-02
<VARIANCE> 39
 3.854587e+01 1.045239e+02 7.775528e+01 5.952287e+01 6.246130e+01 3.939538e+01 8.661375e+01 3.320143e+01 7.438493e+01 5.231530e+01 4.646516e+01 2.638923e+01 7.507211e+01 3.366477e+00 8.643684e+00 4.123952e+00 3.349657e+00 4.898999e+00 3.172241e+00 7.558897e+00 3.382585e+00 3.139468e+00 4.224180e+00 3.501996e+00 2.535349e+00 5.463131e+00 4.347194e-01 1.480292e+00 5.884443e-01 6.051865e-01 8.314736e-01 5.649527e-01 1.173733e+00 6.277612e-01 5.135354e-01 7.804024e-01 5.374674e-01 4.419449e-01 8.071086e-01
<GCONST> 1.372346e+02
<STATE> 3
<MEAN> 39
 -3.500108e+00 -5.941903e+00 5.335422e+00 1.669324e+00 4.952536e+00 7.079482e-01 -6.656300e+00 -1.144228e+01 1.076700e+00 -7.113305e+00 -5.150413e+00 -3.281950e+00 7.943320e+01 1.348796e-01 1.520842e-01 -3.392367e-01 -3.854976e-01 -3.771238e-01 -1.245977e-01 1.052551e-01 3.086372e-01 4.654637e-03 -8.196148e-02 1.355863e-01 2.484068e-01 -3.729153e-03 -3.745420e-02 -5.020481e-03 -7.265260e-03 -4.037355e-03 -4.719277e-02 -3.482882e-02 4.243781e-02 3.842717e-02 -1.549011e-02 3.651286e-02 7.206295e-02 4.664069e-02 -2.427566e-02
<VARIANCE> 39
 1.031203e+01 4.669840e+01 5.360635e+01 8.522626e+01 8.121472e+01 7.792135e+01 9.471375e+01 5.226893e+01 9.695187e+01 5.800417e+01 6.033329e+01 6.041058e+01 2.568791e+01 3.787040e-01 2.323330e+00 2.069014e+00 2.732388e+00 1.970971e+00 4.374978e+00 2.807832e+00 2.749768e+00 2.574254e+00 2.089148e+00 4.079754e+00 2.872906e+00 1.187646e+00 4.807265e-02 2.952803e-01 2.896424e-01 3.200326e-01 2.815015e-01 5.726853e-01 4.358134e-01 3.683102e-01 4.145164e-01 3.245170e-01 6.293196e-01 4.157939e-01 1.615083e-01
<GCONST> 1.182836e+02
<STATE> 4
<MEAN> 39
 -2.179572e+00 -4.448696e+00 2.657288e+00 -4.512513e+00 -4.768876e+00 -3.331338e+00 -1.255313e+00 -3.292611e+00 -2.413235e-01 -9.602391e+00 -2.729403e+00 1.179958e+00 7.996009e+01 -1.075394e-01 1.151193e-01 -4.461030e-02 -3.493455e-02 -5.558204e-02 5.130823e-02 1.729351e-01 -8.843300e-02 3.021732e-04 8.085588e-02 1.342765e-01 4.491482e-02 -2.042070e-01 -5.267502e-02 2.493197e-02 -7.586740e-05 3.346995e-02 8.503925e-02 9.676836e-02 -2.215038e-02 -5.304479e-02 1.132324e-02 1.834288e-02 3.682771e-03 -1.515036e-02 -6.931524e-02
<VARIANCE> 39
 8.147680e+00 5.776909e+01 2.276388e+01 4.154246e+01 5.758157e+01 4.653180e+01 9.789523e+01 4.990770e+01 1.013143e+02 7.220086e+01 8.684910e+01 3.885769e+01 3.495998e+01 3.367997e-01 1.342966e+00 8.490433e-01 1.285790e+00 2.132885e+00 1.700116e+00 2.039610e+00 1.446070e+00 1.451130e+00 1.743100e+00 2.333122e+00 2.037257e+00 9.117480e-01 2.989566e-02 1.750284e-01 1.269398e-01 1.754844e-01 2.095156e-01 2.672146e-01 2.953024e-01 2.334651e-01 2.518218e-01 2.833623e-01 3.778338e-01 2.956196e-01 7.348056e-02
<GCONST> 1.036482e+02
<TRANSP> 5
 0.000000e+00 1.000000e+00 0.000000e+00 0.000000e+00 0.000000e+00
 0.000000e+00 8.124377e-01 1.875623e-01 0.000000e+00 0.000000e+00
 0.000000e+00 0.000000e+00 9.056553e-01 9.434471e-02 0.000000e+00
 0.000000e+00 0.000000e+00 0.000000e+00 9.311774e-01 6.882266e-02
 0.000000e+00 0.000000e+00 0.000000e+00 0.000000e+00 0.000000e+00
<ENDHMM>
~h "m"
<BEGINHMM>
<NUMSTATES> 5
<STATE> 2
<MEAN> 39
 -7.839993e+00 3.205342e+00 -2.853476e-01 2.381332e-02 9.724860e-01 1.494397e+00 9.858861e-01 -1.243937e+00 -7.574828e-01 -1.354960e+00 3.718120e+00 -5.851471e-01 6.750678e+01 -6.950147e-01 1.270257e-01 1.994224e-02 1.385961e-01 2.943371e-01 4.196227e-01 4.517485e-01 3.406874e-01 3.185432e-01 3.902047e-01 1.623381e-02 9.866452e-02 -7.976051e-01 -4.333021e-02 -4.963122e-02 2.798550e-03 -3.296462e-02 -2.875982e-02 -4.360481e-02 -4.883035e-02 -4.210615e-02 -5.859874e-03 1.373064e-02 3.629742e-03 1.159952e-02 7.476627e-03
<VARIANCE> 39
 4.081555e+01 2.143767e+01 2.192693e+01 3.236376e+01 3.382325e+01 4.283847e+01 3.390169e+01 1.597720e+01 7.008103e+01 3.116791e+01 6.622866e+01 1.526430e+01 6.441721e+01 4.388977e-01 7.328604e-01 7.564732e-01 7.190045e-01 7.549310e-01 1.034466e+00 1.029628e+00 1.172969e+00 1.453290e+00 7.530981e-01 9.147538e-01 6.758291e-01 4.407908e-01 4.758726e-02 1.324631e-01 1.424173e-01 1.192099e-01 1.321169e-01 1.691847e-01 1.623717e-01 1.888805e-01 2.046299e-01 1.494619e-01 1.465142e-01 1.391466e-01 3.782069e-02
<GCONST> 8.726796e+01
<STATE> 3
<MEAN> 39
 -1.978972e+01 1.700966e+00 -1.595233e+00 -4.555158e-01 1.658988e+00 3.228585e+00 3.596435e+00 -3.312044e-01 4.208113e+00 -9.637501e-01 1.189809e+00 -1.496747e+00 5.280841e+01 -1.183610e-01 -4.087233e-02 -1.004195e-01 -5.754264e-02 -7.991944e-02 -1.176895e-01 -5.539866e-02 2.586465e-03 -2.732061e-02 1.484977e-02 9.394851e-03 -7.508572e-03 -1.801184e-01 3.298416e-02 3.604496e-03 1.608192e-02 1.391201e-02 9.337299e-03 7.923256e-03 -6.747370e-03 -1.256378e-02 -1.089363e-02 -1.583769e-02 1.175046e-03 9.310016e-03 3.796233e-02
<VARIANCE> 39
 7.278809e+00 4.528402e+00 7.795620e+00 7.064327e+00 9.995692e+00 9.470608e+00 8.796085e+00 2.365936e+01 1.447954e+01 1.613885e+01 8.419892e+00 9.038303e+00 5.007618e+01 1.798153e-01 2.487454e-01 4.284986e-01 5.374216e-01 6.100651e-01 7.504238e-01 7.760218e-01 9.005908e-01 9.928358e-01 8.835541e-01 7.606181e-01 6.973091e-01 1.946276e-01 2.317529e-02 4.672539e-02 7.703593e-02 9.897231e-02 1.095550e-01 1.484239e-01 1.615936e-01 1.868745e-01 2.111065e-01 1.944549e-01 1.501539e-01 1.427168e-01 1.452955e-02
<GCONST> 6.406113e+01
<STATE> 4
<MEAN> 39
 -1.661233e+01 2.454477e+00 -1.113250e+00 -9.249370e-01 1.109510e+00 2.778468e+00 2.888095e+00 8.840111e-02 2.929658e+00 -5.398777e-01 2.748055e-01 -1.017796e+00 5.825039e+01 -4.081708e-01 -2.194792e-01 -6.203621e-02 -1.299115e-01 -6.431796e-02 -1.079818e-01 -2.441988e-01 -1.768920e-01 -1.924259e-01 -4.707175e-02 -4.681477e-03 3.350787e-02 -2.918991e-01 1.863534e-01 -5.214104e-02 3.037881e-01 1.960498e-01 8.083321e-02 1.831396e-02 -3.408824e-02 -1.580630e-01 -1.541173e-01 -7.575189e-02 -1.240585e-01 -1.718292e-01 3.756360e-01
<VARIANCE> 39
 2.672186e+01 1.178353e+01 1.478576e+01 2.090267e+01 1.904343e+01 1.625861e+01 1.245510e+01 2.520473e+01 2.049714e+01 1.849273e+01 1.539867e+01 1.178264e+01 6.054001e+01 5.865414e-01 5.608137e-01 9.431200e-01 1.265436e+00 1.392522e+00 1.264136e+00 9.548135e-01 1.213790e+00 1.139106e+00 1.215404e+00 9.434609e-01 9.524361e-01 8.027179e-01 1.481014e-01 2.171479e-01 1.901128e-01 2.972231e-01 2.495533e-01 2.984388e-01 2.780920e-01 2.636893e-01 3.325036e-01 2.596534e-01 1.983539e-01 1.925579e-01 2.851236e-01
<GCONST> 9.117604e+01
<TRANSP> 5
 0.000000e+00 1.000000e+00 0.000000e+00 0.000000e+00 0.000000e+00
 0.000000e+00 7.497097e-01 2.502903e-01 0.000000e+00 0.000000e+00
 0.000000e+00 0.000000e+00 9.043720e-01 9.562795e-02 0.000000e+00
 0.000000e+00 0.000000e+00 0.000000e+00 4.235381e-01 5.764619e-01
 0.000000e+00 0.000000e+00 0.000000e+00 0.000000e+00 0.000000e+00
<ENDHMM>
~h "n"
<BEGINHMM>
<NUMSTATES> 5
<STATE> 2
<MEAN> 39
 -1.091283e+01 1.626774e+00 7.809044e+00 5.099243e+00 4.387401e+00 1.672767e+00 -2.491715e+00 -4.876471e+00 -6.508018e-01 -4.895041e+00 -3.395629e-01 -2.048898e+00 6.826644e+01 5.834466e-01 -6.721874e-01 7.912191e-01 7.923467e-01 4.563258e-01 -4.583972e-01 -9.722720e-01 -5.972410e-01 -3.414145e-01 -3.851083e-01 -3.337966e-02 -1.924846e-01 1.275150e+00 -6.217919e-04 -3.716508e-02 -1.650322e-01 -3.671668e-02 7.883705e-03 -9.782020e-02 -5.791487e-02 8.364040e-02 -5.531335e-02 -4.556286e-03 8.892888e-02 3.708528e-02 -1.045624e-01
<VARIANCE> 39
 4.450177e+01 8.602035e+01 5.200093e+01 6.208448e+01 4.127382e+01 3.646643e+01 4.427447e+01 3.425920e+01 7.322601e+01 4.047156e+01 4.483620e+01 1.618050e+01 6.734359e+01 3.777547e+00 8.363011e+00 3.800776e+00 4.010262e+00 3.994722e+00 3.587101e+00 4.985485e+00 3.661704e+00 5.132800e+00 2.915261e+00 3.357948e+00 1.654865e+00 5.547259e+00 3.990941e-01 1.300955e+00 6.949005e-01 6.176114e-01 6.881690e-01 5.595053e-01 7.411487e-01 6.167362e-01 7.190266e-01 5.035165e-01 4.856157e-01 2.941359e-01 6.227964e-01
<GCONST> 1.326423e+02
<STATE> 3
<MEAN> 39
 -7.254476e+00 -4.679326e+00 1.107219e+01 9.698381e+00 9.216875e+00 -1.035731e+00 -9.934163e+00 -8.849374e+00 -1.991263e+00 -8.655638e+00 -1.327150e+00 -3.879943e+00 7.519978e+01 5.949495e-01 3.362539e-01 -8.078362e-01 -4.744816e-01 2.306269e-01 -9.169690e-02 -3.113430e-01 -1.010711e-01 -4.646505e-01 -2.360069e-01 4.468366e-01 2.109746e-01 9.815443e-02 -1.025291e-01 1.589584e-01 -2.440888e-01 -3.849189e-01 -3.266414e-01 2.239690e-01 4.747271e-01 1.502002e-01 -1.965057e-03 1.590244e-01 4.756426e-02 1.832052e-01 -1.690601e-01
<VARIANCE> 39
 1.900294e+01 6.882330e+01 6.848592e+01 7.017794e+01 4.962934e+01 5.699223e+01 6.462013e+01 4.887796e+01 6.917215e+01 3.376892e+01 7.186678e+01 2.267351e+01 6.681673e+01 1.035761e+00 1.458088e+00 2.368351e+00 2.265477e+00 1.624843e+00 2.454946e+00 2.554138e+00 2.098560e+00 2.109034e+00 1.625595e+00 2.142312e+00 1.775344e+00 1.233611e+00 1.366127e-01 3.963608e-01 3.659104e-01 3.016491e-01 3.022966e-01 4.779765e-01 4.462191e-01 4.925110e-01 4.182444e-01 2.814507e-01 5.216689e-01 2.847910e-01 2.065732e-01
<GCONST> 1.164302e+02
<STATE> 4
<MEAN> 39
 -5.045362e+00 2.688279e+00 2.861540e+00 3.310817e+00 4.100947e+00 -9.351540e-01 -5.011799e+00 -5.485407e+00 -5.502305e+00 -2.587897e+00 3.851765e+00 -4.910112e-01 7.201633e+01 -1.815193e-01 9.702145e-02 -2.472637e-01 -3.260105e-01 -2.924079e-01 1.973819e-01 5.946206e-01 3.115701e-01 3.295103e-01 2.172338e-01 -7.999574e-02 2.188088e-01 -2.478348e-01 -5.448970e-02 -6.123410e-02 2.605374e-02 2.986796e-02 1.516791e-02 -2.318157e-02 2.947404e-03 1.301121e-02 5.497587e-02 1.698678e-02 -2.410601e-02 -3.225746e-02 -1.351419e-02
<VARIANCE> 39
 1.712991e+01 5.400314e+01 2.491054e+01 4.304072e+01 3.197855e+01 4.287529e+01 5.094716e+01 3.093770e+01 8.441029e+01 5.910925e+01 7.421112e+01 3.903610e+01 4.410453e+01 6.657644e-01 1.879195e+00 1.440169e+00 2.106515e+00 1.587729e+00 1.753788e+00 2.095618e+00 1.937961e+00 3.282505e+00 1.399170e+00 3.286355e+00 1.855967e+00 1.155275e+00 5.984819e-02 2.499757e-01 2.195249e-01 3.078976e-01 2.463369e-01 2.821110e-01 3.293491e-01 2.957848e-01 5.344607e-01 2.500558e-01 4.946369e-01 3.209032e-01 1.093043e-01
<GCONST> 1.096215e+02
<TRANSP> 5
 0.000000e+00 1.000000e+00 0.000000e+00 0.000000e+00 0.000000e+00
 0.000000e+00 7.762673e-01 2.237327e-01 0.000000e+00 0.000000e+00
 0.000000e+00 0.000000e+00 6.616956e-01 3.383044e-01 0.000000e+00
 0.000000e+00 0.000000e+00 0.000000e+00 8.865272e-01 1.134727e-01
 0.000000e+00 0.000000e+00 0.000000e+00 0.000000e+00 0.000000e+00
<ENDHMM>
~h "o"
<BEGINHMM>
<NUMSTATES> 5
<STATE> 2
<MEAN> 39
 -3.086836e+00 -3.259200e+00 5.610173e+00 -6.126917e+00 -2.125659e+00 -8.205870e-01 -9.082102e+00 -4.137400e+00 7.493131e+00 -1.228657e+01 -7.400154e+00 3.553355e-01 7.870518e+01 7.921128e-01 -3.047270e-01 1.461548e-01 2.725825e-01 4.411312e-02 -4.956291e-01 -7.221040e-01 -8.234133e-02 -4.791491e-02 -3.926622e-01 -1.113879e-01 7.527046e-02 7.133464e-01 -1.574434e-01 7.683051e-02 -3.478947e-02 3.499537e-02 4.547570e-02 6.077764e-02 8.300190e-02 3.567211e-02 1.725041e-02 5.542725e-02 7.574637e-02 1.342190e-03 -2.146423e-01
<VARIANCE> 39
 2.966918e+01 6.369028e+01 5.070980e+01 1.149608e+02 1.075931e+02 7.114548e+01 9.170673e+01 4.531531e+01 1.508524e+02 5.178560e+01 7.058285e+01 3.668230e+01 3.527437e+01 3.169563e+00 5.099516e+00 2.839137e+00 4.287573e+00 4.107291e+00 4.278008e+00 5.849961e+00 2.288125e+00 4.257454e+00 3.061291e+00 3.644012e+00 2.335963e+00 3.857222e+00 4.102290e-01 8.376445e-01 4.180669e-01 6.616573e-01 5.887185e-01 7.526444e-01 8.546177e-01 3.588286e-01 5.727938e-01 5.218035e-01 5.310794e-01 4.192266e-01 4.815121e-01
<GCONST> 1.345644e+02
<STATE> 3
<MEAN> 39
 -6.589077e-01 4.005806e-01 9.747716e-01 -3.882189e+00 -4.617558e+00 -8.009762e+00 -5.337509e+00 -4.087577e+00 -2.459501e+00 -8.729264e+00 -1.947766e+00 5.100768e-01 7.776495e+01 -3.139260e-01 4.707026e-01 3.695130e-01 3.125475e-01 2.021372e-01 3.086168e-01 1.441946e-01 -9.058880e-02 1.143169e-02 1.230095e-01 8.593823e-02 -9.799074e-02 -4.371285e-01 -1.882153e-01 6.314121e-02 9.191155e-02 8.487965e-02 1.443256e-01 2.683390e-01 1.631909e-01 4.405623e-03 6.097388e-02 8.085860e-02 -1.022883e-02 -3.961742e-02 -1.803646e-01
<VARIANCE> 39
 5.133725e+00 4.852772e+01 5.084629e+01 4.528474e+01 7.260204e+01 3.770187e+01 6.694846e+01 2.911970e+01 1.796136e+02 4.546730e+01 5.008590e+01 2.721642e+01 2.305734e+01 3.730320e-01 1.287016e+00 1.014397e+00 1.084989e+00 1.920286e+00 2.846750e+00 1.470034e+00 1.189906e+00 1.762768e+00 1.541286e+00 1.138662e+00 1.180846e+00 8.692217e-01 7.652213e-02 2.239434e-01 1.978678e-01 1.863990e-01 2.437431e-01 3.236770e-01 2.649504e-01 2.096869e-01 3.579665e-01 2.723422e-01 2.263539e-01 1.976361e-01 1.179718e-01
<GCONST> 1.021968e+02
<STATE> 4
<MEAN> 39
 -8.992973e+00 1.744096e+00 8.598616e+00 6.857929e+00 4.671902e+00 -3.554222e-01 -5.750947e+00 -4.466629e+00 3.182568e+00 -5.545245e+00 -2.021581e+00 -3.697762e+00 6.963046e+01 -8.512550e-01 1.101077e-01 -3.837732e-01 1.794185e-01 2.781459e-01 6.270459e-01 8.963372e-01 3.135071e-01 2.583352e-01 5.690970e-01 5.434217e-02 -3.496786e-02 -1.069377e+00 -2.987239e-02 -6.473943e-02 -9.711702e-02 -1.499359e-01 -1.096845e-01 -4.952365e-02 2.338880e-02 3.240772e-02 -1.943995e-02 -2.886786e-02 3.958423e-02 5.102225e-02 -2.032981e-02
<VARIANCE> 39
 1.645445e+01 5.992008e+01 4.998508e+01 8.800137e+01 5.850415e+01 4.302642e+01 6.149173e+01 2.895767e+01 1.314598e+02 4.515166e+01 5.541822e+01 2.858171e+01 4.756633e+01 5.096243e-01 1.627677e+00 1.153531e+00 1.371107e+00 1.564295e+00 1.812866e+00 2.356319e+00 1.435779e+00 2.737894e+00 1.589098e+00 1.471464e+00 1.229390e+00 6.693721e-01 6.678811e-02 2.053215e-01 1.809203e-01 1.693238e-01 2.060386e-01 2.994450e-01 3.514949e-01 2.574374e-01 3.413111e-01 2.435774e-01 2.374937e-01 1.827310e-01 5.430456e-02
<GCONST> 1.048876e+02
<TRANSP> 5
 0.000000e+00 1.000000e+00 0.000000e+00 0.000000e+00 0.000000e+00
 0.000000e+00 8.870764e-01 1.129237e-01 0.000000e+00 0.000000e+00
 0.000000e+00 0.000000e+00 8.679276e-01 1.320725e-01 0.000000e+00
 0.000000e+00 0.000000e+00 0.000000e+00 8.679081e-01 1.320919e-01
 0.000000e+00 0.000000e+00 0.000000e+00 0.000000e+00 0.000000e+00
<ENDHMM>
~h "p"
<BEGINHMM>
<NUMSTATES> 5
<STATE> 2
<MEAN> 39
 -1.993963e+01 1.808064e+00 -1.764584e+00 -6.588193e-01 1.419949e+00 2.758432e+00 3.287890e+00 -7.481200e-01 4.311010e+00 -1.463571e+00 1.036358e+00 -1.945036e+00 5.110638e+01 -1.015154e-01 -3.325602e-02 -6.533958e-02 -3.122673e-02 -3.732650e-02 -6.669424e-02 -3.385060e-02 -9.750199e-03 -5.564927e-02 -1.805073e-02 -3.645092e-02 -7.368271e-02 -1.415756e-01 2.602938e-02 5.346113e-04 2.454275e-02 2.171326e-03 -2.927551e-03 1.398077e-02 9.012193e-03 -6.504149e-03 -5.615314e-03 3.082619e-03 1.051261e-02 2.525275e-02 3.298707e-02
<VARIANCE> 39
 5.679795e+00 3.224053e+00 5.274097e+00 5.204848e+00 8.670525e+00 8.808348e+00 8.857164e+00 2.511329e+01 1.209186e+01 1.834525e+01 8.763050e+00 9.489636e+00 4.582879e+01 1.565146e-01 2.977090e-01 3.659859e-01 4.628703e-01 6.186641e-01 7.371561e-01 7.542060e-01 8.160943e-01 8.768944e-01 8.067463e-01 9.086070e-01 7.329677e-01 2.363972e-01 2.361472e-02 6.279693e-02 7.101024e-02 8.822689e-02 1.224057e-01 1.462628e-01 1.527027e-01 1.638210e-01 1.735682e-01 1.624790e-01 1.729991e-01 1.442212e-01 2.020854e-02
<GCONST> 6.251950e+01
<STATE> 3
<MEAN> 39
 -1.664841e+01 2.412460e+00 -3.032338e+00 -2.518418e+00 -1.644945e+00 -2.182432e-01 1.373273e+00 -1.077272e+00 2.037422e+00 -1.406656e+00 -1.737090e-01 -1.264559e+00 5.576674e+01 -4.701024e-01 -6.957974e-02 -6.341610e-02 -2.054283e-02 1.774263e-01 1.701084e-01 -6.398676e-02 -4.549729e-02 -7.602737e-02 1.397698e-01 3.469144e-01 2.666350e-01 -6.777825e-01 3.869425e-02 -1.147187e-01 8.816813e-02 4.134117e-02 3.902837e-02 1.272941e-01 1.277158e-01 -1.712845e-02 -1.132030e-02 4.364409e-02 3.992305e-02 1.403875e-02 2.149568e-01
<VARIANCE> 39
 3.493970e+01 5.429897e+00 6.147564e+00 9.931864e+00 1.493685e+01 1.711624e+01 1.233130e+01 2.175516e+01 2.906299e+01 1.550189e+01 1.210331e+01 9.030538e+00 6.448298e+01 4.288791e-01 2.836195e-01 4.417541e-01 5.349921e-01 7.035192e-01 8.177202e-01 8.639103e-01 9.404643e-01 1.122262e+00 1.079504e+00 8.406572e-01 7.978454e-01 9.833170e-01 4.205882e-02 1.112625e-01 8.059797e-02 1.071555e-01 1.579317e-01 1.427380e-01 1.803165e-01 2.181356e-01 2.252831e-01 1.406156e-01 1.859815e-01 1.578952e-01 8.309459e-02
<GCONST> 7.599503e+01
<STATE> 4
<MEAN> 39
 -1.698238e+01 2.176860e+00 -2.556644e+00 -2.145436e+00 -8.528962e-01 6.573433e-01 2.411537e+00 -7.717138e-01 1.625905e+00 -1.853108e-03 1.327945e+00 -6.395701e-01 5.661232e+01 -1.032098e-01 -2.001275e-01 1.035689e-01 6.363852e-02 1.238361e-01 3.143935e-01 2.008426e-01 -2.203737e-01 -3.088792e-01 1.604561e-01 3.026626e-01 1.279037e-01 -2.665273e-02 2.303545e-01 -1.965782e-01 1.079343e-01 -6.518658e-02 -6.999350e-02 8.115415e-03 6.583723e-02 -2.122626e-01 -2.394893e-01 -1.046247e-01 -5.613569e-02 -4.728224e-02 5.704167e-01
<VARIANCE> 39
 3.344691e+01 4.878951e+00 5.716577e+00 8.557540e+00 1.286445e+01 1.434386e+01 1.296603e+01 2.749632e+01 2.893982e+01 1.768378e+01 1.372898e+01 9.740515e+00 5.710269e+01 1.163970e+00 5.825751e-01 5.795880e-01 7.669387e-01 1.036060e+00 9.001276e-01 8.817446e-01 1.196916e+00 1.746515e+00 9.283946e-01 8.634253e-01 7.922223e-01 1.130894e+00 1.582905e-01 1.986553e-01 1.658913e-01 2.147010e-01 3.004963e-01 2.387540e-01 2.690528e-01 3.207301e-01 4.170074e-01 2.233806e-01 2.409590e-01 1.998590e-01 4.335596e-01
<GCONST> 8.782480e+01
<TRANSP> 5
 0.000000e+00 1.000000e+00 0.000000e+00 0.000000e+00 0.000000e+00
 0.000000e+00 9.118995e-01 8.810051e-02 0.000000e+00 0.000000e+00
 0.000000e+00 0.000000e+00 1.960728e-01 8.039272e-01 0.000000e+00
 0.000000e+00 0.000000e+00 0.000000e+00 3.253923e-01 6.746078e-01
 0.000000e+00 0.000000e+00 0.000000e+00 0.000000e+00 0.000000e+00
<ENDHMM>
~h "r"
<BEGINHMM>
<NUMSTATES> 5
<STATE> 2
<MEAN> 39
 -1.025350e+01 -3.059443e+00 -1.608895e+00 -4.520641e+00 -3.518544e+00 1.833869e-01 4.552381e+00 -5.026150e+00 -3.526649e+00 -2.743813e+00 9.409242e-01 6.282067e-01 6.965004e+01 2.226542e+00 -8.870885e-01 5.187944e-03 -7.147092e-01 -9.047617e-01 -5.850033e-01 1.573507e-01 -5.664747e-01 -1.000331e+00 -5.413079e-02 -3.318247e-01 2.032455e-01 3.207405e+00 8.224294e-02 1.630452e-01 -3.469606e-02 -4.528887e-02 5.007304e-02 -1.106831e-01 -1.853975e-01 1.550612e-01 2.469464e-01 -1.599115e-02 -1.694614e-01 -6.210756e-02 -9.765568e-02
<VARIANCE> 39
 5.070699e+01 4.691508e+01 2.393694e+01 3.515857e+01 5.325897e+01 2.546990e+01 4.159566e+01 3.835376e+01 6.905738e+01 4.701225e+01 4.333513e+01 1.786939e+01 1.069660e+02 3.907483e+00 4.497048e+00 2.201993e+00 3.427625e+00 4.085393e+00 2.985925e+00 3.657586e+00 3.540521e+00 4.592750e+00 4.889498e+00 2.880981e+00 1.789830e+00 8.452465e+00 9.094267e-01 7.479219e-01 4.180476e-01 5.759029e-01 7.251751e-01 4.942621e-01 5.099232e-01 4.979368e-01 7.287146e-01 7.713844e-01 4.175176e-01 2.985945e-01 1.751667e+00
<GCONST> 1.307168e+02
<STATE> 3
<MEAN> 39
 -1.918310e+00 -2.613310e+00 -1.989317e+00 -7.224566e+00 -5.844068e+00 -3.824667e+00 2.340265e+00 -4.736150e+00 -1.761632e+00 -3.428332e+00 -2.538535e+00 2.907918e-01 7.794986e+01 -3.187757e-01 8.365912e-01 1.579114e-01 3.187329e-01 4.375145e-01 2.544332e-01 -5.254438e-01 1.615355e-01 4.969985e-01 -4.050994e-01 -1.276450e-01 -1.664903e-01 -7.585055e-01 -3.234904e-01 4.590762e-02 7.934524e-02 1.027048e-01 1.068222e-01 1.569389e-01 3.229310e-02 4.125019e-02 1.046546e-01 2.450085e-02 8.675662e-02 2.837275e-02 -3.183128e-01
<VARIANCE> 39
 1.496028e+01 5.256847e+01 2.326225e+01 4.972087e+01 5.241958e+01 4.062641e+01 5.808491e+01 4.857575e+01 1.082877e+02 7.449220e+01 6.099586e+01 3.309791e+01 4.239683e+01 1.697389e+00 2.289158e+00 1.524121e+00 1.784374e+00 1.738733e+00 2.675711e+00 2.311188e+00 2.068394e+00 2.549196e+00 2.300534e+00 2.013543e+00 1.380988e+00 2.406680e+00 2.618422e-01 3.869942e-01 2.463470e-01 2.642549e-01 2.843369e-01 5.331551e-01 4.473686e-01 3.276643e-01 4.107697e-01 4.650557e-01 3.608071e-01 2.850402e-01 3.081897e-01
<GCONST> 1.165543e+02
<STATE> 4
<MEAN> 39
 -1.128595e+01 2.980443e+00 -1.279995e+00 -1.236972e+00 1.410043e+00 1.511687e+00 1.676241e+00 -3.373479e+00 -1.179478e+00 -3.114300e+00 6.806298e-01 5.046397e-01 6.459103e+01 -6.146851e-01 -3.062875e-01 9.587643e-02 2.624735e-02 1.786844e-01 1.044727e-01 -1.078405e-01 5.983033e-02 4.691820e-02 1.088727e-01 8.558222e-02 -2.145843e-02 -4.658710e-01 2.559089e-01 -2.017881e-01 -1.420330e-02 -5.392951e-02 -1.342630e-01 -2.113829e-01 -1.088933e-01 -8.595441e-02 -1.460772e-01 -4.539107e-02 -2.488289e-02 2.300967e-03 3.748268e-01
<VARIANCE> 39
 4.227214e+01 2.337032e+01 1.720387e+01 2.502861e+01 3.105695e+01 2.341360e+01 1.577907e+01 3.292371e+01 7.657894e+01 3.262020e+01 2.565916e+01 1.530158e+01 4.911459e+01 3.120579e+00 2.152764e+00 1.471322e+00 1.462687e+00 1.344318e+00 2.132149e+00 1.958007e+00 2.427191e+00 3.918524e+00 1.737080e+00 1.434569e+00 1.427780e+00 3.393284e+00 4.223861e-01 3.627186e-01 2.632564e-01 2.624850e-01 2.253198e-01 3.379406e-01 3.455077e-01 3.826259e-01 4.936716e-01 3.499258e-01 3.237273e-01 2.472460e-01 3.472365e-01
<GCONST> 1.098242e+02
<TRANSP> 5
 0.000000e+00 1.000000e+00 0.000000e+00 0.000000e+00 0.000000e+00
 0.000000e+00 7.006454e-01 2.993545e-01 0.000000e+00 0.000000e+00
 0.000000e+00 0.000000e+00 8.222762e-01 1.777239e-01 0.000000e+00
 0.000000e+00 0.000000e+00 0.000000e+00 8.000495e-01 1.999505e-01
 0.000000e+00 0.000000e+00 0.000000e+00 0.000000e+00 0.000000e+00
<ENDHMM>
~h "s"
<BEGINHMM>
<NUMSTATES> 5
<STATE> 2
<MEAN> 39
 -1.580072e+01 -6.198320e-01 5.325025e-01 -7.397901e-01 7.670442e-01 2.712260e+00 1.472573e+00 -4.527361e+00 1.051525e+00 -4.159017e+00 3.329661e-01 -1.319403e-01 5.951211e+01 -3.756055e-01 -1.207716e+00 1.173847e+00 6.942619e-03 -1.474733e-01 4.148512e-01 -2.484254e-01 -5.932351e-01 3.199212e-02 -5.933116e-02 2.669336e-01 -2.977966e-01 1.112445e+00 -2.161688e-01 -5.073067e-01 4.907022e-01 -2.425603e-01 -1.503915e-01 8.385903e-02 -1.000222e-01 -1.045209e-01 -1.534451e-02 -2.506695e-02 7.907237e-02 -9.160312e-02 4.958362e-01
<VARIANCE> 39
 4.632149e+01 3.321648e+01 2.797652e+01 1.647653e+01 2.098146e+01 2.118930e+01 2.157364e+01 2.903930e+01 6.761893e+01 3.145395e+01 2.146863e+01 1.704565e+01 1.122491e+02 2.885545e+00 4.656401e+00 3.749674e+00 1.661972e+00 2.196504e+00 2.305323e+00 3.063813e+00 2.578715e+00 2.822769e+00 2.251192e+00 2.304203e+00 1.231128e+00 4.588206e+00 4.526779e-01 7.114953e-01 5.182161e-01 3.497837e-01 3.432990e-01 3.636762e-01 5.237532e-01 4.529580e-01 4.819597e-01 3.563540e-01 3.732829e-01 2.118413e-01 5.251437e-01
<GCONST> 1.172008e+02
<STATE> 3
<MEAN> 39
 -2.562607e+01 -1.548252e+01 1.629442e+01 -6.038744e+00 -3.699213e+00 5.403289e+00 3.256428e+00 -8.459255e+00 -1.781696e+00 -1.551651e+00 4.767035e+00 -3.654866e+00 7.722059e+01 -1.146445e+00 -1.191714e+00 1.013608e+00 -6.728210e-01 -1.304894e-01 5.582088e-02 2.984767e-02 -1.496697e-01 2.391998e-01 1.937749e-01 3.385464e-01 -4.520707e-01 9.501736e-01 3.748829e-01 2.919056e-01 -4.165371e-01 2.064991e-01 1.688699e-01 -1.166945e-01 -1.086714e-01 7.921256e-03 -2.232559e-02 -6.049257e-02 -1.314195e-01 6.197216e-02 -2.443403e-01
<VARIANCE> 39
 4.841886e+01 4.032482e+01 3.822421e+01 3.356853e+01 3.422952e+01 1.708799e+01 3.788337e+01 3.872036e+01 4.347395e+01 3.447169e+01 2.322572e+01 2.106701e+01 5.008868e+01 3.757319e+00 2.297192e+00 4.479288e+00 2.296385e+00 1.830192e+00 1.469865e+00 2.124921e+00 1.892754e+00 1.802236e+00 1.754007e+00 1.613446e+00 1.285080e+00 2.294900e+00 3.329453e-01 3.414763e-01 4.688801e-01 3.899652e-01 2.953934e-01 3.040298e-01 3.594053e-01 3.764860e-01 2.774630e-01 2.636946e-01 2.581138e-01 2.100147e-01 1.322190e-01
<GCONST> 1.112340e+02
<STATE> 4
<MEAN> 39
 -1.587201e+01 -1.382120e+01 1.484493e+01 8.570349e-01 4.980102e+00 3.594158e+00 -6.829269e+00 -1.021117e+01 -4.113702e-01 -7.064543e+00 2.276090e+00 -3.472053e+00 7.938049e+01 1.224755e+00 4.874352e-01 -4.796080e-01 6.812212e-01 4.870669e-01 -2.763747e-01 -6.491902e-01 -2.974762e-01 -4.655345e-01 -3.526857e-01 -1.131979e-01 1.860136e-01 1.206499e-01 7.971057e-02 1.755321e-01 -1.171827e-01 -4.079479e-02 -8.188968e-02 -3.324175e-02 9.704080e-02 5.530294e-02 -6.594037e-02 2.213455e-02 -2.957346e-02 3.417486e-02 -4.666644e-02
<VARIANCE> 39
 1.152095e+02 5.927333e+01 3.511329e+01 8.164722e+01 5.255037e+01 4.142344e+01 9.031862e+01 4.774791e+01 6.545568e+01 7.791015e+01 4.590691e+01 3.551821e+01 3.663493e+01 8.077197e+00 4.585678e+00 2.751104e+00 6.799043e+00 3.711842e+00 2.579254e+00 4.892194e+00 2.725232e+00 3.701572e+00 3.389869e+00 2.923591e+00 1.650964e+00 1.214968e+00 9.356498e-01 7.519569e-01 3.191138e-01 8.838012e-01 4.973722e-01 4.455223e-01 7.598683e-01 4.676194e-01 6.402092e-01 5.494978e-01 4.961701e-01 2.838444e-01 1.602933e-01
<GCONST> 1.307504e+02
<TRANSP> 5
 0.000000e+00 1.000000e+00 0.000000e+00 0.000000e+00 0.000000e+00
 0.000000e+00 7.499367e-01 2.500633e-01 0.000000e+00 0.000000e+00
 0.000000e+00 0.000000e+00 8.499625e-01 1.500375e-01 0.000000e+00
 0.000000e+00 0.000000e+00 0.000000e+00 8.997232e-01 1.002768e-01
 0.000000e+00 0.000000e+00 0.000000e+00 0.000000e+00 0.000000e+00
<ENDHMM>
~h "t"
<BEGINHMM>
<NUMSTATES> 5
<STATE> 2
<MEAN> 39
 -1.300189e+01 -5.873099e+00 5.429396e+00 -9.870802e-01 1.339439e+00 2.191282e+00 -3.754429e+00 -7.940550e+00 3.114724e+00 -5.140209e+00 2.417576e-01 -1.468648e+00 7.186327e+01 1.212219e+00 -4.007431e-01 6.699811e-02 -5.894298e-02 -2.659051e-01 -4.260642e-01 -4.340173e-01 -4.034083e-01 -4.932955e-01 -4.704140e-01 -2.361200e-01 1.957858e-01 1.557917e+00 1.368120e-01 1.083458e-01 -9.208551e-02 -8.164585e-02 -6.277612e-03 -6.353272e-02 5.323659e-02 1.512736e-01 5.318847e-02 1.422951e-02 -4.644861e-02 6.629886e-02 -2.491175e-02
<VARIANCE> 39
 7.244143e+01 8.532540e+01 5.309444e+01 7.287891e+01 7.894617e+01 5.192310e+01 5.356672e+01 4.304427e+01 1.323259e+02 4.895816e+01 5.773922e+01 2.565157e+01 8.092188e+01 7.116405e+00 6.723694e+00 4.923990e+00 5.857098e+00 4.704974e+00 3.799702e+00 5.186038e+00 5.088497e+00 5.150090e+00 3.792248e+00 3.548571e+00 1.781332e+00 9.230208e+00 9.682388e-01 1.039789e+00 8.262135e-01 9.400299e-01 9.154051e-01 6.834350e-01 7.857298e-01 9.578956e-01 8.243538e-01 5.710211e-01 5.569394e-01 2.811913e-01 1.312268e+00
<GCONST> 1.422890e+02
<STATE> 3
<MEAN> 39
 -4.818307e+00 -1.210884e+01 2.172268e+00 -8.012802e+00 -4.269160e+00 -3.811589e+00 4.371696e+00 -1.255872e+01 -5.755964e+00 -2.931177e+00 9.318817e-02 3.656857e+00 8.310849e+01 1.457328e-01 6.484614e-02 -2.726924e-02 1.957091e-02 4.357509e-02 3.447274e-02 -2.175383e-04 3.062905e-02 -6.452920e-02 -2.691634e-01 -2.208799e-04 1.797542e-01 -2.301049e-02 -2.480836e-01 9.472676e-02 9.364506e-03 1.152684e-02 4.420351e-02 1.425788e-01 -3.018728e-02 7.385689e-02 1.072472e-01 -1.150938e-02 2.375385e-02 -6.814937e-02 -2.226848e-01
<VARIANCE> 39
 8.625327e+01 4.644154e+01 7.215477e+01 5.216843e+01 1.962745e+01 2.243996e+01 5.549691e+01 3.046657e+01 4.840892e+01 6.011630e+01 5.871212e+01 1.476114e+01 1.126919e+01 3.942140e+00 2.848686e+00 2.395164e+00 2.724837e+00 1.229894e+00 1.896322e+00 2.402203e+00 2.017631e+00 1.795376e+00 2.612465e+00 1.986721e+00 1.085183e+00 1.192706e+00 5.764095e-01 4.468304e-01 3.065864e-01 4.485699e-01 2.431001e-01 3.811855e-01 4.336518e-01 2.993597e-01 3.796134e-01 4.572241e-01 2.866201e-01 1.866088e-01 2.750078e-01
<GCONST> 1.143677e+02
<STATE> 4
<MEAN> 39
 -7.120841e+00 -9.549810e+00 2.124723e+00 -7.697878e+00 -4.045576e+00 1.075027e+00 -3.467893e+00 -1.377148e+00 3.581277e+00 -1.172039e+01 6.030716e-01 3.105182e+00 8.058647e+01 -3.856062e-01 2.404381e-01 -8.450876e-02 1.188799e-01 2.814593e-01 3.488137e-01 2.162256e-01 3.626073e-02 1.500505e-01 1.528659e-01 9.779826e-03 -2.333779e-03 -5.245652e-01 -3.893757e-02 -1.893241e-02 -3.310657e-02 -3.098806e-03 3.880231e-02 -2.185717e-02 1.757784e-03 -4.376404e-02 -6.986106e-03 6.228272e-02 3.413747e-02 -3.277881e-02 -4.957105e-02
<VARIANCE> 39
 6.971404e+01 8.222018e+01 3.299976e+01 6.602055e+01 4.391112e+01 4.083091e+01 5.582296e+01 4.716573e+01 5.052131e+01 4.781257e+01 3.082963e+01 3.694880e+01 7.077215e+01 1.801293e+00 2.919565e+00 1.922644e+00 1.799733e+00 2.492240e+00 1.660999e+00 2.887758e+00 2.548773e+00 2.358982e+00 2.183425e+00 1.570748e+00 1.089254e+00 2.222321e+00 2.133591e-01 3.482209e-01 3.309291e-01 2.738400e-01 3.665022e-01 2.906244e-01 4.784684e-01 4.349626e-01 4.137751e-01 4.102390e-01 2.999276e-01 2.280990e-01 1.589151e-01
<GCONST> 1.166599e+02
<TRANSP> 5
 0.000000e+00 1.000000e+00 0.000000e+00 0.000000e+00 0.000000e+00
 0.000000e+00 9.056407e-01 9.435938e-02 0.000000e+00 0.000000e+00
 0.000000e+00 0.000000e+00 8.975513e-01 1.024486e-01 0.000000e+00
 0.000000e+00 0.000000e+00 0.000000e+00 8.973247e-01 1.026753e-01
 0.000000e+00 0.000000e+00 0.000000e+00 0.000000e+00 0.000000e+00
<ENDHMM>
~h "u"
<BEGINHMM>
<NUMSTATES> 5
<STATE> 2
<MEAN> 39
 -9.771817e+00 1.513537e+00 5.961934e+00 4.617808e+00 5.332072e+00 3.459882e+00 -1.005366e+00 -5.267648e+00 -5.078058e+00 -7.032697e+00 7.990628e-01 -1.110894e+00 6.885961e+01 9.684815e-01 -4.121586e-01 -1.453441e-02 4.234727e-02 2.082004e-02 -2.690107e-01 -6.152562e-01 -3.015292e-01 -5.058091e-01 -2.993230e-01 -3.379177e-01 -1.475873e-01 1.366973e+00 1.278928e-01 -2.747347e-01 -9.143341e-02 -2.879689e-01 -1.088503e-01 -2.040343e-01 -1.593717e-01 -6.218593e-02 -8.954486e-03 -1.111628e-01 -3.948809e-02 4.248589e-02 3.593316e-01
<VARIANCE> 39
 3.789733e+01 7.289412e+01 3.574096e+01 3.626032e+01 3.347254e+01 3.459590e+01 2.740918e+01 2.437392e+01 5.459174e+01 3.592025e+01 3.604871e+01 1.350645e+01 5.874035e+01 4.585458e+00 1.156288e+01 2.966244e+00 4.184510e+00 3.861106e+00 2.974909e+00 4.223041e+00 2.895926e+00 4.486810e+00 3.671648e+00 4.152233e+00 1.916907e+00 6.916867e+00 6.782615e-01 1.131434e+00 5.452281e-01 5.258355e-01 6.697458e-01 6.588715e-01 4.762176e-01 4.548694e-01 6.767770e-01 5.071890e-01 5.529359e-01 2.922746e-01 8.453138e-01
<GCONST> 1.294921e+02
<STATE> 3
<MEAN> 39
 -4.681450e+00 -6.258827e+00 2.735142e+00 -2.071848e+00 8.240952e-01 -7.530772e-01 -2.411417e+00 -7.956195e+00 -6.879562e+00 -8.741018e+00 -1.488160e+00 6.300300e-02 7.909571e+01 2.289474e+00 -8.107119e-01 -5.749179e-01 -8.809778e-01 -3.556457e-01 -1.324172e+00 -8.325685e-01 -5.361607e-01 -6.178516e-01 -2.398514e-01 -6.929484e-01 3.851507e-01 2.261066e+00 -4.146633e-01 3.431187e-01 2.141291e-02 -6.738447e-02 6.304786e-03 -1.615180e-02 3.657207e-01 2.019583e-01 3.983260e-01 4.084387e-01 1.288090e-01 1.167942e-01 -7.524731e-01
<VARIANCE> 39
 2.787309e+01 3.108758e+01 4.024599e+01 1.088274e+02 9.978991e+01 5.320203e+01 1.286551e+02 3.971606e+01 8.960132e+01 5.839288e+01 6.186089e+01 1.600059e+01 2.394586e+01 2.593645e+00 4.255649e+00 3.773383e+00 3.349763e+00 4.399018e+00 2.885782e+00 5.706611e+00 4.036988e+00 4.077172e+00 6.723587e+00 5.488420e+00 2.437145e+00 6.423181e+00 5.516196e-01 6.078925e-01 5.600928e-01 7.396906e-01 9.301004e-01 6.404832e-01 8.773984e-01 6.124588e-01 6.857215e-01 1.039009e+00 5.871870e-01 2.989083e-01 6.641181e-01
<GCONST> 1.353580e+02
<STATE> 4
<MEAN> 39
 -2.137998e+00 -7.067916e+00 4.116336e+00 -3.162316e+00 1.600570e+00 1.160344e+00 -6.891387e+00 -7.659754e+00 1.409253e+00 -1.154183e+01 -3.358786e+00 2.719262e+00 8.079297e+01 -1.128663e-01 3.671254e-01 -2.377866e-01 -2.554434e-01 -2.826653e-01 -2.401592e-02 2.081960e-01 2.237856e-01 3.272406e-01 2.859061e-01 2.912145e-01 5.257744e-02 -3.313118e-01 -2.088708e-01 1.235125e-01 4.555475e-02 7.142873e-02 3.719509e-02 1.167279e-01 1.042080e-01 3.558169e-02 2.815352e-02 5.542061e-02 9.408969e-02 -2.214888e-02 -2.430488e-01
<VARIANCE> 39
 9.602529e+00 6.202769e+01 3.948436e+01 7.515142e+01 8.701135e+01 6.337918e+01 1.073050e+02 6.429414e+01 1.263506e+02 8.505183e+01 9.089887e+01 4.643114e+01 3.004565e+01 7.567318e-01 4.128507e+00 1.457704e+00 2.574647e+00 2.789772e+00 2.705669e+00 4.631366e+00 2.747202e+00 2.867985e+00 3.750120e+00 2.997741e+00 2.298104e+00 2.371563e+00 1.639048e-01 6.731535e-01 2.491542e-01 3.903809e-01 4.025322e-01 4.778525e-01 8.665282e-01 5.706347e-01 4.497433e-01 6.708516e-01 5.178020e-01 3.216625e-01 3.436508e-01
<GCONST> 1.257986e+02
<TRANSP> 5
 0.000000e+00 1.000000e+00 0.000000e+00 0.000000e+00 0.000000e+00
 0.000000e+00 7.305957e-01 2.694042e-01 0.000000e+00 0.000000e+00
 0.000000e+00 0.000000e+00 5.817965e-01 4.182035e-01 0.000000e+00
 0.000000e+00 0.000000e+00 0.000000e+00 8.468463e-01 1.531538e-01
 0.000000e+00 0.000000e+00 0.000000e+00 0.000000e+00 0.000000e+00
<ENDHMM>
~h "w"
<BEGINHMM>
<NUMSTATES> 5
<STATE> 2
<MEAN> 39
 -2.501293e+00 -4.136026e+00 6.573041e+00 -3.677413e-01 5.528215e+00 4.143643e+00 -9.422551e+00 -8.360491e+00 4.407153e+00 -8.042051e+00 -6.638529e+00 -4.233467e+00 8.016455e+01 2.052123e-01 1.159322e-02 -4.404062e-01 -7.479147e-01 -7.602768e-01 -6.574103e-01 2.479211e-01 9.666156e-01 -1.478443e-01 -2.641088e-01 5.939866e-01 4.655643e-01 1.595302e-01 -1.211327e-01 -3.568912e-02 2.715484e-02 1.532213e-01 1.400087e-02 6.761643e-02 9.461423e-02 8.449439e-02 -2.723794e-02 -2.289768e-02 6.835709e-02 2.730402e-02 -6.876108e-02
<VARIANCE> 39
 4.861071e+00 5.357269e+01 3.236744e+01 4.770081e+01 1.042054e+02 1.140211e+02 4.189150e+01 7.052204e+01 2.025243e+02 2.590450e+01 1.109100e+02 5.741573e+01 2.471205e+01 3.145359e-01 1.382933e+00 1.644309e+00 2.027337e+00 3.694004e+00 5.341057e+00 2.124368e+00 4.259974e+00 4.151422e+00 2.022281e+00 3.179727e+00 2.578747e+00 7.789824e-01 1.036040e-01 2.136495e-01 2.620738e-01 3.434405e-01 5.698136e-01 7.713345e-01 3.412533e-01 6.037087e-01 5.891877e-01 3.638287e-01 6.264913e-01 3.991427e-01 1.208826e-01
<GCONST> 1.183660e+02
<STATE> 3
<MEAN> 39
 -2.412420e+00 -7.001632e+00 2.605347e+00 -7.003398e+00 -1.844118e+00 1.728131e+00 -2.761750e+00 -2.477020e+00 7.666896e-01 -1.397831e+01 -4.024861e+00 4.441465e+00 8.267317e+01 -1.354324e-01 2.540912e-01 1.466679e-01 3.404506e-01 1.776701e-01 3.759860e-01 1.234221e-01 -1.782206e-01 3.761576e-02 -1.298655e-01 -5.153909e-03 -4.222370e-02 -2.568321e-01 -2.680346e-02 7.833059e-02 3.305010e-02 6.315900e-02 1.849311e-02 3.749965e-02 9.414870e-03 -2.825862e-02 6.241943e-02 4.418048e-02 -6.606561e-02 -6.254253e-02 -6.803013e-02
<VARIANCE> 39
 4.704981e+00 4.336700e+01 2.357312e+01 5.595480e+01 3.361778e+01 4.719668e+01 3.048668e+01 6.909859e+01 4.901162e+01 4.097353e+01 6.480170e+01 6.256820e+01 2.346062e+01 2.264175e-01 1.047838e+00 1.004156e+00 2.386960e+00 1.575812e+00 2.114309e+00 1.130681e+00 1.959241e+00 1.869446e+00 1.661793e+00 3.556093e+00 3.403155e+00 7.796867e-01 4.387632e-02 1.348033e-01 1.504414e-01 3.129852e-01 1.872269e-01 3.497736e-01 1.912487e-01 2.725136e-01 3.554637e-01 2.944613e-01 5.205869e-01 4.945678e-01 1.075676e-01
<GCONST> 1.033730e+02
<STATE> 4
<MEAN> 39
 -3.578505e+00 -5.122910e+00 4.979053e+00 -5.238784e+00 -2.370716e+00 2.775372e+00 -4.551784e+00 -8.387755e-01 3.037400e+00 -1.593656e+01 -1.257926e+00 5.065551e+00 7.836693e+01 -5.823558e-01 7.452781e-01 -1.341158e-01 3.416864e-01 2.647145e-02 3.080937e-01 8.319540e-01 6.914549e-02 4.362484e-01 4.581920e-01 -1.100657e-01 -2.079429e-01 -1.111679e+00 -6.728197e-02 1.610372e-02 -5.724614e-03 -2.116172e-02 -2.964503e-02 -8.855212e-02 5.583087e-02 -1.997458e-02 1.725116e-02 1.463762e-01 1.818876e-02 -6.235758e-02 -8.183099e-02
<VARIANCE> 39
 1.819405e+01 7.065401e+01 5.178192e+01 6.620073e+01 7.182410e+01 7.285184e+01 1.102229e+02 4.197219e+01 9.769483e+01 5.422412e+01 6.569775e+01 3.678898e+01 4.869678e+01 6.840369e-01 3.001917e+00 2.281610e+00 1.744681e+00 1.664868e+00 2.431072e+00 3.684636e+00 1.599155e+00 3.293628e+00 2.216144e+00 2.290872e+00 1.478888e+00 1.913751e+00 6.534266e-02 3.269883e-01 2.906011e-01 2.763308e-01 2.772434e-01 3.331933e-01 6.000329e-01 2.583688e-01 4.553358e-01 3.282204e-01 3.346628e-01 2.511869e-01 1.657830e-01
<GCONST> 1.165706e+02
<TRANSP> 5
 0.000000e+00 1.000000e+00 0.000000e+00 0.000000e+00 0.000000e+00
 0.000000e+00 7.398912e-01 2.601088e-01 0.000000e+00 0.000000e+00
 0.000000e+00 0.000000e+00 9.033048e-01 9.669514e-02 0.000000e+00
 0.000000e+00 0.000000e+00 0.000000e+00 8.100350e-01 1.899649e-01
 0.000000e+00 0.000000e+00 0.000000e+00 0.000000e+00 0.000000e+00
<ENDHMM>
~h "y"
<BEGINHMM>
<NUMSTATES> 5
<STATE> 2
<MEAN> 39
 -1.258639e+01 2.938472e+00 2.326365e+00 2.654815e+00 3.401077e+00 1.909083e+00 1.624457e+00 -6.970026e-01 3.659668e+00 7.777521e-01 9.693859e-01 4.272680e-01 6.471090e+01 -5.105969e-01 -2.551049e-01 -5.580800e-01 -6.114844e-01 -3.921703e-01 3.830571e-02 5.493971e-01 3.477340e-01 4.523877e-02 9.248304e-02 -1.841191e-01 -1.037333e-01 -4.620159e-01 7.459763e-02 1.898544e-02 1.259840e-02 2.181108e-02 -4.133254e-02 -9.276076e-02 -1.850592e-01 -1.021927e-01 -6.678042e-02 -1.306620e-01 -1.091000e-01 -1.036603e-01 4.040414e-02
<VARIANCE> 39
 4.991655e+01 5.186914e+01 1.730451e+01 4.760639e+01 2.891699e+01 3.691498e+01 2.929864e+01 5.764330e+01 4.238762e+01 3.947784e+01 2.552674e+01 1.299837e+01 1.108114e+02 3.095256e-01 6.831222e-01 6.708505e-01 9.022563e-01 1.226482e+00 1.238121e+00 2.012588e+00 9.821895e-01 7.933784e-01 8.487712e-01 8.615586e-01 8.304299e-01 1.720235e-01 4.082674e-02 7.721645e-02 1.144343e-01 1.618604e-01 1.569872e-01 1.518185e-01 2.244313e-01 1.572972e-01 1.540716e-01 1.622894e-01 1.265294e-01 1.645658e-01 1.912057e-02
<GCONST> 8.679679e+01
<STATE> 3
<MEAN> 39
 -1.783069e+01 2.348889e-01 -1.846052e+00 -1.667353e+00 1.747306e-01 1.629167e+00 3.369048e+00 5.657976e-01 3.949983e+00 -1.180063e-01 8.221616e-01 -4.714143e-01 5.833310e+01 -6.714659e-02 1.419585e-02 -1.109119e-01 -7.971390e-02 -1.636459e-01 -7.144550e-02 1.980238e-01 9.380333e-02 -9.347950e-02 -3.761830e-02 -1.710712e-01 -1.269129e-01 -1.194807e-01 2.485357e-02 4.983727e-02 6.712918e-02 1.114698e-01 7.076421e-02 3.239884e-02 -5.130197e-02 -2.172594e-02 2.177821e-02 -1.552161e-02 1.847849e-02 3.743265e-03 3.597585e-03
<VARIANCE> 39
 4.573143e+01 1.614204e+01 8.599757e+00 1.191335e+01 1.047724e+01 1.959966e+01 8.395823e+00 4.529107e+01 2.971279e+01 2.833173e+01 1.884362e+01 1.232045e+01 1.307179e+02 9.301168e-02 1.817541e-01 2.909410e-01 3.948583e-01 7.896274e-01 7.385259e-01 8.409157e-01 8.028419e-01 7.931842e-01 7.903097e-01 7.201720e-01 7.609882e-01 6.790992e-02 1.532412e-02 4.256475e-02 6.335028e-02 8.879103e-02 1.314094e-01 1.369110e-01 1.754765e-01 1.567041e-01 1.713855e-01 1.894656e-01 1.299157e-01 1.839530e-01 1.101762e-02
<GCONST> 6.850153e+01
<STATE> 4
<MEAN> 39
 -7.160682e+00 -4.506280e+00 4.114383e-01 -5.075420e+00 -2.783771e+00 -1.163568e+00 3.102577e+00 -4.510854e+00 -5.615576e-01 -3.847523e+00 -3.796298e+00 1.565951e+00 7.398619e+01 -1.814554e-02 6.827803e-01 -3.809636e-01 5.167486e-02 -2.859992e-01 -4.261182e-02 1.819601e-01 3.136864e-01 5.349384e-02 -1.884293e-01 -4.427021e-01 -4.614510e-01 -4.081185e-01 -3.415186e-02 2.464344e-01 7.707346e-02 1.929119e-01 1.672088e-01 3.990105e-02 -2.795731e-01 4.454727e-02 6.252456e-02 -2.043577e-01 2.220522e-02 -2.018435e-01 -1.208631e-01
<VARIANCE> 39
 7.599277e+01 3.272640e+01 1.859660e+01 3.357177e+01 1.849226e+01 5.408772e+01 1.299682e+01 8.200922e+01 5.567700e+01 5.484345e+01 5.366446e+01 1.039338e+01 1.652995e+02 1.228818e-01 5.929472e-01 4.772124e-01 7.158636e-01 1.005961e+00 1.232343e+00 9.486624e-01 9.326358e-01 7.232892e-01 5.788605e-01 8.610064e-01 8.354798e-01 1.684874e-01 4.246410e-02 1.524952e-01 1.048710e-01 2.317295e-01 1.388986e-01 1.525231e-01 3.222919e-01 2.468708e-01 1.977810e-01 1.898274e-01 1.979251e-01 1.961564e-01 1.124171e-01
<GCONST> 8.882710e+01
<TRANSP> 5
 0.000000e+00 1.000000e+00 0.000000e+00 0.000000e+00 0.000000e+00
 0.000000e+00 5.892140e-01 4.107860e-01 0.000000e+00 0.000000e+00
 0.000000e+00 0.000000e+00 7.227231e-01 2.772769e-01 0.000000e+00
 0.000000e+00 0.000000e+00 0.000000e+00 4.084059e-01 5.915941e-01
 0.000000e+00 0.000000e+00 0.000000e+00 0.000000e+00 0.000000e+00
<ENDHMM>
~h "sp"
<BEGINHMM>
<NUMSTATES> 3
<STATE> 2
~s "silst"
<TRANSP> 3
 0.000000e+00 5.927652e-02 9.407235e-01
 0.000000e+00 5.167055e-01 4.832945e-01
 0.000000e+00 0.000000e+00 0.000000e+00
<ENDHMM>
~h "sy"
<BEGINHMM>
<NUMSTATES> 5
<STATE> 2
<MEAN> 39
 -2.050957e+01 1.373502e+00 -2.575784e+00 -8.021141e-01 1.421865e+00 2.627509e+00 2.494160e+00 -1.700086e+00 2.756156e+00 -1.953304e+00 3.659758e-01 -2.231124e+00 4.733801e+01 -2.609266e-02 -2.359270e-02 -1.370449e-02 -2.303558e-02 -9.238468e-03 -3.769422e-02 -9.575520e-03 1.157310e-02 3.361445e-02 2.987798e-02 -9.383751e-03 -3.488436e-03 4.661562e-03 5.272333e-03 -5.750889e-03 4.331328e-03 -4.265022e-03 -1.138558e-03 1.231464e-02 -3.605910e-03 -6.977930e-04 1.321865e-02 1.034690e-02 6.964846e-03 1.831931e-02 9.091702e-03
<VARIANCE> 39
 9.278821e-01 2.036325e+00 4.023378e+00 3.871543e+00 6.912063e+00 6.420216e+00 9.281253e+00 1.323184e+01 1.443177e+01 1.151061e+01 7.975318e+00 1.033262e+01 2.812234e+01 7.972290e-02 1.723362e-01 2.807386e-01 3.683676e-01 5.486856e-01 6.306607e-01 7.230319e-01 7.623347e-01 7.672390e-01 6.543285e-01 8.507075e-01 6.946740e-01 7.328372e-02 1.712657e-02 3.903402e-02 5.802547e-02 7.501061e-02 1.197549e-01 1.306702e-01 1.497439e-01 1.566362e-01 1.610319e-01 1.356437e-01 1.750986e-01 1.403940e-01 1.177011e-02
<GCONST> 5.185235e+01
<STATE> 3
<MEAN> 39
 -2.094353e+01 3.200768e-01 -3.356455e+00 -2.404663e+00 -2.446443e-03 2.061210e+00 1.947627e+00 -2.537388e-02 2.491342e+00 1.229351e+00 -1.201179e-01 -4.949645e-01 5.124429e+01 -9.153105e-03 -9.306650e-02 8.271130e-02 -3.427450e-03 3.413806e-02 -6.169878e-02 -3.260020e-01 -2.882382e-01 -9.248616e-02 -1.294186e-01 2.572238e-03 1.326607e-01 1.386030e-01 4.005342e-02 -6.236115e-02 7.427923e-02 8.844633e-02 -1.053248e-01 -3.913625e-02 -5.826854e-02 -7.217144e-02 -2.187541e-01 -2.217890e-01 5.628635e-02 -1.284262e-01 5.406407e-02
<VARIANCE> 39
 1.397194e+00 2.903957e+00 7.963562e+00 4.792088e+00 9.525767e+00 4.415133e+00 1.088437e+01 2.175354e+01 2.021584e+01 9.112513e+00 1.224702e+01 4.232003e+00 3.011326e+01 5.567934e-02 1.636098e-01 2.631438e-01 2.188767e-01 5.704715e-01 5.399964e-01 5.679037e-01 6.664806e-01 1.399866e+00 5.061857e-01 3.906597e-01 3.839698e-01 1.615899e-01 2.988144e-02 1.020774e-01 1.525562e-01 1.096389e-01 1.711812e-01 1.471341e-01 1.826695e-01 2.274664e-01 2.446653e-01 1.467283e-01 1.493016e-01 1.092326e-01 8.240335e-02
<GCONST> 5.804389e+01
<STATE> 4
<MEAN> 39
 -1.914044e+01 -1.676624e-01 -3.343782e+00 -2.464699e+00 3.792790e-01 2.708296e+00 3.440751e+00 -1.781849e+00 3.704711e+00 -3.527358e+00 5.274643e-01 -1.164677e+00 4.979009e+01 -1.462335e-02 -1.143884e-01 2.996260e-02 -2.103274e-02 -7.342661e-02 -4.994386e-02 -2.707742e-01 -9.249915e-02 -4.321959e-03 -7.870585e-03 3.132067e-02 -1.331926e-01 9.267289e-03 -4.166122e-02 -9.528663e-02 1.447026e-01 4.507269e-02 -1.274622e-02 3.109728e-02 -1.194097e-02 1.347554e-02 7.341743e-03 -1.820162e-02 -3.454818e-02 -1.127141e-01 5.869586e-02
<VARIANCE> 39
 8.943512e+00 9.628016e+00 6.806030e+00 9.759978e+00 1.405453e+01 6.648419e+00 9.566574e+00 1.543387e+01 9.141725e+00 2.187110e+01 6.287997e+00 9.962912e+00 2.889288e+01 9.175459e-01 1.527264e+00 1.192545e+00 1.505773e+00 1.687747e+00 9.034843e-01 1.066268e+00 1.245244e+00 9.384791e-01 1.350815e+00 1.003938e+00 7.836146e-01 1.841409e+00 1.721554e-01 3.357833e-01 2.827797e-01 2.934541e-01 3.307623e-01 1.923114e-01 2.131156e-01 2.241531e-01 1.898015e-01 2.189911e-01 1.712372e-01 1.138939e-01 3.308170e-01
<GCONST> 8.553628e+01
<TRANSP> 5
 0.000000e+00 1.000000e+00 0.000000e+00 0.000000e+00 0.000000e+00
 0.000000e+00 9.691586e-01 3.084146e-02 0.000000e+00 0.000000e+00
 0.000000e+00 0.000000e+00 4.009100e-01 5.990900e-01 0.000000e+00
 0.000000e+00 0.000000e+00 0.000000e+00 6.312677e-01 3.687324e-01
 0.000000e+00 0.000000e+00 0.000000e+00 0.000000e+00 0.000000e+00
<ENDHMM>
~h "sil"
<BEGINHMM>
<NUMSTATES> 5
<STATE> 2
<MEAN> 39
 -1.499160e+01 1.357636e+00 -4.924192e+00 1.208658e+00 -2.487320e+00 2.604578e+00 -2.394359e+00 1.268490e+00 -1.734752e+00 5.718244e-01 -2.930000e-01 -7.294701e-02 2.155247e+01 6.168371e-02 -8.072146e-03 3.555797e-02 -1.739242e-02 4.400676e-02 -1.433930e-02 2.629079e-02 -3.863949e-02 3.236673e-03 1.975081e-03 -8.356465e-03 -2.664232e-04 8.800122e-02 5.198590e-03 9.647385e-04 5.634314e-03 5.629438e-05 7.410090e-03 9.541874e-03 1.109278e-02 5.080151e-03 9.544440e-03 2.743506e-03 3.515880e-03 2.539020e-03 8.970839e-03
<VARIANCE> 39
 1.907590e+02 2.669977e+00 2.561818e+01 4.685176e+00 1.272852e+01 8.851014e+00 1.175009e+01 8.681519e+00 6.806876e+00 3.667850e+00 3.117026e+00 2.831768e+00 4.001355e+02 9.681271e-02 6.892839e-02 1.049427e-01 1.436929e-01 1.946716e-01 2.405117e-01 2.945663e-01 3.191524e-01 3.278199e-01 3.255239e-01 3.124396e-01 3.004411e-01 1.085824e-01 1.302181e-02 1.376638e-02 2.067094e-02 2.853600e-02 3.919968e-02 5.031747e-02 6.065542e-02 6.292768e-02 6.723607e-02 6.448116e-02 6.110369e-02 6.139052e-02 7.134151e-03
<GCONST> 3.815243e+01
<STATE> 3
~s "silst"
<STATE> 4
<MEAN> 39
 -2.058630e+01 1.296483e+00 -2.775563e+00 -9.190440e-01 6.790206e-01 2.246001e+00 3.208819e+00 1.314755e+00 3.755433e+00 8.361457e-02 7.728159e-01 -1.278663e+00 5.267246e+01 6.364158e-04 -8.445132e-03 6.567948e-04 -2.057888e-02 2.473111e-03 -2.101353e-03 3.177625e-03 -6.468287e-03 7.344570e-03 -8.862227e-03 8.909976e-03 1.076293e-04 4.652432e-02 2.805742e-03 -3.299615e-03 3.902600e-03 1.731992e-03 -2.179574e-04 -4.131882e-04 -3.726159e-03 -7.079583e-03 -4.923278e-03 -4.547526e-04 2.975136e-03 3.370614e-03 1.613885e-03
<VARIANCE> 39
 1.463395e+00 2.462672e+00 5.196641e+00 4.814732e+00 7.248171e+00 7.480260e+00 8.695682e+00 2.303870e+01 1.255899e+01 1.399595e+01 7.192595e+00 7.925280e+00 4.950454e+01 1.033110e-01 1.793073e-01 3.099807e-01 4.053253e-01 5.105280e-01 6.304977e-01 7.119968e-01 8.743587e-01 8.709603e-01 7.613902e-01 7.106645e-01 6.847042e-01 1.318022e-01 1.992781e-02 3.706999e-02 5.882327e-02 8.117628e-02 1.051505e-01 1.291381e-01 1.451287e-01 1.784382e-01 1.798904e-01 1.569509e-01 1.467678e-01 1.396227e-01 2.043329e-02
<GCONST> 5.590494e+01
<TRANSP> 5
 0.000000e+00 1.000000e+00 0.000000e+00 0.000000e+00 0.000000e+00
 0.000000e+00 8.958519e-01 2.777341e-02 7.637466e-02 0.000000e+00
 0.000000e+00 0.000000e+00 8.834545e-01 1.165454e-01 0.000000e+00
 0.000000e+00 1.412088e-02 0.000000e+00 9.651610e-01 2.071812e-02
 0.000000e+00 0.000000e+00 0.000000e+00 0.000000e+00 0.000000e+00
<ENDHMM>
