~o
<STREAMINFO> 1 39
<VECSIZE> 39<NULLD><MFCC_D_A_0><DIAGC>
~s "silst"
<MEAN> 39
 -1.686120e+01 1.711840e+00 -1.940151e+00 4.316314e-01 5.084324e-02 1.835912e+00 2.495426e+00 3.204905e+00 2.965613e+00 1.972234e+00 7.914231e-01 -2.925031e-02 3.507348e+01 -1.944652e+00 1.858319e-01 -2.211331e-01 -1.369978e-02 4.851061e-02 1.724513e-01 3.479536e-01 3.890857e-01 3.487142e-01 1.659476e-01 7.591771e-02 -1.030001e-01 5.595442e+00 2.524850e-01 -2.933374e-02 2.536439e-02 -2.296748e-02 8.472361e-03 -3.555464e-02 -2.249442e-02 -3.328522e-02 -3.000894e-02 -3.152664e-02 -1.460624e-02 -1.916573e-02 -1.474012e-01
<VARIANCE> 39
 6.961189e+01 2.858736e+00 4.486818e+00 4.576670e+00 5.101771e+00 5.797458e+00 9.757461e+00 9.953458e+00 1.002845e+01 6.529691e+00 5.242877e+00 5.322699e+00 4.478535e+02 8.221354e+00 2.973309e-01 5.025188e-01 4.980812e-01 6.196783e-01 7.281190e-01 1.055247e+00 1.007040e+00 9.884887e-01 7.567768e-01 6.081873e-01 5.856174e-01 9.102835e+00 1.447405e+00 4.919874e-02 1.022632e-01 1.000453e-01 1.203766e-01 1.453243e-01 2.165015e-01 1.977448e-01 1.952942e-01 1.500591e-01 1.240251e-01 1.191237e-01 2.414599e+00
<GCONST> 7.994569e+01
~h "a"
<BEGINHMM>
<NUMSTATES> 5
<STATE> 2
<MEAN> 39
 -8.977857e+00 2.863774e+00 -1.179190e+00 -2.163439e-01 3.638361e-01 -3.355072e+00 -2.854598e-02 -4.582232e-01 -4.583982e+00 2.189242e+00 5.105126e+00 -1.204748e+00 6.832977e+01 8.849548e-01 2.479718e-01 1.665604e-01 1.266923e-01 -1.166781e-01 -4.300450e-01 -4.303069e-01 -1.151540e-01 -3.704367e-01 -5.246540e-02 3.301716e-01 -1.739112e-02 5.801480e-01 -1.410142e-01 -1.423472e-01 -1.088259e-01 2.267194e-02 -4.092299e-02 1.338093e-01 1.602797e-01 1.001221e-01 1.031324e-01 6.062733e-02 3.235459e-02 2.863889e-02 -1.067697e-01
<VARIANCE> 39
 7.063168e+01 3.261452e+01 3.357328e+01 4.963752e+01 3.220354e+01 3.635707e+01 5.017090e+01 2.793148e+01 5.348897e+01 2.637040e+01 2.209072e+01 1.226138e+01 4.476358e+01 7.117134e+00 2.756366e+00 2.154145e+00 2.249281e+00 2.342541e+00 3.505090e+00 3.356676e+00 2.589926e+00 5.718368e+00 1.570341e+00 2.252145e+00 1.246611e+00 4.735854e+00 7.267227e-01 4.922291e-01 3.403378e-01 3.236493e-01 3.593288e-01 5.182517e-01 4.956888e-01 4.190085e-01 5.429523e-01 2.600576e-01 3.193814e-01 2.246417e-01 4.378895e-01
<GCONST> 1.195038e+02
<STATE> 3
<MEAN> 39
 -1.080297e+01 6.436908e+00 2.661574e+00 5.406514e+00 4.809209e+00 8.192019e-01 -1.809555e-01 1.520908e+00 1.463499e+00 3.484439e+00 4.211735e+00 -7.267460e-01 6.519608e+01 -7.034262e-01 -4.086856e-01 -2.277552e-01 -1.537416e-01 -7.414666e-02 4.624408e-01 8.131232e-01 6.499081e-01 4.613591e-01 3.111853e-02 2.001728e-02 1.641793e-01 -3.981880e-01 8.412247e-03 -1.119157e-01 -1.258297e-01 -1.544423e-01 -1.367956e-01 -1.209754e-01 -8.224729e-02 -1.649708e-01 -1.899808e-01 -5.084911e-02 5.096748e-03 -3.531204e-02 3.818686e-02
<VARIANCE> 39
 3.639842e+01 2.505359e+01 1.842998e+01 3.741245e+01 3.254028e+01 3.661150e+01 5.455054e+01 3.345575e+01 6.412988e+01 1.430554e+01 3.212507e+01 1.140456e+01 3.010931e+01 8.187678e-01 9.128600e-01 9.919370e-01 1.217878e+00 1.022422e+00 1.441883e+00 1.652234e+00 1.742409e+00 1.546348e+00 6.846219e-01 7.681136e-01 7.760231e-01 3.885919e-01 1.264316e-01 1.633374e-01 1.592158e-01 1.311376e-01 1.976330e-01 3.211215e-01 3.561944e-01 2.927894e-01 3.405125e-01 1.393071e-01 1.815232e-01 1.408449e-01 6.924164e-02
<GCONST> 9.353691e+01
<STATE> 4
<MEAN> 39
 -1.213756e+01 2.409834e+00 -2.793360e+00 1.235317e-01 4.546731e-01 5.780150e-01 2.755140e+00 1.443580e+00 -1.281978e+00 2.776846e+00 5.783778e+00 5.067449e-01 6.499708e+01 -4.062799e-01 -8.120574e-03 1.169760e-02 1.058495e-02 7.577633e-02 2.475216e-01 1.687175e-01 -3.563474e-02 1.624456e-01 -4.728644e-03 -2.395585e-01 -2.177104e-02 -3.167705e-01 3.194788e-02 4.742459e-02 6.321317e-02 3.478825e-02 4.127715e-02 -2.492650e-02 -7.693681e-02 -3.085701e-02 -2.929502e-02 -3.457697e-02 -3.399432e-02 -1.739461e-02 1.726843e-02
<VARIANCE> 39
 7.786504e+01 1.155972e+01 1.048838e+01 1.413572e+01 2.004185e+01 2.908064e+01 2.204379e+01 2.609542e+01 6.512772e+01 1.135322e+01 3.097076e+01 7.966980e+00 4.753692e+01 6.391057e-01 8.679159e-01 8.326006e-01 9.896761e-01 1.031511e+00 1.286453e+00 1.136330e+00 1.240202e+00 1.697423e+00 8.716446e-01 8.397970e-01 7.284251e-01 4.065587e-01 6.308866e-02 1.251650e-01 1.191222e-01 1.366381e-01 1.410509e-01 1.760158e-01 1.876181e-01 2.509103e-01 2.588830e-01 1.490876e-01 1.456174e-01 1.365906e-01 4.021654e-02
<GCONST> 8.492358e+01
<TRANSP> 5
 0.000000e+00 1.000000e+00 0.000000e+00 0.000000e+00 0.000000e+00
 0.000000e+00 7.501198e-01 2.498802e-01 0.000000e+00 0.000000e+00
 0.000000e+00 0.000000e+00 6.553488e-01 3.446513e-01 0.000000e+00
 0.000000e+00 0.000000e+00 0.000000e+00 8.077779e-01 1.922221e-01
 0.000000e+00 0.000000e+00 0.000000e+00 0.000000e+00 0.000000e+00
<ENDHMM>
~h "b"
<BEGINHMM>
<NUMSTATES> 5
<STATE> 2
<MEAN> 39
 -1.997932e+01 2.449347e+00 -2.112164e+00 -5.839793e-01 8.230777e-01 2.886478e+00 4.743150e+00 5.039549e+00 5.128983e+00 2.976323e+00 2.450783e+00 1.634422e-01 5.910663e+01 -2.218300e-01 -1.578653e-01 -1.664539e-01 -3.461475e-01 -3.412270e-01 -1.827594e-01 -4.136547e-02 8.727799e-02 6.101661e-02 -1.391320e-01 -7.270273e-02 -3.274535e-02 -8.889282e-02 7.835135e-02 8.338715e-02 9.139977e-02 1.538642e-01 1.537423e-01 6.506288e-02 -3.070914e-02 -1.090069e-01 -1.094287e-01 -3.947447e-02 -3.815034e-02 -3.706659e-02 3.716773e-02
<VARIANCE> 39
 1.830216e+00 2.953033e+00 4.180954e+00 6.104888e+00 7.417648e+00 1.181706e+01 1.436896e+01 1.171329e+01 9.460499e+00 8.758973e+00 7.308324e+00 7.648802e+00 1.447546e+00 2.359371e-01 3.579403e-01 5.127662e-01 1.085344e+00 1.169127e+00 1.380946e+00 1.745475e+00 1.317424e+00 1.155783e+00 1.418789e+00 6.822176e-01 7.696547e-01 6.518743e-02 5.310408e-02 7.011578e-02 9.259096e-02 1.897194e-01 1.760605e-01 2.453286e-01 3.621104e-01 2.325837e-01 2.073870e-01 2.503132e-01 1.137396e-01 1.557993e-01 1.505871e-02
<GCONST> 6.394960e+01
<STATE> 3
<MEAN> 39
 -2.102786e+01 1.237546e+00 -3.175989e+00 -1.043273e+00 -5.016168e-01 1.151897e+00 3.517514e+00 4.355662e+00 4.041639e+00 1.543294e+00 5.711492e-01 -9.338067e-01 5.859697e+01 9.262387e-03 -1.288145e-02 -1.121447e-02 8.412154e-03 1.163097e-02 -3.185034e-02 -5.231298e-02 -4.973163e-02 -4.435316e-02 -3.559960e-02 -3.486177e-02 -2.283234e-02 6.378897e-03 2.871337e-03 -7.485854e-03 -1.496649e-02 -1.408129e-02 -8.456010e-03 -9.281592e-03 9.839056e-03 9.369690e-03 1.525929e-02 2.110749e-02 1.799026e-02 4.707871e-03 1.814238e-03
<VARIANCE> 39
 1.282355e+00 1.910524e+00 3.206937e+00 4.231364e+00 4.620936e+00 5.309323e+00 6.460862e+00 7.937267e+00 8.057411e+00 8.289926e+00 6.296064e+00 5.847135e+00 1.447546e+00 1.078096e-01 1.324923e-01 2.245065e-01 4.667456e-01 5.542107e-01 5.214665e-01 7.027113e-01 9.831463e-01 9.789991e-01 9.770232e-01 7.156482e-01 6.799297e-01 3.895944e-02 2.119975e-02 2.291129e-02 3.926978e-02 9.529711e-02 1.183998e-01 1.087764e-01 1.620296e-01 2.190959e-01 2.031189e-01 2.197213e-01 1.526413e-01 1.467970e-01 7.298185e-03
<GCONST> 4.563413e+01
<STATE> 4
<MEAN> 39
 -2.044883e+01 1.034804e+00 -3.877086e+00 -1.739846e+00 -7.952574e-01 6.838158e-01 2.891616e+00 3.462025e+00 3.497542e+00 1.261459e+00 8.952540e-01 -9.754903e-01 5.896095e+01 6.026401e-02 -9.334848e-02 -1.760821e-01 -4.649538e-02 -3.602921e-02 3.848670e-02 2.087822e-01 1.585491e-01 2.596809e-01 4.014078e-01 -1.837501e-02 -1.035542e-01 6.283522e-03 2.386699e-01 1.277447e-01 2.256731e-01 1.705443e-01 1.870174e-01 1.739522e-01 -6.065031e-02 -2.033413e-01 -1.819089e-01 3.434434e-02 4.965098e-02 4.742640e-02 1.866219e-01
<VARIANCE> 39
 1.936628e+00 3.906245e+00 7.516075e+00 7.228925e+00 4.338106e+00 2.848303e+00 3.803105e+00 1.296303e+01 1.077848e+01 6.103665e+00 4.514859e+00 5.608811e+00 1.447546e+00 2.012523e-01 2.805296e-01 4.401391e-01 8.759376e-01 4.964160e-01 4.650698e-01 9.144012e-01 2.290769e+00 1.132157e+00 1.160322e+00 5.871896e-01 7.259854e-01 9.137902e-02 1.168255e-01 1.470675e-01 1.198682e-01 1.652033e-01 1.773408e-01 6.853139e-02 1.931140e-01 6.957341e-01 5.313442e-01 1.292593e-01 1.216229e-01 1.307283e-01 8.728206e-02
<GCONST> 6.070789e+01
<TRANSP> 5
 0.000000e+00 1.000000e+00 0.000000e+00 0.000000e+00 0.000000e+00
 0.000000e+00 8.797171e-01 1.202828e-01 0.000000e+00 0.000000e+00
 0.000000e+00 0.000000e+00 9.616101e-01 3.838989e-02 0.000000e+00
 0.000000e+00 0.000000e+00 0.000000e+00 6.701337e-01 3.298664e-01
 0.000000e+00 0.000000e+00 0.000000e+00 0.000000e+00 0.000000e+00
<ENDHMM>
~h "d"
<BEGINHMM>
<NUMSTATES> 5
<STATE> 2
<MEAN> 39
 -6.504979e+00 5.114747e+00 1.545557e+00 3.681271e+00 4.717587e+00 -1.342428e+00 -2.336592e+00 -4.733000e+00 -9.734239e+00 -4.945238e+00 3.340230e+00 5.907462e-01 6.951450e+01 5.738079e-01 8.502484e-02 3.125335e-01 4.309415e-01 3.621331e-01 -1.104173e-01 -4.134312e-01 -3.782964e-01 -7.014759e-01 -4.481862e-01 6.582882e-02 -1.151652e-01 4.492623e-01 -5.039588e-02 -4.271115e-02 -7.714926e-02 7.857865e-02 1.155883e-03 -4.118878e-02 -1.390328e-02 1.383899e-01 3.594361e-02 1.941754e-02 3.300729e-02 -1.387594e-02 -7.778859e-02
<VARIANCE> 39
 4.539849e+01 3.886907e+01 3.854463e+01 2.820252e+01 1.650751e+01 1.914762e+01 2.359135e+01 2.935940e+01 7.209345e+01 2.894935e+01 1.770082e+01 1.042922e+01 2.984886e+01 4.540062e+00 4.309078e+00 2.471845e+00 2.555020e+00 1.821862e+00 2.575776e+00 3.373279e+00 3.044801e+00 7.080128e+00 2.746204e+00 1.937823e+00 1.215982e+00 3.202401e+00 6.279766e-01 6.914585e-01 3.994453e-01 4.037711e-01 3.179833e-01 4.149001e-01 4.332642e-01 3.999473e-01 7.994686e-01 4.299035e-01 3.155885e-01 2.014868e-01 3.577865e-01
<GCONST> 1.170908e+02
<STATE> 3
<MEAN> 39
 -6.141507e+00 3.966027e+00 5.552470e+00 1.155980e+01 7.774973e+00 -6.196658e+00 -7.605519e+00 -2.861805e+00 -1.155099e+01 -3.533021e+00 7.181469e+00 -3.337988e+00 7.024709e+01 -2.726938e-01 1.736858e-01 -1.245646e-01 -7.902543e-02 -2.004575e-01 1.094931e-01 4.729829e-01 4.576578e-01 4.719210e-01 2.413675e-01 -1.373333e-01 3.783374e-02 -3.587444e-01 -1.023613e-01 6.808251e-02 -1.586214e-02 -1.719384e-01 -8.960078e-02 1.451793e-01 1.680982e-01 3.433688e-02 2.480395e-01 1.430332e-01 -9.356638e-02 5.879752e-02 -8.683871e-02
<VARIANCE> 39
 2.076153e+01 2.012176e+01 3.226795e+01 7.355910e+01 3.097785e+01 3.200095e+01 4.467775e+01 2.389283e+01 5.037297e+01 5.341053e+01 3.334130e+01 1.498075e+01 1.742213e+01 8.345534e-01 1.562757e+00 1.311809e+00 2.206805e+00 1.228703e+00 2.185225e+00 2.365467e+00 2.039309e+00 4.361384e+00 2.061687e+00 2.314499e+00 9.671586e-01 8.439741e-01 8.793768e-02 2.472484e-01 1.999539e-01 3.588868e-01 2.348483e-01 3.864864e-01 4.205360e-01 2.864518e-01 5.840104e-01 3.160183e-01 3.331176e-01 1.881759e-01 9.635492e-02
<GCONST> 1.052695e+02
<STATE> 4
<MEAN> 39
 -1.796999e+01 3.358448e+00 -9.995583e-01 1.448168e+00 1.941899e+00 2.217877e+00 3.468503e+00 3.959639e+00 3.023399e+00 2.006288e+00 1.832971e+00 -2.926867e-01 6.033427e+01 -5.231854e-01 -1.051172e-01 -2.700920e-01 -5.668479e-01 -4.683793e-01 3.574374e-02 3.433641e-01 4.609206e-01 6.863787e-01 1.070019e-01 -3.171744e-01 1.621336e-01 -3.862687e-01 1.721432e-01 -1.249792e-01 6.604374e-02 6.872770e-02 3.828031e-02 -2.076872e-01 -2.695978e-01 -3.786952e-01 -4.360792e-01 -1.285070e-01 1.640445e-01 -3.616275e-03 2.400314e-01
<VARIANCE> 39
 2.245976e+01 1.100791e+01 1.697080e+01 2.462997e+01 1.404739e+01 1.602488e+01 1.505309e+01 1.589225e+01 3.757334e+01 2.145815e+01 1.334595e+01 1.117190e+01 1.020203e+01 6.829301e-01 8.976226e-01 1.022348e+00 1.605341e+00 1.316933e+00 2.305287e+00 2.192743e+00 1.930624e+00 3.423266e+00 1.378899e+00 1.193321e+00 7.692904e-01 5.108855e-01 1.427796e-01 1.698562e-01 1.685852e-01 2.739218e-01 2.091240e-01 4.030161e-01 4.232130e-01 5.716273e-01 8.069550e-01 3.456154e-01 2.118058e-01 1.659077e-01 1.522447e-01
<GCONST> 9.429610e+01
<TRANSP> 5
 0.000000e+00 1.000000e+00 0.000000e+00 0.000000e+00 0.000000e+00
 0.000000e+00 8.705927e-01 1.294073e-01 0.000000e+00 0.000000e+00
 0.000000e+00 0.000000e+00 8.273270e-01 1.726729e-01 0.000000e+00
 0.000000e+00 0.000000e+00 0.000000e+00 6.670350e-01 3.329650e-01
 0.000000e+00 0.000000e+00 0.000000e+00 0.000000e+00 0.000000e+00
<ENDHMM>
~h "e"
<BEGINHMM>
<NUMSTATES> 5
<STATE> 2
<MEAN> 39
 -1.031353e+01 1.710762e+00 4.974259e-01 2.472720e+00 4.310319e+00 -1.117873e-02 -1.215099e+00 -7.228679e+00 -9.434499e+00 -4.574658e-01 7.493249e+00 1.318458e+00 6.853362e+01 1.753785e+00 -4.226406e-01 -4.413826e-01 1.203740e+00 6.654143e-01 -7.056166e-01 -5.691866e-01 -2.057142e+00 -2.623373e+00 -6.470138e-02 1.382260e+00 2.154320e-01 1.392805e+00 -2.909934e-02 -2.179693e-01 -6.321386e-02 4.828985e-02 -1.455127e-01 -1.355108e-01 6.718232e-02 2.364261e-01 1.195423e-01 2.857732e-01 4.000609e-02 -4.382602e-02 1.576597e-02
<VARIANCE> 39
 4.167556e+01 3.702523e+01 3.106011e+01 4.553377e+01 1.652150e+01 1.843298e+01 2.530940e+01 5.602853e+01 7.745822e+01 2.940883e+01 3.073968e+01 1.231066e+01 3.772007e+01 6.451827e+00 4.558440e+00 3.646102e+00 6.643940e+00 1.677396e+00 4.436154e+00 2.857203e+00 4.226957e+00 8.878723e+00 2.554482e+00 3.553721e+00 1.708774e+00 4.133388e+00 7.822646e-01 7.029670e-01 5.095031e-01 8.931330e-01 3.814328e-01 3.606150e-01 3.137726e-01 7.162570e-01 1.018481e+00 4.290611e-01 5.451353e-01 2.257134e-01 3.925973e-01
<GCONST> 1.252377e+02
<STATE> 3
<MEAN> 39
 -2.903882e+00 -1.215223e+00 -1.525140e+00 8.066996e+00 3.720751e+00 -4.457383e+00 -3.213174e+00 -1.238829e+01 -1.853968e+01 5.462083e-01 1.212545e+01 2.046132e+00 7.354063e+01 -2.793005e-02 8.492090e-02 -1.169663e-01 2.993252e-01 -2.469651e-01 -1.948973e-01 4.977237e-01 5.327470e-01 1.530225e-01 5.047752e-01 -6.338814e-02 -2.849353e-02 -1.851917e-01 -5.278801e-01 1.174595e-01 1.234007e-01 -6.102715e-01 -8.904206e-02 2.701813e-01 1.804960e-01 5.745214e-01 7.280279e-01 5.210456e-02 -3.034253e-01 -1.482067e-01 -2.949397e-01
<VARIANCE> 39
 2.067164e+01 2.500702e+01 1.761265e+01 3.322004e+01 1.545472e+01 3.689065e+01 3.301353e+01 4.363470e+01 5.474929e+01 2.293180e+01 2.504767e+01 1.083663e+01 2.123866e+01 3.801869e+00 1.684218e+00 1.501886e+00 3.390647e+00 2.087408e+00 3.963599e+00 1.701399e+00 3.149486e+00 5.291428e+00 1.615230e+00 2.312768e+00 8.957211e-01 2.425924e+00 3.330287e-01 3.841284e-01 3.480260e-01 4.323263e-01 2.922803e-01 4.723059e-01 2.993388e-01 5.285768e-01 5.634770e-01 2.905631e-01 3.863992e-01 1.372264e-01 1.775809e-01
<GCONST> 1.104976e+02
<STATE> 4
<MEAN> 39
 -7.142781e+00 2.135522e+00 -3.924808e-01 4.039706e+00 3.746922e+00 -2.273986e-01 1.731811e+00 -6.340002e+00 -1.076042e+01 4.154748e+00 8.686471e+00 1.423475e-01 6.967284e+01 -8.978772e-01 4.531536e-01 6.270619e-02 -1.825362e-01 9.388906e-02 1.492729e-01 -1.167150e-01 1.164058e+00 1.779791e+00 3.189440e-01 -8.824632e-01 -7.312469e-01 -8.784140e-01 -1.062385e-02 -1.823790e-02 -3.658489e-02 -5.677882e-02 -1.288015e-01 -1.365778e-01 -2.803235e-01 -1.102001e-01 1.500039e-01 -9.345158e-02 -1.210145e-01 -6.504450e-02 -1.232582e-02
<VARIANCE> 39
 4.890979e+01 3.353746e+01 1.872120e+01 3.194666e+01 2.735558e+01 4.485506e+01 3.389766e+01 6.222548e+01 1.326622e+02 2.265577e+01 4.445890e+01 1.630720e+01 5.063266e+01 1.346456e+00 2.857942e+00 1.785959e+00 2.401386e+00 1.728212e+00 1.743573e+00 3.042400e+00 2.649250e+00 6.240358e+00 1.649309e+00 2.850030e+00 1.242193e+00 1.068505e+00 1.678118e-01 4.043338e-01 2.568622e-01 4.374825e-01 3.110017e-01 3.932198e-01 4.411622e-01 4.221820e-01 9.364861e-01 1.920077e-01 5.284650e-01 1.927279e-01 1.676455e-01
<GCONST> 1.139700e+02
<TRANSP> 5
 0.000000e+00 1.000000e+00 0.000000e+00 0.000000e+00 0.000000e+00
 0.000000e+00 6.378407e-01 3.621594e-01 0.000000e+00 0.000000e+00
 0.000000e+00 0.000000e+00 6.107334e-01 3.892666e-01 0.000000e+00
 0.000000e+00 0.000000e+00 0.000000e+00 7.103150e-01 2.896850e-01
 0.000000e+00 0.000000e+00 0.000000e+00 0.000000e+00 0.000000e+00
<ENDHMM>
~h "f"
<BEGINHMM>
<NUMSTATES> 5
<STATE> 2
<MEAN> 39
 -7.287766e+00 5.174616e+00 1.029639e+01 1.836179e+01 1.027144e+01 -7.728023e+00 -7.923125e+00 -1.605067e+00 -1.554772e+01 -7.268435e+00 9.058586e+00 -5.302866e+00 6.896940e+01 -4.404015e-01 4.562181e-01 -2.651820e-02 -3.091598e-01 -6.210806e-01 5.992072e-01 1.020680e+00 7.835247e-02 9.072033e-01 5.989143e-01 -6.096700e-01 1.345197e-01 -5.582821e-01 -9.095261e-02 2.781584e-02 -9.500553e-03 -1.866715e-01 3.616844e-02 2.182886e-01 6.366137e-02 1.151821e-01 3.047496e-01 1.151058e-01 -9.342385e-02 1.044569e-01 -5.875532e-02
<VARIANCE> 39
 2.793555e+00 5.925265e+00 7.654758e+00 8.305727e+00 9.206417e+00 1.468550e+01 1.844480e+01 2.250674e+01 2.027841e+01 1.892613e+01 1.527410e+01 5.599264e+00 4.244332e+00 9.484209e-02 2.977287e-01 4.229268e-01 1.108194e+00 6.058196e-01 1.567083e+00 1.380776e+00 1.726946e+00 2.693032e+00 1.372880e+00 9.361667e-01 7.446572e-01 9.510836e-02 2.146404e-02 5.998432e-02 1.076221e-01 1.579427e-01 1.034249e-01 1.732741e-01 3.564741e-01 4.573903e-01 3.960351e-01 2.395440e-01 1.935013e-01 1.558447e-01 1.441882e-02
<GCONST> 6.984094e+01
<STATE> 3
<MEAN> 39
 -1.949894e+01 2.401510e+00 -1.161778e+00 1.581110e+00 1.417780e+00 2.167922e+00 4.199595e+00 4.870131e+00 3.413463e+00 1.491046e+00 3.632826e-01 -1.071056e+00 5.943773e+01 -4.246259e-01 -2.234299e-01 -4.813046e-01 -6.362721e-01 -2.764162e-01 2.268362e-01 3.413562e-01 3.790486e-01 4.895583e-01 1.878517e-01 -2.311790e-01 1.759400e-01 -2.867512e-01 4.451063e-02 -4.822970e-02 1.977125e-02 5.867082e-02 1.604613e-02 -7.723020e-02 -1.421779e-02 1.041703e-02 -1.324426e-01 -3.755356e-02 9.819339e-02 -4.003065e-02 5.008747e-02
<VARIANCE> 39
 1.271338e+01 1.048220e+01 2.447377e+01 3.489869e+01 1.111716e+01 6.766205e+00 8.126478e+00 1.104050e+01 1.604899e+01 3.938177e+00 6.157635e+00 8.036941e+00 4.071630e+00 4.108978e-01 4.995846e-01 9.491457e-01 1.063057e+00 4.800953e-01 9.468358e-01 1.584346e+00 1.326997e+00 1.710343e+00 5.079926e-01 7.789885e-01 1.763011e+00 2.223393e-01 2.489897e-02 8.733585e-02 1.174997e-01 8.307880e-02 6.463405e-02 1.167206e-01 1.584910e-01 2.036406e-01 2.125927e-01 8.130822e-02 1.469128e-01 3.332621e-01 8.236772e-03
<GCONST> 6.768784e+01
<STATE> 4
<MEAN> 39
 -9.999366e+00 1.573080e+00 2.349752e+00 4.143166e+00 6.405407e+00 -4.003177e-01 -3.718824e+00 -6.285516e+00 -6.892149e+00 7.690510e-01 4.445660e+00 -2.179884e+00 6.937459e+01 1.439739e-01 -2.730799e-02 2.375245e-01 2.718986e-01 4.448942e-02 -3.339099e-03 -4.360503e-02 -5.324103e-02 -6.252551e-02 -1.251629e-01 6.457113e-02 -1.388457e-02 1.421372e-01 -5.461961e-02 9.863344e-03 -4.413455e-02 -9.067948e-02 -1.946952e-02 5.532669e-02 4.082791e-02 5.068193e-02 6.453364e-02 6.589787e-04 -1.526759e-02 -1.949139e-02 -3.811850e-02
<VARIANCE> 39
 7.141957e+01 2.682959e+01 3.603710e+01 8.599853e+01 2.288167e+01 1.834197e+01 3.311375e+01 5.594078e+01 5.122822e+01 2.423934e+01 2.261191e+01 1.502329e+01 3.032212e+01 7.289582e+00 2.401181e+00 2.981037e+00 7.913458e+00 3.545669e+00 2.059292e+00 3.716777e+00 8.803193e+00 6.648894e+00 2.174858e+00 3.202060e+00 1.541185e+00 2.633326e+00 1.148731e+00 3.915764e-01 5.048079e-01 1.471673e+00 7.475640e-01 3.300166e-01 5.530066e-01 1.702519e+00 1.168636e+00 4.355598e-01 6.963239e-01 2.669379e-01 3.772282e-01
<GCONST> 1.280487e+02
<TRANSP> 5
 0.000000e+00 1.000000e+00 0.000000e+00 0.000000e+00 0.000000e+00
 0.000000e+00 9.187813e-01 8.121862e-02 0.000000e+00 0.000000e+00
 0.000000e+00 0.000000e+00 8.928501e-01 1.071499e-01 0.000000e+00
 0.000000e+00 0.000000e+00 0.000000e+00 9.500003e-01 4.999963e-02
 0.000000e+00 0.000000e+00 0.000000e+00 0.000000e+00 0.000000e+00
<ENDHMM>
~h "g"
<BEGINHMM>
<NUMSTATES> 5
<STATE> 2
<MEAN> 39
 -1.172887e+01 7.380543e+00 2.935436e+00 4.486306e+00 2.316552e+00 -4.726544e-02 -1.317270e+00 -5.335327e-01 7.314184e-01 3.447162e+00 2.125733e+00 -2.731846e+00 6.389681e+01 4.175870e-01 -1.191416e+00 2.042615e-01 9.600461e-01 6.118233e-01 -3.098569e-01 -1.138259e+00 -1.793026e+00 -7.882826e-01 1.453624e-01 8.776801e-01 -3.273947e-01 1.001403e+00 3.154824e-01 -6.501495e-01 -2.952407e-01 2.441051e-01 2.953669e-01 -2.857665e-01 -3.045384e-01 -5.218006e-01 -7.823573e-01 -2.130631e-01 6.278911e-02 -1.853585e-01 5.054236e-01
<VARIANCE> 39
 3.857470e+01 2.735761e+01 2.203639e+01 1.794951e+01 9.618687e+00 1.071513e+01 3.385601e+01 3.761819e+01 2.438262e+01 2.629363e+01 3.580884e+00 1.298596e+01 1.325588e+01 1.339313e+00 4.076623e+00 1.239671e+00 6.906221e-01 4.250270e-01 9.846253e-01 2.084769e+00 8.794827e+00 4.190062e+00 5.792188e-01 1.084719e+00 8.679429e-01 2.257983e+00 1.688136e-01 3.558039e-01 2.560577e-01 2.944494e-01 1.796071e-01 6.164628e-01 8.752437e-01 7.129020e-01 3.462714e-01 4.195800e-01 1.044308e-01 2.566333e-01 1.450655e-01
<GCONST> 9.896310e+01
<STATE> 3
<MEAN> 39
 -1.226885e+01 1.270747e-01 9.503336e-01 3.849787e+00 4.948098e+00 1.350602e+00 -4.014803e+00 -7.261814e+00 -3.344621e+00 4.970247e-01 4.662724e+00 -2.026656e+00 6.734502e+01 1.952016e+00 -1.421085e+00 6.233074e-01 2.282415e+00 1.930044e+00 -1.054844e+00 -2.054108e+00 -2.312289e+00 -3.522306e+00 -8.029414e-01 1.296675e+00 -6.329074e-01 2.227413e+00 2.722069e-01 2.499842e-01 1.359592e-02 5.517386e-01 1.973601e-01 -6.151385e-01 5.363648e-02 5.859607e-01 -7.127908e-01 -8.479546e-02 6.954285e-02 -7.072289e-02 -3.397824e-02
<VARIANCE> 39
 2.228584e+01 3.215073e+01 2.399369e+01 4.231543e+01 1.530216e+01 3.003747e+01 3.233251e+01 8.713042e+01 4.503085e+01 2.213330e+01 1.309566e+01 8.695129e+00 2.248608e+01 1.869358e+00 4.481004e+00 2.681037e+00 4.999416e+00 1.953379e+00 3.568708e+00 3.403108e+00 5.242360e+00 5.511244e+00 1.317932e+00 7.770597e-01 1.082921e+00 1.943426e+00 1.183161e-01 3.565873e-01 4.529495e-01 6.650410e-01 2.082435e-01 6.947660e-01 7.558368e-01 1.315056e+00 3.500811e-01 2.027037e-01 2.721117e-01 1.019093e-01 3.014047e-01
<GCONST> 1.122849e+02
<STATE> 4
<MEAN> 39
 -3.009575e+00 -7.735131e-01 2.727987e+00 1.329866e+01 9.549189e+00 -7.860871e+00 -9.315854e+00 -9.818031e+00 -2.230214e+01 -3.639332e+00 1.150574e+01 -3.009706e+00 7.397664e+01 -2.310465e-01 2.946624e-01 6.768046e-02 -3.822576e-02 -3.898046e-02 1.509788e-01 2.464273e-01 3.198838e-01 2.903729e-01 -9.792069e-03 -1.566496e-01 4.019248e-02 -3.109636e-01 -3.110088e-01 1.641156e-01 -6.038696e-02 -3.867163e-01 -1.872383e-01 3.685840e-01 3.290918e-01 2.134058e-01 5.993127e-01 1.269995e-01 -2.204118e-01 1.193270e-01 -2.898868e-01
<VARIANCE> 39
 6.482959e+00 1.003223e+01 1.669322e+01 2.462239e+01 1.425312e+01 1.533719e+01 1.305659e+01 3.885581e+01 5.544911e+01 3.234720e+01 1.530206e+01 9.274723e+00 6.494316e+00 1.830850e+00 1.179513e+00 1.038966e+00 3.823777e+00 1.309428e+00 4.693002e+00 2.569325e+00 2.091385e+00 7.521478e+00 1.809131e+00 1.813046e+00 1.014129e+00 1.357707e+00 1.287453e-01 1.830069e-01 2.327733e-01 5.584546e-01 2.577177e-01 5.054912e-01 3.332886e-01 4.867324e-01 7.559951e-01 2.829054e-01 2.107010e-01 1.765869e-01 9.971715e-02
<GCONST> 1.001930e+02
<TRANSP> 5
 0.000000e+00 1.000000e+00 0.000000e+00 0.000000e+00 0.000000e+00
 0.000000e+00 7.866526e-02 9.213347e-01 0.000000e+00 0.000000e+00
 0.000000e+00 0.000000e+00 5.371593e-01 4.628408e-01 0.000000e+00
 0.000000e+00 0.000000e+00 0.000000e+00 9.082554e-01 9.174460e-02
 0.000000e+00 0.000000e+00 0.000000e+00 0.000000e+00 0.000000e+00
<ENDHMM>
~h "i"
<BEGINHMM>
<NUMSTATES> 5
<STATE> 2
<MEAN> 39
 -1.327109e+01 8.572916e+00 4.153303e+00 5.778955e+00 4.829375e+00 3.023028e+00 2.018033e+00 7.522962e-01 6.401588e-01 1.579585e+00 2.243520e+00 2.364795e-01 6.251838e+01 -1.887893e+00 -3.410510e-01 -4.174147e-01 -7.276735e-01 1.718973e-02 1.288916e+00 1.404663e+00 1.677898e+00 2.414068e+00 8.831051e-01 -2.070264e-01 7.033018e-01 -1.334257e+00 1.350155e-01 -5.792360e-01 -4.058484e-01 -1.695985e-01 -2.102621e-01 -4.095286e-01 -2.252586e-01 -1.303768e-01 -4.091994e-01 3.944051e-02 3.840617e-01 -5.363983e-02 2.849800e-01
<VARIANCE> 39
 1.358661e+01 1.518983e+01 1.470474e+01 1.571497e+01 1.287859e+01 1.297942e+01 1.521714e+01 1.850166e+01 2.230144e+01 1.515733e+01 1.248362e+01 1.339475e+01 4.108818e+00 1.829422e+00 1.147272e+00 1.906734e+00 2.037534e+00 1.458870e+00 1.833659e+00 2.107230e+00 1.418568e+00 2.782610e+00 1.504373e+00 1.646986e+00 9.970558e-01 1.099712e+00 1.986406e-01 2.003675e-01 1.842904e-01 1.753190e-01 1.572201e-01 3.183004e-01 3.184744e-01 2.639331e-01 4.195099e-01 2.535891e-01 2.636354e-01 1.871479e-01 1.163146e-01
<GCONST> 9.223619e+01
<STATE> 3
<MEAN> 39
 -1.694027e+01 5.275240e+00 1.144184e+00 3.173783e+00 3.891489e+00 3.988086e+00 4.188986e+00 3.946194e+00 4.113759e+00 3.634110e+00 3.238649e+00 1.141967e+00 6.066759e+01 -1.074364e+00 -1.050801e+00 -1.029948e+00 -1.068821e+00 -9.086876e-01 -3.786543e-01 1.093829e-01 4.037806e-01 5.595621e-01 2.352092e-01 4.780054e-03 3.935776e-02 -5.392060e-01 2.711562e-01 1.967085e-03 3.014291e-02 -4.895347e-02 -2.336830e-01 -3.857303e-01 -3.757312e-01 -4.340805e-01 -5.881644e-01 -3.423818e-01 -1.292510e-01 -2.415126e-01 2.296925e-01
<VARIANCE> 39
 1.193125e+01 1.530138e+01 1.370121e+01 1.111420e+01 1.131745e+01 1.519161e+01 1.757287e+01 2.015755e+01 2.005818e+01 1.430094e+01 1.164654e+01 9.726298e+00 3.151577e+00 6.489792e-01 7.609150e-01 1.226484e+00 9.575093e-01 1.079113e+00 1.343081e+00 1.634881e+00 1.435855e+00 1.554390e+00 1.332306e+00 1.139162e+00 1.051826e+00 2.753390e-01 1.639404e-01 1.612716e-01 2.028763e-01 1.735836e-01 1.919926e-01 2.894007e-01 3.637296e-01 2.847369e-01 3.597556e-01 2.341636e-01 2.408615e-01 1.884615e-01 1.025357e-01
<GCONST> 8.478146e+01
<STATE> 4
<MEAN> 39
 -2.029044e+01 1.442832e+00 -3.126535e+00 -1.388226e+00 -1.201734e-01 1.324280e+00 3.276181e+00 4.050240e+00 4.280562e+00 2.264427e+00 1.132838e+00 -2.089245e-01 5.920712e+01 -1.291405e-01 -1.561616e-01 -1.203206e-01 -1.745321e-01 -1.826240e-01 -9.710246e-02 -5.890354e-02 -2.011517e-02 -1.948675e-02 -7.381429e-02 -6.709686e-02 -7.273789e-02 -3.906719e-02 9.510079e-02 5.541325e-02 9.904218e-02 8.811603e-02 8.708437e-02 2.099118e-02 -2.878700e-02 -5.251295e-02 -9.533542e-02 -4.083000e-02 2.041292e-02 -1.529797e-02 7.079305e-02
<VARIANCE> 39
 4.511166e+00 7.661685e+00 8.052980e+00 7.022025e+00 6.793478e+00 6.653877e+00 8.161475e+00 1.105766e+01 1.027471e+01 7.988276e+00 7.711812e+00 6.870894e+00 1.954093e+00 2.377801e-01 3.289849e-01 5.532761e-01 7.222522e-01 8.705727e-01 8.148013e-01 9.559444e-01 1.076173e+00 1.010534e+00 8.896098e-01 7.188326e-01 7.321981e-01 1.278993e-01 6.089958e-02 7.735321e-02 1.189464e-01 1.578383e-01 1.740314e-01 1.640525e-01 2.031318e-01 2.153599e-01 2.568766e-01 2.164555e-01 1.534613e-01 1.518317e-01 4.128467e-02
<GCONST> 6.417641e+01
<TRANSP> 5
 0.000000e+00 1.000000e+00 0.000000e+00 0.000000e+00 0.000000e+00
 0.000000e+00 5.868933e-01 4.131067e-01 0.000000e+00 0.000000e+00
 0.000000e+00 0.000000e+00 3.997421e-01 6.002579e-01 0.000000e+00
 0.000000e+00 0.000000e+00 0.000000e+00 8.568034e-01 1.431966e-01
 0.000000e+00 0.000000e+00 0.000000e+00 0.000000e+00 0.000000e+00
<ENDHMM>
~h "j"
<BEGINHMM>
<NUMSTATES> 5
<STATE> 2
<MEAN> 39
 -1.214927e+00 -1.343782e+00 -4.446914e+00 1.790444e+00 7.664299e-01 -4.580542e+00 -1.877281e+00 -4.878843e+00 -1.400413e+01 1.873219e+00 1.261049e+01 1.478626e+00 7.467025e+01 -4.066243e-01 4.343023e-01 1.855588e-01 3.015145e-01 3.340234e-01 5.106345e-01 2.799180e-01 4.694470e-02 7.786421e-01 2.223776e-01 -1.985040e-01 1.544467e-02 -4.467010e-01 -1.364526e-01 2.596506e-01 3.011215e-01 2.400604e-01 4.658469e-02 6.603492e-03 -3.237139e-02 6.530514e-02 3.555878e-02 -2.321972e-01 -2.906385e-01 -1.749142e-01 -1.731118e-01
<VARIANCE> 39
 3.688084e+00 1.732998e+01 1.186394e+01 1.123769e+01 2.771683e+01 2.022139e+01 1.773258e+01 1.888031e+01 9.216829e+00 1.369905e+01 1.406714e+01 1.892284e+00 4.257542e+00 2.866655e-02 2.362612e-01 1.148342e-01 2.635030e-01 4.436014e-01 4.957313e-01 6.569713e-01 5.239626e-01 1.232439e+00 2.590975e-01 4.242871e-01 3.056337e-01 4.726005e-02 1.401772e-02 5.753178e-02 6.296203e-02 1.010172e-01 7.277848e-02 1.426290e-01 6.867673e-02 2.343006e-01 2.207375e-01 1.143416e-01 1.785286e-01 7.487675e-02 2.157304e-02
<GCONST> 5.241991e+01
<STATE> 3
<MEAN> 39
 -2.202851e+00 -4.829786e-01 -3.468414e+00 2.635304e+00 3.439712e-01 -3.503550e+00 -6.397453e-01 -4.547598e+00 -1.197466e+01 2.650359e+00 1.152837e+01 8.184112e-01 7.384023e+01 -6.673160e-01 1.247161e+00 9.939516e-01 9.058580e-01 3.873857e-01 5.760551e-01 -3.289638e-02 -2.130728e-01 8.733429e-01 -2.160767e-01 -9.330143e-01 -4.651245e-01 -9.746516e-01 -1.556532e-01 4.838001e-01 4.216576e-01 3.164712e-01 1.845555e-01 -1.569523e-01 -4.654842e-01 5.751567e-02 5.592915e-01 -1.380432e-01 -6.646272e-01 -2.402417e-01 -3.115872e-01
<VARIANCE> 39
 2.893417e+00 1.406367e+01 9.527248e+00 7.854543e+00 2.381351e+01 1.847397e+01 1.962108e+01 1.669817e+01 1.047585e+01 1.271279e+01 8.468770e+00 3.390426e+00 4.024346e+00 8.413989e-02 8.657296e-01 4.274935e-01 3.712458e-01 3.262788e-01 5.406536e-01 6.079836e-01 5.394013e-01 1.162861e+00 6.166525e-01 2.408707e+00 3.351242e-01 2.768134e-01 2.823112e-02 4.865574e-02 3.908153e-02 9.236088e-02 9.938627e-02 1.676432e-01 2.717411e-01 1.522263e-01 4.113759e-01 9.235492e-02 1.908235e-01 6.347479e-02 1.486053e-02
<GCONST> 6.068988e+01
<STATE> 4
<MEAN> 39
 -6.803364e+00 8.268216e+00 3.980165e+00 9.362101e+00 5.257270e+00 -3.811349e+00 -7.190659e+00 -3.911396e+00 -3.441556e-01 2.692392e+00 1.188186e+00 -2.999744e+00 6.715598e+01 -7.298594e-01 9.779990e-01 9.458118e-01 7.398430e-01 5.723089e-01 -4.975586e-02 -4.991454e-01 4.422285e-01 1.596655e+00 1.219657e-01 -1.141186e+00 -2.968599e-01 -8.547001e-01 2.088376e-03 -2.186978e-01 -1.483400e-01 -1.871357e-01 -9.156318e-02 1.246665e-01 3.500283e-01 1.194183e-01 -2.165782e-01 2.825431e-02 3.032530e-01 1.865029e-01 9.953372e-02
<VARIANCE> 39
 4.417309e+00 9.061682e+00 7.760253e+00 9.292260e+00 1.919557e+01 6.743985e+00 1.878997e+01 6.661106e+00 3.221422e+01 1.036441e+01 2.039965e+01 5.362058e+00 4.311353e+00 2.426403e-01 1.210555e+00 9.154745e-01 9.878862e-01 9.502628e-01 8.837276e-01 3.028996e+00 5.192108e-01 3.859287e+00 5.067326e-01 3.050529e+00 8.327488e-01 4.037708e-01 3.529947e-02 1.253436e-01 1.163686e-01 9.098043e-02 1.233023e-01 1.641559e-01 3.558748e-01 9.165398e-02 5.754890e-01 9.414983e-02 3.856654e-01 8.645782e-02 5.468021e-02
<GCONST> 7.443931e+01
<TRANSP> 5
 0.000000e+00 1.000000e+00 0.000000e+00 0.000000e+00 0.000000e+00
 0.000000e+00 1.678114e-01 8.321886e-01 0.000000e+00 0.000000e+00
 0.000000e+00 0.000000e+00 6.589993e-01 3.410007e-01 0.000000e+00
 0.000000e+00 0.000000e+00 0.000000e+00 8.733495e-01 1.266504e-01
 0.000000e+00 0.000000e+00 0.000000e+00 0.000000e+00 0.000000e+00
<ENDHMM>
~h "k"
<BEGINHMM>
<NUMSTATES> 5
<STATE> 2
<MEAN> 39
 -1.280210e+01 1.011365e+00 -2.487708e+00 -3.441569e+00 -9.219434e-01 -1.564617e-01 1.533485e+00 -2.649068e-01 -3.583797e+00 1.887451e+00 5.366975e+00 -1.949845e-01 6.611669e+01 9.669396e-01 -4.879446e-02 -1.198875e-02 -1.754460e-01 -3.411814e-01 -3.384207e-01 -2.095795e-01 -2.802365e-01 -7.191259e-01 -9.027303e-02 3.769347e-01 -1.368415e-02 7.696531e-01 7.466255e-02 -1.237628e-02 -4.891342e-02 5.533958e-02 -5.758760e-02 -3.833131e-02 3.248532e-02 2.790945e-02 1.209713e-02 4.870662e-02 3.339316e-02 -2.015556e-02 2.727946e-02
<VARIANCE> 39
 8.511166e+01 2.082912e+01 1.606174e+01 3.150640e+01 2.197822e+01 1.691529e+01 1.865443e+01 3.229821e+01 8.713613e+01 2.486343e+01 3.004088e+01 1.391859e+01 5.583828e+01 6.008658e+00 2.041384e+00 1.767889e+00 4.166088e+00 1.931941e+00 1.771383e+00 1.818030e+00 3.213553e+00 6.978365e+00 1.975193e+00 2.645055e+00 1.763807e+00 4.016957e+00 6.883302e-01 4.112732e-01 3.605793e-01 7.981199e-01 3.234393e-01 2.952964e-01 3.430375e-01 5.784721e-01 1.058370e+00 3.673827e-01 4.404516e-01 3.688283e-01 4.934000e-01
<GCONST> 1.185541e+02
<STATE> 3
<MEAN> 39
 -3.109006e+00 1.264166e+00 -3.596744e+00 -2.058318e+00 -4.201207e+00 -4.058361e+00 -7.725261e-01 -3.479368e+00 -8.488268e+00 2.274001e+00 8.965655e+00 -3.378667e-01 7.271847e+01 -2.311000e-02 5.125995e-02 -2.250408e-01 -8.194679e-02 -3.922898e-01 -5.326106e-02 5.197670e-01 -3.349534e-02 5.387231e-01 4.209820e-01 -3.033281e-01 1.204894e-01 -1.098147e-01 -3.508132e-01 2.111396e-01 2.894651e-01 3.895593e-02 2.510329e-01 8.738546e-02 9.037176e-02 -1.317775e-02 -6.952062e-04 -4.705974e-02 -1.181911e-01 6.083430e-02 -2.477193e-01
<VARIANCE> 39
 4.892837e+01 1.982544e+01 1.801476e+01 2.500720e+01 2.881779e+01 2.512488e+01 2.452197e+01 2.477579e+01 5.577695e+01 2.171066e+01 2.488875e+01 1.276773e+01 3.630566e+01 2.799135e-01 7.626292e-01 6.794361e-01 7.259722e-01 8.666384e-01 9.988478e-01 9.182369e-01 1.223112e+00 1.548416e+00 1.075437e+00 9.234952e-01 7.177840e-01 2.309813e-01 2.596432e-01 1.810599e-01 1.451427e-01 2.627476e-01 1.645548e-01 2.253254e-01 2.054538e-01 3.283532e-01 4.236861e-01 1.712760e-01 2.565287e-01 1.510035e-01 1.252137e-01
<GCONST> 9.019900e+01
<STATE> 4
<MEAN> 39
 -4.253660e+00 3.146160e+00 -2.278234e+00 -4.783255e-01 -2.865972e+00 -2.806476e+00 9.544507e-01 -3.867479e+00 -7.509232e+00 3.938256e+00 8.612488e+00 -4.995744e-01 7.091203e+01 -5.516036e-01 5.764759e-01 4.177520e-01 4.605721e-01 5.959558e-01 3.364600e-01 9.162433e-02 2.192578e-01 7.353470e-01 2.905935e-01 -3.427011e-01 -5.396476e-02 -6.358729e-01 -1.008977e-01 9.512897e-02 1.177510e-01 1.124467e-01 1.672466e-01 6.850167e-02 -1.199954e-01 1.031920e-01 1.849758e-01 -6.102305e-02 -9.242706e-02 -3.718079e-02 -9.989857e-02
<VARIANCE> 39
 4.025868e+01 1.576722e+01 1.492805e+01 2.194442e+01 2.291008e+01 2.829286e+01 2.122710e+01 2.462133e+01 4.539607e+01 1.432132e+01 2.405586e+01 8.240895e+00 2.841838e+01 2.450355e-01 6.655361e-01 6.141458e-01 1.038195e+00 9.945118e-01 1.105620e+00 1.615623e+00 1.333721e+00 1.802730e+00 7.627984e-01 9.875306e-01 5.987841e-01 2.744035e-01 2.611732e-02 1.087172e-01 1.033776e-01 1.571798e-01 1.169514e-01 1.826237e-01 2.707622e-01 1.861036e-01 2.380891e-01 1.228403e-01 1.823695e-01 8.256361e-02 2.864249e-02
<GCONST> 8.076908e+01
<TRANSP> 5
 0.000000e+00 1.000000e+00 0.000000e+00 0.000000e+00 0.000000e+00
 0.000000e+00 8.797910e-01 1.202090e-01 0.000000e+00 0.000000e+00
 0.000000e+00 0.000000e+00 4.482366e-01 5.517634e-01 0.000000e+00
 0.000000e+00 0.000000e+00 0.000000e+00 8.009140e-01 1.990860e-01
 0.000000e+00 0.000000e+00 0.000000e+00 0.000000e+00 0.000000e+00
<ENDHMM>
~h "l"
<BEGINHMM>
<NUMSTATES> 5
<STATE> 2
<MEAN> 39
 -5.393893e+00 3.329524e+00 5.514947e+00 1.150851e+01 5.186195e+00 -8.299547e+00 -6.924643e+00 -3.419079e+00 -1.059672e+01 2.112312e-01 5.904753e+00 -5.625738e+00 7.132603e+01 -1.339298e-02 7.901035e-01 3.950444e-01 -3.676055e-02 1.250263e-01 2.966263e-01 -7.211758e-01 -3.749479e-01 7.365769e-01 -1.662444e-01 -7.825712e-01 -4.199832e-01 -3.440027e-01 -6.740373e-02 1.760417e-01 -6.982289e-02 -3.273059e-01 -1.379409e-01 3.100714e-01 2.116915e-01 -1.909850e-02 1.703511e-01 -7.066763e-02 -1.113037e-01 1.463890e-01 -1.434375e-01
<VARIANCE> 39
 1.540163e+01 2.253489e+01 2.677460e+01 7.759608e+01 4.149389e+01 3.191136e+01 5.517296e+01 2.789432e+01 6.831609e+01 3.289967e+01 3.365091e+01 2.710086e+01 1.486286e+01 7.401949e-01 1.837316e+00 1.509257e+00 2.771597e+00 1.148269e+00 2.276849e+00 1.966685e+00 1.221399e+00 3.491355e+00 1.561390e+00 1.712653e+00 1.137135e+00 1.019406e+00 1.030668e-01 2.853180e-01 1.673111e-01 2.861577e-01 2.313232e-01 3.565012e-01 4.209321e-01 2.251905e-01 5.784833e-01 3.406433e-01 2.752689e-01 2.022348e-01 1.284049e-01
<GCONST> 1.049005e+02
<STATE> 3
<MEAN> 39
 -5.550192e+00 7.890193e+00 4.438519e+00 4.973088e+00 1.728466e+00 -2.522926e+00 -3.797764e+00 -6.617240e+00 -8.962459e+00 -6.668374e-01 3.489846e+00 -3.603418e+00 6.916928e+01 -3.300900e-01 -2.811937e-01 -3.398605e-01 -5.759749e-01 3.327311e-02 4.528103e-01 3.536524e-01 3.299189e-02 -4.639663e-01 -2.569044e-01 4.967780e-01 7.178237e-01 -1.114943e-01 -3.717858e-02 -3.624595e-01 -2.415092e-01 3.928187e-02 5.583786e-02 -1.651776e-01 4.973479e-02 5.071691e-02 -1.058656e-01 1.588652e-01 3.439883e-01 2.415024e-01 8.681343e-02
<VARIANCE> 39
 1.751497e+01 2.079126e+01 1.457765e+01 1.582094e+01 2.416673e+01 1.910882e+01 3.860412e+01 2.938159e+01 6.145277e+01 2.206505e+01 1.998364e+01 1.812594e+01 1.561741e+01 2.499734e+00 2.256086e+00 1.816333e+00 1.341089e+00 1.701674e+00 1.528939e+00 2.035527e+00 2.200614e+00 5.037331e+00 1.990640e+00 2.668371e+00 2.208505e+00 2.139903e+00 1.978078e-01 2.591280e-01 2.196501e-01 3.421606e-01 1.857030e-01 2.595419e-01 4.442913e-01 3.598394e-01 5.621826e-01 3.413099e-01 2.854449e-01 3.546775e-01 1.738755e-01
<GCONST> 1.058376e+02
<STATE> 4
<MEAN> 39
 -3.473090e+00 5.049449e-01 -6.593501e-01 5.090178e+00 3.749969e+00 -4.349087e+00 -4.105382e+00 -8.310204e+00 -1.525367e+01 3.064165e+00 1.315368e+01 1.206842e-01 7.301268e+01 -1.198169e-01 -1.338374e-01 -3.429455e-01 -1.117867e-01 -3.637696e-02 2.975662e-01 3.598897e-01 6.283189e-02 3.454480e-01 3.671233e-01 2.002159e-01 4.160430e-02 -1.780694e-01 -1.065532e-01 2.460181e-01 1.385567e-01 1.530907e-02 1.709184e-02 1.274817e-01 4.422039e-02 1.127314e-01 2.981872e-01 -2.322212e-02 -2.876002e-01 -1.269064e-01 -1.653619e-01
<VARIANCE> 39
 1.633850e+01 1.727535e+01 6.908454e+00 2.187312e+01 1.925084e+01 1.813011e+01 3.712887e+01 2.840267e+01 4.748578e+01 3.572301e+01 2.859742e+01 1.884149e+01 1.577052e+01 4.814929e-01 1.476227e+00 7.828636e-01 1.882303e+00 9.122424e-01 1.492791e+00 1.840006e+00 1.034316e+00 1.383290e+00 1.331113e+00 1.756567e+00 1.110669e+00 4.813991e-01 8.445569e-02 1.115674e-01 1.912340e-01 3.044182e-01 1.942279e-01 1.892101e-01 3.323342e-01 2.188931e-01 3.693959e-01 2.167207e-01 2.200222e-01 2.531270e-01 6.687552e-02
<GCONST> 9.163363e+01
<TRANSP> 5
 0.000000e+00 1.000000e+00 0.000000e+00 0.000000e+00 0.000000e+00
 0.000000e+00 6.457409e-01 3.542590e-01 0.000000e+00 0.000000e+00
 0.000000e+00 0.000000e+00 7.307248e-01 2.692753e-01 0.000000e+00
 0.000000e+00 0.000000e+00 0.000000e+00 7.713062e-01 2.286938e-01
 0.000000e+00 0.000000e+00 0.000000e+00 0.000000e+00 0.000000e+00
<ENDHMM>
~h "m"
<BEGINHMM>
<NUMSTATES> 5
<STATE> 2
<MEAN> 39
 -2.069370e+01 1.593459e+00 -3.032313e+00 -1.071278e+00 -4.203403e-01 1.450507e+00 3.590723e+00 4.106017e+00 4.194571e+00 2.233337e+00 1.364037e+00 1.058777e-01 5.873977e+01 -6.557678e-02 -5.018657e-02 -5.287423e-02 -8.187613e-02 -6.668831e-02 -6.250985e-02 -2.592779e-02 -1.665153e-02 -5.594829e-02 -5.578241e-02 -3.530790e-02 -4.343664e-02 -3.049603e-02 4.110253e-02 4.223987e-02 6.275719e-02 5.596415e-02 5.491146e-02 4.343763e-02 1.212937e-02 -5.747736e-03 -7.235207e-03 1.280706e-02 2.329689e-02 1.799977e-02 2.387275e-02
<VARIANCE> 39
 1.385876e+00 1.420931e+00 3.117463e+00 5.172735e+00 4.809400e+00 5.785554e+00 7.734550e+00 9.869579e+00 9.497097e+00 7.716779e+00 6.265282e+00 6.460940e+00 1.447546e+00 1.337844e-01 1.854862e-01 2.934682e-01 5.369830e-01 5.289399e-01 6.375617e-01 8.075299e-01 9.110585e-01 9.469771e-01 9.087306e-01 6.732774e-01 6.370990e-01 3.547056e-02 3.068626e-02 4.602388e-02 6.936553e-02 1.177316e-01 1.120412e-01 1.322641e-01 1.722174e-01 1.912695e-01 2.054776e-01 2.077567e-01 1.452744e-01 1.339844e-01 9.204844e-03
<GCONST> 4.911161e+01
<STATE> 3
<MEAN> 39
 -2.063199e+01 1.788488e+00 -2.650796e+00 -8.703812e-01 -5.365291e-02 1.743031e+00 3.558899e+00 3.749126e+00 4.029897e+00 2.006859e+00 9.248771e-01 -3.273653e-01 5.876567e+01 3.727727e-01 4.164672e-01 1.242076e+00 6.849260e-01 4.499951e-01 1.472649e-01 -4.137643e-01 -4.742683e-01 -5.036165e-01 -8.831793e-02 2.810944e-01 -8.052288e-02 3.658939e-01 4.009994e-01 2.987835e-01 7.016796e-01 3.359712e-01 1.429442e-01 -8.553082e-02 -2.379403e-01 -2.987783e-01 -4.367467e-01 -1.742685e-01 5.718690e-02 -1.871226e-01 3.547395e-01
<VARIANCE> 39
 7.169198e-01 1.136815e+00 2.522298e+00 3.212521e+00 4.860312e+00 4.734351e+00 1.031007e+01 1.143231e+01 7.694557e+00 6.136770e+00 6.319056e+00 5.100538e+00 1.447546e+00 1.213391e+00 1.687788e+00 1.767617e+00 1.673048e+00 7.790315e-01 1.308058e+00 1.192052e+00 1.296769e+00 1.267625e+00 1.028608e+00 8.261037e-01 1.008716e+00 2.730444e-01 2.610612e-01 3.572557e-01 2.106695e-01 5.334783e-01 1.425608e-01 2.793547e-01 2.732009e-01 3.085244e-01 4.660640e-01 2.409521e-01 1.794201e-01 1.809544e-01 4.438244e-02
<GCONST> 7.122447e+01
<STATE> 4
<MEAN> 39
 -1.974449e+01 2.310848e+00 5.597504e+00 -1.156471e+00 1.233734e+00 3.163250e+00 1.160246e+00 7.056212e-01 8.283648e-01 1.154935e+00 2.738104e+00 -1.140517e+00 6.213834e+01 1.567797e+00 1.397634e+00 1.212672e+00 1.291370e+00 5.449082e-01 -4.553540e-01 -7.399075e-01 -1.170256e+00 -1.368689e+00 -5.082350e-01 2.738639e-01 1.386877e-01 7.660583e-01 2.460643e-01 4.252961e-02 -2.359478e-01 1.178969e-01 -5.578850e-02 -1.861034e-01 -5.741324e-03 -1.177260e-01 -2.098232e-01 -6.362809e-02 5.308177e-02 3.543320e-02 7.539536e-02
<VARIANCE> 39
 4.125018e+01 5.914742e+01 4.348828e+01 6.164922e+01 1.617340e+01 1.513976e+01 1.748899e+01 2.435781e+01 2.277501e+01 9.146857e+00 1.604607e+01 9.627578e+00 8.987126e+00 4.421520e+00 5.997740e+00 6.405206e+00 6.338287e+00 1.146155e+00 1.988128e+00 1.926107e+00 2.351396e+00 3.584743e+00 1.286972e+00 1.800008e+00 9.989806e-01 1.035095e+00 5.146044e-01 7.102128e-01 9.018950e-01 9.366476e-01 2.406579e-01 2.857684e-01 3.872558e-01 3.857615e-01 4.699417e-01 2.113736e-01 2.860581e-01 2.506117e-01 1.506765e-01
<GCONST> 1.103762e+02
<TRANSP> 5
 0.000000e+00 1.000000e+00 0.000000e+00 0.000000e+00 0.000000e+00
 0.000000e+00 9.373578e-01 6.264217e-02 0.000000e+00 0.000000e+00
 0.000000e+00 0.000000e+00 4.082225e-01 5.917776e-01 0.000000e+00
 0.000000e+00 0.000000e+00 0.000000e+00 6.121285e-01 3.878715e-01
 0.000000e+00 0.000000e+00 0.000000e+00 0.000000e+00 0.000000e+00
<ENDHMM>
~h "n"
<BEGINHMM>
<NUMSTATES> 5
<STATE> 2
<MEAN> 39
 -9.033711e+00 4.070403e+00 6.259770e+00 8.018595e+00 7.282285e+00 -1.711623e+00 -6.314558e+00 -4.014435e+00 -7.883329e+00 -2.800539e+00 5.428792e+00 -1.962010e+00 6.874452e+01 8.537138e-01 8.822680e-03 2.866851e-01 8.061922e-01 9.663123e-01 -4.796480e-01 -1.376750e+00 -6.586471e-01 -9.454496e-01 -5.202672e-01 5.411907e-01 -1.130407e-01 6.849003e-01 -7.867340e-02 1.904783e-01 -9.702834e-02 -1.336811e-01 -1.270177e-01 3.278441e-02 1.520480e-01 9.270225e-02 1.369660e-01 6.470475e-02 -2.096980e-02 7.306825e-02 -1.804960e-01
<VARIANCE> 39
 4.737246e+01 5.354506e+01 3.204315e+01 5.977367e+01 6.620630e+01 2.861788e+01 7.155022e+01 2.938947e+01 5.236310e+01 4.022664e+01 2.465244e+01 1.937821e+01 2.146946e+01 2.325283e+00 6.477566e+00 3.100182e+00 3.851580e+00 3.404646e+00 3.524976e+00 4.886840e+00 3.761597e+00 5.865966e+00 2.863505e+00 2.485457e+00 1.957019e+00 1.878813e+00 3.367916e-01 1.002063e+00 5.633541e-01 7.170604e-01 6.951883e-01 6.784862e-01 1.013320e+00 6.754145e-01 8.069133e-01 5.347417e-01 4.624223e-01 3.198990e-01 2.602974e-01
<GCONST> 1.275611e+02
<STATE> 3
<MEAN> 39
 -4.880903e+00 8.594360e+00 5.780458e+00 5.657827e+00 5.872641e+00 -3.570489e+00 -1.046026e+01 -4.313189e+00 -7.535434e+00 -3.332503e+00 5.860572e+00 -3.258102e+00 6.978041e+01 1.367344e-01 -1.095522e-01 -3.416660e-01 -5.279884e-01 -5.165523e-01 -1.063951e-01 3.168125e-01 3.074396e-01 1.287179e-01 5.952505e-02 3.602305e-02 7.066183e-02 1.330745e-01 1.042441e-02 -2.062034e-01 -1.151182e-01 5.216777e-02 4.100421e-02 -3.192122e-02 7.417310e-02 4.682102e-02 -1.211215e-01 1.185347e-02 1.431448e-01 4.188739e-02 7.610253e-02
<VARIANCE> 39
 9.587951e+00 2.652160e+01 2.714284e+01 3.326853e+01 3.183481e+01 2.421426e+01 3.306396e+01 2.409703e+01 3.532576e+01 2.347446e+01 3.107570e+01 1.893061e+01 1.254148e+01 5.097414e-01 2.719532e+00 1.934718e+00 2.477192e+00 1.913141e+00 2.062814e+00 2.592794e+00 1.861660e+00 4.798714e+00 1.780936e+00 4.688639e+00 1.629548e+00 1.006501e+00 6.919731e-02 3.254851e-01 2.391922e-01 4.364347e-01 3.793193e-01 3.712444e-01 4.628348e-01 3.644283e-01 8.489535e-01 3.234675e-01 7.081632e-01 2.883893e-01 1.124959e-01
<GCONST> 1.071437e+02
<STATE> 4
<MEAN> 39
 -4.060336e+00 3.756235e+00 8.304285e-01 4.049197e+00 3.218130e+00 -3.347380e+00 -4.619701e+00 -4.623162e+00 -8.665115e+00 1.641205e+00 8.337469e+00 -8.860577e-01 7.152439e+01 -2.862990e-01 1.197292e-01 -1.100567e-02 1.392529e-01 1.286931e-01 3.494055e-01 4.668357e-01 -2.577122e-02 2.999784e-01 2.957234e-01 -8.728228e-02 1.787802e-01 -2.946518e-01 -9.081654e-02 4.269140e-02 8.636910e-02 1.273517e-02 3.783795e-02 5.797905e-02 2.384587e-02 3.984495e-02 8.324019e-02 -1.436339e-02 -9.740866e-02 -3.612559e-02 -6.008331e-02
<VARIANCE> 39
 1.268553e+01 2.430704e+01 2.178922e+01 2.264397e+01 1.940855e+01 1.947710e+01 2.621290e+01 2.785223e+01 4.691681e+01 2.200316e+01 4.166808e+01 2.378487e+01 1.755888e+01 4.488765e-01 1.434365e+00 1.102659e+00 9.111950e-01 6.317953e-01 1.010689e+00 1.415702e+00 1.570960e+00 2.227418e+00 9.194275e-01 1.967216e+00 9.382709e-01 6.332891e-01 3.377615e-02 2.482854e-01 1.605994e-01 1.472064e-01 1.092109e-01 1.755595e-01 2.224293e-01 2.308740e-01 3.619950e-01 1.741064e-01 3.280010e-01 1.725312e-01 6.640036e-02
<GCONST> 8.983250e+01
<TRANSP> 5
 0.000000e+00 1.000000e+00 0.000000e+00 0.000000e+00 0.000000e+00
 0.000000e+00 7.656531e-01 2.343469e-01 0.000000e+00 0.000000e+00
 0.000000e+00 0.000000e+00 8.280359e-01 1.719642e-01 0.000000e+00
 0.000000e+00 0.000000e+00 0.000000e+00 8.392217e-01 1.607783e-01
 0.000000e+00 0.000000e+00 0.000000e+00 0.000000e+00 0.000000e+00
<ENDHMM>
~h "o"
<BEGINHMM>
<NUMSTATES> 5
<STATE> 2
<MEAN> 39
 -4.635201e+00 8.686873e+00 2.353987e+00 2.199493e+00 -1.159801e+00 -5.423973e+00 -2.311996e+00 -2.462214e+00 -8.375669e+00 -1.402531e+00 4.773274e+00 -2.562412e+00 6.908190e+01 -1.350887e+00 1.324158e-01 5.363703e-01 7.908082e-01 8.675988e-01 9.950676e-01 4.233565e-01 6.726420e-01 1.588087e+00 7.416774e-01 -5.797458e-01 -1.502509e-01 -1.096933e+00 -1.561573e-01 -3.986423e-01 -2.679576e-01 4.013288e-02 2.052272e-01 2.861282e-01 1.908764e-01 4.311014e-03 1.510136e-01 1.642913e-01 4.868049e-02 2.144477e-02 -6.230220e-03
<VARIANCE> 39
 1.424742e+01 1.011134e+01 1.598459e+01 1.382726e+01 2.493065e+01 2.235396e+01 2.001378e+01 1.346653e+01 4.356779e+01 3.669656e+01 1.897061e+01 1.151059e+01 1.221706e+01 2.851086e+00 8.250554e-01 1.156702e+00 2.048763e+00 3.429256e+00 2.625004e+00 1.210202e+00 2.177273e+00 4.045191e+00 1.031953e+00 1.497550e+00 1.615677e+00 1.324928e+00 1.295734e-01 2.816720e-01 2.933751e-01 2.647515e-01 3.994084e-01 3.844674e-01 2.527989e-01 2.476993e-01 3.510934e-01 2.497009e-01 2.579731e-01 2.107273e-01 1.166520e-01
<GCONST> 9.870486e+01
<STATE> 3
<MEAN> 39
 -1.055462e+01 7.496089e+00 4.155016e+00 7.686714e+00 5.028536e+00 1.200832e+00 -2.349087e-01 -1.195095e+00 -5.467379e-02 3.195832e+00 1.449865e+00 -4.372068e+00 6.482224e+01 -1.569803e+00 -5.434675e-01 -3.181887e-01 -1.297297e-01 5.581362e-01 1.280015e+00 1.304999e+00 1.264719e+00 1.475846e+00 2.971092e-01 -3.091348e-01 7.331063e-01 -1.016379e+00 6.795179e-02 -2.520574e-01 -3.004901e-01 -3.274886e-01 -3.323393e-01 -2.803961e-01 1.064724e-02 3.062073e-03 -2.902427e-01 1.116760e-03 3.119166e-01 1.155792e-01 1.273200e-01
<VARIANCE> 39
 1.528026e+01 8.035947e+00 9.415833e+00 1.816393e+01 1.768035e+01 1.345318e+01 2.078479e+01 2.192381e+01 3.674556e+01 2.364177e+01 8.615230e+00 2.386469e+01 1.052865e+01 1.491400e+00 1.171196e+00 8.655393e-01 1.155613e+00 1.167745e+00 1.210118e+00 1.165292e+00 1.265218e+00 2.202599e+00 1.001626e+00 9.637182e-01 1.395236e+00 5.671167e-01 1.693691e-01 2.537988e-01 1.899401e-01 1.541480e-01 3.280428e-01 3.059387e-01 3.293318e-01 2.593975e-01 3.761775e-01 2.000125e-01 1.682901e-01 2.501625e-01 1.285602e-01
<GCONST> 9.023922e+01
<STATE> 4
<MEAN> 39
 -1.811496e+01 3.705172e+00 -9.477068e-01 1.074562e+00 1.508207e+00 2.677673e+00 4.482391e+00 5.165760e+00 4.892416e+00 3.687338e+00 3.059314e+00 9.362261e-01 6.010061e+01 -9.373144e-01 -1.057051e+00 -7.124716e-01 -7.418493e-01 -3.051465e-01 -2.380939e-01 -8.985993e-02 1.889331e-01 6.890120e-02 -3.306781e-02 3.069676e-02 1.441959e-02 -2.726693e-01 5.585916e-01 1.786855e-01 2.074133e-01 7.436343e-03 -3.897943e-02 -3.839265e-01 -4.508274e-01 -5.256599e-01 -6.001511e-01 -3.043275e-01 -2.906366e-02 -1.930800e-01 4.571072e-01
<VARIANCE> 39
 1.499690e+01 6.344303e+00 7.513538e+00 1.164002e+01 1.201473e+01 1.035569e+01 7.767611e+00 1.207571e+01 3.437693e+01 1.552012e+01 7.507033e+00 8.054018e+00 7.252619e+00 7.833458e-01 6.539476e-01 1.022953e+00 1.263652e+00 1.359253e+00 1.136960e+00 1.097591e+00 1.328862e+00 1.526559e+00 1.305671e+00 1.009825e+00 8.994787e-01 6.853758e-01 2.640380e-01 1.819035e-01 1.458325e-01 1.946916e-01 2.550751e-01 2.991802e-01 1.866642e-01 1.944903e-01 3.996661e-01 2.437995e-01 1.631617e-01 2.066529e-01 1.625436e-01
<GCONST> 8.302644e+01
<TRANSP> 5
 0.000000e+00 1.000000e+00 0.000000e+00 0.000000e+00 0.000000e+00
 0.000000e+00 6.458986e-01 3.541013e-01 0.000000e+00 0.000000e+00
 0.000000e+00 0.000000e+00 6.468529e-01 3.531471e-01 0.000000e+00
 0.000000e+00 0.000000e+00 0.000000e+00 7.334849e-01 2.665150e-01
 0.000000e+00 0.000000e+00 0.000000e+00 0.000000e+00 0.000000e+00
<ENDHMM>
~h "p"
<BEGINHMM>
<NUMSTATES> 5
<STATE> 2
<MEAN> 39
 -2.059863e+01 1.509456e+00 -3.115294e+00 -1.031447e+00 -8.269711e-02 1.811961e+00 4.042309e+00 4.827012e+00 4.985639e+00 2.728497e+00 1.439900e+00 -1.148428e-01 5.879282e+01 -1.303838e-01 -1.140877e-01 -7.206398e-02 -1.192840e-01 -1.617968e-01 -1.810479e-01 -1.299572e-01 -9.430888e-02 -1.317195e-01 -1.545682e-01 -1.562053e-01 -1.329928e-01 -6.100381e-02 6.328888e-02 6.712652e-02 6.543249e-02 5.965051e-02 6.424507e-02 5.110354e-02 2.364667e-02 8.713321e-03 -4.917141e-03 1.210090e-02 3.747837e-02 2.911092e-02 3.260635e-02
<VARIANCE> 39
 1.242408e+00 1.603944e+00 3.294715e+00 4.828965e+00 5.587185e+00 7.007712e+00 7.551205e+00 8.723982e+00 8.986078e+00 7.901515e+00 7.577628e+00 7.194890e+00 1.447546e+00 1.291507e-01 1.831382e-01 3.466518e-01 5.429088e-01 7.126410e-01 8.780867e-01 8.460773e-01 9.178121e-01 9.343596e-01 8.359239e-01 8.613178e-01 7.511662e-01 3.614467e-02 2.652700e-02 3.941167e-02 6.859647e-02 1.056334e-01 1.393619e-01 1.654260e-01 1.748837e-01 1.949477e-01 1.926466e-01 1.721911e-01 1.664697e-01 1.516129e-01 8.465371e-03
<GCONST> 5.068479e+01
<STATE> 3
<MEAN> 39
 -2.102837e+01 1.264619e+00 -2.884296e+00 -1.304335e+00 -2.327771e-01 1.244430e+00 3.823061e+00 4.671049e+00 3.887059e+00 2.001809e+00 1.491938e+00 7.036221e-02 5.872205e+01 1.510923e-02 3.181168e-02 7.280809e-02 1.134862e-01 1.164520e-01 1.570040e-01 1.132452e-02 1.118289e-03 -1.955366e-01 -2.667174e-01 -1.082569e-01 -3.802839e-02 -3.580777e-03 3.392960e-01 1.263336e-01 1.469343e-01 -1.651298e-03 1.171420e-01 -1.018845e-01 -1.692842e-01 -2.560301e-01 -3.268183e-01 -7.636807e-02 9.555862e-02 2.739994e-02 3.062392e-01
<VARIANCE> 39
 1.766463e+00 1.551429e+00 4.943783e+00 8.619609e+00 8.097751e+00 4.874605e+00 6.928200e+00 7.992624e+00 1.009238e+01 7.301571e+00 6.460017e+00 6.197833e+00 1.447546e+00 2.306677e-01 1.541998e-01 5.400033e-01 8.360255e-01 1.069305e+00 8.431864e-01 9.441190e-01 1.027278e+00 1.210308e+00 6.586977e-01 4.910174e-01 6.632910e-01 6.783142e-02 1.171671e-01 1.208618e-01 1.994372e-01 2.857827e-01 2.555595e-01 1.764685e-01 2.703750e-01 2.710661e-01 3.915247e-01 1.605598e-01 1.783020e-01 9.231141e-02 8.126087e-02
<GCONST> 6.196394e+01
<STATE> 4
<MEAN> 39
 -2.075814e+01 1.528098e+00 -2.837733e+00 -1.076773e+00 -1.951207e-01 1.756891e+00 4.040679e+00 4.783141e+00 4.207295e+00 1.912325e+00 9.829562e-01 -5.888993e-01 5.871352e+01 1.029819e+00 3.353507e-01 4.684005e-01 -3.147531e-01 3.575290e-01 -4.498436e-01 -7.634315e-01 -1.207667e+00 -1.681617e+00 -6.570399e-01 2.723883e-01 1.031627e-01 1.034921e+00 8.746995e-01 1.480165e-01 2.717923e-01 -6.254169e-02 6.074174e-02 -5.055652e-01 -3.197194e-01 -5.561799e-01 -8.947483e-01 -1.360808e-01 3.146887e-01 9.587938e-02 8.082907e-01
<VARIANCE> 39
 1.693264e+00 1.802548e+00 3.665011e+00 6.790484e+00 5.282279e+00 5.121403e+00 6.944864e+00 9.655434e+00 1.098422e+01 9.631149e+00 8.267192e+00 9.131901e+00 1.447546e+00 9.404895e-01 1.042442e+00 1.057161e+00 2.082228e+00 8.984932e-01 1.069530e+00 1.849427e+00 2.485301e+00 3.103502e+00 8.729910e-01 1.338612e+00 9.848989e-01 1.083152e+00 1.964796e-01 1.944821e-01 2.115339e-01 6.132673e-01 2.232462e-01 3.304384e-01 2.746720e-01 3.381190e-01 4.336817e-01 2.130813e-01 1.802418e-01 2.037007e-01 1.614248e-01
<GCONST> 7.867374e+01
<TRANSP> 5
 0.000000e+00 1.000000e+00 0.000000e+00 0.000000e+00 0.000000e+00
 0.000000e+00 9.204938e-01 7.950611e-02 0.000000e+00 0.000000e+00
 0.000000e+00 0.000000e+00 2.316268e-01 7.683732e-01 0.000000e+00
 0.000000e+00 0.000000e+00 0.000000e+00 4.437799e-01 5.562201e-01
 0.000000e+00 0.000000e+00 0.000000e+00 0.000000e+00 0.000000e+00
<ENDHMM>
~h "r"
<BEGINHMM>
<NUMSTATES> 5
<STATE> 2
<MEAN> 39
 -6.446037e+00 1.149120e+00 -4.277014e+00 -1.642909e+00 -8.875941e-01 -2.121594e+00 3.108967e+00 -4.723553e+00 -1.105735e+01 7.876011e-01 6.456223e+00 1.448101e+00 7.033724e+01 1.431267e+00 2.145497e-01 1.065211e-02 2.392590e-01 -1.678680e-01 -5.406828e-01 -3.313197e-01 -6.649101e-01 -9.791282e-01 -8.827782e-02 2.390045e-01 -1.721440e-01 9.718162e-01 -3.529748e-01 1.506957e-01 1.925553e-01 1.399085e-01 7.127300e-02 1.114067e-01 -8.409315e-02 2.356355e-01 5.135509e-01 -3.512337e-02 -1.909069e-01 -1.031932e-01 -3.300306e-01
<VARIANCE> 39
 5.555775e+01 1.354314e+01 1.220731e+01 2.205286e+01 2.138297e+01 2.649489e+01 1.904111e+01 2.934605e+01 4.814125e+01 3.233566e+01 2.424143e+01 1.864196e+01 3.117703e+01 3.846442e+00 1.697595e+00 1.568435e+00 2.305800e+00 1.636983e+00 2.119361e+00 1.436815e+00 2.608214e+00 5.576608e+00 2.438939e+00 2.220080e+00 1.590800e+00 2.647718e+00 6.587802e-01 2.839868e-01 3.011543e-01 4.984355e-01 3.086772e-01 4.756162e-01 2.185644e-01 4.416474e-01 6.108727e-01 4.510908e-01 3.438635e-01 2.803538e-01 3.361781e-01
<GCONST> 1.114899e+02
<STATE> 3
<MEAN> 39
 -8.470227e+00 4.580903e+00 -1.104816e+00 5.115858e-02 1.667157e+00 -3.365330e-01 -6.807904e-02 -4.481587e+00 -6.143549e+00 1.330109e-01 4.069305e+00 -2.295623e-01 6.774796e+01 -1.311186e+00 4.589434e-01 8.864577e-01 2.546027e-01 5.231386e-01 6.989999e-01 -4.168451e-01 4.268149e-01 1.415102e+00 8.390130e-02 -3.123629e-01 4.824737e-02 -1.038526e+00 -9.569335e-02 -2.148205e-01 -8.462701e-02 -2.249194e-02 -9.375900e-02 -3.126551e-02 1.963219e-01 2.568437e-01 8.398192e-02 8.097349e-02 1.673787e-01 1.946552e-01 5.769707e-03
<VARIANCE> 39
 5.072186e+01 1.646101e+01 1.582334e+01 1.329000e+01 2.573018e+01 2.626761e+01 2.064897e+01 3.515492e+01 4.828789e+01 3.277726e+01 1.450295e+01 1.717150e+01 2.341218e+01 4.245107e+00 2.809325e+00 2.089589e+00 1.431499e+00 1.271419e+00 2.320831e+00 2.223931e+00 4.030461e+00 4.455153e+00 2.313190e+00 2.034655e+00 1.597046e+00 2.654001e+00 8.943614e-01 3.989299e-01 3.605020e-01 2.868393e-01 2.558468e-01 4.598943e-01 4.341333e-01 5.740283e-01 5.617353e-01 4.323048e-01 3.791486e-01 3.415653e-01 3.350432e-01
<GCONST> 1.128491e+02
<STATE> 4
<MEAN> 39
 -1.472464e+01 3.738275e+00 -7.072035e-01 6.738756e-01 1.575810e+00 9.457517e-01 1.280103e+00 6.658512e-02 9.892726e-02 2.465413e+00 3.805998e+00 2.032719e-01 6.304354e+01 -6.694668e-01 -1.844864e-01 2.318392e-01 -7.719024e-02 -1.852116e-01 -4.264731e-01 -2.064685e-01 4.501348e-01 2.836509e-01 -3.800331e-01 -3.930616e-01 2.815785e-02 -3.436982e-01 1.612748e-01 -1.177359e-01 -5.308416e-02 1.573308e-02 4.829784e-02 -3.804237e-03 -1.802549e-02 -1.206518e-01 -2.311903e-01 -5.890639e-02 -1.651900e-02 1.290213e-02 1.748883e-01
<VARIANCE> 39
 4.519707e+01 1.631854e+01 1.124283e+01 9.277535e+00 1.531738e+01 1.623379e+01 1.432645e+01 2.793484e+01 5.646423e+01 1.754404e+01 1.333186e+01 7.710472e+00 2.234845e+01 4.723114e+00 1.556389e+00 1.816839e+00 1.046474e+00 1.409372e+00 1.915934e+00 1.153793e+00 2.884294e+00 5.061369e+00 1.741585e+00 1.782917e+00 1.169841e+00 2.974112e+00 5.284449e-01 3.650047e-01 2.460740e-01 2.348132e-01 1.897762e-01 3.212975e-01 2.842899e-01 4.244668e-01 4.946936e-01 2.473469e-01 2.615110e-01 2.325681e-01 2.025866e-01
<GCONST> 1.020023e+02
<TRANSP> 5
 0.000000e+00 1.000000e+00 0.000000e+00 0.000000e+00 0.000000e+00
 0.000000e+00 8.051394e-01 1.948606e-01 0.000000e+00 0.000000e+00
 0.000000e+00 0.000000e+00 5.760666e-01 4.239335e-01 0.000000e+00
 0.000000e+00 0.000000e+00 0.000000e+00 6.147190e-01 3.852810e-01
 0.000000e+00 0.000000e+00 0.000000e+00 0.000000e+00 0.000000e+00
<ENDHMM>
~h "s"
<BEGINHMM>
<NUMSTATES> 5
<STATE> 2
<MEAN> 39
 -1.578522e+01 2.924273e+00 -3.639348e-01 8.660247e-01 8.537515e-01 5.568963e-01 9.143462e-01 1.694804e-01 -1.546939e+00 -3.035157e-02 3.185716e+00 1.626910e-01 6.252530e+01 5.895528e-01 -4.179587e-01 1.833736e+00 3.773969e-01 2.217036e-01 1.691364e-01 -9.516290e-01 -8.552567e-01 -1.419103e+00 -3.468792e-01 8.433219e-01 -3.716917e-01 1.111731e+00 -2.039893e-01 -4.949400e-01 6.224428e-01 -2.998970e-01 5.202692e-03 7.787605e-02 -2.713199e-01 -1.454514e-01 -2.458676e-01 -2.528900e-02 1.414470e-01 -1.783425e-01 3.498943e-01
<VARIANCE> 39
 4.669603e+01 2.485306e+01 1.975846e+01 1.832654e+01 1.442485e+01 1.187192e+01 1.779490e+01 3.311210e+01 7.591933e+01 1.799922e+01 1.341160e+01 7.479679e+00 2.312143e+01 4.835646e+00 4.512004e+00 3.213147e+00 3.411184e+00 2.502278e+00 1.324343e+00 2.735348e+00 4.432288e+00 6.370352e+00 3.164248e+00 1.450272e+00 1.204867e+00 1.387885e+00 5.232353e-01 3.607439e-01 7.667185e-01 4.385760e-01 3.155950e-01 2.867415e-01 4.366781e-01 4.820379e-01 8.985651e-01 4.680417e-01 3.170069e-01 2.121056e-01 1.647754e-01
<GCONST> 1.120899e+02
<STATE> 3
<MEAN> 39
 -1.003697e+01 -6.345408e-01 5.610354e+00 2.593353e+00 2.932754e+00 -2.551875e-01 -3.875341e+00 -4.425958e+00 -1.231950e+01 -3.646122e+00 8.078945e+00 -9.973218e-01 7.029606e+01 -1.194766e+00 -1.875265e+00 2.141021e+00 -7.812706e-01 5.760209e-01 5.065527e-01 -7.782774e-01 -9.024361e-02 2.035663e-01 3.976598e-01 3.729550e-01 -3.536219e-01 9.658537e-01 -6.487935e-01 -1.609542e-01 6.374867e-02 -4.035281e-01 6.056019e-02 8.752158e-02 2.919543e-01 2.312370e-01 7.320506e-01 3.001953e-01 -3.287368e-01 -2.182738e-02 -1.932750e-01
<VARIANCE> 39
 1.043995e+02 4.218649e+01 4.793696e+01 7.731700e+01 4.318631e+01 2.147470e+01 2.341567e+01 4.984156e+01 8.785044e+01 4.046788e+01 1.862173e+01 1.596673e+01 1.788721e+01 5.268861e+00 2.736256e+00 7.029871e+00 3.695105e+00 1.557481e+00 2.182762e+00 2.304685e+00 2.574742e+00 7.869740e+00 3.447760e+00 2.128279e+00 1.570975e+00 1.402785e+00 6.055014e-01 5.245723e-01 8.601219e-01 9.173799e-01 4.271404e-01 3.865243e-01 5.161120e-01 5.101602e-01 7.608206e-01 4.902626e-01 3.238393e-01 2.759299e-01 1.031101e-01
<GCONST> 1.225185e+02
<STATE> 4
<MEAN> 39
 -1.439472e+01 -6.007936e+00 8.935061e+00 6.645206e-01 4.815573e+00 -1.693197e+00 -6.287128e+00 -6.378405e+00 -9.615490e+00 8.946533e-01 9.561664e+00 -1.971582e+00 7.261633e+01 3.603990e-01 5.246614e-01 -4.868029e-01 2.080689e-01 4.524218e-02 -9.734804e-02 4.263522e-02 -7.443418e-02 -2.666758e-02 -8.041765e-02 -9.296139e-02 6.775352e-02 -1.714965e-01 1.741149e-01 2.623138e-01 -2.238497e-01 2.054226e-01 -2.456273e-02 1.685956e-02 6.481060e-02 3.035268e-02 -2.683995e-02 -8.072561e-02 -5.502405e-02 6.530023e-02 -1.546360e-01
<VARIANCE> 39
 1.573092e+02 5.620862e+01 8.865498e+01 1.104130e+02 2.817640e+01 4.292814e+01 3.699444e+01 4.999746e+01 8.994082e+01 2.292731e+01 2.755239e+01 2.510108e+01 1.046410e+01 8.932416e+00 4.971474e+00 3.582407e+00 9.362317e+00 2.280594e+00 2.542270e+00 2.956829e+00 3.153242e+00 6.652154e+00 1.855730e+00 2.279919e+00 1.492973e+00 1.411184e+00 1.076321e+00 7.104183e-01 5.404511e-01 1.147813e+00 3.457596e-01 5.340573e-01 4.432324e-01 4.705864e-01 9.774831e-01 3.265685e-01 3.183403e-01 2.551905e-01 1.462493e-01
<GCONST> 1.268941e+02
<TRANSP> 5
 0.000000e+00 1.000000e+00 0.000000e+00 0.000000e+00 0.000000e+00
 0.000000e+00 5.924286e-01 4.075714e-01 0.000000e+00 0.000000e+00
 0.000000e+00 0.000000e+00 7.031282e-01 2.968718e-01 0.000000e+00
 0.000000e+00 0.000000e+00 0.000000e+00 9.319506e-01 6.804932e-02
 0.000000e+00 0.000000e+00 0.000000e+00 0.000000e+00 0.000000e+00
<ENDHMM>
~h "t"
<BEGINHMM>
<NUMSTATES> 5
<STATE> 2
<MEAN> 39
 -1.274048e+01 -4.770607e-01 1.312666e+00 1.199410e+00 2.663390e+00 -1.259365e+00 -2.854603e+00 -4.637815e+00 -5.134058e+00 -8.741757e-01 4.386911e+00 -4.813721e-01 6.820422e+01 1.064393e+00 7.229032e-02 -2.922969e-01 4.014972e-01 8.541737e-02 -2.335289e-01 -1.144719e-01 -6.726664e-01 -1.050870e+00 -2.189237e-01 3.792986e-01 2.117824e-01 6.328197e-01 8.525886e-02 -2.674123e-02 -5.973261e-02 -6.155562e-02 -3.449881e-02 -3.131242e-02 3.934781e-02 -5.960272e-02 -1.044918e-01 2.377829e-03 8.439317e-02 6.099075e-02 8.421659e-02
<VARIANCE> 39
 7.864272e+01 4.165684e+01 2.646346e+01 5.450816e+01 1.763029e+01 1.968543e+01 2.933594e+01 4.602831e+01 5.799165e+01 2.374603e+01 2.298850e+01 1.308087e+01 2.926132e+01 7.739922e+00 3.616560e+00 4.350209e+00 6.311176e+00 1.941549e+00 2.330558e+00 3.647722e+00 4.277713e+00 6.118096e+00 2.133366e+00 2.634591e+00 1.230168e+00 3.484302e+00 1.072221e+00 6.348212e-01 8.331550e-01 1.221902e+00 4.070690e-01 4.190525e-01 7.321872e-01 8.147758e-01 9.804067e-01 3.869489e-01 4.583377e-01 2.203605e-01 5.990630e-01
<GCONST> 1.258819e+02
<STATE> 3
<MEAN> 39
 -1.451181e+00 -1.043024e+00 -4.542030e+00 2.802377e+00 -7.178835e-01 -5.810335e+00 3.933975e-01 -9.020029e+00 -1.580549e+01 -2.091045e+00 1.002230e+01 5.332108e+00 7.466632e+01 1.367585e-01 8.999322e-02 -1.905396e-01 -3.759041e-01 -2.972032e-01 -2.707874e-01 1.305551e-01 3.710784e-01 2.142212e-01 -1.413484e-02 -2.317850e-01 1.502403e-01 7.810706e-02 -2.948141e-01 9.107509e-02 2.142172e-01 -6.831907e-02 7.225584e-02 1.236419e-01 -1.372208e-01 1.682721e-01 3.223055e-01 1.137401e-02 -1.776099e-01 -1.443190e-01 -1.899926e-01
<VARIANCE> 39
 9.453067e+00 1.560095e+01 1.008452e+01 1.431817e+01 1.550831e+01 2.257706e+01 1.305684e+01 3.716923e+01 1.498145e+01 2.576426e+01 1.898276e+01 1.132257e+01 6.060631e+00 1.780846e+00 1.401199e+00 1.601335e+00 1.534473e+00 1.928221e+00 2.371682e+00 1.192287e+00 1.140952e+00 1.555954e+00 2.129285e+00 1.913812e+00 1.324254e+00 7.788350e-01 5.162917e-01 2.718135e-01 2.874030e-01 4.069502e-01 3.766865e-01 5.665582e-01 1.813281e-01 2.647577e-01 4.754342e-01 4.241492e-01 4.268765e-01 2.046720e-01 1.608647e-01
<GCONST> 9.777711e+01
<STATE> 4
<MEAN> 39
 -1.273014e+00 2.214272e+00 -3.728068e+00 1.406994e+00 -1.642229e-01 -6.157403e+00 -1.322650e+00 -5.951294e+00 -1.500074e+01 -1.466999e+00 9.454628e+00 2.309211e+00 7.363815e+01 -4.628388e-01 7.898494e-01 6.233346e-01 -4.993156e-02 -8.639443e-02 4.054834e-01 1.157947e-01 4.241228e-01 5.532787e-01 5.299050e-02 7.116485e-02 -2.188509e-01 -5.881357e-01 -2.070437e-01 7.917115e-02 1.550801e-01 9.848839e-02 1.161803e-01 2.385028e-01 1.655265e-01 2.497290e-02 1.099484e-01 -4.372269e-02 -1.136771e-01 2.423545e-02 -1.827835e-01
<VARIANCE> 39
 5.838088e+00 1.368621e+01 1.322898e+01 7.925931e+00 9.280238e+00 1.816282e+01 1.557598e+01 2.378595e+01 1.172483e+01 3.236187e+01 1.496806e+01 2.459960e+01 5.108155e+00 4.279392e-01 5.989268e-01 8.160204e-01 7.143378e-01 1.512666e+00 1.752942e+00 8.634043e-01 9.917215e-01 1.583133e+00 6.459794e-01 8.990238e-01 7.333555e-01 3.941500e-01 5.062892e-02 1.214485e-01 1.221936e-01 1.254059e-01 1.486624e-01 2.969840e-01 2.050775e-01 1.054729e-01 2.394854e-01 1.524369e-01 2.454231e-01 1.577755e-01 3.346397e-02
<GCONST> 7.664193e+01
<TRANSP> 5
 0.000000e+00 1.000000e+00 0.000000e+00 0.000000e+00 0.000000e+00
 0.000000e+00 9.342110e-01 6.578898e-02 0.000000e+00 0.000000e+00
 0.000000e+00 0.000000e+00 8.778021e-01 1.221979e-01 0.000000e+00
 0.000000e+00 0.000000e+00 0.000000e+00 7.518317e-01 2.481683e-01
 0.000000e+00 0.000000e+00 0.000000e+00 0.000000e+00 0.000000e+00
<ENDHMM>
~h "u"
<BEGINHMM>
<NUMSTATES> 5
<STATE> 2
<MEAN> 39
 -1.052069e+01 4.310073e+00 9.030146e+00 8.515716e+00 6.505651e+00 1.233940e-01 -3.409973e+00 -2.442189e+00 -6.586977e+00 -5.373028e+00 3.793272e+00 6.333225e-01 6.813579e+01 7.173608e-01 -4.118834e-01 2.981476e-01 6.043987e-01 4.547095e-01 -4.489467e-01 -9.027305e-01 -4.733765e-01 -7.743291e-01 -6.032747e-01 1.994226e-01 -1.004238e-02 7.802078e-01 2.279179e-02 -1.041986e-01 -2.068466e-01 -1.015816e-01 2.200867e-02 -6.668719e-02 -1.267374e-01 -9.444311e-03 -7.753645e-02 -6.128967e-03 1.638379e-01 6.132990e-04 2.275365e-02
<VARIANCE> 39
 3.662529e+01 8.029881e+01 5.402884e+01 2.937631e+01 2.712619e+01 1.903846e+01 3.224947e+01 2.789486e+01 6.311098e+01 3.044385e+01 1.862859e+01 1.264402e+01 1.972107e+01 4.630358e+00 9.163279e+00 4.998806e+00 4.189189e+00 4.000945e+00 2.105231e+00 3.906090e+00 2.576832e+00 7.370539e+00 3.840429e+00 2.599432e+00 1.248221e+00 2.445065e+00 6.348663e-01 1.405578e+00 9.347103e-01 7.851859e-01 8.275381e-01 4.281096e-01 5.705923e-01 4.517805e-01 1.020382e+00 5.767383e-01 3.846908e-01 2.311426e-01 3.639457e-01
<GCONST> 1.259529e+02
<STATE> 3
<MEAN> 39
 -2.941887e+00 -1.239184e+00 3.254954e+00 1.201855e+01 1.117728e+01 -5.275003e+00 -1.285907e+01 -6.182529e+00 -1.695777e+01 -1.109952e+01 1.025488e+01 7.614520e-01 7.447655e+01 6.028339e-01 3.011087e-01 -1.024310e+00 -5.979522e-01 -4.156409e-01 -1.671418e-01 3.101996e-02 -4.753404e-01 -8.202890e-01 6.732896e-02 4.022974e-01 1.259991e-01 8.323959e-02 -3.540611e-01 2.154584e-01 3.770228e-01 -1.771151e-01 -2.826975e-01 1.827801e-01 3.935581e-01 1.600592e-01 4.404212e-01 3.125813e-01 -2.154323e-01 -4.926366e-02 -2.380483e-01
<VARIANCE> 39
 7.958810e+00 1.118973e+01 2.910955e+01 3.558242e+01 1.906839e+01 1.738361e+01 1.617634e+01 4.030807e+01 1.666601e+01 2.105801e+01 1.241507e+01 2.323409e+01 4.147273e+00 9.354273e-01 1.091829e+00 1.919239e+00 1.670758e+00 1.413981e+00 1.394645e+00 1.883846e+00 2.514367e+00 1.953109e+00 1.842087e+00 1.805144e+00 1.927614e+00 5.957673e-01 1.346202e-01 2.590888e-01 1.956270e-01 2.741221e-01 2.108679e-01 2.314105e-01 2.574680e-01 4.866240e-01 3.909167e-01 3.124613e-01 2.989680e-01 2.811809e-01 1.127401e-01
<GCONST> 9.563052e+01
<STATE> 4
<MEAN> 39
 -3.274006e+00 2.354738e+00 2.037880e-01 5.110299e+00 4.630982e+00 -2.736550e+00 -6.152869e+00 -8.193163e+00 -1.781747e+01 -3.853444e+00 1.272653e+01 2.595575e+00 7.222284e+01 -7.487279e-01 9.278324e-01 2.731538e-01 -6.675542e-01 -4.928582e-01 9.397036e-01 1.398614e+00 8.318491e-01 1.451666e+00 1.442379e+00 -1.768242e-01 -2.071932e-01 -8.970576e-01 -1.763731e-01 -7.658520e-02 4.095281e-02 9.398255e-02 1.481676e-01 7.368249e-02 -2.477467e-02 1.889107e-01 4.315020e-01 -5.516715e-03 -2.033614e-01 -4.347229e-02 -9.479050e-02
<VARIANCE> 39
 7.839345e+00 3.194816e+01 1.341857e+01 1.309572e+01 1.015228e+01 1.444995e+01 2.421220e+01 1.847612e+01 3.113996e+01 2.690252e+01 3.208176e+01 1.484427e+01 1.217055e+01 9.688586e-01 2.507330e+00 1.373405e+00 1.006129e+00 9.710752e-01 2.036003e+00 1.745377e+00 1.390521e+00 3.303243e+00 1.548627e+00 1.899188e+00 8.213860e-01 1.261452e+00 8.857056e-02 2.904817e-01 1.926378e-01 2.090163e-01 1.954515e-01 3.460673e-01 1.904828e-01 4.614938e-01 3.762654e-01 2.454608e-01 2.522835e-01 1.384919e-01 1.018150e-01
<GCONST> 9.392691e+01
<TRANSP> 5
 0.000000e+00 1.000000e+00 0.000000e+00 0.000000e+00 0.000000e+00
 0.000000e+00 8.966020e-01 1.033980e-01 0.000000e+00 0.000000e+00
 0.000000e+00 0.000000e+00 8.492711e-01 1.507289e-01 0.000000e+00
 0.000000e+00 0.000000e+00 0.000000e+00 7.637388e-01 2.362613e-01
 0.000000e+00 0.000000e+00 0.000000e+00 0.000000e+00 0.000000e+00
<ENDHMM>
~h "w"
<BEGINHMM>
<NUMSTATES> 5
<STATE> 2
<MEAN> 39
 -3.513131e+00 9.620602e+00 4.839595e+00 1.610160e+00 1.437662e+00 -3.341467e+00 -6.298272e+00 -1.415543e+00 -9.755197e+00 -8.298697e+00 5.181104e+00 -2.839177e+00 7.039026e+01 -3.461674e-01 7.610919e-01 1.563828e+00 4.152048e-02 -1.599318e+00 -1.021192e+00 8.334814e-02 8.759655e-01 6.854805e-01 8.854687e-02 7.797390e-01 -5.282311e-02 -3.527617e-01 1.773769e-02 -3.571061e-01 -2.211998e-01 1.912852e-01 2.946421e-02 -1.248104e-01 1.944581e-02 -2.215097e-01 -1.722943e-01 1.622986e-01 1.804900e-01 2.135071e-01 9.982120e-02
<VARIANCE> 39
 5.917746e+00 1.251025e+01 2.360644e+01 1.625061e+01 1.535232e+01 1.936180e+01 3.256392e+01 1.592097e+01 1.529027e+01 1.481901e+01 2.602210e+01 3.436967e+01 7.425897e+00 2.679729e-01 5.386115e-01 8.169340e-01 7.001099e-01 1.036420e+00 1.694262e+00 1.100018e+00 1.361686e+00 1.779363e+00 1.619634e+00 2.376490e+00 1.073400e+00 2.589064e-01 1.258349e-01 2.050731e-01 2.558051e-01 1.394571e-01 8.664674e-02 2.926882e-01 2.951432e-01 1.330483e-01 3.968122e-01 3.227626e-01 4.246330e-01 2.522549e-01 1.062572e-01
<GCONST> 8.678409e+01
<STATE> 3
<MEAN> 39
 -4.014496e+00 1.087202e+01 8.067533e+00 3.881691e+00 -2.100759e+00 -5.558244e+00 -5.795401e+00 5.806441e-01 -5.899447e+00 -9.484836e+00 4.095865e+00 -2.419717e+00 6.951856e+01 4.473779e-01 -6.733618e-01 -5.856830e-01 -3.696384e-01 -5.041955e-01 -3.780379e-01 -2.162596e-01 -1.363217e-02 -1.252707e-02 -3.300203e-01 2.220396e-01 5.673985e-02 5.077463e-01 7.024102e-02 -2.248562e-01 -2.684187e-01 -8.162314e-02 1.006961e-01 1.816176e-01 1.187149e-01 -1.319245e-01 -1.833249e-01 -3.467442e-02 2.196191e-02 7.520761e-02 1.160307e-01
<VARIANCE> 39
 9.527852e+00 1.413827e+01 1.276853e+01 1.702869e+01 2.236605e+01 3.286784e+01 2.600247e+01 1.835413e+01 1.774854e+01 2.733240e+01 2.291665e+01 1.389917e+01 9.789309e+00 3.574409e-01 1.006953e+00 9.739656e-01 8.721811e-01 5.987650e-01 9.904529e-01 1.878678e+00 1.128736e+00 1.382401e+00 1.839434e+00 9.683524e-01 7.438915e-01 3.696377e-01 6.542754e-02 2.087204e-01 1.406307e-01 1.522089e-01 1.057427e-01 1.784735e-01 2.702997e-01 1.781434e-01 2.960374e-01 4.108359e-01 1.820016e-01 1.385957e-01 8.087594e-02
<GCONST> 8.417111e+01
<STATE> 4
<MEAN> 39
 -5.284486e-01 1.976999e+00 -2.276498e+00 8.038530e-01 -3.790997e+00 -5.560271e+00 -1.199847e+00 -3.587036e+00 -1.114144e+01 -4.945316e+00 8.049109e+00 8.345715e-01 7.410307e+01 -2.442533e-01 -9.142938e-02 -3.340708e-01 8.506461e-02 3.750842e-01 4.555897e-01 5.022934e-01 -1.878100e-01 9.464639e-02 7.710578e-01 -1.958209e-01 -4.357231e-02 -2.288558e-01 -1.488270e-01 1.562932e-01 1.652191e-01 6.279641e-02 1.027962e-01 3.398846e-02 -7.683944e-02 8.381977e-02 1.977791e-01 3.752464e-02 -1.246406e-01 -8.123568e-02 -1.489617e-01
<VARIANCE> 39
 5.686474e+00 1.469932e+01 2.081054e+01 1.750081e+01 1.580420e+01 1.563601e+01 2.930066e+01 2.228241e+01 1.699048e+01 4.536242e+01 1.404071e+01 1.354121e+01 7.100460e+00 5.264035e-01 1.236584e+00 1.427804e+00 9.360827e-01 7.468871e-01 1.396176e+00 1.818436e+00 1.373311e+00 1.700291e+00 1.069192e+00 1.160530e+00 9.052284e-01 6.086009e-01 5.422340e-02 9.516699e-02 1.021382e-01 1.741013e-01 9.602776e-02 2.345237e-01 2.765922e-01 2.456863e-01 2.912320e-01 1.758041e-01 1.603114e-01 1.208519e-01 3.949713e-02
<GCONST> 8.288963e+01
<TRANSP> 5
 0.000000e+00 1.000000e+00 0.000000e+00 0.000000e+00 0.000000e+00
 0.000000e+00 6.528232e-01 3.471769e-01 0.000000e+00 0.000000e+00
 0.000000e+00 0.000000e+00 8.360903e-01 1.639098e-01 0.000000e+00
 0.000000e+00 0.000000e+00 0.000000e+00 9.056866e-01 9.431339e-02
 0.000000e+00 0.000000e+00 0.000000e+00 0.000000e+00 0.000000e+00
<ENDHMM>
~h "y"
<BEGINHMM>
<NUMSTATES> 5
<STATE> 2
<MEAN> 39
 -1.918137e+01 3.390301e+00 -3.669331e-01 1.905635e+00 2.586540e+00 3.594266e+00 5.021244e+00 5.932388e+00 6.164573e+00 4.195771e+00 3.376406e+00 1.810330e+00 5.950101e+01 -7.592174e-01 -9.544469e-01 -1.128871e+00 -1.185548e+00 -9.512229e-01 -4.810966e-01 -2.106508e-01 -8.525795e-02 -4.045352e-01 -4.496208e-01 -3.084257e-01 -4.392174e-01 -3.323056e-01 2.684286e-01 2.210554e-01 1.259873e-01 1.231360e-01 -3.103584e-02 -1.910668e-01 -2.844058e-01 -3.074025e-01 -2.178220e-01 -8.350351e-02 -1.020524e-01 -1.248537e-01 1.192261e-01
<VARIANCE> 39
 2.501498e+00 3.976266e+00 8.591203e+00 1.580859e+01 1.582741e+01 8.407177e+00 4.941235e+00 5.986841e+00 6.743277e+00 7.231523e+00 6.781279e+00 7.639556e+00 1.447546e+00 2.337385e-01 2.214584e-01 2.929426e-01 7.090555e-01 1.002992e+00 1.204355e+00 1.304922e+00 1.259942e+00 8.736018e-01 1.147371e+00 9.648904e-01 8.558130e-01 5.602475e-02 5.517972e-02 5.257186e-02 6.004633e-02 1.294821e-01 1.681961e-01 1.551782e-01 1.902841e-01 1.889277e-01 1.513650e-01 1.591591e-01 2.138534e-01 1.651551e-01 2.291012e-02
<GCONST> 5.993409e+01
<STATE> 3
<MEAN> 39
 -2.077858e+01 1.697405e+00 -2.735493e+00 -5.109605e-01 -4.898629e-02 1.547842e+00 3.723020e+00 4.118746e+00 4.173200e+00 2.752000e+00 2.298961e+00 3.554924e-01 5.868049e+01 -1.247254e-01 -1.156564e-01 -1.210304e-01 -9.725029e-03 2.325569e-02 1.213029e-02 4.785552e-02 -5.330279e-02 -1.317071e-01 -9.925293e-03 7.938232e-03 -5.197736e-02 -5.209422e-02 4.753159e-02 5.603031e-02 8.977702e-02 9.543516e-02 1.423446e-01 8.765941e-02 1.661355e-02 3.050369e-02 5.288243e-02 2.930655e-02 2.239695e-02 2.922225e-02 3.786904e-02
<VARIANCE> 39
 9.760091e-01 1.509887e+00 3.096345e+00 4.231412e+00 5.239031e+00 6.081980e+00 6.502472e+00 1.068329e+01 9.435165e+00 6.032319e+00 7.509518e+00 6.832236e+00 1.447546e+00 1.243247e-01 1.973687e-01 2.727079e-01 3.268674e-01 5.433070e-01 6.665200e-01 5.955470e-01 8.835571e-01 8.687174e-01 6.621932e-01 1.094071e+00 8.872204e-01 4.002697e-02 3.138556e-02 4.589093e-02 6.325069e-02 7.429054e-02 9.007803e-02 1.366579e-01 1.272650e-01 1.694978e-01 1.673467e-01 1.643825e-01 2.512632e-01 2.101488e-01 1.213159e-02
<GCONST> 4.802203e+01
<STATE> 4
<MEAN> 39
 -2.136123e+01 1.093627e+00 -3.469299e+00 -9.175499e-01 6.367691e-01 2.439767e+00 4.341035e+00 5.185962e+00 5.250896e+00 3.799567e+00 2.903439e+00 6.516909e-01 5.851084e+01 2.228523e-01 -8.974680e-02 2.637820e-01 -1.037924e-01 3.253667e-01 -1.727326e-02 -2.669435e-01 -3.669566e-01 -4.218396e-01 -4.177438e-01 -2.508072e-01 -1.614807e-01 3.743271e-01 7.580110e-01 2.066341e-01 2.441492e-01 -1.084159e-01 -2.014809e-02 -4.761973e-01 -3.225358e-01 -5.873370e-01 -7.814527e-01 -2.984848e-01 1.109617e-01 3.359290e-02 6.397867e-01
<VARIANCE> 39
 1.638266e+00 2.048347e+00 3.671730e+00 3.660598e+00 4.172052e+00 3.307810e+00 3.965129e+00 9.375491e+00 9.366526e+00 1.051147e+01 1.198755e+01 1.217121e+01 1.447546e+00 6.625135e-01 4.828717e-01 5.230026e-01 3.863189e-01 6.987222e-01 8.549530e-01 8.716979e-01 1.240059e+00 1.621192e+00 1.175088e+00 1.267634e+00 1.018664e+00 4.782028e-01 2.584315e-01 9.865793e-02 1.506807e-01 8.834206e-02 1.503209e-01 2.343893e-01 2.514343e-01 1.238705e-01 2.613933e-01 2.231012e-01 3.489539e-01 2.997678e-01 1.676284e-01
<GCONST> 6.696638e+01
<TRANSP> 5
 0.000000e+00 1.000000e+00 0.000000e+00 0.000000e+00 0.000000e+00
 0.000000e+00 4.794254e-01 5.205746e-01 0.000000e+00 0.000000e+00
 0.000000e+00 0.000000e+00 8.374867e-01 1.625133e-01 0.000000e+00
 0.000000e+00 0.000000e+00 0.000000e+00 5.140862e-01 4.859137e-01
 0.000000e+00 0.000000e+00 0.000000e+00 0.000000e+00 0.000000e+00
<ENDHMM>
~h "sp"
<BEGINHMM>
<NUMSTATES> 3
<STATE> 2
~s "silst"
<TRANSP> 3
 0.000000e+00 6.000211e-02 9.399979e-01
 0.000000e+00 5.025958e-01 4.974041e-01
 0.000000e+00 0.000000e+00 0.000000e+00
<ENDHMM>
~h "sy"
<BEGINHMM>
<NUMSTATES> 5
<STATE> 2
<MEAN> 39
 -2.109829e+01 9.658092e-01 -3.509842e+00 -1.186622e+00 -1.840996e-01 1.953591e+00 4.157398e+00 4.753307e+00 4.891068e+00 2.307537e+00 7.974750e-01 -1.110144e+00 5.858456e+01 -1.455463e-02 -3.307119e-02 -2.008827e-02 -3.898259e-02 -3.089392e-02 -3.738254e-02 -3.792203e-02 1.177172e-02 2.537591e-02 2.100187e-02 1.202577e-02 -5.159324e-03 8.328888e-05 3.351426e-03 2.786039e-03 1.099419e-02 7.782958e-03 6.213780e-03 4.666442e-03 2.788810e-03 1.190609e-03 -3.092215e-03 -6.064046e-04 5.147372e-03 1.220825e-02 2.826191e-03
<VARIANCE> 39
 8.529317e-01 1.343613e+00 2.258550e+00 3.956998e+00 4.523492e+00 5.232187e+00 6.607130e+00 7.426315e+00 6.916253e+00 6.583763e+00 5.846735e+00 5.794038e+00 1.447546e+00 8.299728e-02 1.416901e-01 2.317255e-01 4.249754e-01 5.651740e-01 6.219977e-01 7.365218e-01 8.626326e-01 7.704384e-01 7.077076e-01 6.243122e-01 6.362711e-01 2.712283e-02 1.737005e-02 2.897736e-02 4.714448e-02 8.874793e-02 1.235742e-01 1.305822e-01 1.446700e-01 1.691217e-01 1.531099e-01 1.440684e-01 1.302209e-01 1.420459e-01 4.959584e-03
<GCONST> 4.135646e+01
<STATE> 3
<MEAN> 39
 -2.133685e+01 -7.718849e-01 -4.036755e+00 -1.940668e+00 -8.041049e-01 1.695845e+00 2.652987e+00 4.667926e+00 5.254663e+00 2.121651e+00 1.893512e+00 -1.698690e-01 5.914754e+01 9.710266e-02 4.748103e-01 5.052841e-01 6.455213e-01 3.082567e-02 5.030356e-02 5.949079e-01 -5.147236e-01 -9.313098e-01 -1.307759e-01 -1.976509e-01 3.293282e-01 -1.073661e-01 3.349610e-01 9.742879e-02 9.672862e-02 1.778640e-03 -4.887009e-02 -8.102393e-02 2.727575e-01 -3.453935e-01 -6.347294e-01 1.472296e-01 7.450851e-02 -1.677639e-01 2.770020e-01
<VARIANCE> 39
 9.080022e-01 3.442910e+00 2.455997e+00 1.250842e+00 1.765191e+00 7.732081e+00 6.410504e+00 1.227357e+01 4.262899e+00 8.152092e+00 1.790738e+00 6.975990e+00 1.447546e+00 2.993833e-01 4.194615e-01 3.931881e-01 1.135058e-01 2.712786e-01 1.179822e+00 6.535404e-01 1.405875e+00 1.546115e+00 5.117403e-01 5.061146e-01 6.877756e-01 1.494333e-01 2.161661e-01 2.497244e-01 1.910622e-01 6.172721e-02 3.573222e-02 2.686715e-01 1.890159e-01 3.296173e-01 2.540912e-01 1.788103e-01 9.569401e-02 1.990405e-01 1.596302e-01
<GCONST> 5.409485e+01
<STATE> 4
<MEAN> 39
 -1.275474e+01 1.094110e+00 -4.436286e+00 -1.176175e+00 -1.879528e+00 2.202924e-01 8.359000e+00 -1.207019e-01 -5.269422e+00 3.977262e+00 4.209609e+00 -1.906546e+00 6.541682e+01 2.078497e+00 -1.808220e-01 -4.440889e-01 -1.309013e-01 -2.406816e-01 -6.282777e-01 4.724098e-01 -4.798521e-01 -1.617167e+00 4.811849e-01 1.107485e+00 -1.019954e-01 1.843441e+00 2.853237e-02 -1.119745e-01 -3.379260e-02 -1.383791e-01 -4.675356e-02 -1.555985e-01 -4.579603e-01 1.518704e-01 2.849807e-01 -7.446492e-02 1.257287e-01 8.497061e-02 1.029281e-01
<VARIANCE> 39
 4.362976e+01 1.201240e+01 7.493585e+00 2.355380e+00 4.879569e+00 7.515958e+00 2.333356e+01 1.469034e+01 4.418143e+01 8.458921e+00 1.994386e+01 3.986728e+00 2.719822e+01 2.160284e+00 1.654935e+00 1.245715e+00 4.098395e-01 3.383958e-01 1.900221e+00 3.769342e+00 1.613415e+00 2.168051e+00 1.307186e+00 1.102406e+00 8.283501e-01 9.502823e-01 3.558865e-01 2.854654e-01 3.225764e-01 7.328064e-02 8.035469e-02 3.044266e-01 3.832452e-01 3.618289e-01 3.235042e-01 2.906449e-01 3.781070e-01 1.501345e-01 2.165018e-01
<GCONST> 8.823557e+01
<TRANSP> 5
 0.000000e+00 1.000000e+00 0.000000e+00 0.000000e+00 0.000000e+00
 0.000000e+00 9.823913e-01 1.760868e-02 0.000000e+00 0.000000e+00
 0.000000e+00 0.000000e+00 5.423623e-01 4.576378e-01 0.000000e+00
 0.000000e+00 0.000000e+00 0.000000e+00 7.334180e-01 2.665820e-01
 0.000000e+00 0.000000e+00 0.000000e+00 0.000000e+00 0.000000e+00
<ENDHMM>
~h "sil"
<BEGINHMM>
<NUMSTATES> 5
<STATE> 2
<MEAN> 39
 -2.361990e+00 2.010295e-01 -2.993069e-01 -6.398264e-02 2.067769e-02 8.438437e-02 2.165112e-01 3.293719e-01 3.593645e-01 1.712471e-01 1.281149e-01 -3.297731e-03 6.752026e+00 -1.688349e-02 -7.117108e-03 1.800171e-03 -9.874674e-03 -2.758848e-03 1.000013e-02 -3.396815e-04 1.920735e-03 -3.418185e-03 2.242599e-03 -2.831951e-03 1.630411e-04 -9.350177e-03 -2.895685e-01 3.524942e-02 -3.036308e-02 1.506020e-02 -1.019339e-02 3.926040e-02 2.287904e-02 5.357739e-02 4.487170e-02 4.537383e-02 1.320802e-02 6.545338e-03 3.040569e-01
<VARIANCE> 39
 4.320293e+01 5.503651e-01 1.033744e+00 3.069609e-01 2.294316e-01 3.350049e-01 9.164705e-01 1.556337e+00 1.545059e+00 9.719611e-01 5.548455e-01 2.366328e-01 3.515370e+02 2.079128e-02 1.315341e-02 2.539882e-02 4.627883e-02 4.524216e-02 3.643569e-02 2.969889e-02 5.464003e-02 6.445020e-02 5.176570e-02 2.288621e-02 3.341003e-02 1.980202e-02 3.537564e-01 1.440890e-02 1.775361e-02 1.803795e-02 1.981378e-02 2.299788e-02 2.289532e-02 2.729267e-02 2.969907e-02 2.904477e-02 2.180980e-02 1.380409e-02 4.036090e-01
<GCONST> -1.332517e+01
<STATE> 3
~s "silst"
<STATE> 4
<MEAN> 39
 -2.095976e+01 1.234920e+00 -3.256111e+00 -1.177937e+00 -3.925394e-01 1.490545e+00 3.917529e+00 4.686167e+00 4.604879e+00 2.220499e+00 9.302061e-01 -6.919690e-01 5.862584e+01 2.899859e-03 -9.845459e-03 -1.436990e-02 -1.516787e-02 -1.384226e-02 -1.331927e-02 -8.818407e-03 -7.882925e-03 -1.138407e-02 -5.014134e-03 5.568916e-04 3.621818e-03 7.325090e-03 2.860524e-03 -1.529187e-03 2.438862e-04 8.217230e-04 1.697917e-03 -1.011646e-03 -1.843341e-03 -5.043777e-03 -6.933761e-03 9.579427e-05 4.627037e-03 2.427412e-03 -3.539249e-03
<VARIANCE> 39
 1.152688e+00 1.658730e+00 3.362071e+00 4.878908e+00 5.143538e+00 5.728920e+00 7.217381e+00 9.232262e+00 8.610354e+00 7.179787e+00 6.449231e+00 6.670847e+00 1.447546e+00 1.015864e-01 1.570366e-01 2.941046e-01 4.394800e-01 5.063856e-01 5.861546e-01 7.218119e-01 9.637466e-01 9.559486e-01 7.865769e-01 6.911559e-01 6.883025e-01 3.470638e-02 2.047344e-02 3.287755e-02 5.721181e-02 8.696891e-02 1.033486e-01 1.222386e-01 1.464312e-01 1.975044e-01 2.006859e-01 1.663298e-01 1.452606e-01 1.414680e-01 1.084439e-02
<GCONST> 4.648037e+01
<TRANSP> 5
 0.000000e+00 1.000000e+00 0.000000e+00 0.000000e+00 0.000000e+00
 0.000000e+00 7.703410e-01 1.148367e-01 1.148223e-01 0.000000e+00
 0.000000e+00 0.000000e+00 9.012139e-01 9.878610e-02 0.000000e+00
 0.000000e+00 3.772813e-10 0.000000e+00 9.858235e-01 1.417655e-02
 0.000000e+00 0.000000e+00 0.000000e+00 0.000000e+00 0.000000e+00
<ENDHMM>
