~o
<STREAMINFO> 1 39
<VECSIZE> 39<NULLD><MFCC_D_A_0><DIAGC>
~s "silst"
<MEAN> 39
 -1.511045e+01 1.289215e+00 -2.046440e+00 9.679091e-02 8.639839e-02 1.573347e+00 1.933382e+00 1.963168e+00 1.735175e+00 1.092898e+00 5.156838e-01 -7.933606e-02 3.346127e+01 -1.449865e+00 2.442097e-02 -2.001453e-01 -6.767546e-02 3.233472e-02 1.267332e-01 2.507948e-01 2.114199e-01 2.448123e-01 1.248101e-01 7.934955e-02 -3.830713e-02 3.641385e+00 3.009255e-02 5.735348e-03 1.363949e-02 -5.519538e-03 6.555449e-04 -4.765755e-04 -1.204444e-02 -3.240653e-02 -9.879448e-03 -5.157858e-03 -1.421395e-02 -1.229364e-02 9.101805e-02
<VARIANCE> 39
 8.476249e+01 3.506520e+00 5.966629e+00 4.709853e+00 4.771996e+00 5.687588e+00 1.009968e+01 1.261017e+01 1.225068e+01 7.274110e+00 5.678540e+00 5.347476e+00 5.241879e+02 6.451918e+00 3.381902e-01 4.676188e-01 4.309216e-01 5.202742e-01 6.019946e-01 8.713785e-01 8.805896e-01 8.426306e-01 6.658576e-01 6.132874e-01 5.602468e-01 1.343207e+01 1.310646e+00 5.985134e-02 9.297775e-02 9.046536e-02 1.048986e-01 1.207980e-01 1.804468e-01 1.701208e-01 1.657743e-01 1.452461e-01 1.244354e-01 1.111017e-01 2.120143e+00
<GCONST> 7.929289e+01
~h "a"
<BEGINHMM>
<NUMSTATES> 5
<STATE> 2
<MEAN> 39
 -1.099916e+01 2.269915e+00 -8.783071e-01 -1.280415e-01 -8.958581e-02 2.463231e-01 1.117437e+00 -2.902494e+00 -2.129705e+00 -8.475153e-02 3.778299e-01 -2.198486e-01 6.443150e+01 -2.801429e-01 2.703620e-01 1.501732e-01 1.969854e-01 2.496190e-01 6.348711e-02 -1.946658e-02 3.429952e-01 3.025946e-01 1.712233e-02 -5.104148e-02 -1.513682e-01 -4.048892e-01 1.202113e-01 -4.523791e-02 7.940341e-02 4.460075e-02 7.860273e-02 -7.247900e-02 -5.362542e-02 -1.106719e-01 -1.374075e-01 -7.968958e-02 4.892924e-02 -1.055549e-02 1.977443e-01
<VARIANCE> 39
 6.368852e+01 3.186855e+01 2.580447e+01 3.454773e+01 2.866480e+01 2.235672e+01 2.831550e+01 2.781991e+01 3.901504e+01 2.835217e+01 4.630294e+01 1.969341e+01 9.881351e+01 8.151753e-01 1.443102e+00 9.720030e-01 9.691365e-01 9.085002e-01 1.013297e+00 1.627753e+00 1.610095e+00 1.565155e+00 1.148982e+00 1.252259e+00 1.166830e+00 1.521589e+00 2.272989e-01 2.900329e-01 2.098915e-01 1.953993e-01 1.741198e-01 2.012952e-01 2.768919e-01 3.020041e-01 3.860062e-01 2.228572e-01 2.367555e-01 1.999311e-01 2.958914e-01
<GCONST> 1.015374e+02
<STATE> 3
<MEAN> 39
 -1.119755e+01 1.807516e+00 -1.422883e+00 -1.550887e+00 -5.002800e-01 -3.749754e-01 1.819277e+00 -2.051394e+00 -2.728294e+00 1.253671e-01 9.371686e-01 -8.008408e-01 6.484420e+01 2.330232e-01 3.290048e-01 2.790450e-01 1.379444e-01 3.281516e-01 -1.767433e-01 -1.733434e-01 2.899075e-02 -8.895700e-02 -1.009672e-01 1.984033e-02 -1.589515e-01 1.714764e-01 1.693859e-01 -5.229677e-02 6.559795e-02 4.603637e-02 -2.669675e-02 -6.384495e-02 -1.984738e-02 -9.011984e-02 -8.533798e-02 -7.270782e-02 7.079743e-03 4.133536e-02 2.202553e-01
<VARIANCE> 39
 6.820151e+01 2.805047e+01 2.715086e+01 3.483992e+01 3.040076e+01 2.294864e+01 3.174767e+01 3.291927e+01 4.021091e+01 3.545830e+01 4.592886e+01 1.650728e+01 9.462982e+01 2.507794e+00 2.362749e+00 1.481438e+00 1.563075e+00 1.452469e+00 1.681427e+00 2.381638e+00 2.318551e+00 2.892482e+00 1.616646e+00 1.408581e+00 1.096324e+00 3.466731e+00 4.382683e-01 3.684034e-01 2.474020e-01 2.318109e-01 2.714901e-01 2.759036e-01 3.583844e-01 3.900396e-01 4.871071e-01 2.741826e-01 2.948980e-01 2.513324e-01 4.762325e-01
<GCONST> 1.118711e+02
<STATE> 4
<MEAN> 39
 -1.049644e+01 3.471598e+00 -1.703400e+00 2.176136e-01 7.102369e-01 1.200296e-01 2.847950e+00 2.404214e-01 -1.674971e+00 2.520970e+00 3.850069e+00 2.345990e-01 6.537175e+01 -4.249557e-01 -6.601233e-02 5.996629e-02 6.265344e-02 8.469687e-02 1.889224e-01 1.385226e-01 2.667527e-01 3.535817e-01 -8.126442e-02 -7.922655e-02 1.046480e-01 -2.773037e-01 3.424123e-02 -1.389015e-01 -5.333465e-02 -4.644903e-02 -8.882983e-02 -6.705567e-02 -1.108726e-02 -1.092785e-01 -1.134800e-01 -3.576517e-02 -2.169444e-02 -4.474760e-03 1.087731e-01
<VARIANCE> 39
 5.903098e+01 2.454278e+01 2.203138e+01 2.441188e+01 2.538349e+01 3.674607e+01 2.840043e+01 2.987233e+01 5.445719e+01 2.495019e+01 3.355202e+01 1.204989e+01 6.009571e+01 3.927790e+00 2.245558e+00 1.592832e+00 1.295983e+00 1.406545e+00 2.262747e+00 2.312848e+00 2.498056e+00 3.620116e+00 1.279410e+00 1.541652e+00 1.037949e+00 3.228571e+00 3.540892e-01 3.330676e-01 2.366262e-01 2.129649e-01 2.383064e-01 3.503523e-01 3.912803e-01 3.858107e-01 4.300744e-01 2.456150e-01 2.748169e-01 2.021775e-01 3.252824e-01
<GCONST> 1.093653e+02
<TRANSP> 5
 0.000000e+00 1.000000e+00 0.000000e+00 0.000000e+00 0.000000e+00
 0.000000e+00 1.658572e-01 8.341428e-01 0.000000e+00 0.000000e+00
 0.000000e+00 0.000000e+00 2.051465e-01 7.948535e-01 0.000000e+00
 0.000000e+00 0.000000e+00 0.000000e+00 6.495056e-01 3.504944e-01
 0.000000e+00 0.000000e+00 0.000000e+00 0.000000e+00 0.000000e+00
<ENDHMM>
~h "b"
<BEGINHMM>
<NUMSTATES> 5
<STATE> 2
<MEAN> 39
 -9.545921e-01 -8.592203e+00 -1.800529e+00 -7.611764e+00 -4.682085e+00 -5.495144e-01 4.743513e+00 -6.286141e+00 6.054965e-01 -1.224964e+01 -4.888030e+00 9.547930e+00 8.198356e+01 -1.996133e-02 -1.937070e-01 -4.209193e-02 -1.052696e-01 -1.885067e-01 -6.142397e-02 1.144122e-01 -2.030532e-01 -1.171941e-01 1.953762e-01 1.552936e-01 1.104342e-02 5.149171e-02 -1.251914e-02 3.439061e-02 2.128606e-02 9.574387e-02 3.957227e-02 3.801599e-03 -3.420947e-02 -6.622286e-02 -3.999902e-02 -7.283015e-04 -8.092937e-02 -1.131590e-01 -3.467407e-02
<VARIANCE> 39
 1.023515e+01 2.902809e+01 1.248722e+01 4.761307e+01 3.183028e+01 2.008768e+01 9.322061e+00 2.279254e+01 1.443597e+01 1.813303e+01 3.949945e+01 4.542803e+01 2.647066e+01 2.519424e-01 1.247705e+00 7.745169e-01 2.824976e+00 1.174255e+00 1.697678e+00 8.455346e-01 1.262716e+00 1.208761e+00 8.157489e-01 3.783991e+00 3.980825e+00 6.401614e-01 2.898815e-02 1.270246e-01 1.262431e-01 3.272463e-01 1.522315e-01 3.267413e-01 1.394746e-01 1.644237e-01 2.351730e-01 1.757205e-01 5.129870e-01 5.267647e-01 7.476623e-02
<GCONST> 9.189251e+01
<STATE> 3
<MEAN> 39
 -1.346123e+01 3.580488e+00 1.020912e+00 2.690916e+00 3.407187e+00 3.374938e+00 4.128664e+00 -3.876719e-01 3.514274e-01 -7.859929e-01 -1.269506e+00 -1.831186e+00 6.165813e+01 -9.507002e-01 -9.086778e-01 -8.094264e-01 -7.768664e-01 -9.667065e-01 -6.687613e-01 -4.019824e-01 -1.787811e-01 7.368401e-03 4.759420e-02 5.256120e-03 -8.395299e-03 -6.544390e-01 1.117658e-01 9.576900e-02 5.205574e-02 -8.758761e-03 -6.424810e-02 -2.651419e-02 -1.394378e-01 -1.693369e-01 -2.018230e-01 -1.411630e-01 7.074401e-04 2.655701e-02 4.731954e-02
<VARIANCE> 39
 4.140275e+01 3.209085e+01 9.983979e+00 2.042532e+01 3.517055e+01 2.165672e+01 1.948439e+01 4.348644e+01 2.804425e+01 2.427342e+01 2.668436e+01 1.639313e+01 6.134509e+01 5.648049e-01 7.319859e-01 9.650913e-01 1.563138e+00 1.417064e+00 1.175388e+00 1.736801e+00 1.868123e+00 1.491635e+00 9.035291e-01 1.376455e+00 9.447796e-01 4.117581e-01 9.345228e-02 1.366498e-01 1.492340e-01 1.902398e-01 2.198703e-01 2.487584e-01 3.768746e-01 4.323646e-01 2.863719e-01 1.538647e-01 3.197118e-01 2.283096e-01 4.874753e-02
<GCONST> 9.377067e+01
<STATE> 4
<MEAN> 39
 -1.972635e+01 1.019085e+00 -3.430938e+00 -1.704452e+00 -5.487568e-01 1.703156e+00 3.472867e+00 2.901779e+00 2.559257e+00 8.251379e-01 5.266436e-01 -6.752351e-02 5.756876e+01 -3.785938e-02 -4.377258e-02 -6.719799e-02 -5.706477e-02 -7.379904e-02 -5.772886e-02 -6.118808e-02 -1.239026e-02 -2.548035e-02 -5.871509e-02 -4.732173e-02 -2.738869e-02 -4.490241e-02 3.412445e-02 3.232354e-02 4.504126e-02 5.953989e-02 6.910557e-02 4.336406e-02 2.552100e-02 3.540359e-03 -5.226616e-03 1.362707e-02 7.523994e-03 1.876031e-03 2.623457e-02
<VARIANCE> 39
 1.167251e+01 6.101905e+00 6.194437e+00 6.353989e+00 8.528855e+00 1.203623e+01 9.307327e+00 2.005990e+01 1.693609e+01 1.295224e+01 1.002542e+01 7.547308e+00 2.915210e+01 1.486504e-01 2.128754e-01 3.664848e-01 6.777526e-01 6.865922e-01 8.114843e-01 8.916773e-01 9.502140e-01 1.058646e+00 1.238465e+00 8.505557e-01 8.951019e-01 8.313967e-02 3.760415e-02 5.790407e-02 7.584547e-02 1.331880e-01 1.442658e-01 1.587878e-01 1.927625e-01 1.973056e-01 2.391929e-01 2.561263e-01 1.588048e-01 1.770567e-01 1.918284e-02
<GCONST> 6.639268e+01
<TRANSP> 5
 0.000000e+00 1.000000e+00 0.000000e+00 0.000000e+00 0.000000e+00
 0.000000e+00 9.351323e-01 6.486767e-02 0.000000e+00 0.000000e+00
 0.000000e+00 0.000000e+00 7.104971e-01 2.895029e-01 0.000000e+00
 0.000000e+00 0.000000e+00 0.000000e+00 9.320799e-01 6.792016e-02
 0.000000e+00 0.000000e+00 0.000000e+00 0.000000e+00 0.000000e+00
<ENDHMM>
~h "d"
<BEGINHMM>
<NUMSTATES> 5
<STATE> 2
<MEAN> 39
 -8.469271e+00 4.577625e+00 5.627147e+00 7.550460e+00 6.238910e+00 -7.882345e-01 -4.472926e+00 -5.407775e+00 -5.137913e+00 -3.056843e+00 1.744395e+00 -1.801433e+00 6.844318e+01 4.772100e-01 -7.155180e-01 7.175091e-01 1.114694e+00 6.922492e-01 -7.857511e-01 -1.474301e+00 -4.676251e-01 -6.071566e-01 -4.853560e-01 1.987149e-01 -4.837579e-01 9.040216e-01 3.129937e-02 -4.256127e-02 -1.335726e-01 -3.278813e-02 -4.548536e-03 -6.965204e-02 -6.804574e-03 9.261611e-02 -1.258466e-01 -1.080311e-01 5.622780e-02 5.262067e-02 -2.767981e-02
<VARIANCE> 39
 2.780851e+01 5.652748e+01 3.511803e+01 5.698997e+01 4.758804e+01 2.408993e+01 5.850049e+01 4.003250e+01 4.252522e+01 2.986740e+01 3.351415e+01 1.560032e+01 4.986871e+01 2.125225e+00 5.927016e+00 2.564213e+00 3.573581e+00 2.664046e+00 2.911187e+00 4.552675e+00 3.885973e+00 5.552848e+00 2.505683e+00 2.740870e+00 1.337913e+00 3.077875e+00 2.263412e-01 9.024514e-01 3.728276e-01 5.137550e-01 3.938103e-01 5.223686e-01 8.663895e-01 6.748877e-01 6.791697e-01 3.906068e-01 3.858782e-01 2.348921e-01 4.181538e-01
<GCONST> 1.235255e+02
<STATE> 3
<MEAN> 39
 -5.996741e+00 1.897404e+00 6.372007e+00 1.042936e+01 6.366728e+00 -5.333260e+00 -8.265768e+00 -5.466548e+00 -8.325649e+00 -3.548544e+00 3.513886e+00 -4.205120e+00 7.150077e+01 -2.349264e-01 2.876614e-01 -1.197727e-01 -1.851486e-01 -1.505610e-01 2.021243e-01 4.280742e-01 1.435704e-01 1.621299e-01 2.314389e-01 -1.360610e-03 8.088464e-02 -4.533817e-01 -6.645652e-02 3.123938e-02 -3.958153e-02 -1.204042e-01 -5.306217e-02 1.257510e-01 1.528322e-01 3.700060e-02 1.192645e-01 9.385532e-02 -2.431104e-02 4.205095e-02 -6.193852e-02
<VARIANCE> 39
 1.480954e+01 3.755265e+01 4.590992e+01 7.649107e+01 3.002097e+01 2.148373e+01 3.376384e+01 3.732088e+01 5.192422e+01 4.684746e+01 7.955351e+01 1.685327e+01 3.078646e+01 3.608147e-01 1.243383e+00 1.111878e+00 1.567971e+00 7.920054e-01 1.336049e+00 1.384766e+00 1.373594e+00 2.344730e+00 1.031454e+00 2.044120e+00 9.822646e-01 7.750439e-01 5.233512e-02 1.831105e-01 1.687836e-01 2.559620e-01 1.636087e-01 2.377970e-01 2.884904e-01 2.408992e-01 3.837197e-01 2.025200e-01 3.182802e-01 1.778940e-01 7.578756e-02
<GCONST> 9.826543e+01
<STATE> 4
<MEAN> 39
 -1.657045e+01 3.660763e+00 -2.338948e-01 1.495170e+00 1.581355e+00 2.030473e+00 2.403244e+00 1.767127e+00 2.711086e+00 1.893544e+00 1.192872e+00 -1.304213e-01 6.041228e+01 -5.003848e-01 -1.577099e-01 -1.528900e-01 -2.390843e-01 -1.005699e-01 2.584111e-01 3.850332e-01 3.650770e-01 2.766217e-01 3.290725e-02 -7.798909e-02 7.601167e-02 -4.104432e-01 5.676806e-02 -3.891538e-02 2.788345e-02 4.739329e-03 6.391048e-04 -3.165159e-02 -2.548628e-02 -5.815581e-02 -7.549363e-02 -4.235105e-02 8.132105e-03 -2.614133e-03 1.057244e-01
<VARIANCE> 39
 2.727679e+01 1.827245e+01 2.103831e+01 2.860725e+01 2.121564e+01 1.389769e+01 1.978399e+01 3.691238e+01 2.855764e+01 1.587632e+01 1.295843e+01 1.045596e+01 2.101137e+01 6.206345e-01 7.757442e-01 9.139438e-01 1.011573e+00 9.947274e-01 1.433881e+00 1.395037e+00 1.210885e+00 1.630872e+00 9.875830e-01 9.235201e-01 7.550511e-01 5.794210e-01 7.299380e-02 1.397794e-01 1.495934e-01 1.476859e-01 1.804296e-01 2.618989e-01 2.396921e-01 2.221054e-01 2.833871e-01 1.894578e-01 1.686013e-01 1.532891e-01 8.045552e-02
<GCONST> 8.679656e+01
<TRANSP> 5
 0.000000e+00 1.000000e+00 0.000000e+00 0.000000e+00 0.000000e+00
 0.000000e+00 7.240763e-01 2.759237e-01 0.000000e+00 0.000000e+00
 0.000000e+00 0.000000e+00 8.554099e-01 1.445901e-01 0.000000e+00
 0.000000e+00 0.000000e+00 0.000000e+00 8.137203e-01 1.862797e-01
 0.000000e+00 0.000000e+00 0.000000e+00 0.000000e+00 0.000000e+00
<ENDHMM>
~h "e"
<BEGINHMM>
<NUMSTATES> 5
<STATE> 2
<MEAN> 39
 -6.566390e+00 -2.886712e+00 -2.358693e+00 -5.304878e+00 -4.181961e+00 -1.016306e+00 4.809977e+00 -8.510494e+00 -5.483994e+00 9.292093e-01 -1.436643e+00 -1.044739e+00 7.410825e+01 1.264059e+00 -1.945869e-01 5.877343e-02 1.159152e-01 -4.580617e-03 -2.287165e-01 2.046677e-01 -7.977472e-01 -7.677748e-01 1.673876e-01 -3.499703e-02 3.338707e-01 1.477988e+00 2.375599e-02 -1.229281e-01 2.728385e-02 2.974379e-02 8.633154e-03 -1.058169e-01 -1.185734e-01 -9.447880e-02 3.968115e-02 2.097710e-02 1.162712e-01 1.090845e-01 5.451494e-02
<VARIANCE> 39
 7.223949e+01 3.726030e+01 3.154170e+01 6.441769e+01 5.866531e+01 2.686065e+01 4.410933e+01 5.321614e+01 4.974960e+01 5.366206e+01 5.067331e+01 1.387185e+01 1.048292e+02 3.223153e+00 3.893045e+00 2.800711e+00 4.522758e+00 3.115319e+00 2.615750e+00 2.972811e+00 2.274295e+00 3.364548e+00 3.068279e+00 2.765751e+00 1.263332e+00 5.298073e+00 6.745130e-01 4.844722e-01 4.244011e-01 6.887298e-01 5.104557e-01 4.303902e-01 4.645551e-01 4.522397e-01 6.089239e-01 5.980646e-01 5.042914e-01 2.447502e-01 9.868833e-01
<GCONST> 1.272035e+02
<STATE> 3
<MEAN> 39
 -2.977924e+00 -7.436562e+00 -1.722895e-01 -2.646862e+00 4.496932e-02 -1.038357e+00 8.017604e-01 -1.558054e+01 -6.302780e+00 -5.583415e-01 -2.614201e-01 2.682124e+00 7.941153e+01 3.956290e-02 3.934790e-01 1.724346e-01 9.206818e-01 4.311695e-01 -1.168770e-01 -6.711276e-01 -7.751879e-02 1.324566e-01 -4.903057e-01 1.523282e-02 3.468733e-02 -2.855430e-01 -2.128874e-01 1.116132e-01 8.307068e-02 6.061525e-02 -3.469505e-02 7.410980e-02 -4.838877e-03 1.773815e-01 1.664738e-01 -6.323865e-02 -1.390307e-01 -1.727698e-01 -1.909555e-01
<VARIANCE> 39
 1.240832e+01 5.338504e+01 2.620723e+01 6.217286e+01 2.883166e+01 1.757818e+01 4.000205e+01 4.798541e+01 4.040040e+01 3.265641e+01 4.443011e+01 2.340436e+01 3.463527e+01 1.469924e+00 2.953417e+00 1.760225e+00 3.410154e+00 1.281517e+00 2.351830e+00 2.839106e+00 2.350530e+00 2.727270e+00 1.844741e+00 3.225866e+00 2.457366e+00 1.621313e+00 1.419942e-01 4.374155e-01 2.737395e-01 3.370225e-01 1.692616e-01 3.234380e-01 2.883178e-01 3.085407e-01 2.907198e-01 3.212227e-01 5.583714e-01 4.572194e-01 1.536695e-01
<GCONST> 1.113686e+02
<STATE> 4
<MEAN> 39
 -5.284055e+00 8.172725e-01 1.412212e+00 8.201905e+00 5.342287e+00 -3.330798e+00 -4.368116e+00 -1.060799e+01 -1.350951e+01 -9.993993e-01 6.859415e+00 -2.813835e-01 7.205601e+01 -5.115451e-01 2.566233e-01 1.419100e-01 1.066931e-01 1.187014e-01 2.094690e-01 1.106878e-01 6.035004e-01 1.021305e+00 2.518878e-01 -4.369488e-01 -2.553486e-01 -5.434003e-01 -2.399031e-01 -6.570882e-02 -3.814494e-02 -3.344716e-01 -1.309650e-01 1.045456e-01 1.641132e-01 3.243586e-01 4.620696e-01 1.220253e-01 -1.286527e-01 -1.624472e-02 -1.405714e-01
<VARIANCE> 39
 1.871662e+01 3.765817e+01 2.204255e+01 4.118549e+01 1.964746e+01 4.333434e+01 3.202613e+01 4.580719e+01 7.894543e+01 3.004291e+01 5.927593e+01 1.702881e+01 2.309995e+01 2.973368e+00 3.894861e+00 1.704744e+00 4.698953e+00 1.629777e+00 4.810642e+00 3.410404e+00 4.660710e+00 8.956985e+00 1.683871e+00 4.175296e+00 2.065048e+00 3.369665e+00 2.275265e-01 5.620567e-01 2.933636e-01 5.350468e-01 2.215632e-01 6.624427e-01 4.254065e-01 6.514722e-01 7.285889e-01 2.896582e-01 4.616916e-01 2.243607e-01 2.469171e-01
<GCONST> 1.200183e+02
<TRANSP> 5
 0.000000e+00 1.000000e+00 0.000000e+00 0.000000e+00 0.000000e+00
 0.000000e+00 6.482041e-01 3.517959e-01 0.000000e+00 0.000000e+00
 0.000000e+00 0.000000e+00 6.916434e-01 3.083566e-01 0.000000e+00
 0.000000e+00 0.000000e+00 0.000000e+00 7.119347e-01 2.880653e-01
 0.000000e+00 0.000000e+00 0.000000e+00 0.000000e+00 0.000000e+00
<ENDHMM>
~h "f"
<BEGINHMM>
<NUMSTATES> 5
<STATE> 2
<MEAN> 39
 -8.602505e+00 -8.290344e+00 1.370955e+01 1.740652e+01 1.240711e+01 -5.124908e+00 -1.348999e+01 -1.281195e+01 -4.841470e+00 -9.183714e+00 -5.356426e+00 -1.053635e+01 7.784837e+01 -1.701039e-01 -1.482685e-01 3.094727e-01 -1.261413e-02 1.047329e-01 1.077167e-01 -4.175424e-01 -9.408201e-02 1.660680e-01 8.598395e-02 -1.262212e-01 -2.278234e-01 6.713971e-02 -7.648562e-03 2.714874e-01 -1.525554e-01 -2.648708e-01 -2.047063e-01 2.428395e-01 3.865905e-01 1.687248e-01 4.401677e-02 5.443230e-02 2.029942e-02 1.967405e-01 -2.146022e-01
<VARIANCE> 39
 3.743191e+00 1.906810e+01 2.674590e+01 1.110433e+01 1.443054e+01 3.953425e+00 1.340859e+01 7.380170e+00 8.234027e+00 1.668773e+01 2.098530e+01 9.335181e+00 8.264918e+00 1.853643e-01 2.500885e+00 3.854225e+00 1.700933e+00 1.518512e+00 1.097995e+00 3.708962e+00 9.461677e-01 2.567275e+00 4.711399e-01 2.939947e+00 1.489200e+00 1.324072e+00 5.460216e-02 3.511013e-01 3.936656e-01 2.080115e-01 3.648770e-01 1.953131e-01 4.972789e-01 1.340969e-01 5.195490e-01 1.414293e-01 4.759701e-01 1.141274e-01 1.723314e-01
<GCONST> 8.832800e+01
<STATE> 3
<MEAN> 39
 -8.019751e+00 -7.112482e-01 4.853739e+00 5.070535e+00 7.536732e+00 4.554052e+00 -3.569975e+00 -5.586177e+00 2.299341e+00 -2.884706e+00 -4.661455e+00 -3.681736e+00 7.274483e+01 -5.764561e-01 2.527005e-01 -2.362598e-01 -1.500791e+00 -1.071241e+00 7.582891e-01 1.764547e+00 1.020419e+00 5.502491e-01 2.287000e-01 -2.203296e-01 8.304464e-01 -5.235585e-01 -3.323791e-01 -3.340670e-01 1.574561e-01 -1.216612e-01 9.369597e-02 -2.381058e-01 -6.865232e-02 -1.909041e-01 -5.339867e-01 -2.551780e-01 4.253474e-01 -2.521288e-02 1.256195e-01
<VARIANCE> 39
 3.454598e+00 1.960869e+01 8.144007e+00 2.579390e+01 9.780334e+00 1.891183e+01 4.068687e+01 2.479208e+01 7.370318e+00 2.652731e+01 1.614893e+01 9.370386e+00 8.190681e+00 1.275653e+00 1.320364e+00 1.347409e+00 2.488159e+00 2.706316e+00 2.000329e+00 1.548187e+00 1.465637e+00 2.935635e+00 2.078953e+00 2.456551e+00 9.500245e-01 9.741898e-01 2.351711e-01 3.804625e-01 1.916405e-01 5.712459e-01 5.961488e-01 1.997582e-01 3.997802e-01 2.768843e-01 4.332625e-01 2.806847e-01 6.245303e-01 2.348161e-01 2.383679e-01
<GCONST> 9.822908e+01
<STATE> 4
<MEAN> 39
 -1.841329e+01 -3.207298e+00 4.492067e+00 -6.770029e+00 3.122377e+00 3.051467e+00 5.047969e-01 -6.135154e+00 -5.276825e-01 -4.118477e+00 1.003382e+00 6.416708e-02 7.217715e+01 4.507425e-01 -1.952467e-01 -3.093821e-01 -6.457552e-01 -8.881340e-01 -8.493937e-01 4.578952e-02 -2.711819e-02 -5.980834e-02 -2.448940e-01 -1.589099e-01 5.587006e-02 5.820192e-01 7.796856e-01 1.678149e-01 -1.637383e-01 4.034764e-01 -2.034232e-01 -3.255434e-01 -1.877439e-01 -4.829679e-02 -3.761071e-02 1.476124e-01 -2.267717e-01 -1.834410e-01 1.736435e-01
<VARIANCE> 39
 4.815598e+01 3.274276e+01 1.523708e+01 2.770387e+01 4.218311e+01 2.285831e+01 2.318447e+01 2.204530e+01 9.070765e+00 2.181953e+01 1.757938e+01 1.608670e+01 1.471374e+01 1.547357e+01 6.238155e+00 1.806642e+00 6.222376e+00 2.926098e+00 5.362190e+00 1.960863e+00 2.886110e+00 1.256153e+00 3.190132e+00 2.334552e+00 1.563723e+00 1.840252e+00 1.269361e+00 1.224924e+00 3.712588e-01 7.924193e-01 4.510186e-01 6.972265e-01 3.862736e-01 5.151702e-01 2.756414e-01 4.156381e-01 3.143424e-01 2.042231e-01 4.640909e-01
<GCONST> 1.173500e+02
<TRANSP> 5
 0.000000e+00 1.000000e+00 0.000000e+00 0.000000e+00 0.000000e+00
 0.000000e+00 8.948827e-01 1.051173e-01 0.000000e+00 0.000000e+00
 0.000000e+00 0.000000e+00 8.354806e-01 1.645193e-01 0.000000e+00
 0.000000e+00 0.000000e+00 0.000000e+00 8.929389e-01 1.070611e-01
 0.000000e+00 0.000000e+00 0.000000e+00 0.000000e+00 0.000000e+00
<ENDHMM>
~h "g"
<BEGINHMM>
<NUMSTATES> 5
<STATE> 2
<MEAN> 39
 -1.192554e+00 -4.917886e+00 1.124139e-01 -7.154744e+00 -4.720339e+00 -3.959435e+00 2.329921e+00 -5.974990e+00 5.031999e-01 -1.120802e+01 -7.435210e+00 6.193351e+00 8.109727e+01 2.081987e-02 -4.394135e-02 -2.042544e-02 -2.334689e-02 -1.388837e-01 -7.007140e-02 1.126947e-01 -3.523489e-02 -2.961707e-02 5.607243e-02 -2.380878e-02 7.038742e-02 2.971837e-02 -1.273140e-02 1.067450e-02 1.390280e-02 5.543681e-02 5.026165e-02 5.998765e-02 -1.666224e-02 -2.807845e-02 9.679186e-03 9.411212e-03 -1.473320e-02 -2.984775e-02 -1.853768e-02
<VARIANCE> 39
 6.064378e+00 5.152832e+01 1.705098e+01 3.251680e+01 2.908068e+01 6.358049e+01 3.602640e+01 1.688311e+01 2.103361e+01 1.951911e+01 3.252155e+01 4.691748e+01 1.441878e+01 3.483925e-01 1.733350e+00 1.397551e+00 2.478232e+00 1.088133e+00 3.180921e+00 1.932813e+00 9.987232e-01 1.914687e+00 1.252053e+00 2.330408e+00 2.581743e+00 7.570044e-01 6.845392e-02 1.351867e-01 1.934931e-01 3.246459e-01 1.614804e-01 4.178333e-01 2.581025e-01 1.649284e-01 3.423915e-01 2.189257e-01 3.299398e-01 3.444971e-01 9.871036e-02
<GCONST> 9.833289e+01
<STATE> 3
<MEAN> 39
 -1.494897e+00 -3.843969e+00 2.895653e-01 -1.849533e+00 -6.104881e+00 -2.553410e+00 7.278069e-01 -7.481486e+00 -9.801285e-01 -4.854088e+00 -5.381052e+00 9.834799e-01 7.857335e+01 -2.328494e-01 4.193255e-02 -3.163232e-02 4.750272e-01 9.900217e-01 3.373148e-01 -4.343306e-01 -2.038817e-01 1.078416e-01 4.290810e-01 -9.050232e-02 -2.905072e-01 -2.596214e-01 -5.099723e-02 1.859039e-01 6.690556e-02 8.003606e-02 1.135968e-01 -8.250807e-02 -7.186365e-02 8.375213e-02 -1.831558e-02 -7.721795e-02 3.355058e-03 -1.211883e-01 -1.269799e-01
<VARIANCE> 39
 1.288651e+01 2.148032e+01 3.012243e+01 1.391672e+01 2.114583e+01 1.710828e+01 2.068444e+01 4.237687e+01 1.163019e+02 3.519551e+01 1.694017e+02 9.270097e+00 1.836078e+01 1.433378e-01 1.267740e+00 8.481622e-01 7.853650e-01 7.992385e-01 1.373470e+00 1.637776e+00 1.341926e+00 1.437433e+00 1.639029e+00 2.023497e+00 1.089768e+00 5.032994e-01 2.582046e-02 1.241957e-01 1.305404e-01 1.316147e-01 1.357332e-01 1.918684e-01 1.940845e-01 2.190456e-01 2.452748e-01 2.696717e-01 4.088215e-01 1.820138e-01 5.725240e-02
<GCONST> 8.953580e+01
<STATE> 4
<MEAN> 39
 -5.235507e+00 -3.147186e+00 3.770542e+00 5.260432e+00 6.401648e+00 -2.369526e+00 -4.279803e+00 -1.191905e+01 -1.083473e+01 -5.145193e+00 2.248283e+00 -2.563740e+00 7.473677e+01 -1.863788e-02 1.681477e-01 3.218329e-02 2.775281e-01 3.209133e-01 4.113025e-02 -1.187398e-01 -5.377246e-02 -3.652954e-01 -3.569286e-02 3.139603e-01 -1.423760e-01 -1.819673e-01 -2.055847e-02 -6.915133e-03 6.345148e-03 -4.055788e-02 -8.710334e-02 1.346916e-03 4.841428e-02 6.289868e-02 8.022210e-02 1.435090e-02 -4.434468e-02 2.351563e-02 -1.802716e-02
<VARIANCE> 39
 1.790280e+01 6.519810e+01 2.449368e+01 3.575613e+01 2.282777e+01 3.325496e+01 4.788424e+01 5.037820e+01 8.447620e+01 2.746257e+01 5.706174e+01 2.078786e+01 5.983932e+01 1.133475e+00 3.928305e+00 1.845293e+00 2.380714e+00 1.777816e+00 2.314331e+00 3.294929e+00 2.576812e+00 4.274465e+00 2.102267e+00 2.803981e+00 1.606976e+00 3.400908e+00 1.146194e-01 5.881860e-01 3.151390e-01 4.203933e-01 3.160681e-01 4.299981e-01 5.742666e-01 3.407749e-01 5.383005e-01 3.770598e-01 3.682968e-01 2.745191e-01 4.197217e-01
<GCONST> 1.172073e+02
<TRANSP> 5
 0.000000e+00 1.000000e+00 0.000000e+00 0.000000e+00 0.000000e+00
 0.000000e+00 9.575345e-01 4.246551e-02 0.000000e+00 0.000000e+00
 0.000000e+00 0.000000e+00 8.988028e-01 1.011972e-01 0.000000e+00
 0.000000e+00 0.000000e+00 0.000000e+00 9.419440e-01 5.805596e-02
 0.000000e+00 0.000000e+00 0.000000e+00 0.000000e+00 0.000000e+00
<ENDHMM>
~h "i"
<BEGINHMM>
<NUMSTATES> 5
<STATE> 2
<MEAN> 39
 -4.638507e+00 -1.490983e+00 1.732726e-01 -1.027248e-01 -1.290260e+00 -2.896698e+00 2.070159e+00 -9.271043e+00 -7.546154e+00 -5.120033e-02 1.383200e+00 -8.289503e-01 7.395364e+01 -4.381024e-01 8.191413e-01 1.160932e-01 -3.116553e-01 -1.509837e-01 6.469426e-01 6.979594e-01 6.038212e-01 1.151596e+00 3.338266e-01 -6.966661e-01 2.025080e-02 -5.719646e-01 -2.631575e-01 -4.849500e-02 -4.819208e-02 1.267874e-02 3.728570e-02 9.475230e-02 3.613169e-02 2.108081e-01 2.197642e-01 2.673425e-02 1.730803e-02 7.655673e-02 -2.736270e-01
<VARIANCE> 39
 4.223461e+01 7.459607e+01 4.191294e+01 7.303706e+01 6.755360e+01 3.284146e+01 1.044491e+02 4.612539e+01 5.201723e+01 4.822327e+01 5.935993e+01 2.137276e+01 9.533109e+01 4.046052e+00 2.835240e+00 1.895922e+00 2.846502e+00 2.103376e+00 2.496569e+00 4.659590e+00 2.258134e+00 4.238086e+00 2.318416e+00 2.281261e+00 1.395211e+00 6.610043e+00 2.739270e-01 3.487918e-01 2.557368e-01 2.451796e-01 2.531119e-01 2.940301e-01 5.189885e-01 2.306383e-01 3.690345e-01 3.092160e-01 3.232379e-01 2.351226e-01 3.850881e-01
<GCONST> 1.214030e+02
<STATE> 3
<MEAN> 39
 -1.092775e+01 4.209247e+00 4.128225e+00 5.184037e+00 4.788301e+00 2.525928e+00 -2.416049e-01 -4.637948e+00 -1.703293e+00 -9.245968e-01 -5.162418e-01 -1.812339e+00 6.615389e+01 -1.170079e+00 1.489988e-01 -6.244425e-01 -5.915563e-01 -1.477686e-01 8.456356e-01 1.245021e+00 1.316430e+00 1.462376e+00 6.429401e-01 -1.143903e-01 5.814680e-01 -1.289353e+00 1.234068e-01 -4.365782e-01 -2.272166e-01 -1.346497e-01 -1.594863e-01 -3.539660e-01 -8.866516e-02 -1.014022e-01 -3.501204e-01 -2.886917e-03 2.991955e-01 5.219809e-02 2.371472e-01
<VARIANCE> 39
 3.032467e+01 4.488688e+01 2.692956e+01 3.635582e+01 2.288024e+01 3.050901e+01 3.450817e+01 5.010805e+01 3.481200e+01 2.754498e+01 3.703431e+01 2.410947e+01 5.566813e+01 1.470578e+00 1.371117e+00 2.706101e+00 3.196648e+00 1.759313e+00 1.782717e+00 2.520405e+00 1.521126e+00 3.558088e+00 1.484394e+00 1.640744e+00 1.235923e+00 1.002044e+00 1.479159e-01 1.932827e-01 2.653976e-01 2.931754e-01 2.545515e-01 3.694691e-01 4.308269e-01 2.345485e-01 4.652399e-01 2.281974e-01 2.834645e-01 1.808961e-01 1.178653e-01
<GCONST> 1.070665e+02
<STATE> 4
<MEAN> 39
 -1.853581e+01 2.355515e+00 -1.580913e+00 2.531983e-01 1.176390e+00 2.053604e+00 3.278872e+00 2.760211e+00 3.376301e+00 2.015501e+00 1.160326e+00 -1.025412e-01 5.981314e+01 -2.936516e-01 -2.704032e-01 -2.819285e-01 -3.099740e-01 -2.797062e-01 -1.255230e-01 6.649389e-02 1.138556e-01 7.733552e-02 4.986790e-02 -5.598091e-03 2.022995e-02 -1.917947e-01 7.421177e-02 -1.196787e-04 6.432644e-02 4.579632e-02 6.686352e-03 -4.787793e-02 -7.130589e-02 -9.299304e-02 -1.234409e-01 -5.817433e-02 9.199184e-03 -4.536082e-02 7.948133e-02
<VARIANCE> 39
 2.111630e+01 1.297949e+01 1.347822e+01 1.580181e+01 1.350096e+01 1.212202e+01 1.396611e+01 2.800571e+01 1.949109e+01 1.281006e+01 1.201560e+01 8.492530e+00 2.127469e+01 3.751628e-01 4.710317e-01 7.641864e-01 9.237777e-01 8.818106e-01 9.158856e-01 1.247518e+00 1.153225e+00 1.084713e+00 9.551286e-01 7.905855e-01 7.864305e-01 2.312506e-01 6.269576e-02 9.108710e-02 1.224394e-01 1.591252e-01 1.629608e-01 2.016160e-01 2.258324e-01 2.337755e-01 2.737864e-01 2.127668e-01 1.525682e-01 1.612195e-01 3.833371e-02
<GCONST> 7.781617e+01
<TRANSP> 5
 0.000000e+00 1.000000e+00 0.000000e+00 0.000000e+00 0.000000e+00
 0.000000e+00 5.273916e-01 4.726084e-01 0.000000e+00 0.000000e+00
 0.000000e+00 0.000000e+00 4.885615e-01 5.114385e-01 0.000000e+00
 0.000000e+00 0.000000e+00 0.000000e+00 8.619156e-01 1.380844e-01
 0.000000e+00 0.000000e+00 0.000000e+00 0.000000e+00 0.000000e+00
<ENDHMM>
~h "j"
<BEGINHMM>
<NUMSTATES> 5
<STATE> 2
<MEAN> 39
 -5.289954e+00 3.212815e+00 -4.448547e+00 -5.497507e+00 -3.627793e+00 -2.679746e+00 2.148734e+00 -5.372619e+00 -4.112810e+00 1.791213e-01 -2.890232e-01 -2.598631e+00 6.814082e+01 -1.075792e+00 7.738104e-01 1.706721e-01 6.188514e-01 5.198320e-01 5.349016e-01 -8.936006e-01 6.681240e-01 4.975069e-01 -6.078858e-01 7.439446e-01 5.894842e-01 -1.800556e+00 2.805160e-04 -3.247071e-01 1.832162e-01 -7.673649e-02 -2.170190e-02 -1.335417e-01 2.145940e-01 -2.440527e-01 -6.150002e-02 1.469377e-01 -1.837724e-01 6.261086e-02 3.435500e-01
<VARIANCE> 39
 2.986933e+01 9.728151e+00 4.492104e+00 1.146469e+01 1.077313e+01 1.365981e+01 1.711900e+01 1.823132e+01 1.844722e+01 1.523962e+01 4.118060e+01 1.368407e+01 7.004681e+01 5.832089e-01 1.599387e+00 4.153874e-01 4.142451e-01 7.870652e-01 9.735360e-01 2.655147e+00 1.682006e+00 1.181892e+00 2.672589e+00 1.301848e+00 1.167012e+00 1.929235e+00 1.818836e-01 1.887832e-01 8.604825e-02 1.601686e-01 2.225365e-01 2.157420e-01 4.427789e-01 2.835932e-01 2.489558e-01 3.562591e-01 3.653407e-01 2.934010e-01 5.908175e-01
<GCONST> 9.192488e+01
<STATE> 3
<MEAN> 39
 -1.224443e+01 3.967532e-01 -1.785903e+00 -2.189844e+00 -1.624461e+00 -6.816697e-02 7.418749e-01 -5.921600e+00 -4.079361e+00 -2.718946e-02 3.043795e+00 1.966558e-01 6.254301e+01 7.379782e-01 -1.608978e+00 1.159003e+00 -7.504320e-01 -1.111271e+00 1.053759e-01 1.451387e+00 -1.154466e+00 -6.309700e-01 -9.365991e-01 -1.360987e+00 -2.495808e-01 3.843099e+00 6.657150e-01 -3.660679e-01 8.724662e-02 -5.096374e-01 -3.697858e-01 -3.338716e-01 4.605878e-01 6.793910e-02 -1.790879e-01 -9.720784e-02 -6.414880e-01 -9.196868e-02 1.238524e+00
<VARIANCE> 39
 5.004616e+01 1.330863e+01 1.700289e+01 1.251054e+01 1.590442e+01 1.671499e+01 2.085533e+01 2.387749e+01 2.602791e+01 1.602819e+01 3.425598e+01 9.048077e+00 8.633135e+01 3.101399e+00 4.382171e+00 1.127150e+00 5.178728e+00 3.107108e+00 1.946038e+00 5.679135e+00 2.370243e+00 3.559790e+00 4.097651e+00 5.885220e+00 1.079627e+00 1.577696e+01 5.127802e-01 3.559694e-01 4.230602e-01 4.262766e-01 3.730266e-01 3.953324e-01 6.793804e-01 4.322157e-01 4.672615e-01 6.221275e-01 7.410309e-01 3.068589e-01 1.510854e+00
<GCONST> 1.187636e+02
<STATE> 4
<MEAN> 39
 -2.273576e+00 -8.909986e+00 9.847162e-01 -1.198172e+01 -6.871764e+00 -1.391016e+00 1.091735e+01 -1.311288e+01 -6.988870e+00 2.456403e+00 -6.968076e+00 1.045320e+00 8.312791e+01 5.829374e-01 2.232000e-01 9.400424e-02 1.463100e-01 2.432720e-01 4.330374e-03 -1.198011e-01 -2.373130e-01 2.743216e-01 1.701458e-01 -3.216667e-01 1.200535e-01 3.926830e-01 -2.520559e-01 3.382588e-01 -4.456840e-02 3.432945e-01 1.776581e-01 1.038077e-01 -3.216762e-01 1.601805e-01 2.207622e-01 -4.209107e-02 1.019756e-01 -2.263491e-02 -6.419814e-01
<VARIANCE> 39
 2.314705e+01 3.775678e+01 9.757932e+00 3.027187e+01 2.510194e+01 1.597203e+01 4.091383e+01 3.273061e+01 1.657842e+01 6.927487e+01 4.191798e+01 2.437114e+01 1.883784e+01 2.822331e+00 3.446377e+00 1.484676e+00 2.984761e+00 1.746407e+00 1.839624e+00 3.450799e+00 3.424577e+00 2.157773e+00 7.644204e+00 3.255080e+00 1.293217e+00 6.827662e+00 2.723043e-01 3.367992e-01 2.610946e-01 2.940414e-01 3.090327e-01 3.467111e-01 3.532698e-01 4.839968e-01 3.121343e-01 1.374347e+00 5.390965e-01 1.979771e-01 5.355430e-01
<GCONST> 1.151409e+02
<TRANSP> 5
 0.000000e+00 1.000000e+00 0.000000e+00 0.000000e+00 0.000000e+00
 0.000000e+00 6.893275e-01 3.106725e-01 0.000000e+00 0.000000e+00
 0.000000e+00 0.000000e+00 4.931141e-01 5.068859e-01 0.000000e+00
 0.000000e+00 0.000000e+00 0.000000e+00 8.594112e-01 1.405888e-01
 0.000000e+00 0.000000e+00 0.000000e+00 0.000000e+00 0.000000e+00
<ENDHMM>
~h "k"
<BEGINHMM>
<NUMSTATES> 5
<STATE> 2
<MEAN> 39
 -1.378002e+01 -9.162122e-01 -1.710987e+00 -2.968544e+00 -2.536779e-01 6.136300e-01 2.697183e+00 -3.534690e+00 -4.556525e+00 4.699454e-01 3.696691e+00 3.724295e-02 6.654095e+01 1.523463e+00 -4.350433e-01 -1.441722e-01 -6.180663e-01 -9.490029e-01 -5.695236e-01 3.115084e-01 -5.719969e-01 -1.278427e+00 1.280858e-01 5.110688e-01 -5.376719e-03 1.689076e+00 2.381855e-01 -4.449682e-02 -6.876338e-02 6.729995e-02 -7.386062e-02 -9.592509e-02 -1.490422e-03 -6.688567e-02 -5.026237e-02 1.032845e-01 -7.218339e-02 -4.512145e-02 1.336837e-01
<VARIANCE> 39
 5.857761e+01 2.220977e+01 1.523402e+01 3.378157e+01 4.376858e+01 2.216825e+01 3.694258e+01 5.114423e+01 8.064629e+01 2.856099e+01 4.435415e+01 2.126532e+01 7.340381e+01 4.922431e+00 2.505295e+00 1.981676e+00 4.600828e+00 4.238396e+00 2.030234e+00 3.559262e+00 4.869234e+00 7.576842e+00 3.182747e+00 3.519506e+00 2.196235e+00 5.268910e+00 6.137180e-01 4.665527e-01 4.326156e-01 1.016168e+00 8.406996e-01 4.220888e-01 6.600046e-01 8.195683e-01 1.294231e+00 6.047610e-01 5.459605e-01 4.510618e-01 9.386767e-01
<GCONST> 1.295848e+02
<STATE> 3
<MEAN> 39
 -2.168092e+00 -4.625471e+00 -3.315280e+00 -6.972493e+00 -6.733136e+00 -3.125620e+00 6.550381e+00 -9.337772e+00 -7.415323e+00 3.521723e+00 -1.198085e+00 -1.622125e+00 7.783413e+01 -3.208794e-01 4.914815e-01 2.153652e-02 1.067434e-01 -6.871015e-03 -1.303713e-01 -6.223511e-02 3.988668e-01 5.845897e-01 -1.513198e-01 -2.480732e-01 -2.456425e-01 -6.250265e-01 -3.657961e-01 1.634275e-01 1.372531e-01 1.066257e-01 2.107161e-01 1.089994e-01 -1.629739e-01 9.406925e-02 1.124421e-01 -1.964268e-01 7.110478e-02 1.001416e-01 -3.598850e-01
<VARIANCE> 39
 3.736182e+01 3.344648e+01 1.048546e+01 2.260189e+01 2.316289e+01 2.303551e+01 4.748169e+01 4.740387e+01 4.365047e+01 2.204551e+01 9.964233e+01 2.519129e+01 7.663808e+01 1.705114e+00 2.281044e+00 1.029060e+00 1.873376e+00 1.339411e+00 1.194165e+00 1.833178e+00 1.260325e+00 2.320238e+00 2.039853e+00 1.362479e+00 1.174918e+00 2.358420e+00 3.058507e-01 3.265083e-01 1.898287e-01 2.465979e-01 2.620170e-01 2.797237e-01 2.825136e-01 2.527904e-01 3.963448e-01 2.810174e-01 3.136459e-01 2.337526e-01 2.362719e-01
<GCONST> 1.066471e+02
<STATE> 4
<MEAN> 39
 -6.891698e+00 1.245742e+00 -3.603526e+00 -2.045634e+00 -2.488425e+00 -2.146360e+00 1.050566e+00 -3.646031e+00 -6.179377e+00 2.869007e+00 6.145123e+00 1.357907e-02 6.924298e+01 -2.846932e-01 2.901832e-01 1.925720e-01 2.552218e-01 2.794386e-01 1.722534e-01 -3.499272e-02 8.731599e-02 3.574061e-01 1.194075e-01 -1.684562e-01 -1.692964e-02 -4.402202e-01 -1.414678e-03 4.482020e-02 9.657232e-02 4.213972e-02 8.085933e-02 9.065330e-03 -6.229468e-02 -2.604189e-02 8.931886e-03 -1.492721e-02 -2.731863e-02 -1.921401e-02 2.048197e-02
<VARIANCE> 39
 7.102552e+01 1.328069e+01 1.045347e+01 1.691460e+01 1.535641e+01 1.886173e+01 2.537931e+01 3.330129e+01 6.489911e+01 1.687503e+01 4.246889e+01 1.135420e+01 6.427594e+01 2.053150e+00 1.177859e+00 1.029644e+00 1.923526e+00 1.261596e+00 1.563176e+00 1.883525e+00 1.776409e+00 2.276950e+00 1.110798e+00 1.180344e+00 1.224863e+00 1.975536e+00 2.469840e-01 2.081016e-01 1.607278e-01 2.406187e-01 1.795779e-01 2.547792e-01 2.975803e-01 3.172875e-01 3.213170e-01 1.615007e-01 2.058180e-01 1.571241e-01 2.293050e-01
<GCONST> 9.935271e+01
<TRANSP> 5
 0.000000e+00 1.000000e+00 0.000000e+00 0.000000e+00 0.000000e+00
 0.000000e+00 7.791346e-01 2.208655e-01 0.000000e+00 0.000000e+00
 0.000000e+00 0.000000e+00 7.038649e-01 2.961351e-01 0.000000e+00
 0.000000e+00 0.000000e+00 0.000000e+00 7.482088e-01 2.517912e-01
 0.000000e+00 0.000000e+00 0.000000e+00 0.000000e+00 0.000000e+00
<ENDHMM>
~h "l"
<BEGINHMM>
<NUMSTATES> 5
<STATE> 2
<MEAN> 39
 -8.533021e+00 -4.756820e+00 1.222252e+01 1.130934e+01 6.457655e+00 -4.818481e+00 -6.148674e+00 -8.154581e+00 -4.451140e+00 -8.132510e+00 -1.761896e+00 -5.145898e+00 7.555159e+01 3.298633e-01 -1.494998e-01 1.423758e-01 -1.196479e-01 1.376178e-01 -2.581272e-01 -5.272327e-01 4.310377e-02 -2.463870e-01 -6.293099e-01 -2.093295e-01 -1.954954e-01 5.431490e-01 6.160804e-02 2.665307e-01 -1.711583e-01 -2.327472e-01 -8.982696e-02 1.458806e-01 1.425727e-01 7.417861e-02 1.579791e-02 5.259287e-02 2.436203e-02 1.031636e-01 -1.699915e-01
<VARIANCE> 39
 2.454518e+01 7.856394e+01 7.417933e+01 5.734455e+01 3.433037e+01 4.112335e+01 6.704970e+01 5.668002e+01 3.394733e+01 3.348891e+01 3.918962e+01 2.086646e+01 3.167102e+01 1.768573e+00 7.128198e+00 5.910209e+00 3.891902e+00 3.046664e+00 2.910889e+00 4.228163e+00 2.394143e+00 2.206916e+00 2.368483e+00 2.804615e+00 1.517515e+00 2.446545e+00 2.433313e-01 8.843011e-01 7.387670e-01 5.364665e-01 4.741565e-01 3.528115e-01 6.292484e-01 3.498422e-01 4.459280e-01 4.108064e-01 4.888321e-01 2.388703e-01 2.919475e-01
<GCONST> 1.236153e+02
<STATE> 3
<MEAN> 39
 -3.043237e+00 -3.096549e+00 3.012311e+00 -1.846753e+00 -4.181476e+00 -3.361632e+00 4.453957e+00 -7.760788e+00 -3.574079e+00 -5.689632e+00 -6.132917e+00 -6.223568e-02 7.841108e+01 8.698880e-03 1.008974e-02 -7.483162e-02 -1.772581e-01 -3.928276e-01 -4.327937e-02 3.569330e-01 4.013715e-03 -1.611835e-02 1.935290e-01 -1.089523e-02 9.530082e-02 -3.194387e-02 -5.565586e-02 -1.863002e-02 1.783121e-02 5.507033e-02 1.151659e-01 2.514987e-02 -9.634896e-02 -4.112672e-02 1.736300e-02 1.511499e-02 6.015603e-02 -8.396711e-03 -4.717778e-02
<VARIANCE> 39
 4.682254e+00 3.740417e+01 1.455474e+01 3.464799e+01 8.393040e+01 2.897485e+01 7.319484e+01 3.490508e+01 2.016106e+01 4.380771e+01 4.913102e+01 3.465852e+01 1.586745e+01 2.372909e-01 1.808556e+00 8.809508e-01 1.544424e+00 2.306121e+00 1.570165e+00 2.478277e+00 1.642303e+00 1.128504e+00 1.792958e+00 2.524417e+00 1.422742e+00 8.604143e-01 2.837103e-02 2.312132e-01 1.383498e-01 1.975149e-01 1.935664e-01 2.683035e-01 3.172724e-01 2.237197e-01 2.067231e-01 2.718817e-01 3.383833e-01 2.126978e-01 8.985872e-02
<GCONST> 9.753176e+01
<STATE> 4
<MEAN> 39
 -3.789043e+00 3.260229e+00 2.266407e+00 6.258632e+00 4.084767e+00 -5.061520e+00 -6.137024e+00 -5.241328e+00 -1.154155e+01 -1.908375e+00 8.584048e+00 -1.639639e+00 7.205369e+01 -3.343758e-02 4.668765e-02 -3.096341e-01 -3.424279e-01 -2.983289e-02 3.123074e-01 1.708308e-01 -9.656661e-02 1.379795e-01 2.805763e-01 1.010720e-01 1.017173e-01 -1.340416e-01 -4.015714e-02 -1.946882e-02 1.453496e-02 7.899608e-03 -1.412817e-02 5.115661e-02 4.096306e-02 -1.208058e-02 4.437774e-02 1.572246e-02 -2.683454e-02 2.517893e-02 -2.234053e-02
<VARIANCE> 39
 8.790924e+00 3.638549e+01 2.386199e+01 3.774782e+01 3.566183e+01 2.220876e+01 4.417859e+01 3.456079e+01 5.854870e+01 5.102217e+01 6.198968e+01 1.801157e+01 1.485884e+01 2.849486e-01 1.591317e+00 1.123141e+00 1.504197e+00 1.258274e+00 1.529037e+00 2.168475e+00 1.287709e+00 2.334893e+00 1.323289e+00 2.326622e+00 1.216858e+00 6.752130e-01 2.787129e-02 2.253358e-01 1.674992e-01 2.532606e-01 2.050221e-01 2.511172e-01 3.377042e-01 2.270673e-01 3.678946e-01 2.365266e-01 3.329518e-01 2.066237e-01 6.792279e-02
<GCONST> 9.759069e+01
<TRANSP> 5
 0.000000e+00 1.000000e+00 0.000000e+00 0.000000e+00 0.000000e+00
 0.000000e+00 8.291211e-01 1.708789e-01 0.000000e+00 0.000000e+00
 0.000000e+00 0.000000e+00 9.011325e-01 9.886753e-02 0.000000e+00
 0.000000e+00 0.000000e+00 0.000000e+00 9.000351e-01 9.996489e-02
 0.000000e+00 0.000000e+00 0.000000e+00 0.000000e+00 0.000000e+00
<ENDHMM>
~h "m"
<BEGINHMM>
<NUMSTATES> 5
<STATE> 2
<MEAN> 39
 -1.359672e+01 3.668708e+00 -8.226574e-01 -3.746958e-01 8.975737e-02 1.659877e+00 2.964225e+00 -5.041874e-01 4.819580e-01 -4.888990e-02 -3.304217e-01 -1.255265e+00 6.076258e+01 -7.486909e-01 -2.246211e-01 -4.808774e-01 -4.797824e-01 -1.933652e-01 -1.776706e-01 -2.426039e-01 3.080704e-01 1.604308e-01 1.095724e-01 1.944998e-01 3.495135e-01 -8.331770e-01 -1.213633e-02 -1.146878e-01 -1.050960e-02 -6.600324e-03 -8.183327e-04 -2.387583e-02 -1.075399e-01 -2.207564e-01 -1.757777e-01 6.935000e-05 -2.161594e-02 -7.704811e-02 7.834155e-02
<VARIANCE> 39
 3.320858e+01 1.140849e+01 2.249677e+01 2.403969e+01 2.768084e+01 1.968424e+01 1.416228e+01 1.964367e+01 1.846418e+01 1.255808e+01 1.272068e+01 8.423702e+00 4.143913e+01 8.317717e-01 8.045807e-01 8.530257e-01 1.206126e+00 1.218580e+00 1.042791e+00 1.058373e+00 1.648579e+00 1.527878e+00 1.037413e+00 1.016604e+00 7.411914e-01 7.326363e-01 9.211405e-02 1.412805e-01 1.192988e-01 1.353136e-01 1.559626e-01 1.821084e-01 1.906503e-01 2.275996e-01 2.219807e-01 2.076238e-01 2.597141e-01 1.638322e-01 5.177662e-02
<GCONST> 8.560867e+01
<STATE> 3
<MEAN> 39
 -1.576937e+01 2.883977e+00 -1.280703e+00 -6.828315e-01 2.648209e-01 1.590784e+00 1.905806e+00 -1.185500e+00 -5.745649e-02 8.581597e-02 1.585990e-01 -2.260927e-01 5.881981e+01 -5.734833e-01 -2.314266e-01 -2.954165e-01 -1.464485e-01 8.237083e-02 -6.645538e-02 -3.333531e-01 4.983462e-02 -1.778125e-02 8.206468e-02 5.749299e-02 1.483053e-01 -5.785874e-01 1.785831e-01 1.088243e-02 1.705255e-01 2.152961e-01 1.744957e-01 9.391767e-02 -3.771749e-04 -7.164962e-02 -9.976194e-02 -5.345796e-02 -2.556381e-02 -1.257110e-01 2.248454e-01
<VARIANCE> 39
 3.406249e+01 1.306732e+01 2.021154e+01 1.474902e+01 1.406548e+01 1.370639e+01 1.506084e+01 2.139793e+01 1.869752e+01 1.275464e+01 1.617004e+01 8.104546e+00 5.240384e+01 7.869365e-01 5.988448e-01 6.099737e-01 6.705623e-01 9.284800e-01 8.103080e-01 8.270164e-01 1.198265e+00 1.116220e+00 1.010917e+00 1.118738e+00 8.047388e-01 7.529254e-01 1.090457e-01 1.646776e-01 1.424315e-01 2.046244e-01 1.299900e-01 1.246540e-01 1.573243e-01 2.877903e-01 3.020567e-01 1.880175e-01 2.324252e-01 1.529138e-01 8.524633e-02
<GCONST> 8.317045e+01
<STATE> 4
<MEAN> 39
 -1.600278e+01 2.786230e+00 -1.339965e+00 -7.906048e-01 6.433256e-01 1.751255e+00 1.380082e+00 -6.430671e-01 -2.988107e-01 -1.580572e-01 4.465626e-01 -7.728219e-02 5.901077e+01 -2.144200e-01 -7.636139e-02 8.614524e-02 2.538486e-01 3.902355e-01 2.018373e-01 -1.994286e-01 3.696677e-02 1.176278e-02 1.069118e-02 -1.162109e-01 -2.907723e-01 -1.282355e-01 3.956966e-01 7.471277e-02 3.084987e-01 2.662525e-01 3.501387e-02 -2.387878e-02 5.699314e-02 -1.683727e-01 -1.490936e-01 -9.672777e-02 -6.276917e-02 -1.863250e-01 4.913209e-01
<VARIANCE> 39
 3.676261e+01 1.413047e+01 2.156395e+01 1.468526e+01 1.492960e+01 1.653288e+01 1.608778e+01 2.637601e+01 2.525036e+01 1.565673e+01 1.929159e+01 1.096941e+01 5.609322e+01 6.606326e-01 5.888684e-01 7.912686e-01 8.807321e-01 6.243643e-01 7.859095e-01 1.057218e+00 1.497585e+00 1.347900e+00 1.094111e+00 1.128000e+00 6.325453e-01 8.912326e-01 2.369900e-01 1.638014e-01 1.500915e-01 3.995254e-01 1.854841e-01 2.323547e-01 2.862438e-01 3.884091e-01 4.495257e-01 2.566255e-01 2.345012e-01 2.070757e-01 3.572361e-01
<GCONST> 9.136904e+01
<TRANSP> 5
 0.000000e+00 1.000000e+00 0.000000e+00 0.000000e+00 0.000000e+00
 0.000000e+00 4.561832e-01 5.438168e-01 0.000000e+00 0.000000e+00
 0.000000e+00 0.000000e+00 2.368207e-01 7.631793e-01 0.000000e+00
 0.000000e+00 0.000000e+00 0.000000e+00 1.289293e-01 8.710706e-01
 0.000000e+00 0.000000e+00 0.000000e+00 0.000000e+00 0.000000e+00
<ENDHMM>
~h "n"
<BEGINHMM>
<NUMSTATES> 5
<STATE> 2
<MEAN> 39
 -1.042905e+01 4.641695e-01 8.683769e+00 5.103076e+00 3.373426e+00 -8.946033e-01 -3.352893e+00 -4.629206e+00 -3.090238e+00 -5.046212e+00 -1.393309e+00 -3.571168e+00 7.011126e+01 5.970196e-01 -2.778809e-01 5.850186e-01 9.213857e-01 5.063938e-01 -4.923340e-01 -8.070765e-01 -4.641329e-01 -3.675467e-01 -3.868446e-01 1.465155e-01 -2.331227e-01 6.866322e-01 -3.984492e-02 -4.790130e-02 -1.793517e-01 -1.042439e-01 -8.650329e-03 5.985269e-02 8.593865e-02 2.454620e-03 -1.813690e-02 1.054758e-01 1.051107e-01 1.082545e-01 -6.403372e-02
<VARIANCE> 39
 5.048219e+01 8.254846e+01 7.345287e+01 5.538423e+01 2.948511e+01 3.674568e+01 3.149970e+01 3.083483e+01 3.124660e+01 4.628997e+01 5.389967e+01 1.312735e+01 5.793865e+01 3.079933e+00 5.619424e+00 3.842425e+00 2.945689e+00 2.411193e+00 3.197064e+00 2.496360e+00 2.650437e+00 4.294165e+00 2.241185e+00 2.844382e+00 1.492451e+00 2.083832e+00 3.072407e-01 9.103015e-01 6.023284e-01 5.179556e-01 4.240072e-01 5.850377e-01 4.263215e-01 4.552468e-01 5.143414e-01 4.222534e-01 3.820403e-01 2.330512e-01 3.349739e-01
<GCONST> 1.232296e+02
<STATE> 3
<MEAN> 39
 -6.188616e+00 -2.093773e+00 4.537137e+00 3.369451e+00 4.217738e+00 1.883500e-01 -2.047888e+00 -8.220407e+00 -3.730447e+00 -5.542752e+00 -3.016356e+00 1.147263e+00 7.420435e+01 2.655187e-01 8.914720e-02 -5.298761e-01 -7.599589e-01 -4.528786e-01 1.459483e-01 6.268784e-01 7.705095e-02 -1.846798e-01 8.495894e-02 2.792032e-01 6.738883e-01 1.266106e-01 -6.728970e-02 -3.205337e-02 -7.721338e-03 -1.991983e-01 -1.865871e-01 2.040952e-02 2.252638e-01 2.937358e-02 3.549216e-02 9.796542e-02 -1.658234e-02 6.325535e-02 -3.052130e-05
<VARIANCE> 39
 1.662805e+01 4.784310e+01 2.546031e+01 6.228727e+01 3.746742e+01 3.601796e+01 6.056318e+01 2.947448e+01 4.225709e+01 2.984069e+01 7.897419e+01 4.973214e+01 5.949850e+01 7.156039e-01 2.336851e+00 1.845019e+00 3.651619e+00 1.818890e+00 2.423257e+00 1.876463e+00 1.632550e+00 2.824767e+00 1.753559e+00 3.444622e+00 2.671431e+00 1.572289e+00 1.104110e-01 3.868024e-01 2.623890e-01 5.721868e-01 3.787347e-01 4.753431e-01 3.573877e-01 3.479147e-01 5.864708e-01 2.914866e-01 8.294411e-01 5.738271e-01 2.435159e-01
<GCONST> 1.164476e+02
<STATE> 4
<MEAN> 39
 -6.087549e+00 6.413477e+00 3.029414e+00 4.429744e+00 3.402337e+00 -1.758714e+00 -4.469241e+00 -4.822629e+00 -5.229944e+00 -8.547665e-01 3.896791e+00 -1.434939e+00 6.849863e+01 -1.564733e-01 -1.273684e-01 -3.256173e-01 -3.919591e-01 -2.335584e-01 2.163741e-01 5.600322e-01 2.109038e-01 1.627386e-01 1.905360e-01 5.810117e-02 2.300887e-01 -1.113346e-01 -5.565772e-02 -1.198368e-01 -3.835462e-02 -1.443158e-02 1.261833e-02 -1.972844e-02 4.035260e-02 4.493215e-02 -3.240983e-02 -1.662681e-02 3.913416e-02 1.420334e-02 3.017934e-02
<VARIANCE> 39
 2.208453e+01 2.918933e+01 2.640591e+01 3.353550e+01 2.439882e+01 2.262724e+01 4.494934e+01 2.391723e+01 5.301384e+01 3.191392e+01 5.437922e+01 2.213309e+01 3.368723e+01 7.090781e-01 1.896140e+00 1.363343e+00 1.832010e+00 1.362260e+00 1.566110e+00 2.080625e+00 1.489898e+00 3.464792e+00 1.310510e+00 2.916435e+00 1.220127e+00 1.396951e+00 7.264572e-02 2.488751e-01 1.982923e-01 2.460775e-01 2.240971e-01 2.330413e-01 3.340105e-01 2.581908e-01 6.071923e-01 2.307097e-01 4.910423e-01 2.120515e-01 1.269390e-01
<GCONST> 1.037592e+02
<TRANSP> 5
 0.000000e+00 1.000000e+00 0.000000e+00 0.000000e+00 0.000000e+00
 0.000000e+00 7.149687e-01 2.850313e-01 0.000000e+00 0.000000e+00
 0.000000e+00 0.000000e+00 6.702456e-01 3.297544e-01 0.000000e+00
 0.000000e+00 0.000000e+00 0.000000e+00 7.831569e-01 2.168431e-01
 0.000000e+00 0.000000e+00 0.000000e+00 0.000000e+00 0.000000e+00
<ENDHMM>
~h "o"
<BEGINHMM>
<NUMSTATES> 5
<STATE> 2
<MEAN> 39
 -3.503091e+00 6.338261e-01 -1.651391e+00 -3.632969e+00 -6.860890e-01 -3.967967e+00 -7.903334e-02 -5.778417e+00 -7.367094e+00 -6.968821e+00 -2.050523e+00 9.595637e-01 7.514834e+01 1.421401e+00 7.006764e-02 -5.521464e-01 1.179623e-01 3.272967e-01 -4.962444e-01 -5.619215e-01 -4.794302e-01 -1.096073e+00 -5.822752e-01 -1.085637e-01 -4.824805e-02 1.013266e+00 -1.672722e-01 -1.540631e-03 -8.214004e-02 3.978650e-02 -4.907895e-02 1.266869e-02 2.481076e-02 1.054966e-01 1.380946e-01 1.526539e-01 3.969865e-02 -6.137633e-02 -2.100703e-01
<VARIANCE> 39
 3.155691e+01 3.549707e+01 2.240133e+01 4.338182e+01 5.361550e+01 3.483011e+01 2.035246e+01 2.238778e+01 3.949093e+01 3.285296e+01 4.443718e+01 2.124949e+01 3.131676e+01 4.167090e+00 2.827689e+00 2.262666e+00 2.876405e+00 2.989322e+00 4.954942e+00 2.002438e+00 1.652581e+00 3.087878e+00 3.111329e+00 3.190293e+00 1.261974e+00 3.597477e+00 7.768775e-01 4.993575e-01 4.558634e-01 6.226157e-01 5.526996e-01 1.002013e+00 4.017976e-01 2.976330e-01 4.783072e-01 5.978284e-01 5.818503e-01 2.526160e-01 5.244853e-01
<GCONST> 1.211261e+02
<STATE> 3
<MEAN> 39
 -5.626388e-01 3.340626e+00 -1.968230e+00 -2.643689e+00 -2.175566e+00 -7.447926e+00 -2.329657e+00 -4.804093e+00 -7.938728e+00 -6.410442e+00 -2.208826e+00 -2.268763e+00 7.584687e+01 -3.795825e-01 3.943192e-01 5.985289e-01 4.899578e-01 5.400858e-02 2.597054e-01 2.210391e-01 8.035885e-03 5.503631e-02 9.407726e-02 -3.099958e-02 -1.745654e-01 -4.992292e-01 -2.224724e-01 9.080455e-02 1.877492e-01 1.105695e-01 1.302028e-01 2.918501e-01 1.413354e-01 2.850513e-03 1.052167e-01 2.611363e-02 9.900033e-03 3.735431e-02 -2.191631e-01
<VARIANCE> 39
 3.847842e+00 1.298860e+01 1.957605e+01 2.846915e+01 5.168798e+01 4.139647e+01 1.768094e+01 1.939244e+01 9.743304e+01 2.895850e+01 6.932855e+01 1.542552e+01 1.031336e+01 3.402483e-01 8.314330e-01 9.508049e-01 1.081033e+00 1.972237e+00 3.032201e+00 1.345903e+00 1.140774e+00 1.585186e+00 1.546280e+00 9.603048e-01 1.255017e+00 5.674415e-01 7.065370e-02 1.927029e-01 1.838206e-01 2.022583e-01 2.528709e-01 3.723249e-01 2.338176e-01 2.098373e-01 3.792930e-01 2.709595e-01 1.896007e-01 2.020632e-01 6.397147e-02
<GCONST> 9.291702e+01
<STATE> 4
<MEAN> 39
 -7.478201e+00 8.422489e+00 3.967415e+00 4.387609e+00 2.822548e+00 7.207095e-01 2.341864e-01 -4.141003e+00 -4.171317e+00 -2.505305e+00 -1.064204e+00 -2.740454e+00 6.613314e+01 -9.884850e-01 1.277885e-01 2.483129e-01 3.143503e-01 3.744773e-01 7.567771e-01 4.536988e-01 4.827194e-01 9.579886e-01 6.894959e-01 8.266719e-02 2.060752e-01 -1.107413e+00 -2.843507e-02 -3.234819e-01 -1.693265e-01 -1.970347e-01 -1.003960e-01 -1.821001e-01 -9.196674e-02 6.917237e-02 -6.492208e-03 -1.714868e-02 9.123289e-02 1.683911e-02 1.670521e-01
<VARIANCE> 39
 1.423635e+01 1.763269e+01 1.387472e+01 2.326133e+01 2.174620e+01 2.991337e+01 2.363289e+01 2.336769e+01 4.891545e+01 3.724970e+01 3.499826e+01 1.913630e+01 1.964818e+01 6.352642e-01 1.966104e+00 1.573235e+00 1.308002e+00 1.328485e+00 1.690622e+00 1.280427e+00 1.226568e+00 2.907199e+00 1.150981e+00 1.511193e+00 1.203116e+00 7.198748e-01 1.060691e-01 2.535008e-01 2.218771e-01 1.804104e-01 2.685035e-01 3.453713e-01 2.706360e-01 2.402996e-01 4.097097e-01 1.939925e-01 2.255571e-01 2.046638e-01 1.004937e-01
<GCONST> 9.659487e+01
<TRANSP> 5
 0.000000e+00 1.000000e+00 0.000000e+00 0.000000e+00 0.000000e+00
 0.000000e+00 8.588150e-01 1.411849e-01 0.000000e+00 0.000000e+00
 0.000000e+00 0.000000e+00 8.772290e-01 1.227709e-01 0.000000e+00
 0.000000e+00 0.000000e+00 0.000000e+00 8.261060e-01 1.738940e-01
 0.000000e+00 0.000000e+00 0.000000e+00 0.000000e+00 0.000000e+00
<ENDHMM>
~h "p"
<BEGINHMM>
<NUMSTATES> 5
<STATE> 2
<MEAN> 39
 -1.985257e+01 1.809945e+00 -2.821989e+00 -7.537801e-01 9.502397e-02 1.806620e+00 3.723213e+00 4.187581e+00 4.436897e+00 2.523016e+00 1.480473e+00 1.289942e-01 5.870643e+01 -2.473308e-01 -1.912963e-01 -1.564051e-01 -1.543598e-01 -1.604984e-01 -1.251505e-01 -1.103833e-01 -7.757135e-02 -1.252058e-01 -1.575719e-01 -1.421297e-01 -1.450896e-01 -1.756576e-01 8.132793e-02 5.557181e-02 5.411480e-02 3.408688e-02 2.573058e-02 1.015430e-02 -1.018133e-02 -4.301653e-02 -2.530095e-02 1.039939e-02 1.437704e-02 1.355235e-02 5.763101e-02
<VARIANCE> 39
 8.353619e+00 3.144526e+00 4.704448e+00 7.679553e+00 8.195497e+00 8.847387e+00 8.303965e+00 1.391465e+01 1.382489e+01 1.027486e+01 9.541347e+00 8.098019e+00 8.094798e+00 2.248454e-01 2.873424e-01 4.372768e-01 6.683080e-01 8.164016e-01 8.567590e-01 8.697355e-01 9.779951e-01 9.609684e-01 8.646923e-01 9.433886e-01 7.920705e-01 2.282375e-01 3.543974e-02 5.539674e-02 7.065312e-02 1.135156e-01 1.552682e-01 1.594753e-01 1.732924e-01 1.960315e-01 1.959678e-01 1.746744e-01 1.873879e-01 1.500512e-01 1.676049e-02
<GCONST> 6.334345e+01
<STATE> 3
<MEAN> 39
 -1.662175e+01 2.043090e+00 -3.336903e+00 -1.919906e+00 -1.463635e+00 -2.344142e-01 1.299405e+00 -3.144333e-01 5.705093e-01 -3.219193e-01 -6.031705e-01 -4.885353e-01 5.751147e+01 -4.627965e-01 -1.196338e-01 -8.204649e-02 3.408065e-02 1.964588e-01 2.742428e-01 -2.137851e-02 1.026467e-01 1.403149e-01 2.370415e-01 4.149194e-01 3.230659e-01 -6.271433e-01 1.547477e-01 -6.710313e-02 1.344010e-01 -6.056235e-02 1.382269e-02 -2.374758e-02 4.453415e-02 -1.601861e-01 -1.869333e-01 -1.022980e-02 8.741266e-02 2.364033e-02 3.787802e-01
<VARIANCE> 39
 3.571298e+01 6.153310e+00 5.039532e+00 7.212679e+00 7.118461e+00 1.257295e+01 1.484853e+01 3.052053e+01 2.308625e+01 1.652336e+01 1.053901e+01 8.374527e+00 3.583281e+01 5.198405e-01 3.064155e-01 3.431317e-01 5.315497e-01 6.788050e-01 6.793749e-01 6.823924e-01 9.097168e-01 8.990425e-01 8.626975e-01 9.199124e-01 8.713674e-01 1.052450e+00 1.186077e-01 1.306877e-01 1.014989e-01 1.480361e-01 1.680080e-01 1.674301e-01 2.699042e-01 2.777971e-01 3.809592e-01 1.869342e-01 1.888247e-01 1.891929e-01 1.460724e-01
<GCONST> 7.763898e+01
<STATE> 4
<MEAN> 39
 -8.684286e+00 1.675161e+00 -3.369954e+00 -2.183742e+00 -2.560450e+00 -3.900857e+00 -6.809189e-01 -2.626283e-01 -4.165105e+00 1.113881e+00 6.094903e+00 -2.002003e-01 6.700784e+01 8.623164e-01 -3.646133e-02 -4.018452e-02 -1.009955e-01 -1.387199e-01 -2.280130e-01 -8.456912e-02 -4.585062e-01 -7.713275e-01 1.190271e-01 5.010138e-01 6.908546e-02 7.252462e-01 6.510582e-02 -3.855002e-02 3.786689e-02 -1.600823e-02 -2.685589e-02 3.999364e-02 9.533136e-02 -8.054194e-02 -1.076630e-01 -1.560165e-02 -2.664794e-02 -2.173751e-02 1.638037e-01
<VARIANCE> 39
 8.396558e+01 8.485456e+00 8.528419e+00 1.062674e+01 1.654655e+01 3.349009e+01 3.115919e+01 2.038113e+01 3.609305e+01 1.329986e+01 3.599563e+01 6.441152e+00 7.700808e+01 4.101967e+00 9.082528e-01 8.823513e-01 7.746792e-01 1.404240e+00 2.656995e+00 2.025646e+00 1.397782e+00 2.212312e+00 9.648306e-01 1.136255e+00 7.169383e-01 2.711602e+00 5.987153e-01 2.030373e-01 1.878942e-01 1.773878e-01 2.648688e-01 4.100330e-01 3.582970e-01 3.258325e-01 4.078567e-01 2.100836e-01 2.068508e-01 1.417959e-01 5.590560e-01
<GCONST> 9.988657e+01
<TRANSP> 5
 0.000000e+00 1.000000e+00 0.000000e+00 0.000000e+00 0.000000e+00
 0.000000e+00 8.688097e-01 1.311903e-01 0.000000e+00 0.000000e+00
 0.000000e+00 0.000000e+00 2.260290e-01 7.739709e-01 0.000000e+00
 0.000000e+00 0.000000e+00 0.000000e+00 7.122210e-01 2.877790e-01
 0.000000e+00 0.000000e+00 0.000000e+00 0.000000e+00 0.000000e+00
<ENDHMM>
~h "r"
<BEGINHMM>
<NUMSTATES> 5
<STATE> 2
<MEAN> 39
 -6.462625e+00 -4.525966e+00 -3.020965e+00 -6.371343e+00 -5.235960e+00 -1.822542e+00 8.195207e+00 -8.734841e+00 -7.338919e+00 1.962975e+00 -6.386341e-01 3.016029e-01 7.482569e+01 1.586064e+00 -2.972326e-01 -2.595869e-01 -2.387965e-01 -3.085718e-01 -5.028838e-01 3.589209e-01 -8.410974e-01 -9.261411e-01 3.959211e-01 1.102871e-02 -1.016910e-01 1.768696e+00 -4.299874e-02 2.640599e-01 -4.300013e-03 1.586472e-01 8.740447e-02 -2.926689e-02 -2.676375e-01 2.167201e-01 2.224244e-01 -1.037815e-01 -8.784835e-02 -9.469978e-02 -2.636546e-01
<VARIANCE> 39
 5.748640e+01 4.193576e+01 1.876083e+01 3.297781e+01 4.297742e+01 2.303599e+01 5.797764e+01 3.869808e+01 4.493764e+01 5.172352e+01 6.298073e+01 1.863833e+01 8.484143e+01 3.536071e+00 3.137641e+00 1.610825e+00 2.660177e+00 2.553784e+00 2.048879e+00 3.506324e+00 2.931329e+00 3.305178e+00 4.365142e+00 2.580497e+00 1.529946e+00 5.162699e+00 6.145350e-01 4.504364e-01 3.418888e-01 4.963144e-01 4.597186e-01 3.749204e-01 4.660585e-01 5.067059e-01 4.579282e-01 8.144407e-01 4.038110e-01 2.517604e-01 6.675104e-01
<GCONST> 1.233601e+02
<STATE> 3
<MEAN> 39
 -2.551730e+00 1.279413e+00 -3.711072e+00 -3.611973e+00 -3.141494e+00 -3.307765e+00 2.886301e+00 -7.014265e+00 -7.307610e+00 -3.638828e-01 4.348579e-01 -8.652768e-01 7.417614e+01 -8.736634e-01 1.202017e+00 5.141165e-01 6.205397e-01 7.786620e-01 4.716443e-01 -8.575589e-01 8.880858e-01 8.138732e-01 -9.594912e-01 -2.678482e-01 -1.124718e-01 -1.389519e+00 -4.648951e-01 -1.544444e-01 1.556267e-01 1.425847e-03 1.097470e-01 2.259714e-01 1.680015e-01 1.178726e-01 2.798395e-01 1.181227e-01 5.463139e-03 1.201201e-01 -2.969056e-01
<VARIANCE> 39
 1.584790e+01 3.031168e+01 1.657213e+01 3.065422e+01 3.113104e+01 2.525377e+01 2.232795e+01 2.541768e+01 3.861089e+01 4.363086e+01 5.636747e+01 3.936487e+01 2.670035e+01 2.493119e+00 1.814710e+00 1.780700e+00 1.725992e+00 1.127845e+00 1.645411e+00 1.723342e+00 2.031249e+00 3.048280e+00 2.147983e+00 2.059341e+00 1.538680e+00 2.486782e+00 3.502718e-01 4.736527e-01 3.138651e-01 2.857470e-01 2.204753e-01 3.687682e-01 3.068265e-01 4.173477e-01 4.097627e-01 4.320442e-01 3.711500e-01 3.163027e-01 3.371401e-01
<GCONST> 1.102229e+02
<STATE> 4
<MEAN> 39
 -1.349569e+01 2.496776e+00 -2.016623e+00 -6.113598e-01 1.927356e+00 2.581522e+00 2.748951e+00 -1.720950e+00 -1.269634e+00 -5.166848e-01 1.247279e+00 1.320870e+00 6.268763e+01 -8.584518e-01 -4.877470e-01 2.938355e-02 -1.370224e-01 4.977376e-02 1.057471e-01 -9.453351e-03 3.181133e-01 3.867227e-01 9.076744e-02 7.132502e-02 1.399619e-01 -5.085650e-01 4.066236e-01 -8.134175e-02 -3.204439e-02 -8.062255e-02 -1.639048e-01 -2.723133e-01 -8.280497e-02 -2.348088e-01 -3.162004e-01 -6.219612e-02 1.027472e-02 -5.754312e-02 4.337578e-01
<VARIANCE> 39
 3.443071e+01 1.845114e+01 1.417900e+01 1.746986e+01 2.192552e+01 1.577026e+01 1.225545e+01 3.540327e+01 4.397845e+01 2.929347e+01 1.876295e+01 1.325793e+01 3.159980e+01 2.849364e+00 1.460989e+00 1.449448e+00 1.330706e+00 1.115797e+00 1.936934e+00 1.729406e+00 3.025348e+00 3.610801e+00 1.406385e+00 1.196596e+00 1.443306e+00 2.717374e+00 4.370135e-01 3.402612e-01 2.567089e-01 2.285134e-01 1.865175e-01 2.690997e-01 2.922590e-01 4.056892e-01 4.752503e-01 3.441991e-01 2.792042e-01 2.580097e-01 2.889450e-01
<GCONST> 1.038239e+02
<TRANSP> 5
 0.000000e+00 1.000000e+00 0.000000e+00 0.000000e+00 0.000000e+00
 0.000000e+00 7.695310e-01 2.304690e-01 0.000000e+00 0.000000e+00
 0.000000e+00 0.000000e+00 7.398866e-01 2.601133e-01 0.000000e+00
 0.000000e+00 0.000000e+00 0.000000e+00 7.791855e-01 2.208145e-01
 0.000000e+00 0.000000e+00 0.000000e+00 0.000000e+00 0.000000e+00
<ENDHMM>
~h "s"
<BEGINHMM>
<NUMSTATES> 5
<STATE> 2
<MEAN> 39
 -1.555483e+01 -2.948643e+00 1.911250e+00 4.553038e-02 -4.319761e-01 2.307136e+00 1.861005e+00 -5.219645e+00 -4.252879e+00 -1.298060e+00 1.825235e+00 2.300111e-01 6.488710e+01 -1.246705e+00 -1.916719e+00 2.599902e+00 -5.118127e-01 -4.911030e-01 9.111817e-01 1.784841e-01 -7.094996e-01 -5.624878e-02 3.159223e-01 9.696717e-01 -6.612267e-01 1.485743e+00 -3.337890e-01 -3.704512e-01 4.986518e-01 -3.490002e-01 -1.519233e-01 -3.219200e-02 6.439840e-03 8.480239e-03 -5.218098e-02 -4.227209e-03 8.969562e-02 -1.672138e-01 3.146600e-01
<VARIANCE> 39
 4.946823e+01 3.944246e+01 4.786292e+01 2.428330e+01 2.597849e+01 1.856240e+01 2.951734e+01 5.019962e+01 4.867387e+01 2.612634e+01 1.953822e+01 1.657182e+01 9.456503e+01 4.351734e+00 3.995088e+00 4.569824e+00 2.497838e+00 1.960168e+00 1.808699e+00 2.975310e+00 3.166877e+00 4.062595e+00 1.961084e+00 2.229999e+00 1.145357e+00 3.317254e+00 3.711444e-01 5.979650e-01 5.922495e-01 4.205739e-01 3.476809e-01 3.567139e-01 4.764170e-01 5.481660e-01 5.153546e-01 3.435271e-01 3.282249e-01 2.042421e-01 4.675356e-01
<GCONST> 1.187603e+02
<STATE> 3
<MEAN> 39
 -2.575618e+01 -1.680225e+01 1.880597e+01 -5.925378e+00 -4.367578e+00 4.582790e+00 4.736461e+00 -9.183495e+00 -4.238240e+00 -9.831005e-01 6.661719e+00 -5.277724e+00 7.752364e+01 -4.891614e-01 -5.844152e-01 2.516628e-01 -3.220741e-01 1.015975e-01 -1.059760e-01 -1.758348e-01 -1.199559e-01 1.773657e-01 5.870469e-02 1.668188e-01 -2.338409e-01 2.131043e-01 5.523549e-01 4.271736e-01 -5.026625e-01 4.271936e-01 2.294716e-01 -5.368504e-02 -2.025739e-01 -6.289389e-02 -7.967037e-02 -7.446688e-02 -2.081867e-01 1.071966e-01 -2.083867e-01
<VARIANCE> 39
 2.968503e+01 3.380643e+01 2.102081e+01 3.264339e+01 3.518523e+01 1.437337e+01 3.469331e+01 4.707651e+01 2.283488e+01 3.345903e+01 1.962306e+01 2.045871e+01 2.659213e+01 3.942731e+00 2.074399e+00 3.609679e+00 3.297571e+00 2.382299e+00 1.270979e+00 1.957889e+00 1.678752e+00 1.538665e+00 1.592841e+00 1.519592e+00 1.332982e+00 1.029799e+00 3.291515e-01 4.514261e-01 4.299687e-01 3.495879e-01 2.903202e-01 2.939219e-01 3.415783e-01 3.374963e-01 2.791448e-01 2.896811e-01 3.097769e-01 2.036554e-01 1.049571e-01
<GCONST> 1.072104e+02
<STATE> 4
<MEAN> 39
 -1.237608e+01 -7.641096e+00 1.065126e+01 5.045150e+00 5.988794e+00 -7.445962e-01 -7.436106e+00 -1.050276e+01 -8.315245e+00 -2.742190e+00 6.220679e+00 -3.435690e+00 7.450400e+01 1.584589e+00 8.606643e-01 -7.024901e-01 8.966339e-01 4.923629e-01 -4.454781e-01 -6.874509e-01 -5.524999e-01 -8.191548e-01 -3.853987e-01 -4.488461e-02 2.882586e-01 2.765415e-01 -1.328584e-01 2.939390e-02 -3.786084e-02 -2.424305e-01 -1.828461e-01 -4.107122e-02 2.378583e-01 1.346599e-01 6.257106e-02 9.063759e-02 -1.976644e-02 4.300309e-02 -2.435086e-02
<VARIANCE> 39
 9.531841e+01 6.903065e+01 5.497446e+01 8.371908e+01 2.366031e+01 3.945698e+01 4.268342e+01 5.395464e+01 7.710162e+01 3.662920e+01 4.936608e+01 2.170384e+01 2.173069e+01 8.350089e+00 6.526912e+00 3.215446e+00 9.149917e+00 2.629462e+00 2.882089e+00 3.634750e+00 2.901639e+00 5.786359e+00 2.705831e+00 3.354000e+00 1.442889e+00 1.103917e+00 1.083174e+00 9.794920e-01 4.458942e-01 1.129004e+00 3.441629e-01 5.632607e-01 4.832760e-01 4.734716e-01 1.007243e+00 4.380813e-01 4.654773e-01 2.584073e-01 1.739384e-01
<GCONST> 1.292456e+02
<TRANSP> 5
 0.000000e+00 1.000000e+00 0.000000e+00 0.000000e+00 0.000000e+00
 0.000000e+00 7.456781e-01 2.543219e-01 0.000000e+00 0.000000e+00
 0.000000e+00 0.000000e+00 8.724041e-01 1.275959e-01 0.000000e+00
 0.000000e+00 0.000000e+00 0.000000e+00 8.751901e-01 1.248100e-01
 0.000000e+00 0.000000e+00 0.000000e+00 0.000000e+00 0.000000e+00
<ENDHMM>
~h "t"
<BEGINHMM>
<NUMSTATES> 5
<STATE> 2
<MEAN> 39
 -1.448698e+01 -3.686594e+00 2.912969e+00 -4.813484e-01 -1.324962e-01 4.854334e-01 -8.280480e-01 -7.934862e+00 -2.973255e+00 -1.315386e+00 -6.105080e-01 -2.207128e+00 6.867243e+01 1.425202e+00 -4.062396e-01 -2.406855e-01 1.326607e-01 -3.049862e-01 -2.419983e-01 1.725750e-01 -9.894369e-01 -1.292735e+00 -2.455254e-01 -6.567149e-02 1.993887e-01 1.553519e+00 2.655536e-01 -1.152996e-02 -6.042226e-02 -5.883041e-02 -6.777671e-02 -7.761041e-02 1.245586e-01 5.895451e-02 -4.370974e-02 4.044437e-02 -2.223123e-02 9.392643e-02 2.199454e-01
<VARIANCE> 39
 5.017515e+01 3.720671e+01 4.800124e+01 8.218972e+01 3.652108e+01 2.638086e+01 4.589096e+01 4.776225e+01 4.174271e+01 1.856733e+01 4.465741e+01 1.836687e+01 6.375768e+01 5.023147e+00 4.878369e+00 5.366418e+00 7.391726e+00 3.054389e+00 2.590224e+00 4.506900e+00 5.072020e+00 4.611328e+00 3.257912e+00 3.337152e+00 1.303274e+00 9.882618e+00 6.763596e-01 1.056473e+00 8.791510e-01 1.194724e+00 6.499512e-01 4.741243e-01 8.375669e-01 1.041953e+00 7.293739e-01 5.648005e-01 4.523859e-01 2.087048e-01 1.583957e+00
<GCONST> 1.337302e+02
<STATE> 3
<MEAN> 39
 -6.014823e+00 -1.281622e+01 2.899593e+00 -8.459184e+00 -4.449599e+00 -3.129072e+00 5.791983e+00 -1.307695e+01 -5.881255e+00 -1.592948e+00 5.072733e-01 3.254295e+00 8.306718e+01 3.311313e-01 -9.064823e-03 -5.665214e-02 1.229867e-01 7.890431e-02 -5.715557e-02 -2.518291e-02 -1.897088e-01 -1.402965e-01 -1.638142e-01 1.048021e-01 1.887492e-01 1.073872e-01 -1.551382e-01 4.921196e-02 -2.925633e-02 -1.491297e-03 3.247862e-02 4.053959e-02 -3.765016e-02 1.022059e-01 1.096422e-01 -4.170080e-02 3.048703e-02 -1.902848e-02 -1.782115e-01
<VARIANCE> 39
 9.886279e+01 4.644491e+01 7.717278e+01 5.030046e+01 1.837161e+01 2.095721e+01 4.227408e+01 2.449472e+01 4.390602e+01 5.188789e+01 5.673685e+01 1.356306e+01 1.101955e+01 5.105352e+00 3.183591e+00 2.563317e+00 2.666466e+00 1.135540e+00 2.007674e+00 2.408654e+00 1.818421e+00 2.008801e+00 2.868822e+00 1.995632e+00 1.056899e+00 1.323669e+00 5.837985e-01 4.826765e-01 2.632155e-01 4.153227e-01 2.200543e-01 3.361723e-01 3.912758e-01 2.937037e-01 4.085256e-01 4.372794e-01 3.008375e-01 1.748574e-01 3.037665e-01
<GCONST> 1.137289e+02
<STATE> 4
<MEAN> 39
 -1.903111e+00 -3.684895e+00 -3.518564e+00 -3.060678e+00 -3.961001e+00 -3.638554e+00 2.258302e+00 -1.154333e+01 -1.028100e+01 -3.150975e+00 2.424795e+00 5.212395e+00 7.667544e+01 -4.083998e-01 7.446051e-01 -1.077358e-01 1.204416e-01 1.497278e-01 1.785868e-01 -3.260486e-02 6.971982e-01 4.150028e-01 -3.498759e-01 -2.509596e-01 9.454731e-02 -7.662137e-01 -2.702155e-01 6.124731e-02 2.074503e-01 -3.394301e-02 1.582201e-01 1.912935e-01 -5.994028e-02 9.415302e-03 9.135089e-02 5.145251e-02 -5.778252e-02 -1.718459e-01 -1.543489e-01
<VARIANCE> 39
 1.172500e+01 2.962942e+01 1.500891e+01 4.267450e+01 1.402551e+01 2.370363e+01 1.386992e+01 2.936727e+01 2.983981e+01 3.038887e+01 5.871968e+01 1.012663e+01 3.335308e+01 8.077554e-01 2.213152e+00 1.438313e+00 1.496425e+00 1.490589e+00 1.505304e+00 1.420433e+00 1.527533e+00 1.190488e+00 1.771839e+00 1.267944e+00 9.424704e-01 1.508876e+00 2.530762e-01 4.340465e-01 2.666707e-01 3.447705e-01 2.152620e-01 3.643067e-01 2.276159e-01 2.911173e-01 3.064248e-01 3.870751e-01 2.316624e-01 1.649614e-01 2.413978e-01
<GCONST> 1.001044e+02
<TRANSP> 5
 0.000000e+00 1.000000e+00 0.000000e+00 0.000000e+00 0.000000e+00
 0.000000e+00 8.705836e-01 1.294163e-01 0.000000e+00 0.000000e+00
 0.000000e+00 0.000000e+00 9.170617e-01 8.293832e-02 0.000000e+00
 0.000000e+00 0.000000e+00 0.000000e+00 8.547848e-01 1.452152e-01
 0.000000e+00 0.000000e+00 0.000000e+00 0.000000e+00 0.000000e+00
<ENDHMM>
~h "u"
<BEGINHMM>
<NUMSTATES> 5
<STATE> 2
<MEAN> 39
 -1.103425e+01 4.225485e+00 7.498052e+00 7.339564e+00 5.098459e+00 7.319354e-01 -1.532788e+00 -2.598072e+00 -5.419308e+00 -4.742154e+00 2.651635e+00 -1.423290e-01 6.683727e+01 5.973362e-01 -4.487801e-01 7.180002e-01 5.185355e-01 6.591000e-02 -4.674760e-01 -4.445205e-01 -4.693989e-01 -5.731603e-01 -4.782448e-01 -9.485162e-02 -1.985067e-01 1.229297e+00 1.328021e-01 -2.334712e-01 -1.448955e-01 -1.631966e-01 -2.058580e-02 -1.088324e-01 -1.465809e-01 -1.263612e-01 -1.537570e-01 -9.204233e-02 3.200944e-02 -3.976002e-04 2.437775e-01
<VARIANCE> 39
 3.299402e+01 7.632725e+01 4.380996e+01 4.105006e+01 3.003335e+01 2.371996e+01 3.193133e+01 2.274572e+01 5.645886e+01 3.517989e+01 1.701431e+01 1.286023e+01 3.044804e+01 3.896652e+00 1.094481e+01 3.296984e+00 4.603718e+00 3.700930e+00 2.218042e+00 4.461071e+00 2.916989e+00 6.744737e+00 3.819574e+00 3.241830e+00 1.636542e+00 5.808671e+00 5.871742e-01 1.240644e+00 6.925092e-01 5.944977e-01 6.715609e-01 4.152490e-01 6.881251e-01 4.294524e-01 8.781664e-01 5.147936e-01 4.932389e-01 2.632352e-01 6.539829e-01
<GCONST> 1.274186e+02
<STATE> 3
<MEAN> 39
 -5.727759e+00 -1.359725e+00 3.571593e+00 1.605279e+00 3.472805e+00 1.243805e+00 1.130979e+00 -8.482819e+00 -8.758096e+00 -7.897788e+00 -2.195971e+00 -1.322871e+00 7.471474e+01 1.324469e+00 -6.245361e-01 -5.622744e-01 -2.135942e-01 3.131843e-01 -8.189245e-01 -3.513394e-01 -7.241108e-01 -6.068128e-01 3.101513e-01 -3.201609e-01 2.860782e-01 1.340377e+00 -1.903706e-01 1.119355e-01 -6.743227e-02 -8.554605e-02 3.046376e-02 4.277159e-02 3.446930e-02 5.007301e-02 2.224178e-01 2.331644e-01 1.121204e-01 1.229958e-01 -4.014874e-01
<VARIANCE> 39
 1.832467e+01 5.389639e+01 2.826483e+01 1.095296e+02 6.868351e+01 3.574413e+01 7.892410e+01 2.402744e+01 2.792190e+01 5.031625e+01 4.014600e+01 1.680142e+01 4.390260e+01 2.754217e+00 3.568425e+00 3.381268e+00 2.430486e+00 3.180702e+00 2.793398e+00 4.265296e+00 2.401995e+00 3.016778e+00 6.273888e+00 3.674156e+00 1.588104e+00 5.522043e+00 4.271207e-01 7.711638e-01 4.587725e-01 6.087678e-01 7.352825e-01 5.896349e-01 6.133975e-01 4.278383e-01 4.793555e-01 1.042669e+00 5.273384e-01 2.664133e-01 8.018394e-01
<GCONST> 1.273870e+02
<STATE> 4
<MEAN> 39
 -2.074281e+00 -3.395662e+00 4.908481e-01 2.457021e+00 2.803018e+00 -4.029099e+00 -3.492079e+00 -1.049787e+01 -1.367166e+01 -4.938637e+00 6.156515e+00 2.565239e+00 7.723454e+01 -1.562116e-01 5.666820e-01 -1.887651e-01 -4.448102e-01 -5.113944e-01 2.745212e-01 3.621273e-01 -4.358701e-02 3.073772e-01 5.514338e-01 5.691666e-02 -2.200731e-02 -4.195330e-01 -2.721465e-01 2.452263e-01 1.786744e-01 6.797029e-02 2.424345e-02 1.982815e-01 3.823803e-02 1.906468e-01 3.246356e-01 9.732496e-03 -1.196104e-01 -9.259501e-02 -3.052028e-01
<VARIANCE> 39
 6.357587e+00 2.636836e+01 2.016903e+01 8.213546e+01 6.016023e+01 1.693534e+01 1.053769e+02 2.858563e+01 3.798595e+01 5.425255e+01 6.665471e+01 2.217759e+01 1.978070e+01 5.995715e-01 1.385519e+00 1.222560e+00 1.297817e+00 1.224703e+00 1.511133e+00 1.868931e+00 1.744821e+00 1.764408e+00 1.467295e+00 1.270590e+00 1.210043e+00 8.204854e-01 8.409082e-02 2.098398e-01 2.236332e-01 2.599121e-01 2.246310e-01 2.639143e-01 3.854875e-01 3.569265e-01 3.116736e-01 4.010184e-01 2.844093e-01 1.703627e-01 9.933927e-02
<GCONST> 1.012126e+02
<TRANSP> 5
 0.000000e+00 1.000000e+00 0.000000e+00 0.000000e+00 0.000000e+00
 0.000000e+00 8.039701e-01 1.960299e-01 0.000000e+00 0.000000e+00
 0.000000e+00 0.000000e+00 7.721235e-01 2.278764e-01 0.000000e+00
 0.000000e+00 0.000000e+00 0.000000e+00 8.496016e-01 1.503983e-01
 0.000000e+00 0.000000e+00 0.000000e+00 0.000000e+00 0.000000e+00
<ENDHMM>
~h "w"
<BEGINHMM>
<NUMSTATES> 5
<STATE> 2
<MEAN> 39
 -5.145233e+00 -1.895723e+00 7.245131e+00 2.208266e+00 1.930006e+00 1.067195e+00 -3.251849e-01 -1.106908e+01 -4.194576e+00 -5.328069e+00 -6.986886e+00 -6.411254e-03 7.700552e+01 -3.561189e-01 7.343441e-01 6.975874e-01 6.366309e-01 7.153924e-01 2.881494e-01 -5.255350e-01 7.316931e-02 6.098815e-01 -4.109600e-01 -4.482035e-03 -5.523660e-01 -6.230994e-01 -2.596122e-02 -4.936582e-02 -1.150656e-01 3.453312e-02 -5.357615e-02 -6.997067e-02 7.109919e-02 3.120775e-02 -5.432607e-03 1.507924e-01 1.112720e-01 -5.320007e-02 -3.386306e-02
<VARIANCE> 39
 6.802290e+00 5.064850e+01 3.863500e+01 8.192191e+01 2.962152e+01 1.757651e+01 3.189205e+01 2.560927e+01 2.398535e+01 2.530473e+01 3.841829e+01 3.233368e+01 2.745265e+01 4.651273e-01 1.596514e+00 8.921388e-01 2.343979e+00 1.462309e+00 1.660345e+00 1.626512e+00 1.768840e+00 1.800581e+00 1.780869e+00 2.298683e+00 1.586997e+00 9.522966e-01 5.315142e-02 2.771322e-01 2.465286e-01 2.921805e-01 1.756310e-01 2.979031e-01 1.866910e-01 3.079847e-01 2.551715e-01 3.023453e-01 3.923019e-01 2.889411e-01 9.821709e-02
<GCONST> 1.004649e+02
<STATE> 3
<MEAN> 39
 -6.177102e+00 -2.602496e+00 6.961806e+00 4.428580e+00 6.421608e+00 -6.249117e-01 -3.341367e+00 -1.035355e+01 -6.883216e+00 -8.982883e+00 -1.456182e+00 -3.269020e-01 7.607124e+01 1.217418e-01 2.479063e-01 -5.829257e-01 -3.069945e-01 1.421054e-02 3.300036e-01 7.409038e-02 2.358678e-01 -9.392593e-02 -8.456492e-02 1.989726e-01 3.657183e-02 -9.879491e-02 5.598922e-02 4.592321e-02 -1.053926e-02 5.854288e-02 -1.996907e-01 -6.157690e-02 9.243804e-02 1.603246e-01 5.567968e-04 -6.724776e-02 -1.178405e-01 4.047199e-02 -1.949416e-02
<VARIANCE> 39
 1.286382e+01 7.367698e+01 3.851938e+01 3.618545e+01 3.009464e+01 2.277003e+01 2.918531e+01 3.837893e+01 3.459913e+01 1.875724e+01 2.132854e+01 3.047959e+01 3.892983e+01 1.705246e+00 6.410872e+00 2.785461e+00 3.742405e+00 3.111608e+00 2.594061e+00 3.588609e+00 3.829062e+00 2.615567e+00 2.400575e+00 2.432142e+00 1.281902e+00 3.149985e+00 3.144447e-01 1.061889e+00 4.393979e-01 4.888258e-01 5.073356e-01 4.917100e-01 6.656175e-01 6.028591e-01 3.479267e-01 4.567182e-01 3.706080e-01 2.251912e-01 4.396012e-01
<GCONST> 1.194213e+02
<STATE> 4
<MEAN> 39
 -3.034671e+00 5.230799e+00 1.618255e+00 2.918983e+00 7.705728e-01 -4.267899e+00 -4.411566e+00 -4.553262e+00 -9.240276e+00 -7.515840e+00 5.070343e+00 1.179727e+00 7.198048e+01 -1.758005e-01 3.608674e-01 3.858739e-01 2.421678e-01 -5.188150e-01 -2.290023e-01 3.061075e-01 2.873548e-01 3.477820e-01 3.843589e-01 1.085722e-01 -1.759931e-01 -3.894344e-01 -6.047894e-02 -1.097863e-01 -4.478029e-02 -5.651181e-02 6.645321e-02 4.392515e-02 7.051858e-02 -3.559607e-02 -1.541071e-02 6.225704e-02 -3.616598e-02 -2.063354e-02 1.761731e-02
<VARIANCE> 39
 7.480720e+00 2.868015e+01 3.619377e+01 1.312286e+01 2.127814e+01 3.101774e+01 2.698903e+01 2.407528e+01 1.709658e+01 1.889657e+01 3.345436e+01 3.236278e+01 1.120343e+01 5.635758e-01 8.694898e-01 1.347800e+00 1.050813e+00 1.110502e+00 2.143852e+00 1.574681e+00 1.324725e+00 1.599501e+00 1.265110e+00 1.498079e+00 8.603169e-01 6.620774e-01 1.020835e-01 2.390344e-01 1.844627e-01 2.333267e-01 1.590707e-01 3.400191e-01 3.277993e-01 2.498101e-01 3.830732e-01 2.556329e-01 2.533844e-01 1.508382e-01 1.564170e-01
<GCONST> 9.342126e+01
<TRANSP> 5
 0.000000e+00 1.000000e+00 0.000000e+00 0.000000e+00 0.000000e+00
 0.000000e+00 7.637056e-01 2.362944e-01 0.000000e+00 0.000000e+00
 0.000000e+00 0.000000e+00 7.882640e-01 2.117360e-01 0.000000e+00
 0.000000e+00 0.000000e+00 0.000000e+00 7.525995e-01 2.474005e-01
 0.000000e+00 0.000000e+00 0.000000e+00 0.000000e+00 0.000000e+00
<ENDHMM>
~h "y"
<BEGINHMM>
<NUMSTATES> 5
<STATE> 2
<MEAN> 39
 -1.738878e+01 -1.253861e-01 -2.110653e+00 -1.109097e+00 -2.235165e-01 7.946293e-01 3.742041e+00 1.775585e+00 2.431108e+00 2.299900e+00 1.778439e+00 7.976464e-01 6.270142e+01 -1.242995e-01 -1.442385e-01 -3.636025e-01 -4.571403e-01 -4.061955e-01 -1.707733e-01 3.290247e-01 3.012009e-02 -2.568846e-01 -9.608605e-02 -2.086538e-01 6.371424e-03 -8.007878e-02 7.202045e-02 1.056573e-01 1.249160e-01 1.598123e-01 1.141407e-01 3.226598e-02 -5.689034e-02 -3.539674e-02 1.225286e-02 -2.274837e-02 -2.467163e-03 -4.830757e-03 1.926429e-02
<VARIANCE> 39
 5.589022e+01 2.036722e+01 9.215542e+00 1.052385e+01 6.328891e+00 1.868913e+01 1.072817e+01 6.153661e+01 5.372985e+01 1.243741e+01 2.608709e+01 9.361086e+00 7.899205e+01 1.630147e-01 3.215982e-01 5.269655e-01 7.079785e-01 1.025285e+00 7.107538e-01 1.695834e+00 1.037355e+00 6.327744e-01 8.752141e-01 9.652220e-01 1.002371e+00 3.974299e-02 2.412605e-02 5.055841e-02 8.715565e-02 1.089618e-01 1.449140e-01 1.416492e-01 1.745925e-01 1.807855e-01 1.662673e-01 1.707847e-01 1.588337e-01 2.101616e-01 9.053053e-03
<GCONST> 7.301785e+01
<STATE> 3
<MEAN> 39
 -5.252094e+00 -5.019653e+00 -1.759893e-02 -1.529268e+00 -1.116447e+00 -2.302541e+00 2.930252e+00 -8.383552e+00 -7.789823e+00 -9.321004e-01 5.816910e-01 3.728729e+00 7.608893e+01 1.410486e-01 3.242178e-01 -4.682221e-01 -4.840340e-01 -5.742866e-01 -1.246973e-01 7.278097e-01 3.888847e-01 9.844100e-02 -9.013135e-02 -7.421257e-01 -3.514105e-02 -1.368040e-01 -1.069951e-02 1.467531e-01 4.964506e-02 1.555159e-01 7.437564e-02 -6.175527e-02 -3.690077e-01 7.096082e-03 1.367873e-01 -1.333533e-01 -9.590593e-02 -2.921706e-01 -7.308823e-02
<VARIANCE> 39
 6.103171e+01 2.968297e+01 2.416540e+01 3.341660e+01 9.342421e+00 5.085292e+01 9.233782e+00 5.610579e+01 9.558689e+01 3.617570e+01 1.298247e+02 7.154865e+00 8.143431e+01 7.080942e-02 1.573596e-01 3.638535e-01 5.998895e-01 6.299555e-01 4.062936e-01 1.501179e+00 7.178974e-01 6.875100e-01 8.246523e-01 6.561775e-01 7.097270e-01 3.182281e-02 1.405982e-02 7.944869e-02 1.064099e-01 2.011227e-01 9.096060e-02 9.733619e-02 2.028195e-01 2.033277e-01 1.289525e-01 1.534578e-01 1.833244e-01 1.166934e-01 3.022315e-02
<GCONST> 7.575962e+01
<STATE> 4
<MEAN> 39
 -3.902992e+00 -5.439508e+00 -1.289096e+00 -5.277302e+00 -4.160104e+00 -4.027908e+00 4.584218e+00 -8.694720e+00 -6.677814e+00 -8.319134e-01 -3.244248e+00 2.812990e+00 7.782704e+01 2.537035e-02 1.436808e+00 -4.857625e-01 1.853434e-01 -4.198074e-01 -2.373638e-01 -1.706450e-01 9.749161e-01 5.282378e-01 -4.655952e-01 -9.466314e-01 -1.106673e+00 -6.942915e-01 -1.482172e-01 4.873431e-01 2.344002e-01 3.776618e-01 4.186530e-01 4.151638e-02 -5.377197e-01 1.396657e-01 1.807445e-01 -2.377625e-01 1.022219e-01 -3.198891e-01 -3.601428e-01
<VARIANCE> 39
 6.015224e+01 3.135136e+01 1.783301e+01 2.710539e+01 1.489791e+01 3.418748e+01 9.624121e+00 4.675088e+01 4.952184e+01 4.306588e+01 8.262723e+01 1.066514e+01 8.341881e+01 1.166579e-01 1.276449e+00 5.705184e-01 1.617109e+00 7.404926e-01 1.109494e+00 9.661360e-01 9.178964e-01 1.133571e+00 1.099300e+00 1.012900e+00 9.762679e-01 5.866629e-01 8.872487e-02 1.145569e-01 1.265317e-01 2.202844e-01 1.620716e-01 1.734550e-01 2.022141e-01 2.072089e-01 1.753304e-01 2.753181e-01 2.405230e-01 2.212389e-01 2.220872e-01
<GCONST> 9.160448e+01
<TRANSP> 5
 0.000000e+00 1.000000e+00 0.000000e+00 0.000000e+00 0.000000e+00
 0.000000e+00 7.320229e-01 2.679771e-01 0.000000e+00 0.000000e+00
 0.000000e+00 0.000000e+00 4.725678e-01 5.274321e-01 0.000000e+00
 0.000000e+00 0.000000e+00 0.000000e+00 5.366369e-01 4.633631e-01
 0.000000e+00 0.000000e+00 0.000000e+00 0.000000e+00 0.000000e+00
<ENDHMM>
~h "sp"
<BEGINHMM>
<NUMSTATES> 3
<STATE> 2
~s "silst"
<TRANSP> 3
 0.000000e+00 1.267278e-01 8.732722e-01
 0.000000e+00 6.988604e-01 3.011396e-01
 0.000000e+00 0.000000e+00 0.000000e+00
<ENDHMM>
~h "sy"
<BEGINHMM>
<NUMSTATES> 5
<STATE> 2
<MEAN> 39
 -2.051275e+01 7.408170e-01 -4.353378e+00 -1.383672e+00 -3.805537e-01 1.447664e+00 7.012321e-01 -1.247366e-01 -7.640481e-03 4.341247e-01 -2.477567e-01 6.764667e-02 5.134484e+01 -3.502006e-02 -5.312677e-02 -3.189481e-02 -6.174878e-02 -1.022779e-01 -9.264062e-02 -4.982341e-02 3.761743e-02 7.171151e-02 2.427171e-02 -5.003870e-02 -5.883305e-02 9.717052e-03 1.304366e-02 -5.848135e-04 1.581316e-02 4.209192e-03 1.740261e-02 2.640506e-02 1.572504e-02 1.780216e-02 2.212012e-02 1.752571e-02 2.236710e-02 1.377027e-02 1.616832e-02
<VARIANCE> 39
 9.199336e-01 2.132229e+00 3.474081e+00 5.179490e+00 5.231916e+00 6.126915e+00 9.848167e+00 1.327922e+01 1.734704e+01 9.335141e+00 7.864126e+00 6.569063e+00 2.926107e+01 7.921437e-02 1.362083e-01 3.520306e-01 4.162405e-01 4.927700e-01 7.066849e-01 7.919464e-01 8.132529e-01 6.928349e-01 6.234303e-01 7.206225e-01 6.825526e-01 4.945567e-02 1.943038e-02 3.424352e-02 8.287072e-02 8.953248e-02 9.235481e-02 1.366987e-01 1.687869e-01 1.684774e-01 1.473138e-01 1.392067e-01 1.478974e-01 1.372238e-01 1.029002e-02
<GCONST> 5.097789e+01
<STATE> 3
<MEAN> 39
 -2.080446e+01 1.783363e-02 -4.068078e+00 -2.499774e+00 -9.306185e-01 2.252950e+00 1.962632e+00 8.198270e-01 1.939667e+00 1.171495e+00 -7.162170e-01 -2.415507e-01 5.212091e+01 2.139276e-02 -7.312628e-03 6.383830e-02 1.002728e-02 9.397265e-02 -2.238370e-01 -3.033721e-01 -4.069068e-01 -4.051819e-01 -1.489508e-01 9.439380e-02 1.604085e-01 9.940441e-02 -1.977307e-02 -6.347029e-02 1.668768e-01 1.322407e-01 -2.409559e-02 -6.824268e-02 -1.927354e-01 -2.181118e-01 -3.700041e-01 -4.433227e-02 1.745554e-01 -1.794136e-01 1.342734e-02
<VARIANCE> 39
 9.000261e-01 2.855293e+00 3.467151e+00 4.628327e+00 7.843464e+00 5.070051e+00 6.809611e+00 2.496246e+01 2.264827e+01 7.463819e+00 6.565878e+00 2.862108e+00 2.479505e+01 5.694823e-02 1.804823e-01 2.760502e-01 1.551844e-01 2.281426e-01 4.210547e-01 7.567070e-01 6.364562e-01 1.496652e+00 4.126021e-01 3.740236e-01 3.722620e-01 2.125144e-01 2.107130e-02 1.182555e-01 1.604472e-01 9.498683e-02 1.779902e-01 1.971415e-01 1.953559e-01 1.723907e-01 2.611322e-01 1.327410e-01 1.035191e-01 1.217447e-01 6.330805e-02
<GCONST> 5.327075e+01
<STATE> 4
<MEAN> 39
 -2.081098e+01 3.973773e-01 -4.569477e+00 -1.954650e+00 -1.110955e+00 8.082218e-01 6.519683e-01 1.412915e+00 1.309823e+00 2.161371e+00 9.797627e-01 1.316753e-01 5.448024e+01 -1.835180e-01 -6.480761e-01 1.031952e+00 2.257911e-01 -1.340191e-01 3.004440e-01 -5.462661e-01 -5.479637e-01 -8.339206e-01 -2.412126e-02 6.157770e-01 -4.136205e-01 2.964560e-01 -1.521068e-01 -5.532235e-01 6.300659e-01 -5.872493e-02 -4.427018e-02 1.571489e-01 2.082320e-02 5.394366e-02 -4.337310e-02 -1.257031e-01 1.509328e-01 -2.342541e-01 4.538955e-01
<VARIANCE> 39
 9.000261e-01 8.839418e-01 3.624563e+00 3.957509e+00 3.865582e+00 4.601446e+00 8.382623e+00 1.643761e+01 8.268724e+00 6.847254e+00 4.687169e+00 6.545009e+00 3.087393e+01 2.325875e-01 1.210338e+00 1.637377e+00 5.292264e-01 7.168643e-01 1.099487e+00 4.397132e-01 8.618057e-01 8.282405e-01 6.656901e-01 3.642808e-01 4.765749e-01 3.043529e-01 5.954719e-02 1.577586e-01 2.271498e-01 4.541157e-02 1.161505e-01 1.488468e-01 2.849312e-01 1.565226e-01 2.235293e-01 1.009778e-01 1.871943e-01 8.372179e-02 7.992734e-02
<GCONST> 5.976757e+01
<TRANSP> 5
 0.000000e+00 1.000000e+00 0.000000e+00 0.000000e+00 0.000000e+00
 0.000000e+00 9.460788e-01 5.392120e-02 0.000000e+00 0.000000e+00
 0.000000e+00 0.000000e+00 3.628543e-01 6.371457e-01 0.000000e+00
 0.000000e+00 0.000000e+00 0.000000e+00 2.462347e-01 7.537652e-01
 0.000000e+00 0.000000e+00 0.000000e+00 0.000000e+00 0.000000e+00
<ENDHMM>
~h "sil"
<BEGINHMM>
<NUMSTATES> 5
<STATE> 2
<MEAN> 39
 -2.157123e+01 2.035746e+00 -7.277156e+00 1.944942e+00 -3.791881e+00 3.891021e+00 -3.658076e+00 2.069863e+00 -2.660698e+00 9.253557e-01 -4.424490e-01 -8.943313e-02 2.954257e+01 1.269877e-01 -1.357108e-02 6.657350e-02 -3.691351e-02 7.158522e-02 -1.971622e-02 6.104626e-02 -6.324708e-02 1.248595e-02 4.906259e-04 -1.929935e-02 1.799923e-03 1.889653e-01 5.438132e-03 1.651516e-03 7.841300e-03 -1.371282e-03 6.370925e-03 5.234228e-03 1.756946e-02 7.913314e-03 1.173460e-02 1.016645e-02 1.020511e-02 5.510862e-03 1.202326e-02
<VARIANCE> 39
 1.420821e+02 2.846809e+00 2.175574e+01 5.656030e+00 1.413729e+01 8.796965e+00 1.268865e+01 1.089723e+01 6.836210e+00 4.896196e+00 4.581995e+00 4.101034e+00 2.737379e+02 1.694776e-01 1.081068e-01 1.609742e-01 2.153186e-01 2.904072e-01 3.531011e-01 4.281267e-01 4.681695e-01 4.763770e-01 4.810413e-01 4.669204e-01 4.448628e-01 1.676220e-01 2.287974e-02 2.116209e-02 3.094765e-02 4.301238e-02 5.815260e-02 7.165213e-02 8.656468e-02 9.282354e-02 9.738439e-02 9.370821e-02 9.037650e-02 9.173635e-02 1.236764e-02
<GCONST> 4.978231e+01
<STATE> 3
~s "silst"
<STATE> 4
<MEAN> 39
 -2.073075e+01 1.013629e+00 -3.504150e+00 -1.246573e+00 -2.092165e-01 1.615036e+00 3.259643e+00 3.363791e+00 3.449906e+00 1.732860e+00 6.961092e-01 -5.555108e-01 5.651571e+01 -6.308936e-03 -1.136329e-02 -1.563490e-02 -1.814710e-02 -1.434823e-02 -1.659960e-02 -1.213296e-02 -7.285484e-03 -7.759776e-03 -6.253901e-03 1.934662e-03 2.971416e-03 5.700335e-03 4.450206e-03 3.835210e-04 3.013514e-03 3.786059e-03 1.988645e-03 -4.789112e-04 -4.664699e-03 -8.334992e-03 -1.017341e-02 -4.433469e-03 2.145832e-03 9.347274e-04 9.696684e-04
<VARIANCE> 39
 1.376991e+00 2.045593e+00 3.687548e+00 4.822176e+00 5.470078e+00 6.219911e+00 8.988968e+00 1.610930e+01 1.410435e+01 8.551243e+00 7.043000e+00 6.807026e+00 1.966594e+01 9.801793e-02 1.552281e-01 2.764153e-01 4.183788e-01 5.041920e-01 5.979624e-01 7.163892e-01 9.162142e-01 9.190372e-01 7.947392e-01 7.079477e-01 6.861137e-01 4.973463e-02 1.985005e-02 3.231176e-02 5.400434e-02 8.359040e-02 1.035523e-01 1.246530e-01 1.464133e-01 1.879287e-01 1.922878e-01 1.669721e-01 1.485487e-01 1.411175e-01 1.032501e-02
<GCONST> 5.116263e+01
<TRANSP> 5
 0.000000e+00 1.000000e+00 0.000000e+00 0.000000e+00 0.000000e+00
 0.000000e+00 8.971413e-01 2.548297e-02 7.737572e-02 0.000000e+00
 0.000000e+00 0.000000e+00 8.965724e-01 1.034276e-01 0.000000e+00
 0.000000e+00 1.367910e-02 0.000000e+00 9.661951e-01 2.012580e-02
 0.000000e+00 0.000000e+00 0.000000e+00 0.000000e+00 0.000000e+00
<ENDHMM>
