~o
<STREAMINFO> 1 39
<VECSIZE> 39<NULLD><MFCC_D_A_0><DIAGC>
~t "T_a"
<TRANSP> 5
 0.000000e+00 1.000000e+00 0.000000e+00 0.000000e+00 0.000000e+00
 0.000000e+00 7.504786e-01 2.495214e-01 0.000000e+00 0.000000e+00
 0.000000e+00 0.000000e+00 7.136198e-01 2.863802e-01 0.000000e+00
 0.000000e+00 0.000000e+00 0.000000e+00 7.833287e-01 2.166713e-01
 0.000000e+00 0.000000e+00 0.000000e+00 0.000000e+00 0.000000e+00
~t "T_b"
<TRANSP> 5
 0.000000e+00 1.000000e+00 0.000000e+00 0.000000e+00 0.000000e+00
 0.000000e+00 8.478261e-01 1.521740e-01 0.000000e+00 0.000000e+00
 0.000000e+00 0.000000e+00 9.544571e-01 4.554293e-02 0.000000e+00
 0.000000e+00 0.000000e+00 0.000000e+00 7.007097e-01 2.992903e-01
 0.000000e+00 0.000000e+00 0.000000e+00 0.000000e+00 0.000000e+00
~t "T_d"
<TRANSP> 5
 0.000000e+00 1.000000e+00 0.000000e+00 0.000000e+00 0.000000e+00
 0.000000e+00 8.879859e-01 1.120141e-01 0.000000e+00 0.000000e+00
 0.000000e+00 0.000000e+00 9.152074e-01 8.479264e-02 0.000000e+00
 0.000000e+00 0.000000e+00 0.000000e+00 5.301872e-01 4.698128e-01
 0.000000e+00 0.000000e+00 0.000000e+00 0.000000e+00 0.000000e+00
~t "T_e"
<TRANSP> 5
 0.000000e+00 1.000000e+00 0.000000e+00 0.000000e+00 0.000000e+00
 0.000000e+00 5.675594e-01 4.324405e-01 0.000000e+00 0.000000e+00
 0.000000e+00 0.000000e+00 6.888050e-01 3.111950e-01 0.000000e+00
 0.000000e+00 0.000000e+00 0.000000e+00 6.172180e-01 3.827820e-01
 0.000000e+00 0.000000e+00 0.000000e+00 0.000000e+00 0.000000e+00
~t "T_f"
<TRANSP> 5
 0.000000e+00 1.000000e+00 0.000000e+00 0.000000e+00 0.000000e+00
 0.000000e+00 9.141310e-01 8.586906e-02 0.000000e+00 0.000000e+00
 0.000000e+00 0.000000e+00 5.250056e-20 1.000000e+00 0.000000e+00
 0.000000e+00 0.000000e+00 0.000000e+00 2.502461e-01 7.497539e-01
 0.000000e+00 0.000000e+00 0.000000e+00 0.000000e+00 0.000000e+00
~t "T_g"
<TRANSP> 5
 0.000000e+00 1.000000e+00 0.000000e+00 0.000000e+00 0.000000e+00
 0.000000e+00 4.997795e-01 5.002205e-01 0.000000e+00 0.000000e+00
 0.000000e+00 0.000000e+00 5.729722e-01 4.270278e-01 0.000000e+00
 0.000000e+00 0.000000e+00 0.000000e+00 8.804789e-01 1.195211e-01
 0.000000e+00 0.000000e+00 0.000000e+00 0.000000e+00 0.000000e+00
~t "T_i"
<TRANSP> 5
 0.000000e+00 1.000000e+00 0.000000e+00 0.000000e+00 0.000000e+00
 0.000000e+00 5.862551e-01 4.137449e-01 0.000000e+00 0.000000e+00
 0.000000e+00 0.000000e+00 6.122285e-01 3.877714e-01 0.000000e+00
 0.000000e+00 0.000000e+00 0.000000e+00 8.543934e-01 1.456067e-01
 0.000000e+00 0.000000e+00 0.000000e+00 0.000000e+00 0.000000e+00
~t "T_j"
<TRANSP> 5
 0.000000e+00 1.000000e+00 0.000000e+00 0.000000e+00 0.000000e+00
 0.000000e+00 7.705861e-01 2.294139e-01 0.000000e+00 0.000000e+00
 0.000000e+00 0.000000e+00 6.596330e-01 3.403669e-01 0.000000e+00
 0.000000e+00 0.000000e+00 0.000000e+00 8.930714e-01 1.069286e-01
 0.000000e+00 0.000000e+00 0.000000e+00 0.000000e+00 0.000000e+00
~t "T_k"
<TRANSP> 5
 0.000000e+00 1.000000e+00 0.000000e+00 0.000000e+00 0.000000e+00
 0.000000e+00 8.894254e-01 1.105746e-01 0.000000e+00 0.000000e+00
 0.000000e+00 0.000000e+00 7.554942e-01 2.445058e-01 0.000000e+00
 0.000000e+00 0.000000e+00 0.000000e+00 7.098432e-01 2.901568e-01
 0.000000e+00 0.000000e+00 0.000000e+00 0.000000e+00 0.000000e+00
~t "T_l"
<TRANSP> 5
 0.000000e+00 1.000000e+00 0.000000e+00 0.000000e+00 0.000000e+00
 0.000000e+00 6.687241e-01 3.312759e-01 0.000000e+00 0.000000e+00
 0.000000e+00 0.000000e+00 7.180881e-01 2.819120e-01 0.000000e+00
 0.000000e+00 0.000000e+00 0.000000e+00 7.214956e-01 2.785043e-01
 0.000000e+00 0.000000e+00 0.000000e+00 0.000000e+00 0.000000e+00
~t "T_m"
<TRANSP> 5
 0.000000e+00 1.000000e+00 0.000000e+00 0.000000e+00 0.000000e+00
 0.000000e+00 9.529923e-01 4.700766e-02 0.000000e+00 0.000000e+00
 0.000000e+00 0.000000e+00 6.243128e-01 3.756872e-01 0.000000e+00
 0.000000e+00 0.000000e+00 0.000000e+00 6.931705e-01 3.068295e-01
 0.000000e+00 0.000000e+00 0.000000e+00 0.000000e+00 0.000000e+00
~t "T_n"
<TRANSP> 5
 0.000000e+00 1.000000e+00 0.000000e+00 0.000000e+00 0.000000e+00
 0.000000e+00 6.054192e-01 3.945808e-01 0.000000e+00 0.000000e+00
 0.000000e+00 0.000000e+00 7.439985e-01 2.560015e-01 0.000000e+00
 0.000000e+00 0.000000e+00 0.000000e+00 5.909892e-01 4.090109e-01
 0.000000e+00 0.000000e+00 0.000000e+00 0.000000e+00 0.000000e+00
~t "T_o"
<TRANSP> 5
 0.000000e+00 1.000000e+00 0.000000e+00 0.000000e+00 0.000000e+00
 0.000000e+00 6.976881e-01 3.023118e-01 0.000000e+00 0.000000e+00
 0.000000e+00 0.000000e+00 6.827950e-01 3.172050e-01 0.000000e+00
 0.000000e+00 0.000000e+00 0.000000e+00 7.614756e-01 2.385244e-01
 0.000000e+00 0.000000e+00 0.000000e+00 0.000000e+00 0.000000e+00
~t "T_p"
<TRANSP> 5
 0.000000e+00 1.000000e+00 0.000000e+00 0.000000e+00 0.000000e+00
 0.000000e+00 9.192133e-01 8.078671e-02 0.000000e+00 0.000000e+00
 0.000000e+00 0.000000e+00 4.560023e-01 5.439976e-01 0.000000e+00
 0.000000e+00 0.000000e+00 0.000000e+00 4.946476e-01 5.053524e-01
 0.000000e+00 0.000000e+00 0.000000e+00 0.000000e+00 0.000000e+00
~t "T_r"
<TRANSP> 5
 0.000000e+00 1.000000e+00 0.000000e+00 0.000000e+00 0.000000e+00
 0.000000e+00 7.326267e-01 2.673733e-01 0.000000e+00 0.000000e+00
 0.000000e+00 0.000000e+00 5.783648e-01 4.216352e-01 0.000000e+00
 0.000000e+00 0.000000e+00 0.000000e+00 7.083474e-01 2.916526e-01
 0.000000e+00 0.000000e+00 0.000000e+00 0.000000e+00 0.000000e+00
~t "T_s"
<TRANSP> 5
 0.000000e+00 1.000000e+00 0.000000e+00 0.000000e+00 0.000000e+00
 0.000000e+00 6.305142e-01 3.694858e-01 0.000000e+00 0.000000e+00
 0.000000e+00 0.000000e+00 7.650005e-01 2.349995e-01 0.000000e+00
 0.000000e+00 0.000000e+00 0.000000e+00 9.211908e-01 7.880925e-02
 0.000000e+00 0.000000e+00 0.000000e+00 0.000000e+00 0.000000e+00
~t "T_t"
<TRANSP> 5
 0.000000e+00 1.000000e+00 0.000000e+00 0.000000e+00 0.000000e+00
 0.000000e+00 9.355710e-01 6.442904e-02 0.000000e+00 0.000000e+00
 0.000000e+00 0.000000e+00 6.827082e-01 3.172918e-01 0.000000e+00
 0.000000e+00 0.000000e+00 0.000000e+00 7.375164e-01 2.624836e-01
 0.000000e+00 0.000000e+00 0.000000e+00 0.000000e+00 0.000000e+00
~t "T_u"
<TRANSP> 5
 0.000000e+00 1.000000e+00 0.000000e+00 0.000000e+00 0.000000e+00
 0.000000e+00 8.756200e-01 1.243800e-01 0.000000e+00 0.000000e+00
 0.000000e+00 0.000000e+00 7.975698e-01 2.024303e-01 0.000000e+00
 0.000000e+00 0.000000e+00 0.000000e+00 7.848577e-01 2.151423e-01
 0.000000e+00 0.000000e+00 0.000000e+00 0.000000e+00 0.000000e+00
~t "T_w"
<TRANSP> 5
 0.000000e+00 1.000000e+00 0.000000e+00 0.000000e+00 0.000000e+00
 0.000000e+00 6.987211e-01 3.012789e-01 0.000000e+00 0.000000e+00
 0.000000e+00 0.000000e+00 8.215567e-01 1.784434e-01 0.000000e+00
 0.000000e+00 0.000000e+00 0.000000e+00 8.670997e-01 1.329003e-01
 0.000000e+00 0.000000e+00 0.000000e+00 0.000000e+00 0.000000e+00
~t "T_y"
<TRANSP> 5
 0.000000e+00 1.000000e+00 0.000000e+00 0.000000e+00 0.000000e+00
 0.000000e+00 3.199218e-01 6.800783e-01 0.000000e+00 0.000000e+00
 0.000000e+00 0.000000e+00 8.398147e-01 1.601853e-01 0.000000e+00
 0.000000e+00 0.000000e+00 0.000000e+00 5.821009e-01 4.178991e-01
 0.000000e+00 0.000000e+00 0.000000e+00 0.000000e+00 0.000000e+00
~t "T_sy"
<TRANSP> 5
 0.000000e+00 1.000000e+00 0.000000e+00 0.000000e+00 0.000000e+00
 0.000000e+00 9.222258e-01 7.777423e-02 0.000000e+00 0.000000e+00
 0.000000e+00 0.000000e+00 3.149724e-01 6.850276e-01 0.000000e+00
 0.000000e+00 0.000000e+00 0.000000e+00 5.797198e-01 4.202802e-01
 0.000000e+00 0.000000e+00 0.000000e+00 0.000000e+00 0.000000e+00
~s "ST_f_2_1"
<MEAN> 39
 -6.987583e+00 4.959106e+00 1.030699e+01 1.853006e+01 1.061265e+01 -8.178606e+00 -8.595546e+00 -1.465747e+00 -1.601414e+01 -7.644727e+00 9.409992e+00 -5.310686e+00 6.929981e+01 -3.823907e-01 4.064810e-01 -3.380074e-02 -1.613829e-01 -6.655379e-01 5.043966e-01 1.072927e+00 -3.808928e-02 6.256712e-01 5.159449e-01 -5.507036e-01 3.343549e-02 -5.127935e-01 -8.863685e-02 3.752545e-02 1.459927e-02 -1.835376e-01 3.326435e-02 2.380413e-01 2.618943e-02 1.992279e-02 2.949197e-01 1.579093e-01 -1.040981e-01 6.352624e-02 -5.188012e-02
<VARIANCE> 39
 2.491707e+00 5.697127e+00 8.268877e+00 8.028255e+00 9.605257e+00 1.276879e+01 1.783215e+01 2.353502e+01 1.838818e+01 1.828692e+01 1.451696e+01 5.542614e+00 3.764233e+00 7.590322e-02 2.981296e-01 4.117239e-01 1.131961e+00 6.369451e-01 1.616149e+00 1.471891e+00 1.698215e+00 2.302968e+00 1.357576e+00 9.153495e-01 5.925006e-01 7.805147e-02 2.362688e-02 6.350885e-02 1.092388e-01 1.658784e-01 1.176809e-01 1.793926e-01 3.536277e-01 3.999238e-01 4.103931e-01 2.349964e-01 2.059503e-01 1.457509e-01 1.436952e-02
<GCONST> 6.886237e+01
~s "ST_f_3_1"
<MEAN> 39
 -1.008949e+01 8.110155e+00 9.362165e+00 1.586679e+01 7.820859e+00 -2.058371e+00 -1.433298e+00 -2.517317e+00 -7.930595e+00 -1.560686e+00 3.696190e+00 -5.891454e+00 6.555698e+01 -9.254487e-01 7.461585e-01 8.843100e-02 -1.208652e+00 -2.707494e-01 1.576811e+00 1.755261e+00 1.030273e+00 2.720594e+00 1.176020e+00 -1.240525e+00 1.625497e+00 -9.949933e-01 -1.618035e-01 -1.537819e-01 -1.259992e-01 -2.386061e-01 -2.904505e-02 1.676750e-02 3.432353e-01 9.825711e-01 3.889651e-01 -2.685407e-01 1.193678e-01 4.461034e-01 -1.191322e-01
<VARIANCE> 39
 1.683508e+00 1.611099e+00 5.960664e+00 5.348092e+00 4.069446e-01 2.055164e-01 7.010008e+00 1.061442e+01 1.577569e+01 6.168755e+00 2.921593e-01 1.658299e+00 1.447546e+00 2.079128e-02 1.901468e-01 4.721371e-01 1.059939e-01 1.061641e-01 6.120855e-01 3.421127e+00 2.415533e-01 2.788214e-02 6.127782e-01 5.219661e-01 5.878507e-01 1.980202e-02 3.220051e-03 2.805990e-02 9.957046e-02 7.317650e-02 2.226984e-02 8.069592e-03 1.005623e-01 5.249631e-02 2.119795e-01 6.651696e-02 6.847331e-02 8.364998e-02 8.693461e-03
<GCONST> 1.929216e+01
~s "ST_f_4_1"
<MEAN> 39
 -1.104852e+01 9.885660e+00 9.441720e+00 1.319195e+01 7.293383e+00 -9.771306e-02 -1.084249e+00 -1.992834e+00 -5.348607e+00 -2.623382e+00 2.726596e+00 -1.677584e+00 6.415955e+01 -1.058451e+00 5.253607e-01 -1.611121e-01 -1.713892e+00 -3.177840e-01 2.106748e+00 2.345447e+00 2.385152e+00 3.083666e+00 5.279672e-01 -1.008132e+00 1.398703e+00 -1.053743e+00 -1.513029e-01 -4.439383e-01 -5.300825e-01 -2.965930e-01 -3.638292e-02 7.675883e-02 3.448218e-01 5.458804e-01 5.682858e-02 1.041176e-01 4.167392e-01 2.939153e-02 -8.106963e-03
<VARIANCE> 39
 1.408273e+00 2.769206e+00 1.232421e+00 2.445920e+00 3.605991e+00 1.941154e+01 1.698960e+01 1.983652e+01 9.944862e+00 6.103619e-01 1.154107e+01 2.420013e+00 1.447546e+00 2.079128e-02 1.264551e-01 7.270278e-01 4.349622e-01 4.328419e-02 3.540941e-01 6.759544e-01 1.051547e-01 1.146877e+00 1.121381e+00 1.814219e-01 2.374000e-01 1.980202e-02 2.836795e-03 2.680537e-02 3.164462e-02 1.293522e-02 3.691005e-02 1.615707e-01 4.597906e-01 1.376233e-01 2.867881e-02 8.142737e-02 1.112219e-01 1.674928e-01 8.633001e-03
<GCONST> 2.902086e+01
~s "ST_s_2_1"
<MEAN> 39
 -1.636111e+01 2.365427e+00 -2.913577e-01 1.029255e+00 9.440970e-01 4.171683e-01 7.028112e-01 6.270462e-01 -1.269994e+00 -2.810850e-01 3.441526e+00 3.179489e-01 6.228624e+01 5.278051e-01 -4.371486e-01 1.915995e+00 3.114662e-01 2.411305e-01 1.997269e-01 -9.420825e-01 -7.295708e-01 -1.423835e+00 -4.212007e-01 9.641444e-01 -3.226491e-01 1.104985e+00 -2.059041e-01 -4.788393e-01 6.323029e-01 -2.992337e-01 6.623788e-03 6.935707e-02 -2.380584e-01 -1.210276e-01 -2.247959e-01 -3.531879e-03 1.041354e-01 -2.157668e-01 3.529614e-01
<VARIANCE> 39
 4.347138e+01 2.006101e+01 1.974537e+01 2.175439e+01 1.617926e+01 1.242644e+01 2.003750e+01 3.033507e+01 7.299425e+01 1.956361e+01 1.572515e+01 8.244631e+00 2.313891e+01 5.318611e+00 4.092230e+00 3.328130e+00 3.681988e+00 2.655024e+00 1.499487e+00 2.951926e+00 4.146834e+00 6.932112e+00 3.637908e+00 1.405612e+00 1.320094e+00 1.395777e+00 5.538919e-01 3.820105e-01 7.409368e-01 5.276824e-01 3.230079e-01 2.982393e-01 4.212003e-01 4.959471e-01 7.889206e-01 4.687480e-01 2.791561e-01 1.932278e-01 1.404091e-01
<GCONST> 1.128705e+02
~s "ST_s_3_1"
<MEAN> 39
 -1.958622e+01 -6.409765e+00 1.327856e+01 -1.657124e+00 3.675675e+00 1.613757e+00 -3.561836e+00 -1.864081e+00 -6.240693e+00 -2.277547e-02 7.488279e+00 -2.557283e+00 6.959739e+01 -1.894452e+00 -2.054795e+00 2.143404e+00 -1.185503e+00 6.057260e-01 4.090707e-01 -2.392134e-01 1.395470e-01 8.717360e-01 8.414013e-01 3.501357e-02 -6.648663e-01 7.905658e-01 -4.568647e-02 1.704878e-01 -5.211778e-01 -7.284284e-02 -7.923696e-02 -1.551616e-01 1.458879e-01 1.000199e-01 2.800481e-01 4.196163e-02 -1.941281e-01 -3.824495e-03 -2.061805e-01
<VARIANCE> 39
 1.009753e+02 5.477345e+01 5.003489e+01 1.062307e+02 4.494285e+01 2.166274e+01 2.590357e+01 4.489650e+01 7.021553e+01 3.460898e+01 2.337159e+01 1.712202e+01 1.010695e+01 6.627065e+00 2.416587e+00 6.880644e+00 6.699067e+00 1.677215e+00 2.198165e+00 3.070503e+00 2.903531e+00 5.441610e+00 2.044177e+00 1.395951e+00 1.048854e+00 8.330324e-01 1.094216e+00 5.956020e-01 9.516364e-01 1.324296e+00 4.839754e-01 4.819964e-01 6.059872e-01 5.747821e-01 9.544212e-01 4.744605e-01 3.833120e-01 2.600088e-01 8.770202e-02
<GCONST> 1.233795e+02
~s "ST_s_4_1"
<MEAN> 39
 -4.051186e+00 -1.556791e+00 1.071548e+00 6.017933e+00 3.529680e+00 -5.692618e+00 -7.107150e+00 -9.808767e+00 -1.648269e+01 2.039854e-01 1.116844e+01 -4.039699e-01 7.419498e+01 9.008039e-01 8.332353e-01 -6.475484e-01 4.076630e-01 -1.212604e-01 -3.059965e-01 9.175676e-02 -1.029237e-01 -3.664093e-01 -2.763119e-01 4.357173e-02 3.297181e-01 -2.044580e-02 -2.872609e-01 5.020013e-02 1.607824e-01 -1.024270e-01 -2.293763e-02 1.077448e-01 1.064528e-01 1.453741e-01 2.614194e-01 -5.312925e-03 -1.193149e-01 3.006942e-02 -1.735913e-01
<VARIANCE> 39
 5.716930e+01 3.383829e+01 4.441281e+01 5.764015e+01 3.182109e+01 3.044549e+01 3.738077e+01 4.082301e+01 5.613918e+01 2.632016e+01 2.693549e+01 3.229889e+01 1.138866e+01 4.092317e+00 3.854410e+00 1.674983e+00 6.187390e+00 2.030760e+00 2.220198e+00 2.725382e+00 2.457190e+00 4.970284e+00 1.618452e+00 2.435438e+00 1.728288e+00 1.317212e+00 4.209312e-01 6.148934e-01 1.564421e-01 6.049808e-01 2.551717e-01 4.294529e-01 3.764572e-01 3.257854e-01 6.591343e-01 2.820979e-01 2.487896e-01 2.879069e-01 1.389056e-01
<GCONST> 1.157890e+02
~s "ST_s_4_2"
<MEAN> 39
 -2.304832e+01 -1.032194e+01 1.491782e+01 -4.431711e+00 6.169827e+00 1.857527e+00 -5.826511e+00 -3.981654e+00 -3.866628e+00 1.299316e+00 8.710287e+00 -3.262280e+00 7.193747e+01 6.563022e-01 5.654225e-01 -8.919005e-01 3.538814e-01 9.536291e-02 -9.730589e-02 -4.150555e-01 -3.707573e-01 -3.488947e-01 -2.334876e-01 1.981208e-03 -3.005567e-02 -2.323411e-01 6.120649e-01 5.064465e-01 -3.847793e-01 5.758914e-01 8.987237e-02 3.760875e-02 -6.768089e-04 -1.180587e-01 -2.995835e-01 -1.839454e-01 -7.859340e-02 8.520889e-02 -1.249168e-01
<VARIANCE> 39
 8.608051e+01 3.739511e+01 3.663992e+01 1.095449e+02 1.853232e+01 2.696762e+01 3.918873e+01 3.679166e+01 5.175195e+01 1.860590e+01 2.145331e+01 1.342232e+01 4.909157e+00 1.058568e+01 5.056705e+00 3.331988e+00 1.165281e+01 2.548458e+00 2.631744e+00 2.506518e+00 3.190100e+00 6.937068e+00 1.691376e+00 2.048189e+00 1.284252e+00 9.297392e-01 1.581389e+00 7.041301e-01 6.470135e-01 1.567682e+00 4.185287e-01 6.247304e-01 5.111366e-01 5.967957e-01 1.397506e+00 3.589181e-01 4.241989e-01 2.154250e-01 1.686576e-01
<GCONST> 1.233717e+02
~s "ST_i_2_1"
<MEAN> 39
 -1.073621e+01 9.462087e+00 4.914185e+00 6.667875e+00 5.282227e+00 2.640393e+00 6.575627e-01 -1.852038e+00 -2.977387e+00 1.699576e-01 3.028575e+00 -4.710546e-02 6.422356e+01 -2.109809e+00 4.779011e-01 1.667855e-01 -5.581038e-01 2.040753e-01 1.662084e+00 1.610686e+00 1.765438e+00 2.980777e+00 7.796180e-01 -1.010440e+00 4.718585e-01 -1.738139e+00 -3.175123e-02 -7.200834e-01 -5.109413e-01 -2.602145e-01 -1.606763e-01 -2.480468e-01 -5.127428e-02 1.388049e-01 -9.689007e-02 1.586566e-01 4.474033e-01 1.176376e-01 1.987270e-01
<VARIANCE> 39
 1.342953e+01 1.197249e+01 1.461446e+01 1.632685e+01 1.720424e+01 1.706907e+01 1.740636e+01 1.827326e+01 3.048686e+01 2.099018e+01 1.871236e+01 1.580963e+01 6.350229e+00 2.070356e+00 1.439618e+00 2.136558e+00 2.550759e+00 1.423520e+00 1.775735e+00 2.218565e+00 1.603301e+00 3.161808e+00 1.614659e+00 1.891833e+00 8.686971e-01 1.389003e+00 1.801501e-01 1.888235e-01 1.325687e-01 1.845496e-01 1.638047e-01 2.718393e-01 2.609585e-01 2.449616e-01 4.440416e-01 2.409279e-01 2.599799e-01 1.946881e-01 1.139093e-01
<GCONST> 9.477200e+01
~s "ST_i_3_1"
<MEAN> 39
 -1.644587e+01 6.141326e+00 2.072207e+00 4.178353e+00 5.053256e+00 4.905252e+00 4.596291e+00 4.366162e+00 4.477643e+00 3.565297e+00 3.257318e+00 1.195173e+00 6.085864e+01 -1.365975e+00 -1.211610e+00 -1.306083e+00 -1.295601e+00 -9.533873e-01 -2.005646e-01 4.533863e-01 8.224245e-01 9.259619e-01 3.623076e-01 8.117577e-02 3.077975e-01 -7.294270e-01 2.865828e-01 -1.398592e-01 -8.092760e-02 -4.186744e-02 -2.727968e-01 -5.494845e-01 -5.201307e-01 -5.283018e-01 -7.033004e-01 -3.085369e-01 9.945044e-04 -2.182631e-01 2.656067e-01
<VARIANCE> 39
 9.358827e+00 1.147046e+01 1.133265e+01 1.101531e+01 1.250604e+01 1.601761e+01 1.775363e+01 1.625857e+01 1.799902e+01 1.407149e+01 9.658480e+00 1.052128e+01 2.665788e+00 7.044388e-01 6.220973e-01 8.089703e-01 1.069066e+00 1.225426e+00 1.628254e+00 2.022683e+00 1.830167e+00 2.154417e+00 1.419628e+00 1.115692e+00 1.154108e+00 3.099108e-01 1.515874e-01 1.667218e-01 2.031071e-01 2.136069e-01 2.122691e-01 2.991618e-01 3.363205e-01 2.337901e-01 3.232439e-01 2.136713e-01 2.586198e-01 1.598026e-01 9.734138e-02
<GCONST> 8.420647e+01
~s "ST_i_4_1"
<MEAN> 39
 -2.062841e+01 1.197289e+00 -3.343225e+00 -1.474799e+00 -3.776754e-01 1.080876e+00 3.292091e+00 4.153090e+00 4.388126e+00 2.340478e+00 1.041366e+00 -4.533527e-01 5.896973e+01 -5.948047e-02 -8.161976e-02 -7.487769e-02 -7.671614e-02 -8.087626e-02 -3.449550e-02 -3.048376e-02 -5.781867e-02 -4.438005e-02 -5.774828e-02 -5.452969e-02 -4.343254e-02 -1.974593e-02 5.628690e-02 4.529147e-02 6.870219e-02 7.772253e-02 6.834666e-02 3.923042e-02 4.930953e-03 -1.026881e-02 -2.364318e-02 -7.538054e-03 1.689164e-02 6.735207e-03 3.312618e-02
<VARIANCE> 39
 2.239854e+00 5.380431e+00 6.027444e+00 5.657375e+00 5.761126e+00 5.726574e+00 7.757252e+00 9.699112e+00 8.408219e+00 7.244054e+00 6.841516e+00 6.304476e+00 1.447546e+00 1.346833e-01 2.245322e-01 4.144224e-01 6.009983e-01 7.196721e-01 6.953808e-01 8.567131e-01 9.870415e-01 8.670244e-01 7.580350e-01 6.309008e-01 6.482161e-01 4.502270e-02 3.822560e-02 5.289261e-02 8.666957e-02 1.324691e-01 1.587266e-01 1.480710e-01 1.690862e-01 1.882931e-01 1.761085e-01 1.698199e-01 1.268490e-01 1.377944e-01 1.333690e-02
<GCONST> 5.385095e+01
~s "ST_i_4_2"
<MEAN> 39
 -1.862050e+01 2.872394e+00 -1.608598e+00 -2.847375e-01 1.538427e+00 2.867543e+00 3.330161e+00 3.491920e+00 3.820353e+00 2.187505e+00 1.836140e+00 7.367833e-01 6.026514e+01 -4.986566e-01 -5.519765e-01 -4.683347e-01 -7.384292e-01 -7.752549e-01 -5.363606e-01 -3.146363e-01 -1.207449e-01 2.024439e-02 -6.317033e-02 -1.518530e-01 -2.690300e-01 -1.856813e-01 2.925817e-01 6.378063e-02 2.334691e-01 7.909613e-02 1.870970e-01 -4.228475e-02 -1.495093e-01 -1.903371e-01 -3.915800e-01 -1.894942e-01 6.482646e-02 -1.142246e-01 2.903472e-01
<VARIANCE> 39
 1.318905e+01 1.569612e+01 1.322012e+01 1.106762e+01 7.915782e+00 7.817702e+00 1.235534e+01 1.776620e+01 1.796592e+01 1.267303e+01 1.071727e+01 1.062251e+01 5.356844e+00 5.599346e-01 5.998071e-01 7.584994e-01 1.002320e+00 1.450843e+00 1.355047e+00 1.154369e+00 1.231753e+00 1.617743e+00 1.471501e+00 8.998274e-01 9.493540e-01 4.153202e-01 1.368514e-01 1.891179e-01 2.168503e-01 2.630108e-01 2.223378e-01 1.971305e-01 3.162727e-01 3.369218e-01 6.393926e-01 3.846356e-01 2.074313e-01 2.063209e-01 1.624158e-01
<GCONST> 8.459101e+01
~s "ST_l_2_1"
<MEAN> 39
 -4.210165e+00 2.923020e+00 4.166254e+00 9.109093e+00 2.975106e+00 -7.757378e+00 -5.261031e+00 -4.110675e+00 -1.142641e+01 7.139187e-01 6.291143e+00 -5.743487e+00 7.218981e+01 -2.825747e-01 1.000708e+00 5.871847e-01 7.733510e-02 2.962984e-01 3.291450e-01 -8.814162e-01 -1.462471e-01 9.419005e-01 -2.173117e-01 -8.056475e-01 -4.752457e-01 -6.129074e-01 -1.427047e-01 1.360996e-01 -6.239245e-02 -1.998774e-01 -2.142361e-02 2.400828e-01 1.801762e-01 2.932896e-02 2.249537e-01 -3.273843e-02 -1.105904e-01 1.928272e-01 -1.690024e-01
<VARIANCE> 39
 1.192051e+01 1.937220e+01 2.645754e+01 7.440733e+01 5.151334e+01 2.610061e+01 5.510509e+01 2.827027e+01 6.770639e+01 3.100321e+01 2.842486e+01 2.354205e+01 1.250716e+01 4.336875e-01 1.312856e+00 1.508564e+00 2.448252e+00 1.040299e+00 1.890239e+00 1.544319e+00 1.074000e+00 2.157242e+00 1.622755e+00 1.493740e+00 1.071396e+00 5.622957e-01 9.714098e-02 2.167575e-01 1.454287e-01 2.180580e-01 2.359314e-01 2.941211e-01 3.615521e-01 2.333708e-01 4.278105e-01 3.162716e-01 2.332776e-01 1.589536e-01 1.168888e-01
<GCONST> 9.912032e+01
~s "ST_l_3_1"
<MEAN> 39
 -6.079090e+00 8.658597e+00 4.557604e+00 5.382337e+00 2.547244e+00 -2.674648e+00 -4.332271e+00 -5.705993e+00 -7.282125e+00 -3.770570e-01 3.252365e+00 -3.105466e+00 6.838966e+01 -5.523036e-01 -2.815720e-01 -4.163369e-01 -5.263227e-01 9.597593e-02 5.946056e-01 4.601492e-01 2.197377e-01 -1.662280e-03 -7.440700e-02 4.581985e-01 8.330081e-01 -2.981170e-01 5.375536e-02 -4.322977e-01 -2.324702e-01 5.946676e-02 6.427576e-03 -1.506334e-01 3.935729e-02 -6.231726e-02 -2.820123e-01 8.162645e-02 3.844414e-01 1.792914e-01 1.801932e-01
<VARIANCE> 39
 2.015705e+01 1.962996e+01 1.635029e+01 1.686419e+01 2.095416e+01 2.103262e+01 4.452473e+01 3.415906e+01 6.158789e+01 2.142477e+01 2.040106e+01 2.153589e+01 1.670155e+01 1.907699e+00 2.117239e+00 1.655023e+00 1.528601e+00 1.591160e+00 1.425486e+00 1.739515e+00 1.867317e+00 4.849098e+00 1.731945e+00 2.651353e+00 1.650850e+00 1.680808e+00 1.368195e-01 1.918139e-01 2.184278e-01 3.416127e-01 1.646180e-01 3.014343e-01 3.872208e-01 2.492504e-01 4.872643e-01 3.292925e-01 3.013073e-01 3.078178e-01 1.167632e-01
<GCONST> 1.032912e+02
~s "ST_l_4_1"
<MEAN> 39
 -3.829441e+00 7.780400e-01 -5.338734e-01 5.418523e+00 4.069087e+00 -4.749280e+00 -5.069996e+00 -7.670240e+00 -1.422401e+01 3.161412e+00 1.322499e+01 -1.229582e-01 7.261958e+01 -1.247643e-01 -3.734390e-01 -3.633856e-01 -3.542668e-02 -5.831346e-02 2.810740e-01 3.368745e-01 -8.503987e-02 1.694333e-01 4.196240e-01 4.370749e-01 1.228620e-01 -9.293395e-02 -6.328169e-02 2.026219e-01 1.075293e-01 1.792073e-03 -2.112484e-02 1.245189e-01 8.739777e-02 1.863005e-02 2.213249e-01 -1.438743e-02 -3.093155e-01 -1.269827e-01 -1.236489e-01
<VARIANCE> 39
 2.047484e+01 1.759231e+01 6.268306e+00 2.473695e+01 2.101450e+01 1.877885e+01 3.922224e+01 3.489344e+01 5.844689e+01 3.397493e+01 3.025744e+01 1.766856e+01 1.764013e+01 3.231421e-01 1.083129e+00 8.721166e-01 1.860012e+00 8.311137e-01 1.388032e+00 1.576180e+00 8.803867e-01 1.082444e+00 1.091693e+00 1.690770e+00 9.272445e-01 3.441494e-01 8.917775e-02 1.123796e-01 1.992442e-01 3.577161e-01 1.885251e-01 1.998354e-01 3.479695e-01 2.144711e-01 4.194350e-01 2.308403e-01 2.147284e-01 2.492957e-01 6.572317e-02
<GCONST> 9.090405e+01
~s "ST_y_2_1"
<MEAN> 39
 -1.959493e+01 2.728237e+00 -2.059796e+00 -5.960358e-01 2.405927e-01 2.410509e+00 4.247984e+00 5.799288e+00 7.019302e+00 5.194599e+00 4.259216e+00 2.170285e+00 5.930899e+01 -6.144708e-01 -8.025681e-01 -8.988001e-01 -8.400853e-01 -6.481861e-01 -5.844396e-02 1.339302e-01 1.771064e-01 7.717730e-02 5.790819e-02 -1.992903e-01 -6.889930e-01 -2.984528e-01 4.084541e-01 3.193383e-01 2.265366e-01 2.618384e-01 6.447659e-02 -1.459638e-01 -1.616648e-01 -2.842025e-01 -4.563318e-01 -3.002020e-01 -2.026792e-01 -1.436284e-01 1.927031e-01
<VARIANCE> 39
 1.849837e+00 2.552718e+00 2.885378e+00 3.951688e+00 4.208592e+00 5.375186e+00 3.988199e+00 8.299221e+00 8.485065e+00 6.933332e+00 1.276515e+01 1.224148e+01 1.447546e+00 3.310983e-01 2.238433e-01 2.515170e-01 3.771060e-01 6.660435e-01 8.839860e-01 7.581890e-01 1.119628e+00 8.411742e-01 1.039901e+00 7.139217e-01 9.091721e-01 8.791034e-02 6.583188e-02 3.938917e-02 5.356148e-02 9.433562e-02 1.715477e-01 1.817046e-01 1.325496e-01 1.722185e-01 3.176820e-01 2.164692e-01 2.631632e-01 2.484396e-01 3.438882e-02
<GCONST> 5.586375e+01
~s "ST_y_3_1"
<MEAN> 39
 -2.080604e+01 1.695064e+00 -2.758960e+00 -5.133751e-01 -2.044260e-02 1.565134e+00 3.764433e+00 4.192150e+00 4.303055e+00 2.861694e+00 2.374523e+00 3.782214e-01 5.865269e+01 -1.563126e-01 -1.200146e-01 -1.061999e-01 2.143137e-03 6.744862e-02 6.566904e-02 1.082547e-01 1.426729e-02 -9.465416e-02 -6.072609e-02 -5.871385e-03 -6.754313e-02 -6.703918e-02 6.364510e-02 6.574195e-02 9.304892e-02 9.686539e-02 1.358365e-01 6.809411e-02 2.347953e-03 1.780278e-03 -6.795581e-03 -9.918237e-03 1.737422e-02 3.997072e-02 4.707574e-02
<VARIANCE> 39
 1.069385e+00 1.709354e+00 3.319125e+00 4.090112e+00 5.244172e+00 5.922571e+00 6.125331e+00 1.028982e+01 9.454722e+00 6.335197e+00 7.515979e+00 7.659188e+00 1.447546e+00 1.392130e-01 1.946733e-01 2.631914e-01 2.997114e-01 4.686339e-01 6.351501e-01 5.977516e-01 9.393844e-01 9.376915e-01 7.034976e-01 1.200967e+00 9.299437e-01 4.609937e-02 3.831407e-02 4.649685e-02 6.925892e-02 7.005977e-02 9.102131e-02 1.285999e-01 1.246445e-01 1.748458e-01 1.862428e-01 1.706236e-01 2.552908e-01 2.211169e-01 1.524583e-02
<GCONST> 4.922485e+01
~s "ST_y_4_1"
<MEAN> 39
 -2.125270e+01 1.084233e+00 -3.180167e+00 -5.686865e-01 8.937624e-01 2.592086e+00 4.537405e+00 5.374119e+00 5.156385e+00 3.207093e+00 2.315398e+00 4.611040e-01 5.860586e+01 9.736664e-01 1.904088e-01 4.483483e-01 -2.269317e-01 3.701323e-01 -4.741553e-01 -7.407681e-01 -1.066608e+00 -1.258718e+00 -7.563606e-01 -1.742978e-01 -6.725810e-02 9.778036e-01 9.775888e-01 2.302223e-01 9.014693e-02 -1.235907e-01 -1.371577e-01 -5.625473e-01 -3.372253e-01 -5.611661e-01 -8.473280e-01 -1.697245e-01 2.884265e-01 5.183368e-02 7.348095e-01
<VARIANCE> 39
 1.494929e+00 1.914265e+00 3.341438e+00 3.527646e+00 4.400460e+00 3.433434e+00 5.263577e+00 9.901131e+00 1.037757e+01 1.075328e+01 1.289313e+01 1.055214e+01 1.447546e+00 2.198975e+00 7.012090e-01 1.026606e+00 4.552397e-01 1.145521e+00 1.715361e+00 1.497435e+00 1.775583e+00 2.399843e+00 1.489228e+00 1.851766e+00 1.093240e+00 1.465695e+00 3.260594e-01 1.131065e-01 2.017320e-01 7.451416e-02 1.563687e-01 2.567742e-01 3.094327e-01 1.455110e-01 2.691179e-01 2.706542e-01 4.298299e-01 2.791019e-01 1.640636e-01
<GCONST> 7.518829e+01
~s "ST_b_2_1"
<MEAN> 39
 -1.956938e+01 2.725144e+00 -1.812245e+00 1.064972e-01 1.389569e+00 3.160203e+00 4.740341e+00 4.764627e+00 4.929983e+00 2.990281e+00 2.541421e+00 3.547958e-01 5.925440e+01 -4.046396e-01 -3.990850e-01 -5.197966e-01 -7.591611e-01 -8.457310e-01 -5.265463e-01 -1.435707e-01 5.397770e-02 1.469969e-01 -6.279016e-02 -4.321158e-02 -2.341268e-02 -1.927264e-01 1.334236e-01 1.408575e-01 1.656799e-01 1.960290e-01 1.935079e-01 1.362449e-01 8.856931e-03 -1.160036e-01 -1.422391e-01 -3.091992e-02 -4.557944e-02 -6.399946e-02 6.842566e-02
<VARIANCE> 39
 2.413955e+00 4.125480e+00 5.840584e+00 7.903343e+00 1.254876e+01 1.763980e+01 1.858799e+01 1.502641e+01 1.126261e+01 1.012536e+01 9.660990e+00 7.206143e+00 1.447546e+00 3.619701e-01 5.073030e-01 6.309493e-01 1.098065e+00 1.350363e+00 1.573491e+00 1.996661e+00 1.575638e+00 1.249940e+00 1.321729e+00 7.968162e-01 7.518300e-01 9.751318e-02 6.791834e-02 9.432132e-02 1.104446e-01 1.886841e-01 2.330989e-01 2.778428e-01 4.116274e-01 2.980399e-01 2.705718e-01 2.252877e-01 1.433023e-01 1.231877e-01 2.008242e-02
<GCONST> 7.119025e+01
~s "ST_b_3_1"
<MEAN> 39
 -2.080212e+01 1.586927e+00 -2.799489e+00 -7.798922e-01 -1.571542e-01 1.299621e+00 3.494808e+00 4.159076e+00 4.045990e+00 1.722189e+00 9.307621e-01 -5.607651e-01 5.872845e+01 5.531265e-03 4.301145e-05 3.385242e-02 2.363653e-02 2.418754e-02 -1.664018e-02 -4.831084e-02 -2.662568e-02 -4.802302e-02 -5.756384e-02 -4.409288e-02 2.428030e-03 1.110028e-02 7.152255e-03 -2.741436e-03 -8.592542e-03 -7.832284e-03 -2.233510e-03 -1.404542e-02 -9.306697e-03 4.214279e-03 1.252603e-02 1.118367e-02 8.099214e-03 -4.978214e-03 2.680367e-03
<VARIANCE> 39
 1.344957e+00 1.804271e+00 2.970593e+00 4.205489e+00 4.591910e+00 5.489766e+00 6.454937e+00 7.539559e+00 8.213440e+00 8.929444e+00 6.317761e+00 5.792387e+00 1.447546e+00 1.180285e-01 1.223416e-01 2.259496e-01 5.053599e-01 5.429623e-01 5.626626e-01 7.538831e-01 8.581035e-01 9.140199e-01 1.045563e+00 5.844588e-01 6.086763e-01 3.624166e-02 2.310053e-02 2.152830e-02 4.385896e-02 1.047432e-01 1.119664e-01 1.163820e-01 1.737734e-01 1.828014e-01 1.758418e-01 2.218216e-01 1.195608e-01 1.327022e-01 7.192038e-03
<GCONST> 4.493902e+01
~s "ST_b_4_1"
<MEAN> 39
 -2.022710e+01 1.327542e+00 -3.368159e+00 -1.560882e+00 -8.200117e-01 6.898559e-01 2.817551e+00 3.688982e+00 3.697676e+00 1.315991e+00 8.912095e-01 -9.152861e-01 5.909941e+01 3.116108e-02 -1.013319e-01 -1.807216e-01 -7.298201e-02 4.334828e-02 8.246130e-02 2.095637e-01 2.141023e-01 2.614493e-01 3.727560e-01 -1.132343e-01 -2.262152e-01 -2.472550e-02 1.908131e-01 1.109464e-01 1.695425e-01 1.493081e-01 1.777128e-01 1.208741e-01 -5.751141e-02 -2.145528e-01 -1.948625e-01 2.496218e-02 8.034746e-02 6.549103e-02 1.489236e-01
<VARIANCE> 39
 1.760457e+00 3.137660e+00 5.966891e+00 7.001149e+00 4.618241e+00 3.264922e+00 3.583880e+00 1.286805e+01 1.023923e+01 5.923317e+00 5.678590e+00 7.727132e+00 1.447546e+00 1.781513e-01 3.332162e-01 5.608274e-01 9.801943e-01 4.276808e-01 4.352299e-01 7.881281e-01 2.007127e+00 9.707137e-01 1.081929e+00 6.365424e-01 9.020103e-01 9.924759e-02 1.268538e-01 1.481880e-01 1.401257e-01 1.917498e-01 1.576310e-01 7.194644e-02 1.788592e-01 6.508310e-01 4.615977e-01 1.505841e-01 1.329515e-01 1.366711e-01 9.296810e-02
<GCONST> 6.118790e+01
~s "ST_o_2_1"
<MEAN> 39
 -3.630134e+00 8.591572e+00 1.657093e+00 1.356251e+00 -1.936786e+00 -5.587815e+00 -3.149345e+00 -3.443140e+00 -9.434320e+00 -1.324499e+00 5.770876e+00 -2.977308e+00 6.977547e+01 -1.358147e+00 4.696315e-01 8.831033e-01 6.895532e-01 5.244188e-01 6.964796e-01 3.905659e-01 5.982507e-01 1.474913e+00 8.139861e-01 -5.247549e-01 -1.352664e-01 -1.138281e+00 -1.968969e-01 -3.735268e-01 -1.767661e-01 1.357596e-01 2.529190e-01 2.851221e-01 2.429838e-01 3.396438e-02 1.358131e-01 1.273083e-01 -2.508649e-02 8.859847e-02 -3.556096e-02
<VARIANCE> 39
 9.696140e+00 8.613767e+00 1.483267e+01 1.106855e+01 1.869263e+01 1.910180e+01 1.833324e+01 2.160297e+01 4.679783e+01 3.157059e+01 1.367616e+01 6.925854e+00 8.699491e+00 1.887262e+00 7.377604e-01 1.150486e+00 1.470285e+00 3.001792e+00 2.366605e+00 9.599879e-01 1.795072e+00 3.434453e+00 7.880996e-01 1.185967e+00 1.196259e+00 1.006271e+00 6.390356e-02 2.696246e-01 2.895429e-01 2.035232e-01 2.738853e-01 3.008865e-01 2.211994e-01 2.463384e-01 3.280902e-01 2.016695e-01 2.243665e-01 2.002135e-01 5.219620e-02
<GCONST> 9.071867e+01
~s "ST_o_3_1"
<MEAN> 39
 -1.042122e+01 7.629092e+00 4.217764e+00 7.567896e+00 5.112489e+00 1.262706e+00 -1.761908e-01 -1.329629e+00 -4.624086e-01 2.954657e+00 1.545488e+00 -4.287287e+00 6.489955e+01 -1.684662e+00 -6.021051e-01 -3.087108e-01 -7.074616e-02 6.310127e-01 1.332976e+00 1.282769e+00 1.231559e+00 1.539354e+00 3.731967e-01 -3.103843e-01 7.568846e-01 -1.089762e+00 4.376896e-02 -2.965436e-01 -3.279121e-01 -3.539886e-01 -3.819825e-01 -3.066595e-01 2.200432e-02 3.621117e-02 -2.856106e-01 4.655691e-03 3.203747e-01 1.237577e-01 1.204343e-01
<VARIANCE> 39
 1.561091e+01 6.583188e+00 7.168439e+00 1.754052e+01 1.754947e+01 1.529937e+01 2.244287e+01 2.351984e+01 4.363671e+01 2.424236e+01 9.430579e+00 2.237763e+01 1.157788e+01 1.773670e+00 1.021078e+00 9.526334e-01 1.126076e+00 1.481628e+00 1.197694e+00 1.082652e+00 1.400810e+00 2.415502e+00 1.072720e+00 1.136707e+00 1.693107e+00 7.324337e-01 1.409797e-01 2.683849e-01 2.041288e-01 1.520519e-01 3.436509e-01 3.490123e-01 3.528072e-01 2.335058e-01 4.115679e-01 1.963687e-01 1.796153e-01 2.318484e-01 1.106950e-01
<GCONST> 9.146093e+01
~s "ST_o_4_1"
<MEAN> 39
 -1.831311e+01 3.309836e+00 -1.371988e+00 6.386265e-01 1.178815e+00 2.456536e+00 4.292623e+00 5.043115e+00 4.682017e+00 3.583054e+00 3.034805e+00 9.300647e-01 6.005773e+01 -7.377368e-01 -9.699475e-01 -5.201605e-01 -7.681457e-01 -2.447335e-01 -3.976490e-01 -2.718362e-01 -1.530395e-02 -1.554895e-01 -1.967539e-01 5.205329e-03 1.232866e-02 -5.499910e-02 6.281580e-01 2.182335e-01 2.123531e-01 5.188739e-02 7.225012e-03 -3.157014e-01 -3.719954e-01 -4.834684e-01 -5.706061e-01 -3.285917e-01 -4.228324e-02 -1.612154e-01 4.866743e-01
<VARIANCE> 39
 1.593888e+01 4.004364e+00 5.517712e+00 1.024133e+01 1.115448e+01 9.734409e+00 8.544175e+00 1.439523e+01 4.111532e+01 1.572090e+01 8.332151e+00 7.866071e+00 8.686247e+00 1.529662e+00 8.628144e-01 1.287626e+00 1.320962e+00 1.480218e+00 1.554510e+00 1.521792e+00 1.829180e+00 2.165193e+00 1.664142e+00 8.946528e-01 8.307075e-01 1.491507e+00 3.872360e-01 1.661847e-01 1.619565e-01 1.820713e-01 2.315108e-01 2.709908e-01 2.129721e-01 2.039801e-01 4.441540e-01 2.472963e-01 1.594200e-01 2.359006e-01 1.780748e-01
<GCONST> 8.684663e+01
~s "ST_e_2_1"
<MEAN> 39
 -1.101320e+01 6.481263e-02 2.859626e-01 2.000894e+00 4.431448e+00 -2.510475e-01 -1.492674e+00 -7.024201e+00 -9.829117e+00 1.280678e-01 8.171948e+00 8.754113e-01 6.886481e+01 2.384902e+00 -3.310323e-01 -5.147790e-01 1.727158e+00 6.831903e-01 -1.010818e+00 -8.864448e-01 -2.283793e+00 -3.283910e+00 -2.894149e-01 1.669636e+00 2.580142e-01 1.668055e+00 2.162937e-02 2.468326e-02 -1.577642e-03 1.214341e-01 -2.104388e-01 -1.189798e-01 1.757574e-01 2.905024e-01 1.926360e-01 2.342879e-01 -2.872834e-02 5.262000e-03 -7.540472e-02
<VARIANCE> 39
 4.015208e+01 1.861617e+01 3.462909e+01 5.812526e+01 1.652282e+01 2.496483e+01 2.962703e+01 5.358269e+01 7.712988e+01 2.525968e+01 2.641070e+01 1.353311e+01 3.520552e+01 6.398871e+00 4.595322e+00 4.015110e+00 7.955294e+00 1.441807e+00 3.735857e+00 2.620501e+00 3.953321e+00 7.278205e+00 2.615699e+00 2.914799e+00 1.761624e+00 3.096754e+00 6.391054e-01 5.103934e-01 4.365846e-01 9.366615e-01 3.594040e-01 4.354801e-01 3.043697e-01 5.999892e-01 8.829537e-01 3.085385e-01 4.530443e-01 2.092142e-01 3.558051e-01
<GCONST> 1.226284e+02
~s "ST_e_3_1"
<MEAN> 39
 -2.045758e+00 -2.305786e+00 -2.084449e+00 7.691411e+00 3.722226e+00 -5.867776e+00 -3.818705e+00 -1.276266e+01 -2.026601e+01 1.172042e+00 1.304032e+01 1.498579e+00 7.471828e+01 1.272652e-01 2.767130e-01 -1.561255e-01 1.149915e-01 -1.555871e-01 -1.771958e-01 4.076100e-01 3.539425e-01 8.643743e-03 2.764869e-01 -1.499606e-01 -1.620111e-01 -1.138160e-01 -5.441448e-01 2.444896e-01 2.443482e-01 -4.362793e-01 -3.339693e-02 3.648110e-01 7.451104e-02 4.827986e-01 8.251060e-01 3.454371e-02 -4.364930e-01 -1.610348e-01 -3.791374e-01
<VARIANCE> 39
 1.342137e+01 1.279337e+01 1.165286e+01 2.517888e+01 1.073751e+01 2.187731e+01 3.044608e+01 3.598082e+01 3.418775e+01 2.747012e+01 1.394721e+01 1.102431e+01 1.116294e+01 2.735563e+00 1.913085e+00 1.514038e+00 2.528360e+00 1.726439e+00 3.295584e+00 1.660011e+00 2.197726e+00 3.818589e+00 1.255538e+00 2.222298e+00 8.136855e-01 1.935379e+00 3.355686e-01 3.056111e-01 2.428882e-01 5.907733e-01 2.095742e-01 3.151364e-01 4.040008e-01 4.879813e-01 4.933855e-01 3.135106e-01 2.839205e-01 1.311393e-01 1.110195e-01
<GCONST> 1.021909e+02
~s "ST_e_4_1"
<MEAN> 39
 -1.091179e+01 4.810502e+00 1.154356e+00 5.060881e+00 4.896632e+00 2.177959e+00 1.463474e+00 -2.937082e+00 -5.529443e+00 1.347647e+00 5.707630e+00 3.805527e-01 6.557422e+01 -1.550243e+00 2.419170e-01 -4.755875e-02 -3.602628e-01 -4.963953e-02 5.935916e-01 2.888638e-01 1.477110e+00 2.654470e+00 5.882443e-01 -1.068616e+00 -4.350505e-01 -1.291221e+00 9.216830e-02 -2.872329e-01 -1.944757e-01 -1.754878e-01 -2.316447e-01 -3.025835e-01 -1.554240e-01 -1.321033e-01 -9.454049e-02 4.233051e-02 1.478254e-01 -2.245776e-03 1.811296e-01
<VARIANCE> 39
 3.975601e+01 2.481510e+01 1.909455e+01 3.494180e+01 2.166093e+01 4.306323e+01 2.728577e+01 4.665976e+01 9.788072e+01 3.478564e+01 4.090750e+01 1.210055e+01 3.438317e+01 2.466151e+00 3.065269e+00 1.898741e+00 2.277450e+00 2.141972e+00 2.292345e+00 2.903800e+00 4.405720e+00 6.848893e+00 1.494784e+00 2.942573e+00 1.279465e+00 1.718804e+00 3.617571e-01 4.443320e-01 3.345351e-01 5.022072e-01 2.877313e-01 3.951719e-01 3.862793e-01 7.016943e-01 1.059853e+00 2.798370e-01 5.588168e-01 2.002387e-01 1.979514e-01
<GCONST> 1.166410e+02
~s "ST_r_2_1"
<MEAN> 39
 -6.379710e+00 1.186240e+00 -3.973360e+00 -1.701755e+00 -2.092024e-01 -1.776785e+00 3.145842e+00 -5.604055e+00 -1.222339e+01 1.178238e-01 7.085756e+00 2.162668e+00 7.062834e+01 1.930316e+00 -8.831843e-02 -3.347843e-01 3.247387e-01 -4.605112e-01 -6.225826e-01 -1.179636e-01 -7.637516e-01 -1.290467e+00 1.830065e-01 5.744203e-01 -8.916639e-02 1.338458e+00 -2.557913e-01 7.966249e-02 7.049768e-02 1.576431e-01 -5.209665e-02 -1.666454e-02 -1.109667e-01 3.403794e-01 5.597869e-01 2.546855e-02 -2.143489e-01 -1.906767e-01 -2.801612e-01
<VARIANCE> 39
 4.084807e+01 1.495171e+01 1.249461e+01 2.613149e+01 2.204969e+01 2.419386e+01 2.205561e+01 2.625876e+01 3.399535e+01 3.420752e+01 2.595202e+01 1.889223e+01 2.205818e+01 3.138858e+00 1.008772e+00 1.330856e+00 2.214397e+00 1.627557e+00 2.068363e+00 1.324476e+00 2.643128e+00 3.995614e+00 2.603939e+00 1.630392e+00 1.391091e+00 1.649794e+00 4.938703e-01 2.382569e-01 2.428767e-01 5.957780e-01 3.294724e-01 4.479659e-01 2.030327e-01 3.812983e-01 4.884416e-01 4.083706e-01 2.730359e-01 2.678412e-01 2.179325e-01
<GCONST> 1.069346e+02
~s "ST_r_3_1"
<MEAN> 39
 -2.896506e+00 2.651036e+00 -3.283504e+00 -1.107325e-01 -1.419155e+00 -3.662674e+00 1.346565e+00 -5.463002e+00 -1.164241e+01 9.638803e-02 6.293746e+00 -1.600682e-01 7.223044e+01 -1.063545e+00 1.102619e+00 1.118163e+00 4.668803e-01 4.076159e-01 3.034562e-01 -7.013678e-01 5.378461e-01 1.525007e+00 -1.824921e-01 -8.745878e-01 -4.524655e-01 -1.141915e+00 -6.890160e-01 9.863075e-02 3.095623e-01 5.952914e-02 3.102779e-01 3.253970e-01 1.897931e-03 1.788984e-01 5.653221e-01 9.375897e-02 -4.252364e-02 1.350089e-01 -4.698994e-01
<VARIANCE> 39
 2.704210e+01 1.907951e+01 2.282743e+01 1.560219e+01 2.907179e+01 2.311209e+01 2.189250e+01 2.465947e+01 3.288319e+01 3.841503e+01 1.711408e+01 2.401117e+01 1.572436e+01 1.791043e+00 1.958875e+00 1.374013e+00 1.392706e+00 1.860175e+00 1.951741e+00 1.170654e+00 1.874689e+00 1.885718e+00 2.201174e+00 1.883261e+00 1.438318e+00 9.063507e-01 5.662363e-01 4.504227e-01 3.737290e-01 2.641554e-01 1.855365e-01 3.139570e-01 2.591161e-01 4.789308e-01 4.767054e-01 4.586514e-01 4.219344e-01 2.596481e-01 2.722664e-01
<GCONST> 1.051720e+02
~s "ST_r_4_1"
<MEAN> 39
 -1.254432e+01 3.874099e+00 -9.512710e-01 6.490362e-01 2.148732e+00 5.625783e-01 6.912086e-01 -8.239291e-01 -1.721771e+00 1.020675e+00 3.458906e+00 4.025236e-01 6.473016e+01 -7.823087e-01 -8.448347e-02 1.780942e-01 -5.206766e-02 -8.123342e-02 -8.435766e-02 -1.237695e-01 5.527204e-01 6.795612e-01 -1.200275e-01 -2.163169e-01 -2.003555e-02 -5.204038e-01 1.081714e-01 -1.038810e-01 -7.407510e-02 -5.859326e-02 -9.162600e-02 -5.228204e-02 5.769659e-02 -6.052823e-02 -1.806384e-01 -1.445952e-02 4.588204e-02 1.350058e-02 1.233176e-01
<VARIANCE> 39
 5.645245e+01 1.133731e+01 1.374822e+01 9.760946e+00 1.924551e+01 2.360244e+01 2.133719e+01 3.521034e+01 6.549194e+01 3.268639e+01 1.544703e+01 1.012473e+01 3.124493e+01 4.377574e+00 1.670103e+00 1.930004e+00 1.008156e+00 1.599361e+00 2.192751e+00 1.724333e+00 3.249966e+00 4.902818e+00 1.922085e+00 1.853887e+00 1.123814e+00 2.432302e+00 6.268477e-01 2.881660e-01 2.144003e-01 2.308801e-01 2.687671e-01 4.072427e-01 3.709374e-01 4.590143e-01 4.397781e-01 3.320838e-01 2.549856e-01 2.623993e-01 2.590204e-01
<GCONST> 1.067621e+02
~s "ST_u_2_1"
<MEAN> 39
 -1.095277e+01 3.951090e+00 1.005783e+01 7.980611e+00 5.792485e+00 8.249304e-02 -3.892476e+00 -2.509109e+00 -6.315604e+00 -5.588006e+00 4.143587e+00 4.886839e-01 6.834344e+01 8.026175e-01 -3.890564e-01 3.544999e-01 6.903558e-01 3.583240e-01 -5.583316e-01 -8.907983e-01 -4.648083e-01 -7.939433e-01 -7.047494e-01 2.065266e-01 1.112301e-01 8.410977e-01 1.111633e-01 -8.133414e-02 -2.550034e-01 -7.012303e-02 6.167180e-02 -9.304628e-02 -1.390185e-01 -7.137627e-02 -1.596547e-01 -1.852351e-02 2.049433e-01 4.714794e-02 6.675769e-02
<VARIANCE> 39
 4.192841e+01 8.838456e+01 5.019568e+01 3.010270e+01 3.124333e+01 2.101010e+01 3.192661e+01 2.967446e+01 6.617520e+01 2.909223e+01 2.097570e+01 1.323610e+01 1.932792e+01 5.206215e+00 1.067126e+01 5.366676e+00 4.697223e+00 4.171639e+00 1.855883e+00 3.971192e+00 2.808037e+00 7.625057e+00 3.697400e+00 2.837482e+00 1.078783e+00 2.516569e+00 6.565906e-01 1.416764e+00 1.056782e+00 8.623863e-01 8.339148e-01 4.502137e-01 5.800621e-01 4.619112e-01 1.001507e+00 5.063893e-01 4.039519e-01 2.074996e-01 3.715479e-01
<GCONST> 1.271802e+02
~s "ST_u_3_1"
<MEAN> 39
 -3.963496e+00 -1.110641e+00 5.582312e+00 1.387304e+01 1.187804e+01 -5.660304e+00 -1.337326e+01 -4.449167e+00 -1.557723e+01 -1.111512e+01 1.020959e+01 -5.001838e-01 7.398023e+01 8.798678e-01 7.133586e-02 -1.556047e+00 -5.170002e-01 -2.657373e-01 -3.697430e-01 -1.728206e-01 -6.803293e-01 -1.217759e+00 9.039313e-03 7.479223e-01 2.795408e-01 2.299411e-01 -3.381643e-01 5.355360e-02 2.966540e-01 -3.349744e-01 -3.487603e-01 1.649842e-01 4.018967e-01 8.297078e-02 3.610319e-01 2.947340e-01 -2.057238e-01 3.752923e-03 -1.344140e-01
<VARIANCE> 39
 9.145816e+00 1.783525e+01 3.385606e+01 3.138656e+01 2.559488e+01 1.687153e+01 1.205866e+01 4.392165e+01 1.698272e+01 1.987757e+01 8.468126e+00 2.097173e+01 4.042197e+00 6.629654e-01 4.384175e-01 1.518212e+00 2.005311e+00 1.636291e+00 1.280157e+00 1.729005e+00 2.672400e+00 1.532626e+00 1.806499e+00 1.585200e+00 1.810911e+00 2.392774e-01 1.701104e-01 2.355690e-01 2.157609e-01 2.146056e-01 1.927132e-01 1.611655e-01 2.662013e-01 5.424298e-01 4.070964e-01 2.909193e-01 3.106462e-01 3.319874e-01 8.347216e-02
<GCONST> 9.268380e+01
~s "ST_u_4_1"
<MEAN> 39
 -1.834969e+00 1.145014e+00 5.303909e-01 6.378896e+00 5.057870e+00 -4.916473e+00 -9.606169e+00 -9.231753e+00 -1.899006e+01 -7.666197e+00 1.230312e+01 3.121401e+00 7.390215e+01 -4.748772e-01 7.128984e-01 2.338432e-01 -5.883921e-01 -7.204787e-01 4.345139e-01 1.124320e+00 4.252824e-01 5.701615e-01 9.597960e-01 1.094172e-01 -1.550537e-03 -5.942839e-01 -2.414213e-01 1.901017e-01 1.923073e-01 1.308281e-01 1.842753e-01 2.391517e-01 1.517927e-01 2.130245e-01 4.937637e-01 2.014194e-01 -2.402590e-01 -1.721544e-01 -2.377841e-01
<VARIANCE> 39
 3.420607e+00 2.405119e+01 1.078199e+01 1.272827e+01 1.863012e+01 1.136961e+01 2.193118e+01 2.078085e+01 1.943831e+01 2.744126e+01 1.578044e+01 1.836418e+01 7.404016e+00 5.816893e-01 2.076792e+00 1.286237e+00 1.281059e+00 9.811848e-01 2.186676e+00 1.551785e+00 1.642714e+00 2.166674e+00 1.571388e+00 1.610412e+00 9.954244e-01 1.021886e+00 7.340361e-02 2.772313e-01 1.781434e-01 2.296960e-01 1.602908e-01 3.435761e-01 2.220254e-01 3.852893e-01 2.712290e-01 2.448133e-01 1.876671e-01 1.477511e-01 1.236566e-01
<GCONST> 8.970705e+01
~s "ST_k_2_1"
<MEAN> 39
 -1.295819e+01 6.235963e-01 -2.401577e+00 -3.323632e+00 -9.580427e-01 -2.671022e-01 1.589632e+00 -2.572341e-01 -3.679750e+00 1.923826e+00 5.536255e+00 1.748319e-01 6.622166e+01 1.023540e+00 -5.739921e-02 -2.834271e-02 -1.347052e-01 -3.489010e-01 -3.481367e-01 -1.958865e-01 -3.971713e-01 -8.206384e-01 -1.115089e-01 4.060044e-01 2.132490e-02 8.086938e-01 6.557150e-02 6.399078e-03 -5.576730e-02 5.270627e-02 -3.482740e-02 -1.811614e-02 2.761269e-02 2.638393e-02 2.991955e-02 5.379391e-02 7.934786e-03 -3.549025e-02 8.925532e-03
<VARIANCE> 39
 8.720689e+01 1.875861e+01 1.446980e+01 2.974411e+01 2.113903e+01 1.887761e+01 1.907372e+01 3.724108e+01 9.204876e+01 2.401189e+01 3.004659e+01 1.320148e+01 6.046470e+01 5.703629e+00 1.985190e+00 1.673232e+00 3.997944e+00 1.907055e+00 1.919692e+00 1.858486e+00 2.990758e+00 6.371355e+00 1.849636e+00 2.443844e+00 1.721319e+00 3.975754e+00 6.838934e-01 3.885022e-01 3.340869e-01 7.644462e-01 3.262471e-01 3.300385e-01 3.433559e-01 5.476804e-01 9.503993e-01 3.385475e-01 3.957404e-01 3.736941e-01 4.945838e-01
<GCONST> 1.177673e+02
~s "ST_k_3_1"
<MEAN> 39
 -3.589855e-01 -1.989729e-01 -4.710618e+00 -2.774091e+00 -5.543305e+00 -4.504988e+00 6.303078e-01 -5.882283e+00 -1.186732e+01 2.670650e+00 1.088637e+01 8.412967e-01 7.516514e+01 -9.803542e-02 1.686039e-01 -1.650685e-01 4.250803e-02 2.706795e-02 1.054737e-01 6.386230e-01 -1.034188e-01 2.118445e-01 5.655236e-01 -5.074137e-02 1.436003e-02 -2.150629e-01 -2.534195e-01 2.005335e-01 2.304736e-01 6.806430e-02 2.679745e-01 5.510515e-02 -5.473813e-02 9.443860e-02 6.412154e-02 3.014584e-03 -9.565941e-02 -1.037816e-01 -1.979905e-01
<VARIANCE> 39
 1.177573e+01 1.818665e+01 1.152013e+01 1.773174e+01 1.801355e+01 2.219856e+01 2.299265e+01 3.218761e+01 3.136237e+01 1.606459e+01 1.461957e+01 1.013843e+01 1.062308e+01 1.719898e-01 5.124744e-01 5.447937e-01 9.493937e-01 1.042106e+00 1.261256e+00 7.725286e-01 1.337132e+00 1.107825e+00 7.425582e-01 7.503408e-01 7.068273e-01 1.527414e-01 1.110560e-01 1.235697e-01 1.224294e-01 1.980410e-01 1.685193e-01 1.811783e-01 1.937422e-01 2.610647e-01 2.403904e-01 1.010049e-01 1.259342e-01 1.099868e-01 5.010010e-02
<GCONST> 7.758190e+01
~s "ST_k_4_1"
<MEAN> 39
 -2.991725e+00 2.379429e+00 -3.044464e+00 -4.874436e-01 -1.043846e+00 -2.155431e+00 2.162721e+00 -5.597024e+00 -1.124515e+01 5.382771e+00 1.055137e+01 -6.768097e-01 7.231999e+01 -8.134606e-01 1.143861e+00 8.296863e-01 7.057528e-01 1.006607e+00 4.396511e-01 -7.255576e-01 5.352442e-01 1.514912e+00 1.165651e-01 -8.698717e-01 -5.113688e-01 -1.013214e+00 -1.502810e-01 1.851147e-01 2.321622e-01 2.588606e-01 1.284788e-01 5.346672e-02 -3.207352e-01 8.691941e-02 5.199191e-01 -1.846623e-01 -3.140482e-01 6.058102e-02 -1.949731e-01
<VARIANCE> 39
 1.396402e+01 1.303104e+01 1.052080e+01 1.529412e+01 1.658245e+01 2.224701e+01 1.544885e+01 1.934768e+01 3.198048e+01 1.437001e+01 1.487646e+01 7.078522e+00 1.271525e+01 2.609740e-01 1.003988e+00 8.682894e-01 1.528449e+00 1.259345e+00 1.153421e+00 2.163181e+00 9.858240e-01 1.787689e+00 9.994289e-01 1.511240e+00 9.032035e-01 3.451350e-01 3.943115e-02 1.693615e-01 1.377213e-01 1.745146e-01 1.592754e-01 2.134450e-01 2.777115e-01 2.015917e-01 2.480638e-01 1.433376e-01 2.801668e-01 1.171556e-01 4.876048e-02
<GCONST> 8.202895e+01
~s "ST_a_2_1"
<MEAN> 39
 -9.689453e+00 3.657610e-01 1.330527e+00 3.174206e+00 2.014735e+00 -2.052154e+00 -2.430082e+00 -3.858779e+00 -7.019446e+00 5.778657e-01 6.374698e+00 -1.370172e+00 6.890050e+01 8.296228e-01 3.729843e-01 9.500989e-02 4.981439e-01 1.731105e-01 -4.706233e-01 -3.969048e-01 -4.615929e-01 -4.126156e-01 -1.442980e-01 -1.802942e-02 -6.766452e-02 4.664341e-01 -9.798709e-02 -1.667051e-02 -1.262659e-01 -1.440780e-01 -1.143692e-01 6.195390e-02 1.942026e-01 1.044409e-01 1.432466e-01 1.354232e-01 -5.840397e-03 5.604418e-02 -8.909655e-02
<VARIANCE> 39
 7.676032e+01 6.057413e+01 3.725197e+01 4.052171e+01 2.768967e+01 2.685131e+01 3.635450e+01 3.573840e+01 5.709787e+01 2.602114e+01 2.377230e+01 2.257942e+01 1.991740e+01 4.763815e+00 3.752408e+00 2.977083e+00 2.372048e+00 1.248734e+00 2.040627e+00 3.135355e+00 2.739826e+00 6.216198e+00 1.614747e+00 3.459791e+00 1.592204e+00 2.248003e+00 5.498836e-01 6.899642e-01 4.422770e-01 4.635085e-01 1.912567e-01 3.636187e-01 4.269507e-01 4.241620e-01 8.108407e-01 2.719836e-01 5.387258e-01 2.492186e-01 2.197662e-01
<GCONST> 1.185866e+02
~s "ST_a_2_2"
<MEAN> 39
 -6.810382e+00 5.129032e+00 3.608803e+00 3.814404e+00 3.251164e+00 -6.632620e+00 -6.367034e+00 -2.839826e+00 -8.684051e+00 -1.289638e+00 6.566005e+00 -2.503294e+00 6.999809e+01 2.573080e+00 1.746191e-01 -1.327592e-01 -4.040541e-03 -5.932050e-01 -1.146652e+00 -9.370243e-01 -2.684134e-01 -1.685044e+00 -2.059897e-01 1.108361e+00 -1.860083e-01 1.771672e+00 -3.721617e-01 -3.072157e-01 -3.602868e-01 4.540820e-03 -1.425000e-01 3.578781e-01 3.846044e-01 2.491085e-01 3.156923e-01 1.413667e-01 2.048081e-03 6.580909e-02 -3.365334e-01
<VARIANCE> 39
 3.294780e+01 3.051847e+01 2.490756e+01 1.029399e+02 4.119714e+01 3.790415e+01 2.896647e+01 2.559160e+01 3.444410e+01 1.573097e+01 2.567042e+01 1.174015e+01 2.121994e+01 5.089189e+00 2.800165e+00 2.286628e+00 3.810160e+00 3.053944e+00 4.208371e+00 3.155523e+00 2.272691e+00 3.457580e+00 1.554211e+00 2.107886e+00 1.113460e+00 3.055447e+00 6.478671e-01 3.713152e-01 2.615013e-01 4.616886e-01 4.333012e-01 5.678467e-01 5.198758e-01 4.088798e-01 3.666114e-01 2.038704e-01 3.109440e-01 1.949760e-01 3.197877e-01
<GCONST> 1.154302e+02
~s "ST_a_2_3"
<MEAN> 39
 -9.795213e+00 1.945563e+00 -4.022135e+00 -2.416832e+00 -1.165794e+00 -2.642631e+00 3.893736e+00 6.387645e-01 -3.035312e+00 4.595691e+00 4.209201e+00 -9.875344e-01 6.779594e+01 3.074059e-01 2.967761e-01 1.459399e-01 1.354360e-01 -7.694486e-02 -2.488343e-01 -2.797965e-01 1.098003e-01 1.261335e-01 -2.331794e-02 1.134337e-01 8.639766e-02 8.358868e-02 -1.324759e-01 -1.530573e-01 -1.018145e-01 -1.376674e-02 -2.484869e-02 9.182868e-02 1.220608e-01 1.115177e-01 7.294697e-02 4.889388e-02 4.472513e-02 5.016316e-02 -7.431470e-02
<VARIANCE> 39
 7.773407e+01 2.936444e+01 2.069874e+01 1.716172e+01 2.144928e+01 3.116735e+01 3.848301e+01 2.303278e+01 4.756462e+01 2.264665e+01 1.636695e+01 1.091644e+01 5.014061e+01 7.900179e+00 2.932340e+00 2.004742e+00 1.331758e+00 2.095552e+00 3.262905e+00 3.300197e+00 2.615447e+00 5.980178e+00 1.799617e+00 2.066904e+00 1.257138e+00 5.503782e+00 7.039998e-01 5.371236e-01 3.485191e-01 2.285265e-01 3.553315e-01 4.921916e-01 5.318540e-01 4.349471e-01 5.825275e-01 3.264526e-01 3.213219e-01 2.372443e-01 5.039862e-01
<GCONST> 1.162674e+02
~s "ST_a_3_1"
<MEAN> 39
 -2.502588e+00 8.857285e-01 -2.108928e+00 -2.733767e-01 4.920088e-01 -6.364603e+00 -6.172895e+00 -1.665923e+00 -1.126917e+01 -5.781326e-01 1.262814e+01 -4.230464e-01 7.377870e+01 -4.249124e-02 -1.080175e-01 -2.117638e-01 -9.210832e-02 -2.727284e-01 4.742231e-01 6.978191e-01 -1.578271e-01 -1.977465e-02 1.565798e-01 -1.345016e-03 1.713960e-01 -8.872196e-02 -2.267321e-01 1.411676e-01 1.431168e-01 3.368311e-02 1.262339e-01 1.341708e-01 1.337868e-01 -4.508173e-02 1.651092e-01 7.268905e-02 -1.953383e-01 -1.073564e-02 -1.788934e-01
<VARIANCE> 39
 3.074608e+01 1.865402e+01 1.597601e+01 5.152341e+01 5.935400e+01 2.316861e+01 4.446820e+01 3.664228e+01 4.423374e+01 1.683624e+01 3.813819e+01 1.148609e+01 2.236936e+01 2.064025e-01 9.346686e-01 5.016459e-01 7.825788e-01 7.532917e-01 1.035594e+00 1.316396e+00 1.092931e+00 1.296196e+00 9.451310e-01 1.212557e+00 7.636979e-01 2.518291e-01 1.637846e-01 1.607341e-01 1.547127e-01 1.305302e-01 1.817022e-01 2.071596e-01 2.109795e-01 2.120140e-01 2.402434e-01 1.866469e-01 1.741457e-01 1.306861e-01 5.815670e-02
<GCONST> 8.779122e+01
~s "ST_a_3_2"
<MEAN> 39
 -1.020434e+01 6.726618e+00 2.665756e+00 6.241784e+00 4.365778e+00 1.868790e-02 3.465310e-03 4.386334e-01 1.146360e+00 3.768542e+00 3.618142e+00 -1.055071e+00 6.541628e+01 -5.800724e-01 -3.757829e-01 -2.413881e-01 -3.333604e-01 -5.000225e-02 5.460343e-01 8.672759e-01 6.212698e-01 2.426127e-01 2.243950e-02 6.868578e-02 1.994816e-01 -2.868040e-01 -8.772971e-02 -1.427636e-01 -1.134219e-01 -1.659072e-01 -1.245270e-01 -3.114950e-02 -3.537223e-02 -4.883316e-02 -1.431454e-02 -2.565905e-02 -5.120723e-02 -2.438040e-02 -2.072932e-02
<VARIANCE> 39
 3.066086e+01 1.819345e+01 2.241303e+01 2.916430e+01 2.677836e+01 3.283631e+01 3.531993e+01 3.805550e+01 6.784011e+01 2.303753e+01 1.503112e+01 1.232290e+01 2.429577e+01 9.648350e-01 1.114167e+00 9.369687e-01 1.002846e+00 9.566442e-01 1.323860e+00 1.401687e+00 1.539721e+00 1.634583e+00 8.289599e-01 7.362881e-01 9.192107e-01 6.387653e-01 1.957002e-01 1.393600e-01 1.497868e-01 1.442490e-01 2.225567e-01 3.840837e-01 3.082752e-01 3.050085e-01 3.359792e-01 1.659060e-01 1.403441e-01 1.664779e-01 9.407602e-02
<GCONST> 9.344587e+01
~s "ST_a_3_3"
<MEAN> 39
 -1.012741e+01 8.818946e+00 4.444857e+00 8.422606e+00 6.000741e+00 4.450392e-01 -2.243601e+00 -5.359372e-01 3.510275e+00 4.929654e+00 1.523718e+00 -2.223657e+00 6.457473e+01 -9.949854e-01 -1.895657e-01 -4.432462e-03 4.110418e-03 2.773277e-01 7.914358e-01 1.118896e+00 1.171471e+00 9.489926e-01 8.826551e-02 -2.026217e-02 3.437462e-01 -6.764330e-01 -2.090061e-02 -2.331514e-01 -2.623993e-01 -2.722685e-01 -1.719202e-01 -2.559200e-02 1.404986e-01 -2.981834e-04 -1.916483e-01 -1.039603e-02 1.307602e-01 2.296944e-02 5.746068e-02
<VARIANCE> 39
 1.042078e+01 4.980353e+00 5.285372e+00 1.367345e+01 1.355449e+01 2.316102e+01 4.215115e+01 2.480497e+01 1.175316e+01 8.014925e+00 7.405320e+00 1.565871e+01 5.546031e+00 4.288566e-01 6.591673e-01 6.633284e-01 8.267034e-01 5.135552e-01 1.200855e+00 1.529878e+00 1.258857e+00 1.097616e+00 5.467024e-01 6.418779e-01 5.577558e-01 1.791202e-01 5.995097e-02 1.297417e-01 1.163393e-01 1.098326e-01 1.437170e-01 3.092962e-01 3.316974e-01 1.976961e-01 2.432569e-01 1.141818e-01 1.885185e-01 1.450301e-01 4.459474e-02
<GCONST> 7.332286e+01
~s "ST_a_4_1"
<MEAN> 39
 -6.366505e+00 3.577248e+00 -2.775023e+00 1.067925e+00 1.138329e+00 6.206724e-01 2.941558e+00 -9.054035e-02 -4.485601e+00 3.554078e+00 8.789521e+00 1.173787e+00 6.873763e+01 -9.314340e-01 1.830012e-01 1.529455e-01 2.299481e-01 4.432446e-01 6.921510e-01 4.668353e-01 2.470871e-01 8.543423e-01 2.517624e-01 -4.943840e-01 7.851997e-02 -7.827017e-01 -5.124354e-02 -3.103448e-02 1.470044e-02 -3.781899e-02 -3.632632e-02 -8.330838e-02 -9.354609e-02 -3.476666e-03 -6.981267e-03 -7.428772e-02 -4.410157e-02 -2.765031e-02 -1.250893e-02
<VARIANCE> 39
 4.536182e+01 1.615489e+01 1.364632e+01 1.375017e+01 2.802047e+01 4.210466e+01 2.402051e+01 2.317117e+01 5.274867e+01 1.085557e+01 1.451837e+01 7.888000e+00 3.222235e+01 4.060638e-01 1.090181e+00 8.426220e-01 9.640282e-01 1.209570e+00 1.386043e+00 9.218320e-01 1.342273e+00 1.810605e+00 6.595182e-01 9.223276e-01 5.762603e-01 2.700406e-01 5.364270e-02 1.671607e-01 1.411912e-01 1.515900e-01 1.675487e-01 2.064675e-01 1.796991e-01 2.476987e-01 2.613515e-01 9.866557e-02 1.304597e-01 1.023578e-01 3.650742e-02
<GCONST> 8.309163e+01
~s "ST_a_4_2"
<MEAN> 39
 -1.379723e+01 2.099799e+00 -2.671366e+00 -6.540816e-01 -1.940326e-01 5.824833e-02 2.817425e+00 1.732044e+00 -1.279669e+00 7.997600e-01 3.277070e+00 -4.154964e-01 6.412596e+01 -4.520577e-02 -1.132575e-01 -1.357443e-02 -1.856881e-01 -2.343209e-01 -3.822037e-02 8.497863e-03 -1.451641e-01 -2.901428e-01 -1.703432e-01 -7.718350e-02 -7.213012e-02 1.294332e-02 8.484681e-03 9.866581e-02 1.112902e-01 1.350744e-01 1.093990e-01 5.301787e-02 -3.900742e-02 -2.733541e-02 3.763972e-02 2.125884e-02 1.765884e-02 5.666403e-02 -2.781872e-02
<VARIANCE> 39
 7.263725e+01 1.120178e+01 1.458085e+01 1.631566e+01 1.763364e+01 2.145535e+01 1.955922e+01 3.520638e+01 7.918816e+01 1.846843e+01 2.526383e+01 1.308341e+01 4.674539e+01 4.876384e-01 6.307956e-01 7.529259e-01 8.743183e-01 8.456957e-01 1.131754e+00 1.174439e+00 1.236347e+00 1.423333e+00 1.080616e+00 9.062647e-01 9.194682e-01 3.629767e-01 1.120647e-01 1.266125e-01 1.306399e-01 1.125668e-01 1.484082e-01 2.147553e-01 2.170441e-01 2.353223e-01 2.560624e-01 2.171638e-01 2.111648e-01 2.094891e-01 5.787937e-02
<GCONST> 8.746883e+01
~s "ST_a_4_3"
<MEAN> 39
 -2.048016e+01 1.901203e+00 -2.686918e+00 -7.071363e-01 -9.885857e-02 1.651263e+00 4.079657e+00 4.938909e+00 4.531558e+00 2.137284e+00 6.879685e-01 -6.205246e-01 5.877081e+01 -1.346456e-01 -1.575656e-01 -2.012343e-01 -2.793264e-01 -2.879661e-01 -1.768563e-01 -1.076899e-01 -1.019593e-01 -1.805857e-01 -1.604856e-01 -9.920970e-02 -3.799557e-02 -4.870610e-02 9.817952e-02 1.104376e-01 1.488026e-01 1.656981e-01 1.403313e-01 8.412855e-02 2.247268e-02 3.684917e-02 4.324607e-02 -1.945036e-03 1.157725e-02 -2.730484e-04 4.953465e-02
<VARIANCE> 39
 1.374679e+00 1.740667e+00 3.650129e+00 5.747715e+00 5.132155e+00 6.596402e+00 8.471908e+00 6.885772e+00 1.033933e+01 7.950684e+00 7.240336e+00 9.034757e+00 1.447546e+00 1.935627e-01 2.682202e-01 5.206000e-01 8.765191e-01 9.075105e-01 1.131222e+00 9.980581e-01 9.372715e-01 1.401669e+00 9.237261e-01 5.794924e-01 7.850350e-01 6.719158e-02 4.866687e-02 6.808887e-02 9.863551e-02 1.524375e-01 1.259381e-01 1.851725e-01 2.038423e-01 1.836091e-01 2.672529e-01 1.900352e-01 1.086264e-01 1.546126e-01 1.566618e-02
<GCONST> 5.695486e+01
~s "ST_a_4_4"
<MEAN> 39
 -1.802216e+01 3.784980e+00 -7.997015e-01 2.242750e+00 3.390701e+00 4.388269e+00 5.914446e+00 6.176062e+00 6.332799e+00 4.226657e+00 3.093271e+00 1.219375e+00 6.013177e+01 -1.052190e+00 -9.254432e-01 -9.910641e-01 -1.220358e+00 -1.171734e+00 -8.543754e-01 -4.348378e-01 -2.119113e-01 -1.390415e-01 -4.532397e-01 -4.353543e-01 -2.105818e-01 -5.444215e-01 2.375357e-01 1.644942e-01 1.441349e-01 6.877890e-02 -5.853203e-02 -2.074459e-01 -3.799681e-01 -4.683748e-01 -3.346731e-01 -1.024569e-01 -1.009968e-01 -1.682159e-01 1.309850e-01
<VARIANCE> 39
 5.187052e+00 5.543320e+00 8.827078e+00 1.443948e+01 1.315135e+01 1.122735e+01 1.629462e+01 1.391214e+01 2.573930e+01 1.395980e+01 8.401113e+00 7.773896e+00 2.401930e+00 2.619926e-01 7.839801e-01 7.067225e-01 9.675886e-01 8.333865e-01 1.410762e+00 1.775420e+00 1.705540e+00 2.042418e+00 1.088115e+00 9.975007e-01 1.105137e+00 2.326942e-01 5.803164e-02 7.682068e-02 8.437289e-02 1.470596e-01 1.942100e-01 2.849742e-01 2.957273e-01 3.187038e-01 3.426384e-01 1.956423e-01 1.460211e-01 1.871462e-01 3.115120e-02
<GCONST> 7.515699e+01
~s "ST_n_2_1"
<MEAN> 39
 -8.409411e+00 4.251561e+00 4.111660e+00 6.067367e+00 4.911173e+00 -1.726989e+00 -3.421517e+00 -3.554265e+00 -8.205349e+00 -2.678571e+00 4.371570e+00 -1.683155e+00 6.873663e+01 7.569402e-01 -5.112762e-01 1.022004e-01 1.088054e+00 1.295406e+00 -5.555063e-01 -1.430591e+00 -4.622362e-01 -8.132839e-01 -3.679205e-01 7.411269e-01 1.390967e-02 8.017128e-01 -5.503637e-02 2.641951e-01 3.811378e-02 5.189902e-02 -4.357029e-02 -6.504630e-02 -9.159727e-02 2.927448e-02 1.652727e-01 1.290739e-01 3.188680e-02 4.670089e-02 -2.057807e-01
<VARIANCE> 39
 4.162386e+01 4.838610e+01 3.815277e+01 4.923317e+01 6.397747e+01 2.113420e+01 5.436677e+01 3.026101e+01 5.725754e+01 4.424771e+01 1.832285e+01 1.981209e+01 2.379553e+01 1.928497e+00 5.786735e+00 2.453881e+00 2.132439e+00 3.292738e+00 2.573194e+00 3.808726e+00 2.808068e+00 6.114708e+00 2.287732e+00 2.650791e+00 2.194207e+00 1.479700e+00 3.307763e-01 9.804105e-01 4.777069e-01 6.038295e-01 8.512582e-01 4.910990e-01 9.252428e-01 5.132114e-01 9.498814e-01 5.185174e-01 4.029731e-01 3.399437e-01 2.699823e-01
<GCONST> 1.237126e+02
~s "ST_n_3_1"
<MEAN> 39
 -5.797302e+00 8.542730e+00 6.112952e+00 6.999927e+00 5.882926e+00 -3.728033e+00 -9.757553e+00 -5.049956e+00 -7.119359e+00 -2.701202e+00 5.568867e+00 -2.178596e+00 6.891029e+01 2.778155e-02 2.435658e-01 -1.673993e-01 -6.645646e-01 -5.810191e-01 1.627285e-01 4.216347e-01 1.359076e-01 3.360057e-01 1.827503e-01 -1.753896e-01 -5.070574e-02 -7.545714e-02 6.019659e-03 -1.649566e-01 -1.438272e-01 -6.575455e-02 -2.739259e-02 2.003063e-02 2.098408e-01 1.006312e-01 -1.445663e-01 -4.348359e-02 7.308690e-02 1.815461e-02 7.016367e-02
<VARIANCE> 39
 1.219400e+01 3.120883e+01 2.455972e+01 3.697801e+01 4.055183e+01 3.160851e+01 5.217047e+01 1.728216e+01 4.085800e+01 2.036578e+01 2.597357e+01 1.856688e+01 1.347144e+01 6.525342e-01 3.265499e+00 1.754654e+00 2.633839e+00 2.156467e+00 2.843114e+00 3.187438e+00 1.654616e+00 5.103083e+00 2.056006e+00 3.590667e+00 1.602244e+00 1.107148e+00 8.083800e-02 4.898986e-01 2.350360e-01 4.827006e-01 4.662036e-01 4.587357e-01 5.722919e-01 3.095576e-01 8.848335e-01 3.196506e-01 6.519290e-01 2.902884e-01 1.119932e-01
<GCONST> 1.100638e+02
~s "ST_n_4_1"
<MEAN> 39
 -3.625575e+00 4.302866e+00 -1.397395e+00 1.233168e+00 1.299547e+00 -2.238183e+00 -2.227666e+00 -5.608343e+00 -9.866687e+00 1.170194e-02 8.408936e+00 8.138194e-01 7.156328e+01 -2.146117e-02 -2.075154e-01 -3.542800e-01 1.346296e-01 1.847763e-01 7.062803e-02 3.418100e-01 -4.250635e-02 -9.343520e-03 3.366210e-01 1.377816e-01 6.111463e-02 1.644064e-02 -1.332841e-01 8.728916e-02 1.880563e-01 8.725818e-02 3.886195e-02 8.813366e-03 9.377971e-03 -5.766936e-05 1.461022e-01 4.887513e-02 -1.253265e-01 -5.285762e-02 -8.662904e-02
<VARIANCE> 39
 2.322998e+01 2.466512e+01 2.642432e+01 2.483132e+01 3.223185e+01 1.477917e+01 2.359614e+01 3.081798e+01 4.761338e+01 2.694199e+01 3.959957e+01 1.875261e+01 2.103843e+01 6.950482e-01 1.471987e+00 1.769447e+00 7.503387e-01 6.183055e-01 8.637599e-01 1.726480e+00 1.467587e+00 2.382653e+00 1.147035e+00 2.190680e+00 1.368609e+00 6.429131e-01 4.075386e-02 2.738420e-01 1.612260e-01 1.823330e-01 1.632177e-01 2.049144e-01 2.907247e-01 2.795324e-01 5.305760e-01 2.498452e-01 3.827936e-01 1.876558e-01 7.090262e-02
<GCONST> 9.512281e+01
~s "ST_d_2_1"
<MEAN> 39
 -1.073818e+01 7.333149e+00 6.124207e+00 7.456195e+00 5.976239e+00 1.295107e+00 -1.610705e+00 -3.944018e+00 -4.630121e+00 -7.092390e-01 3.635457e+00 -6.811914e-01 6.578131e+01 1.341995e+00 -4.733528e-01 4.490619e-01 9.008672e-01 1.008300e+00 -5.143790e-01 -1.466255e+00 -1.169942e+00 -1.796103e+00 -1.013970e+00 6.501047e-01 -2.712126e-01 1.366822e+00 3.104259e-02 -7.349266e-02 -2.224577e-01 -3.423209e-02 4.676302e-03 -1.644901e-01 -1.495667e-01 2.261423e-01 -1.085117e-01 -2.271046e-01 5.755201e-02 3.018944e-02 -1.798914e-02
<VARIANCE> 39
 3.644971e+01 4.369088e+01 3.119172e+01 3.516259e+01 2.292563e+01 1.787774e+01 4.923406e+01 5.653582e+01 7.865291e+01 2.218334e+01 1.939675e+01 1.505915e+01 3.087414e+01 2.399088e+00 6.287831e+00 4.135191e+00 2.505885e+00 1.633801e+00 2.938140e+00 4.844023e+00 4.561634e+00 6.223575e+00 2.857897e+00 1.757225e+00 1.697214e+00 1.759723e+00 3.822640e-01 1.021934e+00 5.558801e-01 3.706882e-01 2.661140e-01 3.840271e-01 8.053032e-01 1.200911e+00 1.192376e+00 4.009467e-01 3.286311e-01 2.646003e-01 3.688703e-01
<GCONST> 1.218099e+02
~s "ST_d_2_2"
<MEAN> 39
 -5.085115e+00 5.150384e+00 1.312718e+00 3.426383e+00 4.764975e+00 -1.941527e+00 -2.972452e+00 -5.001106e+00 -1.087156e+01 -6.182278e+00 3.397203e+00 9.671424e-01 7.061021e+01 5.127562e-01 1.548297e-01 4.126230e-01 6.751454e-01 3.686748e-01 -8.333658e-02 -3.521349e-01 -3.612573e-01 -5.827739e-01 -2.497871e-01 1.009312e-01 -1.634273e-01 3.305538e-01 -1.112325e-01 -6.103042e-02 -1.768071e-02 1.217754e-01 3.639840e-02 -1.521401e-03 -9.999959e-03 8.517341e-02 2.920217e-02 3.867117e-02 3.034102e-02 -3.511310e-02 -1.027327e-01
<VARIANCE> 39
 3.483770e+01 4.016978e+01 3.977754e+01 2.613901e+01 1.360043e+01 1.764701e+01 2.170072e+01 2.332347e+01 5.579021e+01 2.925190e+01 1.770357e+01 1.043254e+01 2.266906e+01 4.235953e+00 4.155882e+00 2.056828e+00 1.957698e+00 1.868342e+00 2.163679e+00 2.780655e+00 1.611062e+00 4.883012e+00 2.870283e+00 1.676724e+00 1.114035e+00 2.624017e+00 5.894839e-01 6.609986e-01 3.612043e-01 3.811738e-01 3.289840e-01 4.067380e-01 4.405454e-01 2.710293e-01 6.633081e-01 4.581890e-01 3.072130e-01 1.766032e-01 3.437751e-01
<GCONST> 1.124650e+02
~s "ST_d_3_1"
<MEAN> 39
 -3.458602e+00 4.556020e+00 3.143753e+00 5.654106e+00 6.020086e+00 -4.733757e+00 -8.848718e+00 -3.886776e+00 -1.056244e+01 -1.573984e+00 7.968917e+00 -3.004178e+00 7.217986e+01 -2.555373e-02 5.491038e-02 -2.396900e-01 -2.909645e-01 -2.126132e-01 1.618087e-01 3.332748e-01 1.233653e-01 9.140424e-02 1.578724e-01 8.356006e-02 1.647293e-01 -1.029565e-01 -6.464496e-02 5.394609e-02 4.305812e-02 -3.374401e-02 -2.592827e-02 8.563682e-02 7.708834e-02 9.030670e-03 1.124941e-01 8.382054e-02 -4.835965e-02 1.104219e-02 -5.726049e-02
<VARIANCE> 39
 6.752179e+00 2.828716e+01 2.819341e+01 3.696429e+01 3.291962e+01 1.795391e+01 3.199157e+01 3.082282e+01 3.833640e+01 3.689330e+01 4.160501e+01 2.174574e+01 1.076121e+01 5.498011e-01 1.890714e+00 1.413813e+00 2.311014e+00 1.410310e+00 1.954268e+00 1.865378e+00 1.940891e+00 3.670746e+00 1.413054e+00 3.370754e+00 1.409039e+00 8.866222e-01 6.338423e-02 2.501447e-01 2.198354e-01 3.758100e-01 2.551107e-01 3.407855e-01 3.418714e-01 3.427052e-01 5.828573e-01 2.834015e-01 5.316946e-01 2.330859e-01 1.034042e-01
<GCONST> 1.028168e+02
~s "ST_d_3_2"
<MEAN> 39
 -6.876781e+00 2.536304e+00 8.500454e+00 1.788200e+01 1.071245e+01 -8.333300e+00 -9.686262e+00 -2.877264e+00 -1.432917e+01 -6.087751e+00 8.742523e+00 -4.120952e+00 7.026189e+01 -2.935293e-01 3.109543e-01 5.799391e-02 1.392903e-01 -2.908356e-01 -1.571557e-02 4.588714e-01 4.013473e-01 4.464256e-01 2.486590e-01 -1.763760e-01 -6.697137e-02 -4.441163e-01 -1.991909e-01 1.508445e-01 -1.603914e-02 -3.491754e-01 -1.879260e-01 2.934870e-01 3.261254e-01 1.006111e-01 4.847436e-01 1.741150e-01 -2.650495e-01 9.704684e-02 -1.752546e-01
<VARIANCE> 39
 9.595123e+00 8.778076e+00 1.421748e+01 3.684013e+01 1.718407e+01 2.611244e+01 2.743156e+01 1.967982e+01 3.800927e+01 3.619799e+01 2.000102e+01 1.050491e+01 8.992969e+00 6.672950e-01 8.475825e-01 8.822823e-01 1.925830e+00 1.015178e+00 2.448677e+00 2.221538e+00 1.304920e+00 3.928753e+00 2.073328e+00 1.471922e+00 6.871868e-01 4.834315e-01 5.408067e-02 2.618669e-01 1.673204e-01 2.276649e-01 2.080278e-01 2.911360e-01 3.580000e-01 2.873526e-01 4.258654e-01 2.840108e-01 1.809650e-01 1.487628e-01 6.727698e-02
<GCONST> 9.182819e+01
~s "ST_d_4_1"
<MEAN> 39
 -1.379574e+01 4.084344e+00 6.885222e-01 3.900130e+00 4.120992e+00 2.585932e+00 1.795718e+00 -8.185887e-02 -2.212372e+00 1.980326e+00 5.581580e+00 3.872641e-01 6.348895e+01 -1.376137e+00 2.117763e-01 -3.124008e-01 -1.079931e+00 -5.343011e-01 7.045927e-01 1.085271e+00 1.486150e+00 2.102341e+00 2.963216e-01 -1.072860e+00 2.823709e-01 -1.123559e+00 1.967428e-01 -3.240774e-01 -5.363788e-02 4.836255e-02 8.778208e-02 -3.734729e-01 -3.602657e-01 -4.091538e-01 -5.973470e-01 -2.126116e-01 1.654637e-01 -1.927197e-02 3.620652e-01
<VARIANCE> 39
 3.894157e+01 9.079161e+00 1.491175e+01 2.508377e+01 1.153810e+01 2.020472e+01 2.269850e+01 3.661592e+01 7.665185e+01 3.335292e+01 2.615985e+01 1.041568e+01 2.168739e+01 1.633744e+00 2.290985e+00 1.794595e+00 2.687945e+00 1.266051e+00 3.372479e+00 3.639089e+00 4.975582e+00 8.006565e+00 2.039225e+00 1.966963e+00 6.772414e-01 1.919866e+00 2.551373e-01 2.467929e-01 2.216934e-01 4.348407e-01 2.198600e-01 4.907246e-01 4.276314e-01 8.961523e-01 1.108976e+00 3.705644e-01 3.238002e-01 1.587053e-01 2.640420e-01
<GCONST> 1.096683e+02
~s "ST_g_2_1"
<MEAN> 39
 -1.406168e+01 5.388540e+00 6.749980e-01 2.341974e+00 2.037359e+00 1.800393e+00 1.771507e+00 9.935065e-01 6.861494e-01 1.397840e+00 1.358252e+00 -8.044788e-01 6.281450e+01 1.274471e+00 -9.012297e-01 6.376544e-01 9.938121e-01 8.944163e-01 -1.549155e-01 -1.721930e+00 -2.509223e+00 -1.776288e+00 -6.318183e-01 7.611883e-01 -1.941062e-01 1.682878e+00 4.578475e-01 -5.279630e-01 1.452235e-02 4.391011e-01 2.581545e-01 -3.962772e-01 -6.193985e-01 -7.716594e-01 -9.430717e-01 -1.966009e-01 4.317066e-01 -2.259368e-01 5.993940e-01
<VARIANCE> 39
 5.506649e+01 3.036440e+01 2.839054e+01 1.995657e+01 2.087546e+01 5.489285e+00 2.055925e+01 3.164465e+01 3.221083e+01 1.521528e+01 4.851876e+00 1.136310e+01 2.557843e+01 1.678844e+00 5.117457e+00 2.476373e+00 2.034289e+00 8.640537e-01 1.978656e+00 3.072589e+00 6.685220e+00 4.069419e+00 1.820794e+00 1.070252e+00 7.857929e-01 2.089046e+00 1.714929e-01 6.205537e-01 4.101723e-01 3.011512e-01 2.363463e-01 3.656200e-01 5.877696e-01 6.344076e-01 3.849362e-01 3.263819e-01 1.380316e-01 2.470986e-01 1.210318e-01
<GCONST> 1.046656e+02
~s "ST_g_3_1"
<MEAN> 39
 -7.796642e+00 -1.639024e+00 1.588131e+00 7.394124e+00 6.535992e+00 -4.905939e-01 -6.619446e+00 -1.107550e+01 -1.051402e+01 -1.654038e+00 7.199973e+00 -2.297703e+00 7.130624e+01 2.057505e+00 -1.155020e+00 6.717691e-01 3.180159e+00 1.713458e+00 -1.934995e+00 -1.803899e+00 -1.383088e+00 -3.975763e+00 -2.743471e-01 1.511729e+00 -9.030854e-01 1.919769e+00 -4.986406e-02 4.449472e-01 -1.710427e-01 5.480723e-02 -1.405744e-01 -5.967582e-01 3.981182e-01 1.023109e+00 -1.569661e-01 7.705202e-02 -4.263265e-02 8.241139e-02 -3.650113e-01
<VARIANCE> 39
 1.925258e+01 1.325832e+01 1.898780e+01 7.033353e+01 2.892943e+01 3.530659e+01 1.091436e+01 5.347715e+01 4.045276e+01 2.130006e+01 1.939678e+01 8.960046e+00 6.755771e+00 1.887208e+00 4.831530e+00 2.902476e+00 2.753820e+00 2.496889e+00 4.399942e+00 2.074392e+00 5.090740e+00 5.962135e+00 2.108209e+00 1.412500e+00 9.765981e-01 1.549855e+00 1.004126e-01 3.473386e-01 5.333077e-01 1.154840e+00 3.119096e-01 5.862558e-01 2.245011e-01 6.369150e-01 3.544649e-01 1.579814e-01 2.672330e-01 1.715656e-01 1.086319e-01
<GCONST> 1.082063e+02
~s "ST_g_4_1"
<MEAN> 39
 -1.950024e+00 -1.546013e+00 1.648250e+00 1.234735e+01 8.941667e+00 -8.623635e+00 -9.296361e+00 -1.007989e+01 -2.395383e+01 -3.355612e+00 1.237611e+01 -2.671563e+00 7.498862e+01 -2.596721e-02 1.235327e-01 2.583833e-01 2.167135e-01 3.556452e-02 -2.722282e-01 -1.958460e-01 2.525486e-01 -3.706108e-02 -2.121831e-01 1.275329e-01 -1.390732e-01 -4.020141e-02 -2.412196e-01 1.456964e-01 9.322818e-03 -2.908255e-01 -7.121338e-02 3.861599e-01 2.101337e-01 3.880139e-02 4.298907e-01 3.228557e-02 -1.429514e-01 1.095477e-01 -2.135143e-01
<VARIANCE> 39
 2.611048e+00 5.318485e+00 1.580812e+01 3.102036e+01 1.895287e+01 1.100464e+01 1.429785e+01 3.410542e+01 4.427983e+01 3.117174e+01 1.278336e+01 9.068172e+00 2.414386e+00 5.892529e-01 4.770014e-01 1.002100e+00 1.727023e+00 8.323850e-01 1.820949e+00 1.051532e+00 1.420015e+00 3.404475e+00 1.240218e+00 9.237001e-01 6.195582e-01 3.470196e-01 1.298454e-01 1.351455e-01 1.822056e-01 5.516354e-01 2.372090e-01 4.760589e-01 2.932428e-01 2.274817e-01 7.288968e-01 2.851928e-01 1.898351e-01 1.620789e-01 8.068661e-02
<GCONST> 8.601959e+01
~s "ST_t_2_1"
<MEAN> 39
 -1.158615e+01 1.266387e+00 7.828501e-01 4.503775e-01 3.386385e+00 -6.062260e-01 -2.543020e+00 -4.980261e+00 -4.890328e+00 -1.046558e+00 3.260021e+00 -2.041747e-01 6.851086e+01 4.686403e-01 -1.331403e-01 -1.086971e-01 2.591814e-01 1.241171e-01 -4.269476e-02 -9.785217e-02 -3.476624e-01 -6.390538e-01 -2.177213e-01 2.465980e-01 9.459515e-02 3.489488e-01 1.388854e-01 -5.931618e-02 -1.812010e-02 6.726886e-02 -1.671008e-02 -6.948722e-02 2.785135e-02 -6.352168e-02 -1.822785e-01 2.548655e-03 1.585518e-01 2.657015e-02 1.242894e-01
<VARIANCE> 39
 7.426108e+01 2.686484e+01 2.777620e+01 5.669427e+01 2.232817e+01 1.996740e+01 2.811629e+01 4.363269e+01 5.097205e+01 2.728897e+01 1.539690e+01 1.432619e+01 3.146850e+01 7.776019e+00 2.696046e+00 3.976098e+00 6.888484e+00 2.688540e+00 2.327238e+00 3.328982e+00 5.569625e+00 5.629366e+00 2.372806e+00 2.214671e+00 1.379534e+00 3.624604e+00 1.122905e+00 4.915477e-01 8.022072e-01 1.257824e+00 5.777125e-01 4.587412e-01 7.063033e-01 1.103992e+00 9.330058e-01 4.651269e-01 4.704011e-01 2.483853e-01 5.779774e-01
<GCONST> 1.263440e+02
~s "ST_t_3_1"
<MEAN> 39
 -1.035335e+00 -2.472063e+00 -3.717848e+00 4.183271e+00 1.233556e+00 -5.444386e+00 -6.328242e-01 -8.870771e+00 -1.726584e+01 -3.789948e+00 1.060060e+01 3.580059e+00 7.565733e+01 1.414987e+00 -1.435076e-01 -1.234820e+00 2.029487e-01 -7.561660e-01 -1.009871e+00 5.331642e-01 3.182546e-02 -3.646794e-01 -2.290090e-01 3.429084e-01 5.375804e-01 6.884615e-01 -7.292665e-01 1.902459e-01 2.830939e-01 -5.795480e-01 -3.138634e-02 2.844518e-01 -1.894177e-01 1.909603e-01 7.981570e-01 1.362298e-01 -5.356833e-01 -1.460912e-01 -4.117509e-01
<VARIANCE> 39
 3.930622e+00 1.427720e+01 1.138743e+01 2.022345e+01 1.372965e+01 1.865852e+01 1.321974e+01 4.754401e+01 1.225247e+01 1.365673e+01 1.897430e+01 8.846448e+00 4.672035e+00 2.876043e+00 9.805971e-01 1.425712e+00 3.038054e+00 1.268090e+00 2.544296e+00 1.953002e+00 1.575969e+00 3.715024e+00 1.792575e+00 1.782675e+00 8.397840e-01 8.771554e-01 4.878877e-01 2.680574e-01 3.769135e-01 5.485814e-01 2.867705e-01 5.533732e-01 2.546650e-01 3.569673e-01 4.527553e-01 3.201461e-01 2.581964e-01 1.225258e-01 1.623959e-01
<GCONST> 9.683303e+01
~s "ST_t_4_1"
<MEAN> 39
 -1.142727e+00 5.454913e-01 -3.876409e+00 2.252618e+00 -4.330880e-01 -6.127659e+00 -1.292088e+00 -7.134458e+00 -1.411756e+01 -2.406005e+00 8.730383e+00 3.869769e+00 7.437843e+01 -5.730569e-01 8.631946e-01 7.176322e-01 -2.463779e-01 -1.222728e-01 4.984912e-01 9.180167e-02 3.983006e-01 5.561639e-01 3.525993e-01 -3.355265e-01 -3.663246e-01 -6.594528e-01 -2.481212e-01 1.089701e-01 1.826756e-01 -3.528121e-02 2.003371e-01 3.501838e-01 1.124551e-01 7.826912e-03 -4.576752e-02 5.748259e-02 1.534107e-01 -8.441547e-02 -1.905949e-01
<VARIANCE> 39
 5.156349e+00 1.400331e+01 1.482064e+01 1.759076e+01 7.114397e+00 2.234243e+01 1.660145e+01 3.784906e+01 1.577281e+01 3.496144e+01 2.051661e+01 2.736575e+01 4.336532e+00 6.292015e-01 7.364162e-01 8.548528e-01 1.111807e+00 1.404455e+00 2.254122e+00 1.455170e+00 1.255325e+00 1.857576e+00 1.222683e+00 1.718274e+00 9.048877e-01 5.310672e-01 7.094850e-02 1.470137e-01 1.783232e-01 3.027053e-01 1.470251e-01 4.102418e-01 2.311800e-01 1.692122e-01 3.085272e-01 3.014067e-01 4.110993e-01 1.974604e-01 6.150118e-02
<GCONST> 8.749903e+01
~s "ST_sil_2_1"
<MEAN> 39
 -2.360393e+00 2.110076e-01 -2.742726e-01 -5.313168e-02 1.248180e-02 9.436359e-02 2.425443e-01 3.344501e-01 3.461642e-01 2.127274e-01 1.442237e-01 -1.743297e-02 6.748572e+00 -2.141306e-02 -5.224956e-03 7.096395e-03 -3.338097e-03 2.350490e-03 1.171468e-02 -6.487119e-03 -6.194115e-03 -1.256443e-02 -1.083155e-02 -8.172540e-04 4.563194e-03 -1.296940e-02 -2.906927e-01 3.398966e-02 -3.468898e-02 1.453315e-02 -9.900494e-03 3.517938e-02 2.101921e-02 5.096236e-02 4.429184e-02 3.707103e-02 9.415371e-03 6.346770e-03 3.043542e-01
<VARIANCE> 39
 4.312354e+01 5.881065e-01 9.152764e-01 3.069609e-01 2.232107e-01 3.459549e-01 9.889250e-01 1.481329e+00 1.432054e+00 1.263384e+00 6.552922e-01 2.116643e-01 3.511635e+02 2.079128e-02 1.315341e-02 2.063524e-02 4.111976e-02 4.368790e-02 3.840344e-02 3.584025e-02 5.656515e-02 5.413111e-02 4.193802e-02 1.764521e-02 3.329313e-02 1.980202e-02 3.528719e-01 1.537915e-02 1.853162e-02 1.685092e-02 1.839313e-02 2.002523e-02 2.141699e-02 2.675870e-02 3.129620e-02 3.164336e-02 2.311415e-02 1.403482e-02 4.032754e-01
<GCONST> -1.389512e+01
~s "silst"
<MEAN> 39
 -1.712207e+01 1.726255e+00 -1.966314e+00 3.586288e-01 4.259229e-02 1.804226e+00 2.599683e+00 3.266926e+00 2.987045e+00 1.898031e+00 7.440908e-01 -1.940243e-01 3.687127e+01 -1.794939e+00 1.608386e-01 -2.131751e-01 -2.783136e-02 3.967925e-02 1.598298e-01 3.104629e-01 3.532849e-01 3.192959e-01 1.487470e-01 5.192664e-02 -1.051584e-01 5.201141e+00 2.258432e-01 -3.305741e-02 1.888414e-02 -2.099437e-02 7.062179e-03 -2.676100e-02 -1.779648e-02 -3.075452e-02 -1.472669e-02 -2.215443e-02 -7.131213e-03 -1.240093e-03 -2.091683e-01
<VARIANCE> 39
 6.524933e+01 2.726679e+00 4.366074e+00 4.654891e+00 5.045604e+00 5.682166e+00 9.570791e+00 9.826508e+00 9.531687e+00 6.373729e+00 5.299409e+00 5.608466e+00 4.539458e+02 7.871287e+00 2.791515e-01 4.858383e-01 4.945114e-01 5.835559e-01 7.110283e-01 1.021757e+00 9.949849e-01 9.844390e-01 7.535244e-01 6.277007e-01 5.911778e-01 1.033262e+01 1.342145e+00 4.490127e-02 9.601323e-02 9.519116e-02 1.200098e-01 1.478944e-01 2.068876e-01 1.888768e-01 1.887241e-01 1.471439e-01 1.290670e-01 1.246012e-01 2.256629e+00
<GCONST> 7.925205e+01
~s "ST_sil_3_1"
<MEAN> 39
 -1.715184e+01 1.726378e+00 -1.968136e+00 3.619089e-01 5.475014e-02 1.809282e+00 2.603830e+00 3.262144e+00 2.992967e+00 1.913750e+00 7.457306e-01 -1.999239e-01 3.701410e+01 -1.788048e+00 1.576355e-01 -2.152089e-01 -3.083507e-02 3.897860e-02 1.545385e-01 3.061438e-01 3.517303e-01 3.169161e-01 1.496792e-01 5.563735e-02 -9.726033e-02 5.162965e+00 2.271728e-01 -3.106050e-02 2.006681e-02 -2.175810e-02 4.831175e-03 -2.687676e-02 -1.670567e-02 -2.921534e-02 -1.324656e-02 -2.216443e-02 -8.184035e-03 -1.402271e-03 -2.061836e-01
<VARIANCE> 39
 6.494995e+01 2.713695e+00 4.334904e+00 4.642867e+00 5.032204e+00 5.690913e+00 9.593319e+00 9.817256e+00 9.523333e+00 6.405780e+00 5.310491e+00 5.599066e+00 4.539276e+02 7.822423e+00 2.803332e-01 4.799958e-01 4.917382e-01 5.855218e-01 7.130620e-01 1.030261e+00 9.940903e-01 9.837359e-01 7.481552e-01 6.260206e-01 5.945141e-01 1.047809e+01 1.333888e+00 4.516577e-02 9.548314e-02 9.496931e-02 1.203661e-01 1.487794e-01 2.077643e-01 1.889847e-01 1.870726e-01 1.459027e-01 1.287362e-01 1.244913e-01 2.242953e+00
<GCONST> 7.921946e+01
~s "ST_sil_4_1"
<MEAN> 39
 -2.097376e+01 1.211686e+00 -3.271512e+00 -1.180149e+00 -3.851318e-01 1.507605e+00 3.925789e+00 4.696278e+00 4.619652e+00 2.218342e+00 9.257788e-01 -7.023149e-01 5.862252e+01 3.075020e-03 -9.159520e-03 -1.407472e-02 -1.441681e-02 -1.197083e-02 -1.121515e-02 -7.653441e-03 -6.770481e-03 -8.692727e-03 -3.697585e-03 5.943236e-04 3.318027e-03 5.886635e-03 3.024595e-03 -8.436926e-05 7.927913e-04 1.837879e-03 1.789620e-03 -6.661657e-04 -6.461816e-04 -2.994369e-03 -5.666878e-03 4.602642e-04 3.964412e-03 1.199514e-03 1.025634e-03
<VARIANCE> 39
 1.143601e+00 1.650119e+00 3.349026e+00 4.869725e+00 5.145268e+00 5.751825e+00 7.198565e+00 9.179656e+00 8.547516e+00 7.179122e+00 6.478384e+00 6.621591e+00 1.447546e+00 1.018692e-01 1.557043e-01 2.899784e-01 4.415638e-01 5.148798e-01 5.910584e-01 7.243889e-01 9.700012e-01 9.531950e-01 7.877122e-01 6.971793e-01 6.841626e-01 3.376636e-02 2.036102e-02 3.247274e-02 5.661108e-02 8.759685e-02 1.056831e-01 1.231785e-01 1.466104e-01 1.987408e-01 1.997572e-01 1.669289e-01 1.462900e-01 1.409340e-01 6.651825e-03
<GCONST> 4.597045e+01
~s "ST_j_2_1"
<MEAN> 39
 -1.342449e+00 -1.763403e+00 -4.483489e+00 1.620398e+00 1.331592e+00 -4.403802e+00 -2.077301e+00 -3.892947e+00 -1.433407e+01 1.723403e+00 1.316249e+01 1.305108e+00 7.483183e+01 -4.241100e-01 4.205815e-01 1.637408e-01 1.814111e-01 2.992883e-01 6.392304e-01 3.079647e-01 -4.880096e-03 8.481308e-01 6.093694e-01 -1.050029e-01 -1.719564e-01 -4.586331e-01 -1.232649e-01 2.938181e-01 3.187905e-01 2.588309e-01 1.978233e-02 1.733685e-02 -1.170386e-01 -6.008650e-02 1.204733e-01 -2.402264e-01 -3.206950e-01 -9.558442e-02 -1.815039e-01
<VARIANCE> 39
 2.667982e+00 1.345838e+01 7.838792e+00 1.286569e+01 2.698966e+01 2.015645e+01 2.108451e+01 1.634721e+01 2.196888e+01 1.490352e+01 1.234093e+01 3.221227e+00 3.678051e+00 5.249691e-02 2.321087e-01 4.184665e-01 5.186364e-01 4.543048e-01 4.799537e-01 6.539966e-01 8.898169e-01 1.384457e+00 7.663112e-01 7.918005e-01 4.242278e-01 5.465584e-02 1.058285e-02 6.073627e-02 6.053740e-02 9.163827e-02 5.881602e-02 1.242360e-01 1.076800e-01 1.749521e-01 2.036452e-01 1.036374e-01 1.492825e-01 6.677848e-02 1.751488e-02
<GCONST> 5.690536e+01
~s "ST_j_3_1"
<MEAN> 39
 -3.326098e+00 1.745124e+00 -1.574939e+00 3.497386e+00 8.977739e-01 -1.792011e+00 -9.087028e-01 -5.229734e+00 -1.097167e+01 2.078627e+00 1.070028e+01 3.274819e-01 7.218391e+01 -1.015032e+00 2.283685e+00 1.852342e+00 1.641488e+00 9.938551e-01 9.767886e-02 -1.195403e+00 -9.971241e-02 2.198347e+00 -3.401866e-01 -2.493315e+00 -8.345655e-01 -1.629093e+00 -9.563199e-02 2.810408e-01 2.584557e-01 2.837579e-01 2.710832e-01 -3.729885e-01 -6.372225e-01 2.095594e-01 8.676318e-01 7.487245e-02 -7.103586e-01 -2.233333e-01 -1.789509e-01
<VARIANCE> 39
 2.126496e+00 1.437505e+01 4.851637e+00 1.634976e+01 1.920208e+01 1.158347e+01 1.326100e+01 1.185908e+01 1.163083e+01 1.000697e+01 7.508722e+00 4.196558e+00 4.421933e+00 2.170576e-01 6.155467e-01 7.160632e-01 8.994345e-01 1.057574e+00 8.883556e-01 3.009838e+00 7.225028e-01 3.272385e+00 7.126263e-01 2.516298e+00 5.913460e-01 1.704560e-01 2.040086e-02 1.334342e-01 7.256020e-02 1.088189e-01 1.173004e-01 7.254148e-02 1.803674e-01 7.856070e-02 2.243187e-01 1.435769e-01 2.139448e-01 7.033773e-02 5.072126e-02
<GCONST> 6.697911e+01
~s "ST_j_4_1"
<MEAN> 39
 -8.218579e+00 9.722906e+00 5.606200e+00 1.005667e+01 5.983541e+00 -3.264342e+00 -6.892931e+00 -2.325520e+00 2.532680e+00 3.089205e+00 -3.580023e-01 -3.052999e+00 6.577325e+01 -6.550087e-01 4.560937e-01 5.362702e-01 4.057864e-01 3.327941e-01 2.766184e-01 3.528852e-01 5.705220e-01 9.781255e-01 1.525361e-01 -4.414505e-01 6.242667e-02 -6.032121e-01 1.677986e-03 -2.258915e-01 -1.947291e-01 -2.244212e-01 -9.233463e-02 2.445490e-01 4.288784e-01 1.094885e-01 -2.940017e-01 1.356948e-03 3.882071e-01 1.724944e-01 8.827302e-02
<VARIANCE> 39
 3.358117e+00 3.194848e+00 2.532729e+00 6.639390e+00 1.461239e+01 7.741257e+00 1.538241e+01 7.388309e+00 8.492860e+00 6.934376e+00 6.216731e+00 4.046076e+00 1.809203e+00 1.300566e-01 5.750836e-01 5.180053e-01 8.292817e-01 6.328301e-01 1.042713e+00 2.298463e+00 4.572696e-01 2.449188e+00 3.858801e-01 1.858363e+00 6.679238e-01 1.680805e-01 3.485643e-02 1.055649e-01 1.074313e-01 8.084416e-02 1.073344e-01 1.257912e-01 2.028552e-01 9.358533e-02 3.854084e-01 7.892354e-02 2.225462e-01 8.280363e-02 4.970193e-02
<GCONST> 5.969148e+01
~s "ST_w_2_1"
<MEAN> 39
 -8.766272e+00 1.267623e+01 7.772694e+00 6.721828e+00 3.569846e+00 8.736113e-01 -3.427600e-01 -2.075033e+00 -4.689337e+00 -3.951509e+00 1.734827e+00 4.801380e-01 6.504524e+01 -5.592905e-01 2.271882e-01 4.605358e-01 1.947300e-01 -9.264937e-02 4.622538e-02 4.605615e-01 6.454563e-01 1.071816e+00 3.613055e-01 -5.247931e-01 -2.534125e-01 -4.065794e-01 3.325945e-01 -5.455413e-01 -3.165390e-01 2.283975e-04 4.273022e-02 -2.454842e-01 -2.976502e-01 -1.103565e-01 -4.806524e-01 -4.389355e-01 1.989302e-01 1.213204e-02 4.506268e-01
<VARIANCE> 39
 1.122901e+01 1.083767e+01 1.007245e+01 1.252811e+01 1.660627e+01 2.034917e+01 1.522600e+01 8.713406e+00 2.188604e+01 6.480126e+00 1.731866e+01 1.332514e+01 1.105991e+01 7.618444e-01 3.165944e+00 7.507235e-01 6.555951e-01 5.861208e-01 1.455999e+00 1.718724e+00 1.066917e+00 3.681965e+00 2.704165e+00 1.229551e+00 6.976069e-01 1.619242e+00 6.860174e-02 2.373812e-01 9.639923e-02 1.633114e-01 7.248252e-02 1.766203e-01 2.359159e-01 1.358617e-01 3.357001e-01 3.238796e-01 1.534764e-01 1.448776e-01 8.135363e-02
<GCONST> 8.347125e+01
~s "ST_w_3_1"
<MEAN> 39
 -3.772267e+00 9.772433e+00 7.401274e+00 3.491722e+00 -1.378576e+00 -5.027787e+00 -5.807687e+00 7.953748e-01 -6.029176e+00 -1.093090e+01 3.010471e+00 -2.588259e+00 7.021807e+01 6.799259e-01 -5.330826e-01 -5.041752e-01 -6.068596e-01 -7.326886e-01 -3.766136e-01 -2.702698e-01 3.215839e-02 -3.225211e-01 -6.278185e-01 3.782043e-01 7.498446e-02 6.161013e-01 -1.432711e-02 -8.085155e-02 -1.758650e-01 -4.484584e-02 1.270756e-02 1.532678e-01 1.612514e-01 -1.077589e-01 -3.080604e-02 1.949930e-01 5.992842e-02 1.100930e-01 -1.901061e-02
<VARIANCE> 39
 7.824123e+00 1.395603e+01 1.284195e+01 2.463459e+01 2.325032e+01 3.190164e+01 3.614558e+01 1.936494e+01 1.984993e+01 2.317561e+01 2.777197e+01 1.230248e+01 5.402607e+00 4.018523e-01 1.387414e+00 1.229862e+00 7.995751e-01 7.014163e-01 1.251065e+00 2.168846e+00 1.343768e+00 1.547214e+00 2.003849e+00 1.083281e+00 8.854323e-01 3.898092e-01 6.610983e-02 2.949367e-01 1.916063e-01 1.944382e-01 1.225020e-01 2.534501e-01 3.187096e-01 2.217679e-01 3.452026e-01 3.180059e-01 1.916545e-01 1.674305e-01 6.523130e-02
<GCONST> 8.769737e+01
~s "ST_w_4_1"
<MEAN> 39
 2.494246e-03 1.432538e+00 -2.438607e+00 6.131794e-01 -4.558074e+00 -6.451595e+00 -2.053200e+00 -3.685536e+00 -1.120618e+01 -5.904689e+00 8.772710e+00 1.730946e+00 7.479811e+01 -4.011513e-02 -3.167887e-01 -6.896952e-01 1.635147e-02 3.104710e-01 4.011280e-01 6.595784e-01 -3.689595e-01 -2.061929e-01 9.116092e-01 8.732531e-03 5.965311e-02 -3.754983e-02 -1.457600e-01 2.103985e-01 1.717839e-01 4.786532e-02 1.517041e-01 4.834253e-02 -6.580553e-02 9.764911e-02 1.789335e-01 1.859869e-02 -1.820003e-01 -1.319748e-01 -1.688382e-01
<VARIANCE> 39
 2.187497e+00 1.240844e+01 1.864047e+01 1.496778e+01 1.378621e+01 1.528692e+01 3.421387e+01 2.620645e+01 1.396185e+01 4.503864e+01 1.085779e+01 1.183916e+01 3.509982e+00 2.664779e-01 1.099187e+00 1.116319e+00 8.044772e-01 7.041745e-01 1.528438e+00 1.872193e+00 1.561109e+00 1.315454e+00 1.025681e+00 8.948984e-01 8.273546e-01 3.892045e-01 5.352406e-02 7.432058e-02 7.910182e-02 1.571760e-01 8.902297e-02 2.531371e-01 3.089649e-01 2.761559e-01 2.742126e-01 1.811522e-01 1.507521e-01 1.028491e-01 4.045123e-02
<GCONST> 7.763564e+01
~s "ST_m_2_1"
<MEAN> 39
 -2.078037e+01 1.459155e+00 -3.183792e+00 -1.152814e+00 -4.483007e-01 1.455296e+00 3.711728e+00 4.158943e+00 4.136436e+00 2.179741e+00 1.164996e+00 -6.586492e-02 5.869007e+01 -3.189650e-02 -2.708497e-02 -3.021739e-02 -4.075008e-02 -3.129020e-02 -2.269357e-02 -1.200943e-03 1.076944e-02 -9.103662e-03 -4.060729e-04 -7.050121e-03 -3.033367e-02 -1.495044e-02 2.201009e-02 2.337615e-02 3.191759e-02 3.258676e-02 4.335560e-02 3.924159e-02 1.240531e-02 4.997379e-04 -1.035077e-04 1.969370e-02 2.760090e-02 2.631561e-02 1.238579e-02
<VARIANCE> 39
 1.345752e+00 1.478668e+00 2.862435e+00 4.529316e+00 4.514990e+00 5.722962e+00 8.228327e+00 1.020663e+01 9.839051e+00 7.419406e+00 6.471804e+00 6.552775e+00 1.447546e+00 1.001263e-01 1.496715e-01 2.609249e-01 4.471468e-01 4.526206e-01 5.386100e-01 7.628752e-01 8.890491e-01 9.553034e-01 8.658798e-01 6.900037e-01 6.950254e-01 3.022493e-02 2.078550e-02 3.497063e-02 5.998836e-02 9.779395e-02 9.861664e-02 1.176275e-01 1.629414e-01 1.818043e-01 2.028504e-01 1.860418e-01 1.465526e-01 1.449216e-01 6.015917e-03
<GCONST> 4.586175e+01
~s "ST_m_3_1"
<MEAN> 39
 -2.046914e+01 1.624039e+00 -2.983177e+00 -1.055545e+00 1.070132e-01 1.876592e+00 3.678527e+00 3.722696e+00 3.964257e+00 2.955301e+00 1.796648e+00 3.505439e-03 5.898327e+01 7.461712e-01 5.562761e-01 1.322592e+00 8.779744e-01 4.895326e-01 -3.496875e-02 -4.792495e-01 -6.437150e-01 -9.505502e-01 -2.229577e-01 3.930123e-01 7.025803e-02 6.102791e-01 4.728149e-01 1.988907e-01 6.336301e-01 3.918968e-01 1.234716e-01 -1.585954e-01 -2.760728e-01 -3.944343e-01 -6.374238e-01 -3.426771e-01 1.775934e-02 -2.031469e-01 4.195741e-01
<VARIANCE> 39
 8.393396e-01 2.237043e+00 4.001659e+00 4.455744e+00 5.534791e+00 5.497745e+00 8.071291e+00 1.293269e+01 9.182442e+00 6.254151e+00 6.178867e+00 7.009778e+00 1.447546e+00 1.749955e+00 1.908773e+00 1.943668e+00 2.502635e+00 7.538720e-01 1.352982e+00 1.236941e+00 1.907411e+00 2.125527e+00 1.053707e+00 9.933016e-01 1.387122e+00 4.498983e-01 2.850099e-01 2.869045e-01 1.813706e-01 5.273527e-01 1.352956e-01 2.449912e-01 2.653531e-01 4.213861e-01 4.263243e-01 1.978797e-01 1.961267e-01 2.822298e-01 4.411900e-02
<GCONST> 7.649848e+01
~s "ST_m_4_1"
<MEAN> 39
 -1.866551e+01 1.656419e+00 7.257186e+00 -1.876595e-01 1.872397e+00 2.792631e+00 -5.955040e-02 -3.986965e-01 -1.703896e+00 -4.298263e-02 3.809131e+00 -9.817418e-01 6.370015e+01 1.582979e+00 9.152074e-01 8.144782e-01 1.142104e+00 6.458052e-01 -4.495165e-01 -7.869249e-01 -1.257132e+00 -1.476525e+00 -7.338426e-01 1.377668e-01 -1.411062e-02 9.310274e-01 1.426646e-01 -1.105932e-01 -3.606126e-01 4.310658e-02 -1.277143e-02 -2.209217e-01 -1.162176e-01 -8.094066e-02 -8.607337e-02 1.677202e-02 4.422336e-02 -2.864474e-02 4.885273e-02
<VARIANCE> 39
 5.536549e+01 8.620901e+01 3.722523e+01 6.377325e+01 1.805326e+01 1.676212e+01 1.729915e+01 2.326014e+01 2.507738e+01 1.463479e+01 1.875160e+01 1.216157e+01 8.868106e+00 4.898216e+00 7.348052e+00 6.746614e+00 6.104789e+00 1.352339e+00 2.167786e+00 2.381346e+00 2.897845e+00 3.852199e+00 2.298584e+00 2.108486e+00 1.647616e+00 1.530307e+00 5.445332e-01 1.119705e+00 1.034810e+00 9.304688e-01 3.052770e-01 3.464374e-01 4.398099e-01 3.947892e-01 4.645776e-01 4.103522e-01 3.544345e-01 2.468986e-01 1.808714e-01
<GCONST> 1.169744e+02
~s "ST_sy_2_1"
<MEAN> 39
 -2.067268e+01 1.395987e+00 -3.606007e+00 -1.194709e+00 -8.206487e-03 1.588772e+00 3.009809e+00 3.151742e+00 4.044974e+00 2.615303e+00 1.641776e+00 1.434298e-01 5.874913e+01 -1.197373e-01 -1.099594e-01 -4.200167e-02 -6.449831e-02 -1.804696e-01 -2.898938e-01 -2.445243e-01 -1.776845e-02 5.321617e-02 1.178026e-02 -8.605047e-02 -1.445904e-01 -5.259816e-02 6.030048e-02 3.127383e-02 5.450726e-02 3.536077e-02 5.453807e-02 7.176429e-02 6.116528e-02 8.186524e-02 4.965139e-02 4.775135e-02 6.006008e-02 4.677802e-02 3.941723e-02
<VARIANCE> 39
 1.003729e+00 1.370342e+00 3.408504e+00 4.685754e+00 4.935941e+00 6.909825e+00 7.263758e+00 7.664901e+00 7.618838e+00 7.286314e+00 4.532203e+00 6.783447e+00 1.447546e+00 1.251386e-01 1.494708e-01 4.611472e-01 4.964331e-01 3.909436e-01 7.259204e-01 1.048897e+00 9.448196e-01 6.612706e-01 6.430876e-01 5.641978e-01 7.562806e-01 4.273378e-02 3.210721e-02 4.574655e-02 1.247523e-01 1.332991e-01 9.586196e-02 1.366590e-01 2.064759e-01 1.721360e-01 1.334524e-01 1.335125e-01 1.131914e-01 1.711193e-01 1.068123e-02
<GCONST> 4.774364e+01
~s "ST_sy_3_1"
<MEAN> 39
 -2.105781e+01 9.544450e-01 -3.894989e+00 -1.668277e+00 4.789750e-02 1.311593e+00 3.938733e+00 5.431169e+00 5.218961e+00 3.404269e+00 1.674546e+00 1.539677e-02 5.861587e+01 3.857250e-02 -1.129175e-01 3.242757e-01 -3.840515e-02 2.672250e-01 8.220945e-02 -5.715816e-01 -2.578032e-01 -3.752100e-01 -2.721241e-01 1.518777e-01 6.545669e-02 8.090369e-02 -8.364458e-02 -5.278777e-01 4.955315e-01 -9.114038e-02 -1.786162e-01 2.229552e-01 -5.101600e-01 -4.141209e-01 -4.261058e-01 -1.644684e-01 2.448256e-01 -3.135781e-01 2.827841e-01
<VARIANCE> 39
 7.169198e-01 7.874178e-01 1.899321e+00 1.949102e+00 4.617318e+00 6.162313e+00 2.173634e+00 9.892412e+00 4.014293e+00 4.299204e+00 2.244955e+00 1.722706e+00 1.447546e+00 4.532430e-02 7.084095e-02 3.525294e-01 7.483805e-01 7.935104e-01 3.937266e-01 2.611437e-01 1.210419e+00 7.598282e-01 8.093420e-02 4.215800e-01 4.942047e-01 2.903456e-02 5.946160e-02 1.723801e-01 1.738506e-01 1.228019e-01 1.132639e-01 1.957781e-01 8.222061e-02 1.285069e-01 1.459524e-01 1.372087e-01 1.244355e-01 1.412025e-01 1.600274e-02
<GCONST> 3.724266e+01
~s "ST_sy_4_1"
<MEAN> 39
 -2.134624e+01 -9.070732e-01 -1.895145e+00 -1.153113e+00 -9.018847e-01 1.076827e+00 4.235685e-01 1.666905e+00 2.527257e+00 2.961901e+00 2.587836e+00 -1.888155e+00 5.943303e+01 -6.828269e-01 -2.549089e+00 2.406497e+00 -8.811904e-02 -4.075191e-01 5.853897e-01 -1.467116e+00 -4.813036e-01 -1.225196e+00 -4.727170e-01 1.346304e+00 -7.089229e-01 1.228789e+00 -2.856149e-01 -7.411599e-01 7.323405e-01 -1.984186e-01 -1.540124e-01 -1.194433e-01 2.342343e-02 2.893741e-01 -1.230691e-01 -1.608851e-01 2.752134e-01 -1.155910e-02 4.513072e-01
<VARIANCE> 39
 2.571843e+00 7.741158e+00 1.543274e+01 4.869892e+00 3.869992e+00 3.293708e+00 4.072561e+00 5.438403e+00 6.727878e+00 8.389878e+00 1.081789e+01 5.288311e+00 1.447546e+00 4.422236e-01 1.463777e+00 2.748623e+00 7.806123e-01 1.074681e+00 1.737993e+00 1.416956e+00 6.242144e-01 1.361350e+00 1.031839e+00 1.429801e+00 6.697755e-01 3.763429e-01 4.615407e-02 1.502009e-01 2.388534e-01 6.000432e-02 3.341990e-02 1.168633e-01 1.635975e-01 1.252357e-01 1.761127e-01 1.050040e-01 1.662021e-01 7.761908e-02 3.221707e-02
<GCONST> 6.280445e+01
~s "ST_p_2_1"
<MEAN> 39
 -2.065102e+01 1.453825e+00 -3.164045e+00 -1.085191e+00 -1.927562e-01 1.681595e+00 3.874753e+00 4.681433e+00 4.911466e+00 2.669774e+00 1.343609e+00 -1.872304e-01 5.876643e+01 -1.112785e-01 -8.125923e-02 -2.512512e-02 -5.160160e-02 -9.680429e-02 -1.064338e-01 -8.043247e-02 -8.082879e-02 -1.045695e-01 -1.275594e-01 -1.280701e-01 -1.014188e-01 -5.512232e-02 5.845883e-02 5.587329e-02 5.443754e-02 4.528432e-02 6.057997e-02 4.391275e-02 2.221737e-02 1.034910e-02 -8.179634e-03 1.293035e-02 4.573194e-02 3.679347e-02 3.348083e-02
<VARIANCE> 39
 1.131921e+00 1.580489e+00 3.246206e+00 4.825480e+00 5.529231e+00 6.852268e+00 7.246662e+00 8.617275e+00 9.164397e+00 7.707808e+00 7.614309e+00 6.925828e+00 1.447546e+00 1.125312e-01 1.648796e-01 3.133198e-01 4.940483e-01 6.712013e-01 8.086064e-01 7.566338e-01 8.619710e-01 9.207278e-01 8.288940e-01 8.699114e-01 7.299473e-01 3.274678e-02 2.492014e-02 4.004212e-02 6.648383e-02 1.056265e-01 1.409983e-01 1.669901e-01 1.725565e-01 1.928783e-01 2.029582e-01 1.723747e-01 1.695649e-01 1.469319e-01 9.089744e-03
<GCONST> 4.957146e+01
~s "ST_p_3_1"
<MEAN> 39
 -2.111619e+01 1.352290e+00 -2.709271e+00 -9.654589e-01 -3.020555e-02 1.671077e+00 3.980022e+00 4.664249e+00 4.094635e+00 2.016468e+00 1.468868e+00 1.131758e-01 5.860199e+01 8.357041e-02 5.899161e-02 1.230120e-01 5.248426e-02 1.681156e-01 9.433778e-02 -1.019028e-01 -2.528550e-02 -3.143927e-01 -2.304322e-01 -7.284033e-02 -1.379988e-01 7.253467e-02 5.538027e-01 1.851860e-01 2.450457e-01 -9.489915e-02 1.009554e-01 -3.311491e-01 -3.349749e-01 -4.470944e-01 -5.955004e-01 -1.620061e-01 1.245297e-01 4.335323e-02 5.255513e-01
<VARIANCE> 39
 1.710229e+00 1.640826e+00 4.357567e+00 8.234114e+00 6.824485e+00 4.263961e+00 6.712477e+00 9.470005e+00 9.292384e+00 7.970096e+00 7.435623e+00 7.644192e+00 1.447546e+00 2.199608e-01 2.772479e-01 5.242887e-01 9.589271e-01 1.011722e+00 6.371780e-01 1.103392e+00 1.272903e+00 1.262833e+00 7.043381e-01 5.981297e-01 6.738174e-01 8.898026e-02 1.270481e-01 1.957746e-01 2.311758e-01 4.204067e-01 2.458867e-01 2.248029e-01 2.782951e-01 3.114858e-01 4.147226e-01 1.646058e-01 2.143840e-01 1.361300e-01 1.299579e-01
<GCONST> 6.587266e+01
~s "ST_p_4_1"
<MEAN> 39
 -2.039986e+01 1.971932e+00 -2.165020e+00 -6.699843e-01 2.842795e-01 1.477162e+00 3.264494e+00 4.029065e+00 3.575084e+00 1.999201e+00 1.241315e+00 -5.921533e-01 5.896218e+01 2.147286e+00 6.937926e-01 1.087685e+00 -3.469586e-01 6.124358e-01 -1.237216e+00 -1.362112e+00 -1.992258e+00 -2.813262e+00 -1.017497e+00 5.356211e-01 1.733813e-01 2.116314e+00 1.063656e+00 1.937872e-01 1.777889e-01 6.563956e-02 -1.200401e-01 -5.028440e-01 -2.533795e-01 -3.728025e-01 -8.685466e-01 -1.642125e-01 3.446534e-01 4.682930e-02 8.089643e-01
<VARIANCE> 39
 2.208264e+00 3.303524e+00 5.464788e+00 8.932688e+00 6.873360e+00 6.043002e+00 8.824574e+00 9.674451e+00 1.176042e+01 1.034524e+01 7.741286e+00 8.027513e+00 1.447546e+00 1.232147e+00 2.527002e+00 2.010207e+00 4.601357e+00 1.206282e+00 1.858955e+00 2.171312e+00 1.836917e+00 3.040054e+00 8.492264e-01 1.687442e+00 1.188756e+00 1.456393e+00 2.374047e-01 1.605954e-01 2.016484e-01 5.368450e-01 2.421527e-01 3.117070e-01 2.834688e-01 4.386345e-01 3.378955e-01 2.859882e-01 1.841764e-01 1.960661e-01 1.506216e-01
<GCONST> 8.488877e+01
~h "a"
<BEGINHMM>
<NUMSTATES> 5
<STATE> 2
~s "ST_a_2_1"
<STATE> 3
~s "ST_a_3_2"
<STATE> 4
~s "ST_a_4_1"
~t "T_a"
<ENDHMM>
~h "b"
<BEGINHMM>
<NUMSTATES> 5
<STATE> 2
~s "ST_b_2_1"
<STATE> 3
~s "ST_b_3_1"
<STATE> 4
~s "ST_b_4_1"
~t "T_b"
<ENDHMM>
~h "d"
<BEGINHMM>
<NUMSTATES> 5
<STATE> 2
~s "ST_d_2_1"
<STATE> 3
~s "ST_d_3_1"
<STATE> 4
~s "ST_d_4_1"
~t "T_d"
<ENDHMM>
~h "e"
<BEGINHMM>
<NUMSTATES> 5
<STATE> 2
~s "ST_e_2_1"
<STATE> 3
~s "ST_e_3_1"
<STATE> 4
~s "ST_e_4_1"
~t "T_e"
<ENDHMM>
~h "f"
<BEGINHMM>
<NUMSTATES> 5
<STATE> 2
~s "ST_f_2_1"
<STATE> 3
~s "ST_f_3_1"
<STATE> 4
~s "ST_f_4_1"
~t "T_f"
<ENDHMM>
~h "g"
<BEGINHMM>
<NUMSTATES> 5
<STATE> 2
~s "ST_g_2_1"
<STATE> 3
~s "ST_g_3_1"
<STATE> 4
~s "ST_g_4_1"
~t "T_g"
<ENDHMM>
~h "i"
<BEGINHMM>
<NUMSTATES> 5
<STATE> 2
~s "ST_i_2_1"
<STATE> 3
~s "ST_i_3_1"
<STATE> 4
~s "ST_i_4_1"
~t "T_i"
<ENDHMM>
~h "j"
<BEGINHMM>
<NUMSTATES> 5
<STATE> 2
~s "ST_j_2_1"
<STATE> 3
~s "ST_j_3_1"
<STATE> 4
~s "ST_j_4_1"
~t "T_j"
<ENDHMM>
~h "k"
<BEGINHMM>
<NUMSTATES> 5
<STATE> 2
~s "ST_k_2_1"
<STATE> 3
~s "ST_k_3_1"
<STATE> 4
~s "ST_k_4_1"
~t "T_k"
<ENDHMM>
~h "l"
<BEGINHMM>
<NUMSTATES> 5
<STATE> 2
~s "ST_l_2_1"
<STATE> 3
~s "ST_l_3_1"
<STATE> 4
~s "ST_l_4_1"
~t "T_l"
<ENDHMM>
~h "m"
<BEGINHMM>
<NUMSTATES> 5
<STATE> 2
~s "ST_m_2_1"
<STATE> 3
~s "ST_m_3_1"
<STATE> 4
~s "ST_m_4_1"
~t "T_m"
<ENDHMM>
~h "n"
<BEGINHMM>
<NUMSTATES> 5
<STATE> 2
~s "ST_n_2_1"
<STATE> 3
~s "ST_n_3_1"
<STATE> 4
~s "ST_n_4_1"
~t "T_n"
<ENDHMM>
~h "o"
<BEGINHMM>
<NUMSTATES> 5
<STATE> 2
~s "ST_o_2_1"
<STATE> 3
~s "ST_o_3_1"
<STATE> 4
~s "ST_o_4_1"
~t "T_o"
<ENDHMM>
~h "p"
<BEGINHMM>
<NUMSTATES> 5
<STATE> 2
~s "ST_p_2_1"
<STATE> 3
~s "ST_p_3_1"
<STATE> 4
~s "ST_p_4_1"
~t "T_p"
<ENDHMM>
~h "r"
<BEGINHMM>
<NUMSTATES> 5
<STATE> 2
~s "ST_r_2_1"
<STATE> 3
~s "ST_r_3_1"
<STATE> 4
~s "ST_r_4_1"
~t "T_r"
<ENDHMM>
~h "s"
<BEGINHMM>
<NUMSTATES> 5
<STATE> 2
~s "ST_s_2_1"
<STATE> 3
~s "ST_s_3_1"
<STATE> 4
~s "ST_s_4_1"
~t "T_s"
<ENDHMM>
~h "t"
<BEGINHMM>
<NUMSTATES> 5
<STATE> 2
~s "ST_t_2_1"
<STATE> 3
~s "ST_t_3_1"
<STATE> 4
~s "ST_t_4_1"
~t "T_t"
<ENDHMM>
~h "u"
<BEGINHMM>
<NUMSTATES> 5
<STATE> 2
~s "ST_u_2_1"
<STATE> 3
~s "ST_u_3_1"
<STATE> 4
~s "ST_u_4_1"
~t "T_u"
<ENDHMM>
~h "w"
<BEGINHMM>
<NUMSTATES> 5
<STATE> 2
~s "ST_w_2_1"
<STATE> 3
~s "ST_w_3_1"
<STATE> 4
~s "ST_w_4_1"
~t "T_w"
<ENDHMM>
~h "y"
<BEGINHMM>
<NUMSTATES> 5
<STATE> 2
~s "ST_y_2_1"
<STATE> 3
~s "ST_y_3_1"
<STATE> 4
~s "ST_y_4_1"
~t "T_y"
<ENDHMM>
~h "sp"
<BEGINHMM>
<NUMSTATES> 3
<STATE> 2
~s "ST_sil_3_1"
<TRANSP> 3
 0.000000e+00 3.430146e-02 9.656985e-01
 0.000000e+00 2.841435e-01 7.158566e-01
 0.000000e+00 0.000000e+00 0.000000e+00
<ENDHMM>
~h "sy"
<BEGINHMM>
<NUMSTATES> 5
<STATE> 2
~s "ST_sy_2_1"
<STATE> 3
~s "ST_sy_3_1"
<STATE> 4
~s "ST_sy_4_1"
~t "T_sy"
<ENDHMM>
~h "a-d+u"
<BEGINHMM>
<NUMSTATES> 5
<STATE> 2
~s "ST_d_2_2"
<STATE> 3
~s "ST_d_3_2"
<STATE> 4
~s "ST_d_4_1"
~t "T_d"
<ENDHMM>
~h "n-a+r"
<BEGINHMM>
<NUMSTATES> 5
<STATE> 2
~s "ST_a_2_1"
<STATE> 3
~s "ST_a_3_2"
<STATE> 4
~s "ST_a_4_2"
~t "T_a"
<ENDHMM>
~h "a-i+b"
<BEGINHMM>
<NUMSTATES> 5
<STATE> 2
~s "ST_i_2_1"
<STATE> 3
~s "ST_i_3_1"
<STATE> 4
~s "ST_i_4_2"
~t "T_i"
<ENDHMM>
~h "g-a+i"
<BEGINHMM>
<NUMSTATES> 5
<STATE> 2
~s "ST_a_2_1"
<STATE> 3
~s "ST_a_3_1"
<STATE> 4
~s "ST_a_4_4"
~t "T_a"
<ENDHMM>
~h "j-a+d"
<BEGINHMM>
<NUMSTATES> 5
<STATE> 2
~s "ST_a_2_1"
<STATE> 3
~s "ST_a_3_2"
<STATE> 4
~s "ST_a_4_3"
~t "T_a"
<ENDHMM>
~h "a+p"
<BEGINHMM>
<NUMSTATES> 5
<STATE> 2
~s "ST_a_2_3"
<STATE> 3
~s "ST_a_3_2"
<STATE> 4
~s "ST_a_4_1"
~t "T_a"
<ENDHMM>
~h "m-a+t"
<BEGINHMM>
<NUMSTATES> 5
<STATE> 2
~s "ST_a_2_1"
<STATE> 3
~s "ST_a_3_1"
<STATE> 4
~s "ST_a_4_1"
~t "T_a"
<ENDHMM>
~h "d-a"
<BEGINHMM>
<NUMSTATES> 5
<STATE> 2
~s "ST_a_2_1"
<STATE> 3
~s "ST_a_3_1"
<STATE> 4
~s "ST_a_4_2"
~t "T_a"
<ENDHMM>
~h "k-a"
<BEGINHMM>
<NUMSTATES> 5
<STATE> 2
~s "ST_a_2_1"
<STATE> 3
~s "ST_a_3_3"
<STATE> 4
~s "ST_a_4_4"
~t "T_a"
<ENDHMM>
~h "p-a"
<BEGINHMM>
<NUMSTATES> 5
<STATE> 2
~s "ST_a_2_2"
<STATE> 3
~s "ST_a_3_1"
<STATE> 4
~s "ST_a_4_1"
~t "T_a"
<ENDHMM>
~h "sil"
<BEGINHMM>
<NUMSTATES> 5
<STATE> 2
~s "ST_sil_2_1"
<STATE> 3
~s "ST_sil_3_1"
<STATE> 4
~s "ST_sil_4_1"
<TRANSP> 5
 0.000000e+00 1.000000e+00 0.000000e+00 0.000000e+00 0.000000e+00
 0.000000e+00 7.703393e-01 1.148364e-01 1.148243e-01 0.000000e+00
 0.000000e+00 0.000000e+00 9.112682e-01 8.873175e-02 0.000000e+00
 0.000000e+00 0.000000e+00 0.000000e+00 9.864730e-01 1.352698e-02
 0.000000e+00 0.000000e+00 0.000000e+00 0.000000e+00 0.000000e+00
<ENDHMM>
~h "p-a+n"
<BEGINHMM>
<NUMSTATES> 5
<STATE> 2
~s "ST_a_2_2"
<STATE> 3
~s "ST_a_3_2"
<STATE> 4
~s "ST_a_4_2"
~t "T_a"
<ENDHMM>
~h "i-s+t"
<BEGINHMM>
<NUMSTATES> 5
<STATE> 2
~s "ST_s_2_1"
<STATE> 3
~s "ST_s_3_1"
<STATE> 4
~s "ST_s_4_2"
~t "T_s"
<ENDHMM>
~h "y-a+p"
<BEGINHMM>
<NUMSTATES> 5
<STATE> 2
~s "ST_a_2_3"
<STATE> 3
~s "ST_a_3_1"
<STATE> 4
~s "ST_a_4_1"
~t "T_a"
<ENDHMM>
~h "k-a+p"
<BEGINHMM>
<NUMSTATES> 5
<STATE> 2
~s "ST_a_2_3"
<STATE> 3
~s "ST_a_3_3"
<STATE> 4
~s "ST_a_4_4"
~t "T_a"
<ENDHMM>
