~o
<STREAMINFO> 1 39
<VECSIZE> 39<NULLD><MFCC_D_A_0><DIAGC>
~s "silst"
<MEAN> 39
 -1.716203e+01 1.725477e+00 -1.974445e+00 3.631160e-01 6.270707e-02 1.816108e+00 2.598565e+00 3.262534e+00 3.011631e+00 1.941044e+00 7.658170e-01 -1.780715e-01 3.709900e+01 -1.781150e+00 1.611579e-01 -2.110129e-01 -2.253396e-02 4.544475e-02 1.488007e-01 3.064500e-01 3.448975e-01 3.108943e-01 1.459905e-01 6.167205e-02 -9.477121e-02 5.142212e+00 2.302436e-01 -2.891238e-02 2.206223e-02 -1.928642e-02 7.085737e-03 -2.707423e-02 -1.478125e-02 -2.785038e-02 -1.632447e-02 -2.446845e-02 -8.238178e-03 -1.524723e-03 -1.966301e-01
<VARIANCE> 39
 6.473184e+01 2.708932e+00 4.320583e+00 4.613062e+00 5.018733e+00 5.717188e+00 9.602832e+00 9.860133e+00 9.747697e+00 6.467517e+00 5.283422e+00 5.562628e+00 4.540753e+02 7.814608e+00 2.845796e-01 4.839022e-01 4.963573e-01 5.915915e-01 7.228343e-01 1.033951e+00 9.969227e-01 9.745047e-01 7.448406e-01 6.202661e-01 5.903362e-01 1.055355e+01 1.331135e+00 4.594489e-02 9.571955e-02 9.605096e-02 1.211163e-01 1.500541e-01 2.081858e-01 1.874675e-01 1.869383e-01 1.466367e-01 1.283580e-01 1.230646e-01 2.237246e+00
<GCONST> 7.929706e+01
~h "a"
<BEGINHMM>
<NUMSTATES> 5
<STATE> 2
<MEAN> 39
 -8.447280e+00 2.767514e+00 -8.123446e-01 1.602375e-01 5.039256e-01 -3.476401e+00 -3.221858e-01 -1.106721e+00 -5.682827e+00 2.017084e+00 5.510076e+00 -1.565303e+00 6.884969e+01 8.952656e-01 2.636424e-01 1.505294e-01 1.992919e-01 -1.341466e-01 -4.263167e-01 -4.388618e-01 -1.178577e-01 -3.576536e-01 -3.654167e-02 3.077745e-01 -5.919820e-02 5.445564e-01 -2.003642e-01 -1.401060e-01 -1.383640e-01 -2.483012e-02 -5.391589e-02 1.452427e-01 1.978806e-01 1.433486e-01 1.802823e-01 8.082492e-02 -6.328205e-03 6.427967e-02 -1.510328e-01
<VARIANCE> 39
 6.345579e+01 3.415732e+01 3.558183e+01 5.621080e+01 3.522889e+01 3.574107e+01 5.350782e+01 3.107346e+01 5.107645e+01 2.865822e+01 2.331411e+01 1.302399e+01 3.887445e+01 6.783215e+00 2.875854e+00 2.186922e+00 2.180163e+00 2.182303e+00 3.322312e+00 3.315821e+00 2.459562e+00 6.087537e+00 1.678059e+00 2.598794e+00 1.279967e+00 4.460027e+00 6.020554e-01 5.018396e-01 3.420885e-01 3.200169e-01 3.441743e-01 4.740890e-01 4.875028e-01 4.145344e-01 5.580347e-01 2.706074e-01 3.613771e-01 2.175160e-01 3.801794e-01
<GCONST> 1.195903e+02
<STATE> 3
<MEAN> 39
 -1.032384e+01 6.662160e+00 2.951468e+00 6.449347e+00 5.200411e+00 5.618934e-01 -7.261385e-01 4.791167e-01 1.024500e+00 3.784411e+00 4.094483e+00 -1.012751e+00 6.538873e+01 -7.417743e-01 -3.252462e-01 -1.954381e-01 -1.896660e-01 -1.033688e-02 5.225634e-01 8.599553e-01 7.369189e-01 5.795093e-01 7.305067e-02 -3.978134e-02 2.215686e-01 -4.518219e-01 -2.637246e-02 -1.408633e-01 -1.701391e-01 -1.958442e-01 -1.536897e-01 -1.028040e-01 -3.257170e-02 -1.116485e-01 -1.570593e-01 -3.289941e-02 2.378529e-02 -9.072402e-03 2.179988e-02
<VARIANCE> 39
 3.073999e+01 2.448598e+01 1.732340e+01 2.586667e+01 2.624613e+01 3.469675e+01 5.543518e+01 3.632776e+01 6.752387e+01 1.539879e+01 3.204970e+01 1.424814e+01 2.550222e+01 7.667724e-01 8.577423e-01 8.581432e-01 1.048929e+00 8.789728e-01 1.325480e+00 1.547114e+00 1.568809e+00 1.629725e+00 6.913609e-01 8.749291e-01 7.533185e-01 3.922402e-01 1.299254e-01 1.717968e-01 1.572761e-01 1.334553e-01 1.967510e-01 3.358843e-01 3.771559e-01 2.995631e-01 3.565325e-01 1.508910e-01 2.059956e-01 1.465572e-01 6.610137e-02
<GCONST> 9.271645e+01
<STATE> 4
<MEAN> 39
 -1.129404e+01 2.546687e+00 -2.745533e+00 1.169266e-01 4.836003e-01 3.613253e-01 2.569736e+00 1.373188e+00 -1.784249e+00 2.637311e+00 6.184640e+00 5.417348e-01 6.561521e+01 -4.717215e-01 -6.111382e-02 -8.083145e-02 -9.557557e-02 -1.534523e-02 1.922631e-01 1.517556e-01 -3.992150e-02 1.736887e-01 -2.240547e-02 -2.886512e-01 7.553464e-04 -3.586351e-01 2.804004e-02 5.950242e-02 7.460563e-02 6.065011e-02 5.403434e-02 -1.467899e-02 -7.217789e-02 -2.601500e-02 -8.997277e-03 -3.436320e-02 -4.086995e-02 -2.362439e-02 9.308197e-03
<VARIANCE> 39
 7.793206e+01 1.224581e+01 1.194933e+01 1.505459e+01 2.158888e+01 3.130024e+01 2.434449e+01 2.691567e+01 6.840638e+01 1.292156e+01 3.040245e+01 8.925982e+00 4.775638e+01 5.866662e-01 8.750815e-01 7.741990e-01 1.074544e+00 1.235120e+00 1.511520e+00 1.216615e+00 1.211919e+00 1.820670e+00 9.288257e-01 9.341763e-01 7.437993e-01 3.807528e-01 7.490140e-02 1.378763e-01 1.280425e-01 1.421019e-01 1.511054e-01 1.993854e-01 1.976203e-01 2.334983e-01 2.446199e-01 1.611094e-01 1.517894e-01 1.478072e-01 4.226556e-02
<GCONST> 8.699037e+01
<TRANSP> 5
 0.000000e+00 1.000000e+00 0.000000e+00 0.000000e+00 0.000000e+00
 0.000000e+00 7.483718e-01 2.516281e-01 0.000000e+00 0.000000e+00
 0.000000e+00 0.000000e+00 6.807635e-01 3.192365e-01 0.000000e+00
 0.000000e+00 0.000000e+00 0.000000e+00 7.811925e-01 2.188075e-01
 0.000000e+00 0.000000e+00 0.000000e+00 0.000000e+00 0.000000e+00
<ENDHMM>
~h "b"
<BEGINHMM>
<NUMSTATES> 5
<STATE> 2
<MEAN> 39
 -1.963618e+01 2.706543e+00 -1.917167e+00 -2.374329e-01 1.358168e+00 3.199662e+00 4.788556e+00 5.114078e+00 5.186403e+00 3.068407e+00 2.714611e+00 3.692583e-01 5.927630e+01 -3.298621e-01 -2.772409e-01 -3.332517e-01 -5.912353e-01 -5.977707e-01 -3.492333e-01 -1.050038e-01 1.268574e-01 1.319387e-01 -1.461813e-01 -4.079231e-02 -7.829450e-03 -1.387827e-01 9.684139e-02 1.019150e-01 1.195689e-01 1.621539e-01 1.533304e-01 9.250797e-02 -1.733924e-03 -1.180857e-01 -1.336654e-01 -3.811065e-02 -5.796963e-02 -7.160831e-02 4.818228e-02
<VARIANCE> 39
 2.141086e+00 3.560511e+00 5.139593e+00 7.908643e+00 1.015210e+01 1.448294e+01 1.583051e+01 1.297725e+01 9.876358e+00 1.014083e+01 8.992323e+00 7.616232e+00 1.447546e+00 3.264114e-01 4.793756e-01 6.914664e-01 1.235684e+00 1.399403e+00 1.576986e+00 1.730470e+00 1.323505e+00 1.098701e+00 1.428936e+00 7.436965e-01 8.253096e-01 9.150634e-02 6.205527e-02 7.579423e-02 9.799843e-02 2.041640e-01 1.987894e-01 2.440850e-01 3.388438e-01 2.501825e-01 2.272348e-01 2.399018e-01 1.325763e-01 1.447835e-01 1.903846e-02
<GCONST> 6.852368e+01
<STATE> 3
<MEAN> 39
 -2.093652e+01 1.397827e+00 -3.011605e+00 -8.957565e-01 -4.372541e-01 1.149508e+00 3.520327e+00 4.278815e+00 4.006366e+00 1.643119e+00 7.345351e-01 -8.332728e-01 5.864536e+01 2.977669e-03 -4.493799e-03 1.848690e-02 3.599341e-02 1.407767e-02 -2.931423e-02 -4.612504e-02 -5.835858e-02 -5.181628e-02 -2.369489e-02 -5.166259e-02 -1.732320e-02 3.784604e-04 8.183856e-03 -5.643365e-03 -1.295890e-02 -1.266513e-02 -8.996655e-04 -1.342488e-02 -7.596615e-03 1.444048e-03 1.076433e-02 1.821235e-02 1.945483e-02 1.332509e-02 4.332011e-03
<VARIANCE> 39
 1.196826e+00 1.710847e+00 2.985263e+00 3.907930e+00 4.342455e+00 5.181731e+00 6.625669e+00 8.147058e+00 8.491455e+00 8.850120e+00 6.312524e+00 5.806933e+00 1.447546e+00 1.130506e-01 1.160643e-01 2.014536e-01 4.490364e-01 5.075712e-01 5.217131e-01 7.701475e-01 9.822045e-01 1.046298e+00 1.081537e+00 7.380579e-01 6.505625e-01 3.619348e-02 2.254631e-02 1.941473e-02 3.609725e-02 9.038680e-02 1.051099e-01 1.141140e-01 1.778458e-01 2.112049e-01 2.085526e-01 2.413425e-01 1.573805e-01 1.460521e-01 7.124074e-03
<GCONST> 4.510013e+01
<STATE> 4
<MEAN> 39
 -2.026072e+01 1.366004e+00 -3.315101e+00 -1.413522e+00 -7.042674e-01 7.399951e-01 2.817791e+00 3.693758e+00 3.522178e+00 1.313144e+00 8.217006e-01 -9.768973e-01 5.905025e+01 5.127273e-02 -1.096991e-01 -1.926817e-01 -6.159204e-02 8.434983e-02 7.004405e-02 1.946857e-01 2.120772e-01 2.642137e-01 3.819616e-01 -7.678958e-02 -1.809869e-01 -8.439869e-03 1.959749e-01 1.130658e-01 1.737827e-01 1.346537e-01 1.655822e-01 1.212903e-01 -4.215946e-02 -2.089728e-01 -1.853700e-01 1.873379e-02 9.097701e-02 8.472571e-02 1.550232e-01
<VARIANCE> 39
 1.739902e+00 3.203054e+00 6.412777e+00 7.429159e+00 4.187702e+00 2.949854e+00 3.633062e+00 1.270414e+01 1.021205e+01 5.946030e+00 5.731365e+00 7.852044e+00 1.447546e+00 1.797787e-01 3.249253e-01 5.426836e-01 9.655694e-01 4.501856e-01 4.435997e-01 8.183461e-01 2.065933e+00 1.012275e+00 1.094788e+00 6.249393e-01 9.249215e-01 1.002075e-01 1.253502e-01 1.511067e-01 1.434437e-01 1.954090e-01 1.677152e-01 7.143592e-02 1.977765e-01 6.783975e-01 4.883533e-01 1.449016e-01 1.441066e-01 1.414325e-01 9.242390e-02
<GCONST> 6.167260e+01
<TRANSP> 5
 0.000000e+00 1.000000e+00 0.000000e+00 0.000000e+00 0.000000e+00
 0.000000e+00 8.730652e-01 1.269348e-01 0.000000e+00 0.000000e+00
 0.000000e+00 0.000000e+00 9.572409e-01 4.275906e-02 0.000000e+00
 0.000000e+00 0.000000e+00 0.000000e+00 6.947080e-01 3.052921e-01
 0.000000e+00 0.000000e+00 0.000000e+00 0.000000e+00 0.000000e+00
<ENDHMM>
~h "d"
<BEGINHMM>
<NUMSTATES> 5
<STATE> 2
<MEAN> 39
 -7.153245e+00 5.510383e+00 2.496602e+00 4.222803e+00 4.870790e+00 -9.586864e-01 -2.215946e+00 -4.431251e+00 -8.805278e+00 -4.582175e+00 3.245959e+00 5.009692e-01 6.901736e+01 7.585420e-01 1.110354e-02 3.854732e-01 6.101915e-01 5.149754e-01 -1.562716e-01 -6.469267e-01 -5.700529e-01 -8.823039e-01 -4.689724e-01 1.713715e-01 -2.095394e-01 6.282516e-01 -3.583121e-02 -6.243054e-02 -8.757426e-02 9.415831e-02 2.899283e-02 -6.325889e-02 -5.984437e-02 1.404282e-01 -1.005624e-03 -3.599131e-02 4.083177e-02 -1.933238e-02 -6.197762e-02
<VARIANCE> 39
 4.440505e+01 4.082409e+01 4.228220e+01 3.048623e+01 1.671256e+01 1.914500e+01 2.705526e+01 3.376512e+01 7.101562e+01 3.520038e+01 1.821147e+01 1.078124e+01 3.060670e+01 4.272732e+00 4.797791e+00 2.757289e+00 2.438835e+00 1.985693e+00 2.562288e+00 3.810269e+00 2.886411e+00 6.606619e+00 3.130632e+00 1.918621e+00 1.182044e+00 3.018731e+00 6.026174e-01 7.472156e-01 4.417306e-01 3.772636e-01 3.167096e-01 4.076586e-01 5.289414e-01 5.543855e-01 8.179156e-01 4.770093e-01 3.223550e-01 1.920696e-01 3.700698e-01
<GCONST> 1.187749e+02
<STATE> 3
<MEAN> 39
 -4.541188e+00 3.720889e+00 4.446329e+00 9.196244e+00 7.483412e+00 -5.629420e+00 -8.858943e+00 -3.724586e+00 -1.168854e+01 -2.665912e+00 7.923541e+00 -3.613078e+00 7.155921e+01 -1.626973e-01 1.699548e-01 -1.195256e-01 -1.297885e-01 -1.875206e-01 1.413866e-01 4.144290e-01 3.001920e-01 2.838139e-01 1.815374e-01 -4.751595e-02 8.853833e-02 -2.553138e-01 -1.048150e-01 9.471622e-02 2.663624e-02 -1.038197e-01 -5.478180e-02 1.399904e-01 1.604906e-01 4.973350e-02 2.247071e-01 1.153582e-01 -1.061280e-01 4.430688e-02 -9.859387e-02
<VARIANCE> 39
 1.310454e+01 2.238919e+01 3.157215e+01 6.591618e+01 2.791098e+01 2.499705e+01 3.205362e+01 2.779960e+01 3.958733e+01 4.199342e+01 3.453360e+01 1.700266e+01 1.275643e+01 7.183627e-01 1.699623e+00 1.298280e+00 2.433482e+00 1.153912e+00 2.284535e+00 1.872467e+00 2.062797e+00 3.922932e+00 1.629122e+00 2.736163e+00 1.114201e+00 8.747623e-01 6.433833e-02 2.517690e-01 1.873822e-01 3.712018e-01 2.266731e-01 3.655182e-01 3.349559e-01 3.113508e-01 5.268134e-01 2.794925e-01 3.969980e-01 2.006720e-01 9.159773e-02
<GCONST> 1.028077e+02
<STATE> 4
<MEAN> 39
 -1.631966e+01 3.974891e+00 -2.603943e-01 2.215547e+00 2.776251e+00 2.607549e+00 2.949190e+00 2.380454e+00 9.093778e-01 1.808461e+00 2.888820e+00 -3.642702e-01 6.151973e+01 -9.011641e-01 1.064715e-01 -1.864550e-01 -6.543027e-01 -4.446992e-01 2.211291e-01 6.614791e-01 9.883518e-01 1.441866e+00 2.218875e-01 -6.642524e-01 2.776479e-01 -7.272722e-01 2.457627e-01 -3.213227e-01 1.236402e-02 8.264407e-02 6.423192e-02 -3.775721e-01 -4.091456e-01 -5.770737e-01 -7.475428e-01 -2.576424e-01 2.484418e-01 -1.198877e-03 4.034173e-01
<VARIANCE> 39
 3.285172e+01 1.125651e+01 1.803664e+01 2.590477e+01 1.410127e+01 1.345811e+01 1.616009e+01 2.018952e+01 5.293808e+01 2.873513e+01 1.911514e+01 1.028693e+01 1.592962e+01 1.398168e+00 1.564559e+00 1.439842e+00 2.139221e+00 1.244261e+00 3.180854e+00 3.032402e+00 3.651640e+00 6.176957e+00 1.823510e+00 1.784559e+00 7.089098e-01 1.374129e+00 2.062770e-01 1.862857e-01 1.983849e-01 3.434618e-01 1.860977e-01 3.767130e-01 4.041749e-01 6.054823e-01 8.807027e-01 3.498065e-01 2.277742e-01 1.518722e-01 2.110913e-01
<GCONST> 1.027022e+02
<TRANSP> 5
 0.000000e+00 1.000000e+00 0.000000e+00 0.000000e+00 0.000000e+00
 0.000000e+00 8.750621e-01 1.249378e-01 0.000000e+00 0.000000e+00
 0.000000e+00 0.000000e+00 9.038100e-01 9.619004e-02 0.000000e+00
 0.000000e+00 0.000000e+00 0.000000e+00 5.527353e-01 4.472647e-01
 0.000000e+00 0.000000e+00 0.000000e+00 0.000000e+00 0.000000e+00
<ENDHMM>
~h "e"
<BEGINHMM>
<NUMSTATES> 5
<STATE> 2
<MEAN> 39
 -1.128106e+01 5.764623e-01 9.235988e-01 1.625527e+00 4.548080e+00 2.029416e-01 -1.463146e+00 -6.811927e+00 -9.099917e+00 -1.417618e-01 7.452629e+00 8.444344e-01 6.865881e+01 2.193346e+00 -2.547007e-01 -5.395228e-01 1.672223e+00 7.730762e-01 -7.472920e-01 -7.904140e-01 -2.229149e+00 -3.014053e+00 -1.619000e-01 1.590286e+00 1.764448e-01 1.480751e+00 9.950349e-02 -4.300426e-02 -6.500970e-02 1.897368e-01 -1.877522e-01 -1.755091e-01 1.301903e-01 2.035381e-01 5.958907e-02 2.622797e-01 6.074993e-02 6.118815e-03 -5.841538e-03
<VARIANCE> 39
 4.033165e+01 2.871505e+01 3.492862e+01 5.646642e+01 1.663850e+01 2.513014e+01 2.802711e+01 5.137730e+01 7.389969e+01 2.702050e+01 2.690871e+01 1.192398e+01 3.352142e+01 7.235265e+00 5.043063e+00 4.181277e+00 7.934231e+00 1.367666e+00 4.375402e+00 2.805491e+00 4.056090e+00 8.321387e+00 2.881369e+00 3.037298e+00 1.778347e+00 3.712410e+00 6.606250e-01 5.523433e-01 4.652017e-01 8.671017e-01 3.657943e-01 4.591520e-01 3.120108e-01 6.399610e-01 9.674594e-01 3.434673e-01 4.780690e-01 2.098100e-01 3.755664e-01
<GCONST> 1.243127e+02
<STATE> 3
<MEAN> 39
 -2.096120e+00 -2.183204e+00 -2.062046e+00 7.663701e+00 3.613678e+00 -5.314424e+00 -3.615347e+00 -1.317769e+01 -2.011371e+01 1.321823e+00 1.321249e+01 1.713192e+00 7.463856e+01 2.769210e-01 1.273950e-01 -2.644906e-01 1.302131e-01 -3.273142e-01 -2.920495e-01 5.035629e-01 3.314545e-01 -1.535847e-01 3.831040e-01 -6.906408e-03 -5.170372e-02 2.309398e-02 -5.843065e-01 2.002785e-01 2.234793e-01 -5.180796e-01 -3.965901e-02 3.240209e-01 1.111353e-01 5.377184e-01 8.109868e-01 2.092377e-02 -4.231971e-01 -1.511152e-01 -3.675028e-01
<VARIANCE> 39
 1.325749e+01 1.504590e+01 1.260329e+01 2.877704e+01 1.337783e+01 2.669096e+01 3.253270e+01 3.561839e+01 3.737033e+01 2.435239e+01 1.437759e+01 1.122124e+01 1.250414e+01 3.144060e+00 1.590048e+00 1.508603e+00 2.884363e+00 1.895433e+00 3.272518e+00 1.472987e+00 2.722904e+00 3.947593e+00 1.344047e+00 2.071851e+00 8.364750e-01 2.033851e+00 3.379348e-01 3.134715e-01 2.644436e-01 5.355353e-01 2.351970e-01 3.477179e-01 3.582190e-01 4.829814e-01 4.621552e-01 2.940919e-01 2.678405e-01 1.333569e-01 1.125492e-01
<GCONST> 1.034751e+02
<STATE> 4
<MEAN> 39
 -1.023665e+01 4.694225e+00 1.040164e+00 5.174527e+00 4.885434e+00 1.978138e+00 1.481307e+00 -3.059624e+00 -6.095314e+00 1.932655e+00 5.931484e+00 5.955531e-02 6.609013e+01 -1.454376e+00 3.639824e-01 1.195321e-02 -2.905633e-01 1.532639e-02 5.256309e-01 1.327365e-01 1.435977e+00 2.706222e+00 5.037428e-01 -1.178842e+00 -5.648931e-01 -1.273865e+00 6.614555e-02 -2.704955e-01 -1.558962e-01 -1.335769e-01 -2.092170e-01 -3.316668e-01 -2.348257e-01 -1.474379e-01 -4.991192e-02 -4.048891e-03 1.242802e-01 9.744242e-05 1.518143e-01
<VARIANCE> 39
 4.189011e+01 2.565460e+01 1.792192e+01 2.766184e+01 2.323804e+01 4.236870e+01 3.172022e+01 4.498018e+01 1.043595e+02 3.264321e+01 4.186287e+01 1.477128e+01 3.628394e+01 2.014693e+00 3.232766e+00 1.824653e+00 2.299570e+00 1.769233e+00 2.143582e+00 3.086685e+00 3.806234e+00 6.801112e+00 1.750175e+00 3.044346e+00 1.272240e+00 1.369585e+00 2.598946e-01 4.255714e-01 2.862803e-01 4.580999e-01 3.245731e-01 3.809083e-01 4.151868e-01 6.226832e-01 1.047292e+00 2.665692e-01 5.679696e-01 2.172644e-01 1.839377e-01
<GCONST> 1.156826e+02
<TRANSP> 5
 0.000000e+00 1.000000e+00 0.000000e+00 0.000000e+00 0.000000e+00
 0.000000e+00 5.963754e-01 4.036245e-01 0.000000e+00 0.000000e+00
 0.000000e+00 0.000000e+00 6.960351e-01 3.039649e-01 0.000000e+00
 0.000000e+00 0.000000e+00 0.000000e+00 6.216868e-01 3.783133e-01
 0.000000e+00 0.000000e+00 0.000000e+00 0.000000e+00 0.000000e+00
<ENDHMM>
~h "f"
<BEGINHMM>
<NUMSTATES> 5
<STATE> 2
<MEAN> 39
 -7.066786e+00 4.951551e+00 1.040533e+01 1.862700e+01 1.049292e+01 -8.194757e+00 -8.396813e+00 -1.389265e+00 -1.602937e+01 -7.633750e+00 9.394709e+00 -5.319582e+00 6.923148e+01 -3.934030e-01 4.205591e-01 -3.492035e-02 -2.125619e-01 -6.472898e-01 5.330396e-01 1.042811e+00 -1.301000e-02 6.874524e-01 5.326557e-01 -5.631768e-01 1.646263e-02 -5.163054e-01 -8.139173e-02 3.973898e-02 3.225431e-03 -1.850704e-01 4.980299e-02 2.345286e-01 1.777802e-02 3.366184e-02 2.860681e-01 1.483881e-01 -9.675325e-02 6.822273e-02 -4.993128e-02
<VARIANCE> 39
 2.339137e+00 5.655383e+00 7.833997e+00 7.758659e+00 9.392935e+00 1.310616e+01 1.690535e+01 2.325091e+01 1.890465e+01 1.846535e+01 1.489446e+01 5.659273e+00 3.739697e+00 7.464392e-02 3.015724e-01 4.203973e-01 1.064293e+00 6.406409e-01 1.626703e+00 1.474423e+00 1.725798e+00 2.236045e+00 1.379164e+00 9.438363e-01 5.950754e-01 8.036406e-02 2.207740e-02 6.220485e-02 1.065566e-01 1.678763e-01 1.097558e-01 1.834794e-01 3.571548e-01 4.102650e-01 4.173543e-01 2.402660e-01 2.087689e-01 1.495238e-01 1.454661e-02
<GCONST> 6.873096e+01
<STATE> 3
<MEAN> 39
 -1.014092e+01 8.107697e+00 9.402054e+00 1.588612e+01 7.777023e+00 -2.099873e+00 -1.389429e+00 -2.438791e+00 -7.834888e+00 -1.649628e+00 3.580135e+00 -5.821324e+00 6.550603e+01 -9.301512e-01 7.388287e-01 9.386200e-02 -1.205542e+00 -2.796793e-01 1.593790e+00 1.799502e+00 1.065868e+00 2.690423e+00 1.138110e+00 -1.219522e+00 1.639380e+00 -9.965405e-01 -1.603904e-01 -1.648041e-01 -1.432013e-01 -2.458100e-01 -2.298970e-02 2.670942e-02 3.487951e-01 9.679201e-01 3.776037e-01 -2.470054e-01 1.441765e-01 4.381928e-01 -1.134876e-01
<VARIANCE> 39
 1.821754e+00 1.725121e+00 5.948273e+00 5.577393e+00 5.731697e-01 3.260822e-01 6.867891e+00 1.026586e+01 1.587353e+01 6.183293e+00 7.646408e-01 1.860897e+00 1.447546e+00 2.079128e-02 1.884065e-01 4.864851e-01 1.104712e-01 1.089243e-01 5.926147e-01 3.358547e+00 2.845063e-01 5.924463e-02 7.288707e-01 4.962190e-01 5.692518e-01 1.980202e-02 3.304806e-03 2.808523e-02 9.492445e-02 6.964027e-02 2.179906e-02 1.083466e-02 1.068660e-01 5.292338e-02 2.132034e-01 6.527269e-02 7.224840e-02 8.406660e-02 8.525150e-03
<GCONST> 2.265833e+01
<STATE> 4
<MEAN> 39
 -1.120151e+01 9.152643e+00 9.214333e+00 1.373501e+01 7.928288e+00 5.907567e-01 -1.773558e-01 -1.416745e+00 -5.452965e+00 -2.538121e+00 3.915114e+00 -1.790561e+00 6.425470e+01 -1.066287e+00 5.509875e-01 -2.491233e-01 -1.749836e+00 -2.615537e-01 2.024631e+00 2.223275e+00 2.252639e+00 3.124716e+00 6.862901e-01 -1.060336e+00 1.580054e+00 -1.084154e+00 -1.505686e-01 -3.742881e-01 -4.675387e-01 -3.077709e-01 -1.222675e-01 -4.219803e-02 2.663694e-01 6.406916e-01 5.214229e-02 -1.952570e-02 2.858648e-01 6.341053e-03 -1.915319e-02
<VARIANCE> 39
 2.053225e+00 1.930664e+00 1.698383e+00 2.411369e+00 3.226118e+00 2.383235e+01 1.935523e+01 2.519802e+01 1.309788e+01 9.425230e-01 9.803257e+00 3.013929e+00 1.963543e+00 4.724371e-02 1.621982e-01 9.065891e-01 5.933676e-01 6.085782e-02 4.349451e-01 8.583879e-01 1.278343e-01 1.542026e+00 1.358147e+00 2.198579e-01 1.886990e-01 2.394736e-02 8.797060e-03 1.567434e-02 2.289203e-02 2.246283e-02 2.110152e-02 1.584315e-01 5.849046e-01 1.405110e-01 4.248040e-02 4.169830e-02 8.243641e-02 2.185804e-01 1.237861e-02
<GCONST> 3.465678e+01
<TRANSP> 5
 0.000000e+00 1.000000e+00 0.000000e+00 0.000000e+00 0.000000e+00
 0.000000e+00 9.120067e-01 8.799332e-02 0.000000e+00 0.000000e+00
 0.000000e+00 0.000000e+00 1.818243e-03 9.981818e-01 0.000000e+00
 0.000000e+00 0.000000e+00 0.000000e+00 4.135333e-03 9.958647e-01
 0.000000e+00 0.000000e+00 0.000000e+00 0.000000e+00 0.000000e+00
<ENDHMM>
~h "g"
<BEGINHMM>
<NUMSTATES> 5
<STATE> 2
<MEAN> 39
 -1.365040e+01 6.367492e+00 2.052393e+00 3.721274e+00 2.319662e+00 6.749052e-01 3.716687e-01 6.975744e-01 1.699571e+00 3.124483e+00 1.932557e+00 -1.947538e+00 6.276084e+01 8.840779e-01 -1.431355e+00 9.073511e-02 8.004175e-01 9.193757e-01 -4.349982e-01 -1.640394e+00 -2.105331e+00 -1.508722e+00 -3.739005e-01 8.751591e-01 -3.225524e-01 1.523292e+00 4.538844e-01 -5.903668e-01 -1.823305e-01 3.164892e-01 3.769952e-01 -3.938699e-01 -6.227990e-01 -6.994702e-01 -1.034922e+00 -3.007476e-01 1.569868e-01 -2.341017e-01 6.090176e-01
<VARIANCE> 39
 4.237877e+01 3.220321e+01 2.769620e+01 2.076802e+01 9.084599e+00 1.187305e+01 3.716932e+01 3.734246e+01 2.791675e+01 2.304099e+01 3.209344e+00 1.047595e+01 1.363092e+01 1.504635e+00 3.578522e+00 1.357613e+00 1.324614e+00 8.839081e-01 1.967522e+00 3.171369e+00 7.872371e+00 4.506269e+00 9.487838e-01 8.778801e-01 7.683376e-01 2.259303e+00 1.829974e-01 3.493188e-01 2.791235e-01 2.866915e-01 2.140606e-01 5.427834e-01 9.586043e-01 6.323490e-01 4.475540e-01 3.605618e-01 1.229879e-01 1.996108e-01 1.508263e-01
<GCONST> 1.023252e+02
<STATE> 3
<MEAN> 39
 -1.060282e+01 -4.906126e-01 1.523680e+00 5.082772e+00 5.814657e+00 6.097252e-01 -5.922050e+00 -9.572400e+00 -5.843686e+00 -5.410922e-01 5.336113e+00 -2.211357e+00 6.911900e+01 1.971424e+00 -1.425706e+00 6.313938e-01 2.775509e+00 1.890204e+00 -1.285674e+00 -1.808566e+00 -2.105479e+00 -3.678948e+00 -6.934674e-01 1.372101e+00 -7.711965e-01 2.122954e+00 1.257117e-01 4.235180e-01 2.170742e-02 5.133163e-01 7.056540e-02 -5.606517e-01 3.544072e-01 9.397456e-01 -4.297676e-01 2.243247e-02 4.747078e-03 -4.640296e-03 -2.578211e-01
<VARIANCE> 39
 1.526690e+01 2.777781e+01 2.074625e+01 4.877608e+01 1.460811e+01 3.624319e+01 1.545115e+01 6.906723e+01 3.987007e+01 2.412003e+01 1.269595e+01 8.193801e+00 1.332456e+01 1.977572e+00 4.984246e+00 2.960430e+00 4.258174e+00 2.171476e+00 3.627525e+00 2.895113e+00 5.212562e+00 5.844066e+00 1.481213e+00 8.345327e-01 1.205948e+00 2.028249e+00 7.330760e-02 3.067723e-01 4.852063e-01 7.232126e-01 1.742399e-01 7.599196e-01 2.850524e-01 8.299067e-01 2.118953e-01 1.560833e-01 2.793188e-01 9.613479e-02 1.544005e-01
<GCONST> 1.072665e+02
<STATE> 4
<MEAN> 39
 -2.600352e+00 -1.111937e+00 2.446748e+00 1.334460e+01 9.430132e+00 -8.447179e+00 -9.503821e+00 -9.866539e+00 -2.292240e+01 -3.487858e+00 1.182558e+01 -3.010624e+00 7.435426e+01 -7.980943e-02 2.487860e-01 1.346465e-01 9.670843e-02 3.707796e-02 1.802244e-02 5.547193e-02 2.012092e-01 4.004242e-02 -8.344574e-02 -1.480814e-02 -4.106105e-02 -1.769758e-01 -3.034213e-01 1.642576e-01 -6.027167e-02 -4.056300e-01 -1.577041e-01 4.184961e-01 3.099103e-01 1.473045e-01 5.611993e-01 1.013469e-01 -2.160508e-01 1.205568e-01 -2.753717e-01
<VARIANCE> 39
 4.323747e+00 8.142450e+00 1.708499e+01 2.595659e+01 1.393384e+01 1.128078e+01 1.228684e+01 4.074867e+01 5.219537e+01 3.335088e+01 1.350556e+01 9.054377e+00 4.791023e+00 1.280467e+00 8.571319e-01 9.438339e-01 2.989216e+00 1.070930e+00 4.123423e+00 1.963264e+00 1.780043e+00 5.666320e+00 1.519336e+00 1.419972e+00 8.299697e-01 8.833876e-01 1.354486e-01 1.621922e-01 2.337472e-01 5.942645e-01 2.509361e-01 4.891709e-01 3.197744e-01 3.921137e-01 7.804766e-01 2.767462e-01 1.950763e-01 1.655467e-01 9.829174e-02
<GCONST> 9.525022e+01
<TRANSP> 5
 0.000000e+00 1.000000e+00 0.000000e+00 0.000000e+00 0.000000e+00
 0.000000e+00 2.933213e-01 7.066788e-01 0.000000e+00 0.000000e+00
 0.000000e+00 0.000000e+00 4.922722e-01 5.077278e-01 0.000000e+00
 0.000000e+00 0.000000e+00 0.000000e+00 8.997845e-01 1.002155e-01
 0.000000e+00 0.000000e+00 0.000000e+00 0.000000e+00 0.000000e+00
<ENDHMM>
~h "i"
<BEGINHMM>
<NUMSTATES> 5
<STATE> 2
<MEAN> 39
 -1.168129e+01 9.315370e+00 4.427032e+00 6.095582e+00 5.076485e+00 2.994670e+00 1.478956e+00 -8.357328e-01 -1.340460e+00 1.086103e+00 2.624909e+00 -2.313228e-02 6.348582e+01 -2.017535e+00 1.078191e-01 -4.171945e-02 -4.982443e-01 2.027834e-01 1.531906e+00 1.487693e+00 1.752302e+00 2.748394e+00 7.646918e-01 -6.818769e-01 6.156520e-01 -1.573368e+00 2.234995e-02 -6.807306e-01 -4.907551e-01 -2.453133e-01 -2.121317e-01 -3.221730e-01 -8.937226e-02 5.230931e-02 -2.204318e-01 1.079602e-01 4.423777e-01 8.728307e-02 2.249120e-01
<VARIANCE> 39
 1.358897e+01 1.156882e+01 1.421230e+01 1.454771e+01 1.679275e+01 1.721823e+01 1.362269e+01 1.873602e+01 2.853541e+01 1.817835e+01 1.588760e+01 1.241327e+01 5.570764e+00 2.115751e+00 1.292294e+00 1.837755e+00 2.005073e+00 1.466587e+00 1.760043e+00 1.952346e+00 1.502143e+00 2.766869e+00 1.587582e+00 1.934913e+00 9.512131e-01 1.340757e+00 1.757061e-01 1.848832e-01 1.395674e-01 1.579965e-01 1.560610e-01 2.967467e-01 2.699640e-01 2.372651e-01 4.362731e-01 2.264706e-01 2.589560e-01 1.865646e-01 1.118292e-01
<GCONST> 9.264882e+01
<STATE> 3
<MEAN> 39
 -1.685445e+01 5.527936e+00 1.397434e+00 3.792016e+00 4.780049e+00 4.905770e+00 5.039773e+00 4.638207e+00 4.696433e+00 3.921108e+00 3.569469e+00 1.524757e+00 6.065101e+01 -1.283304e+00 -1.205498e+00 -1.292385e+00 -1.317655e+00 -1.070307e+00 -4.255969e-01 2.520373e-01 6.320414e-01 7.516364e-01 2.422923e-01 2.432258e-02 2.376521e-01 -6.672011e-01 3.113910e-01 -4.914442e-02 -9.454496e-03 -3.273724e-02 -2.540124e-01 -5.062832e-01 -5.270925e-01 -5.677404e-01 -7.082025e-01 -3.279589e-01 -7.461204e-02 -2.660598e-01 2.675338e-01
<VARIANCE> 39
 9.620156e+00 1.114810e+01 1.130924e+01 1.078338e+01 1.253841e+01 1.582106e+01 1.487354e+01 1.779339e+01 1.826346e+01 1.308224e+01 9.334962e+00 9.505667e+00 2.612512e+00 5.981892e-01 6.090038e-01 7.995289e-01 8.998814e-01 1.198376e+00 1.404479e+00 1.833685e+00 1.691510e+00 2.053373e+00 1.364146e+00 1.142178e+00 1.064520e+00 2.470017e-01 1.515552e-01 1.575233e-01 1.922245e-01 1.852906e-01 2.290384e-01 2.784869e-01 3.068069e-01 2.055419e-01 3.207839e-01 2.128776e-01 2.386380e-01 1.643984e-01 9.599722e-02
<GCONST> 8.223581e+01
<STATE> 4
<MEAN> 39
 -2.027422e+01 1.448737e+00 -3.175624e+00 -1.402738e+00 -1.117968e-01 1.283965e+00 3.213130e+00 3.970049e+00 4.152647e+00 2.149096e+00 1.064979e+00 -2.291010e-01 5.920710e+01 -1.280400e-01 -1.513330e-01 -1.323994e-01 -1.753263e-01 -1.924420e-01 -1.028342e-01 -5.054692e-02 -2.064813e-02 -1.673896e-02 -6.511860e-02 -6.970921e-02 -8.683680e-02 -4.741396e-02 9.607486e-02 5.409354e-02 9.867070e-02 8.852651e-02 8.848942e-02 3.218285e-02 -1.236228e-02 -3.594028e-02 -8.025462e-02 -2.474887e-02 2.962550e-02 -1.068506e-02 7.118147e-02
<VARIANCE> 39
 4.835577e+00 7.496368e+00 7.647252e+00 6.679588e+00 6.587041e+00 6.437569e+00 8.572462e+00 1.129404e+01 1.034562e+01 8.107858e+00 7.811677e+00 7.116282e+00 2.040457e+00 2.353387e-01 3.003990e-01 4.941548e-01 7.188165e-01 8.558314e-01 8.356794e-01 9.641610e-01 1.080545e+00 1.054158e+00 8.767631e-01 7.154740e-01 7.184299e-01 1.221154e-01 6.265669e-02 8.010958e-02 1.194326e-01 1.589256e-01 1.773683e-01 1.675449e-01 2.043980e-01 2.188621e-01 2.601601e-01 2.123313e-01 1.509951e-01 1.546914e-01 4.196637e-02
<GCONST> 6.415039e+01
<TRANSP> 5
 0.000000e+00 1.000000e+00 0.000000e+00 0.000000e+00 0.000000e+00
 0.000000e+00 5.700949e-01 4.299050e-01 0.000000e+00 0.000000e+00
 0.000000e+00 0.000000e+00 5.682856e-01 4.317144e-01 0.000000e+00
 0.000000e+00 0.000000e+00 0.000000e+00 8.601788e-01 1.398212e-01
 0.000000e+00 0.000000e+00 0.000000e+00 0.000000e+00 0.000000e+00
<ENDHMM>
~h "j"
<BEGINHMM>
<NUMSTATES> 5
<STATE> 2
<MEAN> 39
 -1.277761e+00 -1.752037e+00 -4.563901e+00 2.275831e+00 1.971230e+00 -4.523066e+00 -2.473205e+00 -4.307859e+00 -1.505990e+01 1.103128e+00 1.330068e+01 1.579728e+00 7.469536e+01 -3.881816e-01 3.306946e-01 2.537427e-02 6.858276e-02 3.114251e-01 5.668345e-01 3.064774e-01 2.303117e-01 1.026541e+00 6.641892e-01 -1.352403e-01 -1.383620e-01 -4.125504e-01 -1.148128e-01 2.491294e-01 2.974085e-01 2.249616e-01 -3.028952e-03 5.194437e-02 -3.698160e-02 -6.316692e-02 5.183831e-03 -2.312978e-01 -2.253016e-01 -1.062215e-01 -1.506166e-01
<VARIANCE> 39
 2.652237e+00 1.509752e+01 8.631835e+00 1.097556e+01 2.583040e+01 1.712878e+01 2.301480e+01 1.681610e+01 1.596700e+01 1.457657e+01 1.166984e+01 3.123632e+00 4.045604e+00 3.406700e-02 2.016511e-01 2.741858e-01 4.498811e-01 4.509166e-01 4.750013e-01 7.094967e-01 7.666927e-01 1.499856e+00 6.133080e-01 5.957904e-01 4.204501e-01 3.913208e-02 9.970271e-03 3.870795e-02 5.341991e-02 7.329178e-02 6.354263e-02 1.230566e-01 7.240458e-02 2.009785e-01 1.505167e-01 1.195069e-01 1.199123e-01 7.251907e-02 1.004281e-02
<GCONST> 5.263304e+01
<STATE> 3
<MEAN> 39
 -2.933048e+00 5.447458e-01 -2.087953e+00 3.574929e+00 6.023465e-01 -2.610690e+00 -8.916630e-01 -5.356334e+00 -1.187375e+01 2.238122e+00 1.107438e+01 6.013443e-01 7.294295e+01 -8.504170e-01 1.917473e+00 1.500029e+00 1.237622e+00 7.273171e-01 3.285273e-01 -8.324565e-01 -1.573021e-01 1.704801e+00 -3.725389e-01 -1.876216e+00 -7.101771e-01 -1.360829e+00 -1.350518e-01 3.936345e-01 3.262095e-01 3.072841e-01 2.675387e-01 -2.976995e-01 -5.735171e-01 1.613198e-01 7.893277e-01 -1.126848e-02 -7.260022e-01 -2.233477e-01 -2.549759e-01
<VARIANCE> 39
 2.324852e+00 1.652063e+01 7.053416e+00 6.915545e+00 2.046458e+01 1.310965e+01 1.585211e+01 1.365256e+01 1.130720e+01 1.242270e+01 7.587422e+00 3.841663e+00 4.911598e+00 1.757513e-01 9.311241e-01 7.308775e-01 5.230531e-01 8.974212e-01 7.569628e-01 2.476671e+00 6.088966e-01 2.992619e+00 6.365838e-01 3.026030e+00 4.269215e-01 2.977481e-01 2.789675e-02 9.979135e-02 6.223135e-02 7.651502e-02 8.849557e-02 1.249529e-01 2.272017e-01 1.282050e-01 2.732435e-01 1.458866e-01 1.560707e-01 6.496041e-02 3.742912e-02
<GCONST> 6.666180e+01
<STATE> 4
<MEAN> 39
 -7.934669e+00 9.446134e+00 5.316551e+00 1.014392e+01 5.948373e+00 -3.729071e+00 -7.405841e+00 -2.927360e+00 1.953380e+00 3.024641e+00 -3.217685e-01 -3.178396e+00 6.602065e+01 -6.790667e-01 5.477543e-01 6.049199e-01 4.105729e-01 3.547474e-01 2.463477e-01 2.544447e-01 5.765157e-01 1.065036e+00 1.557716e-01 -5.268316e-01 -2.478138e-03 -6.477784e-01 -1.229760e-02 -2.360892e-01 -1.833865e-01 -2.059704e-01 -1.051674e-01 2.513529e-01 4.528737e-01 1.223506e-01 -2.721032e-01 7.940778e-03 3.956903e-01 1.928522e-01 8.449593e-02
<VARIANCE> 39
 3.514631e+00 3.325907e+00 2.928803e+00 6.342463e+00 1.529268e+01 5.492959e+00 1.340293e+01 6.398467e+00 1.194463e+01 8.080497e+00 6.928319e+00 3.998241e+00 1.936029e+00 1.463657e-01 6.517143e-01 5.387203e-01 8.081982e-01 6.958763e-01 1.147935e+00 2.697091e+00 4.856546e-01 2.813085e+00 4.326394e-01 2.209443e+00 7.987031e-01 1.983307e-01 3.456033e-02 1.022082e-01 9.517065e-02 7.650471e-02 9.900422e-02 1.315540e-01 2.111402e-01 9.024905e-02 4.110139e-01 8.597001e-02 2.312601e-01 8.073200e-02 5.033404e-02
<GCONST> 6.132011e+01
<TRANSP> 5
 0.000000e+00 1.000000e+00 0.000000e+00 0.000000e+00 0.000000e+00
 0.000000e+00 6.784669e-01 3.215331e-01 0.000000e+00 0.000000e+00
 0.000000e+00 0.000000e+00 7.136691e-01 2.863308e-01 0.000000e+00
 0.000000e+00 0.000000e+00 0.000000e+00 8.849344e-01 1.150656e-01
 0.000000e+00 0.000000e+00 0.000000e+00 0.000000e+00 0.000000e+00
<ENDHMM>
~h "k"
<BEGINHMM>
<NUMSTATES> 5
<STATE> 2
<MEAN> 39
 -1.313226e+01 1.094837e+00 -2.456086e+00 -3.372729e+00 -9.577104e-01 -1.478621e-01 1.713602e+00 1.742703e-01 -2.966578e+00 2.007867e+00 5.179041e+00 6.966144e-03 6.580328e+01 9.069983e-01 -3.538245e-02 -1.187894e-02 -1.689084e-01 -3.238233e-01 -3.420440e-01 -2.260149e-01 -2.917825e-01 -6.793981e-01 -1.327991e-01 3.450172e-01 -9.459063e-03 7.161712e-01 8.289143e-02 -4.110033e-03 -4.217845e-02 5.187804e-02 -3.229935e-02 -1.993132e-02 1.717595e-02 1.665824e-02 -1.022661e-02 3.501149e-02 3.263517e-02 -3.258953e-02 3.130565e-02
<VARIANCE> 39
 8.547477e+01 1.937059e+01 1.443188e+01 2.949660e+01 2.014337e+01 1.793944e+01 1.802564e+01 3.335338e+01 8.639380e+01 2.254064e+01 2.876320e+01 1.306452e+01 5.829299e+01 5.916297e+00 1.963811e+00 1.638413e+00 3.823410e+00 1.830068e+00 1.882677e+00 1.784762e+00 2.855516e+00 6.158520e+00 1.810587e+00 2.519219e+00 1.689571e+00 3.999153e+00 6.727753e-01 3.902457e-01 3.322046e-01 7.255830e-01 3.139770e-01 3.222603e-01 3.238837e-01 5.323289e-01 9.401610e-01 3.353067e-01 3.945574e-01 3.615223e-01 4.870625e-01
<GCONST> 1.167695e+02
<STATE> 3
<MEAN> 39
 -1.044526e+00 5.132426e-01 -4.429624e+00 -2.903012e+00 -5.358695e+00 -5.073415e+00 -9.156780e-01 -4.334791e+00 -1.007158e+01 2.061033e+00 9.759239e+00 3.139886e-02 7.451813e+01 4.119202e-02 4.270706e-03 -3.537776e-01 -5.879979e-02 -2.108901e-01 1.320982e-01 6.470513e-01 -2.104310e-01 2.465490e-01 5.077410e-01 -1.034291e-01 1.191236e-01 -8.720456e-02 -3.569990e-01 2.051722e-01 2.663678e-01 3.487094e-02 2.890858e-01 1.023445e-01 8.146572e-02 2.730976e-02 6.681822e-02 2.590650e-02 -1.104043e-01 -1.338598e-02 -2.516879e-01
<VARIANCE> 39
 2.444076e+01 1.891713e+01 1.369253e+01 1.947968e+01 1.809405e+01 2.122575e+01 2.372755e+01 2.649437e+01 4.192760e+01 2.089386e+01 1.603454e+01 1.092400e+01 1.964121e+01 1.897597e-01 6.446429e-01 6.064746e-01 8.170649e-01 8.802558e-01 1.205682e+00 8.032705e-01 1.277854e+00 1.238026e+00 9.459354e-01 7.718171e-01 8.385043e-01 1.802511e-01 1.784645e-01 1.402541e-01 1.248937e-01 2.443537e-01 1.460460e-01 2.098040e-01 2.121038e-01 3.253812e-01 3.084256e-01 1.382313e-01 1.617111e-01 1.515108e-01 8.144464e-02
<GCONST> 8.329674e+01
<STATE> 4
<MEAN> 39
 -2.282768e+00 1.985074e+00 -3.264283e+00 -1.365447e+00 -2.761475e+00 -2.867874e+00 1.853697e+00 -4.976730e+00 -1.068343e+01 4.191784e+00 1.063597e+01 -6.153119e-02 7.292154e+01 -6.665390e-01 8.090132e-01 6.094958e-01 5.894054e-01 8.316792e-01 3.938383e-01 -1.537846e-01 3.076708e-01 8.533205e-01 3.274525e-01 -4.431105e-01 -2.563601e-01 -7.790315e-01 -1.284822e-01 1.648887e-01 1.907098e-01 2.155824e-01 1.682174e-01 6.278848e-02 -2.697744e-01 9.230351e-02 3.632152e-01 -1.111435e-01 -2.299130e-01 -3.205274e-02 -1.575164e-01
<VARIANCE> 39
 1.585574e+01 1.736424e+01 1.082375e+01 1.745431e+01 2.104861e+01 2.512802e+01 1.958125e+01 2.195347e+01 3.154447e+01 1.564720e+01 1.510322e+01 5.607729e+00 1.430365e+01 2.313917e-01 8.395497e-01 7.652982e-01 1.219154e+00 1.085818e+00 1.175999e+00 1.945353e+00 1.242493e+00 1.743079e+00 8.009546e-01 1.241217e+00 7.773172e-01 3.204609e-01 2.384440e-02 1.203529e-01 1.052696e-01 1.541115e-01 1.308006e-01 1.869092e-01 2.421755e-01 1.858652e-01 2.359017e-01 1.297050e-01 2.211616e-01 8.817847e-02 2.957609e-02
<GCONST> 7.901936e+01
<TRANSP> 5
 0.000000e+00 1.000000e+00 0.000000e+00 0.000000e+00 0.000000e+00
 0.000000e+00 8.951367e-01 1.048633e-01 0.000000e+00 0.000000e+00
 0.000000e+00 0.000000e+00 6.017233e-01 3.982767e-01 0.000000e+00
 0.000000e+00 0.000000e+00 0.000000e+00 7.858437e-01 2.141563e-01
 0.000000e+00 0.000000e+00 0.000000e+00 0.000000e+00 0.000000e+00
<ENDHMM>
~h "l"
<BEGINHMM>
<NUMSTATES> 5
<STATE> 2
<MEAN> 39
 -4.771227e+00 2.978552e+00 5.008479e+00 1.055942e+01 4.112953e+00 -8.269938e+00 -6.051278e+00 -4.055734e+00 -1.145855e+01 5.986648e-01 6.169390e+00 -5.569304e+00 7.190819e+01 -1.340829e-01 8.656816e-01 4.281927e-01 2.014753e-02 1.987285e-01 2.804278e-01 -8.362904e-01 -2.099505e-01 8.819757e-01 -1.486216e-01 -7.868983e-01 -4.263646e-01 -4.834722e-01 -1.097994e-01 1.854045e-01 -6.411048e-02 -2.643259e-01 -8.690137e-02 2.989978e-01 1.991409e-01 -4.010232e-03 2.206734e-01 -8.477931e-02 -1.018194e-01 1.683530e-01 -1.738279e-01
<VARIANCE> 39
 1.294716e+01 2.130526e+01 2.667957e+01 7.765875e+01 4.831067e+01 2.827109e+01 5.666577e+01 2.685938e+01 6.522917e+01 3.299505e+01 3.196017e+01 2.747401e+01 1.363384e+01 4.968586e-01 1.647395e+00 1.503825e+00 2.777746e+00 1.078752e+00 2.184777e+00 1.713702e+00 1.072425e+00 2.806662e+00 1.458303e+00 1.685742e+00 1.139450e+00 7.439573e-01 8.818188e-02 2.550943e-01 1.474123e-01 2.433823e-01 2.499442e-01 3.254696e-01 3.825368e-01 2.283578e-01 4.621615e-01 3.345197e-01 2.522563e-01 1.850473e-01 1.131396e-01
<GCONST> 1.018273e+02
<STATE> 3
<MEAN> 39
 -5.696383e+00 8.372614e+00 4.501523e+00 5.374442e+00 2.220984e+00 -2.898260e+00 -4.398097e+00 -6.254614e+00 -8.038610e+00 -6.780165e-01 3.206670e+00 -3.291955e+00 6.878882e+01 -5.056988e-01 -2.698617e-01 -4.305418e-01 -5.746997e-01 7.951905e-02 5.960035e-01 4.403804e-01 1.637686e-01 -1.957577e-01 -1.871644e-01 5.160720e-01 8.136160e-01 -2.767041e-01 1.355275e-02 -3.927518e-01 -2.342379e-01 4.460064e-02 3.400119e-02 -1.453844e-01 4.570477e-02 -2.311202e-02 -2.187099e-01 1.218218e-01 3.800241e-01 1.900131e-01 1.394997e-01
<VARIANCE> 39
 1.904590e+01 2.150421e+01 1.590096e+01 1.697196e+01 2.335401e+01 2.118941e+01 3.974995e+01 3.080567e+01 6.314377e+01 2.137438e+01 2.118013e+01 1.956004e+01 1.622749e+01 2.050749e+00 2.197814e+00 1.736346e+00 1.380326e+00 1.708118e+00 1.398972e+00 1.829587e+00 1.753622e+00 4.575181e+00 1.948367e+00 2.658145e+00 1.764155e+00 1.788963e+00 1.685735e-01 2.350538e-01 2.297949e-01 3.581218e-01 1.803875e-01 3.072850e-01 4.045292e-01 2.661793e-01 5.672539e-01 3.384148e-01 3.196311e-01 3.234894e-01 1.556298e-01
<GCONST> 1.047301e+02
<STATE> 4
<MEAN> 39
 -3.750215e+00 6.460353e-01 -5.672763e-01 5.543626e+00 4.057281e+00 -4.550940e+00 -4.951316e+00 -7.916293e+00 -1.457697e+01 3.117528e+00 1.337789e+01 -9.438699e-02 7.268375e+01 -1.338082e-01 -2.759966e-01 -3.610968e-01 -6.768648e-02 -8.630520e-02 3.080609e-01 3.806153e-01 -1.846574e-02 2.378148e-01 3.944745e-01 3.850408e-01 5.924392e-02 -1.430173e-01 -8.580324e-02 2.227713e-01 1.280725e-01 1.294500e-03 -4.254170e-03 1.152703e-01 8.467087e-02 5.491571e-02 2.690389e-01 4.744134e-03 -3.295524e-01 -1.379231e-01 -1.396937e-01
<VARIANCE> 39
 1.857389e+01 1.819558e+01 6.390002e+00 2.557552e+01 2.060826e+01 1.727567e+01 3.788639e+01 3.155868e+01 5.378208e+01 3.565384e+01 2.966650e+01 1.730134e+01 1.650286e+01 3.920863e-01 1.256522e+00 8.536745e-01 1.885243e+00 9.541116e-01 1.467238e+00 1.614213e+00 9.652693e-01 1.200449e+00 1.178746e+00 1.694071e+00 1.013852e+00 4.115175e-01 1.000056e-01 1.224683e-01 1.937903e-01 3.738670e-01 1.891058e-01 1.936174e-01 3.469867e-01 2.263589e-01 4.418105e-01 2.216590e-01 2.291316e-01 2.421812e-01 7.483209e-02
<GCONST> 9.202287e+01
<TRANSP> 5
 0.000000e+00 1.000000e+00 0.000000e+00 0.000000e+00 0.000000e+00
 0.000000e+00 6.457011e-01 3.542989e-01 0.000000e+00 0.000000e+00
 0.000000e+00 0.000000e+00 7.093127e-01 2.906873e-01 0.000000e+00
 0.000000e+00 0.000000e+00 0.000000e+00 7.317234e-01 2.682767e-01
 0.000000e+00 0.000000e+00 0.000000e+00 0.000000e+00 0.000000e+00
<ENDHMM>
~h "m"
<BEGINHMM>
<NUMSTATES> 5
<STATE> 2
<MEAN> 39
 -2.061415e+01 1.546549e+00 -3.160038e+00 -1.181764e+00 -5.141956e-01 1.369837e+00 3.603477e+00 4.174794e+00 4.153584e+00 2.211778e+00 1.226247e+00 7.190265e-03 5.877579e+01 -3.933027e-02 -2.707935e-02 -3.079654e-02 -4.241532e-02 -3.972223e-02 -2.731923e-02 -3.025969e-03 -1.679780e-03 -1.644782e-02 -7.193485e-03 -8.218145e-03 -2.545294e-02 -1.934171e-02 2.304715e-02 2.818937e-02 4.139445e-02 3.947707e-02 4.895409e-02 4.731382e-02 1.602187e-02 2.405273e-03 3.332174e-03 1.816013e-02 1.954844e-02 2.175066e-02 1.301770e-02
<VARIANCE> 39
 1.332661e+00 1.413794e+00 2.869942e+00 4.682111e+00 4.560201e+00 5.800803e+00 8.174280e+00 1.068847e+01 1.014159e+01 7.138944e+00 6.406392e+00 6.597151e+00 1.447546e+00 1.058207e-01 1.557565e-01 2.715140e-01 4.787607e-01 4.727738e-01 5.714987e-01 7.578583e-01 9.210364e-01 9.231300e-01 8.274585e-01 6.639168e-01 6.649022e-01 3.084012e-02 2.141852e-02 3.644899e-02 6.421370e-02 1.060486e-01 1.017791e-01 1.186468e-01 1.600614e-01 1.899467e-01 1.957799e-01 1.784119e-01 1.389481e-01 1.382554e-01 5.955779e-03
<GCONST> 4.618566e+01
<STATE> 3
<MEAN> 39
 -2.057191e+01 1.811904e+00 -2.714426e+00 -6.845884e-01 1.264719e-01 1.865693e+00 3.758117e+00 3.800544e+00 4.195747e+00 2.706499e+00 1.489340e+00 1.503849e-02 5.884055e+01 6.035352e-01 5.579794e-01 1.285268e+00 8.229069e-01 5.030974e-01 7.627803e-02 -5.090876e-01 -4.871825e-01 -7.265931e-01 -2.002494e-01 1.888551e-01 -6.749993e-02 4.822716e-01 4.337792e-01 2.497752e-01 6.480417e-01 3.512006e-01 1.067005e-01 -1.556896e-01 -3.124641e-01 -3.803807e-01 -5.897288e-01 -2.960833e-01 2.171414e-02 -2.269672e-01 3.690614e-01
<VARIANCE> 39
 8.536448e-01 1.678152e+00 2.964529e+00 3.988538e+00 5.348939e+00 4.707692e+00 8.352692e+00 1.184164e+01 8.351935e+00 7.136628e+00 6.185707e+00 6.443431e+00 1.447546e+00 1.392446e+00 1.903123e+00 1.834111e+00 2.006737e+00 7.058479e-01 1.241350e+00 1.255116e+00 1.755362e+00 1.739136e+00 1.004102e+00 8.958997e-01 1.048435e+00 3.277915e-01 2.500770e-01 3.093729e-01 1.911793e-01 5.097996e-01 1.336876e-01 2.487871e-01 2.623696e-01 4.067812e-01 4.153348e-01 1.924717e-01 1.835318e-01 2.601484e-01 4.052341e-02
<GCONST> 7.348227e+01
<STATE> 4
<MEAN> 39
 -1.869743e+01 2.457441e+00 6.706136e+00 -3.657941e-01 1.694796e+00 3.308948e+00 4.087825e-01 -1.641011e-02 -7.023019e-01 1.682788e-01 3.076574e+00 -9.142097e-01 6.309066e+01 1.570405e+00 1.152754e+00 1.012927e+00 1.160932e+00 6.023706e-01 -4.270425e-01 -7.931435e-01 -1.305092e+00 -1.494027e+00 -5.639561e-01 1.994604e-01 -7.142957e-02 8.432681e-01 1.527344e-01 -1.097001e-01 -3.665737e-01 3.901792e-02 -3.131741e-02 -2.249406e-01 -6.405699e-02 -1.058735e-01 -1.161640e-01 4.375840e-02 1.292888e-01 4.510120e-03 5.151109e-02
<VARIANCE> 39
 4.999569e+01 8.105054e+01 3.783515e+01 6.404826e+01 1.546424e+01 1.389964e+01 1.878728e+01 2.614223e+01 2.466900e+01 1.103561e+01 1.928292e+01 1.026543e+01 8.185744e+00 4.489974e+00 6.874023e+00 6.519979e+00 6.279674e+00 1.081178e+00 1.830154e+00 2.416495e+00 2.784708e+00 3.571283e+00 1.588333e+00 2.048722e+00 1.534264e+00 1.329019e+00 5.054179e-01 1.093007e+00 9.747062e-01 9.471342e-01 2.331863e-01 2.503366e-01 4.570614e-01 3.903924e-01 4.149339e-01 3.320827e-01 3.532467e-01 2.200646e-01 1.644212e-01
<GCONST> 1.136578e+02
<TRANSP> 5
 0.000000e+00 1.000000e+00 0.000000e+00 0.000000e+00 0.000000e+00
 0.000000e+00 9.441476e-01 5.585238e-02 0.000000e+00 0.000000e+00
 0.000000e+00 0.000000e+00 5.889546e-01 4.110453e-01 0.000000e+00
 0.000000e+00 0.000000e+00 0.000000e+00 6.580397e-01 3.419603e-01
 0.000000e+00 0.000000e+00 0.000000e+00 0.000000e+00 0.000000e+00
<ENDHMM>
~h "n"
<BEGINHMM>
<NUMSTATES> 5
<STATE> 2
<MEAN> 39
 -9.158851e+00 4.008732e+00 5.193995e+00 7.171978e+00 5.915577e+00 -2.191120e+00 -4.541470e+00 -3.150995e+00 -7.638340e+00 -2.474690e+00 4.863157e+00 -1.913040e+00 6.846886e+01 7.414482e-01 -3.076612e-01 2.397263e-01 9.949308e-01 1.034491e+00 -5.436583e-01 -1.410092e+00 -4.721642e-01 -7.101018e-01 -4.324264e-01 6.191736e-01 5.036181e-03 7.220663e-01 -7.707997e-02 2.139601e-01 3.203567e-03 -1.034595e-01 -8.100875e-02 6.159516e-02 3.664868e-02 -1.253404e-03 1.255963e-01 7.993341e-02 -6.717917e-03 6.634094e-02 -1.706272e-01
<VARIANCE> 39
 5.091060e+01 5.168615e+01 3.379510e+01 5.828002e+01 6.668681e+01 2.588511e+01 6.568541e+01 3.003462e+01 5.483468e+01 4.251136e+01 2.022343e+01 2.034205e+01 2.300041e+01 2.408207e+00 6.102824e+00 2.942499e+00 2.840127e+00 3.482054e+00 2.645810e+00 3.755587e+00 3.110058e+00 6.030400e+00 2.814480e+00 2.191502e+00 2.152175e+00 1.569196e+00 3.626354e-01 9.746433e-01 4.842815e-01 7.017699e-01 8.304453e-01 5.814552e-01 9.746969e-01 5.487063e-01 9.222927e-01 5.175568e-01 4.163022e-01 3.522623e-01 2.781923e-01
<GCONST> 1.259987e+02
<STATE> 3
<MEAN> 39
 -5.361639e+00 8.876804e+00 5.795547e+00 5.648422e+00 5.514195e+00 -3.214168e+00 -9.654460e+00 -4.634739e+00 -7.291286e+00 -3.221536e+00 5.717358e+00 -2.184521e+00 6.925361e+01 5.488982e-02 3.806540e-02 -2.755098e-01 -5.954531e-01 -5.555196e-01 5.905389e-02 4.550410e-01 1.462024e-01 1.063906e-01 1.094996e-01 3.477282e-02 9.659594e-02 2.543700e-02 -1.395653e-02 -2.111794e-01 -1.180264e-01 4.862223e-02 3.338419e-02 -2.733177e-02 1.171360e-01 7.564759e-02 -1.134246e-01 -8.576332e-04 1.093884e-01 1.692165e-03 6.223598e-02
<VARIANCE> 39
 1.165956e+01 2.787313e+01 2.528543e+01 3.165173e+01 3.685632e+01 2.617937e+01 4.458958e+01 2.081899e+01 4.031608e+01 2.444994e+01 2.957820e+01 1.940331e+01 1.363980e+01 5.452533e-01 3.218986e+00 1.980815e+00 2.562276e+00 2.300018e+00 2.365052e+00 3.108418e+00 1.650150e+00 4.876704e+00 1.916914e+00 4.251236e+00 1.697488e+00 1.076912e+00 8.573803e-02 4.117602e-01 2.533062e-01 4.228698e-01 4.477420e-01 3.568369e-01 5.292699e-01 3.285789e-01 8.714271e-01 3.588340e-01 6.724649e-01 3.199612e-01 1.180607e-01
<GCONST> 1.095153e+02
<STATE> 4
<MEAN> 39
 -3.639803e+00 4.041032e+00 -7.063234e-01 2.278174e+00 1.307319e+00 -3.133244e+00 -2.821183e+00 -5.280404e+00 -9.632643e+00 5.819374e-01 8.503089e+00 7.176154e-01 7.169936e+01 -1.988186e-01 -6.696682e-02 -1.248745e-01 2.070776e-01 1.682453e-01 1.530024e-01 3.412006e-01 -1.661280e-01 1.638027e-01 3.783941e-01 3.695193e-02 1.405734e-01 -1.525374e-01 -1.046377e-01 8.108154e-02 1.349971e-01 1.560091e-02 5.882700e-02 4.505232e-02 1.468943e-02 1.487054e-02 1.072871e-01 3.075731e-02 -1.307847e-01 -6.648275e-02 -7.359014e-02
<VARIANCE> 39
 1.813675e+01 2.309028e+01 2.420250e+01 2.166247e+01 2.518959e+01 1.501230e+01 2.090164e+01 2.855138e+01 4.897642e+01 2.481661e+01 4.178744e+01 2.075497e+01 1.845436e+01 4.355423e-01 1.230487e+00 1.307426e+00 6.912577e-01 5.966635e-01 8.921075e-01 1.666883e+00 1.496292e+00 2.169285e+00 9.834353e-01 1.747691e+00 1.004784e+00 5.576459e-01 3.437188e-02 2.503814e-01 1.923635e-01 1.522256e-01 1.072268e-01 1.621389e-01 2.247612e-01 2.281022e-01 4.302878e-01 2.059687e-01 3.373182e-01 1.752093e-01 6.219700e-02
<GCONST> 9.004403e+01
<TRANSP> 5
 0.000000e+00 1.000000e+00 0.000000e+00 0.000000e+00 0.000000e+00
 0.000000e+00 6.876333e-01 3.123666e-01 0.000000e+00 0.000000e+00
 0.000000e+00 0.000000e+00 7.938132e-01 2.061868e-01 0.000000e+00
 0.000000e+00 0.000000e+00 0.000000e+00 7.059908e-01 2.940093e-01
 0.000000e+00 0.000000e+00 0.000000e+00 0.000000e+00 0.000000e+00
<ENDHMM>
~h "o"
<BEGINHMM>
<NUMSTATES> 5
<STATE> 2
<MEAN> 39
 -3.893646e+00 8.614768e+00 1.631398e+00 1.444122e+00 -1.355584e+00 -5.332310e+00 -2.914392e+00 -3.263211e+00 -9.010667e+00 -1.421146e+00 5.125152e+00 -2.702161e+00 6.958110e+01 -1.280982e+00 3.298214e-01 6.919801e-01 7.076728e-01 5.901659e-01 7.613789e-01 3.714676e-01 5.919889e-01 1.477055e+00 7.775780e-01 -5.346464e-01 -1.495380e-01 -1.073605e+00 -1.832878e-01 -3.877170e-01 -2.081200e-01 1.018709e-01 2.086573e-01 2.571123e-01 2.339578e-01 5.339281e-02 1.394006e-01 1.121651e-01 -7.730138e-03 5.956823e-02 -2.376094e-02
<VARIANCE> 39
 1.142950e+01 9.885570e+00 1.824820e+01 1.183757e+01 2.192621e+01 1.886409e+01 1.882917e+01 1.928598e+01 4.449388e+01 3.327739e+01 1.605661e+01 9.194556e+00 1.042980e+01 2.472919e+00 7.982432e-01 1.329236e+00 1.555801e+00 3.324540e+00 2.520638e+00 1.051140e+00 1.956676e+00 3.726511e+00 7.887200e-01 1.280796e+00 1.417497e+00 1.209175e+00 7.892656e-02 2.991273e-01 3.270916e-01 2.211454e-01 3.221398e-01 3.189420e-01 2.553547e-01 2.858331e-01 3.613907e-01 2.230713e-01 2.468874e-01 2.131322e-01 7.366382e-02
<GCONST> 9.512074e+01
<STATE> 3
<MEAN> 39
 -1.046881e+01 7.628432e+00 4.300505e+00 7.858696e+00 5.319414e+00 1.355559e+00 -1.811068e-01 -1.311422e+00 -3.792041e-01 2.975659e+00 1.455914e+00 -4.407633e+00 6.485039e+01 -1.613817e+00 -6.093109e-01 -3.419550e-01 -1.212602e-01 5.706245e-01 1.289163e+00 1.297597e+00 1.189588e+00 1.443526e+00 3.267444e-01 -3.094333e-01 7.293828e-01 -1.028928e+00 5.744108e-02 -2.782608e-01 -3.286596e-01 -3.510530e-01 -3.831960e-01 -3.198510e-01 2.782688e-03 1.603633e-02 -3.038185e-01 3.617021e-03 3.230508e-01 1.255684e-01 1.216378e-01
<VARIANCE> 39
 1.519646e+01 6.920024e+00 7.668065e+00 1.670339e+01 1.659353e+01 1.523558e+01 2.266815e+01 2.209317e+01 4.260356e+01 2.477740e+01 9.088021e+00 2.250414e+01 1.093609e+01 1.695768e+00 1.098363e+00 8.861282e-01 1.081096e+00 1.384975e+00 1.151752e+00 1.162700e+00 1.562716e+00 2.409665e+00 1.012659e+00 1.085124e+00 1.690906e+00 7.281621e-01 1.344360e-01 2.613000e-01 1.962074e-01 1.431773e-01 3.471619e-01 3.397272e-01 3.523035e-01 2.475020e-01 3.918667e-01 2.016680e-01 1.678185e-01 2.362293e-01 1.120643e-01
<GCONST> 9.098112e+01
<STATE> 4
<MEAN> 39
 -1.824692e+01 3.465830e+00 -1.151528e+00 9.071026e-01 1.324074e+00 2.541947e+00 4.434227e+00 5.102994e+00 4.761212e+00 3.680076e+00 3.111002e+00 1.013139e+00 6.006635e+01 -8.744587e-01 -1.078829e+00 -6.611396e-01 -7.522084e-01 -2.698357e-01 -3.184119e-01 -1.728982e-01 9.915665e-02 -4.046953e-02 -1.129201e-01 -7.883730e-03 6.905218e-03 -1.750183e-01 6.057888e-01 2.085360e-01 1.995968e-01 2.376374e-02 -1.307914e-02 -3.418449e-01 -4.025145e-01 -4.958085e-01 -5.932350e-01 -3.200710e-01 -3.171601e-02 -1.928932e-01 4.744036e-01
<VARIANCE> 39
 1.533433e+01 4.123936e+00 6.528121e+00 1.036625e+01 1.118544e+01 9.984853e+00 7.851665e+00 1.336484e+01 3.920312e+01 1.622019e+01 8.140047e+00 7.839538e+00 8.584008e+00 1.075854e+00 7.252368e-01 1.049183e+00 1.307715e+00 1.475777e+00 1.311092e+00 1.351926e+00 1.635814e+00 1.797457e+00 1.382716e+00 9.017747e-01 8.672969e-01 1.132534e+00 3.023136e-01 1.504305e-01 1.546028e-01 1.786297e-01 2.299200e-01 2.652517e-01 1.875961e-01 1.825639e-01 4.105096e-01 2.509222e-01 1.623282e-01 2.174012e-01 1.742443e-01
<GCONST> 8.426416e+01
<TRANSP> 5
 0.000000e+00 1.000000e+00 0.000000e+00 0.000000e+00 0.000000e+00
 0.000000e+00 6.818004e-01 3.181996e-01 0.000000e+00 0.000000e+00
 0.000000e+00 0.000000e+00 6.689956e-01 3.310044e-01 0.000000e+00
 0.000000e+00 0.000000e+00 0.000000e+00 7.501485e-01 2.498516e-01
 0.000000e+00 0.000000e+00 0.000000e+00 0.000000e+00 0.000000e+00
<ENDHMM>
~h "p"
<BEGINHMM>
<NUMSTATES> 5
<STATE> 2
<MEAN> 39
 -2.064006e+01 1.461918e+00 -3.141943e+00 -1.075276e+00 -1.606071e-01 1.726252e+00 3.953392e+00 4.784674e+00 4.961299e+00 2.654948e+00 1.304856e+00 -2.310186e-01 5.877521e+01 -1.138619e-01 -9.359047e-02 -4.050650e-02 -7.496746e-02 -1.254412e-01 -1.367320e-01 -1.056384e-01 -9.253331e-02 -1.081930e-01 -1.246135e-01 -1.265337e-01 -1.152113e-01 -5.266041e-02 5.885838e-02 6.027604e-02 6.100022e-02 5.549052e-02 6.537469e-02 5.394502e-02 2.745170e-02 9.318697e-03 -5.731489e-03 1.285879e-02 4.616601e-02 3.561228e-02 3.255191e-02
<VARIANCE> 39
 1.122446e+00 1.574533e+00 3.244134e+00 4.883058e+00 5.476722e+00 6.648792e+00 7.224466e+00 8.364779e+00 8.911423e+00 7.774743e+00 7.467967e+00 6.944716e+00 1.447546e+00 1.144964e-01 1.686978e-01 3.125584e-01 4.902228e-01 6.636416e-01 8.362432e-01 7.853763e-01 8.867118e-01 9.087645e-01 8.212281e-01 8.506394e-01 7.402069e-01 3.348866e-02 2.621054e-02 4.104587e-02 6.629269e-02 1.050499e-01 1.383896e-01 1.643711e-01 1.711386e-01 1.911482e-01 1.943888e-01 1.748576e-01 1.673421e-01 1.478096e-01 9.349667e-03
<GCONST> 4.957868e+01
<STATE> 3
<MEAN> 39
 -2.110996e+01 1.252897e+00 -2.833182e+00 -1.166429e+00 -2.137418e-01 1.587545e+00 3.913196e+00 4.694426e+00 4.106515e+00 2.012197e+00 1.513408e+00 6.186216e-02 5.865802e+01 6.065361e-02 7.248215e-02 1.209963e-01 1.217307e-01 2.056474e-01 1.551049e-01 2.686246e-02 6.722163e-02 -2.213097e-01 -2.027865e-01 -4.788725e-02 -1.341821e-01 4.186491e-02 5.034277e-01 1.779479e-01 2.340543e-01 -4.444223e-02 1.077158e-01 -2.632260e-01 -2.700349e-01 -4.061050e-01 -5.483236e-01 -1.672653e-01 8.163244e-02 2.538377e-02 4.607207e-01
<VARIANCE> 39
 1.697455e+00 2.023144e+00 4.495779e+00 8.447618e+00 7.385239e+00 4.774928e+00 6.779719e+00 9.491366e+00 9.433265e+00 7.477131e+00 6.310769e+00 6.247920e+00 1.447546e+00 2.073214e-01 2.601277e-01 5.251978e-01 9.208442e-01 1.029811e+00 6.811460e-01 1.005252e+00 1.148293e+00 1.131327e+00 6.415281e-01 6.143038e-01 6.618485e-01 8.898197e-02 1.262269e-01 2.016189e-01 2.445075e-01 4.063388e-01 2.566897e-01 2.441417e-01 3.002252e-01 3.184882e-01 3.747627e-01 1.556551e-01 1.945428e-01 1.178160e-01 1.204741e-01
<GCONST> 6.524718e+01
<STATE> 4
<MEAN> 39
 -2.055845e+01 1.755867e+00 -2.406143e+00 -7.250561e-01 1.021680e-01 1.504918e+00 3.524733e+00 4.284622e+00 3.972245e+00 2.302577e+00 1.351177e+00 -6.777607e-01 5.886238e+01 1.907802e+00 5.171356e-01 9.331376e-01 -3.267094e-01 5.380464e-01 -1.089086e+00 -1.211807e+00 -1.907879e+00 -2.755854e+00 -9.827437e-01 5.237058e-01 1.667254e-01 1.924601e+00 1.009313e+00 1.555830e-01 2.052286e-01 5.922171e-02 -6.269795e-02 -4.651458e-01 -2.357143e-01 -4.309653e-01 -9.182079e-01 -1.764923e-01 3.360164e-01 7.331393e-02 8.076935e-01
<VARIANCE> 39
 1.994772e+00 2.653253e+00 4.562554e+00 6.874268e+00 5.790183e+00 5.465172e+00 8.236430e+00 9.415381e+00 1.057515e+01 8.784388e+00 8.113893e+00 9.059456e+00 1.447546e+00 1.299355e+00 2.411948e+00 1.925057e+00 4.121043e+00 1.177510e+00 1.861082e+00 2.542464e+00 1.970104e+00 3.019054e+00 9.460661e-01 1.633034e+00 1.228768e+00 1.583490e+00 2.345658e-01 1.597480e-01 1.978231e-01 5.132425e-01 2.379598e-01 3.350095e-01 2.895105e-01 4.116153e-01 3.516039e-01 2.714528e-01 1.779052e-01 2.100164e-01 1.444955e-01
<GCONST> 8.380927e+01
<TRANSP> 5
 0.000000e+00 1.000000e+00 0.000000e+00 0.000000e+00 0.000000e+00
 0.000000e+00 9.225530e-01 7.744696e-02 0.000000e+00 0.000000e+00
 0.000000e+00 0.000000e+00 4.237750e-01 5.762251e-01 0.000000e+00
 0.000000e+00 0.000000e+00 0.000000e+00 5.077644e-01 4.922356e-01
 0.000000e+00 0.000000e+00 0.000000e+00 0.000000e+00 0.000000e+00
<ENDHMM>
~h "r"
<BEGINHMM>
<NUMSTATES> 5
<STATE> 2
<MEAN> 39
 -5.982601e+00 1.131605e+00 -4.281940e+00 -1.683043e+00 -7.497138e-01 -2.121047e+00 3.203711e+00 -5.249290e+00 -1.185826e+01 7.516718e-01 6.986507e+00 1.867580e+00 7.075043e+01 1.687302e+00 1.493938e-01 -1.339716e-01 3.772669e-01 -2.574142e-01 -6.022359e-01 -2.842501e-01 -6.363581e-01 -1.028049e+00 -7.042767e-02 2.957985e-01 -1.477238e-01 1.115920e+00 -4.000166e-01 1.436993e-01 1.798022e-01 1.330342e-01 5.472421e-02 1.045241e-01 -1.150519e-01 2.936464e-01 5.885740e-01 -2.788786e-02 -2.458451e-01 -1.810751e-01 -3.730869e-01
<VARIANCE> 39
 4.555524e+01 1.399193e+01 1.162996e+01 2.344094e+01 2.249209e+01 2.380363e+01 1.976844e+01 2.630467e+01 3.815754e+01 3.293299e+01 2.388845e+01 1.813041e+01 2.586727e+01 3.408178e+00 1.394278e+00 1.249864e+00 1.995371e+00 1.589690e+00 1.943591e+00 1.412878e+00 2.592228e+00 4.570616e+00 2.655032e+00 2.060687e+00 1.517371e+00 2.027720e+00 5.666791e-01 3.206917e-01 3.034265e-01 5.157170e-01 3.244751e-01 4.619756e-01 2.116576e-01 4.091760e-01 5.325384e-01 4.187236e-01 3.249191e-01 2.592195e-01 2.894617e-01
<GCONST> 1.088625e+02
<STATE> 3
<MEAN> 39
 -6.027987e+00 4.265251e+00 -1.736625e+00 6.325726e-01 1.415043e+00 -1.661256e+00 4.265125e-01 -5.417825e+00 -8.807685e+00 -4.066718e-02 4.559875e+00 -1.675740e-03 6.957094e+01 -1.643164e+00 7.493711e-01 1.241900e+00 4.494600e-01 7.303709e-01 9.953120e-01 -6.698804e-01 5.390836e-01 1.910476e+00 -3.685802e-02 -6.092118e-01 -2.455230e-01 -1.401639e+00 -4.059892e-01 -2.138650e-01 1.852376e-02 -6.371905e-02 -4.444987e-03 1.975455e-01 2.099324e-01 3.272995e-01 3.607246e-01 1.820067e-01 2.161537e-01 1.688261e-01 -1.986742e-01
<VARIANCE> 39
 3.600414e+01 1.653030e+01 1.692378e+01 1.458206e+01 3.211703e+01 3.078757e+01 1.813257e+01 2.223875e+01 4.002768e+01 3.572129e+01 1.626837e+01 2.123790e+01 1.818552e+01 2.293521e+00 3.164334e+00 1.487285e+00 1.300668e+00 1.401803e+00 2.091544e+00 1.812582e+00 3.041136e+00 2.685465e+00 2.017151e+00 2.304009e+00 1.736134e+00 1.463038e+00 7.037119e-01 3.706505e-01 3.721844e-01 2.861419e-01 2.737900e-01 4.525948e-01 3.679256e-01 5.402203e-01 5.241560e-01 4.076800e-01 3.728820e-01 3.151033e-01 2.633440e-01
<GCONST> 1.090562e+02
<STATE> 4
<MEAN> 39
 -1.400081e+01 3.650272e+00 -9.121900e-01 6.297299e-01 1.645108e+00 7.672213e-01 1.254884e+00 1.901530e-01 -2.313733e-01 1.669345e+00 3.519537e+00 4.706327e-01 6.363363e+01 -7.399849e-01 -2.202955e-01 1.802949e-01 -1.227790e-01 -9.847192e-02 -1.456712e-01 -1.396915e-01 5.206211e-01 4.364675e-01 -3.254922e-01 -3.037282e-01 -3.445177e-02 -3.999336e-01 1.406428e-01 -8.813354e-02 -3.890889e-02 -4.257540e-02 -2.108468e-03 -4.059844e-02 -2.082849e-02 -1.508344e-01 -2.439006e-01 -2.688821e-03 1.950864e-02 1.008143e-02 1.620656e-01
<VARIANCE> 39
 5.162408e+01 1.321275e+01 9.995692e+00 8.391358e+00 1.509664e+01 1.973811e+01 1.803701e+01 2.795853e+01 5.578341e+01 2.550866e+01 1.400119e+01 9.732210e+00 2.804057e+01 4.377493e+00 1.885956e+00 2.117913e+00 9.334702e-01 1.341048e+00 1.986770e+00 1.697776e+00 3.334206e+00 5.081773e+00 1.916392e+00 1.936091e+00 1.093209e+00 2.709409e+00 6.556679e-01 3.108220e-01 2.080147e-01 2.145379e-01 2.015093e-01 4.206693e-01 3.220581e-01 4.333029e-01 4.777982e-01 3.351356e-01 2.587141e-01 2.599007e-01 2.702658e-01
<GCONST> 1.046124e+02
<TRANSP> 5
 0.000000e+00 1.000000e+00 0.000000e+00 0.000000e+00 0.000000e+00
 0.000000e+00 7.770431e-01 2.229569e-01 0.000000e+00 0.000000e+00
 0.000000e+00 0.000000e+00 5.284975e-01 4.715025e-01 0.000000e+00
 0.000000e+00 0.000000e+00 0.000000e+00 6.639073e-01 3.360927e-01
 0.000000e+00 0.000000e+00 0.000000e+00 0.000000e+00 0.000000e+00
<ENDHMM>
~h "s"
<BEGINHMM>
<NUMSTATES> 5
<STATE> 2
<MEAN> 39
 -1.652394e+01 2.187025e+00 -3.850598e-01 6.370506e-01 6.779652e-01 5.577264e-01 6.835070e-01 5.884979e-01 -9.358275e-01 -4.033378e-02 3.310072e+00 3.330224e-01 6.227429e+01 4.896684e-01 -4.586337e-01 2.022282e+00 2.650351e-01 1.798835e-01 1.880531e-01 -9.893919e-01 -7.574461e-01 -1.427095e+00 -3.314131e-01 9.238015e-01 -3.852312e-01 1.124607e+00 -1.968131e-01 -4.682721e-01 6.643390e-01 -3.045973e-01 -6.870967e-03 6.859036e-02 -2.366933e-01 -1.386551e-01 -2.614610e-01 -1.725810e-02 1.159493e-01 -2.265773e-01 3.614846e-01
<VARIANCE> 39
 4.327254e+01 2.156733e+01 2.022321e+01 1.817316e+01 1.548127e+01 1.231002e+01 1.963185e+01 3.159389e+01 7.186848e+01 1.969169e+01 1.474611e+01 8.770370e+00 2.282778e+01 5.186437e+00 4.435712e+00 3.687065e+00 3.708783e+00 2.574220e+00 1.414671e+00 2.861135e+00 4.397123e+00 6.236228e+00 3.549638e+00 1.327328e+00 1.267790e+00 1.354635e+00 4.821829e-01 3.683046e-01 6.872541e-01 4.622581e-01 3.291372e-01 2.890204e-01 4.303268e-01 4.796921e-01 7.423415e-01 4.587858e-01 2.771518e-01 1.900613e-01 1.367746e-01
<GCONST> 1.120298e+02
<STATE> 3
<MEAN> 39
 -1.019697e+01 -7.616348e-01 6.572032e+00 3.244663e+00 4.002010e+00 4.349515e-02 -3.991389e+00 -4.546099e+00 -1.194748e+01 -3.122310e+00 7.999051e+00 -1.092317e+00 7.056819e+01 -1.798043e+00 -2.159276e+00 2.420912e+00 -1.218818e+00 5.034298e-01 6.438360e-01 -3.963401e-01 1.835980e-01 7.133037e-01 6.921145e-01 2.843041e-01 -4.040893e-01 8.972075e-01 -6.564049e-01 -1.911012e-01 -1.017222e-02 -5.402544e-01 -5.903920e-02 -1.579892e-02 3.086500e-01 2.313590e-01 6.413970e-01 2.209448e-01 -2.805535e-01 3.781639e-03 -1.598502e-01
<VARIANCE> 39
 9.086282e+01 4.028617e+01 5.808232e+01 7.558150e+01 4.931511e+01 2.428811e+01 2.665528e+01 4.381176e+01 7.049899e+01 3.335664e+01 1.843523e+01 1.808024e+01 1.587230e+01 7.166526e+00 2.581586e+00 6.769492e+00 5.118279e+00 1.405553e+00 2.168653e+00 2.803595e+00 2.721894e+00 7.616401e+00 2.850104e+00 1.880401e+00 1.623977e+00 1.108354e+00 5.917228e-01 4.589577e-01 8.487523e-01 9.165716e-01 5.039042e-01 4.680716e-01 5.742821e-01 5.078233e-01 8.026438e-01 4.693238e-01 3.974486e-01 3.298680e-01 8.359627e-02
<GCONST> 1.229428e+02
<STATE> 4
<MEAN> 39
 -1.452747e+01 -6.273472e+00 8.851624e+00 4.221866e-01 4.569890e+00 -1.896264e+00 -6.270368e+00 -6.377474e+00 -9.672324e+00 1.044810e+00 9.727997e+00 -2.001557e+00 7.269774e+01 5.105036e-01 5.608807e-01 -5.804601e-01 2.648343e-01 5.239563e-02 -1.812645e-01 -4.111103e-02 -1.384437e-01 -1.566567e-01 -1.353315e-01 -5.777708e-02 6.024843e-02 -1.212574e-01 1.946485e-01 2.919170e-01 -2.166332e-01 2.601503e-01 1.189721e-02 4.984536e-02 3.848571e-02 2.231820e-02 -4.153620e-03 -8.528208e-02 -8.542030e-02 5.129242e-02 -1.729987e-01
<VARIANCE> 39
 1.639137e+02 5.502315e+01 9.059192e+01 1.131089e+02 2.791904e+01 4.255012e+01 3.797932e+01 5.258102e+01 9.365895e+01 2.294941e+01 2.759509e+01 2.525981e+01 1.051566e+01 7.353292e+00 4.467206e+00 2.871197e+00 8.697739e+00 2.350736e+00 2.386479e+00 2.899933e+00 2.946923e+00 5.904819e+00 1.732515e+00 2.180704e+00 1.495461e+00 1.248339e+00 1.097851e+00 7.074239e-01 5.584614e-01 1.125048e+00 3.337643e-01 5.125646e-01 4.403875e-01 4.696148e-01 1.001306e+00 3.293439e-01 3.137777e-01 2.404810e-01 1.453569e-01
<GCONST> 1.258988e+02
<TRANSP> 5
 0.000000e+00 1.000000e+00 0.000000e+00 0.000000e+00 0.000000e+00
 0.000000e+00 6.051060e-01 3.948940e-01 0.000000e+00 0.000000e+00
 0.000000e+00 0.000000e+00 6.997850e-01 3.002149e-01 0.000000e+00
 0.000000e+00 0.000000e+00 0.000000e+00 9.289405e-01 7.105948e-02
 0.000000e+00 0.000000e+00 0.000000e+00 0.000000e+00 0.000000e+00
<ENDHMM>
~h "t"
<BEGINHMM>
<NUMSTATES> 5
<STATE> 2
<MEAN> 39
 -1.248378e+01 7.281779e-02 1.296291e+00 8.843377e-01 3.193555e+00 -7.072928e-01 -2.679135e+00 -4.700462e+00 -4.776668e+00 -7.300800e-01 3.865157e+00 -4.252153e-01 6.831884e+01 7.529759e-01 2.061881e-02 -2.713149e-01 3.376109e-01 7.632364e-02 -1.284063e-01 3.515776e-03 -4.821986e-01 -8.066269e-01 -1.695806e-01 2.640624e-01 1.562706e-01 4.230842e-01 1.097789e-01 -3.722240e-02 -4.780034e-02 1.121846e-02 -2.177107e-02 -5.670917e-02 1.808869e-02 -7.962574e-02 -1.581185e-01 9.843460e-03 1.288432e-01 3.921883e-02 9.609410e-02
<VARIANCE> 39
 7.966985e+01 3.677835e+01 2.846669e+01 5.814590e+01 2.102954e+01 1.859761e+01 2.790045e+01 4.884087e+01 5.548191e+01 2.603852e+01 1.785469e+01 1.322837e+01 3.072097e+01 8.110515e+00 3.217062e+00 4.132794e+00 6.992254e+00 2.359212e+00 2.211728e+00 3.501329e+00 5.365995e+00 5.920041e+00 2.306867e+00 2.101006e+00 1.295402e+00 3.482016e+00 1.118830e+00 5.532596e-01 7.555637e-01 1.279526e+00 5.059407e-01 4.131699e-01 6.999502e-01 9.929404e-01 9.113964e-01 4.410217e-01 4.054596e-01 2.271865e-01 5.535982e-01
<GCONST> 1.261669e+02
<STATE> 3
<MEAN> 39
 -1.196455e+00 -1.418295e+00 -4.849211e+00 3.474435e+00 -4.035516e-01 -6.150176e+00 4.643134e-01 -9.258335e+00 -1.592065e+01 -2.280245e+00 1.030472e+01 5.120051e+00 7.490583e+01 2.690218e-01 5.684053e-02 -2.906397e-01 -3.590258e-01 -3.726449e-01 -3.571866e-01 1.734783e-01 2.796892e-01 7.978764e-02 -3.069155e-02 -1.709497e-01 1.834154e-01 1.662648e-01 -3.474664e-01 8.699831e-02 2.323099e-01 -1.619552e-01 5.616172e-02 1.628305e-01 -1.284307e-01 1.825481e-01 3.618174e-01 2.656838e-02 -2.198992e-01 -1.551419e-01 -2.054647e-01
<VARIANCE> 39
 8.195741e+00 1.461172e+01 9.629078e+00 1.214049e+01 1.521074e+01 2.118499e+01 1.306404e+01 4.024570e+01 1.402280e+01 2.366334e+01 1.848582e+01 9.447050e+00 6.015816e+00 1.977938e+00 1.184711e+00 1.811063e+00 1.577437e+00 1.866412e+00 2.325785e+00 1.284462e+00 1.302686e+00 1.812809e+00 1.961358e+00 1.958903e+00 1.072263e+00 8.123773e-01 5.064766e-01 2.432525e-01 2.969504e-01 4.333363e-01 3.649304e-01 5.226939e-01 1.890777e-01 2.917915e-01 4.461949e-01 3.759253e-01 4.132102e-01 1.758160e-01 1.483788e-01
<GCONST> 9.669889e+01
<STATE> 4
<MEAN> 39
 -1.175074e+00 1.774831e+00 -3.786894e+00 1.406220e+00 -7.802534e-02 -6.048872e+00 -1.181518e+00 -6.204001e+00 -1.512813e+01 -1.541736e+00 9.331889e+00 2.790414e+00 7.386369e+01 -4.645139e-01 8.104718e-01 6.094977e-01 -1.082987e-01 -6.803609e-02 2.793777e-01 3.964313e-02 5.292593e-01 6.673485e-01 1.565941e-01 -1.041493e-02 -2.932744e-01 -5.783324e-01 -2.026120e-01 1.087576e-01 1.514797e-01 1.135631e-01 1.492960e-01 2.560489e-01 1.464508e-01 -1.026816e-04 6.410964e-02 -2.563549e-03 -1.795228e-02 1.661386e-04 -1.939869e-01
<VARIANCE> 39
 4.907194e+00 1.196029e+01 1.197130e+01 6.840597e+00 9.143744e+00 2.034733e+01 1.745057e+01 2.932212e+01 1.201441e+01 3.740740e+01 1.555614e+01 2.662576e+01 3.847517e+00 5.056241e-01 7.387981e-01 7.896051e-01 7.069350e-01 1.547070e+00 1.750981e+00 9.162517e-01 1.020971e+00 1.393743e+00 8.038317e-01 1.237964e+00 8.483148e-01 4.509042e-01 4.029038e-02 1.109117e-01 1.352689e-01 1.232462e-01 1.564901e-01 3.472492e-01 2.402884e-01 1.389108e-01 2.382588e-01 1.888042e-01 2.192019e-01 1.721501e-01 3.160968e-02
<GCONST> 7.817863e+01
<TRANSP> 5
 0.000000e+00 1.000000e+00 0.000000e+00 0.000000e+00 0.000000e+00
 0.000000e+00 9.462602e-01 5.373977e-02 0.000000e+00 0.000000e+00
 0.000000e+00 0.000000e+00 8.585316e-01 1.414683e-01 0.000000e+00
 0.000000e+00 0.000000e+00 0.000000e+00 7.456866e-01 2.543134e-01
 0.000000e+00 0.000000e+00 0.000000e+00 0.000000e+00 0.000000e+00
<ENDHMM>
~h "u"
<BEGINHMM>
<NUMSTATES> 5
<STATE> 2
<MEAN> 39
 -1.096510e+01 3.874203e+00 9.860943e+00 8.183764e+00 6.202967e+00 3.686521e-01 -3.692603e+00 -2.632010e+00 -6.297551e+00 -5.446031e+00 3.932661e+00 5.630451e-01 6.830588e+01 8.154911e-01 -4.116066e-01 3.407831e-01 6.499295e-01 3.831302e-01 -5.572407e-01 -9.457530e-01 -4.198862e-01 -8.236005e-01 -7.529172e-01 2.171974e-01 4.782873e-02 8.579150e-01 7.797892e-02 -9.978183e-02 -2.158217e-01 -8.232109e-02 3.903511e-02 -1.174942e-01 -1.508115e-01 -3.014857e-02 -1.512551e-01 -3.196343e-02 2.102894e-01 4.035913e-02 6.363621e-02
<VARIANCE> 39
 3.998969e+01 8.908704e+01 5.455555e+01 2.933515e+01 2.713324e+01 2.027873e+01 3.177042e+01 3.001747e+01 6.596185e+01 3.077597e+01 2.058244e+01 1.285197e+01 2.009506e+01 5.092036e+00 1.050867e+01 5.393167e+00 4.629572e+00 3.981035e+00 1.847899e+00 3.892925e+00 2.868924e+00 7.574452e+00 3.595237e+00 2.805741e+00 1.124171e+00 2.499075e+00 6.526879e-01 1.463503e+00 1.038368e+00 8.399082e-01 7.994065e-01 4.547436e-01 5.583762e-01 4.698551e-01 1.003671e+00 5.030954e-01 4.026122e-01 2.162254e-01 3.760924e-01
<GCONST> 1.269385e+02
<STATE> 3
<MEAN> 39
 -3.185776e+00 -1.291848e+00 3.851848e+00 1.247149e+01 1.141663e+01 -5.318522e+00 -1.319183e+01 -5.816216e+00 -1.654716e+01 -1.119650e+01 1.032978e+01 5.359913e-01 7.440813e+01 7.082230e-01 1.549222e-01 -1.222513e+00 -5.768217e-01 -3.350430e-01 -3.189019e-01 -1.080792e-01 -5.229548e-01 -9.774851e-01 6.514204e-02 5.744628e-01 1.793174e-01 1.716263e-01 -3.432763e-01 1.529817e-01 3.568612e-01 -1.867809e-01 -2.928965e-01 1.495983e-01 3.900542e-01 1.267285e-01 3.881329e-01 3.079340e-01 -2.093746e-01 -4.481008e-02 -1.997988e-01
<VARIANCE> 39
 8.707196e+00 1.195162e+01 3.219744e+01 3.500816e+01 1.914686e+01 1.668137e+01 1.434916e+01 4.302133e+01 1.736237e+01 1.984414e+01 1.128741e+01 2.407685e+01 3.998358e+00 7.616495e-01 5.818471e-01 1.772194e+00 1.824331e+00 1.532746e+00 1.250639e+00 1.824724e+00 2.418809e+00 1.589960e+00 1.741624e+00 1.633553e+00 1.885628e+00 3.115560e-01 1.364021e-01 2.306108e-01 1.953110e-01 2.842808e-01 2.051415e-01 2.050235e-01 2.496991e-01 5.071735e-01 3.912005e-01 2.881499e-01 2.948099e-01 3.055544e-01 9.321335e-02
<GCONST> 9.329900e+01
<STATE> 4
<MEAN> 39
 -2.890430e+00 2.235198e+00 7.139795e-01 5.892985e+00 4.804428e+00 -3.587169e+00 -7.274832e+00 -8.622257e+00 -1.855632e+01 -5.824166e+00 1.232616e+01 2.732859e+00 7.267225e+01 -7.730218e-01 1.113376e+00 4.814116e-01 -6.428942e-01 -6.999648e-01 9.276656e-01 1.498140e+00 6.933419e-01 1.185802e+00 1.433375e+00 -1.237718e-01 -1.562428e-01 -9.619731e-01 -2.063417e-01 4.242842e-02 8.189580e-02 5.701941e-02 1.639206e-01 1.878292e-01 5.408344e-02 2.025532e-01 5.336916e-01 1.762724e-01 -2.247976e-01 -7.116456e-02 -1.655911e-01
<VARIANCE> 39
 7.115122e+00 2.730186e+01 1.277804e+01 1.364073e+01 1.313443e+01 1.419510e+01 2.501988e+01 2.005587e+01 2.847676e+01 3.012994e+01 3.024903e+01 1.796552e+01 1.123503e+01 8.605487e-01 3.041111e+00 1.510028e+00 1.194901e+00 9.824170e-01 2.286084e+00 1.556472e+00 1.512075e+00 3.101668e+00 1.618793e+00 1.988838e+00 9.883831e-01 1.440247e+00 1.055659e-01 3.815895e-01 2.165799e-01 2.267121e-01 2.093636e-01 3.870471e-01 2.406648e-01 4.445652e-01 3.611223e-01 2.648294e-01 2.490189e-01 1.408605e-01 1.586215e-01
<GCONST> 9.638434e+01
<TRANSP> 5
 0.000000e+00 1.000000e+00 0.000000e+00 0.000000e+00 0.000000e+00
 0.000000e+00 8.773940e-01 1.226061e-01 0.000000e+00 0.000000e+00
 0.000000e+00 0.000000e+00 8.381347e-01 1.618653e-01 0.000000e+00
 0.000000e+00 0.000000e+00 0.000000e+00 7.364535e-01 2.635465e-01
 0.000000e+00 0.000000e+00 0.000000e+00 0.000000e+00 0.000000e+00
<ENDHMM>
~h "w"
<BEGINHMM>
<NUMSTATES> 5
<STATE> 2
<MEAN> 39
 -4.242695e+00 1.083001e+01 5.457159e+00 2.194868e+00 1.599269e+00 -2.276319e+00 -5.358931e+00 -2.215290e+00 -8.873596e+00 -6.758107e+00 4.238409e+00 -2.078376e+00 6.935679e+01 -4.606307e-01 8.032628e-01 1.431801e+00 1.083575e-01 -1.373673e+00 -8.651121e-01 2.948307e-01 7.100802e-01 7.544429e-01 3.595172e-01 5.706388e-01 -1.587997e-01 -4.940944e-01 8.689762e-02 -4.726129e-01 -2.759615e-01 1.862329e-01 5.540597e-02 -1.997563e-01 -7.202423e-02 -1.428581e-01 -2.390384e-01 -1.016661e-01 2.276033e-01 1.606735e-01 2.027974e-01
<VARIANCE> 39
 8.183159e+00 1.522128e+01 2.165199e+01 2.028597e+01 1.617787e+01 2.183482e+01 3.670157e+01 1.403186e+01 1.423238e+01 1.010395e+01 2.206606e+01 3.202896e+01 1.106960e+01 2.444703e-01 7.505617e-01 8.150176e-01 8.674057e-01 1.467671e+00 1.862539e+00 1.097175e+00 1.261583e+00 1.985432e+00 1.436883e+00 1.970448e+00 1.231819e+00 3.019685e-01 1.012960e-01 2.568068e-01 1.862621e-01 1.418695e-01 1.063975e-01 2.601812e-01 3.291222e-01 1.198657e-01 3.170778e-01 2.710808e-01 4.206800e-01 2.652550e-01 1.282336e-01
<GCONST> 8.785455e+01
<STATE> 3
<MEAN> 39
 -4.252123e+00 1.043192e+01 7.974470e+00 3.788022e+00 -1.775435e+00 -5.083673e+00 -5.499426e+00 5.688472e-01 -5.940502e+00 -9.628181e+00 3.828185e+00 -2.563188e+00 6.959383e+01 4.843827e-01 -7.227581e-01 -5.782329e-01 -4.178820e-01 -5.069962e-01 -3.158486e-01 -1.516158e-01 1.788740e-02 -1.548243e-01 -4.563414e-01 2.249888e-01 2.634658e-02 5.742720e-01 6.870376e-02 -1.627396e-01 -2.300038e-01 -7.313083e-02 7.048029e-02 1.549852e-01 1.089117e-01 -1.249545e-01 -1.425632e-01 1.212073e-02 2.863494e-02 9.785168e-02 8.683405e-02
<VARIANCE> 39
 1.140316e+01 1.383644e+01 1.214118e+01 2.009841e+01 2.542851e+01 3.416721e+01 3.106987e+01 1.737260e+01 1.969469e+01 2.792631e+01 2.477566e+01 1.187029e+01 1.045006e+01 3.581796e-01 1.152387e+00 9.949182e-01 8.219190e-01 5.707372e-01 1.006117e+00 2.023809e+00 1.183386e+00 1.289000e+00 2.030810e+00 9.957995e-01 7.499915e-01 3.758494e-01 6.790315e-02 2.295873e-01 1.504838e-01 1.672890e-01 1.011261e-01 1.918887e-01 2.819578e-01 1.836905e-01 3.174239e-01 4.307696e-01 1.765846e-01 1.402043e-01 8.359431e-02
<GCONST> 8.564281e+01
<STATE> 4
<MEAN> 39
 -6.293058e-03 1.314291e+00 -3.034700e+00 3.717202e-01 -4.131917e+00 -5.950820e+00 -1.326490e+00 -3.506604e+00 -1.136195e+01 -5.064852e+00 8.710823e+00 1.389765e+00 7.468480e+01 -1.249898e-01 -1.651564e-01 -5.083131e-01 2.035314e-02 4.056574e-01 4.279916e-01 5.329103e-01 -2.409756e-01 -2.082299e-02 8.283831e-01 -1.430359e-01 -1.554184e-02 -1.316337e-01 -1.473348e-01 2.013790e-01 2.050789e-01 7.980327e-02 1.052336e-01 3.392597e-02 -8.662318e-02 8.422173e-02 1.996924e-01 5.594986e-03 -1.775786e-01 -1.199276e-01 -1.636769e-01
<VARIANCE> 39
 3.505415e+00 1.292951e+01 1.825710e+01 1.575935e+01 1.541677e+01 1.514459e+01 3.021786e+01 2.318321e+01 1.421226e+01 4.210184e+01 1.157204e+01 1.185152e+01 4.764643e+00 2.905518e-01 1.180663e+00 1.199448e+00 8.112361e-01 7.775239e-01 1.341477e+00 1.815954e+00 1.423984e+00 1.492714e+00 1.072238e+00 1.047033e+00 9.027704e-01 4.120606e-01 5.099269e-02 8.097315e-02 8.626615e-02 1.740824e-01 1.014185e-01 2.405525e-01 2.891072e-01 2.530609e-01 2.713506e-01 1.678348e-01 1.434931e-01 1.052679e-01 4.015753e-02
<GCONST> 7.894341e+01
<TRANSP> 5
 0.000000e+00 1.000000e+00 0.000000e+00 0.000000e+00 0.000000e+00
 0.000000e+00 6.215556e-01 3.784445e-01 0.000000e+00 0.000000e+00
 0.000000e+00 0.000000e+00 8.523017e-01 1.476983e-01 0.000000e+00
 0.000000e+00 0.000000e+00 0.000000e+00 8.914734e-01 1.085267e-01
 0.000000e+00 0.000000e+00 0.000000e+00 0.000000e+00 0.000000e+00
<ENDHMM>
~h "y"
<BEGINHMM>
<NUMSTATES> 5
<STATE> 2
<MEAN> 39
 -1.958991e+01 2.759780e+00 -1.920871e+00 -2.554879e-01 6.226310e-01 2.873470e+00 4.516682e+00 6.007659e+00 6.836473e+00 5.033369e+00 4.059298e+00 2.454150e+00 5.926470e+01 -6.864279e-01 -8.757678e-01 -1.010543e+00 -9.825667e-01 -8.587283e-01 -2.731805e-01 -8.847034e-02 1.024090e-03 -1.130515e-01 -1.652538e-01 -2.154987e-01 -5.634384e-01 -3.389587e-01 3.440821e-01 2.631397e-01 1.954487e-01 2.847072e-01 9.797966e-02 -1.345973e-01 -1.569571e-01 -2.432657e-01 -3.452301e-01 -2.132867e-01 -1.589089e-01 -1.750266e-01 1.649854e-01
<VARIANCE> 39
 1.748332e+00 2.617541e+00 3.697355e+00 6.912646e+00 7.186693e+00 5.232544e+00 3.378438e+00 5.692608e+00 8.071049e+00 7.546503e+00 9.834859e+00 1.059823e+01 1.447546e+00 3.756667e-01 2.366435e-01 2.825495e-01 5.630893e-01 9.209752e-01 1.146309e+00 8.559706e-01 1.230347e+00 9.432505e-01 1.166972e+00 9.666489e-01 1.033060e+00 9.744173e-02 7.199848e-02 4.748869e-02 5.518412e-02 6.893463e-02 1.224580e-01 1.179007e-01 1.290344e-01 1.744307e-01 3.310631e-01 2.376516e-01 2.624947e-01 2.314580e-01 3.778981e-02
<GCONST> 5.786144e+01
<STATE> 3
<MEAN> 39
 -2.080331e+01 1.689413e+00 -2.710506e+00 -4.903693e-01 -3.208277e-02 1.561346e+00 3.769827e+00 4.154627e+00 4.267283e+00 2.818943e+00 2.366320e+00 3.552140e-01 5.867205e+01 -1.472847e-01 -1.269651e-01 -1.222474e-01 -3.812444e-03 4.326434e-02 3.896392e-02 8.778100e-02 -1.220095e-02 -1.108250e-01 -3.108309e-02 -8.206504e-03 -7.628918e-02 -6.020845e-02 5.506856e-02 6.299303e-02 8.626191e-02 9.574303e-02 1.442281e-01 8.161359e-02 7.636304e-03 2.150909e-02 1.949536e-02 2.797510e-03 7.721243e-03 2.659619e-02 4.027773e-02
<VARIANCE> 39
 9.818600e-01 1.595057e+00 3.236718e+00 4.207074e+00 5.375472e+00 6.097023e+00 6.274776e+00 1.072753e+01 9.681046e+00 6.184163e+00 7.625858e+00 7.097231e+00 1.447546e+00 1.338561e-01 2.037258e-01 2.733849e-01 3.149402e-01 5.139734e-01 6.582152e-01 5.873618e-01 8.728635e-01 8.492101e-01 6.968780e-01 1.171285e+00 9.452214e-01 4.251725e-02 3.516151e-02 4.659838e-02 6.589221e-02 7.272491e-02 9.406462e-02 1.411964e-01 1.315884e-01 1.780560e-01 1.848457e-01 1.672246e-01 2.533116e-01 2.139673e-01 1.322866e-02
<GCONST> 4.895564e+01
<STATE> 4
<MEAN> 39
 -2.129706e+01 1.041799e+00 -3.298087e+00 -6.579874e-01 8.573877e-01 2.513835e+00 4.474392e+00 5.351380e+00 5.126617e+00 3.293693e+00 2.279897e+00 1.783424e-01 5.856899e+01 8.875321e-01 1.776598e-01 4.234683e-01 -2.092378e-01 3.662693e-01 -4.278056e-01 -6.670921e-01 -9.325477e-01 -1.093827e+00 -6.877626e-01 -1.490561e-01 -9.729755e-02 8.947922e-01 9.388788e-01 2.281126e-01 1.135691e-01 -9.681727e-02 -1.261005e-01 -5.255356e-01 -3.109986e-01 -5.573624e-01 -8.275858e-01 -1.852782e-01 2.839174e-01 9.266762e-02 7.048221e-01
<VARIANCE> 39
 1.458585e+00 1.854425e+00 3.397804e+00 3.416971e+00 4.195406e+00 3.428864e+00 5.155653e+00 9.346596e+00 1.025495e+01 1.084089e+01 1.248615e+01 1.150409e+01 1.447546e+00 2.147592e+00 6.572518e-01 9.749892e-01 4.449114e-01 1.091790e+00 1.661152e+00 1.484383e+00 1.971613e+00 2.713017e+00 1.470019e+00 1.794705e+00 1.128531e+00 1.463342e+00 3.261385e-01 1.067350e-01 1.979374e-01 8.045976e-02 1.552385e-01 2.618814e-01 3.016161e-01 1.374016e-01 2.574880e-01 2.650107e-01 4.162586e-01 2.982901e-01 1.665446e-01
<GCONST> 7.491504e+01
<TRANSP> 5
 0.000000e+00 1.000000e+00 0.000000e+00 0.000000e+00 0.000000e+00
 0.000000e+00 2.168173e-01 7.831827e-01 0.000000e+00 0.000000e+00
 0.000000e+00 0.000000e+00 8.343732e-01 1.656268e-01 0.000000e+00
 0.000000e+00 0.000000e+00 0.000000e+00 6.101477e-01 3.898524e-01
 0.000000e+00 0.000000e+00 0.000000e+00 0.000000e+00 0.000000e+00
<ENDHMM>
~h "sp"
<BEGINHMM>
<NUMSTATES> 3
<STATE> 2
~s "silst"
<TRANSP> 3
 0.000000e+00 4.697679e-02 9.530233e-01
 0.000000e+00 5.398135e-01 4.601865e-01
 0.000000e+00 0.000000e+00 0.000000e+00
<ENDHMM>
~h "sy"
<BEGINHMM>
<NUMSTATES> 5
<STATE> 2
<MEAN> 39
 -2.128633e+01 8.921835e-01 -3.434346e+00 -1.214983e+00 -1.428571e-01 1.584620e+00 3.353768e+00 4.033189e+00 4.365897e+00 1.983271e+00 7.575807e-01 -7.419048e-01 5.845710e+01 -3.962898e-02 -4.784873e-02 -2.040629e-02 -2.815007e-02 -3.585280e-02 -1.066456e-01 -9.323534e-02 6.750548e-03 1.913420e-02 8.347030e-03 -1.043632e-02 -2.773354e-02 -1.164980e-02 1.287556e-02 1.154190e-02 1.281000e-02 2.605487e-03 5.956963e-03 1.450448e-02 1.758532e-02 2.486639e-02 8.423286e-03 1.447679e-02 2.719318e-02 2.915072e-02 8.676909e-03
<VARIANCE> 39
 1.086587e+00 1.555527e+00 2.139893e+00 3.224568e+00 3.399799e+00 4.937054e+00 6.412561e+00 6.161623e+00 5.929764e+00 5.823198e+00 5.037381e+00 6.419127e+00 1.447546e+00 1.085226e-01 1.623358e-01 2.533152e-01 3.582268e-01 4.081709e-01 6.141312e-01 8.051916e-01 7.322341e-01 5.492969e-01 6.196418e-01 5.570411e-01 7.601812e-01 3.045507e-02 2.411554e-02 3.595130e-02 6.025237e-02 8.369270e-02 8.997913e-02 1.255714e-01 1.543527e-01 1.399088e-01 1.074921e-01 1.247199e-01 1.198313e-01 1.754250e-01 6.574401e-03
<GCONST> 4.038204e+01
<STATE> 3
<MEAN> 39
 -2.122334e+01 3.777114e-01 -3.824892e+00 -1.753613e+00 -2.696502e-01 7.356867e-02 3.004179e+00 6.146617e+00 6.008013e+00 2.468565e+00 2.121349e+00 6.952409e-01 5.883251e+01 1.461348e-02 1.954081e-01 3.678734e-01 1.519890e-01 -6.158037e-02 3.772333e-01 1.118185e-01 -7.370042e-01 -6.123512e-01 -5.043151e-03 1.712182e-01 2.055923e-01 -1.130764e-01 4.229184e-02 -2.821762e-01 3.102252e-01 -1.515499e-01 -1.713261e-01 2.038444e-01 3.679195e-02 -4.430686e-01 -6.214063e-01 -4.041688e-02 2.162538e-02 -4.260286e-01 2.710689e-01
<VARIANCE> 39
 7.169198e-01 3.225701e+00 1.468023e+00 1.520120e+00 3.480321e+00 8.423755e+00 9.893192e+00 1.556525e+01 2.674805e+00 8.315065e+00 6.546755e-01 2.406525e+00 1.447546e+00 7.240748e-02 2.010218e-01 2.673387e-01 5.140972e-01 2.329591e-01 5.843508e-01 6.629039e-01 1.577066e+00 7.560585e-01 4.000789e-01 2.461897e-01 9.964575e-01 7.079718e-02 7.008108e-02 2.654665e-01 2.255667e-01 1.127720e-01 6.818809e-02 1.903733e-01 1.797146e-01 2.824186e-01 1.866131e-01 1.670746e-01 3.742704e-02 1.497294e-01 1.011459e-01
<GCONST> 4.632240e+01
<STATE> 4
<MEAN> 39
 -2.015041e+01 -7.234887e-01 -3.454279e+00 -1.250710e+00 -6.131426e-01 1.243729e+00 4.832211e+00 1.128388e+00 5.600387e-01 2.678417e+00 1.184779e+00 -1.866388e+00 6.019558e+01 5.644494e-01 -1.198069e+00 8.794558e-01 -4.841701e-01 -2.038866e-01 2.636467e-01 5.303919e-04 -8.577520e-01 -2.001135e+00 4.133582e-05 5.059671e-01 -7.008723e-01 1.502005e+00 3.457322e-01 -6.524728e-02 3.983901e-01 -1.227131e-01 -7.224851e-02 -3.275081e-01 -4.449135e-01 1.900713e-01 -1.733699e-02 -9.582298e-02 3.742005e-01 1.084698e-01 5.100479e-01
<VARIANCE> 39
 5.155931e+00 1.014242e+01 9.337078e+00 3.454289e+00 1.740042e+00 6.195777e+00 3.831926e+01 7.252068e+00 2.399459e+01 7.582693e+00 3.453539e+00 6.457773e+00 9.161900e+00 2.611523e+00 1.986962e+00 4.019351e+00 8.574772e-01 5.200359e-01 2.806623e+00 3.271236e+00 1.176855e+00 1.318540e+00 1.491544e+00 2.749406e-01 9.337090e-01 1.199483e+00 3.746803e-01 5.417820e-01 3.290672e-01 8.031334e-02 7.084873e-02 2.725329e-01 3.266129e-01 2.163324e-01 2.939809e-01 1.282043e-01 1.016868e-01 1.564758e-01 1.581205e-01
<GCONST> 8.065612e+01
<TRANSP> 5
 0.000000e+00 1.000000e+00 0.000000e+00 0.000000e+00 0.000000e+00
 0.000000e+00 9.647432e-01 3.525677e-02 0.000000e+00 0.000000e+00
 0.000000e+00 0.000000e+00 4.171712e-01 5.828288e-01 0.000000e+00
 0.000000e+00 0.000000e+00 0.000000e+00 5.076750e-01 4.923250e-01
 0.000000e+00 0.000000e+00 0.000000e+00 0.000000e+00 0.000000e+00
<ENDHMM>
~h "sil"
<BEGINHMM>
<NUMSTATES> 5
<STATE> 2
<MEAN> 39
 -2.375026e+00 1.993224e-01 -2.831395e-01 -5.399304e-02 2.821515e-02 1.113219e-01 2.453537e-01 3.541165e-01 3.704565e-01 1.902355e-01 1.312949e-01 -1.705117e-03 6.743123e+00 -1.822782e-02 -4.144282e-03 7.447400e-03 -2.230016e-03 -2.680767e-03 9.010640e-03 -1.692347e-03 -4.312129e-03 -1.314413e-02 -7.423154e-03 4.956099e-03 7.029416e-03 -1.051757e-02 -2.891407e-01 3.617201e-02 -3.222337e-02 1.520107e-02 -1.198797e-02 3.467883e-02 2.159821e-02 5.062777e-02 4.277604e-02 4.184591e-02 1.370965e-02 5.935185e-03 3.043950e-01
<VARIANCE> 39
 4.364634e+01 5.343490e-01 9.340275e-01 3.069609e-01 2.242289e-01 3.693356e-01 1.003808e+00 1.620443e+00 1.630740e+00 1.165432e+00 6.243349e-01 2.076922e-01 3.505939e+02 2.079128e-02 1.315341e-02 2.171702e-02 3.798003e-02 4.395112e-02 3.591833e-02 3.024733e-02 5.961349e-02 4.945640e-02 4.315945e-02 1.957052e-02 3.700292e-02 1.980202e-02 3.535811e-01 1.450841e-02 1.833822e-02 1.833428e-02 1.971003e-02 2.068887e-02 2.317308e-02 2.665585e-02 3.074081e-02 2.997802e-02 2.315366e-02 1.387829e-02 4.032233e-01
<GCONST> -1.374983e+01
<STATE> 3
~s "silst"
<STATE> 4
<MEAN> 39
 -2.096573e+01 1.229397e+00 -3.254689e+00 -1.163971e+00 -3.813091e-01 1.514001e+00 3.936367e+00 4.687614e+00 4.619329e+00 2.227672e+00 9.299959e-01 -6.965514e-01 5.862342e+01 2.994263e-03 -9.164370e-03 -1.476668e-02 -1.547262e-02 -1.334190e-02 -1.261033e-02 -8.718413e-03 -8.543408e-03 -1.127315e-02 -5.590099e-03 4.253641e-06 3.687768e-03 5.739941e-03 2.798975e-03 -4.457545e-04 4.927885e-04 1.443588e-03 2.050339e-03 -7.957165e-04 -1.300326e-03 -2.786708e-03 -5.625735e-03 2.693063e-04 3.930630e-03 1.057531e-03 5.220351e-04
<VARIANCE> 39
 1.147142e+00 1.649233e+00 3.361347e+00 4.893596e+00 5.178903e+00 5.745160e+00 7.195965e+00 9.210758e+00 8.607320e+00 7.179391e+00 6.429139e+00 6.636871e+00 1.447546e+00 1.014890e-01 1.559089e-01 2.919784e-01 4.418003e-01 5.159310e-01 5.874324e-01 7.225494e-01 9.681348e-01 9.597009e-01 7.886738e-01 6.914868e-01 6.821103e-01 3.364551e-02 2.023921e-02 3.253899e-02 5.692836e-02 8.742298e-02 1.057955e-01 1.224277e-01 1.460072e-01 1.975919e-01 2.001239e-01 1.667174e-01 1.448338e-01 1.402507e-01 6.851777e-03
<GCONST> 4.598128e+01
<TRANSP> 5
 0.000000e+00 1.000000e+00 0.000000e+00 0.000000e+00 0.000000e+00
 0.000000e+00 7.703396e-01 1.148355e-01 1.148249e-01 0.000000e+00
 0.000000e+00 0.000000e+00 9.103242e-01 8.967580e-02 0.000000e+00
 0.000000e+00 1.416610e-30 0.000000e+00 9.862409e-01 1.375911e-02
 0.000000e+00 0.000000e+00 0.000000e+00 0.000000e+00 0.000000e+00
<ENDHMM>
