~o
<STREAMINFO> 1 39
<VECSIZE> 39<NULLD><MFCC_D_A_0><DIAGC>
~t "T_a"
<TRANSP> 5
 0.000000e+00 1.000000e+00 0.000000e+00 0.000000e+00 0.000000e+00
 0.000000e+00 7.495855e-01 2.504145e-01 0.000000e+00 0.000000e+00
 0.000000e+00 0.000000e+00 7.318928e-01 2.681072e-01 0.000000e+00
 0.000000e+00 0.000000e+00 0.000000e+00 7.715956e-01 2.284044e-01
 0.000000e+00 0.000000e+00 0.000000e+00 0.000000e+00 0.000000e+00
~t "T_b"
<TRANSP> 5
 0.000000e+00 1.000000e+00 0.000000e+00 0.000000e+00 0.000000e+00
 0.000000e+00 8.497418e-01 1.502582e-01 0.000000e+00 0.000000e+00
 0.000000e+00 0.000000e+00 9.549161e-01 4.508399e-02 0.000000e+00
 0.000000e+00 0.000000e+00 0.000000e+00 6.977432e-01 3.022568e-01
 0.000000e+00 0.000000e+00 0.000000e+00 0.000000e+00 0.000000e+00
~t "T_d"
<TRANSP> 5
 0.000000e+00 1.000000e+00 0.000000e+00 0.000000e+00 0.000000e+00
 0.000000e+00 8.875660e-01 1.124339e-01 0.000000e+00 0.000000e+00
 0.000000e+00 0.000000e+00 9.158043e-01 8.419577e-02 0.000000e+00
 0.000000e+00 0.000000e+00 0.000000e+00 5.392598e-01 4.607402e-01
 0.000000e+00 0.000000e+00 0.000000e+00 0.000000e+00 0.000000e+00
~t "T_e"
<TRANSP> 5
 0.000000e+00 1.000000e+00 0.000000e+00 0.000000e+00 0.000000e+00
 0.000000e+00 5.591406e-01 4.408594e-01 0.000000e+00 0.000000e+00
 0.000000e+00 0.000000e+00 6.839672e-01 3.160329e-01 0.000000e+00
 0.000000e+00 0.000000e+00 0.000000e+00 6.171220e-01 3.828780e-01
 0.000000e+00 0.000000e+00 0.000000e+00 0.000000e+00 0.000000e+00
~t "T_f"
<TRANSP> 5
 0.000000e+00 1.000000e+00 0.000000e+00 0.000000e+00 0.000000e+00
 0.000000e+00 9.162179e-01 8.378208e-02 0.000000e+00 0.000000e+00
 0.000000e+00 0.000000e+00 1.013765e-24 1.000000e+00 0.000000e+00
 0.000000e+00 0.000000e+00 0.000000e+00 2.502188e-01 7.497812e-01
 0.000000e+00 0.000000e+00 0.000000e+00 0.000000e+00 0.000000e+00
~t "T_g"
<TRANSP> 5
 0.000000e+00 1.000000e+00 0.000000e+00 0.000000e+00 0.000000e+00
 0.000000e+00 4.998190e-01 5.001810e-01 0.000000e+00 0.000000e+00
 0.000000e+00 0.000000e+00 6.092678e-01 3.907322e-01 0.000000e+00
 0.000000e+00 0.000000e+00 0.000000e+00 8.785287e-01 1.214713e-01
 0.000000e+00 0.000000e+00 0.000000e+00 0.000000e+00 0.000000e+00
~t "T_i"
<TRANSP> 5
 0.000000e+00 1.000000e+00 0.000000e+00 0.000000e+00 0.000000e+00
 0.000000e+00 5.707501e-01 4.292498e-01 0.000000e+00 0.000000e+00
 0.000000e+00 0.000000e+00 6.102491e-01 3.897509e-01 0.000000e+00
 0.000000e+00 0.000000e+00 0.000000e+00 8.621449e-01 1.378551e-01
 0.000000e+00 0.000000e+00 0.000000e+00 0.000000e+00 0.000000e+00
~t "T_j"
<TRANSP> 5
 0.000000e+00 1.000000e+00 0.000000e+00 0.000000e+00 0.000000e+00
 0.000000e+00 7.721879e-01 2.278121e-01 0.000000e+00 0.000000e+00
 0.000000e+00 0.000000e+00 6.548618e-01 3.451382e-01 0.000000e+00
 0.000000e+00 0.000000e+00 0.000000e+00 8.958022e-01 1.041978e-01
 0.000000e+00 0.000000e+00 0.000000e+00 0.000000e+00 0.000000e+00
~t "T_k"
<TRANSP> 5
 0.000000e+00 1.000000e+00 0.000000e+00 0.000000e+00 0.000000e+00
 0.000000e+00 8.890340e-01 1.109660e-01 0.000000e+00 0.000000e+00
 0.000000e+00 0.000000e+00 7.559540e-01 2.440459e-01 0.000000e+00
 0.000000e+00 0.000000e+00 0.000000e+00 6.928134e-01 3.071866e-01
 0.000000e+00 0.000000e+00 0.000000e+00 0.000000e+00 0.000000e+00
~t "T_l"
<TRANSP> 5
 0.000000e+00 1.000000e+00 0.000000e+00 0.000000e+00 0.000000e+00
 0.000000e+00 6.673020e-01 3.326979e-01 0.000000e+00 0.000000e+00
 0.000000e+00 0.000000e+00 7.189941e-01 2.810059e-01 0.000000e+00
 0.000000e+00 0.000000e+00 0.000000e+00 7.201917e-01 2.798083e-01
 0.000000e+00 0.000000e+00 0.000000e+00 0.000000e+00 0.000000e+00
~t "T_m"
<TRANSP> 5
 0.000000e+00 1.000000e+00 0.000000e+00 0.000000e+00 0.000000e+00
 0.000000e+00 9.535273e-01 4.647265e-02 0.000000e+00 0.000000e+00
 0.000000e+00 0.000000e+00 6.320278e-01 3.679722e-01 0.000000e+00
 0.000000e+00 0.000000e+00 0.000000e+00 7.202719e-01 2.797281e-01
 0.000000e+00 0.000000e+00 0.000000e+00 0.000000e+00 0.000000e+00
~t "T_n"
<TRANSP> 5
 0.000000e+00 1.000000e+00 0.000000e+00 0.000000e+00 0.000000e+00
 0.000000e+00 5.820512e-01 4.179488e-01 0.000000e+00 0.000000e+00
 0.000000e+00 0.000000e+00 7.322938e-01 2.677062e-01 0.000000e+00
 0.000000e+00 0.000000e+00 0.000000e+00 5.851395e-01 4.148605e-01
 0.000000e+00 0.000000e+00 0.000000e+00 0.000000e+00 0.000000e+00
~t "T_o"
<TRANSP> 5
 0.000000e+00 1.000000e+00 0.000000e+00 0.000000e+00 0.000000e+00
 0.000000e+00 7.113853e-01 2.886147e-01 0.000000e+00 0.000000e+00
 0.000000e+00 0.000000e+00 6.837424e-01 3.162576e-01 0.000000e+00
 0.000000e+00 0.000000e+00 0.000000e+00 7.622735e-01 2.377265e-01
 0.000000e+00 0.000000e+00 0.000000e+00 0.000000e+00 0.000000e+00
~t "T_p"
<TRANSP> 5
 0.000000e+00 1.000000e+00 0.000000e+00 0.000000e+00 0.000000e+00
 0.000000e+00 9.196779e-01 8.032214e-02 0.000000e+00 0.000000e+00
 0.000000e+00 0.000000e+00 4.477749e-01 5.522251e-01 0.000000e+00
 0.000000e+00 0.000000e+00 0.000000e+00 4.939134e-01 5.060866e-01
 0.000000e+00 0.000000e+00 0.000000e+00 0.000000e+00 0.000000e+00
~t "T_r"
<TRANSP> 5
 0.000000e+00 1.000000e+00 0.000000e+00 0.000000e+00 0.000000e+00
 0.000000e+00 7.125657e-01 2.874344e-01 0.000000e+00 0.000000e+00
 0.000000e+00 0.000000e+00 5.821218e-01 4.178781e-01 0.000000e+00
 0.000000e+00 0.000000e+00 0.000000e+00 7.233450e-01 2.766549e-01
 0.000000e+00 0.000000e+00 0.000000e+00 0.000000e+00 0.000000e+00
~t "T_s"
<TRANSP> 5
 0.000000e+00 1.000000e+00 0.000000e+00 0.000000e+00 0.000000e+00
 0.000000e+00 6.398652e-01 3.601348e-01 0.000000e+00 0.000000e+00
 0.000000e+00 0.000000e+00 7.883680e-01 2.116319e-01 0.000000e+00
 0.000000e+00 0.000000e+00 0.000000e+00 9.180222e-01 8.197784e-02
 0.000000e+00 0.000000e+00 0.000000e+00 0.000000e+00 0.000000e+00
~t "T_t"
<TRANSP> 5
 0.000000e+00 1.000000e+00 0.000000e+00 0.000000e+00 0.000000e+00
 0.000000e+00 9.341637e-01 6.583635e-02 0.000000e+00 0.000000e+00
 0.000000e+00 0.000000e+00 6.467416e-01 3.532584e-01 0.000000e+00
 0.000000e+00 0.000000e+00 0.000000e+00 7.290102e-01 2.709897e-01
 0.000000e+00 0.000000e+00 0.000000e+00 0.000000e+00 0.000000e+00
~t "T_u"
<TRANSP> 5
 0.000000e+00 1.000000e+00 0.000000e+00 0.000000e+00 0.000000e+00
 0.000000e+00 8.758445e-01 1.241556e-01 0.000000e+00 0.000000e+00
 0.000000e+00 0.000000e+00 7.830928e-01 2.169072e-01 0.000000e+00
 0.000000e+00 0.000000e+00 0.000000e+00 7.944462e-01 2.055539e-01
 0.000000e+00 0.000000e+00 0.000000e+00 0.000000e+00 0.000000e+00
~t "T_w"
<TRANSP> 5
 0.000000e+00 1.000000e+00 0.000000e+00 0.000000e+00 0.000000e+00
 0.000000e+00 7.046440e-01 2.953560e-01 0.000000e+00 0.000000e+00
 0.000000e+00 0.000000e+00 8.223700e-01 1.776300e-01 0.000000e+00
 0.000000e+00 0.000000e+00 0.000000e+00 8.679005e-01 1.320995e-01
 0.000000e+00 0.000000e+00 0.000000e+00 0.000000e+00 0.000000e+00
~t "T_y"
<TRANSP> 5
 0.000000e+00 1.000000e+00 0.000000e+00 0.000000e+00 0.000000e+00
 0.000000e+00 3.722716e-01 6.277284e-01 0.000000e+00 0.000000e+00
 0.000000e+00 0.000000e+00 8.416383e-01 1.583618e-01 0.000000e+00
 0.000000e+00 0.000000e+00 0.000000e+00 5.808598e-01 4.191401e-01
 0.000000e+00 0.000000e+00 0.000000e+00 0.000000e+00 0.000000e+00
~t "T_sy"
<TRANSP> 5
 0.000000e+00 1.000000e+00 0.000000e+00 0.000000e+00 0.000000e+00
 0.000000e+00 9.278288e-01 7.217111e-02 0.000000e+00 0.000000e+00
 0.000000e+00 0.000000e+00 3.389350e-01 6.610650e-01 0.000000e+00
 0.000000e+00 0.000000e+00 0.000000e+00 6.016151e-01 3.983849e-01
 0.000000e+00 0.000000e+00 0.000000e+00 0.000000e+00 0.000000e+00
~s "ST_f_2_1"
<MEAN> 39
 -6.951720e+00 4.872670e+00 1.031940e+01 1.849614e+01 1.074987e+01 -8.191546e+00 -8.822591e+00 -1.372438e+00 -1.600135e+01 -7.777808e+00 9.476265e+00 -5.275871e+00 6.938013e+01 -3.669352e-01 4.022414e-01 -4.425406e-02 -1.357616e-01 -6.707661e-01 4.827260e-01 1.080482e+00 -5.613148e-02 6.069695e-01 4.936359e-01 -5.491555e-01 4.642812e-02 -5.091745e-01 -9.676444e-02 4.645694e-02 2.263189e-02 -1.912590e-01 1.612605e-02 2.368977e-01 4.618020e-02 1.106865e-02 3.030297e-01 1.677754e-01 -1.135543e-01 5.745593e-02 -5.530427e-02
<VARIANCE> 39
 2.500985e+00 6.105348e+00 8.328940e+00 7.975047e+00 1.016273e+01 1.250759e+01 1.956322e+01 2.400829e+01 1.795720e+01 1.903405e+01 1.443944e+01 5.489278e+00 3.949946e+00 8.483599e-02 2.924932e-01 4.102225e-01 1.137479e+00 6.245788e-01 1.596002e+00 1.444666e+00 1.671209e+00 2.281607e+00 1.345669e+00 8.951030e-01 5.853555e-01 7.678124e-02 2.576093e-02 6.857268e-02 1.093871e-01 1.670070e-01 1.267344e-01 1.753665e-01 3.645115e-01 3.933612e-01 4.030676e-01 2.335122e-01 2.047821e-01 1.441786e-01 1.458140e-02
<GCONST> 6.930139e+01
~s "ST_f_3_1"
<MEAN> 39
 -1.008951e+01 8.110131e+00 9.362199e+00 1.586683e+01 7.820869e+00 -2.058369e+00 -1.433254e+00 -2.517263e+00 -7.930593e+00 -1.560719e+00 3.696199e+00 -5.891467e+00 6.555698e+01 -9.254475e-01 7.461542e-01 8.842204e-02 -1.208658e+00 -2.707518e-01 1.576819e+00 1.755268e+00 1.030270e+00 2.720596e+00 1.176035e+00 -1.240512e+00 1.625508e+00 -9.949935e-01 -1.618034e-01 -1.537833e-01 -1.260031e-01 -2.386099e-01 -2.904413e-02 1.676718e-02 3.432316e-01 9.825687e-01 3.889668e-01 -2.685357e-01 1.193704e-01 4.461035e-01 -1.191314e-01
<VARIANCE> 39
 1.683495e+00 1.611099e+00 5.960590e+00 5.348022e+00 4.069478e-01 2.055164e-01 7.009911e+00 1.061428e+01 1.577578e+01 6.168831e+00 2.921622e-01 1.658322e+00 1.447546e+00 2.079128e-02 1.901454e-01 4.721318e-01 1.059928e-01 1.061655e-01 6.120802e-01 3.421133e+00 2.415564e-01 2.788214e-02 6.127728e-01 5.219595e-01 5.878434e-01 1.980202e-02 3.220062e-03 2.805976e-02 9.956939e-02 7.317559e-02 2.226979e-02 8.069675e-03 1.005614e-01 5.249592e-02 2.119817e-01 6.651657e-02 6.847280e-02 8.365053e-02 8.693410e-03
<GCONST> 1.929208e+01
~s "ST_f_4_1"
<MEAN> 39
 -1.104851e+01 9.885580e+00 9.441744e+00 1.319205e+01 7.293496e+00 -9.779485e-02 -1.084323e+00 -1.992848e+00 -5.348663e+00 -2.623375e+00 2.726782e+00 -1.677561e+00 6.415958e+01 -1.058437e+00 5.253870e-01 -1.610999e-01 -1.713900e+00 -3.178048e-01 2.106724e+00 2.345417e+00 2.385146e+00 3.083678e+00 5.279559e-01 -1.008169e+00 1.398731e+00 -1.053749e+00 -1.513032e-01 -4.439300e-01 -5.300771e-01 -2.966009e-01 -3.639399e-02 7.676550e-02 3.448384e-01 5.459095e-01 5.683607e-02 1.041017e-01 4.167251e-01 2.938477e-02 -8.108809e-03
<VARIANCE> 39
 1.408296e+00 2.769209e+00 1.232453e+00 2.445754e+00 3.605829e+00 1.941175e+01 1.698975e+01 1.983722e+01 9.945138e+00 6.103863e-01 1.154101e+01 2.420070e+00 1.447546e+00 2.079128e-02 1.264299e-01 7.270235e-01 4.349724e-01 4.326505e-02 3.540795e-01 6.759608e-01 1.051573e-01 1.146924e+00 1.121384e+00 1.813670e-01 2.373968e-01 1.980202e-02 2.836925e-03 2.680454e-02 3.164387e-02 1.293428e-02 3.690876e-02 1.615720e-01 4.597929e-01 1.376037e-01 2.867780e-02 8.142526e-02 1.112240e-01 1.674982e-01 8.633314e-03
<GCONST> 2.901983e+01
~s "ST_s_2_1"
<MEAN> 39
 -1.636973e+01 2.384888e+00 -2.623722e-01 1.085535e+00 9.587063e-01 3.599122e-01 6.909018e-01 6.947922e-01 -1.281172e+00 -3.264518e-01 3.410160e+00 2.705033e-01 6.227283e+01 5.356971e-01 -4.564320e-01 1.896391e+00 3.166021e-01 2.669610e-01 1.857523e-01 -9.536295e-01 -7.247515e-01 -1.457226e+00 -4.434806e-01 9.763172e-01 -3.245641e-01 1.117248e+00 -2.078870e-01 -4.749104e-01 6.181163e-01 -2.989699e-01 9.192949e-03 7.795062e-02 -2.324553e-01 -1.175137e-01 -2.130600e-01 3.729884e-03 9.952513e-02 -2.159570e-01 3.433968e-01
<VARIANCE> 39
 4.366496e+01 2.018013e+01 2.014304e+01 2.258295e+01 1.646846e+01 1.272523e+01 1.988132e+01 2.997063e+01 7.315476e+01 2.025165e+01 1.555186e+01 8.279798e+00 2.304872e+01 5.238730e+00 4.074142e+00 3.320795e+00 3.689887e+00 2.632954e+00 1.494818e+00 2.917696e+00 4.108604e+00 6.937567e+00 3.603724e+00 1.435141e+00 1.323889e+00 1.383804e+00 5.599654e-01 3.926231e-01 7.466686e-01 5.256504e-01 3.193350e-01 2.920340e-01 4.170208e-01 4.914317e-01 8.060809e-01 4.783425e-01 2.744864e-01 1.880292e-01 1.449555e-01
<GCONST> 1.129603e+02
~s "ST_s_3_1"
<MEAN> 39
 -2.038907e+01 -7.405354e+00 1.346937e+01 -2.223289e+00 3.694404e+00 1.673211e+00 -3.866052e+00 -1.863790e+00 -5.532448e+00 5.893014e-01 7.209827e+00 -2.966269e+00 6.968420e+01 -1.488545e+00 -1.658351e+00 1.782282e+00 -7.850268e-01 6.453273e-01 3.771260e-01 -3.123076e-01 6.791581e-02 7.516089e-01 7.472528e-01 1.267720e-03 -6.696839e-01 6.696891e-01 1.036466e-01 3.137364e-01 -4.875537e-01 4.966132e-02 -5.477076e-02 -2.011739e-01 1.239162e-01 2.036720e-02 1.147723e-01 -4.147116e-02 -1.467772e-01 2.711457e-02 -1.712238e-01
<VARIANCE> 39
 9.462727e+01 5.538825e+01 4.681057e+01 9.726566e+01 4.201503e+01 2.053822e+01 2.559441e+01 4.336890e+01 6.834882e+01 3.365666e+01 2.432418e+01 1.863782e+01 9.378459e+00 8.573324e+00 4.173676e+00 7.549142e+00 8.917822e+00 1.802970e+00 2.115932e+00 3.084834e+00 2.999841e+00 5.242101e+00 2.078033e+00 1.273577e+00 1.010318e+00 8.736290e-01 1.145297e+00 6.962262e-01 9.130227e-01 1.332184e+00 4.626831e-01 4.917865e-01 5.803124e-01 5.916147e-01 1.091860e+00 4.770243e-01 3.845428e-01 2.670955e-01 1.004602e-01
<GCONST> 1.245832e+02
~s "ST_s_4_1"
<MEAN> 39
 -2.720836e+00 -7.438507e-01 3.376413e-01 6.730115e+00 3.519741e+00 -6.121377e+00 -7.114778e+00 -1.026372e+01 -1.746701e+01 -1.113126e-01 1.158338e+01 -1.393405e-02 7.446823e+01 7.408367e-01 7.320364e-01 -5.711688e-01 1.714293e-01 -2.194183e-01 -3.326493e-01 1.882093e-01 -5.029494e-02 -3.214277e-01 -2.584626e-01 4.994277e-02 3.890763e-01 -3.224675e-03 -3.790061e-01 -3.583280e-02 1.659696e-01 -1.720611e-01 -3.792859e-02 1.477803e-01 1.137110e-01 1.905797e-01 3.510086e-01 3.613023e-02 -1.408747e-01 1.607113e-02 -1.949825e-01
<VARIANCE> 39
 2.939603e+01 2.369767e+01 3.691074e+01 5.167812e+01 3.303289e+01 2.856233e+01 3.914590e+01 3.746903e+01 4.103100e+01 2.578785e+01 2.397794e+01 3.064536e+01 1.056441e+01 3.752449e+00 3.708079e+00 1.633132e+00 5.390196e+00 1.890094e+00 2.259779e+00 2.639122e+00 2.380944e+00 5.073521e+00 1.614263e+00 2.536611e+00 1.733540e+00 1.372618e+00 2.904851e-01 5.058305e-01 1.594512e-01 5.346649e-01 2.558966e-01 3.961730e-01 3.857453e-01 2.869893e-01 5.262980e-01 2.601848e-01 2.401517e-01 2.875597e-01 1.312957e-01
<GCONST> 1.122762e+02
~s "ST_s_4_2"
<MEAN> 39
 -2.298030e+01 -1.028628e+01 1.480059e+01 -4.413773e+00 6.188815e+00 1.853631e+00 -5.875414e+00 -4.035048e+00 -3.908440e+00 1.271731e+00 8.719179e+00 -3.243292e+00 7.192678e+01 7.767242e-01 6.467116e-01 -9.500529e-01 4.704944e-01 1.162685e-01 -8.441269e-02 -4.356256e-01 -4.054596e-01 -4.059815e-01 -2.679254e-01 9.741614e-03 -9.699361e-03 -2.421050e-01 6.005480e-01 4.953151e-01 -3.612111e-01 5.745733e-01 9.336668e-02 4.046803e-02 5.837376e-03 -1.132728e-01 -2.964239e-01 -1.818129e-01 -7.752164e-02 8.017047e-02 -1.188427e-01
<VARIANCE> 39
 8.687502e+01 3.759033e+01 3.692040e+01 1.103418e+02 1.834961e+01 2.730763e+01 3.891995e+01 3.696491e+01 5.208319e+01 1.869237e+01 2.163566e+01 1.321901e+01 4.962716e+00 1.051039e+01 5.056873e+00 3.270962e+00 1.157517e+01 2.519530e+00 2.667306e+00 2.462058e+00 3.192032e+00 7.031429e+00 1.711618e+00 2.070874e+00 1.277173e+00 9.352398e-01 1.591988e+00 7.068542e-01 6.347214e-01 1.581902e+00 4.196246e-01 6.360377e-01 5.084469e-01 5.998843e-01 1.408409e+00 3.621740e-01 4.275519e-01 2.121733e-01 1.737066e-01
<GCONST> 1.234655e+02
~s "ST_i_2_1"
<MEAN> 39
 -1.047570e+01 9.486478e+00 4.885765e+00 6.560865e+00 5.135458e+00 2.508041e+00 4.686955e-01 -2.121251e+00 -3.404636e+00 -2.894711e-02 3.175593e+00 2.998326e-02 6.441248e+01 -2.116076e+00 5.358409e-01 2.392696e-01 -5.350662e-01 2.011171e-01 1.648618e+00 1.567536e+00 1.745274e+00 2.986439e+00 7.636788e-01 -1.038757e+00 4.384120e-01 -1.755713e+00 -4.350993e-02 -7.203296e-01 -5.120351e-01 -2.661357e-01 -1.508644e-01 -2.251423e-01 -3.646095e-02 1.354038e-01 -7.372765e-02 1.722434e-01 4.436836e-01 1.276031e-01 1.921115e-01
<VARIANCE> 39
 1.346474e+01 1.256170e+01 1.510768e+01 1.656303e+01 1.763778e+01 1.748684e+01 1.756980e+01 1.762051e+01 3.081627e+01 2.122785e+01 1.936062e+01 1.606063e+01 6.753801e+00 2.140488e+00 1.474742e+00 2.149170e+00 2.547428e+00 1.457044e+00 1.718373e+00 2.181398e+00 1.661315e+00 3.065090e+00 1.532824e+00 1.812567e+00 8.835387e-01 1.406856e+00 2.006805e-01 1.941927e-01 1.364661e-01 1.933519e-01 1.682620e-01 2.606998e-01 2.453405e-01 2.317570e-01 4.564311e-01 2.404580e-01 2.688751e-01 1.913961e-01 1.285591e-01
<GCONST> 9.524316e+01
~s "ST_i_3_1"
<MEAN> 39
 -1.622264e+01 6.397283e+00 2.352413e+00 4.380404e+00 5.183418e+00 4.968974e+00 4.552120e+00 4.250872e+00 4.356341e+00 3.532540e+00 3.276980e+00 1.147090e+00 6.096713e+01 -1.372692e+00 -1.185730e+00 -1.275311e+00 -1.285609e+00 -9.024146e-01 -1.151514e-01 5.063557e-01 8.716716e-01 9.772550e-01 3.930953e-01 1.029958e-01 3.257721e-01 -7.372160e-01 2.688546e-01 -1.696636e-01 -1.098200e-01 -4.654700e-02 -2.784585e-01 -5.727643e-01 -5.302432e-01 -5.087777e-01 -6.984372e-01 -3.075793e-01 1.195568e-02 -2.095874e-01 2.568085e-01
<VARIANCE> 39
 9.574816e+00 1.179627e+01 1.180658e+01 1.149509e+01 1.258105e+01 1.590542e+01 1.857588e+01 1.725315e+01 1.849739e+01 1.443884e+01 1.001226e+01 1.074109e+01 2.752039e+00 7.099171e-01 6.296397e-01 8.279203e-01 1.103494e+00 1.234283e+00 1.697150e+00 2.058333e+00 1.885725e+00 2.201691e+00 1.451164e+00 1.104852e+00 1.162673e+00 3.262562e-01 1.455671e-01 1.744893e-01 1.922560e-01 2.154395e-01 2.118195e-01 3.005993e-01 3.324808e-01 2.264106e-01 3.118740e-01 2.099015e-01 2.734589e-01 1.611721e-01 9.099238e-02
<GCONST> 8.471050e+01
~s "ST_i_4_1"
<MEAN> 39
 -2.068872e+01 1.163322e+00 -3.437768e+00 -1.546381e+00 -4.547354e-01 1.106979e+00 3.402290e+00 4.269920e+00 4.481889e+00 2.316721e+00 9.032043e-01 -6.370292e-01 5.892640e+01 -5.743236e-02 -7.536086e-02 -7.074655e-02 -7.542228e-02 -8.134587e-02 -3.389490e-02 -2.145590e-02 -5.241000e-02 -3.783247e-02 -4.973200e-02 -5.443647e-02 -4.235948e-02 -2.017380e-02 4.709543e-02 4.089745e-02 6.257018e-02 6.792692e-02 6.214171e-02 3.634878e-02 5.580787e-03 -6.532797e-03 -1.648151e-02 -1.948262e-03 1.586556e-02 8.870924e-03 2.773936e-02
<VARIANCE> 39
 2.150371e+00 5.114540e+00 5.958709e+00 5.570394e+00 5.718250e+00 5.703598e+00 7.772767e+00 9.674715e+00 8.386348e+00 7.100041e+00 7.058243e+00 6.568825e+00 1.447546e+00 1.249558e-01 2.146265e-01 4.145241e-01 5.879998e-01 6.898247e-01 6.771261e-01 8.260747e-01 9.772419e-01 8.789277e-01 7.334990e-01 6.306034e-01 6.606895e-01 4.105078e-02 3.289374e-02 4.976380e-02 8.469234e-02 1.283969e-01 1.534840e-01 1.443437e-01 1.644902e-01 1.877141e-01 1.749311e-01 1.602992e-01 1.247242e-01 1.420048e-01 1.128190e-02
<GCONST> 5.284624e+01
~s "ST_i_4_2"
<MEAN> 39
 -1.834311e+01 3.163415e+00 -1.327492e+00 -1.304415e-02 1.778800e+00 3.008210e+00 3.326087e+00 3.482934e+00 3.869318e+00 2.242729e+00 1.825097e+00 6.940430e-01 6.039899e+01 -5.528495e-01 -6.111446e-01 -5.809042e-01 -8.307582e-01 -7.780662e-01 -5.609311e-01 -3.569467e-01 -1.385116e-01 2.896050e-02 -1.423185e-01 -1.313009e-01 -1.612014e-01 -2.081339e-01 3.216754e-01 5.321375e-02 2.061619e-01 5.269713e-02 2.013602e-01 -6.420967e-02 -2.009657e-01 -2.396154e-01 -4.623425e-01 -2.430139e-01 6.971925e-02 -1.195747e-01 3.191272e-01
<VARIANCE> 39
 1.467392e+01 1.675344e+01 1.350863e+01 1.104820e+01 7.886780e+00 7.694304e+00 1.392580e+01 2.016347e+01 1.832423e+01 1.255219e+01 1.057577e+01 1.054271e+01 5.728347e+00 6.418900e-01 7.242755e-01 7.678476e-01 1.131639e+00 1.435282e+00 1.430373e+00 1.221085e+00 1.291541e+00 1.756257e+00 1.420844e+00 1.010414e+00 1.018764e+00 4.806843e-01 1.510359e-01 1.826524e-01 2.297846e-01 2.645565e-01 2.232927e-01 1.851873e-01 3.371990e-01 3.550623e-01 6.731878e-01 3.864423e-01 2.049562e-01 2.023332e-01 1.821124e-01
<GCONST> 8.637624e+01
~s "ST_l_2_1"
<MEAN> 39
 -4.243621e+00 2.970240e+00 4.227654e+00 9.207908e+00 2.993902e+00 -7.781384e+00 -5.344560e+00 -4.121482e+00 -1.134142e+01 6.600241e-01 6.237917e+00 -5.753684e+00 7.213513e+01 -2.811217e-01 1.012386e+00 5.753307e-01 6.521975e-02 2.859452e-01 3.090114e-01 -8.668326e-01 -1.250052e-01 9.348780e-01 -2.290694e-01 -8.094858e-01 -4.549679e-01 -6.131299e-01 -1.426566e-01 1.416895e-01 -6.209074e-02 -2.015406e-01 -2.253081e-02 2.438485e-01 1.895782e-01 3.926113e-02 2.258054e-01 -3.753473e-02 -1.077777e-01 1.948969e-01 -1.700357e-01
<VARIANCE> 39
 1.186209e+01 1.939132e+01 2.628209e+01 7.375079e+01 5.201168e+01 2.551363e+01 5.577538e+01 2.837615e+01 6.820613e+01 3.095600e+01 2.851684e+01 2.385639e+01 1.240320e+01 4.375865e-01 1.342090e+00 1.545733e+00 2.542967e+00 1.062049e+00 2.037948e+00 1.570706e+00 1.098717e+00 2.172660e+00 1.575255e+00 1.509560e+00 1.090938e+00 5.679678e-01 9.810725e-02 2.185865e-01 1.455663e-01 2.082741e-01 2.377869e-01 2.706546e-01 3.636845e-01 2.296462e-01 4.493824e-01 3.195187e-01 2.339134e-01 1.564145e-01 1.185843e-01
<GCONST> 9.931078e+01
~s "ST_l_3_1"
<MEAN> 39
 -6.125319e+00 8.619284e+00 4.484876e+00 5.303040e+00 2.497685e+00 -2.662519e+00 -4.209844e+00 -5.672335e+00 -7.305385e+00 -3.204596e-01 3.291396e+00 -3.045805e+00 6.836419e+01 -5.575574e-01 -2.982298e-01 -4.144830e-01 -4.965887e-01 1.026790e-01 5.630423e-01 4.491465e-01 2.364177e-01 -1.481482e-04 -7.680860e-02 4.718609e-01 8.293747e-01 -2.919947e-01 5.910133e-02 -4.298371e-01 -2.257853e-01 6.597118e-02 7.565293e-03 -1.490350e-01 2.905106e-02 -6.495883e-02 -2.746513e-01 7.318483e-02 3.834671e-01 1.754125e-01 1.841870e-01
<VARIANCE> 39
 2.096114e+01 1.981454e+01 1.656468e+01 1.709311e+01 2.054309e+01 2.151422e+01 4.367460e+01 3.462228e+01 6.275802e+01 2.145779e+01 2.047631e+01 2.142793e+01 1.717132e+01 1.903625e+00 2.076614e+00 1.652403e+00 1.509609e+00 1.544062e+00 1.348866e+00 1.724802e+00 1.845592e+00 4.843005e+00 1.750584e+00 2.630685e+00 1.642707e+00 1.671347e+00 1.391623e-01 1.968115e-01 2.217662e-01 3.408201e-01 1.657289e-01 3.199883e-01 3.778350e-01 2.529984e-01 5.000757e-01 3.282122e-01 2.995748e-01 3.137726e-01 1.170588e-01
<GCONST> 1.034109e+02
~s "ST_l_4_1"
<MEAN> 39
 -3.836648e+00 7.874178e-01 -5.400154e-01 5.405906e+00 4.051538e+00 -4.786144e+00 -5.065536e+00 -7.634558e+00 -1.419367e+01 3.161711e+00 1.318577e+01 -1.263726e-01 7.261930e+01 -1.134732e-01 -3.726112e-01 -3.603597e-01 -2.298041e-02 -5.048660e-02 2.750217e-01 3.229859e-01 -7.906271e-02 1.612962e-01 4.109696e-01 4.415647e-01 1.101167e-01 -8.417273e-02 -6.142608e-02 2.053166e-01 1.135519e-01 -1.569724e-04 -1.750089e-02 1.340256e-01 8.283718e-02 7.773944e-03 2.176484e-01 -1.680437e-02 -3.099978e-01 -1.268366e-01 -1.236840e-01
<VARIANCE> 39
 2.081311e+01 1.768000e+01 6.302236e+00 2.480129e+01 2.101624e+01 1.918684e+01 3.864714e+01 3.524870e+01 5.934457e+01 3.420388e+01 3.071024e+01 1.759526e+01 1.771812e+01 3.021648e-01 1.064183e+00 8.530349e-01 1.834868e+00 8.204550e-01 1.313805e+00 1.584331e+00 8.759844e-01 1.060574e+00 1.100111e+00 1.670865e+00 9.231151e-01 3.271745e-01 8.448707e-02 1.134375e-01 1.981287e-01 3.607176e-01 1.867378e-01 2.157032e-01 3.268513e-01 2.083801e-01 4.208561e-01 2.325784e-01 2.147247e-01 2.447807e-01 6.243220e-02
<GCONST> 9.059434e+01
~s "ST_y_2_1"
<MEAN> 39
 -1.949747e+01 2.824564e+00 -1.960994e+00 -4.806001e-01 3.369656e-01 2.569584e+00 4.283865e+00 5.713571e+00 6.967457e+00 5.091732e+00 4.319941e+00 2.471980e+00 5.935508e+01 -6.419542e-01 -8.211156e-01 -9.266142e-01 -8.529984e-01 -6.055081e-01 -2.793434e-02 1.680875e-01 1.662314e-01 6.647301e-02 2.369692e-02 -1.931287e-01 -6.777395e-01 -2.997556e-01 4.277605e-01 3.275374e-01 2.113297e-01 2.221818e-01 2.405310e-02 -1.782628e-01 -1.652545e-01 -2.951360e-01 -4.902679e-01 -2.812220e-01 -2.021087e-01 -1.978439e-01 2.021349e-01
<VARIANCE> 39
 1.817920e+00 2.379068e+00 2.856960e+00 3.832204e+00 4.359240e+00 5.363328e+00 3.910442e+00 8.323765e+00 8.314502e+00 6.739420e+00 1.126688e+01 1.092006e+01 1.447546e+00 3.183111e-01 2.156473e-01 2.476413e-01 4.006728e-01 8.385860e-01 9.860693e-01 7.998984e-01 1.093568e+00 8.233407e-01 1.006954e+00 6.853660e-01 8.131382e-01 8.294842e-02 6.866658e-02 3.920518e-02 5.681980e-02 1.090428e-01 1.579481e-01 1.431590e-01 1.184860e-01 1.713467e-01 3.005652e-01 2.154594e-01 2.416265e-01 2.514257e-01 3.526473e-02
<GCONST> 5.523246e+01
~s "ST_y_3_1"
<MEAN> 39
 -2.080709e+01 1.689848e+00 -2.751794e+00 -5.203542e-01 -3.200358e-02 1.530415e+00 3.747056e+00 4.175160e+00 4.291515e+00 2.856131e+00 2.351079e+00 3.460870e-01 5.865914e+01 -1.574055e-01 -1.264458e-01 -1.148207e-01 -9.601410e-03 4.968524e-02 5.357459e-02 1.019126e-01 1.722031e-02 -9.853826e-02 -5.547698e-02 -1.198562e-02 -8.492360e-02 -6.813017e-02 6.416707e-02 6.572407e-02 9.485929e-02 1.010345e-01 1.433469e-01 7.726517e-02 9.136414e-03 8.455165e-03 -2.142301e-03 -9.710681e-03 1.962775e-02 4.218848e-02 4.715380e-02
<VARIANCE> 39
 1.059327e+00 1.699986e+00 3.298392e+00 4.088358e+00 5.195973e+00 5.903631e+00 6.044711e+00 1.023186e+01 9.425493e+00 6.276675e+00 7.514247e+00 7.751997e+00 1.447546e+00 1.386456e-01 1.973380e-01 2.678713e-01 3.100271e-01 4.955291e-01 6.452199e-01 5.946929e-01 9.339105e-01 9.313231e-01 7.065124e-01 1.198193e+00 9.574504e-01 4.599525e-02 3.832600e-02 4.664775e-02 6.896185e-02 7.088748e-02 9.318411e-02 1.338381e-01 1.261935e-01 1.752383e-01 1.856728e-01 1.699033e-01 2.539111e-01 2.201653e-01 1.550148e-02
<GCONST> 4.940349e+01
~s "ST_y_4_1"
<MEAN> 39
 -2.125384e+01 1.084619e+00 -3.181081e+00 -5.689238e-01 8.951684e-01 2.599366e+00 4.539742e+00 5.374709e+00 5.153419e+00 3.213612e+00 2.316913e+00 4.591761e-01 5.860609e+01 9.751890e-01 1.908355e-01 4.513967e-01 -2.254353e-01 3.713624e-01 -4.761544e-01 -7.433408e-01 -1.068976e+00 -1.257980e+00 -7.568107e-01 -1.713005e-01 -6.601835e-02 9.799815e-01 9.788944e-01 2.306971e-01 8.983599e-02 -1.243017e-01 -1.393888e-01 -5.646587e-01 -3.392394e-01 -5.624371e-01 -8.481139e-01 -1.708954e-01 2.890731e-01 5.232513e-02 7.351395e-01
<VARIANCE> 39
 1.497393e+00 1.921804e+00 3.351141e+00 3.533588e+00 4.417314e+00 3.445999e+00 5.282967e+00 9.930376e+00 1.040175e+01 1.077297e+01 1.293050e+01 1.056091e+01 1.447546e+00 2.205093e+00 7.033282e-01 1.026755e+00 4.561757e-01 1.148377e+00 1.718884e+00 1.499701e+00 1.778997e+00 2.407655e+00 1.494256e+00 1.856469e+00 1.098077e+00 1.468462e+00 3.264540e-01 1.135956e-01 2.021450e-01 7.456643e-02 1.556392e-01 2.561589e-01 3.099226e-01 1.457280e-01 2.695798e-01 2.710194e-01 4.286676e-01 2.791115e-01 1.645722e-01
<GCONST> 7.525962e+01
~s "ST_b_2_1"
<MEAN> 39
 -1.956718e+01 2.705312e+00 -1.774724e+00 2.309485e-01 1.531904e+00 3.236568e+00 4.770108e+00 4.746678e+00 4.810064e+00 2.942039e+00 2.508078e+00 3.101668e-01 5.927284e+01 -4.089679e-01 -4.298500e-01 -5.610617e-01 -8.172415e-01 -9.413238e-01 -6.272609e-01 -2.363829e-01 8.941673e-03 1.265193e-01 -6.360620e-02 -6.946095e-02 -4.440734e-02 -1.887348e-01 1.513558e-01 1.619640e-01 1.773775e-01 1.993199e-01 1.911469e-01 1.307977e-01 -9.801955e-03 -1.353140e-01 -1.325917e-01 -2.329801e-02 -3.709175e-02 -5.644948e-02 7.416184e-02
<VARIANCE> 39
 2.478106e+00 4.238037e+00 5.981394e+00 8.242794e+00 1.332083e+01 1.797386e+01 1.857922e+01 1.513748e+01 1.243637e+01 1.101551e+01 1.006838e+01 7.127614e+00 1.447546e+00 3.661616e-01 5.027799e-01 6.227010e-01 1.030700e+00 1.258844e+00 1.342380e+00 1.883262e+00 1.574709e+00 1.263901e+00 1.311545e+00 8.009323e-01 7.587091e-01 9.747946e-02 6.606948e-02 9.526131e-02 1.136202e-01 1.970617e-01 2.515270e-01 2.858893e-01 4.156702e-01 3.097827e-01 2.913795e-01 2.313533e-01 1.581994e-01 1.212555e-01 1.963519e-02
<GCONST> 7.163204e+01
~s "ST_b_3_1"
<MEAN> 39
 -2.078965e+01 1.607049e+00 -2.781701e+00 -7.853204e-01 -1.671711e-01 1.296092e+00 3.487447e+00 4.144695e+00 4.050799e+00 1.725415e+00 9.538438e-01 -5.399877e-01 5.873314e+01 2.134929e-03 1.148334e-03 3.476528e-02 2.866719e-02 3.383379e-02 3.701566e-03 -2.865879e-02 -2.151847e-02 -4.795916e-02 -5.459567e-02 -3.656809e-02 6.609259e-03 7.656634e-03 5.319081e-03 -4.869096e-03 -8.823310e-03 -6.851918e-03 -9.301231e-04 -1.210666e-02 -6.989395e-03 5.934090e-03 1.020634e-02 1.001466e-02 5.059019e-03 -7.967173e-03 2.109392e-03
<VARIANCE> 39
 1.348500e+00 1.826046e+00 2.978421e+00 4.185966e+00 4.583245e+00 5.457126e+00 6.442842e+00 7.512787e+00 8.094808e+00 8.853372e+00 6.329137e+00 5.796362e+00 1.447546e+00 1.187472e-01 1.220600e-01 2.243430e-01 5.055013e-01 5.506694e-01 6.016393e-01 7.855368e-01 8.552956e-01 9.101418e-01 1.040998e+00 5.828487e-01 6.026968e-01 3.743966e-02 2.325420e-02 2.181797e-02 4.409270e-02 1.044881e-01 1.119494e-01 1.174209e-01 1.744807e-01 1.820330e-01 1.732825e-01 2.196715e-01 1.190826e-01 1.326756e-01 7.189805e-03
<GCONST> 4.504736e+01
~s "ST_b_4_1"
<MEAN> 39
 -2.022636e+01 1.310858e+00 -3.397407e+00 -1.581290e+00 -8.396194e-01 6.872379e-01 2.840105e+00 3.716336e+00 3.707670e+00 1.301001e+00 8.972203e-01 -9.187202e-01 5.909826e+01 3.302471e-02 -1.001640e-01 -1.789886e-01 -6.614149e-02 5.187362e-02 8.487503e-02 2.076522e-01 2.245316e-01 2.736144e-01 3.800649e-01 -1.173006e-01 -2.296858e-01 -2.489823e-02 1.925635e-01 1.141568e-01 1.754087e-01 1.534797e-01 1.799410e-01 1.222968e-01 -6.080203e-02 -2.230855e-01 -1.995841e-01 2.727316e-02 8.115079e-02 6.818046e-02 1.502034e-01
<VARIANCE> 39
 1.772817e+00 3.137541e+00 5.935609e+00 6.956110e+00 4.607913e+00 3.269082e+00 3.554635e+00 1.279549e+01 1.027319e+01 5.922031e+00 5.637754e+00 7.747241e+00 1.447546e+00 1.787838e-01 3.362573e-01 5.660964e-01 9.801713e-01 4.180507e-01 4.374003e-01 7.878253e-01 2.019609e+00 9.654800e-01 1.083860e+00 6.377118e-01 9.038503e-01 9.998105e-02 1.276928e-01 1.485924e-01 1.380533e-01 1.897449e-01 1.584727e-01 7.212549e-02 1.792796e-01 6.463841e-01 4.628502e-01 1.493723e-01 1.328655e-01 1.359487e-01 9.366082e-02
<GCONST> 6.116771e+01
~s "ST_o_2_1"
<MEAN> 39
 -3.432714e+00 8.517111e+00 1.539377e+00 1.368920e+00 -2.270926e+00 -5.906408e+00 -2.922302e+00 -3.210039e+00 -9.536351e+00 -1.598765e+00 5.874321e+00 -2.884062e+00 6.991534e+01 -1.339435e+00 4.713923e-01 9.046758e-01 6.578849e-01 5.024411e-01 6.716627e-01 3.616689e-01 6.228233e-01 1.456986e+00 8.029816e-01 -4.725647e-01 -1.387225e-01 -1.110654e+00 -1.981338e-01 -3.599133e-01 -1.736813e-01 1.392955e-01 2.799197e-01 2.982003e-01 2.252616e-01 2.853670e-02 1.290315e-01 1.276935e-01 -3.522500e-02 8.391254e-02 -4.251766e-02
<VARIANCE> 39
 9.856411e+00 8.340568e+00 1.430011e+01 1.043362e+01 1.854171e+01 1.957024e+01 1.884860e+01 2.193357e+01 4.499213e+01 3.124111e+01 1.367207e+01 6.695925e+00 8.521493e+00 1.783887e+00 7.022325e-01 1.086491e+00 1.374839e+00 2.942228e+00 2.243965e+00 1.049034e+00 1.759221e+00 3.359283e+00 7.676610e-01 1.171123e+00 1.116566e+00 9.870698e-01 6.028752e-02 2.655261e-01 2.714607e-01 1.941401e-01 2.707593e-01 2.889257e-01 2.206181e-01 2.509775e-01 3.243360e-01 1.900458e-01 2.147043e-01 1.951885e-01 4.992177e-02
<GCONST> 8.977155e+01
~s "ST_o_3_1"
<MEAN> 39
 -1.035565e+01 7.645288e+00 4.242197e+00 7.597454e+00 5.098745e+00 1.219266e+00 -2.301091e-01 -1.392209e+00 -5.302911e-01 2.966914e+00 1.558921e+00 -4.339572e+00 6.494335e+01 -1.678046e+00 -5.961388e-01 -3.023871e-01 -5.410321e-02 6.462909e-01 1.344044e+00 1.277122e+00 1.223160e+00 1.539617e+00 3.688946e-01 -3.318803e-01 7.351685e-01 -1.088776e+00 3.679666e-02 -2.995937e-01 -3.265260e-01 -3.549806e-01 -3.802707e-01 -3.061661e-01 2.695116e-02 4.261571e-02 -2.762358e-01 7.584482e-03 3.184772e-01 1.285475e-01 1.175802e-01
<VARIANCE> 39
 1.542818e+01 6.631841e+00 7.087588e+00 1.733472e+01 1.760336e+01 1.559753e+01 2.262484e+01 2.348355e+01 4.327380e+01 2.455983e+01 9.630776e+00 2.211860e+01 1.151019e+01 1.770104e+00 1.004661e+00 9.492390e-01 1.182316e+00 1.523126e+00 1.213625e+00 1.082266e+00 1.415543e+00 2.416554e+00 1.068649e+00 1.147545e+00 1.716545e+00 7.391469e-01 1.330183e-01 2.716275e-01 2.046286e-01 1.518467e-01 3.440066e-01 3.487502e-01 3.566814e-01 2.298231e-01 4.027868e-01 1.985775e-01 1.841206e-01 2.300590e-01 1.072251e-01
<GCONST> 9.150240e+01
~s "ST_o_4_1"
<MEAN> 39
 -1.830068e+01 3.327702e+00 -1.363466e+00 6.383036e-01 1.179012e+00 2.449647e+00 4.282875e+00 5.028454e+00 4.682608e+00 3.585648e+00 3.043078e+00 9.442996e-01 6.006228e+01 -7.478205e-01 -9.751916e-01 -5.161783e-01 -7.604533e-01 -2.397239e-01 -3.934351e-01 -2.657172e-01 -9.828674e-03 -1.524981e-01 -1.932846e-01 1.188426e-02 2.191350e-02 -6.037778e-02 6.317874e-01 2.152292e-01 2.089789e-01 4.867065e-02 4.593083e-03 -3.166680e-01 -3.708540e-01 -4.845657e-01 -5.764143e-01 -3.295293e-01 -4.130367e-02 -1.631994e-01 4.903981e-01
<VARIANCE> 39
 1.585414e+01 4.042978e+00 5.540760e+00 1.023318e+01 1.110925e+01 9.680187e+00 8.545084e+00 1.443439e+01 4.099146e+01 1.563378e+01 8.300057e+00 7.772002e+00 8.635892e+00 1.581201e+00 8.776207e-01 1.297538e+00 1.328783e+00 1.475724e+00 1.560329e+00 1.540203e+00 1.842237e+00 2.186841e+00 1.675581e+00 8.981250e-01 8.502184e-01 1.508417e+00 3.893367e-01 1.677036e-01 1.664561e-01 1.839028e-01 2.322678e-01 2.701870e-01 2.128045e-01 2.042462e-01 4.472087e-01 2.459769e-01 1.606295e-01 2.350010e-01 1.781563e-01
<GCONST> 8.701430e+01
~s "ST_e_2_1"
<MEAN> 39
 -1.102267e+01 8.277370e-02 1.067452e-01 2.055955e+00 4.302022e+00 -3.329298e-01 -1.319739e+00 -6.905496e+00 -9.901961e+00 1.510564e-01 8.270045e+00 9.145975e-01 6.878248e+01 2.382801e+00 -3.258336e-01 -4.659759e-01 1.682316e+00 6.706815e-01 -1.014765e+00 -8.694711e-01 -2.300545e+00 -3.296757e+00 -3.227827e-01 1.675503e+00 2.904837e-01 1.691437e+00 6.229473e-03 1.653199e-02 1.067385e-02 1.067024e-01 -1.986417e-01 -9.694929e-02 1.719847e-01 2.833053e-01 2.193209e-01 2.429008e-01 -3.467968e-02 6.336191e-03 -7.834464e-02
<VARIANCE> 39
 4.004216e+01 1.710728e+01 3.439053e+01 5.785217e+01 1.630072e+01 2.450311e+01 2.863750e+01 5.329798e+01 7.763659e+01 2.483240e+01 2.670612e+01 1.375729e+01 3.596582e+01 6.205863e+00 4.389073e+00 3.987944e+00 8.040811e+00 1.433925e+00 3.625250e+00 2.568882e+00 3.926076e+00 7.049134e+00 2.507703e+00 2.860492e+00 1.716207e+00 3.024079e+00 6.377279e-01 4.875840e-01 4.336187e-01 9.462087e-01 3.692349e-01 4.182804e-01 2.911408e-01 5.838873e-01 8.693519e-01 2.847086e-01 4.670863e-01 2.088595e-01 3.520256e-01
<GCONST> 1.220114e+02
~s "ST_e_3_1"
<MEAN> 39
 -2.068730e+00 -2.342402e+00 -1.995101e+00 7.803437e+00 3.780099e+00 -5.906280e+00 -3.838095e+00 -1.278428e+01 -2.031279e+01 1.255558e+00 1.306154e+01 1.448311e+00 7.471492e+01 9.484990e-02 2.949570e-01 -1.266758e-01 1.376472e-01 -1.042852e-01 -1.532599e-01 3.794220e-01 3.574821e-01 5.654784e-02 2.819162e-01 -1.763308e-01 -1.890653e-01 -1.425884e-01 -5.318142e-01 2.521512e-01 2.441333e-01 -4.242681e-01 -3.279981e-02 3.655310e-01 5.997477e-02 4.822675e-01 8.200433e-01 3.222212e-02 -4.421552e-01 -1.691490e-01 -3.787052e-01
<VARIANCE> 39
 1.337372e+01 1.236467e+01 1.157411e+01 2.409164e+01 1.060827e+01 2.164787e+01 3.037474e+01 3.596914e+01 3.499298e+01 2.774538e+01 1.343529e+01 1.048548e+01 1.086116e+01 2.669628e+00 2.011502e+00 1.494574e+00 2.546765e+00 1.677347e+00 3.281380e+00 1.791594e+00 2.188085e+00 4.163397e+00 1.246024e+00 2.285777e+00 8.500379e-01 1.926339e+00 3.370881e-01 3.099278e-01 2.414744e-01 5.994074e-01 2.067013e-01 3.209809e-01 4.126200e-01 5.018028e-01 4.999839e-01 3.143521e-01 2.880066e-01 1.277604e-01 1.145135e-01
<GCONST> 1.023162e+02
~s "ST_e_4_1"
<MEAN> 39
 -1.094791e+01 4.859279e+00 1.206928e+00 5.007242e+00 4.837442e+00 2.236238e+00 1.442514e+00 -2.903006e+00 -5.406913e+00 1.169111e+00 5.563064e+00 3.889375e-01 6.550386e+01 -1.541226e+00 2.038749e-01 -6.498433e-02 -3.637166e-01 -4.603222e-02 5.927988e-01 2.964875e-01 1.460969e+00 2.578679e+00 6.013571e-01 -1.036485e+00 -4.286203e-01 -1.274431e+00 9.316880e-02 -2.957753e-01 -2.118798e-01 -1.845537e-01 -2.383492e-01 -3.128663e-01 -1.401046e-01 -1.203868e-01 -1.109274e-01 5.012031e-02 1.684899e-01 3.683384e-03 1.874723e-01
<VARIANCE> 39
 3.975723e+01 2.474707e+01 1.872809e+01 3.454116e+01 2.133135e+01 4.091536e+01 2.757922e+01 4.683193e+01 9.540018e+01 3.503565e+01 4.011618e+01 1.228244e+01 3.368989e+01 2.681459e+00 3.071146e+00 1.965603e+00 2.286306e+00 2.198752e+00 2.446928e+00 2.876275e+00 4.482548e+00 7.159466e+00 1.467608e+00 3.089901e+00 1.282519e+00 1.867401e+00 3.769104e-01 4.434882e-01 3.357109e-01 5.114082e-01 2.813558e-01 3.656927e-01 3.822198e-01 7.159743e-01 1.059244e+00 2.991222e-01 5.320069e-01 1.997038e-01 1.985316e-01
<GCONST> 1.168828e+02
~s "ST_r_2_1"
<MEAN> 39
 -6.827498e+00 1.151847e+00 -3.941149e+00 -1.519524e+00 5.286453e-01 -1.460665e+00 3.029696e+00 -5.409117e+00 -1.230653e+01 -4.836862e-01 6.959847e+00 2.542855e+00 7.033739e+01 2.073790e+00 -1.017868e-01 -4.175102e-01 2.960569e-01 -4.921005e-01 -6.087576e-01 -9.885896e-02 -8.532681e-01 -1.457144e+00 2.539690e-01 7.111905e-01 -4.223312e-02 1.427514e+00 -2.077065e-01 5.479231e-02 3.815434e-02 1.478033e-01 -1.211182e-01 -6.404459e-02 -1.150471e-01 3.474756e-01 5.708442e-01 4.894605e-02 -2.185081e-01 -2.085839e-01 -2.450737e-01
<VARIANCE> 39
 3.952299e+01 1.520658e+01 1.207076e+01 2.863971e+01 2.225408e+01 2.337149e+01 2.251271e+01 2.617706e+01 3.536628e+01 3.304330e+01 2.701576e+01 1.777575e+01 2.088557e+01 3.105893e+00 1.096720e+00 1.333759e+00 2.414737e+00 1.770847e+00 2.292683e+00 1.380177e+00 2.698688e+00 3.930679e+00 2.750981e+00 1.538726e+00 1.394409e+00 1.639970e+00 5.035359e-01 2.389224e-01 2.247055e-01 6.476629e-01 3.470774e-01 4.793518e-01 2.037568e-01 3.949296e-01 5.061533e-01 4.220043e-01 2.732533e-01 2.726125e-01 2.175872e-01
<GCONST> 1.075572e+02
~s "ST_r_3_1"
<MEAN> 39
 -1.709804e+00 2.071897e+00 -3.980500e+00 -5.197390e-01 -2.663592e+00 -4.475211e+00 1.656311e+00 -5.754853e+00 -1.243747e+01 6.414272e-01 6.696792e+00 -5.558521e-01 7.322039e+01 -7.970562e-01 1.091899e+00 1.015798e+00 4.133912e-01 1.736354e-01 6.227255e-03 -6.424392e-01 5.241157e-01 1.342749e+00 -2.904938e-01 -9.540004e-01 -5.549183e-01 -9.634063e-01 -7.858974e-01 1.731022e-01 4.155120e-01 8.519357e-02 3.751982e-01 3.631513e-01 -2.933154e-02 1.768967e-01 6.050056e-01 2.433902e-02 -8.857141e-02 1.204208e-01 -5.482199e-01
<VARIANCE> 39
 2.039598e+01 1.761543e+01 2.193984e+01 1.520764e+01 2.278975e+01 1.967878e+01 2.391262e+01 2.448509e+01 3.063094e+01 4.189203e+01 1.798197e+01 2.312891e+01 1.341434e+01 1.521514e+00 1.710699e+00 1.393139e+00 1.266706e+00 1.981567e+00 1.768743e+00 9.541495e-01 1.288868e+00 1.779286e+00 2.087304e+00 1.636823e+00 1.232184e+00 9.873134e-01 3.788149e-01 4.061490e-01 3.158015e-01 2.418412e-01 1.412475e-01 2.837869e-01 2.498404e-01 3.656424e-01 4.275025e-01 4.356352e-01 3.967746e-01 2.263408e-01 2.286684e-01
<GCONST> 1.010001e+02
~s "ST_r_4_1"
<MEAN> 39
 -1.177056e+01 4.035741e+00 -7.876372e-01 6.881223e-01 2.354894e+00 4.818519e-01 6.071060e-01 -1.679069e+00 -2.747957e+00 8.668911e-01 3.756600e+00 5.617053e-01 6.536036e+01 -7.860479e-01 -2.076241e-02 2.303714e-01 -1.639307e-02 -6.261681e-02 4.279263e-03 -1.995652e-01 5.247849e-01 7.886447e-01 -4.503568e-02 -2.145708e-01 -1.590227e-02 -5.556765e-01 9.777719e-02 -1.206453e-01 -9.536581e-02 -5.353585e-02 -1.025222e-01 -6.551538e-02 7.162394e-02 -1.084634e-02 -1.514523e-01 -1.218053e-02 3.800854e-02 1.835588e-02 1.148963e-01
<VARIANCE> 39
 5.386634e+01 1.154326e+01 1.396750e+01 1.020813e+01 2.012574e+01 2.396526e+01 2.125184e+01 3.756984e+01 6.493407e+01 3.362840e+01 1.559462e+01 1.101312e+01 2.990269e+01 4.558086e+00 1.746362e+00 1.959416e+00 1.112305e+00 1.694387e+00 2.378932e+00 1.812249e+00 3.478393e+00 4.944782e+00 1.983214e+00 1.892512e+00 1.233295e+00 2.452474e+00 6.677476e-01 2.972223e-01 2.266694e-01 2.390847e-01 2.651762e-01 3.943144e-01 3.729220e-01 5.342476e-01 4.737190e-01 3.619679e-01 2.650312e-01 2.753510e-01 2.612199e-01
<GCONST> 1.081531e+02
~s "ST_u_2_1"
<MEAN> 39
 -1.089387e+01 4.035789e+00 1.000080e+01 7.970030e+00 5.763573e+00 8.724719e-02 -3.852036e+00 -2.540574e+00 -6.343126e+00 -5.591500e+00 4.120691e+00 4.972049e-01 6.832968e+01 7.838486e-01 -4.264671e-01 3.548582e-01 6.655673e-01 3.482276e-01 -5.583822e-01 -8.932103e-01 -4.688667e-01 -7.854884e-01 -7.010453e-01 2.147354e-01 1.087726e-01 8.506249e-01 1.120037e-01 -8.075325e-02 -2.556496e-01 -6.885614e-02 6.126814e-02 -9.084776e-02 -1.455008e-01 -6.883185e-02 -1.546334e-01 -1.496238e-02 2.032742e-01 4.731842e-02 6.492151e-02
<VARIANCE> 39
 4.202407e+01 8.787945e+01 5.002218e+01 2.974954e+01 3.120135e+01 2.089984e+01 3.166299e+01 2.999693e+01 6.682421e+01 2.918171e+01 2.108083e+01 1.323829e+01 1.949662e+01 5.132088e+00 1.051170e+01 5.367676e+00 4.628293e+00 4.167315e+00 1.850033e+00 3.992815e+00 2.812194e+00 7.612183e+00 3.704615e+00 2.830531e+00 1.088922e+00 2.511138e+00 6.530809e-01 1.420141e+00 1.053784e+00 8.576965e-01 8.337258e-01 4.448214e-01 5.752934e-01 4.649197e-01 1.003224e+00 5.072088e-01 4.059067e-01 2.074249e-01 3.735110e-01
<GCONST> 1.271356e+02
~s "ST_u_3_1"
<MEAN> 39
 -4.266530e+00 -1.122090e+00 6.092870e+00 1.439036e+01 1.222547e+01 -5.813989e+00 -1.339185e+01 -3.882241e+00 -1.536324e+01 -1.106382e+01 1.011417e+01 -9.512625e-01 7.384556e+01 9.227685e-01 7.962640e-02 -1.635453e+00 -4.567885e-01 -2.084800e-01 -3.930545e-01 -2.001631e-01 -6.674107e-01 -1.266563e+00 6.868452e-03 7.631493e-01 2.444543e-01 2.251554e-01 -3.383384e-01 2.353609e-02 2.768142e-01 -3.695798e-01 -3.647813e-01 1.750797e-01 4.004610e-01 6.759636e-02 3.656766e-01 2.886221e-01 -1.997548e-01 3.138219e-02 -1.199505e-01
<VARIANCE> 39
 9.040174e+00 1.868804e+01 3.449726e+01 2.946101e+01 2.494225e+01 1.692332e+01 1.240365e+01 4.243421e+01 1.766257e+01 2.007164e+01 8.587914e+00 1.835958e+01 4.009496e+00 6.649078e-01 4.048223e-01 1.478954e+00 2.073077e+00 1.677090e+00 1.309376e+00 1.727692e+00 2.818982e+00 1.564306e+00 1.835068e+00 1.660239e+00 1.844100e+00 2.251403e-01 1.824752e-01 2.343501e-01 2.214139e-01 2.053534e-01 1.945285e-01 1.555908e-01 2.795753e-01 5.515672e-01 4.106946e-01 2.823401e-01 3.156027e-01 3.340869e-01 8.294655e-02
<GCONST> 9.271826e+01
~s "ST_u_4_1"
<MEAN> 39
 -1.685944e+00 8.323259e-01 4.639002e-01 6.460461e+00 5.163205e+00 -4.990894e+00 -9.868134e+00 -9.373043e+00 -1.903157e+01 -8.016217e+00 1.232516e+01 3.379113e+00 7.412794e+01 -3.987193e-01 6.355722e-01 1.466381e-01 -6.391263e-01 -7.155570e-01 3.877541e-01 1.054773e+00 3.521927e-01 4.532030e-01 9.041010e-01 1.373544e-01 4.304679e-02 -5.151715e-01 -2.489513e-01 2.086704e-01 2.161311e-01 1.332057e-01 1.726861e-01 2.372269e-01 1.635888e-01 2.055401e-01 4.781835e-01 2.170432e-01 -2.428687e-01 -1.984621e-01 -2.434606e-01
<VARIANCE> 39
 3.165500e+00 2.267830e+01 1.085266e+01 1.208172e+01 1.911477e+01 1.053578e+01 2.156541e+01 2.068215e+01 1.818433e+01 2.758633e+01 1.485091e+01 1.830457e+01 6.910858e+00 5.354198e-01 1.881643e+00 1.196959e+00 1.262835e+00 9.477983e-01 2.046829e+00 1.475624e+00 1.671130e+00 1.994137e+00 1.534443e+00 1.448106e+00 1.008488e+00 9.140148e-01 7.333464e-02 2.653008e-01 1.876208e-01 2.278920e-01 1.608452e-01 3.255960e-01 2.193444e-01 3.823359e-01 2.760924e-01 2.553783e-01 1.919733e-01 1.437871e-01 1.181472e-01
<GCONST> 8.848436e+01
~s "ST_k_2_1"
<MEAN> 39
 -1.290283e+01 6.120099e-01 -2.404699e+00 -3.340936e+00 -9.563727e-01 -2.645645e-01 1.592072e+00 -2.869224e-01 -3.720280e+00 1.929160e+00 5.559489e+00 1.713401e-01 6.627185e+01 1.026876e+00 -5.231989e-02 -2.632526e-02 -1.295225e-01 -3.465672e-01 -3.441735e-01 -1.906902e-01 -3.871910e-01 -8.148335e-01 -1.054478e-01 4.091347e-01 2.061735e-02 8.079344e-01 5.938736e-02 6.611058e-03 -6.039727e-02 5.186988e-02 -3.746985e-02 -1.756206e-02 3.130616e-02 3.036645e-02 3.677130e-02 5.557200e-02 5.832918e-03 -3.340544e-02 3.344473e-03
<VARIANCE> 39
 8.734237e+01 1.890168e+01 1.448860e+01 2.986908e+01 2.106679e+01 1.878619e+01 1.906460e+01 3.756133e+01 9.210130e+01 2.418783e+01 3.018433e+01 1.315291e+01 6.055702e+01 5.718962e+00 1.983253e+00 1.682969e+00 3.981210e+00 1.924771e+00 1.917116e+00 1.857384e+00 2.985765e+00 6.355620e+00 1.841539e+00 2.445181e+00 1.723615e+00 3.987039e+00 6.893679e-01 3.898170e-01 3.317335e-01 7.658739e-01 3.248047e-01 3.316660e-01 3.447069e-01 5.456136e-01 9.425973e-01 3.367663e-01 3.977524e-01 3.748954e-01 4.932933e-01
<GCONST> 1.177978e+02
~s "ST_k_3_1"
<MEAN> 39
 -3.763144e-01 -8.751944e-02 -4.723959e+00 -2.722308e+00 -5.500402e+00 -4.472851e+00 9.542787e-01 -6.136289e+00 -1.205846e+01 2.772336e+00 1.095543e+01 1.022012e+00 7.511356e+01 -1.106102e-01 2.203150e-01 -1.468584e-01 3.282087e-02 4.122340e-02 7.148905e-02 6.213655e-01 -7.927795e-02 2.129406e-01 5.988609e-01 -7.955052e-02 -4.476396e-02 -2.339790e-01 -2.579764e-01 1.984943e-01 2.377484e-01 7.598774e-02 2.816908e-01 6.578608e-02 -8.529188e-02 9.327332e-02 8.182712e-02 -9.576678e-04 -9.570157e-02 -1.102773e-01 -1.996873e-01
<VARIANCE> 39
 1.176764e+01 1.769120e+01 1.193578e+01 1.810044e+01 1.862296e+01 2.290436e+01 2.290362e+01 3.240590e+01 3.242774e+01 1.563680e+01 1.509942e+01 1.033041e+01 1.049395e+01 1.767855e-01 5.186397e-01 5.658888e-01 9.479195e-01 1.102772e+00 1.273102e+00 8.095686e-01 1.365206e+00 1.128605e+00 7.486287e-01 7.646962e-01 7.340874e-01 1.478750e-01 1.057226e-01 1.254735e-01 1.257779e-01 1.947445e-01 1.728340e-01 1.878305e-01 2.109869e-01 2.627106e-01 2.427020e-01 1.015741e-01 1.325549e-01 1.091849e-01 4.996303e-02
<GCONST> 7.816839e+01
~s "ST_k_4_1"
<MEAN> 39
 -3.192750e+00 2.406519e+00 -3.009931e+00 -3.493006e-01 -7.176907e-01 -1.851056e+00 2.143058e+00 -5.721755e+00 -1.118344e+01 5.538328e+00 1.044881e+01 -7.484167e-01 7.218530e+01 -8.378620e-01 1.183237e+00 8.683697e-01 7.728822e-01 1.008926e+00 4.591221e-01 -7.616281e-01 5.615314e-01 1.615132e+00 5.367132e-02 -9.475828e-01 -5.098069e-01 -1.060277e+00 -1.484631e-01 1.753184e-01 2.350344e-01 2.580346e-01 1.095129e-01 4.150211e-02 -3.061860e-01 9.872551e-02 5.408319e-01 -1.833825e-01 -3.320747e-01 7.089444e-02 -1.921639e-01
<VARIANCE> 39
 1.406706e+01 1.245171e+01 1.012864e+01 1.531423e+01 1.507574e+01 1.996461e+01 1.450332e+01 1.868971e+01 3.128739e+01 1.401919e+01 1.512782e+01 7.124969e+00 1.285884e+01 2.669564e-01 1.031798e+00 9.244995e-01 1.569169e+00 1.274450e+00 1.142912e+00 2.278101e+00 1.011217e+00 1.879195e+00 9.861760e-01 1.596989e+00 9.466161e-01 3.473102e-01 4.108374e-02 1.707404e-01 1.386631e-01 1.814016e-01 1.572199e-01 2.061104e-01 2.741242e-01 1.993024e-01 2.476655e-01 1.527056e-01 2.816871e-01 1.229615e-01 4.892449e-02
<GCONST> 8.214587e+01
~s "ST_a_2_1"
<MEAN> 39
 -9.839920e+00 2.118648e-01 1.427682e+00 3.188370e+00 2.020106e+00 -2.099441e+00 -2.551408e+00 -3.720855e+00 -7.041229e+00 4.190751e-01 6.377160e+00 -1.389205e+00 6.884772e+01 8.402858e-01 3.578234e-01 7.562472e-02 4.954972e-01 1.346540e-01 -4.838124e-01 -3.707494e-01 -5.024687e-01 -4.810602e-01 -1.507332e-01 4.601421e-02 -1.400286e-02 4.839602e-01 -1.091701e-01 -7.407779e-03 -1.327710e-01 -1.442686e-01 -1.024912e-01 8.176246e-02 2.028997e-01 9.936588e-02 1.627382e-01 1.520261e-01 2.013647e-03 5.782696e-02 -9.995440e-02
<VARIANCE> 39
 7.907204e+01 6.163714e+01 3.735741e+01 4.049230e+01 2.719428e+01 2.661853e+01 3.585120e+01 3.567997e+01 5.860443e+01 2.554467e+01 2.381806e+01 2.256903e+01 1.978086e+01 4.772182e+00 3.807183e+00 2.930012e+00 2.386535e+00 1.258996e+00 2.166198e+00 3.120281e+00 2.776642e+00 6.106358e+00 1.669470e+00 3.462531e+00 1.609843e+00 2.229830e+00 5.662192e-01 7.053784e-01 4.509929e-01 4.700170e-01 1.932930e-01 3.471440e-01 4.149714e-01 4.126466e-01 8.431177e-01 2.703913e-01 5.415755e-01 2.518566e-01 2.243785e-01
<GCONST> 1.187605e+02
~s "ST_a_2_2"
<MEAN> 39
 -6.869343e+00 5.207127e+00 3.685263e+00 3.893497e+00 3.317090e+00 -6.579361e+00 -6.316534e+00 -2.902181e+00 -8.725313e+00 -1.253155e+00 6.528214e+00 -2.472365e+00 6.993355e+01 2.576932e+00 1.796299e-01 -1.255230e-01 -5.910038e-04 -5.941558e-01 -1.156379e+00 -9.369637e-01 -2.762396e-01 -1.699446e+00 -2.124804e-01 1.105464e+00 -1.794682e-01 1.776606e+00 -3.676647e-01 -3.153074e-01 -3.696376e-01 -1.969487e-03 -1.473881e-01 3.541939e-01 3.803320e-01 2.525744e-01 3.206824e-01 1.423254e-01 6.279934e-03 6.267305e-02 -3.316681e-01
<VARIANCE> 39
 3.259994e+01 3.101935e+01 2.475812e+01 1.022313e+02 4.041104e+01 3.838063e+01 2.910524e+01 2.504738e+01 3.463976e+01 1.563910e+01 2.554576e+01 1.200477e+01 2.124566e+01 5.078530e+00 2.843561e+00 2.296241e+00 3.802622e+00 3.052072e+00 4.173289e+00 3.155300e+00 2.299526e+00 3.428821e+00 1.511865e+00 2.115446e+00 1.122369e+00 3.041048e+00 6.391003e-01 3.743234e-01 2.546128e-01 4.634213e-01 4.283344e-01 5.688528e-01 5.215299e-01 4.092556e-01 3.695024e-01 2.052388e-01 3.073024e-01 1.953517e-01 3.180538e-01
<GCONST> 1.153720e+02
~s "ST_a_2_3"
<MEAN> 39
 -9.815044e+00 1.924577e+00 -4.037250e+00 -2.442983e+00 -1.182597e+00 -2.614219e+00 3.920776e+00 6.497404e-01 -3.011410e+00 4.607690e+00 4.198730e+00 -9.946670e-01 6.778621e+01 3.014157e-01 2.916180e-01 1.426800e-01 1.314267e-01 -8.022510e-02 -2.500032e-01 -2.795313e-01 1.092548e-01 1.239466e-01 -1.973911e-02 1.145604e-01 8.780994e-02 8.066341e-02 -1.249861e-01 -1.494972e-01 -1.013740e-01 -1.261781e-02 -2.730196e-02 8.516473e-02 1.184178e-01 1.106578e-01 6.907240e-02 4.917787e-02 4.702162e-02 4.871691e-02 -7.028209e-02
<VARIANCE> 39
 7.783183e+01 2.966893e+01 2.067945e+01 1.708210e+01 2.145672e+01 3.090699e+01 3.802097e+01 2.300735e+01 4.784853e+01 2.247011e+01 1.636901e+01 1.091339e+01 5.043370e+01 7.919630e+00 2.947325e+00 2.007836e+00 1.326148e+00 2.086926e+00 3.258744e+00 3.295902e+00 2.595528e+00 5.932651e+00 1.798791e+00 2.061688e+00 1.261209e+00 5.499624e+00 7.012807e-01 5.403898e-01 3.496727e-01 2.290366e-01 3.554318e-01 4.904843e-01 5.287641e-01 4.321455e-01 5.824735e-01 3.253960e-01 3.199295e-01 2.369451e-01 5.047532e-01
<GCONST> 1.162228e+02
~s "ST_a_3_1"
<MEAN> 39
 -1.889351e+00 6.703687e-01 -2.780254e+00 -6.558976e-01 -5.922307e-01 -6.423944e+00 -5.380224e+00 -1.597973e+00 -1.124438e+01 -4.340106e-01 1.240493e+01 -3.084304e-01 7.413514e+01 -8.616565e-02 -1.184132e-01 -2.337798e-01 7.275539e-02 -8.675346e-02 5.146011e-01 6.953607e-01 -2.505620e-01 8.959347e-03 2.914432e-01 3.070705e-02 1.836009e-01 -1.305405e-01 -2.250341e-01 1.432957e-01 1.557452e-01 4.724059e-02 1.486975e-01 1.200106e-01 1.133122e-01 -2.236622e-02 1.719667e-01 6.492986e-02 -1.851099e-01 -2.279271e-02 -1.784812e-01
<VARIANCE> 39
 2.606303e+01 1.638605e+01 1.509583e+01 4.330499e+01 5.433248e+01 2.024090e+01 4.038504e+01 3.083239e+01 3.593811e+01 1.512438e+01 3.140438e+01 1.027051e+01 1.849049e+01 1.836897e-01 8.375542e-01 4.550539e-01 8.910369e-01 8.453829e-01 1.029069e+00 1.282037e+00 9.352613e-01 1.196325e+00 9.109481e-01 1.100812e+00 6.638517e-01 2.517511e-01 1.527667e-01 1.516150e-01 1.404186e-01 1.345391e-01 1.704554e-01 1.925903e-01 1.915367e-01 1.912581e-01 2.053088e-01 1.612754e-01 1.560750e-01 1.203944e-01 5.531085e-02
<GCONST> 8.426439e+01
~s "ST_a_3_2"
<MEAN> 39
 -1.019398e+01 6.665917e+00 2.682767e+00 6.307315e+00 4.380113e+00 -2.195211e-03 -2.077913e-02 4.176327e-01 1.179594e+00 3.825908e+00 3.620661e+00 -1.098166e+00 6.544552e+01 -5.894791e-01 -3.702102e-01 -2.244128e-01 -3.353617e-01 -5.939914e-02 5.296739e-01 8.530185e-01 6.089187e-01 2.548958e-01 2.620467e-02 5.817616e-02 1.926525e-01 -2.905597e-01 -8.357512e-02 -1.309229e-01 -1.160493e-01 -1.664254e-01 -1.227504e-01 -3.160014e-02 -4.215191e-02 -5.902992e-02 -2.031163e-02 -2.520152e-02 -4.886003e-02 -2.258297e-02 -2.267226e-02
<VARIANCE> 39
 3.054905e+01 1.809486e+01 2.168647e+01 2.842462e+01 2.635780e+01 3.279097e+01 3.595762e+01 3.857834e+01 6.735677e+01 2.305963e+01 1.482323e+01 1.257981e+01 2.429107e+01 9.530239e-01 1.106015e+00 9.475325e-01 1.012761e+00 9.682491e-01 1.317234e+00 1.410792e+00 1.499542e+00 1.629441e+00 8.227544e-01 7.249810e-01 9.102635e-01 6.318974e-01 1.868832e-01 1.401609e-01 1.466819e-01 1.433769e-01 2.175245e-01 3.854791e-01 3.087457e-01 3.084057e-01 3.290267e-01 1.687219e-01 1.408098e-01 1.676420e-01 9.026586e-02
<GCONST> 9.322537e+01
~s "ST_a_3_3"
<MEAN> 39
 -9.831260e+00 8.901099e+00 4.463126e+00 8.426181e+00 5.827029e+00 1.707050e-02 -2.720024e+00 -9.033126e-01 3.238081e+00 4.873621e+00 1.515402e+00 -2.330736e+00 6.476185e+01 -9.629529e-01 -1.223698e-01 7.435691e-02 7.081760e-02 3.364803e-01 8.370085e-01 1.113262e+00 1.147841e+00 9.444871e-01 9.040684e-02 -3.580910e-02 3.341483e-01 -6.693782e-01 -2.816377e-02 -2.354563e-01 -2.554011e-01 -2.555152e-01 -1.400310e-01 2.598154e-02 1.925190e-01 4.072889e-02 -1.650318e-01 3.683514e-03 1.396979e-01 2.947305e-02 5.466765e-02
<VARIANCE> 39
 9.381847e+00 5.036261e+00 5.384268e+00 1.416126e+01 1.345747e+01 2.054500e+01 3.937064e+01 2.266533e+01 1.077689e+01 8.148369e+00 7.382808e+00 1.567665e+01 5.223955e+00 4.209574e-01 6.083489e-01 5.663242e-01 7.501994e-01 4.539587e-01 1.193671e+00 1.554812e+00 1.238563e+00 1.093994e+00 5.392597e-01 6.250239e-01 5.604063e-01 1.852396e-01 6.023073e-02 1.369324e-01 1.199414e-01 1.047412e-01 1.245402e-01 2.678514e-01 2.915799e-01 1.662625e-01 2.339824e-01 1.115394e-01 1.913886e-01 1.459800e-01 4.563649e-02
<GCONST> 7.181129e+01
~s "ST_a_4_1"
<MEAN> 39
 -6.952790e+00 4.070428e+00 -2.378137e+00 1.479082e+00 1.849643e+00 1.432344e+00 3.380829e+00 -1.179577e-02 -3.873767e+00 3.940876e+00 8.518480e+00 1.270045e+00 6.814997e+01 -1.009697e+00 2.352751e-01 2.291653e-01 1.767837e-01 4.417365e-01 7.533238e-01 4.666001e-01 3.707337e-01 9.988797e-01 2.250769e-01 -5.356385e-01 8.730172e-02 -8.383608e-01 -4.286684e-02 -6.078837e-02 -1.113029e-02 -6.037131e-02 -7.044338e-02 -1.064452e-01 -1.047349e-01 -1.308712e-02 -3.733444e-02 -8.678424e-02 -3.538312e-02 -3.709420e-02 -1.185071e-03
<VARIANCE> 39
 4.183034e+01 1.549993e+01 1.335796e+01 1.256328e+01 2.538111e+01 3.858890e+01 2.253555e+01 2.450104e+01 5.273943e+01 1.015221e+01 1.418791e+01 7.998861e+00 2.951842e+01 3.927052e-01 1.139089e+00 8.672219e-01 9.330382e-01 1.239474e+00 1.356547e+00 8.727430e-01 1.356937e+00 1.834969e+00 6.503751e-01 9.861614e-01 6.033944e-01 2.738035e-01 5.281859e-02 1.697600e-01 1.425384e-01 1.438370e-01 1.624345e-01 2.060097e-01 1.803480e-01 2.618464e-01 2.776106e-01 1.015481e-01 1.408693e-01 1.087334e-01 3.708418e-02
<GCONST> 8.281619e+01
~s "ST_a_4_2"
<MEAN> 39
 -1.399235e+01 2.058805e+00 -2.658078e+00 -6.798982e-01 -2.064297e-01 6.482699e-02 2.835148e+00 1.828328e+00 -1.126418e+00 7.772290e-01 3.148192e+00 -4.429799e-01 6.400944e+01 -2.644525e-02 -1.068946e-01 -2.138513e-02 -1.807315e-01 -2.142726e-01 -1.342404e-02 1.481777e-02 -1.617446e-01 -3.076648e-01 -1.784422e-01 -6.505070e-02 -7.937338e-02 2.661853e-02 1.773019e-02 9.840431e-02 1.059527e-01 1.355908e-01 1.092944e-01 5.477513e-02 -3.758131e-02 -3.566404e-02 2.801400e-02 2.464911e-02 2.273721e-02 5.947057e-02 -2.300204e-02
<VARIANCE> 39
 7.140035e+01 1.129923e+01 1.449338e+01 1.611472e+01 1.806694e+01 2.139742e+01 1.989116e+01 3.460284e+01 7.799873e+01 1.866612e+01 2.513525e+01 1.322834e+01 4.663057e+01 5.102639e-01 6.522980e-01 7.724639e-01 8.813388e-01 8.171136e-01 1.073864e+00 1.133401e+00 1.252952e+00 1.476147e+00 1.086379e+00 9.267911e-01 9.306431e-01 3.669006e-01 1.217773e-01 1.332595e-01 1.296823e-01 1.149675e-01 1.498069e-01 2.139471e-01 2.187359e-01 2.421588e-01 2.561139e-01 2.200463e-01 2.234244e-01 2.151517e-01 5.897937e-02
<GCONST> 8.785768e+01
~s "ST_a_4_3"
<MEAN> 39
 -2.048283e+01 1.896880e+00 -2.696483e+00 -7.202135e-01 -1.117008e-01 1.640475e+00 4.072165e+00 4.928431e+00 4.520038e+00 2.130347e+00 6.790021e-01 -6.274783e-01 5.876925e+01 -1.330207e-01 -1.552150e-01 -1.981006e-01 -2.756417e-01 -2.848447e-01 -1.751599e-01 -1.053604e-01 -1.003227e-01 -1.799231e-01 -1.600983e-01 -1.000845e-01 -3.871505e-02 -4.798195e-02 9.776524e-02 1.097917e-01 1.483829e-01 1.652643e-01 1.401216e-01 8.484450e-02 2.339425e-02 3.845741e-02 4.452673e-02 -1.625243e-03 1.227634e-02 3.549817e-05 4.944296e-02
<VARIANCE> 39
 1.373028e+00 1.738192e+00 3.620680e+00 5.680468e+00 5.081944e+00 6.536750e+00 8.446916e+00 6.850730e+00 1.031001e+01 7.954851e+00 7.225173e+00 9.026924e+00 1.447546e+00 1.914926e-01 2.645028e-01 5.147080e-01 8.702546e-01 9.008468e-01 1.122842e+00 9.917591e-01 9.318061e-01 1.400226e+00 9.251904e-01 5.780720e-01 7.862754e-01 6.665418e-02 4.871504e-02 6.813978e-02 9.876537e-02 1.527452e-01 1.260999e-01 1.851078e-01 2.028629e-01 1.830100e-01 2.670496e-01 1.899648e-01 1.081149e-01 1.545402e-01 1.569084e-02
<GCONST> 5.681467e+01
~s "ST_a_4_4"
<MEAN> 39
 -1.779264e+01 4.180724e+00 -3.653753e-01 2.764584e+00 3.890636e+00 4.837493e+00 6.115467e+00 6.165256e+00 6.621306e+00 4.460942e+00 2.939299e+00 1.118187e+00 6.019976e+01 -1.112121e+00 -9.742479e-01 -1.036088e+00 -1.226805e+00 -1.147409e+00 -8.031306e-01 -2.907296e-01 -1.853046e-02 3.561363e-03 -3.982766e-01 -3.927606e-01 -1.623690e-01 -5.743985e-01 2.284381e-01 1.201308e-01 9.434652e-02 7.468026e-03 -1.241697e-01 -2.936416e-01 -4.393522e-01 -4.988813e-01 -3.859844e-01 -1.287145e-01 -8.439718e-02 -1.647387e-01 1.351598e-01
<VARIANCE> 39
 4.658842e+00 6.543766e+00 9.925176e+00 1.552148e+01 1.425410e+01 1.130087e+01 1.369914e+01 1.500912e+01 2.013296e+01 1.148243e+01 8.202953e+00 8.065003e+00 1.551427e+00 2.933943e-01 6.859520e-01 6.959425e-01 9.476819e-01 8.090936e-01 1.230828e+00 1.844240e+00 1.872622e+00 2.369457e+00 1.137615e+00 1.070769e+00 1.053403e+00 2.266044e-01 4.899092e-02 9.537126e-02 1.028235e-01 1.757262e-01 2.256670e-01 3.192424e-01 2.769920e-01 3.368647e-01 2.922809e-01 1.850488e-01 1.416444e-01 1.840431e-01 2.595775e-02
<GCONST> 7.485989e+01
~s "ST_n_2_1"
<MEAN> 39
 -7.286294e+00 5.279476e+00 3.761583e+00 6.227037e+00 5.585919e+00 -1.502831e+00 -4.006315e+00 -3.809006e+00 -8.280758e+00 -3.316514e+00 4.516849e+00 -1.254796e+00 6.902788e+01 6.932064e-01 -7.123408e-01 3.348190e-02 1.094312e+00 1.381699e+00 -6.796401e-01 -1.555694e+00 -3.723853e-01 -8.132715e-01 -3.118005e-01 7.978769e-01 -3.935257e-02 8.383437e-01 -6.641401e-02 2.264197e-01 5.262955e-02 9.687147e-02 -4.388588e-02 -1.222983e-01 -1.128576e-01 4.691787e-02 1.360159e-01 1.483338e-01 3.099056e-02 2.235836e-02 -2.006671e-01
<VARIANCE> 39
 2.764884e+01 4.042039e+01 3.760404e+01 4.543196e+01 5.767826e+01 2.171124e+01 5.933831e+01 3.267022e+01 5.800742e+01 3.899274e+01 1.997344e+01 2.034967e+01 2.371909e+01 1.531368e+00 5.263292e+00 2.165960e+00 2.071225e+00 3.185166e+00 2.735091e+00 3.694335e+00 2.982526e+00 6.133243e+00 2.233374e+00 2.706004e+00 2.189867e+00 1.417382e+00 2.756234e-01 9.992262e-01 4.419933e-01 5.771961e-01 8.193974e-01 4.960070e-01 8.922440e-01 5.319635e-01 9.329008e-01 5.044857e-01 4.067005e-01 3.464015e-01 2.692977e-01
<GCONST> 1.223106e+02
~s "ST_n_3_1"
<MEAN> 39
 -5.851890e+00 8.392762e+00 6.158600e+00 7.305216e+00 5.970807e+00 -3.927534e+00 -9.685594e+00 -4.913245e+00 -7.161356e+00 -2.668455e+00 5.439543e+00 -2.414986e+00 6.892432e+01 2.460440e-02 3.044385e-01 -1.572035e-01 -6.779259e-01 -6.403106e-01 2.166669e-01 4.987016e-01 1.024473e-01 3.569978e-01 1.958467e-01 -2.297647e-01 -5.574249e-02 -1.109254e-01 1.079755e-02 -1.465287e-01 -1.448586e-01 -9.547148e-02 -4.453058e-02 4.250073e-02 2.306151e-01 1.006214e-01 -1.366500e-01 -5.407315e-02 7.302435e-02 2.741449e-02 6.829441e-02
<VARIANCE> 39
 1.246446e+01 3.179068e+01 2.543594e+01 3.717934e+01 4.105033e+01 3.171233e+01 5.235949e+01 1.627081e+01 4.202964e+01 2.012601e+01 2.577923e+01 1.802799e+01 1.374330e+01 6.923845e-01 3.200333e+00 1.776185e+00 2.655726e+00 1.994413e+00 2.728055e+00 3.098670e+00 1.601062e+00 5.281988e+00 2.130862e+00 3.652462e+00 1.606042e+00 1.120137e+00 7.939795e-02 4.995525e-01 2.324745e-01 4.866497e-01 4.554719e-01 4.642461e-01 5.777029e-01 3.023255e-01 8.973079e-01 3.168293e-01 6.664119e-01 2.939200e-01 1.128225e-01
<GCONST> 1.101033e+02
~s "ST_n_4_1"
<MEAN> 39
 -3.555897e+00 4.431859e+00 -1.532432e+00 1.036438e+00 1.411202e+00 -2.180692e+00 -2.120249e+00 -5.692341e+00 -9.874884e+00 2.625466e-02 8.599827e+00 8.123146e-01 7.147157e+01 -6.255197e-03 -2.067335e-01 -3.546762e-01 1.234482e-01 1.825382e-01 1.917325e-02 3.409225e-01 4.755694e-02 7.105403e-03 2.484796e-01 9.388277e-02 7.437716e-02 1.312080e-02 -1.444128e-01 7.572736e-02 1.867282e-01 9.825880e-02 2.679439e-02 1.729622e-02 2.388681e-02 9.140364e-03 1.531338e-01 4.010595e-02 -1.315372e-01 -4.008831e-02 -8.650497e-02
<VARIANCE> 39
 2.351859e+01 2.459682e+01 2.723965e+01 2.507456e+01 3.342068e+01 1.476837e+01 2.351129e+01 3.047825e+01 4.696680e+01 2.734706e+01 3.982409e+01 1.873589e+01 2.062485e+01 7.232867e-01 1.494054e+00 1.832618e+00 7.929876e-01 6.196937e-01 8.962733e-01 1.718049e+00 1.493976e+00 2.381039e+00 1.160095e+00 2.222097e+00 1.380702e+00 6.554561e-01 3.907278e-02 2.784201e-01 1.664980e-01 1.894644e-01 1.719768e-01 2.051463e-01 3.091469e-01 2.807511e-01 5.570435e-01 2.589903e-01 4.020149e-01 1.841442e-01 7.018602e-02
<GCONST> 9.569843e+01
~s "ST_d_2_1"
<MEAN> 39
 -1.068837e+01 7.296105e+00 6.108072e+00 7.467038e+00 5.980101e+00 1.236692e+00 -1.669495e+00 -3.893974e+00 -4.681812e+00 -7.490318e-01 3.658073e+00 -6.897472e-01 6.583122e+01 1.361370e+00 -4.555359e-01 4.649088e-01 9.216781e-01 1.011785e+00 -5.347730e-01 -1.495164e+00 -1.171350e+00 -1.811148e+00 -1.029488e+00 6.485369e-01 -2.832727e-01 1.370503e+00 2.703193e-02 -6.269816e-02 -2.137102e-01 -3.603231e-02 5.292830e-03 -1.546286e-01 -1.445774e-01 2.109121e-01 -1.030866e-01 -2.228459e-01 4.535989e-02 3.638054e-02 -2.349864e-02
<VARIANCE> 39
 3.690055e+01 4.367872e+01 3.138561e+01 3.532067e+01 2.303073e+01 1.847352e+01 5.025080e+01 5.640636e+01 7.959100e+01 2.275734e+01 1.903870e+01 1.512424e+01 3.124696e+01 2.290110e+00 6.287592e+00 4.135235e+00 2.421733e+00 1.634532e+00 2.843075e+00 4.638573e+00 4.575856e+00 6.108280e+00 2.837507e+00 1.705764e+00 1.691528e+00 1.703938e+00 3.875540e-01 1.013555e+00 5.536013e-01 3.752593e-01 2.605555e-01 4.033538e-01 8.134008e-01 1.189896e+00 1.189808e+00 4.085930e-01 3.270127e-01 2.618812e-01 3.699864e-01
<GCONST> 1.217256e+02
~s "ST_d_2_2"
<MEAN> 39
 -5.059383e+00 5.147267e+00 1.258716e+00 3.376252e+00 4.736175e+00 -1.943381e+00 -2.948421e+00 -5.011106e+00 -1.088027e+01 -6.193654e+00 3.385633e+00 9.830796e-01 7.062530e+01 5.056152e-01 1.578710e-01 4.178083e-01 6.572478e-01 3.648821e-01 -7.736245e-02 -3.451546e-01 -3.625216e-01 -5.667410e-01 -2.407970e-01 9.645567e-02 -1.606290e-01 3.298388e-01 -1.121901e-01 -6.137715e-02 -1.321332e-02 1.226535e-01 3.878549e-02 -5.118677e-04 -1.321742e-02 8.214549e-02 2.726264e-02 4.005313e-02 3.179354e-02 -3.711713e-02 -1.017656e-01
<VARIANCE> 39
 3.485004e+01 4.020544e+01 3.932318e+01 2.554146e+01 1.325593e+01 1.770127e+01 2.134050e+01 2.328559e+01 5.587543e+01 2.922768e+01 1.766262e+01 1.032043e+01 2.263073e+01 4.221869e+00 4.159088e+00 2.039901e+00 1.859386e+00 1.876531e+00 2.127429e+00 2.753300e+00 1.613159e+00 4.797935e+00 2.855576e+00 1.663258e+00 1.111538e+00 2.624779e+00 5.906780e-01 6.599062e-01 3.606139e-01 3.820225e-01 3.267959e-01 4.104137e-01 4.384063e-01 2.697454e-01 6.630399e-01 4.594588e-01 3.065593e-01 1.761118e-01 3.433803e-01
<GCONST> 1.122503e+02
~s "ST_d_3_1"
<MEAN> 39
 -3.455145e+00 4.539717e+00 3.108597e+00 5.667663e+00 6.025906e+00 -4.694361e+00 -8.799819e+00 -3.899540e+00 -1.058417e+01 -1.532678e+00 8.028159e+00 -2.984976e+00 7.217428e+01 -2.890662e-02 6.496128e-02 -2.260762e-01 -2.845615e-01 -2.055026e-01 1.674026e-01 3.274826e-01 1.137282e-01 9.244040e-02 1.572413e-01 7.796160e-02 1.649104e-01 -1.064743e-01 -6.743919e-02 5.409418e-02 4.268165e-02 -3.481891e-02 -2.340489e-02 8.858428e-02 7.955377e-02 8.056015e-03 1.148261e-01 8.475939e-02 -5.257048e-02 1.243725e-02 -5.859927e-02
<VARIANCE> 39
 6.600246e+00 2.818421e+01 2.810853e+01 3.701238e+01 3.278317e+01 1.838120e+01 3.243092e+01 3.059888e+01 3.843483e+01 3.732690e+01 4.152313e+01 2.174438e+01 1.071996e+01 5.297617e-01 1.893703e+00 1.406719e+00 2.280964e+00 1.406367e+00 1.934296e+00 1.814106e+00 1.903725e+00 3.591660e+00 1.398537e+00 3.359355e+00 1.399145e+00 8.743418e-01 6.477607e-02 2.483686e-01 2.195048e-01 3.765238e-01 2.541017e-01 3.392908e-01 3.455763e-01 3.370037e-01 5.820782e-01 2.836116e-01 5.288826e-01 2.328106e-01 1.035360e-01
<GCONST> 1.026471e+02
~s "ST_d_3_2"
<MEAN> 39
 -6.884418e+00 2.517141e+00 8.539635e+00 1.789464e+01 1.073993e+01 -8.322474e+00 -9.737491e+00 -2.892118e+00 -1.433794e+01 -6.095461e+00 8.737017e+00 -4.115904e+00 7.027617e+01 -2.666611e-01 3.100550e-01 4.923777e-02 1.758612e-01 -2.895032e-01 -3.466651e-02 4.364258e-01 3.914547e-01 3.960175e-01 2.402981e-01 -1.473612e-01 -7.250223e-02 -4.357593e-01 -1.981679e-01 1.614678e-01 -1.907145e-02 -3.460256e-01 -1.913669e-01 2.980564e-01 3.371617e-01 1.051636e-01 4.886969e-01 1.725949e-01 -2.662732e-01 1.007338e-01 -1.821017e-01
<VARIANCE> 39
 9.549444e+00 8.598377e+00 1.436996e+01 3.590421e+01 1.720831e+01 2.561729e+01 2.728784e+01 1.979448e+01 3.760088e+01 3.568171e+01 2.025893e+01 1.063447e+01 8.888487e+00 7.201800e-01 8.830090e-01 9.232438e-01 2.216330e+00 1.028412e+00 2.480944e+00 2.284328e+00 1.268322e+00 4.110976e+00 2.151025e+00 1.468903e+00 6.934435e-01 4.914943e-01 5.502323e-02 2.541004e-01 1.681165e-01 2.273235e-01 2.118617e-01 2.884268e-01 3.588037e-01 2.859658e-01 4.221212e-01 2.803746e-01 1.827628e-01 1.481865e-01 6.842443e-02
<GCONST> 9.219086e+01
~s "ST_d_4_1"
<MEAN> 39
 -1.391921e+01 4.144914e+00 7.825747e-01 3.851232e+00 4.216889e+00 2.610977e+00 1.776888e+00 -5.676908e-02 -2.115715e+00 1.853738e+00 5.398784e+00 3.847547e-01 6.342290e+01 -1.433432e+00 1.544133e-01 -3.923578e-01 -1.147500e+00 -5.962236e-01 7.431744e-01 1.199287e+00 1.542596e+00 2.190228e+00 3.305454e-01 -1.102981e+00 2.883285e-01 -1.162251e+00 1.944032e-01 -3.279444e-01 -6.761654e-02 4.187258e-02 5.628160e-02 -3.997309e-01 -3.797493e-01 -3.917184e-01 -5.888212e-01 -2.072150e-01 1.751651e-01 -1.786681e-02 3.530655e-01
<VARIANCE> 39
 3.728822e+01 9.225241e+00 1.536137e+01 2.550025e+01 1.183615e+01 2.108904e+01 2.486353e+01 3.877342e+01 7.633401e+01 3.203783e+01 2.481357e+01 1.049267e+01 2.096387e+01 1.687297e+00 2.234464e+00 1.794468e+00 2.687590e+00 1.276162e+00 3.651763e+00 3.824805e+00 4.906550e+00 7.930965e+00 2.034741e+00 1.924139e+00 6.884105e-01 1.899746e+00 2.526866e-01 2.513818e-01 2.335213e-01 4.337942e-01 2.358668e-01 4.942471e-01 4.501168e-01 9.633757e-01 1.112604e+00 3.668891e-01 3.207135e-01 1.564927e-01 2.597156e-01
<GCONST> 1.100950e+02
~s "ST_g_2_1"
<MEAN> 39
 -1.405801e+01 5.381218e+00 6.613373e-01 2.334062e+00 2.037513e+00 1.805031e+00 1.790815e+00 1.002730e+00 6.742918e-01 1.384075e+00 1.350845e+00 -8.035994e-01 6.281773e+01 1.273946e+00 -9.040242e-01 6.386575e-01 9.992263e-01 8.941864e-01 -1.571739e-01 -1.720063e+00 -2.508238e+00 -1.778654e+00 -6.296443e-01 7.570059e-01 -1.971391e-01 1.682528e+00 4.575131e-01 -5.272082e-01 1.658493e-02 4.397337e-01 2.567900e-01 -3.965175e-01 -6.213195e-01 -7.735855e-01 -9.425776e-01 -1.940620e-01 4.326048e-01 -2.264251e-01 5.992508e-01
<VARIANCE> 39
 5.515308e+01 3.039746e+01 2.847252e+01 1.994315e+01 2.087569e+01 5.459273e+00 2.026628e+01 3.164605e+01 3.220316e+01 1.520012e+01 4.885290e+00 1.135039e+01 2.563343e+01 1.681314e+00 5.104580e+00 2.480036e+00 2.037298e+00 8.649088e-01 1.977389e+00 3.073391e+00 6.687167e+00 4.054399e+00 1.833330e+00 1.081569e+00 7.909505e-01 2.090419e+00 1.717614e-01 6.215461e-01 4.097154e-01 3.002101e-01 2.377636e-01 3.654892e-01 5.843000e-01 6.314512e-01 3.855779e-01 3.262467e-01 1.387440e-01 2.460486e-01 1.211485e-01
<GCONST> 1.046781e+02
~s "ST_g_3_1"
<MEAN> 39
 -7.383482e+00 -1.546256e+00 1.635816e+00 8.148332e+00 7.034526e+00 -1.057651e+00 -6.939180e+00 -1.120411e+01 -1.170300e+01 -1.733663e+00 7.555638e+00 -2.315598e+00 7.148888e+01 2.113724e+00 -1.115093e+00 4.666489e-01 3.004595e+00 1.576437e+00 -2.133291e+00 -1.791691e+00 -1.356353e+00 -4.062096e+00 -2.833772e-01 1.554244e+00 -8.635491e-01 1.917896e+00 -1.147704e-01 3.799896e-01 -2.178588e-01 -1.189203e-01 -2.298814e-01 -4.905815e-01 4.142243e-01 9.365229e-01 -1.521805e-02 1.198431e-01 -1.024273e-01 8.409327e-02 -3.675300e-01
<VARIANCE> 39
 1.945752e+01 1.219632e+01 1.783192e+01 7.131750e+01 3.032897e+01 3.581194e+01 1.164119e+01 4.927114e+01 5.280550e+01 1.965909e+01 1.955185e+01 8.310779e+00 6.559627e+00 1.773067e+00 4.444863e+00 3.142663e+00 2.874784e+00 2.547280e+00 4.472501e+00 1.901327e+00 4.689353e+00 5.588380e+00 1.947900e+00 1.332072e+00 9.201044e-01 1.426884e+00 1.395103e-01 3.729296e-01 5.241542e-01 1.398620e+00 3.885781e-01 6.654434e-01 2.352885e-01 6.851141e-01 5.415806e-01 1.664539e-01 2.907699e-01 1.600445e-01 1.073445e-01
<GCONST> 1.092367e+02
~s "ST_g_4_1"
<MEAN> 39
 -1.975332e+00 -1.545400e+00 1.767178e+00 1.231151e+01 8.920979e+00 -8.718143e+00 -9.392190e+00 -9.812312e+00 -2.386407e+01 -3.489093e+00 1.237566e+01 -2.757011e+00 7.499995e+01 -8.720393e-02 1.616315e-01 2.954534e-01 1.779880e-01 4.472717e-02 -1.411436e-01 -1.560256e-01 2.862951e-01 8.280752e-02 -2.069787e-01 8.124727e-02 -1.209250e-01 -9.662805e-02 -2.218654e-01 1.704506e-01 2.694774e-02 -2.444442e-01 -4.558527e-02 3.891826e-01 2.095250e-01 2.288447e-02 4.054968e-01 2.473154e-02 -1.284984e-01 1.153476e-01 -2.129789e-01
<VARIANCE> 39
 2.841339e+00 5.488153e+00 1.753630e+01 3.141797e+01 1.877577e+01 1.136915e+01 1.481522e+01 3.854779e+01 4.517573e+01 3.309157e+01 1.289624e+01 9.660960e+00 2.462252e+00 3.585518e-01 4.870063e-01 9.133279e-01 1.752265e+00 8.380883e-01 1.462340e+00 1.012095e+00 1.372699e+00 2.780980e+00 1.245630e+00 8.332103e-01 6.303792e-01 2.481439e-01 1.167313e-01 1.324504e-01 1.672172e-01 4.692664e-01 2.024253e-01 4.874785e-01 2.947638e-01 2.509541e-01 7.091588e-01 2.851964e-01 1.802601e-01 1.683394e-01 8.058505e-02
<GCONST> 8.469855e+01
~s "ST_t_2_1"
<MEAN> 39
 -1.164941e+01 1.413501e+00 7.755136e-01 3.858817e-01 3.343454e+00 -5.066679e-01 -2.615472e+00 -5.123333e+00 -4.780704e+00 -9.125537e-01 3.308203e+00 -2.446659e-01 6.840727e+01 4.311790e-01 -1.674285e-01 -6.594194e-02 2.162331e-01 1.062008e-01 -4.708312e-02 -1.083249e-01 -3.661431e-01 -6.320394e-01 -2.238558e-01 2.586476e-01 8.982226e-02 3.729188e-01 1.571147e-01 -7.639738e-02 -1.593565e-02 8.862993e-02 -1.331161e-02 -8.549780e-02 3.416942e-02 -4.875858e-02 -1.920467e-01 -1.001466e-02 1.597043e-01 3.728279e-02 1.408926e-01
<VARIANCE> 39
 7.329304e+01 2.584855e+01 2.770984e+01 5.697474e+01 2.247735e+01 1.922092e+01 2.837240e+01 4.320255e+01 5.027892e+01 2.563944e+01 1.512747e+01 1.451354e+01 3.112011e+01 7.831722e+00 2.698926e+00 3.974176e+00 6.785789e+00 2.725684e+00 2.333396e+00 3.363724e+00 5.607160e+00 5.716756e+00 2.343450e+00 2.263366e+00 1.389787e+00 3.653529e+00 1.118348e+00 4.785844e-01 8.108140e-01 1.238670e+00 5.857670e-01 4.499702e-01 7.189043e-01 1.119683e+00 9.349490e-01 4.607464e-01 4.780411e-01 2.477368e-01 5.588210e-01
<GCONST> 1.262002e+02
~s "ST_t_3_1"
<MEAN> 39
 -1.032742e+00 -2.793417e+00 -3.327039e+00 4.498585e+00 1.104922e+00 -5.777728e+00 -9.474857e-01 -8.735970e+00 -1.720605e+01 -3.848784e+00 1.069567e+01 3.552636e+00 7.588656e+01 1.679699e+00 -2.140605e-01 -1.462676e+00 6.386005e-01 -6.101695e-01 -1.180672e+00 7.383006e-01 2.214755e-01 -4.764366e-01 -4.469945e-01 3.377950e-01 6.641472e-01 7.429022e-01 -8.696620e-01 2.163925e-01 2.311702e-01 -7.352515e-01 1.146248e-02 3.973717e-01 -1.884165e-01 1.706827e-01 8.877459e-01 1.900968e-01 -5.829723e-01 -1.769818e-01 -5.096515e-01
<VARIANCE> 39
 2.831355e+00 1.417001e+01 1.168430e+01 2.028164e+01 1.053662e+01 1.744354e+01 1.260207e+01 4.757480e+01 1.055469e+01 1.423234e+01 1.840817e+01 8.475664e+00 4.801099e+00 3.053303e+00 9.238139e-01 1.309751e+00 3.981263e+00 1.169748e+00 2.097757e+00 1.881932e+00 1.847804e+00 3.732447e+00 1.622391e+00 1.722652e+00 8.420486e-01 9.537689e-01 4.116244e-01 2.976207e-01 3.902595e-01 4.260492e-01 2.031386e-01 4.735767e-01 2.808092e-01 3.803749e-01 3.615456e-01 3.212617e-01 2.152953e-01 1.367534e-01 2.069558e-01
<GCONST> 9.531078e+01
~s "ST_t_4_1"
<MEAN> 39
 -1.284364e+00 -1.446746e-01 -4.002175e+00 2.361946e+00 -1.366523e-01 -5.792597e+00 -1.091484e+00 -7.722700e+00 -1.414835e+01 -2.139685e+00 9.107449e+00 4.255764e+00 7.460330e+01 -5.993156e-01 8.690954e-01 6.408035e-01 -2.860321e-01 7.950202e-02 6.530576e-01 3.691414e-02 3.222569e-01 5.758812e-01 4.527013e-01 -4.879729e-01 -3.514001e-01 -6.985193e-01 -2.643886e-01 1.566580e-01 2.188556e-01 -6.563591e-02 1.618945e-01 3.591112e-01 7.358621e-02 -2.342634e-02 -5.298284e-02 8.599202e-02 1.703747e-01 -9.939356e-02 -2.084919e-01
<VARIANCE> 39
 4.809167e+00 1.323058e+01 1.553514e+01 1.937652e+01 6.022825e+00 2.412487e+01 1.718139e+01 4.175957e+01 1.674830e+01 3.615369e+01 2.339096e+01 2.684485e+01 4.659307e+00 6.111393e-01 7.584458e-01 9.093080e-01 1.194836e+00 1.083441e+00 2.273110e+00 1.490953e+00 1.382666e+00 1.757193e+00 1.406761e+00 1.621325e+00 9.174014e-01 5.592125e-01 8.127833e-02 1.540136e-01 2.088774e-01 4.277215e-01 1.305638e-01 4.461430e-01 2.245571e-01 1.988522e-01 3.157012e-01 3.362021e-01 4.551098e-01 2.062782e-01 6.637745e-02
<GCONST> 8.907007e+01
~s "ST_sil_2_1"
<MEAN> 39
 -2.362886e+00 2.076304e-01 -2.736315e-01 -5.257934e-02 6.714466e-03 8.818800e-02 2.399318e-01 3.279464e-01 3.457246e-01 2.151299e-01 1.388036e-01 -1.825375e-02 6.747421e+00 -2.219258e-02 -4.970580e-03 7.671713e-03 -4.055879e-03 5.064382e-03 1.143722e-02 -8.173783e-03 -7.622465e-03 -1.498105e-02 -9.616520e-03 8.721365e-04 7.318323e-03 -1.297604e-02 -2.905515e-01 3.387005e-02 -3.578145e-02 1.307565e-02 -1.107800e-02 3.487488e-02 2.133765e-02 5.128714e-02 4.358876e-02 3.576389e-02 1.134044e-02 7.031382e-03 3.042981e-01
<VARIANCE> 39
 4.321994e+01 5.785464e-01 9.120606e-01 3.069609e-01 2.211936e-01 3.243145e-01 9.770792e-01 1.448946e+00 1.423159e+00 1.278723e+00 6.357055e-01 2.135791e-01 3.510470e+02 2.079128e-02 1.315341e-02 1.974459e-02 4.323487e-02 4.234225e-02 3.837624e-02 3.683836e-02 5.507244e-02 5.611033e-02 4.119893e-02 1.718816e-02 3.007645e-02 1.980202e-02 3.529841e-01 1.538358e-02 1.860844e-02 1.732133e-02 1.829353e-02 1.996507e-02 2.132581e-02 2.661495e-02 3.000374e-02 3.170869e-02 2.228154e-02 1.401144e-02 4.033042e-01
<GCONST> -1.423559e+01
~s "silst"
<MEAN> 39
 -1.712207e+01 1.726255e+00 -1.966314e+00 3.586288e-01 4.259229e-02 1.804226e+00 2.599683e+00 3.266926e+00 2.987045e+00 1.898031e+00 7.440908e-01 -1.940243e-01 3.687127e+01 -1.794939e+00 1.608386e-01 -2.131751e-01 -2.783136e-02 3.967925e-02 1.598298e-01 3.104629e-01 3.532849e-01 3.192959e-01 1.487470e-01 5.192664e-02 -1.051584e-01 5.201141e+00 2.258432e-01 -3.305741e-02 1.888414e-02 -2.099437e-02 7.062179e-03 -2.676100e-02 -1.779648e-02 -3.075452e-02 -1.472669e-02 -2.215443e-02 -7.131213e-03 -1.240093e-03 -2.091683e-01
<VARIANCE> 39
 6.524933e+01 2.726679e+00 4.366074e+00 4.654891e+00 5.045604e+00 5.682166e+00 9.570791e+00 9.826508e+00 9.531687e+00 6.373729e+00 5.299409e+00 5.608466e+00 4.539458e+02 7.871287e+00 2.791515e-01 4.858383e-01 4.945114e-01 5.835559e-01 7.110283e-01 1.021757e+00 9.949849e-01 9.844390e-01 7.535244e-01 6.277007e-01 5.911778e-01 1.033262e+01 1.342145e+00 4.490127e-02 9.601323e-02 9.519116e-02 1.200098e-01 1.478944e-01 2.068876e-01 1.888768e-01 1.887241e-01 1.471439e-01 1.290670e-01 1.246012e-01 2.256629e+00
<GCONST> 7.925205e+01
~s "ST_sil_3_1"
<MEAN> 39
 -1.720794e+01 1.715502e+00 -1.990870e+00 3.511271e-01 6.820413e-02 1.816971e+00 2.605409e+00 3.274562e+00 3.042571e+00 1.954484e+00 7.484665e-01 -2.028421e-01 3.740318e+01 -1.761994e+00 1.549254e-01 -2.082356e-01 -2.437653e-02 4.485513e-02 1.538350e-01 3.006968e-01 3.483193e-01 3.095476e-01 1.388991e-01 5.523752e-02 -9.633296e-02 5.068629e+00 2.286781e-01 -2.812619e-02 2.168547e-02 -1.792169e-02 7.544459e-03 -2.706168e-02 -1.624447e-02 -3.072382e-02 -1.880231e-02 -2.337641e-02 -4.720910e-03 6.675320e-04 -1.991531e-01
<VARIANCE> 39
 6.398490e+01 2.695852e+00 4.317686e+00 4.650719e+00 5.058218e+00 5.675240e+00 9.552714e+00 9.850466e+00 9.760939e+00 6.446004e+00 5.263674e+00 5.562607e+00 4.543148e+02 7.734045e+00 2.882369e-01 4.843774e-01 4.961868e-01 5.876543e-01 7.113556e-01 1.031067e+00 9.993217e-01 9.791684e-01 7.493690e-01 6.238889e-01 5.927823e-01 1.079074e+01 1.312799e+00 4.549295e-02 9.485467e-02 9.701917e-02 1.209256e-01 1.497413e-01 2.065762e-01 1.891272e-01 1.904390e-01 1.451806e-01 1.300707e-01 1.241157e-01 2.207518e+00
<GCONST> 7.929171e+01
~s "ST_sil_4_1"
<MEAN> 39
 -2.097164e+01 1.213753e+00 -3.265442e+00 -1.174938e+00 -3.798884e-01 1.508527e+00 3.921846e+00 4.691566e+00 4.614523e+00 2.218560e+00 9.342589e-01 -6.919052e-01 5.862365e+01 3.339346e-03 -9.044162e-03 -1.405083e-02 -1.442616e-02 -1.200544e-02 -1.127461e-02 -7.864788e-03 -6.626454e-03 -8.609381e-03 -3.720640e-03 9.281422e-04 3.389467e-03 6.016228e-03 3.053674e-03 -9.498026e-05 7.680650e-04 1.916076e-03 1.748609e-03 -5.623703e-04 -5.489181e-04 -3.016182e-03 -5.633457e-03 4.115160e-04 3.787795e-03 1.011126e-03 1.020173e-03
<VARIANCE> 39
 1.146044e+00 1.648813e+00 3.337888e+00 4.867987e+00 5.146653e+00 5.755125e+00 7.204088e+00 9.186971e+00 8.551705e+00 7.187196e+00 6.466336e+00 6.611494e+00 1.447546e+00 1.020692e-01 1.554778e-01 2.890216e-01 4.410298e-01 5.153157e-01 5.916051e-01 7.253184e-01 9.705154e-01 9.525520e-01 7.893460e-01 6.975138e-01 6.838024e-01 3.381526e-02 2.040980e-02 3.249397e-02 5.652783e-02 8.751453e-02 1.057870e-01 1.232996e-01 1.467964e-01 1.987803e-01 1.996856e-01 1.673753e-01 1.465433e-01 1.407016e-01 6.662926e-03
<GCONST> 4.597923e+01
~s "ST_j_2_1"
<MEAN> 39
 -1.348973e+00 -1.712837e+00 -4.479682e+00 1.616610e+00 1.318202e+00 -4.371681e+00 -2.054691e+00 -3.920880e+00 -1.427850e+01 1.774994e+00 1.313489e+01 1.285297e+00 7.480589e+01 -4.252052e-01 4.265670e-01 1.687847e-01 1.909241e-01 3.055339e-01 6.373135e-01 2.981936e-01 -9.630229e-03 8.485723e-01 5.873353e-01 -1.122203e-01 -1.707277e-01 -4.622023e-01 -1.245274e-01 2.946632e-01 3.206759e-01 2.616666e-01 2.140809e-02 1.327105e-02 -1.192904e-01 -5.515211e-02 1.255688e-01 -2.429370e-01 -3.255095e-01 -9.511332e-02 -1.832883e-01
<VARIANCE> 39
 2.679363e+00 1.328773e+01 7.791708e+00 1.294413e+01 2.696380e+01 2.044305e+01 2.106390e+01 1.653106e+01 2.185904e+01 1.462513e+01 1.232878e+01 3.132318e+00 3.665941e+00 5.196210e-02 2.329048e-01 4.156174e-01 5.182968e-01 4.529546e-01 4.794464e-01 6.525362e-01 8.704883e-01 1.372985e+00 7.836183e-01 7.868553e-01 4.264123e-01 5.561859e-02 1.065612e-02 6.123546e-02 6.009225e-02 9.512063e-02 5.822429e-02 1.279839e-01 1.093599e-01 1.766636e-01 2.046570e-01 1.009866e-01 1.535918e-01 6.607421e-02 1.809042e-02
<GCONST> 5.697102e+01
~s "ST_j_3_1"
<MEAN> 39
 -3.331238e+00 1.760429e+00 -1.568739e+00 3.511810e+00 8.673598e-01 -1.822622e+00 -8.695849e-01 -5.171963e+00 -1.094577e+01 2.057652e+00 1.066631e+01 3.160569e-01 7.217102e+01 -1.022573e+00 2.302069e+00 1.871866e+00 1.654578e+00 9.989860e-01 9.418505e-02 -1.205216e+00 -1.050290e-01 2.217540e+00 -3.288156e-01 -2.519678e+00 -8.393030e-01 -1.640448e+00 -9.338331e-02 2.781779e-01 2.557436e-01 2.782094e-01 2.714325e-01 -3.714799e-01 -6.419299e-01 2.075837e-01 8.708301e-01 7.948553e-02 -7.066833e-01 -2.245260e-01 -1.756654e-01
<VARIANCE> 39
 2.155717e+00 1.457399e+01 4.899816e+00 1.635966e+01 1.934969e+01 1.149233e+01 1.288213e+01 1.166322e+01 1.176229e+01 1.011471e+01 7.508158e+00 4.246776e+00 4.456319e+00 2.160709e-01 5.996341e-01 6.956536e-01 8.932796e-01 1.070369e+00 8.945604e-01 3.046971e+00 7.306749e-01 3.292698e+00 7.122560e-01 2.500391e+00 5.923179e-01 1.634765e-01 2.030797e-02 1.344761e-01 7.305371e-02 1.049291e-01 1.188095e-01 6.898769e-02 1.773369e-01 7.792099e-02 2.243801e-01 1.437608e-01 2.152669e-01 7.118428e-02 5.058008e-02
<GCONST> 6.687566e+01
~s "ST_j_4_1"
<MEAN> 39
 -8.299943e+00 9.748593e+00 5.648358e+00 1.006382e+01 6.002622e+00 -3.176170e+00 -6.755853e+00 -2.250749e+00 2.574063e+00 3.073195e+00 -3.535861e-01 -2.999175e+00 6.571350e+01 -6.622338e-01 4.473000e-01 5.230402e-01 3.848122e-01 3.307074e-01 3.246520e-01 4.034769e-01 5.900996e-01 9.662523e-01 1.532108e-01 -4.178205e-01 7.013725e-02 -6.054810e-01 -1.356274e-03 -2.266466e-01 -1.972061e-01 -2.225110e-01 -8.722966e-02 2.463277e-01 4.257331e-01 1.152181e-01 -2.811792e-01 7.920154e-03 3.779306e-01 1.662639e-01 8.472236e-02
<VARIANCE> 39
 3.550596e+00 3.185297e+00 2.582613e+00 6.599897e+00 1.447293e+01 7.918785e+00 1.591299e+01 7.564501e+00 8.468695e+00 7.035846e+00 6.263359e+00 4.149713e+00 1.903391e+00 1.325359e-01 5.672675e-01 5.163175e-01 8.315477e-01 6.330040e-01 1.128365e+00 2.366549e+00 4.728939e-01 2.402187e+00 3.885989e-01 1.847122e+00 6.657399e-01 1.657396e-01 3.484268e-02 1.042421e-01 1.065876e-01 7.998161e-02 1.077460e-01 1.236834e-01 2.021261e-01 9.598153e-02 3.856536e-01 8.241375e-02 2.223406e-01 8.315299e-02 4.899564e-02
<GCONST> 6.004435e+01
~s "ST_w_2_1"
<MEAN> 39
 -8.754585e+00 1.259937e+01 7.728819e+00 6.828889e+00 3.602455e+00 9.928445e-01 -3.163786e-01 -2.206105e+00 -4.847201e+00 -4.022004e+00 1.716830e+00 5.166649e-01 6.506624e+01 -5.725540e-01 2.832277e-01 4.681987e-01 1.944853e-01 -1.012466e-01 9.694132e-02 4.722235e-01 6.112578e-01 1.128103e+00 3.825144e-01 -5.743464e-01 -2.720259e-01 -4.427573e-01 3.245782e-01 -5.406332e-01 -3.072391e-01 -1.131775e-02 4.086394e-02 -2.556390e-01 -2.969133e-01 -8.928761e-02 -4.559553e-01 -4.244515e-01 1.991738e-01 6.482997e-03 4.448003e-01
<VARIANCE> 39
 1.122056e+01 1.080951e+01 9.774096e+00 1.185898e+01 1.658040e+01 1.963086e+01 1.508493e+01 1.011962e+01 2.382016e+01 6.746334e+00 1.699247e+01 1.271653e+01 1.093123e+01 8.657951e-01 3.424593e+00 7.957885e-01 6.542892e-01 5.544204e-01 1.505677e+00 1.883597e+00 1.070300e+00 3.796700e+00 2.712124e+00 1.280714e+00 6.885189e-01 1.803142e+00 7.132132e-02 2.461018e-01 9.552217e-02 1.655648e-01 7.027603e-02 1.737677e-01 2.250914e-01 1.545999e-01 3.496594e-01 3.317226e-01 1.428004e-01 1.422913e-01 8.269206e-02
<GCONST> 8.414294e+01
~s "ST_w_3_1"
<MEAN> 39
 -3.702067e+00 9.743602e+00 7.318886e+00 3.449618e+00 -1.371774e+00 -5.074023e+00 -5.893715e+00 7.872732e-01 -6.047361e+00 -1.095686e+01 3.045659e+00 -2.637863e+00 7.027097e+01 6.670551e-01 -5.308644e-01 -4.909996e-01 -5.978825e-01 -7.438888e-01 -3.916840e-01 -2.578596e-01 5.396385e-02 -3.184904e-01 -6.240306e-01 4.066032e-01 8.776465e-02 6.074965e-01 -1.741837e-02 -8.056567e-02 -1.732714e-01 -4.098082e-02 1.167515e-02 1.543015e-01 1.684598e-01 -1.104200e-01 -3.764235e-02 1.941780e-01 6.380514e-02 1.188214e-01 -2.108335e-02
<VARIANCE> 39
 7.580790e+00 1.426511e+01 1.308937e+01 2.473780e+01 2.323200e+01 3.178217e+01 3.602235e+01 1.954185e+01 1.944484e+01 2.317494e+01 2.712120e+01 1.241957e+01 5.278596e+00 4.073224e-01 1.390794e+00 1.289586e+00 8.177331e-01 7.098108e-01 1.274765e+00 2.166902e+00 1.355128e+00 1.550262e+00 1.969617e+00 1.085009e+00 8.875706e-01 3.885689e-01 6.440296e-02 2.912363e-01 1.867984e-01 1.900624e-01 1.216856e-01 2.522576e-01 3.193740e-01 2.213914e-01 3.473634e-01 3.203511e-01 1.876673e-01 1.727290e-01 6.480195e-02
<GCONST> 8.768269e+01
~s "ST_w_4_1"
<MEAN> 39
 -1.894757e-02 1.439586e+00 -2.505421e+00 5.673840e-01 -4.491078e+00 -6.359347e+00 -1.962454e+00 -3.720368e+00 -1.112555e+01 -5.767499e+00 8.647167e+00 1.664976e+00 7.477587e+01 -3.464014e-02 -3.170143e-01 -6.928945e-01 2.948305e-02 3.326132e-01 3.858762e-01 6.234187e-01 -3.641919e-01 -1.783701e-01 9.115056e-01 -3.541280e-04 4.791154e-02 -3.287473e-02 -1.357504e-01 2.049666e-01 1.806173e-01 5.903452e-02 1.407222e-01 3.722300e-02 -6.673022e-02 9.524068e-02 1.644043e-01 1.602434e-02 -1.697914e-01 -1.291173e-01 -1.594739e-01
<VARIANCE> 39
 2.218106e+00 1.245334e+01 1.853073e+01 1.488683e+01 1.401766e+01 1.540690e+01 3.454432e+01 2.609147e+01 1.376310e+01 4.544889e+01 1.103888e+01 1.184641e+01 3.578990e+00 2.292287e-01 1.011174e+00 1.061063e+00 8.023628e-01 7.172839e-01 1.470033e+00 1.928798e+00 1.559657e+00 1.378037e+00 1.029812e+00 8.978380e-01 8.238875e-01 3.412495e-01 4.157591e-02 7.672103e-02 8.068742e-02 1.571434e-01 9.580195e-02 2.515346e-01 3.126619e-01 2.766623e-01 2.564704e-01 1.776251e-01 1.459627e-01 1.019718e-01 3.416952e-02
<GCONST> 7.692526e+01
~s "ST_m_2_1"
<MEAN> 39
 -2.078719e+01 1.456773e+00 -3.178240e+00 -1.131758e+00 -4.259087e-01 1.469167e+00 3.705260e+00 4.140786e+00 4.127206e+00 2.180144e+00 1.168702e+00 -5.243807e-02 5.868647e+01 -3.172472e-02 -2.764269e-02 -3.464026e-02 -4.584097e-02 -3.353044e-02 -3.008782e-02 -4.915779e-03 1.153648e-02 -1.230939e-02 -5.840503e-03 -7.987209e-03 -3.109658e-02 -1.438870e-02 2.356051e-02 2.411129e-02 3.282506e-02 3.020806e-02 4.166136e-02 3.838594e-02 1.336695e-02 3.319861e-03 1.471098e-03 2.081801e-02 2.877816e-02 2.604562e-02 1.348971e-02
<VARIANCE> 39
 1.340978e+00 1.481556e+00 2.885253e+00 4.577000e+00 4.555615e+00 5.725846e+00 8.195863e+00 1.019066e+01 9.823851e+00 7.402365e+00 6.483697e+00 6.541940e+00 1.447546e+00 1.004846e-01 1.494765e-01 2.628652e-01 4.552897e-01 4.556437e-01 5.459562e-01 7.688096e-01 8.842475e-01 9.603491e-01 8.756878e-01 6.910849e-01 6.968139e-01 3.041402e-02 2.126208e-02 3.570944e-02 6.124617e-02 1.012766e-01 1.018910e-01 1.197514e-01 1.635334e-01 1.809457e-01 2.013491e-01 1.871763e-01 1.468453e-01 1.446683e-01 6.129402e-03
<GCONST> 4.612237e+01
~s "ST_m_3_1"
<MEAN> 39
 -2.049378e+01 1.578934e+00 -3.053398e+00 -1.175517e+00 5.369798e-02 1.773166e+00 3.566194e+00 3.751008e+00 3.995381e+00 2.948337e+00 1.862201e+00 1.569200e-02 5.897768e+01 7.361914e-01 5.142999e-01 1.326192e+00 8.232002e-01 3.897486e-01 -7.927157e-02 -4.927184e-01 -6.680925e-01 -9.426062e-01 -1.612692e-01 3.990863e-01 2.457788e-02 6.211453e-01 4.624330e-01 1.804191e-01 6.596110e-01 4.067492e-01 1.169086e-01 -1.530779e-01 -2.702298e-01 -4.159737e-01 -6.558263e-01 -3.196483e-01 1.418210e-02 -2.110194e-01 4.260850e-01
<VARIANCE> 39
 8.697691e-01 2.269818e+00 3.957472e+00 4.566138e+00 5.418775e+00 5.524696e+00 8.365368e+00 1.273574e+01 9.015798e+00 6.094776e+00 6.562304e+00 7.161313e+00 1.447546e+00 1.750288e+00 1.953151e+00 1.921709e+00 2.568169e+00 1.005276e+00 1.379982e+00 1.202869e+00 1.901544e+00 2.155333e+00 1.146646e+00 1.002669e+00 1.429907e+00 4.535507e-01 2.846349e-01 2.932211e-01 1.760669e-01 5.019153e-01 1.371472e-01 2.399109e-01 2.611706e-01 4.118950e-01 4.215316e-01 2.077273e-01 1.930956e-01 2.802328e-01 4.221977e-02
<GCONST> 7.693004e+01
~s "ST_m_4_1"
<MEAN> 39
 -1.874585e+01 1.040995e+00 7.325303e+00 -2.811403e-01 1.374422e+00 2.320206e+00 -1.100985e-01 -8.544496e-01 -2.201943e+00 4.249305e-01 3.902437e+00 -1.154251e+00 6.394209e+01 1.565958e+00 9.193889e-01 7.797836e-01 1.121404e+00 6.877626e-01 -3.593869e-01 -7.533140e-01 -1.219189e+00 -1.437431e+00 -7.583908e-01 1.090916e-01 1.544226e-02 9.091166e-01 1.444592e-01 -6.512009e-02 -3.378759e-01 4.998863e-02 7.514077e-03 -1.818316e-01 -1.062403e-01 -5.838243e-02 -5.367238e-02 6.447043e-04 4.236564e-02 -1.639321e-02 3.287885e-02
<VARIANCE> 39
 5.609840e+01 8.758337e+01 3.511891e+01 6.059716e+01 2.318163e+01 1.850453e+01 1.816130e+01 2.389169e+01 2.678156e+01 1.798370e+01 1.753060e+01 1.306601e+01 8.633522e+00 5.001337e+00 7.619932e+00 6.709550e+00 5.748703e+00 1.658348e+00 2.140121e+00 2.537550e+00 2.827028e+00 3.793419e+00 2.262655e+00 1.911179e+00 1.687883e+00 1.555716e+00 5.792470e-01 1.110432e+00 1.027606e+00 8.997906e-01 3.845585e-01 3.623213e-01 4.754098e-01 4.012718e-01 5.198073e-01 4.094657e-01 3.290910e-01 2.492254e-01 1.921795e-01
<GCONST> 1.181894e+02
~s "ST_sy_2_1"
<MEAN> 39
 -2.055598e+01 1.488091e+00 -3.600311e+00 -1.198681e+00 9.383579e-02 1.841980e+00 3.276431e+00 3.171278e+00 3.967995e+00 2.644893e+00 1.735321e+00 2.306195e-01 5.880113e+01 -1.972792e-01 -1.694742e-01 -8.778621e-02 -9.653166e-02 -2.429779e-01 -3.755723e-01 -3.411018e-01 -1.179154e-01 -2.524741e-02 -6.106968e-02 -1.553143e-01 -1.898755e-01 -9.404077e-02 7.831322e-02 5.666313e-02 7.892723e-02 6.318882e-02 7.575326e-02 8.158176e-02 6.783412e-02 9.411147e-02 7.020473e-02 4.437008e-02 4.907107e-02 5.099372e-02 4.543199e-02
<VARIANCE> 39
 1.164529e+00 1.502560e+00 3.523481e+00 4.579179e+00 4.746413e+00 8.564433e+00 8.433177e+00 7.915362e+00 7.362305e+00 6.719331e+00 4.470757e+00 6.368022e+00 1.447546e+00 1.871057e-01 1.881823e-01 4.688204e-01 4.890853e-01 4.446182e-01 8.704690e-01 1.141323e+00 1.037243e+00 7.262115e-01 7.077063e-01 6.104005e-01 7.482186e-01 5.961409e-02 3.357684e-02 4.764756e-02 1.277528e-01 1.401556e-01 1.033267e-01 1.540178e-01 2.065367e-01 1.840635e-01 1.395336e-01 1.270076e-01 1.114550e-01 1.607667e-01 1.041294e-02
<GCONST> 5.018445e+01
~s "ST_sy_3_1"
<MEAN> 39
 -2.100399e+01 7.981065e-01 -4.137382e+00 -2.073277e+00 -4.718529e-01 9.200042e-01 3.727637e+00 5.276584e+00 5.183471e+00 3.877301e+00 1.735602e+00 -3.430646e-01 5.867207e+01 6.641217e-02 -1.206990e-01 2.897221e-01 -4.096703e-02 2.618413e-01 4.607655e-03 -5.371007e-01 -2.460173e-01 -4.471800e-01 -2.915436e-01 1.493481e-01 5.944634e-02 9.776437e-02 -9.193905e-02 -5.352563e-01 5.197765e-01 -4.228048e-02 -1.098309e-01 2.751054e-01 -5.281660e-01 -4.047721e-01 -4.423521e-01 -1.788962e-01 3.055247e-01 -2.039018e-01 2.822451e-01
<VARIANCE> 39
 7.169198e-01 6.535596e-01 1.725304e+00 2.409211e+00 6.955056e+00 5.565217e+00 2.136447e+00 9.555737e+00 3.821793e+00 5.554585e+00 2.204534e+00 1.900671e+00 1.447546e+00 2.565253e-02 6.696593e-02 3.355514e-01 6.944773e-01 7.487321e-01 4.303781e-01 2.491726e-01 1.133699e+00 7.158016e-01 5.835031e-02 3.999925e-01 4.759405e-01 1.980202e-02 5.601916e-02 1.636685e-01 1.414277e-01 1.460450e-01 1.664302e-01 1.606352e-01 8.410045e-02 1.237320e-01 1.195800e-01 1.284238e-01 1.181639e-01 2.247486e-01 1.500030e-02
<GCONST> 3.613450e+01
~s "ST_sy_4_1"
<MEAN> 39
 -2.133633e+01 -1.210618e+00 -1.698728e+00 -1.179420e+00 -9.054458e-01 1.143263e+00 4.300525e-01 1.683897e+00 2.402480e+00 3.190709e+00 2.642120e+00 -2.102489e+00 5.963376e+01 -7.298121e-01 -2.561145e+00 2.485202e+00 -1.030173e-01 -3.909062e-01 5.013999e-01 -1.316024e+00 -4.161768e-01 -1.168753e+00 -4.306358e-01 1.252335e+00 -6.937551e-01 1.249937e+00 -2.953207e-01 -7.131891e-01 7.042729e-01 -1.975155e-01 -1.640534e-01 -1.465485e-01 4.298751e-02 2.828574e-01 -1.188912e-01 -1.715389e-01 2.529248e-01 5.692095e-04 4.311590e-01
<VARIANCE> 39
 2.445815e+00 9.140400e+00 1.589117e+01 4.682409e+00 3.705230e+00 3.239430e+00 3.940572e+00 5.401449e+00 6.727374e+00 9.090379e+00 1.033798e+01 5.974025e+00 2.071757e+00 4.627977e-01 1.393211e+00 2.718449e+00 7.458181e-01 1.025375e+00 1.807482e+00 1.789561e+00 6.804318e-01 1.347196e+00 1.022868e+00 1.543063e+00 6.394326e-01 3.699076e-01 4.519561e-02 1.589023e-01 2.461742e-01 5.701499e-02 3.662541e-02 1.284866e-01 1.674276e-01 1.210354e-01 1.673428e-01 1.041619e-01 1.671916e-01 7.701653e-02 3.870523e-02
<GCONST> 6.388281e+01
~s "ST_p_2_1"
<MEAN> 39
 -2.065067e+01 1.453308e+00 -3.167764e+00 -1.088763e+00 -1.959203e-01 1.682122e+00 3.876950e+00 4.678607e+00 4.912454e+00 2.671186e+00 1.356893e+00 -1.772383e-01 5.876607e+01 -1.128297e-01 -8.195544e-02 -2.552219e-02 -5.320591e-02 -9.709346e-02 -1.080642e-01 -8.481400e-02 -8.393494e-02 -1.096433e-01 -1.309429e-01 -1.279054e-01 -1.046963e-01 -5.595208e-02 5.943846e-02 5.690650e-02 5.549925e-02 4.689841e-02 6.241707e-02 4.472110e-02 2.269172e-02 1.101231e-02 -8.106039e-03 1.340984e-02 4.441926e-02 3.623905e-02 3.401472e-02
<VARIANCE> 39
 1.141427e+00 1.582349e+00 3.241430e+00 4.839849e+00 5.544014e+00 6.868078e+00 7.255753e+00 8.604221e+00 9.152540e+00 7.704308e+00 7.659917e+00 6.944085e+00 1.447546e+00 1.133158e-01 1.666339e-01 3.165006e-01 4.995655e-01 6.778569e-01 8.199204e-01 7.660117e-01 8.633725e-01 9.205689e-01 8.267735e-01 8.669480e-01 7.322016e-01 3.306164e-02 2.489541e-02 4.015235e-02 6.647918e-02 1.062808e-01 1.413825e-01 1.669976e-01 1.729482e-01 1.929607e-01 2.024521e-01 1.717657e-01 1.700472e-01 1.466204e-01 9.054136e-03
<GCONST> 4.968111e+01
~s "ST_p_3_1"
<MEAN> 39
 -2.110415e+01 1.364636e+00 -2.674044e+00 -9.277278e-01 1.275744e-02 1.698011e+00 3.987866e+00 4.675831e+00 4.094967e+00 2.029584e+00 1.471971e+00 1.154063e-01 5.860853e+01 8.831875e-02 5.459750e-02 1.159136e-01 4.063598e-02 1.593924e-01 8.022753e-02 -1.140176e-01 -2.838628e-02 -3.115132e-01 -2.339802e-01 -8.285730e-02 -1.420490e-01 7.658582e-02 5.604740e-01 1.848195e-01 2.448269e-01 -1.006613e-01 9.704071e-02 -3.407442e-01 -3.433392e-01 -4.550147e-01 -6.024705e-01 -1.656262e-01 1.295512e-01 4.630498e-02 5.334741e-01
<VARIANCE> 39
 1.714006e+00 1.624625e+00 4.303336e+00 8.202641e+00 6.676594e+00 4.079138e+00 6.767227e+00 9.498194e+00 9.302590e+00 7.986829e+00 7.499284e+00 7.733060e+00 1.447546e+00 2.230645e-01 2.811309e-01 5.219258e-01 9.567066e-01 1.002607e+00 6.095741e-01 1.105454e+00 1.291827e+00 1.281498e+00 7.125282e-01 5.985547e-01 6.728365e-01 9.071203e-02 1.289011e-01 1.976777e-01 2.337063e-01 4.239440e-01 2.461464e-01 2.199987e-01 2.771883e-01 3.091306e-01 4.161322e-01 1.658768e-01 2.149774e-01 1.361796e-01 1.302329e-01
<GCONST> 6.587347e+01
~s "ST_p_4_1"
<MEAN> 39
 -2.039339e+01 1.976119e+00 -2.162037e+00 -6.687472e-01 2.907014e-01 1.482596e+00 3.261406e+00 4.021386e+00 3.560524e+00 1.990015e+00 1.240133e+00 -5.952460e-01 5.896796e+01 2.155880e+00 6.959929e-01 1.090531e+00 -3.501684e-01 6.075233e-01 -1.245178e+00 -1.365132e+00 -1.993065e+00 -2.815737e+00 -1.017085e+00 5.384795e-01 1.719899e-01 2.123676e+00 1.063301e+00 1.924425e-01 1.762656e-01 6.508148e-02 -1.215851e-01 -5.031141e-01 -2.515008e-01 -3.711792e-01 -8.673835e-01 -1.637988e-01 3.446161e-01 4.700925e-02 8.084425e-01
<VARIANCE> 39
 2.214319e+00 3.323995e+00 5.485751e+00 8.953913e+00 6.889440e+00 6.068907e+00 8.848988e+00 9.722806e+00 1.182430e+01 1.045694e+01 7.763588e+00 8.028893e+00 1.447546e+00 1.238483e+00 2.529299e+00 2.015663e+00 4.617414e+00 1.215940e+00 1.862248e+00 2.170920e+00 1.839157e+00 3.044764e+00 8.491924e-01 1.686127e+00 1.191331e+00 1.456980e+00 2.374947e-01 1.610862e-01 2.017618e-01 5.371599e-01 2.423423e-01 3.119597e-01 2.836546e-01 4.421752e-01 3.405228e-01 2.863835e-01 1.847530e-01 1.964092e-01 1.507030e-01
<GCONST> 8.499322e+01
~h "a"
<BEGINHMM>
<NUMSTATES> 5
<STATE> 2
~s "ST_a_2_1"
<STATE> 3
~s "ST_a_3_2"
<STATE> 4
~s "ST_a_4_1"
~t "T_a"
<ENDHMM>
~h "b"
<BEGINHMM>
<NUMSTATES> 5
<STATE> 2
~s "ST_b_2_1"
<STATE> 3
~s "ST_b_3_1"
<STATE> 4
~s "ST_b_4_1"
~t "T_b"
<ENDHMM>
~h "d"
<BEGINHMM>
<NUMSTATES> 5
<STATE> 2
~s "ST_d_2_1"
<STATE> 3
~s "ST_d_3_1"
<STATE> 4
~s "ST_d_4_1"
~t "T_d"
<ENDHMM>
~h "e"
<BEGINHMM>
<NUMSTATES> 5
<STATE> 2
~s "ST_e_2_1"
<STATE> 3
~s "ST_e_3_1"
<STATE> 4
~s "ST_e_4_1"
~t "T_e"
<ENDHMM>
~h "f"
<BEGINHMM>
<NUMSTATES> 5
<STATE> 2
~s "ST_f_2_1"
<STATE> 3
~s "ST_f_3_1"
<STATE> 4
~s "ST_f_4_1"
~t "T_f"
<ENDHMM>
~h "g"
<BEGINHMM>
<NUMSTATES> 5
<STATE> 2
~s "ST_g_2_1"
<STATE> 3
~s "ST_g_3_1"
<STATE> 4
~s "ST_g_4_1"
~t "T_g"
<ENDHMM>
~h "i"
<BEGINHMM>
<NUMSTATES> 5
<STATE> 2
~s "ST_i_2_1"
<STATE> 3
~s "ST_i_3_1"
<STATE> 4
~s "ST_i_4_1"
~t "T_i"
<ENDHMM>
~h "j"
<BEGINHMM>
<NUMSTATES> 5
<STATE> 2
~s "ST_j_2_1"
<STATE> 3
~s "ST_j_3_1"
<STATE> 4
~s "ST_j_4_1"
~t "T_j"
<ENDHMM>
~h "k"
<BEGINHMM>
<NUMSTATES> 5
<STATE> 2
~s "ST_k_2_1"
<STATE> 3
~s "ST_k_3_1"
<STATE> 4
~s "ST_k_4_1"
~t "T_k"
<ENDHMM>
~h "l"
<BEGINHMM>
<NUMSTATES> 5
<STATE> 2
~s "ST_l_2_1"
<STATE> 3
~s "ST_l_3_1"
<STATE> 4
~s "ST_l_4_1"
~t "T_l"
<ENDHMM>
~h "m"
<BEGINHMM>
<NUMSTATES> 5
<STATE> 2
~s "ST_m_2_1"
<STATE> 3
~s "ST_m_3_1"
<STATE> 4
~s "ST_m_4_1"
~t "T_m"
<ENDHMM>
~h "n"
<BEGINHMM>
<NUMSTATES> 5
<STATE> 2
~s "ST_n_2_1"
<STATE> 3
~s "ST_n_3_1"
<STATE> 4
~s "ST_n_4_1"
~t "T_n"
<ENDHMM>
~h "o"
<BEGINHMM>
<NUMSTATES> 5
<STATE> 2
~s "ST_o_2_1"
<STATE> 3
~s "ST_o_3_1"
<STATE> 4
~s "ST_o_4_1"
~t "T_o"
<ENDHMM>
~h "p"
<BEGINHMM>
<NUMSTATES> 5
<STATE> 2
~s "ST_p_2_1"
<STATE> 3
~s "ST_p_3_1"
<STATE> 4
~s "ST_p_4_1"
~t "T_p"
<ENDHMM>
~h "r"
<BEGINHMM>
<NUMSTATES> 5
<STATE> 2
~s "ST_r_2_1"
<STATE> 3
~s "ST_r_3_1"
<STATE> 4
~s "ST_r_4_1"
~t "T_r"
<ENDHMM>
~h "s"
<BEGINHMM>
<NUMSTATES> 5
<STATE> 2
~s "ST_s_2_1"
<STATE> 3
~s "ST_s_3_1"
<STATE> 4
~s "ST_s_4_1"
~t "T_s"
<ENDHMM>
~h "t"
<BEGINHMM>
<NUMSTATES> 5
<STATE> 2
~s "ST_t_2_1"
<STATE> 3
~s "ST_t_3_1"
<STATE> 4
~s "ST_t_4_1"
~t "T_t"
<ENDHMM>
~h "u"
<BEGINHMM>
<NUMSTATES> 5
<STATE> 2
~s "ST_u_2_1"
<STATE> 3
~s "ST_u_3_1"
<STATE> 4
~s "ST_u_4_1"
~t "T_u"
<ENDHMM>
~h "w"
<BEGINHMM>
<NUMSTATES> 5
<STATE> 2
~s "ST_w_2_1"
<STATE> 3
~s "ST_w_3_1"
<STATE> 4
~s "ST_w_4_1"
~t "T_w"
<ENDHMM>
~h "y"
<BEGINHMM>
<NUMSTATES> 5
<STATE> 2
~s "ST_y_2_1"
<STATE> 3
~s "ST_y_3_1"
<STATE> 4
~s "ST_y_4_1"
~t "T_y"
<ENDHMM>
~h "sp"
<BEGINHMM>
<NUMSTATES> 3
<STATE> 2
~s "ST_sil_3_1"
<TRANSP> 3
 0.000000e+00 5.152086e-02 9.484792e-01
 0.000000e+00 5.564983e-01 4.435016e-01
 0.000000e+00 0.000000e+00 0.000000e+00
<ENDHMM>
~h "sy"
<BEGINHMM>
<NUMSTATES> 5
<STATE> 2
~s "ST_sy_2_1"
<STATE> 3
~s "ST_sy_3_1"
<STATE> 4
~s "ST_sy_4_1"
~t "T_sy"
<ENDHMM>
~h "a-d+u"
<BEGINHMM>
<NUMSTATES> 5
<STATE> 2
~s "ST_d_2_2"
<STATE> 3
~s "ST_d_3_2"
<STATE> 4
~s "ST_d_4_1"
~t "T_d"
<ENDHMM>
~h "n-a+r"
<BEGINHMM>
<NUMSTATES> 5
<STATE> 2
~s "ST_a_2_1"
<STATE> 3
~s "ST_a_3_2"
<STATE> 4
~s "ST_a_4_2"
~t "T_a"
<ENDHMM>
~h "a-i+b"
<BEGINHMM>
<NUMSTATES> 5
<STATE> 2
~s "ST_i_2_1"
<STATE> 3
~s "ST_i_3_1"
<STATE> 4
~s "ST_i_4_2"
~t "T_i"
<ENDHMM>
~h "g-a+i"
<BEGINHMM>
<NUMSTATES> 5
<STATE> 2
~s "ST_a_2_1"
<STATE> 3
~s "ST_a_3_1"
<STATE> 4
~s "ST_a_4_4"
~t "T_a"
<ENDHMM>
~h "j-a+d"
<BEGINHMM>
<NUMSTATES> 5
<STATE> 2
~s "ST_a_2_1"
<STATE> 3
~s "ST_a_3_2"
<STATE> 4
~s "ST_a_4_3"
~t "T_a"
<ENDHMM>
~h "a+p"
<BEGINHMM>
<NUMSTATES> 5
<STATE> 2
~s "ST_a_2_3"
<STATE> 3
~s "ST_a_3_2"
<STATE> 4
~s "ST_a_4_1"
~t "T_a"
<ENDHMM>
~h "m-a+t"
<BEGINHMM>
<NUMSTATES> 5
<STATE> 2
~s "ST_a_2_1"
<STATE> 3
~s "ST_a_3_1"
<STATE> 4
~s "ST_a_4_1"
~t "T_a"
<ENDHMM>
~h "d-a"
<BEGINHMM>
<NUMSTATES> 5
<STATE> 2
~s "ST_a_2_1"
<STATE> 3
~s "ST_a_3_1"
<STATE> 4
~s "ST_a_4_2"
~t "T_a"
<ENDHMM>
~h "k-a"
<BEGINHMM>
<NUMSTATES> 5
<STATE> 2
~s "ST_a_2_1"
<STATE> 3
~s "ST_a_3_3"
<STATE> 4
~s "ST_a_4_4"
~t "T_a"
<ENDHMM>
~h "p-a"
<BEGINHMM>
<NUMSTATES> 5
<STATE> 2
~s "ST_a_2_2"
<STATE> 3
~s "ST_a_3_1"
<STATE> 4
~s "ST_a_4_1"
~t "T_a"
<ENDHMM>
~h "sil"
<BEGINHMM>
<NUMSTATES> 5
<STATE> 2
~s "ST_sil_2_1"
<STATE> 3
~s "ST_sil_3_1"
<STATE> 4
~s "ST_sil_4_1"
<TRANSP> 5
 0.000000e+00 1.000000e+00 0.000000e+00 0.000000e+00 0.000000e+00
 0.000000e+00 7.703395e-01 1.148365e-01 1.148240e-01 0.000000e+00
 0.000000e+00 0.000000e+00 9.112737e-01 8.872634e-02 0.000000e+00
 0.000000e+00 0.000000e+00 0.000000e+00 9.864051e-01 1.359487e-02
 0.000000e+00 0.000000e+00 0.000000e+00 0.000000e+00 0.000000e+00
<ENDHMM>
~h "p-a+n"
<BEGINHMM>
<NUMSTATES> 5
<STATE> 2
~s "ST_a_2_2"
<STATE> 3
~s "ST_a_3_2"
<STATE> 4
~s "ST_a_4_2"
~t "T_a"
<ENDHMM>
~h "i-s+t"
<BEGINHMM>
<NUMSTATES> 5
<STATE> 2
~s "ST_s_2_1"
<STATE> 3
~s "ST_s_3_1"
<STATE> 4
~s "ST_s_4_2"
~t "T_s"
<ENDHMM>
~h "y-a+p"
<BEGINHMM>
<NUMSTATES> 5
<STATE> 2
~s "ST_a_2_3"
<STATE> 3
~s "ST_a_3_1"
<STATE> 4
~s "ST_a_4_1"
~t "T_a"
<ENDHMM>
~h "k-a+p"
<BEGINHMM>
<NUMSTATES> 5
<STATE> 2
~s "ST_a_2_3"
<STATE> 3
~s "ST_a_3_3"
<STATE> 4
~s "ST_a_4_4"
~t "T_a"
<ENDHMM>
