~o
<STREAMINFO> 1 39
<VECSIZE> 39<NULLD><MFCC_D_A_0><DIAGC>
~s "silst"
<MEAN> 39
 -1.630393e+01 1.669030e+00 -1.864942e+00 4.583471e-01 -1.593097e-01 1.570943e+00 2.020189e+00 2.913988e+00 2.746025e+00 1.850936e+00 6.994669e-01 8.439083e-02 3.155084e+01 -2.283910e+00 2.230548e-01 -2.306433e-01 2.273603e-02 9.074220e-02 3.066162e-01 5.182287e-01 5.441869e-01 5.579664e-01 2.978375e-01 1.315809e-01 -2.776030e-02 5.916637e+00 3.004513e-01 -4.076402e-02 2.180628e-02 -4.319897e-02 2.977972e-02 -1.970784e-02 2.293611e-02 -2.007421e-02 -1.646572e-02 -2.688618e-02 -1.766771e-03 -3.074304e-02 1.122246e-01
<VARIANCE> 39
 7.893953e+01 3.207342e+00 4.725607e+00 4.317821e+00 4.819544e+00 5.722696e+00 8.654591e+00 9.351655e+00 9.834472e+00 6.073105e+00 5.200798e+00 4.905080e+00 4.333024e+02 8.759857e+00 3.021553e-01 5.741959e-01 5.325842e-01 5.923250e-01 6.269540e-01 8.866481e-01 9.004835e-01 8.533689e-01 6.862820e-01 5.729789e-01 5.387521e-01 1.001218e+01 1.661552e+00 5.153138e-02 1.093438e-01 9.014941e-02 1.122848e-01 1.402172e-01 2.024839e-01 1.869086e-01 1.930953e-01 1.487336e-01 1.230702e-01 1.075167e-01 2.469680e+00
<GCONST> 7.903030e+01
~h "a"
<BEGINHMM>
<NUMSTATES> 5
<STATE> 2
<MEAN> 39
 -9.887535e+00 2.631526e+00 -2.048035e+00 -6.502985e-01 2.327630e-01 -2.806078e+00 1.050021e+00 3.343124e-01 -3.234613e+00 2.830647e+00 4.662011e+00 -8.183594e-01 6.751175e+01 8.343338e-01 1.025767e-01 6.550345e-02 3.548190e-03 -1.661569e-01 -5.048956e-01 -4.133402e-01 -7.686643e-02 -3.817041e-01 -5.197861e-02 2.940750e-01 -7.188933e-02 6.462876e-01 -5.504529e-02 -1.024330e-01 -7.598656e-02 3.052370e-02 -5.883734e-02 5.801518e-02 9.576461e-02 4.429166e-02 -3.672414e-03 1.941903e-02 4.046497e-02 1.111190e-02 -5.304345e-02
<VARIANCE> 39
 7.660300e+01 2.739248e+01 2.727859e+01 3.837399e+01 2.993658e+01 3.939100e+01 4.767932e+01 2.649983e+01 5.546713e+01 2.485005e+01 1.944651e+01 1.154142e+01 5.021122e+01 6.813955e+00 2.298411e+00 1.873370e+00 1.781015e+00 2.275088e+00 3.366380e+00 3.418317e+00 2.808172e+00 5.202085e+00 1.532814e+00 1.860151e+00 1.154146e+00 4.572360e+00 7.814702e-01 4.293953e-01 3.204357e-01 2.855623e-01 3.696240e-01 5.440916e-01 5.432298e-01 4.576556e-01 5.813832e-01 2.646762e-01 2.981689e-01 2.215832e-01 4.861106e-01
<GCONST> 1.178771e+02
<STATE> 3
<MEAN> 39
 -1.129518e+01 6.035400e+00 1.742185e+00 4.075667e+00 3.698942e+00 4.664623e-01 1.673685e-01 1.888547e+00 1.721309e+00 3.212891e+00 3.644776e+00 -6.795422e-01 6.490780e+01 -5.389856e-01 -3.309730e-01 -1.643316e-01 -1.175144e-01 -9.809948e-02 2.920853e-01 6.119780e-01 3.725792e-01 1.781191e-01 -2.118191e-02 -1.596745e-02 5.329207e-02 -2.795051e-01 2.010189e-02 -3.633897e-02 -2.949469e-02 -4.900316e-02 -3.503461e-02 -2.806542e-02 -5.783063e-02 -1.556853e-01 -1.465218e-01 -6.156269e-02 -1.228212e-02 -1.065034e-02 1.833000e-02
<VARIANCE> 39
 4.675741e+01 2.540146e+01 2.368482e+01 4.104052e+01 3.296855e+01 3.266129e+01 4.580656e+01 2.894954e+01 5.503568e+01 1.312089e+01 2.312420e+01 9.402591e+00 3.359818e+01 8.600628e-01 1.019878e+00 1.136348e+00 1.330049e+00 1.176219e+00 1.551821e+00 1.773917e+00 1.752325e+00 1.536966e+00 8.223577e-01 7.655547e-01 7.218445e-01 4.331402e-01 1.625232e-01 1.705583e-01 1.782661e-01 1.720261e-01 2.122597e-01 2.985072e-01 3.184361e-01 2.808369e-01 3.344877e-01 1.576358e-01 1.526767e-01 1.365118e-01 9.248701e-02
<GCONST> 9.467142e+01
<STATE> 4
<MEAN> 39
 -1.279777e+01 2.425151e+00 -2.775018e+00 8.922666e-03 5.356070e-01 7.534006e-01 2.925642e+00 1.868428e+00 -8.092549e-01 2.807629e+00 5.446760e+00 4.260002e-01 6.450003e+01 -3.770441e-01 2.316634e-02 5.917615e-02 8.044204e-02 1.410159e-01 2.759381e-01 1.966440e-01 -3.558733e-03 1.720731e-01 2.271758e-03 -2.109385e-01 -1.312047e-04 -3.006876e-01 3.226373e-02 3.374406e-02 6.095222e-02 2.111292e-02 1.653879e-02 -3.418636e-02 -7.709533e-02 -4.653982e-02 -3.908749e-02 -3.682222e-02 -2.586318e-02 -1.471831e-02 2.089456e-02
<VARIANCE> 39
 7.628547e+01 1.198525e+01 1.074600e+01 1.394676e+01 1.946015e+01 2.830292e+01 2.408701e+01 2.405271e+01 5.901004e+01 1.057903e+01 3.087864e+01 7.906750e+00 4.640057e+01 7.582926e-01 9.104039e-01 8.920883e-01 9.333930e-01 9.979615e-01 1.194070e+00 1.106678e+00 1.229624e+00 1.599492e+00 8.501578e-01 7.862006e-01 6.761333e-01 4.315999e-01 6.866270e-02 1.188757e-01 1.235639e-01 1.375684e-01 1.506288e-01 1.894428e-01 2.112634e-01 2.532491e-01 2.627729e-01 1.541417e-01 1.369642e-01 1.312929e-01 4.219647e-02
<GCONST> 8.495737e+01
<TRANSP> 5
 0.000000e+00 1.000000e+00 0.000000e+00 0.000000e+00 0.000000e+00
 0.000000e+00 7.352898e-01 2.647103e-01 0.000000e+00 0.000000e+00
 0.000000e+00 0.000000e+00 5.685458e-01 4.314542e-01 0.000000e+00
 0.000000e+00 0.000000e+00 0.000000e+00 8.226407e-01 1.773593e-01
 0.000000e+00 0.000000e+00 0.000000e+00 0.000000e+00 0.000000e+00
<ENDHMM>
~h "b"
<BEGINHMM>
<NUMSTATES> 5
<STATE> 2
<MEAN> 39
 -2.063545e+01 1.860456e+00 -2.431756e+00 -5.304542e-01 3.573359e-01 2.469411e+00 4.629078e+00 5.110250e+00 5.265564e+00 3.033224e+00 2.026042e+00 1.156379e-02 5.874005e+01 -1.335306e-01 -1.008161e-01 -1.177661e-01 -2.107159e-01 -2.166961e-01 -1.258673e-01 -2.142406e-02 3.051741e-02 -8.001062e-04 -7.767034e-02 -4.688415e-02 -3.687542e-03 -6.340586e-02 4.172716e-02 4.104714e-02 4.771969e-02 8.407874e-02 8.487451e-02 3.917652e-02 -2.655074e-03 -3.688054e-02 -3.574937e-02 -2.813426e-03 -7.990581e-03 -1.338238e-02 2.033072e-02
<VARIANCE> 39
 1.837066e+00 2.317181e+00 3.615787e+00 5.025967e+00 6.394243e+00 9.231950e+00 1.067142e+01 1.030082e+01 9.286926e+00 8.707443e+00 7.077106e+00 6.077597e+00 1.447546e+00 2.058981e-01 2.746151e-01 4.239980e-01 7.985200e-01 8.677922e-01 9.418689e-01 1.172240e+00 1.172064e+00 1.138277e+00 1.230571e+00 8.397182e-01 6.912379e-01 5.094983e-02 4.485706e-02 5.501750e-02 8.069725e-02 1.500089e-01 1.581895e-01 1.853804e-01 2.489397e-01 2.257165e-01 2.256361e-01 2.507342e-01 1.791797e-01 1.412738e-01 1.107690e-02
<GCONST> 5.842567e+01
<STATE> 3
<MEAN> 39
 -2.097662e+01 1.289298e+00 -3.187412e+00 -1.077878e+00 -4.671286e-01 1.178656e+00 3.557650e+00 4.437077e+00 4.078277e+00 1.587274e+00 6.430339e-01 -8.326999e-01 5.861795e+01 1.320794e-02 -4.571764e-03 3.122631e-03 3.278550e-02 3.622846e-02 -7.003611e-03 -5.299816e-02 -4.429348e-02 -3.498718e-02 -3.321117e-02 -2.527709e-02 -2.393432e-02 8.699905e-03 1.773383e-03 -6.785170e-03 -1.175609e-02 -1.619627e-02 -1.029326e-02 -6.192993e-03 7.699260e-03 5.269239e-03 1.045757e-02 1.503735e-02 8.444956e-03 -6.579379e-03 1.631076e-03
<VARIANCE> 39
 1.382990e+00 2.126023e+00 3.415787e+00 4.701741e+00 4.676830e+00 5.387438e+00 6.279260e+00 7.594796e+00 7.993159e+00 8.412736e+00 6.542822e+00 6.317307e+00 1.447546e+00 1.060763e-01 1.475046e-01 2.466740e-01 5.372079e-01 5.621402e-01 5.411004e-01 6.745069e-01 9.440988e-01 9.263161e-01 9.783017e-01 7.185042e-01 7.064199e-01 4.206739e-02 2.119217e-02 2.848516e-02 4.671578e-02 1.131113e-01 1.167611e-01 1.102751e-01 1.505770e-01 2.084671e-01 1.913430e-01 2.115954e-01 1.541609e-01 1.521603e-01 7.988908e-03
<GCONST> 4.689997e+01
<STATE> 4
<MEAN> 39
 -2.069112e+01 6.890954e-01 -4.262334e+00 -1.911601e+00 -7.104073e-01 8.008124e-01 2.865628e+00 3.296410e+00 3.611723e+00 1.289853e+00 9.507232e-01 -8.536656e-01 5.884491e+01 8.895582e-02 -1.331882e-01 -2.391951e-01 -2.137751e-01 -3.060863e-02 4.336247e-02 2.781319e-01 3.057730e-01 3.345282e-01 4.383377e-01 4.243423e-02 -7.393393e-02 4.738688e-02 2.856082e-01 1.533706e-01 2.426895e-01 1.840743e-01 2.001957e-01 1.798770e-01 -8.780853e-02 -2.443679e-01 -2.355705e-01 -2.960069e-02 -5.126886e-03 2.378784e-02 2.175509e-01
<VARIANCE> 39
 1.539585e+00 3.238750e+00 6.079815e+00 6.129531e+00 5.426596e+00 3.022920e+00 4.607529e+00 1.382581e+01 1.164235e+01 5.896779e+00 4.840291e+00 4.360254e+00 1.447546e+00 2.008708e-01 2.205005e-01 3.299093e-01 7.619050e-01 5.669719e-01 5.966679e-01 9.997722e-01 2.382430e+00 1.234366e+00 1.183350e+00 5.923515e-01 5.939113e-01 6.419224e-02 1.050462e-01 1.339140e-01 9.367946e-02 1.431530e-01 2.095616e-01 8.185351e-02 2.204822e-01 7.659934e-01 5.966570e-01 1.341196e-01 1.229933e-01 1.035122e-01 8.148468e-02
<GCONST> 5.956059e+01
<TRANSP> 5
 0.000000e+00 1.000000e+00 0.000000e+00 0.000000e+00 0.000000e+00
 0.000000e+00 9.417185e-01 5.828150e-02 0.000000e+00 0.000000e+00
 0.000000e+00 0.000000e+00 9.621486e-01 3.785134e-02 0.000000e+00
 0.000000e+00 0.000000e+00 0.000000e+00 6.182826e-01 3.817174e-01
 0.000000e+00 0.000000e+00 0.000000e+00 0.000000e+00 0.000000e+00
<ENDHMM>
~h "d"
<BEGINHMM>
<NUMSTATES> 5
<STATE> 2
<MEAN> 39
 -6.547654e+00 4.567542e+00 9.503613e-01 3.444919e+00 4.763748e+00 -1.501287e+00 -2.224334e+00 -4.491945e+00 -9.944722e+00 -4.920119e+00 3.630612e+00 6.748988e-01 6.959246e+01 5.398797e-01 1.555021e-01 2.730963e-01 3.871238e-01 2.547354e-01 -1.330774e-01 -2.790078e-01 -3.299262e-01 -7.323089e-01 -5.011854e-01 5.676952e-02 -2.267912e-03 3.798260e-01 -5.348197e-02 -4.027583e-03 -6.668150e-02 3.222484e-02 -3.687659e-02 -2.310104e-02 2.555930e-02 1.202138e-01 7.828442e-02 2.465629e-02 -1.167308e-03 -1.046859e-03 -8.497965e-02
<VARIANCE> 39
 5.101828e+01 3.611154e+01 3.860017e+01 3.074807e+01 1.648348e+01 2.048486e+01 2.424494e+01 3.060513e+01 7.836724e+01 3.046005e+01 1.803383e+01 9.765688e+00 3.232967e+01 4.702644e+00 4.036121e+00 2.574385e+00 2.527417e+00 1.673124e+00 2.428091e+00 2.771402e+00 3.036596e+00 6.967615e+00 2.744563e+00 1.849372e+00 1.064818e+00 3.203403e+00 7.134473e-01 7.077144e-01 4.220623e-01 4.167697e-01 3.118064e-01 4.094407e-01 3.970428e-01 3.614911e-01 8.316677e-01 4.304384e-01 3.089579e-01 1.842909e-01 3.874343e-01
<GCONST> 1.170103e+02
<STATE> 3
<MEAN> 39
 -8.571896e+00 4.774215e+00 7.061235e+00 1.337924e+01 8.366280e+00 -4.718896e+00 -6.180864e+00 -1.837517e+00 -1.014124e+01 -5.534001e+00 6.057353e+00 -2.368493e+00 6.803223e+01 -4.210102e-01 4.231139e-02 -8.103028e-03 3.370558e-02 -1.166422e-01 -1.786270e-02 2.694635e-01 5.633121e-01 6.817042e-01 2.271283e-01 -2.121136e-01 -1.522638e-01 -3.746742e-01 -4.619881e-02 -3.466655e-02 -2.648712e-02 -1.430838e-01 -8.406116e-02 5.433038e-02 7.282303e-02 -4.739510e-02 1.091179e-01 1.162119e-01 -3.591233e-02 6.820434e-03 -2.357826e-03
<VARIANCE> 39
 2.513267e+01 2.471405e+01 2.469135e+01 6.929725e+01 2.621761e+01 4.577810e+01 5.249316e+01 2.117844e+01 7.208525e+01 4.562224e+01 2.639991e+01 1.548712e+01 2.162716e+01 8.436223e-01 1.906672e+00 9.486852e-01 1.608951e+00 1.455318e+00 1.889388e+00 3.061912e+00 1.998957e+00 4.093331e+00 2.077929e+00 1.658684e+00 8.189638e-01 9.696596e-01 1.220998e-01 2.991266e-01 1.741474e-01 2.846630e-01 2.323765e-01 3.706781e-01 5.387144e-01 3.748742e-01 6.714770e-01 3.647381e-01 2.494465e-01 1.586794e-01 1.353824e-01
<GCONST> 1.059791e+02
<STATE> 4
<MEAN> 39
 -1.764271e+01 3.369185e+00 -5.453219e-01 2.135724e+00 1.948229e+00 1.237482e+00 2.596108e+00 3.751131e+00 3.021773e+00 1.916219e+00 1.675805e+00 -4.457714e-01 6.064989e+01 -3.637331e-01 -3.638913e-02 -1.703203e-01 -4.593380e-01 -3.803854e-01 1.080296e-01 2.917284e-01 2.783557e-01 5.309303e-01 1.926280e-01 -2.260768e-01 1.121161e-01 -2.784326e-01 1.147363e-01 -3.301508e-02 4.903802e-02 2.658787e-02 3.385086e-02 -8.784951e-02 -1.527088e-01 -2.261206e-01 -2.658479e-01 -8.900562e-02 7.546740e-02 3.932359e-03 1.356466e-01
<VARIANCE> 39
 2.411364e+01 1.088016e+01 2.041147e+01 3.642006e+01 1.669321e+01 1.812288e+01 1.635232e+01 1.564238e+01 4.160639e+01 1.966229e+01 1.172272e+01 1.243450e+01 1.214927e+01 7.027571e-01 1.014009e+00 1.119204e+00 1.620490e+00 1.079693e+00 2.015083e+00 1.917226e+00 1.407417e+00 2.787138e+00 1.530427e+00 1.143716e+00 8.303810e-01 4.018800e-01 1.015447e-01 1.592816e-01 1.577042e-01 2.131132e-01 1.893896e-01 3.600676e-01 3.310510e-01 3.882711e-01 5.753790e-01 2.987408e-01 2.200859e-01 1.662455e-01 9.404068e-02
<GCONST> 9.212758e+01
<TRANSP> 5
 0.000000e+00 1.000000e+00 0.000000e+00 0.000000e+00 0.000000e+00
 0.000000e+00 8.641956e-01 1.358044e-01 0.000000e+00 0.000000e+00
 0.000000e+00 0.000000e+00 7.535408e-01 2.464592e-01 0.000000e+00
 0.000000e+00 0.000000e+00 0.000000e+00 6.904590e-01 3.095410e-01
 0.000000e+00 0.000000e+00 0.000000e+00 0.000000e+00 0.000000e+00
<ENDHMM>
~h "e"
<BEGINHMM>
<NUMSTATES> 5
<STATE> 2
<MEAN> 39
 -8.289396e+00 2.104551e+00 2.440824e-01 1.873111e+00 2.130506e+00 -1.123081e+00 -9.041048e-01 -6.593668e+00 -1.082216e+01 -1.547353e+00 7.896667e+00 1.519864e+00 6.956965e+01 1.184736e+00 -3.430735e-01 -1.746344e-01 9.191841e-01 4.548058e-01 -6.651131e-01 -4.432010e-01 -1.335324e+00 -1.858250e+00 -1.069166e-01 9.610733e-01 2.118224e-01 1.011939e+00 -1.291490e-01 -1.663015e-01 -1.453499e-02 -4.435896e-02 -7.751339e-02 -3.003151e-02 4.986730e-02 2.441819e-01 1.717327e-01 2.272587e-01 -7.285090e-03 -5.908964e-02 -4.147825e-02
<VARIANCE> 39
 4.936750e+01 3.735359e+01 2.724875e+01 5.231883e+01 3.440644e+01 2.120678e+01 2.570156e+01 6.565845e+01 8.541164e+01 3.134749e+01 3.317781e+01 1.219615e+01 3.949792e+01 5.356521e+00 4.128013e+00 2.966739e+00 5.370830e+00 1.948563e+00 3.983223e+00 2.675830e+00 4.903993e+00 8.658294e+00 2.159336e+00 3.594768e+00 1.562676e+00 4.057560e+00 8.409185e-01 6.985666e-01 4.708216e-01 8.154480e-01 3.874398e-01 3.751162e-01 3.207733e-01 7.936021e-01 1.194387e+00 3.828701e-01 5.434784e-01 2.215436e-01 4.602968e-01
<GCONST> 1.261362e+02
<STATE> 3
<MEAN> 39
 -4.547216e+00 2.144330e-01 1.501679e-03 8.360637e+00 4.011337e+00 -3.406408e+00 -2.340354e+00 -9.809281e+00 -1.584246e+01 2.063616e-01 1.057871e+01 1.219208e+00 7.187625e+01 -3.702339e-01 1.560986e-01 4.208199e-02 4.052013e-01 1.089992e-01 1.266932e-01 4.803517e-01 6.668016e-01 5.752416e-01 6.851049e-01 5.027051e-02 -1.424186e-01 -4.456468e-01 -3.707095e-01 -1.130732e-02 -7.321289e-02 -5.615944e-01 -1.170098e-01 1.963980e-01 1.361204e-01 4.386894e-01 6.186254e-01 4.725578e-02 -2.195122e-01 -7.682489e-02 -1.812543e-01
<VARIANCE> 39
 2.895687e+01 3.843481e+01 2.293109e+01 4.828340e+01 2.483513e+01 4.824323e+01 3.599324e+01 4.924025e+01 7.508118e+01 2.568983e+01 3.189048e+01 1.555607e+01 3.067960e+01 3.792100e+00 2.043444e+00 1.574394e+00 3.744781e+00 1.909365e+00 4.524892e+00 2.080250e+00 3.560524e+00 7.266453e+00 1.861848e+00 2.968365e+00 1.169101e+00 2.765403e+00 3.450910e-01 4.532622e-01 3.713827e-01 5.289391e-01 3.040804e-01 5.815382e-01 3.149435e-01 5.379605e-01 7.258680e-01 2.985521e-01 4.949801e-01 1.764362e-01 2.344775e-01
<GCONST> 1.179038e+02
<STATE> 4
<MEAN> 39
 -6.777460e+00 1.871845e+00 -3.554736e-01 4.392496e+00 3.458484e+00 -1.220286e+00 4.333920e-01 -7.044547e+00 -1.153495e+01 3.580419e+00 9.300007e+00 3.752394e-01 7.016911e+01 -7.798439e-01 3.986593e-01 2.152909e-02 -1.558577e-01 4.623004e-02 1.327356e-01 -6.939895e-03 9.377949e-01 1.572894e+00 3.623472e-01 -8.011684e-01 -5.417986e-01 -7.559788e-01 -6.346749e-02 2.144970e-03 8.793028e-03 -1.061852e-01 -1.211659e-01 -6.489686e-02 -1.829116e-01 -4.576625e-02 1.700093e-01 -7.598217e-02 -1.790300e-01 -7.169682e-02 -4.931907e-02
<VARIANCE> 39
 4.321341e+01 3.077063e+01 1.897675e+01 4.109264e+01 2.478460e+01 4.339536e+01 3.662698e+01 7.152578e+01 1.260253e+02 2.287570e+01 4.155907e+01 1.473336e+01 4.636905e+01 1.609341e+00 2.445097e+00 1.475097e+00 2.668370e+00 1.557703e+00 1.877024e+00 3.012684e+00 2.934035e+00 6.901186e+00 1.253117e+00 2.970160e+00 1.151969e+00 1.381120e+00 1.753760e-01 3.315237e-01 2.277751e-01 4.689386e-01 2.687392e-01 3.843310e-01 4.715771e-01 4.537455e-01 9.538197e-01 1.738865e-01 5.030211e-01 1.915034e-01 1.653225e-01
<GCONST> 1.134731e+02
<TRANSP> 5
 0.000000e+00 1.000000e+00 0.000000e+00 0.000000e+00 0.000000e+00
 0.000000e+00 6.998038e-01 3.001962e-01 0.000000e+00 0.000000e+00
 0.000000e+00 0.000000e+00 5.456337e-01 4.543663e-01 0.000000e+00
 0.000000e+00 0.000000e+00 0.000000e+00 7.105160e-01 2.894839e-01
 0.000000e+00 0.000000e+00 0.000000e+00 0.000000e+00 0.000000e+00
<ENDHMM>
~h "f"
<BEGINHMM>
<NUMSTATES> 5
<STATE> 2
<MEAN> 39
 -7.350779e+00 5.270155e+00 1.026227e+01 1.832648e+01 1.012034e+01 -7.659993e+00 -7.754981e+00 -1.647910e+00 -1.539092e+01 -7.173170e+00 8.881211e+00 -5.242805e+00 6.886420e+01 -4.590180e-01 4.662183e-01 -1.276121e-02 -3.326233e-01 -6.133848e-01 6.335481e-01 1.026511e+00 1.023430e-01 9.504517e-01 6.050096e-01 -6.387110e-01 1.471170e-01 -5.703908e-01 -8.867206e-02 2.857573e-02 -2.293114e-02 -1.941780e-01 4.276745e-02 2.215409e-01 7.595358e-02 1.250305e-01 3.011687e-01 1.101846e-01 -8.578801e-02 1.042822e-01 -5.988061e-02
<VARIANCE> 39
 2.844550e+00 6.030967e+00 7.717445e+00 8.571171e+00 8.797869e+00 1.507574e+01 1.826917e+01 2.252107e+01 2.112110e+01 1.908621e+01 1.584616e+01 5.538784e+00 4.301305e+00 9.815608e-02 2.967446e-01 4.390282e-01 1.105704e+00 6.041903e-01 1.551936e+00 1.392284e+00 1.782892e+00 2.695936e+00 1.372282e+00 9.246044e-01 7.704331e-01 9.639391e-02 2.096986e-02 5.847996e-02 1.031304e-01 1.539204e-01 1.005469e-01 1.738127e-01 3.638490e-01 4.640304e-01 3.986090e-01 2.415376e-01 1.987613e-01 1.563392e-01 1.432373e-02
<GCONST> 7.003698e+01
<STATE> 3
<MEAN> 39
 -1.952977e+01 2.421971e+00 -1.152557e+00 1.521667e+00 1.395654e+00 2.193431e+00 4.204381e+00 4.902235e+00 3.470745e+00 1.494659e+00 3.403725e-01 -1.031495e+00 5.941214e+01 -4.198678e-01 -2.333681e-01 -4.927987e-01 -6.459393e-01 -2.775003e-01 2.383477e-01 3.515427e-01 3.846694e-01 4.962342e-01 1.978343e-01 -2.182977e-01 1.658826e-01 -2.827337e-01 4.555006e-02 -5.225363e-02 1.394804e-02 5.719481e-02 2.002443e-02 -7.448168e-02 -1.939658e-02 1.137599e-03 -1.323983e-01 -2.872609e-02 1.025527e-01 -4.429447e-02 5.162501e-02
<VARIANCE> 39
 1.233341e+01 1.099077e+01 2.492291e+01 3.390194e+01 1.099034e+01 6.561885e+00 8.095852e+00 1.062519e+01 1.512998e+01 3.932560e+00 6.155951e+00 7.948225e+00 3.874231e+00 4.058654e-01 4.830020e-01 9.163201e-01 1.074964e+00 4.800942e-01 9.912315e-01 1.633822e+00 1.360861e+00 1.739745e+00 4.859217e-01 7.554290e-01 1.744561e+00 2.177164e-01 2.460167e-02 9.148026e-02 1.242313e-01 8.414799e-02 6.516036e-02 1.189305e-01 1.523342e-01 1.945692e-01 2.106413e-01 8.455211e-02 1.515278e-01 3.318170e-01 8.057845e-03
<GCONST> 6.750942e+01
<STATE> 4
<MEAN> 39
 -1.002749e+01 1.639794e+00 2.254189e+00 3.937447e+00 6.414411e+00 -2.808244e-01 -3.617721e+00 -6.306087e+00 -6.913149e+00 8.509223e-01 4.420863e+00 -2.120381e+00 6.934373e+01 1.674008e-01 -4.975593e-02 2.420910e-01 3.129621e-01 6.809594e-02 -2.774374e-02 -8.904152e-02 -9.837878e-02 -1.016424e-01 -1.172411e-01 8.257171e-02 -7.727093e-03 1.660065e-01 -4.499717e-02 4.879954e-03 -3.586246e-02 -6.942477e-02 -2.383889e-02 3.941841e-02 3.228515e-02 4.615788e-02 5.414480e-02 -8.937435e-03 -1.196320e-02 -2.370691e-02 -3.155540e-02
<VARIANCE> 39
 7.210406e+01 2.654298e+01 3.549453e+01 8.273615e+01 2.310117e+01 1.793788e+01 3.335841e+01 5.649591e+01 5.169706e+01 2.382338e+01 2.280720e+01 1.473135e+01 3.062449e+01 7.298849e+00 2.395163e+00 3.007586e+00 7.817252e+00 3.549602e+00 2.019733e+00 3.535475e+00 8.689316e+00 6.556501e+00 2.213752e+00 3.218443e+00 1.551785e+00 2.602098e+00 1.150806e+00 3.931111e-01 5.027805e-01 1.445284e+00 7.531270e-01 3.207205e-01 5.576165e-01 1.720279e+00 1.173171e+00 4.305536e-01 6.999120e-01 2.673717e-01 3.767540e-01
<GCONST> 1.278856e+02
<TRANSP> 5
 0.000000e+00 1.000000e+00 0.000000e+00 0.000000e+00 0.000000e+00
 0.000000e+00 9.184119e-01 8.158817e-02 0.000000e+00 0.000000e+00
 0.000000e+00 0.000000e+00 8.926351e-01 1.073649e-01 0.000000e+00
 0.000000e+00 0.000000e+00 0.000000e+00 9.495032e-01 5.049682e-02
 0.000000e+00 0.000000e+00 0.000000e+00 0.000000e+00 0.000000e+00
<ENDHMM>
~h "g"
<BEGINHMM>
<NUMSTATES> 5
<STATE> 2
<MEAN> 39
 -1.097714e+01 6.990396e+00 2.524691e+00 4.538240e+00 2.063524e+00 -3.855610e-01 -1.374292e+00 -5.423573e-01 8.301482e-01 3.453056e+00 2.015305e+00 -3.175568e+00 6.454401e+01 2.398275e-01 -7.740141e-01 4.279124e-01 9.259462e-01 5.534791e-01 -2.280390e-01 -1.172378e+00 -1.509906e+00 -4.029014e-01 2.457385e-01 7.440621e-01 -3.157191e-01 6.885956e-01 2.626238e-01 -5.654367e-01 -2.399914e-01 1.797377e-01 2.799825e-01 -2.320441e-01 -3.070109e-01 -4.729717e-01 -6.809126e-01 -1.424616e-01 1.085978e-01 -1.296358e-01 4.401469e-01
<VARIANCE> 39
 3.937024e+01 2.456878e+01 2.167302e+01 1.791279e+01 8.892898e+00 1.121868e+01 2.825040e+01 3.509138e+01 2.392358e+01 2.434343e+01 3.758988e+00 1.427101e+01 1.500224e+01 1.375494e+00 4.106093e+00 1.363116e+00 6.556401e-01 4.532040e-01 7.732229e-01 2.183785e+00 8.514773e+00 4.576837e+00 8.350384e-01 1.099323e+00 7.428108e-01 2.423998e+00 1.585828e-01 3.954747e-01 2.476375e-01 2.826817e-01 1.711733e-01 5.483749e-01 6.971353e-01 6.639062e-01 3.546988e-01 3.969536e-01 1.387033e-01 3.112697e-01 1.475075e-01
<GCONST> 9.900814e+01
<STATE> 3
<MEAN> 39
 -1.200985e+01 2.431931e+00 1.075806e+00 4.168200e+00 3.643264e+00 -3.108964e-01 -3.640162e+00 -4.917403e+00 -1.345070e+00 2.067852e+00 4.190864e+00 -2.205773e+00 6.624026e+01 1.390930e+00 -1.815006e+00 6.595324e-02 1.247124e+00 1.421066e+00 -7.727674e-01 -2.030801e+00 -2.544974e+00 -2.536237e+00 -6.219531e-01 9.306235e-01 -5.032208e-01 2.017954e+00 3.209326e-01 6.603861e-02 9.595565e-02 5.425258e-01 3.185972e-01 -3.733883e-01 -7.196618e-02 1.957151e-01 -7.764313e-01 -2.365525e-01 8.255570e-02 -5.743869e-02 1.418841e-01
<VARIANCE> 39
 2.918105e+01 3.333381e+01 2.812006e+01 3.711301e+01 9.837513e+00 2.183778e+01 3.451494e+01 7.251910e+01 4.569401e+01 2.679133e+01 1.173916e+01 1.112800e+01 2.220947e+01 1.929910e+00 3.862976e+00 1.843730e+00 2.566319e+00 1.320432e+00 3.529094e+00 3.646165e+00 4.878878e+00 4.725780e+00 1.261183e+00 6.369384e-01 1.237101e+00 2.647073e+00 1.327455e-01 3.676076e-01 4.077547e-01 6.137008e-01 1.411351e-01 5.648637e-01 8.179622e-01 1.025773e+00 3.704402e-01 2.014285e-01 2.285844e-01 1.641664e-01 2.660415e-01
<GCONST> 1.099745e+02
<STATE> 4
<MEAN> 39
 -3.785205e+00 -6.785541e-01 2.741182e+00 1.260646e+01 9.388995e+00 -6.785544e+00 -8.846991e+00 -9.834962e+00 -2.092345e+01 -3.519340e+00 1.085317e+01 -2.873407e+00 7.346301e+01 -1.867159e-01 3.342468e-01 1.414238e-01 8.712984e-02 4.833782e-02 1.782815e-01 2.995152e-01 3.779451e-01 2.361929e-01 9.057477e-03 -1.367733e-01 4.453657e-02 -2.972148e-01 -2.741911e-01 1.574026e-01 -8.330227e-02 -3.257673e-01 -1.793440e-01 2.424465e-01 3.108284e-01 2.993184e-01 5.185735e-01 1.298372e-01 -1.763307e-01 9.746470e-02 -2.796158e-01
<VARIANCE> 39
 1.277964e+01 1.460102e+01 1.622830e+01 3.085352e+01 1.498983e+01 2.766778e+01 1.566568e+01 3.964832e+01 7.177038e+01 2.969877e+01 2.002475e+01 9.182858e+00 9.842781e+00 2.533750e+00 1.321909e+00 1.330570e+00 5.219526e+00 1.899992e+00 4.958006e+00 3.214742e+00 2.790245e+00 1.001882e+01 1.963421e+00 2.148735e+00 1.070100e+00 1.880035e+00 1.388552e-01 2.318106e-01 2.415363e-01 5.972551e-01 2.617706e-01 6.604419e-01 3.384337e-01 5.690871e-01 7.750080e-01 2.654347e-01 2.446552e-01 1.732017e-01 1.101632e-01
<GCONST> 1.070507e+02
<TRANSP> 5
 0.000000e+00 1.000000e+00 0.000000e+00 0.000000e+00 0.000000e+00
 0.000000e+00 1.627666e-01 8.372334e-01 0.000000e+00 0.000000e+00
 0.000000e+00 0.000000e+00 4.439442e-01 5.560558e-01 0.000000e+00
 0.000000e+00 0.000000e+00 0.000000e+00 9.160819e-01 8.391804e-02
 0.000000e+00 0.000000e+00 0.000000e+00 0.000000e+00 0.000000e+00
<ENDHMM>
~h "i"
<BEGINHMM>
<NUMSTATES> 5
<STATE> 2
<MEAN> 39
 -1.407220e+01 7.651416e+00 3.710878e+00 5.513299e+00 4.384678e+00 2.241417e+00 1.676500e+00 1.404247e+00 1.731745e+00 1.934400e+00 2.069412e+00 9.778788e-02 6.226052e+01 -1.607399e+00 -5.877641e-01 -5.234935e-01 -8.117912e-01 -1.585169e-01 9.319428e-01 1.183207e+00 1.364403e+00 1.809477e+00 8.402928e-01 8.536595e-02 5.864806e-01 -1.006735e+00 2.011501e-01 -4.012305e-01 -2.915867e-01 -1.244520e-01 -1.755455e-01 -3.757965e-01 -2.394206e-01 -2.022078e-01 -5.189434e-01 -1.015561e-01 2.869151e-01 -6.696150e-02 2.821910e-01
<VARIANCE> 39
 1.751340e+01 1.884103e+01 1.652441e+01 2.240469e+01 1.706593e+01 1.799367e+01 2.448025e+01 2.034335e+01 2.082462e+01 1.354313e+01 1.271550e+01 1.295082e+01 5.894941e+00 1.463753e+00 1.130999e+00 1.683084e+00 1.697207e+00 1.246096e+00 2.030717e+00 2.021776e+00 1.475557e+00 2.925459e+00 1.512140e+00 1.316898e+00 1.092475e+00 8.370966e-01 2.176590e-01 2.099948e-01 2.246352e-01 1.889541e-01 1.517999e-01 4.134085e-01 3.624957e-01 3.184646e-01 4.571064e-01 2.306292e-01 2.926839e-01 1.713731e-01 1.348859e-01
<GCONST> 9.467796e+01
<STATE> 3
<MEAN> 39
 -1.648471e+01 5.437579e+00 1.760334e+00 3.356039e+00 3.160621e+00 2.813926e+00 3.172833e+00 3.105364e+00 3.505487e+00 3.130064e+00 2.705035e+00 3.910731e-01 6.114951e+01 -9.017524e-01 -8.335501e-01 -6.643563e-01 -8.053778e-01 -5.708224e-01 -8.269192e-02 2.293445e-01 3.743447e-01 4.740241e-01 2.519782e-01 5.709906e-02 5.869482e-02 -4.062054e-01 2.224747e-01 5.359907e-03 4.478080e-02 -1.696203e-02 -8.396593e-02 -2.389793e-01 -2.648717e-01 -2.933343e-01 -4.179368e-01 -2.477988e-01 -8.919906e-02 -1.850345e-01 1.854376e-01
<VARIANCE> 39
 2.037805e+01 2.089894e+01 1.874628e+01 1.724532e+01 1.427278e+01 1.873904e+01 1.854423e+01 2.056656e+01 2.129985e+01 1.379370e+01 1.286685e+01 1.040793e+01 6.623101e+00 5.928301e-01 9.025321e-01 1.657022e+00 9.699699e-01 1.032375e+00 1.423933e+00 1.475398e+00 1.317143e+00 1.412438e+00 1.304373e+00 1.048021e+00 9.042886e-01 2.781539e-01 1.769486e-01 1.654078e-01 2.090305e-01 1.709651e-01 1.840971e-01 2.885802e-01 3.102051e-01 3.108380e-01 4.260241e-01 2.637600e-01 2.237898e-01 1.881700e-01 1.050063e-01
<GCONST> 8.794590e+01
<STATE> 4
<MEAN> 39
 -2.015220e+01 1.891376e+00 -2.539886e+00 -1.005692e+00 -1.943907e-01 1.223604e+00 3.206950e+00 3.875310e+00 4.142271e+00 2.463560e+00 1.426070e+00 -1.528949e-01 5.919685e+01 -1.573939e-01 -1.889922e-01 -1.228265e-01 -1.844591e-01 -1.615021e-01 -5.905287e-02 -4.238757e-02 -4.515991e-02 -4.166420e-02 -1.012486e-01 -9.397739e-02 -6.776951e-02 -4.287113e-02 1.157585e-01 7.480207e-02 1.138723e-01 9.799554e-02 8.672018e-02 1.464118e-02 -4.011628e-02 -4.933229e-02 -1.027371e-01 -6.323930e-02 1.254403e-02 -2.572087e-02 7.754616e-02
<VARIANCE> 39
 6.332034e+00 6.942241e+00 8.519719e+00 8.180040e+00 7.981399e+00 7.813967e+00 8.413520e+00 1.209863e+01 1.055911e+01 8.366503e+00 8.199588e+00 7.553051e+00 2.624279e+00 2.914662e-01 4.027712e-01 6.911917e-01 7.514809e-01 8.594959e-01 8.336118e-01 9.801241e-01 1.134543e+00 9.719139e-01 8.994898e-01 6.859408e-01 6.934385e-01 1.488492e-01 7.884759e-02 9.344176e-02 1.307727e-01 1.659571e-01 1.851191e-01 1.730796e-01 2.149109e-01 2.164537e-01 2.582655e-01 2.197511e-01 1.475927e-01 1.550027e-01 4.459215e-02
<GCONST> 6.721926e+01
<TRANSP> 5
 0.000000e+00 1.000000e+00 0.000000e+00 0.000000e+00 0.000000e+00
 0.000000e+00 5.350937e-01 4.649063e-01 0.000000e+00 0.000000e+00
 0.000000e+00 0.000000e+00 3.097133e-01 6.902867e-01 0.000000e+00
 0.000000e+00 0.000000e+00 0.000000e+00 8.128118e-01 1.871882e-01
 0.000000e+00 0.000000e+00 0.000000e+00 0.000000e+00 0.000000e+00
<ENDHMM>
~h "j"
<BEGINHMM>
<NUMSTATES> 5
<STATE> 2
<MEAN> 39
 -1.883449e+00 1.453567e-02 -3.706949e+00 2.617570e+00 8.606395e-01 -3.935902e+00 -1.835482e+00 -4.717598e+00 -1.162704e+01 2.362979e+00 1.013076e+01 5.436814e-01 7.365998e+01 -5.043741e-01 7.300806e-01 4.362255e-01 6.184611e-01 4.865372e-01 3.477094e-01 8.447398e-02 6.562402e-02 8.584408e-01 1.987879e-01 -7.917894e-01 -3.265531e-01 -6.302551e-01 -1.464538e-01 2.720255e-01 3.160522e-01 1.385964e-01 4.712801e-02 3.181021e-02 -1.236087e-01 2.829955e-02 2.074513e-01 -1.820547e-01 -2.551550e-01 -1.432959e-01 -1.926831e-01
<VARIANCE> 39
 7.109291e+00 2.376135e+01 1.770095e+01 1.618100e+01 3.328449e+01 1.781966e+01 2.396252e+01 1.671565e+01 2.708189e+01 1.289939e+01 2.470882e+01 6.951566e+00 9.172199e+00 4.714710e-02 8.591448e-01 2.095631e-01 3.387404e-01 3.865886e-01 6.462620e-01 6.117142e-01 5.510793e-01 1.514637e+00 3.051922e-01 1.779673e+00 4.779907e-01 2.577862e-01 3.402075e-02 9.688079e-02 1.237159e-01 1.088755e-01 6.383264e-02 1.424709e-01 1.907210e-01 1.932477e-01 5.849500e-01 9.054792e-02 3.933548e-01 1.272266e-01 4.677876e-02
<GCONST> 7.042738e+01
<STATE> 3
<MEAN> 39
 -2.392511e+00 3.170779e-01 -3.351325e+00 3.473380e+00 1.100962e+00 -4.129720e+00 -1.382440e+00 -4.077521e+00 -1.108629e+01 2.300593e+00 9.734754e+00 2.164442e-01 7.321157e+01 -6.699952e-01 9.499180e-01 8.087350e-01 7.982661e-01 4.612194e-01 4.232348e-01 3.227318e-02 -7.506151e-02 9.826401e-01 1.414310e-02 -8.868979e-01 -4.135780e-01 -8.308739e-01 -1.565679e-01 3.321553e-01 3.924425e-01 1.990302e-01 1.603312e-02 -1.237200e-02 -2.384463e-01 1.440497e-02 4.071593e-01 -1.322505e-01 -3.405670e-01 -1.468675e-01 -2.354138e-01
<VARIANCE> 39
 6.671387e+00 2.167525e+01 1.704477e+01 1.361446e+01 2.663496e+01 1.785698e+01 2.748195e+01 1.385911e+01 2.911282e+01 1.394690e+01 2.122852e+01 4.776597e+00 9.724837e+00 7.639122e-02 1.135867e+00 3.169619e-01 3.901092e-01 2.757991e-01 6.691402e-01 5.918040e-01 7.048238e-01 2.364258e+00 4.088625e-01 3.046300e+00 5.953225e-01 3.589034e-01 4.772751e-02 9.466203e-02 9.675987e-02 1.060638e-01 7.292192e-02 1.830592e-01 2.845805e-01 1.475619e-01 5.228327e-01 8.987381e-02 3.263354e-01 8.673657e-02 4.205448e-02
<GCONST> 7.228628e+01
<STATE> 4
<MEAN> 39
 -5.338294e+00 5.984717e+00 1.998404e+00 7.568569e+00 3.338918e+00 -3.947025e+00 -4.957997e+00 -4.193708e+00 -3.519786e+00 2.650396e+00 3.747155e+00 -2.213672e+00 6.904949e+01 -8.254570e-01 1.441436e+00 1.320643e+00 1.016266e+00 8.020453e-01 -5.040526e-03 -1.026704e+00 2.820801e-01 2.002475e+00 -2.412003e-02 -1.569267e+00 -5.205262e-01 -1.092510e+00 1.319238e-02 -1.258625e-01 -9.519989e-02 -1.108547e-01 -4.186132e-02 -2.849694e-03 1.329682e-01 1.245594e-01 -8.586974e-02 3.732908e-02 1.523216e-01 1.104669e-01 6.409121e-02
<VARIANCE> 39
 6.944525e+00 2.233773e+01 1.674828e+01 1.473957e+01 2.738288e+01 9.728059e+00 3.112513e+01 6.719747e+00 4.448972e+01 1.128607e+01 3.460900e+01 6.845580e+00 1.076822e+01 2.716409e-01 1.166506e+00 8.804494e-01 7.993715e-01 1.012563e+00 9.336483e-01 2.896092e+00 7.073485e-01 3.719097e+00 6.656263e-01 3.226224e+00 6.117722e-01 3.885655e-01 4.227812e-02 2.533042e-01 1.849056e-01 1.354856e-01 1.830881e-01 1.792226e-01 6.200796e-01 9.084927e-02 7.798106e-01 9.841085e-02 6.502276e-01 1.067717e-01 8.966881e-02
<GCONST> 8.485970e+01
<TRANSP> 5
 0.000000e+00 1.000000e+00 0.000000e+00 0.000000e+00 0.000000e+00
 0.000000e+00 9.645986e-04 9.990354e-01 0.000000e+00 0.000000e+00
 0.000000e+00 0.000000e+00 6.027572e-02 9.397243e-01 0.000000e+00
 0.000000e+00 0.000000e+00 0.000000e+00 8.289964e-01 1.710036e-01
 0.000000e+00 0.000000e+00 0.000000e+00 0.000000e+00 0.000000e+00
<ENDHMM>
~h "k"
<BEGINHMM>
<NUMSTATES> 5
<STATE> 2
<MEAN> 39
 -1.160366e+01 7.717063e-01 -2.787569e+00 -3.303076e+00 -1.108111e+00 -3.699866e-01 1.692446e+00 -8.946467e-01 -4.649212e+00 2.530377e+00 5.970146e+00 -1.654342e-01 6.703841e+01 6.709992e-01 3.589304e-02 6.804243e-05 -1.637785e-01 -2.766483e-01 -2.270420e-01 -1.162938e-01 -1.854148e-01 -4.362429e-01 -3.654310e-02 2.594761e-01 5.822316e-02 5.054476e-01 1.845110e-02 -3.857724e-03 -1.681538e-02 4.018379e-02 -2.374176e-02 -1.357197e-02 2.007146e-02 2.822522e-02 2.650682e-02 1.594716e-02 2.401933e-02 -2.336570e-03 -2.017964e-03
<VARIANCE> 39
 8.835337e+01 2.415778e+01 1.407641e+01 2.758932e+01 2.345394e+01 1.770401e+01 1.706739e+01 3.600118e+01 9.169698e+01 2.058896e+01 3.152257e+01 1.392927e+01 5.959246e+01 6.259971e+00 2.405308e+00 1.564648e+00 3.403434e+00 2.020326e+00 1.702124e+00 1.755227e+00 3.385938e+00 7.588253e+00 1.686323e+00 2.740588e+00 1.779812e+00 4.460169e+00 6.942747e-01 4.707604e-01 3.255834e-01 6.635866e-01 3.421502e-01 3.171459e-01 3.265742e-01 5.853379e-01 1.059962e+00 3.248980e-01 4.414470e-01 3.607392e-01 5.253575e-01
<GCONST> 1.184277e+02
<STATE> 3
<MEAN> 39
 -6.446096e+00 2.489638e+00 -2.450679e+00 -8.681858e-01 -2.862591e+00 -2.827234e+00 3.780590e-01 -1.969199e+00 -5.731415e+00 2.663374e+00 7.409762e+00 5.593884e-02 6.953763e+01 -3.242928e-01 4.565590e-02 -4.181166e-02 -7.617923e-02 -2.158971e-01 -2.128235e-02 3.819506e-01 3.557400e-01 7.399781e-01 9.891596e-02 -2.741767e-01 6.448135e-02 -2.652816e-01 -7.578533e-02 1.329150e-01 1.523407e-01 4.863781e-02 1.767950e-01 1.373425e-02 3.128575e-02 -5.585236e-02 -1.015723e-01 -3.874151e-02 -2.377336e-02 -9.440254e-02 -4.616467e-02
<VARIANCE> 39
 7.439813e+01 1.817037e+01 1.742438e+01 2.523128e+01 3.316358e+01 3.305595e+01 2.082617e+01 2.683352e+01 6.717545e+01 1.661289e+01 2.621595e+01 1.459833e+01 5.181877e+01 8.491610e-01 8.309337e-01 8.275753e-01 1.159163e+00 1.023872e+00 1.292817e+00 1.018713e+00 1.918170e+00 2.063444e+00 1.192710e+00 1.157256e+00 9.402060e-01 6.145803e-01 3.381667e-01 1.732669e-01 1.666277e-01 2.223966e-01 1.973138e-01 1.941730e-01 2.275700e-01 3.612328e-01 4.175951e-01 2.058297e-01 2.133607e-01 1.997880e-01 1.730983e-01
<GCONST> 9.701262e+01
<STATE> 4
<MEAN> 39
 -6.740138e+00 3.933065e+00 -1.224160e+00 6.948668e-01 -1.384897e+00 -1.666255e+00 5.804552e-01 -2.706198e+00 -4.616618e+00 3.699811e+00 7.204395e+00 -3.217159e-01 6.876198e+01 -5.250029e-01 4.421410e-01 3.058523e-01 3.593144e-01 5.164294e-01 3.200278e-01 1.585748e-01 3.185030e-01 7.015254e-01 1.970255e-01 -3.887560e-01 -6.825279e-02 -5.622525e-01 -4.967160e-02 3.768824e-02 5.670651e-02 5.289392e-02 1.170094e-01 5.773818e-02 -3.610368e-02 7.868888e-02 7.026121e-02 -1.282651e-02 -3.408441e-02 -3.924965e-02 -4.070918e-02
<VARIANCE> 39
 5.816247e+01 1.612527e+01 1.755171e+01 2.742003e+01 2.592167e+01 2.551164e+01 2.622301e+01 2.819759e+01 6.084259e+01 1.279377e+01 2.747378e+01 8.923623e+00 3.794921e+01 2.917629e-01 5.881717e-01 5.451564e-01 1.283615e+00 9.844908e-01 1.263540e+00 1.646888e+00 1.239930e+00 1.789465e+00 9.157516e-01 9.898434e-01 6.446751e-01 3.357480e-01 3.694794e-02 1.044932e-01 9.585216e-02 1.479713e-01 1.280457e-01 1.616101e-01 2.675642e-01 1.724259e-01 2.302164e-01 1.220785e-01 1.759837e-01 1.082741e-01 3.085417e-02
<GCONST> 8.358129e+01
<TRANSP> 5
 0.000000e+00 1.000000e+00 0.000000e+00 0.000000e+00 0.000000e+00
 0.000000e+00 8.832545e-01 1.167455e-01 0.000000e+00 0.000000e+00
 0.000000e+00 0.000000e+00 2.464240e-01 7.535760e-01 0.000000e+00
 0.000000e+00 0.000000e+00 0.000000e+00 8.215196e-01 1.784804e-01
 0.000000e+00 0.000000e+00 0.000000e+00 0.000000e+00 0.000000e+00
<ENDHMM>
~h "l"
<BEGINHMM>
<NUMSTATES> 5
<STATE> 2
<MEAN> 39
 -5.917975e+00 4.075594e+00 6.185609e+00 1.231685e+01 5.910154e+00 -8.118179e+00 -7.052824e+00 -3.581771e+00 -1.042583e+01 -2.166953e-01 6.007085e+00 -5.324848e+00 7.064699e+01 2.498273e-01 7.195055e-01 3.110436e-01 -2.571770e-01 5.317602e-02 3.931581e-01 -5.470188e-01 -4.739950e-01 3.197624e-01 -2.409359e-01 -6.639663e-01 -3.431772e-01 -7.887607e-02 -7.200359e-02 1.090023e-01 -7.425244e-02 -3.466379e-01 -2.149599e-01 2.807885e-01 2.327075e-01 9.564134e-03 1.067324e-01 -2.388136e-02 -7.999547e-02 7.485945e-02 -1.202599e-01
<VARIANCE> 39
 1.319428e+01 2.527172e+01 2.623129e+01 7.614592e+01 3.519328e+01 3.889366e+01 5.406797e+01 2.224339e+01 6.349842e+01 3.126204e+01 3.759597e+01 2.503792e+01 1.457190e+01 1.253766e+00 2.259445e+00 1.522348e+00 2.889193e+00 1.372785e+00 2.644797e+00 2.820338e+00 1.608924e+00 4.502890e+00 1.907051e+00 1.759824e+00 1.278857e+00 1.397734e+00 1.015989e-01 3.312693e-01 1.797958e-01 3.545100e-01 2.093147e-01 4.305056e-01 4.598721e-01 2.273444e-01 5.884677e-01 2.922567e-01 2.944216e-01 2.254825e-01 1.314496e-01
<GCONST> 1.078297e+02
<STATE> 3
<MEAN> 39
 -5.338314e+00 8.103542e+00 4.629485e+00 4.881203e+00 1.443419e+00 -2.273069e+00 -3.022693e+00 -6.788593e+00 -9.781832e+00 -9.977013e-01 3.587113e+00 -3.743609e+00 6.926173e+01 -9.797728e-02 -4.317975e-01 -3.897069e-01 -5.751020e-01 -3.047399e-02 2.760797e-01 3.047687e-01 -3.133618e-02 -6.416717e-01 -2.700784e-01 5.513186e-01 6.773024e-01 1.318600e-01 -8.713459e-02 -3.571574e-01 -2.520179e-01 5.537269e-02 1.126451e-01 -1.976731e-01 -8.923751e-02 8.962506e-02 1.703140e-02 1.792618e-01 3.465433e-01 2.337319e-01 4.944276e-02
<VARIANCE> 39
 1.268884e+01 1.872656e+01 1.345457e+01 1.583793e+01 3.086423e+01 1.828952e+01 3.699191e+01 2.778351e+01 5.154537e+01 2.422235e+01 1.588210e+01 1.809953e+01 1.260731e+01 2.381260e+00 2.347757e+00 1.823092e+00 1.238047e+00 1.753132e+00 1.637801e+00 2.416701e+00 1.934796e+00 4.773396e+00 1.954303e+00 2.527665e+00 2.533193e+00 2.229734e+00 1.730644e-01 2.706377e-01 2.368908e-01 3.289741e-01 2.193928e-01 2.738281e-01 4.584450e-01 3.046666e-01 5.639489e-01 3.319079e-01 2.761399e-01 3.845830e-01 1.572449e-01
<GCONST> 1.049681e+02
<STATE> 4
<MEAN> 39
 -3.192529e+00 1.570784e-01 -6.779883e-01 5.212571e+00 4.153703e+00 -4.516275e+00 -4.737170e+00 -8.281859e+00 -1.571602e+01 2.780606e+00 1.372936e+01 -3.568884e-01 7.340478e+01 -1.332768e-01 -7.583868e-02 -2.209902e-01 -9.613532e-02 -1.176924e-02 2.697423e-01 1.815401e-01 1.442823e-01 4.169858e-01 2.704982e-01 1.387382e-01 -3.783658e-03 -1.741389e-01 -9.523746e-02 2.180586e-01 1.319770e-01 2.336735e-02 5.923616e-03 1.068194e-01 3.809858e-02 8.554439e-02 2.398857e-01 -4.248937e-02 -2.521269e-01 -8.973041e-02 -1.526573e-01
<VARIANCE> 39
 1.182376e+01 1.811773e+01 7.106061e+00 2.229906e+01 2.082981e+01 1.751173e+01 4.181638e+01 2.467648e+01 4.500689e+01 3.141427e+01 3.394575e+01 1.816170e+01 1.405214e+01 4.734665e-01 1.518865e+00 8.847101e-01 1.695148e+00 9.273849e-01 1.522976e+00 2.110296e+00 9.591618e-01 1.664223e+00 1.189324e+00 2.241531e+00 1.069566e+00 5.317054e-01 7.153621e-02 1.481482e-01 1.742444e-01 2.746921e-01 1.549048e-01 1.829550e-01 3.235854e-01 1.980790e-01 3.355341e-01 2.267439e-01 2.204517e-01 2.486337e-01 6.832866e-02
<GCONST> 9.125990e+01
<TRANSP> 5
 0.000000e+00 1.000000e+00 0.000000e+00 0.000000e+00 0.000000e+00
 0.000000e+00 7.132241e-01 2.867760e-01 0.000000e+00 0.000000e+00
 0.000000e+00 0.000000e+00 7.660807e-01 2.339193e-01 0.000000e+00
 0.000000e+00 0.000000e+00 0.000000e+00 8.315682e-01 1.684318e-01
 0.000000e+00 0.000000e+00 0.000000e+00 0.000000e+00 0.000000e+00
<ENDHMM>
~h "m"
<BEGINHMM>
<NUMSTATES> 5
<STATE> 2
<MEAN> 39
 -2.059509e+01 1.621857e+00 -2.880048e+00 -8.507909e-01 3.610036e-02 1.854319e+00 3.736795e+00 4.067630e+00 4.225701e+00 2.211637e+00 1.206173e+00 -3.487939e-02 5.885003e+01 -1.246189e-01 -1.130087e-01 -1.063389e-01 -1.526698e-01 -1.541952e-01 -1.277414e-01 -5.070955e-02 -3.921402e-02 -4.713333e-02 -4.337157e-02 -4.685962e-02 -5.345015e-02 -5.716410e-02 7.058076e-02 6.258032e-02 9.550174e-02 6.990726e-02 4.974855e-02 1.829021e-02 -1.474861e-02 -3.771129e-02 -5.424852e-02 -1.658774e-02 2.880366e-02 6.577387e-03 4.503696e-02
<VARIANCE> 39
 2.119098e+00 2.207179e+00 3.600636e+00 5.846767e+00 5.102666e+00 6.139470e+00 8.284298e+00 1.120118e+01 1.065097e+01 8.895171e+00 6.132071e+00 6.097020e+00 1.447546e+00 2.119050e-01 3.103114e-01 4.134973e-01 6.517668e-01 6.657813e-01 7.486947e-01 9.142754e-01 1.058417e+00 1.051613e+00 1.070346e+00 7.064787e-01 6.665819e-01 7.128648e-02 4.790740e-02 7.563152e-02 1.032412e-01 1.336065e-01 1.263458e-01 1.537529e-01 1.970106e-01 2.319613e-01 2.549930e-01 2.473102e-01 1.487778e-01 1.421499e-01 1.677503e-02
<GCONST> 5.710794e+01
<STATE> 3
<MEAN> 39
 -2.065422e+01 1.783835e+00 -2.504629e+00 -1.236072e+00 -3.848605e-01 1.699788e+00 3.655755e+00 4.048768e+00 4.004283e+00 2.071379e+00 8.369832e-01 -5.138373e-01 5.880315e+01 2.712456e-01 3.236477e-01 1.142186e+00 3.284672e-01 2.572087e-02 -1.179566e-01 -5.687122e-01 -6.536647e-01 -7.357543e-01 -2.279638e-01 2.470827e-01 -2.351104e-01 3.425435e-01 2.650099e-01 1.770080e-01 6.206549e-01 3.910098e-01 2.311256e-01 -3.510597e-02 -2.262247e-01 -3.194264e-01 -4.047176e-01 -1.044199e-01 1.240530e-01 -8.856624e-02 2.872759e-01
<VARIANCE> 39
 9.446115e-01 1.948287e+00 3.119246e+00 3.828093e+00 5.623170e+00 7.246052e+00 1.120807e+01 1.355795e+01 8.669943e+00 6.306420e+00 8.422456e+00 5.704356e+00 1.447546e+00 1.342704e+00 2.290285e+00 2.030201e+00 1.226202e+00 1.336956e+00 1.355082e+00 9.971830e-01 1.410513e+00 1.498892e+00 1.394488e+00 1.009444e+00 1.224694e+00 3.205228e-01 1.880216e-01 2.676344e-01 2.716183e-01 4.531287e-01 1.557161e-01 2.684465e-01 2.939905e-01 3.341061e-01 5.886490e-01 2.783115e-01 1.937835e-01 1.766484e-01 4.830610e-02
<GCONST> 7.573054e+01
<STATE> 4
<MEAN> 39
 -1.947779e+01 3.001339e+00 3.105467e+00 -6.618810e-01 1.003971e+00 3.026401e+00 1.497892e+00 2.101880e+00 1.875573e+00 1.256403e+00 2.082138e+00 -1.337481e+00 6.089076e+01 1.208838e+00 9.721554e-01 1.401974e+00 1.277463e+00 3.721595e-01 -5.921775e-01 -7.678688e-01 -1.210172e+00 -1.546193e+00 -4.800166e-01 4.955861e-01 1.872255e-01 7.468264e-01 1.758147e-01 -3.528009e-02 -6.428097e-02 2.270455e-01 6.707732e-02 -1.571131e-01 4.262635e-02 -6.508120e-02 -1.786085e-01 -3.463808e-02 1.289003e-01 5.707213e-02 1.220167e-01
<VARIANCE> 39
 2.846918e+01 4.143080e+01 4.230873e+01 4.692485e+01 1.388138e+01 1.660936e+01 1.856525e+01 2.262361e+01 2.127063e+01 1.154508e+01 1.499691e+01 1.029793e+01 6.321677e+00 3.158023e+00 4.448401e+00 5.923527e+00 5.650220e+00 8.735733e-01 1.935854e+00 2.040226e+00 2.173351e+00 3.170361e+00 1.208401e+00 1.654623e+00 1.144647e+00 8.312777e-01 3.204502e-01 3.669282e-01 8.753439e-01 8.869994e-01 2.159491e-01 3.438033e-01 4.135030e-01 4.453647e-01 4.818522e-01 2.608455e-01 2.946521e-01 2.891408e-01 1.317641e-01
<GCONST> 1.069271e+02
<TRANSP> 5
 0.000000e+00 1.000000e+00 0.000000e+00 0.000000e+00 0.000000e+00
 0.000000e+00 9.092322e-01 9.076777e-02 0.000000e+00 0.000000e+00
 0.000000e+00 0.000000e+00 1.154030e-01 8.845970e-01 0.000000e+00
 0.000000e+00 0.000000e+00 0.000000e+00 4.850544e-01 5.149456e-01
 0.000000e+00 0.000000e+00 0.000000e+00 0.000000e+00 0.000000e+00
<ENDHMM>
~h "n"
<BEGINHMM>
<NUMSTATES> 5
<STATE> 2
<MEAN> 39
 -8.685091e+00 4.886858e+00 6.926948e+00 7.979952e+00 7.936808e+00 -1.693756e+00 -7.139835e+00 -4.303174e+00 -7.890585e+00 -2.857192e+00 5.904906e+00 -1.986159e+00 6.889287e+01 8.498161e-01 2.959622e-01 2.684730e-01 7.348572e-01 8.601805e-01 -4.038702e-01 -1.254104e+00 -5.004048e-01 -7.327846e-01 -4.893762e-01 3.834109e-01 -1.344850e-01 5.170896e-01 -7.859411e-02 1.133812e-01 -1.157387e-01 -1.254380e-01 -1.626775e-01 2.735063e-02 1.396646e-01 5.911995e-02 1.104697e-01 6.652842e-02 -4.494479e-02 5.356127e-02 -1.529246e-01
<VARIANCE> 39
 4.646700e+01 5.394257e+01 2.978922e+01 6.394105e+01 5.744693e+01 3.205374e+01 7.064439e+01 2.905880e+01 4.885232e+01 3.687990e+01 2.636347e+01 1.826286e+01 1.841554e+01 2.569839e+00 6.373770e+00 2.984428e+00 4.403517e+00 3.513198e+00 3.756843e+00 4.908658e+00 3.652011e+00 5.598239e+00 2.796205e+00 2.829831e+00 1.744525e+00 1.898710e+00 3.436472e-01 9.986027e-01 5.525835e-01 7.379550e-01 6.286929e-01 7.237357e-01 9.278709e-01 7.083601e-01 7.607130e-01 5.091543e-01 4.841554e-01 2.801565e-01 2.289088e-01
<GCONST> 1.270202e+02
<STATE> 3
<MEAN> 39
 -4.682305e+00 8.407391e+00 5.390117e+00 5.284495e+00 5.818080e+00 -3.864757e+00 -1.014755e+01 -3.558080e+00 -7.337098e+00 -2.977548e+00 5.337709e+00 -4.003343e+00 6.997249e+01 1.476189e-01 -1.989727e-01 -3.811496e-01 -4.457107e-01 -5.299935e-01 -1.184968e-01 3.508558e-01 2.897555e-01 1.125167e-01 5.072692e-02 -1.240581e-03 7.594325e-02 1.656862e-01 1.483455e-02 -2.087117e-01 -1.290138e-01 3.380967e-02 2.728917e-02 -4.726093e-02 6.686251e-02 3.685622e-02 -1.406537e-01 1.134695e-02 1.800959e-01 5.826670e-02 8.333215e-02
<VARIANCE> 39
 1.004584e+01 2.698902e+01 2.964856e+01 3.275786e+01 2.776258e+01 2.242154e+01 3.166449e+01 2.515263e+01 3.588670e+01 2.408332e+01 3.422157e+01 1.714873e+01 1.344951e+01 5.827629e-01 2.377720e+00 1.992052e+00 2.559446e+00 1.615888e+00 1.840357e+00 2.453726e+00 1.905916e+00 4.714948e+00 1.693631e+00 4.812487e+00 1.595925e+00 1.009881e+00 7.393358e-02 2.967307e-01 2.356805e-01 4.341960e-01 3.451406e-01 3.272861e-01 4.463559e-01 3.483608e-01 8.358409e-01 3.152873e-01 7.346858e-01 2.726535e-01 1.102862e-01
<GCONST> 1.064344e+02
<STATE> 4
<MEAN> 39
 -4.817177e+00 4.163074e+00 1.001261e+00 4.511667e+00 3.589044e+00 -2.836192e+00 -3.961372e+00 -4.452962e+00 -7.805795e+00 2.489452e+00 7.807249e+00 -8.862336e-01 7.074115e+01 -3.824848e-01 9.056136e-02 9.564131e-03 1.044784e-01 9.974847e-02 4.222247e-01 5.365877e-01 1.269153e-01 4.234334e-01 2.670488e-01 -9.690775e-02 1.969868e-01 -3.563261e-01 -7.618507e-02 1.286162e-02 4.550613e-02 -2.308484e-03 1.773251e-02 2.956196e-02 1.254050e-02 4.670403e-02 8.085792e-02 -1.839678e-02 -7.484443e-02 -3.227822e-02 -4.793970e-02
<VARIANCE> 39
 1.734379e+01 2.340376e+01 2.056732e+01 2.150644e+01 1.972325e+01 2.531154e+01 3.050575e+01 2.998659e+01 5.824703e+01 2.113975e+01 4.262604e+01 2.220699e+01 2.093435e+01 5.170808e-01 1.312555e+00 1.076856e+00 9.378362e-01 6.562110e-01 1.072230e+00 1.429508e+00 1.750192e+00 2.674356e+00 8.876142e-01 1.963439e+00 9.422934e-01 6.117464e-01 3.999932e-02 2.351739e-01 1.728929e-01 1.614262e-01 1.236082e-01 1.880513e-01 2.191205e-01 2.531030e-01 3.913776e-01 1.702795e-01 3.143182e-01 1.702763e-01 6.082635e-02
<GCONST> 9.165863e+01
<TRANSP> 5
 0.000000e+00 1.000000e+00 0.000000e+00 0.000000e+00 0.000000e+00
 0.000000e+00 8.159739e-01 1.840261e-01 0.000000e+00 0.000000e+00
 0.000000e+00 0.000000e+00 8.366059e-01 1.633941e-01 0.000000e+00
 0.000000e+00 0.000000e+00 0.000000e+00 8.801494e-01 1.198506e-01
 0.000000e+00 0.000000e+00 0.000000e+00 0.000000e+00 0.000000e+00
<ENDHMM>
~h "o"
<BEGINHMM>
<NUMSTATES> 5
<STATE> 2
<MEAN> 39
 -5.697279e+00 7.952886e+00 2.715738e+00 2.426061e+00 -6.961933e-01 -5.032040e+00 -2.546134e+00 -1.996776e+00 -6.655702e+00 -1.596747e+00 4.542093e+00 -2.209646e+00 6.875120e+01 -9.379047e-01 -1.017359e-02 3.342205e-01 9.229749e-01 9.662111e-01 9.801348e-01 3.769019e-01 5.734289e-01 1.284846e+00 5.849233e-01 -3.730149e-01 -2.921128e-02 -7.907602e-01 -1.565077e-01 -3.136706e-01 -2.696109e-01 -6.683350e-03 1.290352e-01 2.764760e-01 2.107032e-01 3.455724e-02 1.356867e-01 1.946167e-01 6.315862e-02 2.031638e-02 -5.333266e-02
<VARIANCE> 39
 2.115794e+01 1.280717e+01 1.500524e+01 3.168129e+01 3.219938e+01 2.763105e+01 2.296977e+01 1.556148e+01 3.981412e+01 4.890517e+01 1.924149e+01 1.614117e+01 1.489930e+01 4.311560e+00 1.017237e+00 1.198541e+00 2.491938e+00 3.150915e+00 3.041368e+00 1.683112e+00 2.420746e+00 4.647083e+00 1.860339e+00 1.792586e+00 1.904854e+00 1.993312e+00 2.364643e-01 2.764361e-01 2.940220e-01 5.774822e-01 4.522206e-01 5.559170e-01 2.449412e-01 3.063883e-01 4.290991e-01 3.226929e-01 2.813674e-01 2.648042e-01 1.742903e-01
<GCONST> 1.076469e+02
<STATE> 3
<MEAN> 39
 -1.070541e+01 7.182616e+00 3.899730e+00 7.378028e+00 4.671623e+00 1.176640e+00 3.802900e-01 -1.068225e+00 -3.824868e-01 3.204337e+00 1.983232e+00 -3.635689e+00 6.479877e+01 -1.450766e+00 -4.774627e-01 -3.367981e-01 -1.468944e-01 5.287871e-01 1.212269e+00 1.189129e+00 1.230835e+00 1.474358e+00 4.127041e-01 -2.147038e-01 6.902016e-01 -9.596122e-01 7.381164e-02 -2.109679e-01 -2.794906e-01 -3.112085e-01 -2.818289e-01 -2.737917e-01 -7.496803e-02 -3.915137e-02 -2.919267e-01 -5.026346e-02 2.211012e-01 1.690998e-02 1.278561e-01
<VARIANCE> 39
 1.969478e+01 9.597792e+00 1.225224e+01 2.032074e+01 1.736843e+01 1.227462e+01 1.808282e+01 2.579937e+01 4.835199e+01 3.003312e+01 1.049203e+01 2.836494e+01 1.306863e+01 1.603195e+00 1.252912e+00 9.655776e-01 1.250587e+00 1.143046e+00 1.284317e+00 1.312589e+00 1.355748e+00 2.214691e+00 1.090020e+00 9.437319e-01 1.274860e+00 5.981910e-01 2.068911e-01 2.451368e-01 2.219859e-01 1.750321e-01 3.430521e-01 2.946902e-01 3.234193e-01 3.027785e-01 4.291002e-01 2.138273e-01 1.530769e-01 2.803345e-01 1.236858e-01
<GCONST> 9.341751e+01
<STATE> 4
<MEAN> 39
 -1.722388e+01 4.256532e+00 -1.950381e-01 2.205601e+00 2.424797e+00 3.053138e+00 4.463213e+00 4.710377e+00 4.333212e+00 3.528124e+00 2.822005e+00 5.951887e-01 6.064688e+01 -9.985316e-01 -1.043750e+00 -8.789206e-01 -8.232924e-01 -3.789847e-01 -1.083858e-01 6.075294e-02 3.099011e-01 1.820827e-01 -2.121263e-02 -1.445926e-02 2.350578e-02 -3.997719e-01 4.352919e-01 1.000499e-01 1.741442e-01 -6.839284e-02 -1.211588e-01 -3.953272e-01 -4.537427e-01 -4.914024e-01 -4.960583e-01 -2.397728e-01 -1.634818e-02 -1.961386e-01 3.914949e-01
<VARIANCE> 39
 2.118112e+01 8.053322e+00 1.089706e+01 1.521311e+01 1.398934e+01 1.199170e+01 9.559500e+00 1.706224e+01 4.492057e+01 1.738137e+01 9.363727e+00 1.047154e+01 1.052178e+01 8.798996e-01 6.215641e-01 9.354410e-01 1.282466e+00 1.205199e+00 9.951751e-01 1.127531e+00 1.185340e+00 1.407472e+00 1.241145e+00 1.026433e+00 1.012393e+00 4.746954e-01 2.490499e-01 2.050884e-01 1.733368e-01 1.967215e-01 2.852904e-01 2.939567e-01 2.125040e-01 2.369905e-01 4.237452e-01 2.527776e-01 1.697958e-01 1.929385e-01 1.467851e-01
<GCONST> 8.625365e+01
<TRANSP> 5
 0.000000e+00 1.000000e+00 0.000000e+00 0.000000e+00 0.000000e+00
 0.000000e+00 6.481394e-01 3.518606e-01 0.000000e+00 0.000000e+00
 0.000000e+00 0.000000e+00 5.482271e-01 4.517730e-01 0.000000e+00
 0.000000e+00 0.000000e+00 0.000000e+00 6.747451e-01 3.252549e-01
 0.000000e+00 0.000000e+00 0.000000e+00 0.000000e+00 0.000000e+00
<ENDHMM>
~h "p"
<BEGINHMM>
<NUMSTATES> 5
<STATE> 2
<MEAN> 39
 -2.045836e+01 1.637372e+00 -2.979371e+00 -9.239871e-01 2.528727e-02 1.912074e+00 4.071613e+00 4.832297e+00 4.995477e+00 2.747006e+00 1.493270e+00 -9.077224e-02 5.887624e+01 -1.569940e-01 -1.494502e-01 -1.115379e-01 -1.800834e-01 -1.957465e-01 -1.978640e-01 -1.451043e-01 -1.059737e-01 -1.514958e-01 -1.638744e-01 -1.449890e-01 -1.265026e-01 -6.814582e-02 6.493285e-02 6.786035e-02 6.919957e-02 6.735142e-02 6.973439e-02 5.158762e-02 2.302998e-02 8.048508e-03 -6.121906e-03 1.384682e-02 3.370917e-02 1.876477e-02 3.105078e-02
<VARIANCE> 39
 2.477384e+00 1.856003e+00 3.729237e+00 5.497169e+00 6.122464e+00 7.525880e+00 7.962333e+00 9.495509e+00 9.743033e+00 7.799658e+00 7.451987e+00 7.181206e+00 1.447546e+00 1.490245e-01 2.194686e-01 3.960390e-01 6.230208e-01 7.392105e-01 8.988519e-01 8.910425e-01 9.756985e-01 9.447441e-01 8.312300e-01 8.320359e-01 7.546009e-01 4.120088e-02 2.644667e-02 3.946867e-02 6.782506e-02 1.074881e-01 1.315666e-01 1.651085e-01 1.793826e-01 1.993281e-01 1.951985e-01 1.718405e-01 1.634654e-01 1.522713e-01 8.597221e-03
<GCONST> 5.300378e+01
<STATE> 3
<MEAN> 39
 -2.036294e+01 1.417749e+00 -2.818249e+00 -1.408377e+00 -2.619392e-01 1.181504e+00 3.586674e+00 4.160233e+00 3.458741e+00 2.026168e+00 1.617352e+00 -4.577406e-02 5.923133e+01 -5.585611e-03 -3.041644e-02 5.021426e-02 1.349874e-01 5.396758e-02 1.891885e-01 1.269769e-01 -5.229406e-03 -1.527434e-01 -1.790404e-01 -4.514824e-02 3.625164e-02 -3.089568e-02 1.995475e-01 4.396595e-02 4.589264e-02 -2.628397e-02 6.737579e-02 -6.741630e-02 -1.066124e-01 -1.464116e-01 -1.899524e-01 -9.045320e-03 7.834300e-02 1.043639e-02 1.864487e-01
<VARIANCE> 39
 1.177331e+01 1.720216e+00 4.284646e+00 8.926403e+00 7.686776e+00 5.941010e+00 9.919776e+00 1.235164e+01 1.636947e+01 8.408447e+00 8.997450e+00 6.255564e+00 6.635540e+00 1.927734e-01 1.409166e-01 4.667692e-01 7.482031e-01 8.578463e-01 8.046668e-01 7.510260e-01 8.984288e-01 1.187961e+00 7.460746e-01 5.027570e-01 6.352337e-01 4.513257e-02 6.466965e-02 8.017334e-02 1.441781e-01 2.121688e-01 2.191052e-01 1.461042e-01 2.741910e-01 2.598982e-01 3.193079e-01 1.553353e-01 1.801971e-01 1.052809e-01 6.058900e-02
<GCONST> 6.342021e+01
<STATE> 4
<MEAN> 39
 -1.985605e+01 1.794713e+00 -2.779063e+00 -1.031443e+00 -1.203777e-01 1.826158e+00 4.169143e+00 4.011673e+00 3.138888e+00 1.798108e+00 1.507762e+00 4.454893e-02 5.932550e+01 6.069148e-01 1.467742e-01 5.209511e-02 -2.373970e-01 1.074694e-01 -1.074063e-01 -2.732275e-01 -5.979682e-01 -9.775994e-01 -2.341837e-01 2.613531e-01 -2.469527e-02 5.048200e-01 6.281672e-01 5.708991e-02 1.496069e-01 -1.441235e-01 4.431807e-02 -3.900602e-01 -2.617463e-01 -4.872660e-01 -7.220836e-01 -9.433091e-02 2.456274e-01 2.902254e-02 6.300279e-01
<VARIANCE> 39
 1.565575e+01 2.867371e+00 3.366663e+00 5.954474e+00 5.327898e+00 5.654255e+00 9.586713e+00 1.596035e+01 2.014222e+01 8.298220e+00 1.139307e+01 9.639668e+00 7.482342e+00 6.090145e-01 5.215468e-01 5.635384e-01 1.091207e+00 7.164821e-01 6.990063e-01 1.737192e+00 1.695554e+00 2.345661e+00 9.714573e-01 9.104378e-01 7.514666e-01 4.616982e-01 2.062860e-01 1.929889e-01 1.916226e-01 4.391136e-01 1.744455e-01 2.926298e-01 3.345888e-01 3.709894e-01 5.294946e-01 1.966242e-01 2.022448e-01 1.692812e-01 1.815510e-01
<GCONST> 7.906931e+01
<TRANSP> 5
 0.000000e+00 1.000000e+00 0.000000e+00 0.000000e+00 0.000000e+00
 0.000000e+00 9.228511e-01 7.714890e-02 0.000000e+00 0.000000e+00
 0.000000e+00 0.000000e+00 2.548460e-01 7.451540e-01 0.000000e+00
 0.000000e+00 0.000000e+00 0.000000e+00 3.372733e-01 6.627266e-01
 0.000000e+00 0.000000e+00 0.000000e+00 0.000000e+00 0.000000e+00
<ENDHMM>
~h "r"
<BEGINHMM>
<NUMSTATES> 5
<STATE> 2
<MEAN> 39
 -7.110636e+00 1.284810e+00 -3.798085e+00 -1.925106e+00 -1.343770e+00 -2.413081e+00 2.741663e+00 -3.724874e+00 -9.583874e+00 8.920823e-01 5.695759e+00 1.729536e-01 6.990390e+01 1.238012e+00 3.167251e-01 1.154803e-01 2.536942e-02 -1.918843e-01 -4.407278e-01 -4.292114e-01 -5.800840e-01 -7.853048e-01 -1.027291e-01 1.902404e-01 -2.316855e-01 8.310570e-01 -2.504260e-01 1.352908e-01 1.371660e-01 1.371297e-01 6.443717e-02 1.061335e-01 -5.659825e-02 1.663418e-01 3.894938e-01 -3.141060e-03 -9.198876e-02 8.296859e-03 -2.591079e-01
<VARIANCE> 39
 6.817951e+01 1.466657e+01 1.383565e+01 1.891190e+01 1.959118e+01 2.607149e+01 2.228997e+01 3.281623e+01 5.927402e+01 3.307127e+01 2.508389e+01 1.596027e+01 3.727869e+01 4.917599e+00 1.984842e+00 1.864913e+00 2.550832e+00 1.745949e+00 2.277492e+00 1.413485e+00 2.646549e+00 6.174056e+00 2.307665e+00 2.118314e+00 1.355069e+00 3.509638e+00 8.041603e-01 2.977418e-01 3.094921e-01 5.020903e-01 3.122282e-01 4.653308e-01 2.541253e-01 4.406753e-01 6.807933e-01 4.197291e-01 3.141708e-01 2.576903e-01 4.300549e-01
<GCONST> 1.136588e+02
<STATE> 3
<MEAN> 39
 -9.762985e+00 4.496817e+00 -1.317024e+00 -1.470342e-01 1.532941e+00 5.298598e-01 5.617630e-02 -3.814437e+00 -5.045531e+00 5.181837e-01 4.458179e+00 -7.625227e-02 6.667909e+01 -6.294876e-01 2.825295e-01 4.722756e-01 1.951396e-01 2.803505e-01 3.377976e-01 -2.399364e-01 1.211271e-01 7.041475e-01 1.630947e-01 5.090388e-02 3.467181e-01 -5.168947e-01 -9.391911e-03 -2.098835e-01 -9.249632e-02 2.940577e-02 -8.819959e-02 -1.614263e-01 1.613338e-01 2.220870e-01 -7.189941e-03 2.293982e-02 5.608675e-02 1.204910e-01 6.350775e-02
<VARIANCE> 39
 5.439745e+01 1.914248e+01 1.458440e+01 1.379114e+01 2.195486e+01 2.306790e+01 2.234913e+01 3.889397e+01 5.239103e+01 2.249343e+01 1.550073e+01 1.610947e+01 2.555140e+01 6.341204e+00 2.330076e+00 1.797917e+00 1.641022e+00 1.395756e+00 2.378572e+00 2.056951e+00 4.803794e+00 6.659656e+00 1.965672e+00 2.318158e+00 1.976137e+00 3.637429e+00 7.517495e-01 4.495256e-01 3.348117e-01 3.029616e-01 2.216870e-01 3.725474e-01 3.898388e-01 5.678539e-01 6.148010e-01 3.806460e-01 3.791579e-01 3.227336e-01 2.879690e-01
<GCONST> 1.132350e+02
<STATE> 4
<MEAN> 39
 -1.312353e+01 3.842067e+00 -1.068797e+00 2.299279e-01 7.416442e-01 4.709047e-02 1.172448e+00 -3.999691e-01 -1.498010e+00 2.210297e+00 4.085046e+00 5.251294e-02 6.416019e+01 -4.308189e-01 -1.959083e-01 2.154507e-01 6.186485e-03 -2.689430e-01 -6.350446e-01 -8.815157e-02 4.232957e-01 9.742221e-02 -3.034617e-01 -2.624876e-01 1.779158e-01 -1.753167e-01 9.513477e-02 -9.960364e-02 -3.616874e-02 7.121909e-02 8.510204e-02 3.404264e-02 9.283694e-03 -7.541851e-02 -1.507424e-01 -9.412480e-02 -5.760875e-02 -2.096204e-02 1.101473e-01
<VARIANCE> 39
 5.624097e+01 1.947192e+01 1.257212e+01 1.313101e+01 1.728452e+01 2.070770e+01 1.412481e+01 2.740372e+01 6.889194e+01 1.699813e+01 1.291613e+01 1.230775e+01 2.789731e+01 4.631689e+00 1.310254e+00 1.479800e+00 1.171666e+00 1.273679e+00 2.006044e+00 1.222735e+00 2.902292e+00 4.783076e+00 1.797876e+00 1.430755e+00 1.038354e+00 2.721691e+00 4.286841e-01 3.256455e-01 2.344136e-01 2.291673e-01 1.698413e-01 3.262046e-01 2.412125e-01 3.975495e-01 4.506140e-01 2.725092e-01 2.444039e-01 2.308228e-01 1.854688e-01
<GCONST> 1.024033e+02
<TRANSP> 5
 0.000000e+00 1.000000e+00 0.000000e+00 0.000000e+00 0.000000e+00
 0.000000e+00 7.969140e-01 2.030860e-01 0.000000e+00 0.000000e+00
 0.000000e+00 0.000000e+00 6.157222e-01 3.842778e-01 0.000000e+00
 0.000000e+00 0.000000e+00 0.000000e+00 5.984116e-01 4.015884e-01
 0.000000e+00 0.000000e+00 0.000000e+00 0.000000e+00 0.000000e+00
<ENDHMM>
~h "s"
<BEGINHMM>
<NUMSTATES> 5
<STATE> 2
<MEAN> 39
 -1.480421e+01 2.788319e+00 -7.072082e-01 9.615788e-01 9.249232e-01 2.321598e-01 1.185701e+00 -3.680047e-01 -2.787492e+00 -2.996424e-02 3.459500e+00 4.293424e-01 6.327716e+01 6.895883e-01 -3.868669e-01 1.665091e+00 4.128622e-01 3.386656e-01 5.617093e-02 -1.001758e+00 -9.309719e-01 -1.599156e+00 -5.484281e-01 6.889879e-01 -3.222677e-01 1.155918e+00 -2.154789e-01 -4.186718e-01 5.770131e-01 -2.530433e-01 4.083855e-02 1.095370e-01 -2.755100e-01 -1.438075e-01 -2.090275e-01 -5.840457e-02 1.237005e-01 -1.953811e-01 2.797210e-01
<VARIANCE> 39
 5.736659e+01 2.574353e+01 2.128997e+01 1.802206e+01 1.389920e+01 1.422284e+01 1.764569e+01 3.724149e+01 8.812703e+01 1.838712e+01 1.536712e+01 1.122500e+01 2.916101e+01 4.687354e+00 4.518274e+00 3.073582e+00 3.164548e+00 2.155656e+00 1.421895e+00 2.334356e+00 3.892806e+00 6.055140e+00 3.107733e+00 1.590439e+00 1.086068e+00 1.385455e+00 5.755377e-01 4.136527e-01 7.661979e-01 4.363840e-01 3.367751e-01 3.141023e-01 4.142870e-01 4.782257e-01 1.013544e+00 5.021796e-01 3.406805e-01 2.371523e-01 2.346855e-01
<GCONST> 1.140384e+02
<STATE> 3
<MEAN> 39
 -1.174680e+01 -6.536065e-01 5.203966e+00 1.698367e+00 2.513903e+00 -8.288828e-02 -3.331042e+00 -4.348017e+00 -1.080190e+01 -3.197440e+00 6.962427e+00 -7.017854e-01 6.909167e+01 -7.997179e-01 -1.670634e+00 2.204406e+00 -6.262743e-01 5.528327e-01 4.089154e-01 -1.090324e+00 -3.759907e-01 -4.259276e-01 5.643550e-02 5.942783e-01 -5.112770e-01 1.108750e+00 -5.225201e-01 -1.579201e-01 2.404284e-02 -2.626622e-01 6.693798e-02 1.116556e-01 2.432452e-01 2.285285e-01 7.023652e-01 3.802269e-01 -2.278549e-01 -1.310891e-02 -1.791524e-01
<VARIANCE> 39
 1.057478e+02 4.806103e+01 4.845952e+01 7.010305e+01 3.879404e+01 2.163844e+01 2.433008e+01 5.262093e+01 9.818210e+01 4.211659e+01 2.052836e+01 1.479253e+01 2.142340e+01 4.326906e+00 3.027935e+00 6.979774e+00 3.658882e+00 2.116882e+00 2.195927e+00 2.382110e+00 2.691869e+00 7.175453e+00 3.396618e+00 2.570852e+00 1.662434e+00 1.678188e+00 6.018776e-01 5.638988e-01 9.558330e-01 6.723441e-01 3.905116e-01 4.364448e-01 4.846669e-01 5.213618e-01 8.559600e-01 5.177058e-01 4.236019e-01 2.886134e-01 1.500739e-01
<GCONST> 1.242282e+02
<STATE> 4
<MEAN> 39
 -1.382181e+01 -5.066149e+00 8.406807e+00 9.412022e-01 4.619021e+00 -1.466871e+00 -5.881460e+00 -6.104849e+00 -9.591968e+00 3.782745e-01 9.210039e+00 -1.791245e+00 7.218570e+01 1.795270e-01 4.039811e-01 -3.126035e-01 1.573231e-01 3.407671e-02 -2.836864e-03 7.706450e-02 1.890061e-02 1.675249e-01 1.414897e-02 -9.186853e-02 8.734137e-02 -1.896514e-01 1.078573e-01 1.773779e-01 -1.939057e-01 1.277533e-01 -3.103711e-02 -9.625571e-03 7.636470e-02 3.441229e-02 -5.084716e-03 -4.276972e-02 -3.338038e-02 6.417414e-02 -1.169206e-01
<VARIANCE> 39
 1.482055e+02 6.041568e+01 8.415205e+01 1.047717e+02 2.989613e+01 4.019984e+01 3.569713e+01 4.776987e+01 8.666734e+01 2.454886e+01 2.782739e+01 2.423504e+01 1.371696e+01 9.657029e+00 5.087469e+00 4.466870e+00 9.185249e+00 2.254853e+00 2.705605e+00 2.992341e+00 3.411310e+00 7.348684e+00 2.044653e+00 2.267801e+00 1.545959e+00 1.665878e+00 1.081943e+00 7.459959e-01 5.946221e-01 1.196802e+00 3.476318e-01 5.171805e-01 4.493163e-01 4.675966e-01 9.509973e-01 3.447481e-01 3.398609e-01 2.666619e-01 1.614355e-01
<GCONST> 1.282341e+02
<TRANSP> 5
 0.000000e+00 1.000000e+00 0.000000e+00 0.000000e+00 0.000000e+00
 0.000000e+00 5.636203e-01 4.363797e-01 0.000000e+00 0.000000e+00
 0.000000e+00 0.000000e+00 6.466879e-01 3.533121e-01 0.000000e+00
 0.000000e+00 0.000000e+00 0.000000e+00 9.406193e-01 5.938068e-02
 0.000000e+00 0.000000e+00 0.000000e+00 0.000000e+00 0.000000e+00
<ENDHMM>
~h "t"
<BEGINHMM>
<NUMSTATES> 5
<STATE> 2
<MEAN> 39
 -1.241372e+01 -3.051828e-01 1.396357e+00 1.701831e+00 2.683789e+00 -1.421190e+00 -3.025242e+00 -4.972329e+00 -5.580806e+00 -8.036610e-01 4.669933e+00 -5.356454e-01 6.825410e+01 1.146094e+00 7.655744e-02 -2.376099e-01 4.519825e-01 1.012798e-01 -2.548545e-01 -1.621178e-01 -7.698546e-01 -1.108148e+00 -1.881806e-01 4.417896e-01 2.130111e-01 7.120703e-01 5.286659e-02 -2.847358e-02 -7.155866e-02 -9.754723e-02 -4.125617e-02 -2.397631e-02 4.842798e-02 -3.195781e-02 -4.669069e-02 1.110571e-02 5.385208e-02 6.768040e-02 6.277352e-02
<VARIANCE> 39
 7.647971e+01 4.039581e+01 2.663457e+01 5.536401e+01 1.740831e+01 2.049048e+01 2.940177e+01 4.597741e+01 6.025906e+01 2.280157e+01 2.528187e+01 1.311434e+01 2.910148e+01 7.576697e+00 3.617577e+00 4.222209e+00 6.433825e+00 1.941840e+00 2.433408e+00 3.644183e+00 4.157863e+00 6.430851e+00 2.051344e+00 2.713989e+00 1.241901e+00 3.325842e+00 1.070551e+00 6.402466e-01 8.259426e-01 1.233824e+00 3.939722e-01 4.318507e-01 7.135100e-01 7.974485e-01 1.085466e+00 3.756138e-01 5.111612e-01 2.163556e-01 5.905071e-01
<GCONST> 1.260558e+02
<STATE> 3
<MEAN> 39
 -1.398953e+00 -1.052367e+00 -4.789641e+00 3.091769e+00 -4.852218e-01 -5.762117e+00 6.735312e-01 -9.451164e+00 -1.601324e+01 -1.564718e+00 1.037738e+01 4.918629e+00 7.460736e+01 9.380782e-02 1.544608e-01 -1.606934e-01 -4.067867e-01 -3.349212e-01 -2.393417e-01 1.258101e-01 4.133701e-01 2.872956e-01 2.934070e-02 -2.378194e-01 1.336518e-01 2.105800e-02 -2.966832e-01 1.063353e-01 2.291203e-01 -4.240067e-02 8.201413e-02 1.390605e-01 -1.309909e-01 1.931084e-01 3.458699e-01 -8.171935e-03 -1.998958e-01 -1.340850e-01 -1.999556e-01
<VARIANCE> 39
 1.076136e+01 1.436935e+01 9.620567e+00 1.118148e+01 1.471617e+01 2.114700e+01 1.295784e+01 3.753289e+01 1.696979e+01 2.708339e+01 1.891504e+01 1.121652e+01 7.362183e+00 1.553679e+00 1.173782e+00 1.548181e+00 1.442678e+00 1.923013e+00 2.020114e+00 1.204490e+00 1.188910e+00 1.509913e+00 1.884108e+00 1.810400e+00 1.218447e+00 6.934784e-01 4.487290e-01 2.254348e-01 2.885951e-01 3.707790e-01 3.568967e-01 5.138379e-01 1.998548e-01 2.720299e-01 4.430003e-01 3.679751e-01 4.098628e-01 1.738633e-01 1.467597e-01
<GCONST> 9.589062e+01
<STATE> 4
<MEAN> 39
 -1.765996e+00 2.517785e+00 -3.428163e+00 1.125286e+00 -5.370880e-01 -5.493264e+00 -8.925957e-01 -6.016521e+00 -1.439334e+01 -1.198246e+00 9.174931e+00 2.408254e+00 7.319946e+01 -4.514319e-01 6.871001e-01 5.222843e-01 -9.934554e-02 -1.072775e-01 4.814444e-01 2.368058e-01 4.813391e-01 5.771063e-01 2.069250e-03 -1.049858e-01 -1.475223e-01 -5.549287e-01 -2.017069e-01 4.310160e-02 1.361189e-01 8.748484e-02 8.431115e-02 2.030782e-01 1.338398e-01 1.477986e-02 6.475975e-02 -3.000415e-02 -8.015038e-02 -7.248241e-03 -1.654636e-01
<VARIANCE> 39
 1.218169e+01 1.424525e+01 1.321393e+01 9.757480e+00 1.402566e+01 2.620790e+01 1.263752e+01 2.164998e+01 1.620148e+01 2.588601e+01 1.334770e+01 2.354901e+01 9.504660e+00 4.028589e-01 6.038100e-01 9.761948e-01 7.582056e-01 1.349924e+00 1.824839e+00 7.739263e-01 9.740585e-01 1.528360e+00 6.449476e-01 8.391996e-01 6.168853e-01 4.006332e-01 5.684975e-02 1.235574e-01 1.496149e-01 1.420179e-01 1.553312e-01 2.870275e-01 1.843290e-01 1.152377e-01 2.637827e-01 1.498682e-01 2.276197e-01 1.408145e-01 3.419206e-02
<GCONST> 7.875062e+01
<TRANSP> 5
 0.000000e+00 1.000000e+00 0.000000e+00 0.000000e+00 0.000000e+00
 0.000000e+00 9.369881e-01 6.301191e-02 0.000000e+00 0.000000e+00
 0.000000e+00 0.000000e+00 8.694151e-01 1.305849e-01 0.000000e+00
 0.000000e+00 0.000000e+00 0.000000e+00 7.597295e-01 2.402705e-01
 0.000000e+00 0.000000e+00 0.000000e+00 0.000000e+00 0.000000e+00
<ENDHMM>
~h "u"
<BEGINHMM>
<NUMSTATES> 5
<STATE> 2
<MEAN> 39
 -1.008184e+01 4.413355e+00 8.995450e+00 8.946343e+00 6.672336e+00 -2.899464e-01 -3.779830e+00 -2.384984e+00 -6.967588e+00 -5.651472e+00 3.962941e+00 6.916701e-01 6.833026e+01 7.016211e-01 -3.425685e-01 2.066466e-01 6.016604e-01 4.648011e-01 -4.288790e-01 -8.572705e-01 -4.402249e-01 -7.624673e-01 -6.341711e-01 2.395784e-01 6.395299e-02 7.076627e-01 -5.651639e-02 -1.165165e-01 -1.799363e-01 -1.341652e-01 -4.079118e-04 -1.500688e-02 -7.077140e-02 -4.558396e-03 -3.772244e-03 4.405522e-02 1.362268e-01 -3.197672e-03 -1.811650e-02
<VARIANCE> 39
 3.628522e+01 7.948746e+01 5.193060e+01 2.930547e+01 2.775406e+01 1.933393e+01 3.515509e+01 2.618393e+01 6.369544e+01 3.034993e+01 1.942449e+01 1.305328e+01 2.031282e+01 4.426808e+00 8.791867e+00 5.201981e+00 4.028588e+00 3.969274e+00 2.104203e+00 3.891379e+00 2.518368e+00 7.470412e+00 3.719036e+00 2.722184e+00 1.261799e+00 2.462246e+00 6.347708e-01 1.401175e+00 9.022937e-01 7.821717e-01 8.300083e-01 4.053468e-01 6.114200e-01 4.388083e-01 1.051726e+00 5.450186e-01 4.065724e-01 2.551960e-01 3.736552e-01
<GCONST> 1.260868e+02
<STATE> 3
<MEAN> 39
 -3.129077e+00 -8.000566e-01 2.733138e+00 1.103268e+01 1.046820e+01 -4.685850e+00 -1.170528e+01 -6.419322e+00 -1.692232e+01 -1.066636e+01 9.839207e+00 1.000659e+00 7.412762e+01 4.176469e-01 4.068550e-01 -7.172387e-01 -6.744422e-01 -3.904861e-01 9.632572e-02 1.454424e-01 -4.666722e-01 -5.502453e-01 2.335610e-01 1.711332e-01 -8.272819e-03 -3.158927e-03 -2.873494e-01 2.246737e-01 3.157561e-01 -1.592701e-01 -2.252744e-01 1.422653e-01 3.023731e-01 1.780375e-01 4.259429e-01 3.072749e-01 -1.994621e-01 -7.189022e-02 -2.183329e-01
<VARIANCE> 39
 8.415374e+00 1.446879e+01 2.529952e+01 4.000294e+01 2.138952e+01 2.062079e+01 2.256823e+01 3.612267e+01 1.786334e+01 2.426978e+01 1.597952e+01 2.445800e+01 6.305499e+00 1.158721e+00 1.800367e+00 1.970505e+00 1.511181e+00 1.439365e+00 1.595641e+00 1.976367e+00 2.422169e+00 2.481785e+00 1.997617e+00 1.926557e+00 2.127390e+00 1.045672e+00 1.933519e-01 2.676977e-01 2.410317e-01 2.628949e-01 2.196477e-01 2.639682e-01 2.514393e-01 4.980569e-01 4.293814e-01 3.989454e-01 3.104459e-01 2.867034e-01 1.371284e-01
<GCONST> 1.005380e+02
<STATE> 4
<MEAN> 39
 -3.320198e+00 2.370815e+00 -1.458575e-01 4.918999e+00 4.854902e+00 -2.519644e+00 -6.330352e+00 -8.035725e+00 -1.679044e+01 -2.984127e+00 1.271874e+01 2.466723e+00 7.207689e+01 -6.586051e-01 7.712135e-01 1.909066e-01 -4.654309e-01 -3.940734e-01 6.353571e-01 1.142677e+00 8.061876e-01 1.359123e+00 1.241564e+00 -2.014507e-01 -2.761800e-01 -7.972301e-01 -1.650563e-01 -6.375076e-02 5.677983e-02 1.095532e-01 1.074991e-01 4.453376e-02 -7.927764e-03 1.674426e-01 3.421331e-01 -6.536910e-02 -2.155347e-01 -5.141032e-02 -8.821926e-02
<VARIANCE> 39
 7.872106e+00 3.096431e+01 1.374692e+01 1.470362e+01 1.165209e+01 1.499911e+01 2.837071e+01 2.102156e+01 3.446513e+01 2.495868e+01 3.129419e+01 1.432926e+01 1.181939e+01 7.872213e-01 1.514070e+00 1.127563e+00 1.278276e+00 9.758499e-01 2.037478e+00 1.880202e+00 1.568314e+00 3.007255e+00 1.444003e+00 1.805145e+00 7.767103e-01 8.082252e-01 7.896089e-02 2.696366e-01 1.894129e-01 2.165124e-01 1.820050e-01 3.541251e-01 2.184805e-01 4.427292e-01 3.697187e-01 2.003260e-01 2.590540e-01 1.337579e-01 9.647375e-02
<GCONST> 9.284773e+01
<TRANSP> 5
 0.000000e+00 1.000000e+00 0.000000e+00 0.000000e+00 0.000000e+00
 0.000000e+00 9.034699e-01 9.653008e-02 0.000000e+00 0.000000e+00
 0.000000e+00 0.000000e+00 8.547114e-01 1.452886e-01 0.000000e+00
 0.000000e+00 0.000000e+00 0.000000e+00 7.898081e-01 2.101919e-01
 0.000000e+00 0.000000e+00 0.000000e+00 0.000000e+00 0.000000e+00
<ENDHMM>
~h "w"
<BEGINHMM>
<NUMSTATES> 5
<STATE> 2
<MEAN> 39
 -2.951837e+00 8.335201e+00 3.213443e+00 1.608654e+00 4.630023e-01 -4.211016e+00 -6.826551e+00 -2.389722e+00 -9.467233e+00 -7.473507e+00 6.589262e+00 -1.085896e+00 7.111095e+01 -1.380433e-01 4.271308e-01 9.753057e-01 -2.773986e-02 -1.217301e+00 -7.702845e-01 -5.342810e-02 5.929988e-01 5.638162e-01 -4.154927e-02 5.308298e-01 1.304777e-02 -1.567397e-01 -1.505292e-02 -2.518199e-01 -1.565515e-01 1.322760e-01 6.123246e-02 -5.127201e-02 6.539895e-02 -1.592998e-01 -1.590412e-01 8.149537e-02 5.882621e-02 1.408534e-01 5.075878e-02
<VARIANCE> 39
 6.560552e+00 1.820891e+01 4.654925e+01 1.401084e+01 1.785032e+01 2.080800e+01 3.425756e+01 1.795596e+01 1.724143e+01 2.052151e+01 3.243966e+01 4.107972e+01 8.214485e+00 3.657921e-01 8.720051e-01 1.737630e+00 7.704194e-01 1.191264e+00 1.506387e+00 1.343403e+00 1.271585e+00 1.843498e+00 1.588527e+00 2.309828e+00 8.796766e-01 3.139315e-01 1.114460e-01 1.878939e-01 2.832363e-01 1.318016e-01 9.907977e-02 2.585396e-01 3.231555e-01 1.338248e-01 3.452751e-01 2.922943e-01 4.136993e-01 2.344602e-01 8.937922e-02
<GCONST> 9.034265e+01
<STATE> 3
<MEAN> 39
 -3.907344e+00 1.033687e+01 7.531920e+00 3.794831e+00 -2.710404e+00 -6.116922e+00 -4.708937e+00 9.255377e-01 -6.857818e+00 -9.045877e+00 4.324396e+00 -2.383062e+00 6.972588e+01 3.887599e-01 -6.126710e-01 -5.117022e-01 -2.612822e-01 -4.531161e-01 -4.267419e-01 -2.159467e-01 -1.133673e-02 2.672225e-03 -2.347681e-01 2.406709e-01 6.775367e-02 4.370072e-01 7.102051e-02 -2.283089e-01 -2.620546e-01 -6.919928e-02 1.090079e-01 1.560092e-01 8.442404e-02 -1.393477e-01 -1.723779e-01 -3.586227e-02 2.862513e-02 7.315990e-02 1.158675e-01
<VARIANCE> 39
 1.056826e+01 2.043837e+01 1.722879e+01 1.823425e+01 2.086332e+01 3.124347e+01 2.090981e+01 1.843449e+01 1.860343e+01 2.475470e+01 2.427527e+01 1.903095e+01 1.024399e+01 6.316640e-01 1.314415e+00 1.206640e+00 9.116309e-01 9.716601e-01 1.526985e+00 1.559729e+00 1.097426e+00 1.438487e+00 1.717792e+00 1.094050e+00 8.920278e-01 4.812448e-01 1.240537e-01 2.602092e-01 1.437170e-01 1.722671e-01 1.413493e-01 2.656556e-01 2.277777e-01 1.651331e-01 3.088651e-01 4.007620e-01 2.162363e-01 1.611203e-01 1.026197e-01
<GCONST> 8.940406e+01
<STATE> 4
<MEAN> 39
 -1.126285e+00 2.758412e+00 -1.017747e+00 1.083865e+00 -3.477876e+00 -5.221226e+00 -1.691182e+00 -3.387222e+00 -1.028694e+01 -5.239182e+00 7.249393e+00 5.060656e-01 7.348864e+01 -2.668886e-01 -9.289443e-02 -3.115336e-01 7.722600e-02 3.110006e-01 3.896382e-01 4.717942e-01 -1.307083e-01 1.051899e-01 7.072918e-01 -1.433686e-01 1.493684e-02 -2.393721e-01 -1.236268e-01 1.167496e-01 1.039727e-01 3.765742e-02 8.980868e-02 4.603365e-02 -4.171965e-02 7.171243e-02 1.680453e-01 6.892742e-02 -7.768352e-02 -5.985932e-02 -1.201037e-01
<VARIANCE> 39
 8.117981e+00 2.009126e+01 2.259535e+01 1.924081e+01 1.683973e+01 1.854941e+01 3.097603e+01 2.219056e+01 2.240801e+01 5.421594e+01 1.407927e+01 1.400655e+01 9.841875e+00 7.699927e-01 1.309399e+00 1.412790e+00 1.034467e+00 7.322434e-01 1.562990e+00 1.841943e+00 1.454420e+00 1.838434e+00 1.286548e+00 1.175920e+00 9.416364e-01 7.706025e-01 6.094492e-02 1.307817e-01 1.192680e-01 1.712093e-01 1.014358e-01 2.657740e-01 2.837425e-01 2.525658e-01 3.052815e-01 2.182170e-01 1.670521e-01 1.340403e-01 4.965122e-02
<GCONST> 8.752387e+01
<TRANSP> 5
 0.000000e+00 1.000000e+00 0.000000e+00 0.000000e+00 0.000000e+00
 0.000000e+00 7.424495e-01 2.575505e-01 0.000000e+00 0.000000e+00
 0.000000e+00 0.000000e+00 7.976684e-01 2.023316e-01 0.000000e+00
 0.000000e+00 0.000000e+00 0.000000e+00 9.112390e-01 8.876097e-02
 0.000000e+00 0.000000e+00 0.000000e+00 0.000000e+00 0.000000e+00
<ENDHMM>
~h "y"
<BEGINHMM>
<NUMSTATES> 5
<STATE> 2
<MEAN> 39
 -1.852354e+01 4.061884e+00 3.908792e-01 2.993751e+00 3.337957e+00 3.603617e+00 4.400045e+00 5.185763e+00 6.061985e+00 4.374648e+00 3.083338e+00 1.546065e+00 5.981059e+01 -7.251979e-01 -8.198919e-01 -9.425036e-01 -9.978336e-01 -7.235488e-01 -2.758453e-01 -5.151063e-03 7.607558e-02 -2.194497e-01 -3.782959e-01 -2.465575e-01 -3.929654e-01 -3.173732e-01 1.715389e-01 1.439798e-01 9.094478e-02 5.427463e-02 -8.796214e-02 -1.959097e-01 -2.104198e-01 -1.820851e-01 -1.424618e-01 -9.645294e-02 -9.034590e-02 -1.222241e-01 7.383201e-02
<VARIANCE> 39
 6.015779e+00 5.822517e+00 1.144866e+01 1.744151e+01 1.516922e+01 9.939419e+00 8.659794e+00 9.720802e+00 6.719614e+00 6.938224e+00 7.048235e+00 7.349160e+00 1.596294e+00 1.525785e-01 2.372611e-01 4.098988e-01 8.719769e-01 1.267866e+00 1.506039e+00 1.508747e+00 1.370095e+00 7.574061e-01 1.025472e+00 1.041077e+00 8.025956e-01 4.012583e-02 3.773256e-02 5.759127e-02 5.950199e-02 1.292278e-01 1.687772e-01 2.080592e-01 2.562398e-01 2.428982e-01 1.249383e-01 1.621128e-01 2.033538e-01 1.489934e-01 8.740875e-03
<GCONST> 6.235208e+01
<STATE> 3
<MEAN> 39
 -2.083875e+01 1.632100e+00 -2.764229e+00 -5.393608e-01 -5.350551e-02 1.611430e+00 3.815264e+00 4.269431e+00 4.240726e+00 2.697388e+00 2.279768e+00 3.090059e-01 5.865142e+01 -1.199993e-01 -1.251495e-01 -1.306442e-01 -2.296897e-02 4.644804e-02 3.621154e-02 7.971874e-02 -2.304528e-02 -1.068729e-01 -1.470554e-02 -3.365805e-02 -1.059936e-01 -4.848614e-02 4.516655e-02 4.981351e-02 7.325986e-02 6.974351e-02 1.275841e-01 6.923040e-02 -6.486237e-03 6.122097e-03 4.627458e-02 4.327023e-02 3.496523e-02 5.059950e-02 3.738352e-02
<VARIANCE> 39
 9.153584e-01 1.416945e+00 3.056314e+00 4.452055e+00 5.335676e+00 6.038396e+00 6.501158e+00 1.095235e+01 9.478841e+00 6.210124e+00 6.966793e+00 5.780075e+00 1.447546e+00 1.135794e-01 2.071378e-01 2.854225e-01 3.290733e-01 5.137317e-01 6.097281e-01 5.673254e-01 8.841535e-01 9.018995e-01 6.977796e-01 1.060250e+00 9.538885e-01 3.750132e-02 2.821236e-02 4.596053e-02 6.356777e-02 7.637203e-02 9.176943e-02 1.383635e-01 1.334599e-01 1.678042e-01 1.703037e-01 1.723904e-01 2.352240e-01 1.906001e-01 1.139842e-02
<GCONST> 4.747756e+01
<STATE> 4
<MEAN> 39
 -2.146214e+01 9.260090e-01 -3.661699e+00 -1.084429e+00 5.821804e-01 2.443608e+00 4.511958e+00 5.338306e+00 5.537660e+00 4.216488e+00 3.080869e+00 3.640246e-01 5.846832e+01 1.021655e-01 -1.380585e-01 1.235599e-01 -2.289852e-01 2.671758e-01 -6.740689e-04 -2.567199e-01 -1.892359e-01 -9.685200e-02 -1.903926e-01 -1.733024e-01 -1.825770e-01 2.465917e-01 7.292432e-01 2.506372e-01 3.216076e-01 -9.167293e-02 5.276263e-03 -4.688725e-01 -3.980128e-01 -6.349441e-01 -8.222254e-01 -3.777035e-01 6.642006e-02 5.220943e-02 6.241509e-01
<VARIANCE> 39
 1.500712e+00 1.988640e+00 3.719388e+00 4.462769e+00 4.058460e+00 3.242949e+00 4.110638e+00 9.169051e+00 9.799822e+00 9.569767e+00 1.054945e+01 1.043141e+01 1.447546e+00 4.125153e-01 4.239252e-01 5.447853e-01 4.244603e-01 6.266127e-01 7.925185e-01 8.824503e-01 1.221564e+00 1.325307e+00 1.027149e+00 7.759280e-01 9.068705e-01 2.659032e-01 2.116457e-01 1.045868e-01 1.255113e-01 9.810658e-02 1.468559e-01 1.994138e-01 2.527895e-01 1.318479e-01 2.187475e-01 2.226103e-01 3.056363e-01 2.600680e-01 1.369705e-01
<GCONST> 6.351591e+01
<TRANSP> 5
 0.000000e+00 1.000000e+00 0.000000e+00 0.000000e+00 0.000000e+00
 0.000000e+00 6.383820e-01 3.616180e-01 0.000000e+00 0.000000e+00
 0.000000e+00 0.000000e+00 8.372185e-01 1.627815e-01 0.000000e+00
 0.000000e+00 0.000000e+00 0.000000e+00 4.504149e-01 5.495850e-01
 0.000000e+00 0.000000e+00 0.000000e+00 0.000000e+00 0.000000e+00
<ENDHMM>
~h "sp"
<BEGINHMM>
<NUMSTATES> 3
<STATE> 2
~s "silst"
<TRANSP> 3
 0.000000e+00 7.000000e-01 3.000000e-01
 0.000000e+00 9.000000e-01 9.999999e-02
 0.000000e+00 0.000000e+00 0.000000e+00
<ENDHMM>
~h "sy"
<BEGINHMM>
<NUMSTATES> 5
<STATE> 2
<MEAN> 39
 -2.107842e+01 1.017330e+00 -3.412639e+00 -1.120848e+00 -2.542760e-01 1.584640e+00 3.652526e+00 4.283252e+00 4.405455e+00 1.947813e+00 5.886835e-01 -1.071444e+00 5.859162e+01 -2.046170e-02 -2.526288e-02 -1.111995e-02 -2.637869e-02 -8.634331e-03 8.260808e-04 -8.867412e-03 2.150379e-02 2.289570e-02 2.190364e-02 2.405545e-02 1.410348e-02 -1.452033e-03 2.905364e-03 3.296116e-03 8.792661e-03 4.308083e-03 4.397249e-03 6.495818e-03 1.284725e-03 4.285285e-04 -7.020617e-04 6.076898e-04 4.625456e-03 9.149920e-03 1.547027e-03
<VARIANCE> 39
 1.021435e+00 1.354199e+00 2.257013e+00 3.884895e+00 4.446120e+00 5.566361e+00 7.707716e+00 8.887397e+00 8.665454e+00 7.134395e+00 6.004225e+00 5.887425e+00 1.447546e+00 8.836881e-02 1.362225e-01 2.364024e-01 4.121806e-01 5.514497e-01 6.466544e-01 7.336820e-01 8.985574e-01 8.671413e-01 7.423990e-01 6.538687e-01 6.707627e-01 3.167807e-02 1.849214e-02 2.727639e-02 4.531408e-02 8.283524e-02 1.215063e-01 1.379046e-01 1.454206e-01 1.862657e-01 1.882677e-01 1.577769e-01 1.363354e-01 1.410200e-01 6.143882e-03
<GCONST> 4.331995e+01
<STATE> 3
<MEAN> 39
 -2.138644e+01 -5.164004e-01 -3.560907e+00 -1.749131e+00 -7.165669e-01 2.048678e+00 2.696585e+00 4.977762e+00 5.534039e+00 1.716267e+00 2.044165e+00 6.568347e-01 5.909606e+01 5.471417e-02 3.471127e-01 5.585800e-01 5.490198e-01 1.728518e-02 -6.007814e-02 3.715501e-01 -4.988820e-01 -1.028242e+00 -9.096075e-02 1.613064e-02 1.288631e-01 -1.130498e-01 3.001891e-01 9.060926e-02 -2.394972e-03 -4.871986e-02 6.191707e-02 -1.291933e-01 2.655671e-01 -3.383303e-01 -6.718158e-01 1.390587e-01 6.482722e-03 -3.139267e-01 2.506372e-01
<VARIANCE> 39
 8.882809e-01 3.903777e+00 4.322768e+00 1.705288e+00 1.411032e+00 7.192566e+00 6.455499e+00 1.064030e+01 3.936353e+00 6.571146e+00 1.964770e+00 7.854183e+00 1.447546e+00 3.286580e-01 5.233439e-01 4.055121e-01 3.103750e-01 5.023184e-01 1.111373e+00 8.916860e-01 1.566360e+00 1.763425e+00 5.174868e-01 6.062945e-01 8.592950e-01 1.825713e-01 2.086957e-01 1.959713e-01 1.175864e-01 6.031395e-02 1.246188e-01 2.227084e-01 1.917666e-01 3.126982e-01 2.550029e-01 1.324707e-01 9.286122e-02 2.260109e-01 1.471492e-01
<GCONST> 5.758690e+01
<STATE> 4
<MEAN> 39
 -1.279388e+01 1.040066e+00 -4.360713e+00 -1.171292e+00 -1.948822e+00 4.501045e-01 8.456685e+00 3.187656e-04 -5.339871e+00 4.162040e+00 4.734720e+00 -1.501302e+00 6.544201e+01 2.069307e+00 -1.158878e-01 -4.910564e-01 -2.080303e-01 -1.414218e-01 -6.874647e-01 4.309331e-01 -5.338816e-01 -1.670898e+00 4.900140e-01 1.087494e+00 -2.298750e-01 1.825897e+00 5.158815e-02 -9.510149e-02 -1.077557e-01 -1.210475e-01 -3.352047e-02 -1.746282e-01 -4.365218e-01 1.200746e-01 3.061461e-01 -5.965555e-02 7.510196e-02 5.421285e-02 9.164752e-02
<VARIANCE> 39
 4.618755e+01 1.194624e+01 7.900325e+00 2.665164e+00 5.349364e+00 8.524598e+00 2.202378e+01 1.501920e+01 4.392771e+01 9.202411e+00 1.749493e+01 5.793708e+00 2.829286e+01 2.157658e+00 1.492203e+00 1.126307e+00 4.479187e-01 5.391264e-01 1.640118e+00 3.842997e+00 1.703330e+00 2.433262e+00 1.194129e+00 1.171259e+00 8.598729e-01 9.528654e-01 3.546413e-01 2.753901e-01 2.282871e-01 8.602086e-02 7.780539e-02 3.002911e-01 4.077087e-01 3.765519e-01 2.769316e-01 2.797608e-01 3.742511e-01 1.744473e-01 2.192060e-01
<GCONST> 8.919706e+01
<TRANSP> 5
 0.000000e+00 1.000000e+00 0.000000e+00 0.000000e+00 0.000000e+00
 0.000000e+00 9.861651e-01 1.383491e-02 0.000000e+00 0.000000e+00
 0.000000e+00 0.000000e+00 5.787374e-01 4.212626e-01 0.000000e+00
 0.000000e+00 0.000000e+00 0.000000e+00 7.298972e-01 2.701028e-01
 0.000000e+00 0.000000e+00 0.000000e+00 0.000000e+00 0.000000e+00
<ENDHMM>
~h "sil"
<BEGINHMM>
<NUMSTATES> 5
<STATE> 2
<MEAN> 39
 -2.339117e+00 2.156752e-01 -2.949035e-01 -5.186727e-02 2.425832e-02 1.103488e-01 2.408139e-01 3.293056e-01 3.886853e-01 1.937131e-01 1.358825e-01 -3.896029e-02 6.756638e+00 -2.855590e-02 -9.318765e-03 1.984871e-03 -1.558062e-02 -1.954317e-02 1.354058e-03 -1.847204e-03 9.696988e-03 2.069265e-02 7.805582e-03 -5.855498e-03 -1.256777e-02 -1.642178e-02 -2.840286e-01 4.338976e-02 -2.075959e-02 2.519699e-02 8.135000e-04 4.524566e-02 2.480933e-02 5.190415e-02 4.093682e-02 4.334261e-02 1.298015e-02 8.275227e-03 3.071599e-01
<VARIANCE> 39
 4.237833e+01 5.563793e-01 9.893395e-01 3.424153e-01 2.544843e-01 4.240483e-01 9.470109e-01 1.757360e+00 1.930576e+00 1.131955e+00 6.135234e-01 3.004810e-01 3.519422e+02 2.257588e-02 1.534269e-02 3.348996e-02 6.167942e-02 5.770658e-02 4.842643e-02 4.440864e-02 6.750197e-02 6.461339e-02 5.976902e-02 3.815301e-02 4.866544e-02 1.980202e-02 3.572791e-01 1.492880e-02 2.039018e-02 1.750184e-02 1.990672e-02 2.161070e-02 2.335457e-02 3.057808e-02 3.515124e-02 3.338735e-02 2.419605e-02 1.580977e-02 4.014638e-01
<GCONST> -8.312019e+00
<STATE> 3
~s "silst"
<STATE> 4
<MEAN> 39
 -2.094431e+01 1.215974e+00 -3.284175e+00 -1.194950e+00 -3.897027e-01 1.490868e+00 3.921901e+00 4.698873e+00 4.627600e+00 2.238109e+00 9.411377e-01 -6.803712e-01 5.861727e+01 3.692118e-03 -1.090397e-02 -1.609697e-02 -1.560407e-02 -1.358878e-02 -1.679834e-02 -1.115063e-02 -1.237826e-02 -1.990441e-02 -1.056135e-02 -2.028744e-03 -1.759171e-03 4.201129e-02 1.925856e-03 -1.796120e-03 9.138593e-04 1.303469e-03 6.132902e-04 -2.358063e-03 -5.891345e-03 -7.172721e-03 -7.955527e-03 -2.976414e-04 3.678995e-03 3.813331e-03 -1.933280e-02
<VARIANCE> 39
 1.132902e+00 1.761179e+00 3.407566e+00 4.881683e+00 5.195287e+00 5.737851e+00 7.183220e+00 9.024465e+00 8.429327e+00 7.102380e+00 6.473613e+00 6.700964e+00 1.447546e+00 1.009512e-01 1.569933e-01 2.897657e-01 4.391053e-01 5.094381e-01 5.860751e-01 7.242745e-01 9.487263e-01 9.392232e-01 7.782780e-01 6.907651e-01 6.924812e-01 1.529729e-01 2.040083e-02 3.284812e-02 5.748570e-02 8.850253e-02 1.046067e-01 1.222710e-01 1.480295e-01 1.940992e-01 1.956301e-01 1.632121e-01 1.446944e-01 1.426862e-01 3.085541e-02
<GCONST> 4.895864e+01
<TRANSP> 5
 0.000000e+00 1.000000e+00 0.000000e+00 0.000000e+00 0.000000e+00
 0.000000e+00 6.162564e-01 1.837436e-01 2.000000e-01 0.000000e+00
 0.000000e+00 0.000000e+00 7.775294e-01 2.224706e-01 0.000000e+00
 0.000000e+00 2.000000e-01 0.000000e+00 7.888052e-01 1.119477e-02
 0.000000e+00 0.000000e+00 0.000000e+00 0.000000e+00 0.000000e+00
<ENDHMM>
