~o
<STREAMINFO> 1 39
<VECSIZE> 39<NULLD><MFCC_D_A_0><DIAGC>
~s "silst"
<MEAN> 39
 -1.561893e+01 1.406502e+00 -2.379438e+00 7.132423e-01 -3.413281e-01 2.047401e+00 7.989093e-01 1.240592e+00 1.198579e+00 4.441998e-01 3.912006e-01 -3.099126e-01 2.801571e+01 -1.501324e+00 1.159330e-01 -5.601387e-02 4.494915e-02 1.264411e-01 2.538760e-01 2.775109e-01 1.161637e-01 2.443687e-01 6.457276e-02 5.775781e-02 -4.657183e-03 3.535032e+00 2.296113e-02 4.053245e-03 1.533981e-02 -1.941161e-02 1.367560e-02 1.956465e-02 3.385046e-03 -2.572258e-02 1.162071e-03 -1.996799e-02 -1.252425e-02 -2.796270e-03 1.031718e-01
<VARIANCE> 39
 1.129469e+02 4.249040e+00 1.277583e+01 5.818170e+00 8.510040e+00 8.799760e+00 1.296150e+01 1.368491e+01 1.163871e+01 7.487062e+00 5.608790e+00 5.389315e+00 4.301096e+02 7.694958e+00 3.753479e-01 6.854164e-01 4.251389e-01 5.251428e-01 6.876045e-01 7.940612e-01 8.091363e-01 7.644827e-01 6.320753e-01 6.388988e-01 6.290014e-01 1.285646e+01 1.490560e+00 6.947122e-02 1.168050e-01 8.188663e-02 1.026225e-01 1.418156e-01 1.675472e-01 1.564838e-01 1.543887e-01 1.244617e-01 1.326568e-01 1.233499e-01 2.438571e+00
<GCONST> 8.291350e+01
~h "a"
<BEGINHMM>
<NUMSTATES> 5
<STATE> 2
<MEAN> 39
 -1.636757e+01 2.530455e+00 -6.265970e-01 1.412972e-01 1.194912e+00 2.469810e+00 2.876084e+00 -4.188721e-01 3.662960e+00 -3.486018e-01 6.699774e-01 -8.866725e-01 5.843009e+01 -3.589258e-01 -1.363319e-02 -4.481685e-02 -1.888113e-02 8.901212e-03 4.182134e-02 1.108638e-01 1.989049e-01 9.237258e-02 1.317734e-02 -3.253219e-02 -7.674970e-02 -4.322234e-01 7.504126e-02 -6.104390e-02 2.349309e-02 -5.799025e-03 1.662853e-02 1.039497e-03 -1.948316e-02 -5.097440e-02 -8.604997e-02 -6.893716e-02 5.996040e-03 -2.976960e-03 1.309551e-01
<VARIANCE> 39
 3.578452e+01 1.717064e+01 1.748908e+01 2.445263e+01 2.144724e+01 1.960896e+01 1.676671e+01 3.337211e+01 2.557854e+01 2.776160e+01 1.852934e+01 1.266487e+01 7.037366e+01 4.460228e-01 7.355724e-01 6.904589e-01 7.815322e-01 9.133821e-01 1.030083e+00 1.231742e+00 1.251226e+00 1.210830e+00 9.898813e-01 9.206105e-01 9.026982e-01 6.501250e-01 6.505232e-02 1.548590e-01 1.412555e-01 1.437339e-01 1.732850e-01 1.850580e-01 2.158342e-01 2.425963e-01 2.389820e-01 1.809099e-01 1.802172e-01 1.763073e-01 9.406656e-02
<GCONST> 8.716975e+01
<STATE> 3
<MEAN> 39
 -1.502367e+01 1.529468e+00 -1.073384e+00 -1.065507e+00 5.233379e-01 2.109942e+00 2.472914e+00 -1.638096e+00 1.997874e+00 -2.367410e+00 -4.928196e-01 -9.226087e-01 5.925226e+01 -6.941397e-02 6.999663e-03 2.950799e-01 2.630320e-01 3.304125e-01 1.019083e-01 -4.585286e-02 -8.427714e-02 -2.390155e-01 -2.891162e-01 2.330421e-02 -1.550275e-01 8.571090e-02 3.414344e-01 -1.322761e-01 1.906740e-01 -1.536608e-02 -7.448860e-02 -1.278579e-01 -1.412660e-01 -2.577214e-01 -2.829376e-01 -1.617317e-01 1.941875e-02 8.232361e-03 5.348799e-01
<VARIANCE> 39
 5.267589e+01 1.980914e+01 2.052290e+01 2.420393e+01 2.503263e+01 2.230851e+01 1.479631e+01 3.298823e+01 3.848354e+01 3.398193e+01 3.108570e+01 1.521074e+01 1.139521e+02 9.772471e-01 1.931459e+00 1.287505e+00 1.118490e+00 1.190672e+00 1.389526e+00 1.716567e+00 1.634340e+00 1.576015e+00 1.277603e+00 1.290187e+00 1.076140e+00 1.726674e+00 2.925176e-01 4.630200e-01 2.337213e-01 3.088416e-01 3.023891e-01 3.080291e-01 3.797798e-01 3.415292e-01 4.287739e-01 2.904090e-01 3.027440e-01 2.620529e-01 5.049930e-01
<GCONST> 1.051866e+02
<STATE> 4
<MEAN> 39
 -1.139837e+01 5.368186e-01 -1.676534e+00 -1.647764e+00 -5.225918e-01 6.017743e-02 2.555076e+00 -1.348525e+00 -7.493805e-01 -9.621052e-01 3.014096e+00 -4.107296e-01 6.431686e+01 3.026488e-01 6.635444e-02 1.755024e-01 1.011649e-01 1.923231e-02 -9.394173e-02 -1.231535e-01 -1.960588e-01 -2.551087e-01 -1.240839e-01 8.617751e-02 -9.009589e-03 3.213721e-01 1.058585e-01 -5.117280e-02 -1.482083e-02 -2.535326e-02 -7.622379e-02 -6.537756e-02 -3.587425e-02 -3.431010e-02 -3.100915e-02 5.899308e-03 -3.093851e-02 -2.539732e-03 1.431054e-01
<VARIANCE> 39
 7.423509e+01 3.432418e+01 2.552953e+01 2.478155e+01 2.764284e+01 4.489600e+01 2.818907e+01 2.852038e+01 6.438119e+01 4.282472e+01 3.767743e+01 1.295990e+01 1.095408e+02 4.403160e+00 3.404079e+00 2.181118e+00 1.709470e+00 2.141874e+00 2.931991e+00 2.480693e+00 2.315880e+00 3.784025e+00 1.746557e+00 1.673173e+00 1.319083e+00 5.032142e+00 4.826425e-01 5.395336e-01 3.189499e-01 2.672076e-01 3.441372e-01 4.716605e-01 4.440735e-01 3.705845e-01 4.946806e-01 3.275789e-01 3.010792e-01 2.400668e-01 6.386533e-01
<GCONST> 1.181715e+02
<TRANSP> 5
 0.000000e+00 1.000000e+00 0.000000e+00 0.000000e+00 0.000000e+00
 0.000000e+00 7.557197e-01 2.442803e-01 0.000000e+00 0.000000e+00
 0.000000e+00 0.000000e+00 1.015978e-01 8.984022e-01 0.000000e+00
 0.000000e+00 0.000000e+00 0.000000e+00 6.824366e-01 3.175634e-01
 0.000000e+00 0.000000e+00 0.000000e+00 0.000000e+00 0.000000e+00
<ENDHMM>
~h "b"
<BEGINHMM>
<NUMSTATES> 5
<STATE> 2
<MEAN> 39
 -1.479184e+00 -8.476478e+00 -5.888249e-01 -6.086833e+00 -4.209013e+00 -1.499153e+00 4.040146e+00 -8.217662e+00 -1.922992e+00 -1.072381e+01 -3.743230e+00 6.728857e+00 8.204495e+01 -9.577302e-02 2.090797e-01 5.829265e-02 3.562055e-01 1.837903e-01 1.711002e-02 -4.668151e-02 -7.969701e-02 -7.682595e-02 1.832228e-01 -4.263129e-02 -2.299385e-01 -2.895111e-01 -6.830634e-03 4.414171e-02 1.193375e-03 2.098820e-02 1.850551e-02 4.994350e-03 -1.618358e-02 2.248152e-02 -6.520090e-03 -2.013309e-02 -2.346100e-02 -1.536380e-02 -4.683991e-02
<VARIANCE> 39
 1.098312e+01 3.293337e+01 1.825932e+01 4.988971e+01 4.016567e+01 2.373650e+01 2.864973e+01 5.136832e+01 3.535496e+01 2.110722e+01 4.139507e+01 5.454470e+01 2.690006e+01 1.951804e-01 1.894446e+00 8.964164e-01 1.905218e+00 1.299062e+00 1.692665e+00 1.287884e+00 1.518136e+00 1.484129e+00 1.196330e+00 2.979602e+00 2.858600e+00 1.039452e+00 2.953150e-02 1.994502e-01 1.616785e-01 2.279378e-01 1.387909e-01 3.266445e-01 2.015539e-01 1.851969e-01 2.832759e-01 2.263179e-01 4.761291e-01 4.697201e-01 1.052498e-01
<GCONST> 9.860651e+01
<STATE> 3
<MEAN> 39
 -1.021376e+01 7.522858e+00 4.262348e+00 6.457066e+00 7.507198e+00 3.617548e+00 1.625377e+00 -3.077611e+00 7.143303e-01 -4.308147e+00 -9.416808e-01 -3.140692e+00 6.348795e+01 -8.257613e-01 -5.777991e-02 -3.545899e-01 -4.474903e-01 -3.006652e-01 1.116912e-01 5.257100e-01 5.115831e-01 3.033239e-01 4.839664e-01 1.152360e-01 -1.303399e-02 -1.017615e+00 -2.832256e-02 -2.443617e-01 -1.011361e-01 -1.768210e-01 -1.260606e-01 -6.390204e-02 -7.680821e-02 -1.050498e-01 -8.206233e-02 -5.290993e-02 3.866072e-02 2.987305e-02 7.897845e-02
<VARIANCE> 39
 2.198321e+01 9.156483e+00 1.017009e+01 1.165818e+01 1.050069e+01 1.266532e+01 1.872010e+01 2.599683e+01 3.496141e+01 1.398633e+01 1.408209e+01 1.402571e+01 1.800265e+01 3.538128e-01 1.614795e+00 1.025607e+00 1.014244e+00 8.924388e-01 1.004185e+00 1.093646e+00 1.006938e+00 1.214862e+00 7.119465e-01 9.319724e-01 8.993756e-01 6.181894e-01 4.693976e-02 1.158870e-01 1.082930e-01 1.231982e-01 1.029101e-01 1.752682e-01 1.859981e-01 1.774198e-01 2.299733e-01 1.316336e-01 1.968727e-01 1.635115e-01 4.939772e-02
<GCONST> 7.896883e+01
<STATE> 4
<MEAN> 39
 -1.990689e+01 1.539702e+00 -2.041048e+00 -6.408422e-01 1.315295e+00 2.305299e+00 3.247554e+00 3.026333e-01 3.760284e+00 -1.135910e+00 6.767237e-01 -1.733685e+00 5.374317e+01 -1.055564e-01 -1.411331e-01 -1.380359e-01 -1.412294e-01 -1.390458e-01 -3.361277e-02 -1.255446e-01 -4.977983e-02 -1.036830e-02 -2.668927e-02 8.986031e-04 1.108615e-01 -2.420208e-01 5.292410e-02 1.443502e-02 5.193350e-02 4.526335e-02 4.650034e-02 2.654103e-02 -4.873664e-03 -1.161922e-02 -8.948207e-03 -3.597907e-02 -4.274824e-03 -6.394812e-03 7.939392e-02
<VARIANCE> 39
 5.673056e+00 3.467282e+00 5.671479e+00 5.937473e+00 8.703125e+00 8.157647e+00 7.651485e+00 2.020014e+01 1.391991e+01 1.589020e+01 7.999568e+00 9.535631e+00 3.404358e+01 2.007775e-01 3.511345e-01 4.719658e-01 5.398982e-01 7.025534e-01 7.770025e-01 9.440326e-01 1.063870e+00 1.060401e+00 8.312159e-01 7.598832e-01 7.319309e-01 3.453808e-01 3.878142e-02 8.997656e-02 1.064948e-01 1.059296e-01 1.330719e-01 1.501848e-01 1.863900e-01 2.283409e-01 2.246505e-01 1.753756e-01 1.584426e-01 1.507560e-01 3.580956e-02
<GCONST> 6.683067e+01
<TRANSP> 5
 0.000000e+00 1.000000e+00 0.000000e+00 0.000000e+00 0.000000e+00
 0.000000e+00 9.303180e-01 6.968202e-02 0.000000e+00 0.000000e+00
 0.000000e+00 0.000000e+00 8.537249e-01 1.462751e-01 0.000000e+00
 0.000000e+00 0.000000e+00 0.000000e+00 9.258150e-01 7.418496e-02
 0.000000e+00 0.000000e+00 0.000000e+00 0.000000e+00 0.000000e+00
<ENDHMM>
~h "d"
<BEGINHMM>
<NUMSTATES> 5
<STATE> 2
<MEAN> 39
 -1.287297e+01 3.404903e+00 3.028626e+00 2.606252e+00 3.916794e+00 3.076664e+00 8.397728e-01 -2.357834e+00 1.174676e+00 -3.924855e+00 -2.477925e-01 -1.076310e+00 6.319547e+01 -1.233824e-01 8.866266e-01 7.899991e-01 1.869034e-01 2.407673e-01 4.359115e-01 1.366902e-01 -4.567840e-01 -2.930634e-02 1.075541e-01 -6.298644e-02 1.101107e-01 -2.800428e-01 9.917773e-02 -2.373131e-01 -1.340256e-01 -1.223522e-01 -1.968532e-01 -2.731427e-01 -2.071772e-01 -1.490464e-01 -1.083065e-01 -6.427743e-02 4.518913e-03 5.810311e-02 1.875157e-01
<VARIANCE> 39
 4.522663e+01 4.787061e+01 3.917115e+01 3.850113e+01 2.148057e+01 1.956355e+01 2.574105e+01 4.432512e+01 9.248079e+01 3.322386e+01 4.455965e+01 1.913890e+01 7.897060e+01 3.340258e+00 4.244829e+00 4.063046e+00 3.129169e+00 1.685170e+00 2.226173e+00 3.381652e+00 3.929260e+00 5.891148e+00 2.409210e+00 2.086537e+00 9.812672e-01 4.883767e+00 2.430419e-01 5.258848e-01 3.978509e-01 3.250681e-01 2.904803e-01 3.773367e-01 4.610305e-01 5.292007e-01 4.917080e-01 2.517391e-01 3.771888e-01 2.008902e-01 2.574182e-01
<GCONST> 1.192126e+02
<STATE> 3
<MEAN> 39
 -1.176407e+01 5.054499e+00 3.790926e+00 2.686913e+00 3.143821e+00 2.476804e+00 -1.152527e-02 -4.780274e+00 -9.732714e-01 -3.834559e+00 3.550287e-01 9.734625e-02 6.355561e+01 -2.984215e-01 -1.038282e-02 -1.293128e-01 -1.684902e-01 -2.177912e-01 -2.470471e-02 2.394153e-01 -9.750381e-02 1.398579e-01 1.026318e-01 -8.311554e-02 8.959473e-02 -2.999408e-01 8.583592e-02 -5.120755e-01 -2.215914e-01 -2.762174e-02 -5.298563e-02 -2.797714e-01 -1.550349e-01 7.119445e-02 -1.172226e-01 -7.729206e-02 1.376285e-02 -5.557305e-02 2.808966e-01
<VARIANCE> 39
 3.890745e+01 6.121649e+01 4.167482e+01 3.932191e+01 2.445605e+01 1.555906e+01 1.886756e+01 2.844255e+01 7.117595e+01 3.348948e+01 4.187566e+01 2.304530e+01 6.618881e+01 2.038706e+00 2.076162e+00 2.049911e+00 1.453300e+00 1.371750e+00 1.648423e+00 2.780206e+00 3.200829e+00 4.754449e+00 1.652502e+00 2.611525e+00 9.883070e-01 4.115182e+00 2.302263e-01 7.246422e-01 3.460389e-01 3.266411e-01 2.668110e-01 4.113304e-01 3.985124e-01 4.213828e-01 6.003121e-01 2.935148e-01 2.858752e-01 2.156736e-01 2.623256e-01
<GCONST> 1.140578e+02
<STATE> 4
<MEAN> 39
 -1.531552e+01 2.387072e+00 3.048392e+00 7.443468e-01 2.702829e+00 2.928920e+00 1.580610e+00 -4.166585e+00 1.607139e+00 -4.224756e+00 -9.033063e-02 -1.497392e+00 6.074114e+01 1.763037e-01 -5.118262e-01 1.717161e-02 2.311064e-01 1.420492e-01 -2.531188e-01 -2.823362e-01 -3.338979e-01 -3.829941e-01 -1.322452e-01 3.104368e-02 -9.400827e-02 4.533410e-01 1.732378e-01 -2.482673e-01 -1.674613e-02 1.032714e-01 1.341204e-01 -1.052761e-01 -2.486157e-01 -5.971995e-02 -2.111357e-01 -1.001031e-01 1.030534e-01 -1.242353e-02 2.391173e-01
<VARIANCE> 39
 6.132442e+01 7.632642e+01 4.858213e+01 4.638118e+01 2.077547e+01 1.787022e+01 2.288885e+01 2.838201e+01 3.681898e+01 2.430712e+01 1.979781e+01 1.634069e+01 1.205617e+02 1.664019e+00 3.544481e+00 1.823423e+00 1.735210e+00 1.623172e+00 1.521264e+00 2.206289e+00 1.999184e+00 2.828152e+00 1.353238e+00 2.091413e+00 1.187890e+00 3.621797e+00 1.938608e-01 5.802732e-01 2.700936e-01 3.204550e-01 2.915926e-01 2.922082e-01 4.200549e-01 4.428675e-01 5.679335e-01 2.822946e-01 3.022829e-01 1.956819e-01 3.245676e-01
<GCONST> 1.119037e+02
<TRANSP> 5
 0.000000e+00 1.000000e+00 0.000000e+00 0.000000e+00 0.000000e+00
 0.000000e+00 3.486577e-01 6.513423e-01 0.000000e+00 0.000000e+00
 0.000000e+00 0.000000e+00 2.464447e-01 7.535554e-01 0.000000e+00
 0.000000e+00 0.000000e+00 0.000000e+00 6.426292e-01 3.573708e-01
 0.000000e+00 0.000000e+00 0.000000e+00 0.000000e+00 0.000000e+00
<ENDHMM>
~h "e"
<BEGINHMM>
<NUMSTATES> 5
<STATE> 2
<MEAN> 39
 -6.103969e+00 -3.315077e+00 3.936605e+00 -3.793513e+00 2.342523e+00 7.815554e-01 -4.039804e+00 -3.488820e+00 2.470901e+00 -9.435614e+00 -3.227839e+00 -3.564461e+00 7.673795e+01 8.568472e-01 -6.795251e-01 -2.121797e-01 9.904648e-02 1.593685e-01 -6.592519e-01 -5.815921e-01 -4.866899e-01 -7.635265e-01 -1.416519e-01 3.462781e-01 3.043092e-01 1.301492e+00 -6.854063e-02 -1.280069e-01 -3.566894e-02 -1.036090e-01 -4.947918e-02 -1.223319e-01 -3.035359e-02 -1.817875e-02 -3.518302e-02 9.547804e-02 1.706763e-01 1.092164e-01 6.338284e-02
<VARIANCE> 39
 4.527139e+01 3.571630e+01 4.908568e+01 8.712296e+01 6.661726e+01 8.877253e+01 7.180843e+01 8.601430e+01 7.963060e+01 6.056809e+01 6.175997e+01 4.996547e+01 8.228114e+01 3.630935e+00 3.993814e+00 2.965959e+00 4.309274e+00 2.819921e+00 5.925970e+00 5.898759e+00 4.543098e+00 4.639346e+00 3.027282e+00 4.480679e+00 2.738413e+00 6.089799e+00 5.780503e-01 4.207064e-01 3.633324e-01 4.907082e-01 4.133191e-01 8.548448e-01 8.374645e-01 6.896051e-01 6.522737e-01 5.132816e-01 5.671915e-01 3.512773e-01 6.195125e-01
<GCONST> 1.361345e+02
<STATE> 3
<MEAN> 39
 -2.593608e+00 -1.013345e+01 1.048516e+00 -1.264441e+00 3.453439e+00 -4.119956e+00 -8.443289e+00 -1.159505e+01 -7.145796e+00 -7.772598e+00 5.766923e+00 2.561930e+00 8.287601e+01 3.878413e-02 -3.376210e-02 -1.627782e-01 2.714172e-01 3.009244e-01 -1.686443e-01 -2.738629e-01 -1.434977e-01 -2.080775e-01 4.073562e-01 4.956000e-01 -1.207827e-01 1.051503e-01 -2.596386e-01 4.237093e-01 1.526249e-01 1.298388e-01 -3.239278e-02 4.183986e-01 3.627360e-01 1.676489e-01 3.152382e-01 -2.795823e-03 -3.980024e-01 -3.027724e-01 -4.825447e-01
<VARIANCE> 39
 1.115334e+01 4.124517e+01 2.876920e+01 6.487790e+01 4.956796e+01 2.576747e+01 7.807208e+01 8.031482e+01 7.567377e+01 9.121351e+01 4.849814e+01 3.071293e+01 3.257409e+01 7.737244e-01 2.817512e+00 1.553959e+00 2.047714e+00 1.351709e+00 2.203218e+00 3.326212e+00 2.631662e+00 2.126497e+00 2.751319e+00 3.389557e+00 3.228854e+00 1.788380e+00 2.128037e-01 3.092910e-01 2.801238e-01 3.810320e-01 1.915333e-01 3.363395e-01 4.149391e-01 4.407747e-01 4.416383e-01 4.405547e-01 4.488636e-01 4.938016e-01 1.806038e-01
<GCONST> 1.165495e+02
<STATE> 4
<MEAN> 39
 -6.630176e+00 -8.054494e-01 8.640084e-01 4.906309e+00 5.338164e+00 -1.706911e+00 -4.813701e+00 -9.960606e+00 -8.479308e+00 -2.734446e+00 6.308326e+00 -9.129093e-01 7.176385e+01 -7.047141e-01 9.251445e-01 7.262224e-02 -6.394885e-02 -9.780775e-02 6.689464e-01 5.651370e-01 4.128115e-01 1.056564e+00 2.690164e-01 -7.046831e-01 -2.133668e-01 -1.334997e+00 -7.165693e-02 -8.041355e-02 3.325902e-02 -1.294491e-01 -6.937673e-02 7.006016e-03 -5.570467e-03 9.079385e-02 1.621546e-01 9.824725e-03 -9.216423e-02 -1.359697e-02 -2.115768e-03
<VARIANCE> 39
 3.121032e+01 4.105075e+01 2.576319e+01 5.203526e+01 2.956088e+01 4.395523e+01 4.465551e+01 5.627337e+01 9.282121e+01 3.768965e+01 6.028766e+01 2.531290e+01 4.491778e+01 1.434478e+00 2.640681e+00 1.749271e+00 2.223159e+00 1.516628e+00 2.536057e+00 2.814199e+00 3.214610e+00 4.226611e+00 1.962691e+00 3.404809e+00 1.808498e+00 2.233416e+00 1.521292e-01 3.729708e-01 2.994121e-01 3.705134e-01 2.625122e-01 4.005756e-01 4.095640e-01 5.049064e-01 5.544706e-01 3.578475e-01 5.097722e-01 3.270357e-01 2.298254e-01
<GCONST> 1.175285e+02
<TRANSP> 5
 0.000000e+00 1.000000e+00 0.000000e+00 0.000000e+00 0.000000e+00
 0.000000e+00 7.630091e-01 2.369909e-01 0.000000e+00 0.000000e+00
 0.000000e+00 0.000000e+00 7.367128e-01 2.632872e-01 0.000000e+00
 0.000000e+00 0.000000e+00 0.000000e+00 7.934913e-01 2.065087e-01
 0.000000e+00 0.000000e+00 0.000000e+00 0.000000e+00 0.000000e+00
<ENDHMM>
~h "f"
<BEGINHMM>
<NUMSTATES> 5
<STATE> 2
<MEAN> 39
 -4.586890e+00 -6.373231e+00 1.156060e+01 8.078952e+00 1.542212e+01 4.281284e+00 -1.669054e+01 -1.259864e+01 7.019417e+00 -1.021544e+01 -6.302140e+00 -5.562663e+00 7.732671e+01 8.702407e-02 1.526926e+00 -3.745869e-01 2.089186e-01 -9.956573e-01 1.915085e+00 9.589281e-01 -3.419459e-01 8.481933e-01 -7.093079e-02 -1.364393e+00 -1.019407e+00 -8.345252e-01 -1.442246e-01 -9.156941e-02 1.101970e-01 -1.349247e-01 -1.061920e-01 -1.210616e-01 1.807788e-01 7.856602e-02 1.350030e-01 4.991256e-02 -5.412558e-02 -7.256126e-02 3.358637e-02
<VARIANCE> 39
 2.874650e+00 4.332920e+01 2.178563e+01 4.333177e+01 2.482797e+01 1.117947e+02 1.707959e+01 2.939405e+01 1.681700e+02 9.672974e+00 6.806488e+01 3.027982e+01 1.385401e+01 2.477778e-01 2.381732e+00 2.277202e+00 7.714240e-01 8.763167e-01 4.359798e+00 2.534431e+00 8.357099e-01 3.351426e+00 1.620881e+00 3.043847e+00 2.975950e+00 8.718620e-01 2.201194e-02 4.014612e-01 3.764505e-01 3.098192e-01 2.045810e-01 8.493761e-01 5.878088e-01 4.285691e-01 7.355263e-01 2.534168e-01 6.373293e-01 7.502624e-01 2.276370e-01
<GCONST> 1.071351e+02
<STATE> 3
<MEAN> 39
 -8.353057e+00 -5.319478e+00 1.293732e+01 1.589276e+01 1.132612e+01 -2.601514e+00 -1.172445e+01 -1.081814e+01 -4.163438e+00 -8.531404e+00 -4.203882e+00 -9.281544e+00 7.567551e+01 -1.173815e-01 3.485140e-01 -3.354251e-01 -5.433539e-01 -5.103384e-01 4.384050e-01 8.289777e-01 5.141120e-01 5.245351e-01 2.154867e-01 -1.590998e-01 3.619967e-01 -3.263352e-01 1.554328e-02 1.318169e-02 -1.642528e-01 -2.094532e-01 -8.476359e-03 1.766758e-02 9.361549e-02 1.437954e-01 2.029291e-02 3.400788e-02 1.271614e-01 1.434405e-01 1.914946e-02
<VARIANCE> 39
 4.634829e+00 3.118810e+01 2.248639e+01 2.917791e+01 1.358028e+01 5.812321e+01 1.872276e+01 3.387054e+01 7.648611e+01 8.924101e+00 7.013898e+01 1.575598e+01 1.169218e+01 1.846988e-01 9.114046e-01 1.449246e+00 1.224343e+00 1.754944e+00 1.191207e+00 1.452591e+00 1.220625e+00 1.810053e+00 6.435215e-01 2.170122e+00 8.785775e-01 5.305225e-01 4.968071e-02 1.941185e-01 2.942010e-01 1.985758e-01 3.358566e-01 2.108265e-01 3.043803e-01 2.712274e-01 4.273920e-01 1.476420e-01 5.593042e-01 1.577009e-01 1.197127e-01
<GCONST> 9.258154e+01
<STATE> 4
<MEAN> 39
 -1.717031e+01 -6.200765e+00 6.384308e+00 -6.889881e+00 5.160567e+00 8.656857e+00 -3.091577e+00 -5.186730e+00 8.364353e+00 -7.052327e+00 -3.706673e+00 -1.429778e+00 7.714066e+01 -2.677355e-01 -5.460008e-02 -1.580958e-01 -1.074596e+00 -1.066301e+00 -9.107265e-01 2.862025e-01 3.981215e-01 -3.592666e-01 2.090186e-04 6.118870e-01 4.223760e-01 2.421052e-01 3.520728e-01 1.824039e-01 1.277079e-01 2.292256e-01 -1.603515e-01 -2.718185e-01 -1.418869e-01 -1.287773e-01 2.906736e-03 7.110479e-02 -1.521757e-01 -8.268116e-02 -4.112255e-03
<VARIANCE> 39
 7.354502e+01 2.944750e+01 2.305102e+01 7.419526e+01 3.069732e+01 5.270949e+01 4.351981e+01 3.428679e+01 1.026563e+02 1.948327e+01 3.006140e+01 1.681546e+01 1.885197e+01 9.966840e+00 3.869869e+00 2.324199e+00 2.878058e+00 2.341405e+00 3.402144e+00 2.516639e+00 3.909355e+00 1.262376e+00 2.068912e+00 2.572458e+00 1.544958e+00 1.070246e+00 8.965233e-01 6.064188e-01 4.979286e-01 3.642900e-01 4.363607e-01 5.682644e-01 3.361740e-01 6.006024e-01 2.672116e-01 3.801948e-01 5.194679e-01 2.490630e-01 2.139436e-01
<GCONST> 1.193996e+02
<TRANSP> 5
 0.000000e+00 1.000000e+00 0.000000e+00 0.000000e+00 0.000000e+00
 0.000000e+00 6.182059e-01 3.817941e-01 0.000000e+00 0.000000e+00
 0.000000e+00 0.000000e+00 8.725321e-01 1.274679e-01 0.000000e+00
 0.000000e+00 0.000000e+00 0.000000e+00 8.844489e-01 1.155511e-01
 0.000000e+00 0.000000e+00 0.000000e+00 0.000000e+00 0.000000e+00
<ENDHMM>
~h "g"
<BEGINHMM>
<NUMSTATES> 5
<STATE> 2
<MEAN> 39
 -4.780941e-01 -2.948503e+00 6.498539e+00 -8.578718e+00 -8.961382e+00 -7.618343e+00 -8.607749e+00 -1.074874e+00 8.357352e+00 -1.083362e+01 -8.936681e+00 -2.417898e-02 8.132807e+01 -4.664123e-02 -3.554777e-01 6.457819e-03 -6.251156e-03 -1.846600e-01 -2.387453e-02 3.532550e-01 1.536617e-01 6.683536e-02 7.455527e-02 3.488418e-04 3.337740e-01 2.313086e-01 -3.935770e-02 7.435734e-03 -1.734377e-02 4.565392e-02 5.810931e-02 1.338865e-01 7.038749e-02 -6.934314e-02 -1.085603e-02 -2.070562e-02 -4.507504e-02 1.182204e-02 -4.856813e-02
<VARIANCE> 39
 7.653888e+00 5.299206e+01 5.702816e+01 3.371733e+01 2.805504e+01 5.418999e+01 1.536824e+02 5.359178e+01 1.130101e+02 4.032269e+01 3.104543e+01 1.418386e+01 2.600900e+01 1.864010e-01 1.545843e+00 2.060614e+00 1.500664e+00 1.103468e+00 2.694019e+00 3.534359e+00 1.832173e+00 2.193114e+00 1.529432e+00 1.269880e+00 9.236079e-01 4.640267e-01 3.510900e-02 1.788681e-01 1.860667e-01 2.132023e-01 1.464208e-01 2.134476e-01 3.457304e-01 2.306513e-01 3.108175e-01 3.095664e-01 2.362892e-01 2.263502e-01 4.064419e-02
<GCONST> 1.000369e+02
<STATE> 3
<MEAN> 39
 -3.730814e+00 -1.272450e+00 5.299027e+00 -1.514705e+00 -2.019157e+00 3.781903e+00 -2.168476e+00 -5.760285e+00 1.141595e+01 -8.681899e+00 -1.263515e+01 -2.622609e-01 7.714964e+01 -2.977122e-01 4.249269e-01 2.609589e-01 8.955977e-01 7.521080e-01 4.421167e-01 -2.108662e-01 -4.823704e-01 2.072428e-01 1.374727e-01 -1.928591e-01 -5.051799e-01 -6.054093e-01 -2.934860e-02 -7.086614e-03 -6.018308e-02 -2.679736e-02 8.178706e-02 -7.286765e-02 5.670762e-02 1.020743e-01 -1.900805e-01 1.044447e-02 1.870624e-01 -2.198420e-02 -3.399302e-02
<VARIANCE> 39
 9.117476e+00 1.082788e+01 9.841735e+00 3.427778e+01 2.511735e+01 3.472295e+01 1.810677e+01 1.874347e+01 4.267341e+01 1.998672e+01 4.722187e+01 2.137885e+01 2.030257e+01 1.630681e-01 8.479623e-01 5.294822e-01 1.372314e+00 5.551907e-01 1.243367e+00 1.048328e+00 1.726754e+00 1.116217e+00 1.125379e+00 1.405293e+00 8.459942e-01 4.133763e-01 3.242806e-02 1.323819e-01 7.513809e-02 2.029471e-01 1.216369e-01 1.945424e-01 1.216765e-01 2.216848e-01 2.045099e-01 2.288841e-01 2.941809e-01 1.590321e-01 7.806685e-02
<GCONST> 8.314321e+01
<STATE> 4
<MEAN> 39
 -6.530299e+00 -1.261394e-01 2.748633e+00 6.164218e+00 6.085692e+00 8.628345e-02 -3.002110e+00 -8.988591e+00 -9.662165e+00 -4.725684e+00 3.176387e+00 -1.976712e+00 7.227374e+01 -1.862413e-02 -2.034872e-01 -2.373497e-01 -1.085275e-02 2.756068e-01 6.934097e-02 3.235651e-01 9.080164e-02 -7.187200e-01 4.068242e-02 4.288733e-01 1.109108e-01 8.414772e-02 -1.184699e-01 2.905742e-02 -4.990730e-02 -1.278124e-01 -1.229839e-01 3.948697e-02 1.458474e-01 1.612272e-01 1.830033e-01 8.018276e-02 -2.965848e-02 1.409258e-01 -1.461095e-01
<VARIANCE> 39
 2.564478e+01 3.788913e+01 2.898707e+01 5.996101e+01 2.351131e+01 5.896762e+01 5.859212e+01 3.761533e+01 1.728256e+02 2.378079e+01 8.905349e+01 1.504075e+01 5.529893e+01 2.362441e+00 3.730216e+00 2.548194e+00 3.795774e+00 2.411310e+00 4.072832e+00 4.798266e+00 3.487820e+00 6.630630e+00 2.440760e+00 3.188282e+00 1.404143e+00 4.037996e+00 2.093993e-01 6.657801e-01 5.309740e-01 6.779131e-01 3.483294e-01 6.958014e-01 7.597173e-01 5.588652e-01 8.458642e-01 4.193462e-01 4.285959e-01 2.673335e-01 4.620465e-01
<GCONST> 1.264682e+02
<TRANSP> 5
 0.000000e+00 1.000000e+00 0.000000e+00 0.000000e+00 0.000000e+00
 0.000000e+00 9.137897e-01 8.621030e-02 0.000000e+00 0.000000e+00
 0.000000e+00 0.000000e+00 8.550210e-01 1.449790e-01 0.000000e+00
 0.000000e+00 0.000000e+00 0.000000e+00 7.961518e-01 2.038482e-01
 0.000000e+00 0.000000e+00 0.000000e+00 0.000000e+00 0.000000e+00
<ENDHMM>
~h "i"
<BEGINHMM>
<NUMSTATES> 5
<STATE> 2
<MEAN> 39
 -5.084634e+00 -7.798569e+00 2.859564e+00 -5.797993e+00 -5.307620e+00 -1.267642e+00 -4.053273e+00 -1.957945e+00 6.012613e+00 -1.102719e+01 -8.932524e-01 9.045385e-01 7.762399e+01 1.005101e-01 4.803166e-02 -1.131745e-01 -4.593313e-02 -4.671337e-02 -6.105588e-02 6.773776e-02 8.297016e-02 -6.694907e-02 5.571518e-03 2.372094e-02 -5.445700e-02 1.168743e-01 -1.156098e-01 1.436971e-01 7.442028e-03 5.861735e-02 6.440853e-02 8.873717e-02 4.200996e-02 3.648725e-02 5.373812e-02 3.958070e-02 3.273857e-03 -2.545702e-02 -2.232747e-01
<VARIANCE> 39
 4.260463e+01 6.698455e+01 4.010593e+01 6.602350e+01 8.904960e+01 4.357578e+01 1.107253e+02 7.758755e+01 1.036810e+02 9.802595e+01 3.135818e+01 3.199438e+01 1.051842e+02 2.598277e+00 3.572517e+00 1.800663e+00 2.186600e+00 3.192956e+00 2.709799e+00 4.369892e+00 2.431329e+00 2.793623e+00 2.779779e+00 1.848531e+00 1.532538e+00 6.138662e+00 3.327342e-01 4.548961e-01 2.857279e-01 2.875886e-01 4.567366e-01 4.937917e-01 6.222469e-01 4.051244e-01 4.269660e-01 3.960778e-01 3.107657e-01 2.469574e-01 5.288222e-01
<GCONST> 1.264200e+02
<STATE> 3
<MEAN> 39
 -5.751303e+00 5.854559e-02 4.128167e+00 6.153997e+00 5.921152e+00 -2.203101e+00 -6.536503e+00 -6.875301e+00 -7.423446e+00 -5.052972e+00 3.753275e+00 -2.353033e+00 7.268116e+01 -3.966596e-01 4.305910e-01 -2.341648e-01 -1.857861e-01 -1.927489e-01 3.300459e-01 6.319050e-01 3.860382e-01 4.950379e-01 3.025114e-01 -3.070046e-02 8.428792e-02 -6.793461e-01 -9.564306e-02 -2.503127e-02 -1.112472e-02 -1.201062e-01 -5.022512e-02 3.924011e-02 1.135511e-01 1.021421e-01 1.225510e-01 6.071523e-02 1.363641e-03 5.628926e-02 -5.951393e-02
<VARIANCE> 39
 2.740135e+01 5.386387e+01 3.751449e+01 7.075806e+01 4.428253e+01 5.742464e+01 5.148582e+01 5.061826e+01 1.025997e+02 4.733790e+01 7.128899e+01 3.215282e+01 5.013837e+01 1.253660e+00 2.106475e+00 2.346556e+00 2.935820e+00 1.903416e+00 2.030060e+00 2.872263e+00 2.359081e+00 3.860135e+00 1.942917e+00 2.610792e+00 1.700170e+00 1.690821e+00 1.136037e-01 3.027676e-01 2.785425e-01 3.242837e-01 2.591490e-01 3.393248e-01 4.201267e-01 3.414060e-01 5.036712e-01 2.810008e-01 3.862228e-01 2.578455e-01 1.354111e-01
<GCONST> 1.164931e+02
<STATE> 4
<MEAN> 39
 -1.653251e+01 1.431505e+00 1.521783e-01 5.208707e-01 1.995633e+00 2.639473e+00 2.258693e+00 -2.233958e+00 3.312633e+00 -2.133139e+00 7.565393e-01 -1.674063e+00 5.800943e+01 -4.501765e-01 -2.881505e-03 -2.924688e-01 -2.965664e-01 -1.356022e-01 -3.493553e-02 2.069298e-01 2.324484e-01 9.394357e-02 2.959516e-01 2.081198e-01 4.686610e-02 -6.705031e-01 1.045925e-01 -1.253085e-01 7.128450e-02 5.281502e-02 1.059144e-02 -9.693484e-02 -1.419962e-01 -1.208336e-01 -1.174048e-01 -8.416799e-02 -5.819275e-03 -5.978263e-02 2.051788e-01
<VARIANCE> 39
 3.219529e+01 2.513254e+01 1.916426e+01 1.871135e+01 1.807464e+01 2.063317e+01 1.856428e+01 3.714029e+01 3.344300e+01 2.684736e+01 1.725167e+01 1.351155e+01 7.932882e+01 5.851886e-01 1.405768e+00 1.282093e+00 1.253281e+00 1.206289e+00 1.161944e+00 1.603115e+00 1.546615e+00 1.546340e+00 1.157055e+00 1.127555e+00 1.012709e+00 8.942199e-01 1.022401e-01 2.719873e-01 1.723902e-01 2.023160e-01 2.131871e-01 2.569360e-01 3.188863e-01 3.083704e-01 3.709668e-01 2.406538e-01 2.447790e-01 1.651575e-01 1.666348e-01
<GCONST> 9.588662e+01
<TRANSP> 5
 0.000000e+00 1.000000e+00 0.000000e+00 0.000000e+00 0.000000e+00
 0.000000e+00 7.812656e-01 2.187344e-01 0.000000e+00 0.000000e+00
 0.000000e+00 0.000000e+00 8.106503e-01 1.893497e-01 0.000000e+00
 0.000000e+00 0.000000e+00 0.000000e+00 7.240338e-01 2.759663e-01
 0.000000e+00 0.000000e+00 0.000000e+00 0.000000e+00 0.000000e+00
<ENDHMM>
~h "j"
<BEGINHMM>
<NUMSTATES> 5
<STATE> 2
<MEAN> 39
 -7.203478e+00 2.751484e+00 -3.231820e+00 -5.937568e+00 -5.470936e+00 -3.687988e+00 1.123035e+00 -2.127599e+00 2.091216e+00 -1.563443e+00 1.388591e+00 -1.870719e+00 6.684169e+01 -1.041651e+00 4.087906e-01 6.476649e-02 5.122009e-01 6.484737e-01 5.642055e-01 1.691625e-01 -8.752465e-02 -4.210848e-02 2.497901e-01 5.307097e-01 1.353304e-01 -1.570050e+00 1.928586e-02 -1.748269e-01 1.419834e-01 3.577771e-02 3.217178e-02 -3.018084e-02 -2.888339e-02 -1.053037e-01 -4.718679e-02 9.549458e-03 -1.314940e-01 -8.220390e-03 1.887632e-01
<VARIANCE> 39
 4.769095e+01 1.196434e+01 1.169629e+01 2.094252e+01 2.475341e+01 2.400815e+01 1.681901e+01 2.403884e+01 9.678693e+01 2.492240e+01 3.660504e+01 9.276834e+00 8.721560e+01 6.095843e-01 1.063980e+00 7.105590e-01 6.890276e-01 7.926139e-01 1.094216e+00 1.826114e+00 1.455446e+00 1.454767e+00 1.716744e+00 1.127055e+00 9.158946e-01 1.299725e+00 8.872785e-02 2.294350e-01 1.012278e-01 1.562261e-01 1.572855e-01 2.234409e-01 3.550507e-01 1.927861e-01 2.746030e-01 3.061558e-01 2.658414e-01 1.634949e-01 2.394034e-01
<GCONST> 9.378336e+01
<STATE> 3
<MEAN> 39
 -1.479969e+01 1.440369e+00 -8.519521e-01 -1.661669e+00 -6.505390e-01 1.567709e+00 1.814034e+00 -4.442618e+00 2.192255e+00 -7.136744e-01 1.239863e+00 -1.619165e+00 5.867237e+01 7.775553e-01 -1.516100e+00 1.053501e+00 -3.769420e-01 -8.381366e-01 1.951006e-02 -7.058378e-01 -8.456202e-01 -4.423361e-01 -8.985149e-01 -1.347991e+00 1.575432e-01 3.051949e+00 9.241198e-01 -4.377950e-01 1.798415e-01 -5.825832e-01 -6.575622e-01 -5.817180e-01 -2.285879e-01 7.546467e-02 -4.690424e-02 -4.114383e-01 -5.418579e-01 7.307252e-02 1.564158e+00
<VARIANCE> 39
 3.721087e+01 1.557453e+01 1.113720e+01 1.641856e+01 1.286575e+01 1.735625e+01 1.708794e+01 3.166243e+01 4.936054e+01 2.152048e+01 2.450370e+01 1.058740e+01 8.642033e+01 3.982484e+00 3.682567e+00 2.332082e+00 3.959571e+00 3.694467e+00 3.154561e+00 6.171328e+00 2.322734e+00 3.731953e+00 2.122435e+00 2.800717e+00 1.344748e+00 1.369245e+01 4.437456e-01 4.361210e-01 2.758698e-01 4.302803e-01 5.904580e-01 5.899265e-01 1.030138e+00 6.932859e-01 7.358301e-01 3.705528e-01 5.166395e-01 3.227667e-01 1.183492e+00
<GCONST> 1.198882e+02
<STATE> 4
<MEAN> 39
 -2.736775e+00 -8.345511e+00 2.266019e+00 -1.042081e+01 -7.394400e+00 -2.448240e+00 2.146089e+00 -7.458161e+00 1.912147e-01 -3.669697e+00 -6.311861e+00 1.782037e+00 8.170773e+01 6.571402e-01 -7.745123e-02 3.259619e-01 -2.084647e-02 -2.772236e-02 -2.755496e-01 -2.387329e-01 1.606006e-01 4.091323e-01 -3.927084e-01 -2.642241e-01 2.426501e-01 8.409886e-01 -3.178637e-01 2.712929e-01 -7.988340e-02 2.688619e-01 2.529230e-01 1.431240e-01 4.533941e-02 5.678812e-02 7.482430e-02 8.578736e-02 1.458642e-01 -8.580698e-02 -6.304511e-01
<VARIANCE> 39
 2.087194e+01 5.448111e+01 1.855530e+01 3.388579e+01 3.745469e+01 4.486005e+01 7.642844e+01 6.376317e+01 7.731040e+01 8.712839e+01 3.486027e+01 2.193904e+01 3.398709e+01 4.006310e+00 4.419065e+00 1.786208e+00 3.796324e+00 3.896853e+00 3.454611e+00 4.156663e+00 3.261300e+00 2.982741e+00 4.278111e+00 3.318053e+00 1.657719e+00 9.573028e+00 3.249483e-01 4.244508e-01 3.448824e-01 4.475336e-01 4.022710e-01 5.795355e-01 8.293756e-01 4.561853e-01 5.150876e-01 6.805519e-01 5.000289e-01 2.584794e-01 6.262521e-01
<GCONST> 1.267210e+02
<TRANSP> 5
 0.000000e+00 1.000000e+00 0.000000e+00 0.000000e+00 0.000000e+00
 0.000000e+00 8.373113e-01 1.626887e-01 0.000000e+00 0.000000e+00
 0.000000e+00 0.000000e+00 5.639311e-01 4.360689e-01 0.000000e+00
 0.000000e+00 0.000000e+00 0.000000e+00 8.529286e-01 1.470714e-01
 0.000000e+00 0.000000e+00 0.000000e+00 0.000000e+00 0.000000e+00
<ENDHMM>
~h "k"
<BEGINHMM>
<NUMSTATES> 5
<STATE> 2
<MEAN> 39
 -1.542594e+01 -3.611876e+00 -3.733107e-01 -3.369866e+00 -5.249828e-01 1.670954e+00 2.459763e+00 -5.628604e+00 -2.522096e+00 -4.222005e+00 1.775189e+00 -1.251313e+00 6.655836e+01 1.079679e+00 -7.273466e-01 7.583243e-02 -8.944333e-01 -8.048821e-01 -4.050454e-01 2.952688e-01 -3.189819e-01 -1.041183e+00 -3.425837e-01 3.432426e-01 3.227241e-01 1.990116e+00 3.705952e-01 6.832195e-02 1.453253e-02 1.275386e-01 -3.989932e-02 -1.422737e-01 -1.021287e-01 -6.219805e-02 5.203774e-02 1.491458e-01 -8.514890e-02 -3.165667e-02 1.472760e-01
<VARIANCE> 39
 3.147148e+01 4.689976e+01 3.330309e+01 5.923933e+01 4.373241e+01 3.303670e+01 5.090957e+01 4.474908e+01 6.846507e+01 4.358631e+01 3.046938e+01 2.291985e+01 1.223380e+02 4.195042e+00 4.718965e+00 4.160408e+00 6.603967e+00 4.303680e+00 3.809701e+00 4.822991e+00 4.050240e+00 5.783865e+00 4.136968e+00 3.034702e+00 2.181464e+00 8.729627e+00 4.008703e-01 1.033070e+00 9.210971e-01 1.423434e+00 8.843075e-01 6.479298e-01 8.808296e-01 7.111782e-01 1.061376e+00 8.730474e-01 5.466983e-01 4.214312e-01 1.757064e+00
<GCONST> 1.376089e+02
<STATE> 3
<MEAN> 39
 -1.295412e+00 -5.985047e+00 -2.834549e+00 -7.989967e+00 -6.198287e+00 -2.378923e+00 4.632618e+00 -8.601023e+00 -5.939201e+00 9.574673e-01 1.176203e+00 6.785215e-01 7.978503e+01 2.455561e-01 6.052783e-01 -8.119486e-02 1.096125e-01 -1.806405e-01 -2.066897e-02 6.613383e-02 3.086446e-01 7.235433e-01 2.470409e-01 -3.910451e-01 -2.806864e-01 -3.114938e-01 -4.112946e-01 2.011119e-01 1.092689e-01 1.573957e-01 1.590283e-01 1.110997e-01 -1.040856e-01 9.957922e-02 1.820554e-01 -1.769275e-01 -1.376540e-02 -2.636098e-02 -3.823212e-01
<VARIANCE> 39
 2.002714e+01 3.063611e+01 1.716926e+01 2.996159e+01 2.548039e+01 2.757810e+01 5.517450e+01 6.170956e+01 7.713203e+01 5.351246e+01 8.188426e+01 2.629408e+01 5.140749e+01 2.016738e+00 2.204232e+00 1.211107e+00 2.001957e+00 1.567526e+00 1.558960e+00 1.908131e+00 1.799082e+00 1.959656e+00 2.655428e+00 1.772874e+00 1.152869e+00 1.741718e+00 2.349272e-01 2.588796e-01 2.148935e-01 2.899997e-01 2.514705e-01 2.590148e-01 3.018516e-01 3.095510e-01 3.810810e-01 3.306291e-01 3.194938e-01 2.274550e-01 1.399357e-01
<GCONST> 1.090538e+02
<STATE> 4
<MEAN> 39
 -9.707743e+00 2.461351e+00 4.153013e-01 -1.361966e+00 1.001035e-01 3.097020e+00 2.076565e+00 -3.817864e+00 2.736045e+00 -1.284623e+00 1.119855e-01 -9.515508e-01 6.687132e+01 -1.227308e+00 5.353848e-01 2.286786e-01 7.324630e-01 6.071012e-01 2.530452e-01 -2.238640e-01 4.611289e-01 1.196092e+00 1.323274e-01 -3.702073e-01 3.967967e-02 -1.605944e+00 -2.449878e-03 -4.211748e-01 -1.624239e-01 -1.903191e-01 -1.495918e-01 -1.242326e-01 8.410510e-02 -3.812747e-02 -2.479006e-01 1.079392e-01 2.088380e-01 1.297234e-01 1.912888e-01
<VARIANCE> 39
 4.283889e+01 1.947052e+01 1.592045e+01 2.539768e+01 4.591637e+01 5.874953e+01 2.202553e+01 3.206332e+01 6.775574e+01 3.649910e+01 3.698621e+01 1.764525e+01 6.733927e+01 2.737735e+00 2.192467e+00 1.823489e+00 2.238910e+00 1.935514e+00 2.641017e+00 3.034961e+00 2.540257e+00 3.337414e+00 1.892998e+00 2.228821e+00 1.935010e+00 2.125690e+00 1.849655e-01 3.052426e-01 2.128766e-01 2.477211e-01 2.643837e-01 3.669441e-01 3.762288e-01 3.416555e-01 4.044954e-01 2.962173e-01 3.118740e-01 2.578139e-01 2.266360e-01
<GCONST> 1.119737e+02
<TRANSP> 5
 0.000000e+00 1.000000e+00 0.000000e+00 0.000000e+00 0.000000e+00
 0.000000e+00 8.285726e-01 1.714275e-01 0.000000e+00 0.000000e+00
 0.000000e+00 0.000000e+00 8.361166e-01 1.638834e-01 0.000000e+00
 0.000000e+00 0.000000e+00 0.000000e+00 6.377190e-01 3.622810e-01
 0.000000e+00 0.000000e+00 0.000000e+00 0.000000e+00 0.000000e+00
<ENDHMM>
~h "l"
<BEGINHMM>
<NUMSTATES> 5
<STATE> 2
<MEAN> 39
 -9.536097e+00 -3.968461e+00 1.014297e+01 4.306565e+00 5.792296e+00 3.458317e+00 -3.881231e+00 -6.663359e+00 3.416224e+00 -8.513047e+00 -2.357135e+00 -2.360919e+00 7.345364e+01 4.317867e-01 -1.032333e+00 4.402170e-01 -1.953489e-01 2.278453e-01 -1.718212e-01 -9.097732e-01 -2.128478e-01 -8.604965e-02 -6.187400e-01 -5.601853e-01 -8.197831e-02 1.312843e+00 6.609858e-02 1.299571e-01 -5.435099e-02 -7.991651e-02 3.990258e-02 -8.763756e-02 -7.911947e-02 -1.798654e-03 -2.074322e-02 -1.176862e-02 3.127826e-02 4.107892e-02 -7.191979e-02
<VARIANCE> 39
 4.293439e+01 1.031031e+02 7.797498e+01 5.874599e+01 6.577033e+01 3.759224e+01 8.853999e+01 3.415465e+01 7.173698e+01 5.765269e+01 4.780061e+01 2.751329e+01 8.563683e+01 3.358829e+00 8.479672e+00 3.888457e+00 3.377703e+00 5.171606e+00 3.222743e+00 7.515302e+00 3.342876e+00 3.273694e+00 4.356872e+00 3.746704e+00 2.719566e+00 5.380089e+00 4.210756e-01 1.451756e+00 5.719818e-01 5.945172e-01 8.670716e-01 5.765784e-01 1.172720e+00 6.403543e-01 5.242931e-01 8.028744e-01 5.656088e-01 4.848321e-01 8.049569e-01
<GCONST> 1.379856e+02
<STATE> 3
<MEAN> 39
 -3.423088e+00 -5.824645e+00 5.403052e+00 1.401004e+00 5.325554e+00 1.249401e+00 -7.384520e+00 -1.122388e+01 2.143655e+00 -7.873220e+00 -5.199050e+00 -3.301057e+00 7.946561e+01 1.193206e-01 6.804623e-02 -2.955749e-01 -3.767130e-01 -4.216311e-01 -2.027900e-01 7.245111e-02 2.882666e-01 -3.534587e-02 -5.025935e-02 2.390930e-01 2.704425e-01 3.560672e-02 -3.100547e-02 -5.277961e-03 -1.057728e-02 2.360820e-03 -5.432189e-02 -3.639891e-02 5.182290e-02 3.322484e-02 -8.875985e-03 4.935676e-02 7.294681e-02 4.097173e-02 -2.461793e-02
<VARIANCE> 39
 9.960122e+00 4.955064e+01 4.835667e+01 7.141797e+01 7.236298e+01 7.516637e+01 8.808838e+01 5.396110e+01 9.645568e+01 6.135342e+01 6.492996e+01 6.201031e+01 2.518390e+01 3.605107e-01 2.450210e+00 2.022130e+00 2.586842e+00 1.961061e+00 4.431361e+00 2.849549e+00 2.802511e+00 2.682876e+00 2.249235e+00 4.369911e+00 3.051415e+00 1.174718e+00 4.588874e-02 3.114088e-01 2.901255e-01 3.089325e-01 2.873474e-01 5.798239e-01 4.456516e-01 3.889991e-01 4.436160e-01 3.564279e-01 6.872996e-01 4.425783e-01 1.597924e-01
<GCONST> 1.185526e+02
<STATE> 4
<MEAN> 39
 -2.139501e+00 -4.811810e+00 2.549080e+00 -5.319875e+00 -6.051450e+00 -3.551073e+00 -2.932859e-01 -2.712434e+00 2.633548e-01 -9.792439e+00 -3.541892e+00 1.494881e+00 8.025830e+01 -1.114813e-01 1.986031e-01 -4.468396e-02 -1.433882e-02 -7.668634e-02 5.162686e-02 2.220230e-01 -8.139707e-02 1.655934e-02 6.761432e-02 2.202012e-02 -4.088892e-02 -2.566422e-01 -5.550221e-02 1.973665e-02 2.272259e-03 3.604451e-02 1.143891e-01 1.030894e-01 -3.643923e-02 -5.604834e-02 9.932269e-03 2.014834e-02 1.277678e-02 -1.165919e-02 -6.751951e-02
<VARIANCE> 39
 8.711020e+00 5.487731e+01 2.316611e+01 3.534906e+01 5.109820e+01 4.746032e+01 1.009716e+02 4.764418e+01 8.910139e+01 6.612400e+01 7.535815e+01 3.812855e+01 3.491141e+01 3.472199e-01 1.192955e+00 8.275840e-01 1.217777e+00 2.238054e+00 1.618004e+00 1.866601e+00 1.430164e+00 1.395648e+00 1.598576e+00 2.059504e+00 1.955207e+00 8.792464e-01 2.978878e-02 1.568766e-01 1.208569e-01 1.695760e-01 2.125817e-01 2.460715e-01 2.685686e-01 2.147121e-01 2.340617e-01 2.531063e-01 3.256713e-01 2.820853e-01 6.693415e-02
<GCONST> 1.015115e+02
<TRANSP> 5
 0.000000e+00 1.000000e+00 0.000000e+00 0.000000e+00 0.000000e+00
 0.000000e+00 7.823877e-01 2.176122e-01 0.000000e+00 0.000000e+00
 0.000000e+00 0.000000e+00 9.030387e-01 9.696136e-02 0.000000e+00
 0.000000e+00 0.000000e+00 0.000000e+00 9.217426e-01 7.825748e-02
 0.000000e+00 0.000000e+00 0.000000e+00 0.000000e+00 0.000000e+00
<ENDHMM>
~h "m"
<BEGINHMM>
<NUMSTATES> 5
<STATE> 2
<MEAN> 39
 -8.125324e+00 3.341161e+00 -2.412801e-01 7.832545e-01 2.011873e+00 2.101176e+00 1.328028e+00 -1.086148e+00 -1.122006e+00 -4.660545e-01 4.745806e+00 -6.799382e-02 6.718216e+01 -7.893954e-01 6.796983e-02 -7.501567e-02 6.396624e-02 2.185546e-01 4.150719e-01 4.641311e-01 3.687996e-01 4.119878e-01 3.484546e-01 -3.945757e-02 1.171427e-01 -8.465983e-01 -3.173802e-02 -5.307165e-02 -1.274245e-02 -4.699094e-02 -6.087574e-02 -7.934620e-02 -8.004121e-02 -6.321643e-02 -2.370764e-02 -2.014409e-02 -2.027771e-02 -1.018762e-02 8.070993e-03
<VARIANCE> 39
 3.984198e+01 1.936025e+01 1.947430e+01 3.125049e+01 3.488279e+01 4.278677e+01 3.391716e+01 1.896761e+01 7.794872e+01 3.166767e+01 6.003736e+01 1.521571e+01 5.922012e+01 4.619076e-01 9.147575e-01 8.886773e-01 8.483967e-01 9.397938e-01 1.199098e+00 1.089581e+00 1.260121e+00 1.621725e+00 7.451873e-01 9.961880e-01 6.796700e-01 4.227208e-01 4.474553e-02 1.414192e-01 1.492271e-01 1.371574e-01 1.605387e-01 1.885433e-01 1.712989e-01 2.069930e-01 2.251542e-01 1.470993e-01 1.542511e-01 1.339914e-01 3.776342e-02
<GCONST> 8.910023e+01
<STATE> 3
<MEAN> 39
 -1.997205e+01 1.654771e+00 -1.876205e+00 -5.623958e-01 1.449253e+00 3.111604e+00 3.690298e+00 2.157850e-01 4.207775e+00 -5.160444e-01 1.234355e+00 -1.305798e+00 5.321127e+01 -1.053517e-01 -3.828702e-02 -1.015550e-01 -6.955668e-02 -8.841451e-02 -1.312794e-01 -8.023886e-02 -1.240397e-02 -3.618227e-02 3.474637e-03 1.246613e-03 -1.777778e-02 -1.604212e-01 3.532694e-02 1.056688e-02 2.214526e-02 1.883115e-02 2.483803e-02 2.472664e-02 2.570460e-03 -7.813703e-03 -7.623688e-03 -9.034500e-03 5.528129e-03 1.326709e-02 3.723491e-02
<VARIANCE> 39
 5.883136e+00 3.318992e+00 7.091268e+00 6.057495e+00 9.442082e+00 9.081039e+00 9.166142e+00 2.406058e+01 1.459934e+01 1.653446e+01 7.944849e+00 8.838322e+00 4.704343e+01 1.538838e-01 2.175203e-01 4.189049e-01 5.526344e-01 6.208988e-01 7.485641e-01 7.738690e-01 9.044127e-01 1.000777e+00 9.286376e-01 7.500814e-01 6.812541e-01 1.801309e-01 2.250100e-02 4.121797e-02 7.226722e-02 9.668247e-02 1.063442e-01 1.385332e-01 1.549431e-01 1.823473e-01 2.103062e-01 2.029440e-01 1.508075e-01 1.384971e-01 1.229874e-02
<GCONST> 6.225180e+01
<STATE> 4
<MEAN> 39
 -1.735032e+01 1.823893e+00 -1.912433e+00 -2.020757e+00 5.279120e-01 2.480781e+00 2.747762e+00 5.964801e-01 3.405271e+00 -4.127980e-01 4.972483e-01 -1.016345e+00 5.803532e+01 -2.817670e-01 -1.254000e-01 4.913229e-02 1.480159e-02 4.169384e-02 -3.695267e-02 -2.738559e-01 -2.568540e-01 -2.185509e-01 -7.611065e-02 -2.421138e-02 -9.873476e-03 -2.016246e-01 2.073340e-01 -2.394391e-02 3.558570e-01 2.480640e-01 1.076617e-01 2.503872e-02 -2.649355e-02 -1.834945e-01 -1.836049e-01 -8.236678e-02 -1.213205e-01 -1.524142e-01 3.903218e-01
<VARIANCE> 39
 2.281243e+01 8.452029e+00 1.127323e+01 1.487748e+01 1.608037e+01 1.518077e+01 1.146948e+01 2.708922e+01 2.115579e+01 1.882569e+01 1.445542e+01 1.213878e+01 5.993064e+01 5.267243e-01 4.657968e-01 8.128420e-01 1.130563e+00 1.250151e+00 1.141122e+00 8.800970e-01 1.168055e+00 1.241739e+00 1.304241e+00 9.811205e-01 9.197121e-01 8.432747e-01 1.512008e-01 1.830108e-01 1.922368e-01 2.928198e-01 2.156685e-01 2.695459e-01 2.995313e-01 2.424533e-01 3.404443e-01 2.799237e-01 2.032446e-01 2.114354e-01 3.069040e-01
<GCONST> 8.903644e+01
<TRANSP> 5
 0.000000e+00 1.000000e+00 0.000000e+00 0.000000e+00 0.000000e+00
 0.000000e+00 7.969585e-01 2.030415e-01 0.000000e+00 0.000000e+00
 0.000000e+00 0.000000e+00 9.106408e-01 8.935916e-02 0.000000e+00
 0.000000e+00 0.000000e+00 0.000000e+00 4.227699e-01 5.772301e-01
 0.000000e+00 0.000000e+00 0.000000e+00 0.000000e+00 0.000000e+00
<ENDHMM>
~h "n"
<BEGINHMM>
<NUMSTATES> 5
<STATE> 2
<MEAN> 39
 -1.093252e+01 1.213297e+00 7.295835e+00 4.035888e+00 3.817381e+00 1.669535e+00 -1.628209e+00 -5.058267e+00 -1.069995e+00 -5.081247e+00 -4.661578e-01 -1.906079e+00 6.852122e+01 6.881835e-01 -7.149944e-01 7.396570e-01 6.446064e-01 3.173671e-01 -4.672141e-01 -7.943516e-01 -5.997852e-01 -3.867446e-01 -3.258176e-01 -7.488959e-02 -1.655888e-01 1.500055e+00 -1.120850e-02 -4.462234e-02 -1.369245e-01 1.094436e-02 2.861744e-02 -9.621518e-02 -9.250669e-02 7.258270e-02 -1.676292e-02 1.847492e-02 7.200108e-02 3.007723e-02 -1.383610e-01
<VARIANCE> 39
 4.849468e+01 8.792313e+01 5.753712e+01 7.116557e+01 4.466729e+01 3.471445e+01 4.975903e+01 3.182077e+01 7.418384e+01 4.149994e+01 4.361596e+01 1.645127e+01 6.791343e+01 4.128005e+00 8.441079e+00 3.991919e+00 4.483131e+00 3.883580e+00 3.444878e+00 5.054651e+00 3.262204e+00 5.180965e+00 3.153977e+00 3.311223e+00 1.779869e+00 6.755367e+00 4.633716e-01 1.298693e+00 7.711358e-01 6.518615e-01 7.088811e-01 5.415310e-01 7.541344e-01 5.485578e-01 7.369609e-01 5.736268e-01 4.899031e-01 3.032686e-01 7.552747e-01
<GCONST> 1.341182e+02
<STATE> 3
<MEAN> 39
 -7.095134e+00 -5.584428e+00 1.164519e+01 9.711709e+00 9.210992e+00 -1.583027e+00 -1.011981e+01 -9.076792e+00 -2.672683e+00 -9.000633e+00 -9.424834e-01 -4.112318e+00 7.619504e+01 6.447546e-01 3.086536e-01 -7.560407e-01 -4.793583e-01 2.381857e-01 -9.346006e-02 -4.514421e-01 -2.281401e-01 -3.686044e-01 -1.502472e-01 3.310863e-01 1.686646e-01 1.257508e-01 -1.076247e-01 2.013029e-01 -2.535171e-01 -3.458176e-01 -2.887464e-01 2.180687e-01 4.474266e-01 1.773263e-01 4.428894e-02 1.618515e-01 2.488959e-02 1.714977e-01 -2.147997e-01
<VARIANCE> 39
 1.870349e+01 6.845853e+01 7.587860e+01 7.863595e+01 4.700129e+01 5.811337e+01 6.105816e+01 4.989091e+01 7.385043e+01 3.377937e+01 6.837125e+01 2.354668e+01 5.755286e+01 1.014040e+00 1.457451e+00 2.720114e+00 2.313182e+00 1.770117e+00 2.527757e+00 2.554206e+00 2.098220e+00 2.088100e+00 1.842407e+00 2.061750e+00 1.883323e+00 9.533474e-01 1.504511e-01 3.846424e-01 3.700485e-01 3.198951e-01 2.734585e-01 4.550064e-01 4.234766e-01 4.807889e-01 4.196158e-01 2.977036e-01 5.119611e-01 2.810293e-01 1.858883e-01
<GCONST> 1.164216e+02
<STATE> 4
<MEAN> 39
 -4.932930e+00 2.626489e+00 3.114727e+00 2.914101e+00 3.388980e+00 -1.103114e+00 -4.876814e+00 -5.890310e+00 -5.116192e+00 -2.684837e+00 3.288453e+00 -6.416586e-01 7.222063e+01 -1.739770e-01 1.850228e-01 -2.312579e-01 -1.920904e-01 -2.529594e-01 2.065447e-01 5.572272e-01 3.236969e-01 3.603427e-01 2.189666e-01 -1.318914e-01 1.475242e-01 -3.130591e-01 -7.553411e-02 -6.821239e-02 3.255202e-02 4.603303e-02 1.659028e-02 -2.046306e-02 2.711683e-02 3.095686e-02 5.388401e-02 1.580968e-02 -6.346371e-03 -3.011706e-02 -2.633853e-02
<VARIANCE> 39
 1.710175e+01 5.847819e+01 2.507654e+01 4.518367e+01 3.086678e+01 4.491951e+01 4.414240e+01 3.201297e+01 8.918420e+01 6.295505e+01 7.477056e+01 3.715735e+01 4.821466e+01 6.764090e-01 1.805856e+00 1.411168e+00 1.938673e+00 1.470067e+00 1.793075e+00 2.184656e+00 1.892556e+00 3.156474e+00 1.432484e+00 3.155553e+00 1.689663e+00 1.011390e+00 5.637925e-02 2.465623e-01 2.050166e-01 2.764767e-01 2.037911e-01 2.797264e-01 3.268453e-01 2.788787e-01 5.318683e-01 2.524086e-01 4.765036e-01 2.901973e-01 9.681139e-02
<GCONST> 1.086057e+02
<TRANSP> 5
 0.000000e+00 1.000000e+00 0.000000e+00 0.000000e+00 0.000000e+00
 0.000000e+00 7.923175e-01 2.076825e-01 0.000000e+00 0.000000e+00
 0.000000e+00 0.000000e+00 6.737977e-01 3.262024e-01 0.000000e+00
 0.000000e+00 0.000000e+00 0.000000e+00 8.586733e-01 1.413267e-01
 0.000000e+00 0.000000e+00 0.000000e+00 0.000000e+00 0.000000e+00
<ENDHMM>
~h "o"
<BEGINHMM>
<NUMSTATES> 5
<STATE> 2
<MEAN> 39
 -2.408555e+00 -2.853588e+00 5.388414e+00 -6.353843e+00 -2.019389e+00 -1.234686e-02 -9.302403e+00 -4.210301e+00 7.962250e+00 -1.241429e+01 -8.377255e+00 6.812841e-01 7.894793e+01 6.555890e-01 -3.399271e-01 1.379219e-01 2.449707e-01 1.553952e-01 -3.304672e-01 -6.981862e-01 -1.707221e-01 -6.523181e-02 -3.566681e-01 -7.974434e-02 6.418123e-02 6.099646e-01 -1.767015e-01 6.055684e-02 -2.232632e-02 -6.190605e-03 3.468298e-02 5.781129e-02 9.448963e-02 5.896498e-02 1.263555e-02 5.413135e-02 8.268692e-02 -1.991436e-02 -1.900732e-01
<VARIANCE> 39
 2.271972e+01 5.790350e+01 4.892948e+01 1.121427e+02 1.111946e+02 7.309218e+01 8.749706e+01 4.649174e+01 1.600020e+02 4.824478e+01 6.902700e+01 3.502789e+01 3.240366e+01 2.903089e+00 5.299516e+00 2.830418e+00 3.549720e+00 3.998620e+00 3.988431e+00 6.160519e+00 2.174911e+00 4.312793e+00 3.158704e+00 3.494208e+00 2.344793e+00 3.415422e+00 3.687230e-01 8.659160e-01 4.060222e-01 4.813712e-01 5.539973e-01 7.133573e-01 8.914245e-01 3.502597e-01 5.827395e-01 5.302643e-01 5.157694e-01 4.070884e-01 4.446320e-01
<GCONST> 1.329399e+02
<STATE> 3
<MEAN> 39
 -4.619387e-01 4.327912e-01 1.213397e+00 -3.800040e+00 -4.773065e+00 -8.179325e+00 -5.781207e+00 -4.245058e+00 -2.561254e+00 -8.638349e+00 -2.054753e+00 4.703397e-01 7.775058e+01 -3.092057e-01 4.909934e-01 4.026899e-01 3.073215e-01 1.466013e-01 2.172801e-01 1.492056e-01 -4.873822e-02 1.939730e-02 1.037394e-01 1.150999e-01 -7.285181e-02 -4.258900e-01 -2.085559e-01 7.848962e-02 9.731195e-02 9.386235e-02 1.675989e-01 2.885162e-01 1.842225e-01 -8.113055e-03 5.708516e-02 8.594538e-02 -1.162874e-02 -3.615021e-02 -1.913918e-01
<VARIANCE> 39
 4.441106e+00 4.721088e+01 5.531462e+01 4.319727e+01 7.222726e+01 3.753458e+01 7.722205e+01 2.614237e+01 1.844067e+02 4.533266e+01 5.255930e+01 2.777804e+01 2.062265e+01 3.321290e-01 1.266546e+00 9.652154e-01 1.096074e+00 1.785628e+00 2.711971e+00 1.414679e+00 1.211316e+00 1.677264e+00 1.517767e+00 1.086224e+00 1.186547e+00 7.662962e-01 7.581009e-02 2.244533e-01 2.046085e-01 1.929965e-01 2.326949e-01 3.050646e-01 2.661346e-01 2.098352e-01 3.595753e-01 2.710381e-01 2.298144e-01 1.977385e-01 1.098183e-01
<GCONST> 1.014247e+02
<STATE> 4
<MEAN> 39
 -9.246636e+00 8.219498e-01 8.794181e+00 5.315135e+00 3.999482e+00 5.410889e-01 -6.031963e+00 -5.114061e+00 5.657245e+00 -5.657681e+00 -3.484181e+00 -3.980745e+00 6.991246e+01 -9.451224e-01 1.498514e-01 -4.016270e-01 2.237943e-01 3.281457e-01 7.500361e-01 1.010776e+00 3.350194e-01 2.178279e-01 5.597342e-01 8.162344e-02 -1.125850e-03 -1.201006e+00 -3.541379e-02 -6.261190e-02 -1.062587e-01 -1.408603e-01 -1.140659e-01 -6.466848e-02 3.184703e-02 4.721814e-02 -2.034195e-02 -1.955270e-02 5.529976e-02 5.022351e-02 -3.189991e-02
<VARIANCE> 39
 1.868957e+01 6.586761e+01 6.081992e+01 7.932531e+01 6.624406e+01 3.402209e+01 6.806915e+01 3.018505e+01 1.079707e+02 4.993499e+01 5.113980e+01 2.987227e+01 5.805379e+01 4.889670e-01 1.515075e+00 1.230151e+00 1.297693e+00 1.624060e+00 1.706124e+00 2.126338e+00 1.480058e+00 2.426814e+00 1.433184e+00 1.491623e+00 1.308623e+00 4.835330e-01 7.115696e-02 1.913064e-01 1.912336e-01 1.701894e-01 2.097952e-01 2.909184e-01 3.369753e-01 2.737435e-01 3.182410e-01 2.247859e-01 2.300489e-01 1.882495e-01 4.143094e-02
<GCONST> 1.042678e+02
<TRANSP> 5
 0.000000e+00 1.000000e+00 0.000000e+00 0.000000e+00 0.000000e+00
 0.000000e+00 8.815050e-01 1.184951e-01 0.000000e+00 0.000000e+00
 0.000000e+00 0.000000e+00 8.634201e-01 1.365799e-01 0.000000e+00
 0.000000e+00 0.000000e+00 0.000000e+00 8.504784e-01 1.495217e-01
 0.000000e+00 0.000000e+00 0.000000e+00 0.000000e+00 0.000000e+00
<ENDHMM>
~h "p"
<BEGINHMM>
<NUMSTATES> 5
<STATE> 2
<MEAN> 39
 -1.996453e+01 1.770941e+00 -1.794703e+00 -7.473865e-01 1.336724e+00 2.637122e+00 3.241527e+00 -8.387160e-01 4.276831e+00 -1.616470e+00 9.729948e-01 -1.986416e+00 5.100196e+01 -8.843582e-02 -1.612686e-02 -3.805498e-02 -6.016668e-03 -1.931584e-02 -4.791181e-02 -3.389698e-02 -1.316544e-02 -5.135081e-02 -2.628608e-02 -3.710019e-02 -7.347658e-02 -1.408386e-01 2.060766e-02 -2.226420e-03 2.351835e-02 3.108998e-03 9.961114e-04 2.110519e-02 1.565620e-02 -1.092358e-03 -1.227064e-05 7.047938e-03 1.441172e-02 2.792405e-02 3.109760e-02
<VARIANCE> 39
 5.596726e+00 3.160767e+00 5.089103e+00 5.055683e+00 8.401133e+00 8.434610e+00 8.860346e+00 2.475211e+01 1.189076e+01 1.864430e+01 8.756584e+00 9.320525e+00 4.511907e+01 1.444439e-01 2.898642e-01 3.413348e-01 4.321861e-01 5.983886e-01 7.295751e-01 7.499816e-01 8.073771e-01 8.892953e-01 8.203046e-01 9.222410e-01 7.469820e-01 2.425445e-01 2.205283e-02 6.250741e-02 6.947310e-02 8.726861e-02 1.193845e-01 1.472275e-01 1.517777e-01 1.591670e-01 1.739886e-01 1.635080e-01 1.742274e-01 1.466389e-01 2.028585e-02
<GCONST> 6.195819e+01
<STATE> 3
<MEAN> 39
 -1.656495e+01 2.533136e+00 -2.820305e+00 -2.530642e+00 -1.662971e+00 -3.736670e-01 1.311414e+00 -1.440384e+00 2.017533e+00 -1.524406e+00 -3.088278e-01 -1.293096e+00 5.590384e+01 -5.279964e-01 -7.097024e-02 -5.761093e-02 3.561531e-02 2.559050e-01 2.348546e-01 -5.571973e-02 -1.624249e-02 -4.684480e-02 2.293679e-01 3.930581e-01 2.426583e-01 -7.371020e-01 3.227372e-02 -1.466427e-01 8.491407e-02 3.808528e-02 3.506617e-02 1.479282e-01 1.632569e-01 1.124798e-02 -8.977640e-03 4.975198e-02 5.162149e-02 3.077788e-02 2.490178e-01
<VARIANCE> 39
 3.308423e+01 4.983995e+00 5.551651e+00 9.617585e+00 1.420198e+01 1.712216e+01 1.243055e+01 2.258056e+01 2.756621e+01 1.386925e+01 1.060820e+01 8.781664e+00 5.890290e+01 4.528453e-01 2.822258e-01 4.496448e-01 5.762740e-01 7.103812e-01 7.829364e-01 9.259866e-01 9.837697e-01 1.102482e+00 1.054959e+00 8.599433e-01 8.734421e-01 1.010363e+00 4.712020e-02 1.210334e-01 7.857647e-02 1.156658e-01 1.710780e-01 1.540811e-01 1.888112e-01 2.220746e-01 2.458072e-01 1.550072e-01 2.021107e-01 1.608544e-01 1.031123e-01
<GCONST> 7.659441e+01
<STATE> 4
<MEAN> 39
 -1.783405e+01 2.214471e+00 -2.510731e+00 -2.103200e+00 -6.880962e-01 8.228668e-01 2.436822e+00 -3.541340e-01 2.489503e+00 -5.284865e-01 1.021352e+00 -6.718783e-01 5.559276e+01 -1.760025e-01 -2.933666e-01 1.267515e-01 1.057311e-01 1.991733e-01 4.042042e-01 2.464736e-01 -2.243769e-01 -3.258438e-01 1.375942e-01 3.419021e-01 1.801026e-01 2.302443e-02 3.059159e-01 -2.405393e-01 1.153088e-01 -1.091528e-01 -1.283850e-01 4.399796e-03 7.434072e-02 -2.408921e-01 -2.919696e-01 -1.321770e-01 -7.574067e-02 -2.166057e-02 7.142065e-01
<VARIANCE> 39
 2.197590e+01 4.688107e+00 5.401399e+00 8.365717e+00 1.226844e+01 1.306313e+01 1.283080e+01 2.494947e+01 2.067573e+01 1.409955e+01 1.105004e+01 1.056956e+01 4.206916e+01 1.108793e+00 7.235395e-01 6.149393e-01 9.227237e-01 1.212651e+00 8.872240e-01 8.242966e-01 1.261620e+00 1.789153e+00 9.139801e-01 8.956126e-01 8.004274e-01 1.220454e+00 1.781356e-01 2.271915e-01 1.736220e-01 2.425469e-01 3.524727e-01 2.348479e-01 3.039878e-01 3.238643e-01 4.524650e-01 2.375200e-01 2.683908e-01 2.159408e-01 5.107351e-01
<GCONST> 8.789193e+01
<TRANSP> 5
 0.000000e+00 1.000000e+00 0.000000e+00 0.000000e+00 0.000000e+00
 0.000000e+00 9.081207e-01 9.187933e-02 0.000000e+00 0.000000e+00
 0.000000e+00 0.000000e+00 1.828109e-01 8.171891e-01 0.000000e+00
 0.000000e+00 0.000000e+00 0.000000e+00 3.138639e-01 6.861361e-01
 0.000000e+00 0.000000e+00 0.000000e+00 0.000000e+00 0.000000e+00
<ENDHMM>
~h "r"
<BEGINHMM>
<NUMSTATES> 5
<STATE> 2
<MEAN> 39
 -9.948670e+00 -3.072356e+00 -1.142612e+00 -4.676436e+00 -3.656912e+00 3.801010e-01 3.771751e+00 -4.692412e+00 -2.611252e+00 -3.923108e+00 6.987422e-01 6.620303e-01 7.017382e+01 2.230690e+00 -9.376611e-01 -1.853516e-02 -9.146053e-01 -1.067047e+00 -5.651073e-01 1.202270e-01 -4.670624e-01 -8.765187e-01 -5.423599e-02 -2.567113e-01 3.264105e-01 3.209241e+00 1.034283e-01 1.736497e-01 -5.250373e-02 -6.024482e-02 4.031945e-02 -1.281831e-01 -1.583844e-01 1.408486e-01 2.976067e-01 6.104781e-02 -2.026338e-01 -7.958392e-02 -1.172638e-01
<VARIANCE> 39
 4.602689e+01 4.625164e+01 2.621812e+01 3.705910e+01 5.288148e+01 2.720035e+01 4.358304e+01 3.408672e+01 7.895021e+01 4.890966e+01 4.164743e+01 1.886065e+01 9.780892e+01 4.145794e+00 4.640139e+00 2.324815e+00 3.675064e+00 4.221893e+00 3.398296e+00 4.083361e+00 3.730070e+00 4.718264e+00 4.679796e+00 3.304830e+00 2.283652e+00 8.918775e+00 8.443022e-01 7.644718e-01 4.166301e-01 6.122658e-01 7.560084e-01 5.619249e-01 5.516102e-01 5.312917e-01 6.604624e-01 6.857885e-01 4.014179e-01 3.201281e-01 1.643161e+00
<GCONST> 1.318609e+02
<STATE> 3
<MEAN> 39
 -1.714278e+00 -3.139386e+00 -2.023073e+00 -7.401675e+00 -5.817091e+00 -3.438211e+00 2.907134e+00 -5.177999e+00 -2.253111e+00 -3.261186e+00 -2.269475e+00 1.202096e+00 7.849213e+01 -1.999806e-01 6.921216e-01 7.437820e-02 1.986722e-01 3.620592e-01 1.496998e-01 -3.543230e-01 7.996149e-02 3.610403e-01 -2.921412e-01 -1.562661e-01 -1.686423e-01 -5.845866e-01 -3.244548e-01 8.338530e-02 9.390604e-02 1.382872e-01 1.224237e-01 1.507269e-01 7.755561e-03 3.881137e-02 8.773363e-02 5.106250e-03 5.943621e-02 -3.844585e-03 -3.271112e-01
<VARIANCE> 39
 1.095368e+01 4.701141e+01 2.421910e+01 4.483051e+01 4.622066e+01 3.944258e+01 5.727164e+01 4.723859e+01 1.007233e+02 7.006123e+01 6.946729e+01 3.916022e+01 3.237346e+01 1.260799e+00 2.002369e+00 1.399761e+00 1.717748e+00 1.639464e+00 2.492288e+00 2.225527e+00 1.764067e+00 2.184971e+00 2.194720e+00 1.967821e+00 1.330619e+00 1.949463e+00 2.468589e-01 3.207292e-01 2.320355e-01 2.634502e-01 2.805809e-01 4.784527e-01 4.140924e-01 3.004699e-01 3.869511e-01 4.160611e-01 3.718489e-01 2.842999e-01 2.531941e-01
<GCONST> 1.134765e+02
<STATE> 4
<MEAN> 39
 -1.181240e+01 2.771358e+00 -1.319117e+00 -1.359599e+00 1.435998e+00 1.672750e+00 1.962453e+00 -3.027576e+00 -7.037565e-01 -2.996539e+00 6.979819e-01 4.309188e-01 6.407687e+01 -7.156858e-01 -2.908385e-01 1.237480e-01 6.935810e-02 1.921197e-01 1.400322e-01 -8.526764e-02 1.088492e-01 1.879491e-01 1.639154e-01 4.049773e-02 -1.651163e-02 -5.451414e-01 2.535726e-01 -2.081033e-01 -3.821173e-02 -5.308976e-02 -1.453868e-01 -2.133251e-01 -1.084253e-01 -7.807597e-02 -1.348437e-01 -2.712427e-02 -6.848920e-03 1.687632e-02 3.657736e-01
<VARIANCE> 39
 4.177426e+01 2.243902e+01 1.693291e+01 2.145755e+01 2.976602e+01 2.400467e+01 1.594655e+01 3.236746e+01 6.799514e+01 3.455193e+01 2.445180e+01 1.481777e+01 4.992968e+01 3.456499e+00 2.199868e+00 1.578149e+00 1.496871e+00 1.424438e+00 2.157749e+00 1.988790e+00 2.507640e+00 4.035094e+00 1.840985e+00 1.573056e+00 1.503033e+00 3.497674e+00 4.451072e-01 3.801742e-01 2.777778e-01 2.469614e-01 2.290544e-01 3.467141e-01 3.624639e-01 4.007683e-01 4.794035e-01 3.845355e-01 3.309684e-01 2.610976e-01 3.470823e-01
<GCONST> 1.104186e+02
<TRANSP> 5
 0.000000e+00 1.000000e+00 0.000000e+00 0.000000e+00 0.000000e+00
 0.000000e+00 7.076109e-01 2.923890e-01 0.000000e+00 0.000000e+00
 0.000000e+00 0.000000e+00 8.495642e-01 1.504358e-01 0.000000e+00
 0.000000e+00 0.000000e+00 0.000000e+00 8.064306e-01 1.935695e-01
 0.000000e+00 0.000000e+00 0.000000e+00 0.000000e+00 0.000000e+00
<ENDHMM>
~h "s"
<BEGINHMM>
<NUMSTATES> 5
<STATE> 2
<MEAN> 39
 -1.537057e+01 -1.431535e+00 1.304954e+00 -5.432828e-01 5.371763e-01 2.632126e+00 1.194912e+00 -4.933005e+00 -1.204597e-01 -4.163659e+00 7.084098e-01 -3.278977e-02 6.114788e+01 -7.320735e-01 -1.431707e+00 1.467500e+00 -1.338031e-01 -1.861748e-01 5.089053e-01 -1.085119e-01 -5.141962e-01 1.178265e-01 9.040149e-02 3.928558e-01 -3.526412e-01 1.178840e+00 -2.861371e-01 -4.515452e-01 4.656847e-01 -2.817097e-01 -1.385267e-01 5.941452e-02 -5.505821e-02 -8.501161e-02 -2.327428e-02 1.028915e-02 8.103713e-02 -1.196218e-01 4.217204e-01
<VARIANCE> 39
 4.872283e+01 3.597416e+01 3.567507e+01 1.947927e+01 2.311356e+01 2.401209e+01 2.469615e+01 3.364946e+01 7.679777e+01 3.352819e+01 2.117387e+01 1.839323e+01 1.321417e+02 3.703815e+00 4.364477e+00 4.048196e+00 1.898002e+00 2.225540e+00 2.508707e+00 3.211056e+00 2.864323e+00 3.174372e+00 2.315999e+00 2.282344e+00 1.250187e+00 4.391114e+00 4.488164e-01 6.418032e-01 5.069751e-01 3.706101e-01 3.687134e-01 4.160199e-01 4.864775e-01 4.824431e-01 4.869325e-01 3.557877e-01 3.331186e-01 2.065036e-01 5.075063e-01
<GCONST> 1.193687e+02
<STATE> 3
<MEAN> 39
 -2.686442e+01 -1.643987e+01 1.726364e+01 -6.671035e+00 -3.192847e+00 5.457716e+00 3.348951e+00 -8.215729e+00 -1.239656e+00 -1.691364e+00 5.297333e+00 -3.903695e+00 7.817982e+01 -8.886188e-01 -9.323754e-01 5.965981e-01 -5.517398e-01 -5.690435e-02 1.188886e-02 -3.354047e-02 -1.332394e-01 2.555294e-01 1.820560e-01 2.419013e-01 -3.338593e-01 6.461886e-01 5.123692e-01 3.610484e-01 -4.350523e-01 3.101746e-01 1.926274e-01 -6.581935e-02 -1.701806e-01 -4.230651e-02 -5.988440e-02 -9.974872e-02 -1.615789e-01 6.838453e-02 -2.532754e-01
<VARIANCE> 39
 3.309412e+01 3.367017e+01 2.777839e+01 2.967167e+01 3.557967e+01 1.930444e+01 3.511808e+01 3.991646e+01 4.241204e+01 3.607618e+01 2.219581e+01 1.987811e+01 4.521248e+01 3.806412e+00 1.960841e+00 4.043104e+00 2.546033e+00 1.902249e+00 1.333180e+00 1.996351e+00 1.766875e+00 1.603895e+00 1.613719e+00 1.482306e+00 1.298273e+00 2.145404e+00 2.940184e-01 3.401340e-01 4.089051e-01 3.650751e-01 2.978753e-01 3.013913e-01 3.670744e-01 3.655391e-01 2.696342e-01 2.768224e-01 2.685801e-01 2.073004e-01 1.100397e-01
<GCONST> 1.090072e+02
<STATE> 4
<MEAN> 39
 -1.496782e+01 -1.348243e+01 1.482222e+01 2.480716e+00 6.226810e+00 3.885487e+00 -7.910401e+00 -1.061681e+01 -8.109689e-02 -7.153423e+00 1.445269e+00 -3.899723e+00 7.878069e+01 1.743571e+00 8.329098e-01 -5.811363e-01 1.046659e+00 7.279923e-01 -3.660581e-01 -9.330487e-01 -4.647673e-01 -6.775759e-01 -5.800017e-01 -2.599050e-01 1.852998e-01 1.581785e-01 7.403344e-04 1.128685e-01 -9.473656e-02 -1.322378e-01 -1.316615e-01 -1.052579e-01 1.390731e-01 7.322391e-02 -6.696326e-02 3.191281e-02 1.776820e-02 5.425517e-02 9.518225e-03
<VARIANCE> 39
 9.753541e+01 6.198165e+01 3.379367e+01 7.429977e+01 5.042369e+01 4.216014e+01 8.081613e+01 4.530532e+01 6.362611e+01 7.231191e+01 4.714969e+01 2.874710e+01 3.683511e+01 8.384305e+00 5.257946e+00 2.804470e+00 7.300865e+00 3.819759e+00 2.919964e+00 5.065196e+00 2.837172e+00 4.011353e+00 3.625780e+00 3.376391e+00 1.602933e+00 1.214285e+00 9.954542e-01 8.408422e-01 3.409666e-01 9.301734e-01 5.122189e-01 4.885490e-01 7.834123e-01 4.891282e-01 7.181301e-01 5.869427e-01 5.489621e-01 2.801367e-01 1.648740e-01
<GCONST> 1.315653e+02
<TRANSP> 5
 0.000000e+00 1.000000e+00 0.000000e+00 0.000000e+00 0.000000e+00
 0.000000e+00 7.726489e-01 2.273511e-01 0.000000e+00 0.000000e+00
 0.000000e+00 0.000000e+00 8.720081e-01 1.279918e-01 0.000000e+00
 0.000000e+00 0.000000e+00 0.000000e+00 8.713361e-01 1.286639e-01
 0.000000e+00 0.000000e+00 0.000000e+00 0.000000e+00 0.000000e+00
<ENDHMM>
~h "t"
<BEGINHMM>
<NUMSTATES> 5
<STATE> 2
<MEAN> 39
 -1.417332e+01 -5.609806e+00 4.942663e+00 -1.511499e-01 1.857855e+00 1.256709e+00 -3.057199e+00 -7.334891e+00 -5.110345e-01 -4.028705e+00 1.772263e+00 -1.672261e+00 7.065431e+01 1.522255e+00 -5.432721e-01 1.158499e-01 -2.995856e-02 -2.969596e-01 -5.719993e-01 -6.061637e-01 -5.267696e-01 -5.829874e-01 -5.532800e-01 -3.488379e-01 1.714800e-01 1.931647e+00 1.269599e-01 1.341512e-01 -7.686687e-02 -1.168785e-01 -1.687453e-02 -6.372648e-02 7.582679e-02 1.709812e-01 7.724125e-02 2.470277e-02 -5.003486e-02 9.717214e-02 -4.427702e-02
<VARIANCE> 39
 7.153506e+01 9.723262e+01 5.035887e+01 6.180625e+01 6.189553e+01 4.093248e+01 5.020509e+01 4.351868e+01 8.588988e+01 4.518328e+01 5.063567e+01 1.968403e+01 7.422630e+01 7.263235e+00 7.071862e+00 5.211520e+00 6.349878e+00 4.823319e+00 3.297772e+00 5.047752e+00 5.158319e+00 5.918378e+00 3.835469e+00 3.475500e+00 1.699813e+00 9.259087e+00 1.102667e+00 1.100708e+00 8.882550e-01 1.005794e+00 9.823831e-01 6.512969e-01 8.088258e-01 9.946088e-01 9.593714e-01 5.831265e-01 5.675207e-01 2.644278e-01 1.412973e+00
<GCONST> 1.414435e+02
<STATE> 3
<MEAN> 39
 -5.102697e+00 -1.244000e+01 2.533656e+00 -8.392178e+00 -4.351875e+00 -3.637738e+00 4.721163e+00 -1.277922e+01 -5.250897e+00 -2.787191e+00 -4.434619e-01 3.541298e+00 8.323945e+01 1.291139e-01 7.805366e-02 1.457267e-02 4.605471e-02 4.523112e-02 4.153823e-02 -9.119573e-03 -3.686562e-03 -1.051332e-01 -2.750726e-01 1.918718e-02 1.616569e-01 -3.829242e-02 -2.159250e-01 9.389588e-02 -4.893991e-03 2.741331e-02 5.104100e-02 1.273441e-01 -4.100205e-02 8.337957e-02 8.424136e-02 -2.611769e-02 4.001469e-02 -6.321720e-02 -2.161817e-01
<VARIANCE> 39
 8.958267e+01 4.420872e+01 7.286099e+01 4.993353e+01 2.076056e+01 2.198997e+01 5.287015e+01 3.024595e+01 4.556824e+01 5.992112e+01 5.288961e+01 1.520503e+01 1.073158e+01 4.059109e+00 3.023357e+00 2.490477e+00 2.617251e+00 1.248045e+00 1.933272e+00 2.478317e+00 1.993860e+00 1.781377e+00 2.668734e+00 1.927085e+00 1.078323e+00 1.183289e+00 5.503607e-01 4.615560e-01 2.956415e-01 4.349135e-01 2.421352e-01 3.747378e-01 4.157481e-01 2.956654e-01 3.722238e-01 4.548513e-01 2.726167e-01 1.854371e-01 2.856075e-01
<GCONST> 1.140243e+02
<STATE> 4
<MEAN> 39
 -7.294873e+00 -9.356458e+00 2.321146e+00 -7.503074e+00 -4.040058e+00 1.117821e+00 -3.751669e+00 -1.391019e+00 3.228068e+00 -1.179227e+01 4.708808e-01 2.997843e+00 8.038435e+01 -3.588028e-01 2.310181e-01 -1.089770e-01 1.339325e-01 2.672894e-01 3.079106e-01 1.466549e-01 3.675452e-02 8.013482e-02 8.153515e-02 3.450043e-02 2.213451e-02 -4.905267e-01 -4.283692e-02 -2.346763e-02 -3.150189e-02 -1.368045e-02 3.337098e-02 -2.931417e-02 4.537593e-03 -4.870936e-02 7.351697e-03 6.303635e-02 2.944748e-02 -2.924488e-02 -5.193381e-02
<VARIANCE> 39
 7.082197e+01 8.718034e+01 3.351294e+01 6.796426e+01 4.662160e+01 3.852923e+01 5.441571e+01 4.871573e+01 5.759684e+01 4.973096e+01 3.341523e+01 3.815680e+01 6.999376e+01 1.888208e+00 3.002810e+00 1.974885e+00 1.821287e+00 2.495773e+00 1.681919e+00 2.943566e+00 2.617643e+00 2.285182e+00 2.140124e+00 1.620392e+00 1.056649e+00 2.316172e+00 2.327744e-01 3.514017e-01 3.429226e-01 2.924271e-01 3.679260e-01 2.971964e-01 4.952986e-01 4.419491e-01 4.271584e-01 4.204833e-01 3.072795e-01 2.330442e-01 1.656921e-01
<GCONST> 1.176415e+02
<TRANSP> 5
 0.000000e+00 1.000000e+00 0.000000e+00 0.000000e+00 0.000000e+00
 0.000000e+00 8.817100e-01 1.182900e-01 0.000000e+00 0.000000e+00
 0.000000e+00 0.000000e+00 8.935298e-01 1.064702e-01 0.000000e+00
 0.000000e+00 0.000000e+00 0.000000e+00 8.945850e-01 1.054150e-01
 0.000000e+00 0.000000e+00 0.000000e+00 0.000000e+00 0.000000e+00
<ENDHMM>
~h "u"
<BEGINHMM>
<NUMSTATES> 5
<STATE> 2
<MEAN> 39
 -8.361873e+00 2.148176e+00 6.104362e+00 4.806237e+00 5.373571e+00 4.187932e+00 -5.864962e-01 -6.336585e+00 -4.396956e+00 -7.591857e+00 -7.437778e-01 -1.383327e+00 7.011168e+01 7.329146e-01 -5.710948e-01 -6.007541e-02 1.269565e-01 5.192868e-02 -4.578035e-01 -5.392518e-01 -1.216383e-01 -2.732186e-01 -1.515250e-01 -2.564605e-01 -1.178829e-02 1.144200e+00 7.361765e-02 -3.568054e-01 -4.462257e-02 -2.840081e-01 -8.315313e-02 -1.818070e-01 -2.399697e-01 -1.087112e-01 -3.328487e-02 -1.655189e-01 8.140180e-03 6.416659e-02 3.400427e-01
<VARIANCE> 39
 2.757884e+01 6.736671e+01 3.261600e+01 3.120676e+01 3.318877e+01 3.217033e+01 2.637350e+01 2.487415e+01 5.448899e+01 3.544275e+01 3.568711e+01 1.316108e+01 4.708920e+01 4.012476e+00 1.175943e+01 2.405921e+00 3.307261e+00 3.376762e+00 2.725159e+00 4.137289e+00 3.302703e+00 3.715133e+00 3.919713e+00 4.043741e+00 1.961869e+00 6.423211e+00 5.591994e-01 1.258267e+00 5.005533e-01 4.323067e-01 6.462978e-01 5.794863e-01 5.291024e-01 5.153010e-01 5.384554e-01 4.788451e-01 5.090693e-01 3.050978e-01 6.802167e-01
<GCONST> 1.267642e+02
<STATE> 3
<MEAN> 39
 -4.165010e+00 -6.854434e+00 4.181053e+00 2.303414e-01 2.920256e+00 -4.569650e-01 -4.879961e+00 -8.280738e+00 -6.167588e+00 -9.805005e+00 -1.249122e+00 1.004090e-01 7.968955e+01 2.104108e+00 -8.389638e-01 -6.558656e-01 -9.791625e-01 -1.066910e-01 -1.425041e+00 -1.389917e+00 -6.673715e-01 -8.249305e-01 -4.803400e-01 -3.200850e-01 5.153525e-01 1.904870e+00 -3.898756e-01 4.505990e-01 -1.571218e-02 -1.616841e-01 -1.052511e-01 2.197554e-03 4.803030e-01 2.436365e-01 2.579883e-01 4.385662e-01 1.392548e-01 1.162352e-01 -6.943510e-01
<VARIANCE> 39
 2.194698e+01 3.775885e+01 4.146828e+01 1.038567e+02 8.661050e+01 5.484565e+01 1.176611e+02 5.176305e+01 9.497314e+01 5.712332e+01 6.491551e+01 1.779082e+01 2.187732e+01 2.637760e+00 4.401067e+00 3.843243e+00 3.831136e+00 4.908490e+00 2.775063e+00 5.997278e+00 4.489124e+00 3.779870e+00 6.386837e+00 5.700315e+00 2.708634e+00 4.447634e+00 5.659945e-01 6.700470e-01 4.543181e-01 7.291200e-01 9.157799e-01 5.911164e-01 8.250231e-01 7.589569e-01 6.489769e-01 1.002452e+00 5.602148e-01 2.869302e-01 5.029411e-01
<GCONST> 1.350391e+02
<STATE> 4
<MEAN> 39
 -1.752959e+00 -7.245036e+00 3.061218e+00 -3.560266e+00 6.541818e-01 -3.742049e-01 -6.417484e+00 -7.617266e+00 -2.616684e-01 -1.036234e+01 -2.056651e+00 3.475221e+00 8.097266e+01 -1.301787e-01 5.115613e-01 -2.968743e-01 -3.301404e-01 -4.939935e-01 -2.224611e-02 3.015351e-01 2.832977e-01 4.446580e-01 4.031868e-01 3.277434e-01 2.414192e-02 -4.329507e-01 -2.271644e-01 1.532430e-01 3.897687e-02 1.001696e-01 5.347490e-02 1.524484e-01 1.238835e-01 5.540152e-02 6.951071e-02 4.682274e-02 4.610512e-02 -4.289031e-02 -2.769216e-01
<VARIANCE> 39
 7.058972e+00 5.061895e+01 3.998434e+01 7.065408e+01 8.311284e+01 5.441001e+01 1.189428e+02 6.350659e+01 1.390407e+02 9.053934e+01 9.789642e+01 4.264400e+01 2.527782e+01 5.229817e-01 3.119076e+00 1.297714e+00 2.354042e+00 2.407815e+00 2.464291e+00 4.039085e+00 2.290939e+00 2.533983e+00 3.239470e+00 2.689326e+00 1.965723e+00 1.986541e+00 1.172414e-01 5.026041e-01 2.470081e-01 3.534032e-01 3.688549e-01 4.214515e-01 7.970706e-01 4.773141e-01 3.900616e-01 6.085932e-01 4.777379e-01 2.866509e-01 2.732624e-01
<GCONST> 1.211030e+02
<TRANSP> 5
 0.000000e+00 1.000000e+00 0.000000e+00 0.000000e+00 0.000000e+00
 0.000000e+00 7.518522e-01 2.481478e-01 0.000000e+00 0.000000e+00
 0.000000e+00 0.000000e+00 5.014745e-01 4.985254e-01 0.000000e+00
 0.000000e+00 0.000000e+00 0.000000e+00 8.360713e-01 1.639287e-01
 0.000000e+00 0.000000e+00 0.000000e+00 0.000000e+00 0.000000e+00
<ENDHMM>
~h "w"
<BEGINHMM>
<NUMSTATES> 5
<STATE> 2
<MEAN> 39
 -2.602843e+00 -4.080420e+00 7.106821e+00 -2.016563e-01 5.963594e+00 5.146935e+00 -1.047684e+01 -8.641560e+00 6.824369e+00 -8.025605e+00 -8.277237e+00 -4.894461e+00 8.017932e+01 2.031667e-01 4.270779e-03 -4.089331e-01 -8.723961e-01 -8.204018e-01 -6.450670e-01 2.967063e-01 9.738398e-01 -1.375681e-01 -2.224082e-01 6.065987e-01 4.955580e-01 1.677332e-01 -1.124836e-01 -9.315147e-02 2.300480e-02 1.349613e-01 1.862836e-03 2.613746e-02 1.475551e-01 8.078807e-02 -5.910185e-02 -2.323223e-02 1.169154e-01 5.311652e-02 -3.085239e-02
<VARIANCE> 39
 5.242813e+00 4.904844e+01 3.334563e+01 4.387923e+01 1.067736e+02 1.137757e+02 3.463650e+01 6.663616e+01 1.929377e+02 2.902405e+01 1.047365e+02 5.414759e+01 2.242485e+01 3.326140e-01 1.513331e+00 1.674417e+00 2.118375e+00 3.733242e+00 6.032139e+00 2.149694e+00 4.696077e+00 4.606612e+00 2.071620e+00 3.566444e+00 2.869066e+00 8.648720e-01 9.982290e-02 2.097165e-01 2.487948e-01 3.575573e-01 6.087644e-01 8.211680e-01 3.372286e-01 6.265334e-01 6.269989e-01 3.349374e-01 6.755676e-01 4.101922e-01 1.165942e-01
<GCONST> 1.189636e+02
<STATE> 3
<MEAN> 39
 -2.033349e+00 -8.167030e+00 2.117521e+00 -7.864722e+00 -2.943944e+00 1.597594e+00 -2.476853e+00 -2.544755e+00 1.457405e+00 -1.446731e+01 -3.972303e+00 5.909746e+00 8.331182e+01 -8.293533e-02 1.524837e-01 4.426941e-02 1.415369e-01 1.169760e-01 2.746801e-01 1.596454e-01 -1.408579e-01 -7.239245e-03 -9.645899e-02 3.247179e-02 5.404494e-02 -1.532478e-01 -2.767312e-02 9.622309e-02 2.153875e-02 8.112101e-02 4.347527e-02 4.614728e-02 -2.612459e-02 -1.622906e-02 5.195023e-02 -5.182236e-03 -5.904473e-02 -6.798940e-02 -7.513240e-02
<VARIANCE> 39
 4.174134e+00 3.498484e+01 2.255701e+01 4.736177e+01 3.576025e+01 4.319623e+01 4.187780e+01 5.968324e+01 4.572300e+01 3.742913e+01 5.807651e+01 6.055402e+01 1.765841e+01 2.002663e-01 9.671632e-01 9.185623e-01 2.057173e+00 1.525088e+00 2.031407e+00 1.221092e+00 1.698084e+00 1.740269e+00 1.614437e+00 3.144643e+00 2.971636e+00 6.937839e-01 3.880549e-02 1.330934e-01 1.422499e-01 2.831652e-01 1.873629e-01 3.341846e-01 2.178388e-01 2.431181e-01 3.242866e-01 2.732012e-01 4.616356e-01 4.367770e-01 1.025824e-01
<GCONST> 1.005512e+02
<STATE> 4
<MEAN> 39
 -4.336926e+00 -3.472092e+00 4.173103e+00 -3.392834e+00 3.455114e-02 2.522463e+00 -2.272472e+00 -1.650862e+00 1.419071e+00 -1.462404e+01 -1.250582e+00 3.935233e+00 7.638742e+01 -7.643973e-01 1.134833e+00 -1.452126e-01 5.950977e-01 2.250170e-01 4.159794e-01 7.757943e-01 1.961949e-01 6.491906e-01 4.564406e-01 -2.206742e-01 -3.690879e-01 -1.517838e+00 -9.294471e-02 1.982551e-02 5.408268e-02 -3.995663e-02 -7.125373e-02 -8.035006e-02 5.537646e-02 -2.957292e-02 4.952671e-02 2.104372e-01 3.032528e-02 -7.354722e-02 -1.028196e-01
<VARIANCE> 39
 1.927168e+01 6.251989e+01 5.585387e+01 6.540200e+01 6.557185e+01 7.979463e+01 1.116615e+02 4.982545e+01 1.215370e+02 6.058720e+01 6.762538e+01 2.989682e+01 4.316493e+01 6.038256e-01 2.869724e+00 2.499121e+00 1.851686e+00 1.839198e+00 2.733675e+00 3.989096e+00 1.506585e+00 3.537103e+00 2.074010e+00 2.523408e+00 1.453596e+00 1.703508e+00 8.008007e-02 3.687744e-01 3.436772e-01 2.982515e-01 2.754205e-01 3.916452e-01 6.252046e-01 2.377638e-01 5.274183e-01 3.268265e-01 3.699228e-01 2.701275e-01 1.973872e-01
<GCONST> 1.181404e+02
<TRANSP> 5
 0.000000e+00 1.000000e+00 0.000000e+00 0.000000e+00 0.000000e+00
 0.000000e+00 7.149059e-01 2.850941e-01 0.000000e+00 0.000000e+00
 0.000000e+00 0.000000e+00 9.194989e-01 8.050109e-02 0.000000e+00
 0.000000e+00 0.000000e+00 0.000000e+00 7.906183e-01 2.093817e-01
 0.000000e+00 0.000000e+00 0.000000e+00 0.000000e+00 0.000000e+00
<ENDHMM>
~h "y"
<BEGINHMM>
<NUMSTATES> 5
<STATE> 2
<MEAN> 39
 -1.128458e+01 4.309723e+00 3.196263e+00 4.430775e+00 4.422400e+00 1.080119e+00 -2.657179e-01 -1.344382e+00 3.424916e+00 1.421243e+00 8.511550e-01 2.256799e-01 6.564373e+01 -5.622009e-01 -2.652439e-01 -4.779352e-01 -5.383649e-01 -3.152754e-01 1.752280e-01 8.488896e-01 5.794334e-01 1.004878e-01 9.944206e-02 -3.664517e-02 4.797725e-02 -4.435319e-01 3.197481e-02 -2.308951e-02 -3.306825e-02 -2.756476e-02 -5.265944e-02 -5.276876e-02 -1.217222e-01 -7.832672e-02 -5.024170e-02 -8.855017e-02 -8.175125e-02 -7.536449e-02 2.111859e-02
<VARIANCE> 39
 4.175706e+01 5.382491e+01 1.519384e+01 4.557081e+01 2.898470e+01 3.773997e+01 4.406524e+01 5.424800e+01 4.265476e+01 3.619075e+01 2.428905e+01 1.083617e+01 8.720841e+01 3.320140e-01 6.567141e-01 7.826448e-01 9.432107e-01 1.087105e+00 1.354597e+00 2.358131e+00 1.116201e+00 6.208087e-01 7.493154e-01 7.703267e-01 7.468137e-01 1.588203e-01 3.551089e-02 8.537631e-02 1.312410e-01 1.468930e-01 1.310877e-01 1.897694e-01 3.122752e-01 1.756241e-01 1.699844e-01 1.616600e-01 1.199060e-01 1.329028e-01 1.964040e-02
<GCONST> 8.645670e+01
<STATE> 3
<MEAN> 39
 -1.752667e+01 1.095443e-01 -1.815791e+00 -1.623330e+00 2.248141e-01 1.454034e+00 3.197594e+00 3.831343e-01 3.692895e+00 -2.311164e-01 9.381787e-01 -4.760351e-01 5.867390e+01 -4.545231e-02 8.657681e-03 -1.300464e-01 -1.149544e-01 -1.792466e-01 -1.062862e-01 2.350903e-01 8.990382e-02 -1.187127e-01 -1.135617e-02 -1.928308e-01 -9.439079e-02 -1.057055e-01 2.513657e-02 4.680775e-02 7.024993e-02 1.096605e-01 7.169639e-02 4.049827e-02 -5.263293e-02 -2.641720e-02 2.848702e-02 -3.464411e-02 -3.422383e-03 -2.276418e-03 4.175108e-03
<VARIANCE> 39
 5.008371e+01 1.751406e+01 9.173315e+00 1.156821e+01 1.088848e+01 2.173603e+01 8.687105e+00 4.706900e+01 3.655651e+01 3.005659e+01 2.087253e+01 1.280305e+01 1.372162e+02 9.886168e-02 1.535668e-01 3.270363e-01 4.600451e-01 7.946016e-01 7.310970e-01 1.082410e+00 8.234088e-01 7.974820e-01 8.293399e-01 7.260135e-01 7.495860e-01 6.693118e-02 1.547393e-02 3.885641e-02 6.097434e-02 8.552571e-02 1.196779e-01 1.304864e-01 1.641271e-01 1.559435e-01 1.727206e-01 1.922190e-01 1.125058e-01 1.693269e-01 1.033522e-02
<GCONST> 6.920869e+01
<STATE> 4
<MEAN> 39
 -5.144757e+00 -4.904678e+00 5.400202e-01 -5.378590e+00 -3.242337e+00 -2.174896e+00 2.640266e+00 -4.831951e+00 -2.072120e+00 -4.887517e+00 -4.789921e+00 1.604212e+00 7.650837e+01 8.266224e-03 8.982186e-01 -4.095118e-01 -1.071939e-01 -2.992586e-01 -7.330353e-02 1.711697e-01 5.732698e-01 1.143234e-01 -2.121622e-01 -3.559305e-01 -5.340949e-01 -4.663576e-01 -6.297631e-02 2.676525e-01 1.028432e-01 2.293524e-01 1.706542e-01 6.438327e-02 -3.024523e-01 3.654866e-02 1.428031e-01 -1.786938e-01 8.514331e-02 -1.907650e-01 -1.799615e-01
<VARIANCE> 39
 5.651765e+01 3.458279e+01 1.818082e+01 3.189818e+01 2.049487e+01 5.147071e+01 1.525049e+01 7.971417e+01 5.866065e+01 5.683987e+01 6.140614e+01 1.185574e+01 1.229951e+02 1.320330e-01 7.155771e-01 4.987571e-01 1.056114e+00 1.006104e+00 1.415360e+00 1.178279e+00 1.289054e+00 8.167064e-01 8.663071e-01 1.151600e+00 8.853882e-01 2.425869e-01 3.624368e-02 1.373689e-01 1.019299e-01 2.380490e-01 1.463601e-01 1.554632e-01 3.164119e-01 2.475662e-01 1.811221e-01 2.226993e-01 2.155864e-01 1.992148e-01 1.051770e-01
<GCONST> 9.126326e+01
<TRANSP> 5
 0.000000e+00 1.000000e+00 0.000000e+00 0.000000e+00 0.000000e+00
 0.000000e+00 6.620725e-01 3.379275e-01 0.000000e+00 0.000000e+00
 0.000000e+00 0.000000e+00 7.116975e-01 2.883025e-01 0.000000e+00
 0.000000e+00 0.000000e+00 0.000000e+00 6.001961e-01 3.998038e-01
 0.000000e+00 0.000000e+00 0.000000e+00 0.000000e+00 0.000000e+00
<ENDHMM>
~h "sp"
<BEGINHMM>
<NUMSTATES> 3
<STATE> 2
~s "silst"
<TRANSP> 3
 0.000000e+00 6.751187e-02 9.324881e-01
 0.000000e+00 5.759590e-01 4.240411e-01
 0.000000e+00 0.000000e+00 0.000000e+00
<ENDHMM>
~h "sy"
<BEGINHMM>
<NUMSTATES> 5
<STATE> 2
<MEAN> 39
 -2.046974e+01 1.359173e+00 -2.661474e+00 -7.138808e-01 1.501640e+00 2.819116e+00 2.325830e+00 -2.082238e+00 2.526741e+00 -2.236529e+00 1.881274e-01 -2.399677e+00 4.641108e+01 -1.927173e-02 -2.568789e-02 -1.110159e-02 -1.953479e-02 -8.971871e-03 -5.292136e-02 -2.586456e-03 1.861627e-02 2.512188e-02 1.545114e-02 -6.066933e-03 -5.276641e-03 1.402822e-02 6.086973e-03 -3.776180e-03 2.553271e-03 -8.867767e-03 -3.921695e-03 1.332834e-02 6.985489e-03 6.412331e-03 1.394053e-02 9.814206e-03 4.938789e-03 1.627482e-02 9.771734e-03
<VARIANCE> 39
 8.999565e-01 1.996932e+00 4.569164e+00 3.839044e+00 6.682229e+00 6.277559e+00 1.002511e+01 1.121751e+01 1.559795e+01 1.050067e+01 7.904136e+00 1.026119e+01 1.923077e+01 7.379471e-02 1.682542e-01 2.879609e-01 3.771360e-01 5.412462e-01 6.614257e-01 6.961158e-01 7.174274e-01 7.346962e-01 6.639242e-01 8.443614e-01 6.872469e-01 7.757675e-02 1.662068e-02 3.782178e-02 6.226784e-02 7.833387e-02 1.162412e-01 1.345135e-01 1.401054e-01 1.457741e-01 1.503062e-01 1.392350e-01 1.741754e-01 1.384896e-01 1.245222e-02
<GCONST> 5.116733e+01
<STATE> 3
<MEAN> 39
 -2.078693e+01 5.223864e-01 -3.961586e+00 -2.290556e+00 -4.631319e-01 1.533712e+00 1.973606e+00 1.002618e+00 2.324426e+00 1.520990e+00 2.622960e-01 -1.403865e-02 5.238892e+01 -1.853273e-02 -9.180880e-02 3.957215e-02 -3.448477e-02 5.208390e-02 -2.193973e-02 -1.756593e-01 -2.522188e-01 -9.656473e-02 5.392344e-02 -4.135254e-02 2.339995e-02 1.122818e-01 2.094710e-02 -3.990533e-02 7.243074e-02 9.342249e-02 -2.658532e-02 2.681162e-03 -9.257318e-02 -1.064211e-01 -9.803304e-02 -1.148186e-01 6.186883e-02 -6.932594e-02 2.440976e-02
<VARIANCE> 39
 1.367795e+00 2.360310e+00 6.294180e+00 3.888602e+00 1.001007e+01 5.704127e+00 1.043776e+01 1.849539e+01 1.861659e+01 8.559938e+00 9.933685e+00 3.776108e+00 3.598595e+01 1.001374e-01 1.504087e-01 3.927991e-01 2.703724e-01 6.145635e-01 5.452057e-01 6.164835e-01 6.554053e-01 1.100344e+00 5.802357e-01 4.361502e-01 4.038173e-01 1.372695e-01 2.768801e-02 6.577362e-02 1.220741e-01 8.709929e-02 1.881237e-01 1.281780e-01 1.790602e-01 1.736261e-01 2.209073e-01 1.404231e-01 1.293907e-01 1.074198e-01 5.193583e-02
<GCONST> 5.627000e+01
<STATE> 4
<MEAN> 39
 -1.908842e+01 -1.736046e-01 -3.344500e+00 -2.468734e+00 3.480865e-01 2.652891e+00 3.610758e+00 -1.709410e+00 3.687410e+00 -3.552074e+00 5.008892e-01 -1.158148e+00 4.969482e+01 -4.170922e-03 -1.096527e-01 4.692400e-03 -1.242012e-02 -5.071400e-02 -4.970799e-02 -2.473883e-01 -7.803298e-02 2.794978e-02 -1.602742e-02 3.709669e-02 -1.003816e-01 8.977788e-03 -3.736463e-02 -9.959864e-02 1.216549e-01 4.609127e-02 -3.120269e-03 3.728470e-02 -4.617136e-02 -2.754168e-03 1.184274e-02 -2.903942e-02 -2.634447e-02 -1.011454e-01 5.995280e-02
<VARIANCE> 39
 8.740096e+00 9.611936e+00 6.869098e+00 9.884021e+00 1.457639e+01 7.077489e+00 1.007218e+01 1.687962e+01 9.293545e+00 2.203513e+01 6.242345e+00 1.006094e+01 2.870822e+01 9.128227e-01 1.495202e+00 1.135664e+00 1.523362e+00 1.751703e+00 9.150881e-01 1.045743e+00 1.230411e+00 9.393182e-01 1.331826e+00 1.072532e+00 8.085159e-01 1.838992e+00 1.702096e-01 3.351572e-01 2.626454e-01 2.958873e-01 3.390298e-01 1.947329e-01 2.375096e-01 2.417388e-01 1.816615e-01 2.195025e-01 1.800629e-01 1.268504e-01 3.275085e-01
<GCONST> 8.607993e+01
<TRANSP> 5
 0.000000e+00 1.000000e+00 0.000000e+00 0.000000e+00 0.000000e+00
 0.000000e+00 9.671589e-01 3.284109e-02 0.000000e+00 0.000000e+00
 0.000000e+00 0.000000e+00 6.532977e-01 3.467023e-01 0.000000e+00
 0.000000e+00 0.000000e+00 0.000000e+00 6.317294e-01 3.682706e-01
 0.000000e+00 0.000000e+00 0.000000e+00 0.000000e+00 0.000000e+00
<ENDHMM>
~h "sil"
<BEGINHMM>
<NUMSTATES> 5
<STATE> 2
<MEAN> 39
 -1.367935e+01 1.269126e+00 -4.647236e+00 1.296695e+00 -2.603258e+00 2.409989e+00 -2.407827e+00 1.465680e+00 -1.492742e+00 5.526700e-01 -1.734138e-01 -1.619927e-01 1.725233e+01 3.208189e-02 -1.379140e-02 2.023371e-02 -2.149366e-02 3.200686e-02 -9.445649e-03 2.243999e-02 -2.662381e-02 -1.022361e-03 -8.113143e-03 -1.290539e-02 -5.084347e-03 5.611357e-02 5.738270e-03 4.248198e-03 6.666488e-03 3.630407e-03 7.782806e-03 5.785408e-03 4.762291e-03 4.577238e-03 6.766880e-03 2.443906e-03 6.095765e-03 5.490622e-03 9.061263e-03
<VARIANCE> 39
 2.131075e+02 2.578284e+00 2.879246e+01 4.255096e+00 1.342108e+01 8.819711e+00 1.239997e+01 7.868881e+00 6.766284e+00 3.271487e+00 2.565863e+00 2.400649e+00 3.487996e+02 5.109424e-02 5.484847e-02 8.057217e-02 1.201629e-01 1.588544e-01 1.928617e-01 2.414281e-01 2.599397e-01 2.582619e-01 2.716520e-01 2.573106e-01 2.445981e-01 7.276979e-02 8.836296e-03 1.158971e-02 1.669409e-02 2.339051e-02 3.115284e-02 4.059684e-02 4.895119e-02 5.061527e-02 5.309374e-02 5.548503e-02 5.103502e-02 5.112545e-02 4.502199e-03
<GCONST> 3.121937e+01
<STATE> 3
~s "silst"
<STATE> 4
<MEAN> 39
 -2.060230e+01 1.300851e+00 -2.910490e+00 -8.822160e-01 6.072242e-01 2.278537e+00 3.016744e+00 1.268178e+00 3.484267e+00 1.238853e-01 7.029434e-01 -1.206028e+00 5.246616e+01 4.852691e-03 -5.974531e-03 -2.532206e-03 -1.957399e-02 3.109661e-03 -8.643547e-03 6.146217e-05 -9.427780e-03 5.319615e-03 -7.378391e-03 9.071421e-03 -2.283944e-03 4.058882e-02 2.124676e-03 -3.228895e-03 2.566935e-03 1.288320e-03 -9.313399e-04 -8.403842e-05 -1.356903e-03 -5.158699e-03 -3.381709e-03 8.064840e-05 2.038030e-03 1.936901e-03 2.606177e-03
<VARIANCE> 39
 1.436550e+00 2.391529e+00 5.252412e+00 4.803084e+00 7.232829e+00 7.382840e+00 9.440943e+00 2.239269e+01 1.393437e+01 1.358907e+01 7.172886e+00 7.881014e+00 4.955632e+01 9.700356e-02 1.699567e-01 2.862341e-01 3.966829e-01 5.006353e-01 6.135792e-01 7.009277e-01 8.604130e-01 8.575575e-01 7.526778e-01 6.961125e-01 6.712570e-01 9.633969e-02 1.894000e-02 3.519721e-02 5.496704e-02 7.978152e-02 1.032845e-01 1.261085e-01 1.430442e-01 1.749330e-01 1.770903e-01 1.548674e-01 1.434668e-01 1.372797e-01 1.291172e-02
<GCONST> 5.450221e+01
<TRANSP> 5
 0.000000e+00 1.000000e+00 0.000000e+00 0.000000e+00 0.000000e+00
 0.000000e+00 9.022015e-01 4.364476e-02 5.415367e-02 0.000000e+00
 0.000000e+00 0.000000e+00 8.760296e-01 1.239705e-01 0.000000e+00
 0.000000e+00 6.671874e-03 0.000000e+00 9.732099e-01 2.011826e-02
 0.000000e+00 0.000000e+00 0.000000e+00 0.000000e+00 0.000000e+00
<ENDHMM>
