~o
<STREAMINFO> 1 39
<VECSIZE> 39<NULLD><MFCC_D_A_0><DIAGC>
~s "silst"
<MEAN> 39
 -1.702091e+01 1.724743e+00 -1.956822e+00 3.990990e-01 5.067747e-02 1.812473e+00 2.548223e+00 3.217346e+00 2.980780e+00 1.940819e+00 7.793376e-01 -1.239279e-01 3.620039e+01 -1.851757e+00 1.741226e-01 -2.139603e-01 -1.820789e-02 4.756573e-02 1.574739e-01 3.251987e-01 3.628552e-01 3.278046e-01 1.609666e-01 7.132805e-02 -9.711201e-02 5.352420e+00 2.351390e-01 -3.236234e-02 2.117365e-02 -2.319499e-02 7.647776e-03 -2.781394e-02 -1.345113e-02 -2.329820e-02 -1.862429e-02 -2.607308e-02 -1.153130e-02 -7.034791e-03 -1.845666e-01
<VARIANCE> 39
 6.688884e+01 2.759413e+00 4.366339e+00 4.576120e+00 5.021157e+00 5.751122e+00 9.758648e+00 1.004165e+01 9.927888e+00 6.575312e+00 5.210941e+00 5.417540e+00 4.525560e+02 8.006263e+00 2.853828e-01 4.958411e-01 4.988259e-01 6.038429e-01 7.218500e-01 1.039420e+00 9.938441e-01 9.744508e-01 7.411234e-01 6.166518e-01 5.933384e-01 9.876536e+00 1.383154e+00 4.628544e-02 9.775160e-02 9.487574e-02 1.191919e-01 1.477050e-01 2.111363e-01 1.899757e-01 1.884172e-01 1.485309e-01 1.262770e-01 1.205475e-01 2.321775e+00
<GCONST> 7.945918e+01
~h "a"
<BEGINHMM>
<NUMSTATES> 5
<STATE> 2
<MEAN> 39
 -8.644741e+00 2.836815e+00 -7.571198e-01 1.865045e-01 4.788362e-01 -3.399518e+00 -2.695974e-01 -9.858073e-01 -5.455523e+00 1.964267e+00 5.369551e+00 -1.456671e+00 6.866233e+01 9.165519e-01 2.553338e-01 1.669342e-01 2.059154e-01 -1.268447e-01 -4.312966e-01 -4.352163e-01 -1.456965e-01 -4.145116e-01 -6.491598e-02 3.394788e-01 -2.977397e-02 5.763454e-01 -1.894776e-01 -1.574164e-01 -1.417246e-01 -1.525426e-02 -4.511923e-02 1.421454e-01 1.893161e-01 1.336385e-01 1.626218e-01 8.135156e-02 1.385151e-02 6.053842e-02 -1.354251e-01
<VARIANCE> 39
 6.459901e+01 3.456892e+01 3.592897e+01 5.591696e+01 3.459101e+01 3.640294e+01 5.285340e+01 3.066063e+01 5.123078e+01 2.833923e+01 2.305330e+01 1.300914e+01 4.007121e+01 6.874039e+00 2.903678e+00 2.236647e+00 2.220937e+00 2.244663e+00 3.395688e+00 3.430237e+00 2.546146e+00 6.165765e+00 1.718336e+00 2.511543e+00 1.261754e+00 4.515334e+00 6.324900e-01 4.931952e-01 3.459808e-01 3.195852e-01 3.370480e-01 4.904841e-01 4.948324e-01 4.231338e-01 5.392570e-01 2.706605e-01 3.428617e-01 2.186365e-01 3.936299e-01
<GCONST> 1.198352e+02
<STATE> 3
<MEAN> 39
 -1.055689e+01 6.636453e+00 2.928250e+00 6.310359e+00 5.317038e+00 8.286908e-01 -4.683056e-01 8.481943e-01 1.215228e+00 3.713515e+00 4.243162e+00 -7.646776e-01 6.524797e+01 -7.619202e-01 -3.905258e-01 -2.275017e-01 -1.938556e-01 -3.793722e-02 5.225890e-01 8.695452e-01 7.117295e-01 5.561433e-01 7.164447e-02 -1.643241e-02 2.145847e-01 -4.469777e-01 -1.601576e-02 -1.436937e-01 -1.729846e-01 -2.066873e-01 -1.622187e-01 -1.194021e-01 -5.447947e-02 -1.268798e-01 -1.757218e-01 -3.580407e-02 2.129338e-02 -2.706902e-02 2.966128e-02
<VARIANCE> 39
 3.163198e+01 2.463119e+01 1.763549e+01 2.773921e+01 2.708169e+01 3.606911e+01 5.608934e+01 3.495370e+01 6.809593e+01 1.443366e+01 3.248814e+01 1.308320e+01 2.660734e+01 7.938334e-01 8.289917e-01 8.674873e-01 1.159684e+00 9.638752e-01 1.398324e+00 1.596607e+00 1.703814e+00 1.652866e+00 6.769325e-01 8.438215e-01 7.547828e-01 3.956240e-01 1.199893e-01 1.686115e-01 1.573966e-01 1.301282e-01 1.953726e-01 3.329083e-01 3.751431e-01 2.988509e-01 3.568113e-01 1.469341e-01 2.029306e-01 1.459846e-01 6.671903e-02
<GCONST> 9.295351e+01
<STATE> 4
<MEAN> 39
 -1.160752e+01 2.517317e+00 -2.737040e+00 1.633169e-01 5.050995e-01 5.043258e-01 2.727633e+00 1.449547e+00 -1.540210e+00 2.712084e+00 6.084486e+00 5.318514e-01 6.538265e+01 -4.450186e-01 -6.353219e-02 -6.669024e-02 -7.227062e-02 1.655241e-02 2.045348e-01 1.518699e-01 -4.457699e-02 1.596061e-01 -1.312486e-02 -2.627000e-01 -1.277029e-02 -3.332581e-01 2.843236e-02 5.428072e-02 6.570320e-02 4.803266e-02 5.374466e-02 -1.682642e-02 -7.286829e-02 -2.262786e-02 -1.914030e-02 -3.469450e-02 -3.920603e-02 -2.197378e-02 1.074077e-02
<VARIANCE> 39
 7.851588e+01 1.231408e+01 1.165661e+01 1.500204e+01 2.097520e+01 3.036426e+01 2.356126e+01 2.723579e+01 6.818122e+01 1.213121e+01 3.003018e+01 8.534377e+00 4.795804e+01 5.775684e-01 8.472267e-01 7.711316e-01 1.046625e+00 1.148853e+00 1.414517e+00 1.158923e+00 1.200188e+00 1.696536e+00 9.065377e-01 9.026499e-01 7.413951e-01 3.921577e-01 6.568652e-02 1.374522e-01 1.230177e-01 1.394061e-01 1.482085e-01 1.903567e-01 1.865629e-01 2.291083e-01 2.462271e-01 1.527975e-01 1.484528e-01 1.429598e-01 4.077591e-02
<GCONST> 8.592370e+01
<TRANSP> 5
 0.000000e+00 1.000000e+00 0.000000e+00 0.000000e+00 0.000000e+00
 0.000000e+00 7.518205e-01 2.481795e-01 0.000000e+00 0.000000e+00
 0.000000e+00 0.000000e+00 6.774064e-01 3.225936e-01 0.000000e+00
 0.000000e+00 0.000000e+00 0.000000e+00 7.869583e-01 2.130417e-01
 0.000000e+00 0.000000e+00 0.000000e+00 0.000000e+00 0.000000e+00
<ENDHMM>
~h "b"
<BEGINHMM>
<NUMSTATES> 5
<STATE> 2
<MEAN> 39
 -1.975324e+01 2.616925e+00 -2.018579e+00 -4.757771e-01 1.161016e+00 3.114855e+00 4.759178e+00 5.159697e+00 5.197540e+00 3.018633e+00 2.638022e+00 3.232759e-01 5.922245e+01 -2.754979e-01 -2.117935e-01 -2.468398e-01 -4.906756e-01 -5.036134e-01 -2.831853e-01 -8.878174e-02 1.080080e-01 1.056955e-01 -1.641596e-01 -5.703373e-02 -2.640576e-02 -1.131374e-01 9.190067e-02 9.850378e-02 1.167875e-01 1.771557e-01 1.651646e-01 9.431763e-02 2.835732e-03 -1.100150e-01 -1.183154e-01 -3.328272e-02 -4.949362e-02 -6.743509e-02 4.476190e-02
<VARIANCE> 39
 2.012275e+00 3.391929e+00 4.554695e+00 7.088043e+00 9.598799e+00 1.398330e+01 1.563169e+01 1.252957e+01 9.787766e+00 9.597214e+00 8.287857e+00 7.634527e+00 1.447546e+00 2.784039e-01 4.098082e-01 5.886579e-01 1.165242e+00 1.342236e+00 1.557456e+00 1.704822e+00 1.310844e+00 1.115847e+00 1.411054e+00 7.452133e-01 8.158674e-01 7.996711e-02 6.280034e-02 7.627038e-02 9.496211e-02 1.953213e-01 1.950764e-01 2.468724e-01 3.421550e-01 2.476732e-01 2.166270e-01 2.438415e-01 1.249304e-01 1.493680e-01 1.905932e-02
<GCONST> 6.702091e+01
<STATE> 3
<MEAN> 39
 -2.103238e+01 1.262872e+00 -3.149731e+00 -1.016064e+00 -4.925052e-01 1.191839e+00 3.589602e+00 4.328596e+00 4.037676e+00 1.566712e+00 5.908867e-01 -9.401406e-01 5.859063e+01 2.460548e-03 -1.244566e-02 -1.277645e-03 1.938411e-02 1.703424e-02 -3.114313e-02 -4.355236e-02 -4.420779e-02 -4.179805e-02 -2.181286e-02 -3.364576e-02 -8.970630e-03 1.999869e-03 7.245434e-03 -6.590825e-03 -1.493926e-02 -1.468326e-02 -5.929603e-03 -1.534450e-02 -7.489569e-03 9.152293e-04 1.190272e-02 1.890680e-02 2.054158e-02 1.203388e-02 4.052593e-03
<VARIANCE> 39
 1.223575e+00 1.841154e+00 3.085938e+00 4.067695e+00 4.605096e+00 5.331395e+00 6.753040e+00 8.108782e+00 8.233860e+00 8.328331e+00 6.165073e+00 5.632699e+00 1.447546e+00 1.076777e-01 1.243910e-01 2.085896e-01 4.587058e-01 5.546663e-01 5.348663e-01 7.746558e-01 9.858771e-01 1.014577e+00 1.002286e+00 6.992818e-01 6.459512e-01 3.502597e-02 2.154651e-02 2.140513e-02 3.679153e-02 9.310938e-02 1.182208e-01 1.151096e-01 1.802189e-01 2.206375e-01 2.078421e-01 2.252688e-01 1.502620e-01 1.450304e-01 6.891146e-03
<GCONST> 4.534914e+01
<STATE> 4
<MEAN> 39
 -2.033056e+01 1.134977e+00 -3.723938e+00 -1.702447e+00 -7.110028e-01 7.348690e-01 2.803428e+00 3.664772e+00 3.474977e+00 1.265973e+00 9.554926e-01 -8.750722e-01 5.902993e+01 8.330253e-02 -1.007542e-01 -1.844474e-01 -5.745570e-02 -1.568974e-02 4.556438e-02 1.525171e-01 1.172523e-01 2.276442e-01 3.298103e-01 -8.823454e-02 -1.989747e-01 1.725842e-02 2.049335e-01 1.219545e-01 2.053207e-01 1.529000e-01 1.513407e-01 1.378916e-01 -4.724827e-02 -2.133727e-01 -1.715555e-01 1.742097e-02 4.347282e-02 3.935531e-02 1.599767e-01
<VARIANCE> 39
 1.883730e+00 3.797097e+00 7.247257e+00 7.041283e+00 4.129175e+00 2.932225e+00 3.539275e+00 1.250186e+01 1.009644e+01 5.854445e+00 5.148770e+00 7.535112e+00 1.447546e+00 2.031243e-01 3.192447e-01 5.337524e-01 9.373220e-01 4.857176e-01 4.458940e-01 8.680013e-01 2.262090e+00 1.038203e+00 1.158330e+00 6.120163e-01 8.922512e-01 1.134215e-01 1.177923e-01 1.443045e-01 1.297962e-01 1.780072e-01 1.766868e-01 7.042960e-02 1.817624e-01 6.406704e-01 4.834654e-01 1.384035e-01 1.408576e-01 1.514951e-01 8.812901e-02
<GCONST> 6.172808e+01
<TRANSP> 5
 0.000000e+00 1.000000e+00 0.000000e+00 0.000000e+00 0.000000e+00
 0.000000e+00 8.695786e-01 1.304214e-01 0.000000e+00 0.000000e+00
 0.000000e+00 0.000000e+00 9.615954e-01 3.840457e-02 0.000000e+00
 0.000000e+00 0.000000e+00 0.000000e+00 7.021896e-01 2.978105e-01
 0.000000e+00 0.000000e+00 0.000000e+00 0.000000e+00 0.000000e+00
<ENDHMM>
~h "d"
<BEGINHMM>
<NUMSTATES> 5
<STATE> 2
<MEAN> 39
 -6.864768e+00 5.425612e+00 2.109270e+00 3.790370e+00 4.704576e+00 -1.104327e+00 -2.355067e+00 -4.665254e+00 -9.112287e+00 -4.870677e+00 3.215889e+00 6.727148e-01 6.923853e+01 6.643707e-01 3.381118e-02 3.457300e-01 5.010124e-01 4.198757e-01 -1.358596e-01 -5.307119e-01 -4.896530e-01 -7.830750e-01 -4.182264e-01 1.123535e-01 -2.122438e-01 5.480163e-01 -4.046822e-02 -5.878789e-02 -8.132281e-02 9.769753e-02 2.092838e-02 -4.782211e-02 -3.364696e-02 1.483676e-01 1.190664e-02 -1.229159e-02 3.806853e-02 -2.460991e-02 -6.705375e-02
<VARIANCE> 39
 4.477673e+01 3.960838e+01 4.180052e+01 2.794825e+01 1.618990e+01 1.896289e+01 2.530573e+01 3.151275e+01 6.751550e+01 3.433674e+01 1.743388e+01 1.037639e+01 2.996783e+01 4.348951e+00 4.573389e+00 2.597418e+00 2.385036e+00 1.855951e+00 2.488447e+00 3.692175e+00 2.904357e+00 6.614098e+00 3.026088e+00 1.926447e+00 1.178198e+00 3.095765e+00 6.129285e-01 7.188486e-01 4.158173e-01 3.738815e-01 3.129311e-01 4.030617e-01 4.906923e-01 4.781590e-01 7.592369e-01 4.644832e-01 3.226350e-01 1.891786e-01 3.614918e-01
<GCONST> 1.175815e+02
<STATE> 3
<MEAN> 39
 -5.201836e+00 3.669401e+00 5.089332e+00 1.040009e+01 7.247457e+00 -6.148716e+00 -8.167491e+00 -3.912803e+00 -1.183862e+01 -2.328077e+00 7.770038e+00 -3.816507e+00 7.109381e+01 -2.051687e-01 1.596027e-01 -1.413015e-01 -9.203941e-02 -1.896921e-01 1.256596e-01 4.545692e-01 3.909878e-01 3.466815e-01 1.691797e-01 -8.685435e-02 9.891883e-02 -3.021417e-01 -1.090996e-01 1.001283e-01 1.418873e-02 -1.330898e-01 -6.475275e-02 1.617956e-01 1.749283e-01 5.130489e-02 2.560746e-01 1.270528e-01 -1.047620e-01 6.155532e-02 -1.034918e-01
<VARIANCE> 39
 1.684542e+01 2.165503e+01 3.165810e+01 6.604204e+01 2.856678e+01 2.542033e+01 3.632641e+01 2.455929e+01 4.471426e+01 4.438094e+01 3.548571e+01 1.486491e+01 1.498122e+01 7.762476e-01 1.558507e+00 1.225432e+00 2.331916e+00 1.129019e+00 2.431887e+00 2.016048e+00 2.040830e+00 4.294186e+00 1.715933e+00 2.624332e+00 1.105129e+00 8.576702e-01 6.608759e-02 2.373458e-01 1.835246e-01 3.469311e-01 2.201566e-01 3.826737e-01 3.554996e-01 2.791462e-01 5.409847e-01 2.776187e-01 3.554333e-01 2.213425e-01 8.698650e-02
<GCONST> 1.031711e+02
<STATE> 4
<MEAN> 39
 -1.720979e+01 3.613530e+00 -6.352581e-01 1.769600e+00 2.310753e+00 2.618988e+00 3.366895e+00 3.194860e+00 1.927907e+00 1.767550e+00 2.252498e+00 -3.864496e-01 6.089071e+01 -7.054901e-01 3.617214e-02 -2.095962e-01 -5.729936e-01 -4.261350e-01 1.761661e-01 5.704924e-01 7.787335e-01 1.130844e+00 1.834542e-01 -4.908423e-01 2.317269e-01 -5.646405e-01 2.277484e-01 -2.203103e-01 5.840369e-02 7.551102e-02 4.740353e-02 -3.314189e-01 -3.805467e-01 -5.267449e-01 -6.400576e-01 -1.997578e-01 2.299460e-01 -5.081170e-03 3.444563e-01
<VARIANCE> 39
 2.850968e+01 1.169732e+01 1.747081e+01 2.466692e+01 1.370455e+01 1.468416e+01 1.458658e+01 1.625915e+01 4.445089e+01 2.481589e+01 1.551462e+01 1.043591e+01 1.331567e+01 1.040065e+00 1.244618e+00 1.143961e+00 1.729730e+00 1.288187e+00 2.754869e+00 2.561557e+00 2.757296e+00 4.632871e+00 1.597076e+00 1.460436e+00 7.803328e-01 9.329123e-01 1.851431e-01 1.960347e-01 1.851979e-01 3.107081e-01 1.903179e-01 3.650957e-01 4.083388e-01 5.920591e-01 8.515515e-01 3.448522e-01 2.101374e-01 1.584990e-01 1.914590e-01
<GCONST> 9.869437e+01
<TRANSP> 5
 0.000000e+00 1.000000e+00 0.000000e+00 0.000000e+00 0.000000e+00
 0.000000e+00 8.711616e-01 1.288384e-01 0.000000e+00 0.000000e+00
 0.000000e+00 0.000000e+00 8.741871e-01 1.258129e-01 0.000000e+00
 0.000000e+00 0.000000e+00 0.000000e+00 5.930791e-01 4.069209e-01
 0.000000e+00 0.000000e+00 0.000000e+00 0.000000e+00 0.000000e+00
<ENDHMM>
~h "e"
<BEGINHMM>
<NUMSTATES> 5
<STATE> 2
<MEAN> 39
 -1.114586e+01 1.622305e+00 1.026578e+00 2.136575e+00 4.547675e+00 2.270657e-01 -1.203208e+00 -6.763213e+00 -8.878214e+00 -3.942183e-01 7.090130e+00 9.983330e-01 6.821342e+01 1.955792e+00 -3.583860e-01 -4.352429e-01 1.429996e+00 7.571876e-01 -7.247244e-01 -7.369167e-01 -2.130146e+00 -2.840053e+00 -1.374990e-01 1.537675e+00 1.926372e-01 1.459880e+00 7.439569e-02 -1.603128e-01 -1.144823e-01 1.375479e-01 -1.688109e-01 -1.663302e-01 8.168560e-02 2.107044e-01 6.805789e-02 3.015139e-01 9.921513e-02 -7.228155e-03 2.191244e-02
<VARIANCE> 39
 3.640189e+01 3.596405e+01 3.389865e+01 5.254250e+01 1.590543e+01 2.111972e+01 2.561329e+01 5.036029e+01 7.094825e+01 2.788835e+01 2.790394e+01 1.186096e+01 3.413025e+01 7.149461e+00 4.857727e+00 3.922006e+00 7.661888e+00 1.416189e+00 4.379628e+00 2.854358e+00 4.283042e+00 9.089720e+00 2.771642e+00 3.012142e+00 1.765929e+00 3.991320e+00 6.369560e-01 6.916079e-01 4.974785e-01 8.725662e-01 3.728374e-01 3.913499e-01 3.312149e-01 6.358598e-01 9.208515e-01 3.811201e-01 4.824530e-01 2.125059e-01 3.646276e-01
<GCONST> 1.243314e+02
<STATE> 3
<MEAN> 39
 -2.333323e+00 -1.919607e+00 -1.931809e+00 7.645655e+00 3.431998e+00 -4.992459e+00 -3.421818e+00 -1.309232e+01 -1.972949e+01 1.006923e+00 1.290472e+01 1.998022e+00 7.434872e+01 1.914611e-01 7.886821e-02 -2.524540e-01 1.132117e-01 -3.760562e-01 -3.380397e-01 5.500421e-01 4.343261e-01 -9.467413e-02 4.242929e-01 -1.355945e-02 -2.736466e-02 -2.161250e-02 -5.593037e-01 1.508517e-01 1.961032e-01 -5.504975e-01 -3.556615e-02 2.950059e-01 1.327677e-01 5.397823e-01 7.482396e-01 6.259143e-02 -3.629712e-01 -1.604410e-01 -3.285010e-01
<VARIANCE> 39
 1.639301e+01 1.754744e+01 1.381541e+01 3.009439e+01 1.560857e+01 2.988548e+01 3.382859e+01 3.899634e+01 4.335994e+01 2.413081e+01 1.844905e+01 1.165697e+01 1.625687e+01 3.496089e+00 1.568671e+00 1.505807e+00 3.020939e+00 1.874102e+00 3.324696e+00 1.495440e+00 3.172842e+00 4.372841e+00 1.383452e+00 2.157037e+00 8.195163e-01 2.144609e+00 3.465968e-01 3.288236e-01 2.870729e-01 4.696739e-01 2.685357e-01 3.881917e-01 3.013632e-01 4.805412e-01 5.091558e-01 3.189918e-01 2.910122e-01 1.319897e-01 1.337950e-01
<GCONST> 1.060901e+02
<STATE> 4
<MEAN> 39
 -8.620877e+00 3.649126e+00 2.289364e-01 3.978015e+00 4.257214e+00 6.636571e-01 1.884155e+00 -4.434315e+00 -8.376548e+00 3.246305e+00 7.336354e+00 -1.342292e-02 6.798421e+01 -1.110825e+00 3.953953e-01 6.523287e-02 -1.115116e-01 1.370344e-01 3.549139e-01 -1.599985e-01 1.195752e+00 2.211579e+00 4.307215e-01 -1.079837e+00 -7.761626e-01 -1.045271e+00 4.912831e-02 -1.342216e-01 -9.492279e-02 -6.691443e-02 -1.806215e-01 -2.244278e-01 -2.934159e-01 -1.523208e-01 7.996216e-02 -6.966005e-02 -1.169023e-02 -4.164377e-02 7.438610e-02
<VARIANCE> 39
 4.872077e+01 2.614856e+01 1.947694e+01 3.389286e+01 2.743062e+01 4.546555e+01 3.344061e+01 5.146813e+01 1.219553e+02 2.703182e+01 4.695146e+01 1.651021e+01 4.616059e+01 1.531735e+00 3.036568e+00 1.877218e+00 2.401790e+00 1.853899e+00 1.856360e+00 3.180035e+00 3.057136e+00 6.549430e+00 1.764556e+00 3.121926e+00 1.345431e+00 1.089699e+00 2.065703e-01 4.366831e-01 2.741057e-01 4.546446e-01 3.239471e-01 3.873193e-01 4.451409e-01 5.042878e-01 1.038789e+00 2.122130e-01 6.256861e-01 2.126729e-01 1.737575e-01
<GCONST> 1.156696e+02
<TRANSP> 5
 0.000000e+00 1.000000e+00 0.000000e+00 0.000000e+00 0.000000e+00
 0.000000e+00 6.074455e-01 3.925545e-01 0.000000e+00 0.000000e+00
 0.000000e+00 0.000000e+00 6.919152e-01 3.080849e-01 0.000000e+00
 0.000000e+00 0.000000e+00 0.000000e+00 6.695000e-01 3.305000e-01
 0.000000e+00 0.000000e+00 0.000000e+00 0.000000e+00 0.000000e+00
<ENDHMM>
~h "f"
<BEGINHMM>
<NUMSTATES> 5
<STATE> 2
<MEAN> 39
 -7.271594e+00 5.127689e+00 1.033870e+01 1.841935e+01 1.030969e+01 -7.783297e+00 -7.959930e+00 -1.550226e+00 -1.560774e+01 -7.342461e+00 9.123057e+00 -5.303454e+00 6.900229e+01 -4.338688e-01 4.476784e-01 -3.717401e-02 -3.034559e-01 -6.249285e-01 5.967835e-01 1.027069e+00 6.875865e-02 8.873658e-01 6.021186e-01 -5.910199e-01 1.295193e-01 -5.535129e-01 -9.007290e-02 2.741305e-02 -1.155788e-02 -1.890919e-01 3.765975e-02 2.204113e-01 5.655300e-02 1.032322e-01 3.029500e-01 1.228866e-01 -9.276914e-02 9.976661e-02 -5.700782e-02
<VARIANCE> 39
 2.802338e+00 5.778169e+00 7.553984e+00 8.039852e+00 9.238159e+00 1.451612e+01 1.856886e+01 2.241025e+01 2.015411e+01 1.857395e+01 1.508280e+01 5.659498e+00 4.207127e+00 9.269726e-02 2.947429e-01 4.171249e-01 1.117101e+00 6.100540e-01 1.583178e+00 1.389631e+00 1.733445e+00 2.689994e+00 1.386104e+00 9.187652e-01 7.486708e-01 9.447990e-02 2.159602e-02 6.083267e-02 1.082986e-01 1.589046e-01 1.042803e-01 1.744074e-01 3.553808e-01 4.486579e-01 3.992453e-01 2.363605e-01 1.952513e-01 1.549493e-01 1.430581e-02
<GCONST> 6.972379e+01
<STATE> 3
<MEAN> 39
 -1.948500e+01 2.398438e+00 -1.185545e+00 1.562631e+00 1.430732e+00 2.188169e+00 4.186333e+00 4.843827e+00 3.383235e+00 1.529415e+00 4.080095e-01 -1.095609e+00 5.945382e+01 -4.224088e-01 -2.212092e-01 -4.840898e-01 -6.372051e-01 -2.727454e-01 2.190511e-01 3.224648e-01 3.642921e-01 5.003401e-01 2.025891e-01 -2.388748e-01 1.693788e-01 -2.856489e-01 4.408071e-02 -4.371542e-02 2.681492e-02 6.180709e-02 1.360071e-02 -8.136168e-02 -1.675905e-02 1.557523e-02 -1.283339e-01 -4.615271e-02 8.811102e-02 -3.722823e-02 4.793227e-02
<VARIANCE> 39
 1.299016e+01 1.043080e+01 2.407034e+01 3.444642e+01 1.125234e+01 6.550113e+00 8.357272e+00 1.160626e+01 1.678314e+01 3.697903e+00 6.268742e+00 8.211769e+00 4.264140e+00 4.078689e-01 5.054721e-01 9.409203e-01 1.063295e+00 4.792551e-01 9.351388e-01 1.554947e+00 1.290865e+00 1.747692e+00 4.898036e-01 8.056980e-01 1.753770e+00 2.206831e-01 2.509337e-02 8.636532e-02 1.172033e-01 8.269811e-02 6.506011e-02 1.148577e-01 1.542291e-01 2.142397e-01 2.166224e-01 8.557273e-02 1.446522e-01 3.361520e-01 9.038973e-03
<GCONST> 6.790060e+01
<STATE> 4
<MEAN> 39
 -9.992620e+00 1.558228e+00 2.335879e+00 4.161478e+00 6.412178e+00 -4.121718e-01 -3.720901e+00 -6.295070e+00 -6.912176e+00 7.676556e-01 4.451375e+00 -2.196854e+00 6.938187e+01 1.428700e-01 -2.296879e-02 2.448116e-01 2.780515e-01 4.422501e-02 -1.067959e-02 -4.965952e-02 -5.750730e-02 -7.001343e-02 -1.322798e-01 5.858815e-02 -1.180557e-02 1.413854e-01 -5.474179e-02 1.213521e-02 -4.099298e-02 -8.970349e-02 -2.090921e-02 5.437351e-02 4.315920e-02 5.488444e-02 6.540802e-02 -2.477530e-03 -1.685866e-02 -1.752228e-02 -3.869858e-02
<VARIANCE> 39
 7.141728e+01 2.654842e+01 3.584772e+01 8.630787e+01 2.287338e+01 1.840190e+01 3.311478e+01 5.590421e+01 5.120503e+01 2.424971e+01 2.255590e+01 1.503115e+01 3.024979e+01 7.292316e+00 2.407628e+00 2.985889e+00 7.895477e+00 3.545967e+00 2.031878e+00 3.688426e+00 8.781582e+00 6.611338e+00 2.178871e+00 3.217352e+00 1.545267e+00 2.635041e+00 1.148757e+00 3.892394e-01 5.018524e-01 1.471464e+00 7.471308e-01 3.294063e-01 5.561928e-01 1.706455e+00 1.168743e+00 4.338274e-01 6.940364e-01 2.678886e-01 3.771985e-01
<GCONST> 1.280075e+02
<TRANSP> 5
 0.000000e+00 1.000000e+00 0.000000e+00 0.000000e+00 0.000000e+00
 0.000000e+00 9.180262e-01 8.197381e-02 0.000000e+00 0.000000e+00
 0.000000e+00 0.000000e+00 8.928633e-01 1.071368e-01 0.000000e+00
 0.000000e+00 0.000000e+00 0.000000e+00 9.500008e-01 4.999920e-02
 0.000000e+00 0.000000e+00 0.000000e+00 0.000000e+00 0.000000e+00
<ENDHMM>
~h "g"
<BEGINHMM>
<NUMSTATES> 5
<STATE> 2
<MEAN> 39
 -1.258195e+01 7.313682e+00 3.023986e+00 4.401761e+00 2.539786e+00 3.824937e-01 -5.237085e-01 -2.257986e-01 9.793096e-01 3.076229e+00 2.043090e+00 -1.988438e+00 6.333210e+01 6.218480e-01 -1.457475e+00 -6.813632e-02 8.620602e-01 7.393717e-01 -4.574779e-01 -1.227936e+00 -1.698372e+00 -1.066157e+00 -1.864477e-01 8.365082e-01 -3.572773e-01 1.262667e+00 3.926446e-01 -6.599575e-01 -2.762888e-01 2.410380e-01 3.043900e-01 -3.986300e-01 -5.438513e-01 -6.279716e-01 -9.260217e-01 -2.894102e-01 8.255826e-02 -2.529217e-01 5.780751e-01
<VARIANCE> 39
 4.052533e+01 2.886912e+01 2.286837e+01 1.935567e+01 8.640523e+00 1.220125e+01 3.757840e+01 3.555822e+01 2.667174e+01 2.573524e+01 3.608775e+00 1.176820e+01 1.327245e+01 1.253773e+00 3.820842e+00 1.061083e+00 8.626134e-01 6.214333e-01 1.235995e+00 2.118174e+00 7.848391e+00 3.736825e+00 6.531707e-01 9.730038e-01 8.345004e-01 2.014547e+00 1.740428e-01 3.220428e-01 2.396003e-01 2.841899e-01 1.562335e-01 6.285397e-01 1.073215e+00 7.006333e-01 4.345111e-01 4.038373e-01 1.139411e-01 2.136942e-01 1.733160e-01
<GCONST> 9.958326e+01
<STATE> 3
<MEAN> 39
 -1.162374e+01 -4.712955e-01 9.691901e-01 4.338651e+00 5.347062e+00 8.632689e-01 -4.875659e+00 -8.096409e+00 -4.475681e+00 -6.947491e-02 4.997868e+00 -2.217425e+00 6.818574e+01 2.019887e+00 -1.400939e+00 6.710901e-01 2.523528e+00 1.944254e+00 -1.122049e+00 -2.006306e+00 -2.333818e+00 -3.736545e+00 -8.028412e-01 1.338873e+00 -6.823273e-01 2.217309e+00 2.018081e-01 3.818966e-01 5.894902e-02 5.637296e-01 1.507787e-01 -5.483462e-01 2.264788e-01 7.690282e-01 -5.633184e-01 -1.554242e-02 4.685523e-02 -2.044627e-02 -1.652033e-01
<VARIANCE> 39
 2.040369e+01 2.653676e+01 2.304907e+01 4.638401e+01 1.602090e+01 3.413682e+01 2.529997e+01 8.500453e+01 4.718680e+01 2.408826e+01 1.290904e+01 7.763763e+00 1.973243e+01 1.855089e+00 4.715468e+00 2.847401e+00 4.936253e+00 2.051392e+00 3.936010e+00 3.426113e+00 5.463202e+00 5.489515e+00 1.428890e+00 7.665830e-01 1.195370e+00 2.053642e+00 1.055225e-01 2.860575e-01 4.590488e-01 6.566310e-01 2.279860e-01 7.188041e-01 4.304758e-01 1.086093e+00 3.035866e-01 1.616826e-01 2.845064e-01 8.785232e-02 2.188152e-01
<GCONST> 1.105799e+02
<STATE> 4
<MEAN> 39
 -2.768734e+00 -9.423462e-01 2.595941e+00 1.336599e+01 9.617988e+00 -8.110238e+00 -9.503327e+00 -9.827938e+00 -2.280177e+01 -3.636150e+00 1.181026e+01 -3.071320e+00 7.418282e+01 -1.697081e-01 3.027769e-01 1.288228e-01 2.015804e-02 -4.568035e-02 7.510961e-02 1.700086e-01 2.924265e-01 1.885509e-01 -7.646641e-02 -1.061663e-01 4.332148e-02 -2.652090e-01 -3.138402e-01 1.706955e-01 -5.520746e-02 -3.956247e-01 -1.841624e-01 4.000289e-01 3.371385e-01 1.577172e-01 6.016648e-01 1.319636e-01 -2.375539e-01 1.281800e-01 -2.896895e-01
<VARIANCE> 39
 4.890386e+00 8.984245e+00 1.683953e+01 2.501837e+01 1.448174e+01 1.319271e+01 1.256372e+01 3.976619e+01 5.047826e+01 3.317540e+01 1.330847e+01 9.194049e+00 5.290512e+00 1.527236e+00 9.962947e-01 9.300879e-01 3.292110e+00 1.273159e+00 4.205770e+00 2.281167e+00 1.969893e+00 6.496882e+00 1.573281e+00 1.644619e+00 1.014659e+00 1.118644e+00 1.321674e-01 1.664096e-01 2.334218e-01 5.730936e-01 2.655065e-01 4.837959e-01 3.395432e-01 4.085594e-01 7.815585e-01 2.891678e-01 2.052962e-01 1.686236e-01 9.926649e-02
<GCONST> 9.751733e+01
<TRANSP> 5
 0.000000e+00 1.000000e+00 0.000000e+00 0.000000e+00 0.000000e+00
 0.000000e+00 1.882610e-01 8.117390e-01 0.000000e+00 0.000000e+00
 0.000000e+00 0.000000e+00 5.225250e-01 4.774751e-01 0.000000e+00
 0.000000e+00 0.000000e+00 0.000000e+00 9.046066e-01 9.539337e-02
 0.000000e+00 0.000000e+00 0.000000e+00 0.000000e+00 0.000000e+00
<ENDHMM>
~h "i"
<BEGINHMM>
<NUMSTATES> 5
<STATE> 2
<MEAN> 39
 -1.241984e+01 9.104572e+00 4.429761e+00 6.023264e+00 5.011136e+00 3.119606e+00 1.854896e+00 -1.156858e-01 -5.023636e-01 1.185778e+00 2.335305e+00 6.108186e-02 6.300524e+01 -1.937320e+00 -9.088472e-02 -1.997469e-01 -5.972762e-01 1.564234e-01 1.452906e+00 1.447377e+00 1.744244e+00 2.556335e+00 8.017745e-01 -4.423068e-01 6.250156e-01 -1.444664e+00 6.381878e-02 -6.396489e-01 -4.681419e-01 -2.071737e-01 -2.153749e-01 -3.664145e-01 -1.452651e-01 -2.016629e-02 -2.863543e-01 9.307133e-02 4.098684e-01 3.684504e-02 2.401542e-01
<VARIANCE> 39
 1.388588e+01 1.278066e+01 1.478068e+01 1.543853e+01 1.518467e+01 1.521234e+01 1.341958e+01 1.840413e+01 2.689473e+01 1.639199e+01 1.387952e+01 1.245543e+01 5.026459e+00 2.096408e+00 1.183838e+00 1.817451e+00 1.927111e+00 1.408312e+00 1.829505e+00 1.923998e+00 1.472108e+00 2.806287e+00 1.570599e+00 1.779381e+00 9.997995e-01 1.276644e+00 1.826550e-01 1.945762e-01 1.509687e-01 1.590991e-01 1.463022e-01 2.969246e-01 2.782628e-01 2.546244e-01 4.259324e-01 2.378283e-01 2.608513e-01 1.764312e-01 1.132862e-01
<GCONST> 9.215182e+01
<STATE> 3
<MEAN> 39
 -1.690965e+01 5.380852e+00 1.133577e+00 3.479902e+00 4.402912e+00 4.597749e+00 4.892575e+00 4.475725e+00 4.529449e+00 3.869729e+00 3.552771e+00 1.549929e+00 6.063037e+01 -1.217506e+00 -1.151025e+00 -1.244594e+00 -1.270635e+00 -1.043137e+00 -4.562924e-01 1.477425e-01 4.933743e-01 6.400722e-01 2.213736e-01 1.136433e-02 1.850576e-01 -6.353288e-01 3.087443e-01 -2.857056e-02 1.605552e-02 -2.659834e-02 -2.460501e-01 -4.791940e-01 -4.990101e-01 -5.433950e-01 -6.793544e-01 -3.358335e-01 -1.013313e-01 -2.725813e-01 2.627196e-01
<VARIANCE> 39
 1.027518e+01 1.168797e+01 1.151631e+01 1.082859e+01 1.200834e+01 1.545107e+01 1.540533e+01 1.839842e+01 1.873910e+01 1.364237e+01 1.007891e+01 9.682062e+00 2.784932e+00 6.335301e-01 6.479059e-01 8.534343e-01 9.276292e-01 1.138272e+00 1.306323e+00 1.707706e+00 1.576272e+00 1.964008e+00 1.380198e+00 1.128862e+00 1.071460e+00 2.542095e-01 1.557382e-01 1.623392e-01 1.977682e-01 1.754688e-01 2.071357e-01 2.770005e-01 3.134966e-01 2.222380e-01 3.342759e-01 2.263476e-01 2.389235e-01 1.784054e-01 9.809777e-02
<GCONST> 8.277189e+01
<STATE> 4
<MEAN> 39
 -2.026429e+01 1.460053e+00 -3.175192e+00 -1.403172e+00 -1.186059e-01 1.279066e+00 3.228364e+00 3.985651e+00 4.155024e+00 2.158870e+00 1.060881e+00 -2.596853e-01 5.920808e+01 -1.264861e-01 -1.482486e-01 -1.231772e-01 -1.644686e-01 -1.831121e-01 -9.932625e-02 -5.341029e-02 -8.947044e-03 -2.569450e-03 -5.944773e-02 -6.923254e-02 -8.332496e-02 -4.574804e-02 9.223661e-02 5.118740e-02 9.781408e-02 8.737763e-02 8.744110e-02 3.012916e-02 -1.772565e-02 -4.138739e-02 -8.207496e-02 -2.652599e-02 2.925669e-02 -7.916190e-03 6.948429e-02
<VARIANCE> 39
 4.775518e+00 7.478863e+00 7.731905e+00 6.736640e+00 6.583522e+00 6.410714e+00 8.489267e+00 1.131695e+01 1.032172e+01 8.120135e+00 7.642378e+00 7.013593e+00 2.023494e+00 2.329819e-01 3.029399e-01 4.993466e-01 7.120893e-01 8.462697e-01 8.244401e-01 9.586457e-01 1.082244e+00 1.053361e+00 8.827772e-01 7.211622e-01 7.348334e-01 1.233257e-01 6.095745e-02 7.921321e-02 1.197284e-01 1.589837e-01 1.758771e-01 1.664667e-01 2.031424e-01 2.203056e-01 2.602490e-01 2.137509e-01 1.510757e-01 1.553060e-01 4.151181e-02
<GCONST> 6.406415e+01
<TRANSP> 5
 0.000000e+00 1.000000e+00 0.000000e+00 0.000000e+00 0.000000e+00
 0.000000e+00 5.611228e-01 4.388772e-01 0.000000e+00 0.000000e+00
 0.000000e+00 0.000000e+00 5.181317e-01 4.818684e-01 0.000000e+00
 0.000000e+00 0.000000e+00 0.000000e+00 8.602372e-01 1.397627e-01
 0.000000e+00 0.000000e+00 0.000000e+00 0.000000e+00 0.000000e+00
<ENDHMM>
~h "j"
<BEGINHMM>
<NUMSTATES> 5
<STATE> 2
<MEAN> 39
 -1.219192e+00 -1.447306e+00 -4.738243e+00 2.377291e+00 1.907052e+00 -4.481373e+00 -2.349287e+00 -4.368282e+00 -1.480296e+01 1.296969e+00 1.320811e+01 1.530845e+00 7.454746e+01 -3.874701e-01 3.775056e-01 3.940907e-02 7.550815e-02 2.912004e-01 5.952085e-01 2.647265e-01 1.630009e-01 1.135645e+00 4.843098e-01 -2.317644e-01 -3.728495e-02 -4.172499e-01 -1.196520e-01 2.403718e-01 3.053707e-01 2.173806e-01 8.512639e-03 4.001519e-02 -1.691333e-02 -2.194428e-02 -3.056242e-02 -2.630206e-01 -2.186604e-01 -1.116974e-01 -1.489793e-01
<VARIANCE> 39
 2.793859e+00 1.440923e+01 8.374166e+00 1.237767e+01 2.722082e+01 1.859017e+01 1.804341e+01 1.773432e+01 1.453768e+01 1.364219e+01 1.219407e+01 2.462425e+00 3.881828e+00 2.695993e-02 2.185376e-01 1.880970e-01 4.145391e-01 4.982381e-01 4.408114e-01 7.166740e-01 6.603736e-01 1.440440e+00 4.121617e-01 5.013419e-01 3.829303e-01 4.237843e-02 1.009874e-02 4.108996e-02 5.114653e-02 7.700068e-02 5.957035e-02 1.289705e-01 5.074250e-02 2.179350e-01 1.346559e-01 1.118240e-01 1.324185e-01 7.499596e-02 1.151542e-02
<GCONST> 5.080471e+01
<STATE> 3
<MEAN> 39
 -2.486854e+00 -3.315917e-01 -2.909579e+00 3.119817e+00 4.579134e-01 -3.084273e+00 -7.018143e-01 -4.918253e+00 -1.209262e+01 2.559136e+00 1.143270e+01 6.813112e-01 7.358032e+01 -7.802525e-01 1.548984e+00 1.287811e+00 1.094698e+00 4.955693e-01 5.216900e-01 -3.269821e-01 -2.550631e-01 1.109826e+00 -3.039039e-01 -1.300002e+00 -5.909346e-01 -1.166286e+00 -1.611826e-01 5.043837e-01 4.167002e-01 3.337764e-01 2.426207e-01 -2.283290e-01 -5.783597e-01 1.038792e-01 7.621213e-01 -1.010803e-01 -7.723935e-01 -2.436602e-01 -3.229448e-01
<VARIANCE> 39
 2.450897e+00 1.537714e+01 8.047442e+00 6.942765e+00 2.216317e+01 1.569037e+01 1.995361e+01 1.566910e+01 1.097880e+01 1.298280e+01 7.539055e+00 3.521424e+00 4.095527e+00 1.139141e-01 8.366737e-01 5.470915e-01 4.402102e-01 5.029243e-01 6.852071e-01 1.389396e+00 6.053578e-01 1.892766e+00 6.524323e-01 2.895516e+00 3.979186e-01 2.763548e-01 2.875247e-02 5.304599e-02 3.586596e-02 7.987407e-02 9.657749e-02 1.524652e-01 2.366359e-01 1.484319e-01 3.218005e-01 1.206714e-01 1.496485e-01 6.637874e-02 1.535352e-02
<GCONST> 6.268374e+01
<STATE> 4
<MEAN> 39
 -7.440171e+00 8.940631e+00 4.770171e+00 9.694496e+00 5.497118e+00 -3.727375e+00 -7.092980e+00 -3.407134e+00 7.648000e-01 2.883202e+00 4.569872e-01 -3.011266e+00 6.652856e+01 -7.088977e-01 7.715808e-01 7.678800e-01 5.616572e-01 4.713366e-01 1.057303e-01 -8.235306e-02 5.268308e-01 1.338055e+00 1.147719e-01 -8.487169e-01 -1.392991e-01 -7.593346e-01 -6.634858e-03 -2.231149e-01 -1.675915e-01 -1.871164e-01 -8.770163e-02 1.908460e-01 3.887775e-01 1.240158e-01 -2.233977e-01 1.970949e-02 3.474351e-01 1.844960e-01 8.932928e-02
<VARIANCE> 39
 4.002611e+00 6.143520e+00 4.929327e+00 8.150674e+00 1.741836e+01 5.815872e+00 1.579966e+01 6.745003e+00 2.423666e+01 9.172811e+00 1.359874e+01 4.699422e+00 3.273129e+00 2.003985e-01 1.061798e+00 7.625966e-01 9.090122e-01 8.636975e-01 9.654819e-01 3.093380e+00 4.886557e-01 3.431528e+00 4.627672e-01 2.725423e+00 8.225830e-01 3.265936e-01 3.242487e-02 1.017629e-01 9.294192e-02 8.405308e-02 1.096675e-01 1.542238e-01 2.764580e-01 8.909786e-02 4.602911e-01 8.824875e-02 2.762392e-01 8.267803e-02 4.861776e-02
<GCONST> 6.871944e+01
<TRANSP> 5
 0.000000e+00 1.000000e+00 0.000000e+00 0.000000e+00 0.000000e+00
 0.000000e+00 6.029513e-01 3.970487e-01 0.000000e+00 0.000000e+00
 0.000000e+00 0.000000e+00 6.630815e-01 3.369185e-01 0.000000e+00
 0.000000e+00 0.000000e+00 0.000000e+00 8.879720e-01 1.120280e-01
 0.000000e+00 0.000000e+00 0.000000e+00 0.000000e+00 0.000000e+00
<ENDHMM>
~h "k"
<BEGINHMM>
<NUMSTATES> 5
<STATE> 2
<MEAN> 39
 -1.311139e+01 1.143750e+00 -2.412212e+00 -3.331069e+00 -9.002543e-01 -1.230498e-01 1.638597e+00 1.899584e-01 -2.928885e+00 2.053961e+00 5.111882e+00 -1.165747e-01 6.579566e+01 9.040194e-01 -3.555348e-02 -1.755428e-02 -1.672457e-01 -3.234690e-01 -3.293800e-01 -2.311861e-01 -2.708831e-01 -6.370806e-01 -1.145904e-01 3.395742e-01 -2.068796e-02 7.116472e-01 8.615641e-02 -7.590143e-03 -4.353403e-02 5.458147e-02 -4.134659e-02 -3.015773e-02 2.308648e-02 6.985109e-03 -2.240724e-02 2.847364e-02 4.090435e-02 -1.813613e-02 3.621023e-02
<VARIANCE> 39
 8.501173e+01 1.981864e+01 1.454755e+01 3.007534e+01 2.013263e+01 1.779569e+01 1.867807e+01 3.229250e+01 8.574293e+01 2.283549e+01 2.830931e+01 1.316447e+01 5.770489e+01 5.968439e+00 1.976005e+00 1.644582e+00 3.845346e+00 1.831752e+00 1.892189e+00 1.769319e+00 2.932043e+00 6.400784e+00 1.827375e+00 2.535019e+00 1.705600e+00 4.035442e+00 6.797174e-01 3.952905e-01 3.337999e-01 7.311586e-01 3.080271e-01 3.245100e-01 3.299681e-01 5.524101e-01 9.783626e-01 3.366613e-01 4.083453e-01 3.606077e-01 4.929000e-01
<GCONST> 1.170833e+02
<STATE> 3
<MEAN> 39
 -1.537562e+00 7.662296e-01 -4.100964e+00 -2.665153e+00 -5.028684e+00 -4.601887e+00 -1.226501e+00 -4.157002e+00 -9.255662e+00 2.106675e+00 9.331754e+00 -4.256472e-01 7.409770e+01 4.320568e-02 6.185442e-03 -3.157208e-01 -6.376927e-02 -2.876458e-01 8.042844e-02 5.851535e-01 -1.862456e-01 3.637098e-01 4.311526e-01 -1.863987e-01 1.639933e-01 -7.181019e-02 -3.938707e-01 2.102509e-01 2.860640e-01 3.075127e-02 2.785872e-01 9.489670e-02 1.180824e-01 2.516732e-02 4.584112e-02 -1.551110e-02 -1.064878e-01 5.703697e-02 -2.745243e-01
<VARIANCE> 39
 2.960820e+01 2.118441e+01 1.594092e+01 2.171663e+01 2.105428e+01 2.060217e+01 2.498149e+01 2.528890e+01 4.786333e+01 2.320832e+01 2.025897e+01 1.174524e+01 2.388500e+01 2.074187e-01 6.904983e-01 6.117800e-01 7.679759e-01 8.503995e-01 1.095285e+00 8.265933e-01 1.267861e+00 1.378657e+00 1.065196e+00 8.454821e-01 7.870706e-01 2.009149e-01 1.881506e-01 1.644909e-01 1.326208e-01 2.599648e-01 1.473489e-01 2.269238e-01 2.114851e-01 3.074055e-01 3.325914e-01 1.487375e-01 2.067665e-01 1.567231e-01 8.896859e-02
<GCONST> 8.596439e+01
<STATE> 4
<MEAN> 39
 -2.605957e+00 2.324525e+00 -2.994405e+00 -9.187563e-01 -2.900778e+00 -3.024047e+00 1.282238e+00 -4.457104e+00 -9.454298e+00 4.005814e+00 9.760592e+00 -3.501330e-01 7.242628e+01 -6.345090e-01 7.317260e-01 5.337842e-01 5.309768e-01 7.570413e-01 4.009628e-01 1.965789e-02 2.308619e-01 7.368123e-01 3.152478e-01 -2.954774e-01 -9.950942e-02 -7.307746e-01 -1.281549e-01 1.502735e-01 1.748377e-01 1.748819e-01 1.695139e-01 7.013226e-02 -2.054614e-01 1.018341e-01 3.032326e-01 -8.377241e-02 -1.853303e-01 -4.511200e-02 -1.451024e-01
<VARIANCE> 39
 1.995996e+01 1.796166e+01 1.266426e+01 1.966068e+01 2.138413e+01 2.616563e+01 1.928639e+01 2.160099e+01 3.109923e+01 1.614797e+01 1.926281e+01 7.018491e+00 1.672603e+01 2.370285e-01 7.391903e-01 7.145765e-01 1.028552e+00 9.764873e-01 1.138217e+00 1.727221e+00 1.248686e+00 1.644188e+00 7.495909e-01 1.021417e+00 6.261085e-01 2.875066e-01 2.219871e-02 1.080799e-01 9.145823e-02 1.483675e-01 1.201192e-01 1.832787e-01 2.487473e-01 1.891251e-01 2.279462e-01 1.254868e-01 2.149386e-01 7.970908e-02 2.778907e-02
<GCONST> 7.830921e+01
<TRANSP> 5
 0.000000e+00 1.000000e+00 0.000000e+00 0.000000e+00 0.000000e+00
 0.000000e+00 8.947616e-01 1.052385e-01 0.000000e+00 0.000000e+00
 0.000000e+00 0.000000e+00 5.473501e-01 4.526499e-01 0.000000e+00
 0.000000e+00 0.000000e+00 0.000000e+00 7.931031e-01 2.068969e-01
 0.000000e+00 0.000000e+00 0.000000e+00 0.000000e+00 0.000000e+00
<ENDHMM>
~h "l"
<BEGINHMM>
<NUMSTATES> 5
<STATE> 2
<MEAN> 39
 -4.919135e+00 2.990498e+00 5.106569e+00 1.102127e+01 4.630269e+00 -8.266798e+00 -6.561977e+00 -3.891961e+00 -1.108287e+01 5.276031e-01 6.054059e+00 -5.683003e+00 7.178238e+01 -9.623989e-02 8.108037e-01 3.899035e-01 -2.373339e-02 1.577331e-01 3.132086e-01 -7.762700e-01 -2.698996e-01 8.616164e-01 -1.595016e-01 -7.782565e-01 -4.107119e-01 -4.370469e-01 -1.059888e-01 2.036292e-01 -5.695441e-02 -3.019960e-01 -1.129385e-01 3.102421e-01 2.247973e-01 1.281742e-03 2.114424e-01 -9.722418e-02 -1.181983e-01 1.738369e-01 -1.784895e-01
<VARIANCE> 39
 1.366121e+01 2.238997e+01 2.756638e+01 7.687561e+01 4.846543e+01 3.030954e+01 5.751360e+01 2.752373e+01 6.606726e+01 3.216947e+01 3.296396e+01 2.722975e+01 1.411750e+01 5.211748e-01 1.715979e+00 1.495638e+00 2.762554e+00 1.151584e+00 2.254553e+00 1.836805e+00 1.064617e+00 2.963338e+00 1.510358e+00 1.699263e+00 1.096689e+00 8.432523e-01 9.810353e-02 2.756853e-01 1.611994e-01 2.574546e-01 2.490299e-01 3.363325e-01 4.142969e-01 2.188208e-01 4.928672e-01 3.472292e-01 2.619545e-01 1.919804e-01 1.154449e-01
<GCONST> 1.031229e+02
<STATE> 3
<MEAN> 39
 -5.674033e+00 8.190914e+00 4.519495e+00 5.327038e+00 2.109383e+00 -2.761259e+00 -4.239959e+00 -6.420440e+00 -8.238564e+00 -7.243088e-01 3.262614e+00 -3.356669e+00 6.891103e+01 -4.940389e-01 -2.577394e-01 -4.130076e-01 -6.193855e-01 6.553161e-02 5.797060e-01 4.459039e-01 1.507755e-01 -2.494992e-01 -2.266844e-01 4.940487e-01 8.062479e-01 -2.648475e-01 1.495436e-03 -3.722135e-01 -2.345156e-01 4.249256e-02 4.279374e-02 -1.669994e-01 4.318219e-02 1.318341e-02 -1.896241e-01 1.384904e-01 3.676404e-01 2.039422e-01 1.228761e-01
<VARIANCE> 39
 1.896536e+01 2.203328e+01 1.563856e+01 1.653348e+01 2.268839e+01 1.954842e+01 3.915094e+01 3.092576e+01 6.216516e+01 2.097350e+01 2.152977e+01 1.910032e+01 1.606241e+01 2.122892e+00 2.261863e+00 1.792613e+00 1.375666e+00 1.714836e+00 1.472590e+00 1.840262e+00 1.741388e+00 4.530305e+00 2.067194e+00 2.769590e+00 1.798512e+00 1.862424e+00 1.810800e-01 2.660122e-01 2.284677e-01 3.573253e-01 1.781605e-01 2.735252e-01 4.352190e-01 3.137489e-01 5.667889e-01 3.378178e-01 3.173180e-01 3.234799e-01 1.694347e-01
<GCONST> 1.052012e+02
<STATE> 4
<MEAN> 39
 -3.724616e+00 7.064234e-01 -5.977558e-01 5.427636e+00 3.973235e+00 -4.351115e+00 -4.607069e+00 -7.860330e+00 -1.459692e+01 3.095511e+00 1.343609e+01 -8.341933e-02 7.265614e+01 -1.519128e-01 -1.824820e-01 -3.521786e-01 -1.255778e-01 -8.436771e-02 3.229485e-01 4.338964e-01 6.450371e-02 2.920966e-01 3.817825e-01 2.807665e-01 3.009583e-02 -1.843314e-01 -9.985916e-02 2.321894e-01 1.327136e-01 1.052053e-02 9.732517e-03 1.143660e-01 6.194162e-02 8.322105e-02 2.953936e-01 5.402859e-03 -3.234105e-01 -1.295479e-01 -1.513913e-01
<VARIANCE> 39
 1.756401e+01 1.768984e+01 6.863335e+00 2.370199e+01 1.979900e+01 1.823384e+01 3.686535e+01 3.061224e+01 5.104612e+01 3.759092e+01 2.972522e+01 1.762096e+01 1.572540e+01 5.105895e-01 1.400529e+00 7.910869e-01 1.972510e+00 9.710224e-01 1.531074e+00 1.842201e+00 9.747648e-01 1.332960e+00 1.284370e+00 1.749771e+00 1.049864e+00 4.737109e-01 9.399837e-02 1.211279e-01 2.035283e-01 3.526846e-01 1.945630e-01 1.893573e-01 3.466869e-01 2.455663e-01 4.204000e-01 2.163037e-01 2.267183e-01 2.501324e-01 7.198073e-02
<GCONST> 9.271855e+01
<TRANSP> 5
 0.000000e+00 1.000000e+00 0.000000e+00 0.000000e+00 0.000000e+00
 0.000000e+00 6.483724e-01 3.516276e-01 0.000000e+00 0.000000e+00
 0.000000e+00 0.000000e+00 7.106140e-01 2.893859e-01 0.000000e+00
 0.000000e+00 0.000000e+00 0.000000e+00 7.469746e-01 2.530254e-01
 0.000000e+00 0.000000e+00 0.000000e+00 0.000000e+00 0.000000e+00
<ENDHMM>
~h "m"
<BEGINHMM>
<NUMSTATES> 5
<STATE> 2
<MEAN> 39
 -2.058567e+01 1.609558e+00 -3.050956e+00 -1.120426e+00 -4.796807e-01 1.331305e+00 3.465585e+00 4.043472e+00 4.054157e+00 2.182720e+00 1.300023e+00 7.477219e-02 5.879451e+01 -4.187736e-02 -2.907952e-02 -3.054858e-02 -5.011203e-02 -4.369480e-02 -3.444034e-02 -1.391725e-02 -5.208123e-03 -2.114034e-02 -1.845701e-02 -1.185248e-02 -2.830459e-02 -2.094499e-02 2.423114e-02 2.934658e-02 4.470076e-02 4.393246e-02 5.221379e-02 5.106188e-02 2.143168e-02 3.651747e-03 3.618951e-03 1.673714e-02 1.715157e-02 1.698188e-02 1.459568e-02
<VARIANCE> 39
 1.365757e+00 1.401818e+00 2.964663e+00 4.722186e+00 4.730327e+00 5.676919e+00 7.955622e+00 1.055495e+01 9.972469e+00 7.329395e+00 6.456380e+00 6.501695e+00 1.447546e+00 1.116020e-01 1.527910e-01 2.619618e-01 4.819549e-01 4.936067e-01 5.989611e-01 7.791502e-01 9.124257e-01 9.167340e-01 8.567596e-01 6.634017e-01 6.609803e-01 3.119848e-02 2.306689e-02 3.818716e-02 6.292088e-02 1.064272e-01 1.067479e-01 1.225871e-01 1.632439e-01 1.858584e-01 1.910844e-01 1.850310e-01 1.381341e-01 1.365610e-01 6.859423e-03
<GCONST> 4.668404e+01
<STATE> 3
<MEAN> 39
 -2.059875e+01 1.865781e+00 -2.620935e+00 -6.644308e-01 1.750555e-01 1.920734e+00 3.724106e+00 3.742234e+00 4.163900e+00 2.567389e+00 1.420558e+00 -1.182089e-01 5.881565e+01 5.048472e-01 5.017831e-01 1.284907e+00 7.749577e-01 5.337943e-01 1.978651e-01 -3.849465e-01 -3.660359e-01 -6.374959e-01 -1.804232e-01 1.888606e-01 -6.408034e-02 4.442154e-01 4.439090e-01 2.550886e-01 6.909274e-01 3.530117e-01 1.310558e-01 -1.416417e-01 -3.251805e-01 -3.873358e-01 -5.673137e-01 -2.809512e-01 1.453394e-02 -2.271968e-01 3.908891e-01
<VARIANCE> 39
 7.526571e-01 1.397553e+00 3.125553e+00 3.887283e+00 5.426191e+00 5.137691e+00 9.239684e+00 1.193356e+01 8.200782e+00 7.134201e+00 6.675852e+00 6.440322e+00 1.447546e+00 1.235155e+00 1.753963e+00 1.748189e+00 1.827611e+00 6.915837e-01 1.246592e+00 1.356268e+00 1.703242e+00 1.540481e+00 9.902049e-01 8.850316e-01 1.010816e+00 2.856382e-01 2.450435e-01 3.358787e-01 1.949706e-01 4.926526e-01 1.338094e-01 2.617868e-01 2.735321e-01 4.189624e-01 4.425721e-01 2.204689e-01 1.873836e-01 2.401712e-01 4.739328e-02
<GCONST> 7.330183e+01
<STATE> 4
<MEAN> 39
 -1.926874e+01 1.932581e+00 6.483660e+00 -5.501131e-01 1.661002e+00 3.393282e+00 6.174699e-01 5.773954e-01 4.141837e-02 6.133916e-01 3.137206e+00 -1.100199e+00 6.283398e+01 1.648390e+00 1.314048e+00 1.189877e+00 1.252180e+00 6.366589e-01 -4.408375e-01 -8.695653e-01 -1.353909e+00 -1.524566e+00 -6.229364e-01 1.530048e-01 -2.708673e-02 8.708980e-01 2.342609e-01 -1.083717e-03 -3.172430e-01 8.110729e-02 -4.213332e-02 -2.464244e-01 -7.734358e-02 -1.622101e-01 -1.946691e-01 -3.638870e-02 1.109722e-01 4.104981e-02 7.105651e-02
<VARIANCE> 39
 4.544518e+01 7.458761e+01 3.901965e+01 6.250209e+01 1.519882e+01 1.386623e+01 1.966870e+01 2.553736e+01 2.330576e+01 1.075710e+01 1.966532e+01 9.699658e+00 8.645695e+00 4.425507e+00 6.850483e+00 6.874432e+00 6.226675e+00 1.114071e+00 1.821671e+00 2.402324e+00 2.862584e+00 3.684762e+00 1.559656e+00 2.047098e+00 1.361278e+00 1.371738e+00 5.301544e-01 9.385448e-01 9.799757e-01 9.561310e-01 2.272647e-01 2.865594e-01 5.145357e-01 4.229681e-01 4.660004e-01 3.258380e-01 3.546434e-01 2.269488e-01 1.823090e-01
<GCONST> 1.138748e+02
<TRANSP> 5
 0.000000e+00 1.000000e+00 0.000000e+00 0.000000e+00 0.000000e+00
 0.000000e+00 9.431899e-01 5.681015e-02 0.000000e+00 0.000000e+00
 0.000000e+00 0.000000e+00 5.683148e-01 4.316852e-01 0.000000e+00
 0.000000e+00 0.000000e+00 0.000000e+00 6.593627e-01 3.406372e-01
 0.000000e+00 0.000000e+00 0.000000e+00 0.000000e+00 0.000000e+00
<ENDHMM>
~h "n"
<BEGINHMM>
<NUMSTATES> 5
<STATE> 2
<MEAN> 39
 -8.959812e+00 3.821404e+00 5.471406e+00 7.745718e+00 6.643718e+00 -2.196266e+00 -5.476821e+00 -3.514139e+00 -7.745234e+00 -2.676661e+00 5.136645e+00 -1.894262e+00 6.873650e+01 7.200674e-01 -2.508451e-01 2.144620e-01 8.502613e-01 1.040033e+00 -4.606238e-01 -1.397811e+00 -4.653446e-01 -7.287481e-01 -4.291439e-01 5.983297e-01 1.885481e-03 6.926469e-01 -6.017083e-02 2.615618e-01 -9.619154e-03 -1.309895e-01 -1.198421e-01 5.739243e-02 9.446140e-02 2.250152e-02 1.160277e-01 6.586269e-02 -3.203375e-02 7.405210e-02 -1.786410e-01
<VARIANCE> 39
 4.929660e+01 5.122136e+01 3.296608e+01 6.190184e+01 7.373492e+01 2.666511e+01 7.020590e+01 2.921863e+01 5.275507e+01 4.298952e+01 2.104603e+01 2.006238e+01 2.229444e+01 2.303929e+00 6.387896e+00 2.964408e+00 3.172677e+00 3.555505e+00 2.977239e+00 4.041183e+00 3.217587e+00 6.070668e+00 2.746526e+00 2.174037e+00 2.149105e+00 1.667510e+00 3.558557e-01 9.457176e-01 4.806267e-01 6.983747e-01 8.034243e-01 6.193700e-01 9.848881e-01 6.015418e-01 8.495092e-01 5.234897e-01 4.108919e-01 3.412714e-01 2.685625e-01
<GCONST> 1.264489e+02
<STATE> 3
<MEAN> 39
 -4.957521e+00 8.635239e+00 5.537618e+00 5.389290e+00 5.855227e+00 -3.234607e+00 -1.015655e+01 -4.229002e+00 -7.483250e+00 -3.608511e+00 5.798420e+00 -2.617423e+00 6.967165e+01 8.361611e-02 -9.598441e-03 -2.879208e-01 -5.797879e-01 -5.581412e-01 -3.947037e-02 3.868157e-01 2.120063e-01 1.279228e-01 1.145661e-01 3.023101e-02 5.605119e-02 6.695819e-02 -1.505353e-04 -2.045613e-01 -1.093732e-01 6.883539e-02 3.948457e-02 -4.792517e-02 8.283444e-02 6.270193e-02 -1.072770e-01 7.284023e-04 1.140825e-01 1.800792e-02 6.730728e-02
<VARIANCE> 39
 1.065512e+01 2.750278e+01 2.602018e+01 3.160711e+01 3.543428e+01 2.527036e+01 3.863651e+01 2.353640e+01 3.903030e+01 2.504730e+01 3.106915e+01 2.001573e+01 1.348693e+01 5.382859e-01 3.070697e+00 2.004037e+00 2.696626e+00 2.174534e+00 2.257070e+00 2.906020e+00 1.861954e+00 4.812587e+00 1.899025e+00 4.501494e+00 1.662650e+00 1.071193e+00 7.712223e-02 3.822829e-01 2.552575e-01 4.472260e-01 4.245858e-01 3.507912e-01 5.002881e-01 3.549749e-01 8.696248e-01 3.386487e-01 7.101473e-01 3.002891e-01 1.202702e-01
<GCONST> 1.091502e+02
<STATE> 4
<MEAN> 39
 -3.639419e+00 3.743876e+00 -1.503552e-01 2.893310e+00 2.595046e+00 -3.271483e+00 -4.104424e+00 -4.643468e+00 -9.503314e+00 8.369992e-01 8.650338e+00 -9.356892e-02 7.182767e+01 -2.144120e-01 3.645558e-02 -6.569661e-02 1.860333e-01 1.347071e-01 2.366155e-01 3.769731e-01 -1.377045e-01 2.015732e-01 3.298612e-01 6.484181e-03 1.820982e-01 -2.133619e-01 -9.933981e-02 7.108954e-02 1.214298e-01 2.600458e-02 5.191221e-02 5.879393e-02 2.633236e-02 2.324533e-02 9.122796e-02 7.903646e-03 -1.204114e-01 -5.387191e-02 -7.147883e-02
<VARIANCE> 39
 1.340056e+01 2.258994e+01 2.264156e+01 2.155334e+01 2.331575e+01 1.700924e+01 2.479114e+01 3.112308e+01 4.358522e+01 2.380702e+01 3.793645e+01 2.307676e+01 1.650888e+01 4.100568e-01 1.366893e+00 1.216568e+00 7.737433e-01 5.526842e-01 9.094624e-01 1.436687e+00 1.484078e+00 2.022053e+00 8.855563e-01 1.729294e+00 8.778062e-01 5.902503e-01 3.344283e-02 2.547066e-01 1.735032e-01 1.409006e-01 1.014837e-01 1.615347e-01 2.084323e-01 2.251257e-01 3.797144e-01 1.750914e-01 3.272992e-01 1.567671e-01 6.695803e-02
<GCONST> 8.860632e+01
<TRANSP> 5
 0.000000e+00 1.000000e+00 0.000000e+00 0.000000e+00 0.000000e+00
 0.000000e+00 7.020935e-01 2.979065e-01 0.000000e+00 0.000000e+00
 0.000000e+00 0.000000e+00 8.203840e-01 1.796160e-01 0.000000e+00
 0.000000e+00 0.000000e+00 0.000000e+00 7.782404e-01 2.217596e-01
 0.000000e+00 0.000000e+00 0.000000e+00 0.000000e+00 0.000000e+00
<ENDHMM>
~h "o"
<BEGINHMM>
<NUMSTATES> 5
<STATE> 2
<MEAN> 39
 -4.270427e+00 8.632056e+00 2.002660e+00 1.768533e+00 -1.255281e+00 -5.302524e+00 -2.542677e+00 -2.752452e+00 -8.820473e+00 -1.575949e+00 4.929095e+00 -2.605237e+00 6.934032e+01 -1.332702e+00 2.231408e-01 6.184136e-01 6.991937e-01 6.964275e-01 8.741224e-01 3.834353e-01 6.302041e-01 1.529930e+00 7.661869e-01 -5.174993e-01 -1.243065e-01 -1.080315e+00 -1.618280e-01 -4.054669e-01 -2.592106e-01 6.611280e-02 2.153814e-01 2.534481e-01 1.875111e-01 2.128809e-03 1.546003e-01 1.483418e-01 1.445988e-02 4.819993e-02 -3.295874e-03
<VARIANCE> 39
 1.320274e+01 1.035429e+01 1.721356e+01 1.302139e+01 2.301270e+01 2.039942e+01 1.946098e+01 1.557299e+01 4.525928e+01 3.594131e+01 1.780271e+01 1.051884e+01 1.138034e+01 2.587264e+00 8.459061e-01 1.277860e+00 1.995009e+00 3.388374e+00 2.603878e+00 1.170395e+00 2.098016e+00 3.924677e+00 8.195853e-01 1.400805e+00 1.437835e+00 1.278027e+00 1.044379e-01 2.886694e-01 3.086093e-01 2.456098e-01 3.520714e-01 3.372904e-01 2.655545e-01 2.746036e-01 3.677353e-01 2.516974e-01 2.535701e-01 2.093671e-01 8.738630e-02
<GCONST> 9.725658e+01
<STATE> 3
<MEAN> 39
 -1.050323e+01 7.507345e+00 4.244466e+00 7.824605e+00 5.219989e+00 1.293708e+00 -2.316245e-01 -1.297556e+00 -2.471915e-01 3.073815e+00 1.440670e+00 -4.502364e+00 6.486785e+01 -1.584908e+00 -5.976560e-01 -3.446900e-01 -1.394402e-01 5.726401e-01 1.287664e+00 1.284120e+00 1.172561e+00 1.416935e+00 3.015939e-01 -3.210411e-01 7.107692e-01 -1.001353e+00 7.249198e-02 -2.609791e-01 -3.170233e-01 -3.376786e-01 -3.643648e-01 -3.132370e-01 -5.888733e-03 7.785192e-03 -3.003158e-01 4.373374e-03 3.244333e-01 1.297176e-01 1.275129e-01
<VARIANCE> 39
 1.531523e+01 7.445681e+00 8.419140e+00 1.706270e+01 1.678050e+01 1.460348e+01 2.227306e+01 2.180258e+01 4.043120e+01 2.465651e+01 9.033779e+00 2.280784e+01 1.072177e+01 1.569895e+00 1.175444e+00 8.547278e-01 1.248461e+00 1.303391e+00 1.168774e+00 1.168793e+00 1.526905e+00 2.373850e+00 9.916913e-01 1.034735e+00 1.607487e+00 6.572394e-01 1.485200e-01 2.542040e-01 1.905526e-01 1.509881e-01 3.504588e-01 3.331476e-01 3.510083e-01 2.614442e-01 3.839639e-01 2.013369e-01 1.652357e-01 2.397191e-01 1.201902e-01
<GCONST> 9.102744e+01
<STATE> 4
<MEAN> 39
 -1.823911e+01 3.499237e+00 -1.075034e+00 9.556078e-01 1.406071e+00 2.608853e+00 4.427553e+00 5.165425e+00 4.897272e+00 3.672796e+00 3.113588e+00 9.567341e-01 6.008543e+01 -8.904094e-01 -1.074622e+00 -6.987570e-01 -7.448844e-01 -2.584170e-01 -2.826276e-01 -1.516524e-01 1.310501e-01 5.797438e-03 -6.539801e-02 1.020589e-02 9.558095e-03 -2.064400e-01 5.958484e-01 2.060146e-01 2.036790e-01 2.399403e-02 -2.544195e-02 -3.702264e-01 -4.232053e-01 -5.095572e-01 -6.066838e-01 -3.174597e-01 -2.990603e-02 -1.884321e-01 4.681631e-01
<VARIANCE> 39
 1.490751e+01 4.756598e+00 7.111488e+00 1.053220e+01 1.132274e+01 9.963305e+00 7.829269e+00 1.292900e+01 3.709224e+01 1.613102e+01 7.729661e+00 7.780604e+00 8.186884e+00 9.227289e-01 7.168776e-01 1.056868e+00 1.301592e+00 1.449785e+00 1.233219e+00 1.267892e+00 1.518555e+00 1.692566e+00 1.341448e+00 9.473013e-01 8.544701e-01 9.306986e-01 2.811120e-01 1.523755e-01 1.513617e-01 1.902101e-01 2.320838e-01 2.752259e-01 1.857081e-01 1.828777e-01 4.005702e-01 2.537067e-01 1.645890e-01 2.121799e-01 1.694473e-01
<GCONST> 8.362202e+01
<TRANSP> 5
 0.000000e+00 1.000000e+00 0.000000e+00 0.000000e+00 0.000000e+00
 0.000000e+00 6.687512e-01 3.312488e-01 0.000000e+00 0.000000e+00
 0.000000e+00 0.000000e+00 6.581305e-01 3.418695e-01 0.000000e+00
 0.000000e+00 0.000000e+00 0.000000e+00 7.437481e-01 2.562519e-01
 0.000000e+00 0.000000e+00 0.000000e+00 0.000000e+00 0.000000e+00
<ENDHMM>
~h "p"
<BEGINHMM>
<NUMSTATES> 5
<STATE> 2
<MEAN> 39
 -2.063124e+01 1.471283e+00 -3.125625e+00 -1.046455e+00 -1.260435e-01 1.758615e+00 3.964924e+00 4.773314e+00 4.964930e+00 2.673759e+00 1.337172e+00 -2.002724e-01 5.877895e+01 -1.209448e-01 -9.891256e-02 -4.984117e-02 -8.684067e-02 -1.375957e-01 -1.499120e-01 -1.107022e-01 -9.175290e-02 -1.171715e-01 -1.317641e-01 -1.338709e-01 -1.178901e-01 -5.723435e-02 6.023531e-02 6.242738e-02 6.187502e-02 5.697559e-02 6.662380e-02 5.310269e-02 2.813889e-02 1.170443e-02 -4.574801e-03 1.393009e-02 4.562565e-02 3.549862e-02 3.290584e-02
<VARIANCE> 39
 1.141484e+00 1.606484e+00 3.247295e+00 4.854989e+00 5.517568e+00 6.734816e+00 7.279326e+00 8.429918e+00 8.918458e+00 7.803796e+00 7.497704e+00 6.948770e+00 1.447546e+00 1.171643e-01 1.715802e-01 3.203574e-01 5.069655e-01 6.791773e-01 8.426451e-01 8.019664e-01 8.931839e-01 9.140859e-01 8.244250e-01 8.557370e-01 7.404674e-01 3.380746e-02 2.598360e-02 4.138353e-02 6.695647e-02 1.057237e-01 1.399864e-01 1.644455e-01 1.719316e-01 1.908370e-01 1.951338e-01 1.745473e-01 1.658807e-01 1.473871e-01 9.213579e-03
<GCONST> 4.984469e+01
<STATE> 3
<MEAN> 39
 -2.116048e+01 1.234999e+00 -2.827705e+00 -1.146327e+00 -2.438346e-01 1.390984e+00 3.828206e+00 4.547201e+00 3.915753e+00 2.028813e+00 1.642377e+00 1.057114e-01 5.863118e+01 2.917039e-02 4.937501e-02 8.944458e-02 1.146516e-01 1.541157e-01 1.252348e-01 4.924526e-02 3.925671e-02 -2.298506e-01 -2.583750e-01 -8.283713e-02 -9.678362e-02 1.527505e-02 4.504261e-01 1.691641e-01 1.770776e-01 -3.907142e-02 1.058568e-01 -2.001135e-01 -2.211164e-01 -3.324208e-01 -4.623799e-01 -1.354242e-01 6.456779e-02 1.123932e-02 3.970719e-01
<VARIANCE> 39
 1.664141e+00 1.661402e+00 4.711003e+00 8.835379e+00 8.073859e+00 4.750852e+00 6.861612e+00 8.082850e+00 8.314795e+00 7.101605e+00 6.138577e+00 6.066466e+00 1.447546e+00 2.075380e-01 2.188735e-01 5.324845e-01 8.850166e-01 1.045817e+00 7.309049e-01 9.857490e-01 1.073782e+00 1.174477e+00 5.971977e-01 5.386524e-01 6.196852e-01 8.737218e-02 1.203318e-01 1.580563e-01 2.225984e-01 3.431121e-01 2.645348e-01 2.118784e-01 3.001701e-01 2.966155e-01 3.738731e-01 1.582012e-01 1.804887e-01 9.667278e-02 9.998010e-02
<GCONST> 6.319204e+01
<STATE> 4
<MEAN> 39
 -2.066409e+01 1.628249e+00 -2.588214e+00 -9.410076e-01 -5.765341e-02 1.571455e+00 3.718516e+00 4.495540e+00 4.082598e+00 2.228132e+00 1.201917e+00 -5.709978e-01 5.879979e+01 1.671804e+00 4.478631e-01 7.517191e-01 -3.287049e-01 5.118117e-01 -9.557433e-01 -1.040204e+00 -1.613890e+00 -2.399446e+00 -8.102035e-01 4.483112e-01 1.308861e-01 1.693809e+00 1.000167e+00 1.701571e-01 2.432436e-01 5.501171e-02 -2.656027e-02 -4.799709e-01 -2.681748e-01 -4.843801e-01 -9.256386e-01 -1.753480e-01 3.364948e-01 6.863156e-02 8.210075e-01
<VARIANCE> 39
 1.765088e+00 2.146697e+00 3.977368e+00 6.477314e+00 5.627761e+00 5.314764e+00 7.895935e+00 9.916331e+00 1.088458e+01 9.145530e+00 8.198105e+00 8.867723e+00 1.447546e+00 1.403181e+00 1.898937e+00 1.579228e+00 3.646340e+00 1.097518e+00 1.831269e+00 2.391018e+00 2.425884e+00 3.621263e+00 1.021654e+00 1.582799e+00 1.204953e+00 1.749184e+00 2.098291e-01 1.863276e-01 2.123510e-01 5.589823e-01 2.500561e-01 3.463525e-01 2.916373e-01 3.885026e-01 3.411975e-01 2.574587e-01 1.838665e-01 2.145262e-01 1.364384e-01
<GCONST> 8.331964e+01
<TRANSP> 5
 0.000000e+00 1.000000e+00 0.000000e+00 0.000000e+00 0.000000e+00
 0.000000e+00 9.220707e-01 7.792931e-02 0.000000e+00 0.000000e+00
 0.000000e+00 0.000000e+00 3.264908e-01 6.735093e-01 0.000000e+00
 0.000000e+00 0.000000e+00 0.000000e+00 5.458558e-01 4.541442e-01
 0.000000e+00 0.000000e+00 0.000000e+00 0.000000e+00 0.000000e+00
<ENDHMM>
~h "r"
<BEGINHMM>
<NUMSTATES> 5
<STATE> 2
<MEAN> 39
 -5.971190e+00 1.097980e+00 -4.331292e+00 -1.722388e+00 -8.355346e-01 -2.064312e+00 3.197166e+00 -5.251722e+00 -1.173897e+01 7.800508e-01 6.932760e+00 1.782194e+00 7.076200e+01 1.582552e+00 1.915218e-01 -9.071707e-02 3.780305e-01 -2.086251e-01 -5.663306e-01 -2.909723e-01 -6.141032e-01 -9.607981e-01 -4.803343e-02 2.571267e-01 -1.593805e-01 1.026887e+00 -4.005067e-01 1.538848e-01 1.932894e-01 1.422707e-01 6.337291e-02 1.006253e-01 -1.130143e-01 2.866688e-01 5.788071e-01 -3.056119e-02 -2.350714e-01 -1.613293e-01 -3.739956e-01
<VARIANCE> 39
 4.738709e+01 1.391126e+01 1.192168e+01 2.296803e+01 2.234777e+01 2.474738e+01 1.967682e+01 2.708893e+01 4.035595e+01 3.247798e+01 2.371782e+01 1.805822e+01 2.632165e+01 3.563740e+00 1.433371e+00 1.315658e+00 1.998259e+00 1.616797e+00 1.957539e+00 1.409037e+00 2.536214e+00 4.679104e+00 2.573224e+00 2.133217e+00 1.523962e+00 2.171613e+00 5.931684e-01 3.098975e-01 3.028187e-01 5.163601e-01 3.215050e-01 4.597320e-01 2.086110e-01 4.204614e-01 5.504214e-01 4.329391e-01 3.311523e-01 2.613851e-01 2.944412e-01
<GCONST> 1.093503e+02
<STATE> 3
<MEAN> 39
 -7.056148e+00 4.419722e+00 -1.673573e+00 1.989513e-01 1.531298e+00 -1.236881e+00 6.504972e-02 -4.929779e+00 -7.444160e+00 4.338848e-02 4.221508e+00 -5.330598e-02 6.880017e+01 -1.446641e+00 6.742582e-01 1.066785e+00 3.445607e-01 6.541694e-01 8.693061e-01 -5.347645e-01 4.373652e-01 1.634331e+00 1.487342e-02 -4.834628e-01 -1.240809e-01 -1.230794e+00 -2.692628e-01 -2.161397e-01 -1.516142e-02 -3.177028e-02 -5.623827e-02 1.045289e-01 2.120255e-01 2.824332e-01 2.151509e-01 1.215990e-01 1.942212e-01 1.819583e-01 -1.091583e-01
<VARIANCE> 39
 4.405610e+01 1.521248e+01 1.625353e+01 1.364112e+01 2.783858e+01 2.947902e+01 1.910971e+01 2.919850e+01 4.638676e+01 3.482336e+01 1.531756e+01 1.984430e+01 2.208007e+01 3.419278e+00 2.966648e+00 1.932460e+00 1.261983e+00 1.270121e+00 2.191855e+00 2.115610e+00 3.562474e+00 3.656792e+00 2.226969e+00 2.161775e+00 1.633577e+00 2.035084e+00 7.837908e-01 3.712967e-01 3.558332e-01 2.921258e-01 2.537295e-01 4.852105e-01 4.049146e-01 5.586849e-01 5.507894e-01 4.462313e-01 3.799602e-01 3.320178e-01 2.971873e-01
<GCONST> 1.113748e+02
<STATE> 4
<MEAN> 39
 -1.455057e+01 3.650561e+00 -7.754299e-01 7.798600e-01 1.621099e+00 9.194459e-01 1.398130e+00 2.368586e-01 1.661820e-01 2.351055e+00 3.753129e+00 3.797286e-01 6.319299e+01 -7.698122e-01 -2.016368e-01 2.301328e-01 -6.078714e-02 -1.519135e-01 -2.719409e-01 -1.281144e-01 5.587205e-01 4.026185e-01 -3.626096e-01 -3.681654e-01 -9.077275e-03 -4.284049e-01 1.497217e-01 -1.146226e-01 -4.052025e-02 -2.056793e-02 2.551852e-02 -5.349507e-03 -1.027225e-02 -1.342248e-01 -2.566251e-01 -4.889898e-02 7.327087e-05 1.637294e-02 1.741963e-01
<VARIANCE> 39
 4.725682e+01 1.414713e+01 1.013034e+01 7.841409e+00 1.517488e+01 1.850831e+01 1.537457e+01 2.774250e+01 5.528631e+01 1.827897e+01 1.368584e+01 9.017755e+00 2.440845e+01 4.326601e+00 1.812743e+00 1.971286e+00 9.949496e-01 1.349320e+00 1.853258e+00 1.401553e+00 3.026453e+00 5.039640e+00 1.895748e+00 1.881855e+00 1.126240e+00 2.691775e+00 5.671856e-01 3.217794e-01 2.094738e-01 2.168745e-01 1.958970e-01 3.808719e-01 2.903756e-01 4.272663e-01 4.840245e-01 2.653467e-01 2.442727e-01 2.436016e-01 2.316608e-01
<GCONST> 1.024612e+02
<TRANSP> 5
 0.000000e+00 1.000000e+00 0.000000e+00 0.000000e+00 0.000000e+00
 0.000000e+00 7.851074e-01 2.148926e-01 0.000000e+00 0.000000e+00
 0.000000e+00 0.000000e+00 5.818708e-01 4.181293e-01 0.000000e+00
 0.000000e+00 0.000000e+00 0.000000e+00 6.323877e-01 3.676123e-01
 0.000000e+00 0.000000e+00 0.000000e+00 0.000000e+00 0.000000e+00
<ENDHMM>
~h "s"
<BEGINHMM>
<NUMSTATES> 5
<STATE> 2
<MEAN> 39
 -1.631600e+01 2.403069e+00 -4.277281e-01 6.427340e-01 6.625580e-01 5.815284e-01 7.886208e-01 4.227432e-01 -1.186709e+00 -2.599861e-02 3.257715e+00 2.773265e-01 6.233195e+01 5.280204e-01 -4.363534e-01 1.967603e+00 3.296738e-01 1.886070e-01 1.861241e-01 -9.647949e-01 -7.897696e-01 -1.409423e+00 -3.387803e-01 8.722177e-01 -3.797928e-01 1.110692e+00 -2.127417e-01 -4.736687e-01 6.636481e-01 -3.023952e-01 4.021126e-03 7.943408e-02 -2.517913e-01 -1.355995e-01 -2.289806e-01 -1.227473e-02 1.171201e-01 -2.108617e-01 3.490123e-01
<VARIANCE> 39
 4.435381e+01 2.220171e+01 1.830441e+01 1.778955e+01 1.580137e+01 1.204877e+01 1.919921e+01 3.252536e+01 7.566336e+01 1.930327e+01 1.413378e+01 8.006299e+00 2.279108e+01 4.963778e+00 4.430328e+00 3.616871e+00 3.595004e+00 2.552911e+00 1.369932e+00 2.844014e+00 4.395540e+00 6.244084e+00 3.379639e+00 1.409952e+00 1.236848e+00 1.389427e+00 4.977095e-01 3.767101e-01 6.878613e-01 4.475800e-01 3.293132e-01 2.891092e-01 4.300602e-01 4.833913e-01 8.151478e-01 4.642220e-01 3.065761e-01 1.915769e-01 1.553072e-01
<GCONST> 1.121076e+02
<STATE> 3
<MEAN> 39
 -9.851398e+00 -6.598880e-01 5.975780e+00 3.104271e+00 3.532287e+00 -2.178779e-01 -4.030228e+00 -4.582922e+00 -1.229590e+01 -3.381035e+00 8.004183e+00 -1.040365e+00 7.054547e+01 -1.554831e+00 -2.018154e+00 2.295375e+00 -1.001181e+00 5.612255e-01 6.072357e-01 -5.665518e-01 5.403402e-02 5.553277e-01 5.914878e-01 2.966171e-01 -3.715919e-01 9.010511e-01 -6.792491e-01 -1.810112e-01 3.542650e-02 -5.005276e-01 -8.125618e-03 4.830397e-02 3.118837e-01 2.336017e-01 7.005804e-01 2.571151e-01 -3.028924e-01 -1.004319e-02 -1.815224e-01
<VARIANCE> 39
 9.585770e+01 4.054355e+01 5.325295e+01 7.670661e+01 4.605764e+01 2.304136e+01 2.539672e+01 4.714860e+01 7.542908e+01 3.631263e+01 1.826099e+01 1.748537e+01 1.696098e+01 6.378732e+00 2.755250e+00 6.771272e+00 4.384129e+00 1.413691e+00 2.219146e+00 2.565811e+00 2.527311e+00 7.739667e+00 3.153346e+00 2.048670e+00 1.626590e+00 1.265439e+00 5.732046e-01 4.810535e-01 8.367545e-01 9.455503e-01 4.679193e-01 4.279260e-01 5.506977e-01 5.098441e-01 7.598137e-01 4.730003e-01 3.665390e-01 3.112178e-01 9.413879e-02
<GCONST> 1.227706e+02
<STATE> 4
<MEAN> 39
 -1.453690e+01 -6.179588e+00 8.937093e+00 5.147825e-01 4.709098e+00 -1.777363e+00 -6.286205e+00 -6.367664e+00 -9.591404e+00 9.902207e-01 9.649084e+00 -2.009593e+00 7.264281e+01 4.429068e-01 5.617759e-01 -5.459598e-01 2.391438e-01 4.662766e-02 -1.410902e-01 9.004626e-03 -1.063062e-01 -9.832412e-02 -1.179917e-01 -8.743309e-02 6.477764e-02 -1.544641e-01 1.915623e-01 2.782739e-01 -2.245764e-01 2.380913e-01 -7.379847e-03 3.043849e-02 5.051326e-02 2.578091e-02 -2.080656e-02 -8.252258e-02 -6.850094e-02 5.937222e-02 -1.629728e-01
<VARIANCE> 39
 1.607049e+02 5.563244e+01 8.973086e+01 1.118983e+02 2.800653e+01 4.308842e+01 3.759517e+01 5.132362e+01 9.202801e+01 2.279221e+01 2.760172e+01 2.513758e+01 1.043960e+01 8.114142e+00 4.713515e+00 3.172367e+00 9.071327e+00 2.320247e+00 2.453251e+00 2.948036e+00 3.077708e+00 6.281396e+00 1.770940e+00 2.265007e+00 1.487256e+00 1.346278e+00 1.087515e+00 7.097369e-01 5.521348e-01 1.128087e+00 3.409142e-01 5.303227e-01 4.422856e-01 4.709958e-01 9.964476e-01 3.295920e-01 3.136910e-01 2.476122e-01 1.466039e-01
<GCONST> 1.264558e+02
<TRANSP> 5
 0.000000e+00 1.000000e+00 0.000000e+00 0.000000e+00 0.000000e+00
 0.000000e+00 6.029379e-01 3.970621e-01 0.000000e+00 0.000000e+00
 0.000000e+00 0.000000e+00 7.039075e-01 2.960926e-01 0.000000e+00
 0.000000e+00 0.000000e+00 0.000000e+00 9.301785e-01 6.982152e-02
 0.000000e+00 0.000000e+00 0.000000e+00 0.000000e+00 0.000000e+00
<ENDHMM>
~h "t"
<BEGINHMM>
<NUMSTATES> 5
<STATE> 2
<MEAN> 39
 -1.269459e+01 -1.862954e-01 1.130636e+00 5.430877e-01 2.490251e+00 -1.016257e+00 -2.521643e+00 -4.493432e+00 -4.734896e+00 -1.041299e+00 3.829266e+00 -1.120653e-01 6.822993e+01 9.931456e-01 6.689236e-02 -3.465248e-01 4.387646e-01 1.047470e-01 -1.981714e-01 -5.572984e-02 -6.060757e-01 -9.955607e-01 -2.016388e-01 3.088636e-01 1.474887e-01 5.422575e-01 1.155182e-01 -4.524872e-02 -5.338921e-02 -1.166378e-02 -2.811190e-02 -7.083407e-02 1.573601e-02 -8.554038e-02 -1.618310e-01 6.440022e-03 1.384691e-01 4.566846e-02 1.119647e-01
<VARIANCE> 39
 7.948090e+01 4.069571e+01 2.640612e+01 5.255904e+01 1.850129e+01 1.860785e+01 2.877007e+01 4.681599e+01 5.523914e+01 2.577403e+01 1.824334e+01 1.274987e+01 2.989466e+01 7.989792e+00 3.447324e+00 4.439032e+00 6.470052e+00 2.112462e+00 2.257625e+00 3.665981e+00 4.466300e+00 5.864738e+00 2.251297e+00 2.162580e+00 1.306510e+00 3.572457e+00 1.113016e+00 6.093379e-01 8.306153e-01 1.256671e+00 4.471847e-01 4.263681e-01 7.494242e-01 8.373637e-01 9.339738e-01 4.284334e-01 3.810623e-01 2.315307e-01 5.983257e-01
<GCONST> 1.257470e+02
<STATE> 3
<MEAN> 39
 -1.229915e+00 -1.316479e+00 -4.853690e+00 3.323543e+00 -4.195243e-01 -6.116654e+00 5.287916e-01 -9.230613e+00 -1.591016e+01 -2.146023e+00 1.026605e+01 5.115984e+00 7.485404e+01 2.078852e-01 8.640591e-02 -2.318896e-01 -3.847633e-01 -3.543403e-01 -3.238686e-01 1.526034e-01 3.297615e-01 1.336258e-01 -1.749772e-02 -1.981219e-01 1.487301e-01 1.249562e-01 -3.309529e-01 9.568919e-02 2.368418e-01 -1.255686e-01 6.601461e-02 1.632396e-01 -1.363215e-01 1.816610e-01 3.538256e-01 2.042185e-02 -2.119556e-01 -1.541629e-01 -2.052885e-01
<VARIANCE> 39
 8.326265e+00 1.445657e+01 9.400141e+00 1.205834e+01 1.512612e+01 2.141354e+01 1.311233e+01 4.059686e+01 1.363157e+01 2.512946e+01 1.856531e+01 9.657203e+00 5.995423e+00 1.808988e+00 1.220980e+00 1.685717e+00 1.549805e+00 1.882026e+00 2.317655e+00 1.243767e+00 1.244174e+00 1.591549e+00 1.992461e+00 1.927334e+00 1.135006e+00 7.850358e-01 5.028366e-01 2.408192e-01 2.895392e-01 4.108645e-01 3.712707e-01 5.288193e-01 1.877440e-01 2.909579e-01 4.372417e-01 3.828883e-01 4.123211e-01 1.762976e-01 1.499169e-01
<GCONST> 9.634763e+01
<STATE> 4
<MEAN> 39
 -1.195868e+00 1.954679e+00 -3.852212e+00 1.405725e+00 -5.693367e-02 -6.074874e+00 -1.255557e+00 -5.981842e+00 -1.514349e+01 -1.516701e+00 9.516893e+00 2.616816e+00 7.375246e+01 -4.513029e-01 7.953451e-01 5.920697e-01 -6.004376e-02 -8.373493e-02 3.284658e-01 9.519542e-02 4.551304e-01 6.118561e-01 9.920095e-02 1.844672e-02 -2.439286e-01 -5.806611e-01 -2.096470e-01 1.011999e-01 1.616965e-01 1.181997e-01 1.284077e-01 2.398245e-01 1.521030e-01 5.551506e-03 1.035855e-01 -2.784511e-02 -8.796477e-02 1.261642e-02 -1.926500e-01
<VARIANCE> 39
 5.159018e+00 1.231196e+01 1.219152e+01 7.457753e+00 8.705029e+00 1.887589e+01 1.673408e+01 2.564233e+01 1.141754e+01 3.500279e+01 1.536128e+01 2.602362e+01 4.362230e+00 4.665166e-01 6.637699e-01 7.807051e-01 7.145811e-01 1.491367e+00 1.772021e+00 9.031093e-01 1.027960e+00 1.480044e+00 7.445680e-01 1.005226e+00 8.181590e-01 4.219957e-01 4.106853e-02 1.179015e-01 1.280192e-01 1.205644e-01 1.462275e-01 3.127653e-01 2.216509e-01 1.217939e-01 2.197647e-01 1.683222e-01 2.399366e-01 1.642009e-01 3.199542e-02
<GCONST> 7.696507e+01
<TRANSP> 5
 0.000000e+00 1.000000e+00 0.000000e+00 0.000000e+00 0.000000e+00
 0.000000e+00 9.310954e-01 6.890464e-02 0.000000e+00 0.000000e+00
 0.000000e+00 0.000000e+00 8.599364e-01 1.400636e-01 0.000000e+00
 0.000000e+00 0.000000e+00 0.000000e+00 7.553415e-01 2.446585e-01
 0.000000e+00 0.000000e+00 0.000000e+00 0.000000e+00 0.000000e+00
<ENDHMM>
~h "u"
<BEGINHMM>
<NUMSTATES> 5
<STATE> 2
<MEAN> 39
 -1.081038e+01 4.104511e+00 9.416059e+00 8.304388e+00 6.348715e+00 2.863919e-01 -3.395708e+00 -2.426751e+00 -6.420229e+00 -5.376186e+00 3.808494e+00 6.217529e-01 6.816042e+01 7.857302e-01 -4.227371e-01 3.343306e-01 6.515226e-01 4.180868e-01 -5.112021e-01 -9.299876e-01 -4.800118e-01 -8.461682e-01 -7.051825e-01 1.971604e-01 1.727289e-02 8.405522e-01 5.255320e-02 -1.043576e-01 -2.131823e-01 -9.438405e-02 2.894226e-02 -9.555254e-02 -1.473262e-01 -1.890748e-02 -1.063730e-01 -1.969882e-02 1.887854e-01 2.143014e-02 4.626478e-02
<VARIANCE> 39
 3.834167e+01 8.406448e+01 5.449347e+01 2.936255e+01 2.697072e+01 1.980099e+01 3.175971e+01 2.945461e+01 6.592616e+01 3.074752e+01 1.957174e+01 1.270694e+01 2.023426e+01 4.822213e+00 9.824063e+00 5.171453e+00 4.412449e+00 3.967124e+00 2.015685e+00 3.786533e+00 2.750098e+00 7.511849e+00 3.709012e+00 2.712602e+00 1.178486e+00 2.463699e+00 6.371458e-01 1.440621e+00 9.831957e-01 8.217469e-01 8.093994e-01 4.511298e-01 5.489337e-01 4.637046e-01 1.013336e+00 5.438468e-01 3.985435e-01 2.204604e-01 3.691547e-01
<GCONST> 1.264924e+02
<STATE> 3
<MEAN> 39
 -3.081786e+00 -1.282634e+00 3.578545e+00 1.229529e+01 1.131838e+01 -5.376643e+00 -1.311468e+01 -6.094356e+00 -1.670650e+01 -1.111341e+01 1.035000e+01 7.077782e-01 7.444414e+01 6.746541e-01 1.940283e-01 -1.169197e+00 -5.872321e-01 -3.572612e-01 -2.833465e-01 -6.759667e-02 -4.958021e-01 -9.260285e-01 5.474827e-02 5.125886e-01 1.600063e-01 1.471933e-01 -3.474383e-01 1.806176e-01 3.666577e-01 -1.806434e-01 -2.865922e-01 1.759550e-01 3.963746e-01 1.469245e-01 4.053492e-01 3.051119e-01 -2.154656e-01 -5.075319e-02 -2.167263e-01
<VARIANCE> 39
 8.391052e+00 1.140290e+01 3.077787e+01 3.470785e+01 1.895223e+01 1.644245e+01 1.524173e+01 4.172826e+01 1.672101e+01 2.047523e+01 1.190180e+01 2.374311e+01 4.094926e+00 8.019442e-01 6.729745e-01 1.736056e+00 1.774763e+00 1.507272e+00 1.274113e+00 1.856329e+00 2.481978e+00 1.628183e+00 1.837587e+00 1.674585e+00 1.875353e+00 3.683810e-01 1.323110e-01 2.458325e-01 1.893371e-01 2.837702e-01 2.083580e-01 2.197445e-01 2.584911e-01 4.954641e-01 3.857636e-01 2.962707e-01 2.946587e-01 2.921483e-01 1.021471e-01
<GCONST> 9.383775e+01
<STATE> 4
<MEAN> 39
 -3.147697e+00 2.321568e+00 6.004894e-01 5.575078e+00 4.779424e+00 -3.126482e+00 -6.752027e+00 -8.377113e+00 -1.837593e+01 -5.042465e+00 1.246756e+01 2.654802e+00 7.243393e+01 -7.905862e-01 1.090993e+00 4.336135e-01 -6.430250e-01 -6.091778e-01 9.766234e-01 1.495174e+00 7.827696e-01 1.367206e+00 1.471699e+00 -1.719215e-01 -1.844711e-01 -9.775720e-01 -1.961348e-01 -1.653938e-02 6.580544e-02 6.605005e-02 1.591735e-01 1.382942e-01 1.708483e-02 2.032879e-01 5.169485e-01 1.191265e-01 -2.215444e-01 -6.834900e-02 -1.336976e-01
<VARIANCE> 39
 7.610180e+00 2.956467e+01 1.261124e+01 1.348824e+01 1.194956e+01 1.399450e+01 2.363699e+01 1.852847e+01 2.985256e+01 2.834978e+01 3.254459e+01 1.677519e+01 1.199973e+01 9.771119e-01 3.000735e+00 1.525430e+00 1.142894e+00 9.564006e-01 2.239296e+00 1.685653e+00 1.447029e+00 3.279800e+00 1.584219e+00 1.962240e+00 9.080424e-01 1.475331e+00 1.026134e-01 3.402781e-01 2.139776e-01 2.178741e-01 2.101618e-01 3.607140e-01 2.100946e-01 4.495585e-01 3.862525e-01 2.617645e-01 2.604477e-01 1.405826e-01 1.380570e-01
<GCONST> 9.591993e+01
<TRANSP> 5
 0.000000e+00 1.000000e+00 0.000000e+00 0.000000e+00 0.000000e+00
 0.000000e+00 8.871878e-01 1.128122e-01 0.000000e+00 0.000000e+00
 0.000000e+00 0.000000e+00 8.438578e-01 1.561422e-01 0.000000e+00
 0.000000e+00 0.000000e+00 0.000000e+00 7.424214e-01 2.575786e-01
 0.000000e+00 0.000000e+00 0.000000e+00 0.000000e+00 0.000000e+00
<ENDHMM>
~h "w"
<BEGINHMM>
<NUMSTATES> 5
<STATE> 2
<MEAN> 39
 -3.737717e+00 1.016664e+01 4.991835e+00 1.913148e+00 1.707252e+00 -2.987688e+00 -5.919682e+00 -1.576744e+00 -9.237173e+00 -7.851427e+00 4.518654e+00 -2.592693e+00 6.998992e+01 -3.948088e-01 8.737917e-01 1.592000e+00 -9.006392e-03 -1.564406e+00 -9.404512e-01 1.997565e-01 8.595138e-01 6.986681e-01 1.749419e-01 7.001750e-01 -8.016233e-02 -4.390588e-01 3.308719e-02 -3.966467e-01 -2.211494e-01 1.892056e-01 3.796323e-02 -1.518663e-01 -2.467168e-02 -2.021647e-01 -2.109111e-01 6.444014e-02 2.387577e-01 2.106021e-01 1.311688e-01
<VARIANCE> 39
 6.729545e+00 1.351504e+01 2.220721e+01 1.783319e+01 1.522908e+01 2.049464e+01 3.307783e+01 1.671514e+01 1.268413e+01 1.457042e+01 2.410034e+01 3.138824e+01 8.781825e+00 2.542839e-01 6.370488e-01 7.577151e-01 7.318507e-01 1.133039e+00 1.797365e+00 1.080958e+00 1.247277e+00 1.816982e+00 1.581131e+00 2.197940e+00 1.176872e+00 2.766635e-01 1.137959e-01 2.348910e-01 2.323315e-01 1.449151e-01 9.212723e-02 2.866545e-01 3.135138e-01 1.328719e-01 3.651236e-01 3.107785e-01 4.169971e-01 2.511641e-01 1.203127e-01
<GCONST> 8.719346e+01
<STATE> 3
<MEAN> 39
 -3.990557e+00 1.071159e+01 8.042972e+00 3.633234e+00 -2.108965e+00 -5.478453e+00 -6.008994e+00 5.013558e-01 -5.902458e+00 -9.639166e+00 4.159466e+00 -2.373880e+00 6.964417e+01 4.526814e-01 -7.072676e-01 -6.063454e-01 -4.060822e-01 -4.945145e-01 -3.101889e-01 -1.900775e-01 -3.410444e-02 -6.219636e-02 -3.449531e-01 2.457626e-01 5.940780e-02 5.286705e-01 7.125714e-02 -2.050644e-01 -2.642840e-01 -7.196032e-02 9.167267e-02 1.790366e-01 1.241789e-01 -1.347243e-01 -1.613116e-01 -8.365927e-03 2.459753e-02 7.932226e-02 1.052635e-01
<VARIANCE> 39
 9.551550e+00 1.369638e+01 1.266026e+01 1.826904e+01 2.324921e+01 3.243733e+01 2.685007e+01 1.790481e+01 1.880701e+01 2.779482e+01 2.287942e+01 1.324484e+01 9.786686e+00 3.558454e-01 9.970281e-01 9.540013e-01 8.279188e-01 5.843804e-01 9.722739e-01 2.015649e+00 1.136694e+00 1.346908e+00 1.963022e+00 9.965239e-01 7.527660e-01 3.575366e-01 6.558298e-02 2.004416e-01 1.445675e-01 1.612758e-01 1.056308e-01 1.839527e-01 2.714579e-01 1.785725e-01 3.127505e-01 4.282627e-01 1.750268e-01 1.447055e-01 7.697222e-02
<GCONST> 8.438903e+01
<STATE> 4
<MEAN> 39
 -3.005773e-01 1.704634e+00 -2.617611e+00 6.288127e-01 -3.917487e+00 -5.736265e+00 -1.130751e+00 -3.466477e+00 -1.139686e+01 -5.208840e+00 8.303201e+00 1.115610e+00 7.435661e+01 -1.726585e-01 -1.343849e-01 -4.283417e-01 5.769349e-02 3.880264e-01 4.505551e-01 5.278096e-01 -2.215249e-01 3.464247e-02 7.875627e-01 -1.788048e-01 -4.356024e-02 -1.701568e-01 -1.453257e-01 1.773381e-01 1.904109e-01 8.052544e-02 1.043236e-01 3.507824e-02 -8.670174e-02 8.080624e-02 2.005607e-01 1.930530e-02 -1.555347e-01 -1.098327e-01 -1.540572e-01
<VARIANCE> 39
 4.923123e+00 1.437901e+01 1.970559e+01 1.667129e+01 1.576077e+01 1.543869e+01 2.944570e+01 2.195765e+01 1.494005e+01 4.074642e+01 1.330374e+01 1.212721e+01 6.330191e+00 3.532492e-01 1.166847e+00 1.253319e+00 8.486930e-01 7.562860e-01 1.322774e+00 1.758286e+00 1.373905e+00 1.563908e+00 1.060849e+00 1.055136e+00 8.971770e-01 4.572019e-01 5.003642e-02 8.696577e-02 9.223627e-02 1.693508e-01 9.809963e-02 2.312347e-01 2.845862e-01 2.468041e-01 2.636911e-01 1.686007e-01 1.456866e-01 1.025188e-01 3.994382e-02
<GCONST> 8.018858e+01
<TRANSP> 5
 0.000000e+00 1.000000e+00 0.000000e+00 0.000000e+00 0.000000e+00
 0.000000e+00 6.394907e-01 3.605093e-01 0.000000e+00 0.000000e+00
 0.000000e+00 0.000000e+00 8.429241e-01 1.570759e-01 0.000000e+00
 0.000000e+00 0.000000e+00 0.000000e+00 8.999106e-01 1.000894e-01
 0.000000e+00 0.000000e+00 0.000000e+00 0.000000e+00 0.000000e+00
<ENDHMM>
~h "y"
<BEGINHMM>
<NUMSTATES> 5
<STATE> 2
<MEAN> 39
 -1.954933e+01 2.796950e+00 -1.592745e+00 2.463994e-01 1.116346e+00 2.972243e+00 4.488289e+00 5.884476e+00 6.592013e+00 4.656796e+00 3.712181e+00 2.252989e+00 5.929588e+01 -7.119501e-01 -9.133262e-01 -1.057678e+00 -1.048899e+00 -9.398902e-01 -4.106581e-01 -2.136598e-01 -7.047413e-02 -1.805318e-01 -2.400232e-01 -1.980714e-01 -5.428784e-01 -3.402057e-01 3.295789e-01 2.589202e-01 1.744925e-01 2.452840e-01 5.875679e-02 -1.432953e-01 -1.508654e-01 -2.203512e-01 -2.892796e-01 -1.496987e-01 -1.089308e-01 -1.548380e-01 1.541822e-01
<VARIANCE> 39
 1.713430e+00 2.668201e+00 4.769632e+00 9.199408e+00 9.984467e+00 5.627306e+00 3.151968e+00 5.562290e+00 7.464403e+00 6.751791e+00 7.869324e+00 9.204904e+00 1.447546e+00 3.451855e-01 2.406368e-01 2.956387e-01 6.192448e-01 9.739432e-01 1.238217e+00 9.596038e-01 1.240317e+00 9.720559e-01 1.199874e+00 1.016873e+00 1.016657e+00 8.718379e-02 6.648047e-02 4.460995e-02 5.653898e-02 8.524024e-02 1.548572e-01 1.191175e-01 1.245218e-01 1.661849e-01 2.769806e-01 1.952922e-01 2.195067e-01 2.043725e-01 3.546575e-02
<GCONST> 5.797952e+01
<STATE> 3
<MEAN> 39
 -2.079243e+01 1.705125e+00 -2.691767e+00 -4.719349e-01 -2.118396e-02 1.567295e+00 3.773846e+00 4.149699e+00 4.274947e+00 2.807161e+00 2.330753e+00 3.351278e-01 5.867872e+01 -1.434132e-01 -1.248307e-01 -1.263146e-01 -1.199045e-02 3.067867e-02 2.903719e-02 8.415151e-02 -1.598055e-02 -1.054637e-01 -2.347346e-02 -2.976918e-03 -6.612062e-02 -5.850767e-02 5.281869e-02 6.073065e-02 8.385342e-02 9.521335e-02 1.426264e-01 8.327232e-02 9.521422e-03 2.492712e-02 2.350611e-02 9.680994e-03 1.171132e-02 2.623803e-02 3.879519e-02
<VARIANCE> 39
 9.875094e-01 1.604313e+00 3.238665e+00 4.214015e+00 5.347357e+00 6.094072e+00 6.296930e+00 1.079374e+01 9.740041e+00 6.156579e+00 7.626395e+00 6.990676e+00 1.447546e+00 1.345178e-01 2.043620e-01 2.739851e-01 3.194281e-01 5.204210e-01 6.593760e-01 5.823019e-01 8.619930e-01 8.208963e-01 6.779794e-01 1.135826e+00 9.184021e-01 4.262823e-02 3.468492e-02 4.541003e-02 6.507110e-02 7.259972e-02 9.245235e-02 1.398349e-01 1.302352e-01 1.771452e-01 1.841519e-01 1.654050e-01 2.535947e-01 2.146629e-01 1.295960e-02
<GCONST> 4.873197e+01
<STATE> 4
<MEAN> 39
 -2.138634e+01 9.817518e-01 -3.462537e+00 -7.978609e-01 7.453919e-01 2.356209e+00 4.502079e+00 5.499741e+00 5.523806e+00 3.863926e+00 2.891418e+00 6.185558e-01 5.852508e+01 4.656815e-01 6.143919e-02 4.087384e-01 -1.833562e-01 3.889281e-01 -2.365250e-01 -5.742425e-01 -6.815478e-01 -7.658382e-01 -6.699913e-01 -2.792959e-01 -1.518086e-01 5.704586e-01 8.473188e-01 2.683320e-01 1.948528e-01 -8.319642e-02 -6.690198e-02 -4.634729e-01 -3.170807e-01 -5.837126e-01 -8.078992e-01 -2.757773e-01 1.477370e-01 4.975323e-02 6.426901e-01
<VARIANCE> 39
 1.520960e+00 1.987619e+00 3.308040e+00 3.353254e+00 4.243629e+00 3.551086e+00 4.113110e+00 8.601889e+00 9.329197e+00 9.865806e+00 1.088912e+01 1.124182e+01 1.447546e+00 1.188800e+00 5.132838e-01 7.899836e-01 4.204995e-01 8.560705e-01 1.170381e+00 1.430979e+00 1.849758e+00 2.256022e+00 1.560451e+00 1.459469e+00 1.097823e+00 8.551295e-01 3.141348e-01 9.211086e-02 1.607822e-01 8.452470e-02 1.459850e-01 2.432929e-01 2.635732e-01 1.340375e-01 2.651855e-01 2.296390e-01 3.349039e-01 2.915439e-01 1.679254e-01
<GCONST> 7.068969e+01
<TRANSP> 5
 0.000000e+00 1.000000e+00 0.000000e+00 0.000000e+00 0.000000e+00
 0.000000e+00 2.880976e-01 7.119024e-01 0.000000e+00 0.000000e+00
 0.000000e+00 0.000000e+00 8.333009e-01 1.666990e-01 0.000000e+00
 0.000000e+00 0.000000e+00 0.000000e+00 5.557651e-01 4.442349e-01
 0.000000e+00 0.000000e+00 0.000000e+00 0.000000e+00 0.000000e+00
<ENDHMM>
~h "sp"
<BEGINHMM>
<NUMSTATES> 3
<STATE> 2
~s "silst"
<TRANSP> 3
 0.000000e+00 4.832615e-02 9.516739e-01
 0.000000e+00 4.754633e-01 5.245367e-01
 0.000000e+00 0.000000e+00 0.000000e+00
<ENDHMM>
~h "sy"
<BEGINHMM>
<NUMSTATES> 5
<STATE> 2
<MEAN> 39
 -2.128043e+01 8.986484e-01 -3.437726e+00 -1.202198e+00 -1.216405e-01 1.595609e+00 3.385596e+00 4.074308e+00 4.384489e+00 1.980436e+00 7.390985e-01 -7.481526e-01 5.846117e+01 -3.624583e-02 -4.249305e-02 -1.761286e-02 -3.390541e-02 -3.658878e-02 -1.092639e-01 -9.749530e-02 9.092275e-03 1.914770e-02 8.292101e-03 -1.171271e-02 -2.586339e-02 -1.137995e-02 1.093976e-02 6.246993e-03 1.592898e-02 -2.542975e-03 2.251555e-03 1.812257e-02 1.300204e-02 1.978322e-02 3.178691e-03 1.170871e-02 2.788227e-02 2.333869e-02 9.716470e-03
<VARIANCE> 39
 1.087500e+00 1.551654e+00 2.144972e+00 3.220951e+00 3.424361e+00 4.972301e+00 6.431604e+00 6.420327e+00 5.964458e+00 5.765685e+00 4.917659e+00 6.346447e+00 1.447546e+00 1.061166e-01 1.583687e-01 2.521913e-01 3.575155e-01 4.057736e-01 6.130518e-01 8.041602e-01 7.310684e-01 5.487370e-01 6.186498e-01 5.577877e-01 7.648290e-01 3.002189e-02 2.404061e-02 3.646290e-02 6.233017e-02 8.581053e-02 9.151556e-02 1.283859e-01 1.560311e-01 1.442876e-01 1.113227e-01 1.255078e-01 1.187676e-01 1.776273e-01 6.669498e-03
<GCONST> 4.053674e+01
<STATE> 3
<MEAN> 39
 -2.131729e+01 2.654021e-01 -3.716045e+00 -1.881288e+00 -4.529645e-01 9.503663e-02 2.683010e+00 5.601813e+00 5.609368e+00 2.396756e+00 2.238973e+00 7.529453e-01 5.880747e+01 -7.434361e-03 1.581943e-01 3.913823e-01 2.377089e-01 -1.622819e-01 3.814403e-01 1.697343e-01 -8.506964e-01 -6.641730e-01 -4.518822e-03 1.280751e-01 1.431050e-01 -1.078498e-01 6.470159e-02 -2.514852e-01 2.744517e-01 -8.691889e-02 -1.279428e-01 1.481428e-01 1.065231e-01 -3.905406e-01 -5.866428e-01 -1.112884e-02 3.526721e-02 -3.765250e-01 2.765354e-01
<VARIANCE> 39
 7.169198e-01 3.418118e+00 1.602346e+00 1.843915e+00 3.407456e+00 9.276046e+00 1.001098e+01 1.419844e+01 1.566218e+00 9.197105e+00 5.883323e-01 2.987767e+00 1.447546e+00 8.832770e-02 2.751017e-01 3.285197e-01 4.956089e-01 1.413480e-01 6.413917e-01 7.044193e-01 1.610516e+00 8.127432e-01 4.613203e-01 2.539587e-01 1.045217e+00 8.254676e-02 7.274435e-02 2.903175e-01 2.455910e-01 1.061254e-01 5.763090e-02 1.752329e-01 1.619493e-01 2.843229e-01 2.072237e-01 1.797530e-01 4.534586e-02 1.827159e-01 1.153865e-01
<GCONST> 4.763879e+01
<STATE> 4
<MEAN> 39
 -1.896085e+01 -6.549932e-01 -4.245048e+00 -1.336884e+00 -2.742683e-01 9.476435e-01 5.963238e+00 4.882359e-01 -3.153486e-01 3.530711e+00 1.344705e+00 -1.941059e+00 6.109124e+01 1.091891e+00 -6.691039e-01 2.469245e-01 -4.750518e-01 -1.572416e-01 -2.373146e-01 1.546822e-01 -7.510887e-01 -1.806492e+00 3.005236e-01 4.914461e-01 -4.946962e-01 1.528002e+00 3.375444e-01 1.703341e-02 3.376732e-01 -8.135459e-02 -9.707607e-02 -3.411946e-01 -4.838466e-01 2.392720e-01 5.585437e-02 -1.665339e-01 3.389384e-01 1.137582e-01 4.227276e-01
<VARIANCE> 39
 1.244201e+01 1.121742e+01 6.689991e+00 3.179152e+00 2.016413e+00 5.566299e+00 3.630341e+01 1.214174e+01 3.295830e+01 9.199705e+00 3.339911e+00 6.865546e+00 1.524706e+01 3.013666e+00 1.946063e+00 2.527005e+00 7.920030e-01 5.015168e-01 3.655559e+00 3.391513e+00 1.447373e+00 1.610974e+00 1.208076e+00 2.975993e-01 1.143514e+00 1.353620e+00 3.476670e-01 4.798627e-01 3.078997e-01 7.967226e-02 8.150759e-02 2.746274e-01 3.265828e-01 2.628764e-01 3.470168e-01 1.986867e-01 7.569303e-02 1.632249e-01 2.098390e-01
<GCONST> 8.391891e+01
<TRANSP> 5
 0.000000e+00 1.000000e+00 0.000000e+00 0.000000e+00 0.000000e+00
 0.000000e+00 9.648933e-01 3.510674e-02 0.000000e+00 0.000000e+00
 0.000000e+00 0.000000e+00 3.549012e-01 6.450988e-01 0.000000e+00
 0.000000e+00 0.000000e+00 0.000000e+00 4.537876e-01 5.462124e-01
 0.000000e+00 0.000000e+00 0.000000e+00 0.000000e+00 0.000000e+00
<ENDHMM>
~h "sil"
<BEGINHMM>
<NUMSTATES> 5
<STATE> 2
<MEAN> 39
 -2.362950e+00 1.981407e-01 -2.907231e-01 -5.290345e-02 2.375460e-02 1.030052e-01 2.333110e-01 3.392218e-01 3.666144e-01 1.813033e-01 1.302696e-01 6.496906e-06 6.751586e+00 -1.722630e-02 -6.379312e-03 5.065018e-03 -7.572498e-03 -4.105417e-03 7.895539e-03 -1.626732e-03 -1.561294e-03 -6.156475e-03 -2.747879e-03 -2.574306e-03 -3.143348e-04 -9.698499e-03 -2.900020e-01 3.606618e-02 -3.119893e-02 1.515662e-02 -1.124323e-02 3.558038e-02 2.163411e-02 5.244330e-02 4.358744e-02 4.322854e-02 1.352066e-02 5.461712e-03 3.037770e-01
<VARIANCE> 39
 4.323700e+01 5.460992e-01 9.876724e-01 3.069609e-01 2.271626e-01 3.532169e-01 9.604137e-01 1.581316e+00 1.595013e+00 1.056751e+00 5.842395e-01 2.250434e-01 3.514905e+02 2.079128e-02 1.315341e-02 2.322894e-02 4.321982e-02 4.459103e-02 3.622329e-02 2.944621e-02 5.510144e-02 5.643240e-02 4.853481e-02 2.222909e-02 3.234520e-02 1.980202e-02 3.534273e-01 1.449869e-02 1.789703e-02 1.816088e-02 1.955974e-02 2.088054e-02 2.252872e-02 2.651647e-02 2.942857e-02 2.901724e-02 2.223908e-02 1.419315e-02 4.037273e-01
<GCONST> -1.368912e+01
<STATE> 3
~s "silst"
<STATE> 4
<MEAN> 39
 -2.096290e+01 1.227573e+00 -3.261625e+00 -1.174406e+00 -3.904139e-01 1.506794e+00 3.936673e+00 4.694392e+00 4.621764e+00 2.228659e+00 9.275827e-01 -7.029942e-01 5.862624e+01 2.520831e-03 -9.535974e-03 -1.481347e-02 -1.574386e-02 -1.346688e-02 -1.283580e-02 -9.603930e-03 -8.500131e-03 -1.170626e-02 -6.038578e-03 8.957475e-05 3.929975e-03 5.740693e-03 2.951428e-03 -5.973033e-04 3.126689e-04 1.406560e-03 2.142134e-03 -9.215522e-04 -1.835105e-03 -4.070204e-03 -6.183654e-03 2.794332e-04 4.304178e-03 1.556798e-03 -1.036298e-03
<VARIANCE> 39
 1.146429e+00 1.642873e+00 3.353276e+00 4.887787e+00 5.162846e+00 5.739332e+00 7.189659e+00 9.206210e+00 8.619326e+00 7.188334e+00 6.446476e+00 6.645382e+00 1.447546e+00 1.014953e-01 1.560710e-01 2.930709e-01 4.427697e-01 5.141506e-01 5.876538e-01 7.209203e-01 9.676747e-01 9.613600e-01 7.907410e-01 6.924945e-01 6.801175e-01 3.365446e-02 2.030047e-02 3.259801e-02 5.709917e-02 8.771982e-02 1.055519e-01 1.225716e-01 1.457428e-01 1.974240e-01 2.005810e-01 1.670934e-01 1.451395e-01 1.396951e-01 7.919975e-03
<GCONST> 4.613362e+01
<TRANSP> 5
 0.000000e+00 1.000000e+00 0.000000e+00 0.000000e+00 0.000000e+00
 0.000000e+00 7.703403e-01 1.148346e-01 1.148251e-01 0.000000e+00
 0.000000e+00 0.000000e+00 9.067668e-01 9.323321e-02 0.000000e+00
 0.000000e+00 2.825826e-20 0.000000e+00 9.861392e-01 1.386078e-02
 0.000000e+00 0.000000e+00 0.000000e+00 0.000000e+00 0.000000e+00
<ENDHMM>
