~o
<STREAMINFO> 1 39
<VECSIZE> 39<NULLD><MFCC_D_A_0><DIAGC>
~s "silst"
<MEAN> 39
 -1.551332e+01 1.287989e+00 -2.115531e+00 -3.732124e-02 1.741604e-01 1.546820e+00 2.039857e+00 1.995650e+00 1.897700e+00 1.132505e+00 5.306450e-01 -1.867140e-01 3.549806e+01 -1.321199e+00 -1.412066e-03 -1.916035e-01 -8.661659e-02 1.709801e-02 9.278044e-02 2.008676e-01 1.618354e-01 1.936363e-01 8.157846e-02 6.466078e-02 -4.864250e-02 3.273538e+00 2.313352e-02 1.529552e-02 1.961028e-02 1.096536e-02 7.653250e-03 4.240229e-03 -1.536839e-02 -2.423542e-02 -7.325979e-04 -1.176475e-03 -1.341249e-02 -1.173520e-02 4.732712e-02
<VARIANCE> 39
 7.776588e+01 3.121292e+00 5.399334e+00 4.340055e+00 4.478929e+00 5.337256e+00 9.301709e+00 1.282775e+01 1.241482e+01 7.168879e+00 5.618276e+00 5.372197e+00 5.192663e+02 5.895962e+00 3.277133e-01 4.466352e-01 4.291217e-01 5.037513e-01 5.978422e-01 8.608805e-01 8.520450e-01 8.421246e-01 6.738408e-01 6.119673e-01 5.539431e-01 1.319445e+01 1.173323e+00 5.631588e-02 8.793133e-02 8.570789e-02 1.024898e-01 1.196628e-01 1.732542e-01 1.665756e-01 1.607365e-01 1.349779e-01 1.209730e-01 1.110879e-01 1.892624e+00
<GCONST> 7.780199e+01
~h "a"
<BEGINHMM>
<NUMSTATES> 5
<STATE> 2
<MEAN> 39
 -1.038023e+01 2.294193e+00 -1.134347e+00 -6.185939e-01 -6.739932e-01 -1.234049e-01 9.693948e-01 -2.612842e+00 -2.428674e+00 1.778310e-02 9.616719e-01 -6.603603e-01 6.498972e+01 -2.642898e-01 3.838225e-01 2.136035e-01 2.847031e-01 3.024659e-01 8.131004e-02 -9.927619e-02 2.982776e-01 3.292827e-01 -4.303892e-02 -7.020299e-02 -1.226749e-01 -4.280215e-01 1.099242e-01 -5.282865e-02 8.062077e-02 4.890633e-02 7.505843e-02 -3.291285e-02 -1.142347e-02 -1.264553e-01 -1.261294e-01 -7.503241e-02 1.563178e-02 3.608487e-02 1.903496e-01
<VARIANCE> 39
 6.525657e+01 2.860635e+01 2.454687e+01 3.610661e+01 2.945307e+01 2.326537e+01 2.347372e+01 2.966521e+01 3.902468e+01 2.849947e+01 4.559074e+01 1.793382e+01 9.884029e+01 8.515667e-01 1.640695e+00 1.031173e+00 1.037197e+00 9.114144e-01 1.043845e+00 1.597522e+00 1.563701e+00 1.582051e+00 1.199802e+00 1.260751e+00 1.144251e+00 1.737267e+00 2.659639e-01 3.241286e-01 2.050887e-01 2.023043e-01 1.824383e-01 2.149592e-01 2.989727e-01 3.001552e-01 3.893868e-01 2.273191e-01 2.564818e-01 2.131795e-01 3.557979e-01
<GCONST> 1.025657e+02
<STATE> 3
<MEAN> 39
 -1.179303e+01 1.673517e+00 -1.610721e+00 -1.285921e+00 -3.945705e-01 -1.525781e-01 1.825326e+00 -2.141082e+00 -2.745524e+00 4.260972e-02 1.001596e+00 -8.280243e-01 6.415976e+01 3.069990e-01 3.734988e-01 3.077928e-01 2.472133e-01 3.717020e-01 -1.327666e-01 -1.578137e-01 -1.453287e-01 -1.473246e-01 -1.534568e-01 -7.510133e-02 -1.491257e-01 2.527012e-01 2.299797e-01 -9.340990e-02 5.558912e-02 3.542776e-02 -5.299415e-02 -6.210774e-02 3.073090e-02 -1.351688e-01 -1.268794e-01 -4.430885e-02 -4.019791e-03 7.110433e-02 2.982340e-01
<VARIANCE> 39
 6.844839e+01 2.814902e+01 2.522390e+01 2.655706e+01 2.768258e+01 2.214783e+01 2.685104e+01 2.979042e+01 4.120673e+01 3.139115e+01 4.351358e+01 1.503082e+01 9.068802e+01 3.044102e+00 2.921932e+00 1.610545e+00 1.653994e+00 1.682469e+00 1.598464e+00 2.673947e+00 2.441555e+00 3.485399e+00 1.717273e+00 1.616907e+00 1.131657e+00 4.272021e+00 4.683682e-01 4.366853e-01 2.518814e-01 2.565250e-01 3.215340e-01 2.924213e-01 3.890880e-01 4.259214e-01 5.644477e-01 2.740319e-01 3.200958e-01 2.664928e-01 5.259889e-01
<GCONST> 1.134245e+02
<STATE> 4
<MEAN> 39
 -9.761697e+00 3.365673e+00 -1.935203e+00 -5.114792e-02 5.157250e-01 -1.462359e-01 2.932883e+00 -4.049900e-01 -2.450597e+00 2.351199e+00 3.825807e+00 3.737720e-01 6.595004e+01 -3.994159e-01 -1.119008e-01 7.690447e-02 1.164071e-01 8.104321e-02 2.127648e-01 1.715463e-01 2.644501e-01 4.279883e-01 -5.750109e-02 -8.815511e-02 1.704125e-01 -2.170849e-01 2.694474e-02 -1.901796e-01 -7.227428e-02 -7.257572e-02 -1.199424e-01 -8.363304e-02 5.297308e-03 -9.161776e-02 -1.158907e-01 -1.402333e-02 -1.259755e-02 -9.235369e-03 1.207390e-01
<VARIANCE> 39
 5.586705e+01 2.693793e+01 2.146902e+01 2.350403e+01 2.661411e+01 3.872098e+01 2.853724e+01 2.929632e+01 5.130609e+01 2.854954e+01 3.365880e+01 1.228359e+01 6.157273e+01 4.972944e+00 2.763055e+00 1.798804e+00 1.453277e+00 1.638093e+00 2.436023e+00 2.621020e+00 2.699952e+00 4.307934e+00 1.420815e+00 1.741283e+00 1.144220e+00 4.360297e+00 3.913473e-01 3.976881e-01 2.635602e-01 2.252008e-01 2.563347e-01 3.685668e-01 3.980932e-01 3.860219e-01 4.430104e-01 2.670625e-01 2.793098e-01 2.131165e-01 3.528051e-01
<GCONST> 1.122993e+02
<TRANSP> 5
 0.000000e+00 1.000000e+00 0.000000e+00 0.000000e+00 0.000000e+00
 0.000000e+00 2.327578e-01 7.672422e-01 0.000000e+00 0.000000e+00
 0.000000e+00 0.000000e+00 1.715565e-01 8.284436e-01 0.000000e+00
 0.000000e+00 0.000000e+00 0.000000e+00 5.977988e-01 4.022012e-01
 0.000000e+00 0.000000e+00 0.000000e+00 0.000000e+00 0.000000e+00
<ENDHMM>
~h "b"
<BEGINHMM>
<NUMSTATES> 5
<STATE> 2
<MEAN> 39
 -8.921429e-01 -8.453431e+00 -1.728989e+00 -7.561962e+00 -4.725289e+00 -6.296249e-01 4.655445e+00 -6.323752e+00 6.047927e-01 -1.229780e+01 -4.986386e+00 9.462800e+00 8.198632e+01 5.798023e-04 -1.839378e-01 -1.866310e-02 -1.138861e-01 -1.986933e-01 -5.658931e-02 1.334997e-01 -1.857028e-01 -1.075535e-01 2.094327e-01 1.793316e-01 2.209054e-02 7.141548e-02 -1.031535e-02 2.216674e-02 1.704883e-02 9.658150e-02 4.979520e-02 1.234852e-02 -2.936528e-02 -5.278766e-02 -4.326531e-02 -8.807772e-03 -7.438817e-02 -1.048860e-01 -2.657359e-02
<VARIANCE> 39
 9.176036e+00 3.236621e+01 1.350984e+01 4.890107e+01 3.203936e+01 1.917865e+01 9.471033e+00 2.145374e+01 1.400459e+01 1.633203e+01 3.889633e+01 4.585941e+01 2.539381e+01 2.179921e-01 1.246046e+00 7.523270e-01 2.986478e+00 1.177967e+00 1.683104e+00 8.365917e-01 1.326446e+00 1.242905e+00 8.205848e-01 3.886361e+00 4.134078e+00 6.508980e-01 3.187760e-02 1.344669e-01 1.354826e-01 3.247337e-01 1.561159e-01 3.203331e-01 1.371571e-01 1.607674e-01 2.289007e-01 1.763743e-01 5.159395e-01 5.189989e-01 7.687823e-02
<GCONST> 9.193559e+01
<STATE> 3
<MEAN> 39
 -1.359962e+01 5.327661e+00 2.443147e+00 3.860116e+00 4.223344e+00 3.699130e+00 4.185032e+00 6.641932e-01 9.213403e-01 -5.714809e-01 -1.269483e+00 -2.265800e+00 6.129730e+01 -9.154716e-01 -9.586951e-01 -8.885726e-01 -7.752127e-01 -8.065320e-01 -4.159727e-01 -1.083080e-01 1.178943e-01 1.717163e-01 1.998524e-01 1.178048e-01 8.730138e-02 -5.780396e-01 5.909390e-02 1.820585e-02 -3.550563e-02 -5.123909e-02 -7.222906e-02 -5.995542e-02 -1.690446e-01 -2.346963e-01 -2.091003e-01 -1.364385e-01 2.886081e-03 6.301069e-02 1.942506e-02
<VARIANCE> 39
 3.251366e+01 2.958577e+01 1.408187e+01 1.957823e+01 2.904984e+01 1.561796e+01 1.447854e+01 3.549836e+01 2.360278e+01 2.092074e+01 2.018488e+01 1.250586e+01 4.040680e+01 4.614522e-01 7.344407e-01 9.983017e-01 1.212802e+00 1.174381e+00 1.127980e+00 1.541757e+00 2.092964e+00 1.716727e+00 1.101402e+00 1.467442e+00 8.242545e-01 3.379349e-01 7.819054e-02 1.607941e-01 1.816552e-01 1.832109e-01 1.861782e-01 2.228853e-01 3.161529e-01 3.608281e-01 2.776735e-01 2.169830e-01 3.189732e-01 1.911220e-01 4.290292e-02
<GCONST> 9.037392e+01
<STATE> 4
<MEAN> 39
 -1.988330e+01 7.491517e-01 -3.576303e+00 -1.636999e+00 -8.354545e-01 1.329305e+00 3.032387e+00 2.273738e+00 1.986155e+00 4.232168e-01 3.175142e-02 -1.276723e-01 5.704040e+01 -2.992074e-02 -3.663078e-02 -5.288364e-02 -3.788567e-02 -4.670435e-02 -3.223347e-02 -7.038593e-02 -2.653182e-02 -4.433071e-03 -3.577448e-02 -2.989774e-02 1.606118e-02 -4.448643e-02 2.371752e-02 2.017752e-02 4.673976e-02 3.822573e-02 5.674176e-02 2.759116e-02 1.915897e-02 2.779558e-02 1.058632e-02 7.868789e-03 1.918815e-02 7.184621e-03 2.585964e-02
<VARIANCE> 39
 1.210412e+01 5.530681e+00 6.524678e+00 6.178073e+00 8.177045e+00 1.022404e+01 7.216305e+00 1.868707e+01 1.690765e+01 1.253537e+01 9.371576e+00 7.203008e+00 3.240599e+01 1.321865e-01 2.259816e-01 3.742214e-01 5.632813e-01 6.379887e-01 7.483800e-01 8.034249e-01 9.237382e-01 1.135659e+00 1.221278e+00 8.651347e-01 8.095233e-01 8.437967e-02 3.118040e-02 6.288395e-02 8.575416e-02 1.178833e-01 1.421090e-01 1.466023e-01 1.710570e-01 1.953357e-01 2.499087e-01 2.621910e-01 1.683262e-01 1.655152e-01 1.894450e-02
<GCONST> 6.497720e+01
<TRANSP> 5
 0.000000e+00 1.000000e+00 0.000000e+00 0.000000e+00 0.000000e+00
 0.000000e+00 9.357263e-01 6.427369e-02 0.000000e+00 0.000000e+00
 0.000000e+00 0.000000e+00 7.999442e-01 2.000558e-01 0.000000e+00
 0.000000e+00 0.000000e+00 0.000000e+00 9.286381e-01 7.136189e-02
 0.000000e+00 0.000000e+00 0.000000e+00 0.000000e+00 0.000000e+00
<ENDHMM>
~h "d"
<BEGINHMM>
<NUMSTATES> 5
<STATE> 2
<MEAN> 39
 -8.236198e+00 5.198896e+00 6.047503e+00 7.608967e+00 6.855416e+00 -6.514139e-01 -4.992855e+00 -5.473458e+00 -5.492258e+00 -2.921521e+00 2.128540e+00 -2.039438e+00 6.862988e+01 5.675667e-01 -6.961941e-01 5.953935e-01 9.553547e-01 5.808902e-01 -7.327407e-01 -1.348834e+00 -4.639778e-01 -7.433598e-01 -4.699320e-01 3.399732e-01 -4.026198e-01 9.153419e-01 1.972083e-02 -4.050176e-02 -1.267250e-01 -3.957614e-02 -2.306963e-02 -5.126366e-02 -1.048925e-02 8.138675e-02 -1.115467e-01 -9.782849e-02 6.786275e-02 6.256644e-02 -3.758253e-02
<VARIANCE> 39
 2.681475e+01 6.034371e+01 3.198157e+01 5.258753e+01 4.869543e+01 2.354221e+01 6.130157e+01 3.991710e+01 4.535364e+01 2.761227e+01 3.307999e+01 1.905143e+01 4.778786e+01 1.920570e+00 5.869370e+00 2.611975e+00 3.553040e+00 3.032865e+00 2.849604e+00 4.544161e+00 3.832599e+00 5.250082e+00 2.500847e+00 2.672945e+00 1.675272e+00 2.573103e+00 2.328353e-01 9.057081e-01 3.755735e-01 5.001392e-01 4.485453e-01 5.059426e-01 8.409860e-01 6.870126e-01 7.177124e-01 3.907070e-01 4.332635e-01 2.761900e-01 3.800085e-01
<GCONST> 1.238475e+02
<STATE> 3
<MEAN> 39
 -5.301503e+00 2.530242e+00 5.553131e+00 9.293582e+00 6.227285e+00 -5.237042e+00 -8.456167e+00 -5.029766e+00 -8.959860e+00 -2.959185e+00 4.807374e+00 -4.004322e+00 7.168867e+01 -2.040872e-01 2.387565e-01 -1.348874e-01 -1.891843e-01 -1.450780e-01 2.079865e-01 3.911282e-01 9.754884e-02 1.656060e-01 2.677190e-01 2.454047e-02 9.993328e-02 -3.933515e-01 -6.840570e-02 2.878683e-02 -2.506120e-02 -8.598372e-02 -3.281776e-02 1.106809e-01 1.257443e-01 2.865791e-02 1.149425e-01 7.858048e-02 -3.591224e-02 2.998598e-02 -6.466089e-02
<VARIANCE> 39
 1.279585e+01 3.628215e+01 4.441516e+01 7.061049e+01 2.862557e+01 1.960961e+01 3.133292e+01 3.616552e+01 5.151117e+01 4.854623e+01 7.556782e+01 1.946528e+01 2.489371e+01 3.477322e-01 1.371833e+00 1.264238e+00 1.654009e+00 8.924181e-01 1.228208e+00 1.573722e+00 1.391906e+00 2.660015e+00 1.120739e+00 2.389876e+00 1.083917e+00 7.784027e-01 4.755382e-02 1.885323e-01 1.931274e-01 2.697473e-01 1.695627e-01 2.277364e-01 3.059904e-01 2.418871e-01 4.285320e-01 2.267578e-01 3.652587e-01 1.887952e-01 7.087069e-02
<GCONST> 9.905204e+01
<STATE> 4
<MEAN> 39
 -1.638835e+01 3.519205e+00 -2.985389e-01 1.385528e+00 1.498869e+00 1.992562e+00 2.374672e+00 1.565291e+00 2.453135e+00 1.836258e+00 1.275645e+00 -1.331510e-02 6.053555e+01 -5.404253e-01 -1.892569e-01 -2.079538e-01 -2.459132e-01 -9.728435e-02 2.700597e-01 3.756001e-01 3.721735e-01 3.042941e-01 4.199103e-02 -7.983647e-02 8.705272e-02 -4.678254e-01 3.682768e-02 -4.107652e-02 2.010007e-02 1.174997e-02 9.055862e-03 -2.576180e-02 -2.121546e-02 -4.609624e-02 -6.030629e-02 -3.765000e-02 4.793654e-03 -1.176549e-02 8.651587e-02
<VARIANCE> 39
 2.899865e+01 1.959555e+01 2.036537e+01 2.924088e+01 2.143811e+01 1.447221e+01 1.964277e+01 3.790184e+01 3.069302e+01 1.605327e+01 1.363947e+01 1.079704e+01 2.480418e+01 5.349401e-01 6.378664e-01 7.704293e-01 9.065383e-01 9.327456e-01 1.382332e+00 1.314385e+00 1.174406e+00 1.637946e+00 9.558997e-01 9.456961e-01 7.285756e-01 5.411113e-01 5.511375e-02 1.298084e-01 1.408127e-01 1.432983e-01 1.717141e-01 2.527250e-01 2.310596e-01 2.079061e-01 2.640821e-01 1.858614e-01 1.497933e-01 1.521915e-01 5.810381e-02
<GCONST> 8.522108e+01
<TRANSP> 5
 0.000000e+00 1.000000e+00 0.000000e+00 0.000000e+00 0.000000e+00
 0.000000e+00 7.645094e-01 2.354906e-01 0.000000e+00 0.000000e+00
 0.000000e+00 0.000000e+00 8.840122e-01 1.159878e-01 0.000000e+00
 0.000000e+00 0.000000e+00 0.000000e+00 8.122190e-01 1.877810e-01
 0.000000e+00 0.000000e+00 0.000000e+00 0.000000e+00 0.000000e+00
<ENDHMM>
~h "e"
<BEGINHMM>
<NUMSTATES> 5
<STATE> 2
<MEAN> 39
 -7.639293e+00 -1.686028e+00 -1.430835e+00 -3.698225e+00 -3.020787e+00 -1.110709e+00 3.499481e+00 -7.598488e+00 -5.578288e+00 -7.700652e-02 -8.567012e-01 -1.170314e+00 7.239217e+01 1.415364e+00 -6.674309e-02 1.949976e-01 2.355414e-01 -1.147241e-02 -3.408317e-01 1.291034e-01 -8.916264e-01 -8.879464e-01 2.061464e-01 -9.201154e-02 2.585214e-01 1.612028e+00 4.574967e-02 -1.429030e-01 1.399551e-03 2.557308e-02 1.161231e-02 -1.176006e-01 -1.073650e-01 -1.274224e-01 -2.577346e-03 6.218582e-02 1.389471e-01 1.252428e-01 7.976689e-02
<VARIANCE> 39
 7.032500e+01 4.045490e+01 3.157532e+01 6.370755e+01 6.003252e+01 2.854384e+01 4.361121e+01 6.186988e+01 5.528905e+01 4.867867e+01 5.108754e+01 1.400903e+01 1.046142e+02 3.153210e+00 4.382249e+00 3.205739e+00 4.908206e+00 2.953400e+00 2.736551e+00 3.120682e+00 2.345225e+00 3.512953e+00 3.096522e+00 2.795501e+00 1.311646e+00 5.632023e+00 7.284898e-01 5.493671e-01 4.592512e-01 7.284861e-01 5.125064e-01 4.909959e-01 4.760959e-01 4.890075e-01 6.231207e-01 5.600626e-01 5.055443e-01 2.321273e-01 1.076011e+00
<GCONST> 1.286116e+02
<STATE> 3
<MEAN> 39
 -2.273880e+00 -7.741291e+00 -9.409981e-01 -3.677341e+00 -8.428597e-01 -1.636896e+00 1.330249e+00 -1.538377e+01 -6.377828e+00 3.587531e-01 -4.562320e-01 2.496578e+00 8.013132e+01 2.457902e-02 2.341534e-01 2.004279e-01 8.871073e-01 4.839809e-01 -9.503107e-02 -6.711312e-01 -1.747235e-01 6.912823e-02 -4.668101e-01 9.804562e-02 4.246888e-02 -2.157049e-01 -2.062805e-01 1.509782e-01 9.625235e-02 7.180880e-02 -2.583666e-02 8.088043e-02 -2.510064e-03 1.835552e-01 1.480487e-01 -1.017686e-01 -1.224542e-01 -1.712997e-01 -1.996763e-01
<VARIANCE> 39
 1.235183e+01 4.571903e+01 2.791581e+01 7.138688e+01 3.239349e+01 1.753594e+01 4.880872e+01 4.804745e+01 4.294273e+01 3.876790e+01 4.714312e+01 2.104482e+01 3.083033e+01 1.245408e+00 2.657326e+00 1.591134e+00 3.128653e+00 1.105027e+00 2.117267e+00 2.845944e+00 2.150278e+00 2.554491e+00 1.781831e+00 2.771388e+00 2.236251e+00 1.295612e+00 1.125325e-01 3.625591e-01 2.450407e-01 3.159402e-01 1.412394e-01 2.958035e-01 2.979298e-01 2.796439e-01 2.641184e-01 3.071319e-01 5.034671e-01 3.963961e-01 1.367496e-01
<GCONST> 1.089898e+02
<STATE> 4
<MEAN> 39
 -5.334538e+00 3.702287e-01 1.797215e+00 8.743344e+00 5.588833e+00 -3.467455e+00 -4.835583e+00 -1.119958e+01 -1.373378e+01 -1.527637e+00 6.507962e+00 -7.691785e-01 7.229475e+01 -5.397303e-01 4.388059e-01 1.393244e-01 1.341054e-02 9.002870e-02 2.670673e-01 1.801983e-01 6.112679e-01 9.868361e-01 2.083729e-01 -4.905358e-01 -2.620714e-01 -6.433750e-01 -2.296402e-01 -5.192684e-02 -2.852047e-02 -3.378385e-01 -1.380121e-01 1.222979e-01 1.794925e-01 3.144939e-01 4.879721e-01 1.539074e-01 -1.327106e-01 1.374112e-03 -1.409404e-01
<VARIANCE> 39
 1.861426e+01 3.982770e+01 2.368097e+01 4.444532e+01 1.831417e+01 4.514676e+01 2.996533e+01 4.707298e+01 7.234814e+01 3.143678e+01 6.049398e+01 1.983033e+01 2.130274e+01 2.857629e+00 4.180840e+00 1.886676e+00 4.696985e+00 1.663137e+00 5.031322e+00 3.356264e+00 4.393393e+00 8.309293e+00 1.784763e+00 3.946838e+00 2.033684e+00 3.498106e+00 2.368770e-01 5.945029e-01 3.061724e-01 5.697597e-01 2.074855e-01 7.055487e-01 4.441196e-01 6.581069e-01 6.926134e-01 3.114201e-01 4.626591e-01 2.843077e-01 2.596290e-01
<GCONST> 1.208325e+02
<TRANSP> 5
 0.000000e+00 1.000000e+00 0.000000e+00 0.000000e+00 0.000000e+00
 0.000000e+00 6.025091e-01 3.974909e-01 0.000000e+00 0.000000e+00
 0.000000e+00 0.000000e+00 7.030528e-01 2.969472e-01 0.000000e+00
 0.000000e+00 0.000000e+00 0.000000e+00 7.203574e-01 2.796427e-01
 0.000000e+00 0.000000e+00 0.000000e+00 0.000000e+00 0.000000e+00
<ENDHMM>
~h "f"
<BEGINHMM>
<NUMSTATES> 5
<STATE> 2
<MEAN> 39
 -8.691533e+00 -8.356745e+00 1.431999e+01 1.747821e+01 1.234412e+01 -5.079556e+00 -1.390161e+01 -1.278621e+01 -5.295634e+00 -9.174665e+00 -5.345211e+00 -1.075532e+01 7.785031e+01 -1.169514e-01 1.237621e-01 1.556806e-01 -2.178772e-01 -8.468553e-04 2.389328e-01 -1.813487e-01 1.298033e-02 2.268303e-01 1.968818e-01 -1.499823e-01 -1.727554e-01 -1.238327e-01 -1.334868e-02 2.530113e-01 -2.095363e-01 -2.160217e-01 -1.971699e-01 1.908730e-01 4.095312e-01 1.653881e-01 1.427944e-01 7.227081e-02 9.602137e-03 1.846310e-01 -2.097178e-01
<VARIANCE> 39
 3.735813e+00 1.879568e+01 2.077748e+01 1.199869e+01 1.389099e+01 3.567015e+00 9.679018e+00 7.496323e+00 4.349457e+00 1.440910e+01 2.434249e+01 8.848465e+00 8.029734e+00 1.478497e-01 1.472960e+00 3.672840e+00 1.068600e+00 1.343132e+00 7.915703e-01 2.501317e+00 7.051206e-01 3.168141e+00 4.841053e-01 3.394102e+00 1.459289e+00 7.406146e-01 4.745315e-02 2.882411e-01 3.460638e-01 1.898713e-01 3.660298e-01 1.745260e-01 4.645915e-01 1.334488e-01 3.706674e-01 1.304678e-01 4.347195e-01 9.786935e-02 1.623608e-01
<GCONST> 8.287742e+01
<STATE> 3
<MEAN> 39
 -7.957594e+00 -8.079457e-02 4.931296e+00 5.324089e+00 7.384653e+00 4.085594e+00 -3.867020e+00 -5.828491e+00 2.083290e+00 -2.374975e+00 -4.319753e+00 -3.727319e+00 7.240739e+01 -7.054259e-01 1.612329e-01 -1.425291e-01 -1.546804e+00 -1.010491e+00 8.105676e-01 1.759749e+00 1.006823e+00 6.085238e-01 1.867035e-01 -2.042803e-01 8.715555e-01 -4.808521e-01 -3.768991e-01 -3.895373e-01 1.338021e-01 -1.627180e-01 1.148416e-01 -1.969320e-01 -3.768776e-02 -1.653109e-01 -5.586703e-01 -2.787730e-01 4.702055e-01 1.702661e-02 1.452596e-01
<VARIANCE> 39
 3.433931e+00 2.418324e+01 7.842680e+00 2.537299e+01 9.365093e+00 2.164471e+01 4.077991e+01 2.499614e+01 7.807780e+00 2.981537e+01 1.738619e+01 9.726014e+00 9.357581e+00 1.569939e+00 1.657200e+00 1.391796e+00 2.542946e+00 2.628699e+00 2.001956e+00 1.582623e+00 1.551884e+00 2.989048e+00 2.018757e+00 2.680066e+00 1.010077e+00 1.018616e+00 2.520890e-01 4.048018e-01 2.157501e-01 5.663325e-01 5.641398e-01 2.194168e-01 4.296585e-01 2.830194e-01 4.361207e-01 2.914644e-01 6.370100e-01 2.652059e-01 2.320337e-01
<GCONST> 1.001538e+02
<STATE> 4
<MEAN> 39
 -1.946664e+01 -3.874523e+00 4.392965e+00 -7.277400e+00 3.818817e+00 3.835228e+00 6.736900e-01 -6.099895e+00 -5.913783e-01 -4.504179e+00 1.331748e+00 4.527729e-01 7.205716e+01 3.902950e-01 -2.075575e-01 -3.102960e-01 -5.843529e-01 -8.216076e-01 -6.965482e-01 4.489777e-02 -2.659729e-02 -1.040485e-01 -3.912060e-01 -5.828183e-02 1.748891e-02 5.001886e-01 9.221562e-01 3.065544e-01 -1.259500e-01 5.063047e-01 -2.661478e-01 -4.155381e-01 -2.329050e-01 -8.619830e-03 -1.905189e-02 1.906452e-01 -2.573293e-01 -2.226094e-01 1.485788e-01
<VARIANCE> 39
 3.473867e+01 2.793060e+01 1.601892e+01 2.158375e+01 3.397115e+01 1.394830e+01 2.398811e+01 2.362697e+01 9.230161e+00 2.132248e+01 1.585458e+01 1.492543e+01 1.373576e+01 1.543148e+01 6.242136e+00 1.821929e+00 6.486112e+00 2.830122e+00 4.101330e+00 1.789208e+00 2.903613e+00 1.343688e+00 2.987629e+00 1.827926e+00 1.497072e+00 1.819847e+00 1.059253e+00 1.021809e+00 3.706315e-01 6.986886e-01 4.250815e-01 6.137220e-01 3.682989e-01 5.169049e-01 2.894319e-01 4.155942e-01 3.119373e-01 1.959436e-01 4.851828e-01
<GCONST> 1.144917e+02
<TRANSP> 5
 0.000000e+00 1.000000e+00 0.000000e+00 0.000000e+00 0.000000e+00
 0.000000e+00 8.892058e-01 1.107942e-01 0.000000e+00 0.000000e+00
 0.000000e+00 0.000000e+00 8.456600e-01 1.543400e-01 0.000000e+00
 0.000000e+00 0.000000e+00 0.000000e+00 8.851756e-01 1.148245e-01
 0.000000e+00 0.000000e+00 0.000000e+00 0.000000e+00 0.000000e+00
<ENDHMM>
~h "g"
<BEGINHMM>
<NUMSTATES> 5
<STATE> 2
<MEAN> 39
 -1.176017e+00 -4.892771e+00 8.170342e-02 -7.192127e+00 -4.685063e+00 -4.009775e+00 2.290524e+00 -6.007232e+00 3.593102e-01 -1.123231e+01 -7.320792e+00 6.223961e+00 8.109885e+01 2.310868e-02 -6.402218e-02 -2.665883e-02 -3.049686e-02 -1.269420e-01 -7.736003e-02 1.270251e-01 -4.539876e-02 -4.758277e-02 6.741358e-02 -2.221428e-03 7.843243e-02 3.993877e-02 -1.264738e-02 1.053395e-02 1.336270e-02 5.869900e-02 5.024273e-02 5.905023e-02 -2.248721e-02 -2.902038e-02 1.575837e-02 1.255282e-02 -1.318570e-02 -3.339058e-02 -1.906855e-02
<VARIANCE> 39
 6.137933e+00 5.197291e+01 1.715116e+01 3.271485e+01 2.920028e+01 6.451919e+01 3.564723e+01 1.737656e+01 2.112206e+01 1.972643e+01 3.222140e+01 4.714973e+01 1.458465e+01 3.471279e-01 1.757068e+00 1.394487e+00 2.424444e+00 1.083633e+00 3.162988e+00 1.934278e+00 1.004504e+00 1.911321e+00 1.285902e+00 2.354447e+00 2.584872e+00 7.524838e-01 6.876917e-02 1.376102e-01 1.954902e-01 3.273709e-01 1.624023e-01 4.239773e-01 2.631439e-01 1.648294e-01 3.441227e-01 2.260059e-01 3.362399e-01 3.472250e-01 9.925394e-02
<GCONST> 9.858646e+01
<STATE> 3
<MEAN> 39
 -1.528866e+00 -3.799403e+00 1.673846e-01 -2.013598e+00 -6.449684e+00 -2.376621e+00 1.225813e+00 -6.956811e+00 -2.831882e-01 -5.028894e+00 -5.968483e+00 1.297365e+00 7.858306e+01 -2.473087e-01 7.397884e-02 2.626941e-03 4.810021e-01 9.550122e-01 3.906197e-01 -4.868602e-01 -1.601120e-01 2.145291e-01 3.878054e-01 -1.720414e-01 -3.128179e-01 -2.769902e-01 -4.856368e-02 1.795160e-01 7.615620e-02 7.837674e-02 1.286685e-01 -8.791547e-02 -9.317850e-02 8.246948e-02 -1.361356e-02 -8.329467e-02 -2.464888e-02 -1.422480e-01 -1.219153e-01
<VARIANCE> 39
 1.313821e+01 1.689111e+01 2.909925e+01 1.446939e+01 1.821350e+01 1.474596e+01 1.929490e+01 3.645810e+01 1.166977e+02 3.481366e+01 1.709967e+02 9.656189e+00 1.765401e+01 1.184682e-01 1.141422e+00 7.999992e-01 7.929099e-01 8.162387e-01 1.323005e+00 1.550900e+00 1.278858e+00 1.389444e+00 1.643951e+00 1.921629e+00 9.998464e-01 4.387031e-01 2.547120e-02 1.106625e-01 1.175735e-01 1.298536e-01 1.316354e-01 1.643744e-01 1.589565e-01 2.218325e-01 2.326902e-01 2.569009e-01 3.677897e-01 1.737632e-01 5.562749e-02
<GCONST> 8.713364e+01
<STATE> 4
<MEAN> 39
 -5.077903e+00 -2.988408e+00 3.757738e+00 4.994176e+00 6.177327e+00 -2.543437e+00 -4.232760e+00 -1.169649e+01 -1.074390e+01 -5.343771e+00 2.248131e+00 -2.366400e+00 7.477339e+01 1.019625e-02 1.848416e-01 4.514133e-02 3.345948e-01 3.823639e-01 -1.859270e-02 -1.634847e-01 -4.076934e-02 -4.355291e-01 -6.520274e-02 3.270066e-01 -1.648888e-01 -1.584760e-01 -1.853342e-02 -3.600773e-03 -2.345046e-03 -4.008047e-02 -8.995497e-02 6.307122e-03 6.566650e-02 6.598521e-02 5.997053e-02 1.250445e-02 -3.395270e-02 2.624293e-02 -1.825159e-02
<VARIANCE> 39
 1.816888e+01 6.472920e+01 2.494540e+01 3.606794e+01 2.311902e+01 3.132411e+01 4.801823e+01 4.932253e+01 8.857791e+01 2.604600e+01 6.072009e+01 1.989382e+01 6.152038e+01 1.105824e+00 3.803942e+00 1.804198e+00 2.233351e+00 1.824977e+00 2.047576e+00 3.287773e+00 2.520806e+00 4.128463e+00 2.039257e+00 2.693140e+00 1.570939e+00 3.335115e+00 1.130590e-01 5.623099e-01 3.095566e-01 3.870208e-01 3.197303e-01 3.836533e-01 5.755655e-01 3.272749e-01 5.409694e-01 3.764170e-01 3.783900e-01 2.595946e-01 4.078160e-01
<GCONST> 1.164508e+02
<TRANSP> 5
 0.000000e+00 1.000000e+00 0.000000e+00 0.000000e+00 0.000000e+00
 0.000000e+00 9.569663e-01 4.303363e-02 0.000000e+00 0.000000e+00
 0.000000e+00 0.000000e+00 8.939067e-01 1.060934e-01 0.000000e+00
 0.000000e+00 0.000000e+00 0.000000e+00 9.404452e-01 5.955476e-02
 0.000000e+00 0.000000e+00 0.000000e+00 0.000000e+00 0.000000e+00
<ENDHMM>
~h "i"
<BEGINHMM>
<NUMSTATES> 5
<STATE> 2
<MEAN> 39
 -3.812974e+00 -1.850929e+00 2.145076e-02 5.918663e-01 -6.554463e-01 -3.194183e+00 8.395241e-01 -1.005760e+01 -9.359186e+00 -6.344134e-02 3.282293e+00 -3.463090e-01 7.478870e+01 -4.395546e-01 8.515397e-01 8.081202e-02 -3.165838e-01 -1.281033e-01 6.466461e-01 6.544590e-01 5.721076e-01 1.048828e+00 2.602582e-01 -6.308486e-01 1.583184e-02 -6.737260e-01 -3.171511e-01 2.948250e-02 2.227839e-02 9.676004e-03 6.178160e-02 1.209983e-01 5.358399e-02 2.538633e-01 3.132588e-01 4.120089e-03 -8.947565e-02 4.995002e-02 -3.334452e-01
<VARIANCE> 39
 3.149911e+01 6.573897e+01 3.899876e+01 7.269194e+01 6.648754e+01 3.320507e+01 1.138621e+02 4.440007e+01 5.916883e+01 4.817794e+01 7.522244e+01 2.303326e+01 7.698600e+01 2.801187e+00 2.620703e+00 1.597577e+00 2.789251e+00 1.838117e+00 2.227966e+00 3.987733e+00 1.857477e+00 3.643135e+00 2.028182e+00 2.328455e+00 1.387764e+00 4.556743e+00 2.153700e-01 3.053408e-01 2.024377e-01 2.536659e-01 2.151904e-01 2.440714e-01 4.797153e-01 2.203613e-01 3.506923e-01 2.668478e-01 3.012890e-01 2.288026e-01 2.791669e-01
<GCONST> 1.176326e+02
<STATE> 3
<MEAN> 39
 -1.171615e+01 5.215996e+00 4.215811e+00 5.710404e+00 5.269445e+00 2.928089e+00 1.806878e-01 -2.983072e+00 -3.435761e-01 4.828842e-01 5.207924e-01 -1.216596e+00 6.513541e+01 -1.323051e+00 -9.405504e-02 -6.199859e-01 -6.838047e-01 -1.174968e-01 8.271898e-01 1.228836e+00 1.383268e+00 1.580531e+00 6.775022e-01 -1.296439e-01 5.432907e-01 -1.216414e+00 1.152492e-01 -3.927270e-01 -2.557102e-01 -1.527679e-01 -1.909208e-01 -3.662195e-01 -1.175194e-01 -1.127635e-01 -3.613311e-01 -2.963952e-02 2.605278e-01 1.200683e-02 2.085198e-01
<VARIANCE> 39
 2.669582e+01 3.901747e+01 2.312154e+01 3.246367e+01 2.068195e+01 2.974977e+01 3.721633e+01 5.161731e+01 3.375200e+01 2.775153e+01 3.174986e+01 2.204221e+01 4.182936e+01 1.441879e+00 1.266444e+00 2.347018e+00 2.786736e+00 1.604683e+00 1.758539e+00 2.304371e+00 1.414450e+00 3.341020e+00 1.357028e+00 1.554275e+00 1.150670e+00 9.332196e-01 1.404780e-01 1.973194e-01 2.601089e-01 2.848686e-01 2.368718e-01 3.576994e-01 4.216401e-01 2.758016e-01 4.453899e-01 2.159071e-01 2.681764e-01 1.933486e-01 1.075610e-01
<GCONST> 1.047402e+02
<STATE> 4
<MEAN> 39
 -1.926333e+01 1.702755e+00 -2.218926e+00 -4.602325e-01 7.517705e-01 2.083626e+00 3.597817e+00 3.105193e+00 3.564395e+00 2.010709e+00 1.273645e+00 -3.745016e-02 5.946212e+01 -2.314047e-01 -2.260516e-01 -2.530098e-01 -2.960008e-01 -3.022964e-01 -2.071061e-01 -3.656222e-02 7.834464e-03 -1.682403e-02 -2.102564e-02 -4.702982e-02 -3.409982e-02 -1.492625e-01 8.264168e-02 3.305706e-02 8.598776e-02 6.534451e-02 2.569102e-02 -2.208276e-02 -4.613225e-02 -7.641626e-02 -1.026049e-01 -4.450885e-02 3.009449e-03 -2.904440e-02 7.393780e-02
<VARIANCE> 39
 1.612373e+01 7.720871e+00 9.127416e+00 9.674551e+00 1.034907e+01 1.127727e+01 1.277910e+01 2.742090e+01 1.923331e+01 1.210161e+01 1.180047e+01 8.370173e+00 2.029065e+01 3.175493e-01 4.232989e-01 6.720548e-01 9.564385e-01 8.883200e-01 8.689696e-01 1.138916e+00 1.054316e+00 1.007845e+00 9.594160e-01 7.666655e-01 8.235524e-01 1.969979e-01 5.548723e-02 7.850599e-02 1.041826e-01 1.509800e-01 1.552120e-01 1.854860e-01 2.191272e-01 2.326259e-01 2.633683e-01 2.191228e-01 1.557702e-01 1.648495e-01 3.466628e-02
<GCONST> 7.402233e+01
<TRANSP> 5
 0.000000e+00 1.000000e+00 0.000000e+00 0.000000e+00 0.000000e+00
 0.000000e+00 5.595790e-01 4.404210e-01 0.000000e+00 0.000000e+00
 0.000000e+00 0.000000e+00 6.299698e-01 3.700302e-01 0.000000e+00
 0.000000e+00 0.000000e+00 0.000000e+00 8.626076e-01 1.373924e-01
 0.000000e+00 0.000000e+00 0.000000e+00 0.000000e+00 0.000000e+00
<ENDHMM>
~h "j"
<BEGINHMM>
<NUMSTATES> 5
<STATE> 2
<MEAN> 39
 -5.274917e+00 2.956917e+00 -4.603612e+00 -5.548126e+00 -3.444539e+00 -2.741511e+00 2.324385e+00 -5.553150e+00 -4.092838e+00 3.559818e-01 -5.034097e-01 -2.581431e+00 6.825509e+01 -1.116861e+00 8.319718e-01 1.295960e-01 5.801457e-01 5.733711e-01 5.121648e-01 -1.013429e+00 7.366393e-01 4.750839e-01 -6.062920e-01 8.267035e-01 5.867448e-01 -1.865586e+00 -1.939033e-02 -3.049937e-01 1.994689e-01 -7.753237e-02 -3.281605e-02 -1.019120e-01 2.197881e-01 -2.208211e-01 -8.575816e-02 1.013247e-01 -1.396763e-01 7.168638e-02 3.137305e-01
<VARIANCE> 39
 3.103448e+01 1.161974e+01 4.563832e+00 1.267242e+01 1.045293e+01 1.397410e+01 1.955729e+01 1.976873e+01 1.845842e+01 1.713153e+01 4.180146e+01 1.423260e+01 7.556310e+01 5.055338e-01 1.513964e+00 2.952524e-01 4.062549e-01 6.221506e-01 1.038309e+00 2.369329e+00 1.588571e+00 1.103095e+00 2.730774e+00 1.062042e+00 1.164395e+00 1.456880e+00 1.310410e-01 1.996267e-01 8.500800e-02 1.555052e-01 2.031851e-01 2.040840e-01 4.196961e-01 2.653634e-01 2.092903e-01 3.917693e-01 3.482974e-01 2.920558e-01 5.642930e-01
<GCONST> 9.051962e+01
<STATE> 3
<MEAN> 39
 -1.267064e+01 1.733874e-01 -1.929317e+00 -2.115467e+00 -1.352092e+00 3.508440e-01 6.162201e-01 -5.907531e+00 -4.077047e+00 1.781334e-02 2.914291e+00 3.597416e-01 6.226207e+01 7.157272e-01 -1.667847e+00 1.213768e+00 -9.847248e-01 -1.138221e+00 8.166528e-02 1.603113e+00 -1.110816e+00 -7.674184e-01 -1.033038e+00 -1.276840e+00 -2.046032e-01 4.034132e+00 6.326100e-01 -3.563590e-01 1.427768e-01 -5.109582e-01 -4.196928e-01 -3.260784e-01 5.157111e-01 8.979695e-02 -2.034048e-01 -1.625392e-01 -6.066768e-01 -9.181119e-02 1.215772e+00
<VARIANCE> 39
 4.954862e+01 1.321250e+01 1.817033e+01 1.300802e+01 1.494845e+01 1.636472e+01 2.004310e+01 2.413411e+01 2.607309e+01 1.796611e+01 3.911570e+01 8.317982e+00 9.250740e+01 3.031677e+00 4.286211e+00 9.739384e-01 5.468602e+00 3.125327e+00 1.907733e+00 5.273737e+00 2.282302e+00 2.908091e+00 4.304978e+00 5.738059e+00 1.002000e+00 1.554314e+01 4.824197e-01 4.276709e-01 4.338151e-01 5.374186e-01 3.649836e-01 3.949154e-01 7.221442e-01 4.416460e-01 4.737462e-01 6.987662e-01 6.595712e-01 2.830612e-01 1.610303e+00
<GCONST> 1.188785e+02
<STATE> 4
<MEAN> 39
 -2.493127e+00 -9.132896e+00 9.414791e-01 -1.224626e+01 -6.869903e+00 -1.620229e+00 1.175167e+01 -1.277897e+01 -7.466158e+00 2.517035e+00 -6.899075e+00 1.097480e+00 8.327908e+01 6.094704e-01 3.467878e-01 1.457559e-01 1.742055e-01 1.878449e-01 1.465845e-02 -1.170390e-01 -2.878343e-01 3.006296e-01 2.648084e-01 -3.442789e-01 1.379636e-02 3.543337e-01 -2.561414e-01 3.807977e-01 -2.984725e-02 3.764179e-01 1.865552e-01 1.133762e-01 -3.827963e-01 1.578475e-01 2.821062e-01 -5.291028e-02 8.407009e-02 -3.439655e-02 -6.791623e-01
<VARIANCE> 39
 2.606667e+01 3.338356e+01 9.345845e+00 2.887959e+01 2.508193e+01 1.481363e+01 3.914448e+01 3.302781e+01 1.781438e+01 7.444218e+01 4.594008e+01 2.410987e+01 1.520465e+01 2.781083e+00 3.465880e+00 1.521843e+00 3.128941e+00 1.782697e+00 1.844769e+00 3.571865e+00 3.354220e+00 2.157449e+00 8.092134e+00 2.859613e+00 1.273394e+00 6.384439e+00 2.760993e-01 3.280412e-01 2.645489e-01 3.375325e-01 3.327270e-01 3.344063e-01 3.367687e-01 5.008456e-01 3.079016e-01 1.470610e+00 5.157355e-01 1.861119e-01 5.240764e-01
<GCONST> 1.149791e+02
<TRANSP> 5
 0.000000e+00 1.000000e+00 0.000000e+00 0.000000e+00 0.000000e+00
 0.000000e+00 6.912282e-01 3.087718e-01 0.000000e+00 0.000000e+00
 0.000000e+00 0.000000e+00 5.214956e-01 4.785044e-01 0.000000e+00
 0.000000e+00 0.000000e+00 0.000000e+00 8.585079e-01 1.414921e-01
 0.000000e+00 0.000000e+00 0.000000e+00 0.000000e+00 0.000000e+00
<ENDHMM>
~h "k"
<BEGINHMM>
<NUMSTATES> 5
<STATE> 2
<MEAN> 39
 -1.413035e+01 -7.431694e-01 -1.394743e+00 -3.095623e+00 -3.741803e-01 7.299684e-01 2.595168e+00 -3.421286e+00 -4.239471e+00 6.700486e-03 3.648058e+00 -1.747643e-01 6.635468e+01 1.508056e+00 -3.864647e-01 -1.280694e-01 -6.284301e-01 -1.016346e+00 -5.855425e-01 2.857878e-01 -5.249005e-01 -1.315527e+00 4.570007e-03 5.984879e-01 6.471780e-02 1.587811e+00 2.655787e-01 -5.018521e-02 -7.759995e-02 1.085922e-01 -6.366652e-02 -1.076573e-01 -8.007757e-03 -9.344009e-02 -8.808056e-02 1.088874e-01 -4.944676e-02 -4.233366e-02 1.531232e-01
<VARIANCE> 39
 5.539950e+01 2.179223e+01 1.680175e+01 3.685247e+01 4.325774e+01 2.133556e+01 3.461315e+01 5.356170e+01 7.579046e+01 3.165137e+01 4.048601e+01 2.096152e+01 6.880394e+01 4.795373e+00 2.286671e+00 2.064855e+00 5.403645e+00 4.268722e+00 2.011986e+00 3.457799e+00 4.832903e+00 7.326946e+00 3.275681e+00 3.478672e+00 2.204833e+00 4.749338e+00 5.448614e-01 4.409152e-01 4.709656e-01 1.178252e+00 8.355935e-01 4.264852e-01 6.298767e-01 7.913292e-01 1.255692e+00 6.128327e-01 5.423068e-01 4.555344e-01 8.231333e-01
<GCONST> 1.292608e+02
<STATE> 3
<MEAN> 39
 -1.794746e+00 -5.335366e+00 -3.450745e+00 -6.956556e+00 -7.089275e+00 -3.063100e+00 6.515038e+00 -1.011615e+01 -7.736997e+00 3.367543e+00 -8.205721e-01 -1.162899e+00 7.842770e+01 -1.132256e-01 3.067211e-01 -1.115286e-01 6.808846e-02 -6.923848e-02 -1.347588e-01 3.617091e-02 4.035366e-01 4.081172e-01 -9.065313e-02 -2.071579e-01 -2.517899e-01 -3.979805e-01 -3.698497e-01 2.269369e-01 1.618949e-01 1.413955e-01 2.459649e-01 9.756245e-02 -1.825672e-01 1.082876e-01 1.358098e-01 -2.013478e-01 1.390377e-02 5.283400e-02 -3.852794e-01
<VARIANCE> 39
 3.318838e+01 2.570646e+01 1.046981e+01 2.226057e+01 2.275243e+01 2.121995e+01 4.335840e+01 4.259401e+01 4.879765e+01 2.304964e+01 1.035530e+02 2.679723e+01 7.078231e+01 1.193160e+00 1.997108e+00 9.171414e-01 1.719978e+00 1.506519e+00 1.138327e+00 1.755327e+00 1.216742e+00 1.779676e+00 2.008682e+00 1.506622e+00 1.053294e+00 1.848422e+00 2.883221e-01 2.297856e-01 1.460350e-01 2.364262e-01 2.730236e-01 2.302522e-01 2.718340e-01 2.604156e-01 3.849095e-01 2.593863e-01 3.543727e-01 2.248834e-01 1.955100e-01
<GCONST> 1.038029e+02
<STATE> 4
<MEAN> 39
 -5.782385e+00 1.013375e+00 -3.863757e+00 -2.061869e+00 -2.762451e+00 -2.341828e+00 1.485411e+00 -4.291754e+00 -7.778399e+00 2.618659e+00 6.716617e+00 -1.244468e-01 6.989240e+01 -3.895574e-01 4.571567e-01 2.277755e-01 3.322260e-01 3.077041e-01 1.562113e-01 -2.287985e-02 2.286683e-01 4.997115e-01 1.716284e-01 -2.621274e-01 -8.445674e-02 -6.211717e-01 -5.367590e-02 8.738014e-02 1.197084e-01 4.687835e-02 1.240183e-01 3.607897e-02 -9.073961e-02 -2.601355e-02 8.881588e-02 -6.772876e-04 -5.190177e-02 -3.103768e-03 -3.230293e-02
<VARIANCE> 39
 6.204795e+01 1.387632e+01 1.157113e+01 1.542202e+01 1.564368e+01 1.809562e+01 2.339532e+01 2.616314e+01 5.769589e+01 1.688057e+01 4.542973e+01 1.190122e+01 6.336116e+01 1.501365e+00 1.221447e+00 8.786671e-01 1.618430e+00 1.302493e+00 1.387085e+00 1.762711e+00 1.492103e+00 1.794061e+00 9.784592e-01 1.150280e+00 1.283472e+00 1.520330e+00 1.830597e-01 2.292173e-01 1.419837e-01 2.124361e-01 1.631671e-01 2.389545e-01 2.587627e-01 2.594117e-01 2.734053e-01 1.518477e-01 2.224523e-01 1.438233e-01 1.774251e-01
<GCONST> 9.592255e+01
<TRANSP> 5
 0.000000e+00 1.000000e+00 0.000000e+00 0.000000e+00 0.000000e+00
 0.000000e+00 7.893713e-01 2.106287e-01 0.000000e+00 0.000000e+00
 0.000000e+00 0.000000e+00 7.113932e-01 2.886068e-01 0.000000e+00
 0.000000e+00 0.000000e+00 0.000000e+00 6.811714e-01 3.188286e-01
 0.000000e+00 0.000000e+00 0.000000e+00 0.000000e+00 0.000000e+00
<ENDHMM>
~h "l"
<BEGINHMM>
<NUMSTATES> 5
<STATE> 2
<MEAN> 39
 -8.548126e+00 -6.146719e+00 1.263947e+01 1.176199e+01 6.481776e+00 -5.147371e+00 -6.421402e+00 -8.906491e+00 -4.462914e+00 -8.328161e+00 -1.715445e+00 -5.183609e+00 7.648171e+01 4.046428e-01 4.495293e-03 4.505832e-02 -2.522146e-01 1.923890e-01 -1.419437e-01 -5.185922e-01 3.701826e-02 -2.957658e-01 -6.804210e-01 -1.873250e-01 -1.143737e-01 5.030612e-01 7.117619e-02 3.456243e-01 -1.618995e-01 -2.142272e-01 -5.858655e-02 1.561715e-01 1.417059e-01 8.807668e-02 1.641008e-02 4.690236e-02 -6.936183e-03 8.324692e-02 -2.188243e-01
<VARIANCE> 39
 2.564433e+01 6.308683e+01 7.778817e+01 6.020417e+01 3.520885e+01 3.991952e+01 6.647564e+01 5.451194e+01 3.420204e+01 3.106116e+01 3.682365e+01 2.082628e+01 2.691188e+01 1.703189e+00 7.246670e+00 6.200410e+00 4.101918e+00 2.963002e+00 3.139565e+00 4.593163e+00 2.487338e+00 2.015155e+00 2.178628e+00 2.828152e+00 1.548533e+00 2.404253e+00 2.384165e-01 7.821665e-01 7.604563e-01 5.495452e-01 4.707351e-01 3.571293e-01 6.569284e-01 3.537486e-01 4.286934e-01 3.688346e-01 4.795186e-01 2.440570e-01 2.385372e-01
<GCONST> 1.228958e+02
<STATE> 3
<MEAN> 39
 -3.024726e+00 -3.063392e+00 2.895840e+00 -1.950846e+00 -4.239639e+00 -3.301361e+00 4.787115e+00 -7.589548e+00 -3.619314e+00 -5.771493e+00 -6.339962e+00 -1.962082e-02 7.839478e+01 -3.609508e-04 -9.076910e-03 -3.204139e-02 -1.365048e-01 -3.820653e-01 -6.043113e-02 3.169867e-01 -1.708633e-02 -8.179182e-03 2.063216e-01 -1.914305e-02 6.550110e-02 -2.217046e-02 -5.644790e-02 -2.136512e-02 1.724237e-02 6.338774e-02 1.183400e-01 2.555620e-02 -1.115862e-01 -5.080678e-02 2.560440e-02 1.617832e-02 6.689497e-02 -8.326827e-03 -4.758566e-02
<VARIANCE> 39
 4.792700e+00 3.780516e+01 1.441348e+01 3.331404e+01 8.333653e+01 2.935616e+01 7.011591e+01 3.346784e+01 2.087414e+01 4.358398e+01 4.824382e+01 3.520020e+01 1.582144e+01 2.265893e-01 1.752856e+00 8.098732e-01 1.505261e+00 2.262506e+00 1.517871e+00 2.361588e+00 1.573757e+00 1.083847e+00 1.761277e+00 2.385849e+00 1.417812e+00 8.344795e-01 2.747788e-02 2.277154e-01 1.302152e-01 1.991540e-01 1.799316e-01 2.636305e-01 2.880549e-01 2.123814e-01 2.010254e-01 2.641783e-01 3.240159e-01 2.144381e-01 8.890042e-02
<GCONST> 9.654046e+01
<STATE> 4
<MEAN> 39
 -3.976016e+00 3.243949e+00 2.407668e+00 6.327877e+00 4.197714e+00 -4.727844e+00 -6.302897e+00 -5.636891e+00 -1.138379e+01 -2.574285e+00 8.544588e+00 -1.142735e+00 7.194135e+01 -1.854123e-02 4.837766e-03 -3.460176e-01 -3.396405e-01 -5.064395e-02 2.592202e-01 1.234485e-01 -6.666015e-02 1.358253e-01 2.341542e-01 1.413777e-01 1.063169e-01 -1.299427e-01 -3.547718e-02 -3.209330e-02 -4.571088e-03 -2.842084e-03 -2.545832e-02 5.222854e-02 5.558794e-02 -1.984575e-02 3.368595e-02 1.626133e-02 -2.862421e-02 2.944800e-02 -1.782035e-02
<VARIANCE> 39
 1.015873e+01 4.086974e+01 2.381570e+01 3.790988e+01 3.880547e+01 2.328958e+01 4.617807e+01 3.679506e+01 6.607128e+01 5.165326e+01 6.626027e+01 1.485440e+01 1.752585e+01 2.991801e-01 1.543096e+00 1.068620e+00 1.451418e+00 1.361649e+00 1.604868e+00 2.335850e+00 1.357905e+00 2.223273e+00 1.362772e+00 2.237587e+00 1.140111e+00 7.301529e-01 2.708006e-02 2.327923e-01 1.566591e-01 2.469385e-01 2.141974e-01 2.615532e-01 3.706478e-01 2.357808e-01 3.597715e-01 2.458276e-01 3.275328e-01 2.017018e-01 6.922138e-02
<GCONST> 9.852814e+01
<TRANSP> 5
 0.000000e+00 1.000000e+00 0.000000e+00 0.000000e+00 0.000000e+00
 0.000000e+00 8.204412e-01 1.795588e-01 0.000000e+00 0.000000e+00
 0.000000e+00 0.000000e+00 8.980120e-01 1.019881e-01 0.000000e+00
 0.000000e+00 0.000000e+00 0.000000e+00 8.854303e-01 1.145697e-01
 0.000000e+00 0.000000e+00 0.000000e+00 0.000000e+00 0.000000e+00
<ENDHMM>
~h "m"
<BEGINHMM>
<NUMSTATES> 5
<STATE> 2
<MEAN> 39
 -1.338003e+01 3.381366e+00 -1.015405e+00 -6.329527e-01 -5.653435e-02 1.671379e+00 3.373522e+00 -4.992980e-02 7.991046e-01 1.374014e-01 -3.541685e-01 -1.277072e+00 6.094567e+01 -8.323188e-01 -2.706634e-01 -5.489005e-01 -5.631133e-01 -2.572622e-01 -2.304967e-01 -2.120256e-01 3.390754e-01 1.167179e-01 9.300683e-02 2.418646e-01 3.832159e-01 -9.228028e-01 5.261027e-03 -7.919200e-02 1.350574e-02 2.637313e-02 -4.631612e-03 -2.308928e-02 -1.033796e-01 -2.575019e-01 -1.793561e-01 -9.598278e-03 -4.885467e-02 -9.139105e-02 7.241756e-02
<VARIANCE> 39
 3.366162e+01 8.286209e+00 2.202079e+01 2.756232e+01 2.939602e+01 2.390786e+01 1.215653e+01 2.005083e+01 1.940723e+01 1.327331e+01 1.284130e+01 8.433397e+00 4.251184e+01 7.234169e-01 8.232991e-01 8.573806e-01 1.260100e+00 1.334050e+00 1.121392e+00 1.106399e+00 1.592416e+00 1.500102e+00 1.054294e+00 1.070285e+00 7.534531e-01 6.740863e-01 8.318055e-02 1.219313e-01 1.101519e-01 1.431576e-01 1.473497e-01 1.991331e-01 1.861621e-01 2.143030e-01 2.054466e-01 2.197364e-01 2.317850e-01 1.785385e-01 4.641988e-02
<GCONST> 8.528718e+01
<STATE> 3
<MEAN> 39
 -1.628291e+01 2.174995e+00 -1.668048e+00 -6.985182e-01 3.038206e-01 1.638057e+00 2.040053e+00 -9.604275e-01 -4.076304e-01 -9.328846e-02 2.393693e-01 -3.479827e-01 5.817672e+01 -4.838273e-01 -1.785158e-01 -3.782843e-01 -1.366566e-01 4.856732e-02 -3.173587e-02 -2.675831e-01 1.257189e-01 -1.847230e-02 4.499178e-02 3.550638e-03 8.713795e-02 -5.894354e-01 2.077712e-01 6.013956e-02 1.767042e-01 1.945212e-01 1.498542e-01 1.095086e-01 2.493009e-02 -6.071003e-02 -4.307020e-02 -8.217681e-03 -1.618542e-02 -9.236584e-02 2.266478e-01
<VARIANCE> 39
 3.213574e+01 7.574396e+00 1.689783e+01 1.148848e+01 1.065022e+01 1.492947e+01 1.416097e+01 2.183631e+01 2.172772e+01 1.283496e+01 1.731544e+01 7.800627e+00 5.836066e+01 7.000787e-01 4.815491e-01 5.320471e-01 7.052000e-01 8.507782e-01 8.433396e-01 7.783544e-01 1.224568e+00 1.242150e+00 1.005115e+00 1.040149e+00 8.165601e-01 7.170308e-01 8.098988e-02 1.323256e-01 1.263399e-01 2.064565e-01 1.518132e-01 1.392588e-01 1.271982e-01 2.557614e-01 2.859755e-01 2.132622e-01 2.059783e-01 1.454228e-01 7.525994e-02
<GCONST> 8.076874e+01
<STATE> 4
<MEAN> 39
 -1.624952e+01 2.247825e+00 -1.876383e+00 -1.225183e+00 2.489316e-01 1.477632e+00 1.525104e+00 -3.361638e-01 -6.596451e-02 -1.799075e-02 3.637246e-01 -1.526727e-01 5.871567e+01 -1.733284e-01 -8.792318e-03 4.753230e-02 2.141456e-01 3.279286e-01 1.740015e-01 -9.748636e-02 3.662082e-02 2.274454e-02 4.588074e-02 -8.537500e-02 -2.256190e-01 -1.357146e-01 4.506295e-01 1.096529e-01 3.463749e-01 2.678326e-01 3.543155e-02 -2.432618e-02 4.162044e-02 -2.428014e-01 -2.178057e-01 -1.210017e-01 -3.951620e-02 -1.394521e-01 5.449834e-01
<VARIANCE> 39
 3.518589e+01 8.252789e+00 1.981873e+01 1.191762e+01 1.299235e+01 1.810118e+01 1.223426e+01 2.388788e+01 2.608024e+01 1.586817e+01 2.057051e+01 8.890084e+00 6.014035e+01 5.484276e-01 4.417186e-01 6.850328e-01 7.806271e-01 5.830881e-01 7.722028e-01 8.143192e-01 1.244270e+00 1.245121e+00 1.192661e+00 1.029546e+00 5.961686e-01 8.522294e-01 2.386481e-01 1.707719e-01 1.408006e-01 3.949482e-01 1.842765e-01 2.298907e-01 2.508930e-01 3.432416e-01 4.255690e-01 2.326405e-01 2.247164e-01 1.948983e-01 3.623494e-01
<GCONST> 8.804182e+01
<TRANSP> 5
 0.000000e+00 1.000000e+00 0.000000e+00 0.000000e+00 0.000000e+00
 0.000000e+00 4.514262e-01 5.485738e-01 0.000000e+00 0.000000e+00
 0.000000e+00 0.000000e+00 2.136935e-01 7.863065e-01 0.000000e+00
 0.000000e+00 0.000000e+00 0.000000e+00 8.549488e-02 9.145052e-01
 0.000000e+00 0.000000e+00 0.000000e+00 0.000000e+00 0.000000e+00
<ENDHMM>
~h "n"
<BEGINHMM>
<NUMSTATES> 5
<STATE> 2
<MEAN> 39
 -1.051365e+01 7.978765e-01 8.245580e+00 4.511780e+00 2.875929e+00 -5.900817e-01 -2.946074e+00 -4.321694e+00 -3.389316e+00 -5.039004e+00 -1.092533e+00 -3.295721e+00 6.965526e+01 5.415146e-01 -2.878460e-01 6.186278e-01 9.392586e-01 4.959570e-01 -3.926589e-01 -7.315955e-01 -5.035378e-01 -2.919500e-01 -3.414172e-01 1.186614e-01 -1.946967e-01 6.586663e-01 -6.758598e-02 -6.021184e-02 -1.409907e-01 -1.068323e-01 8.118531e-03 5.008404e-02 6.368314e-02 -9.149494e-03 2.872946e-02 1.394699e-01 8.589877e-02 8.940449e-02 -5.291457e-02
<VARIANCE> 39
 5.493056e+01 8.035563e+01 7.563683e+01 4.926800e+01 2.786861e+01 3.651750e+01 2.880266e+01 2.884526e+01 3.350759e+01 4.721103e+01 5.397684e+01 1.309365e+01 5.710187e+01 2.995568e+00 5.337021e+00 3.783541e+00 2.983679e+00 2.315966e+00 3.350426e+00 2.460290e+00 2.499342e+00 4.516265e+00 2.187963e+00 2.996534e+00 1.499532e+00 1.907548e+00 3.289117e-01 8.516601e-01 6.365024e-01 5.385048e-01 4.196203e-01 6.028773e-01 4.113824e-01 4.239025e-01 5.219467e-01 4.424095e-01 3.919892e-01 2.255387e-01 3.353887e-01
<GCONST> 1.229644e+02
<STATE> 3
<MEAN> 39
 -6.147130e+00 -2.932866e+00 4.403917e+00 2.379765e+00 3.286959e+00 6.523439e-01 -7.862104e-01 -8.611954e+00 -2.953315e+00 -5.356298e+00 -3.895915e+00 1.885713e+00 7.472891e+01 2.217607e-01 3.110353e-02 -4.973462e-01 -6.616760e-01 -3.833147e-01 9.987324e-02 5.523668e-01 3.282734e-02 -1.011918e-01 1.518465e-01 1.903918e-01 5.976499e-01 1.666455e-01 -6.028857e-02 -2.690940e-02 -2.840252e-02 -1.852199e-01 -1.581430e-01 -3.789313e-02 1.742893e-01 6.465014e-02 -1.707820e-02 8.517231e-02 4.675349e-02 4.788232e-02 -6.768270e-03
<VARIANCE> 39
 1.670926e+01 4.700799e+01 2.856652e+01 6.327693e+01 3.007387e+01 3.238691e+01 5.366029e+01 2.700287e+01 3.978936e+01 2.948750e+01 7.003245e+01 5.049250e+01 6.091385e+01 5.310419e-01 2.253693e+00 1.788191e+00 3.402285e+00 1.739754e+00 2.195994e+00 1.871758e+00 1.529106e+00 2.673878e+00 1.695343e+00 3.128937e+00 2.643680e+00 1.581995e+00 1.095915e-01 3.682203e-01 2.517204e-01 5.117010e-01 3.499243e-01 4.020086e-01 3.260979e-01 2.991311e-01 6.024146e-01 2.913388e-01 8.151370e-01 5.558685e-01 2.325259e-01
<GCONST> 1.142725e+02
<STATE> 4
<MEAN> 39
 -7.571736e+00 6.671812e+00 3.324286e+00 5.180840e+00 3.812017e+00 -7.940632e-01 -3.201589e+00 -4.233327e+00 -2.794474e+00 1.515367e-01 2.564146e+00 -1.469405e+00 6.706738e+01 -3.063962e-01 -2.115723e-01 -3.761278e-01 -4.917831e-01 -2.333870e-01 2.361893e-01 6.415683e-01 3.027404e-01 1.268579e-01 1.665753e-01 7.866780e-02 1.952929e-01 -1.804613e-01 -4.626211e-02 -1.268246e-01 -6.386507e-02 -4.818086e-02 -2.453412e-02 -2.845684e-02 2.904324e-02 2.288724e-02 -7.742359e-02 -4.200194e-02 5.144346e-02 2.244816e-02 2.917416e-02
<VARIANCE> 39
 2.712194e+01 2.766289e+01 2.415353e+01 3.462942e+01 2.489895e+01 2.371660e+01 4.890334e+01 3.027780e+01 5.688732e+01 3.139588e+01 4.544317e+01 1.906683e+01 3.610573e+01 6.349959e-01 1.822997e+00 1.233329e+00 1.729865e+00 1.214831e+00 1.603445e+00 2.058432e+00 1.501155e+00 2.873038e+00 1.263991e+00 2.358410e+00 1.103879e+00 1.440104e+00 6.003015e-02 2.545400e-01 1.687970e-01 2.277905e-01 2.038672e-01 2.350563e-01 3.025868e-01 2.452006e-01 5.377669e-01 2.005046e-01 4.114704e-01 1.841648e-01 1.083067e-01
<GCONST> 1.017480e+02
<TRANSP> 5
 0.000000e+00 1.000000e+00 0.000000e+00 0.000000e+00 0.000000e+00
 0.000000e+00 7.016331e-01 2.983669e-01 0.000000e+00 0.000000e+00
 0.000000e+00 0.000000e+00 6.764070e-01 3.235931e-01 0.000000e+00
 0.000000e+00 0.000000e+00 0.000000e+00 7.672275e-01 2.327725e-01
 0.000000e+00 0.000000e+00 0.000000e+00 0.000000e+00 0.000000e+00
<ENDHMM>
~h "o"
<BEGINHMM>
<NUMSTATES> 5
<STATE> 2
<MEAN> 39
 -3.000311e+00 8.237639e-01 -1.916162e+00 -3.448922e+00 -2.740187e-01 -4.054319e+00 -2.891473e-01 -6.046660e+00 -7.543691e+00 -6.974867e+00 -2.100229e+00 1.146137e+00 7.539287e+01 1.367408e+00 1.270938e-01 -6.459605e-01 1.201817e-01 5.061244e-01 -4.752487e-01 -6.629621e-01 -5.443687e-01 -1.112310e+00 -5.543889e-01 -1.345391e-01 -4.891267e-02 9.114215e-01 -1.858943e-01 -2.035150e-02 -6.791112e-02 1.579942e-02 -5.922444e-02 7.565839e-03 3.085187e-02 1.155691e-01 1.203518e-01 1.404421e-01 2.638610e-02 -8.847876e-02 -1.923907e-01
<VARIANCE> 39
 2.673574e+01 3.511411e+01 2.218263e+01 4.193406e+01 5.274861e+01 3.492097e+01 2.011992e+01 2.225275e+01 3.933281e+01 3.408356e+01 4.250002e+01 2.063345e+01 2.821079e+01 4.172117e+00 2.837826e+00 2.019664e+00 2.023670e+00 2.568388e+00 5.232002e+00 1.903654e+00 1.602363e+00 3.079947e+00 3.150912e+00 2.964833e+00 1.226384e+00 3.386276e+00 7.651318e-01 5.276781e-01 4.415717e-01 4.475449e-01 5.335066e-01 1.033744e+00 4.039242e-01 3.016206e-01 4.736843e-01 6.052209e-01 5.414414e-01 2.457168e-01 5.108274e-01
<GCONST> 1.195061e+02
<STATE> 3
<MEAN> 39
 -4.061337e-01 3.236124e+00 -2.189330e+00 -2.853359e+00 -2.170350e+00 -7.748749e+00 -2.449640e+00 -4.789750e+00 -8.091359e+00 -6.375194e+00 -2.223608e+00 -2.255731e+00 7.606517e+01 -3.783562e-01 3.720203e-01 6.125482e-01 4.691171e-01 1.476398e-02 2.326853e-01 2.177452e-01 2.076055e-02 5.830419e-02 7.002412e-02 -2.002151e-02 -1.857032e-01 -4.676384e-01 -2.315198e-01 9.243833e-02 1.964599e-01 1.286807e-01 1.353215e-01 3.244623e-01 1.570787e-01 -1.195447e-02 1.011320e-01 8.518925e-03 1.075081e-02 4.109400e-02 -2.281279e-01
<VARIANCE> 39
 3.344834e+00 1.312591e+01 1.945088e+01 2.829200e+01 5.148085e+01 3.846173e+01 1.644855e+01 1.961041e+01 9.553629e+01 2.828286e+01 6.462334e+01 1.518099e+01 9.873889e+00 3.099969e-01 7.805617e-01 9.322430e-01 1.027757e+00 1.910347e+00 2.973506e+00 1.321209e+00 1.134983e+00 1.558933e+00 1.533046e+00 8.649459e-01 1.233220e+00 5.169364e-01 6.690650e-02 1.908215e-01 1.881175e-01 1.986176e-01 2.459669e-01 3.468319e-01 2.305959e-01 2.042978e-01 3.771653e-01 2.678990e-01 1.755471e-01 1.925804e-01 6.346458e-02
<GCONST> 9.157233e+01
<STATE> 4
<MEAN> 39
 -7.203200e+00 8.274933e+00 3.873006e+00 4.168720e+00 2.684738e+00 7.095354e-01 2.159505e-01 -4.317127e+00 -4.109116e+00 -2.871809e+00 -1.434490e+00 -2.736042e+00 6.655704e+01 -9.661657e-01 1.611625e-01 3.350502e-01 4.271448e-01 4.092793e-01 7.746180e-01 4.644021e-01 4.397337e-01 9.170843e-01 6.699514e-01 1.343334e-02 1.395830e-01 -1.106335e+00 -2.397981e-02 -3.100613e-01 -1.630689e-01 -1.998535e-01 -9.739969e-02 -1.825552e-01 -9.737214e-02 7.806244e-02 3.959317e-03 -4.049702e-03 9.283327e-02 1.770543e-02 1.619619e-01
<VARIANCE> 39
 1.377394e+01 1.786777e+01 1.398192e+01 2.347424e+01 2.303002e+01 3.133518e+01 2.439876e+01 2.302687e+01 5.224457e+01 3.889815e+01 4.099769e+01 1.935061e+01 2.026588e+01 6.345921e-01 2.005634e+00 1.584969e+00 1.374272e+00 1.427036e+00 1.733909e+00 1.324475e+00 1.257288e+00 2.924790e+00 1.179241e+00 1.626137e+00 1.251939e+00 7.775483e-01 1.048769e-01 2.722709e-01 2.219654e-01 1.842555e-01 2.663366e-01 3.506268e-01 2.741978e-01 2.423249e-01 4.120286e-01 1.998112e-01 2.419070e-01 2.131175e-01 1.092504e-01
<GCONST> 9.781319e+01
<TRANSP> 5
 0.000000e+00 1.000000e+00 0.000000e+00 0.000000e+00 0.000000e+00
 0.000000e+00 8.449525e-01 1.550475e-01 0.000000e+00 0.000000e+00
 0.000000e+00 0.000000e+00 8.704116e-01 1.295883e-01 0.000000e+00
 0.000000e+00 0.000000e+00 0.000000e+00 8.370824e-01 1.629175e-01
 0.000000e+00 0.000000e+00 0.000000e+00 0.000000e+00 0.000000e+00
<ENDHMM>
~h "p"
<BEGINHMM>
<NUMSTATES> 5
<STATE> 2
<MEAN> 39
 -1.989830e+01 1.802897e+00 -2.806014e+00 -8.025450e-01 2.982949e-02 1.761235e+00 3.774207e+00 4.256656e+00 4.461194e+00 2.567173e+00 1.558319e+00 2.009745e-01 5.878272e+01 -2.365099e-01 -1.838350e-01 -1.303706e-01 -1.140065e-01 -1.292452e-01 -1.072426e-01 -9.025995e-02 -6.453168e-02 -1.252565e-01 -1.649403e-01 -1.633068e-01 -1.561254e-01 -1.701548e-01 8.616279e-02 6.147675e-02 5.483874e-02 3.203667e-02 2.640803e-02 5.776863e-03 -1.593834e-02 -4.552606e-02 -2.731917e-02 8.178057e-03 1.770455e-02 9.644900e-03 6.095925e-02
<VARIANCE> 39
 7.826707e+00 2.899310e+00 4.424370e+00 7.451780e+00 8.128263e+00 8.688380e+00 8.228786e+00 1.385346e+01 1.356826e+01 1.062816e+01 9.982315e+00 8.083002e+00 6.324284e+00 2.246867e-01 2.823505e-01 4.427653e-01 6.942961e-01 8.322213e-01 8.742275e-01 8.624554e-01 9.720527e-01 9.479109e-01 8.648484e-01 9.742454e-01 8.229574e-01 2.060791e-01 3.795717e-02 5.068912e-02 7.455721e-02 1.182979e-01 1.501405e-01 1.598053e-01 1.780024e-01 2.035902e-01 2.009613e-01 1.774269e-01 1.943756e-01 1.595129e-01 1.646621e-02
<GCONST> 6.311823e+01
<STATE> 3
<MEAN> 39
 -1.643919e+01 2.174128e+00 -3.400064e+00 -1.833994e+00 -1.473644e+00 -1.061725e-01 1.196822e+00 -4.012175e-01 5.724766e-01 -2.698795e-01 -5.154893e-01 -1.992527e-01 5.723177e+01 -5.210932e-01 -1.207097e-01 -4.171512e-02 3.968077e-02 1.977194e-01 2.586306e-01 -6.594104e-02 2.196652e-02 1.483209e-01 3.386377e-01 4.822899e-01 3.227624e-01 -6.415006e-01 1.980572e-01 -8.239391e-02 1.625950e-01 -8.627369e-02 1.008302e-02 -6.668725e-02 -9.391390e-03 -2.409621e-01 -2.491902e-01 -7.198677e-02 6.054281e-02 -2.100017e-02 4.934347e-01
<VARIANCE> 39
 3.407005e+01 6.272064e+00 5.002676e+00 7.511688e+00 7.742645e+00 1.436875e+01 1.460882e+01 2.735851e+01 2.146613e+01 1.565899e+01 9.709493e+00 8.490619e+00 3.219247e+01 6.103289e-01 3.019059e-01 3.272299e-01 5.094900e-01 5.985019e-01 6.383168e-01 6.966963e-01 9.564165e-01 8.963190e-01 9.533439e-01 8.899386e-01 8.600436e-01 9.358512e-01 1.551398e-01 1.370197e-01 1.101219e-01 1.807093e-01 2.008592e-01 2.003519e-01 3.024561e-01 3.145058e-01 4.033440e-01 2.040509e-01 1.940065e-01 1.848174e-01 2.314082e-01
<GCONST> 7.910729e+01
<STATE> 4
<MEAN> 39
 -8.136795e+00 1.571663e+00 -3.295846e+00 -2.626605e+00 -2.752160e+00 -4.232617e+00 -9.342231e-01 -5.704845e-01 -4.674147e+00 9.704059e-01 5.980053e+00 -3.089716e-01 6.779227e+01 1.145580e+00 -1.324047e-01 -5.819877e-02 -2.180642e-01 -2.495783e-01 -3.514762e-01 -1.025260e-01 -5.770648e-01 -9.641891e-01 3.957811e-02 5.204141e-01 5.106889e-02 1.111910e+00 7.202629e-02 -4.767878e-02 1.430807e-02 -5.332469e-03 -4.371534e-02 6.347691e-02 1.384995e-01 -2.907188e-02 -6.394026e-02 4.316941e-04 -2.854228e-02 -1.630438e-02 1.547712e-01
<VARIANCE> 39
 8.182468e+01 9.290479e+00 9.836613e+00 1.252914e+01 1.787089e+01 3.328368e+01 2.957412e+01 2.024632e+01 3.528366e+01 1.278911e+01 3.636896e+01 7.168355e+00 7.855405e+01 4.543154e+00 1.141484e+00 1.111341e+00 1.162296e+00 1.602655e+00 3.110154e+00 2.296603e+00 1.857744e+00 2.578649e+00 1.026663e+00 1.301953e+00 7.612537e-01 3.483711e+00 7.554981e-01 2.162934e-01 2.060033e-01 2.146401e-01 2.978754e-01 4.939821e-01 3.832884e-01 3.597802e-01 4.184704e-01 2.283257e-01 2.491349e-01 1.566049e-01 7.408032e-01
<GCONST> 1.043994e+02
<TRANSP> 5
 0.000000e+00 1.000000e+00 0.000000e+00 0.000000e+00 0.000000e+00
 0.000000e+00 8.687521e-01 1.312479e-01 0.000000e+00 0.000000e+00
 0.000000e+00 0.000000e+00 3.634304e-01 6.365696e-01 0.000000e+00
 0.000000e+00 0.000000e+00 0.000000e+00 7.615535e-01 2.384465e-01
 0.000000e+00 0.000000e+00 0.000000e+00 0.000000e+00 0.000000e+00
<ENDHMM>
~h "r"
<BEGINHMM>
<NUMSTATES> 5
<STATE> 2
<MEAN> 39
 -5.590332e+00 -4.707307e+00 -3.189617e+00 -6.608607e+00 -5.439595e+00 -1.866016e+00 8.707477e+00 -9.181601e+00 -7.711250e+00 1.962167e+00 -1.001561e+00 2.525517e-01 7.586415e+01 1.547831e+00 -3.285738e-01 -2.599518e-01 -3.241774e-01 -3.509714e-01 -5.385725e-01 3.746876e-01 -7.383596e-01 -7.963243e-01 4.600218e-01 -5.193335e-02 -1.412959e-01 1.745579e+00 -1.021863e-01 2.830194e-01 -1.143590e-02 1.550938e-01 1.042783e-01 -1.624574e-02 -3.038998e-01 2.499169e-01 2.835079e-01 -1.000606e-01 -9.397294e-02 -8.830214e-02 -3.565652e-01
<VARIANCE> 39
 4.819523e+01 3.981105e+01 1.739117e+01 3.265247e+01 4.471657e+01 2.363189e+01 5.520335e+01 3.568007e+01 4.420848e+01 5.485778e+01 6.689955e+01 1.935513e+01 7.050220e+01 3.337236e+00 2.657644e+00 1.580894e+00 2.491383e+00 2.590994e+00 2.159674e+00 3.418222e+00 2.872526e+00 3.052097e+00 4.424079e+00 2.645086e+00 1.558948e+00 5.143693e+00 5.624843e-01 4.047575e-01 3.554489e-01 4.938755e-01 4.421748e-01 3.917915e-01 4.209976e-01 4.898710e-01 4.156305e-01 8.326941e-01 4.033250e-01 2.626177e-01 5.399878e-01
<GCONST> 1.220857e+02
<STATE> 3
<MEAN> 39
 -2.513973e+00 1.313831e+00 -3.772317e+00 -3.613170e+00 -3.082249e+00 -3.345472e+00 2.969162e+00 -7.187330e+00 -7.322669e+00 6.607175e-05 1.238162e-01 -1.371615e+00 7.414503e+01 -9.217905e-01 1.215782e+00 5.488523e-01 5.808042e-01 7.233496e-01 5.010328e-01 -8.840848e-01 9.437624e-01 9.406018e-01 -9.913632e-01 -2.734624e-01 -1.021479e-01 -1.456833e+00 -4.882347e-01 -1.408863e-01 1.634510e-01 2.654871e-02 1.039730e-01 2.215791e-01 1.551885e-01 1.413570e-01 3.055053e-01 1.167066e-01 2.406328e-02 1.279932e-01 -3.285332e-01
<VARIANCE> 39
 1.656605e+01 2.995461e+01 1.707097e+01 3.079731e+01 3.284362e+01 2.643759e+01 2.304291e+01 2.623171e+01 3.940202e+01 4.520716e+01 5.537957e+01 3.782706e+01 2.587052e+01 2.274760e+00 1.829694e+00 1.845668e+00 1.751031e+00 1.123699e+00 1.713473e+00 1.654101e+00 1.964868e+00 2.649991e+00 2.178079e+00 2.075649e+00 1.513734e+00 2.197268e+00 3.307183e-01 4.809294e-01 3.268219e-01 2.782652e-01 2.167867e-01 3.908595e-01 3.133282e-01 4.328685e-01 3.941596e-01 4.357858e-01 3.771002e-01 3.055751e-01 3.118080e-01
<GCONST> 1.100334e+02
<STATE> 4
<MEAN> 39
 -1.380827e+01 2.428893e+00 -1.967469e+00 -5.324397e-01 1.863933e+00 2.699405e+00 2.708348e+00 -1.514085e+00 -8.305212e-01 -4.191364e-01 1.205451e+00 1.176870e+00 6.235432e+01 -9.041185e-01 -4.757619e-01 2.936300e-02 -1.595825e-01 2.164670e-02 9.007336e-02 -2.330428e-02 3.483625e-01 4.511933e-01 8.684273e-02 4.424397e-02 1.429378e-01 -5.442585e-01 4.228861e-01 -7.566101e-02 -4.578389e-02 -7.368197e-02 -1.471777e-01 -2.879921e-01 -7.839849e-02 -2.526344e-01 -3.614019e-01 -6.827386e-02 1.414084e-02 -3.821888e-02 4.437679e-01
<VARIANCE> 39
 3.381494e+01 2.008203e+01 1.548074e+01 1.712694e+01 2.147322e+01 1.528724e+01 1.275942e+01 3.393490e+01 3.944936e+01 3.011067e+01 1.878645e+01 1.304134e+01 3.070206e+01 2.762906e+00 1.462052e+00 1.455196e+00 1.266198e+00 1.084280e+00 1.920577e+00 1.716564e+00 3.048398e+00 3.522439e+00 1.431487e+00 1.203533e+00 1.429410e+00 2.644682e+00 3.984068e-01 3.439606e-01 2.695499e-01 2.160421e-01 1.910442e-01 2.599904e-01 3.052920e-01 3.996430e-01 4.308751e-01 3.429528e-01 2.871575e-01 2.683993e-01 2.630384e-01
<GCONST> 1.034295e+02
<TRANSP> 5
 0.000000e+00 1.000000e+00 0.000000e+00 0.000000e+00 0.000000e+00
 0.000000e+00 7.565101e-01 2.434900e-01 0.000000e+00 0.000000e+00
 0.000000e+00 0.000000e+00 7.296371e-01 2.703629e-01 0.000000e+00
 0.000000e+00 0.000000e+00 0.000000e+00 7.771496e-01 2.228504e-01
 0.000000e+00 0.000000e+00 0.000000e+00 0.000000e+00 0.000000e+00
<ENDHMM>
~h "s"
<BEGINHMM>
<NUMSTATES> 5
<STATE> 2
<MEAN> 39
 -1.528235e+01 -3.175594e+00 2.883407e+00 6.189833e-01 3.357147e-01 2.259359e+00 1.181407e+00 -5.586776e+00 -4.713133e+00 -1.717866e+00 2.197409e+00 3.541501e-01 6.558656e+01 -1.478219e+00 -1.992277e+00 2.556402e+00 -5.667495e-01 -4.306775e-01 8.252729e-01 1.726135e-01 -4.610204e-01 2.275861e-01 3.695953e-01 9.153653e-01 -5.840047e-01 1.327880e+00 -3.686391e-01 -3.716125e-01 4.507208e-01 -3.754081e-01 -1.719236e-01 -4.765009e-02 4.984406e-02 3.472201e-02 1.772129e-02 2.923933e-02 7.098855e-02 -1.777986e-01 2.808609e-01
<VARIANCE> 39
 4.997239e+01 3.810967e+01 5.708058e+01 3.194859e+01 3.284513e+01 1.802835e+01 3.374040e+01 5.035379e+01 4.808365e+01 2.639604e+01 2.422580e+01 1.836180e+01 9.739563e+01 4.227856e+00 3.662622e+00 4.495594e+00 2.921345e+00 2.227843e+00 1.900672e+00 3.094685e+00 3.309810e+00 4.064842e+00 1.930494e+00 2.491526e+00 1.258750e+00 3.186687e+00 4.154500e-01 5.804282e-01 6.187509e-01 4.684218e-01 3.782907e-01 3.703110e-01 5.017598e-01 5.697460e-01 5.741340e-01 3.313325e-01 3.724127e-01 2.068397e-01 4.423371e-01
<GCONST> 1.209116e+02
<STATE> 3
<MEAN> 39
 -2.621558e+01 -1.699203e+01 1.877983e+01 -6.295832e+00 -3.935786e+00 4.279141e+00 4.289755e+00 -8.841625e+00 -3.691391e+00 -7.816905e-01 6.761478e+00 -5.180104e+00 7.730554e+01 -3.751133e-01 -4.729854e-01 9.032807e-02 -2.458155e-01 1.339722e-01 -9.838940e-02 -1.948607e-01 -9.162953e-02 1.895305e-01 5.280104e-02 9.363743e-02 -2.096605e-01 1.227201e-01 6.212994e-01 4.880624e-01 -4.920096e-01 4.927194e-01 2.431150e-01 -2.395544e-02 -2.211352e-01 -8.668130e-02 -1.327315e-01 -9.658478e-02 -2.028143e-01 1.053005e-01 -2.078225e-01
<VARIANCE> 39
 2.355731e+01 2.794841e+01 1.874813e+01 3.115653e+01 3.676958e+01 1.593461e+01 3.738607e+01 4.825802e+01 2.208404e+01 3.442442e+01 1.981641e+01 2.026786e+01 2.580673e+01 3.933130e+00 2.191067e+00 3.395799e+00 3.606713e+00 2.374532e+00 1.311023e+00 1.952822e+00 1.683818e+00 1.427867e+00 1.568818e+00 1.458036e+00 1.330512e+00 1.012850e+00 3.465946e-01 4.614080e-01 4.385033e-01 3.725090e-01 2.905931e-01 2.979981e-01 3.278209e-01 3.511202e-01 3.102676e-01 2.982616e-01 3.076393e-01 1.980614e-01 1.075537e-01
<GCONST> 1.070937e+02
<STATE> 4
<MEAN> 39
 -1.181845e+01 -7.316895e+00 1.120207e+01 6.633779e+00 6.414569e+00 -6.326257e-01 -7.704547e+00 -1.066408e+01 -8.293059e+00 -3.628552e+00 5.249032e+00 -4.004504e+00 7.439169e+01 2.191683e+00 1.275561e+00 -8.519492e-01 1.360691e+00 6.627715e-01 -6.537111e-01 -9.345596e-01 -8.189466e-01 -1.265343e+00 -5.751734e-01 -1.077397e-01 2.690344e-01 3.847975e-01 -2.684201e-01 -1.063952e-01 -5.349256e-04 -4.145930e-01 -2.595066e-01 -7.645244e-02 2.769167e-01 1.563026e-01 1.155896e-01 1.471714e-01 3.871725e-02 5.081522e-02 2.403662e-02
<VARIANCE> 39
 7.507588e+01 7.169807e+01 4.294268e+01 7.392231e+01 2.428836e+01 4.281700e+01 4.279561e+01 5.395684e+01 6.977477e+01 3.978700e+01 4.974601e+01 1.885867e+01 2.378629e+01 7.760025e+00 6.782203e+00 3.104211e+00 9.069761e+00 2.486715e+00 3.190735e+00 3.305758e+00 2.792119e+00 5.706167e+00 2.951630e+00 3.748949e+00 1.355816e+00 1.067161e+00 1.062188e+00 1.035010e+00 4.318302e-01 1.072384e+00 3.292809e-01 6.633090e-01 4.814931e-01 4.446542e-01 1.071256e+00 4.786768e-01 4.812414e-01 2.575728e-01 1.872490e-01
<GCONST> 1.289050e+02
<TRANSP> 5
 0.000000e+00 1.000000e+00 0.000000e+00 0.000000e+00 0.000000e+00
 0.000000e+00 7.766783e-01 2.233218e-01 0.000000e+00 0.000000e+00
 0.000000e+00 0.000000e+00 8.798463e-01 1.201536e-01 0.000000e+00
 0.000000e+00 0.000000e+00 0.000000e+00 8.446545e-01 1.553455e-01
 0.000000e+00 0.000000e+00 0.000000e+00 0.000000e+00 0.000000e+00
<ENDHMM>
~h "t"
<BEGINHMM>
<NUMSTATES> 5
<STATE> 2
<MEAN> 39
 -1.422828e+01 -3.782182e+00 2.860014e+00 -1.451846e-01 -8.523215e-02 5.250766e-01 -9.737599e-01 -8.316785e+00 -3.709476e+00 -1.514998e+00 -2.500473e-01 -2.250037e+00 6.882664e+01 1.585139e+00 -3.372318e-01 -2.491687e-01 1.744304e-01 -3.061022e-01 -2.861143e-01 1.818134e-01 -9.875520e-01 -1.299334e+00 -2.241037e-01 -1.860856e-02 2.629238e-01 1.617484e+00 2.303172e-01 -2.170810e-02 -7.857135e-02 -1.080900e-01 -6.827696e-02 -9.592945e-02 1.331315e-01 7.161684e-02 8.525964e-03 6.416580e-02 -4.663391e-02 1.005823e-01 2.034976e-01
<VARIANCE> 39
 4.829227e+01 3.767154e+01 4.517034e+01 8.143481e+01 3.540339e+01 2.644265e+01 4.629052e+01 4.873967e+01 4.618425e+01 1.790647e+01 4.541400e+01 1.765691e+01 6.276654e+01 5.307498e+00 4.966094e+00 5.192508e+00 7.386481e+00 3.047694e+00 2.496211e+00 4.487078e+00 4.830315e+00 4.661973e+00 3.236873e+00 3.427631e+00 1.327321e+00 9.428547e+00 7.069233e-01 1.081631e+00 8.582863e-01 1.178564e+00 6.484199e-01 4.666533e-01 8.468208e-01 1.050577e+00 7.683498e-01 5.703296e-01 4.512569e-01 1.992700e-01 1.541543e+00
<GCONST> 1.336275e+02
<STATE> 3
<MEAN> 39
 -5.751353e+00 -1.296761e+01 2.872264e+00 -8.578390e+00 -4.475791e+00 -3.320704e+00 5.724279e+00 -1.322451e+01 -5.667402e+00 -1.617500e+00 2.862750e-01 3.358939e+00 8.327739e+01 2.538362e-01 -7.752388e-02 -5.446053e-02 5.602732e-02 3.285864e-02 -6.114341e-02 2.447971e-02 -1.752019e-01 -1.278287e-01 -1.689568e-01 1.045859e-01 1.757185e-01 1.054420e-01 -1.714304e-01 7.039262e-02 -1.198073e-02 1.701843e-02 3.013520e-02 7.634245e-02 -4.355106e-02 1.028348e-01 8.398146e-02 -6.191786e-02 3.848774e-02 -2.375439e-02 -1.894073e-01
<VARIANCE> 39
 9.807070e+01 4.447612e+01 7.648039e+01 4.949053e+01 1.800197e+01 1.949527e+01 4.176443e+01 2.495981e+01 4.155474e+01 5.208785e+01 5.728104e+01 1.302542e+01 9.727001e+00 4.665504e+00 3.053971e+00 2.469436e+00 2.602696e+00 1.110865e+00 1.968333e+00 2.313330e+00 1.733245e+00 1.851984e+00 2.805934e+00 1.931321e+00 1.025020e+00 1.217671e+00 5.748979e-01 4.799024e-01 2.511971e-01 4.094632e-01 2.130115e-01 3.275903e-01 3.877513e-01 2.856613e-01 3.823786e-01 4.214254e-01 2.955029e-01 1.729849e-01 3.042946e-01
<GCONST> 1.124787e+02
<STATE> 4
<MEAN> 39
 -1.653985e+00 -3.081642e+00 -3.821004e+00 -2.832044e+00 -4.138606e+00 -3.803280e+00 2.236169e+00 -1.091485e+01 -1.096795e+01 -3.146334e+00 3.323967e+00 5.332726e+00 7.658926e+01 -4.457352e-01 8.570085e-01 -1.308241e-01 9.802189e-02 1.656496e-01 2.505175e-01 -6.168178e-02 7.562040e-01 4.155381e-01 -3.985198e-01 -3.251670e-01 9.341866e-02 -8.465676e-01 -2.792904e-01 3.370167e-02 2.173081e-01 -4.828881e-02 1.661708e-01 1.483628e-01 -5.774147e-02 5.689485e-03 1.205996e-01 8.789337e-02 -5.207853e-02 -1.644133e-01 -1.674596e-01
<VARIANCE> 39
 8.900665e+00 2.529514e+01 1.343435e+01 4.365566e+01 1.543039e+01 2.487003e+01 1.539041e+01 2.788571e+01 3.062957e+01 2.918205e+01 6.346912e+01 1.024339e+01 2.446894e+01 7.976200e-01 1.936531e+00 1.438460e+00 1.664870e+00 1.527721e+00 1.507327e+00 1.441447e+00 1.517949e+00 1.137372e+00 1.781944e+00 1.298467e+00 8.812968e-01 1.453196e+00 2.396420e-01 3.897867e-01 2.613290e-01 3.450655e-01 2.152925e-01 3.918715e-01 2.168769e-01 2.832222e-01 3.073907e-01 3.914497e-01 2.345218e-01 1.526093e-01 2.109629e-01
<GCONST> 9.904732e+01
<TRANSP> 5
 0.000000e+00 1.000000e+00 0.000000e+00 0.000000e+00 0.000000e+00
 0.000000e+00 8.713385e-01 1.286615e-01 0.000000e+00 0.000000e+00
 0.000000e+00 0.000000e+00 9.177394e-01 8.226059e-02 0.000000e+00
 0.000000e+00 0.000000e+00 0.000000e+00 8.497356e-01 1.502644e-01
 0.000000e+00 0.000000e+00 0.000000e+00 0.000000e+00 0.000000e+00
<ENDHMM>
~h "u"
<BEGINHMM>
<NUMSTATES> 5
<STATE> 2
<MEAN> 39
 -1.193948e+01 4.664469e+00 7.041058e+00 6.339799e+00 3.994563e+00 3.146320e-01 -1.212291e+00 -2.250788e+00 -4.164165e+00 -3.810203e+00 2.103659e+00 -3.513634e-01 6.574815e+01 5.447652e-01 -5.143785e-01 9.540319e-01 4.745858e-01 1.905690e-02 -4.833193e-01 -4.730344e-01 -5.317557e-01 -6.088343e-01 -5.055535e-01 -6.368680e-02 -2.560108e-01 1.314191e+00 2.557417e-01 -2.420356e-01 -1.678318e-01 -6.987534e-02 3.488033e-02 -8.303358e-02 -1.349831e-01 -1.490055e-01 -2.554704e-01 -1.347470e-01 5.053956e-02 2.148434e-03 3.299053e-01
<VARIANCE> 39
 3.374742e+01 7.499161e+01 4.865204e+01 4.342289e+01 2.664941e+01 2.161741e+01 3.063783e+01 2.283986e+01 4.468040e+01 3.096149e+01 1.310313e+01 1.278425e+01 3.163105e+01 3.384609e+00 9.920797e+00 3.157654e+00 4.322536e+00 3.686696e+00 2.111195e+00 4.331337e+00 3.030742e+00 6.083821e+00 3.369291e+00 2.729858e+00 1.608851e+00 5.749806e+00 4.924301e-01 1.147224e+00 6.877440e-01 5.459831e-01 6.388835e-01 3.390174e-01 6.825522e-01 4.609247e-01 7.409964e-01 4.253334e-01 4.759272e-01 2.530891e-01 6.783648e-01
<GCONST> 1.249912e+02
<STATE> 3
<MEAN> 39
 -5.692708e+00 -1.221701e+00 3.678038e+00 1.761210e+00 3.309343e+00 1.039674e+00 9.380618e-01 -8.329804e+00 -8.658485e+00 -7.770038e+00 -2.152866e+00 -1.472703e+00 7.466669e+01 1.341088e+00 -6.894991e-01 -5.420737e-01 -1.895390e-01 3.100348e-01 -8.054196e-01 -3.519500e-01 -7.233059e-01 -6.533104e-01 3.249145e-01 -2.558621e-01 3.163342e-01 1.403143e+00 -1.865022e-01 9.873742e-02 -8.723035e-02 -8.890732e-02 5.570974e-02 6.190573e-02 2.045482e-02 2.687768e-02 1.947589e-01 2.378675e-01 1.234142e-01 1.443377e-01 -4.109127e-01
<VARIANCE> 39
 1.811770e+01 5.398178e+01 2.845108e+01 1.109919e+02 7.165271e+01 3.532123e+01 7.881757e+01 2.480653e+01 2.763648e+01 5.036585e+01 4.314662e+01 1.769754e+01 4.309714e+01 2.953782e+00 3.519526e+00 3.570911e+00 2.483322e+00 3.273114e+00 2.756965e+00 4.235681e+00 2.439977e+00 3.182629e+00 6.126843e+00 4.011301e+00 1.532019e+00 5.773918e+00 4.243318e-01 7.630002e-01 4.701503e-01 6.356097e-01 7.495180e-01 5.734298e-01 5.895883e-01 4.092549e-01 4.627515e-01 9.920212e-01 5.303032e-01 2.727781e-01 8.080485e-01
<GCONST> 1.277466e+02
<STATE> 4
<MEAN> 39
 -1.934425e+00 -3.684433e+00 4.979474e-01 2.235214e+00 2.605036e+00 -4.074488e+00 -3.188528e+00 -1.071460e+01 -1.359155e+01 -4.799767e+00 5.888692e+00 2.643266e+00 7.753341e+01 -1.304804e-01 4.802001e-01 -1.996686e-01 -4.476771e-01 -5.205898e-01 2.382408e-01 3.381913e-01 -1.189464e-01 2.307803e-01 5.482770e-01 9.200525e-02 -2.055170e-03 -3.627566e-01 -2.705492e-01 2.520954e-01 1.727647e-01 6.473167e-02 1.200182e-02 1.977306e-01 3.721391e-02 1.790420e-01 3.025927e-01 -7.627960e-04 -1.053348e-01 -1.046299e-01 -3.027376e-01
<VARIANCE> 39
 5.982382e+00 2.692440e+01 2.100849e+01 8.739656e+01 6.055293e+01 1.734730e+01 1.115756e+02 2.954242e+01 3.929866e+01 5.543114e+01 6.870306e+01 2.241769e+01 1.961121e+01 5.029027e-01 1.232062e+00 1.161750e+00 1.271722e+00 1.187904e+00 1.434767e+00 1.655681e+00 1.713726e+00 1.467665e+00 1.330545e+00 1.207264e+00 1.239443e+00 6.992944e-01 8.647069e-02 2.011088e-01 2.269608e-01 2.546789e-01 2.095417e-01 2.663968e-01 3.721859e-01 3.646986e-01 3.083983e-01 4.016384e-01 2.853209e-01 1.725808e-01 9.716608e-02
<GCONST> 1.003201e+02
<TRANSP> 5
 0.000000e+00 1.000000e+00 0.000000e+00 0.000000e+00 0.000000e+00
 0.000000e+00 7.933120e-01 2.066880e-01 0.000000e+00 0.000000e+00
 0.000000e+00 0.000000e+00 7.756969e-01 2.243031e-01 0.000000e+00
 0.000000e+00 0.000000e+00 0.000000e+00 8.399365e-01 1.600635e-01
 0.000000e+00 0.000000e+00 0.000000e+00 0.000000e+00 0.000000e+00
<ENDHMM>
~h "w"
<BEGINHMM>
<NUMSTATES> 5
<STATE> 2
<MEAN> 39
 -4.976575e+00 -1.986760e+00 7.133605e+00 1.941514e+00 1.442296e+00 9.430133e-01 3.167546e-02 -1.110865e+01 -4.373314e+00 -5.316816e+00 -7.226881e+00 -6.268223e-02 7.718301e+01 -3.615021e-01 7.542202e-01 6.680924e-01 6.711257e-01 6.962205e-01 2.282614e-01 -5.002645e-01 1.307544e-01 5.516133e-01 -4.180813e-01 1.938172e-02 -4.842443e-01 -6.661026e-01 -2.549740e-02 -3.877610e-02 -1.268457e-01 2.837386e-02 -5.719477e-02 -6.882615e-02 7.996370e-02 4.507309e-02 6.055804e-03 1.503179e-01 8.723749e-02 -5.401579e-02 -3.518391e-02
<VARIANCE> 39
 6.714988e+00 4.668657e+01 3.793948e+01 7.769469e+01 3.001290e+01 1.713783e+01 3.158164e+01 2.869221e+01 2.574859e+01 2.513967e+01 4.292890e+01 3.297336e+01 2.603102e+01 4.120843e-01 1.492826e+00 8.428609e-01 2.214543e+00 1.321035e+00 1.643852e+00 1.533009e+00 1.798306e+00 1.640421e+00 1.838750e+00 2.348682e+00 1.762850e+00 8.296618e-01 4.210135e-02 2.496949e-01 2.209333e-01 2.868787e-01 1.516461e-01 2.674856e-01 1.677005e-01 2.982104e-01 2.454841e-01 3.290460e-01 4.029392e-01 3.035313e-01 9.637206e-02
<GCONST> 9.924805e+01
<STATE> 3
<MEAN> 39
 -6.222763e+00 -2.237788e+00 6.593039e+00 4.292908e+00 5.741008e+00 -7.827129e-01 -3.127124e+00 -9.852382e+00 -6.930459e+00 -8.895575e+00 -1.235763e+00 2.989265e-01 7.563740e+01 1.013407e-01 2.120565e-01 -5.445619e-01 -2.245326e-01 3.239345e-02 2.858212e-01 8.275395e-02 2.122011e-01 -5.007244e-02 -6.039510e-02 1.590997e-01 6.811756e-02 -8.943553e-02 7.483904e-02 3.453646e-02 -7.963534e-03 5.490350e-02 -1.588718e-01 -6.692194e-02 7.387355e-02 1.252458e-01 -1.334761e-02 -8.563606e-02 -1.345796e-01 -3.912672e-05 7.782070e-03
<VARIANCE> 39
 1.364143e+01 7.548710e+01 3.754871e+01 3.257378e+01 3.144674e+01 2.259697e+01 2.820970e+01 3.729125e+01 3.143863e+01 1.933476e+01 2.206707e+01 2.878916e+01 4.229247e+01 1.758471e+00 6.524761e+00 2.552663e+00 3.469787e+00 2.981509e+00 2.684536e+00 3.774403e+00 3.598630e+00 2.692043e+00 2.589849e+00 2.504184e+00 1.223697e+00 3.319499e+00 3.049387e-01 1.049168e+00 3.947068e-01 4.502023e-01 5.120927e-01 4.711413e-01 7.168596e-01 5.806346e-01 3.347261e-01 5.016536e-01 3.678841e-01 2.113979e-01 4.455726e-01
<GCONST> 1.191158e+02
<STATE> 4
<MEAN> 39
 -2.974969e+00 4.878903e+00 1.084247e+00 2.978163e+00 5.485366e-01 -4.516759e+00 -3.719820e+00 -4.522208e+00 -9.357429e+00 -6.859187e+00 5.019578e+00 9.734659e-01 7.197326e+01 -2.097229e-01 2.894572e-01 3.246059e-01 2.464831e-01 -3.923549e-01 -1.299431e-01 3.572150e-01 2.033376e-01 3.326376e-01 3.921088e-01 2.932768e-02 -2.204597e-01 -3.752652e-01 -5.122615e-02 -1.019691e-01 -2.966032e-02 -5.102940e-02 6.886479e-02 6.358962e-02 4.898544e-02 -3.648363e-02 -2.619423e-02 3.522126e-02 -1.886862e-02 -1.377399e-02 3.299340e-02
<VARIANCE> 39
 7.889924e+00 2.760394e+01 3.620015e+01 1.303371e+01 1.961366e+01 3.159596e+01 3.010807e+01 2.148643e+01 1.671298e+01 1.793346e+01 3.233477e+01 2.913464e+01 1.147228e+01 4.128375e-01 7.536781e-01 1.191165e+00 9.213274e-01 9.676277e-01 1.712977e+00 1.537766e+00 1.187363e+00 1.377324e+00 1.056030e+00 1.313168e+00 7.484007e-01 5.035877e-01 7.945976e-02 2.212120e-01 1.704966e-01 2.131296e-01 1.530346e-01 3.170209e-01 3.376400e-01 2.333792e-01 3.407389e-01 2.122092e-01 2.245732e-01 1.307311e-01 1.360673e-01
<GCONST> 8.974149e+01
<TRANSP> 5
 0.000000e+00 1.000000e+00 0.000000e+00 0.000000e+00 0.000000e+00
 0.000000e+00 7.858170e-01 2.141830e-01 0.000000e+00 0.000000e+00
 0.000000e+00 0.000000e+00 8.160800e-01 1.839200e-01 0.000000e+00
 0.000000e+00 0.000000e+00 0.000000e+00 7.535326e-01 2.464673e-01
 0.000000e+00 0.000000e+00 0.000000e+00 0.000000e+00 0.000000e+00
<ENDHMM>
~h "y"
<BEGINHMM>
<NUMSTATES> 5
<STATE> 2
<MEAN> 39
 -1.605924e+01 -1.317844e+00 -2.059501e+00 -1.517751e+00 -5.891001e-01 1.254579e-01 3.099157e+00 -1.407552e-02 9.407700e-01 1.722806e+00 1.820271e+00 1.115517e+00 6.452655e+01 2.717614e-03 -3.179252e-03 -3.002271e-01 -4.117620e-01 -3.430282e-01 -9.980461e-02 5.698885e-01 9.958448e-02 -3.020669e-01 -1.815751e-03 -2.432037e-01 1.713999e-01 -2.544384e-02 4.440628e-02 8.787939e-02 1.143547e-01 1.609823e-01 1.293511e-01 4.986382e-02 -2.913469e-02 -5.282314e-03 5.931320e-02 -1.581570e-02 -1.826705e-02 -4.636227e-02 2.449015e-03
<VARIANCE> 39
 7.444418e+01 2.604518e+01 1.294410e+01 1.123385e+01 5.409747e+00 2.295502e+01 1.590775e+01 8.123764e+01 6.534608e+01 1.404860e+01 3.430375e+01 9.346310e+00 1.061071e+02 1.155199e-01 2.197425e-01 5.464726e-01 7.873971e-01 9.657123e-01 6.002776e-01 2.181093e+00 1.042435e+00 5.784131e-01 9.364982e-01 1.045717e+00 1.069564e+00 4.066635e-02 1.794902e-02 4.479217e-02 8.701721e-02 1.042125e-01 1.235968e-01 1.408556e-01 1.735378e-01 1.269413e-01 1.403607e-01 1.587985e-01 1.659576e-01 2.217116e-01 1.074165e-02
<GCONST> 7.419051e+01
<STATE> 3
<MEAN> 39
 -4.540853e+00 -5.583679e+00 -1.557195e-02 -1.765546e+00 -1.276019e+00 -3.026878e+00 2.560072e+00 -8.924685e+00 -8.513261e+00 -8.087358e-01 1.004126e+00 3.792833e+00 7.692995e+01 1.702959e-01 3.417052e-01 -5.645259e-01 -6.359295e-01 -6.510329e-01 -1.419925e-01 9.065308e-01 4.830746e-01 1.032533e-01 1.743361e-02 -7.949510e-01 1.187075e-02 -1.229834e-01 -2.081779e-02 1.609537e-01 6.615886e-02 1.783369e-01 9.495519e-02 -5.799206e-02 -3.862504e-01 -7.926915e-03 1.461646e-01 -1.440929e-01 -8.839749e-02 -3.129230e-01 -8.056086e-02
<VARIANCE> 39
 5.522054e+01 3.162253e+01 2.352314e+01 3.558400e+01 9.211551e+00 5.076208e+01 9.710666e+00 5.243434e+01 9.388477e+01 3.515715e+01 1.283734e+02 7.267227e+00 7.575220e+01 7.345834e-02 1.556744e-01 4.570985e-01 7.307368e-01 6.551874e-01 3.881316e-01 1.830361e+00 7.434926e-01 6.927798e-01 9.667760e-01 6.936392e-01 7.477604e-01 3.710397e-02 1.324160e-02 7.460305e-02 1.016972e-01 1.982991e-01 8.065666e-02 9.241060e-02 1.914723e-01 2.046916e-01 1.300696e-01 1.586008e-01 1.855733e-01 1.237355e-01 2.753090e-02
<GCONST> 7.633087e+01
<STATE> 4
<MEAN> 39
 -3.876731e+00 -4.736981e+00 -1.008857e+00 -5.292977e+00 -3.965863e+00 -3.860955e+00 4.385661e+00 -8.385944e+00 -6.361683e+00 -1.597628e+00 -4.705175e+00 2.191201e+00 7.777602e+01 -2.131397e-02 1.596835e+00 -4.880305e-01 2.253589e-01 -3.173981e-01 -3.401447e-01 -3.367509e-01 1.157760e+00 5.660244e-01 -4.529524e-01 -7.244802e-01 -1.173305e+00 -8.381668e-01 -1.469449e-01 4.325206e-01 2.364418e-01 3.819730e-01 4.054579e-01 7.844903e-02 -5.037019e-01 1.040560e-01 2.055520e-01 -2.302707e-01 1.495184e-01 -2.277550e-01 -3.747670e-01
<VARIANCE> 39
 5.484211e+01 3.038136e+01 1.740087e+01 2.549911e+01 1.647738e+01 3.284402e+01 9.574845e+00 4.600404e+01 4.182009e+01 4.724169e+01 8.119162e+01 1.151979e+01 7.522253e+01 1.668128e-01 1.416806e+00 6.082106e-01 1.916513e+00 7.782930e-01 1.383521e+00 1.129175e+00 1.087194e+00 1.134381e+00 1.275537e+00 1.431371e+00 9.337977e-01 8.138367e-01 9.363607e-02 1.284646e-01 1.316163e-01 2.432844e-01 1.708049e-01 1.909785e-01 1.948163e-01 2.304176e-01 1.991429e-01 2.936500e-01 2.403180e-01 2.546231e-01 2.076079e-01
<GCONST> 9.417256e+01
<TRANSP> 5
 0.000000e+00 1.000000e+00 0.000000e+00 0.000000e+00 0.000000e+00
 0.000000e+00 6.054463e-01 3.945537e-01 0.000000e+00 0.000000e+00
 0.000000e+00 0.000000e+00 5.553738e-01 4.446262e-01 0.000000e+00
 0.000000e+00 0.000000e+00 0.000000e+00 5.885888e-01 4.114112e-01
 0.000000e+00 0.000000e+00 0.000000e+00 0.000000e+00 0.000000e+00
<ENDHMM>
~h "sp"
<BEGINHMM>
<NUMSTATES> 3
<STATE> 2
~s "silst"
<TRANSP> 3
 0.000000e+00 1.329386e-01 8.670614e-01
 0.000000e+00 7.642558e-01 2.357442e-01
 0.000000e+00 0.000000e+00 0.000000e+00
<ENDHMM>
~h "sy"
<BEGINHMM>
<NUMSTATES> 5
<STATE> 2
<MEAN> 39
 -2.050714e+01 7.392450e-01 -4.367869e+00 -1.383682e+00 -3.750533e-01 1.446581e+00 6.749213e-01 -1.502334e-01 -5.653397e-02 4.093286e-01 -2.765670e-01 5.796844e-02 5.128982e+01 -3.409594e-02 -5.119057e-02 -3.508881e-02 -6.371665e-02 -1.055929e-01 -9.333565e-02 -5.021563e-02 3.548950e-02 6.775935e-02 1.625009e-02 -5.357203e-02 -6.140992e-02 1.043452e-02 1.240906e-02 3.803396e-04 1.583773e-02 6.761855e-03 1.755653e-02 2.638588e-02 1.698487e-02 1.867595e-02 2.661097e-02 2.093535e-02 2.574957e-02 1.577837e-02 1.480280e-02
<VARIANCE> 39
 9.175147e-01 2.116396e+00 3.479940e+00 5.158896e+00 5.303975e+00 6.148830e+00 9.783885e+00 1.315753e+01 1.725592e+01 9.309523e+00 7.913775e+00 6.541770e+00 2.919644e+01 7.859806e-02 1.353832e-01 3.558498e-01 4.181275e-01 4.927047e-01 7.104629e-01 7.965264e-01 8.093393e-01 6.908540e-01 6.245695e-01 7.253950e-01 6.868866e-01 4.955817e-02 1.909325e-02 3.360425e-02 8.223785e-02 8.878386e-02 9.365004e-02 1.377604e-01 1.677604e-01 1.668893e-01 1.443089e-01 1.389906e-01 1.472974e-01 1.358311e-01 1.019119e-02
<GCONST> 5.088802e+01
<STATE> 3
<MEAN> 39
 -2.086246e+01 -4.675961e-02 -4.082037e+00 -2.438590e+00 -9.352760e-01 2.183234e+00 2.127522e+00 1.033029e+00 2.202330e+00 1.349355e+00 -4.975797e-01 -1.364816e-01 5.219253e+01 2.896683e-02 -4.446417e-03 9.253967e-02 4.617567e-03 1.166517e-01 -2.043193e-01 -2.715355e-01 -3.358818e-01 -3.237163e-01 -1.084618e-01 1.167687e-01 1.565382e-01 1.054313e-01 -9.181375e-03 -4.641882e-02 1.562906e-01 1.124323e-01 -2.529292e-02 -6.488781e-02 -2.066057e-01 -2.417079e-01 -3.977095e-01 -6.116394e-02 1.424168e-01 -1.859376e-01 1.095794e-02
<VARIANCE> 39
 9.000261e-01 2.783201e+00 3.240507e+00 4.699338e+00 7.568061e+00 5.051513e+00 6.667197e+00 2.493327e+01 2.236539e+01 8.145550e+00 6.091946e+00 2.826283e+00 2.524430e+01 5.519881e-02 1.769100e-01 2.495406e-01 1.458755e-01 2.751703e-01 4.421172e-01 7.341491e-01 7.523781e-01 1.526954e+00 4.300169e-01 3.313321e-01 3.417956e-01 2.037690e-01 1.758799e-02 1.040701e-01 1.392121e-01 1.021706e-01 1.705769e-01 1.960214e-01 2.124773e-01 1.724523e-01 2.521127e-01 1.270376e-01 1.146524e-01 1.287202e-01 5.788913e-02
<GCONST> 5.275631e+01
<STATE> 4
<MEAN> 39
 -2.081205e+01 4.304883e-01 -4.442134e+00 -1.933400e+00 -1.147142e+00 1.095347e+00 5.178933e-01 1.241768e+00 1.243998e+00 2.205676e+00 9.240144e-01 1.418698e-01 5.410607e+01 -1.903411e-01 -6.188346e-01 1.022617e+00 2.093040e-01 -1.463443e-01 3.125174e-01 -4.945784e-01 -3.697130e-01 -7.298445e-01 -2.599167e-02 6.749177e-01 -3.632559e-01 2.711260e-01 -1.193831e-01 -5.805554e-01 5.757824e-01 -8.378959e-02 -2.083597e-02 1.797279e-01 3.337431e-02 6.015950e-02 -3.116061e-02 -1.622690e-01 1.348290e-01 -2.160837e-01 5.246406e-01
<VARIANCE> 39
 9.000261e-01 7.840427e-01 3.880038e+00 3.622092e+00 2.990467e+00 4.714389e+00 9.211938e+00 1.881478e+01 1.152325e+01 6.983688e+00 5.290692e+00 6.172093e+00 3.171925e+01 2.645246e-01 1.254868e+00 1.852713e+00 5.591843e-01 8.207806e-01 1.023144e+00 4.370879e-01 1.004863e+00 9.728922e-01 5.980603e-01 4.900547e-01 3.874483e-01 2.856342e-01 6.393210e-02 1.317266e-01 2.368211e-01 5.256188e-02 1.133356e-01 1.347351e-01 2.938194e-01 1.435550e-01 2.289676e-01 1.211072e-01 1.905627e-01 7.742818e-02 1.110247e-01
<GCONST> 6.107243e+01
<TRANSP> 5
 0.000000e+00 1.000000e+00 0.000000e+00 0.000000e+00 0.000000e+00
 0.000000e+00 9.458966e-01 5.410340e-02 0.000000e+00 0.000000e+00
 0.000000e+00 0.000000e+00 3.880828e-01 6.119171e-01 0.000000e+00
 0.000000e+00 0.000000e+00 0.000000e+00 3.441445e-01 6.558555e-01
 0.000000e+00 0.000000e+00 0.000000e+00 0.000000e+00 0.000000e+00
<ENDHMM>
~h "sil"
<BEGINHMM>
<NUMSTATES> 5
<STATE> 2
<MEAN> 39
 -2.165668e+01 2.089088e+00 -7.358096e+00 2.045494e+00 -3.928310e+00 3.942624e+00 -3.734165e+00 2.240858e+00 -2.628482e+00 9.915814e-01 -3.974124e-01 -1.041892e-01 2.888825e+01 1.346432e-01 -1.414111e-02 7.238151e-02 -3.726768e-02 7.370953e-02 -1.799835e-02 6.899109e-02 -6.348871e-02 1.381120e-02 1.942954e-03 -1.740232e-02 6.768680e-03 1.987276e-01 5.864562e-03 1.139987e-03 7.292232e-03 -1.773139e-04 7.074547e-03 4.847836e-03 1.260293e-02 3.532948e-03 7.655428e-03 7.084377e-03 1.061623e-02 6.921463e-03 1.206473e-02
<VARIANCE> 39
 1.469503e+02 2.859333e+00 2.223698e+01 5.576397e+00 1.399437e+01 8.921999e+00 1.278978e+01 1.055311e+01 6.914598e+00 4.822359e+00 4.525494e+00 4.120116e+00 2.699730e+02 1.772059e-01 1.065821e-01 1.606613e-01 2.161107e-01 2.917290e-01 3.511261e-01 4.265175e-01 4.652756e-01 4.721594e-01 4.830495e-01 4.682750e-01 4.466298e-01 1.701763e-01 2.323684e-02 2.089045e-02 3.072502e-02 4.278825e-02 5.655735e-02 7.070626e-02 8.688015e-02 9.217783e-02 9.684768e-02 9.420634e-02 9.214940e-02 9.217737e-02 1.292933e-02
<GCONST> 4.983490e+01
<STATE> 3
~s "silst"
<STATE> 4
<MEAN> 39
 -2.073591e+01 1.012890e+00 -3.526705e+00 -1.245259e+00 -2.242516e-01 1.614453e+00 3.206045e+00 3.325286e+00 3.396640e+00 1.716653e+00 6.739193e-01 -5.518806e-01 5.648107e+01 -5.422927e-03 -9.817867e-03 -1.486752e-02 -1.572117e-02 -1.220235e-02 -1.450583e-02 -1.146295e-02 -6.478848e-03 -8.237582e-03 -5.461022e-03 2.668231e-03 2.812342e-03 4.536980e-03 4.357581e-03 6.547228e-04 2.760742e-03 2.817447e-03 1.999632e-03 -2.428068e-04 -2.838691e-03 -5.852190e-03 -8.486637e-03 -3.703036e-03 1.932913e-03 7.256416e-04 2.727068e-03
<VARIANCE> 39
 1.362816e+00 2.042969e+00 3.718184e+00 4.831100e+00 5.473747e+00 6.203959e+00 9.298223e+00 1.627037e+01 1.447878e+01 8.521797e+00 7.076818e+00 6.768343e+00 1.957059e+01 9.725349e-02 1.544794e-01 2.752625e-01 4.161765e-01 5.020581e-01 5.972832e-01 7.156487e-01 9.142674e-01 9.181697e-01 7.880449e-01 7.065863e-01 6.822264e-01 4.639367e-02 1.964720e-02 3.213418e-02 5.395214e-02 8.335320e-02 1.035092e-01 1.243371e-01 1.458471e-01 1.869471e-01 1.916192e-01 1.659300e-01 1.481714e-01 1.402744e-01 8.247548e-03
<GCONST> 5.082816e+01
<TRANSP> 5
 0.000000e+00 1.000000e+00 0.000000e+00 0.000000e+00 0.000000e+00
 0.000000e+00 9.187674e-01 2.685234e-02 5.438022e-02 0.000000e+00
 0.000000e+00 0.000000e+00 9.027675e-01 9.723240e-02 0.000000e+00
 0.000000e+00 5.609696e-03 0.000000e+00 9.742815e-01 2.010882e-02
 0.000000e+00 0.000000e+00 0.000000e+00 0.000000e+00 0.000000e+00
<ENDHMM>
