~o
<STREAMINFO> 1 39
<VECSIZE> 39<NULLD><MFCC_D_A_0><DIAGC>
~h "a"
<BEGINHMM>
<NUMSTATES> 5
<STATE> 2
<MEAN> 39
 -1.558157e+01 1.898910e+00 -1.062059e+00 7.819663e-01 1.106111e+00 5.774009e-02 1.152979e+00 1.569512e+00 -2.442747e-01 1.358667e+00 3.318351e+00 -7.359643e-01 6.271977e+01 1.156685e-02 -7.401067e-04 -5.350732e-03 -7.716624e-03 -6.602552e-03 -1.047417e-02 -6.725467e-04 -5.530753e-03 -1.821590e-02 2.342986e-03 1.463651e-02 -1.285145e-03 1.103311e-01 4.591858e-03 -2.386867e-04 3.542852e-04 -2.314896e-04 -2.632373e-04 -3.545747e-04 -6.339855e-04 -1.116724e-03 -9.942222e-04 -2.583627e-04 5.080993e-05 3.273240e-04 -1.124966e-02
<VARIANCE> 39
 6.802670e+01 1.967041e+01 2.691040e+01 3.006866e+01 2.145803e+01 2.042135e+01 3.685226e+01 3.613002e+01 7.267605e+01 2.046526e+01 2.520902e+01 1.180140e+01 5.883019e+01 1.702922e+00 1.263359e+00 1.209495e+00 1.497724e+00 1.110641e+00 1.319710e+00 1.592867e+00 1.716232e+00 2.632604e+00 1.180141e+00 1.330628e+00 9.606763e-01 1.454983e+00 2.028922e-01 2.086944e-01 1.893772e-01 2.377289e-01 1.927812e-01 2.387332e-01 2.704425e-01 3.044269e-01 3.933361e-01 2.212558e-01 2.303191e-01 1.816025e-01 1.344923e-01
<GCONST> 1.009659e+02
<STATE> 3
<MEAN> 39
 -1.547616e+01 1.890864e+00 -1.086566e+00 7.416376e-01 1.066327e+00 5.918216e-03 1.146595e+00 1.533332e+00 -3.358426e-01 1.371810e+00 3.384665e+00 -7.359669e-01 6.306145e+01 2.551625e-02 -1.135427e-03 -4.197324e-03 -8.163872e-03 -8.011859e-03 -1.115052e-02 -2.458296e-03 -9.088825e-03 -2.148681e-02 2.190222e-03 1.514680e-02 9.714718e-04 6.559839e-02 2.495827e-03 -2.604793e-06 2.280863e-04 -3.898412e-05 -2.346224e-04 -7.737771e-05 -2.585405e-04 -5.875238e-04 -5.514099e-04 3.926596e-05 1.459664e-04 4.452762e-04 -8.345973e-03
<VARIANCE> 39
 6.898689e+01 1.986960e+01 2.686415e+01 2.993238e+01 2.159870e+01 2.078460e+01 3.693509e+01 3.643877e+01 7.336053e+01 2.067525e+01 2.543297e+01 1.196678e+01 4.806616e+01 1.670344e+00 1.276705e+00 1.213791e+00 1.498683e+00 1.118281e+00 1.334351e+00 1.588600e+00 1.722225e+00 2.660105e+00 1.184688e+00 1.341916e+00 9.702888e-01 1.183543e+00 1.956366e-01 2.109667e-01 1.901303e-01 2.381314e-01 1.932669e-01 2.408996e-01 2.693594e-01 3.043036e-01 3.957448e-01 2.221243e-01 2.316449e-01 1.830618e-01 1.199062e-01
<GCONST> 1.005954e+02
<STATE> 4
<MEAN> 39
 -1.520523e+01 1.862012e+00 -1.214919e+00 6.306512e-01 9.314309e-01 -1.244965e-01 1.190215e+00 1.424549e+00 -5.475665e-01 1.489726e+00 3.531959e+00 -7.057382e-01 6.338264e+01 2.839269e-02 -8.740239e-04 -5.424845e-03 -9.431695e-03 -1.037154e-02 -8.935185e-03 1.459036e-03 -8.825729e-03 -1.975755e-02 4.430459e-03 1.434771e-02 5.481781e-03 3.030196e-02 3.281822e-04 1.836242e-04 9.914424e-05 4.805844e-05 -2.257380e-06 1.458866e-04 1.690731e-04 -6.591261e-05 -2.269330e-05 5.220490e-05 1.452671e-05 3.192063e-04 -2.377175e-03
<VARIANCE> 39
 7.137978e+01 1.981418e+01 2.624436e+01 2.909554e+01 2.136952e+01 2.168600e+01 3.643886e+01 3.697843e+01 7.450474e+01 2.047412e+01 2.597976e+01 1.222443e+01 4.492814e+01 1.734931e+00 1.293905e+00 1.208785e+00 1.468335e+00 1.123323e+00 1.369968e+00 1.582188e+00 1.734783e+00 2.717366e+00 1.191308e+00 1.362657e+00 9.828606e-01 1.053310e+00 1.997771e-01 2.145831e-01 1.901897e-01 2.345640e-01 1.928028e-01 2.452111e-01 2.677303e-01 3.045190e-01 4.012870e-01 2.243050e-01 2.338830e-01 1.852741e-01 1.150521e-01
<GCONST> 1.006251e+02
<TRANSP> 5
 0.000000e+00 1.000000e+00 0.000000e+00 0.000000e+00 0.000000e+00
 0.000000e+00 7.872304e-01 2.127696e-01 0.000000e+00 0.000000e+00
 0.000000e+00 0.000000e+00 7.872320e-01 2.127681e-01 0.000000e+00
 0.000000e+00 0.000000e+00 0.000000e+00 9.191085e-01 8.089151e-02
 0.000000e+00 0.000000e+00 0.000000e+00 0.000000e+00 0.000000e+00
<ENDHMM>
~h "b"
<BEGINHMM>
<NUMSTATES> 5
<STATE> 2
<MEAN> 39
 -1.619589e+01 1.872939e+00 -1.311726e+00 8.917107e-01 1.423658e+00 9.586715e-01 1.583189e+00 8.381203e-01 -1.014033e+00 1.031583e+00 3.133920e+00 -6.900096e-01 6.251661e+01 -3.815889e-02 -2.699131e-02 1.354654e-02 -4.044478e-03 1.112601e-02 7.754207e-03 -1.864132e-02 6.111745e-03 1.596010e-02 -1.555670e-02 -7.337729e-03 -7.719595e-03 -1.032834e-02 1.309402e-03 -4.914145e-04 1.821868e-03 1.404589e-03 1.148161e-03 -1.023929e-03 -2.506514e-03 -2.169741e-03 -2.905220e-03 -2.488018e-04 1.201857e-03 -4.733381e-04 1.756008e-03
<VARIANCE> 39
 6.406403e+01 1.727771e+01 1.887917e+01 2.129511e+01 1.767055e+01 1.660047e+01 3.225628e+01 5.293394e+01 1.043166e+02 1.913635e+01 2.545037e+01 1.066320e+01 4.412175e+01 1.251753e+00 1.303225e+00 1.130716e+00 1.292946e+00 1.062938e+00 1.119029e+00 1.739549e+00 1.870383e+00 3.136278e+00 1.333330e+00 1.410813e+00 9.650702e-01 8.793563e-01 1.258466e-01 1.903673e-01 1.818513e-01 2.283032e-01 1.839370e-01 2.007735e-01 2.943615e-01 3.012885e-01 4.340540e-01 2.560310e-01 2.368854e-01 1.797379e-01 7.715599e-02
<GCONST> 9.807993e+01
<STATE> 3
<MEAN> 39
 -1.637430e+01 1.734026e+00 -1.232640e+00 8.836960e-01 1.488393e+00 9.870670e-01 1.472794e+00 8.574708e-01 -9.518400e-01 9.577599e-01 3.108846e+00 -7.358466e-01 6.247911e+01 -3.169724e-02 -2.942301e-02 2.234210e-02 2.697308e-03 1.645446e-02 2.706736e-03 -3.072892e-02 -5.057055e-03 1.076367e-03 -1.679569e-02 -1.471024e-03 -9.931049e-03 -1.719773e-03 8.903465e-04 -6.048359e-04 1.484992e-03 1.065512e-03 1.005632e-03 -5.973110e-04 -1.874021e-03 -2.035613e-03 -2.730378e-03 -2.095079e-04 9.842858e-04 -3.538587e-04 1.433088e-03
<VARIANCE> 39
 6.339910e+01 1.788106e+01 2.038194e+01 2.257760e+01 1.811244e+01 1.653349e+01 3.335064e+01 5.334346e+01 1.055054e+02 1.882456e+01 2.536467e+01 1.043459e+01 4.399409e+01 1.287197e+00 1.304724e+00 1.182877e+00 1.384753e+00 1.065872e+00 1.102481e+00 1.740588e+00 1.885039e+00 3.151938e+00 1.331478e+00 1.388624e+00 9.363220e-01 8.774529e-01 1.325155e-01 1.909363e-01 1.911651e-01 2.428438e-01 1.852018e-01 1.994395e-01 2.934389e-01 3.057944e-01 4.396218e-01 2.562522e-01 2.340108e-01 1.749630e-01 7.864765e-02
<GCONST> 9.853378e+01
<STATE> 4
<MEAN> 39
 -1.665529e+01 1.467235e+00 -1.120248e+00 9.247832e-01 1.609224e+00 9.401163e-01 1.241285e+00 8.416263e-01 -9.566532e-01 8.363197e-01 3.084925e+00 -8.456565e-01 6.243358e+01 -2.268859e-02 -3.253929e-02 3.013513e-02 1.021604e-02 2.165787e-02 -2.743446e-03 -4.127419e-02 -1.897010e-02 -1.813898e-02 -1.587912e-02 5.789994e-03 -1.276023e-02 8.752838e-03 5.547151e-04 -6.492039e-04 4.910690e-04 2.748998e-04 5.905872e-04 2.169332e-04 -2.742340e-04 -1.248839e-03 -1.756825e-03 -8.327137e-05 4.740399e-04 -1.321118e-04 9.880265e-04
<VARIANCE> 39
 6.200814e+01 1.831688e+01 2.259609e+01 2.559883e+01 1.922231e+01 1.694521e+01 3.522249e+01 5.400008e+01 1.093286e+02 1.818659e+01 2.573953e+01 1.000854e+01 4.372107e+01 1.338328e+00 1.284868e+00 1.255137e+00 1.554052e+00 1.078143e+00 1.090484e+00 1.745678e+00 1.925524e+00 3.220710e+00 1.306519e+00 1.350564e+00 8.832704e-01 8.639471e-01 1.431868e-01 1.906873e-01 2.053887e-01 2.700199e-01 1.880602e-01 1.998073e-01 2.931259e-01 3.174500e-01 4.548582e-01 2.513804e-01 2.295495e-01 1.662463e-01 8.056816e-02
<GCONST> 9.928325e+01
<TRANSP> 5
 0.000000e+00 1.000000e+00 0.000000e+00 0.000000e+00 0.000000e+00
 0.000000e+00 8.008527e-01 1.991473e-01 0.000000e+00 0.000000e+00
 0.000000e+00 0.000000e+00 8.008529e-01 1.991471e-01 0.000000e+00
 0.000000e+00 0.000000e+00 0.000000e+00 9.323699e-01 6.763009e-02
 0.000000e+00 0.000000e+00 0.000000e+00 0.000000e+00 0.000000e+00
<ENDHMM>
~h "d"
<BEGINHMM>
<NUMSTATES> 5
<STATE> 2
<MEAN> 39
 -1.429046e+01 2.299553e+00 -7.705808e-01 1.674216e+00 1.530484e+00 -3.837686e-01 7.925739e-01 7.866325e-01 -1.490878e+00 8.984315e-01 3.669920e+00 -3.850657e-01 6.186292e+01 -1.378396e-01 1.295308e-02 -2.939477e-02 -1.152619e-02 -9.267207e-03 1.451159e-02 4.525497e-02 4.471961e-02 6.631742e-02 2.141333e-02 -2.063952e-02 -1.139158e-02 3.665320e-01 1.622306e-02 -2.310736e-03 1.742978e-03 -1.464505e-03 -3.728936e-04 -1.156307e-03 -2.115558e-03 -2.660639e-03 -2.320811e-03 -2.053157e-03 -1.097272e-03 5.726554e-04 -3.971422e-02
<VARIANCE> 39
 7.107254e+01 2.026722e+01 2.615862e+01 3.944400e+01 2.286531e+01 2.275377e+01 3.492058e+01 3.858835e+01 8.375199e+01 2.541507e+01 2.812303e+01 1.146784e+01 1.337859e+02 2.666127e+00 1.525194e+00 1.175020e+00 1.681165e+00 1.178428e+00 1.591729e+00 1.734260e+00 1.815998e+00 3.282884e+00 1.402914e+00 1.347351e+00 9.021009e-01 3.929114e+00 3.405849e-01 2.476635e-01 1.917654e-01 2.603555e-01 2.024142e-01 2.807982e-01 2.814912e-01 3.023562e-01 4.571165e-01 2.408345e-01 2.220896e-01 1.714911e-01 3.161726e-01
<GCONST> 1.072083e+02
<STATE> 3
<MEAN> 39
 -1.469346e+01 2.322720e+00 -8.868390e-01 1.602361e+00 1.473182e+00 -3.280374e-01 9.662789e-01 9.515457e-01 -1.218752e+00 9.704522e-01 3.553641e+00 -4.205320e-01 6.278907e+01 -8.075245e-02 4.067798e-03 -2.244882e-02 -1.550606e-02 -1.136796e-02 1.163464e-02 3.476218e-02 3.388983e-02 5.610994e-02 1.423175e-02 -2.429401e-02 -6.956246e-03 1.768228e-01 1.147573e-02 -1.765930e-03 1.463958e-03 -6.878494e-04 -3.390434e-04 -5.230776e-04 -2.370981e-03 -2.415610e-03 -2.352781e-03 -1.533637e-03 -5.472297e-04 1.036089e-03 -3.910379e-02
<VARIANCE> 39
 6.768053e+01 1.931370e+01 2.570336e+01 3.924177e+01 2.251292e+01 2.255383e+01 3.423980e+01 3.860064e+01 8.305099e+01 2.486438e+01 2.762016e+01 1.140398e+01 7.396164e+01 2.179414e+00 1.442315e+00 1.141330e+00 1.639058e+00 1.167449e+00 1.567011e+00 1.701305e+00 1.795844e+00 3.185742e+00 1.383438e+00 1.326789e+00 9.020906e-01 2.570024e+00 2.699108e-01 2.354672e-01 1.855105e-01 2.533257e-01 2.006451e-01 2.752574e-01 2.761212e-01 3.007892e-01 4.448926e-01 2.388169e-01 2.201362e-01 1.717679e-01 2.200167e-01
<GCONST> 1.047449e+02
<STATE> 4
<MEAN> 39
 -1.507747e+01 2.300881e+00 -9.973560e-01 1.540713e+00 1.483560e+00 -2.505915e-01 1.057674e+00 1.040760e+00 -9.604751e-01 1.093460e+00 3.500239e+00 -4.311770e-01 6.313187e+01 -5.127393e-02 -1.897651e-03 -1.589131e-02 -1.939998e-02 -1.216588e-02 1.555360e-02 2.618293e-02 2.634754e-02 4.932971e-02 1.212950e-02 -2.385367e-02 -8.351121e-04 4.815757e-03 2.583282e-03 -3.533139e-04 1.007973e-03 1.695230e-04 4.448203e-04 1.801219e-04 -1.304416e-03 -9.854094e-04 -1.203879e-03 -5.361280e-04 4.416626e-04 4.970694e-04 -1.213892e-02
<VARIANCE> 39
 6.483270e+01 1.838982e+01 2.534958e+01 3.890997e+01 2.242083e+01 2.199796e+01 3.421087e+01 3.943235e+01 8.298593e+01 2.338554e+01 2.781343e+01 1.137467e+01 4.531869e+01 1.751702e+00 1.358002e+00 1.116253e+00 1.597017e+00 1.156618e+00 1.530321e+00 1.676161e+00 1.786618e+00 3.063450e+00 1.340461e+00 1.302740e+00 8.916171e-01 1.331129e+00 2.071156e-01 2.224997e-01 1.791358e-01 2.459916e-01 1.989236e-01 2.677497e-01 2.709569e-01 3.008192e-01 4.286726e-01 2.351892e-01 2.180103e-01 1.689890e-01 1.381051e-01
<GCONST> 1.019509e+02
<TRANSP> 5
 0.000000e+00 1.000000e+00 0.000000e+00 0.000000e+00 0.000000e+00
 0.000000e+00 7.874419e-01 2.125581e-01 0.000000e+00 0.000000e+00
 0.000000e+00 0.000000e+00 7.874421e-01 2.125579e-01 0.000000e+00
 0.000000e+00 0.000000e+00 0.000000e+00 9.196244e-01 8.037563e-02
 0.000000e+00 0.000000e+00 0.000000e+00 0.000000e+00 0.000000e+00
<ENDHMM>
~h "e"
<BEGINHMM>
<NUMSTATES> 5
<STATE> 2
<MEAN> 39
 -1.274344e+01 2.269340e+00 -2.782095e-01 1.630853e+00 1.768561e+00 -5.730914e-01 4.707593e-01 -1.034545e+00 -3.724093e+00 1.204051e+00 4.994612e+00 -1.926069e-01 6.545883e+01 -2.529983e-02 -1.158842e-03 7.768478e-04 -5.115174e-03 4.962413e-03 7.455274e-03 -2.946466e-03 2.258797e-03 8.627823e-03 -3.249734e-04 -5.227140e-03 -4.502091e-03 -1.817417e-02 -1.630311e-04 2.147399e-04 3.096558e-04 4.622573e-04 4.098361e-04 -1.246837e-04 -7.772776e-04 4.862589e-04 7.387110e-04 -1.645195e-04 -4.370722e-04 -5.475173e-04 -2.686246e-04
<VARIANCE> 39
 7.728163e+01 2.657619e+01 3.242111e+01 4.189467e+01 2.271470e+01 2.819953e+01 3.633485e+01 5.017027e+01 9.966348e+01 2.525775e+01 3.041915e+01 1.278732e+01 4.777761e+01 2.508099e+00 1.848456e+00 1.697810e+00 2.221646e+00 1.285222e+00 1.821303e+00 1.895818e+00 2.356428e+00 3.948861e+00 1.393549e+00 1.634179e+00 9.959838e-01 1.348258e+00 2.799376e-01 2.867064e-01 2.650885e-01 3.550369e-01 2.185970e-01 3.003437e-01 3.100292e-01 3.864889e-01 5.477446e-01 2.475115e-01 2.718825e-01 1.792619e-01 1.497573e-01
<GCONST> 1.092011e+02
<STATE> 3
<MEAN> 39
 -1.286659e+01 2.269706e+00 -2.671096e-01 1.618048e+00 1.800890e+00 -5.392748e-01 4.450930e-01 -1.021866e+00 -3.677204e+00 1.196967e+00 4.964256e+00 -2.199445e-01 6.536755e+01 -2.586355e-02 -3.117041e-04 2.077889e-03 -2.698149e-03 6.820675e-03 6.642062e-03 -6.513816e-03 4.511649e-03 1.201404e-02 -9.454864e-04 -7.137937e-03 -7.064663e-03 -1.929480e-02 -7.274799e-05 1.792246e-04 1.564111e-04 4.484319e-04 2.889980e-04 -1.452988e-04 -6.218517e-04 4.944329e-04 7.138570e-04 -1.108244e-04 -3.540259e-04 -4.325701e-04 -2.335369e-04
<VARIANCE> 39
 7.714227e+01 2.649019e+01 3.235666e+01 4.173157e+01 2.263452e+01 2.751288e+01 3.666424e+01 5.058863e+01 1.006622e+02 2.457167e+01 3.057568e+01 1.266101e+01 4.775829e+01 2.472966e+00 1.837471e+00 1.699422e+00 2.239003e+00 1.281258e+00 1.800429e+00 1.903484e+00 2.351199e+00 3.954159e+00 1.379896e+00 1.641784e+00 9.928145e-01 1.320043e+00 2.754004e-01 2.831404e-01 2.655702e-01 3.583803e-01 2.180515e-01 2.984108e-01 3.109080e-01 3.863542e-01 5.497568e-01 2.462785e-01 2.728902e-01 1.783069e-01 1.467488e-01
<GCONST> 1.090567e+02
<STATE> 4
<MEAN> 39
 -1.301096e+01 2.279316e+00 -2.611975e-01 1.711376e+00 1.979409e+00 -5.310460e-01 2.550643e-01 -1.023800e+00 -3.656387e+00 1.260334e+00 5.031341e+00 -3.131731e-01 6.523799e+01 -2.294765e-02 1.137029e-03 4.237215e-03 4.261048e-03 9.991982e-03 3.330261e-03 -1.212323e-02 5.382432e-03 1.378156e-02 -2.278657e-03 -8.254644e-03 -1.016185e-02 -1.841307e-02 1.005254e-04 4.715112e-07 -1.242716e-04 2.347860e-04 6.827759e-08 -1.803634e-04 -2.548372e-04 4.442465e-04 5.533107e-04 2.386432e-05 -1.264247e-04 -2.120455e-04 -5.920342e-05
<VARIANCE> 39
 7.593332e+01 2.594487e+01 3.153990e+01 4.249818e+01 2.308781e+01 2.690414e+01 3.905436e+01 5.144715e+01 1.029579e+02 2.287776e+01 3.222191e+01 1.261798e+01 4.768747e+01 2.334712e+00 1.800662e+00 1.662465e+00 2.262784e+00 1.280340e+00 1.783994e+00 1.958294e+00 2.332404e+00 3.967778e+00 1.344670e+00 1.657924e+00 9.868940e-01 1.273718e+00 2.577076e-01 2.756677e-01 2.610942e-01 3.606972e-01 2.164044e-01 2.961185e-01 3.166892e-01 3.835058e-01 5.516863e-01 2.438247e-01 2.727834e-01 1.763054e-01 1.398595e-01
<GCONST> 1.087816e+02
<TRANSP> 5
 0.000000e+00 1.000000e+00 0.000000e+00 0.000000e+00 0.000000e+00
 0.000000e+00 7.961518e-01 2.038482e-01 0.000000e+00 0.000000e+00
 0.000000e+00 0.000000e+00 7.961525e-01 2.038475e-01 0.000000e+00
 0.000000e+00 0.000000e+00 0.000000e+00 9.288884e-01 7.111155e-02
 0.000000e+00 0.000000e+00 0.000000e+00 0.000000e+00 0.000000e+00
<ENDHMM>
~h "f"
<BEGINHMM>
<NUMSTATES> 5
<STATE> 2
<MEAN> 39
 -1.356321e+01 3.717240e+00 2.368205e+00 5.173449e+00 4.378132e+00 -9.405143e-01 -1.296685e+00 -1.580768e-01 -3.410127e+00 -7.963805e-01 3.584390e+00 -1.813383e+00 6.458564e+01 -7.234198e-02 -6.186067e-02 -7.071099e-02 -1.119166e-01 -4.365269e-02 3.041445e-02 2.033922e-02 -2.986406e-02 9.837867e-02 8.528566e-02 -3.159130e-02 3.820885e-03 -1.329993e-02 8.222077e-03 8.513023e-04 5.352990e-04 -1.085685e-03 1.548538e-03 -1.099991e-03 -4.106551e-03 -6.896838e-03 -7.140605e-03 -3.221079e-03 1.079659e-03 7.371097e-04 7.327967e-03
<VARIANCE> 39
 5.537209e+01 1.954685e+01 4.073038e+01 7.146734e+01 2.844468e+01 2.499285e+01 4.809410e+01 4.291680e+01 8.401363e+01 2.760739e+01 2.324011e+01 1.372156e+01 3.279195e+01 2.528969e+00 1.515756e+00 1.479176e+00 3.043329e+00 1.480388e+00 1.837444e+00 2.704641e+00 2.294444e+00 4.206252e+00 1.358782e+00 1.994444e+00 1.308321e+00 9.536847e-01 3.556723e-01 2.623480e-01 2.205128e-01 4.117994e-01 2.578615e-01 2.875130e-01 4.375716e-01 3.939533e-01 6.486665e-01 2.350727e-01 3.921926e-01 2.399910e-01 1.244674e-01
<GCONST> 1.107143e+02
<STATE> 3
<MEAN> 39
 -1.381171e+01 3.461531e+00 2.077324e+00 4.695062e+00 4.204556e+00 -8.223690e-01 -1.240071e+00 -3.269405e-01 -3.046501e+00 -4.601433e-01 3.463057e+00 -1.793243e+00 6.457980e+01 -3.586827e-02 -5.698816e-02 -6.631446e-02 -1.135836e-01 -3.566858e-02 2.541461e-02 2.139334e-03 -5.893987e-02 6.630939e-02 7.027876e-02 -2.612446e-02 6.623756e-03 1.833840e-02 8.928925e-03 1.495221e-03 1.487667e-03 4.586480e-04 2.099373e-03 -1.210204e-03 -4.231324e-03 -6.555258e-03 -7.945653e-03 -3.912830e-03 1.419165e-03 5.878127e-04 7.401712e-03
<VARIANCE> 39
 5.649242e+01 1.894239e+01 3.873196e+01 7.022089e+01 2.794900e+01 2.437126e+01 4.683790e+01 4.507923e+01 8.084296e+01 2.617368e+01 2.321815e+01 1.395732e+01 3.330631e+01 2.892072e+00 1.509783e+00 1.537562e+00 3.275148e+00 1.568796e+00 1.876949e+00 2.638649e+00 2.419377e+00 4.338941e+00 1.359978e+00 2.145887e+00 1.356675e+00 9.549618e-01 4.157678e-01 2.631407e-01 2.346194e-01 4.511943e-01 2.824450e-01 2.984538e-01 4.231029e-01 4.142241e-01 6.835974e-01 2.379662e-01 4.310639e-01 2.486742e-01 1.271963e-01
<GCONST> 1.117213e+02
<STATE> 4
<MEAN> 39
 -1.390185e+01 3.176575e+00 1.665225e+00 3.976636e+00 3.949761e+00 -7.187579e-01 -1.301270e+00 -8.018165e-01 -2.721899e+00 -7.508183e-02 3.300004e+00 -1.723391e+00 6.475501e+01 1.689520e-02 -4.636214e-02 -5.369078e-02 -1.053132e-01 -2.179844e-02 1.822214e-02 -2.250125e-02 -9.409201e-02 1.909827e-02 4.657451e-02 -1.514661e-02 9.380258e-03 5.997854e-02 8.655142e-03 2.103293e-03 2.124829e-03 2.201752e-03 2.264396e-03 -1.014531e-03 -3.540348e-03 -5.274272e-03 -7.777682e-03 -4.121510e-03 1.634376e-03 4.835954e-04 6.329951e-03
<VARIANCE> 39
 5.907698e+01 1.847437e+01 3.579728e+01 6.765459e+01 2.730450e+01 2.331729e+01 4.472118e+01 4.829470e+01 7.567107e+01 2.410612e+01 2.304934e+01 1.424443e+01 3.421507e+01 3.459527e+00 1.551779e+00 1.669384e+00 3.612422e+00 1.717914e+00 1.945888e+00 2.568666e+00 2.625132e+00 4.545529e+00 1.382281e+00 2.357616e+00 1.408219e+00 9.894187e-01 5.122456e-01 2.736143e-01 2.657762e-01 5.122818e-01 3.226823e-01 3.169752e-01 4.087455e-01 4.490441e-01 7.405017e-01 2.454197e-01 4.846458e-01 2.568558e-01 1.371516e-01
<GCONST> 1.133445e+02
<TRANSP> 5
 0.000000e+00 1.000000e+00 0.000000e+00 0.000000e+00 0.000000e+00
 0.000000e+00 7.619840e-01 2.380160e-01 0.000000e+00 0.000000e+00
 0.000000e+00 0.000000e+00 7.619842e-01 2.380158e-01 0.000000e+00
 0.000000e+00 0.000000e+00 0.000000e+00 8.879329e-01 1.120671e-01
 0.000000e+00 0.000000e+00 0.000000e+00 0.000000e+00 0.000000e+00
<ENDHMM>
~h "g"
<BEGINHMM>
<NUMSTATES> 5
<STATE> 2
<MEAN> 39
 -1.124068e+01 2.853116e+00 -2.476119e-01 2.717716e+00 1.771928e+00 -9.853028e-01 -3.181491e-01 -9.178550e-01 -3.986078e+00 4.223344e-01 4.580176e+00 -1.305573e+00 6.595686e+01 -1.679974e-02 -2.029275e-02 3.220537e-03 4.073642e-02 3.075974e-02 -3.525046e-03 -5.534508e-03 -2.609012e-02 -1.173067e-02 1.973094e-02 5.928329e-03 -2.344021e-03 -4.305378e-03 -2.045206e-03 -5.456762e-04 -8.490330e-04 -1.169452e-03 -3.762780e-04 1.451320e-03 1.926008e-03 1.687348e-04 9.887485e-04 7.228033e-04 -3.366310e-04 1.073564e-03 -1.360993e-03
<VARIANCE> 39
 7.494688e+01 2.283894e+01 2.352285e+01 3.636875e+01 3.273463e+01 2.718322e+01 3.786948e+01 5.076141e+01 1.206157e+02 3.159143e+01 2.765456e+01 1.328066e+01 5.010657e+01 1.565336e+00 1.522460e+00 1.463325e+00 1.901273e+00 1.406328e+00 1.814939e+00 2.091915e+00 2.458705e+00 4.037993e+00 1.390191e+00 1.388955e+00 1.080626e+00 1.219829e+00 1.587260e-01 2.267411e-01 2.117756e-01 2.951240e-01 1.980882e-01 3.164221e-01 3.156313e-01 3.954603e-01 5.205842e-01 2.317811e-01 2.216172e-01 1.825918e-01 1.211931e-01
<GCONST> 1.067085e+02
<STATE> 3
<MEAN> 39
 -1.132826e+01 2.751352e+00 -2.339017e-01 2.907987e+00 1.922191e+00 -9.932231e-01 -3.389269e-01 -1.049050e+00 -4.058055e+00 5.099857e-01 4.616765e+00 -1.305376e+00 6.593322e+01 -2.532902e-02 -2.199673e-02 -8.435752e-04 3.375076e-02 2.732339e-02 3.010265e-03 3.805046e-03 -2.466559e-02 -6.757581e-03 2.248255e-02 3.863144e-03 2.153212e-03 -1.021683e-02 -2.036963e-03 -3.899367e-04 -9.792373e-04 -1.733628e-03 -7.914229e-04 1.491504e-03 2.092931e-03 6.165834e-04 1.317781e-03 5.549344e-04 -6.145085e-04 9.232985e-04 -1.438556e-03
<VARIANCE> 39
 7.409769e+01 2.283536e+01 2.342940e+01 3.847104e+01 3.245128e+01 2.711669e+01 3.790462e+01 5.295826e+01 1.251370e+02 3.091422e+01 2.824177e+01 1.295660e+01 5.018937e+01 1.640633e+00 1.532015e+00 1.451922e+00 2.009117e+00 1.406795e+00 1.860914e+00 2.095206e+00 2.568580e+00 4.261395e+00 1.388153e+00 1.408446e+00 1.061984e+00 1.287163e+00 1.678290e-01 2.312259e-01 2.126919e-01 3.111835e-01 2.019881e-01 3.272868e-01 3.161177e-01 4.122719e-01 5.517179e-01 2.327184e-01 2.245646e-01 1.804336e-01 1.304903e-01
<GCONST> 1.074346e+02
<STATE> 4
<MEAN> 39
 -1.177382e+01 2.378210e+00 -2.861169e-01 3.231645e+00 2.287081e+00 -9.494668e-01 -3.505969e-01 -1.381411e+00 -4.399481e+00 6.303469e-01 4.707331e+00 -1.252254e+00 6.574387e+01 -3.257334e-02 -2.022174e-02 -5.677456e-03 1.897821e-02 1.732915e-02 1.107277e-02 1.601701e-02 -1.940912e-02 -2.098628e-04 2.184530e-02 5.655990e-04 7.064454e-03 -1.671901e-02 -1.932697e-03 1.463257e-04 -1.103664e-03 -2.597944e-03 -1.599967e-03 1.408389e-03 2.267691e-03 1.655317e-03 2.367161e-03 3.415993e-04 -1.224683e-03 5.519664e-04 -1.635171e-03
<VARIANCE> 39
 7.319537e+01 2.201570e+01 2.243749e+01 4.229883e+01 3.155400e+01 2.680813e+01 3.889512e+01 5.877696e+01 1.385420e+02 2.886048e+01 3.032576e+01 1.230864e+01 5.143425e+01 1.761456e+00 1.526886e+00 1.388579e+00 2.192539e+00 1.418777e+00 1.904145e+00 2.133250e+00 2.784872e+00 4.754233e+00 1.387877e+00 1.469675e+00 1.025247e+00 1.403060e+00 1.809127e-01 2.382750e-01 2.117682e-01 3.408858e-01 2.125695e-01 3.406678e-01 3.246703e-01 4.453067e-01 6.197740e-01 2.358787e-01 2.337512e-01 1.765560e-01 1.450466e-01
<GCONST> 1.086897e+02
<TRANSP> 5
 0.000000e+00 1.000000e+00 0.000000e+00 0.000000e+00 0.000000e+00
 0.000000e+00 7.867697e-01 2.132303e-01 0.000000e+00 0.000000e+00
 0.000000e+00 0.000000e+00 7.867699e-01 2.132300e-01 0.000000e+00
 0.000000e+00 0.000000e+00 0.000000e+00 9.186953e-01 8.130474e-02
 0.000000e+00 0.000000e+00 0.000000e+00 0.000000e+00 0.000000e+00
<ENDHMM>
~h "i"
<BEGINHMM>
<NUMSTATES> 5
<STATE> 2
<MEAN> 39
 -1.599924e+01 2.099442e+00 -5.768195e-01 1.031507e+00 1.332936e+00 1.683320e-01 1.102835e+00 1.224891e+00 -2.971801e-01 8.253248e-01 2.952119e+00 -6.706730e-01 6.278519e+01 -2.380553e-02 -2.484103e-03 5.362155e-04 -9.470452e-04 2.769450e-03 3.495609e-03 4.582228e-03 1.885058e-02 2.782246e-02 9.101245e-03 -1.179911e-03 -5.164137e-03 2.471298e-03 9.358050e-04 -3.971120e-04 -1.819439e-04 3.130822e-04 3.160993e-04 4.010419e-04 -1.454844e-04 1.226658e-04 -2.655899e-04 1.198064e-04 4.106369e-04 5.649156e-04 -7.220014e-03
<VARIANCE> 39
 5.976072e+01 2.114478e+01 3.162036e+01 3.523087e+01 2.160632e+01 2.013526e+01 3.386180e+01 3.486063e+01 6.695042e+01 2.312592e+01 2.107333e+01 1.089918e+01 3.744732e+01 1.847469e+00 1.426637e+00 1.266878e+00 1.836991e+00 1.169620e+00 1.411930e+00 1.691950e+00 1.604510e+00 2.738056e+00 1.382281e+00 1.294129e+00 8.977568e-01 1.010642e+00 2.401908e-01 2.311648e-01 2.086357e-01 3.019587e-01 2.039735e-01 2.573243e-01 2.960781e-01 2.863490e-01 4.438125e-01 2.537510e-01 2.371237e-01 1.742575e-01 1.214149e-01
<GCONST> 1.016449e+02
<STATE> 3
<MEAN> 39
 -1.608886e+01 2.087891e+00 -5.736308e-01 1.028249e+00 1.350224e+00 1.873539e-01 1.119259e+00 1.309249e+00 -1.781293e-01 8.710287e-01 2.959339e+00 -6.868279e-01 6.275084e+01 -2.136299e-02 -3.706667e-03 -2.233572e-04 7.110389e-04 4.809558e-03 5.167855e-03 4.244292e-03 1.917037e-02 2.604769e-02 9.281446e-03 9.430979e-04 -3.206541e-03 -9.963647e-03 4.862372e-04 -2.858049e-04 -1.047782e-04 3.577781e-04 3.610875e-04 3.233152e-04 -1.020707e-04 4.895608e-05 -5.457331e-04 -1.541048e-04 3.271316e-04 3.322574e-04 -2.318962e-03
<VARIANCE> 39
 5.917427e+01 2.150603e+01 3.231655e+01 3.549016e+01 2.188661e+01 2.013661e+01 3.425380e+01 3.455750e+01 6.619874e+01 2.303394e+01 2.102261e+01 1.094330e+01 3.618568e+01 1.809724e+00 1.438879e+00 1.267539e+00 1.831209e+00 1.182742e+00 1.405648e+00 1.700379e+00 1.602206e+00 2.712296e+00 1.381589e+00 1.293688e+00 8.999950e-01 9.125277e-01 2.343890e-01 2.328254e-01 2.082693e-01 3.003776e-01 2.062776e-01 2.549142e-01 2.984246e-01 2.878686e-01 4.416542e-01 2.531616e-01 2.372602e-01 1.740218e-01 1.130166e-01
<GCONST> 1.014455e+02
<STATE> 4
<MEAN> 39
 -1.613256e+01 1.998853e+00 -6.634420e-01 9.405895e-01 1.338737e+00 1.540442e-01 1.112357e+00 1.426334e+00 -7.208228e-02 1.005995e+00 3.059361e+00 -7.007690e-01 6.275671e+01 -7.351220e-03 -3.134806e-03 2.169118e-03 5.309322e-03 1.005526e-02 4.416133e-03 -3.520371e-03 1.167003e-02 1.220170e-02 4.595188e-03 6.422608e-03 -1.605908e-03 -3.863975e-03 7.246319e-04 -1.316760e-04 3.722881e-05 3.665911e-04 1.960858e-04 -1.042736e-04 -5.283334e-04 -4.605713e-04 -1.313522e-03 -7.174065e-04 8.134003e-05 8.807075e-05 2.092312e-04
<VARIANCE> 39
 5.989142e+01 2.200140e+01 3.329420e+01 3.580744e+01 2.265737e+01 2.069419e+01 3.560792e+01 3.427423e+01 6.545145e+01 2.276479e+01 2.163575e+01 1.100981e+01 3.653616e+01 1.795442e+00 1.470153e+00 1.287439e+00 1.820351e+00 1.215281e+00 1.424261e+00 1.727218e+00 1.632568e+00 2.697708e+00 1.377819e+00 1.317087e+00 9.070683e-01 8.939604e-01 2.295825e-01 2.379421e-01 2.112984e-01 2.983671e-01 2.118646e-01 2.556318e-01 3.029954e-01 2.963865e-01 4.411271e-01 2.523687e-01 2.415424e-01 1.747987e-01 1.103354e-01
<GCONST> 1.018045e+02
<TRANSP> 5
 0.000000e+00 1.000000e+00 0.000000e+00 0.000000e+00 0.000000e+00
 0.000000e+00 7.863641e-01 2.136358e-01 0.000000e+00 0.000000e+00
 0.000000e+00 0.000000e+00 7.863633e-01 2.136367e-01 0.000000e+00
 0.000000e+00 0.000000e+00 0.000000e+00 9.183881e-01 8.161198e-02
 0.000000e+00 0.000000e+00 0.000000e+00 0.000000e+00 0.000000e+00
<ENDHMM>
~h "j"
<BEGINHMM>
<NUMSTATES> 5
<STATE> 2
<MEAN> 39
 -1.345863e+01 2.417181e+00 -1.880600e+00 -5.052158e-01 -2.089403e-01 -3.034295e-01 1.631647e+00 1.299613e+00 -1.289607e-01 2.890196e+00 3.580025e+00 -4.735586e-01 6.443793e+01 8.836774e-02 4.848381e-02 5.522900e-02 7.556717e-02 3.554566e-02 -3.132840e-02 -4.324962e-02 -3.196647e-02 -3.189343e-02 -9.041803e-03 6.666529e-04 -3.327154e-03 5.303964e-02 -2.920295e-03 1.295984e-04 1.599051e-03 2.155747e-03 1.842591e-03 9.340197e-04 2.905123e-04 1.461846e-03 1.399247e-03 -1.297606e-03 -8.332922e-04 -3.320682e-04 -2.145399e-03
<VARIANCE> 39
 8.148489e+01 2.152053e+01 1.906877e+01 3.132348e+01 2.425624e+01 1.929688e+01 2.736147e+01 3.003283e+01 6.407288e+01 1.241582e+01 2.184542e+01 8.960888e+00 5.241165e+01 3.125031e+00 1.502835e+00 1.149029e+00 1.528718e+00 1.381443e+00 1.461905e+00 1.919429e+00 1.852825e+00 3.496009e+00 1.082191e+00 1.585907e+00 1.085986e+00 2.227859e+00 3.439706e-01 2.703768e-01 2.036993e-01 2.460537e-01 2.322129e-01 2.576157e-01 3.339154e-01 3.305867e-01 4.854280e-01 2.149905e-01 2.615583e-01 2.249262e-01 2.539817e-01
<GCONST> 1.042191e+02
<STATE> 3
<MEAN> 39
 -1.310749e+01 2.634320e+00 -1.610784e+00 -1.385455e-01 -2.422035e-02 -4.303183e-01 1.444125e+00 1.179023e+00 -2.522992e-01 2.831849e+00 3.570789e+00 -4.922193e-01 6.464378e+01 7.465038e-02 4.785996e-02 6.224358e-02 8.413272e-02 4.327350e-02 -2.679608e-02 -4.187732e-02 -2.520726e-02 -2.669393e-02 -1.597164e-02 -2.494215e-03 -4.535716e-03 4.355140e-02 -3.049216e-03 -2.504162e-04 1.555853e-03 1.811606e-03 1.672822e-03 1.027202e-03 2.635559e-04 1.470302e-03 1.010988e-03 -1.654375e-03 -6.268971e-04 -2.448126e-04 -2.051172e-03
<VARIANCE> 39
 8.065021e+01 2.292085e+01 2.144661e+01 3.366610e+01 2.556228e+01 2.014510e+01 2.876031e+01 2.981700e+01 6.440874e+01 1.349418e+01 2.164444e+01 8.946436e+00 5.184319e+01 3.121648e+00 1.567962e+00 1.219075e+00 1.572252e+00 1.412881e+00 1.496589e+00 2.001967e+00 1.843347e+00 3.495494e+00 1.094449e+00 1.578773e+00 1.076337e+00 2.215262e+00 3.424628e-01 2.782476e-01 2.120977e-01 2.505347e-01 2.372089e-01 2.613154e-01 3.448138e-01 3.275128e-01 4.838092e-01 2.143370e-01 2.600433e-01 2.221995e-01 2.527469e-01
<GCONST> 1.049817e+02
<STATE> 4
<MEAN> 39
 -1.263805e+01 3.015880e+00 -1.000592e+00 6.811579e-01 4.010483e-01 -6.256865e-01 1.115332e+00 1.025901e+00 -4.612795e-01 2.609739e+00 3.521809e+00 -5.404880e-01 6.490256e+01 4.860797e-02 4.050913e-02 7.414778e-02 9.561621e-02 5.531954e-02 -1.799988e-02 -4.039929e-02 -1.348407e-02 -2.360020e-02 -3.423899e-02 -5.418260e-03 -4.849379e-03 2.843168e-02 -2.627101e-03 -9.699510e-04 1.277836e-03 1.174248e-03 1.256265e-03 9.592386e-04 -6.272382e-05 1.065587e-03 -6.709946e-06 -2.227651e-03 -1.132725e-04 -9.186813e-06 -1.413093e-03
<VARIANCE> 39
 7.802996e+01 2.547870e+01 2.671331e+01 3.771915e+01 2.814462e+01 2.178654e+01 3.138977e+01 2.922823e+01 6.554377e+01 1.629061e+01 2.128314e+01 8.957559e+00 5.025508e+01 3.035559e+00 1.712749e+00 1.365838e+00 1.646332e+00 1.495497e+00 1.542386e+00 2.146926e+00 1.821977e+00 3.497772e+00 1.124724e+00 1.558590e+00 1.054834e+00 2.133464e+00 3.308964e-01 2.965964e-01 2.298927e-01 2.582624e-01 2.517194e-01 2.641319e-01 3.634364e-01 3.212687e-01 4.846890e-01 2.127705e-01 2.583581e-01 2.150904e-01 2.439523e-01
<GCONST> 1.062754e+02
<TRANSP> 5
 0.000000e+00 1.000000e+00 0.000000e+00 0.000000e+00 0.000000e+00
 0.000000e+00 7.775697e-01 2.224303e-01 0.000000e+00 0.000000e+00
 0.000000e+00 0.000000e+00 7.775698e-01 2.224302e-01 0.000000e+00
 0.000000e+00 0.000000e+00 0.000000e+00 9.056770e-01 9.432308e-02
 0.000000e+00 0.000000e+00 0.000000e+00 0.000000e+00 0.000000e+00
<ENDHMM>
~h "k"
<BEGINHMM>
<NUMSTATES> 5
<STATE> 2
<MEAN> 39
 -1.488968e+01 1.817418e+00 -9.033287e-01 1.088225e+00 1.073220e+00 -9.142362e-03 1.147651e+00 5.446663e-01 -9.040703e-01 1.916112e+00 3.708625e+00 -8.662584e-01 6.098355e+01 -1.848575e-01 1.446782e-02 -4.854525e-02 -2.208763e-02 -4.212588e-03 2.303955e-02 6.300274e-02 8.826815e-02 9.272482e-02 2.057834e-02 -2.321739e-02 -1.148746e-02 4.800768e-01 2.214415e-02 -2.577186e-03 1.483803e-03 -2.171851e-03 -3.854805e-04 -1.771619e-03 -2.288135e-03 -3.075606e-03 -3.043933e-03 -3.162813e-03 -1.604802e-03 1.032994e-03 -4.809359e-02
<VARIANCE> 39
 7.080807e+01 1.824018e+01 2.393035e+01 3.226763e+01 1.984006e+01 2.329759e+01 2.953967e+01 4.316242e+01 7.998536e+01 1.617330e+01 2.737692e+01 1.322206e+01 1.627670e+02 2.636074e+00 1.086000e+00 1.184844e+00 2.067364e+00 1.237081e+00 1.548310e+00 1.612461e+00 1.834422e+00 3.017992e+00 1.156652e+00 1.277457e+00 1.006456e+00 4.442250e+00 3.419047e-01 1.770898e-01 1.898371e-01 3.343005e-01 2.034042e-01 2.741334e-01 2.696463e-01 3.040728e-01 4.407985e-01 2.220698e-01 2.200047e-01 1.803847e-01 3.349603e-01
<GCONST> 1.060067e+02
<STATE> 3
<MEAN> 39
 -1.539858e+01 1.848709e+00 -1.095693e+00 9.759479e-01 1.037948e+00 6.967646e-02 1.382773e+00 8.863172e-01 -5.321653e-01 1.974843e+00 3.579199e+00 -8.991950e-01 6.220688e+01 -1.055047e-01 5.145532e-03 -4.338423e-02 -2.774918e-02 -9.534195e-03 1.816910e-02 5.151615e-02 7.458138e-02 8.039344e-02 1.046527e-02 -2.810103e-02 -4.354005e-03 2.410764e-01 1.673027e-02 -1.783817e-03 1.177193e-03 -9.612876e-04 -1.280458e-03 -1.112586e-03 -2.591925e-03 -3.276213e-03 -3.039530e-03 -2.045383e-03 -7.863419e-04 1.594359e-03 -5.161949e-02
<VARIANCE> 39
 6.638573e+01 1.716414e+01 2.255498e+01 3.112771e+01 1.911350e+01 2.273265e+01 2.893120e+01 4.225019e+01 7.898188e+01 1.578115e+01 2.689188e+01 1.292129e+01 8.453837e+01 2.071478e+00 1.028064e+00 1.103463e+00 1.958697e+00 1.198887e+00 1.501548e+00 1.561866e+00 1.757476e+00 2.917904e+00 1.127391e+00 1.252165e+00 9.996964e-01 2.812681e+00 2.605806e-01 1.683384e-01 1.779056e-01 3.193302e-01 1.985339e-01 2.663527e-01 2.637269e-01 2.932758e-01 4.267339e-01 2.172976e-01 2.175201e-01 1.808181e-01 2.206618e-01
<GCONST> 1.028232e+02
<STATE> 4
<MEAN> 39
 -1.556438e+01 1.949929e+00 -1.326537e+00 9.203067e-01 1.043402e+00 7.799804e-02 1.562664e+00 1.118796e+00 -3.171057e-01 2.085887e+00 3.554947e+00 -8.712807e-01 6.285859e+01 -6.395061e-02 -1.332136e-03 -3.897909e-02 -2.949111e-02 -1.795554e-02 2.013210e-02 4.545175e-02 6.692402e-02 7.461469e-02 7.044842e-03 -2.928177e-02 5.022447e-03 6.960511e-03 3.323605e-03 -4.399089e-04 4.127646e-04 -1.864326e-04 -6.508257e-04 1.860655e-04 -4.548968e-04 -8.805469e-04 -9.986894e-04 -4.270875e-04 3.288149e-04 1.026929e-03 -1.823707e-02
<VARIANCE> 39
 6.427163e+01 1.593926e+01 2.039490e+01 3.063429e+01 1.840396e+01 2.206294e+01 2.860561e+01 4.228844e+01 8.038016e+01 1.533353e+01 2.737125e+01 1.263661e+01 4.631301e+01 1.649806e+00 9.868658e-01 1.014840e+00 1.827059e+00 1.146788e+00 1.453576e+00 1.521221e+00 1.729781e+00 2.911926e+00 1.095653e+00 1.251420e+00 9.810392e-01 1.305842e+00 1.959956e-01 1.625604e-01 1.670081e-01 3.009471e-01 1.918468e-01 2.554975e-01 2.574974e-01 2.897279e-01 4.235451e-01 2.122605e-01 2.165304e-01 1.780384e-01 1.310889e-01
<GCONST> 9.942020e+01
<TRANSP> 5
 0.000000e+00 1.000000e+00 0.000000e+00 0.000000e+00 0.000000e+00
 0.000000e+00 7.827122e-01 2.172878e-01 0.000000e+00 0.000000e+00
 0.000000e+00 0.000000e+00 7.827128e-01 2.172872e-01 0.000000e+00
 0.000000e+00 0.000000e+00 0.000000e+00 9.144349e-01 8.556508e-02
 0.000000e+00 0.000000e+00 0.000000e+00 0.000000e+00 0.000000e+00
<ENDHMM>
~h "l"
<BEGINHMM>
<NUMSTATES> 5
<STATE> 2
<MEAN> 39
 -1.128542e+01 3.378489e+00 1.420881e-01 2.613968e+00 1.697126e+00 -1.178115e+00 -2.324903e-02 -6.551701e-01 -3.812595e+00 4.252675e-01 4.538734e+00 -6.680719e-01 6.589964e+01 -1.594348e-02 -6.949606e-03 -1.246172e-02 -2.351529e-02 -1.671435e-02 5.662913e-03 1.718665e-02 -2.209976e-03 -5.777234e-03 -9.626663e-03 -5.718731e-03 -1.110206e-03 -1.054028e-02 -1.020384e-03 -4.578591e-04 3.330853e-04 3.329813e-04 1.069821e-03 1.953561e-04 -8.288352e-04 3.746774e-04 5.480843e-04 -1.089886e-04 5.074329e-05 -2.179937e-05 -4.311514e-04
<VARIANCE> 39
 7.002187e+01 2.301448e+01 2.637498e+01 3.650409e+01 2.447669e+01 3.060691e+01 4.180768e+01 4.072100e+01 8.304976e+01 3.525756e+01 2.991796e+01 1.457936e+01 4.422190e+01 1.946301e+00 1.578912e+00 1.345118e+00 1.712908e+00 1.289680e+00 1.833648e+00 1.942258e+00 1.940996e+00 3.285068e+00 1.566897e+00 1.508113e+00 1.093710e+00 1.314716e+00 2.098633e-01 2.440475e-01 2.092043e-01 2.758826e-01 2.135585e-01 3.009199e-01 3.171681e-01 3.171488e-01 4.455273e-01 2.699131e-01 2.392844e-01 1.953403e-01 1.361377e-01
<GCONST> 1.063571e+02
<STATE> 3
<MEAN> 39
 -1.136836e+01 3.342569e+00 8.933789e-02 2.513007e+00 1.634127e+00 -1.150334e+00 4.483485e-02 -6.671485e-01 -3.842885e+00 3.714399e-01 4.512857e+00 -6.740676e-01 6.584656e+01 -2.045537e-02 -8.821476e-03 -1.080277e-02 -2.188402e-02 -1.159871e-02 6.670862e-03 1.302778e-02 -4.235082e-04 -2.949669e-03 -1.007835e-02 -5.412231e-03 -9.535572e-04 -1.243941e-02 -1.211706e-03 -4.235558e-04 3.456339e-04 3.758312e-04 1.098912e-03 3.326758e-04 -8.162953e-04 4.094593e-04 7.833013e-04 7.558383e-05 1.132654e-04 1.058589e-04 -6.028627e-04
<VARIANCE> 39
 7.058044e+01 2.315429e+01 2.599586e+01 3.576503e+01 2.393666e+01 3.005682e+01 4.085931e+01 4.122001e+01 8.392568e+01 3.468678e+01 3.004852e+01 1.437970e+01 4.428579e+01 1.975508e+00 1.590105e+00 1.352453e+00 1.740016e+00 1.288478e+00 1.822770e+00 1.916578e+00 1.947038e+00 3.305151e+00 1.574807e+00 1.494059e+00 1.095799e+00 1.319395e+00 2.144176e-01 2.433714e-01 2.111030e-01 2.821050e-01 2.141795e-01 3.005452e-01 3.145396e-01 3.181322e-01 4.480257e-01 2.717562e-01 2.377971e-01 1.958425e-01 1.372128e-01
<GCONST> 1.063674e+02
<STATE> 4
<MEAN> 39
 -1.161114e+01 3.188500e+00 -3.258282e-02 2.456691e+00 1.753287e+00 -1.101272e+00 2.630830e-03 -7.774198e-01 -3.982150e+00 4.850761e-01 4.691991e+00 -7.036273e-01 6.571032e+01 -2.477114e-02 -9.118343e-03 -7.060220e-03 -1.715051e-02 -2.532512e-03 8.775725e-03 5.173746e-03 9.537768e-04 1.334707e-03 -1.079759e-02 -4.818732e-03 9.626652e-04 -1.442467e-02 -1.287287e-03 -3.111118e-04 2.371560e-04 1.651687e-04 7.876703e-04 4.799806e-04 -5.189771e-04 4.857793e-04 1.119547e-03 3.901788e-04 6.452861e-05 2.573558e-04 -7.343671e-04
<VARIANCE> 39
 7.079210e+01 2.302740e+01 2.500815e+01 3.660458e+01 2.385595e+01 2.932733e+01 4.137812e+01 4.298684e+01 8.779887e+01 3.131023e+01 3.240648e+01 1.394142e+01 4.464647e+01 1.932541e+00 1.602803e+00 1.348769e+00 1.827567e+00 1.290009e+00 1.804201e+00 1.911421e+00 1.943376e+00 3.341038e+00 1.540148e+00 1.508297e+00 1.088517e+00 1.295481e+00 2.099412e-01 2.405078e-01 2.125226e-01 2.952371e-01 2.142021e-01 2.970467e-01 3.134813e-01 3.169186e-01 4.509117e-01 2.702654e-01 2.393471e-01 1.954374e-01 1.343540e-01
<GCONST> 1.063480e+02
<TRANSP> 5
 0.000000e+00 1.000000e+00 0.000000e+00 0.000000e+00 0.000000e+00
 0.000000e+00 7.940066e-01 2.059934e-01 0.000000e+00 0.000000e+00
 0.000000e+00 0.000000e+00 7.940074e-01 2.059927e-01 0.000000e+00
 0.000000e+00 0.000000e+00 0.000000e+00 9.265990e-01 7.340104e-02
 0.000000e+00 0.000000e+00 0.000000e+00 0.000000e+00 0.000000e+00
<ENDHMM>
~h "m"
<BEGINHMM>
<NUMSTATES> 5
<STATE> 2
<MEAN> 39
 -1.603599e+01 2.131712e+00 -1.377900e+00 1.265706e-01 8.066444e-01 1.931259e-01 1.340039e+00 1.714775e+00 5.247383e-01 1.465528e+00 2.977121e+00 -6.472722e-01 6.265730e+01 4.278179e-02 1.807729e-02 2.150320e-02 3.158494e-02 3.512350e-02 -4.723562e-03 -3.682068e-02 -2.497960e-02 -3.444511e-02 -2.811830e-03 2.839244e-02 -3.207108e-03 2.735939e-02 8.560009e-04 5.497886e-04 8.820105e-04 1.060850e-03 1.014669e-03 -1.746448e-04 -8.789543e-04 -9.366990e-04 -1.703480e-03 -9.384044e-04 4.151986e-04 -1.627650e-04 5.114930e-04
<VARIANCE> 39
 6.371310e+01 1.815377e+01 2.465382e+01 2.707077e+01 2.139878e+01 2.060401e+01 3.696754e+01 3.320667e+01 5.112462e+01 1.902724e+01 2.094175e+01 1.050148e+01 3.720734e+01 1.718512e+00 1.349177e+00 1.233041e+00 1.741253e+00 1.257961e+00 1.506549e+00 1.675956e+00 1.817821e+00 2.270607e+00 1.262532e+00 1.413899e+00 8.756117e-01 9.296728e-01 2.214482e-01 2.162157e-01 2.155935e-01 3.117221e-01 2.280105e-01 2.716808e-01 2.932929e-01 3.578261e-01 3.971513e-01 2.430503e-01 2.638727e-01 1.717559e-01 1.170031e-01
<GCONST> 1.005252e+02
<STATE> 3
<MEAN> 39
 -1.579627e+01 2.232699e+00 -1.248212e+00 2.992616e-01 9.949293e-01 1.601637e-01 1.127481e+00 1.576112e+00 3.262585e-01 1.429495e+00 3.123284e+00 -6.737175e-01 6.281530e+01 4.743645e-02 2.060548e-02 2.533252e-02 3.624688e-02 3.926007e-02 -6.114504e-03 -4.144822e-02 -2.976700e-02 -4.300864e-02 -7.749739e-03 3.019504e-02 -4.121619e-03 3.050321e-02 1.007444e-03 3.791775e-04 5.003127e-04 5.932531e-04 3.907870e-04 -5.394846e-04 -8.494221e-04 -8.598126e-04 -1.920001e-03 -1.114701e-03 5.418342e-04 1.326745e-05 7.304531e-04
<VARIANCE> 39
 6.508949e+01 1.900619e+01 2.601911e+01 2.900328e+01 2.245386e+01 2.126684e+01 3.963910e+01 3.461166e+01 5.330365e+01 1.905124e+01 2.195176e+01 1.076891e+01 3.794552e+01 1.693110e+00 1.397691e+00 1.274329e+00 1.788200e+00 1.274950e+00 1.552037e+00 1.758089e+00 1.880481e+00 2.337332e+00 1.268904e+00 1.463508e+00 8.870825e-01 9.471268e-01 2.157822e-01 2.229269e-01 2.215346e-01 3.169904e-01 2.302609e-01 2.802297e-01 3.083609e-01 3.702284e-01 4.078581e-01 2.447031e-01 2.703854e-01 1.738034e-01 1.186336e-01
<GCONST> 1.016032e+02
<STATE> 4
<MEAN> 39
 -1.494353e+01 2.471309e+00 -9.595473e-01 6.978679e-01 1.389124e+00 -1.227283e-01 5.305741e-01 1.227895e+00 -4.109581e-01 1.354151e+00 3.614438e+00 -7.808543e-01 6.341494e+01 6.112387e-02 2.524476e-02 3.414418e-02 4.567794e-02 4.443379e-02 -1.266176e-02 -5.499570e-02 -4.032066e-02 -6.057587e-02 -1.714035e-02 3.486449e-02 -7.441108e-03 4.105076e-02 9.574011e-04 4.558920e-05 -4.821195e-06 3.659032e-04 -1.878216e-04 -8.234202e-04 -5.292934e-04 -7.389913e-04 -1.490622e-03 -7.246342e-04 2.067924e-04 -3.809204e-05 7.193990e-04
<VARIANCE> 39
 6.987437e+01 2.060564e+01 2.866941e+01 3.359127e+01 2.517531e+01 2.424156e+01 4.639860e+01 3.596934e+01 5.929002e+01 1.945932e+01 2.573095e+01 1.162530e+01 4.098173e+01 1.644437e+00 1.493456e+00 1.340154e+00 1.846739e+00 1.320279e+00 1.690881e+00 1.927067e+00 1.914277e+00 2.481039e+00 1.285611e+00 1.589401e+00 9.235674e-01 1.000230e+00 2.009631e-01 2.368454e-01 2.291473e-01 3.185054e-01 2.325298e-01 3.019857e-01 3.331271e-01 3.740068e-01 4.258621e-01 2.478915e-01 2.834404e-01 1.800318e-01 1.213840e-01
<GCONST> 1.038414e+02
<TRANSP> 5
 0.000000e+00 1.000000e+00 0.000000e+00 0.000000e+00 0.000000e+00
 0.000000e+00 7.891900e-01 2.108100e-01 0.000000e+00 0.000000e+00
 0.000000e+00 0.000000e+00 7.891899e-01 2.108101e-01 0.000000e+00
 0.000000e+00 0.000000e+00 0.000000e+00 9.221106e-01 7.788938e-02
 0.000000e+00 0.000000e+00 0.000000e+00 0.000000e+00 0.000000e+00
<ENDHMM>
~h "n"
<BEGINHMM>
<NUMSTATES> 5
<STATE> 2
<MEAN> 39
 -1.343865e+01 2.742708e+00 1.817173e-01 1.854881e+00 2.217575e+00 -2.832601e-01 -2.812558e-01 4.185344e-01 -1.976850e+00 7.507862e-01 4.086662e+00 -9.750566e-01 6.468376e+01 4.137416e-02 3.345844e-03 -1.167817e-02 -7.028897e-03 -8.274805e-03 -1.183726e-02 -7.751343e-03 -1.271427e-02 -1.475865e-02 1.865364e-02 1.124285e-02 -5.106038e-03 2.922188e-02 -1.305068e-03 -1.623263e-04 -9.690593e-04 -8.880713e-04 -1.121722e-03 3.537861e-04 1.391680e-03 4.393578e-04 1.573816e-03 1.168457e-03 -8.075646e-04 3.619652e-04 -1.155779e-03
<VARIANCE> 39
 7.573005e+01 2.678995e+01 3.722784e+01 4.194176e+01 2.977313e+01 2.226615e+01 4.778970e+01 4.047890e+01 8.467223e+01 2.693450e+01 2.803274e+01 1.300235e+01 4.627943e+01 1.849993e+00 1.709744e+00 1.558978e+00 1.828263e+00 1.335673e+00 1.464897e+00 1.892241e+00 1.950576e+00 3.276561e+00 1.354656e+00 1.737760e+00 1.094778e+00 1.016930e+00 2.125226e-01 2.744905e-01 2.350118e-01 2.796032e-01 2.243384e-01 2.608902e-01 3.146803e-01 3.438848e-01 4.900144e-01 2.467495e-01 2.977898e-01 2.044406e-01 1.160349e-01
<GCONST> 1.068104e+02
<STATE> 3
<MEAN> 39
 -1.327511e+01 2.757805e+00 1.109254e-01 1.809453e+00 2.160560e+00 -3.276951e-01 -2.862025e-01 3.737608e-01 -2.012800e+00 8.558561e-01 4.123836e+00 -9.910340e-01 6.479230e+01 3.369647e-02 2.483426e-03 -1.576699e-02 -1.074207e-02 -1.334848e-02 -9.739289e-03 -6.028377e-04 -1.023808e-02 -6.792418e-03 2.354820e-02 6.908449e-03 -3.284224e-03 2.267258e-02 -1.454344e-03 -1.504158e-04 -7.420371e-04 -7.118923e-04 -1.005111e-03 3.750590e-04 1.300029e-03 2.570249e-04 1.411762e-03 8.960793e-04 -8.785390e-04 3.706056e-04 -1.230229e-03
<VARIANCE> 39
 7.588190e+01 2.634534e+01 3.600740e+01 4.156270e+01 2.994553e+01 2.237961e+01 4.758339e+01 4.064925e+01 8.442036e+01 2.667457e+01 2.815527e+01 1.311286e+01 4.663732e+01 1.893585e+00 1.678952e+00 1.521053e+00 1.812802e+00 1.325525e+00 1.471750e+00 1.888753e+00 1.964342e+00 3.305696e+00 1.346326e+00 1.750839e+00 1.108297e+00 1.062984e+00 2.170320e-01 2.698323e-01 2.289826e-01 2.764273e-01 2.213342e-01 2.619384e-01 3.139676e-01 3.440780e-01 4.901852e-01 2.458583e-01 2.985008e-01 2.069870e-01 1.201887e-01
<GCONST> 1.068147e+02
<STATE> 4
<MEAN> 39
 -1.313969e+01 2.758019e+00 -8.367741e-02 1.681239e+00 1.954552e+00 -3.872437e-01 -1.607097e-01 2.810794e-01 -1.953657e+00 1.202697e+00 4.112861e+00 -9.977643e-01 6.485687e+01 1.030645e-02 2.482324e-05 -2.247248e-02 -1.605262e-02 -2.140298e-02 -2.093220e-03 1.722134e-02 -2.389047e-03 1.151549e-02 2.831040e-02 -4.511612e-03 8.643555e-04 3.432870e-03 -1.440477e-03 -2.639758e-04 -4.535142e-04 -4.481997e-04 -6.207704e-04 2.900910e-04 9.092886e-04 -2.877548e-05 9.027708e-04 2.652453e-04 -8.659299e-04 2.496187e-04 -1.081635e-03
<VARIANCE> 39
 7.569657e+01 2.495236e+01 3.324282e+01 3.901863e+01 2.871755e+01 2.252192e+01 4.612278e+01 4.156191e+01 8.342865e+01 2.505396e+01 2.827979e+01 1.324903e+01 4.698444e+01 1.912103e+00 1.577548e+00 1.429831e+00 1.739718e+00 1.271073e+00 1.467729e+00 1.842261e+00 1.967640e+00 3.303444e+00 1.311840e+00 1.738769e+00 1.112411e+00 1.099480e+00 2.181807e-01 2.531519e-01 2.144185e-01 2.654263e-01 2.108959e-01 2.608971e-01 3.053588e-01 3.399354e-01 4.845403e-01 2.415572e-01 2.940025e-01 2.077121e-01 1.220727e-01
<GCONST> 1.060160e+02
<TRANSP> 5
 0.000000e+00 1.000000e+00 0.000000e+00 0.000000e+00 0.000000e+00
 0.000000e+00 7.844929e-01 2.155071e-01 0.000000e+00 0.000000e+00
 0.000000e+00 0.000000e+00 7.844921e-01 2.155079e-01 0.000000e+00
 0.000000e+00 0.000000e+00 0.000000e+00 9.157342e-01 8.426574e-02
 0.000000e+00 0.000000e+00 0.000000e+00 0.000000e+00 0.000000e+00
<ENDHMM>
~h "o"
<BEGINHMM>
<NUMSTATES> 5
<STATE> 2
<MEAN> 39
 -1.490481e+01 2.359301e+00 -8.227677e-01 1.148789e+00 1.411956e+00 -1.340217e-01 1.231204e+00 1.112454e+00 -9.348210e-01 8.855262e-01 3.474845e+00 -3.378520e-01 6.352699e+01 -4.736471e-02 -8.339402e-04 -4.172175e-03 -3.914601e-03 2.486987e-03 1.770318e-02 9.887313e-03 1.980785e-02 4.081661e-02 -5.321366e-03 -2.624274e-02 4.340445e-03 -3.657913e-02 1.880978e-03 1.180541e-04 9.070304e-04 8.449139e-04 4.114904e-04 -7.666054e-04 -8.413235e-04 -1.361786e-03 -1.945937e-03 -3.383213e-05 5.141818e-04 -4.357393e-04 1.624938e-03
<VARIANCE> 39
 6.998557e+01 1.756509e+01 2.718167e+01 3.778524e+01 2.301766e+01 2.345936e+01 3.244290e+01 3.839864e+01 8.079475e+01 2.795977e+01 2.191090e+01 1.204493e+01 4.147282e+01 2.500463e+00 1.359674e+00 1.260440e+00 2.000487e+00 1.313067e+00 1.625273e+00 1.685065e+00 1.793570e+00 3.366183e+00 1.489904e+00 1.327572e+00 9.969890e-01 1.207007e+00 3.236153e-01 2.364327e-01 2.149690e-01 3.372069e-01 2.271386e-01 2.826566e-01 2.912376e-01 3.051909e-01 4.883417e-01 2.621212e-01 2.387167e-01 1.899097e-01 1.468169e-01
<GCONST> 1.048331e+02
<STATE> 3
<MEAN> 39
 -1.512705e+01 2.349324e+00 -8.315330e-01 1.137932e+00 1.428959e+00 -5.345881e-02 1.273941e+00 1.200489e+00 -7.552074e-01 8.632549e-01 3.358485e+00 -3.226256e-01 6.336089e+01 -3.934424e-02 -6.191055e-04 -3.137905e-04 -5.467748e-04 4.284396e-03 1.445489e-02 6.260998e-03 1.379777e-02 3.234378e-02 -5.161386e-03 -2.375070e-02 2.426385e-03 -2.945375e-02 1.301460e-03 -1.387737e-04 7.231802e-04 9.065122e-04 7.870179e-04 -3.812006e-04 -5.827951e-04 -1.346350e-03 -1.689253e-03 3.474493e-04 5.183882e-04 -5.409276e-04 1.239357e-03
<VARIANCE> 39
 6.872747e+01 1.711383e+01 2.744716e+01 3.822232e+01 2.255446e+01 2.271631e+01 3.211908e+01 3.828430e+01 8.000050e+01 2.825384e+01 2.124803e+01 1.169183e+01 4.078507e+01 2.413104e+00 1.332007e+00 1.251341e+00 1.973091e+00 1.280133e+00 1.582262e+00 1.650694e+00 1.779023e+00 3.266698e+00 1.492916e+00 1.306728e+00 9.733137e-01 1.143974e+00 3.146665e-01 2.316906e-01 2.118476e-01 3.318309e-01 2.242701e-01 2.759823e-01 2.859037e-01 3.055733e-01 4.775879e-01 2.616229e-01 2.379444e-01 1.859237e-01 1.404571e-01
<GCONST> 1.041627e+02
<STATE> 4
<MEAN> 39
 -1.541028e+01 2.332071e+00 -7.687590e-01 1.213189e+00 1.501098e+00 2.056787e-02 1.314154e+00 1.244682e+00 -6.247580e-01 8.501614e-01 3.226252e+00 -3.292754e-01 6.315909e+01 -3.864483e-02 -4.997405e-03 3.215965e-03 1.203439e-03 6.684771e-03 1.335960e-02 4.655833e-03 9.437429e-03 2.620495e-02 -1.366079e-03 -1.960502e-02 -7.693553e-04 -2.566248e-02 6.240939e-04 -4.720449e-04 -2.948643e-05 1.244232e-04 3.368621e-04 -1.541703e-04 -1.627026e-04 -1.065405e-03 -1.056784e-03 5.426597e-04 4.214827e-04 -5.914809e-04 7.155254e-04
<VARIANCE> 39
 6.700013e+01 1.712085e+01 2.898928e+01 3.971387e+01 2.185446e+01 2.196579e+01 3.126578e+01 3.870842e+01 8.121089e+01 2.765690e+01 2.065046e+01 1.113523e+01 3.985561e+01 2.266059e+00 1.310689e+00 1.271922e+00 1.907732e+00 1.211928e+00 1.525337e+00 1.590919e+00 1.756003e+00 3.150058e+00 1.470657e+00 1.259750e+00 9.306306e-01 1.037280e+00 2.968256e-01 2.259451e-01 2.100099e-01 3.152111e-01 2.165516e-01 2.671442e-01 2.774113e-01 3.046205e-01 4.627829e-01 2.577074e-01 2.317185e-01 1.784215e-01 1.290187e-01
<GCONST> 1.031308e+02
<TRANSP> 5
 0.000000e+00 1.000000e+00 0.000000e+00 0.000000e+00 0.000000e+00
 0.000000e+00 7.839327e-01 2.160673e-01 0.000000e+00 0.000000e+00
 0.000000e+00 0.000000e+00 7.839323e-01 2.160677e-01 0.000000e+00
 0.000000e+00 0.000000e+00 0.000000e+00 9.146209e-01 8.537901e-02
 0.000000e+00 0.000000e+00 0.000000e+00 0.000000e+00 0.000000e+00
<ENDHMM>
~h "p"
<BEGINHMM>
<NUMSTATES> 5
<STATE> 2
<MEAN> 39
 -1.729897e+01 1.365726e+00 -1.936800e+00 -2.673011e-01 1.819381e-01 3.575582e-01 2.350193e+00 2.360035e+00 8.895678e-01 1.737455e+00 2.667200e+00 -7.340791e-01 6.182763e+01 1.530700e-02 -9.711308e-03 6.891838e-03 -4.772847e-03 2.287725e-03 -1.035021e-02 -1.147043e-02 -1.015986e-02 -2.842096e-02 -8.199616e-03 2.071612e-02 7.411489e-03 2.698588e-02 9.848994e-04 6.754586e-05 4.089243e-04 7.385078e-04 4.377388e-04 -2.412712e-04 -5.253159e-04 -5.673148e-04 -7.163150e-04 1.450874e-04 6.652492e-04 4.804510e-04 -1.684260e-03
<VARIANCE> 39
 5.721870e+01 1.392067e+01 1.956260e+01 1.956929e+01 1.324058e+01 1.685896e+01 2.272317e+01 3.095056e+01 6.396597e+01 1.468183e+01 2.060485e+01 1.044682e+01 3.518364e+01 1.611600e+00 9.288304e-01 9.801500e-01 1.231765e+00 9.416920e-01 1.172216e+00 1.213906e+00 1.486212e+00 2.411790e+00 1.076818e+00 1.042450e+00 9.036156e-01 8.876117e-01 1.933884e-01 1.589958e-01 1.545819e-01 1.972004e-01 1.682939e-01 2.194146e-01 2.189237e-01 2.594582e-01 3.579511e-01 2.073582e-01 1.882527e-01 1.741461e-01 1.008182e-01
<GCONST> 9.264996e+01
<STATE> 3
<MEAN> 39
 -1.720868e+01 1.324363e+00 -1.905946e+00 -2.830542e-01 1.964371e-01 3.053537e-01 2.296285e+00 2.306947e+00 7.457295e-01 1.702127e+00 2.769562e+00 -6.934732e-01 6.194736e+01 1.975610e-02 -8.818055e-03 7.693230e-03 -1.743807e-03 4.292798e-03 -1.137345e-02 -1.302322e-02 -1.248374e-02 -3.114882e-02 -7.271016e-03 2.308704e-02 9.040323e-03 2.576470e-02 1.005713e-03 2.194703e-04 7.541414e-05 5.825650e-04 3.546504e-04 -2.337927e-04 -2.943031e-04 -5.072066e-04 -5.618774e-04 2.223771e-04 4.524678e-04 3.217257e-04 -4.787136e-05
<VARIANCE> 39
 5.908580e+01 1.466073e+01 2.064581e+01 2.054181e+01 1.372347e+01 1.722067e+01 2.347902e+01 3.163335e+01 6.614370e+01 1.534113e+01 2.095108e+01 1.055372e+01 3.615649e+01 1.699583e+00 9.891706e-01 1.021115e+00 1.283775e+00 9.677722e-01 1.195292e+00 1.239130e+00 1.524602e+00 2.509189e+00 1.100393e+00 1.063625e+00 9.127943e-01 9.150895e-01 2.036281e-01 1.698700e-01 1.614089e-01 2.045918e-01 1.723697e-01 2.236862e-01 2.228700e-01 2.661422e-01 3.708610e-01 2.115853e-01 1.908500e-01 1.759004e-01 1.050012e-01
<GCONST> 9.389687e+01
<STATE> 4
<MEAN> 39
 -1.690734e+01 1.299791e+00 -1.940998e+00 -3.194561e-01 1.969973e-01 1.637885e-01 2.256555e+00 2.179063e+00 4.356697e-01 1.703227e+00 2.955601e+00 -6.134703e-01 6.221310e+01 3.358651e-02 -4.189792e-03 3.384892e-03 1.181701e-03 5.519740e-03 -1.320421e-02 -1.100569e-02 -1.561764e-02 -3.485512e-02 -2.789024e-03 2.439568e-02 9.990476e-03 3.182735e-02 1.212473e-03 4.333075e-04 -3.230986e-04 3.136724e-04 9.336816e-05 -1.866679e-04 1.875823e-05 -3.960286e-04 -3.440611e-04 4.216923e-04 1.996601e-04 9.920899e-05 5.514940e-04
<VARIANCE> 39
 6.281469e+01 1.557037e+01 2.156122e+01 2.192087e+01 1.452598e+01 1.818984e+01 2.450314e+01 3.296780e+01 6.965542e+01 1.630161e+01 2.173649e+01 1.070047e+01 3.860073e+01 1.887294e+00 1.096815e+00 1.064140e+00 1.332649e+00 1.011388e+00 1.245511e+00 1.288612e+00 1.606925e+00 2.691071e+00 1.141269e+00 1.115713e+00 9.371723e-01 1.034100e+00 2.264258e-01 1.908248e-01 1.714561e-01 2.122922e-01 1.795476e-01 2.306929e-01 2.312070e-01 2.794822e-01 3.946857e-01 2.194654e-01 1.983667e-01 1.810127e-01 1.190936e-01
<GCONST> 9.608638e+01
<TRANSP> 5
 0.000000e+00 1.000000e+00 0.000000e+00 0.000000e+00 0.000000e+00
 0.000000e+00 7.879188e-01 2.120812e-01 0.000000e+00 0.000000e+00
 0.000000e+00 0.000000e+00 7.879184e-01 2.120816e-01 0.000000e+00
 0.000000e+00 0.000000e+00 0.000000e+00 9.200312e-01 7.996876e-02
 0.000000e+00 0.000000e+00 0.000000e+00 0.000000e+00 0.000000e+00
<ENDHMM>
~h "r"
<BEGINHMM>
<NUMSTATES> 5
<STATE> 2
<MEAN> 39
 -1.393854e+01 2.410798e+00 -1.008927e+00 7.362739e-01 1.404090e+00 -2.703088e-01 8.131379e-01 9.123167e-01 -1.383043e+00 1.103840e+00 3.934824e+00 -4.143862e-01 6.428772e+01 -3.318602e-02 -9.588859e-03 -5.575723e-03 -1.058464e-02 -8.049661e-03 9.456899e-03 1.115965e-02 1.066977e-02 2.456106e-02 -1.125692e-04 -6.352260e-03 1.101566e-02 -2.238251e-02 -3.073359e-04 -2.092710e-04 6.304260e-04 7.289535e-04 -1.747932e-04 -1.471767e-04 -8.708244e-06 -8.013964e-04 -4.675889e-04 -2.617140e-04 -3.435707e-06 1.527715e-04 -1.204520e-04
<VARIANCE> 39
 7.468532e+01 1.964719e+01 2.576750e+01 3.029018e+01 2.338867e+01 2.195615e+01 3.859642e+01 3.810655e+01 7.761646e+01 2.304339e+01 2.478815e+01 1.266674e+01 4.494747e+01 2.438371e+00 1.366698e+00 1.258566e+00 1.739333e+00 1.228705e+00 1.525991e+00 1.638738e+00 1.886959e+00 3.261671e+00 1.282175e+00 1.530196e+00 1.055819e+00 1.265042e+00 3.106662e-01 2.263550e-01 2.110032e-01 2.972650e-01 2.215258e-01 2.715164e-01 2.757263e-01 3.286570e-01 4.705403e-01 2.357021e-01 2.669814e-01 1.987284e-01 1.505696e-01
<GCONST> 1.044330e+02
<STATE> 3
<MEAN> 39
 -1.410538e+01 2.359838e+00 -1.028299e+00 6.975945e-01 1.369288e+00 -2.264375e-01 8.639841e-01 9.596300e-01 -1.269908e+00 1.097696e+00 3.903728e+00 -3.633739e-01 6.417639e+01 -3.388597e-02 -1.032827e-02 -2.667138e-03 -7.021431e-03 -8.624767e-03 8.255551e-03 1.039898e-02 6.714270e-03 2.183801e-02 -1.525803e-03 -6.186487e-03 1.138982e-02 -2.244312e-02 -4.038733e-05 -8.115606e-05 5.388313e-04 8.807422e-04 -1.527993e-04 -3.464898e-04 -2.142115e-04 -7.975101e-04 -4.751644e-04 -2.515259e-04 -3.114715e-05 7.726179e-06 -7.254333e-06
<VARIANCE> 39
 7.415559e+01 1.936302e+01 2.559943e+01 3.032257e+01 2.303135e+01 2.188773e+01 3.781070e+01 3.787599e+01 7.620204e+01 2.297674e+01 2.451224e+01 1.277532e+01 4.455349e+01 2.414867e+00 1.355262e+00 1.256785e+00 1.764529e+00 1.212859e+00 1.511240e+00 1.632857e+00 1.881190e+00 3.224934e+00 1.287526e+00 1.510594e+00 1.053661e+00 1.242744e+00 3.106216e-01 2.249911e-01 2.120528e-01 3.036065e-01 2.187362e-01 2.695277e-01 2.752554e-01 3.287801e-01 4.702644e-01 2.373149e-01 2.637207e-01 1.984581e-01 1.491344e-01
<GCONST> 1.042351e+02
<STATE> 4
<MEAN> 39
 -1.439607e+01 2.246205e+00 -1.103216e+00 6.256990e-01 1.222112e+00 -1.975373e-01 1.027726e+00 1.029930e+00 -1.096246e+00 1.113487e+00 3.854562e+00 -2.650746e-01 6.397008e+01 -3.419346e-02 -1.142443e-02 1.513748e-03 7.576940e-04 -7.646234e-03 3.866686e-03 5.218811e-03 1.911696e-03 1.688630e-02 -5.435443e-03 -6.177061e-03 9.445602e-03 -2.227293e-02 6.040522e-04 1.174712e-04 1.628511e-04 7.729658e-04 -1.754778e-04 -5.432580e-04 -5.197415e-04 -7.504614e-04 -6.316148e-04 -2.485894e-04 -1.204952e-04 -3.166407e-04 3.315412e-04
<VARIANCE> 39
 7.307342e+01 1.907952e+01 2.538496e+01 3.047418e+01 2.230760e+01 2.214947e+01 3.545117e+01 3.743367e+01 7.444427e+01 2.239989e+01 2.391550e+01 1.284591e+01 4.370900e+01 2.366044e+00 1.346567e+00 1.253991e+00 1.766951e+00 1.174998e+00 1.497135e+00 1.599673e+00 1.845850e+00 3.130507e+00 1.286484e+00 1.446331e+00 1.034184e+00 1.207844e+00 3.086184e-01 2.244991e-01 2.142132e-01 3.074290e-01 2.109810e-01 2.672608e-01 2.704997e-01 3.220969e-01 4.627266e-01 2.391942e-01 2.530721e-01 1.951756e-01 1.470749e-01
<GCONST> 1.036409e+02
<TRANSP> 5
 0.000000e+00 1.000000e+00 0.000000e+00 0.000000e+00 0.000000e+00
 0.000000e+00 7.846245e-01 2.153755e-01 0.000000e+00 0.000000e+00
 0.000000e+00 0.000000e+00 7.846239e-01 2.153761e-01 0.000000e+00
 0.000000e+00 0.000000e+00 0.000000e+00 9.154482e-01 8.455178e-02
 0.000000e+00 0.000000e+00 0.000000e+00 0.000000e+00 0.000000e+00
<ENDHMM>
~h "s"
<BEGINHMM>
<NUMSTATES> 5
<STATE> 2
<MEAN> 39
 -1.503526e+01 1.461514e+00 7.419429e-01 9.956242e-01 1.888483e+00 6.050466e-01 2.286573e-01 -1.653595e-01 -1.827763e+00 3.957824e-01 3.906085e+00 -2.544791e-01 6.200521e+01 -1.309574e-01 1.620878e-04 1.592706e-03 -8.914759e-03 7.656232e-03 9.438073e-03 2.275484e-02 7.201452e-03 1.672935e-02 8.409764e-03 9.048887e-03 -1.305461e-02 4.844225e-01 2.205518e-02 -1.890196e-03 1.358610e-03 -3.814208e-04 -1.374676e-03 -3.482432e-03 -2.996253e-03 -3.767209e-03 -3.183042e-03 -2.325202e-03 -1.647359e-03 -3.623291e-04 -4.585302e-02
<VARIANCE> 39
 7.504857e+01 3.382482e+01 4.177600e+01 3.330548e+01 2.131653e+01 2.105037e+01 3.510309e+01 4.257426e+01 7.837113e+01 2.604870e+01 2.570462e+01 1.231790e+01 1.525987e+02 3.757199e+00 2.080773e+00 2.037281e+00 2.619450e+00 1.258031e+00 1.497315e+00 1.842854e+00 2.014359e+00 3.548284e+00 1.616210e+00 1.446528e+00 9.375190e-01 4.072189e+00 5.066947e-01 3.078451e-01 3.172926e-01 4.255874e-01 2.223638e-01 2.805766e-01 3.161635e-01 3.398682e-01 5.503331e-01 2.837663e-01 2.622121e-01 1.783564e-01 3.141950e-01
<GCONST> 1.127663e+02
<STATE> 3
<MEAN> 39
 -1.531813e+01 1.436975e+00 7.816083e-01 9.581628e-01 1.911490e+00 6.038387e-01 2.651145e-01 -1.910311e-01 -1.818335e+00 3.925900e-01 3.929793e+00 -3.119536e-01 6.334045e+01 -5.530120e-02 -4.488367e-03 3.440769e-03 -8.923243e-03 1.693481e-03 -1.705995e-03 9.485302e-03 -3.032688e-03 5.943919e-03 1.585995e-03 2.863026e-03 -1.217931e-02 2.613087e-01 1.493157e-02 -9.307851e-04 1.912751e-04 2.363944e-05 -1.225607e-03 -2.126170e-03 -2.769738e-03 -1.870028e-03 -1.892366e-03 -1.237862e-03 -1.387879e-03 2.630090e-04 -4.745491e-02
<VARIANCE> 39
 7.224889e+01 3.404072e+01 4.248462e+01 3.415031e+01 2.169214e+01 2.111946e+01 3.553425e+01 4.316953e+01 7.972653e+01 2.623213e+01 2.590854e+01 1.238342e+01 8.139310e+01 3.345448e+00 2.094802e+00 2.059879e+00 2.689260e+00 1.275039e+00 1.511192e+00 1.837857e+00 2.006761e+00 3.597064e+00 1.653991e+00 1.468223e+00 9.409496e-01 2.622104e+00 4.445092e-01 3.096676e-01 3.209997e-01 4.375529e-01 2.253263e-01 2.832505e-01 3.152242e-01 3.400647e-01 5.609728e-01 2.911978e-01 2.668770e-01 1.788899e-01 2.189083e-01
<GCONST> 1.114303e+02
<STATE> 4
<MEAN> 39
 -1.545829e+01 1.331042e+00 8.302223e-01 8.913811e-01 1.907191e+00 5.352151e-01 2.355488e-01 -2.802987e-01 -1.881160e+00 4.187044e-01 4.000828e+00 -3.545069e-01 6.411144e+01 -1.573043e-02 -1.711156e-03 -2.478218e-03 -6.185654e-03 -3.864303e-03 -5.317964e-03 2.790369e-03 1.999902e-03 1.062987e-02 7.430174e-03 -5.193169e-04 -6.068128e-03 4.717144e-02 2.183246e-03 3.227938e-04 -1.391514e-03 -4.562043e-05 -8.371992e-04 -8.496596e-05 1.349664e-04 1.228646e-03 1.640782e-03 1.071400e-03 -7.748380e-04 4.656749e-04 -1.733687e-02
<VARIANCE> 39
 7.224857e+01 3.433746e+01 4.387851e+01 3.591020e+01 2.242624e+01 2.128763e+01 3.584751e+01 4.505286e+01 8.316003e+01 2.631968e+01 2.648485e+01 1.252092e+01 4.734840e+01 3.157176e+00 2.125408e+00 2.123484e+00 2.795609e+00 1.300782e+00 1.526686e+00 1.840445e+00 2.031706e+00 3.709250e+00 1.677163e+00 1.507941e+00 9.372438e-01 1.309851e+00 4.093701e-01 3.155997e-01 3.311028e-01 4.546248e-01 2.298920e-01 2.845883e-01 3.157078e-01 3.436980e-01 5.762144e-01 2.946722e-01 2.740151e-01 1.768467e-01 1.447056e-01
<GCONST> 1.102765e+02
<TRANSP> 5
 0.000000e+00 1.000000e+00 0.000000e+00 0.000000e+00 0.000000e+00
 0.000000e+00 7.868131e-01 2.131869e-01 0.000000e+00 0.000000e+00
 0.000000e+00 0.000000e+00 7.868128e-01 2.131871e-01 0.000000e+00
 0.000000e+00 0.000000e+00 0.000000e+00 9.172148e-01 8.278519e-02
 0.000000e+00 0.000000e+00 0.000000e+00 0.000000e+00 0.000000e+00
<ENDHMM>
~h "t"
<BEGINHMM>
<NUMSTATES> 5
<STATE> 2
<MEAN> 39
 -1.367973e+01 7.819221e-01 -1.427823e+00 5.118406e-02 5.191347e-01 -2.257973e-01 1.072415e+00 -6.991851e-01 -2.503360e+00 1.376004e+00 5.001346e+00 6.255671e-01 6.529331e+01 -7.699052e-02 5.487967e-03 -4.345186e-02 -6.749747e-03 -2.126295e-02 8.974338e-03 4.790011e-02 7.081864e-02 6.912586e-02 1.165388e-02 -2.286224e-02 2.493483e-02 -8.398563e-02 -2.248398e-03 7.125234e-04 2.177362e-04 -1.225224e-03 -6.314115e-04 1.201605e-04 2.233886e-04 2.189456e-03 2.534813e-03 -4.116963e-04 -2.000006e-03 -1.270161e-03 -1.787398e-03
<VARIANCE> 39
 8.161381e+01 2.430999e+01 2.696537e+01 2.892150e+01 1.737197e+01 2.847623e+01 2.569608e+01 5.477971e+01 8.327139e+01 2.241452e+01 2.430760e+01 1.449328e+01 4.667612e+01 3.035192e+00 1.749188e+00 1.932156e+00 2.506372e+00 1.278360e+00 1.856948e+00 1.697652e+00 2.349013e+00 3.444328e+00 1.376650e+00 1.488232e+00 9.404619e-01 1.540852e+00 3.772744e-01 2.980660e-01 3.474620e-01 4.664738e-01 2.324646e-01 3.344836e-01 3.146406e-01 3.853961e-01 5.072138e-01 2.521773e-01 2.768636e-01 1.735347e-01 1.957195e-01
<GCONST> 1.090499e+02
<STATE> 3
<MEAN> 39
 -1.404468e+01 8.137497e-01 -1.629825e+00 2.039391e-02 4.175416e-01 -1.931242e-01 1.291127e+00 -3.623997e-01 -2.176036e+00 1.418276e+00 4.880118e+00 7.342750e-01 6.489553e+01 -8.672638e-02 8.636232e-03 -4.163421e-02 -1.222283e-02 -2.385159e-02 9.483727e-03 4.846570e-02 8.004762e-02 7.995539e-02 9.650730e-03 -3.176021e-02 1.855702e-02 -9.138830e-02 -1.734068e-03 5.185890e-04 7.154784e-04 -1.024653e-03 -4.398861e-04 3.206842e-06 -2.096722e-04 1.594521e-03 1.979971e-03 -6.756261e-04 -1.884118e-03 -1.574534e-03 -1.120635e-03
<VARIANCE> 39
 7.989799e+01 2.287546e+01 2.471749e+01 2.629688e+01 1.653111e+01 2.770803e+01 2.437700e+01 5.337836e+01 8.297527e+01 2.195212e+01 2.443224e+01 1.425365e+01 4.635450e+01 2.789704e+00 1.669611e+00 1.786481e+00 2.252638e+00 1.224890e+00 1.790339e+00 1.610834e+00 2.214670e+00 3.231200e+00 1.333355e+00 1.462150e+00 9.217113e-01 1.387930e+00 3.465677e-01 2.853250e-01 3.205774e-01 4.224007e-01 2.238022e-01 3.260901e-01 3.004185e-01 3.630639e-01 4.785761e-01 2.458148e-01 2.721918e-01 1.710411e-01 1.755154e-01
<GCONST> 1.071406e+02
<STATE> 4
<MEAN> 39
 -1.451655e+01 8.306586e-01 -1.902603e+00 -8.132553e-02 1.692598e-01 -2.951130e-01 1.525386e+00 1.545599e-01 -1.757367e+00 1.346474e+00 4.691236e+00 8.855596e-01 6.439559e+01 -9.204615e-02 1.289602e-02 -3.365880e-02 -1.519124e-02 -2.311646e-02 8.396538e-03 4.378435e-02 8.347518e-02 8.498801e-02 3.804509e-03 -4.170476e-02 7.247073e-03 -9.339738e-02 -9.280191e-04 2.721323e-04 1.350702e-03 -6.253764e-04 7.164324e-05 1.870317e-04 -6.406098e-04 5.186321e-04 9.454513e-04 -6.269625e-04 -1.307597e-03 -1.729736e-03 -1.970524e-04
<VARIANCE> 39
 7.880856e+01 2.138165e+01 2.232774e+01 2.220915e+01 1.518643e+01 2.679562e+01 2.252073e+01 4.910451e+01 8.183304e+01 2.132851e+01 2.452351e+01 1.398128e+01 4.606578e+01 2.502845e+00 1.588676e+00 1.605214e+00 1.881598e+00 1.144051e+00 1.658153e+00 1.480898e+00 2.000898e+00 2.923078e+00 1.261268e+00 1.450028e+00 8.907638e-01 1.178437e+00 3.148428e-01 2.714581e-01 2.848574e-01 3.577107e-01 2.127717e-01 3.054977e-01 2.784636e-01 3.312225e-01 4.439408e-01 2.343743e-01 2.717617e-01 1.661133e-01 1.491373e-01
<GCONST> 1.042754e+02
<TRANSP> 5
 0.000000e+00 1.000000e+00 0.000000e+00 0.000000e+00 0.000000e+00
 0.000000e+00 7.880520e-01 2.119480e-01 0.000000e+00 0.000000e+00
 0.000000e+00 0.000000e+00 7.880522e-01 2.119478e-01 0.000000e+00
 0.000000e+00 0.000000e+00 0.000000e+00 9.191726e-01 8.082739e-02
 0.000000e+00 0.000000e+00 0.000000e+00 0.000000e+00 0.000000e+00
<ENDHMM>
~h "u"
<BEGINHMM>
<NUMSTATES> 5
<STATE> 2
<MEAN> 39
 -1.143812e+01 3.044358e+00 3.681056e-01 1.844091e+00 2.073151e+00 -5.216814e-01 -8.547900e-01 -4.661970e-01 -3.249006e+00 5.080355e-01 5.040399e+00 -2.252230e-01 6.614339e+01 -1.886263e-03 1.768205e-02 -1.105126e-02 1.758174e-02 -7.898180e-03 1.279194e-02 2.331435e-02 4.396291e-03 2.420285e-02 -7.844104e-03 -2.057925e-02 2.178898e-02 -2.106643e-02 -3.166628e-03 1.054012e-04 -5.097796e-04 -4.443105e-04 -8.936558e-04 4.185832e-04 1.384299e-03 2.221857e-03 3.171069e-03 -4.244275e-04 -2.193221e-03 -5.763940e-04 -2.747724e-03
<VARIANCE> 39
 7.740673e+01 3.424605e+01 3.248419e+01 3.795324e+01 3.148852e+01 2.353799e+01 4.511802e+01 3.990973e+01 8.305663e+01 3.243057e+01 3.178226e+01 1.481532e+01 4.794890e+01 2.896401e+00 2.339021e+00 1.552363e+00 1.952556e+00 1.556193e+00 1.647696e+00 2.230881e+00 2.102966e+00 4.052773e+00 1.721136e+00 1.925296e+00 1.124852e+00 1.744218e+00 3.419853e-01 3.453955e-01 2.434895e-01 3.071945e-01 2.576777e-01 3.021381e-01 3.517698e-01 3.629315e-01 5.770206e-01 2.865834e-01 2.992394e-01 2.033352e-01 1.963187e-01
<GCONST> 1.119181e+02
<STATE> 3
<MEAN> 39
 -1.147335e+01 3.131091e+00 3.165126e-01 1.925826e+00 2.036437e+00 -4.605086e-01 -7.426156e-01 -4.255998e-01 -3.112132e+00 4.618661e-01 4.926510e+00 -1.338714e-01 6.602198e+01 -1.544981e-02 1.800765e-02 -1.270925e-02 1.495151e-02 -1.180759e-02 1.401400e-02 2.857331e-02 1.455106e-02 3.780065e-02 -9.644249e-03 -3.009821e-02 1.805118e-02 -3.238685e-02 -2.616974e-03 9.676366e-05 4.677061e-05 -4.649931e-04 -6.325044e-04 8.529067e-05 7.181769e-04 1.938340e-03 2.514384e-03 -5.316113e-04 -1.879725e-03 -1.015791e-03 -2.064272e-03
<VARIANCE> 39
 7.642500e+01 3.274538e+01 3.147999e+01 3.728963e+01 3.097106e+01 2.369830e+01 4.458175e+01 3.986333e+01 8.307710e+01 3.327261e+01 3.128743e+01 1.466673e+01 4.748051e+01 2.765792e+00 2.237285e+00 1.525722e+00 1.874916e+00 1.530599e+00 1.655406e+00 2.240151e+00 2.070611e+00 3.943846e+00 1.700607e+00 1.860092e+00 1.102240e+00 1.690035e+00 3.237173e-01 3.326170e-01 2.393437e-01 2.945107e-01 2.521661e-01 3.008319e-01 3.496405e-01 3.549357e-01 5.575153e-01 2.816959e-01 2.870397e-01 1.988975e-01 1.891915e-01
<GCONST> 1.111230e+02
<STATE> 4
<MEAN> 39
 -1.163956e+01 3.268922e+00 3.086106e-01 2.143870e+00 2.024360e+00 -3.714567e-01 -5.862037e-01 -3.829460e-01 -2.884766e+00 3.159193e-01 4.696361e+00 -2.721232e-02 6.575424e+01 -3.161566e-02 1.839153e-02 -1.200023e-02 9.548181e-03 -1.576286e-02 1.303902e-02 3.169289e-02 2.986124e-02 5.292162e-02 -1.293194e-02 -4.170832e-02 7.514686e-03 -4.426193e-02 -1.633932e-03 -1.131195e-04 5.782555e-04 -6.122941e-04 -4.268550e-04 -3.703878e-04 -4.504371e-06 1.465578e-03 1.332506e-03 -4.935091e-04 -1.216242e-03 -1.452267e-03 -9.176636e-04
<VARIANCE> 39
 7.487349e+01 3.105847e+01 3.060571e+01 3.625407e+01 3.047289e+01 2.352526e+01 4.394033e+01 4.020618e+01 8.304884e+01 3.514555e+01 3.005810e+01 1.422122e+01 4.619151e+01 2.545851e+00 2.122539e+00 1.514906e+00 1.787771e+00 1.500809e+00 1.654844e+00 2.272742e+00 2.026669e+00 3.758633e+00 1.697982e+00 1.729698e+00 1.049334e+00 1.541605e+00 2.969240e-01 3.178618e-01 2.373398e-01 2.798533e-01 2.448219e-01 2.987463e-01 3.501046e-01 3.415031e-01 5.265037e-01 2.781766e-01 2.650290e-01 1.885261e-01 1.710564e-01
<GCONST> 1.098702e+02
<TRANSP> 5
 0.000000e+00 1.000000e+00 0.000000e+00 0.000000e+00 0.000000e+00
 0.000000e+00 7.800242e-01 2.199758e-01 0.000000e+00 0.000000e+00
 0.000000e+00 0.000000e+00 7.800241e-01 2.199758e-01 0.000000e+00
 0.000000e+00 0.000000e+00 0.000000e+00 9.094248e-01 9.057524e-02
 0.000000e+00 0.000000e+00 0.000000e+00 0.000000e+00 0.000000e+00
<ENDHMM>
~h "w"
<BEGINHMM>
<NUMSTATES> 5
<STATE> 2
<MEAN> 39
 -1.091678e+01 3.351007e+00 5.612634e-01 2.595394e+00 1.603471e+00 -9.314898e-01 -4.689444e-01 5.450606e-03 -3.499364e+00 -1.212466e+00 4.508603e+00 2.214887e-01 6.623205e+01 -2.278573e-02 2.355211e-03 2.196063e-02 4.893792e-03 1.029694e-05 9.780785e-03 2.160473e-04 -5.830074e-03 -7.452686e-03 -4.169287e-02 -1.330964e-02 -3.836175e-03 -1.424894e-02 2.331244e-03 5.504212e-04 1.137508e-03 -2.185325e-04 1.808012e-04 -9.614066e-04 -2.047633e-03 -9.414292e-04 -1.548475e-03 -1.915373e-04 6.972872e-04 -1.362474e-03 1.993906e-03
<VARIANCE> 39
 7.453348e+01 3.153189e+01 3.160800e+01 2.649786e+01 2.504076e+01 2.899142e+01 3.954265e+01 3.445982e+01 7.688226e+01 4.343654e+01 2.708763e+01 1.674790e+01 4.475911e+01 2.115690e+00 2.102611e+00 1.632991e+00 1.622592e+00 1.397379e+00 1.655130e+00 1.981610e+00 1.748617e+00 3.212825e+00 1.787386e+00 1.572300e+00 1.038726e+00 1.161980e+00 2.597515e-01 3.232624e-01 2.453012e-01 2.714215e-01 2.316844e-01 2.904282e-01 3.083933e-01 2.841646e-01 4.654166e-01 2.988149e-01 2.547132e-01 1.795789e-01 1.276980e-01
<GCONST> 1.075080e+02
<STATE> 3
<MEAN> 39
 -1.099789e+01 3.370206e+00 6.735922e-01 2.615143e+00 1.607095e+00 -8.983302e-01 -4.922515e-01 -2.657056e-02 -3.543987e+00 -1.401635e+00 4.452891e+00 1.849688e-01 6.618571e+01 -1.205280e-02 4.564102e-03 2.715238e-02 4.450906e-03 1.149932e-03 5.560201e-03 -8.617528e-03 -1.005513e-02 -1.415993e-02 -4.136186e-02 -9.712916e-03 -9.813782e-03 -5.004719e-03 2.478036e-03 4.648502e-04 1.024574e-03 -6.066697e-05 2.193840e-04 -1.010449e-03 -1.866702e-03 -9.135837e-04 -1.476163e-03 1.674384e-04 8.176627e-04 -1.247804e-03 2.096815e-03
<VARIANCE> 39
 7.475364e+01 3.232535e+01 3.236611e+01 2.660932e+01 2.535867e+01 2.841702e+01 3.941523e+01 3.423142e+01 7.666251e+01 4.432121e+01 2.649401e+01 1.655103e+01 4.446487e+01 2.161549e+00 2.161090e+00 1.662764e+00 1.663364e+00 1.407779e+00 1.652611e+00 2.001177e+00 1.756561e+00 3.247128e+00 1.850167e+00 1.537925e+00 1.031030e+00 1.142249e+00 2.698114e-01 3.299657e-01 2.493788e-01 2.779913e-01 2.316971e-01 2.919314e-01 3.114910e-01 2.863300e-01 4.731075e-01 3.077390e-01 2.516365e-01 1.779908e-01 1.255377e-01
<GCONST> 1.077631e+02
<STATE> 4
<MEAN> 39
 -1.110634e+01 3.292041e+00 7.437426e-01 2.553334e+00 1.523200e+00 -9.334670e-01 -5.425013e-01 -1.396637e-01 -3.661540e+00 -1.595680e+00 4.422238e+00 9.458262e-02 6.616309e+01 1.173880e-03 7.082348e-03 3.549870e-02 6.754722e-03 6.389591e-03 7.237925e-04 -2.024632e-02 -1.455963e-02 -2.008643e-02 -3.448928e-02 -3.326590e-03 -1.872760e-02 7.060885e-03 1.952249e-03 1.565395e-04 7.101235e-04 2.856724e-04 4.639108e-04 -7.019849e-04 -1.198000e-03 -7.760613e-04 -1.041785e-03 8.109027e-04 9.580431e-04 -7.173191e-04 1.707646e-03
<VARIANCE> 39
 7.600594e+01 3.388407e+01 3.388470e+01 2.719506e+01 2.610538e+01 2.728757e+01 3.868546e+01 3.390162e+01 7.644882e+01 4.471158e+01 2.574579e+01 1.622313e+01 4.443739e+01 2.274031e+00 2.268925e+00 1.721900e+00 1.746569e+00 1.425254e+00 1.649899e+00 2.020459e+00 1.779882e+00 3.316309e+00 1.918226e+00 1.497017e+00 1.016461e+00 1.120842e+00 2.930767e-01 3.423208e-01 2.575404e-01 2.912522e-01 2.328771e-01 2.959583e-01 3.170819e-01 2.917033e-01 4.907134e-01 3.173900e-01 2.499247e-01 1.753822e-01 1.245760e-01
<GCONST> 1.083165e+02
<TRANSP> 5
 0.000000e+00 1.000000e+00 0.000000e+00 0.000000e+00 0.000000e+00
 0.000000e+00 7.800079e-01 2.199921e-01 0.000000e+00 0.000000e+00
 0.000000e+00 0.000000e+00 7.800080e-01 2.199920e-01 0.000000e+00
 0.000000e+00 0.000000e+00 0.000000e+00 9.096791e-01 9.032086e-02
 0.000000e+00 0.000000e+00 0.000000e+00 0.000000e+00 0.000000e+00
<ENDHMM>
~h "y"
<BEGINHMM>
<NUMSTATES> 5
<STATE> 2
<MEAN> 39
 -1.797070e+01 2.040970e+00 -7.332126e-01 1.296856e+00 1.329422e+00 9.153967e-01 1.988889e+00 3.185466e+00 2.326128e+00 1.304472e+00 1.916402e+00 -5.778870e-01 6.106884e+01 6.591015e-03 -2.755504e-02 3.920823e-02 2.742602e-02 2.429536e-02 -1.201550e-02 -3.539025e-02 -1.259714e-02 -4.949437e-02 -2.944833e-02 3.217587e-02 6.743192e-03 2.915446e-02 2.194949e-03 -9.387542e-04 5.360719e-04 -3.852039e-04 -5.731522e-05 -8.071145e-04 -1.771510e-03 -2.424618e-03 -3.041504e-03 -1.315015e-04 1.426497e-03 -9.386979e-05 2.336017e-03
<VARIANCE> 39
 3.778876e+01 1.715531e+01 3.065539e+01 3.095961e+01 2.006956e+01 1.327730e+01 3.083888e+01 2.327546e+01 4.663040e+01 1.860691e+01 1.434907e+01 8.224272e+00 2.496126e+01 8.228635e-01 1.214759e+00 1.175733e+00 1.227946e+00 1.148980e+00 9.610523e-01 1.548134e+00 1.345674e+00 1.907820e+00 1.076906e+00 9.915665e-01 8.019266e-01 4.777476e-01 9.822376e-02 2.136597e-01 1.939659e-01 1.929173e-01 2.141343e-01 1.746555e-01 2.723658e-01 2.548521e-01 3.196015e-01 1.996713e-01 1.882049e-01 1.554009e-01 6.210347e-02
<GCONST> 9.070852e+01
<STATE> 3
<MEAN> 39
 -1.790412e+01 1.899861e+00 -5.402924e-01 1.421010e+00 1.441794e+00 8.441098e-01 1.793223e+00 3.086249e+00 2.049165e+00 1.166134e+00 2.086067e+00 -5.498219e-01 6.124337e+01 1.738641e-02 -3.187032e-02 4.169567e-02 2.572384e-02 2.387984e-02 -1.658677e-02 -4.432952e-02 -2.469518e-02 -6.343670e-02 -2.964602e-02 3.830046e-02 5.354182e-03 4.107466e-02 2.267237e-03 -8.993612e-04 4.878995e-04 -4.581209e-04 -1.386452e-04 -9.822437e-04 -1.841820e-03 -2.579139e-03 -2.797307e-03 1.228339e-04 1.258269e-03 -3.244645e-04 2.517830e-03
<VARIANCE> 39
 3.930097e+01 1.857858e+01 3.372419e+01 3.334102e+01 2.112174e+01 1.373866e+01 3.296220e+01 2.448867e+01 5.139393e+01 1.996395e+01 1.558227e+01 8.533794e+00 2.673022e+01 8.710636e-01 1.329446e+00 1.288189e+00 1.326698e+00 1.198405e+00 9.718532e-01 1.567977e+00 1.387685e+00 2.000798e+00 1.104182e+00 1.021824e+00 8.226918e-01 4.900332e-01 1.044703e-01 2.329940e-01 2.109504e-01 2.077889e-01 2.236682e-01 1.754857e-01 2.737623e-01 2.614972e-01 3.323361e-01 2.022867e-01 1.931679e-01 1.587105e-01 6.402415e-02
<GCONST> 9.263667e+01
<STATE> 4
<MEAN> 39
 -1.761392e+01 1.520892e+00 -1.324563e-01 1.579000e+00 1.592418e+00 5.798413e-01 1.266619e+00 2.689482e+00 1.270188e+00 9.455580e-01 2.547242e+00 -5.181925e-01 6.179054e+01 4.232069e-02 -3.866558e-02 4.770571e-02 2.378993e-02 2.292275e-02 -2.876625e-02 -6.257691e-02 -4.947863e-02 -9.041613e-02 -2.661389e-02 5.073281e-02 1.335558e-04 6.713962e-02 2.192148e-03 -6.015024e-04 2.721628e-04 -5.416850e-04 -2.920741e-04 -1.054577e-03 -1.386859e-03 -2.232620e-03 -2.090661e-03 7.050776e-04 1.053938e-03 -5.417345e-04 2.286596e-03
<VARIANCE> 39
 4.544409e+01 2.196602e+01 3.987716e+01 3.848647e+01 2.316386e+01 1.535062e+01 3.739237e+01 2.836750e+01 6.227618e+01 2.198444e+01 1.902943e+01 9.450736e+00 3.182285e+01 1.076989e+00 1.566225e+00 1.562262e+00 1.603549e+00 1.298274e+00 1.039214e+00 1.630620e+00 1.495437e+00 2.210882e+00 1.157869e+00 1.116633e+00 8.730258e-01 5.521613e-01 1.290760e-01 2.718979e-01 2.490561e-01 2.457532e-01 2.388728e-01 1.868796e-01 2.790591e-01 2.747673e-01 3.573140e-01 2.092101e-01 2.077509e-01 1.663036e-01 7.103287e-02
<GCONST> 9.716260e+01
<TRANSP> 5
 0.000000e+00 1.000000e+00 0.000000e+00 0.000000e+00 0.000000e+00
 0.000000e+00 7.824796e-01 2.175204e-01 0.000000e+00 0.000000e+00
 0.000000e+00 0.000000e+00 7.824796e-01 2.175204e-01 0.000000e+00
 0.000000e+00 0.000000e+00 0.000000e+00 9.122658e-01 8.773416e-02
 0.000000e+00 0.000000e+00 0.000000e+00 0.000000e+00 0.000000e+00
<ENDHMM>
~h "sy"
<BEGINHMM>
<NUMSTATES> 5
<STATE> 2
<MEAN> 39
 -1.891014e+01 9.020827e-01 -3.841483e+00 -1.829434e+00 -7.235172e-01 7.305577e-01 4.120680e+00 3.954541e+00 2.946170e+00 2.802165e+00 1.815096e+00 -8.169686e-01 6.047197e+01 1.051315e-01 5.205508e-03 -6.353538e-03 -1.788027e-02 -1.283803e-02 -3.752376e-02 -6.681681e-05 -2.074859e-02 -6.299470e-02 2.117706e-02 4.922872e-02 1.259172e-02 8.714035e-02 3.225883e-03 8.506734e-04 5.758468e-04 -1.231035e-04 -6.191582e-04 -1.163828e-03 -9.845935e-04 -9.127949e-04 -2.176089e-03 -5.807356e-04 1.246473e-03 3.268200e-05 2.335313e-03
<VARIANCE> 39
 3.888192e+01 5.433512e+00 6.040969e+00 6.916538e+00 7.464859e+00 1.320347e+01 1.424981e+01 1.205713e+01 3.042635e+01 9.676243e+00 1.272889e+01 6.727409e+00 2.620640e+01 1.312162e+00 5.342612e-01 5.251437e-01 5.658367e-01 7.419246e-01 1.021905e+00 1.197923e+00 1.197428e+00 1.738981e+00 8.942085e-01 9.051964e-01 7.768813e-01 9.555151e-01 1.453178e-01 1.004092e-01 9.724887e-02 1.045702e-01 1.464961e-01 1.858828e-01 2.207865e-01 2.389335e-01 2.569457e-01 1.821824e-01 1.717822e-01 1.604695e-01 1.033508e-01
<GCONST> 7.817638e+01
<STATE> 3
<MEAN> 39
 -1.833820e+01 9.423027e-01 -3.863827e+00 -1.917972e+00 -7.989777e-01 5.242902e-01 4.100210e+00 3.833832e+00 2.598351e+00 2.893945e+00 2.077306e+00 -7.549446e-01 6.093886e+01 1.201799e-01 9.793629e-03 -2.857202e-03 -1.803558e-02 -1.600047e-02 -4.285212e-02 -5.583347e-03 -2.502452e-02 -7.290311e-02 1.738337e-02 5.523363e-02 1.262712e-02 9.761977e-02 2.877383e-03 9.413190e-04 7.748908e-04 2.492706e-05 -6.160160e-04 -9.886542e-04 -1.164036e-03 -8.073054e-04 -1.858105e-03 -8.566226e-04 1.172776e-03 1.565047e-05 1.965025e-03
<VARIANCE> 39
 4.657690e+01 6.359474e+00 6.763116e+00 7.528305e+00 8.229791e+00 1.509133e+01 1.591558e+01 1.242197e+01 3.432669e+01 1.001855e+01 1.429528e+01 6.916440e+00 3.105536e+01 1.576906e+00 6.199082e-01 5.882310e-01 6.052377e-01 7.897891e-01 1.125605e+00 1.306266e+00 1.229590e+00 1.883273e+00 9.173696e-01 9.635467e-01 7.879087e-01 1.147995e+00 1.726092e-01 1.159029e-01 1.092913e-01 1.127213e-01 1.545284e-01 1.995694e-01 2.365217e-01 2.446991e-01 2.687660e-01 1.860510e-01 1.801520e-01 1.622706e-01 1.237847e-01
<GCONST> 8.173298e+01
<STATE> 4
<MEAN> 39
 -1.680646e+01 1.123969e+00 -3.840522e+00 -2.034052e+00 -1.013072e+00 6.965782e-03 3.925359e+00 3.498775e+00 1.718276e+00 2.991529e+00 2.781138e+00 -5.980702e-01 6.211919e+01 1.400720e-01 1.897382e-02 6.725798e-03 -1.344511e-02 -1.967242e-02 -4.780963e-02 -2.045964e-02 -3.144235e-02 -8.411610e-02 3.982332e-03 6.434529e-02 1.317009e-02 1.087103e-01 1.149207e-03 7.435934e-04 9.866902e-04 4.676258e-04 -1.402123e-04 -7.851988e-05 -1.230017e-03 -3.202248e-04 -5.602102e-04 -1.231716e-03 6.587267e-04 9.740269e-05 5.430010e-04
<VARIANCE> 39
 6.380947e+01 8.707454e+00 8.682508e+00 8.990143e+00 1.024646e+01 2.003785e+01 2.018133e+01 1.334961e+01 4.146965e+01 1.090864e+01 1.801845e+01 7.409698e+00 4.092541e+01 2.223789e+00 8.451797e-01 7.674562e-01 7.114965e-01 9.102626e-01 1.400927e+00 1.535889e+00 1.288431e+00 2.118044e+00 9.734709e-01 1.087468e+00 7.959734e-01 1.575803e+00 2.412038e-01 1.576346e-01 1.433069e-01 1.342563e-01 1.729088e-01 2.365069e-01 2.669246e-01 2.533620e-01 2.856557e-01 1.956632e-01 1.957990e-01 1.622130e-01 1.696973e-01
<GCONST> 8.876318e+01
<TRANSP> 5
 0.000000e+00 1.000000e+00 0.000000e+00 0.000000e+00 0.000000e+00
 0.000000e+00 7.973791e-01 2.026208e-01 0.000000e+00 0.000000e+00
 0.000000e+00 0.000000e+00 7.973793e-01 2.026207e-01 0.000000e+00
 0.000000e+00 0.000000e+00 0.000000e+00 9.285740e-01 7.142594e-02
 0.000000e+00 0.000000e+00 0.000000e+00 0.000000e+00 0.000000e+00
<ENDHMM>
~h "sil"
<BEGINHMM>
<NUMSTATES> 5
<STATE> 2
<MEAN> 39
 -1.145938e+01 7.160301e-01 -1.769737e+00 -5.700322e-01 -2.285926e-01 7.960236e-01 2.025635e+00 2.553543e+00 2.516690e+00 1.277778e+00 6.269963e-01 -2.116117e-01 3.127617e+01 -2.594984e-01 2.301743e-02 -3.803419e-02 1.384603e-03 -1.098759e-02 2.159071e-02 2.527664e-02 3.517389e-02 3.183623e-02 2.154663e-02 2.776294e-03 -1.288934e-03 4.790325e-01 -5.942941e-02 6.666021e-03 -8.327733e-03 1.083147e-03 -2.347133e-03 3.360552e-03 3.719266e-03 7.483213e-03 5.079987e-03 3.761681e-03 5.833546e-04 -1.630825e-03 1.192069e-01
<VARIANCE> 39
 1.096721e+02 2.039885e+00 5.284316e+00 4.086292e+00 3.665077e+00 4.119551e+00 8.347548e+00 1.097569e+01 1.101482e+01 5.914579e+00 4.451225e+00 3.918605e+00 8.328616e+02 1.535976e+00 1.263807e-01 2.243445e-01 2.930798e-01 3.205478e-01 3.722844e-01 4.887742e-01 6.024005e-01 5.767890e-01 4.807140e-01 4.076355e-01 3.873735e-01 3.460634e+00 2.611575e-01 2.426275e-02 4.334547e-02 5.822021e-02 6.523387e-02 7.651652e-02 9.756805e-02 1.208908e-01 1.155004e-01 9.824765e-02 8.448488e-02 7.911457e-02 3.607598e-01
<GCONST> 6.026598e+01
<STATE> 3
<MEAN> 39
 -1.416318e+01 9.665738e-01 -2.129431e+00 -5.525202e-01 -2.762713e-01 1.036732e+00 2.369733e+00 3.000627e+00 2.930031e+00 1.529203e+00 6.909528e-01 -2.561638e-01 3.706152e+01 -5.917652e-01 5.634308e-02 -8.515578e-02 5.743594e-04 -1.570006e-02 4.265826e-02 6.298308e-02 8.388468e-02 7.274659e-02 4.526338e-02 9.318233e-03 -1.520985e-02 1.326127e+00 -6.888106e-02 5.638911e-03 -1.148946e-02 -1.037395e-03 -6.302556e-04 4.240763e-03 6.413629e-03 7.716688e-03 4.858120e-03 5.062730e-03 3.641748e-03 -1.876825e-03 1.840562e-01
<VARIANCE> 39
 9.632893e+01 2.408725e+00 5.283277e+00 4.531408e+00 4.263699e+00 4.874375e+00 8.788418e+00 1.115050e+01 1.086287e+01 6.333366e+00 5.141890e+00 4.658883e+00 7.233735e+02 3.393171e+00 1.716209e-01 3.088868e-01 3.566543e-01 4.089980e-01 4.882070e-01 6.655276e-01 8.138549e-01 7.588446e-01 5.999924e-01 5.193130e-01 4.782047e-01 8.246756e+00 5.722281e-01 3.221171e-02 6.071646e-02 7.134113e-02 8.418462e-02 9.927442e-02 1.308379e-01 1.579284e-01 1.476601e-01 1.207563e-01 1.085420e-01 9.763236e-02 8.004525e-01
<GCONST> 6.997332e+01
<STATE> 4
<MEAN> 39
 -1.893049e+01 1.285626e+00 -2.892996e+00 -7.807659e-01 -3.122710e-01 1.322110e+00 3.137585e+00 3.822773e+00 3.744138e+00 1.841860e+00 7.357967e-01 -5.668107e-01 5.158428e+01 -3.298745e-01 1.636619e-02 -7.476671e-02 -2.407032e-02 -9.488097e-03 1.007405e-03 2.087551e-02 1.204535e-02 -7.115100e-04 4.199679e-03 7.139247e-03 -2.073905e-02 1.145367e+00 2.244572e-02 -8.345910e-03 -3.304687e-03 -1.146141e-03 4.782147e-03 -1.804599e-03 -4.058428e-03 -8.634024e-03 -1.364571e-02 4.872766e-04 9.048418e-03 3.239942e-03 -2.354540e-02
<VARIANCE> 39
 3.364051e+01 2.282724e+00 4.319595e+00 5.064578e+00 5.157311e+00 5.801745e+00 8.554106e+00 1.043734e+01 9.841366e+00 7.089584e+00 6.132486e+00 5.961422e+00 2.999466e+02 2.274886e+00 1.743974e-01 3.320398e-01 4.295354e-01 5.270321e-01 6.226459e-01 8.231484e-01 1.005038e+00 9.545867e-01 7.517136e-01 6.768495e-01 6.341792e-01 6.793249e+00 3.608031e-01 3.185201e-02 6.280600e-02 8.121961e-02 1.030487e-01 1.225449e-01 1.548327e-01 1.860327e-01 1.787114e-01 1.460768e-01 1.356272e-01 1.234993e-01 5.342602e-01
<GCONST> 7.107896e+01
<TRANSP> 5
 0.000000e+00 1.000000e+00 0.000000e+00 0.000000e+00 0.000000e+00
 0.000000e+00 7.890213e-01 2.109787e-01 0.000000e+00 0.000000e+00
 0.000000e+00 0.000000e+00 7.890217e-01 2.109783e-01 0.000000e+00
 0.000000e+00 0.000000e+00 0.000000e+00 9.210455e-01 7.895451e-02
 0.000000e+00 0.000000e+00 0.000000e+00 0.000000e+00 0.000000e+00
<ENDHMM>
