~o
<STREAMINFO> 1 39
<VECSIZE> 39<NULLD><MFCC_D_A_0><DIAGC>
~h "a"
<BEGINHMM>
<NUMSTATES> 5
<STATE> 2
<MEAN> 39
 -1.455284e+01 -8.271310e-01 -5.652916e-02 -6.696758e-01 4.619832e-01 1.588758e+00 3.414086e-01 -2.196649e+00 1.009814e+00 -2.468801e+00 2.625127e-01 -7.520764e-01 5.915036e+01 1.336813e-02 -1.661188e-02 1.045613e-02 -2.253845e-02 -5.700498e-03 -1.505738e-02 1.878521e-02 -1.836023e-02 3.987481e-03 -1.438562e-02 -2.635540e-03 1.024962e-03 1.828224e-01 1.754920e-03 4.882754e-04 3.475579e-06 2.891694e-05 -4.401888e-04 -6.252262e-04 -4.614270e-04 1.283234e-04 -4.310856e-04 -2.354687e-05 -6.457610e-05 -3.740900e-04 -4.211499e-03
<VARIANCE> 39
 8.341611e+01 4.282346e+01 4.414115e+01 3.624332e+01 3.469261e+01 2.759028e+01 4.618433e+01 4.677994e+01 5.497585e+01 4.389312e+01 3.372470e+01 2.028380e+01 3.289608e+02 1.541026e+00 1.691391e+00 1.264125e+00 1.447981e+00 1.368077e+00 1.474315e+00 1.836530e+00 1.604611e+00 1.869176e+00 1.427215e+00 1.559034e+00 1.188201e+00 2.402205e+00 1.901616e-01 2.648896e-01 1.937709e-01 2.200212e-01 2.249982e-01 2.572111e-01 3.004376e-01 2.768966e-01 3.082395e-01 2.545806e-01 2.662038e-01 2.087605e-01 2.695320e-01
<GCONST> 1.094838e+02
<STATE> 3
<MEAN> 39
 -1.448764e+01 -8.971341e-01 -1.871040e-02 -7.710344e-01 4.232790e-01 1.522101e+00 4.161047e-01 -2.271102e+00 1.026976e+00 -2.534146e+00 2.507673e-01 -7.472575e-01 5.991304e+01 2.010678e-02 -1.443721e-02 1.073748e-02 -2.261913e-02 -7.662203e-03 -1.742629e-02 1.715382e-02 -1.749863e-02 2.371848e-03 -1.408471e-02 -2.808005e-03 -1.754612e-04 1.653261e-01 1.367389e-03 4.456767e-04 1.405028e-04 4.581873e-05 -4.250186e-04 -5.021713e-04 -4.012354e-04 2.712780e-04 -3.828940e-04 1.124156e-04 5.911721e-05 -3.789500e-04 -3.310843e-03
<VARIANCE> 39
 8.219980e+01 4.383656e+01 4.400271e+01 3.682971e+01 3.535282e+01 2.815138e+01 4.695682e+01 4.692749e+01 5.572610e+01 4.464635e+01 3.429799e+01 2.070312e+01 3.008193e+02 1.541797e+00 1.713789e+00 1.279190e+00 1.468357e+00 1.392534e+00 1.489932e+00 1.854849e+00 1.620411e+00 1.893223e+00 1.447010e+00 1.577209e+00 1.208077e+00 2.350006e+00 1.890597e-01 2.674097e-01 1.954683e-01 2.225498e-01 2.282218e-01 2.598376e-01 3.025231e-01 2.786202e-01 3.112234e-01 2.579513e-01 2.687811e-01 2.119030e-01 2.682538e-01
<GCONST> 1.097667e+02
<STATE> 4
<MEAN> 39
 -1.431412e+01 -9.332643e-01 1.072492e-01 -9.519967e-01 4.894179e-01 1.439371e+00 4.718204e-01 -2.180107e+00 1.422335e+00 -2.782495e+00 4.605886e-01 -7.945307e-01 6.117536e+01 2.661503e-02 -1.201516e-02 8.186223e-03 -2.393219e-02 -1.388924e-02 -1.799203e-02 1.338640e-02 -1.094968e-02 2.008161e-03 -1.270803e-02 -2.557349e-03 7.556578e-04 1.323835e-01 1.201327e-03 2.287404e-04 1.741924e-04 -1.101340e-04 -3.696009e-04 -3.851975e-04 -3.823982e-04 3.883883e-04 -2.988044e-04 1.216392e-04 2.640826e-05 -1.866802e-04 -2.443270e-03
<VARIANCE> 39
 7.937950e+01 4.549487e+01 4.170978e+01 3.764368e+01 3.663518e+01 3.001007e+01 4.891081e+01 4.646864e+01 5.912130e+01 4.800760e+01 3.515983e+01 2.135461e+01 2.507082e+02 1.553215e+00 1.771545e+00 1.295578e+00 1.480643e+00 1.450765e+00 1.564266e+00 1.893301e+00 1.677490e+00 1.991820e+00 1.482491e+00 1.612818e+00 1.246143e+00 2.305232e+00 1.872389e-01 2.750576e-01 2.002899e-01 2.251901e-01 2.365911e-01 2.722326e-01 3.091288e-01 2.870627e-01 3.247378e-01 2.635208e-01 2.735491e-01 2.179469e-01 2.615205e-01
<GCONST> 1.104615e+02
<TRANSP> 5
 0.000000e+00 1.000000e+00 0.000000e+00 0.000000e+00 0.000000e+00
 0.000000e+00 7.778752e-01 2.221248e-01 0.000000e+00 0.000000e+00
 0.000000e+00 0.000000e+00 7.778743e-01 2.221257e-01 0.000000e+00
 0.000000e+00 0.000000e+00 0.000000e+00 9.105995e-01 8.940046e-02
 0.000000e+00 0.000000e+00 0.000000e+00 0.000000e+00 0.000000e+00
<ENDHMM>
~h "b"
<BEGINHMM>
<NUMSTATES> 5
<STATE> 2
<MEAN> 39
 -1.173136e+01 -1.413267e+00 2.996626e-02 -7.013477e-01 1.372490e+00 1.291419e+00 1.103650e+00 -3.427462e+00 -9.955180e-02 -4.958496e+00 7.854167e-02 3.316820e-03 6.604900e+01 -1.028604e-01 8.296784e-03 -1.056861e-02 3.474029e-03 -3.909028e-03 6.589763e-03 9.438428e-03 7.574646e-03 -3.007308e-02 5.155728e-02 3.324840e-02 -1.880024e-02 -1.480992e-01 1.033969e-03 -1.917926e-03 3.504066e-03 2.079749e-03 2.466928e-03 -4.488827e-04 -3.357552e-03 -2.457172e-03 -1.455392e-03 -1.140791e-04 9.259506e-04 -1.208097e-03 4.737933e-03
<VARIANCE> 39
 8.038801e+01 5.284687e+01 2.702282e+01 3.828924e+01 3.622532e+01 2.560638e+01 4.193345e+01 5.544689e+01 6.726405e+01 5.227558e+01 3.458147e+01 3.343685e+01 1.809869e+02 9.802117e-01 1.957592e+00 1.136888e+00 1.401470e+00 1.281920e+00 1.481401e+00 1.823093e+00 1.653564e+00 2.326763e+00 1.456046e+00 1.899570e+00 1.611252e+00 1.630195e+00 1.051897e-01 2.580496e-01 1.815484e-01 2.093079e-01 1.925359e-01 2.630670e-01 2.919906e-01 2.651806e-01 3.749804e-01 2.608975e-01 3.162562e-01 2.644349e-01 1.542611e-01
<GCONST> 1.085709e+02
<STATE> 3
<MEAN> 39
 -1.221830e+01 -1.386381e+00 5.254775e-03 -6.633700e-01 1.377788e+00 1.319054e+00 1.128232e+00 -3.410427e+00 -2.483543e-01 -4.712803e+00 2.361327e-01 -9.814328e-02 6.536764e+01 -9.705891e-02 -1.470565e-03 6.147682e-03 1.247382e-02 7.065258e-03 4.885570e-03 -5.997036e-03 -4.267099e-03 -3.614553e-02 5.047075e-02 3.711537e-02 -2.372691e-02 -1.235193e-01 1.220148e-03 -1.774779e-03 3.819911e-03 2.108914e-03 2.551771e-03 -1.155452e-04 -2.892466e-03 -2.475109e-03 -5.471305e-04 -1.971122e-06 7.249647e-04 -1.484707e-03 5.385418e-03
<VARIANCE> 39
 8.079456e+01 5.207204e+01 2.835606e+01 3.606675e+01 3.481654e+01 2.556166e+01 4.059293e+01 5.515509e+01 6.793559e+01 4.927145e+01 3.263860e+01 3.079552e+01 1.840144e+02 1.022532e+00 1.976689e+00 1.143866e+00 1.396693e+00 1.270676e+00 1.448290e+00 1.826991e+00 1.637196e+00 2.329343e+00 1.464732e+00 1.809713e+00 1.524390e+00 1.656327e+00 1.111896e-01 2.631569e-01 1.843686e-01 2.113676e-01 1.930823e-01 2.589695e-01 2.962637e-01 2.656755e-01 3.775171e-01 2.640060e-01 3.019463e-01 2.542107e-01 1.605671e-01
<GCONST> 1.083089e+02
<STATE> 4
<MEAN> 39
 -1.335800e+01 -1.252321e+00 1.073665e-01 -3.679210e-01 1.696194e+00 1.500066e+00 9.467070e-01 -3.270291e+00 -8.839738e-02 -4.223468e+00 7.050351e-01 -5.145834e-01 6.396450e+01 -8.455606e-02 -1.608487e-02 2.706856e-02 2.144943e-02 1.891384e-02 4.737387e-03 -2.063736e-02 -2.049205e-02 -3.575503e-02 4.526316e-02 3.494385e-02 -2.781800e-02 -8.332207e-02 1.053292e-03 -1.881690e-03 3.161751e-03 1.284755e-03 1.661849e-03 3.601709e-04 -1.823566e-03 -2.053622e-03 6.996232e-04 -3.796357e-04 1.875120e-04 -1.323516e-03 5.333058e-03
<VARIANCE> 39
 7.912521e+01 5.107451e+01 3.157519e+01 3.281368e+01 3.221411e+01 2.543619e+01 4.126521e+01 5.424282e+01 7.111381e+01 4.549874e+01 2.927606e+01 2.546931e+01 1.838518e+02 1.132315e+00 2.015990e+00 1.197793e+00 1.421855e+00 1.275198e+00 1.403660e+00 1.879687e+00 1.665095e+00 2.383419e+00 1.469860e+00 1.629427e+00 1.341905e+00 1.709750e+00 1.248959e-01 2.749129e-01 1.956119e-01 2.214717e-01 1.998243e-01 2.543845e-01 3.083470e-01 2.790056e-01 3.873951e-01 2.639232e-01 2.752121e-01 2.298918e-01 1.688794e-01
<GCONST> 1.081482e+02
<TRANSP> 5
 0.000000e+00 1.000000e+00 0.000000e+00 0.000000e+00 0.000000e+00
 0.000000e+00 7.936468e-01 2.063532e-01 0.000000e+00 0.000000e+00
 0.000000e+00 0.000000e+00 7.936472e-01 2.063528e-01 0.000000e+00
 0.000000e+00 0.000000e+00 0.000000e+00 9.261245e-01 7.387555e-02
 0.000000e+00 0.000000e+00 0.000000e+00 0.000000e+00 0.000000e+00
<ENDHMM>
~h "d"
<BEGINHMM>
<NUMSTATES> 5
<STATE> 2
<MEAN> 39
 -1.170185e+01 -1.122925e+00 6.861039e-01 -2.660702e-01 1.003379e-01 4.764872e-01 -9.536082e-01 -2.573084e+00 4.541235e-01 -3.101266e+00 -3.215653e-01 -7.812464e-01 5.865448e+01 -8.614766e-02 1.993039e-02 -1.867925e-02 1.304615e-02 1.193743e-02 7.397269e-03 1.286482e-02 5.662272e-03 2.927649e-02 2.038049e-03 -1.055604e-02 -5.542087e-03 1.995595e-01 1.591205e-03 1.097215e-03 -2.258353e-03 -2.239997e-03 4.628541e-04 7.893079e-04 1.211026e-03 2.667616e-04 -9.868455e-04 -1.935598e-04 3.995777e-04 5.810282e-04 -1.267832e-02
<VARIANCE> 39
 1.022506e+02 4.875903e+01 5.096491e+01 5.337753e+01 4.548715e+01 3.369925e+01 5.590387e+01 4.979070e+01 6.733733e+01 5.179464e+01 4.243936e+01 2.020399e+01 5.719922e+02 2.103282e+00 2.164534e+00 1.334700e+00 1.665502e+00 1.480650e+00 1.705970e+00 2.275602e+00 1.644643e+00 2.249969e+00 1.782699e+00 1.609011e+00 1.109671e+00 3.941001e+00 2.645829e-01 3.308188e-01 2.079644e-01 2.411691e-01 2.297041e-01 2.984962e-01 3.574385e-01 2.770444e-01 3.475684e-01 3.080876e-01 2.634400e-01 1.974600e-01 4.062694e-01
<GCONST> 1.160158e+02
<STATE> 3
<MEAN> 39
 -1.208094e+01 -1.030749e+00 5.847240e-01 -2.233301e-01 1.556448e-01 5.210925e-01 -8.781255e-01 -2.557642e+00 5.833990e-01 -3.103285e+00 -3.646500e-01 -8.002146e-01 5.941242e+01 -8.415087e-02 2.445536e-02 -2.808525e-02 3.615648e-03 1.341528e-02 1.179106e-02 1.888826e-02 5.653284e-03 2.479965e-02 1.206042e-03 -7.881137e-03 -2.286096e-03 1.428472e-01 4.763785e-04 8.466390e-04 -2.016321e-03 -1.999809e-03 8.155842e-04 1.102098e-03 1.070906e-03 4.142872e-06 -1.174713e-03 -4.291585e-04 7.317250e-04 9.294210e-04 -1.113236e-02
<VARIANCE> 39
 9.890934e+01 4.724363e+01 4.981870e+01 5.321801e+01 4.483590e+01 3.349510e+01 5.563830e+01 5.041467e+01 6.669275e+01 5.134005e+01 4.173235e+01 2.029408e+01 5.104070e+02 2.002987e+00 2.111175e+00 1.310266e+00 1.644704e+00 1.465074e+00 1.691391e+00 2.256877e+00 1.648844e+00 2.220674e+00 1.764442e+00 1.599763e+00 1.119613e+00 3.626565e+00 2.517799e-01 3.238465e-01 2.043160e-01 2.376945e-01 2.269744e-01 2.963775e-01 3.544718e-01 2.776292e-01 3.448209e-01 3.054802e-01 2.630087e-01 1.998100e-01 3.935874e-01
<GCONST> 1.153682e+02
<STATE> 4
<MEAN> 39
 -1.286417e+01 -8.375461e-01 5.081769e-01 -1.566801e-01 6.137005e-01 7.751015e-01 -8.170932e-01 -2.364167e+00 1.160079e+00 -3.256604e+00 -9.524846e-02 -8.120171e-01 6.083419e+01 -8.289406e-02 2.655664e-02 -3.565594e-02 -7.891197e-03 1.572072e-02 1.717481e-02 3.219763e-02 4.398781e-03 2.058346e-02 2.696702e-03 6.600369e-04 -1.018899e-03 8.448745e-02 6.092965e-04 2.348520e-04 -7.544754e-04 -1.345761e-03 9.712387e-04 6.002500e-04 7.063652e-04 -1.002249e-04 -1.139483e-03 -7.450506e-05 1.013337e-03 4.010165e-04 -5.503631e-03
<VARIANCE> 39
 8.851888e+01 4.574239e+01 4.602804e+01 5.110924e+01 4.349316e+01 3.305736e+01 5.627349e+01 4.987758e+01 6.862949e+01 5.231567e+01 4.135379e+01 2.080489e+01 3.765999e+02 1.850329e+00 2.055275e+00 1.284719e+00 1.603830e+00 1.467723e+00 1.683361e+00 2.262985e+00 1.688377e+00 2.247703e+00 1.698022e+00 1.597173e+00 1.141002e+00 3.172685e+00 2.299605e-01 3.173226e-01 2.019330e-01 2.332026e-01 2.266951e-01 2.952995e-01 3.562836e-01 2.856652e-01 3.511490e-01 2.927178e-01 2.627223e-01 2.038433e-01 3.577960e-01
<GCONST> 1.143374e+02
<TRANSP> 5
 0.000000e+00 1.000000e+00 0.000000e+00 0.000000e+00 0.000000e+00
 0.000000e+00 7.773033e-01 2.226967e-01 0.000000e+00 0.000000e+00
 0.000000e+00 0.000000e+00 7.773044e-01 2.226956e-01 0.000000e+00
 0.000000e+00 0.000000e+00 0.000000e+00 9.100060e-01 8.999399e-02
 0.000000e+00 0.000000e+00 0.000000e+00 0.000000e+00 0.000000e+00
<ENDHMM>
~h "e"
<BEGINHMM>
<NUMSTATES> 5
<STATE> 2
<MEAN> 39
 -9.389310e+00 -2.643354e+00 1.409960e+00 -1.816267e+00 1.608395e-01 -1.770067e-01 -5.069801e-01 -4.470063e+00 -6.328206e-01 -4.779110e+00 3.743743e-01 -3.687388e-02 7.118396e+01 -2.063839e-02 -6.321470e-03 4.831202e-03 1.929445e-02 2.652051e-02 1.856543e-02 -5.392596e-03 -3.465670e-02 -2.764550e-02 1.343815e-02 2.196311e-02 -9.274026e-04 -1.020413e-02 -2.250423e-03 2.077843e-04 1.219738e-03 9.503733e-04 4.324901e-04 8.116339e-04 -4.670288e-04 -1.058394e-04 9.702197e-04 1.304757e-03 1.065432e-04 -1.483471e-03 -2.454462e-03
<VARIANCE> 39
 8.059986e+01 6.365372e+01 4.742987e+01 6.128387e+01 5.115912e+01 3.939924e+01 6.351078e+01 6.366837e+01 8.727010e+01 6.793400e+01 5.299456e+01 3.035408e+01 1.406166e+02 2.235464e+00 2.667194e+00 1.789979e+00 2.100991e+00 1.788469e+00 2.222509e+00 2.716018e+00 2.182961e+00 2.764778e+00 1.949834e+00 2.195202e+00 1.561843e+00 2.917064e+00 2.565345e-01 3.949361e-01 2.727838e-01 3.096699e-01 2.752642e-01 3.746275e-01 4.188403e-01 3.529465e-01 4.288439e-01 3.273944e-01 3.578706e-01 2.642389e-01 3.321151e-01
<GCONST> 1.210142e+02
<STATE> 3
<MEAN> 39
 -9.497638e+00 -2.660216e+00 1.434794e+00 -1.719043e+00 2.876073e-01 -9.847951e-02 -5.382037e-01 -4.623794e+00 -7.523285e-01 -4.708083e+00 4.716510e-01 -5.585504e-02 7.111166e+01 -2.969656e-02 -5.159594e-03 1.021740e-02 2.377495e-02 2.866426e-02 2.167227e-02 -7.639667e-03 -3.460871e-02 -2.269785e-02 1.857575e-02 2.172273e-02 -7.540140e-03 -2.037214e-02 -1.710468e-03 3.211853e-04 9.511101e-04 5.965998e-04 4.938708e-05 5.310707e-04 -2.232368e-04 4.117363e-04 1.481357e-03 1.044074e-03 -2.900041e-04 -1.277052e-03 -2.062859e-03
<VARIANCE> 39
 8.048679e+01 6.338385e+01 4.741307e+01 6.066729e+01 5.037994e+01 3.872939e+01 6.323233e+01 6.519335e+01 8.698124e+01 6.632276e+01 5.216950e+01 3.002953e+01 1.407637e+02 2.236744e+00 2.677491e+00 1.815027e+00 2.109253e+00 1.788041e+00 2.213037e+00 2.712034e+00 2.195207e+00 2.771987e+00 1.949898e+00 2.219463e+00 1.565672e+00 2.884395e+00 2.544706e-01 3.968189e-01 2.767166e-01 3.123962e-01 2.757624e-01 3.739074e-01 4.168599e-01 3.564207e-01 4.302535e-01 3.278678e-01 3.616937e-01 2.666013e-01 3.294121e-01
<GCONST> 1.209996e+02
<STATE> 4
<MEAN> 39
 -1.004272e+01 -2.437737e+00 1.429543e+00 -1.441044e+00 7.054890e-01 1.583307e-01 -7.880965e-01 -4.303181e+00 -4.791512e-01 -4.517291e+00 1.037663e+00 -2.039203e-01 7.036093e+01 -3.403237e-02 2.246129e-04 1.316569e-02 2.809887e-02 3.033313e-02 1.931835e-02 -1.057651e-02 -2.989975e-02 -1.313767e-02 2.231719e-02 1.637251e-02 -1.560725e-02 -3.067295e-02 -6.748792e-04 3.792698e-04 3.947559e-04 7.616723e-05 -3.028246e-04 1.588820e-04 4.220659e-05 8.995638e-04 1.719928e-03 5.485599e-04 -6.355898e-04 -7.218085e-04 -1.205374e-03
<VARIANCE> 39
 8.032851e+01 6.284840e+01 4.558602e+01 5.924673e+01 4.850553e+01 3.835052e+01 6.308668e+01 6.572617e+01 8.886123e+01 6.469173e+01 5.041747e+01 2.904655e+01 1.444362e+02 2.194079e+00 2.634081e+00 1.816900e+00 2.100818e+00 1.761291e+00 2.172694e+00 2.726558e+00 2.230139e+00 2.858228e+00 1.909703e+00 2.201041e+00 1.530112e+00 2.824135e+00 2.456350e-01 3.891672e-01 2.807196e-01 3.148545e-01 2.748056e-01 3.660407e-01 4.186693e-01 3.661686e-01 4.423098e-01 3.205866e-01 3.579695e-01 2.628407e-01 3.158869e-01
<GCONST> 1.206581e+02
<TRANSP> 5
 0.000000e+00 1.000000e+00 0.000000e+00 0.000000e+00 0.000000e+00
 0.000000e+00 7.850534e-01 2.149466e-01 0.000000e+00 0.000000e+00
 0.000000e+00 0.000000e+00 7.850538e-01 2.149462e-01 0.000000e+00
 0.000000e+00 0.000000e+00 0.000000e+00 9.187340e-01 8.126606e-02
 0.000000e+00 0.000000e+00 0.000000e+00 0.000000e+00 0.000000e+00
<ENDHMM>
~h "f"
<BEGINHMM>
<NUMSTATES> 5
<STATE> 2
<MEAN> 39
 -1.070680e+01 -9.325676e-01 4.790795e+00 3.197675e+00 5.427615e+00 5.802344e-01 -4.413834e+00 -4.788408e+00 1.869421e+00 -5.979282e+00 -2.941684e+00 -3.554248e+00 6.919209e+01 -9.421439e-02 -3.539035e-02 -2.596807e-02 -3.734436e-02 -3.473020e-02 3.062454e-02 6.246755e-02 -5.934652e-03 5.768012e-02 8.658084e-02 -1.968544e-03 -8.142634e-03 -5.941922e-02 6.563370e-03 1.207088e-03 -3.401658e-03 -7.453430e-03 -5.613853e-03 -1.824403e-03 1.203139e-04 -2.954324e-03 -1.154047e-03 9.026479e-05 -1.052610e-03 2.337149e-03 5.789998e-03
<VARIANCE> 39
 6.184891e+01 5.297058e+01 6.025193e+01 9.501004e+01 6.692612e+01 3.898722e+01 8.647265e+01 4.741685e+01 9.895098e+01 4.778731e+01 5.647558e+01 2.702805e+01 1.132200e+02 2.112380e+00 2.898072e+00 2.121716e+00 2.619310e+00 2.020352e+00 2.707926e+00 3.687250e+00 2.076337e+00 2.952173e+00 1.732713e+00 2.181276e+00 1.413677e+00 2.453797e+00 2.756831e-01 4.687938e-01 2.937910e-01 3.328675e-01 2.974321e-01 4.594642e-01 5.453923e-01 3.582074e-01 4.719359e-01 3.158497e-01 3.826383e-01 2.409725e-01 2.988893e-01
<GCONST> 1.225601e+02
<STATE> 3
<MEAN> 39
 -1.105516e+01 -1.062307e+00 4.661980e+00 3.017560e+00 5.285970e+00 6.912391e-01 -4.176512e+00 -4.835189e+00 2.070882e+00 -5.634439e+00 -2.932658e+00 -3.577327e+00 6.896974e+01 -6.644860e-02 -3.064852e-02 -3.593837e-02 -6.417195e-02 -5.408356e-02 2.412615e-02 5.914720e-02 -1.810069e-02 5.268205e-02 8.386793e-02 -5.421313e-03 1.510953e-03 -3.362671e-02 7.454031e-03 1.482470e-03 -2.263814e-03 -6.276451e-03 -4.134775e-03 -1.120996e-03 -1.311178e-03 -2.982581e-03 -1.067326e-03 -1.117840e-03 -9.991653e-04 2.422919e-03 6.552209e-03
<VARIANCE> 39
 6.301588e+01 5.080544e+01 5.902223e+01 9.244387e+01 6.554461e+01 3.960159e+01 8.479964e+01 4.766960e+01 9.385880e+01 4.666681e+01 5.563749e+01 2.649506e+01 1.161392e+02 2.341479e+00 2.826046e+00 2.139194e+00 2.680921e+00 2.068155e+00 2.786834e+00 3.604976e+00 2.137998e+00 2.944682e+00 1.728545e+00 2.280401e+00 1.412508e+00 2.451313e+00 3.069334e-01 4.620846e-01 3.002125e-01 3.512454e-01 3.089704e-01 4.711067e-01 5.357257e-01 3.689373e-01 4.771864e-01 3.142902e-01 4.048553e-01 2.421080e-01 2.973547e-01
<GCONST> 1.228946e+02
<STATE> 4
<MEAN> 39
 -1.162140e+01 -1.159015e+00 4.489609e+00 2.615453e+00 5.176089e+00 9.359810e-01 -4.091528e+00 -4.771655e+00 2.732747e+00 -5.226434e+00 -2.755379e+00 -3.487252e+00 6.834033e+01 -2.743250e-02 -2.249859e-02 -4.006310e-02 -8.777705e-02 -6.392951e-02 1.889404e-02 4.183338e-02 -3.433117e-02 4.076276e-02 7.003780e-02 -2.859991e-03 1.446093e-02 3.513344e-03 7.556259e-03 1.427921e-03 -5.794534e-04 -4.589142e-03 -2.725665e-03 -1.314447e-04 -2.416348e-03 -2.401051e-03 -6.617753e-04 -2.488854e-03 -8.502663e-04 2.548778e-03 7.142687e-03
<VARIANCE> 39
 6.565952e+01 4.891143e+01 5.760020e+01 8.645819e+01 6.485686e+01 4.056674e+01 8.392047e+01 4.784170e+01 9.177464e+01 4.606806e+01 5.544685e+01 2.617852e+01 1.255508e+02 2.695496e+00 2.726418e+00 2.211472e+00 2.757927e+00 2.136165e+00 2.809478e+00 3.606426e+00 2.252862e+00 3.029617e+00 1.718480e+00 2.385347e+00 1.446947e+00 2.541487e+00 3.557020e-01 4.395243e-01 3.191113e-01 3.778884e-01 3.220668e-01 4.711072e-01 5.373845e-01 3.899299e-01 4.976734e-01 3.102165e-01 4.311332e-01 2.515863e-01 2.969876e-01
<GCONST> 1.236881e+02
<TRANSP> 5
 0.000000e+00 1.000000e+00 0.000000e+00 0.000000e+00 0.000000e+00
 0.000000e+00 7.495632e-01 2.504368e-01 0.000000e+00 0.000000e+00
 0.000000e+00 0.000000e+00 7.495633e-01 2.504367e-01 0.000000e+00
 0.000000e+00 0.000000e+00 0.000000e+00 8.770722e-01 1.229278e-01
 0.000000e+00 0.000000e+00 0.000000e+00 0.000000e+00 0.000000e+00
<ENDHMM>
~h "g"
<BEGINHMM>
<NUMSTATES> 5
<STATE> 2
<MEAN> 39
 -7.313350e+00 -1.127791e+00 1.670967e+00 -1.833753e+00 -4.482415e-01 -7.253547e-01 -1.434656e+00 -3.559959e+00 7.037553e-01 -6.090229e+00 -1.410577e+00 -5.191565e-04 7.190024e+01 -1.634488e-02 5.323435e-03 3.457281e-02 7.255749e-02 4.100699e-02 -1.787020e-02 -3.481008e-02 -4.918497e-02 -5.439154e-03 5.480053e-02 -1.533348e-02 -4.901017e-02 -8.866511e-03 -2.045140e-03 -2.299628e-03 -7.357824e-04 1.571627e-03 2.102038e-03 3.246146e-03 1.641314e-03 -1.801598e-03 4.268957e-04 6.552134e-04 -4.005975e-04 5.305522e-04 -9.971629e-04
<VARIANCE> 39
 6.304478e+01 5.179722e+01 3.535284e+01 5.723721e+01 5.290939e+01 4.889657e+01 7.210113e+01 5.435497e+01 1.143555e+02 5.622850e+01 6.104921e+01 2.916381e+01 1.239649e+02 1.079712e+00 2.130223e+00 1.574129e+00 1.868955e+00 1.528094e+00 2.137282e+00 2.758534e+00 2.116080e+00 2.930016e+00 1.629644e+00 1.756518e+00 1.486898e+00 1.904378e+00 1.232678e-01 2.938004e-01 2.301751e-01 2.830143e-01 2.242688e-01 3.257239e-01 3.983392e-01 3.346141e-01 4.317742e-01 2.856360e-01 2.909464e-01 2.397832e-01 2.066144e-01
<GCONST> 1.155999e+02
<STATE> 3
<MEAN> 39
 -7.398538e+00 -1.132310e+00 1.815044e+00 -1.495835e+00 -2.289711e-01 -7.701538e-01 -1.580439e+00 -3.809902e+00 6.588296e-01 -5.850685e+00 -1.461205e+00 -1.991897e-01 7.186436e+01 -2.548349e-02 -3.305061e-03 3.033183e-02 7.767290e-02 4.897352e-02 -3.928191e-03 -2.684708e-02 -5.608295e-02 -3.881029e-03 5.720303e-02 -1.618345e-02 -4.670202e-02 -1.461218e-02 -2.450361e-03 -1.561810e-03 -1.221589e-03 1.054203e-03 2.036170e-03 3.600096e-03 2.011331e-03 -1.253827e-03 2.391300e-04 5.414499e-04 4.265388e-05 5.999965e-04 -2.113180e-03
<VARIANCE> 39
 6.261588e+01 5.179842e+01 3.504292e+01 5.810547e+01 5.525949e+01 4.942731e+01 7.295934e+01 5.591582e+01 1.173746e+02 5.498563e+01 6.266523e+01 2.767941e+01 1.230938e+02 1.105450e+00 2.193517e+00 1.572237e+00 1.907300e+00 1.562833e+00 2.121480e+00 2.827050e+00 2.188491e+00 3.027876e+00 1.653047e+00 1.751418e+00 1.458634e+00 1.976620e+00 1.256855e-01 3.057322e-01 2.312668e-01 2.882885e-01 2.306108e-01 3.237692e-01 4.078797e-01 3.455046e-01 4.446169e-01 2.899821e-01 2.916549e-01 2.357829e-01 2.182434e-01
<GCONST> 1.161165e+02
<STATE> 4
<MEAN> 39
 -8.216623e+00 -1.226226e+00 1.877741e+00 -6.170555e-01 6.687663e-01 -3.913305e-01 -1.888676e+00 -4.179671e+00 5.130902e-01 -5.293995e+00 -9.422237e-01 -5.690019e-01 7.094166e+01 -3.725683e-02 -9.480821e-03 1.908178e-02 7.497980e-02 5.769179e-02 1.660340e-02 -1.367541e-02 -6.056109e-02 -7.369724e-03 5.323428e-02 -7.797589e-03 -3.787067e-02 -2.639439e-02 -2.687640e-03 1.087829e-04 -1.776789e-03 -2.996553e-04 8.154368e-04 3.068067e-03 2.529590e-03 4.361894e-04 4.518887e-04 4.399051e-04 4.166587e-04 3.815889e-04 -3.640184e-03
<VARIANCE> 39
 6.490778e+01 5.184372e+01 3.498523e+01 5.854845e+01 5.671154e+01 4.706977e+01 7.481657e+01 5.972369e+01 1.252081e+02 5.423278e+01 6.238163e+01 2.497841e+01 1.310795e+02 1.193630e+00 2.300724e+00 1.580775e+00 1.987360e+00 1.630564e+00 2.036428e+00 2.907597e+00 2.377518e+00 3.273105e+00 1.675326e+00 1.757395e+00 1.396997e+00 2.181684e+00 1.319987e-01 3.328824e-01 2.403580e-01 3.027511e-01 2.442182e-01 3.209916e-01 4.228498e-01 3.774683e-01 4.794248e-01 2.917441e-01 2.949495e-01 2.266462e-01 2.420424e-01
<GCONST> 1.172189e+02
<TRANSP> 5
 0.000000e+00 1.000000e+00 0.000000e+00 0.000000e+00 0.000000e+00
 0.000000e+00 7.790424e-01 2.209576e-01 0.000000e+00 0.000000e+00
 0.000000e+00 0.000000e+00 7.790431e-01 2.209569e-01 0.000000e+00
 0.000000e+00 0.000000e+00 0.000000e+00 9.112204e-01 8.877958e-02
 0.000000e+00 0.000000e+00 0.000000e+00 0.000000e+00 0.000000e+00
<ENDHMM>
~h "i"
<BEGINHMM>
<NUMSTATES> 5
<STATE> 2
<MEAN> 39
 -1.450189e+01 -8.694300e-01 8.222806e-01 -3.029754e-01 3.662196e-01 1.487344e+00 -1.000728e-01 -2.595595e+00 7.560304e-01 -2.727446e+00 -1.491493e-01 -1.243919e+00 5.993279e+01 -6.120163e-02 1.524996e-02 9.716270e-03 3.689615e-03 3.816270e-02 2.138733e-02 1.291024e-02 -4.091064e-03 3.162390e-02 -1.785465e-03 6.206105e-03 -1.739041e-02 1.338180e-01 3.583185e-03 -7.026563e-05 -9.320739e-04 -7.540068e-04 3.035156e-04 -4.278154e-04 3.926265e-04 5.659615e-04 1.668819e-04 -5.433033e-04 -2.382451e-05 1.413864e-03 -3.262990e-03
<VARIANCE> 39
 8.917062e+01 4.983134e+01 5.753656e+01 4.794987e+01 4.252501e+01 3.091709e+01 5.020024e+01 4.827524e+01 5.803862e+01 4.315878e+01 3.453030e+01 2.076553e+01 3.559099e+02 2.102824e+00 2.009210e+00 1.422927e+00 1.801524e+00 1.558050e+00 1.694614e+00 2.125920e+00 1.607615e+00 2.009371e+00 1.619328e+00 1.533089e+00 1.121303e+00 2.892904e+00 2.659231e-01 3.034087e-01 2.215502e-01 2.777580e-01 2.521456e-01 2.994472e-01 3.462290e-01 2.826441e-01 3.417226e-01 2.906728e-01 2.698952e-01 2.007255e-01 3.497155e-01
<GCONST> 1.141266e+02
<STATE> 3
<MEAN> 39
 -1.473081e+01 -8.086407e-01 8.612473e-01 -2.992128e-01 5.270996e-01 1.571786e+00 -3.795481e-02 -2.612290e+00 8.964218e-01 -2.734953e+00 -1.181913e-01 -1.319017e+00 6.047189e+01 -4.266239e-02 1.395335e-02 5.514537e-03 1.114463e-04 3.803769e-02 1.804461e-02 1.363338e-02 -1.230452e-03 3.086080e-02 -3.879826e-03 6.238521e-03 -1.137404e-02 1.154645e-01 4.230903e-03 -5.365273e-04 -6.668042e-04 -5.095383e-04 -1.478315e-05 -8.448453e-04 2.087986e-04 4.000471e-04 -2.663530e-04 -5.877682e-04 -1.340528e-04 1.336518e-03 -3.546590e-03
<VARIANCE> 39
 8.381512e+01 4.969688e+01 5.697133e+01 4.700962e+01 4.225708e+01 3.116620e+01 4.990076e+01 4.759254e+01 5.719240e+01 4.300621e+01 3.438915e+01 2.095322e+01 3.070584e+02 2.016827e+00 2.002987e+00 1.414693e+00 1.811152e+00 1.573840e+00 1.714245e+00 2.138790e+00 1.613928e+00 1.997841e+00 1.603664e+00 1.541833e+00 1.130560e+00 2.707109e+00 2.534606e-01 3.026195e-01 2.207937e-01 2.795970e-01 2.551460e-01 3.017218e-01 3.494030e-01 2.849065e-01 3.416778e-01 2.874579e-01 2.721146e-01 2.019332e-01 3.265770e-01
<GCONST> 1.136946e+02
<STATE> 4
<MEAN> 39
 -1.496469e+01 -7.533669e-01 1.015487e+00 -3.833751e-01 9.159239e-01 1.682240e+00 5.222831e-02 -2.454560e+00 1.513190e+00 -2.866266e+00 1.792467e-01 -1.419318e+00 6.135423e+01 -1.189371e-02 8.363422e-03 9.881008e-04 -2.432225e-03 2.957870e-02 8.688136e-03 8.312618e-03 2.371057e-03 2.181088e-02 -6.322916e-03 7.484631e-03 -4.365892e-03 6.794170e-02 3.185744e-03 -7.135624e-04 -5.963183e-04 -6.376136e-05 -5.618175e-04 -9.313414e-04 -2.626630e-04 3.034774e-04 -9.356005e-04 -5.603662e-04 -9.869522e-05 1.239766e-03 -3.806830e-03
<VARIANCE> 39
 7.462222e+01 4.924164e+01 5.422602e+01 4.513100e+01 4.151243e+01 3.175958e+01 5.023839e+01 4.573145e+01 5.707937e+01 4.430028e+01 3.392419e+01 2.112091e+01 2.328789e+02 1.836317e+00 1.990711e+00 1.388200e+00 1.792771e+00 1.600042e+00 1.734384e+00 2.163631e+00 1.649057e+00 2.032190e+00 1.587080e+00 1.538323e+00 1.138203e+00 2.336626e+00 2.270142e-01 3.019095e-01 2.176353e-01 2.792505e-01 2.592721e-01 3.020297e-01 3.553034e-01 2.933498e-01 3.504160e-01 2.829723e-01 2.729749e-01 2.036231e-01 2.764832e-01
<GCONST> 1.127781e+02
<TRANSP> 5
 0.000000e+00 1.000000e+00 0.000000e+00 0.000000e+00 0.000000e+00
 0.000000e+00 7.766156e-01 2.233845e-01 0.000000e+00 0.000000e+00
 0.000000e+00 0.000000e+00 7.766136e-01 2.233865e-01 0.000000e+00
 0.000000e+00 0.000000e+00 0.000000e+00 9.094242e-01 9.057577e-02
 0.000000e+00 0.000000e+00 0.000000e+00 0.000000e+00 0.000000e+00
<ENDHMM>
~h "j"
<BEGINHMM>
<NUMSTATES> 5
<STATE> 2
<MEAN> 39
 -1.399795e+01 -4.022385e-01 -1.119234e+00 -2.816011e+00 -1.042378e+00 7.229871e-01 2.043615e+00 -2.465648e+00 8.027282e-01 -1.373947e+00 -1.357812e-01 -1.072581e+00 6.113038e+01 1.389675e-01 -1.355394e-02 6.391070e-02 -9.617994e-03 -2.056110e-02 -3.046240e-02 -1.173287e-02 -4.225328e-02 -1.188727e-03 -2.650035e-02 -5.014994e-02 7.967715e-03 2.243852e-01 -1.396483e-03 6.092236e-04 1.569849e-03 2.851017e-03 1.965490e-03 1.845118e-03 -1.246955e-03 7.990553e-04 1.909504e-03 -1.147217e-03 -7.162699e-04 3.834043e-04 -2.083621e-03
<VARIANCE> 39
 7.472691e+01 3.698106e+01 2.074695e+01 3.575972e+01 3.156673e+01 2.826144e+01 3.646915e+01 3.815372e+01 5.341089e+01 4.079374e+01 3.001595e+01 1.294035e+01 1.868710e+02 2.112040e+00 1.980182e+00 1.082454e+00 1.615887e+00 1.616377e+00 1.603798e+00 2.088960e+00 1.842384e+00 2.408030e+00 2.073757e+00 1.585078e+00 1.090255e+00 4.380616e+00 2.471177e-01 3.167132e-01 1.974330e-01 2.774759e-01 2.894129e-01 2.842063e-01 3.682911e-01 3.201257e-01 3.763646e-01 3.890189e-01 2.799228e-01 2.127856e-01 5.375110e-01
<GCONST> 1.115933e+02
<STATE> 3
<MEAN> 39
 -1.342689e+01 -4.484036e-01 -8.265166e-01 -2.814999e+00 -1.100875e+00 6.200947e-01 1.961537e+00 -2.626589e+00 8.258001e-01 -1.505737e+00 -3.566089e-01 -1.032493e+00 6.205380e+01 1.308353e-01 -1.109800e-02 7.073356e-02 3.343881e-03 -1.091861e-02 -2.179880e-02 -1.683919e-02 -3.862325e-02 6.163631e-03 -3.231488e-02 -5.251808e-02 9.286371e-03 2.134207e-01 -2.046318e-03 5.097001e-04 1.664919e-03 3.161896e-03 2.328857e-03 2.105728e-03 -1.319288e-03 9.223890e-04 1.602227e-03 -1.516133e-03 -4.436206e-04 3.079903e-04 -2.656068e-03
<VARIANCE> 39
 7.616708e+01 3.985889e+01 2.259205e+01 3.868751e+01 3.375523e+01 2.984149e+01 3.829985e+01 3.927937e+01 5.463091e+01 4.306865e+01 3.212748e+01 1.346949e+01 1.888923e+02 2.183882e+00 2.067093e+00 1.139522e+00 1.678980e+00 1.681596e+00 1.667083e+00 2.187292e+00 1.877223e+00 2.422874e+00 2.140153e+00 1.647063e+00 1.108595e+00 4.520647e+00 2.577200e-01 3.247344e-01 2.055490e-01 2.839373e-01 2.968333e-01 2.923106e-01 3.838242e-01 3.238693e-01 3.774868e-01 3.982996e-01 2.896565e-01 2.142216e-01 5.539352e-01
<GCONST> 1.130139e+02
<STATE> 4
<MEAN> 39
 -1.255658e+01 -4.776047e-01 -1.984429e-02 -2.537361e+00 -1.006298e+00 6.773516e-01 1.445888e+00 -2.612908e+00 1.414451e+00 -2.145946e+00 -6.276371e-01 -9.690628e-01 6.350380e+01 1.046647e-01 -5.898990e-03 8.005761e-02 2.979925e-02 1.187929e-02 -3.146372e-03 -2.919911e-02 -2.979418e-02 1.441595e-02 -4.501735e-02 -5.013120e-02 9.946977e-03 1.786910e-01 -2.483734e-03 2.781268e-04 1.623160e-03 3.159088e-03 2.598479e-03 1.982279e-03 -1.157329e-03 6.572029e-04 5.718634e-04 -1.793696e-03 1.519896e-04 3.273046e-05 -2.802883e-03
<VARIANCE> 39
 7.647549e+01 4.614238e+01 2.760677e+01 4.476102e+01 3.962969e+01 3.450190e+01 4.159402e+01 4.043053e+01 5.789891e+01 4.945361e+01 3.523730e+01 1.450837e+01 1.857500e+02 2.275128e+00 2.249173e+00 1.277575e+00 1.757287e+00 1.834572e+00 1.804926e+00 2.379255e+00 1.937661e+00 2.476773e+00 2.150221e+00 1.717044e+00 1.155491e+00 4.576687e+00 2.704204e-01 3.451725e-01 2.244563e-01 2.892169e-01 3.126436e-01 3.087548e-01 4.200982e-01 3.321956e-01 3.867428e-01 3.934715e-01 2.990429e-01 2.204502e-01 5.555412e-01
<GCONST> 1.154769e+02
<TRANSP> 5
 0.000000e+00 1.000000e+00 0.000000e+00 0.000000e+00 0.000000e+00
 0.000000e+00 7.714545e-01 2.285455e-01 0.000000e+00 0.000000e+00
 0.000000e+00 0.000000e+00 7.714548e-01 2.285451e-01 0.000000e+00
 0.000000e+00 0.000000e+00 0.000000e+00 9.011221e-01 9.887786e-02
 0.000000e+00 0.000000e+00 0.000000e+00 0.000000e+00 0.000000e+00
<ENDHMM>
~h "k"
<BEGINHMM>
<NUMSTATES> 5
<STATE> 2
<MEAN> 39
 -1.203863e+01 -1.667931e+00 6.687745e-01 -4.586565e-01 -1.705759e-01 5.872735e-01 -1.032412e+00 -3.158093e+00 7.378793e-01 -1.970987e+00 5.308702e-01 -1.120741e+00 5.794316e+01 -8.762202e-02 3.280820e-02 -4.189330e-02 -1.867845e-02 -1.478533e-02 1.214281e-02 3.580236e-02 2.965094e-02 5.210232e-02 1.181151e-02 -1.768474e-02 -1.456890e-03 2.402112e-01 4.399252e-03 1.379315e-03 -1.414163e-03 -1.946723e-03 -5.376437e-04 6.829021e-04 2.238058e-03 7.136127e-04 -2.939840e-04 -1.653302e-03 -1.150807e-03 1.510171e-03 -1.307007e-02
<VARIANCE> 39
 1.081849e+02 4.797675e+01 4.746541e+01 4.348021e+01 4.345356e+01 3.645849e+01 5.460101e+01 6.517352e+01 6.685792e+01 4.253196e+01 3.751022e+01 2.063267e+01 6.466166e+02 2.223464e+00 1.751275e+00 1.416698e+00 2.162122e+00 1.737236e+00 1.748690e+00 2.278407e+00 1.818148e+00 2.076557e+00 1.507373e+00 1.640754e+00 1.227412e+00 4.130056e+00 2.745212e-01 2.744309e-01 2.242041e-01 3.429753e-01 2.706488e-01 2.840422e-01 3.418360e-01 3.023568e-01 3.247208e-01 2.611863e-01 2.776102e-01 2.153139e-01 4.325535e-01
<GCONST> 1.166471e+02
<STATE> 3
<MEAN> 39
 -1.239880e+01 -1.519202e+00 4.881874e-01 -5.448436e-01 -2.316012e-01 6.604380e-01 -8.650692e-01 -3.042711e+00 9.714285e-01 -1.942726e+00 4.424405e-01 -1.121167e+00 5.881760e+01 -7.657249e-02 3.865531e-02 -4.679098e-02 -2.442535e-02 -1.704665e-02 1.660468e-02 4.516494e-02 3.032061e-02 5.149461e-02 6.828381e-03 -2.125538e-02 4.378957e-03 1.781694e-01 1.997862e-03 1.517468e-03 -8.104498e-04 -7.427199e-04 1.218724e-04 1.016876e-03 1.848227e-03 1.777890e-04 -3.841218e-04 -1.097985e-03 -5.695043e-04 1.108396e-03 -1.326086e-02
<VARIANCE> 39
 1.051874e+02 4.652509e+01 4.532160e+01 4.189171e+01 4.302399e+01 3.690937e+01 5.501498e+01 6.528324e+01 6.726059e+01 4.246088e+01 3.709410e+01 2.030308e+01 5.784826e+02 2.122852e+00 1.701218e+00 1.357821e+00 2.090222e+00 1.733476e+00 1.743895e+00 2.253571e+00 1.797613e+00 2.069143e+00 1.514115e+00 1.631373e+00 1.230183e+00 3.744588e+00 2.609311e-01 2.673844e-01 2.170055e-01 3.340350e-01 2.712936e-01 2.820897e-01 3.398906e-01 2.995080e-01 3.239285e-01 2.622834e-01 2.769994e-01 2.170734e-01 4.191901e-01
<GCONST> 1.159235e+02
<STATE> 4
<MEAN> 39
 -1.299709e+01 -1.158637e+00 3.094894e-01 -6.389663e-01 4.383510e-02 8.844510e-01 -6.095461e-01 -2.794062e+00 1.608329e+00 -2.104509e+00 6.146864e-01 -1.116973e+00 6.064730e+01 -7.894424e-02 4.128731e-02 -4.551591e-02 -2.564759e-02 -1.295056e-02 2.634942e-02 5.880734e-02 2.839438e-02 5.339076e-02 4.447849e-03 -2.173562e-02 5.417119e-03 1.084386e-01 -6.050569e-05 1.041022e-03 -9.338645e-05 7.964367e-05 1.085653e-03 7.296375e-04 1.812419e-03 3.609582e-04 -6.075824e-04 -1.239776e-04 1.645596e-04 1.527980e-04 -7.206020e-03
<VARIANCE> 39
 9.376572e+01 4.408081e+01 3.939404e+01 3.998237e+01 4.206165e+01 3.795583e+01 5.613491e+01 6.292414e+01 7.067185e+01 4.426533e+01 3.656593e+01 2.021189e+01 4.268803e+02 2.017294e+00 1.652470e+00 1.312746e+00 1.991377e+00 1.708185e+00 1.770258e+00 2.237896e+00 1.840562e+00 2.167500e+00 1.532683e+00 1.617968e+00 1.243528e+00 3.352424e+00 2.445897e-01 2.608462e-01 2.177186e-01 3.236821e-01 2.688997e-01 2.854854e-01 3.414855e-01 3.087391e-01 3.381856e-01 2.659336e-01 2.749958e-01 2.195978e-01 3.980539e-01
<GCONST> 1.150600e+02
<TRANSP> 5
 0.000000e+00 1.000000e+00 0.000000e+00 0.000000e+00 0.000000e+00
 0.000000e+00 7.725837e-01 2.274164e-01 0.000000e+00 0.000000e+00
 0.000000e+00 0.000000e+00 7.725836e-01 2.274164e-01 0.000000e+00
 0.000000e+00 0.000000e+00 0.000000e+00 9.048319e-01 9.516810e-02
 0.000000e+00 0.000000e+00 0.000000e+00 0.000000e+00 0.000000e+00
<ENDHMM>
~h "l"
<BEGINHMM>
<NUMSTATES> 5
<STATE> 2
<MEAN> 39
 -7.883154e+00 -1.523164e+00 2.027956e+00 -1.193011e+00 -1.786129e-01 -6.418796e-01 -7.414698e-01 -3.777648e+00 3.734444e-01 -5.293352e+00 -1.079597e+00 -4.598994e-01 7.170210e+01 1.545697e-02 -1.061609e-02 4.172337e-03 -1.188114e-02 -2.270645e-02 -2.179698e-02 -2.381143e-02 -2.514507e-03 8.805584e-03 -2.366552e-02 5.685189e-03 9.341065e-03 3.281677e-02 -2.795059e-03 1.287708e-04 2.996580e-04 6.661146e-05 1.379928e-03 1.061280e-03 -6.316821e-04 -7.355858e-04 -5.316146e-04 8.031214e-04 1.758759e-03 -2.045973e-04 -3.083777e-03
<VARIANCE> 39
 6.173853e+01 5.775175e+01 4.245242e+01 6.895891e+01 6.376516e+01 4.363756e+01 7.173348e+01 5.562587e+01 8.515429e+01 7.101965e+01 6.124512e+01 3.348463e+01 1.201708e+02 1.677905e+00 2.467066e+00 1.603915e+00 2.195218e+00 2.001095e+00 2.332924e+00 2.740241e+00 2.055261e+00 2.477219e+00 1.959218e+00 2.400945e+00 1.818036e+00 2.849311e+00 2.016519e-01 3.620160e-01 2.365410e-01 3.085116e-01 3.019651e-01 3.709223e-01 4.195223e-01 3.315020e-01 3.727146e-01 3.252900e-01 3.808821e-01 2.925011e-01 3.264078e-01
<GCONST> 1.204111e+02
<STATE> 3
<MEAN> 39
 -7.832257e+00 -1.565388e+00 2.041547e+00 -1.253293e+00 -2.710581e-01 -7.329267e-01 -8.500457e-01 -3.792945e+00 4.031023e-01 -5.391964e+00 -1.043419e+00 -4.186043e-01 7.182341e+01 3.640302e-03 -9.253926e-03 5.400744e-03 -1.109931e-02 -1.568109e-02 -1.678549e-02 -2.647301e-02 -6.010251e-03 6.430680e-03 -1.982074e-02 1.294118e-02 8.347413e-03 1.925770e-02 -2.712503e-03 3.006857e-04 2.945564e-05 -1.089681e-04 1.561111e-03 1.337507e-03 -2.328056e-04 -7.404672e-04 -5.458047e-04 1.005841e-03 1.592774e-03 -1.769174e-04 -3.039690e-03
<VARIANCE> 39
 6.180760e+01 5.804869e+01 4.191182e+01 6.772794e+01 6.325018e+01 4.311543e+01 7.222999e+01 5.596622e+01 8.665540e+01 7.004319e+01 6.153695e+01 3.387524e+01 1.176995e+02 1.660417e+00 2.446130e+00 1.609836e+00 2.184336e+00 2.001928e+00 2.318766e+00 2.737862e+00 2.036387e+00 2.488796e+00 1.961312e+00 2.415182e+00 1.817020e+00 2.787412e+00 1.975931e-01 3.565591e-01 2.383007e-01 3.078905e-01 2.999732e-01 3.688426e-01 4.197063e-01 3.296213e-01 3.746819e-01 3.250291e-01 3.826674e-01 2.925377e-01 3.177175e-01
<GCONST> 1.202664e+02
<STATE> 4
<MEAN> 39
 -8.200354e+00 -1.518899e+00 1.947122e+00 -1.300146e+00 -1.067493e-01 -6.374032e-01 -1.217211e+00 -3.433335e+00 7.217899e-01 -5.410681e+00 -3.821600e-01 -4.041128e-01 7.138647e+01 -1.021519e-02 -3.368400e-03 3.551123e-03 -8.593000e-03 -3.209339e-03 -8.391264e-03 -2.565301e-02 -1.181258e-02 1.294078e-03 -9.740559e-03 1.841569e-02 6.000947e-03 -1.159169e-03 -2.352403e-03 4.774957e-04 -1.767694e-04 1.301787e-04 1.456800e-03 1.322506e-03 3.679209e-04 -6.490559e-04 -4.019529e-04 1.292495e-03 1.029232e-03 -2.848126e-04 -2.813817e-03
<VARIANCE> 39
 6.459531e+01 5.828848e+01 4.003671e+01 6.482885e+01 6.101072e+01 4.273796e+01 7.228499e+01 5.580987e+01 9.312591e+01 6.919067e+01 6.248942e+01 3.368736e+01 1.201534e+02 1.643557e+00 2.401798e+00 1.589905e+00 2.102303e+00 1.966272e+00 2.296383e+00 2.716297e+00 2.027683e+00 2.585861e+00 1.946505e+00 2.407865e+00 1.779934e+00 2.708771e+00 1.901064e-01 3.460747e-01 2.386588e-01 3.020183e-01 2.965432e-01 3.656912e-01 4.188726e-01 3.290866e-01 3.865273e-01 3.220653e-01 3.786956e-01 2.886653e-01 3.001821e-01
<GCONST> 1.199592e+02
<TRANSP> 5
 0.000000e+00 1.000000e+00 0.000000e+00 0.000000e+00 0.000000e+00
 0.000000e+00 7.833787e-01 2.166213e-01 0.000000e+00 0.000000e+00
 0.000000e+00 0.000000e+00 7.833796e-01 2.166204e-01 0.000000e+00
 0.000000e+00 0.000000e+00 0.000000e+00 9.167138e-01 8.328624e-02
 0.000000e+00 0.000000e+00 0.000000e+00 0.000000e+00 0.000000e+00
<ENDHMM>
~h "m"
<BEGINHMM>
<NUMSTATES> 5
<STATE> 2
<MEAN> 39
 -1.504719e+01 -1.008151e-01 -2.396417e-01 -1.530846e+00 -1.899857e-01 1.498643e+00 1.170301e+00 -1.940662e+00 1.886100e+00 -1.952486e+00 9.125593e-02 -1.247676e+00 6.008319e+01 1.269803e-02 -4.376273e-05 1.407224e-02 -2.092201e-03 3.965441e-02 1.431518e-02 6.219117e-03 -3.227995e-02 -1.259481e-02 3.389803e-03 1.588489e-02 -5.456540e-03 9.644205e-02 1.349074e-03 -5.887575e-04 5.585211e-04 1.777207e-03 7.906924e-04 -1.457761e-03 -3.340127e-03 2.528031e-04 -1.649446e-03 -7.141826e-04 7.545548e-04 1.105604e-04 -5.526342e-03
<VARIANCE> 39
 7.306267e+01 3.628875e+01 3.874823e+01 3.523701e+01 3.711140e+01 3.207133e+01 4.507969e+01 4.172567e+01 5.052690e+01 3.525764e+01 3.012453e+01 1.699604e+01 2.174113e+02 1.705008e+00 1.562308e+00 1.220020e+00 1.450676e+00 1.377706e+00 1.744465e+00 1.804241e+00 1.624985e+00 1.684312e+00 1.355543e+00 1.400950e+00 1.041656e+00 2.065013e+00 2.105825e-01 2.381084e-01 1.999210e-01 2.437362e-01 2.285508e-01 2.970371e-01 3.027888e-01 2.976743e-01 2.969685e-01 2.482504e-01 2.498701e-01 1.912539e-01 2.413109e-01
<GCONST> 1.077569e+02
<STATE> 3
<MEAN> 39
 -1.494500e+01 -9.963262e-02 -1.593486e-01 -1.514931e+00 -8.476257e-03 1.539507e+00 1.147242e+00 -2.080892e+00 1.809863e+00 -1.956542e+00 1.654269e-01 -1.278143e+00 6.046602e+01 1.835851e-02 -1.977211e-03 1.674345e-02 6.496876e-03 4.297869e-02 8.299290e-03 -9.286232e-03 -3.108563e-02 -1.922768e-02 -9.131468e-04 1.829904e-02 -4.524229e-03 7.711223e-02 1.369293e-03 -5.205305e-04 1.526643e-04 1.633927e-03 2.414611e-04 -1.868529e-03 -3.766458e-03 3.958550e-04 -1.289692e-03 -1.216567e-03 6.064025e-04 5.311279e-04 -3.930424e-03
<VARIANCE> 39
 7.156709e+01 3.655998e+01 3.923144e+01 3.687638e+01 3.721445e+01 3.144656e+01 4.538863e+01 4.242289e+01 5.094268e+01 3.512309e+01 3.067379e+01 1.728185e+01 2.024932e+02 1.642743e+00 1.606119e+00 1.259364e+00 1.467696e+00 1.369513e+00 1.750781e+00 1.811598e+00 1.667501e+00 1.715277e+00 1.365783e+00 1.433073e+00 1.048465e+00 1.989580e+00 2.013969e-01 2.433252e-01 2.056309e-01 2.429355e-01 2.281310e-01 3.017053e-01 3.038661e-01 3.061054e-01 3.027101e-01 2.507759e-01 2.539643e-01 1.917491e-01 2.311703e-01
<GCONST> 1.079075e+02
<STATE> 4
<MEAN> 39
 -1.451620e+01 -7.877493e-02 1.216503e-01 -1.385108e+00 4.610946e-01 1.415187e+00 7.823393e-01 -2.070154e+00 1.890385e+00 -2.221144e+00 6.316348e-01 -1.370849e+00 6.133134e+01 3.915075e-02 -4.003445e-03 2.666196e-02 2.348250e-02 4.693704e-02 -2.079333e-03 -3.855350e-02 -3.078455e-02 -2.603152e-02 -1.537508e-02 1.642246e-02 -4.560245e-03 7.458919e-02 1.626932e-03 -6.026402e-04 2.311543e-04 1.550636e-03 2.295732e-04 -1.347813e-03 -2.987243e-03 2.594237e-04 -3.938135e-04 -1.368143e-03 8.637871e-05 6.121622e-04 -2.363329e-04
<VARIANCE> 39
 7.157084e+01 3.878412e+01 3.934944e+01 4.169256e+01 3.952843e+01 3.301241e+01 4.837924e+01 4.342574e+01 5.470323e+01 3.797202e+01 3.229758e+01 1.842990e+01 1.878242e+02 1.567579e+00 1.725014e+00 1.317497e+00 1.514935e+00 1.407088e+00 1.845862e+00 1.898943e+00 1.739350e+00 1.837209e+00 1.408981e+00 1.522861e+00 1.080192e+00 1.996789e+00 1.899510e-01 2.581109e-01 2.139001e-01 2.431729e-01 2.335666e-01 3.200328e-01 3.170031e-01 3.178015e-01 3.237078e-01 2.582857e-01 2.663682e-01 1.965278e-01 2.266484e-01
<GCONST> 1.092954e+02
<TRANSP> 5
 0.000000e+00 1.000000e+00 0.000000e+00 0.000000e+00 0.000000e+00
 0.000000e+00 7.802143e-01 2.197857e-01 0.000000e+00 0.000000e+00
 0.000000e+00 0.000000e+00 7.802134e-01 2.197865e-01 0.000000e+00
 0.000000e+00 0.000000e+00 0.000000e+00 9.134638e-01 8.653614e-02
 0.000000e+00 0.000000e+00 0.000000e+00 0.000000e+00 0.000000e+00
<ENDHMM>
~h "n"
<BEGINHMM>
<NUMSTATES> 5
<STATE> 2
<MEAN> 39
 -1.250659e+01 -1.009004e+00 1.686296e+00 -3.834761e-01 1.655422e+00 1.602296e+00 -4.930819e-01 -3.362667e+00 7.007042e-01 -4.110681e+00 -1.511721e-01 -7.385460e-01 6.503114e+01 4.268480e-02 1.797049e-03 1.058608e-02 6.827523e-03 1.621111e-03 -1.626024e-02 7.930472e-04 1.369536e-03 2.023968e-03 -5.709334e-03 -9.658110e-03 -2.453226e-03 5.575228e-02 -7.017324e-05 1.628825e-04 -2.537327e-03 -2.028954e-03 -2.463646e-03 -8.323388e-04 1.879517e-03 8.072535e-04 3.629285e-04 1.363817e-03 -5.023225e-04 3.818878e-04 -9.395650e-04
<VARIANCE> 39
 7.641798e+01 5.099212e+01 5.376984e+01 4.884822e+01 4.054280e+01 3.347422e+01 5.687729e+01 4.597780e+01 6.917229e+01 5.222615e+01 4.469991e+01 2.721676e+01 1.918058e+02 1.539898e+00 2.213053e+00 1.614891e+00 1.744867e+00 1.585268e+00 1.896371e+00 2.193629e+00 1.806204e+00 2.328721e+00 1.592729e+00 1.969545e+00 1.447126e+00 1.772849e+00 1.771438e-01 3.427266e-01 2.356542e-01 2.581802e-01 2.588206e-01 3.185743e-01 3.489071e-01 3.079892e-01 3.814083e-01 2.817599e-01 3.308115e-01 2.481363e-01 2.057747e-01
<GCONST> 1.144847e+02
<STATE> 3
<MEAN> 39
 -1.230983e+01 -1.003659e+00 1.706509e+00 -3.754811e-01 1.635993e+00 1.526262e+00 -4.744246e-01 -3.344844e+00 7.182159e-01 -4.126551e+00 -2.019795e-01 -7.393658e-01 6.528049e+01 4.149669e-02 2.023553e-03 -7.065400e-04 -2.681661e-03 -9.310788e-03 -1.951823e-02 9.516822e-03 4.921336e-03 4.145970e-03 -1.816342e-04 -1.185559e-02 -3.741538e-04 5.180070e-02 -4.466512e-04 -4.254699e-04 -2.882470e-03 -2.656393e-03 -2.805620e-03 -6.907381e-04 1.816109e-03 3.815916e-04 4.776653e-04 1.485199e-03 -4.695249e-04 6.432185e-04 -8.704499e-04
<VARIANCE> 39
 7.603179e+01 5.110554e+01 5.279566e+01 4.943530e+01 4.163221e+01 3.399105e+01 5.773812e+01 4.559620e+01 6.940455e+01 5.263767e+01 4.561045e+01 2.774928e+01 1.900773e+02 1.546195e+00 2.194265e+00 1.596396e+00 1.761541e+00 1.594485e+00 1.901966e+00 2.198769e+00 1.825398e+00 2.345334e+00 1.602814e+00 1.998163e+00 1.478404e+00 1.837187e+00 1.772540e-01 3.381937e-01 2.310224e-01 2.600326e-01 2.595065e-01 3.172252e-01 3.481031e-01 3.090418e-01 3.809812e-01 2.839240e-01 3.346926e-01 2.527673e-01 2.115471e-01
<GCONST> 1.147042e+02
<STATE> 4
<MEAN> 39
 -1.204061e+01 -1.014261e+00 1.736620e+00 -4.765751e-01 1.584317e+00 1.539633e+00 -5.611527e-01 -3.126729e+00 1.170493e+00 -4.186371e+00 -8.082758e-02 -7.491482e-01 6.570383e+01 3.308227e-02 -4.566377e-04 -1.980048e-02 -1.963915e-02 -2.743529e-02 -1.994390e-02 2.295772e-02 1.210754e-02 9.540816e-03 6.188323e-03 -1.407163e-02 6.261545e-03 4.011374e-02 -1.038860e-03 -6.186260e-04 -2.288171e-03 -2.249822e-03 -2.251403e-03 -1.548952e-04 1.155418e-03 -2.112851e-04 4.110623e-04 1.185304e-03 -1.553386e-04 6.995723e-04 -1.111142e-03
<VARIANCE> 39
 7.608514e+01 5.207252e+01 4.973997e+01 4.934145e+01 4.389634e+01 3.614463e+01 5.980732e+01 4.642032e+01 7.209524e+01 5.660632e+01 4.726602e+01 2.877513e+01 1.869553e+02 1.569356e+00 2.156008e+00 1.542891e+00 1.761404e+00 1.626184e+00 1.943570e+00 2.209088e+00 1.911534e+00 2.417720e+00 1.633706e+00 2.067755e+00 1.553865e+00 1.990157e+00 1.783052e-01 3.280315e-01 2.232805e-01 2.606250e-01 2.620422e-01 3.191198e-01 3.486785e-01 3.176919e-01 3.869984e-01 2.887974e-01 3.433873e-01 2.633174e-01 2.236077e-01
<GCONST> 1.154077e+02
<TRANSP> 5
 0.000000e+00 1.000000e+00 0.000000e+00 0.000000e+00 0.000000e+00
 0.000000e+00 7.763766e-01 2.236235e-01 0.000000e+00 0.000000e+00
 0.000000e+00 0.000000e+00 7.763773e-01 2.236227e-01 0.000000e+00
 0.000000e+00 0.000000e+00 0.000000e+00 9.082049e-01 9.179518e-02
 0.000000e+00 0.000000e+00 0.000000e+00 0.000000e+00 0.000000e+00
<ENDHMM>
~h "o"
<BEGINHMM>
<NUMSTATES> 5
<STATE> 2
<MEAN> 39
 -1.134064e+01 -5.088338e-01 1.227265e+00 -1.653261e+00 -6.324875e-01 -5.556277e-01 -5.984048e-01 -2.847828e+00 1.922316e+00 -3.818845e+00 -9.874091e-01 -1.334764e+00 6.712549e+01 -5.077585e-02 3.337578e-02 -2.583119e-02 4.257994e-02 4.225407e-02 3.868898e-02 1.653019e-02 2.561126e-02 1.600995e-02 -6.261230e-04 -1.686241e-02 6.312127e-03 -1.344343e-01 -2.784305e-03 -1.834035e-03 1.610992e-03 1.280792e-03 1.769165e-03 2.702032e-03 3.881306e-05 -9.512517e-04 -8.708583e-04 7.939758e-04 1.547512e-03 7.242425e-04 -1.419396e-03
<VARIANCE> 39
 7.939639e+01 4.716836e+01 4.480409e+01 5.583573e+01 5.497573e+01 4.697924e+01 6.134551e+01 4.603207e+01 8.327316e+01 5.337586e+01 4.294625e+01 2.094201e+01 1.422123e+02 2.162598e+00 2.127780e+00 1.500305e+00 2.083294e+00 1.990234e+00 2.343740e+00 2.595324e+00 1.779088e+00 2.522463e+00 1.914855e+00 1.727197e+00 1.246801e+00 2.789550e+00 2.644441e-01 3.378394e-01 2.387292e-01 3.272305e-01 3.121552e-01 3.783697e-01 4.079862e-01 3.004209e-01 3.903749e-01 3.292187e-01 2.954650e-01 2.233900e-01 3.240794e-01
<GCONST> 1.176982e+02
<STATE> 3
<MEAN> 39
 -1.159219e+01 -3.829261e-01 1.133639e+00 -1.452365e+00 -4.250609e-01 -3.647538e-01 -5.140512e-01 -2.746442e+00 1.982572e+00 -3.816594e+00 -1.053740e+00 -1.314309e+00 6.652688e+01 -6.136391e-02 2.565949e-02 -1.896033e-02 4.680032e-02 4.875272e-02 4.833158e-02 1.638730e-02 2.165321e-02 1.174050e-02 2.524131e-03 -1.056369e-02 8.430773e-03 -1.380051e-01 -2.477246e-03 -1.647930e-03 1.100241e-03 2.041101e-04 1.451703e-03 2.124415e-03 1.734973e-04 -7.016120e-04 -1.195088e-03 6.301717e-04 1.439074e-03 2.474603e-04 -6.342747e-04
<VARIANCE> 39
 7.829330e+01 4.474628e+01 4.419399e+01 5.658115e+01 5.382976e+01 4.572530e+01 5.932798e+01 4.483020e+01 8.132209e+01 5.306754e+01 4.231648e+01 2.040463e+01 1.466587e+02 2.054555e+00 2.081011e+00 1.447610e+00 1.988239e+00 1.901012e+00 2.262919e+00 2.534349e+00 1.728722e+00 2.467365e+00 1.875429e+00 1.679190e+00 1.207641e+00 2.640643e+00 2.526189e-01 3.284093e-01 2.296944e-01 3.100330e-01 2.986619e-01 3.676940e-01 4.016815e-01 2.948416e-01 3.846788e-01 3.233267e-01 2.888754e-01 2.165343e-01 3.052716e-01
<GCONST> 1.166163e+02
<STATE> 4
<MEAN> 39
 -1.231275e+01 -2.349030e-01 1.176598e+00 -1.116562e+00 5.588728e-02 1.958933e-01 -5.126702e-01 -2.357421e+00 2.471376e+00 -3.859309e+00 -8.002244e-01 -1.168125e+00 6.538697e+01 -7.349494e-02 1.445317e-02 -1.091404e-02 4.624629e-02 5.505159e-02 5.340648e-02 2.038854e-02 1.630266e-02 3.233407e-03 7.824712e-03 -3.989653e-03 3.499466e-03 -1.339597e-01 -1.736052e-03 -1.426298e-03 1.794049e-04 -1.270941e-03 3.638806e-04 7.714465e-04 3.805677e-04 -2.179934e-04 -1.127305e-03 7.773505e-04 1.469779e-03 -5.504314e-05 5.585803e-04
<VARIANCE> 39
 7.672425e+01 4.233551e+01 4.439520e+01 5.737589e+01 5.147177e+01 4.261528e+01 5.773544e+01 4.321114e+01 8.242810e+01 5.462686e+01 4.132430e+01 1.954394e+01 1.517243e+02 1.915539e+00 2.034970e+00 1.405393e+00 1.869753e+00 1.768597e+00 2.097758e+00 2.467881e+00 1.673469e+00 2.463450e+00 1.779096e+00 1.592696e+00 1.143740e+00 2.370141e+00 2.354933e-01 3.190635e-01 2.217298e-01 2.879056e-01 2.767836e-01 3.451920e-01 3.945119e-01 2.893292e-01 3.858493e-01 3.065183e-01 2.750232e-01 2.059696e-01 2.718623e-01
<GCONST> 1.150794e+02
<TRANSP> 5
 0.000000e+00 1.000000e+00 0.000000e+00 0.000000e+00 0.000000e+00
 0.000000e+00 7.721290e-01 2.278710e-01 0.000000e+00 0.000000e+00
 0.000000e+00 0.000000e+00 7.721282e-01 2.278718e-01 0.000000e+00
 0.000000e+00 0.000000e+00 0.000000e+00 9.036171e-01 9.638298e-02
 0.000000e+00 0.000000e+00 0.000000e+00 0.000000e+00 0.000000e+00
<ENDHMM>
~h "p"
<BEGINHMM>
<NUMSTATES> 5
<STATE> 2
<MEAN> 39
 -1.646320e+01 -1.831182e-01 -1.119043e+00 -1.227860e+00 -8.352411e-01 1.344695e+00 9.518043e-01 -1.216507e+00 1.550948e+00 -1.396420e+00 2.808936e-01 -1.148798e+00 5.651434e+01 2.446163e-03 -1.916116e-02 3.028451e-02 -3.726541e-02 1.482708e-02 -1.421577e-02 1.382794e-02 -4.248895e-02 3.288314e-05 -2.322910e-02 7.977664e-03 -1.135542e-02 2.351735e-01 3.508164e-03 -1.201609e-03 9.917730e-04 5.224980e-04 6.457965e-04 -9.989331e-04 -1.490906e-03 -4.485344e-04 -8.577809e-04 -4.349664e-04 -1.398074e-04 1.995402e-04 -5.485847e-03
<VARIANCE> 39
 7.807951e+01 3.365279e+01 3.603776e+01 2.592204e+01 3.189826e+01 2.568221e+01 4.081816e+01 3.970824e+01 5.165681e+01 3.315106e+01 2.676560e+01 1.481668e+01 2.782004e+02 1.580240e+00 1.293899e+00 1.090974e+00 1.121896e+00 1.239564e+00 1.283062e+00 1.596858e+00 1.349615e+00 1.731157e+00 1.325164e+00 1.253078e+00 1.003324e+00 2.368557e+00 1.997919e-01 2.079609e-01 1.735109e-01 1.753884e-01 2.053159e-01 2.356497e-01 2.684896e-01 2.377007e-01 2.833440e-01 2.386121e-01 2.175502e-01 1.875734e-01 2.795557e-01
<GCONST> 1.039964e+02
<STATE> 3
<MEAN> 39
 -1.642002e+01 -2.757570e-01 -9.863235e-01 -1.382920e+00 -7.760867e-01 1.274112e+00 9.856812e-01 -1.397125e+00 1.544849e+00 -1.502723e+00 3.164999e-01 -1.186570e+00 5.745652e+01 1.796231e-02 -2.362010e-02 3.288949e-02 -3.417549e-02 1.690560e-02 -1.877041e-02 7.291773e-03 -4.320486e-02 -4.012549e-03 -2.451225e-02 6.878853e-03 -9.944601e-03 2.078189e-01 3.103442e-03 -9.245154e-04 4.413831e-04 1.022894e-03 4.061660e-04 -1.043831e-03 -1.526601e-03 -1.566876e-04 -9.170139e-04 -2.667707e-04 -3.650269e-04 2.508997e-04 -6.071405e-03
<VARIANCE> 39
 7.542435e+01 3.521832e+01 3.705209e+01 2.671076e+01 3.175577e+01 2.629725e+01 4.113438e+01 4.007129e+01 5.347324e+01 3.415376e+01 2.714157e+01 1.503843e+01 2.440909e+02 1.550493e+00 1.360110e+00 1.138885e+00 1.166830e+00 1.267423e+00 1.336279e+00 1.633051e+00 1.379971e+00 1.788995e+00 1.366827e+00 1.274558e+00 1.015787e+00 2.261876e+00 1.936749e-01 2.202769e-01 1.815191e-01 1.817878e-01 2.104430e-01 2.461802e-01 2.742559e-01 2.437405e-01 2.919022e-01 2.457699e-01 2.214529e-01 1.900413e-01 2.631170e-01
<GCONST> 1.045828e+02
<STATE> 4
<MEAN> 39
 -1.625479e+01 -3.516529e-01 -6.981927e-01 -1.569680e+00 -5.020067e-01 1.165980e+00 1.048031e+00 -1.487146e+00 1.887792e+00 -1.800464e+00 5.607066e-01 -1.219813e+00 5.871113e+01 3.567506e-02 -2.393458e-02 2.576309e-02 -2.449058e-02 1.140184e-02 -2.249246e-02 -4.249189e-03 -3.510410e-02 -9.182763e-03 -2.204618e-02 4.410932e-03 -3.169601e-03 1.479287e-01 1.955846e-03 -2.224755e-04 -4.360295e-04 1.309342e-03 3.266986e-05 -6.047835e-04 -9.316109e-04 2.664864e-04 -7.882144e-04 1.535763e-04 -4.680367e-04 2.866633e-04 -4.899224e-03
<VARIANCE> 39
 7.180912e+01 3.652156e+01 3.628045e+01 2.778973e+01 3.174299e+01 2.682403e+01 4.226530e+01 3.967661e+01 5.775175e+01 3.671502e+01 2.742392e+01 1.538411e+01 1.992305e+02 1.538249e+00 1.484242e+00 1.186521e+00 1.227316e+00 1.314451e+00 1.424829e+00 1.670983e+00 1.434807e+00 1.950911e+00 1.406774e+00 1.295803e+00 1.038449e+00 2.109273e+00 1.874075e-01 2.457810e-01 1.933065e-01 1.913055e-01 2.191251e-01 2.629580e-01 2.820976e-01 2.535113e-01 3.147019e-01 2.536568e-01 2.254766e-01 1.946770e-01 2.409390e-01
<GCONST> 1.054475e+02
<TRANSP> 5
 0.000000e+00 1.000000e+00 0.000000e+00 0.000000e+00 0.000000e+00
 0.000000e+00 7.770275e-01 2.229725e-01 0.000000e+00 0.000000e+00
 0.000000e+00 0.000000e+00 7.770285e-01 2.229715e-01 0.000000e+00
 0.000000e+00 0.000000e+00 0.000000e+00 9.099128e-01 9.008716e-02
 0.000000e+00 0.000000e+00 0.000000e+00 0.000000e+00 0.000000e+00
<ENDHMM>
~h "r"
<BEGINHMM>
<NUMSTATES> 5
<STATE> 2
<MEAN> 39
 -1.134653e+01 -8.863345e-01 4.540151e-01 -2.152220e+00 -2.656147e-01 4.010798e-01 2.803637e-01 -3.104051e+00 1.209943e+00 -3.465906e+00 -3.882491e-01 -5.156825e-01 6.684197e+01 -2.937676e-02 1.757943e-02 -2.036151e-02 -8.323504e-03 1.622784e-03 8.552644e-03 2.244487e-02 1.558141e-02 7.663626e-03 7.656538e-03 -8.604461e-04 -1.292846e-02 -5.713662e-02 -2.926504e-03 -2.373586e-03 2.755980e-03 2.173346e-03 9.850186e-04 1.006470e-03 -1.099556e-03 -5.136998e-04 6.352268e-05 -5.311107e-05 3.731594e-04 -5.778971e-04 -1.341534e-03
<VARIANCE> 39
 7.712212e+01 4.718467e+01 4.189529e+01 4.783635e+01 4.825731e+01 3.755419e+01 5.993353e+01 4.950010e+01 7.687109e+01 5.146399e+01 4.584537e+01 2.506383e+01 1.624688e+02 2.133151e+00 2.084022e+00 1.513153e+00 1.811559e+00 1.802451e+00 2.021256e+00 2.283466e+00 1.883195e+00 2.439828e+00 1.827378e+00 2.021837e+00 1.421735e+00 2.945824e+00 2.633682e-01 3.205324e-01 2.399581e-01 2.823619e-01 2.977034e-01 3.426376e-01 3.582049e-01 3.131792e-01 3.822193e-01 3.191172e-01 3.380781e-01 2.508829e-01 3.399688e-01
<GCONST> 1.169960e+02
<STATE> 3
<MEAN> 39
 -1.151242e+01 -8.275369e-01 3.827815e-01 -2.171133e+00 -2.480601e-01 4.483984e-01 3.800641e-01 -3.041267e+00 1.241369e+00 -3.430331e+00 -3.865316e-01 -5.722562e-01 6.656299e+01 -4.090926e-02 7.506424e-03 -8.916964e-03 9.646253e-04 5.827785e-03 1.231350e-02 1.738491e-02 1.334268e-02 7.725619e-03 7.049772e-03 6.488666e-04 -1.496537e-02 -6.202530e-02 -2.636403e-03 -2.358014e-03 2.644657e-03 2.140086e-03 6.767856e-04 6.274616e-04 -1.412541e-03 -4.966516e-04 2.916424e-04 -1.119541e-04 4.134132e-04 -4.469033e-05 -1.102760e-03
<VARIANCE> 39
 7.737762e+01 4.672492e+01 4.149725e+01 4.825939e+01 4.736724e+01 3.785349e+01 5.766289e+01 4.879525e+01 7.546961e+01 5.079653e+01 4.549458e+01 2.455961e+01 1.638248e+02 2.114276e+00 2.065382e+00 1.499741e+00 1.826989e+00 1.777904e+00 2.018638e+00 2.249520e+00 1.873091e+00 2.410992e+00 1.820247e+00 1.988808e+00 1.404962e+00 2.896009e+00 2.618940e-01 3.180436e-01 2.379102e-01 2.858525e-01 2.944177e-01 3.417313e-01 3.548279e-01 3.123429e-01 3.794806e-01 3.196543e-01 3.331707e-01 2.480554e-01 3.346431e-01
<GCONST> 1.166762e+02
<STATE> 4
<MEAN> 39
 -1.210330e+01 -7.800768e-01 3.938787e-01 -2.171472e+00 -1.931887e-01 6.575102e-01 3.912576e-01 -2.602700e+00 1.720458e+00 -3.494893e+00 -7.882959e-02 -5.988923e-01 6.578383e+01 -5.361360e-02 -4.505421e-03 3.602891e-03 1.391089e-02 1.141970e-02 1.421534e-02 1.083219e-02 9.031902e-03 5.987596e-03 5.513608e-03 2.810728e-03 -1.409369e-02 -6.745366e-02 -1.196678e-03 -1.712038e-03 1.829370e-03 1.733425e-03 3.160487e-04 3.682246e-06 -1.599809e-03 -4.329731e-04 2.813380e-04 -3.662480e-04 2.830276e-04 3.168208e-04 1.259637e-05
<VARIANCE> 39
 7.775481e+01 4.669767e+01 4.065272e+01 4.874373e+01 4.579374e+01 3.758805e+01 5.434520e+01 4.718419e+01 7.533485e+01 5.107747e+01 4.399128e+01 2.372375e+01 1.683647e+02 2.064741e+00 2.015296e+00 1.465873e+00 1.817098e+00 1.725760e+00 1.986241e+00 2.176227e+00 1.844754e+00 2.407717e+00 1.768285e+00 1.895303e+00 1.361342e+00 2.763067e+00 2.555019e-01 3.102430e-01 2.344512e-01 2.865645e-01 2.848373e-01 3.364273e-01 3.470199e-01 3.099227e-01 3.802236e-01 3.132809e-01 3.177731e-01 2.407815e-01 3.182939e-01
<GCONST> 1.158855e+02
<TRANSP> 5
 0.000000e+00 1.000000e+00 0.000000e+00 0.000000e+00 0.000000e+00
 0.000000e+00 7.750299e-01 2.249701e-01 0.000000e+00 0.000000e+00
 0.000000e+00 0.000000e+00 7.750288e-01 2.249712e-01 0.000000e+00
 0.000000e+00 0.000000e+00 0.000000e+00 9.068742e-01 9.312586e-02
 0.000000e+00 0.000000e+00 0.000000e+00 0.000000e+00 0.000000e+00
<ENDHMM>
~h "s"
<BEGINHMM>
<NUMSTATES> 5
<STATE> 2
<MEAN> 39
 -1.279113e+01 -2.841047e+00 2.206591e+00 -9.587833e-01 -2.198348e-01 1.502000e+00 -8.339740e-01 -2.985630e+00 -5.449882e-01 -3.850755e+00 7.739456e-01 3.656149e-03 6.062231e+01 -1.052477e-01 -1.313844e-03 1.988860e-02 2.377031e-03 1.216811e-02 2.623057e-02 1.201453e-02 -7.537894e-03 -4.120786e-04 -4.218382e-03 1.471243e-02 -1.624053e-02 2.508783e-01 5.548173e-03 3.211218e-04 -1.289031e-04 -1.893663e-04 -2.096593e-05 -9.597352e-04 -3.633841e-04 -1.914527e-03 -3.587005e-04 1.903019e-06 -8.491854e-04 -4.390207e-04 -1.059766e-02
<VARIANCE> 39
 1.211390e+02 7.331671e+01 7.120339e+01 4.314701e+01 4.338081e+01 3.415409e+01 5.345728e+01 5.513950e+01 6.578325e+01 5.731689e+01 3.763881e+01 2.418010e+01 6.148193e+02 3.071290e+00 2.505617e+00 1.750632e+00 2.150773e+00 1.810404e+00 1.670911e+00 2.327189e+00 1.797423e+00 2.347732e+00 1.815812e+00 1.766306e+00 1.227686e+00 3.531990e+00 3.829540e-01 3.610164e-01 2.594946e-01 3.316522e-01 2.810111e-01 2.922756e-01 3.793311e-01 3.066933e-01 3.954292e-01 3.058996e-01 2.961821e-01 2.142844e-01 3.592979e-01
<GCONST> 1.199737e+02
<STATE> 3
<MEAN> 39
 -1.321466e+01 -2.853198e+00 2.306478e+00 -9.479823e-01 -1.564206e-01 1.618823e+00 -7.921575e-01 -3.051641e+00 -5.510617e-01 -3.879221e+00 8.327271e-01 -6.835246e-02 6.158686e+01 -8.791661e-02 1.867578e-03 1.745223e-02 1.736905e-03 1.192184e-02 2.353670e-02 1.117697e-02 -1.356348e-02 3.083767e-04 -4.112316e-03 1.172217e-02 -1.593683e-02 2.007953e-01 3.511043e-03 9.205570e-04 -6.604986e-04 -2.537651e-04 -1.764773e-04 -5.627883e-04 8.531590e-05 -1.132741e-03 5.558401e-04 3.264539e-04 -6.932595e-04 2.286296e-04 -1.062690e-02
<VARIANCE> 39
 1.186903e+02 7.409205e+01 7.230618e+01 4.312048e+01 4.359423e+01 3.437688e+01 5.341053e+01 5.511732e+01 6.663271e+01 5.720371e+01 3.766805e+01 2.444437e+01 5.520264e+02 3.062809e+00 2.532841e+00 1.788479e+00 2.197402e+00 1.841852e+00 1.704805e+00 2.355377e+00 1.800550e+00 2.375804e+00 1.846847e+00 1.784020e+00 1.226547e+00 3.164593e+00 3.781434e-01 3.670926e-01 2.660498e-01 3.424278e-01 2.870358e-01 2.972452e-01 3.849782e-01 3.088293e-01 4.018194e-01 3.124253e-01 2.996433e-01 2.143039e-01 3.493705e-01
<GCONST> 1.200750e+02
<STATE> 4
<MEAN> 39
 -1.383189e+01 -2.881862e+00 2.683945e+00 -1.057196e+00 2.100422e-01 1.918417e+00 -8.203043e-01 -3.134393e+00 -2.705395e-02 -4.078138e+00 1.059113e+00 -1.765905e-01 6.359923e+01 -6.946167e-02 6.806640e-03 1.264363e-02 -5.031107e-04 1.370117e-02 2.167859e-02 1.247197e-02 -1.693652e-02 1.091822e-02 -6.687245e-05 6.721414e-03 -1.281774e-02 1.500239e-01 2.275798e-03 1.331747e-03 -1.231339e-03 -4.952163e-04 -2.071203e-04 -4.288083e-04 8.489364e-04 1.203080e-04 1.668983e-03 1.060294e-03 -7.488974e-04 2.975576e-04 -5.515998e-03
<VARIANCE> 39
 1.071467e+02 7.554444e+01 7.029193e+01 4.367567e+01 4.321583e+01 3.516430e+01 5.389703e+01 5.403686e+01 7.089805e+01 5.887492e+01 3.789632e+01 2.514006e+01 4.108910e+02 3.162762e+00 2.587810e+00 1.863141e+00 2.313315e+00 1.917865e+00 1.769019e+00 2.477351e+00 1.878660e+00 2.541967e+00 1.936678e+00 1.825704e+00 1.238539e+00 2.835988e+00 3.834757e-01 3.800593e-01 2.793407e-01 3.660931e-01 3.025513e-01 3.065940e-01 4.059133e-01 3.244779e-01 4.299532e-01 3.266858e-01 3.095785e-01 2.168388e-01 3.342472e-01
<GCONST> 1.206268e+02
<TRANSP> 5
 0.000000e+00 1.000000e+00 0.000000e+00 0.000000e+00 0.000000e+00
 0.000000e+00 7.768089e-01 2.231911e-01 0.000000e+00 0.000000e+00
 0.000000e+00 0.000000e+00 7.768090e-01 2.231910e-01 0.000000e+00
 0.000000e+00 0.000000e+00 0.000000e+00 9.085516e-01 9.144845e-02
 0.000000e+00 0.000000e+00 0.000000e+00 0.000000e+00 0.000000e+00
<ENDHMM>
~h "t"
<BEGINHMM>
<NUMSTATES> 5
<STATE> 2
<MEAN> 39
 -1.154628e+01 -4.447267e+00 1.868114e+00 -3.570275e+00 -1.744806e+00 3.643137e-01 -8.394051e-02 -4.871728e+00 1.122105e+00 -3.438776e+00 8.791929e-01 2.361676e-01 7.107599e+01 -2.130415e-02 1.434646e-02 -4.708787e-02 -6.039780e-03 8.562375e-04 -1.545714e-03 1.588154e-02 3.586315e-02 5.709808e-04 -2.293902e-02 1.163187e-02 4.263012e-02 -5.503332e-02 -1.150488e-03 3.173213e-03 -2.335097e-03 1.701517e-03 1.690496e-03 1.318660e-05 4.928068e-04 1.522421e-03 -1.107331e-03 4.366010e-04 -1.329252e-04 -1.183767e-03 -5.807362e-03
<VARIANCE> 39
 9.185058e+01 7.481637e+01 5.792035e+01 5.428941e+01 4.096684e+01 3.945013e+01 5.968868e+01 6.889595e+01 9.367821e+01 5.959721e+01 4.578331e+01 2.683009e+01 1.371226e+02 3.032666e+00 2.826145e+00 2.268280e+00 2.487836e+00 2.170330e+00 2.126724e+00 2.525347e+00 2.541662e+00 2.723503e+00 2.065974e+00 1.947737e+00 1.294822e+00 3.735742e+00 3.598249e-01 4.536128e-01 3.723403e-01 4.037319e-01 3.776968e-01 3.808450e-01 4.135288e-01 4.395774e-01 4.322259e-01 3.499990e-01 3.225782e-01 2.346759e-01 4.644591e-01
<GCONST> 1.235870e+02
<STATE> 3
<MEAN> 39
 -1.164869e+01 -4.359193e+00 1.640858e+00 -3.569031e+00 -1.722184e+00 3.619460e-01 -1.806849e-02 -4.710670e+00 1.119498e+00 -3.532897e+00 9.202528e-01 4.246054e-01 7.078548e+01 -2.783796e-02 2.775205e-02 -5.592479e-02 2.156398e-03 8.308572e-03 -5.018569e-04 1.872242e-02 4.119946e-02 -4.451192e-03 -1.944778e-02 1.089431e-02 3.605283e-02 -8.153868e-02 -1.380426e-03 2.866503e-03 -1.521572e-03 1.766359e-03 1.396724e-03 4.013930e-04 4.559052e-04 1.090821e-03 -9.337854e-04 7.749868e-04 -3.297469e-04 -1.696697e-03 -5.466431e-03
<VARIANCE> 39
 9.072636e+01 7.486170e+01 5.535677e+01 5.193131e+01 3.907176e+01 3.830944e+01 5.838533e+01 6.843974e+01 9.198474e+01 5.899645e+01 4.396469e+01 2.669608e+01 1.398710e+02 2.891128e+00 2.792150e+00 2.210472e+00 2.366113e+00 2.102674e+00 2.081147e+00 2.466103e+00 2.478209e+00 2.653242e+00 2.029023e+00 1.889345e+00 1.267534e+00 3.537701e+00 3.413185e-01 4.510310e-01 3.626740e-01 3.851960e-01 3.674788e-01 3.745485e-01 4.070385e-01 4.276878e-01 4.227233e-01 3.435301e-01 3.158342e-01 2.287491e-01 4.402656e-01
<GCONST> 1.225773e+02
<STATE> 4
<MEAN> 39
 -1.204304e+01 -4.140399e+00 1.266739e+00 -3.493913e+00 -1.608764e+00 4.842191e-01 -2.033265e-01 -3.878163e+00 1.455435e+00 -3.979765e+00 1.248337e+00 7.695581e-01 6.991280e+01 -3.982704e-02 4.203956e-02 -5.780657e-02 1.716098e-02 1.820171e-02 5.721355e-03 2.009242e-02 4.012515e-02 -8.683157e-03 -7.857133e-03 6.020068e-03 2.288069e-02 -1.142467e-01 -1.814168e-03 2.043330e-03 -1.978391e-04 1.455833e-03 9.557690e-04 7.662183e-04 4.401619e-04 5.125360e-04 -5.895646e-04 1.157243e-03 -3.394842e-04 -2.195240e-03 -4.625652e-03
<VARIANCE> 39
 8.971960e+01 7.627570e+01 5.064852e+01 4.804391e+01 3.705075e+01 3.691732e+01 5.676849e+01 6.448019e+01 8.935573e+01 6.041040e+01 3.938696e+01 2.701400e+01 1.509825e+02 2.637421e+00 2.673308e+00 2.054459e+00 2.122856e+00 1.981990e+00 1.977684e+00 2.364182e+00 2.312071e+00 2.549641e+00 1.935271e+00 1.758297e+00 1.206991e+00 3.117640e+00 3.108758e-01 4.232621e-01 3.366838e-01 3.493664e-01 3.451096e-01 3.584841e-01 3.952705e-01 3.992376e-01 4.148507e-01 3.267798e-01 3.005535e-01 2.177621e-01 3.735142e-01
<GCONST> 1.204745e+02
<TRANSP> 5
 0.000000e+00 1.000000e+00 0.000000e+00 0.000000e+00 0.000000e+00
 0.000000e+00 7.783540e-01 2.216459e-01 0.000000e+00 0.000000e+00
 0.000000e+00 0.000000e+00 7.783544e-01 2.216456e-01 0.000000e+00
 0.000000e+00 0.000000e+00 0.000000e+00 9.114831e-01 8.851693e-02
 0.000000e+00 0.000000e+00 0.000000e+00 0.000000e+00 0.000000e+00
<ENDHMM>
~h "u"
<BEGINHMM>
<NUMSTATES> 5
<STATE> 2
<MEAN> 39
 -1.078808e+01 -1.454986e+00 1.860652e+00 -9.400286e-01 1.168264e+00 1.452397e+00 -5.892819e-01 -3.660699e+00 -1.030482e-01 -4.523402e+00 -6.675377e-03 -3.220548e-01 6.767685e+01 9.028690e-02 -9.616467e-03 -6.471045e-03 -4.125423e-02 -3.897516e-02 -1.375882e-02 1.451752e-02 -8.174073e-03 9.098956e-03 -3.830883e-02 -3.756306e-02 4.401988e-02 1.471747e-01 -3.326204e-03 9.462932e-04 -1.566885e-03 -1.231807e-03 -2.009395e-03 -2.087736e-04 1.224783e-03 1.242920e-03 1.564600e-03 8.797817e-04 -5.524764e-04 1.969318e-04 -5.682008e-03
<VARIANCE> 39
 7.365768e+01 6.356946e+01 4.413990e+01 5.313689e+01 4.744129e+01 3.837634e+01 5.671339e+01 5.127733e+01 7.110068e+01 6.435036e+01 5.363260e+01 2.834100e+01 1.753116e+02 2.169652e+00 2.911768e+00 1.571078e+00 2.108252e+00 2.050300e+00 2.118721e+00 2.635839e+00 2.289249e+00 2.823251e+00 2.356436e+00 2.372924e+00 1.612840e+00 3.510831e+00 2.545908e-01 4.236262e-01 2.557297e-01 3.248449e-01 3.337501e-01 3.634575e-01 4.391184e-01 3.840717e-01 4.492338e-01 3.995375e-01 3.757904e-01 2.620307e-01 4.078995e-01
<GCONST> 1.215560e+02
<STATE> 3
<MEAN> 39
 -1.043139e+01 -1.480640e+00 1.818706e+00 -1.120162e+00 9.915071e-01 1.398472e+00 -5.214974e-01 -3.675371e+00 -4.699945e-02 -4.685946e+00 -1.732850e-01 -1.337425e-01 6.825258e+01 7.473917e-02 -4.664285e-03 -1.251786e-02 -4.511079e-02 -4.630769e-02 -1.417559e-02 1.918486e-02 -2.391606e-03 1.630959e-02 -3.417909e-02 -3.961070e-02 4.356232e-02 1.200552e-01 -4.041621e-03 1.164985e-03 -1.015668e-03 -5.382528e-04 -1.221402e-03 2.134676e-04 7.528124e-04 1.479964e-03 1.608718e-03 8.107836e-04 -5.387777e-04 -4.502629e-04 -6.937491e-03
<VARIANCE> 39
 7.246815e+01 6.216582e+01 4.245920e+01 5.409113e+01 4.740236e+01 3.883055e+01 5.697914e+01 5.201924e+01 7.138065e+01 6.597540e+01 5.426863e+01 2.911322e+01 1.698252e+02 2.133795e+00 2.853429e+00 1.563832e+00 2.111238e+00 2.038462e+00 2.137033e+00 2.651465e+00 2.287483e+00 2.806208e+00 2.377193e+00 2.372029e+00 1.622366e+00 3.577189e+00 2.502757e-01 4.167060e-01 2.555183e-01 3.252946e-01 3.318866e-01 3.631449e-01 4.384894e-01 3.818662e-01 4.456656e-01 4.019583e-01 3.740381e-01 2.622430e-01 4.127534e-01
<GCONST> 1.215163e+02
<STATE> 4
<MEAN> 39
 -1.014265e+01 -1.501529e+00 1.907058e+00 -1.357188e+00 8.015665e-01 1.481312e+00 -7.330155e-01 -3.399491e+00 5.131744e-01 -5.124134e+00 -3.155150e-01 9.515458e-02 6.881931e+01 4.283663e-02 7.389650e-03 -1.713788e-02 -3.974069e-02 -4.575466e-02 -9.176586e-03 2.047454e-02 1.014249e-02 2.837977e-02 -2.701300e-02 -3.939522e-02 3.413018e-02 6.291746e-02 -4.178612e-03 1.273038e-03 -1.882653e-04 5.495163e-04 -1.103090e-05 5.204562e-04 1.167795e-04 1.476182e-03 1.361714e-03 6.981618e-04 -3.502571e-04 -1.269861e-03 -7.394425e-03
<VARIANCE> 39
 7.170866e+01 6.241485e+01 4.116928e+01 5.426346e+01 4.803669e+01 4.067704e+01 5.916431e+01 5.254507e+01 7.398370e+01 6.979627e+01 5.531075e+01 2.975912e+01 1.622880e+02 2.117524e+00 2.774654e+00 1.550817e+00 2.082353e+00 2.051560e+00 2.155608e+00 2.745466e+00 2.295408e+00 2.815647e+00 2.399956e+00 2.365474e+00 1.623136e+00 3.545254e+00 2.469618e-01 4.069664e-01 2.523819e-01 3.216072e-01 3.311121e-01 3.630684e-01 4.489228e-01 3.817328e-01 4.458018e-01 3.980977e-01 3.705198e-01 2.619457e-01 4.017171e-01
<GCONST> 1.215872e+02
<TRANSP> 5
 0.000000e+00 1.000000e+00 0.000000e+00 0.000000e+00 0.000000e+00
 0.000000e+00 7.729265e-01 2.270735e-01 0.000000e+00 0.000000e+00
 0.000000e+00 0.000000e+00 7.729264e-01 2.270736e-01 0.000000e+00
 0.000000e+00 0.000000e+00 0.000000e+00 9.034741e-01 9.652589e-02
 0.000000e+00 0.000000e+00 0.000000e+00 0.000000e+00 0.000000e+00
<ENDHMM>
~h "w"
<BEGINHMM>
<NUMSTATES> 5
<STATE> 2
<MEAN> 39
 -8.500795e+00 -2.160055e+00 2.742418e+00 -1.434695e+00 1.543324e-01 5.951797e-01 -7.871212e-01 -3.491392e+00 5.474019e-02 -6.460165e+00 -1.123449e+00 4.526866e-01 7.187835e+01 9.915002e-03 -8.803722e-03 2.674903e-02 -7.493834e-03 -6.518197e-03 7.871754e-03 -1.471151e-02 -1.182969e-02 -6.919245e-03 -5.696082e-02 -9.152960e-03 2.107154e-02 4.439399e-02 -1.178033e-03 1.550264e-03 3.655297e-04 5.669653e-04 6.559410e-04 -1.622425e-04 -1.218470e-03 5.192456e-04 -1.790336e-04 2.916519e-04 1.068056e-03 -1.278046e-03 -3.569758e-03
<VARIANCE> 39
 6.663725e+01 6.965768e+01 4.570694e+01 6.001869e+01 4.644441e+01 4.448713e+01 6.255329e+01 5.621332e+01 7.820966e+01 6.843437e+01 6.005583e+01 3.440796e+01 1.315062e+02 1.814489e+00 2.726317e+00 1.766774e+00 2.211363e+00 1.962730e+00 2.226784e+00 2.550377e+00 2.180634e+00 2.528511e+00 2.168470e+00 2.296536e+00 1.663094e+00 2.545302e+00 2.294631e-01 4.030089e-01 2.654193e-01 3.306181e-01 3.047092e-01 3.588771e-01 3.979348e-01 3.464739e-01 4.026600e-01 3.582384e-01 3.700913e-01 2.533838e-01 2.868797e-01
<GCONST> 1.205013e+02
<STATE> 3
<MEAN> 39
 -8.475721e+00 -2.171374e+00 2.864295e+00 -1.456110e+00 1.313168e-01 6.241678e-01 -8.704556e-01 -3.541053e+00 2.585638e-02 -6.693096e+00 -1.157583e+00 5.209436e-01 7.201578e+01 6.280798e-03 -2.777525e-03 2.981095e-02 -4.401860e-03 -3.267074e-03 6.881583e-03 -2.078252e-02 -1.009634e-02 -6.884395e-03 -5.542072e-02 -5.240138e-03 1.481001e-02 3.162996e-02 -5.803530e-04 1.511196e-03 4.924214e-04 6.367826e-04 6.448082e-04 -4.200887e-04 -1.361936e-03 6.301543e-04 3.112345e-05 4.060659e-04 8.206365e-04 -1.450301e-03 -2.772732e-03
<VARIANCE> 39
 6.677614e+01 7.003395e+01 4.675189e+01 5.936816e+01 4.607736e+01 4.404403e+01 6.346822e+01 5.578477e+01 7.901538e+01 6.812028e+01 6.023506e+01 3.477158e+01 1.281406e+02 1.823386e+00 2.749739e+00 1.784585e+00 2.227609e+00 1.964175e+00 2.221931e+00 2.582346e+00 2.163182e+00 2.540381e+00 2.173677e+00 2.282492e+00 1.662930e+00 2.439530e+00 2.311650e-01 4.053771e-01 2.675503e-01 3.330627e-01 3.033748e-01 3.592372e-01 4.015828e-01 3.463957e-01 4.054956e-01 3.572578e-01 3.683798e-01 2.524079e-01 2.741278e-01
<GCONST> 1.204792e+02
<STATE> 4
<MEAN> 39
 -8.747627e+00 -2.089721e+00 2.966363e+00 -1.562390e+00 5.172126e-02 7.365707e-01 -1.351677e+00 -3.254255e+00 3.663900e-01 -6.988140e+00 -8.887420e-01 5.478509e-01 7.167712e+01 2.727516e-03 7.031132e-03 3.808465e-02 3.624658e-03 3.264813e-03 3.611173e-03 -3.355139e-02 -9.940183e-03 -2.052326e-03 -4.560795e-02 -4.349626e-03 -1.289790e-04 1.368108e-02 2.278178e-04 8.719975e-04 6.698849e-04 6.572606e-04 6.537510e-04 -5.729772e-04 -1.298158e-03 4.366071e-04 4.409211e-04 6.693395e-04 2.597446e-04 -1.333016e-03 -1.044724e-03
<VARIANCE> 39
 6.938396e+01 7.116175e+01 4.838272e+01 5.740638e+01 4.611052e+01 4.365964e+01 6.650822e+01 5.342939e+01 8.282205e+01 6.849612e+01 5.958154e+01 3.426139e+01 1.311729e+02 1.876916e+00 2.777243e+00 1.807227e+00 2.185825e+00 1.963799e+00 2.179178e+00 2.642055e+00 2.142866e+00 2.595697e+00 2.173486e+00 2.201353e+00 1.607492e+00 2.302907e+00 2.383697e-01 4.086083e-01 2.690509e-01 3.303463e-01 3.030978e-01 3.570411e-01 4.079328e-01 3.490199e-01 4.162731e-01 3.531938e-01 3.589300e-01 2.457071e-01 2.520815e-01
<GCONST> 1.204305e+02
<TRANSP> 5
 0.000000e+00 1.000000e+00 0.000000e+00 0.000000e+00 0.000000e+00
 0.000000e+00 7.718078e-01 2.281922e-01 0.000000e+00 0.000000e+00
 0.000000e+00 0.000000e+00 7.718076e-01 2.281924e-01 0.000000e+00
 0.000000e+00 0.000000e+00 0.000000e+00 9.024282e-01 9.757182e-02
 0.000000e+00 0.000000e+00 0.000000e+00 0.000000e+00 0.000000e+00
<ENDHMM>
~h "y"
<BEGINHMM>
<NUMSTATES> 5
<STATE> 2
<MEAN> 39
 -1.710284e+01 7.443194e-01 -6.734388e-01 3.235670e-01 4.466090e-01 2.699004e+00 6.657811e-01 -8.560095e-01 2.119792e+00 -1.773484e+00 -5.152824e-01 -7.823714e-01 5.569507e+01 3.006479e-02 -3.420043e-02 9.304099e-02 2.704897e-02 7.864387e-02 9.448620e-03 7.698260e-03 -5.113802e-02 9.738378e-03 -4.653043e-02 5.873410e-03 -7.365502e-03 2.226318e-01 1.841454e-03 -3.216498e-03 1.321518e-03 -1.026698e-03 -1.008935e-03 -2.297575e-03 -9.439646e-04 -9.785127e-04 -2.265780e-03 3.530626e-04 1.846981e-03 -7.767953e-04 -6.294794e-03
<VARIANCE> 39
 6.247747e+01 3.020990e+01 4.364484e+01 3.125334e+01 2.883751e+01 2.197401e+01 3.452432e+01 3.822462e+01 3.877761e+01 3.619295e+01 2.751571e+01 1.236249e+01 2.303327e+02 1.055720e+00 1.456374e+00 1.030754e+00 1.085445e+00 1.289995e+00 1.177229e+00 1.686914e+00 1.349574e+00 1.460558e+00 1.388038e+00 1.273031e+00 9.229687e-01 1.822704e+00 1.423392e-01 2.338387e-01 1.670100e-01 1.648303e-01 2.297753e-01 2.049832e-01 3.027479e-01 2.469133e-01 2.652093e-01 2.524291e-01 2.312668e-01 1.750943e-01 2.319331e-01
<GCONST> 1.018259e+02
<STATE> 3
<MEAN> 39
 -1.698801e+01 5.662239e-01 -2.782911e-01 4.485209e-01 7.583103e-01 2.720476e+00 6.560996e-01 -1.073599e+00 2.123903e+00 -1.966651e+00 -4.595279e-01 -8.233861e-01 5.652132e+01 3.355693e-02 -4.765222e-02 9.751339e-02 2.332145e-02 7.207149e-02 6.715830e-04 2.127222e-03 -5.486215e-02 -4.348140e-04 -4.395279e-02 1.436353e-02 -9.977908e-03 1.985499e-01 1.674817e-05 -3.494975e-03 1.082677e-03 -1.208782e-03 -1.930049e-03 -2.008477e-03 -1.152819e-03 -1.029471e-03 -2.097079e-03 6.569623e-04 2.078792e-03 -7.377132e-04 -4.696848e-03
<VARIANCE> 39
 5.823471e+01 3.236366e+01 4.711872e+01 3.153478e+01 2.845555e+01 2.184777e+01 3.528270e+01 3.844694e+01 4.033800e+01 3.692561e+01 2.883997e+01 1.291806e+01 2.067623e+02 9.839183e-01 1.576651e+00 1.130261e+00 1.125623e+00 1.327032e+00 1.191091e+00 1.729893e+00 1.372182e+00 1.503959e+00 1.399915e+00 1.306037e+00 9.480550e-01 1.615778e+00 1.317734e-01 2.558580e-01 1.791813e-01 1.693107e-01 2.357838e-01 2.075205e-01 3.079169e-01 2.503891e-01 2.734579e-01 2.545803e-01 2.360556e-01 1.790073e-01 2.069603e-01
<GCONST> 1.022967e+02
<STATE> 4
<MEAN> 39
 -1.666040e+01 7.168466e-02 7.147295e-01 6.061835e-01 1.404693e+00 2.660219e+00 5.391755e-01 -1.511068e+00 2.413954e+00 -2.448110e+00 -5.713485e-02 -9.870206e-01 5.818758e+01 2.791460e-02 -6.623454e-02 9.607261e-02 2.077332e-02 5.119070e-02 -7.268622e-03 -1.959051e-02 -5.833586e-02 -2.024895e-02 -3.500476e-02 2.876173e-02 -9.474548e-03 1.645630e-01 -4.846268e-04 -3.173424e-03 9.473069e-04 -1.341700e-03 -2.440976e-03 -1.111794e-03 -1.177699e-03 -1.190137e-03 -1.561677e-03 9.638407e-04 1.606032e-03 -2.072273e-04 -6.211188e-04
<VARIANCE> 39
 5.546210e+01 3.847837e+01 5.346856e+01 3.364117e+01 2.884847e+01 2.314735e+01 4.007784e+01 3.965485e+01 4.535244e+01 3.954115e+01 3.130443e+01 1.429298e+01 1.806338e+02 1.017950e+00 1.837592e+00 1.361751e+00 1.267566e+00 1.447782e+00 1.261744e+00 1.869043e+00 1.462653e+00 1.640529e+00 1.450898e+00 1.387910e+00 1.026482e+00 1.476095e+00 1.326387e-01 3.005318e-01 2.073214e-01 1.875849e-01 2.529911e-01 2.206682e-01 3.262929e-01 2.643099e-01 2.940506e-01 2.634503e-01 2.447831e-01 1.918985e-01 1.867971e-01
<GCONST> 1.047963e+02
<TRANSP> 5
 0.000000e+00 1.000000e+00 0.000000e+00 0.000000e+00 0.000000e+00
 0.000000e+00 7.716806e-01 2.283195e-01 0.000000e+00 0.000000e+00
 0.000000e+00 0.000000e+00 7.716811e-01 2.283189e-01 0.000000e+00
 0.000000e+00 0.000000e+00 0.000000e+00 9.028078e-01 9.719221e-02
 0.000000e+00 0.000000e+00 0.000000e+00 0.000000e+00 0.000000e+00
<ENDHMM>
~h "sy"
<BEGINHMM>
<NUMSTATES> 5
<STATE> 2
<MEAN> 39
 -1.884591e+01 4.287760e-01 -3.233647e+00 -1.824640e+00 -5.335483e-01 1.771004e+00 2.608280e+00 -3.594755e-01 2.180155e+00 -4.203460e-01 2.162903e-01 -1.333804e+00 5.313427e+01 1.172516e-01 -3.911024e-02 1.502262e-02 -6.137782e-02 -3.624093e-02 -5.332166e-02 4.251850e-02 -4.052789e-02 -2.998891e-03 9.459885e-03 -4.406868e-03 2.232382e-03 2.024734e-01 3.259624e-03 -1.960619e-04 -5.338685e-04 -8.118133e-04 -3.185302e-03 -1.009975e-03 5.413258e-04 -3.613970e-04 -9.674615e-04 1.043959e-03 -2.000849e-04 -1.064264e-04 2.678808e-03
<VARIANCE> 39
 3.443227e+01 1.261376e+01 1.029256e+01 1.327259e+01 1.704544e+01 1.481720e+01 1.974407e+01 2.450590e+01 2.752594e+01 2.266424e+01 1.353157e+01 8.900534e+00 1.128883e+02 9.796565e-01 8.173083e-01 5.714437e-01 6.316208e-01 9.700065e-01 9.711533e-01 1.179897e+00 1.025675e+00 1.216599e+00 9.711506e-01 9.452667e-01 7.602152e-01 1.799483e+00 1.219748e-01 1.400341e-01 1.111239e-01 1.104240e-01 1.857738e-01 1.833972e-01 2.140319e-01 1.940823e-01 2.116507e-01 1.880962e-01 1.854989e-01 1.545157e-01 2.084883e-01
<GCONST> 8.627412e+01
<STATE> 3
<MEAN> 39
 -1.826125e+01 2.558864e-01 -3.175848e+00 -2.112195e+00 -7.470660e-01 1.512121e+00 2.784152e+00 -5.312890e-01 2.146860e+00 -3.734641e-01 2.027741e-01 -1.320477e+00 5.408670e+01 1.334946e-01 -3.998452e-02 1.372609e-02 -6.576720e-02 -4.917242e-02 -5.843625e-02 4.469953e-02 -4.216898e-02 -7.119906e-03 1.321975e-02 -5.422571e-03 2.064506e-03 2.189992e-01 3.562776e-03 -2.710999e-04 -2.710628e-04 -1.053681e-03 -2.927950e-03 -1.100423e-03 5.760348e-04 -3.665140e-04 -7.611722e-04 9.035876e-04 -2.614733e-04 7.573166e-06 3.866607e-03
<VARIANCE> 39
 4.182325e+01 1.465196e+01 1.081731e+01 1.521484e+01 1.909941e+01 1.636504e+01 2.158171e+01 2.581066e+01 2.930460e+01 2.449022e+01 1.534780e+01 9.142774e+00 1.269829e+02 1.180989e+00 9.082363e-01 6.170791e-01 6.937156e-01 1.048271e+00 1.038200e+00 1.304499e+00 1.084387e+00 1.274350e+00 1.020263e+00 1.003729e+00 7.806236e-01 2.187790e+00 1.456608e-01 1.504950e-01 1.190899e-01 1.192558e-01 1.985673e-01 1.928792e-01 2.302454e-01 2.016426e-01 2.164908e-01 1.954955e-01 1.938669e-01 1.581848e-01 2.515192e-01
<GCONST> 8.965058e+01
<STATE> 4
<MEAN> 39
 -1.685700e+01 -2.683628e-02 -2.797382e+00 -2.734855e+00 -1.169266e+00 9.726793e-01 3.093362e+00 -6.661657e-01 2.523348e+00 -6.638656e-01 4.264102e-01 -1.397255e+00 5.622438e+01 1.477592e-01 -3.620491e-02 1.411809e-02 -6.648146e-02 -6.069411e-02 -6.218495e-02 2.958866e-02 -3.004200e-02 -1.133712e-02 6.800184e-03 -1.926379e-03 5.984630e-03 2.290690e-01 2.285020e-03 -3.336191e-04 4.032593e-04 -8.300941e-04 -1.423400e-03 -7.411147e-04 -2.284223e-04 1.515580e-04 -1.458589e-04 -7.528671e-05 -2.781802e-05 3.263872e-04 3.347440e-03
<VARIANCE> 39
 5.746349e+01 2.018166e+01 1.328833e+01 2.064018e+01 2.396670e+01 2.097821e+01 2.433768e+01 2.763511e+01 3.465453e+01 3.028131e+01 1.922948e+01 9.984288e+00 1.587913e+02 1.631740e+00 1.154219e+00 7.675696e-01 8.683649e-01 1.232168e+00 1.255811e+00 1.546574e+00 1.207335e+00 1.429155e+00 1.153247e+00 1.112737e+00 8.256284e-01 2.935550e+00 1.977944e-01 1.817318e-01 1.433893e-01 1.445829e-01 2.298526e-01 2.268489e-01 2.653785e-01 2.214106e-01 2.318703e-01 2.172722e-01 2.084109e-01 1.656399e-01 3.328970e-01
<GCONST> 9.669545e+01
<TRANSP> 5
 0.000000e+00 1.000000e+00 0.000000e+00 0.000000e+00 0.000000e+00
 0.000000e+00 7.893019e-01 2.106980e-01 0.000000e+00 0.000000e+00
 0.000000e+00 0.000000e+00 7.893023e-01 2.106977e-01 0.000000e+00
 0.000000e+00 0.000000e+00 0.000000e+00 9.225042e-01 7.749578e-02
 0.000000e+00 0.000000e+00 0.000000e+00 0.000000e+00 0.000000e+00
<ENDHMM>
~h "sil"
<BEGINHMM>
<NUMSTATES> 5
<STATE> 2
<MEAN> 39
 -1.344970e+01 9.284103e-01 -2.605766e+00 -7.705671e-02 -4.400854e-01 1.817658e+00 6.653599e-01 4.260948e-01 1.056315e+00 -3.853867e-01 1.148916e-01 -6.351472e-01 3.050354e+01 -1.481913e-01 1.508774e-02 -3.867622e-02 6.457469e-04 -6.347584e-03 7.221418e-03 1.610639e-02 4.073308e-02 2.522388e-02 4.026791e-02 1.585831e-02 -1.933840e-03 6.346442e-02 -1.854439e-02 -1.110937e-04 -8.342943e-04 -5.586300e-04 4.689382e-05 3.605281e-03 -5.616626e-03 -9.886906e-04 1.068283e-03 1.651273e-03 3.807623e-03 1.054179e-03 5.164564e-02
<VARIANCE> 39
 1.335912e+02 4.374360e+00 1.791739e+01 7.166892e+00 1.255807e+01 9.262685e+00 1.566506e+01 1.664882e+01 1.583913e+01 1.059085e+01 6.422585e+00 6.366811e+00 6.434866e+02 6.475224e-01 1.950353e-01 2.528630e-01 3.000244e-01 3.511817e-01 4.329289e-01 4.990012e-01 5.440651e-01 5.662956e-01 5.209336e-01 4.678630e-01 4.200184e-01 1.478357e+00 1.026826e-01 3.177257e-02 4.268540e-02 5.307291e-02 6.430874e-02 8.181304e-02 9.412175e-02 1.063691e-01 1.103965e-01 1.012757e-01 8.845960e-02 7.984459e-02 1.424846e-01
<GCONST> 6.516949e+01
<STATE> 3
<MEAN> 39
 -1.463569e+01 1.038054e+00 -2.838416e+00 -7.914245e-02 -4.558980e-01 1.913390e+00 7.821756e-01 6.858506e-01 1.223368e+00 -1.747155e-01 2.188564e-01 -6.574725e-01 3.213526e+01 -2.591967e-01 1.723119e-02 -3.747553e-02 -4.480295e-04 -2.663149e-03 2.476833e-02 1.570798e-02 4.832187e-02 3.801866e-02 4.302661e-02 2.723358e-02 1.867414e-03 4.099445e-01 -2.322521e-02 1.298515e-03 4.908040e-03 -6.102016e-04 1.634775e-03 5.444257e-03 9.973753e-04 -1.202061e-03 2.568364e-03 8.684932e-05 3.882580e-03 3.156232e-03 8.051783e-02
<VARIANCE> 39
 1.260317e+02 3.721161e+00 1.680215e+01 6.465906e+00 1.232525e+01 8.589906e+00 1.567605e+01 1.600059e+01 1.546887e+01 1.010287e+01 5.972646e+00 6.137466e+00 5.934365e+02 1.355144e+00 1.822972e-01 2.925464e-01 2.988816e-01 3.559341e-01 4.622202e-01 5.460640e-01 6.145194e-01 6.158298e-01 5.422125e-01 4.913899e-01 4.420863e-01 3.543296e+00 2.147426e-01 3.103513e-02 5.227818e-02 5.640613e-02 7.003053e-02 9.195361e-02 1.085742e-01 1.223154e-01 1.224222e-01 1.085777e-01 9.822572e-02 8.778396e-02 3.077885e-01
<GCONST> 6.919537e+01
<STATE> 4
<MEAN> 39
 -1.675448e+01 1.191097e+00 -2.822072e+00 -2.091955e-01 -1.344497e-01 2.104961e+00 1.388841e+00 9.453187e-01 1.969555e+00 -7.108617e-02 4.207422e-01 -8.402454e-01 3.820946e+01 -2.168488e-01 1.159227e-02 8.563198e-03 -8.951552e-03 1.566778e-02 3.733491e-02 1.535957e-02 4.480905e-03 3.486977e-02 1.618582e-02 3.060872e-02 1.502772e-02 5.589969e-01 5.888484e-03 -6.932964e-04 7.948456e-03 -1.829170e-03 4.104781e-03 3.636054e-03 1.109483e-03 -9.823348e-03 -1.346959e-03 -1.577943e-03 3.335904e-03 4.841589e-03 1.405774e-02
<VARIANCE> 39
 9.471429e+01 3.244838e+00 1.451045e+01 5.916553e+00 1.135728e+01 8.648203e+00 1.525196e+01 1.637009e+01 1.582045e+01 1.058804e+01 6.094453e+00 6.477681e+00 5.029784e+02 1.336489e+00 1.869313e-01 4.216626e-01 3.419368e-01 4.181240e-01 5.777116e-01 6.339856e-01 7.176665e-01 7.164507e-01 6.093321e-01 5.802448e-01 5.622180e-01 3.696277e+00 2.054570e-01 3.139324e-02 6.599518e-02 6.110704e-02 7.843862e-02 1.074630e-01 1.203556e-01 1.342544e-01 1.342317e-01 1.159124e-01 1.116904e-01 1.026534e-01 3.225341e-01
<GCONST> 7.158756e+01
<TRANSP> 5
 0.000000e+00 1.000000e+00 0.000000e+00 0.000000e+00 0.000000e+00
 0.000000e+00 7.794052e-01 2.205948e-01 0.000000e+00 0.000000e+00
 0.000000e+00 0.000000e+00 7.794055e-01 2.205945e-01 0.000000e+00
 0.000000e+00 0.000000e+00 0.000000e+00 9.121910e-01 8.780901e-02
 0.000000e+00 0.000000e+00 0.000000e+00 0.000000e+00 0.000000e+00
<ENDHMM>
