~o
<STREAMINFO> 1 39
<VECSIZE> 39<NULLD><MFCC_D_A_0><DIAGC>
~h "proto"
<BEGINHMM>
<NUMSTATES> 5
<STATE> 2
<MEAN> 39
 -1.337472e+01 -8.640809e-01 3.409269e-01 -9.251137e-01 2.471568e-01 1.182976e+00 8.470861e-02 -2.303253e+00 1.136804e+00 -2.919598e+00 1.446236e-01 -7.606978e-01 6.001212e+01 -3.171867e-02 1.116635e-03 2.252469e-03 -5.367868e-03 7.339405e-03 3.631301e-03 1.037864e-02 -4.836236e-03 9.392091e-03 -2.220669e-03 2.593323e-03 -6.698366e-04 1.205448e-01 -9.598094e-05 -7.639801e-05 4.883969e-04 -1.611844e-04 2.483549e-04 3.560225e-04 -2.001366e-04 -5.695322e-04 -1.720512e-04 6.651291e-05 4.754573e-04 4.585812e-04 8.632094e-04
<VARIANCE> 39
 8.885197e+01 4.548040e+01 4.445609e+01 4.121929e+01 3.893147e+01 3.146271e+01 4.950589e+01 4.739682e+01 6.182910e+01 4.777756e+01 3.623348e+01 2.108120e+01 3.814302e+02 1.783182e+00 1.820422e+00 1.313454e+00 1.578746e+00 1.472616e+00 1.636171e+00 1.995837e+00 1.653451e+00 2.042085e+00 1.540126e+00 1.598944e+00 1.189382e+00 2.696879e+00 2.199274e-01 2.784120e-01 2.046199e-01 2.430820e-01 2.384224e-01 2.807637e-01 3.229251e-01 2.833371e-01 3.320514e-01 2.704294e-01 2.711900e-01 2.085696e-01 2.969071e-01
<GCONST> 1.123137e+02
<STATE> 3
<MEAN> 39
 -1.337472e+01 -8.640809e-01 3.409269e-01 -9.251137e-01 2.471568e-01 1.182976e+00 8.470861e-02 -2.303253e+00 1.136804e+00 -2.919598e+00 1.446236e-01 -7.606978e-01 6.001212e+01 -3.171867e-02 1.116635e-03 2.252469e-03 -5.367868e-03 7.339405e-03 3.631301e-03 1.037864e-02 -4.836236e-03 9.392091e-03 -2.220669e-03 2.593323e-03 -6.698366e-04 1.205448e-01 -9.598094e-05 -7.639801e-05 4.883969e-04 -1.611844e-04 2.483549e-04 3.560225e-04 -2.001366e-04 -5.695322e-04 -1.720512e-04 6.651291e-05 4.754573e-04 4.585812e-04 8.632094e-04
<VARIANCE> 39
 8.885197e+01 4.548040e+01 4.445609e+01 4.121929e+01 3.893147e+01 3.146271e+01 4.950589e+01 4.739682e+01 6.182910e+01 4.777756e+01 3.623348e+01 2.108120e+01 3.814302e+02 1.783182e+00 1.820422e+00 1.313454e+00 1.578746e+00 1.472616e+00 1.636171e+00 1.995837e+00 1.653451e+00 2.042085e+00 1.540126e+00 1.598944e+00 1.189382e+00 2.696879e+00 2.199274e-01 2.784120e-01 2.046199e-01 2.430820e-01 2.384224e-01 2.807637e-01 3.229251e-01 2.833371e-01 3.320514e-01 2.704294e-01 2.711900e-01 2.085696e-01 2.969071e-01
<GCONST> 1.123137e+02
<STATE> 4
<MEAN> 39
 -1.337472e+01 -8.640809e-01 3.409269e-01 -9.251137e-01 2.471568e-01 1.182976e+00 8.470861e-02 -2.303253e+00 1.136804e+00 -2.919598e+00 1.446236e-01 -7.606978e-01 6.001212e+01 -3.171867e-02 1.116635e-03 2.252469e-03 -5.367868e-03 7.339405e-03 3.631301e-03 1.037864e-02 -4.836236e-03 9.392091e-03 -2.220669e-03 2.593323e-03 -6.698366e-04 1.205448e-01 -9.598094e-05 -7.639801e-05 4.883969e-04 -1.611844e-04 2.483549e-04 3.560225e-04 -2.001366e-04 -5.695322e-04 -1.720512e-04 6.651291e-05 4.754573e-04 4.585812e-04 8.632094e-04
<VARIANCE> 39
 8.885197e+01 4.548040e+01 4.445609e+01 4.121929e+01 3.893147e+01 3.146271e+01 4.950589e+01 4.739682e+01 6.182910e+01 4.777756e+01 3.623348e+01 2.108120e+01 3.814302e+02 1.783182e+00 1.820422e+00 1.313454e+00 1.578746e+00 1.472616e+00 1.636171e+00 1.995837e+00 1.653451e+00 2.042085e+00 1.540126e+00 1.598944e+00 1.189382e+00 2.696879e+00 2.199274e-01 2.784120e-01 2.046199e-01 2.430820e-01 2.384224e-01 2.807637e-01 3.229251e-01 2.833371e-01 3.320514e-01 2.704294e-01 2.711900e-01 2.085696e-01 2.969071e-01
<GCONST> 1.123137e+02
<TRANSP> 5
 0.000000e+00 1.000000e+00 0.000000e+00 0.000000e+00 0.000000e+00
 0.000000e+00 6.000000e-01 4.000000e-01 0.000000e+00 0.000000e+00
 0.000000e+00 0.000000e+00 6.000000e-01 4.000000e-01 0.000000e+00
 0.000000e+00 0.000000e+00 0.000000e+00 7.000000e-01 3.000000e-01
 0.000000e+00 0.000000e+00 0.000000e+00 0.000000e+00 0.000000e+00
<ENDHMM>
