~o
<STREAMINFO> 1 39
<VECSIZE> 39<NULLD><MFCC_D_A_0><DIAGC>
~h "proto"
<BEGINHMM>
<NUMSTATES> 5
<STATE> 2
<MEAN> 39
 -1.496866e+01 2.001761e+00 -9.551963e-01 8.395686e-01 1.118483e+00 3.381635e-02 1.114793e+00 1.184053e+00 -5.868346e-01 1.200650e+00 3.337950e+00 -5.572723e-01 6.144351e+01 -4.820413e-02 2.187737e-03 -9.936129e-03 -3.901160e-03 -2.306981e-03 1.137502e-03 5.597845e-03 6.653888e-03 5.827555e-03 3.324915e-03 2.251503e-03 -1.170524e-03 1.464529e-01 1.479895e-04 -3.845810e-04 -4.672610e-04 -3.528197e-05 1.709686e-04 -8.978952e-05 -3.778198e-04 -5.974405e-04 -1.020827e-03 5.443316e-05 5.817961e-04 2.247239e-04 1.766677e-04
<VARIANCE> 39
 7.169199e+01 1.982878e+01 2.658726e+01 3.069609e+01 2.086356e+01 2.055164e+01 3.369041e+01 3.700991e+01 7.328486e+01 2.151418e+01 2.444093e+01 1.144098e+01 1.447546e+02 2.079128e+00 1.315341e+00 1.218935e+00 1.605894e+00 1.124080e+00 1.373690e+00 1.595202e+00 1.722748e+00 2.788214e+00 1.247499e+00 1.317670e+00 9.280057e-01 1.980202e+00 2.608440e-01 2.128364e-01 1.961426e-01 2.618016e-01 1.953019e-01 2.456073e-01 2.710743e-01 3.000361e-01 4.165871e-01 2.288506e-01 2.301361e-01 1.749057e-01 1.850145e-01
<GCONST> 1.033993e+02
<STATE> 3
<MEAN> 39
 -1.496866e+01 2.001761e+00 -9.551963e-01 8.395686e-01 1.118483e+00 3.381635e-02 1.114793e+00 1.184053e+00 -5.868346e-01 1.200650e+00 3.337950e+00 -5.572723e-01 6.144351e+01 -4.820413e-02 2.187737e-03 -9.936129e-03 -3.901160e-03 -2.306981e-03 1.137502e-03 5.597845e-03 6.653888e-03 5.827555e-03 3.324915e-03 2.251503e-03 -1.170524e-03 1.464529e-01 1.479895e-04 -3.845810e-04 -4.672610e-04 -3.528197e-05 1.709686e-04 -8.978952e-05 -3.778198e-04 -5.974405e-04 -1.020827e-03 5.443316e-05 5.817961e-04 2.247239e-04 1.766677e-04
<VARIANCE> 39
 7.169199e+01 1.982878e+01 2.658726e+01 3.069609e+01 2.086356e+01 2.055164e+01 3.369041e+01 3.700991e+01 7.328486e+01 2.151418e+01 2.444093e+01 1.144098e+01 1.447546e+02 2.079128e+00 1.315341e+00 1.218935e+00 1.605894e+00 1.124080e+00 1.373690e+00 1.595202e+00 1.722748e+00 2.788214e+00 1.247499e+00 1.317670e+00 9.280057e-01 1.980202e+00 2.608440e-01 2.128364e-01 1.961426e-01 2.618016e-01 1.953019e-01 2.456073e-01 2.710743e-01 3.000361e-01 4.165871e-01 2.288506e-01 2.301361e-01 1.749057e-01 1.850145e-01
<GCONST> 1.033993e+02
<STATE> 4
<MEAN> 39
 -1.496866e+01 2.001761e+00 -9.551963e-01 8.395686e-01 1.118483e+00 3.381635e-02 1.114793e+00 1.184053e+00 -5.868346e-01 1.200650e+00 3.337950e+00 -5.572723e-01 6.144351e+01 -4.820413e-02 2.187737e-03 -9.936129e-03 -3.901160e-03 -2.306981e-03 1.137502e-03 5.597845e-03 6.653888e-03 5.827555e-03 3.324915e-03 2.251503e-03 -1.170524e-03 1.464529e-01 1.479895e-04 -3.845810e-04 -4.672610e-04 -3.528197e-05 1.709686e-04 -8.978952e-05 -3.778198e-04 -5.974405e-04 -1.020827e-03 5.443316e-05 5.817961e-04 2.247239e-04 1.766677e-04
<VARIANCE> 39
 7.169199e+01 1.982878e+01 2.658726e+01 3.069609e+01 2.086356e+01 2.055164e+01 3.369041e+01 3.700991e+01 7.328486e+01 2.151418e+01 2.444093e+01 1.144098e+01 1.447546e+02 2.079128e+00 1.315341e+00 1.218935e+00 1.605894e+00 1.124080e+00 1.373690e+00 1.595202e+00 1.722748e+00 2.788214e+00 1.247499e+00 1.317670e+00 9.280057e-01 1.980202e+00 2.608440e-01 2.128364e-01 1.961426e-01 2.618016e-01 1.953019e-01 2.456073e-01 2.710743e-01 3.000361e-01 4.165871e-01 2.288506e-01 2.301361e-01 1.749057e-01 1.850145e-01
<GCONST> 1.033993e+02
<TRANSP> 5
 0.000000e+00 1.000000e+00 0.000000e+00 0.000000e+00 0.000000e+00
 0.000000e+00 6.000000e-01 4.000000e-01 0.000000e+00 0.000000e+00
 0.000000e+00 0.000000e+00 6.000000e-01 4.000000e-01 0.000000e+00
 0.000000e+00 0.000000e+00 0.000000e+00 7.000000e-01 3.000000e-01
 0.000000e+00 0.000000e+00 0.000000e+00 0.000000e+00 0.000000e+00
<ENDHMM>
