~o
<STREAMINFO> 1 39
<VECSIZE> 39<NULLD><MFCC_D_A_0><DIAGC>
~h "a"
<BEGINHMM>
<NUMSTATES> 5
<STATE> 2
<MEAN> 39
 -1.288289e+01 2.495594e+00 -1.965008e+00 7.730544e-03 6.840180e-01 -6.315276e-01 2.355980e+00 1.739295e+00 -2.042219e-01 3.358316e+00 3.683932e+00 -5.068879e-01 6.494468e+01 3.668108e-01 -7.905901e-02 -2.566413e-02 -7.068837e-02 -1.325472e-01 -3.841029e-01 -2.517991e-01 -1.095152e-01 -3.110982e-01 -7.031549e-02 8.886140e-02 -1.286353e-01 3.556135e-01 8.946434e-02 8.250164e-03 -1.921305e-02 1.237650e-02 -5.080080e-02 -2.777869e-02 -1.622516e-02 -3.679601e-02 -9.540589e-02 -2.582339e-02 4.024426e-02 -2.194620e-02 4.161047e-02
<VARIANCE> 39
 7.230917e+01 2.261039e+01 2.224134e+01 2.701240e+01 2.218363e+01 3.096272e+01 3.530802e+01 2.646179e+01 5.176598e+01 1.917922e+01 1.776279e+01 1.023301e+01 4.604694e+01 4.497070e+00 1.452854e+00 1.255397e+00 1.134783e+00 1.676320e+00 2.568405e+00 2.681379e+00 2.123034e+00 3.572109e+00 1.415437e+00 1.412715e+00 9.061059e-01 2.972175e+00 4.824277e-01 2.828216e-01 2.027899e-01 1.833514e-01 2.743826e-01 4.086021e-01 4.399043e-01 3.552668e-01 5.236722e-01 2.484765e-01 2.309755e-01 1.712433e-01 3.213734e-01
<GCONST> 1.074337e+02
<STATE> 3
<MEAN> 39
 -1.357533e+01 3.781671e+00 -6.602736e-01 1.662372e+00 1.449796e+00 3.567850e-01 1.790491e+00 2.067191e+00 1.036518e+00 2.720947e+00 3.350556e+00 -5.044115e-01 6.374621e+01 -1.761376e-01 -1.627842e-01 -1.240452e-01 -6.412354e-02 -8.756475e-02 -9.041677e-03 1.088262e-01 2.062791e-02 -3.872317e-02 -3.587295e-02 -4.055574e-02 -5.231408e-02 -8.271097e-02 8.992115e-04 1.722597e-02 8.447170e-03 4.065948e-03 2.786800e-02 3.457592e-02 8.126507e-03 -2.398584e-02 -3.020372e-02 -2.115298e-02 2.314243e-03 9.656975e-03 -1.156144e-02
<VARIANCE> 39
 6.327907e+01 2.018324e+01 2.222157e+01 3.119260e+01 2.543846e+01 2.693811e+01 3.328759e+01 2.520526e+01 4.939394e+01 1.199525e+01 1.908273e+01 9.528073e+00 3.761082e+01 1.315223e+00 9.447191e-01 8.880453e-01 1.095319e+00 1.214150e+00 1.425980e+00 1.895258e+00 1.583736e+00 1.956581e+00 9.351429e-01 9.414650e-01 8.413359e-01 7.388313e-01 1.724609e-01 1.591726e-01 1.527457e-01 1.705684e-01 2.093808e-01 2.777767e-01 2.998881e-01 2.643275e-01 3.459155e-01 1.896345e-01 1.657973e-01 1.547028e-01 9.399470e-02
<GCONST> 9.437904e+01
<STATE> 4
<MEAN> 39
 -1.319420e+01 2.970037e+00 -2.198667e+00 3.765703e-01 8.556929e-01 7.427847e-01 2.726469e+00 1.875237e+00 -2.617866e-02 2.897246e+00 4.496124e+00 1.685798e-02 6.411621e+01 -3.252355e-01 -2.880741e-02 -8.918005e-03 9.193951e-04 9.805110e-02 2.116034e-01 1.389700e-01 6.256735e-02 1.608175e-01 1.005189e-02 -1.055208e-01 1.736153e-02 -2.422462e-01 1.091841e-02 1.402616e-02 2.380661e-02 -2.915525e-03 6.678369e-04 -2.293041e-02 -4.578664e-02 -2.548696e-02 -3.167995e-02 -3.260785e-02 -1.059027e-02 -5.616342e-04 6.438805e-03
<VARIANCE> 39
 7.194756e+01 1.428675e+01 1.578269e+01 1.998329e+01 2.075073e+01 2.743085e+01 2.519376e+01 2.420987e+01 5.345021e+01 1.188297e+01 2.622980e+01 9.029218e+00 4.271709e+01 1.181437e+00 1.039969e+00 9.358037e-01 1.002598e+00 1.128981e+00 1.457585e+00 1.580346e+00 1.407964e+00 1.811957e+00 9.297500e-01 8.809870e-01 7.728341e-01 6.788989e-01 1.231309e-01 1.563466e-01 1.624757e-01 1.570982e-01 1.738486e-01 2.537667e-01 2.690471e-01 2.677121e-01 2.871178e-01 1.782672e-01 1.539905e-01 1.521514e-01 6.972266e-02
<GCONST> 9.123042e+01
<TRANSP> 5
 0.000000e+00 1.000000e+00 0.000000e+00 0.000000e+00 0.000000e+00
 0.000000e+00 6.563351e-01 3.436649e-01 0.000000e+00 0.000000e+00
 0.000000e+00 0.000000e+00 5.795749e-01 4.204251e-01 0.000000e+00
 0.000000e+00 0.000000e+00 0.000000e+00 8.205146e-01 1.794855e-01
 0.000000e+00 0.000000e+00 0.000000e+00 0.000000e+00 0.000000e+00
<ENDHMM>
~h "b"
<BEGINHMM>
<NUMSTATES> 5
<STATE> 2
<MEAN> 39
 -2.063596e+01 1.795297e+00 -2.526425e+00 -5.858038e-01 -3.853416e-02 1.385119e+00 3.670040e+00 4.206174e+00 4.022073e+00 2.153271e+00 1.444951e+00 -1.980541e-01 5.878299e+01 -1.587400e-01 -1.769785e-01 -2.067757e-01 -2.413879e-01 -2.474010e-01 -1.367517e-01 -2.587100e-02 2.644472e-02 -7.862069e-03 -8.929174e-02 -9.088270e-02 3.438945e-02 -7.201017e-02 5.385815e-02 6.066082e-02 6.234093e-02 6.400143e-02 6.685877e-02 3.932093e-02 7.105893e-03 -3.049963e-02 -3.289327e-02 -7.102021e-03 2.906155e-03 -5.711802e-03 2.566230e-02
<VARIANCE> 39
 2.296621e+00 3.194926e+00 5.392380e+00 6.484799e+00 7.068437e+00 7.674106e+00 9.122534e+00 9.399772e+00 8.611544e+00 9.555579e+00 7.309094e+00 6.839522e+00 1.447546e+00 2.695579e-01 3.728505e-01 5.548840e-01 8.500689e-01 9.056911e-01 9.063316e-01 1.064898e+00 1.178116e+00 1.157786e+00 1.235608e+00 7.034534e-01 7.020172e-01 8.422577e-02 3.586140e-02 5.828773e-02 8.196580e-02 1.389012e-01 1.597066e-01 1.775697e-01 2.358288e-01 2.429313e-01 2.352891e-01 2.425037e-01 1.324918e-01 1.423902e-01 1.457843e-02
<GCONST> 6.038956e+01
<STATE> 3
<MEAN> 39
 -2.056557e+01 1.478549e+00 -2.806713e+00 -8.270124e-01 -2.891624e-01 1.247166e+00 3.112448e+00 3.690172e+00 3.402307e+00 1.399361e+00 6.576023e-01 -1.981412e-01 5.888184e+01 1.875991e-02 -1.189037e-02 -3.482803e-02 -2.608165e-02 4.554715e-02 -8.961968e-04 -4.536998e-02 -7.723477e-02 4.817984e-02 -2.627477e-02 1.512021e-02 -3.797296e-02 1.590697e-02 7.540612e-03 7.570492e-03 2.174077e-02 2.911121e-03 1.176364e-02 -7.821275e-03 1.938216e-02 1.879617e-02 2.153811e-03 2.422441e-04 1.506293e-02 -7.240359e-03 9.436641e-03
<VARIANCE> 39
 1.786221e+00 2.855192e+00 5.275512e+00 6.018229e+00 4.914312e+00 5.591883e+00 5.870724e+00 6.582576e+00 6.571007e+00 7.223096e+00 5.386518e+00 6.890437e+00 1.447546e+00 1.033117e-01 2.156454e-01 3.800542e-01 5.930322e-01 7.006955e-01 7.405130e-01 7.467667e-01 8.757425e-01 7.865724e-01 1.001009e+00 5.387009e-01 7.552774e-01 6.517957e-02 2.854266e-02 6.823154e-02 1.131355e-01 1.324796e-01 1.362392e-01 1.410410e-01 1.623782e-01 1.826211e-01 1.783840e-01 2.164836e-01 1.091942e-01 1.484756e-01 1.528078e-02
<GCONST> 5.186319e+01
<STATE> 4
<MEAN> 39
 -2.045485e+01 1.402673e+00 -3.164146e+00 -1.255924e+00 -4.196969e-01 1.195314e+00 3.019093e+00 3.466131e+00 3.905642e+00 1.470270e+00 8.746367e-01 -4.321120e-01 5.893160e+01 4.671720e-02 -1.355873e-01 -1.489931e-01 -2.360099e-01 -6.935732e-03 -1.427174e-01 1.653683e-02 1.399081e-01 1.512214e-01 7.185201e-02 1.297103e-01 8.645733e-02 8.969838e-02 1.154274e-01 1.611924e-02 9.277143e-02 8.879292e-02 1.202860e-01 3.744100e-02 -7.141703e-02 -8.910290e-02 -1.537685e-01 6.314262e-03 2.123084e-02 1.657344e-02 1.099835e-01
<VARIANCE> 39
 1.830036e+00 3.470017e+00 6.954221e+00 6.961161e+00 5.061955e+00 3.977460e+00 5.075952e+00 7.554888e+00 7.384956e+00 6.029552e+00 5.878519e+00 6.565640e+00 1.447546e+00 2.133853e-01 3.120439e-01 4.119020e-01 5.390267e-01 5.731784e-01 7.020168e-01 1.293889e+00 1.191218e+00 9.887010e-01 1.544506e+00 3.582680e-01 7.264634e-01 1.923184e-01 7.728382e-02 1.086232e-01 1.189319e-01 1.390673e-01 1.474307e-01 1.184234e-01 1.906635e-01 4.065364e-01 3.529288e-01 1.979774e-01 7.634095e-02 1.304944e-01 5.675984e-02
<GCONST> 5.898402e+01
<TRANSP> 5
 0.000000e+00 1.000000e+00 0.000000e+00 0.000000e+00 0.000000e+00
 0.000000e+00 9.332874e-01 6.671251e-02 0.000000e+00 0.000000e+00
 0.000000e+00 0.000000e+00 7.730428e-01 2.269572e-01 0.000000e+00
 0.000000e+00 0.000000e+00 0.000000e+00 6.483805e-01 3.516195e-01
 0.000000e+00 0.000000e+00 0.000000e+00 0.000000e+00 0.000000e+00
<ENDHMM>
~h "d"
<BEGINHMM>
<NUMSTATES> 5
<STATE> 2
<MEAN> 39
 -8.362919e+00 3.586751e+00 -1.758909e-01 2.237520e+00 2.140968e+00 -1.230647e+00 -2.618440e-01 -2.395708e+00 -7.356838e+00 -1.369998e+00 5.212509e+00 1.261667e-01 6.812923e+01 -9.048772e-02 1.932750e-01 2.924148e-01 2.970950e-01 2.706735e-01 -1.222307e-01 -3.012590e-01 2.337440e-01 3.461368e-01 -1.526689e-01 -2.304146e-01 -1.141373e-01 -1.097838e-01 -1.130427e-01 -3.971146e-02 3.417537e-02 2.741758e-03 4.984251e-02 1.361346e-02 -2.102547e-02 1.672108e-02 5.915722e-03 -6.965071e-02 -1.389261e-02 4.672819e-02 -5.456614e-02
<VARIANCE> 39
 6.933752e+01 3.164141e+01 3.741465e+01 3.788717e+01 3.098342e+01 1.930823e+01 2.958174e+01 2.879904e+01 9.139853e+01 3.637029e+01 2.284994e+01 9.496452e+00 4.597709e+01 6.389531e+00 3.515030e+00 1.957282e+00 1.944721e+00 1.507502e+00 2.073453e+00 2.119776e+00 2.413403e+00 7.075701e+00 2.357005e+00 2.165014e+00 1.106545e+00 4.181685e+00 9.445478e-01 6.231533e-01 4.110618e-01 3.964494e-01 2.703546e-01 3.987364e-01 3.987005e-01 3.491156e-01 8.333608e-01 3.958454e-01 3.274260e-01 2.004070e-01 5.684441e-01
<GCONST> 1.184833e+02
<STATE> 3
<MEAN> 39
 -1.212937e+01 4.133770e+00 1.913867e+00 5.292809e+00 4.605586e+00 -2.091401e-01 -1.332911e+00 3.798231e-01 -3.788636e+00 -1.736762e+00 4.110485e+00 -5.474858e-01 6.496496e+01 -4.472970e-01 -9.622617e-02 1.542358e-01 1.160011e-01 9.992269e-02 -9.434696e-03 1.002014e-01 5.522000e-01 5.065598e-01 -4.294384e-04 -1.551937e-01 3.572648e-02 -2.822108e-01 9.782814e-02 -8.168309e-03 3.239854e-02 -4.428481e-02 -5.049320e-02 -5.605862e-02 -5.940709e-02 -2.027656e-01 -2.102850e-01 -2.734062e-02 9.440538e-02 4.596380e-03 1.110095e-01
<VARIANCE> 39
 5.386934e+01 2.392318e+01 3.300988e+01 6.390282e+01 3.676950e+01 2.465115e+01 5.981913e+01 3.304995e+01 9.979189e+01 4.281479e+01 2.826268e+01 1.144903e+01 3.544651e+01 1.946220e+00 2.198398e+00 1.310457e+00 1.528232e+00 1.547099e+00 1.500588e+00 2.850773e+00 2.411322e+00 4.707562e+00 1.559269e+00 2.029009e+00 9.388055e-01 1.210487e+00 2.519379e-01 3.953824e-01 2.368773e-01 2.644297e-01 2.620289e-01 3.135522e-01 5.337738e-01 4.442257e-01 7.171837e-01 3.200259e-01 2.930946e-01 1.718040e-01 2.076755e-01
<GCONST> 1.112986e+02
<STATE> 4
<MEAN> 39
 -1.648400e+01 3.030291e+00 1.773396e-01 3.034706e+00 2.507530e+00 1.711866e-01 1.288879e+00 3.546267e+00 1.237777e+00 1.275570e+00 3.636042e+00 -2.886426e-01 6.178383e+01 -3.327109e-01 3.665416e-03 -5.611025e-02 -2.443308e-01 -2.266311e-01 1.225813e-01 2.805177e-01 1.352491e-01 3.398482e-01 9.946146e-02 -2.314851e-01 3.525103e-02 -2.464316e-01 1.018235e-01 6.178752e-02 4.111350e-02 1.147474e-02 2.275752e-02 2.175133e-02 -5.266623e-02 -1.338185e-01 -1.062845e-01 -2.348704e-02 2.319570e-02 -5.569182e-03 7.065450e-02
<VARIANCE> 39
 3.461636e+01 9.986044e+00 3.086460e+01 5.957042e+01 2.637425e+01 2.506559e+01 4.486479e+01 1.893270e+01 6.970610e+01 2.719943e+01 2.193880e+01 1.215350e+01 2.201872e+01 9.219866e-01 1.053902e+00 1.109174e+00 1.241032e+00 1.062814e+00 1.798718e+00 2.104192e+00 1.817938e+00 2.813826e+00 1.303338e+00 1.294397e+00 8.252250e-01 5.127342e-01 1.104712e-01 1.586741e-01 1.722066e-01 1.913885e-01 1.753923e-01 3.043008e-01 3.410738e-01 3.223269e-01 4.454415e-01 2.178225e-01 2.329522e-01 1.645978e-01 6.569535e-02
<GCONST> 9.656965e+01
<TRANSP> 5
 0.000000e+00 1.000000e+00 0.000000e+00 0.000000e+00 0.000000e+00
 0.000000e+00 8.186489e-01 1.813511e-01 0.000000e+00 0.000000e+00
 0.000000e+00 0.000000e+00 4.135208e-01 5.864791e-01 0.000000e+00
 0.000000e+00 0.000000e+00 0.000000e+00 7.477264e-01 2.522736e-01
 0.000000e+00 0.000000e+00 0.000000e+00 0.000000e+00 0.000000e+00
<ENDHMM>
~h "e"
<BEGINHMM>
<NUMSTATES> 5
<STATE> 2
<MEAN> 39
 -7.125850e+00 2.554547e+00 4.739807e-01 3.464369e+00 2.516984e+00 -2.865980e+00 -1.811918e+00 -5.729579e+00 -1.122716e+01 -1.326142e+00 7.618785e+00 1.186808e+00 6.999867e+01 5.832943e-01 1.408919e-01 1.701200e-01 4.700126e-01 2.472039e-01 -3.161014e-01 -1.531575e-01 -3.620956e-01 -6.866944e-01 -1.783393e-01 2.265227e-01 3.582596e-02 4.430285e-01 -1.203212e-01 -9.315841e-02 7.917081e-03 -3.377957e-02 -8.880931e-03 4.551540e-02 1.219259e-02 1.102419e-01 1.676081e-01 5.778928e-02 -1.725797e-02 -1.599737e-02 -5.123162e-02
<VARIANCE> 39
 5.090187e+01 3.627166e+01 2.683719e+01 6.080999e+01 3.662423e+01 3.549112e+01 3.394752e+01 5.914815e+01 8.995656e+01 3.023228e+01 3.319893e+01 1.920729e+01 3.933353e+01 4.427906e+00 3.438370e+00 2.592370e+00 5.072147e+00 2.009162e+00 4.075437e+00 2.983320e+00 4.224656e+00 7.681722e+00 2.392799e+00 2.928506e+00 1.338270e+00 3.427635e+00 6.790752e-01 5.780593e-01 3.714414e-01 6.693226e-01 3.426294e-01 5.379967e-01 3.914580e-01 6.057653e-01 9.238372e-01 4.004841e-01 4.330963e-01 2.092055e-01 3.757297e-01
<GCONST> 1.250222e+02
<STATE> 3
<MEAN> 39
 -6.243070e+00 2.565321e+00 7.781934e-01 5.448210e+00 3.596807e+00 -2.860460e+00 -1.587549e+00 -6.526492e+00 -1.204994e+01 -3.420563e-01 8.203065e+00 6.190290e-01 7.045712e+01 3.065262e-02 2.249599e-02 1.065603e-01 4.346090e-01 2.682042e-01 -8.272141e-02 -4.696935e-02 1.834247e-01 1.963506e-01 2.782061e-01 1.369613e-01 -1.028225e-01 -1.822831e-02 -1.428502e-01 -9.651673e-02 -6.788325e-02 -1.775316e-01 -5.738921e-02 3.525601e-02 -5.724717e-02 1.203072e-01 1.883627e-01 4.181223e-02 -2.925390e-02 -2.727002e-02 -7.100113e-02
<VARIANCE> 39
 3.796329e+01 3.986874e+01 3.421088e+01 6.247984e+01 2.637430e+01 4.601652e+01 3.799054e+01 5.634333e+01 8.516760e+01 3.502084e+01 3.778773e+01 1.639902e+01 3.541847e+01 3.374962e+00 2.607606e+00 1.816245e+00 4.141347e+00 1.932731e+00 3.570171e+00 3.168071e+00 3.512530e+00 6.807509e+00 1.954116e+00 2.966038e+00 1.185855e+00 2.607825e+00 3.593052e-01 4.704413e-01 3.257521e-01 6.104254e-01 3.402523e-01 5.294332e-01 3.944550e-01 4.892274e-01 7.369398e-01 3.448691e-01 4.724008e-01 1.810135e-01 2.489426e-01
<GCONST> 1.208002e+02
<STATE> 4
<MEAN> 39
 -7.194058e+00 3.158731e+00 3.269930e-01 3.915160e+00 3.695941e+00 -2.609398e+00 -2.286276e+00 -5.893568e+00 -9.682615e+00 1.445485e+00 7.938334e+00 -4.946464e-02 6.961480e+01 -2.417413e-01 1.716255e-01 1.543596e-02 -2.508850e-02 2.846286e-02 1.022399e-01 -6.961922e-02 2.698787e-01 7.206582e-01 1.910025e-01 -3.868854e-01 -2.184336e-01 -2.845812e-01 -3.317225e-02 8.779737e-03 -2.522791e-02 -6.672291e-02 -5.793564e-02 4.866813e-03 -2.451402e-02 -7.672693e-03 7.945865e-02 -1.576976e-02 -8.201954e-02 -1.413288e-02 -3.729189e-02
<VARIANCE> 39
 4.619429e+01 2.871782e+01 3.049332e+01 5.820457e+01 2.419617e+01 3.541764e+01 5.211059e+01 5.430500e+01 1.074666e+02 2.468586e+01 4.304523e+01 1.714775e+01 3.848663e+01 2.146407e+00 2.442494e+00 1.709985e+00 2.877400e+00 1.745201e+00 2.270118e+00 3.273368e+00 3.010729e+00 6.441340e+00 1.242703e+00 3.321888e+00 1.228115e+00 1.708161e+00 2.402624e-01 3.715444e-01 2.676074e-01 5.112475e-01 2.896254e-01 3.997140e-01 5.050997e-01 4.803664e-01 8.876975e-01 2.309686e-01 5.328155e-01 1.898936e-01 1.942060e-01
<GCONST> 1.166327e+02
<TRANSP> 5
 0.000000e+00 1.000000e+00 0.000000e+00 0.000000e+00 0.000000e+00
 0.000000e+00 8.036103e-01 1.963896e-01 0.000000e+00 0.000000e+00
 0.000000e+00 0.000000e+00 6.891978e-01 3.108022e-01 0.000000e+00
 0.000000e+00 0.000000e+00 0.000000e+00 8.736087e-01 1.263914e-01
 0.000000e+00 0.000000e+00 0.000000e+00 0.000000e+00 0.000000e+00
<ENDHMM>
~h "f"
<BEGINHMM>
<NUMSTATES> 5
<STATE> 2
<MEAN> 39
 -1.032521e+01 5.207842e+00 7.799225e+00 1.212239e+01 8.151402e+00 -3.310603e+00 -4.875314e+00 -6.182064e-01 -8.814157e+00 -4.242066e+00 6.096486e+00 -3.523562e+00 6.682817e+01 -2.368437e-01 -2.104237e-01 -1.026253e-01 4.070789e-02 1.941857e-02 -1.361421e-02 4.185482e-02 1.815895e-01 1.739471e-01 1.276946e-01 3.122387e-02 -7.885626e-02 -1.248916e-01 1.793648e-03 4.042368e-02 -4.462622e-02 -4.635057e-02 -2.125667e-02 3.039030e-02 6.004032e-02 3.670701e-02 3.172402e-02 -1.588125e-03 -2.669245e-02 5.014231e-02 -2.959710e-02
<VARIANCE> 39
 3.052056e+01 2.130911e+01 3.505651e+01 6.037035e+01 2.840174e+01 3.253058e+01 6.182018e+01 3.054174e+01 8.264571e+01 2.780821e+01 2.693672e+01 1.149240e+01 2.391731e+01 7.385288e-01 2.263688e+00 1.161071e+00 2.227593e+00 1.731084e+00 2.032120e+00 4.300680e+00 1.630271e+00 4.099007e+00 1.549803e+00 1.653814e+00 1.260584e+00 1.050644e+00 1.001562e-01 3.351365e-01 1.754865e-01 2.559872e-01 2.490219e-01 2.330243e-01 6.819653e-01 3.243543e-01 5.586354e-01 2.205433e-01 2.311166e-01 1.995556e-01 1.232051e-01
<GCONST> 1.060194e+02
<STATE> 3
<MEAN> 39
 -1.797400e+01 3.963965e+00 4.743035e-01 3.238116e+00 2.154500e+00 1.684229e+00 2.705163e+00 3.363456e+00 1.571066e+00 9.404001e-01 8.404417e-01 -1.517446e+00 6.019281e+01 -3.416684e-01 1.732785e-02 -2.431012e-01 -5.372260e-01 -9.519380e-02 6.055264e-01 7.311181e-01 6.131982e-01 7.078820e-01 3.011684e-01 -1.346099e-01 3.362007e-01 -2.801347e-01 -5.906939e-03 -1.382918e-01 -9.507536e-02 -7.616291e-03 2.028747e-02 -8.929389e-02 -2.944848e-02 6.515647e-02 -3.517148e-02 4.965472e-02 1.311959e-01 -5.962798e-03 3.195402e-02
<VARIANCE> 39
 2.452004e+01 1.882199e+01 3.373457e+01 4.391022e+01 1.475987e+01 1.111189e+01 1.527664e+01 1.912125e+01 2.808213e+01 5.994294e+00 9.415899e+00 7.788351e+00 8.131338e+00 3.434325e-01 3.727207e-01 7.271262e-01 1.119735e+00 3.099005e-01 1.439452e+00 2.242393e+00 1.881129e+00 2.255304e+00 6.056843e-01 1.142955e+00 1.582177e+00 2.311654e-01 2.766081e-02 1.027009e-01 1.668036e-01 1.261609e-01 5.866364e-02 1.755330e-01 3.357204e-01 2.836672e-01 1.913577e-01 7.593798e-02 2.331121e-01 3.447014e-01 1.265111e-02
<GCONST> 7.744188e+01
<STATE> 4
<MEAN> 39
 -1.052833e+01 1.605069e+00 2.300820e+00 4.152082e+00 6.013968e+00 -2.214445e-01 -3.193414e+00 -5.545865e+00 -6.296936e+00 6.241973e-01 4.256653e+00 -2.183139e+00 6.890852e+01 6.188649e-02 -4.554986e-02 1.137307e-01 1.100551e-01 3.804908e-02 2.626329e-02 -2.341091e-02 -5.499117e-03 1.727046e-02 -6.792215e-02 6.206347e-02 -1.413045e-02 9.509712e-02 -5.012887e-02 -1.891813e-03 -5.079721e-02 -8.023211e-02 -1.304064e-02 1.024276e-02 -1.160602e-02 5.827710e-03 3.908433e-02 8.168176e-03 -1.529458e-02 -4.630246e-04 -3.194213e-02
<VARIANCE> 39
 7.173334e+01 2.517410e+01 3.566736e+01 8.241885e+01 2.259705e+01 1.910242e+01 3.500046e+01 5.824163e+01 5.411554e+01 2.449600e+01 2.275275e+01 1.527145e+01 3.243667e+01 7.289749e+00 2.421443e+00 3.001923e+00 8.190199e+00 3.330133e+00 2.153740e+00 3.473884e+00 8.177500e+00 6.689627e+00 2.161636e+00 3.153650e+00 1.558135e+00 2.619543e+00 1.109233e+00 3.800883e-01 4.812868e-01 1.364784e+00 7.094544e-01 3.657062e-01 5.711008e-01 1.589287e+00 1.120050e+00 4.245145e-01 6.781212e-01 2.761452e-01 3.584305e-01
<GCONST> 1.278108e+02
<TRANSP> 5
 0.000000e+00 1.000000e+00 0.000000e+00 0.000000e+00 0.000000e+00
 0.000000e+00 9.650486e-01 3.495144e-02 0.000000e+00 0.000000e+00
 0.000000e+00 0.000000e+00 7.575505e-01 2.424494e-01 0.000000e+00
 0.000000e+00 0.000000e+00 0.000000e+00 9.558882e-01 4.411181e-02
 0.000000e+00 0.000000e+00 0.000000e+00 0.000000e+00 0.000000e+00
<ENDHMM>
~h "g"
<BEGINHMM>
<NUMSTATES> 5
<STATE> 2
<MEAN> 39
 -4.334191e+00 5.662237e+00 3.403804e-01 2.687900e+00 1.045406e-02 -3.599685e+00 -1.846708e+00 -1.065133e+00 -6.310873e+00 -2.028048e+00 5.169982e+00 -2.869442e+00 7.006284e+01 5.187729e-02 -1.499476e-01 1.352234e-01 4.076234e-01 1.024891e-01 -1.994236e-01 -3.127338e-01 -2.430295e-01 2.018624e-01 2.667990e-01 6.852923e-02 -2.411494e-01 1.069153e-01 1.568513e-02 -7.957021e-02 6.592577e-03 6.246457e-02 3.475197e-02 -6.985100e-02 -8.324449e-02 -8.996741e-02 -8.593122e-02 -3.128204e-02 4.241393e-02 4.523656e-03 5.534374e-02
<VARIANCE> 39
 3.595685e+01 3.184431e+01 3.935708e+01 1.709805e+01 3.335092e+01 2.628722e+01 2.238258e+01 2.304573e+01 4.980882e+01 4.966508e+01 1.854509e+01 1.392078e+01 2.283617e+01 9.764884e-01 2.638574e+00 2.349190e+00 1.099120e+00 1.156685e+00 1.749885e+00 1.723099e+00 2.758860e+00 2.955766e+00 1.278251e+00 1.340530e+00 1.205336e+00 1.224174e+00 1.102500e-01 3.226454e-01 2.891536e-01 1.645652e-01 1.261137e-01 3.049197e-01 2.678182e-01 3.574097e-01 3.921379e-01 2.627225e-01 1.991367e-01 2.052068e-01 1.214518e-01
<GCONST> 1.013552e+02
<STATE> 3
<MEAN> 39
 -9.345303e+00 3.880751e+00 1.421153e+00 6.218100e+00 3.079747e+00 -1.836192e+00 -2.749467e+00 -3.783423e+00 -1.255124e+00 3.411372e+00 3.401423e+00 -3.095200e+00 6.714030e+01 3.709697e-01 -7.610357e-01 2.335846e-01 1.026408e+00 7.143437e-01 -4.354145e-01 -9.996352e-01 -1.084511e+00 -8.112375e-01 -2.172130e-01 3.319708e-01 -2.514049e-01 6.883938e-01 1.315593e-01 1.064949e-02 3.294168e-02 1.051668e-01 1.420087e-01 -7.361490e-02 -7.338595e-02 1.552163e-02 -3.613794e-01 -1.745370e-01 6.436997e-02 5.620084e-02 8.745435e-02
<VARIANCE> 39
 3.996714e+01 2.081125e+01 2.452690e+01 3.321124e+01 1.434196e+01 1.859840e+01 2.939330e+01 5.570754e+01 5.896390e+01 3.441285e+01 1.218522e+01 9.713167e+00 2.570608e+01 1.647172e+00 3.872883e+00 1.504669e+00 1.498216e+00 6.851358e-01 2.918303e+00 2.562134e+00 6.256176e+00 5.426989e+00 1.271868e+00 1.389820e+00 1.447966e+00 2.625836e+00 1.714571e-01 4.004014e-01 2.661633e-01 3.517557e-01 1.765738e-01 5.136192e-01 6.239545e-01 8.272983e-01 5.522142e-01 2.911969e-01 2.230531e-01 2.266979e-01 2.447563e-01
<GCONST> 1.091279e+02
<STATE> 4
<MEAN> 39
 -5.189115e+00 -2.096324e-01 2.405017e+00 1.135061e+01 8.740028e+00 -5.517707e+00 -7.636031e+00 -8.727772e+00 -1.825516e+01 -2.899729e+00 9.873124e+00 -2.628468e+00 7.220465e+01 -2.209132e-01 2.823202e-01 1.026959e-01 -5.364997e-02 5.930544e-02 2.770619e-01 3.011786e-01 4.006810e-01 3.710101e-01 6.041389e-02 -1.344682e-01 4.335723e-02 -2.858779e-01 -1.843822e-01 9.558827e-02 -5.355129e-02 -1.858853e-01 -1.157158e-01 1.012502e-01 2.031184e-01 2.542749e-01 3.254970e-01 9.294133e-02 -1.000939e-01 4.708018e-02 -1.922095e-01
<VARIANCE> 39
 2.686884e+01 1.933354e+01 1.905228e+01 4.153277e+01 1.850554e+01 3.669263e+01 2.775363e+01 4.907297e+01 1.163333e+02 3.054707e+01 2.710206e+01 9.129360e+00 2.146502e+01 2.965198e+00 1.560311e+00 1.443500e+00 5.304927e+00 2.162595e+00 4.679100e+00 4.066921e+00 4.395851e+00 1.128567e+01 2.158653e+00 2.246230e+00 1.058460e+00 2.556187e+00 1.924226e-01 2.811458e-01 2.694481e-01 7.369559e-01 2.903817e-01 7.705510e-01 4.490353e-01 6.319654e-01 9.773012e-01 2.851533e-01 3.034397e-01 1.806577e-01 1.680260e-01
<GCONST> 1.156020e+02
<TRANSP> 5
 0.000000e+00 1.000000e+00 0.000000e+00 0.000000e+00 0.000000e+00
 0.000000e+00 7.779615e-01 2.220385e-01 0.000000e+00 0.000000e+00
 0.000000e+00 0.000000e+00 4.639557e-01 5.360443e-01 0.000000e+00
 0.000000e+00 0.000000e+00 0.000000e+00 9.260963e-01 7.390375e-02
 0.000000e+00 0.000000e+00 0.000000e+00 0.000000e+00 0.000000e+00
<ENDHMM>
~h "i"
<BEGINHMM>
<NUMSTATES> 5
<STATE> 2
<MEAN> 39
 -1.498070e+01 4.546418e+00 9.318691e-01 2.610539e+00 1.899640e+00 4.074603e-01 1.125153e+00 1.467985e+00 8.636837e-01 1.281791e+00 2.787603e+00 -1.108072e-01 6.262880e+01 -6.059281e-01 -2.575881e-01 -2.766753e-01 -4.103167e-01 -1.695554e-01 1.913158e-01 3.178225e-01 3.781397e-01 5.923648e-01 3.970832e-01 1.577092e-02 3.190653e-02 -3.738499e-01 1.890552e-01 -1.030603e-02 -1.644964e-02 -8.729056e-03 -3.415240e-02 -1.131568e-01 -7.788073e-02 -1.371810e-01 -3.172498e-01 -8.945432e-02 5.988085e-02 -7.462180e-02 1.472248e-01
<VARIANCE> 39
 4.377309e+01 1.873022e+01 2.142976e+01 3.067619e+01 2.548582e+01 1.905302e+01 3.070844e+01 2.807967e+01 4.181528e+01 2.171602e+01 1.806299e+01 1.194019e+01 2.392486e+01 1.577941e+00 1.509884e+00 1.409090e+00 1.459528e+00 1.227635e+00 1.940718e+00 1.830879e+00 1.798294e+00 2.828513e+00 1.579266e+00 1.171490e+00 9.634923e-01 6.718866e-01 2.704855e-01 2.067435e-01 2.146521e-01 1.922631e-01 2.074842e-01 3.723509e-01 3.716415e-01 3.604520e-01 5.279111e-01 3.124388e-01 3.026933e-01 1.971600e-01 1.396529e-01
<GCONST> 1.008169e+02
<STATE> 3
<MEAN> 39
 -1.668760e+01 3.707358e+00 -3.816974e-01 1.204667e+00 1.088688e+00 7.406152e-01 1.854605e+00 2.258761e+00 2.113959e+00 1.901490e+00 2.241488e+00 -4.265515e-01 6.143447e+01 -3.305879e-01 -1.854007e-01 -2.189512e-01 -3.098008e-01 -1.619527e-01 6.953411e-02 1.399469e-01 1.312060e-01 2.003017e-01 2.163037e-01 4.205456e-02 -4.244792e-02 -1.955113e-01 1.015392e-01 1.029014e-02 4.017686e-02 3.045522e-02 2.719026e-02 -6.784119e-02 -6.748140e-02 -8.262240e-02 -1.709781e-01 -7.050243e-02 6.723396e-03 -3.523210e-02 8.959209e-02
<VARIANCE> 39
 3.963789e+01 1.591826e+01 1.952175e+01 2.223227e+01 1.920001e+01 1.641215e+01 2.289451e+01 2.310903e+01 3.268040e+01 1.614998e+01 1.729682e+01 1.163294e+01 1.946181e+01 1.013064e+00 1.171699e+00 1.387158e+00 1.213956e+00 1.042567e+00 1.351587e+00 1.505500e+00 1.568401e+00 1.948448e+00 1.484349e+00 9.920276e-01 7.838535e-01 3.872728e-01 1.599927e-01 1.634168e-01 1.778658e-01 1.562454e-01 2.130613e-01 2.943935e-01 2.967280e-01 3.010722e-01 4.036040e-01 2.654273e-01 2.141673e-01 1.900245e-01 8.204362e-02
<GCONST> 9.217233e+01
<STATE> 4
<MEAN> 39
 -1.845701e+01 2.530337e+00 -1.759283e+00 -2.208105e-01 1.051619e-01 6.370088e-01 2.317874e+00 2.957938e+00 3.028626e+00 2.228038e+00 1.971526e+00 -4.028798e-01 6.036082e+01 -1.527676e-01 -1.262769e-01 -4.254221e-02 -1.388175e-01 -6.150657e-02 3.557382e-02 3.346576e-02 9.370749e-03 -1.059298e-02 6.394048e-02 6.911950e-02 -1.408742e-02 -4.567656e-02 8.150274e-02 2.536497e-02 9.150736e-02 7.627733e-02 6.062614e-02 -3.698770e-03 -4.615964e-02 -6.428789e-02 -1.292179e-01 -8.920207e-02 -1.329662e-02 -2.874747e-02 7.066202e-02
<VARIANCE> 39
 3.121842e+01 1.260885e+01 1.529910e+01 1.535942e+01 1.527544e+01 1.404512e+01 1.768886e+01 2.017299e+01 2.420984e+01 1.189074e+01 1.307467e+01 9.733047e+00 1.427361e+01 6.045974e-01 7.446808e-01 1.035724e+00 9.595036e-01 1.054100e+00 1.083758e+00 1.480052e+00 1.511776e+00 1.529629e+00 1.135988e+00 8.096402e-01 7.421504e-01 3.221861e-01 1.251835e-01 1.599675e-01 1.572265e-01 1.566780e-01 2.203622e-01 2.327686e-01 2.660874e-01 2.687277e-01 2.869968e-01 2.208855e-01 1.419023e-01 1.564836e-01 5.714066e-02
<GCONST> 8.391925e+01
<TRANSP> 5
 0.000000e+00 1.000000e+00 0.000000e+00 0.000000e+00 0.000000e+00
 0.000000e+00 3.900523e-01 6.099477e-01 0.000000e+00 0.000000e+00
 0.000000e+00 0.000000e+00 5.022590e-01 4.977411e-01 0.000000e+00
 0.000000e+00 0.000000e+00 0.000000e+00 6.764002e-01 3.235997e-01
 0.000000e+00 0.000000e+00 0.000000e+00 0.000000e+00 0.000000e+00
<ENDHMM>
~h "j"
<BEGINHMM>
<NUMSTATES> 5
<STATE> 2
<MEAN> 39
 -1.114530e+01 1.654182e+00 -3.684911e+00 -2.236132e+00 -1.439526e+00 -1.540879e+00 2.747770e+00 7.657901e-01 -2.554100e+00 3.944103e+00 5.117062e+00 5.832670e-01 6.645425e+01 2.243786e-01 2.415718e-01 9.263724e-02 -4.444347e-02 -2.114486e-02 -3.027631e-01 -1.957552e-01 -2.336285e-02 5.057854e-02 -1.167541e-01 -2.914736e-03 4.044877e-02 1.337244e-01 4.910267e-02 -3.397803e-02 -2.047474e-02 3.306711e-02 1.560264e-02 -2.764978e-02 5.196759e-03 1.160580e-02 -1.073124e-02 2.457413e-02 6.726023e-03 -1.607450e-02 4.217046e-02
<VARIANCE> 39
 8.841901e+01 2.047353e+01 1.422916e+01 2.056835e+01 2.150385e+01 1.771497e+01 1.628040e+01 2.574696e+01 8.600842e+01 7.814570e+00 2.146516e+01 1.442182e+01 6.238760e+01 6.346113e+00 2.288173e+00 1.388616e+00 1.432896e+00 1.855738e+00 1.858017e+00 1.591167e+00 2.325662e+00 6.715209e+00 9.466956e-01 2.123219e+00 1.863995e+00 4.888167e+00 7.061310e-01 4.042408e-01 2.554030e-01 2.554953e-01 3.737395e-01 3.089408e-01 2.999993e-01 4.497781e-01 7.702684e-01 1.979881e-01 3.174701e-01 3.437511e-01 5.451973e-01
<GCONST> 1.110920e+02
<STATE> 3
<MEAN> 39
 -4.948487e+00 6.482943e-01 -3.633610e+00 -1.043537e+00 -2.036667e+00 -5.676472e+00 -1.982322e-01 -6.798786e-01 -5.958711e+00 2.561375e+00 6.224592e+00 -6.411799e-01 7.174556e+01 1.101426e+00 1.110610e-02 -8.212908e-02 2.362580e-01 -2.374463e-01 -3.583720e-01 -7.682458e-02 -2.339768e-01 -5.232541e-01 8.628749e-02 2.455802e-01 -6.669930e-02 7.488653e-01 -2.086909e-01 2.537291e-02 3.096613e-02 8.178096e-02 5.794505e-02 1.520125e-01 5.756090e-02 4.714219e-02 1.460212e-01 4.223878e-02 -3.197184e-02 1.528512e-02 -1.933208e-01
<VARIANCE> 39
 6.653316e+01 2.606832e+01 1.764487e+01 3.728181e+01 2.988290e+01 2.759300e+01 2.139924e+01 1.805220e+01 5.098304e+01 8.397861e+00 2.510983e+01 1.004378e+01 4.323779e+01 5.874683e+00 1.628378e+00 1.592448e+00 1.672531e+00 1.964966e+00 2.320446e+00 1.897018e+00 1.880342e+00 4.550960e+00 6.502558e-01 2.354548e+00 1.058929e+00 3.714634e+00 7.098989e-01 2.699022e-01 2.595699e-01 2.976886e-01 3.688923e-01 3.272708e-01 3.397285e-01 4.088149e-01 4.605156e-01 1.009336e-01 3.058586e-01 1.810166e-01 3.900602e-01
<GCONST> 1.077851e+02
<STATE> 4
<MEAN> 39
 -3.926789e+00 3.610389e+00 -1.055953e+00 2.714547e+00 1.344196e-01 -4.688161e+00 -2.180360e+00 -1.961954e+00 -4.944849e+00 3.056648e+00 5.814978e+00 -1.033802e+00 7.114225e+01 -6.703160e-01 8.209175e-01 8.081013e-01 7.840383e-01 6.445937e-01 2.900176e-01 -4.565997e-01 1.575904e-01 1.047907e+00 2.036663e-02 -6.688841e-01 -1.295453e-01 -8.019915e-01 -1.041280e-01 -4.927678e-02 -3.162133e-02 -3.414467e-02 4.849905e-03 3.500800e-02 8.133620e-02 7.527905e-02 4.135127e-02 1.731663e-02 -1.043740e-02 2.146364e-02 -5.891852e-02
<VARIANCE> 39
 2.547256e+01 3.648116e+01 3.296978e+01 4.525444e+01 3.159439e+01 2.461283e+01 3.294201e+01 1.356195e+01 4.559105e+01 1.110757e+01 2.645292e+01 7.162626e+00 2.783057e+01 1.919418e+00 2.095529e+00 1.822560e+00 1.335173e+00 1.515841e+00 1.019174e+00 3.408158e+00 1.384249e+00 3.446460e+00 7.762976e-01 2.655459e+00 7.694607e-01 1.456572e+00 2.320148e-01 3.326842e-01 2.781034e-01 1.880087e-01 2.378206e-01 1.727421e-01 5.738889e-01 2.283127e-01 5.126977e-01 1.386105e-01 4.360620e-01 1.618258e-01 1.819759e-01
<GCONST> 1.019813e+02
<TRANSP> 5
 0.000000e+00 1.000000e+00 0.000000e+00 0.000000e+00 0.000000e+00
 0.000000e+00 8.717735e-01 1.282265e-01 0.000000e+00 0.000000e+00
 0.000000e+00 0.000000e+00 7.278998e-01 2.721002e-01 0.000000e+00
 0.000000e+00 0.000000e+00 0.000000e+00 8.445791e-01 1.554209e-01
 0.000000e+00 0.000000e+00 0.000000e+00 0.000000e+00 0.000000e+00
<ENDHMM>
~h "k"
<BEGINHMM>
<NUMSTATES> 5
<STATE> 2
<MEAN> 39
 -1.090053e+01 1.492436e+00 -2.507172e+00 -2.553020e+00 -1.079065e+00 -5.377687e-01 1.152412e+00 -5.644190e-01 -3.812315e+00 3.055825e+00 6.041057e+00 -4.129012e-01 6.711497e+01 4.199921e-01 7.487463e-02 -9.777244e-03 -1.422604e-01 -1.651381e-01 -1.166418e-01 -1.248619e-01 -6.192806e-02 -1.495429e-01 -3.357882e-02 3.508204e-02 -1.140771e-02 2.841656e-01 -3.972806e-02 -3.309697e-02 -2.986128e-02 -6.895754e-03 1.316608e-04 3.601950e-02 3.097556e-02 4.421723e-02 4.827527e-02 -5.738160e-03 1.988310e-03 9.167103e-03 -2.442338e-02
<VARIANCE> 39
 9.155972e+01 2.084773e+01 1.439053e+01 2.838510e+01 2.542183e+01 2.654297e+01 1.994998e+01 3.251606e+01 8.257129e+01 1.232356e+01 2.894373e+01 1.356898e+01 6.201397e+01 6.403417e+00 2.292697e+00 1.310971e+00 1.930432e+00 1.782036e+00 2.047415e+00 1.744965e+00 2.907972e+00 6.212382e+00 1.206076e+00 2.341286e+00 1.526329e+00 4.577762e+00 6.827776e-01 4.347569e-01 2.502836e-01 3.235909e-01 2.750684e-01 3.605317e-01 3.293373e-01 4.918061e-01 7.962686e-01 2.361230e-01 3.681201e-01 3.341488e-01 4.992607e-01
<GCONST> 1.142806e+02
<STATE> 3
<MEAN> 39
 -1.018351e+01 3.206752e+00 -1.572778e+00 1.413012e-01 -1.421018e+00 -1.640117e+00 9.657232e-01 -5.261153e-02 -1.909523e+00 3.068379e+00 4.906207e+00 -1.091969e+00 6.641521e+01 -1.105535e-01 2.614453e-02 -4.584101e-02 -6.125000e-02 1.382900e-03 2.449638e-01 2.329282e-01 1.135426e-01 3.148026e-01 3.954443e-02 -1.347127e-01 1.049428e-01 -1.141436e-01 -3.947849e-02 -3.164756e-02 -1.652494e-03 3.108573e-03 3.721958e-02 7.450271e-04 5.014280e-02 4.304443e-03 -3.927476e-02 1.532230e-02 2.612103e-02 -1.997801e-02 2.036415e-03
<VARIANCE> 39
 7.793634e+01 1.464215e+01 1.543981e+01 3.065870e+01 3.040890e+01 3.740100e+01 2.413281e+01 3.017278e+01 5.546247e+01 1.081655e+01 2.376387e+01 1.460937e+01 4.717929e+01 2.811302e+00 9.734942e-01 1.007424e+00 1.252315e+00 1.361931e+00 1.576948e+00 1.611326e+00 2.280014e+00 3.111427e+00 8.345729e-01 1.344186e+00 1.006341e+00 1.677651e+00 3.211395e-01 1.900858e-01 1.627029e-01 1.871355e-01 2.019109e-01 2.702583e-01 2.929885e-01 3.419580e-01 3.554928e-01 1.691756e-01 2.191499e-01 1.938588e-01 1.914326e-01
<GCONST> 1.005631e+02
<STATE> 4
<MEAN> 39
 -1.073127e+01 3.406656e+00 -2.204922e+00 1.297348e-01 -6.862029e-01 -2.451137e-01 1.844236e+00 -4.020966e-01 -1.189998e+00 3.638790e+00 4.813314e+00 -4.758153e-01 6.570821e+01 -4.262915e-01 1.715547e-01 1.149386e-01 2.867248e-01 4.473628e-01 3.173502e-01 8.181930e-02 1.518647e-01 4.821741e-01 1.503547e-01 -2.102586e-01 -5.643452e-03 -3.952088e-01 -9.294538e-03 -2.901860e-04 4.919513e-02 7.799070e-02 5.862389e-02 -2.553947e-02 -4.121035e-02 8.693936e-03 -8.649123e-03 7.695215e-04 -4.999132e-03 -4.075514e-02 1.986584e-03
<VARIANCE> 39
 7.702046e+01 1.222655e+01 1.516630e+01 2.871422e+01 2.500059e+01 2.360307e+01 2.442839e+01 3.764798e+01 5.675768e+01 9.678411e+00 2.385650e+01 1.014677e+01 4.342504e+01 5.477176e-01 7.117614e-01 7.105026e-01 1.254795e+00 1.113224e+00 1.172029e+00 1.572410e+00 1.379727e+00 1.960973e+00 7.573217e-01 1.112593e+00 8.258485e-01 3.537000e-01 5.739843e-02 1.123183e-01 1.071866e-01 1.836192e-01 1.726814e-01 1.932719e-01 2.596486e-01 1.738401e-01 2.566634e-01 1.304853e-01 2.089252e-01 1.568390e-01 3.677909e-02
<GCONST> 8.704192e+01
<TRANSP> 5
 0.000000e+00 1.000000e+00 0.000000e+00 0.000000e+00 0.000000e+00
 0.000000e+00 8.418356e-01 1.581644e-01 0.000000e+00 0.000000e+00
 0.000000e+00 0.000000e+00 5.066579e-01 4.933421e-01 0.000000e+00
 0.000000e+00 0.000000e+00 0.000000e+00 7.660388e-01 2.339612e-01
 0.000000e+00 0.000000e+00 0.000000e+00 0.000000e+00 0.000000e+00
<ENDHMM>
~h "l"
<BEGINHMM>
<NUMSTATES> 5
<STATE> 2
<MEAN> 39
 -5.399258e+00 4.901249e+00 4.502828e+00 9.533268e+00 4.942370e+00 -6.247528e+00 -5.317442e+00 -3.927465e+00 -1.079447e+01 -2.584322e+00 4.892846e+00 -3.227387e+00 7.031323e+01 1.602833e-01 3.083434e-01 2.942997e-01 3.281045e-02 -2.512782e-02 1.042149e-01 -1.739599e-01 -2.313879e-01 -1.310672e-01 -9.485349e-02 -2.947074e-02 -1.282885e-01 2.652772e-02 -9.557290e-02 -3.397999e-02 -2.533686e-02 -8.600658e-02 -3.552810e-02 8.352242e-02 8.297580e-02 2.380817e-02 5.395566e-02 3.612732e-03 -8.014732e-03 4.861097e-02 -5.109780e-02
<VARIANCE> 39
 2.115248e+01 3.116163e+01 3.415406e+01 7.618018e+01 3.468810e+01 4.061182e+01 3.859353e+01 2.584734e+01 4.976283e+01 4.093113e+01 2.553686e+01 2.417727e+01 1.928347e+01 1.480234e+00 2.587919e+00 1.339795e+00 2.226013e+00 1.272936e+00 2.444452e+00 2.423759e+00 1.703770e+00 4.017857e+00 1.965318e+00 1.492922e+00 1.286020e+00 1.376906e+00 1.409624e-01 4.256259e-01 1.963597e-01 3.092636e-01 2.240638e-01 3.691160e-01 3.768367e-01 2.524904e-01 5.787430e-01 3.320229e-01 2.356835e-01 2.176701e-01 1.555225e-01
<GCONST> 1.082794e+02
<STATE> 3
<MEAN> 39
 -5.518963e+00 5.780313e+00 3.984627e+00 6.829473e+00 2.715959e+00 -3.946134e+00 -3.735470e+00 -5.012472e+00 -1.004448e+01 -1.547592e+00 4.972084e+00 -3.104207e+00 6.978247e+01 -9.447823e-02 -1.336937e-01 -4.595310e-02 -1.774084e-01 7.612268e-03 2.354181e-01 8.111288e-02 -6.796294e-02 -1.448640e-01 -7.175514e-03 2.009928e-01 2.275975e-01 7.851531e-03 -1.320525e-01 -1.555116e-01 -8.322527e-02 -1.043059e-02 5.797230e-02 -1.844521e-02 -1.584000e-02 7.209881e-02 1.090083e-01 8.766893e-02 6.594784e-02 8.019727e-02 -3.915873e-02
<VARIANCE> 39
 2.284880e+01 2.548152e+01 2.557331e+01 4.925468e+01 3.578043e+01 3.123162e+01 3.219770e+01 2.776899e+01 5.652907e+01 3.219368e+01 2.191607e+01 2.147139e+01 1.999625e+01 1.584170e+00 2.406699e+00 1.654903e+00 1.526613e+00 1.462858e+00 2.189916e+00 2.181641e+00 1.772185e+00 3.863653e+00 1.703654e+00 1.795945e+00 1.676757e+00 1.630300e+00 1.271100e-01 3.471830e-01 2.729205e-01 2.333970e-01 2.351990e-01 3.294475e-01 3.664018e-01 2.473136e-01 4.701363e-01 2.867973e-01 2.544182e-01 3.164988e-01 1.408304e-01
<GCONST> 1.065944e+02
<STATE> 4
<MEAN> 39
 -4.578919e+00 1.708287e+00 1.167608e+00 6.717698e+00 5.214311e+00 -4.531836e+00 -6.013703e+00 -6.357333e+00 -1.303649e+01 1.123718e+00 1.151618e+01 -1.560455e+00 7.180684e+01 -2.709312e-01 -8.686130e-02 -1.489509e-01 -1.241215e-01 2.437332e-03 2.430725e-01 2.855968e-01 2.551750e-01 3.849767e-01 2.392170e-01 3.516056e-02 1.721712e-01 -2.038141e-01 -7.112546e-02 6.685142e-02 3.913911e-02 -1.234547e-02 2.881940e-03 6.243349e-02 4.671051e-02 5.951779e-02 1.383607e-01 3.649437e-03 -8.919993e-02 -8.162048e-03 -7.409995e-02
<VARIANCE> 39
 1.757286e+01 2.956244e+01 1.903463e+01 3.516987e+01 3.153383e+01 1.947843e+01 4.429725e+01 2.536021e+01 5.093478e+01 2.999449e+01 5.245188e+01 1.468354e+01 1.916866e+01 7.672374e-01 1.882207e+00 1.209692e+00 1.464494e+00 1.191439e+00 1.556399e+00 2.082902e+00 1.116831e+00 2.659330e+00 1.513800e+00 2.342793e+00 1.273819e+00 9.359469e-01 6.811324e-02 2.074429e-01 2.059804e-01 2.313326e-01 1.755291e-01 2.292832e-01 2.977673e-01 1.867740e-01 3.323472e-01 2.777575e-01 3.023854e-01 2.278845e-01 8.436420e-02
<GCONST> 9.869791e+01
<TRANSP> 5
 0.000000e+00 1.000000e+00 0.000000e+00 0.000000e+00 0.000000e+00
 0.000000e+00 8.482075e-01 1.517925e-01 0.000000e+00 0.000000e+00
 0.000000e+00 0.000000e+00 7.210534e-01 2.789467e-01 0.000000e+00
 0.000000e+00 0.000000e+00 0.000000e+00 8.841985e-01 1.158014e-01
 0.000000e+00 0.000000e+00 0.000000e+00 0.000000e+00 0.000000e+00
<ENDHMM>
~h "m"
<BEGINHMM>
<NUMSTATES> 5
<STATE> 2
<MEAN> 39
 -1.971843e+01 2.539845e+00 -1.784887e+00 4.735140e-02 5.086414e-01 1.872777e+00 3.505076e+00 3.756251e+00 3.872508e+00 2.414347e+00 1.247468e+00 -5.414493e-01 5.929569e+01 -1.127016e-01 -7.731985e-02 -7.354572e-03 -1.073499e-01 -8.098470e-02 -2.898000e-02 -8.350665e-02 -6.352139e-02 -7.257518e-02 4.362652e-03 -3.249439e-02 1.423588e-02 -3.517372e-02 5.980464e-02 7.672920e-04 5.378121e-02 5.178735e-02 3.289293e-02 -5.909074e-02 -8.740337e-02 -8.300474e-02 -9.886755e-02 -5.344338e-02 -2.613099e-03 -3.250920e-02 6.184095e-02
<VARIANCE> 39
 1.478745e+01 1.142423e+01 1.338363e+01 1.314249e+01 9.077409e+00 7.518610e+00 1.157165e+01 1.502576e+01 1.572305e+01 8.054259e+00 6.270585e+00 6.194201e+00 5.773935e+00 5.141003e-01 6.384131e-01 7.871021e-01 1.067165e+00 7.871875e-01 7.712345e-01 1.299605e+00 1.600582e+00 1.264733e+00 9.683746e-01 8.006728e-01 6.383473e-01 2.475531e-01 9.688129e-02 1.420965e-01 1.500447e-01 1.834559e-01 1.249054e-01 1.647217e-01 2.445728e-01 2.710172e-01 2.778692e-01 2.310493e-01 1.631619e-01 1.173087e-01 4.274811e-02
<GCONST> 7.436282e+01
<STATE> 3
<MEAN> 39
 -1.804012e+01 3.627185e+00 -2.841807e-01 1.045983e+00 1.441116e+00 1.955191e+00 2.749391e+00 2.542911e+00 2.710253e+00 2.289542e+00 9.422758e-01 -1.117036e+00 6.046721e+01 3.210859e-02 -9.602383e-03 3.417104e-01 -6.446655e-02 -3.383713e-02 -2.209493e-01 -4.269838e-01 -3.542611e-01 -4.450628e-01 -2.370609e-01 -1.297154e-02 -3.943781e-02 1.671260e-01 1.095538e-01 -6.061538e-02 1.599058e-01 2.922703e-01 1.356627e-01 -1.437386e-01 -1.832140e-01 -1.563120e-01 -1.836234e-01 -8.742788e-02 1.201704e-01 -8.455397e-02 1.396631e-01
<VARIANCE> 39
 2.973195e+01 2.319221e+01 2.641255e+01 2.264019e+01 1.304001e+01 1.067955e+01 2.175173e+01 2.765462e+01 2.341954e+01 1.072621e+01 7.590103e+00 7.354097e+00 1.211140e+01 1.108472e+00 1.207523e+00 1.934414e+00 2.204338e+00 1.546049e+00 1.804834e+00 2.483562e+00 2.364410e+00 2.251946e+00 1.210179e+00 1.038812e+00 9.572115e-01 6.756496e-01 1.853129e-01 1.958839e-01 3.512482e-01 5.391723e-01 2.264940e-01 3.346910e-01 3.936519e-01 4.830334e-01 4.885855e-01 2.610920e-01 1.917943e-01 1.494997e-01 9.809940e-02
<GCONST> 9.597601e+01
<STATE> 4
<MEAN> 39
 -1.786338e+01 3.785979e+00 1.264930e+00 1.204459e+00 2.090169e+00 2.011364e+00 1.517605e+00 1.575020e+00 1.904289e+00 1.687567e+00 9.898818e-01 -1.274161e+00 6.118853e+01 3.241755e-01 -2.817508e-02 3.754724e-01 6.140550e-01 1.144611e-01 -5.308951e-01 -6.342400e-01 -5.292678e-01 -7.603654e-01 -3.216444e-01 3.173698e-01 -2.117964e-03 2.878982e-01 1.764811e-01 -1.164837e-01 1.584456e-02 3.637922e-01 1.239024e-01 -1.611678e-01 -7.287761e-02 -4.846517e-02 -1.700479e-01 -4.415842e-02 1.904372e-01 -9.138604e-02 1.446098e-01
<VARIANCE> 39
 3.710094e+01 2.742597e+01 3.578766e+01 4.279350e+01 1.744043e+01 1.602878e+01 3.724337e+01 3.385207e+01 3.017442e+01 1.418519e+01 9.009663e+00 1.109505e+01 1.497799e+01 1.839135e+00 1.300335e+00 3.824899e+00 4.408059e+00 1.548142e+00 2.158994e+00 3.121104e+00 2.476057e+00 3.018682e+00 1.339323e+00 1.094007e+00 1.112817e+00 1.244089e+00 2.383962e-01 2.833913e-01 6.357949e-01 8.848826e-01 2.254127e-01 4.998223e-01 6.946616e-01 6.341904e-01 5.536590e-01 2.802871e-01 2.758070e-01 2.664540e-01 1.585324e-01
<GCONST> 1.082516e+02
<TRANSP> 5
 0.000000e+00 1.000000e+00 0.000000e+00 0.000000e+00 0.000000e+00
 0.000000e+00 7.377436e-01 2.622564e-01 0.000000e+00 0.000000e+00
 0.000000e+00 0.000000e+00 3.312586e-01 6.687414e-01 0.000000e+00
 0.000000e+00 0.000000e+00 0.000000e+00 3.062962e-01 6.937038e-01
 0.000000e+00 0.000000e+00 0.000000e+00 0.000000e+00 0.000000e+00
<ENDHMM>
~h "n"
<BEGINHMM>
<NUMSTATES> 5
<STATE> 2
<MEAN> 39
 -8.044169e+00 5.959397e+00 5.852417e+00 6.286513e+00 6.763391e+00 -2.158278e+00 -7.883565e+00 -3.836658e+00 -7.146145e+00 -2.511134e+00 5.510334e+00 -2.992091e+00 6.863097e+01 5.362411e-01 3.463747e-01 1.009010e-01 1.815655e-01 1.995040e-01 -1.879942e-01 -3.436585e-01 -1.218279e-01 -3.254866e-01 -2.309050e-01 8.448328e-02 -3.278289e-03 2.576237e-01 -1.137902e-02 5.894980e-03 -8.558528e-02 -6.765278e-02 -9.613556e-02 1.105789e-02 1.185780e-01 4.237383e-02 1.986338e-02 3.899682e-02 -7.700086e-04 4.738342e-02 -3.410809e-02
<VARIANCE> 39
 4.789184e+01 4.575488e+01 3.267077e+01 5.496363e+01 5.324091e+01 2.661396e+01 6.161056e+01 3.217031e+01 5.058000e+01 3.563396e+01 2.619020e+01 1.790868e+01 2.087351e+01 2.140423e+00 3.971740e+00 2.705590e+00 3.655280e+00 3.085874e+00 2.970894e+00 3.703513e+00 3.219724e+00 4.968857e+00 2.405885e+00 2.935789e+00 1.658173e+00 1.445029e+00 2.306320e-01 6.280831e-01 4.025208e-01 5.853759e-01 4.932888e-01 5.563574e-01 6.096357e-01 5.995935e-01 7.632181e-01 4.149699e-01 5.042415e-01 3.019488e-01 1.731742e-01
<GCONST> 1.214923e+02
<STATE> 3
<MEAN> 39
 -5.552100e+00 6.699833e+00 3.729211e+00 5.014848e+00 5.452472e+00 -3.490098e+00 -8.035526e+00 -3.062568e+00 -7.103282e+00 -1.860546e+00 5.277981e+00 -3.374619e+00 6.969483e+01 1.970639e-01 -4.872585e-02 -1.812039e-01 -2.135839e-01 -2.965401e-01 -6.784892e-02 2.862325e-01 1.820900e-01 -9.482287e-02 3.224543e-02 1.110866e-01 1.420425e-01 1.478990e-01 -2.171387e-02 -9.757172e-02 -5.908417e-02 -3.793622e-02 -3.661380e-02 5.846300e-03 4.971153e-02 1.611479e-02 -3.755428e-02 1.483420e-02 6.920800e-02 2.574082e-02 2.146981e-02
<VARIANCE> 39
 2.506407e+01 3.276777e+01 3.195644e+01 3.448328e+01 3.118171e+01 2.221523e+01 5.191291e+01 2.997095e+01 5.495905e+01 2.950481e+01 3.525247e+01 2.032383e+01 2.252126e+01 1.316055e+00 2.542856e+00 2.151234e+00 2.717200e+00 1.800321e+00 1.891539e+00 2.577760e+00 2.260319e+00 4.617532e+00 1.723625e+00 3.677714e+00 1.657485e+00 1.321699e+00 1.194394e-01 3.561949e-01 2.657820e-01 4.040954e-01 3.360380e-01 3.319161e-01 4.495825e-01 4.086572e-01 8.041150e-01 3.197597e-01 6.145736e-01 2.984726e-01 1.332974e-01
<GCONST> 1.121400e+02
<STATE> 4
<MEAN> 39
 -5.605628e+00 4.707411e+00 1.429779e+00 4.237491e+00 3.589234e+00 -1.959486e+00 -3.329429e+00 -3.929289e+00 -7.196041e+00 2.339112e+00 7.220132e+00 -9.258498e-01 6.999056e+01 -2.791998e-01 -6.223933e-02 -1.367211e-01 -4.189222e-02 3.268182e-03 3.189433e-01 4.910374e-01 2.189934e-01 2.776777e-01 1.776736e-01 1.017343e-02 1.924193e-01 -2.234769e-01 -4.537152e-02 -2.903500e-02 -7.099325e-04 -1.366894e-02 -1.421505e-02 -2.012545e-02 -2.863682e-02 -5.150640e-03 2.484984e-02 -1.397985e-02 -3.543123e-02 -2.699042e-02 -1.573428e-02
<VARIANCE> 39
 2.526452e+01 2.684944e+01 2.062350e+01 1.972974e+01 2.123367e+01 3.318931e+01 3.934365e+01 3.326677e+01 6.077546e+01 2.304940e+01 4.194641e+01 2.012776e+01 2.564037e+01 8.834853e-01 1.739535e+00 1.362619e+00 1.302980e+00 9.954737e-01 1.265329e+00 1.603755e+00 1.931754e+00 3.490458e+00 1.025172e+00 2.509245e+00 1.127721e+00 9.649931e-01 6.458487e-02 2.707626e-01 2.155458e-01 2.073710e-01 1.760615e-01 2.363427e-01 2.692538e-01 2.859207e-01 4.945571e-01 1.872203e-01 3.553161e-01 1.867685e-01 9.299672e-02
<GCONST> 9.944739e+01
<TRANSP> 5
 0.000000e+00 1.000000e+00 0.000000e+00 0.000000e+00 0.000000e+00
 0.000000e+00 8.163324e-01 1.836676e-01 0.000000e+00 0.000000e+00
 0.000000e+00 0.000000e+00 7.649834e-01 2.350166e-01 0.000000e+00
 0.000000e+00 0.000000e+00 0.000000e+00 8.701228e-01 1.298772e-01
 0.000000e+00 0.000000e+00 0.000000e+00 0.000000e+00 0.000000e+00
<ENDHMM>
~h "o"
<BEGINHMM>
<NUMSTATES> 5
<STATE> 2
<MEAN> 39
 -9.321712e+00 5.580983e+00 1.027950e+00 1.515395e+00 1.664358e+00 -2.353290e+00 -1.011574e-02 -1.105615e+00 -4.711624e+00 -5.907452e-02 3.733655e+00 -8.878803e-01 6.712006e+01 -4.011970e-02 -8.316716e-02 8.894091e-02 4.849925e-01 7.064837e-01 7.590901e-01 2.579024e-01 3.254061e-02 1.865702e-01 9.752943e-02 -1.052664e-01 4.023654e-02 -2.546426e-02 1.233509e-02 -7.552002e-02 -1.357912e-01 1.000485e-01 -8.749450e-02 3.227180e-02 6.945562e-02 1.105212e-01 1.059918e-01 2.144671e-02 -1.372606e-02 -4.257550e-02 -5.341844e-02
<VARIANCE> 39
 4.248289e+01 2.528154e+01 1.998546e+01 4.013467e+01 2.523156e+01 3.075941e+01 2.716999e+01 3.128194e+01 6.554443e+01 4.983735e+01 2.092844e+01 2.522207e+01 2.407142e+01 5.024641e+00 1.544087e+00 1.387501e+00 2.615468e+00 2.536635e+00 2.786185e+00 1.885252e+00 2.872405e+00 6.755056e+00 2.399731e+00 1.784017e+00 1.654528e+00 2.686722e+00 3.632335e-01 3.585869e-01 2.615242e-01 5.847331e-01 4.542816e-01 4.916760e-01 3.618296e-01 4.111086e-01 6.611392e-01 3.571808e-01 2.406334e-01 2.793377e-01 2.120835e-01
<GCONST> 1.151088e+02
<STATE> 3
<MEAN> 39
 -1.147637e+01 5.160336e+00 1.482134e+00 3.099648e+00 2.736687e+00 8.423002e-01 1.418978e+00 2.914622e-01 -1.841421e+00 1.189099e+00 3.624970e+00 -8.205720e-01 6.516093e+01 -3.045200e-01 -2.310876e-01 -2.934317e-01 2.237225e-01 7.691133e-02 5.760669e-01 4.850316e-01 4.423381e-01 6.105766e-01 2.413495e-01 -1.896424e-03 1.255689e-01 -3.052885e-01 6.495990e-02 -1.081789e-02 -8.806180e-02 -5.328200e-02 -2.086744e-01 -2.186329e-01 -9.073721e-02 -7.137475e-03 -7.190168e-02 -4.354972e-02 -1.967154e-02 -8.060200e-02 2.430856e-02
<VARIANCE> 39
 4.439833e+01 2.082127e+01 1.858185e+01 3.159937e+01 1.788137e+01 1.682727e+01 2.496471e+01 3.521919e+01 8.100439e+01 5.642777e+01 1.532542e+01 2.623001e+01 2.505357e+01 4.427960e+00 1.727499e+00 2.016937e+00 2.686230e+00 2.103551e+00 1.824657e+00 1.642238e+00 2.084209e+00 3.520381e+00 1.485554e+00 1.194774e+00 1.432158e+00 1.365362e+00 2.733418e-01 3.216175e-01 2.970480e-01 4.190316e-01 3.685184e-01 3.249373e-01 2.784032e-01 4.957437e-01 7.730334e-01 3.087935e-01 1.995295e-01 2.744651e-01 1.098138e-01
<GCONST> 1.086511e+02
<STATE> 4
<MEAN> 39
 -1.379628e+01 4.500876e+00 4.411606e-01 2.942792e+00 2.414056e+00 2.155829e+00 2.956605e+00 1.974176e+00 1.010112e+00 2.455490e+00 3.239401e+00 -7.374462e-01 6.329585e+01 -2.799436e-01 -2.785634e-01 -4.497433e-01 -1.758543e-01 -3.215035e-01 6.433401e-02 2.003324e-01 1.866331e-01 6.657156e-02 -4.380298e-02 -1.301618e-01 5.952989e-03 -2.353945e-01 1.057536e-01 6.549307e-02 6.539813e-02 -3.898466e-02 -1.022378e-01 -1.958669e-01 -1.480860e-01 -1.408526e-01 -1.669894e-01 -6.321961e-02 -2.922039e-02 -5.693293e-02 8.474860e-02
<VARIANCE> 39
 4.722879e+01 1.616438e+01 2.106134e+01 2.306315e+01 1.954866e+01 1.407109e+01 2.082555e+01 3.315330e+01 7.138993e+01 3.812144e+01 1.443906e+01 1.485271e+01 2.609690e+01 3.234304e+00 1.752435e+00 1.879453e+00 2.308811e+00 1.642067e+00 1.421843e+00 1.466372e+00 1.662069e+00 2.193271e+00 1.575093e+00 8.847320e-01 1.146168e+00 9.538057e-01 3.001013e-01 2.863113e-01 2.361435e-01 2.808042e-01 3.200624e-01 3.055006e-01 2.979506e-01 4.138899e-01 5.305544e-01 2.757570e-01 1.817602e-01 1.798327e-01 1.165180e-01
<GCONST> 1.022632e+02
<TRANSP> 5
 0.000000e+00 1.000000e+00 0.000000e+00 0.000000e+00 0.000000e+00
 0.000000e+00 6.080433e-01 3.919567e-01 0.000000e+00 0.000000e+00
 0.000000e+00 0.000000e+00 4.453754e-01 5.546247e-01 0.000000e+00
 0.000000e+00 0.000000e+00 0.000000e+00 5.051403e-01 4.948597e-01
 0.000000e+00 0.000000e+00 0.000000e+00 0.000000e+00 0.000000e+00
<ENDHMM>
~h "p"
<BEGINHMM>
<NUMSTATES> 5
<STATE> 2
<MEAN> 39
 -2.024948e+01 1.420382e+00 -3.198641e+00 -9.949291e-01 3.105932e-01 1.947131e+00 3.825709e+00 4.544112e+00 4.672463e+00 2.541902e+00 1.493077e+00 -5.726165e-02 5.915517e+01 -1.688842e-01 -1.775627e-01 -1.592991e-01 -1.930009e-01 -2.130519e-01 -1.863603e-01 -1.182075e-01 -8.012546e-02 -9.807578e-02 -1.398480e-01 -1.120976e-01 -7.407355e-02 -7.851787e-02 7.282785e-02 6.639969e-02 6.593009e-02 7.019714e-02 6.280223e-02 4.584822e-02 2.481481e-02 2.646952e-03 -9.538184e-03 1.700395e-02 2.625880e-02 8.513512e-03 3.679164e-02
<VARIANCE> 39
 6.154910e+00 3.327474e+00 4.759166e+00 6.945045e+00 7.101619e+00 8.277308e+00 8.122130e+00 1.036820e+01 1.327290e+01 8.603738e+00 8.356952e+00 7.234365e+00 3.771446e+00 2.290321e-01 3.142104e-01 4.498381e-01 6.658751e-01 7.699611e-01 9.054701e-01 8.719065e-01 9.892381e-01 1.040635e+00 8.486184e-01 7.740431e-01 7.521474e-01 9.465687e-02 3.605887e-02 4.542276e-02 7.524152e-02 1.153937e-01 1.388551e-01 1.688214e-01 1.694749e-01 2.064916e-01 2.146500e-01 1.656707e-01 1.546316e-01 1.548532e-01 1.774313e-02
<GCONST> 6.013397e+01
<STATE> 3
<MEAN> 39
 -1.959108e+01 1.222055e+00 -3.173900e+00 -1.314862e+00 -1.622762e-01 1.391946e+00 3.527435e+00 4.056890e+00 3.586992e+00 2.069051e+00 1.563141e+00 -1.388681e-01 5.981610e+01 9.649973e-03 1.958012e-03 2.969510e-02 6.087776e-02 -4.309620e-03 6.571621e-02 8.589494e-02 -6.020237e-02 -1.046856e-01 -8.633385e-02 -6.901611e-03 4.123073e-02 -1.915699e-02 6.315269e-02 1.388095e-02 3.498426e-02 1.831898e-02 1.981962e-02 -2.353569e-02 -2.530769e-02 -6.240233e-02 -8.010019e-02 1.592551e-02 4.028578e-02 -4.821037e-03 5.833409e-02
<VARIANCE> 39
 2.038756e+01 4.427589e+00 5.089480e+00 7.102812e+00 7.778245e+00 8.827051e+00 9.803779e+00 1.364708e+01 2.317994e+01 8.726161e+00 1.219728e+01 7.119814e+00 1.382655e+01 2.552245e-01 2.118494e-01 3.733044e-01 5.513365e-01 7.048799e-01 7.209768e-01 7.705661e-01 8.580942e-01 1.195332e+00 8.483546e-01 7.004055e-01 6.070593e-01 1.467360e-01 6.656975e-02 6.087162e-02 9.047899e-02 1.301766e-01 1.413022e-01 1.562561e-01 1.834146e-01 2.085918e-01 2.733378e-01 1.772577e-01 1.367168e-01 1.382888e-01 4.403150e-02
<GCONST> 6.579941e+01
<STATE> 4
<MEAN> 39
 -1.846350e+01 1.350574e+00 -3.105944e+00 -1.092050e+00 -3.118730e-01 1.319727e+00 3.785413e+00 3.171379e+00 2.221157e+00 2.053764e+00 2.320972e+00 2.037048e-01 6.059019e+01 3.114727e-01 1.272073e-02 7.569747e-02 1.123851e-01 1.763280e-02 -2.117309e-02 2.664290e-02 -3.623536e-01 -4.290903e-01 1.546744e-03 1.707924e-01 3.276492e-02 2.418812e-01 2.127121e-01 1.551192e-03 3.277823e-02 -6.059078e-02 2.349112e-02 -1.627118e-01 -8.033857e-02 -1.765068e-01 -3.091770e-01 -1.611109e-02 6.318821e-02 -2.409507e-02 2.287492e-01
<VARIANCE> 39
 3.600772e+01 5.845424e+00 5.509829e+00 7.065620e+00 7.055796e+00 8.384382e+00 1.079733e+01 2.131247e+01 3.634763e+01 9.586789e+00 1.756959e+01 7.972681e+00 2.239232e+01 8.589429e-01 4.429282e-01 5.413893e-01 8.304579e-01 7.411072e-01 1.001956e+00 1.233480e+00 1.484495e+00 2.153794e+00 8.394482e-01 7.892468e-01 7.224687e-01 5.899975e-01 1.881829e-01 1.129372e-01 1.290619e-01 2.084721e-01 1.632337e-01 2.294609e-01 2.388209e-01 2.840499e-01 4.658362e-01 2.095389e-01 1.846815e-01 1.495695e-01 1.449815e-01
<GCONST> 8.086694e+01
<TRANSP> 5
 0.000000e+00 1.000000e+00 0.000000e+00 0.000000e+00 0.000000e+00
 0.000000e+00 9.089540e-01 9.104602e-02 0.000000e+00 0.000000e+00
 0.000000e+00 0.000000e+00 5.717759e-01 4.282241e-01 0.000000e+00
 0.000000e+00 0.000000e+00 0.000000e+00 3.846312e-01 6.153688e-01
 0.000000e+00 0.000000e+00 0.000000e+00 0.000000e+00 0.000000e+00
<ENDHMM>
~h "r"
<BEGINHMM>
<NUMSTATES> 5
<STATE> 2
<MEAN> 39
 -9.070070e+00 2.868336e+00 -2.900583e+00 -1.188316e+00 -7.029074e-01 -1.925817e+00 2.540995e+00 -1.692410e+00 -5.406657e+00 1.493628e+00 4.384863e+00 -4.210501e-01 6.780015e+01 2.733154e-01 1.012375e-01 1.680708e-01 -3.693227e-02 2.118118e-02 -1.268561e-01 -2.180607e-01 -1.857744e-01 -2.298439e-01 -1.629915e-01 -6.687000e-02 -2.910751e-02 2.080543e-01 -7.870112e-02 -1.701773e-02 4.981311e-02 4.326644e-02 4.735222e-02 6.064324e-02 -2.305113e-02 -6.821815e-03 2.244123e-02 1.178687e-02 5.283123e-02 4.715600e-02 -5.099384e-02
<VARIANCE> 39
 6.872880e+01 1.788034e+01 1.526931e+01 1.548976e+01 2.606001e+01 2.705867e+01 3.132503e+01 3.357602e+01 6.010766e+01 3.252731e+01 2.305082e+01 1.529471e+01 4.142285e+01 4.945137e+00 1.663672e+00 1.630114e+00 1.539628e+00 1.679618e+00 2.332524e+00 2.153878e+00 2.639056e+00 4.659949e+00 2.128594e+00 1.846259e+00 1.205177e+00 3.162179e+00 5.753418e-01 2.817056e-01 2.734046e-01 3.116214e-01 2.764800e-01 3.956790e-01 3.784960e-01 4.376321e-01 6.081933e-01 3.734477e-01 3.256558e-01 2.348956e-01 3.455170e-01
<GCONST> 1.119087e+02
<STATE> 3
<MEAN> 39
 -1.027501e+01 3.507840e+00 -2.145561e+00 -6.641923e-01 4.445375e-01 -5.633884e-01 1.322073e+00 -1.483338e+00 -4.365328e+00 7.845687e-01 4.279345e+00 5.606681e-03 6.648933e+01 -2.403722e-01 9.803091e-03 2.207789e-01 -2.752111e-02 6.442612e-02 3.743088e-02 -1.136158e-01 -5.825689e-02 -3.940908e-03 6.392104e-02 1.711695e-01 1.431670e-01 -1.209596e-01 5.666785e-02 -3.465552e-02 -4.638530e-03 4.021791e-02 -1.799364e-02 -6.484100e-02 4.443068e-02 1.780698e-02 -5.313056e-02 2.425996e-03 5.227546e-02 5.197395e-02 6.144452e-02
<VARIANCE> 39
 6.747353e+01 1.939268e+01 1.551762e+01 1.436562e+01 2.401948e+01 2.700233e+01 2.639978e+01 3.558916e+01 6.634572e+01 2.589668e+01 1.958379e+01 1.491867e+01 3.707005e+01 4.464174e+00 1.800119e+00 1.583036e+00 1.803570e+00 1.561787e+00 2.025265e+00 1.875835e+00 3.276827e+00 5.788511e+00 1.793704e+00 1.750845e+00 1.584238e+00 2.862331e+00 5.725808e-01 3.114714e-01 2.622219e-01 3.034459e-01 2.299614e-01 3.140190e-01 3.636739e-01 5.056196e-01 6.018640e-01 3.318298e-01 2.887274e-01 2.643855e-01 2.793969e-01
<GCONST> 1.107971e+02
<STATE> 4
<MEAN> 39
 -1.203209e+01 3.580580e+00 -1.468686e+00 -1.026308e+00 -9.700894e-02 -5.833118e-01 1.437070e+00 1.817650e-01 -2.471611e+00 1.049917e+00 4.319212e+00 1.107112e-01 6.523881e+01 4.273101e-02 -5.144385e-02 1.998479e-01 -1.710329e-02 -1.193047e-01 -2.412323e-01 2.065148e-03 7.349512e-02 -1.352436e-01 -7.674311e-02 9.181431e-02 1.231536e-01 1.347915e-01 1.140545e-01 -1.107090e-02 -1.133686e-02 7.746509e-02 2.405671e-02 5.554185e-03 -2.177136e-02 -1.834305e-02 -4.265831e-02 -6.018797e-02 -2.119895e-02 -4.657832e-03 7.838848e-02
<VARIANCE> 39
 6.761182e+01 1.747663e+01 1.487830e+01 2.078958e+01 2.067288e+01 2.694225e+01 2.012957e+01 3.232585e+01 6.654972e+01 1.797780e+01 1.975216e+01 1.385818e+01 3.757582e+01 4.155309e+00 1.249282e+00 1.254398e+00 1.711341e+00 1.469982e+00 2.115026e+00 1.425367e+00 2.660620e+00 4.699033e+00 1.538427e+00 1.595112e+00 1.194004e+00 2.658216e+00 4.912710e-01 2.263686e-01 2.247069e-01 3.175113e-01 2.451670e-01 3.690140e-01 2.397742e-01 3.892707e-01 4.955337e-01 2.656249e-01 2.097070e-01 2.096318e-01 2.528453e-01
<GCONST> 1.059526e+02
<TRANSP> 5
 0.000000e+00 1.000000e+00 0.000000e+00 0.000000e+00 0.000000e+00
 0.000000e+00 7.349088e-01 2.650912e-01 0.000000e+00 0.000000e+00
 0.000000e+00 0.000000e+00 6.285313e-01 3.714686e-01 0.000000e+00
 0.000000e+00 0.000000e+00 0.000000e+00 7.119276e-01 2.880724e-01
 0.000000e+00 0.000000e+00 0.000000e+00 0.000000e+00 0.000000e+00
<ENDHMM>
~h "s"
<BEGINHMM>
<NUMSTATES> 5
<STATE> 2
<MEAN> 39
 -1.427312e+01 5.885254e-01 1.553585e+00 7.668522e-01 2.228673e+00 7.618541e-02 -5.410585e-01 -1.190071e+00 -4.499142e+00 -4.803116e-01 5.108669e+00 -2.132439e-01 6.600084e+01 7.829431e-01 -2.152003e-01 6.838173e-01 2.811633e-01 2.641286e-01 -1.877078e-01 -5.993472e-01 -6.769460e-01 -1.153349e+00 -5.840875e-01 2.952176e-01 3.907624e-02 8.768302e-01 -8.059673e-02 -1.948491e-01 1.827503e-01 -1.347435e-01 -1.017425e-02 7.144535e-03 -1.512013e-01 -6.356405e-02 -8.742446e-02 -7.663113e-02 2.777600e-02 -8.178775e-02 1.182664e-01
<VARIANCE> 39
 8.599758e+01 4.575821e+01 5.160482e+01 3.754712e+01 2.047889e+01 1.860869e+01 3.411860e+01 4.490092e+01 8.490782e+01 2.319052e+01 2.549296e+01 1.798716e+01 5.135925e+01 5.631028e+00 4.207286e+00 4.736859e+00 3.968343e+00 1.979918e+00 1.715838e+00 2.570788e+00 3.642393e+00 6.537498e+00 2.465258e+00 2.277236e+00 1.325522e+00 3.019030e+00 7.667068e-01 5.378031e-01 7.271516e-01 6.972694e-01 3.483939e-01 3.364174e-01 5.325989e-01 5.917321e-01 1.017900e+00 4.810901e-01 4.144980e-01 2.690855e-01 4.156888e-01
<GCONST> 1.243530e+02
<STATE> 3
<MEAN> 39
 -1.302195e+01 -6.501231e-01 4.193091e+00 1.182359e+00 2.989856e+00 3.051965e-01 -3.140979e+00 -4.105691e+00 -7.494899e+00 -1.796203e+00 5.690847e+00 -7.172551e-01 6.831933e+01 9.596269e-02 -6.022634e-01 9.757831e-01 -2.784827e-01 1.837476e-01 -1.882540e-02 -6.389040e-01 -4.115515e-01 -7.805366e-01 -4.717351e-01 3.603400e-01 -2.031657e-01 7.576169e-01 -1.273496e-01 -6.932774e-02 -2.553276e-02 -5.100199e-02 -7.264288e-03 3.284254e-02 7.548662e-02 1.260120e-01 1.822626e-01 1.388132e-01 -8.368623e-03 -6.535213e-02 -6.041293e-02
<VARIANCE> 39
 1.013742e+02 5.702360e+01 5.787223e+01 6.006258e+01 3.045553e+01 2.104842e+01 3.606910e+01 5.156912e+01 9.645426e+01 3.480724e+01 2.341724e+01 1.620141e+01 4.170599e+01 5.855969e+00 4.109274e+00 6.480586e+00 5.160147e+00 2.338829e+00 2.199119e+00 3.535764e+00 3.674436e+00 7.442498e+00 2.993064e+00 2.494369e+00 1.369646e+00 2.810576e+00 7.789387e-01 6.163135e-01 9.770812e-01 8.166087e-01 3.293001e-01 4.158249e-01 5.346567e-01 5.643108e-01 1.027991e+00 4.938956e-01 4.061773e-01 2.555617e-01 3.141102e-01
<GCONST> 1.282835e+02
<STATE> 4
<MEAN> 39
 -1.342496e+01 -3.360398e+00 7.404428e+00 9.139121e-01 3.842926e+00 -1.310186e+00 -4.761217e+00 -5.363010e+00 -9.345519e+00 -4.962249e-01 8.448526e+00 -1.360267e+00 7.102141e+01 2.350618e-01 2.023531e-01 -1.423992e-01 1.545414e-01 -2.919934e-03 -5.263196e-02 -8.893033e-03 -5.488005e-02 5.912719e-03 6.085015e-02 1.029941e-01 5.757784e-02 8.172050e-03 4.717436e-02 7.913905e-02 -1.260050e-01 6.839547e-02 -1.292633e-02 -2.232741e-02 5.589877e-02 1.185461e-02 1.883912e-02 1.836405e-02 -1.181491e-02 4.595035e-02 -5.928092e-02
<VARIANCE> 39
 1.324567e+02 6.643782e+01 7.397696e+01 9.506146e+01 3.205280e+01 3.774799e+01 3.489482e+01 4.575886e+01 9.058564e+01 3.092722e+01 2.842781e+01 2.063407e+01 1.939706e+01 9.060051e+00 5.127345e+00 4.908281e+00 8.472750e+00 2.202182e+00 2.705252e+00 2.873883e+00 3.297453e+00 7.202271e+00 2.282428e+00 2.197041e+00 1.541668e+00 1.631379e+00 1.047087e+00 7.687877e-01 6.866753e-01 1.211478e+00 3.455718e-01 4.961658e-01 4.578695e-01 4.737150e-01 9.873230e-01 4.046744e-01 3.625292e-01 2.630987e-01 1.835165e-01
<GCONST> 1.288226e+02
<TRANSP> 5
 0.000000e+00 1.000000e+00 0.000000e+00 0.000000e+00 0.000000e+00
 0.000000e+00 7.102578e-01 2.897422e-01 0.000000e+00 0.000000e+00
 0.000000e+00 0.000000e+00 7.633104e-01 2.366896e-01 0.000000e+00
 0.000000e+00 0.000000e+00 0.000000e+00 9.504222e-01 4.957771e-02
 0.000000e+00 0.000000e+00 0.000000e+00 0.000000e+00 0.000000e+00
<ENDHMM>
~h "t"
<BEGINHMM>
<NUMSTATES> 5
<STATE> 2
<MEAN> 39
 -9.984640e+00 3.343216e-01 -4.665813e-01 2.476903e+00 2.057946e+00 -1.842871e+00 -1.222646e+00 -6.116881e+00 -8.111974e+00 1.450667e-01 6.164774e+00 6.132526e-01 6.883686e+01 5.737852e-01 3.229054e-02 -1.281177e-01 1.249888e-01 9.131894e-03 -1.418052e-01 -5.669171e-02 -3.762525e-01 -5.358646e-01 -8.048104e-02 2.156927e-01 1.477315e-01 3.817982e-01 -2.535675e-02 4.784786e-03 -1.878361e-02 -7.154670e-02 -3.776132e-02 -4.688997e-03 2.757072e-02 4.625818e-02 5.048827e-02 6.675070e-03 -1.999449e-02 8.679761e-03 -1.148623e-02
<VARIANCE> 39
 7.380984e+01 3.089495e+01 2.277620e+01 4.142339e+01 1.553815e+01 2.576570e+01 2.731884e+01 5.484457e+01 8.267450e+01 2.248500e+01 2.981370e+01 1.642107e+01 3.492256e+01 5.861516e+00 2.844796e+00 2.851661e+00 4.680519e+00 1.669230e+00 2.548770e+00 2.515631e+00 4.523046e+00 6.390412e+00 1.853326e+00 2.716742e+00 1.440517e+00 2.945727e+00 8.215314e-01 5.076529e-01 5.535551e-01 8.638374e-01 3.230680e-01 4.564247e-01 4.679197e-01 7.797053e-01 1.017090e+00 3.177144e-01 5.008878e-01 2.501533e-01 4.535567e-01
<GCONST> 1.225070e+02
<STATE> 3
<MEAN> 39
 -2.728540e+00 8.794993e-02 -3.828893e+00 2.364522e+00 3.485244e-01 -3.878436e+00 2.044960e-01 -9.206301e+00 -1.466344e+01 2.206777e-01 9.317917e+00 3.070557e+00 7.324541e+01 1.194498e-01 3.174976e-01 4.550256e-04 -2.694971e-01 -3.647058e-01 -1.204436e-01 3.291229e-02 3.347858e-01 1.387263e-01 2.382545e-01 -6.543121e-02 -6.050091e-02 -7.086607e-02 -2.680033e-01 7.963664e-02 2.026132e-01 4.101723e-02 8.529997e-02 8.698998e-02 -6.373738e-02 1.927447e-01 3.170938e-01 -5.686392e-02 -1.606014e-01 -9.924908e-02 -1.834889e-01
<VARIANCE> 39
 2.563199e+01 1.651487e+01 1.024612e+01 1.135879e+01 1.597925e+01 2.988504e+01 1.985640e+01 5.085285e+01 3.996251e+01 2.749375e+01 2.194512e+01 1.335061e+01 1.720084e+01 1.964505e+00 1.282152e+00 1.444238e+00 1.173768e+00 1.636297e+00 1.884679e+00 1.113841e+00 1.320765e+00 1.970078e+00 2.067736e+00 1.740792e+00 1.102664e+00 9.952430e-01 4.389728e-01 2.245829e-01 2.978857e-01 2.920496e-01 2.873878e-01 4.309824e-01 1.924693e-01 3.252454e-01 4.705633e-01 3.240885e-01 3.800630e-01 1.334868e-01 1.807501e-01
<GCONST> 9.992023e+01
<STATE> 4
<MEAN> 39
 -6.150464e+00 1.669155e+00 -4.336339e+00 6.466881e-01 1.407443e-01 -2.713681e+00 9.438359e-01 -3.956534e+00 -8.628592e+00 2.196663e+00 8.151678e+00 2.157171e+00 6.974800e+01 -4.434859e-01 2.910229e-01 2.912423e-01 -3.834672e-02 -1.172785e-01 2.750082e-01 2.053337e-01 3.319888e-01 4.712433e-01 1.023656e-01 -2.684079e-01 -1.543753e-01 -4.307552e-01 -1.467364e-01 8.256451e-03 1.406957e-01 2.364710e-02 7.166917e-02 1.046155e-01 2.708848e-03 5.551306e-02 1.057029e-01 -1.977382e-02 -4.815320e-02 -3.857633e-02 -7.686982e-02
<VARIANCE> 39
 6.653282e+01 1.241898e+01 1.083691e+01 9.144719e+00 1.352577e+01 4.923482e+01 2.833643e+01 3.847662e+01 7.553574e+01 2.432594e+01 1.631813e+01 1.524987e+01 3.965596e+01 6.597224e-01 9.978476e-01 1.239520e+00 7.169442e-01 1.203435e+00 1.896657e+00 1.308909e+00 1.559285e+00 1.420821e+00 8.931885e-01 8.208990e-01 6.619002e-01 4.750225e-01 1.082280e-01 1.340126e-01 2.143385e-01 1.660897e-01 1.427516e-01 2.629566e-01 2.153463e-01 2.535454e-01 2.770517e-01 1.533668e-01 2.000337e-01 9.758560e-02 6.248954e-02
<GCONST> 8.945891e+01
<TRANSP> 5
 0.000000e+00 1.000000e+00 0.000000e+00 0.000000e+00 0.000000e+00
 0.000000e+00 9.573652e-01 4.263476e-02 0.000000e+00 0.000000e+00
 0.000000e+00 0.000000e+00 6.200255e-01 3.799745e-01 0.000000e+00
 0.000000e+00 0.000000e+00 0.000000e+00 8.134997e-01 1.865003e-01
 0.000000e+00 0.000000e+00 0.000000e+00 0.000000e+00 0.000000e+00
<ENDHMM>
~h "u"
<BEGINHMM>
<NUMSTATES> 5
<STATE> 2
<MEAN> 39
 -8.547801e+00 3.470380e+00 7.342254e+00 9.766981e+00 7.808573e+00 -1.323733e+00 -5.384400e+00 -2.819263e+00 -9.091866e+00 -6.164532e+00 5.584839e+00 4.267237e-01 6.934803e+01 5.323082e-01 -1.071570e-01 1.010718e-02 2.973507e-01 2.585933e-01 -2.241199e-01 -4.737916e-01 -3.703518e-01 -5.557763e-01 -3.221405e-01 1.657332e-01 8.160051e-02 4.404160e-01 -1.189225e-01 -4.813939e-02 -4.053630e-02 -1.227274e-01 -4.977340e-02 3.132141e-02 2.720207e-02 2.859952e-02 9.734915e-02 9.408872e-02 5.495036e-03 -2.315902e-02 -6.082683e-02
<VARIANCE> 39
 3.767032e+01 7.003101e+01 4.860807e+01 3.687750e+01 3.139237e+01 2.577673e+01 4.602189e+01 2.934086e+01 7.514307e+01 3.258896e+01 2.588934e+01 1.415339e+01 2.453703e+01 3.596056e+00 6.978374e+00 4.287057e+00 3.769737e+00 3.514200e+00 2.104835e+00 3.684557e+00 2.649328e+00 6.738513e+00 3.365956e+00 2.524438e+00 1.432853e+00 2.229368e+00 4.915847e-01 1.162432e+00 7.414444e-01 6.342027e-01 6.987718e-01 3.847206e-01 5.884132e-01 4.594167e-01 9.843214e-01 5.031793e-01 4.442455e-01 2.675769e-01 3.168953e-01
<GCONST> 1.254342e+02
<STATE> 3
<MEAN> 39
 -4.016910e+00 1.779838e+00 2.394637e+00 8.311370e+00 7.862398e+00 -3.046864e+00 -8.570459e+00 -6.959024e+00 -1.484249e+01 -6.668500e+00 8.940572e+00 1.214883e+00 7.237655e+01 1.477997e-01 4.371616e-01 -2.198632e-01 -3.389033e-01 -2.065622e-01 2.006945e-01 1.595620e-01 -1.993349e-01 1.150869e-03 3.542894e-01 5.204087e-02 -7.644111e-02 -1.402838e-01 -1.762543e-01 3.470457e-02 8.762587e-02 -9.129447e-02 -7.879744e-02 4.889356e-02 1.005108e-01 1.467874e-01 2.639222e-01 1.372935e-01 -7.505888e-02 -6.694426e-02 -1.160499e-01
<VARIANCE> 39
 1.299411e+01 3.591909e+01 2.809438e+01 3.356625e+01 2.614854e+01 1.886297e+01 3.560929e+01 2.906306e+01 4.300726e+01 3.358398e+01 3.196549e+01 1.846640e+01 1.525000e+01 1.833821e+00 2.632003e+00 2.029618e+00 1.777353e+00 1.803222e+00 1.671673e+00 2.749487e+00 2.493242e+00 4.731460e+00 2.449455e+00 2.417832e+00 1.681287e+00 1.507406e+00 2.486660e-01 4.057235e-01 2.938067e-01 3.186589e-01 2.893747e-01 2.959189e-01 3.528945e-01 4.383405e-01 5.832794e-01 3.946981e-01 3.275920e-01 2.425782e-01 1.814282e-01
<GCONST> 1.096499e+02
<STATE> 4
<MEAN> 39
 -4.446082e+00 3.447920e+00 1.380663e+00 6.292590e+00 6.283376e+00 -1.959446e+00 -6.769223e+00 -6.767732e+00 -1.366311e+01 -3.581877e+00 9.873496e+00 1.064524e+00 7.105531e+01 -3.956212e-01 5.360423e-01 5.573481e-02 -2.141361e-01 -2.285361e-01 3.478818e-01 6.428012e-01 4.204066e-01 9.346753e-01 6.861753e-01 -3.605687e-01 -2.478671e-01 -5.384240e-01 -1.085337e-01 -3.176430e-02 3.856336e-02 1.519376e-02 -1.276153e-02 -6.797058e-04 4.491564e-02 1.615335e-01 2.013661e-01 -5.031463e-02 -1.112766e-01 -2.224826e-02 -5.783913e-02
<VARIANCE> 39
 1.248769e+01 2.929243e+01 2.071571e+01 2.476701e+01 2.229848e+01 1.699990e+01 3.641713e+01 2.768214e+01 5.804500e+01 3.829741e+01 4.361358e+01 1.730493e+01 1.543593e+01 1.095296e+00 1.404035e+00 1.379930e+00 1.521740e+00 1.261060e+00 1.936344e+00 2.538100e+00 2.126109e+00 3.942088e+00 1.473401e+00 2.347655e+00 1.111310e+00 8.823196e-01 1.241317e-01 2.733888e-01 2.223425e-01 2.373304e-01 2.140982e-01 3.180472e-01 2.907987e-01 4.006743e-01 5.569627e-01 2.371259e-01 3.355570e-01 1.814854e-01 1.098242e-01
<GCONST> 1.018931e+02
<TRANSP> 5
 0.000000e+00 1.000000e+00 0.000000e+00 0.000000e+00 0.000000e+00
 0.000000e+00 9.319435e-01 6.805646e-02 0.000000e+00 0.000000e+00
 0.000000e+00 0.000000e+00 7.672700e-01 2.327300e-01 0.000000e+00
 0.000000e+00 0.000000e+00 0.000000e+00 8.424307e-01 1.575693e-01
 0.000000e+00 0.000000e+00 0.000000e+00 0.000000e+00 0.000000e+00
<ENDHMM>
~h "w"
<BEGINHMM>
<NUMSTATES> 5
<STATE> 2
<MEAN> 39
 -3.388843e+00 6.224082e+00 1.688796e+00 2.587606e+00 7.038985e-01 -4.271666e+00 -4.605966e+00 -2.594511e+00 -9.189813e+00 -5.481419e+00 6.626995e+00 9.761080e-03 7.114971e+01 4.554807e-02 6.382104e-02 1.679094e-01 -6.884789e-02 -3.522275e-01 -1.976379e-01 3.511840e-02 2.650258e-01 2.095631e-01 -6.475060e-02 9.773362e-02 -1.025420e-03 4.067434e-02 -2.349009e-02 -4.945575e-02 -1.983289e-02 4.199568e-02 4.552910e-02 2.657025e-02 3.131561e-02 -2.810084e-02 -1.591869e-02 4.149416e-02 2.313977e-02 2.060445e-02 -3.139932e-03
<VARIANCE> 39
 1.597975e+01 2.624019e+01 3.894677e+01 2.391522e+01 2.967594e+01 2.239153e+01 3.658136e+01 1.972832e+01 3.197085e+01 3.414420e+01 3.842572e+01 3.569541e+01 1.507016e+01 7.766435e-01 1.349763e+00 1.929747e+00 1.290803e+00 1.487918e+00 1.606201e+00 1.704297e+00 1.251904e+00 2.312096e+00 1.792158e+00 2.461242e+00 1.320837e+00 6.426065e-01 1.299172e-01 2.113954e-01 2.613954e-01 2.019938e-01 1.723199e-01 2.684933e-01 2.665244e-01 1.890595e-01 4.291961e-01 2.772829e-01 4.102737e-01 2.247489e-01 8.341467e-02
<GCONST> 9.971856e+01
<STATE> 3
<MEAN> 39
 -3.791602e+00 6.699197e+00 3.166855e+00 3.450573e+00 -8.575599e-01 -4.564307e+00 -3.313555e+00 -1.760135e+00 -7.990721e+00 -5.804045e+00 5.703295e+00 -2.860890e-01 7.065437e+01 1.686047e-02 -2.847556e-02 2.006117e-02 -4.314417e-02 -1.850223e-01 -1.792457e-02 1.274182e-01 1.931622e-01 2.026255e-01 5.592265e-02 1.132007e-01 5.522430e-02 1.145811e-02 -3.924821e-02 -5.075193e-02 -8.531690e-02 -1.898311e-02 4.537006e-02 6.592983e-02 5.122487e-02 -1.006734e-02 1.156479e-02 7.349046e-02 -5.389097e-03 5.570699e-03 -2.784152e-02
<VARIANCE> 39
 1.767595e+01 3.182891e+01 3.783596e+01 2.216639e+01 2.653022e+01 2.780582e+01 2.918984e+01 2.323186e+01 3.481516e+01 5.046395e+01 3.344500e+01 2.786546e+01 1.649138e+01 1.246624e+00 1.722847e+00 1.717427e+00 1.192870e+00 1.568340e+00 1.937097e+00 1.851709e+00 1.302556e+00 1.972826e+00 2.043957e+00 1.704925e+00 1.082456e+00 9.575343e-01 1.363822e-01 2.648920e-01 2.396418e-01 1.983854e-01 1.918696e-01 2.972119e-01 2.719096e-01 1.971594e-01 3.149429e-01 2.961181e-01 2.855433e-01 1.717995e-01 9.664726e-02
<GCONST> 1.005319e+02
<STATE> 4
<MEAN> 39
 -3.158768e+00 5.275911e+00 2.022177e+00 2.561166e+00 -1.416481e+00 -4.254268e+00 -3.226992e+00 -2.158606e+00 -7.990594e+00 -6.683771e+00 5.898724e+00 7.389137e-01 7.152209e+01 -2.327526e-01 -1.045889e-01 -2.277275e-01 -8.935484e-02 6.316189e-02 2.223097e-01 2.891958e-01 9.263960e-02 2.657320e-01 4.228286e-01 -2.051338e-02 7.188953e-03 -1.881524e-01 -6.797352e-02 -1.861717e-02 -2.386974e-02 -1.392862e-02 2.268592e-02 2.334216e-02 6.763111e-03 2.098538e-02 5.981655e-02 5.126605e-02 -2.293506e-02 -6.759332e-03 -4.716014e-02
<VARIANCE> 39
 1.822798e+01 3.294176e+01 3.310157e+01 2.021541e+01 2.129374e+01 2.753880e+01 3.571961e+01 2.363626e+01 3.624777e+01 5.719213e+01 2.078697e+01 1.775312e+01 1.899573e+01 1.472075e+00 1.746815e+00 1.395907e+00 1.290136e+00 1.077595e+00 1.985845e+00 2.211645e+00 1.783201e+00 2.533669e+00 2.315894e+00 1.443509e+00 9.346539e-01 1.167181e+00 1.387358e-01 2.606753e-01 1.888779e-01 2.310578e-01 1.684140e-01 3.394789e-01 3.320482e-01 2.742034e-01 3.831824e-01 3.783739e-01 2.285269e-01 1.501274e-01 1.131660e-01
<GCONST> 1.008827e+02
<TRANSP> 5
 0.000000e+00 1.000000e+00 0.000000e+00 0.000000e+00 0.000000e+00
 0.000000e+00 8.552545e-01 1.447454e-01 0.000000e+00 0.000000e+00
 0.000000e+00 0.000000e+00 8.042470e-01 1.957530e-01 0.000000e+00
 0.000000e+00 0.000000e+00 0.000000e+00 9.242562e-01 7.574379e-02
 0.000000e+00 0.000000e+00 0.000000e+00 0.000000e+00 0.000000e+00
<ENDHMM>
~h "y"
<BEGINHMM>
<NUMSTATES> 5
<STATE> 2
<MEAN> 39
 -1.894386e+01 3.364141e+00 -7.644666e-01 1.774737e+00 1.977609e+00 2.406187e+00 3.547817e+00 4.123794e+00 4.833139e+00 3.466564e+00 2.309180e+00 5.193626e-01 5.958958e+01 -4.108614e-01 -3.650188e-01 -3.814153e-01 -4.445245e-01 -3.110935e-01 -6.382257e-02 1.489700e-01 1.308516e-01 -5.861876e-02 -1.637556e-01 -1.118916e-01 -1.277765e-01 -2.055511e-01 7.196109e-02 5.619368e-02 4.643987e-02 6.110922e-02 1.951019e-02 -3.463135e-02 -5.818257e-02 -6.238269e-02 -4.206551e-02 -4.704674e-03 1.883673e-02 2.383412e-02 3.980749e-02
<VARIANCE> 39
 9.962576e+00 8.682126e+00 1.433595e+01 1.924415e+01 1.407129e+01 1.117374e+01 1.177048e+01 1.303660e+01 1.014848e+01 7.138651e+00 7.359034e+00 6.097528e+00 2.781086e+00 2.573092e-01 3.651816e-01 5.388547e-01 7.032164e-01 9.670317e-01 1.182888e+00 1.178568e+00 1.112461e+00 8.436303e-01 7.365552e-01 9.682929e-01 8.308780e-01 7.660449e-02 2.577917e-02 5.198374e-02 6.595222e-02 1.006333e-01 1.576732e-01 2.144572e-01 2.240567e-01 2.044268e-01 1.646754e-01 1.633755e-01 2.179171e-01 1.695797e-01 7.333914e-03
<GCONST> 6.483632e+01
<STATE> 3
<MEAN> 39
 -2.053416e+01 1.702206e+00 -2.961200e+00 -8.636291e-01 -6.564879e-02 1.871848e+00 4.498210e+00 5.021079e+00 4.349430e+00 3.130924e+00 2.441181e+00 4.628780e-01 5.881839e+01 -1.719396e-01 -1.496519e-01 -1.998998e-01 -8.669542e-03 5.715988e-02 1.038984e-01 1.089422e-01 1.001257e-02 -1.401335e-02 7.069995e-02 1.164184e-02 -8.536071e-02 -7.160251e-02 4.983607e-02 1.420543e-02 1.034970e-01 2.475306e-02 1.194447e-01 -1.160900e-02 -1.606882e-01 -1.364382e-01 3.270594e-03 1.981251e-02 5.448632e-02 7.542665e-02 8.010901e-02
<VARIANCE> 39
 1.302963e+00 2.016505e+00 4.214059e+00 5.751260e+00 7.565938e+00 8.357100e+00 9.364500e+00 1.127480e+01 9.817808e+00 8.344007e+00 6.701763e+00 5.980751e+00 1.447546e+00 2.057810e-01 2.665126e-01 3.869070e-01 5.117674e-01 7.559626e-01 8.245757e-01 7.339121e-01 9.772654e-01 8.937520e-01 6.423776e-01 7.743168e-01 1.074243e+00 6.469653e-02 4.798781e-02 6.589393e-02 7.822056e-02 1.003897e-01 1.653042e-01 2.067051e-01 2.252012e-01 2.235018e-01 2.109525e-01 1.648372e-01 1.634665e-01 1.875992e-01 2.416053e-02
<GCONST> 5.676348e+01
<STATE> 4
<MEAN> 39
 -2.087294e+01 1.541826e+00 -3.426198e+00 -8.722668e-01 5.373645e-02 2.278801e+00 4.526183e+00 4.860566e+00 4.778008e+00 3.538857e+00 2.795156e+00 5.253075e-01 5.868607e+01 -1.006535e-01 -1.317766e-01 3.804363e-02 6.299017e-02 1.890633e-01 1.189212e-01 -1.308885e-01 -2.023110e-01 1.427381e-01 2.372150e-01 8.785047e-02 1.468686e-02 2.390295e-02 3.560827e-01 4.899699e-02 2.516332e-01 -1.382094e-01 1.344543e-01 -2.627875e-01 -4.197669e-01 -4.213206e-01 -4.003777e-01 -2.066808e-01 4.381334e-02 2.043205e-03 3.961854e-01
<VARIANCE> 39
 2.628306e+00 2.143258e+00 3.920718e+00 5.587958e+00 5.918634e+00 6.429648e+00 8.128100e+00 8.911655e+00 9.499146e+00 1.012989e+01 9.684351e+00 7.715998e+00 1.447546e+00 3.492177e-01 3.322086e-01 4.376929e-01 4.651083e-01 6.991246e-01 8.800115e-01 9.643881e-01 1.246035e+00 1.356485e+00 8.730472e-01 8.760592e-01 8.719538e-01 1.437170e-01 1.321157e-01 1.389950e-01 1.188868e-01 1.506192e-01 1.287960e-01 2.250736e-01 3.045484e-01 2.050724e-01 2.769238e-01 2.655477e-01 1.675056e-01 1.943514e-01 9.972347e-02
<GCONST> 6.490261e+01
<TRANSP> 5
 0.000000e+00 1.000000e+00 0.000000e+00 0.000000e+00 0.000000e+00
 0.000000e+00 8.772956e-01 1.227044e-01 0.000000e+00 0.000000e+00
 0.000000e+00 0.000000e+00 4.555652e-01 5.444348e-01 0.000000e+00
 0.000000e+00 0.000000e+00 0.000000e+00 1.349287e-01 8.650714e-01
 0.000000e+00 0.000000e+00 0.000000e+00 0.000000e+00 0.000000e+00
<ENDHMM>
~h "sy"
<BEGINHMM>
<NUMSTATES> 5
<STATE> 2
<MEAN> 39
 -2.117854e+01 8.921950e-01 -3.597974e+00 -1.319509e+00 -3.308132e-01 1.455192e+00 3.582776e+00 4.252102e+00 4.411887e+00 2.083608e+00 6.476116e-01 -1.062294e+00 5.853802e+01 -1.646878e-02 -1.811617e-02 -5.737398e-03 -2.101277e-02 -9.260228e-03 6.603125e-03 -2.784532e-03 1.364777e-02 2.125613e-02 1.313809e-02 2.034902e-02 1.741619e-02 -2.306409e-03 3.522984e-03 4.038091e-03 1.088220e-02 7.609325e-03 6.241626e-03 6.381377e-03 9.986635e-04 -1.052556e-02 -1.395499e-02 -5.919342e-03 -5.039035e-04 2.161732e-03 2.278828e-03
<VARIANCE> 39
 1.067506e+00 1.607579e+00 2.660572e+00 4.051882e+00 4.339799e+00 5.473348e+00 7.874260e+00 9.206305e+00 8.440536e+00 7.547243e+00 6.070731e+00 5.951426e+00 1.447546e+00 1.069395e-01 1.572992e-01 2.609013e-01 4.228978e-01 5.378908e-01 6.560703e-01 7.507599e-01 9.269549e-01 8.467184e-01 7.526761e-01 6.834899e-01 7.087796e-01 3.734197e-02 2.260320e-02 3.316076e-02 4.950925e-02 8.130479e-02 1.151623e-01 1.413099e-01 1.526799e-01 1.908746e-01 1.835168e-01 1.593269e-01 1.398861e-01 1.474510e-01 7.872282e-03
<GCONST> 4.537827e+01
<STATE> 3
<MEAN> 39
 -2.106450e+01 8.939433e-02 -3.760708e+00 -2.339437e+00 -6.734146e-01 2.672027e+00 3.425019e+00 4.860718e+00 5.238360e+00 2.102064e+00 1.974268e+00 6.337244e-01 5.909011e+01 7.919064e-02 1.386798e-01 4.360624e-01 2.142914e-01 -2.196070e-01 -1.604059e-01 2.575483e-01 -7.576324e-01 -1.354856e+00 -1.668783e-01 -8.824521e-02 2.758670e-02 3.267364e-02 2.456399e-01 1.131644e-02 4.636551e-03 1.984409e-03 1.449909e-01 -2.274392e-01 2.416025e-01 -2.782521e-01 -6.424679e-01 1.304706e-01 2.974703e-02 -2.210953e-01 2.580629e-01
<VARIANCE> 39
 1.215117e+00 3.590822e+00 4.881029e+00 3.472576e+00 1.973013e+00 5.015292e+00 5.753545e+00 8.958570e+00 7.065219e+00 4.837579e+00 3.398844e+00 7.690536e+00 1.447546e+00 3.494557e-01 5.019415e-01 5.527967e-01 5.887921e-01 4.903069e-01 9.525478e-01 7.312034e-01 1.962942e+00 2.640295e+00 6.722731e-01 6.387830e-01 7.074142e-01 3.888839e-01 1.520722e-01 1.743291e-01 9.854712e-02 4.297202e-02 1.464192e-01 1.691577e-01 1.736583e-01 2.293193e-01 3.868898e-01 9.866992e-02 9.643661e-02 2.244876e-01 1.178126e-01
<GCONST> 5.969882e+01
<STATE> 4
<MEAN> 39
 -1.391389e+01 9.301071e-01 -4.720342e+00 -3.908062e+00 -1.433795e+00 -8.271668e-01 6.732130e+00 2.174530e+00 -1.991676e+00 4.553725e+00 3.015241e+00 1.125246e-02 6.505374e+01 8.277884e-01 5.523442e-02 7.996306e-02 4.121155e-02 -1.368115e-02 -2.974031e-01 1.821081e-01 -3.042300e-01 -9.423240e-01 1.640363e-01 4.049507e-01 -1.430959e-01 6.923667e-01 1.232588e-01 -7.271656e-02 -4.153125e-02 -4.629114e-02 -6.923413e-03 -5.994798e-02 -8.695381e-02 9.430367e-02 4.635720e-02 2.693668e-02 6.779472e-02 -6.346375e-02 1.403292e-01
<VARIANCE> 39
 5.389561e+01 1.225153e+01 8.899013e+00 1.055756e+01 7.957952e+00 1.501397e+01 1.797110e+01 1.827917e+01 6.482862e+01 1.605515e+01 1.424795e+01 6.463860e+00 5.494818e+01 4.166304e+00 1.535437e+00 1.079621e+00 6.521270e-01 9.726269e-01 1.683276e+00 2.536231e+00 2.444670e+00 5.308131e+00 1.624049e+00 1.415061e+00 8.744628e-01 4.126670e+00 3.903482e-01 2.560960e-01 1.984329e-01 1.064856e-01 1.769776e-01 2.593581e-01 3.390629e-01 4.567181e-01 4.232477e-01 3.195100e-01 2.463402e-01 1.769479e-01 4.152240e-01
<GCONST> 9.925542e+01
<TRANSP> 5
 0.000000e+00 1.000000e+00 0.000000e+00 0.000000e+00 0.000000e+00
 0.000000e+00 9.864086e-01 1.359143e-02 0.000000e+00 0.000000e+00
 0.000000e+00 0.000000e+00 4.184574e-01 5.815426e-01 0.000000e+00
 0.000000e+00 0.000000e+00 0.000000e+00 8.647840e-01 1.352160e-01
 0.000000e+00 0.000000e+00 0.000000e+00 0.000000e+00 0.000000e+00
<ENDHMM>
~h "sil"
<BEGINHMM>
<NUMSTATES> 5
<STATE> 2
<MEAN> 39
 -4.607720e+00 3.607962e-01 -5.426341e-01 -9.298682e-03 2.209237e-02 2.451330e-01 6.143920e-01 7.479948e-01 8.426172e-01 4.852813e-01 2.300826e-01 -1.208140e-01 1.312297e+01 -6.130718e-02 -2.533595e-02 -1.373162e-02 -1.169130e-02 -1.226938e-02 1.152714e-02 1.117831e-02 1.032913e-02 -1.318794e-03 -1.349090e-02 -1.754781e-02 -2.321707e-02 -3.580865e-02 -1.422433e-01 4.066978e-02 3.432494e-03 2.319659e-02 1.594447e-02 3.987599e-02 1.919245e-02 2.909164e-02 2.477873e-02 2.826586e-02 1.450939e-02 9.272502e-03 1.618920e-01
<VARIANCE> 39
 7.419679e+01 7.952567e-01 1.636637e+00 7.978103e-01 8.209059e-01 9.802870e-01 2.406374e+00 3.699863e+00 4.238712e+00 2.466863e+00 1.069346e+00 7.474582e-01 5.992916e+02 4.528992e-02 4.062831e-02 7.514886e-02 1.010742e-01 9.965643e-02 1.123236e-01 1.059968e-01 1.284726e-01 1.353198e-01 1.483293e-01 9.007379e-02 9.408814e-02 1.980202e-02 1.904602e-01 1.446018e-02 2.145815e-02 2.558401e-02 2.663122e-02 2.592609e-02 2.872722e-02 3.694154e-02 4.080607e-02 4.047523e-02 2.733786e-02 2.182653e-02 1.678097e-01
<GCONST> 1.079805e+01
<STATE> 3
<MEAN> 39
 -1.215154e+01 1.227608e+00 -1.446265e+00 3.100328e-01 -3.130345e-01 9.387601e-01 8.762358e-01 1.725128e+00 1.509533e+00 1.192349e+00 3.390238e-01 4.773930e-02 2.106449e+01 -3.466143e+00 3.418970e-01 -4.189616e-01 1.332191e-01 -8.793777e-02 3.950639e-01 3.971433e-01 6.652144e-01 5.475168e-01 4.094923e-01 1.488584e-01 3.272317e-02 5.406756e+00 -6.435292e-02 -1.379653e-03 -6.890687e-03 -1.527090e-02 6.096165e-02 6.137965e-02 1.671592e-01 1.157273e-01 1.488813e-01 6.909619e-02 6.138701e-02 -4.104966e-03 1.042919e+00
<VARIANCE> 39
 1.145605e+02 3.856854e+00 5.200954e+00 3.946948e+00 3.837548e+00 4.707848e+00 6.529941e+00 7.435438e+00 8.402401e+00 5.115324e+00 4.163029e+00 3.847137e+00 5.000023e+02 7.976589e+00 2.867274e-01 4.976102e-01 4.356842e-01 4.538281e-01 4.864090e-01 6.507426e-01 7.354689e-01 7.164972e-01 5.082062e-01 4.552309e-01 3.792306e-01 1.729329e+01 2.282793e+00 6.116334e-02 1.145407e-01 8.482904e-02 8.173449e-02 1.026548e-01 1.324214e-01 1.370083e-01 1.459856e-01 1.126151e-01 9.888323e-02 8.511285e-02 2.185301e+00
<GCONST> 7.395325e+01
<STATE> 4
<MEAN> 39
 -2.093291e+01 1.286440e+00 -3.206342e+00 -1.098842e+00 -3.651966e-01 1.530868e+00 3.935919e+00 4.715155e+00 4.647759e+00 2.256255e+00 9.648917e-01 -6.492453e-01 5.825873e+01 6.412089e-03 -1.013310e-02 -1.164405e-02 -1.953024e-02 -3.537588e-03 -1.313458e-02 1.595935e-03 -7.709932e-03 -9.432721e-03 -1.131629e-02 -2.239738e-04 -4.552908e-03 1.794707e-01 1.591380e-02 -2.613810e-03 7.870516e-04 -1.249906e-04 -6.752065e-04 -5.571161e-03 -1.048908e-02 -1.019220e-02 -1.300247e-02 -2.965376e-03 1.429497e-03 1.997728e-03 -4.769761e-02
<VARIANCE> 39
 1.160579e+00 1.634809e+00 3.324827e+00 4.880066e+00 5.157750e+00 5.765241e+00 7.130888e+00 8.956367e+00 8.348091e+00 7.083645e+00 6.452653e+00 6.643610e+00 7.051437e+00 1.303563e-01 1.537536e-01 2.877848e-01 4.409608e-01 5.163245e-01 5.921027e-01 7.446015e-01 9.527872e-01 9.426753e-01 7.824516e-01 6.943461e-01 6.847383e-01 9.494743e-01 4.593764e-02 3.169123e-02 5.694237e-02 8.871000e-02 1.061938e-01 1.242651e-01 1.496398e-01 1.953931e-01 1.952923e-01 1.647123e-01 1.465627e-01 1.401445e-01 6.296474e-02
<GCONST> 5.407452e+01
<TRANSP> 5
 0.000000e+00 1.000000e+00 0.000000e+00 0.000000e+00 0.000000e+00
 0.000000e+00 7.812883e-01 2.187116e-01 0.000000e+00 0.000000e+00
 0.000000e+00 0.000000e+00 6.699914e-01 3.300086e-01 0.000000e+00
 0.000000e+00 0.000000e+00 0.000000e+00 9.866238e-01 1.337621e-02
 0.000000e+00 0.000000e+00 0.000000e+00 0.000000e+00 0.000000e+00
<ENDHMM>
