~o
<STREAMINFO> 1 39
<VECSIZE> 39<NULLD><MFCC_D_A_0><DIAGC>
~h "a"
<BEGINHMM>
<NUMSTATES> 5
<STATE> 2
<MEAN> 39
 -1.199404e+01 1.493059e+00 -9.467106e-01 -1.834117e-01 1.442133e-01 3.767423e-01 2.028033e+00 -2.149778e+00 -9.298383e-01 5.135092e-01 4.346865e-01 -6.474942e-02 6.482090e+01 -1.601964e-01 -9.093350e-02 -7.363986e-04 1.384132e-03 6.638429e-03 -3.211194e-02 3.676307e-02 3.741492e-02 3.890346e-03 1.306436e-02 -7.970884e-03 -1.077178e-01 -1.162770e-01 6.359700e-02 -7.159689e-03 4.468097e-02 1.359023e-02 5.215786e-02 -2.747733e-02 -4.015606e-02 -4.092178e-02 -9.698769e-02 -3.395155e-02 5.389669e-02 -2.329991e-02 8.272631e-02
<VARIANCE> 39
 6.855209e+01 3.235297e+01 2.628744e+01 3.891545e+01 2.968232e+01 1.993945e+01 3.526320e+01 4.331521e+01 3.694600e+01 2.747452e+01 3.507972e+01 1.630169e+01 1.002716e+02 1.011196e+00 1.489973e+00 8.444602e-01 9.970882e-01 1.115715e+00 1.168864e+00 1.730895e+00 1.531339e+00 1.717154e+00 1.242167e+00 1.148831e+00 9.829821e-01 1.746400e+00 1.804559e-01 2.299961e-01 1.678241e-01 1.809816e-01 2.110479e-01 2.045383e-01 2.932828e-01 2.731894e-01 3.249864e-01 2.310905e-01 2.131860e-01 1.746439e-01 1.943471e-01
<GCONST> 1.009603e+02
<STATE> 3
<MEAN> 39
 -1.191176e+01 1.278566e+00 -9.110214e-01 -3.139688e-01 1.551110e-01 3.481300e-01 2.102544e+00 -2.304573e+00 -1.159199e+00 5.461770e-01 4.856671e-01 -2.282553e-01 6.498885e+01 -7.506746e-02 -2.153215e-02 6.949843e-02 4.816146e-02 9.771407e-02 -5.766344e-02 -1.640717e-02 4.376193e-02 -5.421767e-02 -1.893625e-02 4.846852e-02 -1.069909e-01 -6.316496e-02 5.762510e-02 1.935305e-02 2.929274e-02 2.272041e-02 1.552895e-02 -3.342671e-02 -3.006866e-02 -1.502073e-02 -5.646034e-02 -3.826015e-02 2.577215e-02 2.654767e-03 5.883645e-02
<VARIANCE> 39
 6.734082e+01 3.418811e+01 2.761870e+01 3.990889e+01 2.998733e+01 1.997385e+01 3.692288e+01 4.186839e+01 3.566795e+01 2.751805e+01 3.739703e+01 1.608477e+01 9.907761e+01 1.447820e+00 1.674350e+00 9.558592e-01 1.110886e+00 1.123807e+00 1.301816e+00 1.888990e+00 1.560620e+00 1.792069e+00 1.214253e+00 1.109016e+00 9.246954e-01 2.127817e+00 1.856992e-01 2.447084e-01 1.786455e-01 1.831055e-01 2.200895e-01 2.008861e-01 2.847362e-01 2.705659e-01 3.233321e-01 2.467513e-01 2.198616e-01 1.887048e-01 2.119136e-01
<GCONST> 1.025560e+02
<STATE> 4
<MEAN> 39
 -1.328371e+01 2.366445e+00 -1.567071e+00 4.474306e-01 6.596159e-01 4.777883e-01 2.886356e+00 4.545559e-01 -2.050829e-02 1.987374e+00 2.256465e+00 -1.310714e-01 6.390654e+01 -2.139567e-01 -3.330798e-03 2.987671e-02 1.119485e-03 1.702322e-02 3.819901e-02 3.599164e-02 1.325758e-01 9.585673e-02 -4.044678e-02 -3.288129e-02 -1.096373e-02 -1.805732e-01 6.581833e-03 -2.014025e-02 1.341525e-02 -1.579677e-03 -1.563567e-02 -8.362025e-03 -2.504794e-02 -2.811351e-02 -3.775908e-02 -3.470105e-02 -1.582255e-03 8.175938e-03 2.789396e-02
<VARIANCE> 39
 6.587732e+01 2.499265e+01 2.257612e+01 2.779562e+01 2.220764e+01 2.515562e+01 2.855921e+01 3.485165e+01 4.578333e+01 2.245645e+01 2.953903e+01 1.210924e+01 6.168496e+01 1.981372e+00 1.427505e+00 1.118387e+00 1.155712e+00 1.180907e+00 1.516827e+00 1.719995e+00 1.569900e+00 2.164857e+00 1.108840e+00 1.110863e+00 8.723985e-01 1.661985e+00 1.883722e-01 2.267617e-01 1.771517e-01 1.861414e-01 1.951736e-01 2.543221e-01 2.807989e-01 2.769395e-01 3.322847e-01 2.186450e-01 2.026920e-01 1.673293e-01 1.767310e-01
<GCONST> 1.000547e+02
<TRANSP> 5
 0.000000e+00 1.000000e+00 0.000000e+00 0.000000e+00 0.000000e+00
 0.000000e+00 3.124872e-01 6.875128e-01 0.000000e+00 0.000000e+00
 0.000000e+00 0.000000e+00 3.136582e-01 6.863418e-01 0.000000e+00
 0.000000e+00 0.000000e+00 0.000000e+00 7.311117e-01 2.688883e-01
 0.000000e+00 0.000000e+00 0.000000e+00 0.000000e+00 0.000000e+00
<ENDHMM>
~h "b"
<BEGINHMM>
<NUMSTATES> 5
<STATE> 2
<MEAN> 39
 -2.543336e+00 -7.393865e+00 -1.170578e+00 -6.185878e+00 -3.667412e+00 1.191781e-01 4.260176e+00 -6.453291e+00 3.819988e-01 -1.095398e+01 -4.380242e+00 8.369133e+00 7.961976e+01 -7.847390e-02 -1.090220e-01 -3.762616e-02 2.672479e-03 -1.373633e-01 -3.942556e-02 5.183103e-02 -1.808578e-01 -1.172003e-01 9.852360e-02 -1.993363e-02 -1.398728e-01 -5.458420e-02 1.630803e-02 3.570370e-02 1.268944e-02 2.643656e-02 1.146549e-02 -1.963983e-02 -2.184653e-02 -2.271457e-02 -2.491758e-02 -1.267229e-03 -2.509717e-02 -4.554633e-02 -3.498960e-04
<VARIANCE> 39
 2.941502e+01 4.037136e+01 1.357390e+01 5.361563e+01 3.354611e+01 1.920753e+01 9.336716e+00 2.959541e+01 1.845648e+01 2.927050e+01 4.343118e+01 5.405492e+01 6.906732e+01 2.534761e-01 1.054932e+00 8.092803e-01 2.083600e+00 1.116662e+00 1.380375e+00 8.497366e-01 1.029088e+00 1.030420e+00 7.621500e-01 3.177961e+00 2.931111e+00 5.320100e-01 3.171766e-02 1.287276e-01 1.288007e-01 2.303719e-01 1.314212e-01 2.531062e-01 1.468695e-01 1.400276e-01 2.044297e-01 1.422789e-01 4.833683e-01 4.578935e-01 6.657710e-02
<GCONST> 9.252487e+01
<STATE> 3
<MEAN> 39
 -1.093896e+01 -7.450286e-01 -4.705528e-01 -1.280195e+00 1.279879e-01 5.628764e-01 3.084926e+00 -3.497363e+00 -9.827136e-01 -3.132434e+00 -6.613221e-01 8.163553e-01 6.698891e+01 -3.354785e-01 -1.443556e-01 -2.071522e-01 -1.441104e-01 -2.211846e-01 -3.160686e-01 -3.934603e-02 -1.850229e-01 4.270001e-02 1.060201e-01 -1.141589e-01 -2.741544e-01 -3.582157e-01 2.079307e-02 9.650671e-02 1.062497e-01 1.194063e-01 6.578875e-03 1.268361e-03 1.851822e-02 1.294248e-02 -4.322773e-02 -2.025077e-02 -7.585687e-02 -8.579774e-02 3.406169e-03
<VARIANCE> 39
 7.802872e+01 5.793335e+01 1.618642e+01 4.009025e+01 3.338454e+01 2.534275e+01 2.105617e+01 7.140610e+01 3.985683e+01 3.275925e+01 1.972872e+01 2.379611e+01 1.514703e+02 3.842943e-01 1.075631e+00 5.423391e-01 1.195258e+00 1.571884e+00 1.381857e+00 1.382527e+00 1.570395e+00 1.250076e+00 1.060846e+00 1.765388e+00 1.559678e+00 4.946457e-01 5.966319e-02 1.426526e-01 1.122837e-01 1.504841e-01 1.781560e-01 2.062434e-01 2.556069e-01 2.303155e-01 2.576410e-01 1.780847e-01 2.976636e-01 2.531623e-01 4.895264e-02
<GCONST> 9.612942e+01
<STATE> 4
<MEAN> 39
 -1.816019e+01 1.298019e+00 -2.577529e+00 -8.066109e-01 3.503377e-01 1.384490e+00 2.973920e+00 1.881803e+00 1.676441e+00 1.171927e+00 1.395472e+00 -4.707780e-01 6.043671e+01 8.817792e-03 -9.425189e-02 -7.119675e-02 -1.011384e-02 -8.104422e-02 -1.153774e-01 -1.202214e-01 -1.309608e-01 -1.282583e-01 -1.807952e-02 1.833660e-02 -5.899302e-02 1.291025e-02 2.144398e-02 2.221241e-02 2.629670e-02 4.111084e-02 3.121770e-02 2.255388e-02 6.350785e-03 -1.040362e-03 -1.702869e-02 1.494452e-02 1.135957e-02 1.341986e-03 1.240965e-02
<VARIANCE> 39
 3.956393e+01 1.182095e+01 6.136225e+00 9.810268e+00 1.004529e+01 1.041283e+01 1.557292e+01 4.417657e+01 5.135111e+01 1.456580e+01 1.482981e+01 9.025490e+00 4.221932e+01 4.519096e-01 5.191319e-01 4.558962e-01 7.581566e-01 7.288415e-01 7.726887e-01 9.857248e-01 1.211703e+00 1.491529e+00 1.195435e+00 7.471464e-01 9.391211e-01 3.230078e-01 6.087152e-02 9.656882e-02 8.453796e-02 1.358395e-01 1.423439e-01 1.569543e-01 1.948335e-01 2.376441e-01 2.812255e-01 2.432152e-01 1.384230e-01 1.799976e-01 4.385571e-02
<GCONST> 7.856986e+01
<TRANSP> 5
 0.000000e+00 1.000000e+00 0.000000e+00 0.000000e+00 0.000000e+00
 0.000000e+00 9.077376e-01 9.226239e-02 0.000000e+00 0.000000e+00
 0.000000e+00 0.000000e+00 5.474224e-01 4.525776e-01 0.000000e+00
 0.000000e+00 0.000000e+00 0.000000e+00 9.166977e-01 8.330229e-02
 0.000000e+00 0.000000e+00 0.000000e+00 0.000000e+00 0.000000e+00
<ENDHMM>
~h "d"
<BEGINHMM>
<NUMSTATES> 5
<STATE> 2
<MEAN> 39
 -1.058945e+01 2.342678e-01 2.717309e+00 4.490044e+00 2.194327e+00 -1.000625e+00 -1.571576e+00 -4.593627e+00 -2.718869e+00 -2.469233e+00 -5.299114e-01 -1.323898e+00 6.744649e+01 9.418005e-02 -5.743602e-02 3.384385e-01 3.124270e-01 1.911760e-01 -1.468334e-01 -3.628091e-01 4.361018e-02 9.774464e-02 -1.799207e-01 -5.403852e-02 6.019637e-03 1.792153e-01 5.126456e-02 3.571632e-02 -2.566229e-03 8.152958e-04 8.047603e-04 -3.214297e-02 -2.982117e-02 4.878791e-03 -5.474751e-02 -9.259370e-02 2.749594e-03 -1.205287e-02 4.449902e-02
<VARIANCE> 39
 5.169624e+01 4.149494e+01 5.944170e+01 9.283376e+01 4.649482e+01 2.557182e+01 5.851365e+01 5.779131e+01 4.705954e+01 4.516304e+01 4.016660e+01 1.528997e+01 1.032851e+02 2.148918e+00 2.814148e+00 1.878122e+00 2.104131e+00 1.595057e+00 1.858644e+00 3.594705e+00 2.859920e+00 3.916609e+00 2.045863e+00 1.929338e+00 8.977183e-01 3.380849e+00 2.583916e-01 4.452838e-01 3.074589e-01 2.652551e-01 2.234681e-01 3.230497e-01 5.228864e-01 4.500455e-01 4.342520e-01 3.530667e-01 2.827797e-01 1.473213e-01 4.129921e-01
<GCONST> 1.176478e+02
<STATE> 3
<MEAN> 39
 -1.033665e+01 -4.612852e-01 4.003469e+00 6.115017e+00 2.525109e+00 -1.954810e+00 -3.112164e+00 -5.248857e+00 -2.184863e+00 -3.911603e+00 -1.921580e+00 -1.785087e+00 6.832030e+01 -2.022720e-01 4.538398e-01 3.361828e-02 -4.950188e-02 1.819380e-02 1.166420e-01 1.131160e-01 2.998077e-01 2.256677e-01 -1.255842e-02 -1.203932e-01 2.600905e-02 -4.572704e-01 3.354011e-02 7.373734e-02 6.570867e-02 1.561095e-03 -1.035452e-02 5.004488e-02 5.262997e-02 -6.234588e-02 -8.176572e-02 -3.978419e-02 1.913775e-03 -3.410523e-02 3.075388e-02
<VARIANCE> 39
 4.770688e+01 3.597952e+01 7.650174e+01 1.117036e+02 4.288909e+01 2.386442e+01 5.948331e+01 5.317593e+01 4.369387e+01 5.095856e+01 5.337489e+01 2.093373e+01 1.005147e+02 1.199224e+00 1.534924e+00 1.162327e+00 1.379493e+00 1.052815e+00 1.275648e+00 1.783050e+00 1.891505e+00 2.415803e+00 1.545864e+00 1.514292e+00 8.049073e-01 1.582563e+00 1.630163e-01 2.799079e-01 2.068079e-01 2.081718e-01 1.955569e-01 2.673874e-01 3.256817e-01 3.354181e-01 3.720805e-01 2.594662e-01 2.209392e-01 1.506225e-01 2.207441e-01
<GCONST> 1.084243e+02
<STATE> 4
<MEAN> 39
 -1.488470e+01 2.629619e+00 -1.378369e-01 1.806489e+00 1.447414e+00 4.873954e-01 1.354874e+00 7.700282e-01 1.236605e+00 6.489720e-01 1.114121e+00 -1.751480e-01 6.264283e+01 -2.928733e-01 1.557308e-01 4.540675e-02 -1.241717e-01 -5.069815e-02 1.820372e-01 1.757487e-01 1.500335e-01 1.573212e-01 -3.753459e-02 -1.074616e-01 3.958601e-03 -3.243940e-01 7.739761e-02 1.296476e-02 6.678703e-02 2.778491e-02 1.637264e-02 -7.765628e-04 -9.199161e-03 -1.053843e-01 -1.034104e-01 -3.370455e-02 9.072481e-03 -2.361651e-02 1.027737e-01
<VARIANCE> 39
 4.495773e+01 1.949955e+01 2.990835e+01 4.313223e+01 2.272686e+01 2.007796e+01 3.294698e+01 4.508652e+01 4.103217e+01 3.058500e+01 2.495193e+01 1.331816e+01 5.011894e+01 1.039687e+00 1.339132e+00 1.289478e+00 1.234537e+00 1.089873e+00 1.375944e+00 1.481838e+00 1.536330e+00 1.883080e+00 1.394738e+00 1.092056e+00 7.949044e-01 1.099412e+00 1.119251e-01 1.886194e-01 1.594423e-01 1.606805e-01 1.823209e-01 2.647604e-01 2.682115e-01 2.911416e-01 3.382960e-01 2.220764e-01 2.126204e-01 1.514644e-01 1.555099e-01
<GCONST> 9.785194e+01
<TRANSP> 5
 0.000000e+00 1.000000e+00 0.000000e+00 0.000000e+00 0.000000e+00
 0.000000e+00 3.971550e-01 6.028450e-01 0.000000e+00 0.000000e+00
 0.000000e+00 0.000000e+00 3.889823e-01 6.110176e-01 0.000000e+00
 0.000000e+00 0.000000e+00 0.000000e+00 6.864635e-01 3.135365e-01
 0.000000e+00 0.000000e+00 0.000000e+00 0.000000e+00 0.000000e+00
<ENDHMM>
~h "e"
<BEGINHMM>
<NUMSTATES> 5
<STATE> 2
<MEAN> 39
 -5.060853e+00 -4.104259e+00 -1.647574e-01 -4.198201e+00 -2.676756e+00 -2.713796e+00 2.839977e+00 -9.215902e+00 -6.327749e+00 -3.043792e+00 -1.954895e+00 3.857371e-01 7.634216e+01 4.221081e-01 -7.714970e-02 3.642915e-02 6.461638e-02 8.503023e-02 -9.155232e-02 2.963231e-02 -2.348531e-01 -3.102826e-01 -2.073520e-02 4.852810e-02 9.076086e-02 5.580619e-01 -3.307926e-02 4.112481e-03 3.308635e-02 3.805543e-02 2.763537e-02 -2.571978e-02 -4.733134e-02 1.085133e-02 2.364336e-02 4.358086e-02 1.935369e-03 -2.957806e-02 -4.369012e-02
<VARIANCE> 39
 4.734640e+01 5.602470e+01 4.673811e+01 5.534385e+01 5.040958e+01 3.249938e+01 5.572984e+01 4.288862e+01 5.262040e+01 6.368638e+01 4.658256e+01 2.987872e+01 7.370042e+01 3.245327e+00 3.703415e+00 2.389784e+00 3.224566e+00 2.538256e+00 3.364487e+00 3.090898e+00 2.422088e+00 3.184107e+00 3.214220e+00 2.778280e+00 1.727770e+00 5.610889e+00 4.429857e-01 5.284881e-01 3.834968e-01 4.604326e-01 3.855276e-01 5.955976e-01 4.269847e-01 3.629731e-01 4.700003e-01 5.878016e-01 4.346280e-01 2.763718e-01 6.928660e-01
<GCONST> 1.262657e+02
<STATE> 3
<MEAN> 39
 -5.793054e+00 -5.705449e+00 2.398321e+00 -1.152226e+00 4.390640e-01 -6.050437e-01 7.564027e-01 -1.209866e+01 -7.213138e+00 -3.476597e+00 -4.309548e-01 1.203015e+00 7.757059e+01 1.699663e-01 1.060751e-01 -1.020628e-01 2.750715e-01 2.064033e-01 -4.390647e-02 -1.726211e-01 -8.670139e-02 -2.439551e-02 8.232041e-02 8.447862e-02 6.758197e-02 -5.485745e-03 -8.867159e-02 3.423293e-02 3.286311e-03 -1.101286e-03 -4.949811e-03 3.640270e-02 -2.011564e-04 6.347369e-02 7.933253e-02 3.293301e-03 -3.305864e-02 -5.095422e-02 -9.576431e-02
<VARIANCE> 39
 4.611673e+01 6.297780e+01 5.648624e+01 6.631402e+01 4.337669e+01 3.311476e+01 4.817513e+01 4.806969e+01 5.168952e+01 4.032446e+01 5.681549e+01 3.626247e+01 4.126225e+01 2.733020e+00 3.751126e+00 2.430672e+00 3.240244e+00 2.214001e+00 3.519759e+00 2.699217e+00 2.500586e+00 3.265491e+00 2.162561e+00 3.633477e+00 2.311015e+00 2.568051e+00 3.165329e-01 5.903326e-01 3.683355e-01 4.621819e-01 3.465838e-01 5.609431e-01 3.569624e-01 4.087891e-01 4.533763e-01 3.937375e-01 5.801929e-01 3.961898e-01 3.316830e-01
<GCONST> 1.239621e+02
<STATE> 4
<MEAN> 39
 -5.733999e+00 8.908962e-01 -3.794801e-02 3.443694e+00 3.560757e+00 -2.109002e+00 -2.463380e+00 -8.597704e+00 -1.042912e+01 -8.306301e-02 6.626665e+00 6.044090e-01 7.200453e+01 -2.427281e-01 3.218970e-01 5.265006e-02 1.215933e-01 5.923529e-02 1.356628e-01 5.431930e-03 3.259101e-01 6.482097e-01 1.577345e-01 -2.859506e-01 -2.501113e-01 -3.797614e-01 -5.683602e-02 -1.399712e-02 1.859071e-03 -5.695977e-02 -4.463070e-02 7.550631e-03 2.320145e-02 4.746179e-02 1.354860e-01 1.921426e-02 -9.902544e-02 -3.078531e-02 -4.479323e-02
<VARIANCE> 39
 3.552225e+01 3.768844e+01 3.059250e+01 6.056179e+01 2.742425e+01 3.392944e+01 5.216904e+01 4.980535e+01 9.330753e+01 3.516121e+01 6.375440e+01 2.054890e+01 3.879871e+01 2.311198e+00 2.725703e+00 1.895498e+00 3.763902e+00 1.832919e+00 2.697271e+00 3.233740e+00 3.591128e+00 7.738451e+00 1.512889e+00 3.724703e+00 1.577087e+00 2.458405e+00 2.458469e-01 4.027359e-01 2.974277e-01 5.860099e-01 2.987238e-01 4.536887e-01 4.516629e-01 5.898352e-01 1.033128e+00 2.647987e-01 5.763572e-01 2.446276e-01 2.557793e-01
<GCONST> 1.210180e+02
<TRANSP> 5
 0.000000e+00 1.000000e+00 0.000000e+00 0.000000e+00 0.000000e+00
 0.000000e+00 8.734854e-01 1.265146e-01 0.000000e+00 0.000000e+00
 0.000000e+00 0.000000e+00 8.410304e-01 1.589696e-01 0.000000e+00
 0.000000e+00 0.000000e+00 0.000000e+00 8.441867e-01 1.558133e-01
 0.000000e+00 0.000000e+00 0.000000e+00 0.000000e+00 0.000000e+00
<ENDHMM>
~h "f"
<BEGINHMM>
<NUMSTATES> 5
<STATE> 2
<MEAN> 39
 -6.170805e+00 -1.687913e-01 7.547995e+00 9.903893e+00 9.342461e+00 -3.221175e+00 -7.794956e+00 -7.797717e+00 -7.788718e+00 -8.360992e+00 -1.816674e+00 -5.735842e+00 7.441988e+01 -1.060072e-01 -2.817613e-01 1.629836e-01 4.095446e-01 3.148569e-01 -1.807948e-02 -2.466393e-01 2.920183e-02 -9.408880e-02 -1.205310e-01 1.379727e-01 -1.710640e-01 6.085921e-02 -3.149882e-02 6.948312e-02 -3.346872e-02 -4.834435e-02 -3.888000e-02 7.277273e-02 7.859260e-02 2.846874e-02 4.443723e-02 2.697424e-02 1.364698e-02 5.379095e-02 -8.370382e-02
<VARIANCE> 39
 1.568606e+01 5.351080e+01 7.211825e+01 1.362678e+02 3.236811e+01 3.573986e+01 5.446175e+01 3.526447e+01 4.347899e+01 1.765790e+01 7.828407e+01 2.337004e+01 2.380690e+01 6.625802e-01 3.035748e+00 2.249170e+00 2.843780e+00 1.914416e+00 3.319119e+00 4.545089e+00 1.394267e+00 2.870013e+00 1.692598e+00 2.612819e+00 1.509469e+00 1.800839e+00 1.093385e-01 4.420750e-01 2.957987e-01 3.034667e-01 3.035046e-01 5.894187e-01 7.002898e-01 2.549353e-01 4.978821e-01 3.341421e-01 4.860902e-01 2.301194e-01 3.280905e-01
<GCONST> 1.153502e+02
<STATE> 3
<MEAN> 39
 -1.002194e+01 -7.035490e-01 6.752194e+00 8.026312e+00 7.470991e+00 1.278185e+00 -2.467789e+00 -4.788541e+00 -2.636412e+00 -5.384921e+00 -1.926567e+00 -4.618741e+00 7.167654e+01 -4.848365e-01 3.331350e-01 -5.092588e-01 -1.186511e+00 -6.344002e-01 8.030363e-01 1.099242e+00 2.712003e-01 6.941270e-01 4.921234e-01 -6.380340e-02 5.243508e-01 -4.102862e-01 -6.280537e-02 -5.306033e-02 3.105984e-02 -8.927507e-02 -3.972736e-02 5.010533e-03 9.806132e-03 3.666535e-02 6.998073e-02 1.025602e-02 6.136255e-03 4.168830e-02 1.085961e-02
<VARIANCE> 39
 1.397232e+01 3.825780e+01 1.936649e+01 8.420213e+01 2.340546e+01 3.449952e+01 4.190226e+01 2.730454e+01 4.732624e+01 1.273244e+01 3.779390e+01 1.505225e+01 1.985488e+01 1.015144e+00 1.254666e+00 9.905546e-01 1.697057e+00 2.109726e+00 1.916720e+00 2.111275e+00 2.297276e+00 2.747159e+00 1.537888e+00 1.911973e+00 1.149890e+00 1.216233e+00 1.554001e-01 2.861064e-01 1.810797e-01 3.702268e-01 5.111071e-01 2.793565e-01 4.217748e-01 4.146770e-01 4.498988e-01 2.768669e-01 3.519820e-01 2.010520e-01 2.610187e-01
<GCONST> 1.054070e+02
<STATE> 4
<MEAN> 39
 -1.269554e+01 -2.340180e+00 4.492865e+00 -2.825370e+00 4.761958e-02 2.189799e+00 1.669947e+00 -6.684594e+00 -5.147274e-01 -3.812752e+00 -1.604926e+00 -2.935863e+00 7.327367e+01 6.098974e-01 2.205568e-01 -2.475318e-01 -7.235531e-01 -1.142879e+00 -7.906134e-01 4.135807e-01 -4.071803e-02 3.437452e-01 5.996526e-01 -5.938368e-01 2.473274e-02 3.550662e-01 9.921189e-02 -1.155966e-01 -1.015365e-01 6.647150e-03 4.760205e-02 -6.481940e-02 3.133199e-02 -1.666689e-02 -2.063331e-03 3.409331e-02 -1.142139e-01 2.196448e-02 8.479193e-02
<VARIANCE> 39
 5.514241e+01 4.476370e+01 1.310683e+01 7.455449e+01 5.053226e+01 5.176331e+01 1.936035e+01 2.385463e+01 1.321507e+01 2.244073e+01 2.552197e+01 7.331387e+00 2.564513e+01 7.426969e+00 5.168488e+00 1.394407e+00 3.411530e+00 2.640912e+00 6.954257e+00 2.144743e+00 2.729877e+00 1.953730e+00 2.927587e+00 3.041056e+00 1.057477e+00 2.510320e+00 9.084258e-01 1.306415e+00 2.345006e-01 6.575161e-01 6.683934e-01 1.218536e+00 3.840576e-01 5.096819e-01 2.328779e-01 4.760410e-01 4.202438e-01 1.834497e-01 4.940905e-01
<GCONST> 1.192617e+02
<TRANSP> 5
 0.000000e+00 1.000000e+00 0.000000e+00 0.000000e+00 0.000000e+00
 0.000000e+00 9.607870e-01 3.921302e-02 0.000000e+00 0.000000e+00
 0.000000e+00 0.000000e+00 7.637655e-01 2.362345e-01 0.000000e+00
 0.000000e+00 0.000000e+00 0.000000e+00 8.726121e-01 1.273879e-01
 0.000000e+00 0.000000e+00 0.000000e+00 0.000000e+00 0.000000e+00
<ENDHMM>
~h "g"
<BEGINHMM>
<NUMSTATES> 5
<STATE> 2
<MEAN> 39
 -1.273983e+00 -4.341543e+00 3.613343e-01 -6.052907e+00 -4.689711e+00 -3.579525e+00 1.815415e+00 -6.097445e+00 -3.841128e-01 -1.049860e+01 -6.079220e+00 5.312582e+00 8.033884e+01 2.510203e-02 -4.477563e-02 -2.414890e-02 7.486984e-03 -1.160718e-01 -7.593597e-02 4.360515e-02 -5.784494e-02 -1.732468e-02 9.721144e-02 1.278806e-02 2.300005e-02 2.211653e-02 -9.656187e-03 4.164186e-03 3.452902e-03 3.671056e-02 4.495809e-02 3.509196e-02 -8.177842e-03 -1.183845e-02 -7.066410e-03 -2.207046e-03 -1.131503e-02 -2.456261e-02 -1.271139e-02
<VARIANCE> 39
 6.142635e+00 6.148624e+01 1.987871e+01 3.693217e+01 2.938973e+01 5.563411e+01 3.842619e+01 2.254864e+01 3.436896e+01 2.319713e+01 5.656123e+01 4.970121e+01 2.174384e+01 3.502143e-01 1.664664e+00 1.459550e+00 2.354765e+00 1.202396e+00 3.014653e+00 1.881680e+00 1.171718e+00 1.813472e+00 1.289602e+00 2.231209e+00 2.464323e+00 7.773021e-01 6.348488e-02 1.492064e-01 2.000302e-01 2.977083e-01 1.512960e-01 4.102807e-01 2.543096e-01 1.706957e-01 3.255239e-01 2.278879e-01 3.273220e-01 3.338697e-01 9.661992e-02
<GCONST> 1.006024e+02
<STATE> 3
<MEAN> 39
 -2.635274e+00 -2.614398e+00 2.168396e+00 -9.286377e-01 -4.122231e+00 -3.407622e+00 2.423142e-01 -7.724802e+00 -1.885220e+00 -6.038664e+00 -5.428501e+00 1.165848e-01 7.747617e+01 -1.221897e-01 4.078810e-03 1.088122e-02 3.984556e-01 5.922014e-01 1.996745e-01 -2.635722e-01 -1.656533e-01 -1.070316e-02 2.072316e-01 -9.048106e-03 -1.657196e-01 -1.624819e-01 -1.255373e-02 6.813651e-02 3.254540e-03 3.434610e-02 7.071424e-02 -1.247322e-02 -3.129648e-02 5.737305e-03 -4.378657e-02 -4.167052e-04 3.212415e-02 -3.689851e-02 -5.406450e-02
<VARIANCE> 39
 1.575586e+01 4.876628e+01 2.274591e+01 2.518954e+01 4.463281e+01 3.562069e+01 3.361975e+01 4.589545e+01 9.226180e+01 3.005219e+01 1.190879e+02 1.490725e+01 3.926683e+01 4.123171e-01 2.342945e+00 1.111641e+00 1.262233e+00 1.232718e+00 1.788805e+00 2.214897e+00 1.726009e+00 1.993059e+00 1.766905e+00 1.997987e+00 1.379594e+00 1.440922e+00 5.502431e-02 2.535150e-01 1.519261e-01 1.830810e-01 1.674922e-01 2.814893e-01 3.173789e-01 2.599709e-01 2.958269e-01 3.146999e-01 3.495694e-01 2.342550e-01 1.575019e-01
<GCONST> 1.034102e+02
<STATE> 4
<MEAN> 39
 -5.093000e+00 -2.666912e+00 3.410953e+00 4.679858e+00 4.537926e+00 -2.549996e+00 -2.605422e+00 -1.075978e+01 -1.012675e+01 -4.340681e+00 1.664749e+00 -2.345901e+00 7.466940e+01 -5.720155e-02 1.677134e-01 6.242342e-02 8.491334e-02 1.247714e-01 5.041554e-02 1.276167e-01 5.435354e-02 -1.134994e-02 1.749857e-01 2.146571e-02 -8.745803e-02 -1.423488e-01 -4.785427e-02 4.137586e-02 -5.545747e-03 -4.795603e-02 -5.681869e-02 2.087136e-02 4.896312e-02 8.181535e-02 1.320442e-01 2.294887e-02 -5.153749e-02 2.592337e-02 -6.711626e-02
<VARIANCE> 39
 1.772594e+01 5.729932e+01 2.503445e+01 6.067768e+01 5.776595e+01 2.883545e+01 8.281494e+01 4.889479e+01 9.808357e+01 3.965124e+01 8.519094e+01 2.182786e+01 5.462841e+01 1.428615e+00 3.516768e+00 1.612307e+00 2.678536e+00 2.761197e+00 2.378958e+00 4.162141e+00 2.737638e+00 5.318472e+00 2.608431e+00 2.865797e+00 1.603808e+00 3.419758e+00 1.412056e-01 5.143449e-01 2.768858e-01 3.964454e-01 4.658238e-01 3.994139e-01 6.201015e-01 3.963428e-01 6.049057e-01 4.562160e-01 4.143346e-01 2.573861e-01 4.076203e-01
<GCONST> 1.218826e+02
<TRANSP> 5
 0.000000e+00 1.000000e+00 0.000000e+00 0.000000e+00 0.000000e+00
 0.000000e+00 9.658592e-01 3.414080e-02 0.000000e+00 0.000000e+00
 0.000000e+00 0.000000e+00 8.830642e-01 1.169358e-01 0.000000e+00
 0.000000e+00 0.000000e+00 0.000000e+00 9.483160e-01 5.168396e-02
 0.000000e+00 0.000000e+00 0.000000e+00 0.000000e+00 0.000000e+00
<ENDHMM>
~h "i"
<BEGINHMM>
<NUMSTATES> 5
<STATE> 2
<MEAN> 39
 -8.716914e+00 3.003970e-01 1.671380e+00 1.223447e+00 3.338324e-01 -1.213162e+00 8.721355e-01 -5.863775e+00 -3.690220e+00 -4.348738e-01 -4.355562e-01 -1.611396e+00 6.957365e+01 -1.762196e-01 3.386005e-01 2.433074e-02 -1.350410e-01 -1.188941e-01 2.592124e-01 4.057443e-01 2.831798e-01 5.139389e-01 3.185810e-01 -8.988393e-02 7.925332e-02 -2.762313e-01 -2.338541e-02 -3.422441e-02 -3.589986e-02 1.642136e-02 1.566933e-02 1.021374e-02 -3.485872e-03 -3.043034e-02 -1.103813e-01 -5.276483e-02 1.056451e-01 1.488725e-02 -4.239095e-02
<VARIANCE> 39
 6.195866e+01 6.756982e+01 5.494181e+01 6.735846e+01 5.847979e+01 3.220889e+01 7.424872e+01 5.306020e+01 3.862835e+01 3.764874e+01 3.793719e+01 2.060469e+01 1.078022e+02 2.795909e+00 2.394013e+00 2.308649e+00 2.404197e+00 1.863781e+00 1.930098e+00 3.543535e+00 1.990681e+00 2.763082e+00 1.803089e+00 1.292950e+00 1.228450e+00 3.768569e+00 3.056147e-01 3.205485e-01 2.366420e-01 2.713846e-01 2.499805e-01 3.868989e-01 4.893217e-01 3.301882e-01 4.252157e-01 2.975053e-01 2.918600e-01 1.842829e-01 3.996556e-01
<GCONST> 1.177862e+02
<STATE> 3
<MEAN> 39
 -9.815548e+00 2.256437e+00 2.353910e+00 1.854085e+00 1.679929e+00 -2.237996e-01 -1.086184e-01 -4.798822e+00 -2.630509e+00 -6.561505e-01 -9.010494e-02 -1.519011e+00 6.754429e+01 -4.271455e-01 3.346279e-01 -7.499535e-02 -8.439231e-02 -1.220522e-02 3.832032e-01 3.808909e-01 3.456946e-01 3.875094e-01 1.622154e-01 7.463019e-02 1.205188e-01 -6.184101e-01 -4.833735e-03 -1.311224e-01 -4.178043e-02 -1.824354e-03 -4.899999e-02 -4.625515e-02 3.265553e-02 -3.666208e-02 -1.381906e-01 -7.856533e-02 7.199904e-02 9.951549e-03 4.565528e-02
<VARIANCE> 39
 5.700805e+01 5.618690e+01 4.746964e+01 5.658394e+01 4.133001e+01 2.923614e+01 4.287750e+01 5.315284e+01 3.966067e+01 3.104711e+01 3.762425e+01 2.354210e+01 8.846916e+01 1.638248e+00 2.045321e+00 2.077734e+00 2.398801e+00 1.486328e+00 1.827053e+00 2.636986e+00 1.813597e+00 2.031322e+00 1.643962e+00 1.248583e+00 1.039948e+00 1.659321e+00 2.124109e-01 2.798328e-01 2.609241e-01 2.565579e-01 2.248225e-01 3.563243e-01 4.423793e-01 3.137197e-01 4.043160e-01 3.010370e-01 2.550719e-01 2.283644e-01 2.239604e-01
<GCONST> 1.117398e+02
<STATE> 4
<MEAN> 39
 -1.531571e+01 2.884339e+00 -1.789429e-01 9.945281e-01 1.338132e+00 1.087407e+00 2.062030e+00 4.736781e-01 1.339842e+00 1.245027e+00 9.592186e-01 -8.133736e-01 6.241537e+01 -3.979348e-01 -1.167808e-01 -2.041630e-01 -2.063520e-01 -1.080371e-01 1.854559e-01 2.831374e-01 2.462650e-01 2.106561e-01 4.552341e-02 5.154966e-02 9.954675e-02 -3.377084e-01 4.733870e-02 -6.409263e-02 1.240853e-02 1.659940e-02 -2.186989e-02 -5.795977e-02 -4.553146e-02 -6.003209e-02 -1.060049e-01 -6.211732e-02 1.597720e-02 -1.869141e-02 7.842030e-02
<VARIANCE> 39
 4.692686e+01 2.673940e+01 2.855546e+01 2.869632e+01 2.150708e+01 1.617061e+01 2.200822e+01 4.341154e+01 3.420869e+01 1.888437e+01 2.127359e+01 1.314663e+01 4.618355e+01 8.553623e-01 1.136330e+00 1.202111e+00 1.336068e+00 1.209709e+00 1.414063e+00 1.835573e+00 1.546339e+00 1.469062e+00 1.137947e+00 9.530362e-01 8.225874e-01 8.547086e-01 1.153576e-01 1.860542e-01 1.825141e-01 2.052350e-01 2.143916e-01 2.448995e-01 2.860130e-01 2.424461e-01 2.748898e-01 2.290417e-01 1.654860e-01 1.730945e-01 1.039723e-01
<GCONST> 9.498709e+01
<TRANSP> 5
 0.000000e+00 1.000000e+00 0.000000e+00 0.000000e+00 0.000000e+00
 0.000000e+00 3.316719e-01 6.683280e-01 0.000000e+00 0.000000e+00
 0.000000e+00 0.000000e+00 2.869111e-01 7.130888e-01 0.000000e+00
 0.000000e+00 0.000000e+00 0.000000e+00 6.899610e-01 3.100390e-01
 0.000000e+00 0.000000e+00 0.000000e+00 0.000000e+00 0.000000e+00
<ENDHMM>
~h "j"
<BEGINHMM>
<NUMSTATES> 5
<STATE> 2
<MEAN> 39
 -1.217037e+01 1.651299e+00 -3.861725e+00 -3.244120e+00 -2.027933e+00 -1.153425e+00 2.707139e+00 -1.344669e-01 -1.159668e+00 2.960264e+00 2.735383e+00 -4.876277e-01 6.436520e+01 -3.797192e-01 1.276135e-01 1.316978e-01 2.452413e-02 -4.002685e-02 4.108887e-03 -1.143185e-01 1.038607e-01 1.983759e-01 -2.210654e-01 -5.490183e-02 5.009771e-02 -3.614634e-01 1.011376e-01 -1.477435e-01 1.070866e-01 -7.662590e-02 -3.414736e-02 -7.583027e-02 1.032366e-01 -1.349841e-01 -1.569355e-01 -3.657999e-02 1.712816e-02 4.216191e-02 3.238516e-01
<VARIANCE> 39
 7.955115e+01 1.801609e+01 9.677557e+00 1.547792e+01 1.802138e+01 1.627329e+01 1.719999e+01 4.191002e+01 6.602092e+01 1.407912e+01 2.779358e+01 1.377851e+01 7.801283e+01 3.380879e+00 2.265181e+00 1.203544e+00 1.317554e+00 1.818507e+00 1.231013e+00 2.414439e+00 2.332324e+00 3.908309e+00 1.758384e+00 1.472495e+00 1.582583e+00 3.951782e+00 4.606809e-01 3.523253e-01 2.116461e-01 2.966346e-01 3.355625e-01 2.309446e-01 4.974881e-01 4.139118e-01 4.921896e-01 3.229463e-01 2.427145e-01 3.098941e-01 6.685227e-01
<GCONST> 1.089804e+02
<STATE> 3
<MEAN> 39
 -1.046544e+01 8.892218e-01 -2.728060e+00 -3.935621e+00 -2.412439e+00 -1.685583e+00 2.510870e+00 -3.458163e+00 -3.533695e+00 1.201151e+00 1.474106e+00 -9.358926e-01 6.599300e+01 4.337391e-01 -3.570773e-01 4.272262e-01 -4.160741e-01 -4.708818e-01 -3.135584e-01 2.401924e-01 -3.732694e-01 -5.524999e-01 -4.249303e-01 1.656790e-01 2.286515e-01 1.308720e+00 1.912430e-01 -1.786045e-01 1.278802e-01 -5.910722e-02 -8.451187e-02 -1.470772e-02 1.244028e-01 -2.584278e-02 -7.736865e-02 -2.615689e-02 -8.989824e-02 -1.138927e-02 4.276893e-01
<VARIANCE> 39
 6.687826e+01 2.539529e+01 1.378346e+01 2.890269e+01 2.518673e+01 1.664776e+01 3.552536e+01 3.573346e+01 4.230418e+01 2.534942e+01 3.134287e+01 1.262303e+01 9.103805e+01 4.709483e+00 3.326198e+00 1.416524e+00 3.113286e+00 2.603076e+00 1.867042e+00 4.466181e+00 2.973604e+00 4.366326e+00 3.223919e+00 2.923622e+00 1.669479e+00 1.209836e+01 5.850773e-01 3.866647e-01 2.413647e-01 4.615953e-01 4.488140e-01 3.291575e-01 6.189087e-01 5.201744e-01 3.950589e-01 5.763838e-01 5.140074e-01 3.048460e-01 1.279083e+00
<GCONST> 1.210685e+02
<STATE> 4
<MEAN> 39
 -5.322396e+00 -2.612020e+00 -9.429289e-01 -6.588904e+00 -5.402935e+00 -2.075419e+00 6.658454e+00 -7.475995e+00 -6.108530e+00 2.677094e+00 -9.484998e-01 -8.328723e-01 7.499502e+01 5.104833e-01 5.977558e-03 1.671320e-01 1.205226e-01 2.877033e-02 -8.815403e-02 -1.184503e-01 -1.897054e-01 1.652656e-01 2.210469e-01 -4.027687e-01 -1.148306e-02 5.641342e-01 -1.161153e-01 8.502112e-02 -3.182969e-02 1.225729e-01 1.203407e-01 6.188963e-02 -1.003063e-01 6.643166e-02 1.209266e-01 1.246987e-02 -3.016194e-03 1.017005e-02 -2.568639e-01
<VARIANCE> 39
 4.868701e+01 4.951807e+01 1.792057e+01 5.185475e+01 3.045171e+01 1.931913e+01 6.386043e+01 5.583943e+01 3.892456e+01 4.785435e+01 7.070058e+01 1.353876e+01 8.317545e+01 4.372525e+00 3.506482e+00 1.855937e+00 2.376896e+00 2.384923e+00 1.841095e+00 3.921593e+00 3.292611e+00 3.507479e+00 5.407621e+00 3.554922e+00 1.423664e+00 8.558327e+00 5.612160e-01 4.551047e-01 2.892455e-01 3.452016e-01 3.750297e-01 3.528047e-01 5.741604e-01 5.127118e-01 4.257099e-01 9.338801e-01 5.389736e-01 2.488523e-01 9.515740e-01
<GCONST> 1.247381e+02
<TRANSP> 5
 0.000000e+00 1.000000e+00 0.000000e+00 0.000000e+00 0.000000e+00
 0.000000e+00 7.676457e-01 2.323543e-01 0.000000e+00 0.000000e+00
 0.000000e+00 0.000000e+00 6.448180e-01 3.551819e-01 0.000000e+00
 0.000000e+00 0.000000e+00 0.000000e+00 9.090488e-01 9.095124e-02
 0.000000e+00 0.000000e+00 0.000000e+00 0.000000e+00 0.000000e+00
<ENDHMM>
~h "k"
<BEGINHMM>
<NUMSTATES> 5
<STATE> 2
<MEAN> 39
 -1.071945e+01 -6.626567e-02 -1.557664e+00 -3.330207e+00 -1.311549e+00 5.515272e-02 1.500735e+00 -3.745608e+00 -4.574611e+00 1.049806e+00 2.913237e+00 -9.271969e-01 6.810904e+01 6.786323e-01 -1.692727e-03 1.084582e-01 -3.193979e-01 -4.162162e-01 -2.982970e-01 2.353662e-01 -1.706030e-01 -2.443380e-01 1.136761e-01 -2.282406e-01 -1.775294e-01 8.407476e-01 9.688151e-02 -4.837712e-02 -7.848328e-02 -4.534082e-02 -3.306766e-02 -4.622884e-02 8.277004e-02 3.660634e-02 -1.464937e-02 8.365247e-02 -2.697473e-02 3.458602e-02 4.328444e-02
<VARIANCE> 39
 7.740498e+01 2.631650e+01 1.967082e+01 4.044976e+01 3.329407e+01 2.390326e+01 3.109395e+01 4.024716e+01 6.462261e+01 2.880504e+01 5.166335e+01 1.815780e+01 9.242224e+01 5.906178e+00 2.815159e+00 1.815977e+00 3.249617e+00 2.414316e+00 2.070462e+00 2.280084e+00 2.664387e+00 5.742028e+00 3.310854e+00 3.151394e+00 1.837687e+00 8.170104e+00 6.888100e-01 4.435716e-01 3.162557e-01 5.815847e-01 4.342060e-01 3.639023e-01 3.891300e-01 4.100691e-01 7.521140e-01 6.199749e-01 5.067149e-01 3.559347e-01 9.785241e-01
<GCONST> 1.244311e+02
<STATE> 3
<MEAN> 39
 -8.711277e+00 1.089614e+00 -1.369901e+00 -1.477469e+00 -1.753440e+00 -9.953837e-01 2.152044e+00 -5.098443e+00 -3.068593e+00 2.133790e+00 -3.626579e-02 -1.285464e+00 6.834182e+01 -2.796557e-01 2.428947e-01 -7.297444e-02 -6.940630e-02 -5.318279e-02 -3.117034e-02 2.742555e-01 3.907608e-01 3.905840e-01 1.871939e-01 -2.290984e-01 7.807422e-02 -4.995701e-01 -1.532995e-01 -1.287955e-01 2.008930e-02 -5.845504e-02 8.617648e-02 8.041304e-02 3.749210e-02 6.337174e-02 -9.092131e-02 -1.737477e-01 1.881306e-01 3.628793e-02 -2.795898e-02
<VARIANCE> 39
 6.597279e+01 2.408164e+01 1.565962e+01 3.748700e+01 3.522517e+01 3.307946e+01 3.514238e+01 3.834007e+01 3.708794e+01 2.037580e+01 5.545178e+01 1.987045e+01 1.009941e+02 2.591028e+00 1.859038e+00 1.940614e+00 2.332787e+00 1.883016e+00 1.593682e+00 1.824804e+00 2.336913e+00 3.061493e+00 2.558949e+00 1.911026e+00 1.363969e+00 2.552587e+00 3.499106e-01 2.445595e-01 2.429876e-01 2.729313e-01 3.299525e-01 3.348068e-01 2.571487e-01 2.538390e-01 4.288734e-01 3.387194e-01 3.320313e-01 2.689677e-01 4.183393e-01
<GCONST> 1.122019e+02
<STATE> 4
<MEAN> 39
 -1.013985e+01 2.079513e+00 -2.129148e+00 -1.053828e+00 -1.353344e+00 -6.990658e-01 1.619111e+00 -2.550753e+00 -1.798960e+00 2.631273e+00 2.249002e+00 -6.273339e-01 6.654008e+01 -2.172913e-01 1.282401e-01 1.025154e-01 1.062601e-01 1.810079e-01 9.058347e-02 6.971362e-02 1.784126e-01 1.984085e-01 -4.745339e-02 -8.083759e-02 -6.389557e-02 -2.508608e-01 -7.013388e-03 -5.347401e-02 1.956384e-02 -5.413906e-03 1.847103e-02 -7.566863e-04 -2.432540e-02 -2.592124e-02 -6.614257e-02 -6.494429e-02 6.900599e-02 -1.915904e-02 5.364307e-02
<VARIANCE> 39
 7.661869e+01 1.779379e+01 1.238069e+01 2.997737e+01 2.685190e+01 2.765461e+01 3.302091e+01 4.223117e+01 4.874768e+01 1.668644e+01 3.933944e+01 1.176951e+01 7.537849e+01 2.076117e+00 1.237608e+00 1.209660e+00 2.163698e+00 1.598761e+00 1.543427e+00 2.025600e+00 2.067322e+00 2.405179e+00 1.291260e+00 1.353325e+00 9.731802e-01 2.069642e+00 2.503186e-01 1.940289e-01 1.764380e-01 2.295705e-01 2.443063e-01 2.830774e-01 3.242905e-01 3.215104e-01 3.354462e-01 2.246137e-01 2.386827e-01 1.808062e-01 2.348806e-01
<GCONST> 1.038600e+02
<TRANSP> 5
 0.000000e+00 1.000000e+00 0.000000e+00 0.000000e+00 0.000000e+00
 0.000000e+00 6.873005e-01 3.126995e-01 0.000000e+00 0.000000e+00
 0.000000e+00 0.000000e+00 2.658269e-01 7.341731e-01 0.000000e+00
 0.000000e+00 0.000000e+00 0.000000e+00 6.466593e-01 3.533407e-01
 0.000000e+00 0.000000e+00 0.000000e+00 0.000000e+00 0.000000e+00
<ENDHMM>
~h "l"
<BEGINHMM>
<NUMSTATES> 5
<STATE> 2
<MEAN> 39
 -5.272183e+00 -2.213125e+00 5.802923e+00 4.206213e+00 2.342628e+00 -3.459823e+00 -1.090710e+00 -7.423384e+00 -4.849228e+00 -5.995618e+00 -3.414189e+00 -3.099725e+00 7.589596e+01 1.231475e-01 -2.020684e-01 1.999189e-01 8.862226e-02 -3.136393e-02 -1.385993e-01 -2.196391e-01 -3.009043e-02 -1.406622e-01 -2.074119e-01 5.051506e-03 -1.360072e-01 2.821409e-01 -1.627059e-02 4.059144e-02 -3.210076e-02 -7.556588e-02 -4.713241e-02 5.069897e-02 2.824887e-02 1.287954e-02 2.182699e-02 -1.055005e-04 7.336400e-03 5.065620e-02 -5.306264e-02
<VARIANCE> 39
 2.489629e+01 6.874460e+01 8.101798e+01 1.143983e+02 7.987489e+01 4.114957e+01 8.836867e+01 4.240366e+01 3.274604e+01 5.697674e+01 5.462900e+01 2.680554e+01 3.751995e+01 1.105479e+00 4.114085e+00 3.229448e+00 2.942556e+00 2.217358e+00 2.622865e+00 3.290699e+00 2.182046e+00 2.064699e+00 2.221747e+00 2.303370e+00 1.744369e+00 1.926582e+00 1.399580e-01 6.122103e-01 4.457598e-01 3.643039e-01 3.068165e-01 3.779024e-01 4.742429e-01 3.343164e-01 3.314315e-01 3.606634e-01 3.813389e-01 2.775316e-01 2.450020e-01
<GCONST> 1.200489e+02
<STATE> 3
<MEAN> 39
 -3.570829e+00 -3.403893e+00 3.822813e+00 1.223333e+00 -1.231475e+00 -3.887564e+00 4.141496e-01 -8.574663e+00 -4.267841e+00 -6.215353e+00 -3.613545e+00 -6.404834e-01 7.780389e+01 2.826842e-02 9.362298e-02 -1.329467e-01 -1.928934e-01 -2.204152e-01 3.868158e-02 1.079086e-01 -6.448768e-02 -4.849587e-02 6.280974e-02 5.123589e-02 8.951607e-02 -6.387743e-02 -4.027416e-02 6.465463e-03 -1.872240e-02 -2.771331e-02 2.849201e-02 3.430470e-02 2.309187e-03 -4.382022e-03 1.553870e-02 1.813020e-02 3.888918e-02 3.262300e-02 -4.625249e-02
<VARIANCE> 39
 9.890188e+00 4.603679e+01 3.069415e+01 8.006676e+01 9.532487e+01 3.084888e+01 9.771734e+01 4.357359e+01 2.939982e+01 4.675166e+01 6.129327e+01 4.560369e+01 2.327805e+01 4.542900e-01 2.489656e+00 1.694187e+00 2.329790e+00 2.163913e+00 2.164302e+00 2.770163e+00 1.877232e+00 1.537335e+00 1.827537e+00 2.810990e+00 1.910079e+00 1.151721e+00 5.184205e-02 3.205410e-01 2.406927e-01 2.807234e-01 2.348038e-01 3.441615e-01 3.830952e-01 2.722032e-01 2.581820e-01 2.836469e-01 4.388146e-01 3.074446e-01 1.322537e-01
<GCONST> 1.095923e+02
<STATE> 4
<MEAN> 39
 -3.768629e+00 2.162054e+00 2.002386e+00 5.247803e+00 3.073293e+00 -4.790162e+00 -5.005801e+00 -6.215162e+00 -1.123248e+01 -1.429553e+00 7.327174e+00 -1.817308e+00 7.284246e+01 -1.115752e-01 -3.062130e-02 -2.316108e-01 -2.698325e-01 -5.915570e-02 2.104950e-01 2.246493e-01 -6.623523e-03 9.554388e-02 2.235460e-01 1.557171e-01 1.920331e-01 -1.465433e-01 -5.318535e-02 -3.601007e-02 3.376625e-02 1.991550e-03 2.037461e-02 2.031750e-02 -8.874651e-03 2.275680e-02 5.274123e-02 -1.941056e-03 -3.806936e-03 1.711208e-02 -1.817743e-02
<VARIANCE> 39
 1.083560e+01 3.740483e+01 2.108735e+01 4.065865e+01 4.704991e+01 2.156771e+01 5.774318e+01 3.765963e+01 5.596678e+01 4.145132e+01 7.985541e+01 2.083364e+01 1.898135e+01 4.361667e-01 1.703449e+00 1.340727e+00 1.752666e+00 1.631486e+00 1.502870e+00 2.259428e+00 1.306797e+00 2.597626e+00 1.510180e+00 2.481054e+00 1.506394e+00 9.219035e-01 4.424325e-02 2.200240e-01 1.926941e-01 2.674643e-01 2.155677e-01 2.273586e-01 3.354131e-01 2.133089e-01 4.092692e-01 2.698129e-01 3.589440e-01 2.399504e-01 7.448774e-02
<GCONST> 1.017900e+02
<TRANSP> 5
 0.000000e+00 1.000000e+00 0.000000e+00 0.000000e+00 0.000000e+00
 0.000000e+00 8.796769e-01 1.203231e-01 0.000000e+00 0.000000e+00
 0.000000e+00 0.000000e+00 9.071360e-01 9.286401e-02 0.000000e+00
 0.000000e+00 0.000000e+00 0.000000e+00 8.940678e-01 1.059322e-01
 0.000000e+00 0.000000e+00 0.000000e+00 0.000000e+00 0.000000e+00
<ENDHMM>
~h "m"
<BEGINHMM>
<NUMSTATES> 5
<STATE> 2
<MEAN> 39
 -1.400500e+01 3.741514e+00 -5.414379e-01 1.212006e-01 7.947410e-01 1.725042e+00 2.671139e+00 -3.691351e-02 8.671887e-01 1.355860e-02 -3.737709e-02 -1.517680e+00 6.193921e+01 -2.800207e-01 -1.345470e-01 -1.693548e-01 -1.273179e-01 -4.730683e-02 -6.690452e-02 -1.842489e-01 7.139842e-02 6.998593e-02 2.921439e-02 1.238581e-01 1.780517e-01 -3.214039e-01 6.883955e-04 -1.436901e-01 -1.510463e-02 -6.387357e-03 -4.483926e-02 -6.780718e-02 -4.320429e-02 -7.026179e-02 -6.187478e-02 4.174296e-02 6.053139e-03 -5.885363e-03 8.666106e-02
<VARIANCE> 39
 4.718687e+01 1.822520e+01 2.640932e+01 2.725251e+01 2.587340e+01 1.632020e+01 2.373128e+01 2.962229e+01 2.724551e+01 1.606252e+01 2.110950e+01 1.002582e+01 4.351908e+01 1.024334e+00 9.152811e-01 9.900938e-01 1.230351e+00 1.020649e+00 1.248977e+00 1.763747e+00 1.562476e+00 1.422847e+00 1.018537e+00 1.151424e+00 1.081699e+00 1.028072e+00 1.523535e-01 2.659565e-01 1.613465e-01 1.936694e-01 1.779491e-01 2.474483e-01 2.801062e-01 2.923752e-01 2.505323e-01 2.168088e-01 1.755978e-01 1.642568e-01 1.115883e-01
<GCONST> 9.388234e+01
<STATE> 3
<MEAN> 39
 -1.402135e+01 3.686256e+00 -5.238049e-01 2.565398e-01 1.019195e+00 1.556660e+00 1.948909e+00 -3.961676e-01 4.517202e-01 -2.493231e-01 4.318538e-02 -1.254887e+00 6.143448e+01 -2.406647e-01 -1.982165e-01 -8.760659e-02 -6.337082e-02 -3.563054e-02 -1.481322e-01 -2.899242e-01 -9.630944e-02 -7.085268e-02 4.393722e-02 1.473323e-01 1.172486e-01 -1.932170e-01 1.290513e-02 -1.391934e-01 3.970002e-02 7.517952e-02 2.715458e-02 -2.052803e-02 -8.196516e-03 -5.303251e-02 -4.527863e-02 1.297051e-02 -7.927728e-03 -6.015224e-02 1.406158e-01
<VARIANCE> 39
 4.758203e+01 1.904240e+01 2.814803e+01 2.812918e+01 2.283301e+01 1.914794e+01 2.583879e+01 2.865966e+01 2.699305e+01 1.688818e+01 2.282526e+01 9.965554e+00 4.595244e+01 8.583164e-01 7.891768e-01 8.549777e-01 1.213925e+00 9.986178e-01 1.261613e+00 1.523158e+00 1.271188e+00 1.291981e+00 1.011065e+00 1.154013e+00 1.028124e+00 1.136016e+00 1.476210e-01 3.069406e-01 1.792255e-01 2.535255e-01 1.876805e-01 2.565839e-01 3.269103e-01 2.771160e-01 2.587233e-01 2.064071e-01 2.079279e-01 2.034661e-01 1.930398e-01
<GCONST> 9.497236e+01
<STATE> 4
<MEAN> 39
 -1.330164e+01 3.034449e+00 -1.515795e+00 -7.452406e-01 1.671404e+00 1.311720e+00 1.219004e+00 7.221459e-01 -6.666069e-01 1.215456e+00 3.366621e+00 -6.993563e-01 6.344860e+01 -1.742807e-01 -1.891597e-01 -2.215794e-02 5.141214e-03 -1.821937e-02 -6.452965e-02 -6.410946e-02 -6.979853e-03 -9.921499e-03 3.636460e-02 2.410160e-02 -1.234291e-02 -4.760302e-02 4.101351e-02 -4.509883e-02 5.757567e-02 6.826666e-02 2.086817e-02 -1.811768e-02 1.538160e-02 -1.992244e-02 -4.788789e-02 -1.750846e-02 -2.274005e-02 -5.370022e-02 1.004216e-01
<VARIANCE> 39
 6.479871e+01 1.381294e+01 1.835304e+01 2.430399e+01 1.655350e+01 2.631100e+01 3.626346e+01 2.675615e+01 4.555031e+01 1.570682e+01 4.158397e+01 9.107258e+00 5.336640e+01 1.345676e+00 1.092051e+00 1.064669e+00 1.279351e+00 1.089087e+00 1.692624e+00 1.909958e+00 1.473974e+00 1.941572e+00 1.063314e+00 1.276259e+00 9.203109e-01 1.473142e+00 1.906403e-01 2.067628e-01 2.144996e-01 2.843277e-01 1.953370e-01 3.103064e-01 3.259821e-01 2.892487e-01 3.633902e-01 2.185366e-01 2.014765e-01 1.858225e-01 2.182658e-01
<GCONST> 9.909401e+01
<TRANSP> 5
 0.000000e+00 1.000000e+00 0.000000e+00 0.000000e+00 0.000000e+00
 0.000000e+00 4.778615e-01 5.221386e-01 0.000000e+00 0.000000e+00
 0.000000e+00 0.000000e+00 4.134197e-01 5.865803e-01 0.000000e+00
 0.000000e+00 0.000000e+00 0.000000e+00 7.368588e-01 2.631412e-01
 0.000000e+00 0.000000e+00 0.000000e+00 0.000000e+00 0.000000e+00
<ENDHMM>
~h "n"
<BEGINHMM>
<NUMSTATES> 5
<STATE> 2
<MEAN> 39
 -8.833858e+00 4.707367e-01 6.959915e+00 5.095452e+00 4.062896e+00 -2.990593e-01 -2.622072e+00 -5.621361e+00 -2.824359e+00 -4.975781e+00 -2.261492e+00 -2.273961e+00 7.074281e+01 2.314814e-01 2.984794e-02 2.016507e-01 2.453692e-01 1.979780e-01 -2.352723e-01 -1.701576e-01 1.267408e-02 -1.927841e-01 -1.867598e-01 9.843037e-02 6.698673e-02 2.056400e-01 -1.521808e-03 -9.517883e-03 -1.001215e-01 -1.066911e-01 -6.725802e-02 4.816216e-02 9.225735e-02 7.701305e-03 8.962687e-03 6.887220e-02 3.726961e-02 4.482581e-02 -2.655045e-02
<VARIANCE> 39
 3.530169e+01 7.794418e+01 6.966080e+01 5.610390e+01 2.884717e+01 2.408732e+01 4.433526e+01 3.506496e+01 3.640231e+01 3.922247e+01 5.289867e+01 2.270249e+01 6.844155e+01 1.994656e+00 3.696660e+00 2.748080e+00 2.683808e+00 2.032815e+00 2.387169e+00 2.629966e+00 2.649115e+00 2.726201e+00 1.947158e+00 2.237838e+00 1.370859e+00 1.915137e+00 1.725989e-01 5.725006e-01 3.266660e-01 3.635148e-01 3.002471e-01 4.179521e-01 3.400308e-01 4.218269e-01 4.072856e-01 2.836684e-01 4.009381e-01 2.609393e-01 2.208911e-01
<GCONST> 1.169098e+02
<STATE> 3
<MEAN> 39
 -7.725716e+00 1.080845e+00 4.991030e+00 4.508791e+00 4.468661e+00 5.720079e-02 -2.230021e+00 -6.047228e+00 -3.668931e+00 -4.494004e+00 -1.333879e+00 -3.252717e-01 7.086013e+01 1.283088e-01 1.103166e-01 -2.634132e-01 -2.489511e-01 -1.387593e-01 5.134348e-02 2.302456e-01 1.182936e-01 -5.798628e-02 2.441154e-02 7.369655e-02 2.101462e-01 -1.108747e-02 -1.470405e-02 -5.177053e-02 -7.621916e-02 -1.343583e-01 -1.170237e-01 -3.880816e-03 7.605334e-02 5.595122e-03 2.531101e-02 7.004208e-02 1.822462e-02 8.284756e-03 1.055157e-02
<VARIANCE> 39
 2.761146e+01 6.732459e+01 4.334902e+01 5.738778e+01 3.292935e+01 3.107004e+01 5.362029e+01 3.289377e+01 4.069834e+01 3.675916e+01 5.798746e+01 3.595728e+01 6.835941e+01 1.312580e+00 2.251790e+00 2.098359e+00 3.216416e+00 1.778497e+00 2.466292e+00 2.060997e+00 2.041090e+00 2.644131e+00 1.555052e+00 2.602879e+00 1.920624e+00 1.611441e+00 1.244526e-01 3.790956e-01 2.728715e-01 4.318984e-01 3.300718e-01 4.447168e-01 3.676726e-01 3.914034e-01 4.344475e-01 2.826425e-01 4.871668e-01 3.545299e-01 1.883511e-01
<GCONST> 1.154441e+02
<STATE> 4
<MEAN> 39
 -6.485469e+00 4.105116e+00 2.305678e+00 4.160564e+00 3.946496e+00 -1.503785e+00 -3.104973e+00 -3.709727e+00 -5.645740e+00 1.276864e-01 4.211616e+00 -1.051676e+00 6.952915e+01 -1.879385e-01 -1.324594e-01 -2.437311e-01 -3.435013e-01 -2.529732e-01 1.217747e-01 4.304322e-01 2.341888e-01 2.311456e-01 1.870883e-01 3.241845e-02 1.624446e-01 -1.321922e-01 -1.679613e-02 -5.716238e-02 -8.978881e-03 -3.339686e-02 -3.705110e-02 -3.746317e-02 -9.248119e-03 -2.970119e-02 -1.768246e-02 -1.002725e-02 -1.037885e-02 -3.151220e-02 3.011006e-02
<VARIANCE> 39
 2.828133e+01 3.623019e+01 2.692594e+01 3.300093e+01 2.715999e+01 3.757613e+01 5.372739e+01 2.972154e+01 5.751520e+01 3.680073e+01 5.943301e+01 2.797687e+01 4.288983e+01 9.546863e-01 1.751028e+00 1.437392e+00 2.039053e+00 1.508699e+00 1.757853e+00 1.790519e+00 1.841781e+00 3.065506e+00 1.261879e+00 2.737398e+00 1.463859e+00 1.152365e+00 7.795287e-02 2.620414e-01 2.190751e-01 3.098702e-01 2.536731e-01 3.066687e-01 3.210781e-01 3.245406e-01 5.134469e-01 2.458320e-01 4.497250e-01 2.573670e-01 1.518682e-01
<GCONST> 1.076689e+02
<TRANSP> 5
 0.000000e+00 1.000000e+00 0.000000e+00 0.000000e+00 0.000000e+00
 0.000000e+00 5.887792e-01 4.112208e-01 0.000000e+00 0.000000e+00
 0.000000e+00 0.000000e+00 5.909570e-01 4.090430e-01 0.000000e+00
 0.000000e+00 0.000000e+00 0.000000e+00 8.046630e-01 1.953370e-01
 0.000000e+00 0.000000e+00 0.000000e+00 0.000000e+00 0.000000e+00
<ENDHMM>
~h "o"
<BEGINHMM>
<NUMSTATES> 5
<STATE> 2
<MEAN> 39
 -5.049960e+00 2.616041e+00 -4.519366e-01 -2.172160e+00 -1.909771e+00 -4.844525e+00 3.731226e-01 -4.064314e+00 -6.037987e+00 -4.882181e+00 -1.596022e+00 -2.138319e+00 7.269900e+01 4.674928e-01 6.317985e-02 1.370972e-01 3.637629e-01 1.016220e-01 -3.278047e-01 -2.942619e-01 -1.167104e-01 -2.009217e-01 -1.965103e-01 -5.988561e-02 -4.020575e-02 3.956050e-01 -6.497875e-02 -2.787488e-02 6.265201e-03 7.991169e-02 4.324459e-02 7.671742e-02 2.016719e-03 -1.380328e-02 4.480701e-02 4.207460e-02 9.723919e-03 3.875382e-03 -8.170941e-02
<VARIANCE> 39
 4.127475e+01 3.143939e+01 3.217672e+01 6.379673e+01 6.934537e+01 4.994300e+01 3.554807e+01 2.303945e+01 4.699477e+01 3.642472e+01 4.819284e+01 1.974034e+01 4.029539e+01 3.556084e+00 2.882220e+00 2.057441e+00 3.323805e+00 3.385340e+00 4.585045e+00 2.907715e+00 2.038617e+00 3.501923e+00 3.055747e+00 2.350579e+00 1.498706e+00 3.751852e+00 4.994350e-01 4.853696e-01 3.512961e-01 6.295807e-01 5.975245e-01 7.877895e-01 5.141435e-01 3.356561e-01 4.688598e-01 5.233992e-01 4.179915e-01 2.877928e-01 5.206543e-01
<GCONST> 1.234418e+02
<STATE> 3
<MEAN> 39
 -3.697331e+00 4.261793e+00 1.297392e+00 6.179317e-01 -1.688491e+00 -6.339216e+00 -2.092796e+00 -3.898924e+00 -4.122981e+00 -5.186506e+00 -2.791330e+00 -2.995841e+00 7.283922e+01 -3.824200e-01 1.382781e-01 3.257225e-01 4.473864e-01 3.508985e-01 4.348147e-01 -7.718809e-02 2.190592e-03 1.555669e-01 2.032521e-02 -2.248289e-02 -1.300609e-01 -5.574919e-01 -1.036767e-01 -9.038772e-03 3.106952e-03 -2.471112e-02 1.209760e-02 7.964165e-02 6.595820e-02 3.512353e-02 3.009301e-02 4.070231e-02 5.082613e-02 3.658048e-02 -1.099593e-01
<VARIANCE> 39
 1.895581e+01 2.654220e+01 3.199883e+01 7.012111e+01 6.795091e+01 4.876891e+01 3.064287e+01 2.235868e+01 6.441898e+01 3.726138e+01 5.700010e+01 2.076011e+01 2.966319e+01 1.192824e+00 1.510073e+00 1.336891e+00 1.605089e+00 2.074538e+00 2.674257e+00 2.071299e+00 1.533732e+00 2.727302e+00 1.788890e+00 1.647684e+00 1.431189e+00 1.421053e+00 1.618406e-01 2.633091e-01 1.826023e-01 2.505860e-01 3.046081e-01 3.659637e-01 3.360003e-01 2.706459e-01 3.759679e-01 2.957493e-01 2.638092e-01 2.196311e-01 1.455277e-01
<GCONST> 1.077106e+02
<STATE> 4
<MEAN> 39
 -8.093027e+00 5.583965e+00 3.252340e+00 5.090304e+00 2.409119e+00 -1.544137e+00 -4.967999e-01 -2.092625e+00 -3.620296e+00 -2.590474e+00 1.332960e-01 -2.942705e+00 6.713923e+01 -8.192800e-01 -1.403475e-01 -7.770308e-02 3.111693e-02 1.973092e-01 5.166048e-01 3.643521e-01 3.539225e-01 5.297655e-01 3.523125e-01 6.680488e-02 1.856010e-01 -8.014013e-01 -3.632177e-02 -7.350111e-02 -6.738327e-02 -1.004795e-01 -7.402194e-02 -6.545307e-02 -2.211964e-02 -2.267908e-02 -1.856320e-02 2.108506e-02 2.442059e-02 2.390599e-02 1.839096e-02
<VARIANCE> 39
 3.030623e+01 2.125483e+01 2.500138e+01 5.798135e+01 3.478098e+01 4.263634e+01 3.830772e+01 3.002224e+01 7.314959e+01 4.076611e+01 4.445941e+01 1.571814e+01 3.415837e+01 9.547296e-01 1.272143e+00 1.334778e+00 1.371234e+00 1.480299e+00 1.971934e+00 1.722478e+00 1.415957e+00 2.699112e+00 1.251176e+00 1.290803e+00 1.120777e+00 8.062189e-01 1.166362e-01 2.152241e-01 1.901496e-01 1.749805e-01 2.516267e-01 3.370744e-01 3.011972e-01 2.524951e-01 3.921836e-01 2.172994e-01 2.131930e-01 1.837267e-01 9.695087e-02
<GCONST> 1.018196e+02
<TRANSP> 5
 0.000000e+00 1.000000e+00 0.000000e+00 0.000000e+00 0.000000e+00
 0.000000e+00 8.922029e-01 1.077971e-01 0.000000e+00 0.000000e+00
 0.000000e+00 0.000000e+00 7.739086e-01 2.260914e-01 0.000000e+00
 0.000000e+00 0.000000e+00 0.000000e+00 8.053383e-01 1.946617e-01
 0.000000e+00 0.000000e+00 0.000000e+00 0.000000e+00 0.000000e+00
<ENDHMM>
~h "p"
<BEGINHMM>
<NUMSTATES> 5
<STATE> 2
<MEAN> 39
 -1.751153e+01 1.625471e+00 -2.705926e+00 -9.243456e-01 -2.982243e-01 8.949370e-01 3.372844e+00 2.394358e+00 2.952099e+00 2.364100e+00 1.016953e+00 -3.593311e-01 6.003922e+01 -3.274758e-01 -1.831965e-01 -2.173112e-01 -1.865406e-01 -1.552269e-01 -5.153619e-02 -9.203728e-02 -1.855482e-02 -2.810804e-02 -8.806691e-02 -2.408497e-02 -2.856027e-02 -3.299102e-01 7.550014e-02 3.478288e-02 7.109487e-02 4.861552e-02 2.487663e-02 2.567823e-02 2.294876e-02 -4.604259e-02 -4.208672e-02 1.923495e-02 1.893588e-02 1.310731e-02 7.298653e-02
<VARIANCE> 39
 4.082905e+01 1.151144e+01 6.944118e+00 1.306202e+01 1.165003e+01 1.492122e+01 1.613080e+01 2.986316e+01 2.725349e+01 1.228192e+01 1.455140e+01 8.009129e+00 4.809568e+01 4.410530e-01 5.333526e-01 4.666136e-01 6.677319e-01 8.046585e-01 8.182059e-01 8.950529e-01 9.104828e-01 1.017191e+00 9.847904e-01 9.707817e-01 8.284556e-01 5.984305e-01 7.470547e-02 9.282738e-02 7.045808e-02 1.157251e-01 1.778592e-01 1.543976e-01 1.709561e-01 1.987073e-01 2.134972e-01 1.926186e-01 1.943177e-01 1.717984e-01 6.749305e-02
<GCONST> 7.810794e+01
<STATE> 3
<MEAN> 39
 -1.636892e+01 1.226972e+00 -2.791348e+00 -1.463790e+00 -9.135416e-01 2.926092e-01 3.099483e+00 9.763882e-01 1.623178e+00 1.779479e+00 5.767468e-01 -6.346622e-01 6.052900e+01 -2.261851e-01 -5.970851e-02 -6.876251e-02 -3.783165e-02 2.128631e-03 9.213848e-02 -3.649732e-02 -4.381093e-02 -3.716330e-02 -2.206833e-02 1.232141e-01 6.928261e-02 -3.008673e-01 5.484633e-02 6.994282e-03 6.704687e-02 2.278712e-02 7.088950e-04 -1.223394e-02 1.169965e-02 -3.234244e-02 -5.056883e-02 1.366640e-02 2.339059e-02 8.230921e-03 1.180047e-01
<VARIANCE> 39
 5.395401e+01 1.548808e+01 7.063554e+00 1.353739e+01 1.231460e+01 1.632825e+01 2.111024e+01 3.790948e+01 3.111627e+01 1.430272e+01 1.674729e+01 7.614123e+00 6.754768e+01 5.004303e-01 4.423402e-01 4.180665e-01 6.029958e-01 8.024957e-01 8.435299e-01 9.086330e-01 1.010085e+00 1.099001e+00 1.030451e+00 8.939819e-01 7.370510e-01 7.289569e-01 8.236419e-02 1.012314e-01 7.622179e-02 1.247081e-01 1.527092e-01 1.608186e-01 2.030427e-01 2.109828e-01 2.407053e-01 1.989567e-01 1.694324e-01 1.524748e-01 1.353161e-01
<GCONST> 8.114803e+01
<STATE> 4
<MEAN> 39
 -1.445164e+01 1.593098e+00 -3.121763e+00 -9.369495e-01 -9.336705e-01 -2.227574e-01 2.901114e+00 2.001239e+00 6.595098e-01 2.430724e+00 3.425914e+00 -6.153840e-02 6.302082e+01 7.510916e-02 -2.862184e-02 -3.738784e-02 -4.408533e-02 -6.821962e-02 -2.519864e-02 6.143476e-03 -1.178332e-01 -1.638301e-01 -7.787824e-03 8.719467e-02 1.476371e-02 5.529696e-02 3.551868e-02 -7.354582e-04 2.245027e-02 -5.611648e-03 6.958411e-04 -1.609559e-03 3.971690e-03 -3.787149e-02 -6.304502e-02 -1.264126e-02 6.188574e-03 2.176782e-03 6.272262e-02
<VARIANCE> 39
 7.657758e+01 9.689898e+00 8.160992e+00 9.975752e+00 1.585602e+01 2.778856e+01 2.008579e+01 2.664017e+01 4.164886e+01 1.317404e+01 2.188436e+01 7.878580e+00 5.629082e+01 2.016951e+00 5.486000e-01 6.493984e-01 7.112578e-01 1.064253e+00 1.615114e+00 1.294836e+00 1.382302e+00 1.859935e+00 9.935989e-01 9.624665e-01 7.268415e-01 1.321090e+00 2.405100e-01 1.049037e-01 1.272951e-01 1.454639e-01 1.824567e-01 2.632385e-01 2.442685e-01 2.717235e-01 3.221105e-01 1.910116e-01 1.740075e-01 1.405000e-01 1.925893e-01
<GCONST> 8.996870e+01
<TRANSP> 5
 0.000000e+00 1.000000e+00 0.000000e+00 0.000000e+00 0.000000e+00
 0.000000e+00 6.779592e-01 3.220408e-01 0.000000e+00 0.000000e+00
 0.000000e+00 0.000000e+00 4.647315e-01 5.352685e-01 0.000000e+00
 0.000000e+00 0.000000e+00 0.000000e+00 8.522258e-01 1.477742e-01
 0.000000e+00 0.000000e+00 0.000000e+00 0.000000e+00 0.000000e+00
<ENDHMM>
~h "r"
<BEGINHMM>
<NUMSTATES> 5
<STATE> 2
<MEAN> 39
 -7.368865e+00 -1.931171e+00 -2.790836e+00 -4.501063e+00 -3.229885e+00 -1.557313e+00 5.622648e+00 -6.983380e+00 -6.428031e+00 1.242735e+00 6.097399e-01 3.635766e-01 7.203464e+01 9.106655e-01 8.873617e-02 -1.201596e-01 -1.198629e-01 -1.035525e-01 -2.330643e-01 -5.921318e-02 -4.210016e-01 -5.673871e-01 -6.146698e-02 8.391282e-02 -7.265395e-03 9.360946e-01 -5.728607e-02 1.110395e-01 8.444230e-03 9.713755e-02 5.202688e-02 -4.418530e-04 -1.238395e-01 1.342856e-01 1.518678e-01 -5.993977e-02 -5.135401e-02 -2.952007e-02 -1.460549e-01
<VARIANCE> 39
 6.242197e+01 4.789368e+01 1.984238e+01 3.799508e+01 4.015453e+01 2.457398e+01 5.726049e+01 4.469593e+01 4.972306e+01 4.070924e+01 5.786767e+01 2.107618e+01 8.980704e+01 4.864262e+00 3.053517e+00 1.563464e+00 2.678471e+00 2.147203e+00 1.889798e+00 3.221550e+00 3.297750e+00 4.538646e+00 2.794281e+00 2.499759e+00 1.468555e+00 6.688915e+00 6.808546e-01 4.761946e-01 2.959273e-01 4.399860e-01 3.521213e-01 3.622974e-01 4.294413e-01 4.549488e-01 5.723125e-01 4.546448e-01 4.014241e-01 2.713032e-01 7.860862e-01
<GCONST> 1.232383e+02
<STATE> 3
<MEAN> 39
 -5.494238e+00 8.433194e-01 -2.949375e+00 -3.381508e+00 -1.935142e+00 -1.798296e+00 3.338077e+00 -6.080377e+00 -6.165211e+00 -6.185234e-02 6.175786e-01 -5.222720e-02 7.200990e+01 -2.552717e-01 5.246769e-01 6.735124e-02 2.634363e-01 3.122759e-01 1.062475e-01 -4.958039e-01 4.675111e-01 4.088600e-01 -3.739156e-01 -5.414078e-02 -3.746807e-02 -5.102478e-01 -1.698156e-01 -9.263399e-02 1.905553e-02 1.164214e-02 -1.128590e-02 3.015978e-03 4.880552e-02 8.580567e-02 1.194162e-01 2.967203e-02 2.371568e-03 4.135829e-02 -1.179621e-01
<VARIANCE> 39
 4.372093e+01 3.373047e+01 2.042516e+01 3.929435e+01 3.958736e+01 2.741841e+01 4.159088e+01 3.639488e+01 5.302426e+01 4.512959e+01 5.501367e+01 2.723738e+01 5.947510e+01 4.705070e+00 2.410678e+00 1.796503e+00 1.983026e+00 1.505609e+00 2.254548e+00 2.288332e+00 2.734065e+00 4.043293e+00 2.697278e+00 2.090024e+00 1.600067e+00 4.282204e+00 5.572363e-01 4.613819e-01 3.402527e-01 3.632541e-01 2.622039e-01 4.261006e-01 4.038935e-01 3.981879e-01 4.966958e-01 4.510696e-01 3.778288e-01 3.063860e-01 4.311307e-01
<GCONST> 1.189955e+02
<STATE> 4
<MEAN> 39
 -9.526480e+00 2.361465e+00 -2.550868e+00 -1.250683e+00 5.338577e-01 -4.746637e-01 1.635362e+00 -2.058922e+00 -4.554501e+00 -6.605939e-01 3.385544e+00 9.346079e-01 6.713173e+01 -3.797338e-01 -8.716837e-02 4.636334e-02 5.556847e-02 5.898817e-02 -2.028034e-02 -5.056124e-02 2.630782e-01 2.000508e-01 -1.100263e-01 -6.026142e-02 1.347635e-02 -3.105709e-01 1.132351e-01 -3.101996e-02 4.247459e-02 1.558700e-03 -4.924515e-02 -1.014411e-01 -4.399714e-02 -8.574966e-02 -1.117375e-01 -2.341568e-02 -2.887843e-03 -2.044028e-02 1.226511e-01
<VARIANCE> 39
 6.330777e+01 1.870452e+01 1.860907e+01 2.549142e+01 2.579491e+01 2.971251e+01 2.417558e+01 3.693755e+01 7.425909e+01 2.752807e+01 3.939087e+01 1.699216e+01 5.447181e+01 3.709167e+00 1.730123e+00 1.528801e+00 1.527099e+00 1.266874e+00 2.003007e+00 1.807658e+00 2.310199e+00 3.780843e+00 1.654479e+00 1.740408e+00 1.195879e+00 2.778877e+00 5.243422e-01 3.282436e-01 2.845580e-01 2.719147e-01 2.086111e-01 3.257149e-01 3.235706e-01 3.765986e-01 5.360419e-01 3.127782e-01 3.128794e-01 2.204101e-01 3.124247e-01
<GCONST> 1.103989e+02
<TRANSP> 5
 0.000000e+00 1.000000e+00 0.000000e+00 0.000000e+00 0.000000e+00
 0.000000e+00 7.452969e-01 2.547031e-01 0.000000e+00 0.000000e+00
 0.000000e+00 0.000000e+00 6.634167e-01 3.365833e-01 0.000000e+00
 0.000000e+00 0.000000e+00 0.000000e+00 7.705855e-01 2.294146e-01
 0.000000e+00 0.000000e+00 0.000000e+00 0.000000e+00 0.000000e+00
<ENDHMM>
~h "s"
<BEGINHMM>
<NUMSTATES> 5
<STATE> 2
<MEAN> 39
 -1.664013e+01 -4.862225e+00 3.688016e+00 -3.840988e-01 -1.558706e+00 2.596991e+00 2.637903e+00 -6.365653e+00 -4.112468e+00 -1.181477e+00 1.906112e+00 -6.981357e-01 6.602769e+01 -5.662627e-01 -1.355663e+00 1.716098e+00 -2.263776e-01 -4.323488e-01 3.393891e-01 3.164583e-01 -6.189505e-01 -3.798012e-01 -1.038784e-01 6.210424e-01 -5.234992e-01 1.537656e+00 -1.134214e-01 -1.635152e-01 2.192768e-01 -1.554082e-01 -4.562774e-02 -2.409894e-02 -4.215685e-02 -5.085257e-03 -4.310689e-02 -2.690964e-03 4.404078e-02 -7.000412e-02 1.440470e-01
<VARIANCE> 39
 6.245231e+01 8.131918e+01 8.187318e+01 2.538004e+01 3.035297e+01 2.303489e+01 2.910422e+01 4.650048e+01 3.759341e+01 2.488463e+01 2.049564e+01 2.274124e+01 1.174455e+02 3.028863e+00 4.806574e+00 4.174659e+00 1.766046e+00 1.975034e+00 1.584727e+00 2.774011e+00 2.680022e+00 2.540964e+00 1.924729e+00 2.058782e+00 1.172990e+00 4.156581e+00 3.747779e-01 7.770288e-01 6.822953e-01 3.032624e-01 3.308635e-01 3.145986e-01 4.926429e-01 4.885346e-01 5.102900e-01 3.514598e-01 3.605397e-01 2.265049e-01 6.606734e-01
<GCONST> 1.199436e+02
<STATE> 3
<MEAN> 39
 -1.973575e+01 -1.158320e+01 1.314332e+01 -2.220928e+00 -3.036567e+00 3.027802e+00 3.527164e+00 -9.302114e+00 -5.141011e+00 -1.780618e+00 4.557720e+00 -3.433820e+00 7.510380e+01 -4.860123e-01 -7.085848e-01 9.532193e-01 -3.324600e-01 3.759765e-02 -6.183344e-02 -2.596949e-01 -2.348386e-01 -1.565326e-01 -1.343498e-01 4.351856e-01 -2.683884e-01 6.223735e-01 1.088753e-01 7.664542e-02 -1.983492e-01 6.294064e-02 1.247195e-01 -1.906741e-02 -1.058583e-01 1.166287e-02 6.920785e-02 3.122357e-02 -8.040294e-02 4.965922e-02 -1.156675e-01
<VARIANCE> 39
 9.303358e+01 1.067585e+02 8.849205e+01 4.593223e+01 4.040703e+01 2.486135e+01 4.515377e+01 4.192712e+01 3.630741e+01 3.003286e+01 2.668806e+01 2.844682e+01 5.209348e+01 3.789847e+00 3.589002e+00 4.456003e+00 2.953424e+00 2.190983e+00 1.600244e+00 2.536369e+00 2.149437e+00 2.982182e+00 2.105493e+00 2.052407e+00 1.506586e+00 1.438667e+00 4.358672e-01 5.594240e-01 6.489388e-01 4.226878e-01 2.751436e-01 3.229833e-01 3.633885e-01 3.431479e-01 4.147335e-01 3.452649e-01 3.302631e-01 2.519521e-01 1.733481e-01
<GCONST> 1.193067e+02
<STATE> 4
<MEAN> 39
 -1.429871e+01 -7.121240e+00 9.741836e+00 1.226295e+00 2.606594e+00 -5.102983e-01 -3.369473e+00 -8.010349e+00 -7.540813e+00 -1.609877e+00 6.625521e+00 -2.482562e+00 7.372765e+01 4.301970e-01 2.088038e-01 -2.232754e-01 1.161330e-01 1.217432e-01 -1.063219e-01 -2.235963e-01 -8.766260e-02 -6.968575e-02 -7.198211e-02 -7.701736e-02 6.754788e-02 6.301838e-02 4.335853e-02 9.203745e-02 -1.155741e-01 2.491863e-02 -2.124896e-02 3.109285e-03 6.168643e-02 3.639592e-02 1.947044e-02 1.874061e-02 -4.383839e-02 3.872702e-02 -6.068597e-02
<VARIANCE> 39
 1.249340e+02 9.364046e+01 8.492237e+01 8.045165e+01 3.842038e+01 3.878514e+01 5.465083e+01 6.188145e+01 7.616731e+01 3.401729e+01 4.079684e+01 2.653122e+01 3.910378e+01 7.355830e+00 4.562531e+00 4.101815e+00 6.776452e+00 2.386506e+00 2.407744e+00 3.361781e+00 2.840642e+00 5.332121e+00 2.419952e+00 2.522654e+00 1.482507e+00 1.595312e+00 8.520396e-01 7.215580e-01 5.288572e-01 8.913255e-01 3.396265e-01 4.295797e-01 4.784257e-01 4.329571e-01 7.392449e-01 3.971117e-01 3.870180e-01 2.496764e-01 1.759627e-01
<GCONST> 1.289687e+02
<TRANSP> 5
 0.000000e+00 1.000000e+00 0.000000e+00 0.000000e+00 0.000000e+00
 0.000000e+00 6.741169e-01 3.258830e-01 0.000000e+00 0.000000e+00
 0.000000e+00 0.000000e+00 6.934049e-01 3.065951e-01 0.000000e+00
 0.000000e+00 0.000000e+00 0.000000e+00 9.321541e-01 6.784583e-02
 0.000000e+00 0.000000e+00 0.000000e+00 0.000000e+00 0.000000e+00
<ENDHMM>
~h "t"
<BEGINHMM>
<NUMSTATES> 5
<STATE> 2
<MEAN> 39
 -1.219222e+01 -6.855227e+00 4.567767e+00 -3.501804e+00 -1.403635e+00 -1.142413e-01 1.716265e+00 -9.218319e+00 -4.346405e+00 -4.611146e-01 1.702597e+00 -4.313177e-01 7.452555e+01 2.051513e-01 -1.747172e-01 4.818677e-02 -4.863357e-03 2.435283e-02 -1.376844e-02 1.558821e-02 -2.884675e-01 -2.887298e-01 -1.100606e-01 7.034244e-02 9.940573e-02 3.368768e-01 8.537309e-02 4.488439e-02 -5.252552e-02 1.523380e-02 7.800278e-03 -1.021981e-02 1.451314e-02 8.275154e-03 -2.595841e-03 -1.089981e-02 -1.736297e-02 2.145501e-02 1.617639e-02
<VARIANCE> 39
 1.108226e+02 7.850830e+01 7.601832e+01 8.054066e+01 3.991822e+01 2.730423e+01 5.242583e+01 4.805677e+01 4.962227e+01 3.333736e+01 4.956656e+01 2.473844e+01 7.793372e+01 5.876874e+00 3.901955e+00 3.952318e+00 4.912367e+00 2.242617e+00 2.130937e+00 2.873770e+00 3.949284e+00 4.200942e+00 2.389669e+00 2.592824e+00 1.256452e+00 4.362704e+00 7.446311e-01 6.625220e-01 6.057097e-01 7.932735e-01 4.368285e-01 4.106787e-01 5.002528e-01 6.981835e-01 6.699884e-01 4.046615e-01 4.278129e-01 2.094856e-01 6.752312e-01
<GCONST> 1.299053e+02
<STATE> 3
<MEAN> 39
 -7.990349e+00 -8.372914e+00 2.313919e+00 -5.068917e+00 -2.587100e+00 -1.592776e+00 2.863897e+00 -1.215246e+01 -8.046576e+00 -2.172692e+00 1.636738e+00 2.566392e+00 7.751026e+01 1.253379e+00 6.057616e-01 -5.268223e-01 3.786627e-01 1.612606e-01 -2.137158e-01 -1.036883e-01 -3.576062e-01 -4.723080e-01 -1.619924e-01 -1.438724e-01 2.943775e-01 2.569110e-01 -1.608460e-01 1.277984e-01 -4.506619e-02 -4.051792e-02 2.055084e-02 3.090536e-02 -5.530755e-02 1.488848e-01 1.422960e-01 -2.000916e-02 -2.032118e-02 -3.032615e-02 -1.932994e-01
<VARIANCE> 39
 1.043535e+02 5.199094e+01 5.697649e+01 4.527685e+01 2.317234e+01 3.156524e+01 3.515953e+01 5.106098e+01 4.666091e+01 2.967085e+01 4.856406e+01 1.879322e+01 5.215227e+01 5.156464e+00 4.746582e+00 2.679973e+00 3.432619e+00 1.792955e+00 2.133159e+00 2.541988e+00 2.672273e+00 3.459796e+00 2.543409e+00 2.008534e+00 1.142327e+00 2.895828e+00 7.384586e-01 8.016706e-01 4.866545e-01 6.317242e-01 3.053844e-01 3.911058e-01 4.232014e-01 4.469379e-01 6.164059e-01 4.076710e-01 3.335625e-01 2.016267e-01 4.628843e-01
<GCONST> 1.226210e+02
<STATE> 4
<MEAN> 39
 -4.215187e+00 -3.541594e+00 -1.063951e+00 -2.786462e+00 -2.460511e+00 -1.662773e+00 1.313784e+00 -1.268309e+01 -1.021021e+01 -1.345898e+00 2.966060e+00 3.227102e+00 7.523512e+01 7.840279e-02 6.992047e-01 -2.699342e-01 1.345662e-01 2.439741e-01 8.974285e-02 -1.886617e-01 4.415234e-01 2.278818e-01 -8.208100e-02 -9.659606e-02 1.364189e-01 -4.127432e-01 -2.608145e-01 7.014029e-02 1.203527e-01 -1.275299e-02 1.062336e-01 1.306709e-01 -8.257936e-02 1.132532e-01 1.248508e-01 -1.123552e-01 -4.931379e-02 -8.210099e-02 -1.195269e-01
<VARIANCE> 39
 3.377808e+01 4.117936e+01 2.446405e+01 3.850550e+01 2.225542e+01 1.987098e+01 1.542314e+01 3.842475e+01 4.162366e+01 3.832568e+01 5.662231e+01 1.129793e+01 4.912344e+01 2.297406e+00 2.998417e+00 1.718689e+00 1.966662e+00 1.694932e+00 1.445844e+00 1.236500e+00 1.709671e+00 2.241472e+00 1.975891e+00 1.404592e+00 1.025701e+00 1.578444e+00 4.161193e-01 5.389941e-01 3.230608e-01 4.358753e-01 2.639654e-01 3.184487e-01 2.393622e-01 2.900389e-01 4.531578e-01 3.443270e-01 2.852999e-01 1.621585e-01 2.462751e-01
<GCONST> 1.081406e+02
<TRANSP> 5
 0.000000e+00 1.000000e+00 0.000000e+00 0.000000e+00 0.000000e+00
 0.000000e+00 9.663885e-01 3.361158e-02 0.000000e+00 0.000000e+00
 0.000000e+00 0.000000e+00 7.930626e-01 2.069374e-01 0.000000e+00
 0.000000e+00 0.000000e+00 0.000000e+00 6.827122e-01 3.172877e-01
 0.000000e+00 0.000000e+00 0.000000e+00 0.000000e+00 0.000000e+00
<ENDHMM>
~h "u"
<BEGINHMM>
<NUMSTATES> 5
<STATE> 2
<MEAN> 39
 -1.008092e+01 2.260974e+00 6.841007e+00 5.859815e+00 5.285716e+00 1.136573e+00 -1.802475e+00 -3.826539e+00 -6.459077e+00 -5.810097e+00 2.570337e+00 -3.556791e-01 6.885875e+01 8.139368e-01 -2.026333e-02 2.832050e-01 3.892254e-01 2.005576e-01 -3.663246e-01 -4.055066e-01 -3.959808e-01 -6.069807e-01 -4.545139e-01 -1.783244e-01 -3.737177e-02 9.064031e-01 -1.569896e-02 -1.360141e-01 -5.928292e-02 -1.288315e-01 -4.045186e-02 -6.842290e-02 -9.406217e-03 -1.731232e-02 2.010189e-03 5.512495e-02 -3.278093e-02 -1.444844e-02 7.483549e-02
<VARIANCE> 39
 4.061490e+01 8.147827e+01 4.962292e+01 5.952259e+01 4.157280e+01 2.712965e+01 4.898588e+01 3.644235e+01 6.051608e+01 4.023413e+01 3.785996e+01 1.571199e+01 4.577981e+01 4.092843e+00 9.311190e+00 3.809244e+00 4.130580e+00 3.431868e+00 2.423006e+00 4.081593e+00 2.781322e+00 6.127177e+00 3.664789e+00 3.297289e+00 1.644431e+00 5.250609e+00 5.786531e-01 1.255980e+00 6.500475e-01 6.516693e-01 6.985013e-01 4.754862e-01 6.447437e-01 4.492074e-01 9.125571e-01 5.976961e-01 5.523069e-01 3.115294e-01 6.907405e-01
<GCONST> 1.314462e+02
<STATE> 3
<MEAN> 39
 -5.788737e+00 -1.671750e+00 4.719929e+00 2.901186e+00 4.267366e+00 -5.063058e-01 -8.173675e-01 -8.224386e+00 -8.092059e+00 -6.637256e+00 -7.318337e-01 -2.096406e-01 7.457487e+01 7.938214e-01 -3.115512e-01 -2.339025e-01 -3.872974e-02 8.982508e-02 -4.073085e-01 -1.612970e-01 -4.847053e-01 -5.074790e-01 2.006456e-02 -9.857979e-02 1.033780e-01 8.463421e-01 -1.293897e-01 6.485547e-02 -2.979503e-02 -8.197090e-02 -4.009338e-02 5.010633e-02 3.553354e-02 7.072793e-02 1.386192e-01 1.233695e-01 2.187017e-02 1.816750e-02 -2.120657e-01
<VARIANCE> 39
 2.691533e+01 7.462541e+01 4.417715e+01 9.681946e+01 6.067864e+01 3.288842e+01 8.698267e+01 3.872848e+01 4.227216e+01 5.086503e+01 6.587273e+01 2.130069e+01 5.115099e+01 2.925122e+00 5.164424e+00 2.786181e+00 3.009869e+00 2.954118e+00 2.666816e+00 3.625660e+00 2.742694e+00 3.524997e+00 4.402894e+00 3.164578e+00 1.594990e+00 5.095044e+00 4.015532e-01 7.803633e-01 4.395820e-01 4.261659e-01 5.517743e-01 4.756522e-01 5.723268e-01 4.778627e-01 5.620936e-01 7.565323e-01 5.256481e-01 2.746042e-01 6.032348e-01
<GCONST> 1.286455e+02
<STATE> 4
<MEAN> 39
 -3.649245e+00 -2.379946e-01 1.785997e+00 3.357346e+00 4.241776e+00 -2.221196e+00 -3.724322e+00 -9.014413e+00 -1.157722e+01 -4.937051e+00 4.428493e+00 1.325359e+00 7.449992e+01 -1.656223e-01 3.460663e-01 -1.224002e-01 -2.586856e-01 -2.837683e-01 1.920459e-01 3.321301e-01 1.505886e-01 3.527738e-01 4.200527e-01 -7.012624e-03 2.389152e-02 -3.292802e-01 -1.740287e-01 4.412594e-02 5.751716e-02 -7.979736e-03 -5.553144e-04 8.882073e-02 4.310718e-02 1.306913e-01 2.080589e-01 -2.513262e-03 -6.995742e-02 -2.746951e-02 -1.602523e-01
<VARIANCE> 39
 1.135172e+01 4.936158e+01 2.069544e+01 6.055490e+01 4.370998e+01 2.498918e+01 7.600927e+01 3.424688e+01 5.603167e+01 4.284946e+01 9.389188e+01 2.143053e+01 3.327042e+01 1.385566e+00 2.443630e+00 1.590097e+00 1.958271e+00 1.897866e+00 2.211170e+00 3.009565e+00 2.595602e+00 3.231184e+00 2.591626e+00 2.232845e+00 1.438407e+00 1.940120e+00 1.645126e-01 3.878404e-01 2.766796e-01 2.956646e-01 3.211243e-01 3.527993e-01 3.747267e-01 4.249809e-01 4.409856e-01 3.958153e-01 3.604144e-01 2.140861e-01 2.355965e-01
<GCONST> 1.136715e+02
<TRANSP> 5
 0.000000e+00 1.000000e+00 0.000000e+00 0.000000e+00 0.000000e+00
 0.000000e+00 8.434097e-01 1.565904e-01 0.000000e+00 0.000000e+00
 0.000000e+00 0.000000e+00 7.804736e-01 2.195264e-01 0.000000e+00
 0.000000e+00 0.000000e+00 0.000000e+00 8.469591e-01 1.530409e-01
 0.000000e+00 0.000000e+00 0.000000e+00 0.000000e+00 0.000000e+00
<ENDHMM>
~h "w"
<BEGINHMM>
<NUMSTATES> 5
<STATE> 2
<MEAN> 39
 -5.405081e+00 -1.463572e+00 5.690414e+00 3.127045e+00 2.673823e+00 -7.288722e-01 -1.124955e+00 -9.399126e+00 -6.321804e+00 -5.980062e+00 -3.545187e+00 6.843233e-01 7.559755e+01 -1.515042e-02 3.390641e-01 3.611196e-01 2.584213e-01 3.502462e-01 1.077811e-01 -3.133600e-01 6.882294e-02 1.285427e-01 -4.853125e-01 4.272442e-02 -2.161691e-01 -1.319653e-01 -4.080529e-02 2.936849e-02 -2.857264e-02 -5.644792e-02 -6.991992e-02 6.990676e-04 5.034436e-02 2.780710e-02 5.397515e-02 7.125323e-02 5.796292e-02 -4.114743e-02 -5.573339e-02
<VARIANCE> 39
 1.512733e+01 5.904634e+01 4.370719e+01 8.187910e+01 3.538174e+01 2.176102e+01 3.825424e+01 3.161605e+01 3.957662e+01 2.684513e+01 6.791821e+01 3.447228e+01 3.850026e+01 1.187628e+00 3.005799e+00 1.493990e+00 2.732580e+00 1.977891e+00 1.717907e+00 2.211869e+00 2.333772e+00 1.883220e+00 1.960481e+00 2.406462e+00 1.745990e+00 1.504027e+00 1.813098e-01 5.728752e-01 2.719405e-01 4.032047e-01 2.889876e-01 3.149397e-01 3.884961e-01 3.646345e-01 3.206210e-01 3.828017e-01 3.793623e-01 2.570523e-01 2.444112e-01
<GCONST> 1.128094e+02
<STATE> 3
<MEAN> 39
 -6.039732e+00 -1.222982e+00 6.778129e+00 4.069897e+00 3.944184e+00 -6.282008e-01 -2.033483e+00 -9.184872e+00 -6.506571e+00 -8.571562e+00 -2.396192e+00 -9.957552e-04 7.524333e+01 1.542352e-02 2.621161e-01 -7.709416e-02 -1.238155e-01 4.515143e-02 9.964959e-02 -6.330622e-02 1.435357e-01 3.524042e-02 -2.052278e-01 5.781049e-02 -1.207358e-01 -1.075942e-01 -1.461850e-02 1.413842e-02 -4.916224e-02 -3.039539e-02 -5.944152e-02 6.656481e-03 5.148963e-02 5.740059e-02 2.655979e-02 7.304601e-02 -2.097818e-02 4.314290e-03 -2.898424e-02
<VARIANCE> 39
 1.743424e+01 7.061256e+01 4.309667e+01 4.242988e+01 3.263494e+01 2.378906e+01 3.208067e+01 3.765910e+01 3.698178e+01 2.476675e+01 5.627100e+01 3.300843e+01 3.347738e+01 1.379625e+00 4.535334e+00 2.203747e+00 3.029905e+00 2.239803e+00 2.053516e+00 2.794286e+00 2.548191e+00 2.119506e+00 2.118062e+00 2.469299e+00 1.561530e+00 2.320411e+00 2.145370e-01 7.635329e-01 3.347366e-01 4.438063e-01 3.680123e-01 3.447386e-01 5.007579e-01 4.626073e-01 3.269893e-01 4.380327e-01 4.170792e-01 2.396220e-01 3.340238e-01
<GCONST> 1.162417e+02
<STATE> 4
<MEAN> 39
 -3.964200e+00 4.061846e+00 3.044104e+00 2.726107e+00 2.117674e+00 -2.769425e+00 -4.204043e+00 -5.952872e+00 -8.615852e+00 -7.369548e+00 3.391183e+00 8.137891e-01 7.275024e+01 -3.358377e-02 1.993033e-01 -1.820762e-01 -1.268291e-01 -9.411735e-02 1.515260e-01 1.897892e-01 1.093079e-01 2.299740e-01 2.700938e-01 -8.405866e-02 -4.433024e-02 -2.012354e-01 -4.268483e-02 -4.666062e-02 -4.044591e-03 1.874910e-02 -9.525597e-03 1.539302e-03 3.703306e-02 5.409607e-03 5.881343e-02 8.226570e-02 -2.158822e-03 -5.847663e-03 -3.030493e-02
<VARIANCE> 39
 1.742360e+01 5.736493e+01 3.679563e+01 2.448378e+01 2.904759e+01 2.721203e+01 2.831966e+01 3.492865e+01 3.463936e+01 3.610224e+01 5.454566e+01 3.134739e+01 2.236541e+01 1.229731e+00 2.974983e+00 1.848585e+00 1.817200e+00 1.539031e+00 2.062666e+00 2.309085e+00 1.911914e+00 3.170116e+00 2.394593e+00 2.641773e+00 1.354359e+00 1.608687e+00 1.509528e-01 4.200298e-01 2.495797e-01 2.854867e-01 2.147864e-01 3.398981e-01 3.613105e-01 2.862682e-01 4.945412e-01 4.136211e-01 3.854618e-01 1.981688e-01 1.857152e-01
<GCONST> 1.094381e+02
<TRANSP> 5
 0.000000e+00 1.000000e+00 0.000000e+00 0.000000e+00 0.000000e+00
 0.000000e+00 7.531686e-01 2.468314e-01 0.000000e+00 0.000000e+00
 0.000000e+00 0.000000e+00 8.192447e-01 1.807553e-01 0.000000e+00
 0.000000e+00 0.000000e+00 0.000000e+00 8.798927e-01 1.201073e-01
 0.000000e+00 0.000000e+00 0.000000e+00 0.000000e+00 0.000000e+00
<ENDHMM>
~h "y"
<BEGINHMM>
<NUMSTATES> 5
<STATE> 2
<MEAN> 39
 -1.694626e+01 1.319721e+00 -1.132517e+00 2.329093e-01 1.160073e+00 1.941336e+00 3.707013e+00 1.874517e+00 3.267098e+00 2.606232e+00 1.225862e+00 1.002199e+00 6.240342e+01 -3.799711e-01 -2.643463e-01 -3.703150e-01 -3.898430e-01 -3.963358e-01 -1.358597e-01 6.197831e-02 5.428772e-02 -3.308756e-02 -2.171306e-01 -2.094218e-01 -1.032010e-01 -2.441257e-01 9.858251e-02 8.582212e-02 7.935093e-02 8.985219e-02 5.328791e-02 -3.810567e-02 -7.515618e-02 -2.843014e-02 -5.620074e-02 -2.914299e-02 3.307106e-02 -2.994219e-02 4.504367e-02
<VARIANCE> 39
 4.455497e+01 2.712498e+01 1.979987e+01 2.546146e+01 1.416371e+01 1.776998e+01 1.360947e+01 4.623277e+01 2.431069e+01 1.458494e+01 1.664526e+01 9.759927e+00 6.591188e+01 2.925099e-01 4.700237e-01 6.179224e-01 8.468820e-01 1.048952e+00 1.010477e+00 1.163965e+00 9.215107e-01 7.033667e-01 7.770978e-01 8.724951e-01 8.436274e-01 1.373221e-01 3.076630e-02 7.831723e-02 8.806197e-02 1.438908e-01 1.673363e-01 1.947379e-01 2.175180e-01 1.799593e-01 1.450739e-01 1.713869e-01 1.444577e-01 1.878679e-01 1.929834e-02
<GCONST> 7.841009e+01
<STATE> 3
<MEAN> 39
 -1.571001e+01 -6.743501e-01 -1.235170e+00 -1.422832e+00 -3.284207e-01 9.129608e-01 3.766987e+00 8.454302e-02 1.779141e+00 1.726911e+00 2.828548e-01 1.410900e+00 6.457497e+01 -1.244009e-01 4.492565e-02 -1.582610e-01 -5.403838e-02 -1.465984e-01 1.576973e-02 1.312768e-01 1.040746e-01 2.570935e-02 -1.225516e-01 -1.355519e-01 -1.561585e-01 -1.694954e-01 2.978560e-02 6.836547e-02 3.036783e-02 7.124609e-02 7.384799e-02 -3.921244e-02 -1.447590e-01 -1.802943e-02 -1.314553e-03 -2.322691e-02 4.292066e-02 -6.506467e-02 -2.158188e-03
<VARIANCE> 39
 6.933555e+01 3.093448e+01 2.596214e+01 2.711190e+01 1.118182e+01 1.946878e+01 1.639291e+01 7.084921e+01 3.380123e+01 2.205496e+01 2.614577e+01 9.262255e+00 1.083522e+02 1.862447e-01 4.882197e-01 5.332674e-01 6.298773e-01 7.968305e-01 7.113258e-01 1.004375e+00 8.395780e-01 7.189892e-01 7.819956e-01 9.247079e-01 9.305976e-01 1.484462e-01 2.907326e-02 1.032455e-01 9.755472e-02 1.825085e-01 1.505578e-01 1.525930e-01 2.712878e-01 1.514947e-01 1.659396e-01 1.865492e-01 1.598663e-01 1.806108e-01 5.073186e-02
<GCONST> 8.147051e+01
<STATE> 4
<MEAN> 39
 -1.390089e+01 -1.529006e+00 -9.033679e-01 -1.795655e+00 -7.670149e-01 4.295053e-01 3.599570e+00 -1.772217e+00 9.000275e-01 1.156540e+00 -6.462538e-01 1.095349e+00 6.667762e+01 -7.325917e-02 2.388236e-01 -1.529750e-01 1.021562e-01 -6.718544e-02 -2.154142e-02 -1.349191e-01 9.680411e-02 1.003176e-01 -1.761468e-01 -1.991687e-01 -3.656762e-01 -2.244515e-01 7.177082e-02 1.485508e-01 8.256309e-02 6.670580e-02 1.432234e-01 -9.556507e-02 -2.456908e-01 -2.675031e-02 -1.084749e-01 -1.106818e-01 5.873099e-02 -3.006687e-02 1.033871e-02
<VARIANCE> 39
 8.371852e+01 3.532752e+01 3.379140e+01 3.516365e+01 1.463035e+01 2.233451e+01 2.081497e+01 7.912569e+01 3.725177e+01 2.853452e+01 3.281049e+01 8.964787e+00 1.289162e+02 3.213268e-01 1.206042e+00 8.001595e-01 1.018219e+00 8.993941e-01 8.390031e-01 1.130337e+00 1.022695e+00 1.032981e+00 1.151514e+00 9.958152e-01 1.054452e+00 4.187264e-01 1.054792e-01 1.565291e-01 1.345488e-01 2.433164e-01 1.755037e-01 1.890773e-01 3.529921e-01 2.217159e-01 2.323032e-01 2.087111e-01 1.825884e-01 1.666512e-01 1.812124e-01
<GCONST> 9.381654e+01
<TRANSP> 5
 0.000000e+00 1.000000e+00 0.000000e+00 0.000000e+00 0.000000e+00
 0.000000e+00 7.352169e-01 2.647831e-01 0.000000e+00 0.000000e+00
 0.000000e+00 0.000000e+00 5.003822e-01 4.996177e-01 0.000000e+00
 0.000000e+00 0.000000e+00 0.000000e+00 3.032882e-01 6.967118e-01
 0.000000e+00 0.000000e+00 0.000000e+00 0.000000e+00 0.000000e+00
<ENDHMM>
~h "sy"
<BEGINHMM>
<NUMSTATES> 5
<STATE> 2
<MEAN> 39
 -2.078447e+01 7.309049e-01 -4.294147e+00 -1.508443e+00 -6.735151e-01 1.535884e+00 1.625119e+00 1.354329e+00 1.457961e+00 1.315714e+00 2.160501e-01 8.326215e-02 5.349555e+01 -4.511619e-02 -5.369118e-02 6.298926e-04 -1.826096e-02 -2.679893e-02 -1.140073e-02 -2.751871e-02 -2.776107e-02 2.187615e-02 -1.814742e-02 -5.629515e-02 -6.850069e-02 1.185760e-02 1.851939e-02 1.176393e-02 8.777201e-03 1.006263e-02 1.161521e-02 6.576134e-03 -7.478242e-03 -1.165546e-02 -9.605620e-03 3.165702e-04 -4.656022e-03 -3.636849e-03 1.337447e-02
<VARIANCE> 39
 1.071548e+00 2.877271e+00 3.801706e+00 5.029381e+00 5.052120e+00 5.927946e+00 1.187345e+01 1.698378e+01 1.949503e+01 9.215968e+00 9.373795e+00 6.015635e+00 3.048182e+01 1.172608e-01 2.867120e-01 3.282465e-01 3.979063e-01 5.773612e-01 6.734794e-01 7.014839e-01 9.267883e-01 8.313910e-01 6.388419e-01 8.196709e-01 5.935894e-01 1.128839e-01 2.463133e-02 6.370074e-02 7.241432e-02 8.394679e-02 1.186776e-01 1.321784e-01 1.401061e-01 1.950178e-01 1.825428e-01 1.381864e-01 1.757093e-01 1.273997e-01 2.376227e-02
<GCONST> 5.622845e+01
<STATE> 3
<MEAN> 39
 -2.101715e+01 2.504090e-01 -4.441440e+00 -1.934697e+00 -7.727144e-01 2.476230e+00 1.437620e+00 1.152307e+00 1.673244e+00 1.919542e+00 -3.568291e-01 -4.751551e-01 5.359420e+01 9.388904e-02 3.734311e-02 -2.985298e-02 6.969988e-02 -1.271775e-01 -2.602284e-01 -1.204724e-01 -5.571500e-01 -5.995358e-01 -4.010334e-02 -4.140165e-02 -1.372435e-02 1.284864e-01 1.563002e-01 -8.403515e-02 9.476028e-02 5.822772e-02 -1.091473e-02 -2.276726e-01 9.270027e-02 -2.219159e-01 -2.988134e-01 -3.762103e-03 1.635632e-01 -7.359932e-02 2.829141e-01
<VARIANCE> 39
 1.040463e+00 1.976532e+00 4.036345e+00 4.477996e+00 4.822957e+00 5.011281e+00 1.099575e+01 1.935894e+01 1.808199e+01 7.511651e+00 7.004571e+00 4.376012e+00 2.911810e+01 1.439710e-01 2.626589e-01 2.163789e-01 3.282251e-01 4.127748e-01 6.400755e-01 9.365717e-01 1.034513e+00 2.009372e+00 3.649253e-01 3.783024e-01 4.418803e-01 3.990449e-01 8.696796e-02 1.337617e-01 8.915964e-02 4.751818e-02 1.099892e-01 1.227056e-01 2.367431e-01 2.225190e-01 3.240683e-01 1.347717e-01 9.337726e-02 1.000694e-01 2.367027e-01
<GCONST> 5.883209e+01
<STATE> 4
<MEAN> 39
 -1.476838e+01 3.141237e-01 -5.056196e+00 -4.006598e+00 -1.436776e+00 -5.693008e-01 6.272334e+00 1.256544e+00 -1.468402e+00 4.397285e+00 1.745490e+00 -8.495545e-02 6.325897e+01 6.216720e-01 -1.185637e-01 9.957614e-02 -5.370492e-02 -2.245585e-01 -2.925186e-01 2.316602e-01 -5.001312e-01 -4.101245e-01 9.694067e-02 -1.139563e-02 -1.381753e-01 8.026380e-01 6.765202e-02 -7.955745e-02 7.456587e-02 -5.220432e-02 -2.728687e-02 9.521082e-03 -1.815223e-02 6.921463e-02 4.754086e-02 -2.944412e-02 2.232394e-02 -3.618596e-02 1.250209e-01
<VARIANCE> 39
 5.591867e+01 1.168585e+01 6.611311e+00 1.099401e+01 9.541416e+00 1.584567e+01 2.453325e+01 2.811819e+01 6.352256e+01 1.456027e+01 1.476056e+01 6.147127e+00 9.293780e+01 4.328058e+00 1.601696e+00 7.194704e-01 9.335682e-01 1.400824e+00 1.488100e+00 2.532131e+00 2.764801e+00 4.651428e+00 1.491692e+00 1.209987e+00 7.887332e-01 6.542861e+00 4.319240e-01 2.409207e-01 1.751805e-01 1.219331e-01 2.155395e-01 2.093432e-01 3.485471e-01 5.025997e-01 4.365398e-01 2.599842e-01 1.521839e-01 1.436079e-01 6.080371e-01
<GCONST> 1.004115e+02
<TRANSP> 5
 0.000000e+00 1.000000e+00 0.000000e+00 0.000000e+00 0.000000e+00
 0.000000e+00 9.556583e-01 4.434167e-02 0.000000e+00 0.000000e+00
 0.000000e+00 0.000000e+00 2.993841e-01 7.006159e-01 0.000000e+00
 0.000000e+00 0.000000e+00 0.000000e+00 7.371456e-01 2.628544e-01
 0.000000e+00 0.000000e+00 0.000000e+00 0.000000e+00 0.000000e+00
<ENDHMM>
~h "sil"
<BEGINHMM>
<NUMSTATES> 5
<STATE> 2
<MEAN> 39
 -2.079973e+01 1.681153e+00 -6.640466e+00 1.324707e+00 -3.224287e+00 3.533575e+00 -2.769426e+00 1.491855e+00 -2.325977e+00 5.484042e-01 -4.577409e-01 -7.590827e-02 3.189512e+01 4.087114e-02 -2.486446e-02 9.487655e-03 -3.617148e-02 4.071679e-02 -7.982180e-03 3.180362e-02 -1.163297e-02 1.598453e-02 1.565466e-02 -3.728688e-03 1.574168e-02 5.148968e-02 3.535021e-03 7.635806e-03 8.141995e-03 4.653439e-03 5.905890e-03 3.094873e-03 -4.863841e-04 -3.370449e-03 -1.197390e-04 3.225156e-03 5.873609e-03 1.958947e-03 2.835923e-02
<VARIANCE> 39
 1.339330e+02 3.491985e+00 2.232289e+01 7.528461e+00 1.507758e+01 9.137490e+00 1.646610e+01 1.273793e+01 7.792942e+00 6.200634e+00 4.959600e+00 4.669889e+00 3.188484e+02 1.954060e-01 1.279346e-01 1.837039e-01 2.284488e-01 2.980851e-01 3.706928e-01 4.350228e-01 4.633735e-01 4.973921e-01 5.171918e-01 4.601335e-01 4.404418e-01 2.152562e-01 3.185846e-02 2.365006e-02 3.228119e-02 4.516810e-02 5.693534e-02 7.134613e-02 8.762719e-02 9.174338e-02 1.010772e-01 1.039224e-01 8.953886e-02 8.797624e-02 2.181818e-02
<GCONST> 5.357617e+01
<STATE> 3
<MEAN> 39
 -1.385715e+01 1.156653e+00 -2.536512e+00 2.613502e-01 -5.292920e-01 1.590649e+00 3.124151e-01 1.078374e+00 2.981716e-01 8.106909e-01 1.921355e-01 1.699374e-01 2.515199e+01 -2.347481e+00 1.799145e-01 -3.019459e-01 5.965786e-02 1.241848e-03 2.628852e-01 2.937310e-01 3.989611e-01 3.861263e-01 3.208705e-01 1.606335e-01 5.168720e-02 3.825698e+00 -5.102562e-02 4.061599e-04 -4.000171e-03 -1.947589e-02 3.685005e-02 2.615242e-02 9.415629e-02 4.051758e-02 8.003765e-02 2.972538e-02 1.865088e-02 -9.692841e-03 6.846833e-01
<VARIANCE> 39
 1.132955e+02 3.529384e+00 1.047324e+01 5.092499e+00 6.354838e+00 7.133605e+00 8.978705e+00 9.273393e+00 1.095542e+01 5.927022e+00 5.037332e+00 4.474238e+00 4.717091e+02 8.182734e+00 2.777252e-01 4.668095e-01 3.855359e-01 4.316953e-01 4.856941e-01 6.631162e-01 7.599080e-01 7.262362e-01 5.676990e-01 5.012779e-01 4.462450e-01 1.765018e+01 1.784147e+00 5.039874e-02 9.292442e-02 7.980718e-02 9.164425e-02 1.070732e-01 1.381194e-01 1.393880e-01 1.424107e-01 1.174787e-01 1.084773e-01 9.681723e-02 2.102844e+00
<GCONST> 7.688092e+01
<STATE> 4
<MEAN> 39
 -2.079688e+01 1.115078e+00 -3.538228e+00 -1.084154e+00 -2.422304e-01 1.711944e+00 3.146092e+00 3.461417e+00 3.390618e+00 1.793175e+00 6.759807e-01 -5.488775e-01 5.604868e+01 1.339954e-02 -1.677186e-02 -2.032693e-03 -2.490729e-02 1.503389e-03 -1.940555e-02 5.105932e-03 -2.130042e-02 -6.311486e-03 -1.404111e-02 -6.854162e-04 -6.101491e-03 1.635231e-01 1.066300e-02 -2.080358e-03 3.214183e-03 1.191638e-03 -1.575429e-03 -3.613781e-03 -5.859856e-03 -9.375793e-03 -1.119823e-02 -4.596123e-03 1.135662e-03 1.329069e-03 -3.513670e-02
<VARIANCE> 39
 1.465244e+00 2.057383e+00 3.994169e+00 5.009662e+00 5.633385e+00 6.410521e+00 9.900935e+00 1.534490e+01 1.456040e+01 8.092001e+00 7.011057e+00 6.732990e+00 2.857120e+01 1.132730e-01 1.547618e-01 2.744372e-01 4.155965e-01 5.071388e-01 5.943859e-01 7.397070e-01 9.229949e-01 9.123678e-01 7.730708e-01 7.142632e-01 6.935078e-01 6.859817e-01 3.656166e-02 3.159289e-02 5.351714e-02 8.273900e-02 1.037806e-01 1.246677e-01 1.502639e-01 1.891317e-01 1.896499e-01 1.621568e-01 1.498466e-01 1.421585e-01 5.655301e-02
<GCONST> 5.684385e+01
<TRANSP> 5
 0.000000e+00 1.000000e+00 0.000000e+00 0.000000e+00 0.000000e+00
 0.000000e+00 9.447234e-01 5.527655e-02 0.000000e+00 0.000000e+00
 0.000000e+00 0.000000e+00 6.472979e-01 3.527022e-01 0.000000e+00
 0.000000e+00 0.000000e+00 0.000000e+00 9.798772e-01 2.012277e-02
 0.000000e+00 0.000000e+00 0.000000e+00 0.000000e+00 0.000000e+00
<ENDHMM>
